~o
<STREAMINFO> 1 39
<VECSIZE> 39<NULLD><MFCC_D_A_0><DIAGC>
~v "varFloor1"
<VARIANCE> 39
 6.753474e+00 3.412362e+00 5.607597e+00 4.796462e+00 3.472081e+00 4.011722e+00 4.412065e+00 3.618229e+00 3.682593e+00 3.039560e+00 2.639483e+00 2.510356e+00 1.295583e+01 2.277723e-01 1.546074e-01 2.184501e-01 2.118108e-01 1.813343e-01 2.097883e-01 2.257618e-01 2.166374e-01 2.009357e-01 1.748309e-01 1.664689e-01 1.534765e-01 2.729284e-01 3.005151e-02 2.352162e-02 2.950290e-02 3.333734e-02 2.970534e-02 3.528604e-02 3.796648e-02 3.764385e-02 3.477007e-02 3.067227e-02 2.924742e-02 2.697526e-02 3.680371e-02
~s "silst"
<NUMMIXES> 2
<MIXTURE> 1 4.853089e-01
<MEAN> 39
 -2.421534e+01 5.497761e+00 -9.697442e-02 3.961718e+00 -1.865723e+00 -1.517567e+00 -2.917280e+00 -6.583399e-02 -6.124358e-01 2.099447e+00 1.570558e+00 2.888278e+00 4.865869e+01 -1.017098e-02 2.475980e-01 3.688720e-01 3.649411e-01 3.897560e-01 4.157713e-01 3.587461e-01 3.283170e-01 4.419465e-01 5.759431e-01 5.554143e-01 4.129988e-01 -3.328334e-02 1.634948e-01 -1.426793e-02 8.680028e-02 1.120208e-01 1.221897e-01 1.446206e-01 2.061469e-01 1.866199e-01 8.991019e-02 6.105456e-02 -2.736390e-02 1.359554e-02 2.071518e-01
<VARIANCE> 39
 3.186721e+01 3.113704e+01 3.930781e+01 5.293603e+01 7.046164e+01 9.100179e+01 1.071882e+02 1.083952e+02 1.003913e+02 9.401178e+01 9.188210e+01 8.206426e+01 1.573438e+01 1.374384e+00 1.960334e+00 3.178147e+00 4.415762e+00 5.609262e+00 6.909189e+00 8.298307e+00 9.045774e+00 9.213064e+00 9.180031e+00 8.995602e+00 8.249028e+00 6.897388e-01 2.854484e-01 4.339175e-01 6.725670e-01 9.232278e-01 1.173710e+00 1.446234e+00 1.698275e+00 1.862498e+00 1.875780e+00 1.874343e+00 1.846643e+00 1.674792e+00 1.912871e-01
<GCONST> 1.450096e+02
<MIXTURE> 2 5.146011e-01
<MEAN> 39
 -2.616737e+01 4.173923e+00 -1.799701e+00 1.622086e+00 -4.536092e+00 -4.399750e+00 -6.105628e+00 -2.857608e+00 -2.616548e+00 7.262441e-01 8.168377e-01 2.244878e+00 4.744794e+01 -3.833700e-01 -2.226611e-01 -2.466118e-01 -3.984127e-01 -4.786787e-01 -5.224575e-01 -6.376398e-01 -6.413316e-01 -4.919666e-01 -3.523580e-01 -3.282317e-01 -2.809424e-01 -2.178191e-01 4.446207e-02 -1.082936e-01 -3.886114e-02 -3.774210e-02 -3.821556e-02 -4.683329e-02 -7.442087e-03 -7.977188e-04 -6.877799e-02 -7.652870e-02 -1.205389e-01 -6.973162e-02 1.306620e-01
<VARIANCE> 39
 2.366868e+01 2.563745e+01 3.320205e+01 4.406536e+01 6.168122e+01 8.109895e+01 9.606149e+01 9.774598e+01 9.200794e+01 8.668884e+01 8.397361e+01 7.617252e+01 1.295583e+01 1.197837e+00 1.861483e+00 3.017664e+00 4.179924e+00 5.429175e+00 6.684202e+00 7.992754e+00 8.814025e+00 8.833250e+00 8.775731e+00 8.611023e+00 7.787509e+00 6.110291e-01 2.359910e-01 4.063061e-01 6.315551e-01 8.722771e-01 1.126056e+00 1.370519e+00 1.611906e+00 1.772912e+00 1.802783e+00 1.793381e+00 1.764847e+00 1.591235e+00 1.618140e-01
<GCONST> 1.415224e+02
~h "f"
<BEGINHMM>
<NUMSTATES> 5
<STATE> 2
<NUMMIXES> 2
<MIXTURE> 1 5.126479e-01
<MEAN> 39
 -3.165405e+01 -1.327502e+01 3.251684e-02 4.014060e+00 -1.409339e+00 5.419887e-01 -5.624696e+00 1.707624e+00 -4.063383e+00 4.585487e+00 -3.006790e+00 3.130108e+00 9.126725e+01 -1.231367e+00 -9.988578e-01 -6.425720e-01 -4.656667e-02 1.040913e-01 4.790864e-01 3.811741e-02 2.532619e-01 4.070601e-01 5.418219e-01 5.349715e-01 3.509987e-01 8.399467e-01 1.581599e+00 5.114587e-01 3.671623e-01 -1.571379e-01 2.596490e-01 1.895008e-01 4.192812e-01 8.882569e-02 6.646390e-02 2.079151e-01 5.657354e-02 7.804883e-02 7.075408e-01
<VARIANCE> 39
 1.571739e+02 1.186997e+02 9.024278e+01 9.084320e+01 1.076524e+02 1.204693e+02 1.325267e+02 1.297271e+02 1.302189e+02 1.222055e+02 1.154022e+02 1.052948e+02 3.311639e+02 2.025908e+01 9.944233e+00 9.290807e+00 1.283593e+01 1.103988e+01 1.196186e+01 1.293020e+01 1.296804e+01 1.300433e+01 1.230696e+01 1.177173e+01 1.084137e+01 2.111431e+01 3.567446e+00 2.096274e+00 2.008209e+00 2.758321e+00 2.370642e+00 2.597774e+00 2.889678e+00 2.827211e+00 2.967343e+00 2.711284e+00 2.577569e+00 2.250197e+00 3.184960e+00
<GCONST> 1.803382e+02
<MIXTURE> 2 4.873110e-01
<MEAN> 39
 -3.293298e+01 -1.498456e+01 -9.135185e-01 3.191208e+00 -2.484488e+00 -8.138603e-01 -7.210051e+00 2.940488e-02 -5.430301e+00 3.410063e+00 -3.959146e+00 2.307000e+00 9.091979e+01 -2.591127e+00 -2.026022e+00 -1.707421e+00 -1.144706e+00 -1.378034e+00 -1.007403e+00 -1.718057e+00 -1.197518e+00 -1.057106e+00 -8.374856e-01 -7.366657e-01 -6.322194e-01 5.008765e-01 1.363463e+00 4.417180e-01 2.023190e-01 -2.970564e-01 3.782374e-02 -5.437779e-02 1.921647e-01 -1.402714e-01 -1.690874e-01 -1.958951e-02 -9.778270e-02 3.213942e-03 4.761751e-01
<VARIANCE> 39
 1.326730e+02 1.114005e+02 9.373224e+01 9.855360e+01 1.117998e+02 1.241557e+02 1.355074e+02 1.331449e+02 1.337393e+02 1.223643e+02 1.176834e+02 1.063708e+02 3.015983e+02 2.327577e+01 1.168152e+01 1.114513e+01 1.359038e+01 1.250307e+01 1.291539e+01 1.388109e+01 1.323917e+01 1.335783e+01 1.252112e+01 1.197255e+01 1.127271e+01 1.911948e+01 3.416971e+00 2.064348e+00 2.155064e+00 3.078034e+00 2.462570e+00 2.794245e+00 2.983066e+00 3.082000e+00 3.084167e+00 2.810874e+00 2.664546e+00 2.432956e+00 2.848021e+00
<GCONST> 1.815625e+02
<STATE> 3
<NUMMIXES> 2
<MIXTURE> 1 5.013124e-01
<MEAN> 39
 -2.680463e+01 -1.642204e+01 -2.439772e+00 7.950107e-01 -1.404913e+00 4.946666e-01 -6.243330e+00 -8.117276e-02 -4.720942e+00 4.644923e+00 -3.326731e+00 3.499961e+00 1.029399e+02 1.220925e+01 3.212211e+00 1.256032e+00 -3.863695e+00 7.610027e-01 1.592956e+00 2.557198e+00 8.060674e-01 1.084480e+00 2.048261e+00 6.835029e-01 3.351728e-01 5.702809e+00 3.557185e+00 9.781987e-01 5.597367e-01 -2.683432e+00 -6.297417e-01 2.504866e-01 5.828816e-01 3.785426e-01 -4.260135e-02 7.377108e-01 1.150854e-01 -1.459171e-01 1.119952e+00
<VARIANCE> 39
 1.313960e+02 6.871645e+01 6.359572e+01 7.189372e+01 8.976139e+01 9.904528e+01 1.028334e+02 1.038283e+02 1.117982e+02 1.075048e+02 9.890352e+01 9.021994e+01 1.953941e+02 3.282876e+01 2.054522e+01 1.199377e+01 2.469170e+01 1.586366e+01 1.361584e+01 1.538342e+01 1.585857e+01 2.105955e+01 1.815733e+01 2.080770e+01 1.352063e+01 3.450390e+01 3.332064e+00 4.862313e+00 2.967459e+00 3.824615e+00 4.279358e+00 3.489252e+00 3.949768e+00 3.689330e+00 4.535470e+00 3.894254e+00 4.645694e+00 3.332876e+00 4.654810e+00
<GCONST> 1.872975e+02
<MIXTURE> 2 4.986734e-01
<MEAN> 39
 -2.933864e+01 -1.819602e+01 -4.542698e+00 -1.033664e+00 -3.904556e+00 -1.587860e+00 -8.866943e+00 -2.795712e+00 -7.996346e+00 2.301275e+00 -5.034768e+00 2.177129e+00 1.009378e+02 1.022001e+01 2.312093e+00 6.939332e-01 -3.651800e+00 -5.465839e-01 3.909673e-01 1.103656e+00 4.304320e-02 -2.309762e-01 4.305702e-01 -1.590476e-01 -7.354970e-01 5.600633e+00 3.764277e+00 1.303172e+00 8.282706e-01 -2.218117e+00 -6.732029e-01 2.997193e-01 5.874952e-01 5.565759e-01 1.533923e-02 6.359337e-01 2.671997e-01 -3.830284e-01 9.809172e-01
<VARIANCE> 39
 1.370906e+02 6.871467e+01 6.214264e+01 7.206999e+01 8.402090e+01 9.584611e+01 1.022361e+02 1.034127e+02 1.092081e+02 1.037979e+02 9.850319e+01 8.764322e+01 2.019056e+02 3.714155e+01 2.002651e+01 1.232976e+01 1.987231e+01 1.541604e+01 1.312820e+01 1.400932e+01 1.578726e+01 1.787348e+01 1.647285e+01 1.881028e+01 1.238125e+01 3.385891e+01 2.907098e+00 4.068362e+00 2.892637e+00 3.734201e+00 4.254737e+00 3.295411e+00 3.702225e+00 3.661572e+00 4.415013e+00 3.780530e+00 4.464134e+00 3.214302e+00 4.657271e+00
<GCONST> 1.857961e+02
<STATE> 4
<NUMMIXES> 2
<MIXTURE> 1 4.977439e-01
<MEAN> 39
 1.693789e+01 -1.049899e+01 -5.382523e-01 -1.976801e+01 -1.522875e-01 4.746217e+00 1.316736e+00 3.598635e-01 -6.602991e-01 1.325339e+01 -8.052092e-01 5.399462e-01 1.231676e+02 1.185642e+01 -7.870400e-01 1.381606e-01 -9.424081e+00 2.376285e-01 2.030909e+00 2.628058e+00 1.162386e+00 1.335913e+00 3.364541e+00 8.693924e-01 8.858819e-02 9.100499e+00 -3.225737e+00 -9.269222e-01 -1.318843e-01 3.363646e-01 -9.554769e-02 5.958386e-02 -4.117247e-01 3.904299e-01 -1.297167e-01 -4.088687e-01 -2.880723e-01 2.039106e-01 -1.041348e+00
<VARIANCE> 39
 2.131649e+02 2.620712e+02 1.374334e+02 4.197835e+02 2.151579e+02 1.857990e+02 1.823948e+02 1.949919e+02 3.597029e+02 2.540224e+02 3.523686e+02 1.745007e+02 4.111085e+02 5.183249e+01 5.029287e+01 2.586670e+01 3.427369e+01 3.763784e+01 2.424164e+01 2.777363e+01 2.725356e+01 4.142122e+01 2.994567e+01 4.098748e+01 2.633549e+01 2.680873e+01 4.714289e+00 2.753749e+00 1.930612e+00 7.221059e+00 3.191158e+00 2.911911e+00 3.051643e+00 2.909415e+00 5.044589e+00 4.071769e+00 4.387341e+00 3.117281e+00 5.355624e+00
<GCONST> 2.055362e+02
<MIXTURE> 2 5.022337e-01
<MEAN> 39
 1.888187e+01 -1.278271e+01 -1.623777e+00 -2.294592e+01 -3.576174e+00 5.421185e+00 -1.374254e-01 -3.488517e-02 -3.615640e+00 1.506842e+01 4.710368e+00 -2.171203e+00 1.283536e+02 9.968557e+00 -1.399289e+00 -1.751476e-01 -8.819889e+00 -1.612613e+00 1.538281e+00 1.176279e+00 8.393629e-01 -1.018429e-01 1.950711e+00 1.250103e+00 -2.008894e+00 8.518453e+00 -3.610786e+00 -7.917889e-01 -1.604119e-01 8.182574e-01 -1.459847e-01 -2.324733e-01 -5.538775e-01 1.909720e-01 3.175282e-02 -8.649638e-01 -9.970052e-01 -1.150228e-01 -1.406616e+00
<VARIANCE> 39
 1.905199e+02 2.695536e+02 1.647653e+02 4.358264e+02 2.568987e+02 2.076659e+02 2.118265e+02 2.394546e+02 4.140908e+02 3.175528e+02 4.784817e+02 2.053532e+02 4.149026e+02 5.686614e+01 4.716713e+01 2.841482e+01 3.251640e+01 3.781293e+01 2.408592e+01 2.568302e+01 2.780649e+01 3.732426e+01 2.838797e+01 4.246042e+01 2.433196e+01 2.205203e+01 4.789399e+00 2.512261e+00 2.098974e+00 7.010943e+00 3.888721e+00 2.868037e+00 3.481493e+00 3.129557e+00 5.771884e+00 4.587200e+00 5.487525e+00 3.193615e+00 5.052395e+00
<GCONST> 2.075785e+02
<TRANSP> 5
 0.000000e+00 1.000000e+00 0.000000e+00 0.000000e+00 0.000000e+00
 0.000000e+00 8.605862e-01 1.394138e-01 0.000000e+00 0.000000e+00
 0.000000e+00 0.000000e+00 6.253492e-01 3.746509e-01 0.000000e+00
 0.000000e+00 0.000000e+00 0.000000e+00 5.359794e-01 4.640206e-01
 0.000000e+00 0.000000e+00 0.000000e+00 0.000000e+00 0.000000e+00
<ENDHMM>
~h "k"
<BEGINHMM>
<NUMSTATES> 5
<STATE> 2
<NUMMIXES> 2
<MIXTURE> 1 4.929399e-01
<MEAN> 39
 -5.668805e+00 9.322255e+00 2.975904e+01 2.704042e+01 -2.885130e+00 -1.606112e+01 4.181708e+00 -8.568391e-01 -1.825007e+01 -4.244111e-01 4.267999e-01 3.067812e+00 7.592187e+01 -5.026640e+00 3.732521e+00 -8.617378e+00 3.567197e-01 4.328665e+00 7.187025e+00 -2.070538e+00 1.062602e+00 4.792655e+00 -1.384146e+00 8.544172e-01 -6.727856e-01 -1.359245e+01 -3.796622e-01 -2.854325e+00 -1.309530e+00 -3.105815e+00 -7.405285e-01 -7.301757e-01 -1.299080e+00 8.499324e-03 1.106719e+00 8.992686e-01 -2.905471e-01 5.925114e-01 4.058166e+00
<VARIANCE> 39
 1.368623e+02 2.026919e+02 2.956023e+02 2.152114e+02 3.295646e+02 3.871987e+02 4.150460e+02 5.476746e+02 3.534005e+02 2.919474e+02 2.097352e+02 1.698239e+02 3.838665e+02 1.153018e+01 4.097940e+01 2.468268e+01 4.328903e+01 3.063809e+01 3.733205e+01 5.638305e+01 7.101669e+01 5.374993e+01 3.539320e+01 2.429295e+01 2.417902e+01 5.815441e+01 3.464969e+00 5.646058e+00 5.796290e+00 4.827429e+00 5.286407e+00 7.949683e+00 9.021716e+00 8.833507e+00 7.487662e+00 5.706274e+00 4.841868e+00 4.273253e+00 1.199649e+01
<GCONST> 2.151840e+02
<MIXTURE> 2 5.070376e-01
<MEAN> 39
 -8.229228e+00 1.099973e+01 2.578420e+01 2.509385e+01 -1.395381e+00 -1.327175e+01 -6.631347e-01 -4.387215e+00 -1.813641e+01 -3.860059e+00 -2.179432e+00 1.622708e+00 7.018481e+01 -6.395872e+00 1.228800e+00 -1.087074e+01 -2.333987e+00 2.789969e+00 4.570441e+00 -5.338171e+00 -6.600633e-01 2.628420e+00 -2.806731e+00 -7.111936e-01 -1.273460e+00 -1.239447e+01 -1.979645e-01 -3.331372e+00 -9.035842e-01 -3.031094e+00 -1.256156e+00 -1.374656e+00 -6.624780e-01 1.109806e-01 8.923825e-01 1.128545e+00 -1.471826e-01 6.489072e-01 5.229374e+00
<VARIANCE> 39
 1.178159e+02 2.134877e+02 2.331513e+02 1.785802e+02 2.997173e+02 3.612767e+02 3.648907e+02 4.315357e+02 3.042133e+02 2.512033e+02 1.955680e+02 1.530537e+02 2.964901e+02 9.275352e+00 4.434447e+01 2.206646e+01 3.951095e+01 2.898447e+01 3.686578e+01 5.211632e+01 7.450842e+01 5.195368e+01 3.414463e+01 2.205967e+01 2.172620e+01 6.080548e+01 3.250360e+00 6.071972e+00 4.970944e+00 4.411317e+00 5.390270e+00 8.001842e+00 8.751015e+00 8.741301e+00 7.989402e+00 5.608544e+00 4.590132e+00 4.314644e+00 1.224147e+01
<GCONST> 2.125030e+02
<STATE> 3
<NUMMIXES> 2
<MIXTURE> 1 4.986762e-01
<MEAN> 39
 -1.848720e+01 -5.161601e+00 -5.904775e+00 7.677297e+00 -6.408637e-01 -6.528782e+00 -9.686383e+00 -2.029265e+00 -4.409852e+00 1.863000e+00 -6.082991e-01 3.549567e+00 6.909641e+01 -1.023480e+00 -4.253250e+00 -4.828445e+00 -3.521274e-01 5.005399e-01 -5.992383e-01 -1.053409e+00 2.126153e+00 2.621907e+00 2.202410e+00 1.247594e-01 9.810764e-01 9.406866e+00 -7.095008e-01 7.907762e-01 1.849396e+00 1.186867e+00 -4.866800e-01 -1.083763e+00 7.978578e-01 4.488693e-01 -4.559055e-01 -5.655487e-02 -1.464765e-01 2.793804e-01 2.670097e+00
<VARIANCE> 39
 1.425399e+02 3.019813e+02 2.391844e+02 1.250640e+02 1.459516e+02 1.599568e+02 1.680723e+02 1.525772e+02 1.335116e+02 1.300941e+02 1.084303e+02 8.639529e+01 7.319344e+02 2.839528e+01 2.675803e+01 2.334571e+01 2.283735e+01 2.114650e+01 2.513343e+01 2.092589e+01 1.976729e+01 1.941968e+01 1.780991e+01 1.501307e+01 1.133779e+01 7.889930e+01 8.657477e+00 8.929795e+00 5.621849e+00 3.431586e+00 4.340803e+00 4.992486e+00 5.019171e+00 4.720398e+00 4.072094e+00 3.882395e+00 2.665447e+00 2.383790e+00 1.812989e+01
<GCONST> 1.999864e+02
<MIXTURE> 2 5.012985e-01
<MEAN> 39
 -1.935344e+01 -5.948111e+00 -4.892607e+00 6.944356e+00 2.503660e-01 -7.076593e+00 -1.004650e+01 -2.065895e+00 -5.062794e+00 1.659750e+00 -1.390208e+00 2.896473e+00 6.906020e+01 -2.096776e+00 -5.159279e+00 -5.938498e+00 -2.047042e+00 -3.165970e-01 -2.200232e+00 -3.236380e+00 1.058584e-01 9.429879e-01 4.947385e-01 -1.386256e+00 -1.621631e-02 8.554095e+00 -6.806768e-01 6.298808e-01 1.729103e+00 8.968863e-01 -8.035340e-01 -1.460366e+00 6.210091e-01 2.768112e-01 -6.104168e-01 -1.806298e-01 -2.881843e-01 1.453006e-01 2.851410e+00
<VARIANCE> 39
 1.409252e+02 3.161110e+02 2.264015e+02 1.325581e+02 1.538461e+02 1.653782e+02 1.796285e+02 1.636008e+02 1.355220e+02 1.238395e+02 1.159201e+02 8.755956e+01 6.985051e+02 3.088249e+01 2.814900e+01 2.691084e+01 2.638779e+01 2.153208e+01 2.679610e+01 2.086896e+01 2.077975e+01 2.011038e+01 1.701613e+01 1.473479e+01 1.152199e+01 7.815079e+01 8.574933e+00 8.705391e+00 5.392400e+00 3.513719e+00 4.491175e+00 5.345940e+00 5.244156e+00 4.902808e+00 4.403495e+00 3.935820e+00 2.823901e+00 2.522530e+00 1.794960e+01
<GCONST> 2.011006e+02
<STATE> 4
<NUMMIXES> 2
<MIXTURE> 1 4.923721e-01
<MEAN> 39
 -3.710852e+01 -1.070333e+01 -8.956013e+00 1.299872e+01 -3.563485e-01 -2.328920e+01 -1.473983e+01 6.404434e+00 6.424904e-01 2.798654e+00 -6.354692e+00 6.373091e+00 1.157698e+02 -1.094789e+01 4.900363e+00 2.139833e+00 5.243882e-01 -2.392398e+00 -2.130168e+00 2.866426e+00 3.401394e+00 1.268955e+00 -1.188796e+00 -3.927982e-01 1.868339e+00 4.713224e+00 1.358235e-02 2.194839e+00 1.242301e+00 -4.576741e-01 3.863126e-03 1.959813e+00 1.614759e+00 -1.295875e-01 -8.345451e-01 -3.052366e-01 5.893168e-01 -2.286239e-02 -4.327599e+00
<VARIANCE> 39
 3.584758e+02 1.205775e+02 1.997346e+02 1.994536e+02 3.779091e+02 2.579481e+02 2.075661e+02 1.954890e+02 1.768062e+02 1.638361e+02 1.604083e+02 1.243561e+02 1.343172e+02 2.176668e+01 1.623512e+01 1.524448e+01 1.626018e+01 2.202683e+01 2.431549e+01 1.680409e+01 1.599243e+01 2.000352e+01 1.458400e+01 1.347156e+01 1.363418e+01 3.271008e+01 7.633991e+00 3.736431e+00 3.912966e+00 3.113567e+00 3.804175e+00 3.996582e+00 3.595922e+00 3.970423e+00 3.857689e+00 3.533388e+00 2.904343e+00 2.433225e+00 4.214452e+00
<GCONST> 1.949889e+02
<MIXTURE> 2 5.076181e-01
<MEAN> 39
 -3.882829e+01 -1.204505e+01 -8.988725e+00 1.189151e+01 1.704698e+00 -2.415900e+01 -1.755676e+01 4.251908e+00 1.288948e+00 3.978470e+00 -7.313923e+00 4.846350e+00 1.122242e+02 -1.139301e+01 3.626190e+00 1.836758e+00 -4.391701e-01 -3.043810e+00 -3.452712e+00 1.571574e+00 2.477593e+00 5.256453e-01 -2.169535e+00 -1.603619e+00 7.023148e-01 3.743671e+00 6.671946e-02 1.799613e+00 6.891342e-01 -9.287391e-01 -5.220280e-01 1.651563e+00 1.340197e+00 -2.611027e-01 -1.022244e+00 -6.744035e-01 3.712331e-01 -3.967240e-02 -4.051156e+00
<VARIANCE> 39
 3.414084e+02 1.098616e+02 1.896591e+02 2.017525e+02 3.858602e+02 2.631092e+02 2.093710e+02 2.075577e+02 1.892879e+02 1.728725e+02 1.636049e+02 1.267664e+02 1.350970e+02 1.803360e+01 1.455328e+01 1.371546e+01 1.586187e+01 2.255068e+01 2.517070e+01 1.682677e+01 1.571054e+01 2.005918e+01 1.440247e+01 1.344886e+01 1.350010e+01 2.848899e+01 7.821842e+00 3.115883e+00 3.352127e+00 2.651842e+00 3.854468e+00 4.020997e+00 3.441400e+00 3.792707e+00 3.669293e+00 3.412898e+00 2.826419e+00 2.435226e+00 3.640782e+00
<GCONST> 1.937362e+02
<TRANSP> 5
 0.000000e+00 1.000000e+00 0.000000e+00 0.000000e+00 0.000000e+00
 0.000000e+00 6.720305e-01 3.279695e-01 0.000000e+00 0.000000e+00
 0.000000e+00 0.000000e+00 7.749538e-01 2.250462e-01 0.000000e+00
 0.000000e+00 0.000000e+00 0.000000e+00 5.226138e-01 4.773862e-01
 0.000000e+00 0.000000e+00 0.000000e+00 0.000000e+00 0.000000e+00
<ENDHMM>
~h "n"
<BEGINHMM>
<NUMSTATES> 5
<STATE> 2
<NUMMIXES> 2
<MIXTURE> 1 4.906617e-01
<MEAN> 39
 1.618712e+01 -3.485985e-01 3.534922e+01 6.362153e+00 -4.276054e+00 4.415553e+00 1.781231e+01 -3.020146e+00 -4.465244e+00 1.090486e+01 -4.574933e+00 1.072799e+01 1.115672e+02 1.572561e+00 3.746445e+00 2.352285e-01 4.413832e+00 4.433652e-01 1.781433e+00 2.578895e+00 -3.437831e+00 4.134418e-01 7.839639e-01 -1.228462e+00 9.348938e-01 -3.269569e+00 -4.255065e-01 -4.688505e-01 -6.463642e-01 -2.329057e-01 4.241255e-01 -1.676664e-01 -4.790032e-01 7.507054e-01 3.780462e-01 -3.055460e-01 2.541908e-01 -4.069275e-02 3.273793e-01
<VARIANCE> 39
 1.383326e+02 2.967994e+02 2.524269e+02 6.247975e+02 2.983909e+02 4.088735e+02 5.326452e+02 5.792795e+02 5.255967e+02 4.201346e+02 3.967888e+02 3.830495e+02 4.189548e+02 1.687176e+01 1.460351e+01 2.568956e+01 3.436747e+01 2.172275e+01 2.632996e+01 3.458952e+01 4.175547e+01 3.132411e+01 2.759766e+01 2.413315e+01 2.430859e+01 2.083970e+01 2.047406e+00 2.436569e+00 3.830237e+00 7.926330e+00 4.049604e+00 5.014679e+00 6.384375e+00 7.608693e+00 5.388886e+00 4.800329e+00 4.448756e+00 4.411200e+00 1.989527e+00
<GCONST> 2.098144e+02
<MIXTURE> 2 5.093135e-01
<MEAN> 39
 1.595978e+01 -2.594600e+00 3.485215e+01 8.379029e+00 -6.361659e+00 2.933986e+00 1.358371e+01 -3.362473e+00 -8.851183e+00 1.019185e+01 -8.687678e+00 6.235639e+00 1.126913e+02 4.933167e-01 2.949731e+00 -4.575852e-01 3.361435e+00 4.231275e-01 1.009054e+00 2.009453e+00 -2.608599e+00 -3.134078e-01 3.882886e-01 -2.068163e+00 -4.449751e-01 -3.454252e+00 -6.221899e-01 -5.607163e-01 -8.526757e-01 -4.201204e-01 4.028247e-01 -3.413683e-01 -7.473210e-01 9.154054e-01 4.454566e-01 -4.597013e-01 2.407359e-01 -1.783353e-01 1.911484e-01
<VARIANCE> 39
 1.185663e+02 2.889435e+02 2.459272e+02 6.075284e+02 3.099538e+02 4.012882e+02 5.262958e+02 5.884979e+02 5.444730e+02 4.688310e+02 4.597633e+02 4.098646e+02 3.868004e+02 1.293428e+01 1.447371e+01 2.067348e+01 3.132311e+01 2.003650e+01 2.432291e+01 3.206641e+01 3.762332e+01 2.930790e+01 2.628941e+01 2.271065e+01 2.266626e+01 1.536821e+01 2.278123e+00 2.536909e+00 3.845458e+00 7.765823e+00 4.044812e+00 5.086865e+00 6.855076e+00 7.646843e+00 5.706055e+00 4.729381e+00 4.842476e+00 4.653319e+00 2.022408e+00
<GCONST> 2.088242e+02
<STATE> 3
<NUMMIXES> 2
<MIXTURE> 1 5.202584e-01
<MEAN> 39
 1.981823e+01 8.194118e+00 3.511895e+01 1.949386e+01 -3.412564e+00 8.922473e+00 1.962299e+01 -9.906192e+00 -5.632224e-01 7.410822e+00 -8.270313e+00 1.305695e+01 1.033494e+02 -1.624223e+00 -1.797109e+00 -8.218451e-01 -1.798275e+00 2.537987e+00 -1.174607e+00 -1.792269e+00 4.494773e+00 9.900913e-01 -2.148194e-01 1.028463e+00 -2.009717e-01 1.930073e+00 -1.399277e+00 -1.410152e+00 -1.292634e+00 -1.618681e+00 6.052445e-01 -6.960767e-01 -1.232466e+00 1.807469e+00 2.302940e-01 2.692142e-02 5.608538e-01 -4.217030e-01 7.448652e-01
<VARIANCE> 39
 7.344972e+01 2.375881e+02 1.438694e+02 2.622984e+02 2.834676e+02 4.356143e+02 4.678039e+02 4.392655e+02 4.976728e+02 4.501642e+02 4.700699e+02 4.876353e+02 2.309110e+02 2.026488e+01 2.261745e+01 1.925298e+01 3.128390e+01 2.491650e+01 3.657571e+01 4.030073e+01 4.193488e+01 3.156402e+01 2.503949e+01 2.471042e+01 2.738542e+01 3.248551e+01 2.853424e+00 2.495492e+00 2.804969e+00 3.732246e+00 4.276809e+00 5.277188e+00 5.806025e+00 6.382115e+00 5.476928e+00 3.992230e+00 4.617658e+00 4.523921e+00 2.063369e+00
<GCONST> 2.073790e+02
<MIXTURE> 2 4.797175e-01
<MEAN> 39
 1.619012e+01 8.475005e+00 3.405764e+01 2.019301e+01 -1.891496e+00 7.782574e+00 1.770499e+01 -9.155322e+00 -3.130385e+00 6.707281e+00 -1.109432e+01 1.011274e+01 1.004271e+02 -3.776600e+00 -2.651008e+00 -2.804484e+00 -2.626385e+00 2.297712e+00 -1.856898e+00 -3.066109e+00 4.835447e+00 2.171867e-01 -8.497975e-01 3.580339e-01 -1.874279e+00 9.553670e-01 -1.692451e+00 -1.703246e+00 -1.778622e+00 -1.984341e+00 -9.173827e-02 -9.190745e-01 -1.505438e+00 1.282006e+00 1.718484e-01 -2.171511e-01 5.526069e-01 -4.169268e-01 6.895881e-01
<VARIANCE> 39
 8.804459e+01 2.329230e+02 1.374388e+02 2.724059e+02 2.797068e+02 4.004226e+02 4.139732e+02 4.326863e+02 4.435288e+02 4.500460e+02 4.468188e+02 4.435300e+02 2.716514e+02 2.926563e+01 2.470068e+01 2.390851e+01 3.275942e+01 2.779836e+01 3.963723e+01 4.197174e+01 4.525016e+01 3.880170e+01 3.118902e+01 3.257023e+01 3.528405e+01 4.327723e+01 3.286890e+00 2.660840e+00 2.874494e+00 3.633355e+00 5.177712e+00 5.600008e+00 5.563900e+00 7.473070e+00 5.622983e+00 4.334197e+00 4.736282e+00 5.105079e+00 2.545359e+00
<GCONST> 2.105000e+02
<STATE> 4
<NUMMIXES> 2
<MIXTURE> 1 5.113380e-01
<MEAN> 39
 4.297506e+00 -6.190563e+00 2.051495e+01 8.540277e+00 6.131204e+00 -7.383351e-01 8.497041e+00 1.436099e+01 2.036362e+00 5.114121e+00 -6.734365e+00 5.852442e+00 1.010770e+02 -2.387832e+00 -2.689502e+00 -3.978421e+00 -3.361911e+00 1.000172e+00 -4.526911e-01 -2.479479e+00 3.516470e+00 1.517781e+00 -2.952296e-01 1.439799e+00 -6.707780e-01 8.981889e-01 3.023486e-01 4.329933e-01 -5.932152e-03 4.594042e-01 -4.209694e-01 5.928178e-01 3.466535e-01 -1.207626e+00 -7.549383e-02 1.253451e-01 1.094413e-01 9.473255e-02 -2.140703e-01
<VARIANCE> 39
 2.037432e+02 2.826663e+02 2.375952e+02 4.870134e+02 2.596158e+02 3.748977e+02 5.721642e+02 4.063608e+02 3.434992e+02 3.889606e+02 2.891888e+02 2.925463e+02 8.615331e+02 1.648800e+01 2.359976e+01 1.886911e+01 2.980568e+01 2.414921e+01 2.554274e+01 3.087025e+01 3.883363e+01 3.336004e+01 2.381928e+01 2.473149e+01 2.255463e+01 2.776176e+01 1.504160e+00 2.591084e+00 2.792253e+00 4.970527e+00 3.617897e+00 5.868251e+00 6.277006e+00 5.914945e+00 4.465361e+00 3.787000e+00 3.635367e+00 3.466362e+00 2.689245e+00
<GCONST> 2.071936e+02
<MIXTURE> 2 4.886220e-01
<MEAN> 39
 -3.671042e+00 -2.106539e+00 1.733530e+01 1.321322e+01 4.593580e+00 2.682434e+00 1.060166e+01 1.149066e+01 6.664724e-01 2.709093e+00 -7.119893e+00 3.690047e+00 8.866403e+01 -5.252820e+00 -3.144174e+00 -5.644066e+00 -4.138837e+00 -1.178596e+00 -2.481189e+00 -3.996072e+00 1.349028e+00 -1.867795e-01 -1.336667e+00 4.574347e-01 -1.717316e+00 -1.330360e+00 2.881622e-01 1.438190e-01 -1.107216e-01 -1.904393e-01 -8.668809e-01 -1.444200e-01 -2.519836e-01 -1.402822e+00 -3.365764e-01 -1.201331e-01 -1.269751e-01 2.314544e-01 2.438187e-01
<VARIANCE> 39
 1.607332e+02 2.278058e+02 2.152773e+02 3.498501e+02 2.398073e+02 3.392576e+02 4.399355e+02 3.579411e+02 3.105187e+02 3.537224e+02 2.575987e+02 2.379427e+02 5.808510e+02 2.709957e+01 1.848910e+01 1.879340e+01 2.255838e+01 2.250483e+01 2.506167e+01 2.795001e+01 3.753568e+01 3.263783e+01 2.433121e+01 2.660973e+01 2.444963e+01 2.446136e+01 1.817960e+00 2.984405e+00 2.889881e+00 4.540366e+00 4.056642e+00 5.560119e+00 5.705416e+00 5.105987e+00 4.597807e+00 4.184525e+00 4.043132e+00 4.015951e+00 3.100440e+00
<GCONST> 2.052214e+02
<TRANSP> 5
 0.000000e+00 1.000000e+00 0.000000e+00 0.000000e+00 0.000000e+00
 0.000000e+00 6.543908e-01 3.456092e-01 0.000000e+00 0.000000e+00
 0.000000e+00 0.000000e+00 5.908668e-01 4.091332e-01 0.000000e+00
 0.000000e+00 0.000000e+00 0.000000e+00 6.218816e-01 3.781184e-01
 0.000000e+00 0.000000e+00 0.000000e+00 0.000000e+00 0.000000e+00
<ENDHMM>
~h "r"
<BEGINHMM>
<NUMSTATES> 5
<STATE> 2
<NUMMIXES> 2
<MIXTURE> 1 5.039957e-01
<MEAN> 39
 3.739479e+01 -1.712122e+01 -6.832932e+00 3.028513e+00 2.599527e+01 -2.317919e+01 -2.962888e+01 3.151734e+00 -7.142234e+00 6.138266e+00 2.357386e+00 8.881734e+00 1.266124e+02 6.652466e-01 -5.514910e-01 -1.999815e+00 -1.779145e-02 1.206426e+00 -8.849914e-01 -9.538727e-01 8.568138e-01 1.552661e+00 8.502405e-01 3.643857e-01 3.860656e-01 -2.908248e-02 -1.035453e+00 -6.538074e-02 1.741245e+00 9.553403e-03 -1.639776e+00 -1.343534e-01 1.491585e+00 5.906417e-01 -4.020200e-01 -1.417070e-01 8.565426e-02 7.136929e-02 1.821650e-01
<VARIANCE> 39
 6.432648e+01 1.822847e+02 4.663611e+02 3.089868e+02 3.910291e+02 8.755701e+02 9.975203e+02 4.152545e+02 3.235593e+02 3.722496e+02 2.616422e+02 2.093484e+02 1.719735e+02 5.538706e+00 7.758476e+00 2.350826e+01 1.742450e+01 1.927772e+01 2.768274e+01 2.141988e+01 2.245372e+01 1.863116e+01 1.561083e+01 1.416245e+01 1.310186e+01 6.174320e+00 1.073750e+00 1.175798e+00 1.810719e+00 1.967496e+00 2.541800e+00 4.152019e+00 3.397441e+00 3.298271e+00 2.790616e+00 2.674159e+00 2.447396e+00 2.241863e+00 6.820576e-01
<GCONST> 1.909140e+02
<MIXTURE> 2 4.959650e-01
<MEAN> 39
 3.589365e+01 -1.856942e+01 -4.416568e+00 2.485690e+00 2.510545e+01 -1.975258e+01 -3.319518e+01 1.996167e+00 -8.849869e+00 4.159892e+00 1.770604e+00 6.371730e+00 1.263869e+02 5.122870e-01 -9.179850e-01 -1.568517e+00 8.585030e-02 1.135144e+00 -1.377013e+00 -1.659055e+00 8.273463e-01 1.322556e+00 5.325316e-01 -1.648501e-01 -2.189175e-01 1.394898e-01 -1.102571e+00 -5.873725e-02 1.679513e+00 -3.901094e-03 -1.768147e+00 -2.233548e-01 1.402820e+00 6.478789e-01 -4.022028e-01 -2.283448e-01 -3.194867e-02 -1.545897e-02 1.057703e-01
<VARIANCE> 39
 6.745384e+01 1.899977e+02 4.989393e+02 3.471687e+02 3.936607e+02 8.990153e+02 1.003217e+03 4.376348e+02 3.259698e+02 4.118851e+02 2.716199e+02 2.198562e+02 1.753220e+02 6.350821e+00 8.477904e+00 2.586950e+01 1.857809e+01 1.938955e+01 2.886253e+01 2.225969e+01 2.429849e+01 1.961150e+01 1.685006e+01 1.474907e+01 1.370920e+01 6.827033e+00 1.448294e+00 1.284158e+00 1.831641e+00 2.131870e+00 2.660235e+00 4.285378e+00 3.872768e+00 3.472169e+00 2.918691e+00 3.008371e+00 2.558616e+00 2.391620e+00 7.562795e-01
<GCONST> 1.934705e+02
<STATE> 3
<NUMMIXES> 2
<MIXTURE> 1 5.130235e-01
<MEAN> 39
 3.253097e+01 -2.399569e+01 5.990953e+00 9.124508e+00 1.802724e+01 -3.404782e+01 -2.557680e+01 1.597612e+01 -7.088780e+00 2.999201e+00 4.184470e-01 9.575931e+00 1.302407e+02 -3.360026e+00 -6.784993e-01 6.666746e+00 1.316394e+00 -5.549850e+00 -2.060188e+00 5.824436e+00 3.218185e+00 -2.140577e+00 -1.181221e+00 1.138541e+00 4.280537e-01 5.682023e-01 -1.103912e+00 1.189406e+00 1.100630e+00 -1.001188e+00 -1.047172e+00 2.438227e+00 1.924169e+00 -1.696007e+00 -9.499223e-01 7.051347e-01 3.293992e-01 -3.420443e-01 -5.660383e-01
<VARIANCE> 39
 6.712020e+01 1.804173e+02 5.455850e+02 3.638216e+02 4.045653e+02 7.870244e+02 1.036561e+03 3.987693e+02 3.908098e+02 4.768410e+02 2.834864e+02 2.507540e+02 1.770235e+02 6.926439e+00 9.497908e+00 2.806728e+01 2.532891e+01 2.549451e+01 3.499089e+01 3.186732e+01 3.124699e+01 3.497102e+01 2.772906e+01 2.201938e+01 1.675310e+01 1.046073e+01 1.804127e+00 1.866466e+00 2.460122e+00 2.273169e+00 3.913080e+00 5.492907e+00 5.076461e+00 4.632568e+00 3.899811e+00 3.775697e+00 2.898774e+00 3.196238e+00 7.448454e-01
<GCONST> 2.007313e+02
<MIXTURE> 2 4.869606e-01
<MEAN> 39
 3.041346e+01 -2.545700e+01 7.544217e+00 9.297122e+00 1.698367e+01 -3.272565e+01 -2.847016e+01 1.408598e+01 -8.251148e+00 1.080090e+00 -5.345199e-01 7.421632e+00 1.296211e+02 -4.175028e+00 -1.087063e+00 7.104449e+00 1.476275e+00 -5.816510e+00 -2.411912e+00 5.566494e+00 2.980361e+00 -2.111301e+00 -1.203628e+00 5.205888e-01 -6.342217e-01 3.258437e-01 -1.205435e+00 1.197936e+00 8.930280e-01 -1.165456e+00 -1.173622e+00 2.296501e+00 1.784101e+00 -1.580435e+00 -9.510679e-01 5.804673e-01 1.696499e-01 -4.546102e-01 -7.067778e-01
<VARIANCE> 39
 7.098672e+01 1.953051e+02 5.881801e+02 3.776277e+02 4.075611e+02 8.190728e+02 1.071288e+03 4.217607e+02 4.188121e+02 4.928402e+02 2.783467e+02 2.431880e+02 1.966352e+02 1.005798e+01 9.777289e+00 2.992731e+01 2.600621e+01 2.831695e+01 3.620836e+01 3.449763e+01 3.408546e+01 3.903982e+01 2.631322e+01 2.257479e+01 1.804382e+01 1.427493e+01 2.309936e+00 2.121076e+00 2.401503e+00 2.440647e+00 4.141407e+00 5.854373e+00 5.512390e+00 5.027857e+00 4.298638e+00 4.143436e+00 3.079268e+00 3.103393e+00 1.185890e+00
<GCONST> 2.039323e+02
<STATE> 4
<NUMMIXES> 2
<MIXTURE> 1 5.259882e-01
<MEAN> 39
 1.999954e+01 -2.064611e+01 1.584766e+01 8.343297e+00 3.633886e+00 -2.640400e+01 -3.179363e+00 1.573767e+01 -1.249832e+01 5.847090e+00 4.255722e+00 5.853968e+00 1.210904e+02 -3.699387e+00 1.782738e+00 4.893737e+00 -1.637394e+00 -3.560408e+00 3.999467e+00 4.985792e+00 -2.368945e+00 -1.108169e+00 1.883852e+00 -1.543364e-02 -1.030058e+00 -1.123358e+00 -4.494920e-02 7.933839e-01 -5.838487e-01 -6.952395e-01 9.662169e-01 1.298338e+00 -8.815669e-01 -1.060681e+00 8.257455e-01 4.135507e-01 -5.822291e-01 5.926904e-02 -3.437434e-01
<VARIANCE> 39
 1.889652e+02 2.095780e+02 9.408305e+02 3.549848e+02 4.268801e+02 7.309697e+02 7.883729e+02 4.170925e+02 6.337964e+02 4.323164e+02 2.921282e+02 2.636695e+02 5.456486e+02 1.023007e+01 1.272331e+01 2.312713e+01 2.355298e+01 2.187978e+01 2.379940e+01 2.748708e+01 3.138329e+01 2.368806e+01 2.339708e+01 1.847111e+01 1.640409e+01 9.132191e+00 1.352776e+00 1.926943e+00 2.467313e+00 2.546235e+00 3.210886e+00 4.404354e+00 4.262333e+00 3.639616e+00 4.676133e+00 3.045682e+00 3.065019e+00 2.534893e+00 9.351662e-01
<GCONST> 2.016650e+02
<MIXTURE> 2 4.739926e-01
<MEAN> 39
 1.365908e+01 -2.043850e+01 9.594111e+00 1.112672e+01 8.019382e+00 -1.850073e+01 -1.236474e+00 1.703549e+01 -7.506953e+00 4.213304e+00 2.067522e+00 3.470062e+00 1.113366e+02 -5.295772e+00 4.792574e-01 3.551403e+00 -1.781464e+00 -4.176574e+00 2.591171e+00 3.271921e+00 -2.504693e+00 -1.393189e+00 7.034280e-01 -8.046685e-01 -1.912466e+00 -2.265152e+00 4.689620e-02 6.260915e-01 -7.953677e-01 -1.062630e+00 2.864515e-01 4.605481e-01 -1.137829e+00 -1.116443e+00 2.879203e-01 1.494160e-01 -5.382369e-01 -8.519393e-02 -2.151255e-01
<VARIANCE> 39
 2.136744e+02 2.038196e+02 8.304551e+02 3.627109e+02 4.802121e+02 7.881553e+02 7.351605e+02 4.251000e+02 6.376594e+02 3.803366e+02 2.837710e+02 2.557787e+02 7.062421e+02 2.128732e+01 1.750000e+01 2.686645e+01 2.359764e+01 2.319255e+01 3.046189e+01 3.462504e+01 2.900591e+01 2.512272e+01 2.401387e+01 1.949003e+01 1.675838e+01 1.336425e+01 1.888783e+00 2.265078e+00 2.734791e+00 3.365072e+00 4.374509e+00 5.739307e+00 4.264683e+00 3.838494e+00 5.250655e+00 3.322248e+00 3.361568e+00 2.900228e+00 1.339245e+00
<GCONST> 2.063705e+02
<TRANSP> 5
 0.000000e+00 1.000000e+00 0.000000e+00 0.000000e+00 0.000000e+00
 0.000000e+00 7.640750e-01 2.359249e-01 0.000000e+00 0.000000e+00
 0.000000e+00 0.000000e+00 5.091441e-01 4.908559e-01 0.000000e+00
 0.000000e+00 0.000000e+00 0.000000e+00 5.778702e-01 4.221298e-01
 0.000000e+00 0.000000e+00 0.000000e+00 0.000000e+00 0.000000e+00
<ENDHMM>
~h "s"
<BEGINHMM>
<NUMSTATES> 5
<STATE> 2
<NUMMIXES> 2
<MIXTURE> 1 4.949452e-01
<MEAN> 39
 -2.496914e+01 4.951843e+00 1.048066e+01 6.074870e+00 3.766541e+00 -8.292603e+00 -1.589648e+00 3.556534e+00 -2.952743e+00 2.068547e+00 -5.375464e+00 6.307819e+00 1.057577e+02 -8.483668e+00 3.031727e+00 -3.004258e+00 5.726979e-01 7.957347e-02 6.524636e-01 1.966219e+00 1.986658e+00 8.435873e-01 -3.110833e-01 1.157301e+00 8.854553e-01 5.395049e-01 -9.968787e-02 -3.466769e-01 -1.070044e+00 -5.959550e-01 -2.362454e-01 2.465201e-01 -1.963212e-01 -1.040860e-01 -3.542449e-01 4.091872e-01 2.866886e-01 -1.109315e-01 -2.845019e-01
<VARIANCE> 39
 7.308050e+02 2.294912e+02 4.451300e+02 3.387748e+02 4.020874e+02 3.934716e+02 3.381160e+02 3.212562e+02 3.182733e+02 2.489071e+02 2.237430e+02 2.385524e+02 4.763856e+02 5.266064e+01 2.413090e+01 4.226294e+01 4.402161e+01 2.938528e+01 3.938777e+01 2.976566e+01 2.925623e+01 3.358134e+01 2.752836e+01 2.500738e+01 2.295240e+01 2.888102e+01 9.597485e+00 4.433030e+00 5.504300e+00 5.542298e+00 5.357699e+00 5.761393e+00 5.307254e+00 5.652086e+00 5.117282e+00 4.754508e+00 4.291325e+00 4.046796e+00 3.040733e+00
<GCONST> 2.137315e+02
<MIXTURE> 2 5.050331e-01
<MEAN> 39
 -3.442147e+01 4.628745e+00 5.759157e+00 7.182419e+00 1.442111e+00 -8.031468e+00 -1.542791e+00 4.934859e+00 -3.601298e+00 1.598959e+00 -4.855783e+00 5.026742e+00 1.029846e+02 -9.273873e+00 1.289236e+00 -4.679164e+00 -1.998220e+00 -1.791969e+00 -7.010085e-01 1.784161e-01 5.928407e-01 -6.967628e-01 -8.142740e-01 1.555240e-01 -1.311462e-01 8.312869e-01 1.009110e+00 -4.970651e-01 -8.122585e-01 -8.558346e-01 -3.654755e-01 3.760305e-02 -6.219779e-01 -6.842299e-01 -4.778030e-01 1.684116e-01 -2.689925e-02 -7.899898e-02 -5.176963e-01
<VARIANCE> 39
 4.417249e+02 2.495075e+02 3.616654e+02 3.210465e+02 4.086467e+02 3.779210e+02 3.292929e+02 2.769192e+02 2.542441e+02 2.181911e+02 2.126484e+02 1.981154e+02 4.083053e+02 5.048044e+01 2.205749e+01 4.687616e+01 3.204659e+01 2.745177e+01 3.295237e+01 2.890440e+01 2.757392e+01 2.979324e+01 2.259903e+01 2.152142e+01 2.187089e+01 2.941325e+01 7.853070e+00 4.721938e+00 4.917352e+00 5.514106e+00 5.484086e+00 6.095409e+00 5.221311e+00 5.379463e+00 4.952889e+00 4.551988e+00 4.292508e+00 3.897280e+00 3.242196e+00
<GCONST> 2.106350e+02
<STATE> 3
<NUMMIXES> 2
<MIXTURE> 1 5.011885e-01
<MEAN> 39
 -5.360138e+01 8.874822e+00 -9.542684e+00 6.741827e-01 -3.802774e+00 -1.118045e+01 -7.359071e-01 5.062568e+00 -5.399545e+00 1.309809e+00 -3.044726e+00 7.228188e+00 1.082504e+02 -2.818724e+00 1.474808e+00 -3.211696e+00 -7.313105e-01 -3.098653e-01 1.238410e+00 6.367473e-02 -1.155945e-01 -1.323678e-01 6.964110e-01 4.412281e-01 4.060722e-01 3.084880e-01 2.581504e+00 -4.821992e-01 1.158253e+00 8.160796e-01 6.593631e-01 5.794318e-01 -5.121948e-02 -1.642368e-01 2.866435e-01 3.351167e-01 -1.682941e-01 -1.324042e-01 -5.323675e-01
<VARIANCE> 39
 1.387114e+02 1.468728e+02 1.833674e+02 2.811572e+02 3.673046e+02 2.928032e+02 1.971049e+02 1.833737e+02 1.627414e+02 1.548685e+02 1.693739e+02 1.343571e+02 1.850142e+02 1.679932e+01 1.430492e+01 1.526568e+01 1.473178e+01 1.620078e+01 1.920610e+01 1.783940e+01 1.551501e+01 1.449859e+01 1.363857e+01 1.295156e+01 1.208940e+01 1.223525e+01 2.580688e+00 2.305525e+00 3.645695e+00 2.891612e+00 3.291046e+00 3.248705e+00 3.552895e+00 3.533803e+00 3.125242e+00 2.999210e+00 2.818365e+00 2.767353e+00 1.881921e+00
<GCONST> 1.889867e+02
<MIXTURE> 2 4.988077e-01
<MEAN> 39
 -5.340034e+01 7.962768e+00 -9.799823e+00 -7.068157e-03 -3.715388e+00 -1.118932e+01 -1.499522e+00 3.477803e+00 -5.634288e+00 8.737872e-01 -3.577320e+00 6.328788e+00 1.064052e+02 -4.000043e+00 3.336195e-01 -4.519345e+00 -2.144082e+00 -1.709679e+00 -1.462013e-01 -1.474676e+00 -1.295022e+00 -1.370439e+00 -4.760952e-01 -5.450629e-01 -4.693424e-01 3.630241e-01 2.602789e+00 -6.128083e-01 1.005128e+00 5.211158e-01 3.251253e-01 2.349944e-01 -3.759541e-01 -4.569839e-01 3.745383e-02 1.243246e-01 -3.720016e-01 -2.167719e-01 -5.909669e-01
<VARIANCE> 39
 1.260048e+02 1.442494e+02 1.767866e+02 2.803580e+02 3.591504e+02 2.928811e+02 2.041380e+02 1.836496e+02 1.679850e+02 1.531375e+02 1.681603e+02 1.319393e+02 1.802386e+02 1.658672e+01 1.659462e+01 1.773972e+01 1.472281e+01 1.681119e+01 1.957150e+01 1.876069e+01 1.539243e+01 1.393528e+01 1.410513e+01 1.317521e+01 1.256820e+01 1.279311e+01 2.717190e+00 2.163699e+00 3.645444e+00 2.868631e+00 3.227921e+00 3.353636e+00 3.433861e+00 3.475585e+00 3.204850e+00 3.013215e+00 2.960249e+00 2.887070e+00 1.829793e+00
<GCONST> 1.893297e+02
<STATE> 4
<NUMMIXES> 2
<MIXTURE> 1 4.929626e-01
<MEAN> 39
 -5.210096e+01 6.477525e+00 -1.488920e+01 3.511771e+00 -7.255224e+00 -5.092727e+00 -3.749286e+00 3.935906e+00 -6.454974e+00 2.949005e+00 -3.353048e+00 6.319538e+00 1.069687e+02 9.295168e-01 6.695831e-02 6.463169e-01 1.797358e-01 3.458949e-01 6.602540e-01 5.919433e-01 4.174409e-01 5.859029e-01 5.523637e-01 3.394568e-01 3.746088e-01 3.084251e-01 1.248167e+00 2.964430e-02 1.101829e+00 2.906573e-01 2.542663e-01 -1.204476e-01 1.819144e-01 5.750945e-02 2.845886e-01 6.588200e-02 4.410802e-02 1.408716e-01 1.601738e-01
<VARIANCE> 39
 1.403465e+02 1.334140e+02 1.469432e+02 2.394934e+02 2.956407e+02 2.757165e+02 1.499497e+02 1.375174e+02 1.387338e+02 1.269464e+02 1.381150e+02 1.174705e+02 1.826640e+02 6.601969e+00 5.540579e+00 6.669280e+00 7.311090e+00 8.883647e+00 1.031255e+01 1.055218e+01 1.081885e+01 1.066640e+01 1.091003e+01 1.044533e+01 9.786678e+00 4.902888e+00 2.223319e+00 1.270350e+00 1.997610e+00 1.596015e+00 1.782397e+00 2.209435e+00 2.268390e+00 2.243787e+00 2.202060e+00 2.288559e+00 2.138306e+00 2.058575e+00 9.334261e-01
<GCONST> 1.738457e+02
<MIXTURE> 2 5.069893e-01
<MEAN> 39
 -5.274561e+01 5.589175e+00 -1.523403e+01 2.200456e+00 -6.806812e+00 -6.185958e+00 -4.976534e+00 2.896905e+00 -6.646798e+00 2.389341e+00 -4.221973e+00 5.645774e+00 1.039274e+02 2.633350e-01 -4.832453e-01 -2.403679e-01 -5.341547e-01 -3.051543e-01 -1.319510e-01 -5.406660e-01 -6.160294e-01 -4.278581e-01 -3.238603e-01 -5.552774e-01 -4.246041e-01 -6.103322e-02 6.836106e-01 -2.431106e-01 5.389585e-01 -3.870543e-02 -6.484886e-02 -3.269357e-01 -7.831027e-02 -9.836574e-02 4.625051e-02 -1.040700e-01 -7.946441e-02 -2.542298e-02 -4.637671e-02
<VARIANCE> 39
 1.384608e+02 1.328815e+02 1.544235e+02 2.472150e+02 2.986402e+02 2.742643e+02 1.533270e+02 1.403366e+02 1.455750e+02 1.294920e+02 1.399134e+02 1.186547e+02 1.840863e+02 4.855877e+00 5.204248e+00 5.654747e+00 6.796662e+00 8.316125e+00 1.005933e+01 1.019830e+01 1.065809e+01 1.043873e+01 1.061337e+01 1.025718e+01 9.725231e+00 5.098952e+00 1.306123e+00 1.083363e+00 1.425808e+00 1.442535e+00 1.662402e+00 2.022797e+00 2.163882e+00 2.180944e+00 2.161906e+00 2.199452e+00 2.091161e+00 2.000369e+00 8.189036e-01
<GCONST> 1.716704e+02
<TRANSP> 5
 0.000000e+00 1.000000e+00 0.000000e+00 0.000000e+00 0.000000e+00
 0.000000e+00 5.491918e-01 4.508082e-01 0.000000e+00 0.000000e+00
 0.000000e+00 0.000000e+00 5.189590e-01 4.810410e-01 0.000000e+00
 0.000000e+00 0.000000e+00 0.000000e+00 8.421007e-01 1.578993e-01
 0.000000e+00 0.000000e+00 0.000000e+00 0.000000e+00 0.000000e+00
<ENDHMM>
~h "t"
<BEGINHMM>
<NUMSTATES> 5
<STATE> 2
<NUMMIXES> 2
<MIXTURE> 1 4.906546e-01
<MEAN> 39
 -1.164038e+01 1.137685e+01 2.017041e+01 1.567360e+01 3.753234e+00 2.279694e+00 -4.556283e-01 1.708184e-01 -3.776320e+00 2.262139e+00 -1.216421e+00 2.503204e+00 6.684612e+01 -2.801954e+00 1.344888e-01 -5.614249e+00 -2.192968e-01 1.262233e+00 6.712924e-01 7.869202e-01 1.858834e+00 2.587415e+00 8.216508e-01 1.975546e+00 6.917378e-01 -3.857864e+00 -3.327138e-01 -8.827847e-01 9.038613e-01 -1.697578e+00 -5.721858e-01 -4.123550e-01 -8.084664e-02 -5.035632e-01 -6.196211e-01 1.473522e-01 -3.459693e-01 1.984514e-01 3.276990e+00
<VARIANCE> 39
 2.952420e+02 2.135134e+02 4.217652e+02 2.650049e+02 2.006649e+02 2.093215e+02 2.550299e+02 2.404118e+02 2.259580e+02 1.807057e+02 1.664893e+02 1.475166e+02 5.152349e+02 2.151771e+01 3.707264e+01 5.590226e+01 4.500417e+01 2.800444e+01 2.908295e+01 2.849562e+01 3.323791e+01 3.827721e+01 2.451987e+01 2.347926e+01 2.149214e+01 1.197392e+02 3.683184e+00 6.017647e+00 7.522310e+00 6.887171e+00 5.044077e+00 4.881275e+00 5.521191e+00 5.362155e+00 6.014466e+00 4.344122e+00 4.022981e+00 3.739271e+00 1.358403e+01
<GCONST> 2.111348e+02
<MIXTURE> 2 5.093133e-01
<MEAN> 39
 -1.710971e+01 1.094446e+01 1.346939e+01 1.230300e+01 2.536949e+00 1.508968e+00 -2.052951e+00 -2.067955e+00 -4.233365e+00 4.515119e-01 -2.142228e+00 1.294050e+00 5.938023e+01 -3.990441e+00 -2.682341e+00 -5.824622e+00 -3.434269e+00 -9.545310e-01 -1.528530e+00 -1.767756e+00 -3.600183e-01 -2.757595e-01 -7.150773e-01 6.010303e-01 -4.462126e-01 -1.069057e+00 -2.586366e-01 -1.023868e+00 1.151785e+00 -1.695158e+00 -8.435230e-01 -8.575272e-01 -1.936980e-01 -6.143253e-01 -7.739664e-01 9.392253e-02 -3.788327e-01 2.756748e-01 4.339919e+00
<VARIANCE> 39
 1.980754e+02 1.694472e+02 2.747536e+02 1.920844e+02 1.710498e+02 1.772316e+02 2.133331e+02 2.107426e+02 1.903188e+02 1.714058e+02 1.566736e+02 1.262611e+02 2.803667e+02 2.296547e+01 2.856163e+01 5.097708e+01 3.423582e+01 2.365639e+01 2.422015e+01 2.492140e+01 2.799126e+01 2.810571e+01 2.099090e+01 1.963785e+01 1.780254e+01 1.276775e+02 3.427231e+00 5.653528e+00 6.558438e+00 5.765471e+00 4.738014e+00 4.706680e+00 5.016748e+00 5.227319e+00 5.935129e+00 4.412988e+00 4.021009e+00 3.610932e+00 1.142874e+01
<GCONST> 2.052070e+02
<STATE> 3
<NUMMIXES> 2
<MIXTURE> 1 4.920897e-01
<MEAN> 39
 -3.279482e+01 7.000630e-01 5.398530e+00 -9.830495e+00 -2.946120e+00 -7.633631e+00 -3.118916e+00 -4.000657e+00 -9.865917e+00 2.256722e+00 -3.129686e-01 3.626570e+00 1.036647e+02 -3.796749e+00 9.948530e-01 1.238128e+00 -1.422307e+00 -1.696898e+00 -2.086839e+00 2.310271e+00 6.732516e-01 -1.256309e+00 6.089652e-01 2.277844e-01 1.958108e+00 1.139422e+01 1.062013e+00 7.269220e-01 1.469337e+00 2.121874e+00 -9.960775e-02 5.038438e-01 9.700196e-01 5.714939e-01 6.531304e-01 1.602316e-01 -1.105462e-01 3.718856e-01 -2.802848e+00
<VARIANCE> 39
 2.163135e+02 2.110962e+02 2.035109e+02 1.932753e+02 1.650292e+02 1.727299e+02 1.834267e+02 1.903252e+02 1.713448e+02 1.458512e+02 1.277220e+02 1.203779e+02 1.109415e+03 1.870446e+01 2.054514e+01 2.060010e+01 2.174958e+01 1.793962e+01 2.202671e+01 2.312921e+01 2.333752e+01 1.945070e+01 1.810889e+01 1.909441e+01 1.528419e+01 9.921501e+01 4.737993e+00 4.800837e+00 4.200422e+00 4.364883e+00 3.866003e+00 3.807750e+00 3.893413e+00 3.807330e+00 4.018584e+00 3.410443e+00 3.165446e+00 3.020430e+00 2.263192e+01
<GCONST> 2.003608e+02
<MIXTURE> 2 5.078914e-01
<MEAN> 39
 -3.224224e+01 -2.376992e+00 4.574450e+00 -1.066284e+01 -3.294883e+00 -8.074619e+00 -4.859074e+00 -4.989653e+00 -1.016948e+01 1.076642e+00 -1.523261e+00 2.515343e+00 9.957697e+01 -4.660904e+00 -2.489727e-01 2.411935e-02 -3.298657e+00 -2.737652e+00 -3.493266e+00 2.250804e-01 -8.773646e-01 -2.868726e+00 -7.162619e-01 -8.681772e-01 8.239505e-01 1.228992e+01 5.081381e-01 9.148110e-01 1.122429e+00 1.809517e+00 -3.963344e-01 9.658602e-02 6.429539e-01 3.532112e-01 2.880129e-01 3.555638e-02 -1.441562e-01 3.194299e-01 -2.325756e+00
<VARIANCE> 39
 1.730712e+02 2.131764e+02 1.940379e+02 1.777868e+02 1.573344e+02 1.679567e+02 1.635502e+02 1.754365e+02 1.546211e+02 1.378073e+02 1.206024e+02 1.118223e+02 1.025350e+03 1.715881e+01 2.115465e+01 2.243572e+01 2.012945e+01 1.835035e+01 2.202173e+01 2.390656e+01 2.133290e+01 1.857758e+01 1.840606e+01 1.789781e+01 1.438488e+01 9.405092e+01 4.160917e+00 4.594204e+00 3.853937e+00 4.012635e+00 3.718276e+00 3.701674e+00 3.667919e+00 3.642060e+00 3.773863e+00 3.195765e+00 3.118845e+00 2.977435e+00 2.036609e+01
<GCONST> 1.983054e+02
<STATE> 4
<NUMMIXES> 2
<MIXTURE> 1 4.979515e-01
<MEAN> 39
 -3.519800e+01 -6.190997e-01 1.638762e+01 -3.112349e+00 -1.146205e+01 -1.211883e+01 7.136850e+00 2.453847e-01 -9.926104e+00 1.846669e+00 -1.576660e+00 9.779999e+00 1.098554e+02 5.718260e+00 -6.551208e-01 4.838111e+00 4.018493e+00 3.995333e-01 7.763413e-01 1.730677e+00 1.816751e+00 1.496108e+00 4.258138e-01 -5.112836e-01 6.762868e-01 -1.285137e+00 2.520552e+00 6.449491e-02 9.544586e-01 4.886626e-01 1.012916e+00 3.794041e-01 -7.549462e-01 -1.250684e-01 1.154465e-01 1.862723e-01 -1.393603e-01 -4.231826e-01 -3.486502e-02
<VARIANCE> 39
 2.736251e+02 1.328531e+02 1.951578e+02 1.751437e+02 1.865982e+02 2.474119e+02 2.566686e+02 3.081221e+02 2.057822e+02 1.886879e+02 2.205838e+02 1.673872e+02 4.807090e+02 3.663985e+01 1.241437e+01 2.695183e+01 2.034785e+01 1.647482e+01 1.732735e+01 1.820190e+01 1.797583e+01 1.686098e+01 1.563482e+01 1.627191e+01 1.511293e+01 1.543752e+01 5.238225e+00 3.122258e+00 3.246829e+00 3.210341e+00 3.333246e+00 5.279536e+00 4.230955e+00 3.783728e+00 4.260952e+00 3.872016e+00 3.866190e+00 3.181429e+00 7.566602e+00
<GCONST> 1.976988e+02
<MIXTURE> 2 5.020247e-01
<MEAN> 39
 -3.456395e+01 -2.262788e+00 1.203318e+01 -4.445629e+00 -1.129651e+01 -1.399994e+01 5.779001e+00 9.796741e-01 -1.004655e+01 -1.222460e-01 -1.939880e+00 8.751086e+00 1.025625e+02 2.719714e+00 -1.764384e+00 1.615963e+00 1.686725e+00 -1.201017e+00 -4.143871e-01 -5.931614e-02 9.286673e-01 2.460968e-01 -7.343550e-01 -1.072485e+00 -1.689847e-01 -2.434878e+00 1.762106e+00 -1.266522e-01 3.222560e-01 3.844349e-01 6.281272e-01 5.342147e-01 -7.215073e-01 -1.925036e-01 9.668714e-02 -2.518466e-02 -1.864038e-01 -6.488340e-01 -7.924803e-01
<VARIANCE> 39
 2.894849e+02 1.385879e+02 2.043257e+02 1.674243e+02 1.806805e+02 2.502134e+02 2.687575e+02 3.067058e+02 2.170848e+02 1.976397e+02 2.386599e+02 1.761658e+02 5.818243e+02 2.670729e+01 1.140877e+01 2.310765e+01 1.784789e+01 1.738693e+01 1.700646e+01 1.804481e+01 1.836837e+01 1.708158e+01 1.573103e+01 1.651465e+01 1.551256e+01 1.549223e+01 5.541125e+00 2.940880e+00 3.461300e+00 2.975081e+00 3.099629e+00 3.914055e+00 3.918642e+00 3.776341e+00 3.989532e+00 3.596066e+00 3.684330e+00 3.029912e+00 7.135142e+00
<GCONST> 1.969035e+02
<TRANSP> 5
 0.000000e+00 1.000000e+00 0.000000e+00 0.000000e+00 0.000000e+00
 0.000000e+00 7.712976e-01 2.287024e-01 0.000000e+00 0.000000e+00
 0.000000e+00 0.000000e+00 6.286014e-01 3.713986e-01 0.000000e+00
 0.000000e+00 0.000000e+00 0.000000e+00 7.026755e-01 2.973245e-01
 0.000000e+00 0.000000e+00 0.000000e+00 0.000000e+00 0.000000e+00
<ENDHMM>
~h "v"
<BEGINHMM>
<NUMSTATES> 5
<STATE> 2
<NUMMIXES> 2
<MIXTURE> 1 5.010246e-01
<MEAN> 39
 1.331445e+01 -2.663061e+01 1.473928e+01 -1.914553e+01 -1.077919e+01 -1.890853e+01 1.278868e-01 1.337274e+01 1.487562e+01 1.326696e+01 -1.843090e+00 6.653107e+00 1.470878e+02 1.223797e+00 6.157951e-01 3.650571e-01 1.209106e+00 9.797330e-01 -4.534280e-02 -1.106969e+00 -1.277045e+00 -6.266715e-01 1.016295e+00 4.423241e-01 -3.699156e-01 -1.920019e+00 1.519994e-02 1.177623e+00 1.787023e-01 1.533254e+00 1.147866e+00 8.812292e-01 -6.254464e-01 -1.036762e+00 -9.445248e-01 -2.119640e-01 -1.896007e-02 6.103706e-02 -1.656509e+00
<VARIANCE> 39
 7.049044e+01 1.476801e+02 2.296798e+02 2.087693e+02 2.537923e+02 2.579935e+02 8.459536e+02 2.825467e+02 2.946769e+02 4.577497e+02 3.340166e+02 4.021777e+02 1.651817e+02 2.007554e+00 8.369974e+00 7.297233e+00 9.665585e+00 9.660604e+00 1.199335e+01 1.523810e+01 1.442519e+01 1.493853e+01 1.128039e+01 1.556970e+01 1.183969e+01 6.730518e+00 6.455768e-01 8.882176e-01 1.204645e+00 1.720829e+00 2.080052e+00 2.750097e+00 3.086238e+00 1.883525e+00 2.364135e+00 2.263666e+00 2.063106e+00 2.007251e+00 1.046431e+00
<GCONST> 1.802007e+02
<MIXTURE> 2 4.989421e-01
<MEAN> 39
 1.190548e+01 -2.796214e+01 1.605579e+01 -1.980858e+01 -1.081229e+01 -2.188349e+01 -4.141191e+00 1.208648e+01 1.359859e+01 1.650947e+01 -2.645355e+00 5.258066e+00 1.477303e+02 8.004978e-01 -9.548840e-02 -9.642640e-02 5.627598e-01 8.038714e-01 2.556908e-01 -2.962778e-01 -7.530248e-01 -8.903173e-01 4.628129e-01 4.367609e-01 -1.123292e+00 -1.120233e+00 2.871320e-02 1.105538e+00 1.649474e-02 1.342921e+00 9.377405e-01 8.160310e-01 -5.952837e-01 -1.134529e+00 -1.059037e+00 -3.590382e-01 -7.759002e-02 -1.575133e-01 -1.520079e+00
<VARIANCE> 39
 7.390118e+01 1.469999e+02 2.378982e+02 2.254386e+02 2.642769e+02 2.637293e+02 8.596065e+02 2.872999e+02 3.134498e+02 4.853019e+02 3.403374e+02 4.117558e+02 1.649938e+02 2.073858e+00 8.048838e+00 7.255879e+00 9.280230e+00 8.306886e+00 1.101097e+01 1.492984e+01 1.492947e+01 1.473809e+01 1.020613e+01 1.491212e+01 1.179054e+01 5.970757e+00 7.090148e-01 8.356090e-01 1.168571e+00 1.505397e+00 1.814655e+00 2.373531e+00 2.897593e+00 1.745887e+00 2.310376e+00 2.091555e+00 2.010255e+00 2.033314e+00 9.254572e-01
<GCONST> 1.792635e+02
<STATE> 3
<NUMMIXES> 2
<MIXTURE> 1 4.970889e-01
<MEAN> 39
 1.973210e+01 -1.663092e+01 1.866464e+01 -2.039686e+00 4.400511e-01 -1.457911e+01 -9.837513e+00 -1.544502e-01 2.167380e+00 1.558801e+01 3.162456e-01 2.878824e+00 1.274273e+02 -8.549039e-01 6.169302e+00 1.315394e+00 7.733601e+00 5.845908e+00 6.032436e+00 -2.410606e-01 -3.000852e+00 -3.752267e+00 -9.023623e-01 6.914448e-01 -7.043093e-02 -9.309737e+00 -1.663175e+00 3.730587e-01 -3.301459e-01 1.394352e-01 1.754185e-01 1.278198e+00 1.479171e+00 1.328927e+00 5.304405e-01 -5.077832e-01 -1.826223e-01 2.227916e-01 -3.375830e-01
<VARIANCE> 39
 6.050539e+01 1.654895e+02 2.180716e+02 2.704293e+02 2.945417e+02 3.496970e+02 4.975340e+02 3.204457e+02 5.065347e+02 3.369489e+02 3.847581e+02 3.265436e+02 2.493137e+02 1.021178e+01 1.327310e+01 1.525908e+01 1.970122e+01 1.974553e+01 2.536403e+01 3.943227e+01 2.296877e+01 2.528244e+01 2.747395e+01 2.342167e+01 2.094021e+01 1.115450e+01 1.742150e+00 2.315857e+00 2.034624e+00 4.018633e+00 4.504477e+00 5.862680e+00 3.889808e+00 3.499006e+00 4.951499e+00 3.634973e+00 4.096877e+00 3.107246e+00 3.760468e+00
<GCONST> 1.996331e+02
<MIXTURE> 2 5.028845e-01
<MEAN> 39
 1.848965e+01 -1.816671e+01 1.950500e+01 -3.506516e+00 -1.487680e+00 -1.660670e+01 -1.303017e+01 3.015704e-01 -2.625793e+00 1.701504e+01 2.287581e+00 -9.054756e-02 1.280481e+02 -1.383546e+00 5.451285e+00 5.176563e-01 6.661033e+00 4.800284e+00 5.024853e+00 3.671421e-01 -3.086407e+00 -3.923420e+00 -2.140296e+00 1.463088e-01 -3.264443e-01 -8.543205e+00 -1.839857e+00 1.129142e-01 -7.209325e-01 -9.592661e-02 9.424195e-02 1.168125e+00 1.121149e+00 1.022114e+00 7.264981e-01 -5.544466e-01 -5.333040e-01 -7.252981e-02 -4.329990e-01
<VARIANCE> 39
 6.334998e+01 1.772682e+02 2.350300e+02 2.927423e+02 3.093154e+02 3.598566e+02 5.138278e+02 3.340294e+02 4.998161e+02 3.587025e+02 4.231033e+02 3.314279e+02 2.697993e+02 1.605993e+01 1.243154e+01 1.533965e+01 1.797305e+01 2.034035e+01 2.338192e+01 3.365602e+01 2.223904e+01 2.749000e+01 2.461115e+01 2.438450e+01 2.104036e+01 1.113139e+01 2.402166e+00 2.596864e+00 2.253810e+00 3.753979e+00 4.174166e+00 5.180002e+00 3.732951e+00 3.279012e+00 4.993596e+00 3.540321e+00 3.824890e+00 3.114587e+00 3.266299e+00
<GCONST> 2.003051e+02
<STATE> 4
<NUMMIXES> 2
<MIXTURE> 1 5.219209e-01
<MEAN> 39
 4.312692e+00 -1.549151e+00 1.741783e+01 1.396616e+01 1.090379e+01 3.690500e+00 -1.077182e+00 1.171435e+00 -1.280817e+00 9.768103e+00 -6.798255e-01 4.238675e+00 1.021070e+02 -1.861357e+00 9.943104e-01 6.942457e-02 4.203138e-01 5.215895e-02 9.733666e-01 1.384208e+00 1.797200e+00 6.440616e-01 -5.170599e-01 2.069178e-01 6.000661e-01 -1.309822e+00 5.824569e-01 -1.610829e+00 -2.013224e-01 -2.274808e+00 -1.583322e+00 -1.977571e+00 -2.281442e-01 7.366266e-01 9.540436e-01 1.941485e-01 -8.970663e-02 2.450646e-01 2.459304e+00
<VARIANCE> 39
 3.062521e+02 1.679548e+02 1.626245e+02 2.000016e+02 2.004047e+02 2.455489e+02 2.441645e+02 2.622403e+02 3.142594e+02 2.150005e+02 2.464209e+02 2.050203e+02 2.684473e+02 3.334279e+01 2.141497e+01 1.245743e+01 2.963392e+01 2.390253e+01 3.857238e+01 2.514330e+01 1.960421e+01 2.147977e+01 1.767750e+01 1.806643e+01 1.480928e+01 3.337608e+01 4.354314e+00 4.190278e+00 3.255197e+00 6.041213e+00 5.282838e+00 6.135614e+00 6.084882e+00 4.717839e+00 4.699717e+00 4.483868e+00 4.061918e+00 3.673558e+00 4.914742e+00
<GCONST> 2.029368e+02
<MIXTURE> 2 4.780489e-01
<MEAN> 39
 -8.809381e+00 -4.975961e+00 1.291517e+01 1.146344e+01 5.633637e+00 1.462775e+00 4.379766e-01 4.918283e+00 -1.402948e+00 6.046803e+00 -2.293720e+00 2.875066e+00 9.450319e+01 -4.366417e+00 -1.393278e+00 -2.558777e+00 -1.926368e+00 -1.727514e+00 -4.903498e-01 -7.189630e-01 -8.258596e-05 -4.590425e-01 -1.378657e+00 -7.245773e-01 -3.846375e-01 -1.564836e+00 9.557357e-01 -1.164135e+00 -2.805137e-01 -1.632032e+00 -1.296547e+00 -1.668595e+00 -7.496938e-01 -5.630420e-02 2.699994e-01 2.760739e-01 -9.118336e-02 -8.143190e-02 1.766582e+00
<VARIANCE> 39
 3.967770e+02 1.685519e+02 1.813559e+02 1.889111e+02 1.990686e+02 2.302705e+02 2.487644e+02 2.534621e+02 2.688270e+02 2.087281e+02 2.233010e+02 1.931234e+02 3.278093e+02 4.348615e+01 2.062869e+01 1.698779e+01 2.354141e+01 2.217900e+01 3.185242e+01 2.586091e+01 2.045062e+01 2.234419e+01 1.826181e+01 1.851048e+01 1.594347e+01 2.848036e+01 4.993721e+00 4.734106e+00 3.674343e+00 5.703772e+00 5.201007e+00 5.695374e+00 5.124131e+00 4.533300e+00 4.791257e+00 3.965469e+00 3.739483e+00 3.289713e+00 4.709160e+00
<GCONST> 2.028260e+02
<TRANSP> 5
 0.000000e+00 1.000000e+00 0.000000e+00 0.000000e+00 0.000000e+00
 0.000000e+00 7.571578e-01 2.428422e-01 0.000000e+00 0.000000e+00
 0.000000e+00 0.000000e+00 6.513636e-01 3.486364e-01 0.000000e+00
 0.000000e+00 0.000000e+00 0.000000e+00 7.570259e-01 2.429741e-01
 0.000000e+00 0.000000e+00 0.000000e+00 0.000000e+00 0.000000e+00
<ENDHMM>
~h "w"
<BEGINHMM>
<NUMSTATES> 5
<STATE> 2
<NUMMIXES> 2
<MIXTURE> 1 5.011128e-01
<MEAN> 39
 3.370413e+01 8.672668e+00 1.561756e+01 -3.852560e+01 -2.101558e+01 -5.033897e-01 7.092942e-01 2.033253e+01 -1.950711e+00 1.328301e+01 1.465066e+00 1.334247e+00 1.222165e+02 -5.262852e-01 -4.541747e+00 -4.017838e+00 -6.087890e+00 3.128792e+00 3.773330e+00 2.624812e+00 4.605411e+00 -5.802763e-02 -2.377208e+00 9.189354e-01 6.275832e-01 4.177097e+00 -5.291463e-01 -6.405007e-01 -4.699404e-01 1.355761e+00 2.149164e+00 1.467465e+00 3.042150e-02 -1.206207e+00 -7.710817e-01 -6.905371e-01 6.012372e-01 4.777984e-01 -2.191855e-01
<VARIANCE> 39
 4.804078e+01 1.882261e+02 2.192287e+02 3.074756e+02 4.308409e+02 2.846388e+02 6.039675e+02 3.827099e+02 4.306497e+02 4.003349e+02 3.120912e+02 2.627986e+02 1.229939e+02 2.203535e+00 9.728918e+00 7.147287e+00 1.427381e+01 1.859544e+01 1.762992e+01 1.746801e+01 1.982387e+01 2.169501e+01 1.991873e+01 1.693536e+01 1.811827e+01 5.000741e+00 5.135803e-01 1.272713e+00 1.293676e+00 2.956882e+00 2.172764e+00 2.532208e+00 4.259917e+00 4.091885e+00 3.292668e+00 3.418369e+00 3.202554e+00 2.653584e+00 5.331495e-01
<GCONST> 1.863039e+02
<MIXTURE> 2 4.988699e-01
<MEAN> 39
 3.198227e+01 7.707930e+00 1.763432e+01 -4.067514e+01 -2.258134e+01 -1.830589e+00 -3.472753e+00 1.955837e+01 -5.715813e+00 1.299544e+01 1.361307e+00 -2.558583e+00 1.234096e+02 -6.764545e-01 -4.148188e+00 -4.033958e+00 -5.875636e+00 2.611546e+00 3.413727e+00 2.383371e+00 4.552738e+00 -1.152366e-01 -2.794127e+00 4.383766e-01 -1.555055e-02 4.135480e+00 -5.055820e-01 -5.512614e-01 -6.128936e-01 1.301433e+00 1.995737e+00 1.438879e+00 2.745248e-01 -1.098069e+00 -8.858488e-01 -8.914247e-01 3.942690e-01 4.504772e-01 -2.937409e-01
<VARIANCE> 39
 4.646044e+01 1.767506e+02 2.253426e+02 3.020170e+02 4.200251e+02 2.695091e+02 5.996802e+02 3.958732e+02 4.243940e+02 4.063049e+02 3.541994e+02 2.785477e+02 1.205923e+02 2.126256e+00 9.081054e+00 7.032694e+00 1.341904e+01 1.777112e+01 1.626938e+01 1.711188e+01 1.920814e+01 2.071824e+01 1.902567e+01 1.572169e+01 1.787935e+01 5.097821e+00 5.857247e-01 1.174593e+00 1.312128e+00 2.821132e+00 2.110641e+00 2.256413e+00 3.946997e+00 3.949517e+00 3.092852e+00 3.248900e+00 3.071959e+00 2.703951e+00 6.171681e-01
<GCONST> 1.855807e+02
<STATE> 3
<NUMMIXES> 2
<MIXTURE> 1 4.989764e-01
<MEAN> 39
 2.915651e+01 -8.834309e+00 1.112620e+00 -4.663864e+01 1.081378e+00 2.044744e+01 4.134022e+00 2.170174e+01 -1.044428e+01 1.100327e+00 1.186541e+01 8.543539e+00 1.340242e+02 -1.373574e+00 -4.499249e+00 -2.286093e+00 1.605249e+00 6.643453e+00 3.253709e+00 -2.675008e+00 -3.067983e+00 -7.987725e-01 8.306839e-01 4.152544e+00 5.952415e-01 2.353558e+00 -1.345613e-01 3.196923e-01 9.853369e-01 1.951229e+00 -3.909425e-01 -1.558037e+00 -1.556523e+00 -7.783099e-01 1.280568e+00 1.579391e+00 -4.636308e-01 -1.044972e+00 -5.015117e-01
<VARIANCE> 39
 5.451335e+01 1.767495e+02 2.119830e+02 2.995913e+02 5.623189e+02 3.142434e+02 5.683519e+02 4.126674e+02 3.924612e+02 4.274374e+02 3.357188e+02 2.779922e+02 1.434650e+02 1.803484e+00 6.834122e+00 5.884480e+00 1.161123e+01 1.170772e+01 1.414785e+01 2.018832e+01 1.586180e+01 1.946786e+01 2.149588e+01 1.376119e+01 1.891625e+01 3.284749e+00 2.761328e-01 6.853787e-01 9.231662e-01 2.036807e+00 2.300877e+00 2.368120e+00 2.541670e+00 3.667595e+00 3.125555e+00 3.074350e+00 4.005941e+00 2.603970e+00 2.909918e-01
<GCONST> 1.814673e+02
<MIXTURE> 2 5.010002e-01
<MEAN> 39
 2.740715e+01 -1.000951e+01 4.811398e-01 -4.906566e+01 3.321074e+00 1.854639e+01 3.104323e+00 1.779657e+01 -1.379027e+01 1.653138e+00 1.080558e+01 5.363858e+00 1.352994e+02 -1.586824e+00 -4.484895e+00 -2.417223e+00 2.139795e+00 6.496499e+00 2.679293e+00 -2.583205e+00 -3.226973e+00 -4.915204e-01 1.085937e+00 3.473774e+00 -3.988929e-01 2.459547e+00 -1.170360e-01 3.781940e-01 9.383107e-01 1.962580e+00 -5.590909e-01 -1.559579e+00 -1.497770e+00 -4.589280e-01 1.357118e+00 1.257141e+00 -6.869517e-01 -1.145841e+00 -5.483584e-01
<VARIANCE> 39
 5.328267e+01 1.664986e+02 2.109611e+02 2.863117e+02 5.333356e+02 3.111712e+02 5.786483e+02 4.191188e+02 3.926066e+02 4.127982e+02 3.460302e+02 2.956682e+02 1.391911e+02 2.048731e+00 6.879589e+00 5.701863e+00 1.197954e+01 1.177750e+01 1.407622e+01 1.922647e+01 1.522074e+01 2.172043e+01 2.175673e+01 1.359088e+01 1.922732e+01 3.579516e+00 2.759296e-01 6.985312e-01 9.086088e-01 2.091357e+00 2.373049e+00 2.365824e+00 2.436192e+00 3.803233e+00 2.998148e+00 2.975681e+00 4.048167e+00 2.685038e+00 3.034976e-01
<GCONST> 1.816500e+02
<STATE> 4
<NUMMIXES> 2
<MIXTURE> 1 4.932367e-01
<MEAN> 39
 2.117079e+01 -2.403199e+01 -1.714370e+00 -2.670575e+01 2.557504e+01 1.057137e+01 -1.104369e+01 1.515154e+01 5.169711e+00 1.397957e+01 1.208501e+01 -3.278355e+00 1.397830e+02 -1.503988e+00 -1.956647e+00 2.265774e+00 5.055869e+00 -4.500429e-01 -4.011755e+00 -2.608552e+00 1.976655e+00 3.751332e+00 -3.172529e-02 -3.287021e+00 -4.864091e-01 6.233707e-01 1.459980e-01 9.853399e-01 9.733258e-01 1.996878e-02 -1.531642e+00 -7.600015e-01 1.489086e+00 7.424859e-01 -7.449614e-01 -7.495799e-01 -9.207031e-01 1.130913e+00 -6.768605e-01
<VARIANCE> 39
 6.479921e+01 1.513642e+02 1.961094e+02 2.771690e+02 4.398916e+02 3.563868e+02 4.292330e+02 4.529292e+02 4.236488e+02 3.251062e+02 3.850045e+02 2.837078e+02 1.524621e+02 1.662217e+00 5.001711e+00 5.456082e+00 8.213199e+00 1.653329e+01 1.096104e+01 1.928326e+01 1.685973e+01 1.662100e+01 2.562533e+01 1.457212e+01 2.203589e+01 1.860938e+00 2.298974e-01 7.348564e-01 9.881542e-01 1.394543e+00 2.298214e+00 2.341428e+00 2.702274e+00 2.866590e+00 3.672287e+00 2.478807e+00 4.736069e+00 2.921474e+00 3.862987e-01
<GCONST> 1.798816e+02
<MIXTURE> 2 5.067409e-01
<MEAN> 39
 2.080440e+01 -2.519464e+01 -2.038354e+00 -2.856503e+01 2.292795e+01 1.165859e+01 -1.400808e+01 1.155099e+01 1.117694e+00 1.238493e+01 1.064287e+01 -7.340883e+00 1.399625e+02 -1.512815e+00 -1.909184e+00 1.758043e+00 5.115640e+00 1.689365e-01 -4.292168e+00 -2.766548e+00 1.540989e+00 3.884307e+00 4.563133e-01 -3.704513e+00 -1.496750e+00 5.758719e-01 9.156495e-02 9.055123e-01 9.422835e-01 5.222340e-02 -1.451896e+00 -8.808393e-01 1.249026e+00 9.006636e-01 -5.018510e-01 -9.451895e-01 -1.020322e+00 1.044053e+00 -6.126391e-01
<VARIANCE> 39
 6.292448e+01 1.395103e+02 2.019949e+02 2.825183e+02 4.349999e+02 3.495351e+02 4.356719e+02 3.943576e+02 4.302838e+02 3.344037e+02 3.960972e+02 2.897861e+02 1.504587e+02 1.723158e+00 4.876026e+00 5.157173e+00 8.178677e+00 1.408206e+01 1.092178e+01 1.617398e+01 1.538849e+01 1.571880e+01 2.367271e+01 1.362360e+01 1.958852e+01 2.007779e+00 2.277108e-01 7.292183e-01 8.950435e-01 1.210233e+00 2.017600e+00 2.200450e+00 2.327913e+00 2.563183e+00 3.386846e+00 2.410433e+00 4.119339e+00 2.797118e+00 3.548414e-01
<GCONST> 1.779319e+02
<TRANSP> 5
 0.000000e+00 1.000000e+00 0.000000e+00 0.000000e+00 0.000000e+00
 0.000000e+00 6.940184e-01 3.059816e-01 0.000000e+00 0.000000e+00
 0.000000e+00 0.000000e+00 7.545186e-01 2.454814e-01 0.000000e+00
 0.000000e+00 0.000000e+00 0.000000e+00 7.719057e-01 2.280943e-01
 0.000000e+00 0.000000e+00 0.000000e+00 0.000000e+00 0.000000e+00
<ENDHMM>
~h "z"
<BEGINHMM>
<NUMSTATES> 5
<STATE> 2
<NUMMIXES> 2
<MIXTURE> 1 4.950942e-01
<MEAN> 39
 -8.014454e+00 1.860372e+01 2.151903e+01 2.034507e+01 8.504276e+00 -4.658450e+00 -8.964354e-01 2.680540e+00 5.943111e-01 1.316540e+00 -6.856192e+00 9.990268e+00 9.690981e+01 -3.217229e+00 6.369697e+00 -8.093703e-01 3.903702e+00 2.221273e+00 2.375368e+00 1.316184e+00 1.946797e+00 8.724259e-01 4.182753e-01 9.330726e-01 6.394854e-01 2.618652e+00 -7.643246e-01 -1.755429e-01 -7.075953e-01 -3.408772e-01 -8.311063e-02 3.473455e-01 1.850803e-01 2.279914e-01 -2.080488e-01 5.124222e-01 3.206936e-01 -2.842271e-01 1.549947e-01
<VARIANCE> 39
 3.167606e+02 2.669263e+02 2.865192e+02 3.462581e+02 3.531956e+02 3.265178e+02 3.148784e+02 2.820287e+02 2.524996e+02 2.700675e+02 2.826817e+02 3.591318e+02 6.469392e+02 4.917923e+01 2.256314e+01 3.999334e+01 2.979527e+01 2.604374e+01 3.218636e+01 2.636790e+01 2.666241e+01 2.314987e+01 2.537231e+01 2.235796e+01 2.212546e+01 3.702608e+01 4.176799e+00 4.530652e+00 5.026516e+00 4.258910e+00 4.311314e+00 4.722604e+00 4.673971e+00 4.694267e+00 3.760621e+00 4.604693e+00 4.009558e+00 4.189107e+00 3.526567e+00
<GCONST> 2.093194e+02
<MIXTURE> 2 5.048925e-01
<MEAN> 39
 -1.085626e+01 1.663765e+01 2.003643e+01 1.582311e+01 1.205069e+01 -6.012323e+00 -4.761093e+00 1.006942e+00 -1.875635e+00 3.232395e+00 -1.117326e+01 2.566272e+00 9.666959e+01 -3.848343e+00 4.574627e+00 -1.133175e+00 1.275950e+00 1.732269e+00 -3.044853e-01 -3.083838e-01 -5.203590e-01 -2.074718e-02 -8.138024e-01 -9.477808e-01 -3.241619e-01 3.183036e+00 -9.462940e-01 -4.359152e-01 -8.389604e-01 -4.706705e-01 -4.443413e-01 1.429892e-01 -6.551889e-02 1.252177e-01 -2.843306e-01 8.914061e-02 3.574585e-01 -3.422034e-02 -3.118868e-01
<VARIANCE> 39
 3.391970e+02 3.081133e+02 3.192029e+02 3.547954e+02 3.955166e+02 3.202118e+02 3.240749e+02 2.858288e+02 2.495617e+02 2.800163e+02 2.875019e+02 3.209277e+02 6.372100e+02 4.462526e+01 2.401324e+01 3.128392e+01 2.822818e+01 2.461281e+01 2.774729e+01 2.678699e+01 2.433880e+01 2.315001e+01 2.311751e+01 2.278679e+01 1.968239e+01 3.927602e+01 4.779665e+00 4.330956e+00 4.431731e+00 4.122003e+00 4.249111e+00 4.454261e+00 4.435547e+00 4.584482e+00 3.835742e+00 4.186657e+00 4.086931e+00 3.798085e+00 3.600094e+00
<GCONST> 2.086148e+02
<STATE> 3
<NUMMIXES> 2
<MIXTURE> 1 5.117990e-01
<MEAN> 39
 -3.161725e+01 3.291956e+01 9.472610e+00 2.732123e+01 1.091072e+01 6.143057e+00 3.633884e+00 8.592824e+00 -9.689218e-01 5.878675e+00 -2.089414e+00 8.445136e+00 1.096902e+02 -2.732377e+00 2.678316e-01 -3.991369e-01 -4.624471e-02 3.719903e-01 1.190637e+00 1.082755e+00 5.766600e-01 -8.367127e-02 7.283074e-01 9.319540e-01 1.821825e-01 1.132044e+00 1.755713e+00 -9.984667e-01 1.454618e+00 -4.174519e-01 -5.506662e-01 -7.283232e-01 -1.835374e-01 -7.840477e-01 -2.139060e-01 -3.192190e-01 -2.484904e-01 2.081355e-01 4.668438e-01
<VARIANCE> 39
 2.259521e+02 1.967737e+02 2.390614e+02 3.743964e+02 4.005788e+02 3.422486e+02 2.359619e+02 2.147290e+02 1.558190e+02 1.577268e+02 2.446912e+02 1.811328e+02 1.486022e+02 1.692233e+01 1.193853e+01 1.416015e+01 1.196846e+01 1.371859e+01 1.669814e+01 1.399632e+01 1.603688e+01 1.259976e+01 1.313024e+01 1.056028e+01 1.183095e+01 7.396043e+00 2.653052e+00 3.287181e+00 3.150225e+00 2.788981e+00 3.046028e+00 3.670957e+00 3.353332e+00 3.436887e+00 2.794779e+00 2.740331e+00 2.297497e+00 2.527199e+00 1.344380e+00
<GCONST> 1.887678e+02
<MIXTURE> 2 4.881785e-01
<MEAN> 39
 -3.734381e+01 2.929159e+01 6.938283e+00 2.088482e+01 1.421507e+01 2.685362e+00 9.142143e-01 5.232850e+00 -2.248447e+00 5.440579e+00 -6.140847e+00 4.045897e+00 1.082678e+02 -3.070238e+00 -1.085565e+00 -1.851108e+00 -1.519957e+00 -1.320223e+00 -4.792027e-01 -2.408457e-01 -3.998256e-01 -8.856373e-01 -2.488604e-01 -1.575663e-01 -1.658505e-01 1.235911e+00 1.943359e+00 -1.052444e+00 1.293600e+00 -4.095514e-01 -8.677955e-01 -8.182931e-01 -4.638173e-01 -7.078394e-01 -3.683159e-01 -3.702325e-01 -2.937818e-01 -4.121616e-02 4.584438e-01
<VARIANCE> 39
 2.043245e+02 1.984463e+02 3.313000e+02 3.945628e+02 4.509138e+02 3.407135e+02 2.578504e+02 2.135638e+02 1.583715e+02 1.608185e+02 2.343408e+02 1.654398e+02 2.038124e+02 1.754740e+01 1.499062e+01 1.717231e+01 1.413790e+01 1.522956e+01 1.607556e+01 1.516356e+01 1.555753e+01 1.274943e+01 1.273456e+01 1.081779e+01 1.136657e+01 7.567804e+00 2.611316e+00 3.632090e+00 2.930963e+00 3.168501e+00 3.085400e+00 3.799922e+00 3.516768e+00 3.546893e+00 2.820395e+00 2.773216e+00 2.505502e+00 2.431655e+00 1.464480e+00
<GCONST> 1.906177e+02
<STATE> 4
<NUMMIXES> 2
<MIXTURE> 1 4.829608e-01
<MEAN> 39
 -2.623229e+01 2.279758e+01 1.811477e+01 1.883881e+01 -4.656506e-01 -2.568949e+00 6.866820e-01 -1.277614e+00 -6.685344e+00 1.557544e+00 -3.122241e+00 8.513779e+00 1.206239e+02 8.706004e+00 -4.013328e+00 9.895182e+00 -1.964906e+00 -2.482528e+00 -4.348830e+00 -1.398130e+00 -3.888500e+00 -1.061031e+00 -1.085824e+00 -6.983078e-01 1.776231e+00 5.153582e+00 1.191494e+00 -1.643901e+00 1.629806e+00 -1.100062e+00 3.010211e-01 -4.891219e-01 -1.053245e-01 2.641654e-02 2.767634e-02 5.151560e-01 -8.509174e-02 3.798973e-01 1.243953e-01
<VARIANCE> 39
 3.355523e+02 1.680515e+02 3.667129e+02 2.799590e+02 4.508333e+02 3.043259e+02 2.477794e+02 2.044822e+02 1.477211e+02 1.654224e+02 2.850378e+02 2.393987e+02 1.787786e+02 2.001846e+01 3.452585e+01 3.178601e+01 3.498280e+01 2.267959e+01 3.024720e+01 2.478323e+01 3.132436e+01 2.068187e+01 1.826268e+01 1.671820e+01 2.101606e+01 6.421371e+00 6.292794e+00 2.864965e+00 6.224689e+00 4.719399e+00 4.331031e+00 4.633048e+00 4.299252e+00 4.623324e+00 3.663374e+00 3.860633e+00 3.425252e+00 3.323658e+00 1.212152e+00
<GCONST> 2.011672e+02
<MIXTURE> 2 5.170196e-01
<MEAN> 39
 -2.388528e+01 2.230740e+01 2.472072e+01 1.622862e+01 1.103266e+01 -9.567637e+00 -5.242702e+00 -2.942427e+00 -7.104099e+00 5.274985e-01 -1.126001e+01 3.600537e+00 1.253247e+02 8.655610e+00 -6.682429e+00 7.836891e+00 -1.336571e+00 -3.875723e+00 -3.294153e+00 -3.710043e+00 -2.306544e+00 -2.401660e+00 -1.790597e+00 -1.622636e+00 -3.652851e-01 4.538685e+00 9.814755e-01 -1.877412e+00 9.093055e-01 -7.679540e-01 -5.367404e-01 1.328113e-01 -5.931188e-01 5.829483e-01 -2.944232e-01 1.008902e-01 2.303031e-01 1.891106e-02 -1.286289e-01
<VARIANCE> 39
 2.929231e+02 1.857026e+02 2.766057e+02 3.012631e+02 4.254468e+02 2.811695e+02 3.080830e+02 1.981562e+02 1.524647e+02 1.772584e+02 2.784886e+02 2.552120e+02 1.490026e+02 1.984184e+01 2.536997e+01 2.896461e+01 3.267085e+01 2.127732e+01 2.959380e+01 2.472519e+01 3.418720e+01 2.035168e+01 1.757345e+01 1.791274e+01 1.890778e+01 5.601397e+00 5.610410e+00 2.646253e+00 5.342037e+00 4.426712e+00 3.863713e+00 4.093835e+00 4.237683e+00 4.408493e+00 3.399801e+00 3.621677e+00 3.516349e+00 2.979871e+00 9.854694e-01
<GCONST> 1.990848e+02
<TRANSP> 5
 0.000000e+00 1.000000e+00 0.000000e+00 0.000000e+00 0.000000e+00
 0.000000e+00 7.273310e-01 2.726690e-01 0.000000e+00 0.000000e+00
 0.000000e+00 0.000000e+00 8.121623e-01 1.878377e-01 0.000000e+00
 0.000000e+00 0.000000e+00 0.000000e+00 7.316758e-01 2.683242e-01
 0.000000e+00 0.000000e+00 0.000000e+00 0.000000e+00 0.000000e+00
<ENDHMM>
~h "ah"
<BEGINHMM>
<NUMSTATES> 5
<STATE> 2
<NUMMIXES> 2
<MIXTURE> 1 5.045333e-01
<MEAN> 39
 1.699639e+01 -1.963910e+01 1.773588e+01 -9.987056e+00 6.795864e+00 -9.778816e+00 -7.660718e+00 1.795642e+01 6.235120e+00 8.787487e+00 1.005761e+00 5.947206e+00 1.348380e+02 -8.473113e-02 1.022943e+00 3.102064e+00 1.043943e+00 -1.538425e+00 -2.080779e+00 2.737694e+00 1.720200e+00 -7.913727e-01 -5.001275e-01 -1.574333e+00 2.134126e+00 -6.145290e-01 1.518335e-01 1.452273e+00 5.653774e-01 1.501761e+00 2.118984e-01 1.444050e+00 1.389995e+00 -1.936921e+00 -9.340006e-01 1.089327e-01 -1.159018e-01 3.076918e-01 -1.865231e+00
<VARIANCE> 39
 7.314427e+01 1.522302e+02 1.821922e+02 2.077177e+02 2.614967e+02 3.660048e+02 6.530465e+02 4.478825e+02 4.094011e+02 4.334824e+02 3.283009e+02 3.496546e+02 1.690045e+02 3.944679e+00 1.095822e+01 1.150597e+01 2.953587e+01 1.832205e+01 1.958618e+01 2.395280e+01 2.372497e+01 2.704514e+01 2.425390e+01 2.851984e+01 2.087974e+01 1.586925e+01 9.859168e-01 1.561596e+00 1.762524e+00 3.985466e+00 3.157424e+00 4.626543e+00 6.823744e+00 5.664257e+00 5.127802e+00 4.154864e+00 4.184134e+00 3.518396e+00 1.608379e+00
<GCONST> 1.968598e+02
<MIXTURE> 2 4.954437e-01
<MEAN> 39
 1.706650e+01 -2.082158e+01 1.663264e+01 -1.033064e+01 6.104283e+00 -1.022287e+01 -1.316406e+01 1.286773e+01 2.016681e+00 1.060827e+01 3.235624e-01 1.260268e+00 1.332729e+02 -3.828607e-01 3.408863e-01 2.412680e+00 3.732520e-01 -1.820341e+00 -2.774038e+00 1.765162e+00 1.987638e+00 -1.008630e-02 -7.994419e-01 -2.179546e+00 1.218660e+00 4.593054e-01 2.761291e-02 1.204296e+00 4.545098e-01 1.112162e+00 9.743178e-02 1.155702e+00 1.350461e+00 -1.295093e+00 -9.588702e-01 -6.266081e-02 -2.816341e-01 2.219480e-01 -1.502502e+00
<VARIANCE> 39
 7.986118e+01 1.433357e+02 1.822598e+02 2.087543e+02 2.442541e+02 3.519315e+02 5.993580e+02 4.440167e+02 4.465873e+02 4.725385e+02 3.752596e+02 3.428107e+02 1.803830e+02 3.730325e+00 1.092491e+01 1.077441e+01 2.955755e+01 1.696506e+01 1.900920e+01 2.534678e+01 2.168292e+01 2.707836e+01 2.474335e+01 2.789351e+01 2.053349e+01 1.745428e+01 9.539745e-01 1.520961e+00 1.560102e+00 3.450236e+00 2.913651e+00 4.177358e+00 5.799870e+00 4.976544e+00 4.571914e+00 3.850723e+00 3.734639e+00 3.171520e+00 1.801643e+00
<GCONST> 1.957618e+02
<STATE> 3
<NUMMIXES> 2
<MIXTURE> 1 4.961184e-01
<MEAN> 39
 1.783834e+01 -9.201361e+00 2.900340e+01 2.895336e+00 5.239050e+00 -1.111982e+01 7.328131e+00 1.184369e+01 3.303741e-01 6.100447e+00 -6.048366e+00 1.383435e+01 1.237291e+02 9.920394e-01 5.547141e+00 4.759978e+00 7.411013e+00 -2.892951e+00 3.607496e+00 5.998102e+00 -8.344051e+00 -1.034355e+00 -4.712591e-01 -1.366436e+00 3.101146e+00 -6.316860e+00 8.087288e-02 1.731374e-01 -5.258216e-01 -1.468852e-01 -2.216344e-01 1.658566e+00 -8.966929e-02 -1.281457e+00 7.239201e-01 4.995793e-02 7.624592e-01 -2.001176e-01 -1.946644e-01
<VARIANCE> 39
 5.616945e+01 1.932521e+02 2.093802e+02 3.476728e+02 2.725753e+02 3.933001e+02 6.212183e+02 5.470685e+02 4.231445e+02 5.092864e+02 3.656074e+02 3.885200e+02 1.911215e+02 5.090272e+00 8.903203e+00 1.575204e+01 1.971193e+01 2.223707e+01 4.295552e+01 5.004893e+01 3.952151e+01 4.022665e+01 3.146597e+01 3.554921e+01 2.727634e+01 3.731463e+00 5.725940e-01 1.659550e+00 2.595049e+00 4.465622e+00 3.016241e+00 4.813786e+00 5.471303e+00 7.557745e+00 4.570560e+00 4.067304e+00 3.617064e+00 3.321474e+00 1.533809e+00
<GCONST> 1.998552e+02
<MIXTURE> 2 5.038666e-01
<MEAN> 39
 1.783943e+01 -1.102703e+01 2.749316e+01 3.696026e+00 3.817041e+00 -9.421669e+00 3.440488e-01 7.393542e+00 -4.470758e+00 1.039650e+01 -1.074834e+01 6.571502e+00 1.222547e+02 5.583842e-01 4.898186e+00 4.326757e+00 7.298659e+00 -3.167923e+00 3.629610e+00 7.063705e+00 -7.331286e+00 -1.998500e+00 -9.295254e-01 -3.093138e+00 1.793107e+00 -6.207982e+00 2.777457e-03 9.704578e-02 -5.814945e-01 -3.235327e-01 -3.714229e-01 1.418182e+00 -1.000459e-01 -9.096924e-01 5.172039e-01 -2.287615e-01 7.690601e-01 -3.329605e-01 -6.754434e-02
<VARIANCE> 39
 5.819598e+01 1.850461e+02 2.154158e+02 3.593196e+02 2.851342e+02 4.298509e+02 6.230322e+02 4.878942e+02 4.232682e+02 5.746658e+02 4.228065e+02 4.003529e+02 2.019161e+02 5.500565e+00 8.714960e+00 1.582381e+01 2.178038e+01 2.416601e+01 4.640432e+01 4.974286e+01 3.907634e+01 3.886332e+01 2.970527e+01 3.399593e+01 2.609328e+01 4.108032e+00 5.894744e-01 1.558742e+00 2.484904e+00 4.314775e+00 3.057719e+00 5.097134e+00 5.920395e+00 6.767045e+00 4.543614e+00 3.916259e+00 3.731353e+00 3.164180e+00 1.475312e+00
<GCONST> 2.003286e+02
<STATE> 4
<NUMMIXES> 2
<MIXTURE> 1 5.013694e-01
<MEAN> 39
 1.984135e+01 4.201130e+00 3.639382e+01 1.731432e+01 -4.924919e+00 7.780870e+00 1.778870e+01 -8.088945e+00 1.266251e+00 3.940164e+00 -3.846917e+00 1.710809e+01 1.076537e+02 -3.279048e-02 2.350401e+00 7.989847e-01 1.907752e+00 -3.241991e-01 2.615037e+00 1.665585e+00 -1.584281e+00 4.213371e-01 1.342016e-02 1.695762e-01 3.696334e-01 -2.663897e+00 -3.956566e-01 -4.713577e-01 -7.792098e-01 -7.009223e-01 8.715172e-01 -5.874788e-01 -7.433336e-01 1.606765e+00 7.489902e-02 1.615922e-01 9.517276e-02 -5.336797e-01 3.840188e-01
<VARIANCE> 39
 5.006703e+01 1.927625e+02 1.376856e+02 2.481662e+02 2.547502e+02 4.084066e+02 4.991232e+02 4.198950e+02 5.093111e+02 5.348024e+02 5.084578e+02 4.734088e+02 1.788060e+02 2.501102e+00 6.646680e+00 7.947288e+00 1.037597e+01 1.152368e+01 1.837606e+01 1.931460e+01 2.632447e+01 1.477031e+01 1.248762e+01 1.435089e+01 1.259697e+01 3.650741e+00 5.334883e-01 1.322202e+00 1.660392e+00 2.816305e+00 2.243070e+00 3.408400e+00 4.189567e+00 4.254510e+00 3.553751e+00 2.941987e+00 3.319041e+00 3.004960e+00 9.337665e-01
<GCONST> 1.863953e+02
<MIXTURE> 2 4.986077e-01
<MEAN> 39
 1.832634e+01 1.195071e+00 3.497335e+01 1.722654e+01 -4.903328e+00 7.748637e+00 1.451172e+01 -9.790323e+00 -5.183700e+00 6.324629e+00 -1.051366e+01 1.030287e+01 1.077870e+02 -4.077037e-01 1.962876e+00 3.576869e-01 1.600210e+00 -5.080611e-01 1.734149e+00 1.549773e+00 -1.184144e+00 -6.824183e-02 -6.766185e-01 -8.059373e-01 -3.343855e-01 -2.643036e+00 -4.344341e-01 -4.616773e-01 -8.782469e-01 -8.002211e-01 7.438802e-01 -7.438556e-01 -1.011869e+00 1.474963e+00 1.905475e-01 -3.179981e-02 2.072543e-01 -5.421054e-01 2.941329e-01
<VARIANCE> 39
 5.267475e+01 1.874777e+02 1.386574e+02 2.804932e+02 2.593989e+02 3.931232e+02 4.710451e+02 4.007894e+02 5.008499e+02 5.986663e+02 5.347429e+02 4.669442e+02 2.043981e+02 2.882428e+00 6.557546e+00 7.739899e+00 1.011543e+01 1.091828e+01 1.733646e+01 1.912850e+01 2.126304e+01 1.454320e+01 1.257282e+01 1.460157e+01 1.280671e+01 3.984540e+00 6.377143e-01 1.385875e+00 1.744919e+00 2.843454e+00 2.425423e+00 3.689782e+00 4.547453e+00 4.256719e+00 3.725534e+00 3.009622e+00 3.657623e+00 3.143604e+00 1.019109e+00
<GCONST> 1.873678e+02
<TRANSP> 5
 0.000000e+00 1.000000e+00 0.000000e+00 0.000000e+00 0.000000e+00
 0.000000e+00 7.181967e-01 2.818033e-01 0.000000e+00 0.000000e+00
 0.000000e+00 0.000000e+00 5.676238e-01 4.323762e-01 0.000000e+00
 0.000000e+00 0.000000e+00 0.000000e+00 7.532529e-01 2.467471e-01
 0.000000e+00 0.000000e+00 0.000000e+00 0.000000e+00 0.000000e+00
<ENDHMM>
~h "ao"
<BEGINHMM>
<NUMSTATES> 5
<STATE> 2
<NUMMIXES> 2
<MIXTURE> 1 5.085164e-01
<MEAN> 39
 3.566360e+01 1.450477e+01 1.369682e+01 -4.071609e+01 -2.077562e+01 -5.199320e-01 -6.004269e-01 8.162605e+00 -1.291150e+01 6.275212e+00 -8.894432e+00 2.762310e+00 1.204522e+02 6.442417e+00 3.501399e+00 3.165264e+00 -7.930984e+00 -4.415898e+00 -1.384513e+00 -5.632296e-01 1.990311e+00 -5.999520e-01 1.802484e+00 -8.243798e-01 -4.612729e-02 3.234826e+00 -4.094811e+00 -2.010566e+00 -1.072358e+00 2.758278e+00 1.167130e+00 -7.584194e-02 -5.580580e-01 -4.582610e-01 5.066497e-01 1.755233e-01 5.428426e-01 1.249747e-01 -1.014035e+00
<VARIANCE> 39
 4.937419e+01 1.577496e+02 2.096726e+02 3.480258e+02 4.802326e+02 3.260628e+02 4.086675e+02 3.818615e+02 3.519666e+02 3.075376e+02 2.694637e+02 3.711089e+02 1.384616e+02 3.890062e+01 2.194344e+01 1.920071e+01 4.087644e+01 3.016405e+01 2.054634e+01 3.046770e+01 2.611902e+01 2.596014e+01 2.610033e+01 2.085772e+01 2.745193e+01 1.122961e+01 1.571439e+00 2.427416e+00 2.261673e+00 4.305569e+00 4.101521e+00 3.041758e+00 4.062533e+00 3.799588e+00 3.808141e+00 3.154633e+00 3.305685e+00 3.933377e+00 1.783891e+00
<GCONST> 2.001066e+02
<MIXTURE> 2 4.914645e-01
<MEAN> 39
 3.466865e+01 1.296225e+01 1.433796e+01 -4.075956e+01 -2.224232e+01 4.288614e-01 -1.740334e+00 9.342991e+00 -1.665854e+01 5.581765e+00 -9.048167e+00 -2.913992e-01 1.208602e+02 6.973171e+00 3.145603e+00 3.108250e+00 -8.936928e+00 -5.566695e+00 -1.434553e+00 -1.360748e+00 2.168691e+00 -2.218101e+00 8.183640e-01 -1.524392e+00 -1.698938e+00 3.884290e+00 -4.416943e+00 -2.174637e+00 -1.286004e+00 2.729990e+00 1.106056e+00 -2.726563e-01 -7.688146e-01 -6.872007e-01 6.393570e-01 1.695892e-02 3.795530e-01 1.044921e-01 -1.190744e+00
<VARIANCE> 39
 4.999310e+01 1.464383e+02 2.005794e+02 3.215825e+02 4.531695e+02 3.275226e+02 3.846659e+02 3.948343e+02 3.653521e+02 3.116933e+02 2.743142e+02 3.765731e+02 1.364576e+02 3.368309e+01 1.864764e+01 1.838569e+01 3.576896e+01 3.237012e+01 2.205637e+01 2.989902e+01 2.754543e+01 2.949798e+01 2.637941e+01 2.401900e+01 2.736349e+01 1.008529e+01 1.345527e+00 2.204128e+00 2.289372e+00 3.997819e+00 3.951557e+00 2.990340e+00 3.780227e+00 3.794596e+00 3.963166e+00 3.120425e+00 3.146595e+00 4.057939e+00 1.673833e+00
<GCONST> 1.992762e+02
<STATE> 3
<NUMMIXES> 2
<MIXTURE> 1 5.093648e-01
<MEAN> 39
 3.622399e+01 1.708928e+01 1.539028e+01 -4.605508e+01 -2.635126e+01 -2.817501e+00 -2.377734e+00 1.042867e+01 -1.080860e+01 1.014677e+01 -9.022571e+00 1.361551e+00 1.212158e+02 2.151790e-01 -5.463142e-01 -8.649499e-01 6.954633e-01 -1.336688e-01 -3.071077e-01 7.376015e-01 3.141504e-01 -6.691227e-01 1.600181e-01 5.504680e-01 4.970499e-01 -3.115714e-03 -1.655522e-01 -6.758602e-01 -6.859468e-01 6.828544e-01 7.349795e-01 1.454367e-01 3.395484e-01 -1.488682e-01 -4.028390e-01 -1.832007e-01 4.057059e-01 4.253254e-01 7.861920e-02
<VARIANCE> 39
 5.266388e+01 1.763546e+02 2.650071e+02 3.239777e+02 5.053134e+02 3.492658e+02 5.287601e+02 3.631877e+02 3.671289e+02 3.659871e+02 2.973438e+02 3.594520e+02 1.398150e+02 8.889762e-01 7.671872e+00 6.836434e+00 5.488403e+00 6.190976e+00 7.828353e+00 1.159782e+01 9.931546e+00 1.093455e+01 9.331345e+00 9.203754e+00 8.743210e+00 2.827629e+00 4.307658e-01 7.291017e-01 8.757611e-01 1.647322e+00 1.350403e+00 1.239988e+00 1.668100e+00 1.728312e+00 1.726641e+00 1.914214e+00 1.985870e+00 1.859329e+00 4.878278e-01
<GCONST> 1.715401e+02
<MIXTURE> 2 4.906051e-01
<MEAN> 39
 3.481237e+01 1.617619e+01 1.782480e+01 -4.633072e+01 -2.750379e+01 -4.151868e+00 -5.523976e+00 1.054144e+01 -1.290974e+01 9.982418e+00 -8.743637e+00 -1.609605e+00 1.211504e+02 8.439286e-02 -2.907403e-01 -7.610179e-01 2.914232e-01 -4.187459e-01 -5.678040e-01 5.764958e-01 5.892929e-01 -5.034673e-01 -3.094985e-01 -5.355951e-02 -1.039600e-01 1.637959e-02 -2.213707e-01 -6.719229e-01 -7.876968e-01 7.228373e-01 6.276501e-01 1.785584e-01 3.722004e-01 -3.641632e-02 -4.341165e-01 -3.929288e-01 2.434464e-01 2.921809e-01 -4.078567e-03
<VARIANCE> 39
 5.525023e+01 1.717610e+02 2.533149e+02 3.544906e+02 4.997503e+02 3.649233e+02 5.233423e+02 4.043482e+02 3.936980e+02 3.796926e+02 3.119872e+02 3.703355e+02 1.435921e+02 8.856254e-01 6.496192e+00 6.702281e+00 5.275157e+00 6.092550e+00 7.077703e+00 1.061054e+01 9.434793e+00 1.013875e+01 8.920894e+00 8.954689e+00 8.236110e+00 2.586116e+00 5.834373e-01 7.667155e-01 1.017632e+00 1.934118e+00 1.338926e+00 1.213601e+00 1.671986e+00 1.826860e+00 1.831287e+00 1.917303e+00 1.879973e+00 1.946871e+00 6.401917e-01
<GCONST> 1.721794e+02
<STATE> 4
<NUMMIXES> 2
<MIXTURE> 1 5.060436e-01
<MEAN> 39
 3.813743e+01 -2.754677e+00 -7.478183e+00 -3.096996e+01 -8.429436e+00 -5.966449e+00 1.279072e+00 1.260700e+01 -2.454323e+01 6.092892e+00 2.714602e+00 1.290214e+01 1.280649e+02 2.207252e-01 -4.060158e+00 -4.407667e+00 4.186419e+00 6.480548e+00 -1.431827e+00 -2.271622e+00 -7.656567e-01 -4.003644e-03 5.174915e-01 2.948131e+00 2.191664e+00 9.570440e-01 -1.438338e-01 3.041781e-01 5.887599e-01 5.594429e-01 4.435114e-01 -5.140812e-01 -1.114334e+00 -1.239606e-01 1.492526e+00 4.811203e-01 -4.303028e-01 -6.477758e-01 -3.878340e-01
<VARIANCE> 39
 5.625960e+01 2.254771e+02 3.046385e+02 2.998627e+02 6.080771e+02 4.615589e+02 8.245010e+02 5.966132e+02 4.805068e+02 7.208585e+02 4.025456e+02 3.582877e+02 1.589613e+02 1.591740e+00 6.938168e+00 1.036629e+01 1.345151e+01 1.642881e+01 2.296440e+01 2.719324e+01 2.645219e+01 3.121848e+01 3.559312e+01 2.774633e+01 3.689337e+01 2.677093e+00 2.678118e-01 9.882423e-01 1.719473e+00 1.630319e+00 3.023214e+00 2.957280e+00 3.473360e+00 4.445757e+00 3.911588e+00 5.637041e+00 5.018657e+00 5.384139e+00 3.015770e-01
<GCONST> 1.925021e+02
<MIXTURE> 2 4.939342e-01
<MEAN> 39
 3.703587e+01 -3.070829e+00 -8.102074e+00 -3.141865e+01 -6.536142e+00 -8.724300e+00 -3.541240e+00 1.376504e+01 -2.409535e+01 5.016219e+00 1.581695e+00 1.053658e+01 1.271545e+02 5.809551e-02 -3.650616e+00 -4.526712e+00 3.606408e+00 6.409687e+00 -1.257416e+00 -2.566394e+00 -7.770952e-01 3.218426e-01 5.793808e-01 1.640014e+00 1.415159e+00 7.733744e-01 -1.724478e-01 3.212304e-01 5.631353e-01 4.359777e-01 2.973835e-01 -3.512541e-01 -8.976327e-01 -1.626772e-01 1.154892e+00 3.953032e-01 -4.044780e-01 -6.877082e-01 -4.117068e-01
<VARIANCE> 39
 6.324143e+01 2.473758e+02 3.183158e+02 3.058918e+02 6.301290e+02 4.650802e+02 8.291442e+02 6.763094e+02 4.970703e+02 7.524255e+02 4.289454e+02 3.858473e+02 1.669425e+02 1.794865e+00 7.301977e+00 1.178011e+01 1.551143e+01 1.706853e+01 2.453282e+01 2.512936e+01 2.925443e+01 3.024484e+01 3.804358e+01 2.852973e+01 3.714756e+01 3.076879e+00 2.930899e-01 9.766334e-01 1.829458e+00 1.650848e+00 3.070058e+00 3.154696e+00 3.207418e+00 5.027070e+00 3.952787e+00 6.012971e+00 5.130851e+00 5.425570e+00 3.336788e-01
<GCONST> 1.944716e+02
<TRANSP> 5
 0.000000e+00 1.000000e+00 0.000000e+00 0.000000e+00 0.000000e+00
 0.000000e+00 6.287560e-01 3.712440e-01 0.000000e+00 0.000000e+00
 0.000000e+00 0.000000e+00 8.650567e-01 1.349434e-01 0.000000e+00
 0.000000e+00 0.000000e+00 0.000000e+00 8.322888e-01 1.677112e-01
 0.000000e+00 0.000000e+00 0.000000e+00 0.000000e+00 0.000000e+00
<ENDHMM>
~h "ay"
<BEGINHMM>
<NUMSTATES> 5
<STATE> 2
<NUMMIXES> 2
<MIXTURE> 1 5.003185e-01
<MEAN> 39
 1.786144e+01 -3.152254e+01 1.649246e+00 -2.128115e+01 1.128717e+01 5.068825e+00 -5.329200e+00 1.692144e+01 8.565052e+00 1.018779e+01 1.210803e+00 1.075953e+00 1.454947e+02 -2.023003e-01 -1.926555e+00 -2.704273e+00 -2.988536e-01 2.321808e+00 2.488586e+00 -1.170627e+00 -6.975162e-02 1.167521e+00 -5.318534e-01 7.644336e-01 -1.334507e+00 9.795933e-01 -1.491958e-02 1.159363e+00 1.026644e+00 1.136829e+00 -2.808261e-01 -1.428016e-01 2.871349e-01 -8.302896e-01 -4.660504e-01 3.813760e-02 -1.129783e-01 1.876749e-01 -1.259967e+00
<VARIANCE> 39
 8.188953e+01 1.589303e+02 2.791146e+02 3.545347e+02 4.210352e+02 3.718694e+02 4.632260e+02 4.355003e+02 3.996573e+02 4.189724e+02 4.216920e+02 3.594061e+02 1.165405e+02 2.424094e+00 6.037169e+00 9.484757e+00 1.125227e+01 1.232201e+01 1.206256e+01 1.830216e+01 1.349316e+01 1.497759e+01 1.450188e+01 1.539268e+01 1.365406e+01 3.038702e+00 8.532888e-01 1.204936e+00 1.226734e+00 2.577672e+00 2.140617e+00 2.668021e+00 3.805843e+00 4.049339e+00 3.117602e+00 2.489410e+00 2.655993e+00 2.019684e+00 1.107472e+00
<GCONST> 1.847368e+02
<MIXTURE> 2 4.996567e-01
<MEAN> 39
 1.772818e+01 -3.255922e+01 -2.452684e+00 -2.594686e+01 8.162533e+00 6.567263e+00 -3.990551e+00 1.130982e+01 6.495712e+00 1.315707e+01 -1.217651e-01 -2.878617e+00 1.462316e+02 -7.586214e-01 -2.078733e+00 -2.065985e+00 -1.117995e-01 2.136290e+00 2.258070e+00 -4.846078e-01 4.125339e-02 9.955385e-01 -8.478255e-01 -1.952686e-01 -1.400475e+00 1.166083e+00 -4.186441e-01 1.074792e+00 7.687962e-01 1.328289e+00 -3.005920e-01 -3.077256e-01 -2.667479e-02 -5.568359e-01 -4.947962e-01 -2.888924e-01 -2.007199e-01 1.353395e-01 -1.479628e+00
<VARIANCE> 39
 7.849556e+01 1.582690e+02 2.928901e+02 3.736760e+02 4.327719e+02 3.705640e+02 4.082166e+02 4.367304e+02 4.065972e+02 4.402580e+02 4.950419e+02 3.672592e+02 1.176410e+02 2.722011e+00 5.240446e+00 7.983340e+00 9.652366e+00 1.024205e+01 1.151929e+01 1.557114e+01 1.214181e+01 1.398019e+01 1.296468e+01 1.538603e+01 1.396981e+01 2.912518e+00 1.683963e+00 1.073028e+00 1.206501e+00 2.571987e+00 2.116123e+00 2.383385e+00 3.369363e+00 3.291128e+00 2.908579e+00 2.637175e+00 2.826554e+00 2.009620e+00 1.458454e+00
<GCONST> 1.843116e+02
<STATE> 3
<NUMMIXES> 2
<MIXTURE> 1 4.999444e-01
<MEAN> 39
 1.694010e+01 -3.511533e+01 -1.633549e+00 -2.062559e+01 1.456219e+01 1.023433e+01 -6.915955e+00 1.480262e+01 1.010271e+01 1.000537e+01 2.999699e-01 -2.627842e+00 1.453287e+02 -1.813259e-01 -2.815810e-01 6.373119e-01 9.090394e-01 -2.508665e-01 -9.051321e-01 -2.615818e-02 7.377627e-01 3.664966e-01 -3.690428e-01 -3.009747e-01 2.463449e-01 -1.429731e-01 -2.410709e-02 1.435506e-01 3.809882e-01 1.083101e-01 -4.229267e-01 -4.490524e-01 2.275056e-01 1.919784e-01 -7.631887e-02 -4.128239e-02 -3.438563e-02 2.904639e-01 -4.886126e-02
<VARIANCE> 39
 7.428753e+01 1.649902e+02 2.183538e+02 3.803911e+02 4.712491e+02 3.516485e+02 3.728040e+02 4.218231e+02 3.615846e+02 3.430049e+02 4.079873e+02 3.888917e+02 1.516534e+02 7.709240e-01 1.529474e+00 2.682016e+00 3.373796e+00 4.538343e+00 6.027365e+00 5.423148e+00 4.594727e+00 4.559016e+00 4.792920e+00 5.058585e+00 4.966114e+00 6.701685e-01 1.244380e-01 2.389930e-01 3.438991e-01 4.391675e-01 5.766444e-01 6.305457e-01 8.311901e-01 6.930954e-01 7.439716e-01 7.700763e-01 7.773181e-01 7.587100e-01 9.285922e-02
<GCONST> 1.494955e+02
<MIXTURE> 2 5.000107e-01
<MEAN> 39
 1.583704e+01 -3.629898e+01 -4.092307e+00 -2.281420e+01 1.297860e+01 1.027522e+01 -7.108865e+00 1.108328e+01 8.122825e+00 1.068212e+01 -1.717066e+00 -6.276229e+00 1.462939e+02 -2.183407e-01 -3.386293e-01 4.946271e-01 9.530650e-01 -1.575555e-01 -8.856746e-01 -1.850010e-01 5.990508e-01 3.385730e-01 -4.907692e-01 -5.783859e-01 -2.065333e-01 -1.726037e-01 -5.252980e-03 1.271479e-01 3.252000e-01 1.146037e-01 -3.916579e-01 -4.540684e-01 1.687483e-01 1.755520e-01 -4.004355e-02 -5.947533e-02 -7.975842e-02 1.720094e-01 -8.169939e-02
<VARIANCE> 39
 7.160946e+01 1.629764e+02 2.293235e+02 3.762890e+02 4.816735e+02 3.472908e+02 3.593841e+02 4.314417e+02 3.691140e+02 3.721046e+02 4.145042e+02 3.844429e+02 1.425087e+02 7.904732e-01 1.552488e+00 2.415056e+00 3.276748e+00 4.084331e+00 5.571996e+00 4.880326e+00 4.353899e+00 4.450978e+00 4.552230e+00 4.812838e+00 4.681741e+00 7.280466e-01 1.277239e-01 2.325282e-01 3.271892e-01 4.234210e-01 5.365847e-01 6.155876e-01 7.514244e-01 6.492816e-01 6.898172e-01 7.217069e-01 7.233365e-01 7.074650e-01 9.511294e-02
<GCONST> 1.483771e+02
<STATE> 4
<NUMMIXES> 2
<MIXTURE> 1 5.024418e-01
<MEAN> 39
 1.309639e+01 -3.259022e+01 1.600321e+01 -1.208340e+01 8.389521e-02 -5.213875e+00 2.739060e+00 2.524304e+01 7.713992e+00 2.954605e+00 -1.396383e+00 5.701385e+00 1.422225e+02 -5.809298e-01 2.189388e+00 4.372573e+00 -1.187761e-01 -3.866172e+00 -2.232287e+00 2.780448e+00 -3.522873e-02 -1.870317e+00 6.742190e-01 8.968673e-01 1.572015e+00 -1.139385e+00 2.031256e-01 7.289578e-01 1.929346e-01 -4.042192e-02 2.564508e-01 3.829975e-01 -1.135269e-01 -9.678874e-01 -3.206562e-01 5.931058e-01 1.183256e-01 -9.495620e-02 -5.543904e-01
<VARIANCE> 39
 7.389382e+01 1.895662e+02 3.590875e+02 2.579472e+02 4.255464e+02 2.618625e+02 5.350955e+02 3.184750e+02 3.541889e+02 3.288835e+02 3.300422e+02 3.248589e+02 1.847127e+02 1.603258e+00 4.822108e+00 5.871894e+00 9.991990e+00 1.126849e+01 1.435781e+01 1.684415e+01 1.661834e+01 1.449492e+01 1.456102e+01 1.248771e+01 1.241462e+01 1.735339e+00 2.816440e-01 5.302811e-01 1.027403e+00 1.604598e+00 1.948913e+00 1.530262e+00 2.454077e+00 2.082642e+00 2.214510e+00 2.046807e+00 2.114861e+00 1.932759e+00 3.292875e-01
<GCONST> 1.757110e+02
<MIXTURE> 2 4.975249e-01
<MEAN> 39
 1.239270e+01 -3.358351e+01 1.469608e+01 -1.333198e+01 -1.309774e+00 -8.514023e+00 -1.306367e-01 2.135625e+01 6.437539e+00 3.662412e+00 -3.451849e+00 1.822233e+00 1.423049e+02 -6.186729e-01 2.063501e+00 4.130343e+00 3.754310e-01 -3.617982e+00 -2.498586e+00 2.044930e+00 -8.973420e-02 -1.814389e+00 6.470659e-02 5.211101e-01 1.281579e+00 -1.244091e+00 1.799114e-01 6.450038e-01 1.350707e-01 -2.292110e-02 2.344149e-01 3.377041e-01 -1.049143e-01 -8.641325e-01 -4.046628e-01 4.129846e-01 8.686258e-02 -1.501759e-01 -5.228373e-01
<VARIANCE> 39
 7.711930e+01 1.913409e+02 3.886050e+02 2.574672e+02 4.438226e+02 2.748954e+02 5.203706e+02 3.260585e+02 3.989682e+02 3.898896e+02 3.355149e+02 3.516463e+02 1.954729e+02 1.660725e+00 4.704887e+00 6.311490e+00 1.006067e+01 1.127877e+01 1.473743e+01 1.850244e+01 1.673741e+01 1.495242e+01 1.364222e+01 1.212196e+01 1.302277e+01 1.886335e+00 2.868662e-01 5.542283e-01 1.057806e+00 1.390089e+00 1.943036e+00 1.561321e+00 2.295243e+00 2.008888e+00 2.117611e+00 1.926161e+00 1.980715e+00 2.001211e+00 3.269481e-01
<GCONST> 1.763720e+02
<TRANSP> 5
 0.000000e+00 1.000000e+00 0.000000e+00 0.000000e+00 0.000000e+00
 0.000000e+00 7.079341e-01 2.920658e-01 0.000000e+00 0.000000e+00
 0.000000e+00 0.000000e+00 8.982013e-01 1.017986e-01 0.000000e+00
 0.000000e+00 0.000000e+00 0.000000e+00 8.041157e-01 1.958843e-01
 0.000000e+00 0.000000e+00 0.000000e+00 0.000000e+00 0.000000e+00
<ENDHMM>
~h "eh"
<BEGINHMM>
<NUMSTATES> 5
<STATE> 2
<NUMMIXES> 2
<MIXTURE> 1 4.973989e-01
<MEAN> 39
 -4.849285e+01 5.447330e+00 -1.269230e+01 -1.443008e-01 -9.815725e+00 -5.347847e+00 -3.454246e+00 2.837141e+00 -6.016840e+00 2.172862e+00 -3.130207e+00 8.544321e+00 1.117955e+02 1.042056e+01 1.528004e-01 7.471162e+00 9.150610e-01 3.405214e-01 -2.011737e+00 -1.263637e-01 -9.008146e-02 2.344559e+00 3.015995e-01 -2.739686e-01 1.911816e+00 2.641208e+00 4.346962e+00 -1.015690e+00 2.448714e+00 -3.263869e-01 2.434329e-01 -1.326438e+00 -6.967909e-01 -1.782738e-01 1.084681e+00 5.757875e-01 -1.113354e-01 5.069278e-01 1.986111e+00
<VARIANCE> 39
 1.306902e+02 1.034760e+02 1.180923e+02 1.834544e+02 2.519988e+02 2.696067e+02 1.390599e+02 1.356003e+02 1.551472e+02 1.247276e+02 1.743545e+02 1.280062e+02 1.133282e+02 2.861019e+01 1.349209e+01 1.611388e+01 1.272601e+01 1.049380e+01 1.680836e+01 1.407531e+01 1.282109e+01 1.405525e+01 1.953122e+01 1.533116e+01 1.603955e+01 1.030789e+01 1.780857e+00 2.015009e+00 2.305619e+00 2.627292e+00 2.755489e+00 4.644564e+00 5.447937e+00 2.868977e+00 4.713880e+00 4.267149e+00 3.377885e+00 4.054110e+00 1.197160e+00
<GCONST> 1.860339e+02
<MIXTURE> 2 5.025887e-01
<MEAN> 39
 -5.330342e+01 7.998202e+00 -1.270969e+01 -2.922150e+00 -4.341606e+00 -9.612232e+00 -3.527902e+00 9.376919e-01 -4.997784e+00 1.190065e+00 -6.960697e+00 6.159247e+00 1.109836e+02 8.115944e+00 -1.299219e+00 5.056914e+00 2.461154e-01 -8.522255e-01 -2.036147e+00 -1.397044e+00 -1.222318e+00 6.932200e-01 3.387274e-01 -1.313597e+00 2.698686e-01 1.936786e+00 4.479183e+00 -1.076983e+00 2.481889e+00 -2.330104e-02 8.445625e-02 -8.481543e-01 -1.218374e+00 -3.459280e-01 5.000421e-01 8.259026e-01 -1.063554e-01 8.830421e-02 1.625016e+00
<VARIANCE> 39
 1.182511e+02 1.058485e+02 1.486695e+02 2.294346e+02 2.558199e+02 2.754501e+02 1.439211e+02 1.489182e+02 1.558695e+02 1.323605e+02 1.646394e+02 1.211084e+02 1.225651e+02 3.484079e+01 1.111205e+01 1.704953e+01 1.333715e+01 1.135417e+01 1.405052e+01 1.393592e+01 1.234398e+01 1.332590e+01 1.910281e+01 1.411245e+01 1.423017e+01 9.577221e+00 1.516414e+00 2.101884e+00 2.076324e+00 2.609786e+00 2.867090e+00 4.463846e+00 4.648033e+00 2.850499e+00 4.274985e+00 4.332736e+00 3.196739e+00 3.732631e+00 1.447053e+00
<GCONST> 1.857853e+02
<STATE> 3
<NUMMIXES> 2
<MIXTURE> 1 4.971871e-01
<MEAN> 39
 -1.577769e+01 9.114598e+00 1.019702e+01 7.593624e+00 -7.940068e+00 -9.504234e+00 -5.004651e+00 1.392838e+00 -6.203904e-01 2.471879e+00 -5.248549e+00 1.143665e+01 1.145088e+02 1.741538e+01 -4.314304e+00 1.037821e+01 -2.331146e+00 2.300051e-01 -5.849211e+00 -2.088201e+00 -3.522634e-01 4.552241e+00 1.787535e+00 -9.014666e-03 3.136316e+00 8.732075e+00 -8.710836e-01 -2.213296e+00 -1.267852e+00 -2.051260e+00 -2.889570e-01 -3.972020e-01 2.845756e-01 9.294561e-01 7.722233e-01 8.452539e-01 5.548718e-01 -1.298296e-01 1.791158e+00
<VARIANCE> 39
 3.803735e+02 9.963300e+01 1.654894e+02 1.501379e+02 2.764304e+02 2.118317e+02 1.594891e+02 1.546940e+02 1.756901e+02 2.120344e+02 2.391244e+02 2.142256e+02 1.550389e+02 1.111585e+01 1.808086e+01 1.695198e+01 2.457602e+01 2.099147e+01 4.445490e+01 5.575335e+01 2.019065e+01 4.097809e+01 4.247711e+01 2.746775e+01 3.830029e+01 9.069745e+00 5.314722e+00 1.997151e+00 3.353276e+00 1.958234e+00 2.628235e+00 3.457277e+00 5.902339e+00 2.542213e+00 3.599815e+00 3.058965e+00 3.052458e+00 2.986132e+00 1.559963e+00
<GCONST> 1.958831e+02
<MIXTURE> 2 5.028034e-01
<MEAN> 39
 -1.449318e+01 7.123340e+00 1.128932e+01 4.075312e+00 -1.221328e+00 -1.430685e+01 -8.522511e+00 -2.949646e+00 3.026359e-01 7.490434e+00 -1.074019e+01 6.717708e+00 1.184635e+02 1.784222e+01 -5.841013e+00 9.083731e+00 -1.289517e+00 -7.637438e-01 -3.345802e+00 -5.855399e+00 -1.866120e+00 1.594206e+00 3.556942e+00 -5.975586e-01 -3.906842e-01 8.291348e+00 -1.139009e+00 -1.996241e+00 -1.311948e+00 -2.048751e+00 -8.028426e-01 -2.966374e-01 -4.748104e-01 8.625966e-01 3.223739e-01 4.316122e-01 7.895108e-01 -2.816416e-01 1.679435e+00
<VARIANCE> 39
 4.762493e+02 1.100184e+02 1.850937e+02 1.768365e+02 3.027036e+02 1.968472e+02 1.999581e+02 1.833592e+02 1.789128e+02 2.426350e+02 2.172822e+02 2.349516e+02 1.871128e+02 1.334962e+01 1.650732e+01 2.124136e+01 2.739247e+01 2.601233e+01 4.517011e+01 5.442338e+01 2.273157e+01 4.243122e+01 4.105554e+01 2.738699e+01 3.950444e+01 9.332765e+00 7.218556e+00 2.152347e+00 3.613902e+00 2.163098e+00 2.913038e+00 3.190447e+00 5.793515e+00 2.841014e+00 3.591210e+00 3.374705e+00 3.087908e+00 3.063738e+00 1.950249e+00
<GCONST> 1.990689e+02
<STATE> 4
<NUMMIXES> 2
<MIXTURE> 1 5.047278e-01
<MEAN> 39
 1.324314e+01 -1.442386e+01 2.281097e+01 -1.022880e+01 -1.125033e+01 -2.431813e+01 -1.699892e+01 1.180176e+00 7.847091e+00 1.140041e+01 -3.936964e+00 1.358516e+01 1.443421e+02 5.164670e+00 -6.651192e+00 1.501073e+00 -5.682082e+00 -1.521683e+00 -2.365132e+00 9.579352e-01 3.380893e+00 4.336991e+00 2.526884e+00 2.062346e+00 6.864232e-01 6.970095e+00 -4.234112e+00 6.066600e-01 -2.696570e+00 6.208700e-02 3.469468e-01 1.621347e+00 1.885727e+00 9.781913e-01 -4.037448e-01 -2.592356e-01 1.816834e-01 -8.681848e-01 -1.828014e+00
<VARIANCE> 39
 5.201173e+01 1.512189e+02 1.760936e+02 2.231814e+02 2.973303e+02 2.459592e+02 6.930743e+02 2.768214e+02 3.353805e+02 4.992335e+02 3.876573e+02 5.128145e+02 1.280235e+02 3.553537e+01 1.076286e+01 2.388244e+01 1.641572e+01 1.784023e+01 2.733948e+01 5.556490e+01 1.572436e+01 2.374777e+01 2.226402e+01 1.842824e+01 2.053030e+01 1.475994e+01 1.824034e+00 2.747292e+00 2.465445e+00 3.130759e+00 2.599717e+00 4.584991e+00 5.010858e+00 2.816768e+00 4.584305e+00 4.144258e+00 3.492069e+00 4.346333e+00 1.158390e+00
<GCONST> 1.980421e+02
<MIXTURE> 2 4.952561e-01
<MEAN> 39
 1.164407e+01 -1.640643e+01 2.349438e+01 -1.225371e+01 -7.895788e+00 -2.609338e+01 -1.766216e+01 -7.228029e-01 7.304452e+00 1.397408e+01 -6.528300e+00 1.197392e+01 1.446103e+02 4.917241e+00 -7.632681e+00 1.051491e+00 -6.064612e+00 -1.999656e+00 -2.284249e+00 -6.253389e-01 2.803899e+00 3.016593e+00 2.637939e+00 1.159185e+00 -6.898108e-01 7.166666e+00 -4.484292e+00 7.957488e-01 -2.944634e+00 6.819823e-02 -1.004868e-01 1.573328e+00 1.696048e+00 9.700388e-01 -4.686854e-01 -6.279141e-01 1.937322e-01 -8.631130e-01 -2.111314e+00
<VARIANCE> 39
 5.377578e+01 1.308655e+02 1.793111e+02 2.433168e+02 3.056026e+02 2.533147e+02 7.240059e+02 2.766595e+02 3.636315e+02 4.559784e+02 4.119847e+02 5.414072e+02 1.142803e+02 3.274788e+01 1.078751e+01 1.984568e+01 1.744213e+01 2.018063e+01 2.379572e+01 6.258388e+01 1.755742e+01 2.299999e+01 2.017549e+01 2.026073e+01 1.851135e+01 1.078093e+01 1.794347e+00 2.158343e+00 2.200010e+00 3.354954e+00 2.706427e+00 4.865919e+00 5.388538e+00 2.892520e+00 5.333730e+00 3.730777e+00 3.738007e+00 5.256801e+00 1.014141e+00
<GCONST> 1.977517e+02
<TRANSP> 5
 0.000000e+00 1.000000e+00 0.000000e+00 0.000000e+00 0.000000e+00
 0.000000e+00 5.650726e-01 4.349274e-01 0.000000e+00 0.000000e+00
 0.000000e+00 0.000000e+00 4.184690e-01 5.815310e-01 0.000000e+00
 0.000000e+00 0.000000e+00 0.000000e+00 6.177026e-01 3.822974e-01
 0.000000e+00 0.000000e+00 0.000000e+00 0.000000e+00 0.000000e+00
<ENDHMM>
~h "ey"
<BEGINHMM>
<NUMSTATES> 5
<STATE> 2
<NUMMIXES> 2
<MIXTURE> 1 5.115685e-01
<MEAN> 39
 -7.353369e+00 -9.476187e+00 2.205387e+01 -1.335232e+01 -1.722929e+01 -1.695849e+01 -1.071543e+00 -1.043289e+00 -7.738314e-01 1.010707e+01 -1.488869e+00 7.311960e+00 1.013447e+02 2.508105e+00 -2.378874e+00 4.848183e+00 -2.671138e+00 -1.733118e+00 -6.506615e-01 2.322394e+00 1.841312e+00 1.482822e+00 1.772335e+00 6.524422e-01 1.144626e+00 9.388970e+00 3.331603e-01 2.669612e-01 2.911946e-01 1.616411e-01 2.776010e-01 4.033024e-01 -8.042330e-02 -1.402557e-02 -1.727634e-01 8.596867e-02 1.688713e-01 1.065846e-01 5.281215e-01
<VARIANCE> 39
 3.176861e+02 2.452791e+02 4.920125e+02 4.664581e+02 3.132704e+02 3.799039e+02 5.488395e+02 4.315667e+02 4.321987e+02 3.353682e+02 2.644225e+02 2.647356e+02 1.269789e+03 3.211846e+01 1.970830e+01 3.855133e+01 3.518923e+01 2.828542e+01 3.342116e+01 4.304277e+01 3.591022e+01 3.687788e+01 3.069361e+01 2.677237e+01 2.481198e+01 1.156977e+02 4.639199e+00 3.937851e+00 6.138163e+00 5.826018e+00 5.224052e+00 6.136373e+00 8.053468e+00 6.604208e+00 6.471859e+00 5.484612e+00 5.026217e+00 4.809324e+00 2.117216e+01
<GCONST> 2.194035e+02
<MIXTURE> 2 4.884061e-01
<MEAN> 39
 -6.349442e+00 -7.656324e+00 1.989223e+01 -1.000752e+01 -1.715374e+01 -1.850592e+01 -7.294766e+00 -3.422816e+00 -3.620473e+00 9.366271e+00 -1.092259e+00 6.786922e+00 9.810782e+01 1.047869e+00 -2.364963e+00 3.360014e+00 -1.898513e+00 -2.810672e+00 -1.908417e+00 -3.398696e-01 3.602861e-01 -3.594387e-02 2.549260e-01 1.242207e-01 -8.803409e-02 5.211926e+00 -1.375858e-01 6.879973e-02 6.286485e-02 -1.074221e-01 1.848979e-01 5.118334e-01 2.987627e-01 3.534302e-02 -2.361967e-01 -2.330272e-01 2.031392e-02 -5.084226e-02 2.807629e-01
<VARIANCE> 39
 3.628925e+02 2.669625e+02 5.911308e+02 4.632477e+02 3.705132e+02 4.005905e+02 5.434347e+02 5.268323e+02 5.222616e+02 4.040846e+02 3.196628e+02 3.037270e+02 1.293519e+03 3.611327e+01 2.131883e+01 4.175101e+01 3.784454e+01 3.281659e+01 3.993728e+01 4.948265e+01 4.366297e+01 4.484654e+01 3.423531e+01 3.120852e+01 2.942547e+01 1.335649e+02 5.251948e+00 3.971132e+00 6.353158e+00 5.869413e+00 6.306375e+00 6.793237e+00 8.854533e+00 8.390312e+00 7.808016e+00 6.647524e+00 6.046597e+00 5.703526e+00 1.939627e+01
<GCONST> 2.241581e+02
<STATE> 3
<NUMMIXES> 2
<MIXTURE> 1 5.088925e-01
<MEAN> 39
 2.454981e+00 -1.181343e+01 5.509174e+01 -2.264224e+01 -1.966034e+01 -1.239728e+01 -1.097631e+00 -3.022318e+00 -7.106224e+00 1.006175e+01 -2.199231e+00 9.381979e+00 1.409503e+02 -5.092897e-01 1.722748e+00 2.520985e+00 4.027449e-01 1.007569e+00 1.507684e+00 -4.755737e-01 -1.518502e+00 -7.452657e-01 -5.160703e-01 -5.952064e-01 -6.810179e-02 -7.413213e-01 -7.378741e-02 2.669996e-01 -1.217975e-01 3.673638e-01 3.254746e-01 1.426513e-01 9.879321e-02 -1.662236e-02 1.131725e-01 -8.868285e-03 -1.187197e-01 -1.808234e-02 -7.817220e-01
<VARIANCE> 39
 7.137158e+01 2.563916e+02 4.419244e+02 4.323175e+02 2.228730e+02 3.142086e+02 5.224732e+02 4.167867e+02 6.999139e+02 3.010763e+02 2.132643e+02 2.264982e+02 1.455991e+02 2.313487e+00 4.605084e+00 5.531056e+00 5.051671e+00 8.503518e+00 8.349170e+00 1.129768e+01 1.001268e+01 1.013977e+01 9.495872e+00 8.354973e+00 9.935421e+00 6.223141e+00 4.647605e-01 7.121915e-01 9.028547e-01 1.021831e+00 1.105328e+00 1.324307e+00 1.593877e+00 1.598949e+00 1.561047e+00 1.415597e+00 1.260013e+00 1.265183e+00 1.017551e+00
<GCONST> 1.720330e+02
<MIXTURE> 2 4.910693e-01
<MEAN> 39
 1.644444e+00 -1.247198e+01 5.419415e+01 -2.264729e+01 -2.222123e+01 -1.497187e+01 -1.375309e+00 -4.499214e+00 -6.308087e+00 1.079160e+01 -9.772353e-01 9.184457e+00 1.407033e+02 -5.846047e-01 1.479981e+00 2.587617e+00 2.318229e-01 7.609457e-01 1.167755e+00 -9.144231e-01 -2.192101e+00 -1.491057e+00 -1.094492e+00 -1.098518e+00 -5.042436e-01 -4.192969e-01 -1.680404e-01 2.461153e-01 -1.216010e-01 3.712728e-01 3.367583e-01 1.231206e-01 -3.557962e-02 -2.536512e-01 -1.953529e-01 -2.694203e-01 -3.742937e-01 -2.112480e-01 -8.733062e-01
<VARIANCE> 39
 6.714106e+01 2.389426e+02 3.736427e+02 4.363357e+02 2.352837e+02 3.065060e+02 4.993738e+02 4.325628e+02 6.470339e+02 2.988054e+02 2.276773e+02 2.125539e+02 1.561767e+02 2.289240e+00 4.781796e+00 5.610282e+00 5.142133e+00 7.933263e+00 7.805254e+00 1.053688e+01 1.004826e+01 9.783571e+00 9.086055e+00 8.246297e+00 9.214760e+00 6.731421e+00 5.795413e-01 7.524113e-01 9.610667e-01 1.003464e+00 1.143494e+00 1.308211e+00 1.549177e+00 1.528778e+00 1.480955e+00 1.470527e+00 1.265288e+00 1.263814e+00 1.470992e+00
<GCONST> 1.721418e+02
<STATE> 4
<NUMMIXES> 2
<MIXTURE> 1 5.146203e-01
<MEAN> 39
