~o
<STREAMINFO> 1 39
<VECSIZE> 39<NULLD><MFCC_D_A_0><DIAGC>
~v "varFloor1"
<VARIANCE> 39
 6.753474e+00 3.412362e+00 5.607597e+00 4.796462e+00 3.472081e+00 4.011722e+00 4.412065e+00 3.618229e+00 3.682593e+00 3.039560e+00 2.639483e+00 2.510356e+00 1.295583e+01 2.277723e-01 1.546074e-01 2.184501e-01 2.118108e-01 1.813343e-01 2.097883e-01 2.257618e-01 2.166374e-01 2.009357e-01 1.748309e-01 1.664689e-01 1.534765e-01 2.729284e-01 3.005151e-02 2.352162e-02 2.950290e-02 3.333734e-02 2.970534e-02 3.528604e-02 3.796648e-02 3.764385e-02 3.477007e-02 3.067227e-02 2.924742e-02 2.697526e-02 3.680371e-02
~s "silst"
<MEAN> 39
 -2.397264e+01 4.942760e+00 -5.990533e-01 3.371293e+00 -2.623522e+00 -2.331445e+00 -3.630230e+00 -8.146715e-01 -1.549469e+00 1.318355e+00 8.213239e-01 2.355403e+00 4.914097e+01 -2.501844e-01 6.006911e-02 7.771666e-02 -3.189509e-02 -4.768141e-02 -5.833136e-02 -1.755734e-01 -1.943071e-01 -4.048497e-02 1.093605e-01 1.182264e-01 6.395911e-02 -1.812673e-01 7.529125e-02 -7.582235e-02 1.433747e-03 1.569927e-02 1.610351e-02 2.429080e-02 6.614690e-02 5.995095e-02 -2.642632e-04 -1.315150e-02 -5.753859e-02 -2.028850e-02 1.363279e-01
<VARIANCE> 39
 4.110394e+01 3.646858e+01 4.341178e+01 5.672110e+01 7.444376e+01 9.530161e+01 1.122021e+02 1.123026e+02 1.038905e+02 9.699657e+01 9.346210e+01 8.351183e+01 2.376864e+01 1.622590e+00 2.345580e+00 3.477329e+00 4.726766e+00 6.075881e+00 7.445851e+00 8.851347e+00 9.603536e+00 9.649407e+00 9.582934e+00 9.373721e+00 8.397410e+00 1.008679e+00 2.950524e-01 4.773031e-01 6.932233e-01 9.450744e-01 1.213790e+00 1.478587e+00 1.738205e+00 1.890438e+00 1.912351e+00 1.898035e+00 1.861591e+00 1.678027e+00 2.112337e-01
<GCONST> 1.480130e+02
~h "f"
<BEGINHMM>
<NUMSTATES> 5
<STATE> 2
<MEAN> 39
 -2.988534e+01 -1.198906e+01 2.501458e-01 3.852168e+00 -1.240776e+00 2.349845e-01 -5.519959e+00 1.001267e+00 -4.338144e+00 3.906211e+00 -3.174167e+00 2.753114e+00 8.778637e+01 -2.346775e+00 -1.579661e+00 -1.248941e+00 -4.941105e-01 -6.924874e-01 -3.518835e-01 -8.983577e-01 -3.932294e-01 -2.524600e-01 -1.892676e-01 -5.637360e-02 -1.245265e-01 3.807709e-01 1.269774e+00 3.123684e-01 2.488173e-01 -2.513233e-01 7.725670e-02 1.991950e-04 2.140880e-01 -7.205097e-02 -8.800351e-02 8.599380e-02 -4.162002e-02 2.901979e-02 6.578691e-01
<VARIANCE> 39
 1.912745e+02 1.465681e+02 1.022236e+02 1.087740e+02 1.220621e+02 1.315953e+02 1.463183e+02 1.434965e+02 1.402644e+02 1.266574e+02 1.209529e+02 1.096413e+02 4.061445e+02 2.564819e+01 1.316086e+01 1.181309e+01 1.679551e+01 1.417165e+01 1.428476e+01 1.573276e+01 1.515070e+01 1.527147e+01 1.373331e+01 1.315450e+01 1.224891e+01 2.083093e+01 3.942780e+00 2.618379e+00 2.295303e+00 3.183679e+00 2.751444e+00 3.018046e+00 3.286112e+00 3.235146e+00 3.251761e+00 2.912303e+00 2.753219e+00 2.500741e+00 3.278893e+00
<GCONST> 1.856851e+02
<STATE> 3
<MEAN> 39
 -2.883205e+01 -1.660487e+01 -2.946006e+00 -2.941298e-02 -3.229114e+00 -1.013461e+00 -7.691303e+00 -1.151831e+00 -5.687561e+00 3.850916e+00 -4.371709e+00 2.338657e+00 1.009238e+02 9.575312e+00 1.264354e+00 1.854136e-01 -3.364299e+00 5.380685e-01 1.020757e+00 1.537066e+00 3.667793e-02 5.475910e-01 1.525072e+00 5.541702e-01 -1.970007e-01 6.201867e+00 3.355718e+00 8.062663e-01 4.600077e-01 -2.002403e+00 -2.316957e-01 4.176533e-01 6.972944e-01 3.647202e-01 9.255597e-02 6.557453e-01 2.784836e-01 -1.336771e-01 1.074040e+00
<VARIANCE> 39
 1.742427e+02 8.479532e+01 6.678287e+01 7.599736e+01 8.428558e+01 9.356504e+01 1.023128e+02 1.037126e+02 1.172867e+02 1.116770e+02 1.035070e+02 8.988773e+01 2.165746e+02 4.365615e+01 1.690696e+01 1.020026e+01 2.239282e+01 1.388588e+01 1.353209e+01 1.522777e+01 1.498045e+01 2.150583e+01 1.923914e+01 2.174530e+01 1.324707e+01 3.625954e+01 4.514551e+00 4.638505e+00 2.626410e+00 4.097689e+00 3.497170e+00 2.969479e+00 3.261042e+00 3.255495e+00 4.105817e+00 3.588307e+00 4.257113e+00 2.904722e+00 4.659235e+00
<GCONST> 1.868934e+02
<STATE> 4
<MEAN> 39
 1.550981e+01 -1.668371e+01 -3.285761e+00 -2.327232e+01 -1.117171e+00 6.146696e+00 1.211293e-01 -3.480673e-01 -2.399088e+00 1.522571e+01 2.884814e+00 -7.421191e-01 1.287901e+02 8.889372e+00 -1.333384e+00 -3.490910e-01 -7.524094e+00 -2.646235e-02 1.971355e+00 2.002883e+00 9.359081e-01 8.662133e-01 2.060098e+00 7.707590e-01 -6.591470e-01 7.598456e+00 -2.901709e+00 -1.530884e-01 1.761033e-01 7.786673e-01 -2.158434e-01 -1.576792e-01 -4.232430e-01 3.646216e-01 -5.949847e-02 -7.901874e-01 -7.932459e-01 5.194829e-02 -1.565906e+00
<VARIANCE> 39
 3.301164e+02 2.196096e+02 1.691031e+02 4.688625e+02 2.672554e+02 2.107599e+02 2.212603e+02 2.295526e+02 4.285500e+02 3.074469e+02 4.585586e+02 2.180775e+02 4.140274e+02 6.382155e+01 4.381752e+01 2.137794e+01 3.593502e+01 2.915587e+01 2.059370e+01 2.254649e+01 2.238756e+01 3.296889e+01 2.604544e+01 3.592261e+01 2.255026e+01 2.838034e+01 8.408243e+00 3.519402e+00 2.520416e+00 8.329945e+00 4.185495e+00 3.093760e+00 3.490362e+00 3.209019e+00 5.775353e+00 4.518636e+00 5.254167e+00 3.420174e+00 4.799222e+00
<GCONST> 2.083792e+02
<TRANSP> 5
 0.000000e+00 1.000000e+00 0.000000e+00 0.000000e+00 0.000000e+00
 0.000000e+00 8.656377e-01 1.343623e-01 0.000000e+00 0.000000e+00
 0.000000e+00 0.000000e+00 6.605513e-01 3.394487e-01 0.000000e+00
 0.000000e+00 0.000000e+00 0.000000e+00 5.536495e-01 4.463505e-01
 0.000000e+00 0.000000e+00 0.000000e+00 0.000000e+00 0.000000e+00
<ENDHMM>
~h "k"
<BEGINHMM>
<NUMSTATES> 5
<STATE> 2
<MEAN> 39
 -8.358934e+00 8.442537e+00 2.402855e+01 2.458773e+01 1.547596e-01 -1.393906e+01 -1.932648e+00 2.175891e-02 -1.836325e+01 -3.444138e+00 -6.538365e-01 1.711755e+00 7.248827e+01 -5.304327e+00 1.140938e+00 -9.670795e+00 -1.789147e+00 2.992857e+00 4.841887e+00 -3.159212e+00 -2.478103e-01 4.130356e+00 -1.367337e+00 -1.185906e-01 -3.150662e-01 -1.020812e+01 -2.367640e-01 -2.774498e+00 -6.384448e-01 -2.559904e+00 -1.169645e+00 -1.166660e+00 -6.085162e-01 -1.748538e-01 8.723326e-01 1.129400e+00 -3.188348e-01 5.769394e-01 4.868298e+00
<VARIANCE> 39
 1.552749e+02 2.672003e+02 3.191380e+02 2.208240e+02 2.626562e+02 3.680708e+02 3.735987e+02 4.746345e+02 3.340448e+02 2.547901e+02 1.974789e+02 1.486947e+02 4.455558e+02 1.436667e+01 5.885500e+01 2.788088e+01 3.954007e+01 3.109232e+01 4.372408e+01 5.724994e+01 6.978483e+01 4.902656e+01 3.648928e+01 2.466978e+01 2.213139e+01 1.069824e+02 3.814523e+00 7.888260e+00 6.336854e+00 6.570648e+00 5.239306e+00 8.997817e+00 9.337553e+00 9.748839e+00 8.587028e+00 5.686603e+00 4.696892e+00 4.331056e+00 1.475974e+01
<GCONST> 2.175849e+02
<STATE> 3
<MEAN> 39
 -2.032682e+01 -7.763271e+00 -6.539957e+00 8.777191e+00 -6.371498e-02 -1.028161e+01 -1.173194e+01 -9.478579e-01 -3.993927e+00 1.906795e+00 -2.111007e+00 3.945129e+00 7.913192e+01 -3.216029e+00 -3.294961e+00 -4.310511e+00 -1.037941e+00 -4.853015e-01 -1.900159e+00 -1.605680e+00 1.413104e+00 1.779761e+00 8.961097e-01 -7.167897e-01 6.676300e-01 8.443402e+00 -7.637908e-01 1.244593e+00 1.916755e+00 7.595955e-01 -6.593755e-01 -7.396213e-01 9.788808e-01 2.864255e-01 -6.068089e-01 -2.413641e-01 -9.439935e-02 1.643050e-01 1.435649e+00
<VARIANCE> 39
 2.016256e+02 3.089287e+02 2.553869e+02 1.533591e+02 2.115959e+02 2.275306e+02 2.065794e+02 1.839469e+02 1.556636e+02 1.453099e+02 1.354317e+02 1.057698e+02 9.184226e+02 4.280046e+01 3.669527e+01 2.957848e+01 2.482523e+01 2.606614e+01 3.137468e+01 2.529721e+01 2.354601e+01 2.174264e+01 1.985680e+01 1.664331e+01 1.319609e+01 8.645743e+01 8.856574e+00 9.493549e+00 5.327312e+00 4.219059e+00 4.804893e+00 6.638947e+00 5.531824e+00 5.132933e+00 4.608706e+00 4.261977e+00 3.189532e+00 2.659637e+00 2.343687e+01
<GCONST> 2.066354e+02
<STATE> 4
<MEAN> 39
 -3.974947e+01 -4.673314e+00 -7.434634e+00 9.078928e+00 -3.547457e+00 -1.841906e+01 -1.003932e+01 5.303507e+00 -1.015666e+00 1.323871e+00 -5.189993e+00 6.544452e+00 9.796776e+01 -4.699678e+00 2.159769e+00 5.532160e-01 -4.452383e-01 -1.010787e+00 -2.172745e-01 1.354358e+00 1.218591e+00 1.498563e-01 -3.782614e-01 -3.484923e-01 4.770755e-01 1.991555e+00 8.435271e-01 5.210885e-01 4.636436e-01 -1.420729e-01 1.707497e-01 9.036753e-01 4.608307e-01 -3.889328e-01 -4.866499e-01 -2.872813e-03 2.232482e-01 -1.845500e-01 -1.635600e+00
<VARIANCE> 39
 3.618410e+02 1.417022e+02 1.604398e+02 1.833830e+02 3.563311e+02 3.167178e+02 2.117101e+02 1.948316e+02 1.696630e+02 1.609996e+02 1.671544e+02 1.334856e+02 7.590107e+02 6.053482e+01 2.228308e+01 1.687230e+01 1.423349e+01 2.165778e+01 2.710528e+01 2.122353e+01 1.833180e+01 1.797893e+01 1.684801e+01 1.412229e+01 1.365089e+01 4.687173e+01 8.304810e+00 3.631972e+00 3.102849e+00 2.922156e+00 4.149540e+00 5.313022e+00 4.054206e+00 3.727393e+00 3.459132e+00 3.541354e+00 2.867323e+00 2.631036e+00 1.123838e+01
<GCONST> 2.001481e+02
<TRANSP> 5
 0.000000e+00 1.000000e+00 0.000000e+00 0.000000e+00 0.000000e+00
 0.000000e+00 6.861134e-01 3.138866e-01 0.000000e+00 0.000000e+00
 0.000000e+00 0.000000e+00 7.560470e-01 2.439530e-01 0.000000e+00
 0.000000e+00 0.000000e+00 0.000000e+00 6.796715e-01 3.203286e-01
 0.000000e+00 0.000000e+00 0.000000e+00 0.000000e+00 0.000000e+00
<ENDHMM>
~h "n"
<BEGINHMM>
<NUMSTATES> 5
<STATE> 2
<MEAN> 39
 1.592471e+01 -1.053429e+00 3.604486e+01 6.436322e+00 -5.688430e+00 3.857282e+00 1.576926e+01 -3.724122e+00 -5.734601e+00 9.117043e+00 -5.590000e+00 9.703095e+00 1.122645e+02 1.138362e+00 2.986353e+00 3.908206e-01 3.332924e+00 1.802341e-01 1.294803e+00 2.194068e+00 -2.847370e+00 -1.084102e-01 7.322682e-01 -1.371024e+00 3.377159e-01 -2.573972e+00 -5.493203e-01 -6.220980e-01 -9.452571e-01 -3.458418e-01 4.974799e-01 -3.394460e-01 -7.274358e-01 8.524250e-01 4.098623e-01 -2.533642e-01 1.361895e-01 -2.205530e-01 2.654758e-01
<VARIANCE> 39
 1.276089e+02 3.243069e+02 2.370092e+02 6.099523e+02 3.042631e+02 4.058665e+02 5.421758e+02 6.187346e+02 5.389456e+02 4.429279e+02 4.381469e+02 4.140126e+02 4.318404e+02 1.668741e+01 1.739158e+01 2.495987e+01 3.735542e+01 2.337186e+01 2.776105e+01 3.681711e+01 4.531013e+01 3.314927e+01 2.901244e+01 2.649590e+01 2.742817e+01 2.622612e+01 2.547095e+00 2.847389e+00 3.732753e+00 7.897522e+00 4.327917e+00 5.176313e+00 7.078684e+00 8.575262e+00 5.786716e+00 4.936960e+00 4.883224e+00 4.882501e+00 2.235752e+00
<GCONST> 2.122317e+02
<STATE> 3
<MEAN> 39
 1.695779e+01 4.267388e+00 3.324000e+01 1.648434e+01 -1.391921e+00 5.949125e+00 1.594720e+01 -4.622402e+00 -2.155728e+00 7.862356e+00 -9.007761e+00 1.029125e+01 1.052881e+02 -2.476418e+00 -2.484182e+00 -2.467951e+00 -2.454939e+00 2.343143e+00 -1.308049e+00 -2.594497e+00 4.916605e+00 1.029694e+00 -4.915143e-01 5.331743e-01 -1.193163e+00 1.328032e+00 -1.051430e+00 -1.073705e+00 -1.214712e+00 -1.257984e+00 1.064524e-01 -3.350169e-01 -9.124375e-01 8.722088e-01 2.300441e-01 -1.644907e-01 4.799173e-01 -2.924713e-01 4.076997e-01
<VARIANCE> 39
 1.014843e+02 2.884414e+02 1.611117e+02 3.732697e+02 2.962786e+02 4.557672e+02 5.211235e+02 5.022588e+02 4.533540e+02 4.397665e+02 4.278695e+02 4.258839e+02 3.433183e+02 1.751686e+01 2.669878e+01 2.045934e+01 3.763313e+01 2.535398e+01 3.657629e+01 4.227631e+01 4.463032e+01 3.554294e+01 2.621252e+01 2.761456e+01 2.778654e+01 3.815451e+01 2.792854e+00 2.948569e+00 3.158714e+00 5.011072e+00 4.619002e+00 6.372480e+00 6.494809e+00 7.856681e+00 5.218104e+00 4.010314e+00 4.379115e+00 4.206458e+00 2.439194e+00
<GCONST> 2.107304e+02
<STATE> 4
<MEAN> 39
 2.551617e+00 -2.719951e+00 1.946585e+01 1.363735e+01 3.999311e+00 3.366508e+00 1.103528e+01 1.057682e+01 1.604374e+00 3.827927e+00 -7.060690e+00 4.785665e+00 9.274966e+01 -3.006118e+00 -1.884552e+00 -3.867795e+00 -2.398915e+00 1.361506e-01 -8.326390e-01 -2.227901e+00 1.534207e+00 5.813116e-01 -6.490766e-01 6.934842e-01 -1.082741e+00 -8.910805e-01 7.799692e-02 2.310717e-01 1.584215e-02 -1.630723e-02 -4.109526e-01 1.928670e-02 -3.389189e-02 -9.575903e-01 -2.220955e-01 2.993316e-02 4.491355e-02 1.395784e-01 2.392021e-02
<VARIANCE> 39
 2.178584e+02 2.909944e+02 2.369624e+02 4.203161e+02 2.575306e+02 3.424626e+02 4.652204e+02 4.118527e+02 3.487467e+02 3.783470e+02 2.866488e+02 2.644293e+02 7.391649e+02 1.834007e+01 1.726051e+01 1.885076e+01 2.193674e+01 2.042890e+01 2.252894e+01 2.447230e+01 2.839803e+01 2.613872e+01 2.074456e+01 2.182334e+01 1.968117e+01 1.843878e+01 1.856118e+00 2.667762e+00 2.677740e+00 4.332295e+00 3.362759e+00 4.620154e+00 4.997548e+00 5.195236e+00 4.039072e+00 3.522648e+00 3.383570e+00 3.193968e+00 2.304559e+00
<GCONST> 2.030769e+02
<TRANSP> 5
 0.000000e+00 1.000000e+00 0.000000e+00 0.000000e+00 0.000000e+00
 0.000000e+00 6.646264e-01 3.353736e-01 0.000000e+00 0.000000e+00
 0.000000e+00 0.000000e+00 6.161892e-01 3.838107e-01 0.000000e+00
 0.000000e+00 0.000000e+00 0.000000e+00 6.645107e-01 3.354893e-01
 0.000000e+00 0.000000e+00 0.000000e+00 0.000000e+00 0.000000e+00
<ENDHMM>
~h "r"
<BEGINHMM>
<NUMSTATES> 5
<STATE> 2
<MEAN> 39
 3.610575e+01 -1.824112e+01 -4.462123e+00 4.596125e+00 2.722268e+01 -2.163981e+01 -3.309909e+01 2.545203e+00 -8.496406e+00 4.768251e+00 1.368320e+00 6.847960e+00 1.268899e+02 2.925576e-01 -1.007298e+00 -9.163430e-01 3.768228e-01 7.810004e-01 -1.560209e+00 -1.136144e+00 1.238514e+00 1.310226e+00 3.432406e-01 -4.169460e-02 1.262641e-01 1.965262e-01 -1.254517e+00 1.199919e-01 1.778135e+00 -1.168270e-01 -1.900207e+00 3.656507e-03 1.661944e+00 5.134078e-01 -4.534300e-01 -1.828996e-01 7.739387e-03 6.148589e-02 7.917449e-02
<VARIANCE> 39
 7.261723e+01 1.711599e+02 4.490510e+02 3.134574e+02 3.687636e+02 9.200891e+02 1.018855e+03 4.323668e+02 3.252739e+02 4.056911e+02 2.653418e+02 2.151868e+02 1.681865e+02 9.818852e+00 9.032677e+00 3.671426e+01 2.202636e+01 2.661144e+01 3.344949e+01 2.823175e+01 2.868977e+01 2.290448e+01 2.009616e+01 1.686498e+01 1.529677e+01 7.210439e+00 1.401271e+00 1.748475e+00 2.062511e+00 2.387522e+00 2.811733e+00 5.733539e+00 4.560243e+00 4.247105e+00 3.571683e+00 3.418893e+00 3.079653e+00 2.765044e+00 9.384487e-01
<GCONST> 1.977020e+02
<STATE> 3
<MEAN> 39
 2.987930e+01 -2.358348e+01 5.850147e+00 8.942212e+00 1.649793e+01 -3.344762e+01 -2.158631e+01 1.540331e+01 -6.994236e+00 3.559826e+00 1.122460e+00 8.740360e+00 1.275645e+02 -3.816130e+00 -3.135475e-01 5.742322e+00 5.092897e-01 -5.193689e+00 -2.297642e-01 5.633623e+00 1.757666e+00 -1.827113e+00 -4.117840e-01 7.923771e-01 -2.678778e-01 -1.760830e-01 -8.800372e-01 9.118950e-01 5.387762e-01 -1.098831e+00 -6.663674e-01 2.000536e+00 1.058155e+00 -1.513218e+00 -6.549542e-01 6.198202e-01 1.218469e-01 -3.740341e-01 -4.383068e-01
<VARIANCE> 39
 9.440419e+01 1.968842e+02 6.114021e+02 3.447152e+02 3.860583e+02 8.486452e+02 1.086685e+03 4.135224e+02 4.458350e+02 4.467201e+02 2.610462e+02 2.298607e+02 2.658272e+02 1.295229e+01 1.117653e+01 3.200657e+01 2.336856e+01 2.820523e+01 3.307544e+01 3.172414e+01 3.134123e+01 3.307586e+01 2.508823e+01 2.103582e+01 1.758007e+01 1.321196e+01 1.713568e+00 2.259242e+00 2.304990e+00 2.500705e+00 3.209021e+00 6.160386e+00 4.891143e+00 4.805849e+00 4.029916e+00 3.486878e+00 2.881450e+00 2.715251e+00 1.045909e+00
<GCONST> 2.028076e+02
<STATE> 4
<MEAN> 39
 1.672056e+01 -2.139701e+01 1.492168e+01 7.473493e+00 4.176431e+00 -2.332648e+01 -2.998072e+00 1.442233e+01 -8.933440e+00 5.834346e+00 1.623531e+00 4.394961e+00 1.183199e+02 -3.826975e+00 1.359308e+00 3.582382e+00 -1.913167e+00 -3.470044e+00 3.106343e+00 3.508070e+00 -2.183459e+00 -1.122373e+00 1.052038e+00 -2.907822e-01 -1.123090e+00 -1.400741e+00 7.586452e-02 6.545852e-01 -5.933534e-01 -5.691753e-01 6.405410e-01 7.105019e-01 -7.949649e-01 -8.294462e-01 4.004942e-01 1.931194e-01 -3.457258e-01 6.241834e-03 -2.749015e-01
<VARIANCE> 39
 2.262997e+02 2.232649e+02 9.178674e+02 3.636132e+02 4.221068e+02 7.101372e+02 8.268158e+02 4.491756e+02 5.900196e+02 4.235092e+02 2.743876e+02 2.661605e+02 6.534677e+02 1.544003e+01 1.427189e+01 2.206691e+01 1.812804e+01 1.903213e+01 2.582537e+01 2.824319e+01 2.668331e+01 2.192725e+01 2.047883e+01 1.777762e+01 1.518198e+01 9.985854e+00 1.233105e+00 1.765570e+00 2.633305e+00 2.770447e+00 3.199685e+00 4.227056e+00 3.985421e+00 3.645158e+00 4.122005e+00 2.987118e+00 2.827062e+00 2.609522e+00 8.867505e-01
<GCONST> 2.014212e+02
<TRANSP> 5
 0.000000e+00 1.000000e+00 0.000000e+00 0.000000e+00 0.000000e+00
 0.000000e+00 7.356440e-01 2.643560e-01 0.000000e+00 0.000000e+00
 0.000000e+00 0.000000e+00 5.128067e-01 4.871933e-01 0.000000e+00
 0.000000e+00 0.000000e+00 0.000000e+00 6.112814e-01 3.887186e-01
 0.000000e+00 0.000000e+00 0.000000e+00 0.000000e+00 0.000000e+00
<ENDHMM>
~h "s"
<BEGINHMM>
<NUMSTATES> 5
<STATE> 2
<MEAN> 39
 -2.915232e+01 4.832667e+00 5.279085e+00 6.924428e+00 1.229019e+00 -6.025899e+00 -1.007123e+00 3.357441e+00 -3.396772e+00 2.122861e+00 -3.724827e+00 5.264536e+00 9.897829e+01 -8.016616e+00 1.478274e+00 -3.952475e+00 -1.018677e+00 -7.297461e-01 -3.327281e-01 4.286780e-01 9.830044e-01 -1.161425e-01 -4.033725e-01 5.200866e-01 1.453023e-01 1.181243e+00 3.967348e-01 -4.014862e-01 -6.160781e-01 -6.269264e-01 -3.478117e-01 -1.032145e-01 -4.273918e-01 -3.489397e-01 -2.957163e-01 2.062013e-01 8.670332e-03 -1.158118e-02 -7.252260e-02
<VARIANCE> 39
 5.303696e+02 2.312000e+02 3.638110e+02 2.896986e+02 3.684137e+02 3.438011e+02 2.988826e+02 2.617956e+02 2.460270e+02 2.057415e+02 2.002550e+02 1.916958e+02 5.606497e+02 5.728928e+01 2.443801e+01 4.279416e+01 3.736600e+01 2.958787e+01 3.489828e+01 3.045086e+01 2.846642e+01 3.017820e+01 2.446128e+01 2.291453e+01 2.164033e+01 3.292940e+01 8.973969e+00 4.748993e+00 5.622784e+00 5.446781e+00 5.373406e+00 5.597281e+00 5.174752e+00 5.257323e+00 4.819604e+00 4.390023e+00 4.187763e+00 3.790874e+00 3.921809e+00
<GCONST> 2.113886e+02
<STATE> 3
<MEAN> 39
 -5.025713e+01 7.631731e+00 -1.027718e+01 2.853290e+00 -4.762988e+00 -8.245884e+00 -2.186218e+00 4.039716e+00 -5.571922e+00 1.879921e+00 -3.114830e+00 5.960104e+00 1.040738e+02 -2.898468e+00 6.083871e-01 -2.923746e+00 -1.198425e+00 -7.324262e-01 2.339223e-01 -6.235580e-01 -4.544504e-01 -5.150563e-01 1.041566e-01 -1.217238e-01 4.656355e-02 6.032102e-01 2.151512e+00 -4.371177e-01 9.839197e-01 4.416760e-01 2.729041e-01 2.121236e-01 -1.013221e-01 -2.778332e-01 1.245418e-01 1.341838e-01 -1.725227e-01 -3.718042e-02 -3.614455e-01
<VARIANCE> 39
 1.799026e+02 1.561346e+02 1.955503e+02 2.665582e+02 3.488600e+02 2.929567e+02 1.942404e+02 1.755056e+02 1.669603e+02 1.520784e+02 1.585027e+02 1.262865e+02 2.346464e+02 2.836666e+01 1.427338e+01 1.985259e+01 1.558478e+01 1.695209e+01 1.869560e+01 1.811626e+01 1.628781e+01 1.494302e+01 1.454313e+01 1.338112e+01 1.247320e+01 1.489849e+01 3.445051e+00 2.374895e+00 3.522112e+00 3.016822e+00 3.278327e+00 3.623501e+00 3.517619e+00 3.466162e+00 3.299578e+00 3.050873e+00 2.914866e+00 2.729091e+00 2.216778e+00
<GCONST> 1.912618e+02
<STATE> 4
<MEAN> 39
 -4.819300e+01 4.845706e+00 -1.218594e+01 1.674786e+00 -5.479466e+00 -6.583214e+00 -4.045678e+00 3.733732e+00 -5.488882e+00 2.803515e+00 -4.116056e+00 5.403555e+00 1.022504e+02 9.837209e-01 -2.204999e-01 3.017760e-01 -1.351476e-01 -3.758070e-02 2.594535e-01 7.540743e-02 -1.486414e-01 9.129484e-02 5.306584e-02 -1.064299e-01 -4.563740e-02 -1.795973e-01 8.034701e-01 -4.719565e-02 6.680838e-01 1.512276e-01 5.156324e-02 -1.331758e-01 5.358927e-02 -3.497515e-02 1.137302e-01 -2.888290e-02 -6.549921e-03 5.549657e-02 3.588319e-02
<VARIANCE> 39
 2.885972e+02 1.439401e+02 1.964537e+02 2.423421e+02 3.083452e+02 2.757434e+02 1.764635e+02 1.581856e+02 1.589717e+02 1.449786e+02 1.526897e+02 1.346160e+02 3.339470e+02 1.101065e+01 6.735465e+00 8.989633e+00 8.537703e+00 1.019252e+01 1.213816e+01 1.228592e+01 1.208487e+01 1.178404e+01 1.179896e+01 1.128903e+01 1.068691e+01 8.839331e+00 2.441769e+00 1.340968e+00 2.114327e+00 1.701870e+00 1.921299e+00 2.416262e+00 2.458810e+00 2.381136e+00 2.349719e+00 2.374019e+00 2.234885e+00 2.197416e+00 1.243391e+00
<GCONST> 1.801264e+02
<TRANSP> 5
 0.000000e+00 1.000000e+00 0.000000e+00 0.000000e+00 0.000000e+00
 0.000000e+00 5.938708e-01 4.061292e-01 0.000000e+00 0.000000e+00
 0.000000e+00 0.000000e+00 5.327480e-01 4.672520e-01 0.000000e+00
 0.000000e+00 0.000000e+00 0.000000e+00 8.596315e-01 1.403685e-01
 0.000000e+00 0.000000e+00 0.000000e+00 0.000000e+00 0.000000e+00
<ENDHMM>
~h "t"
<BEGINHMM>
<NUMSTATES> 5
<STATE> 2
<MEAN> 39
 -1.693768e+01 8.229674e+00 1.385470e+01 1.025486e+01 2.127955e+00 6.399448e-01 -2.472888e+00 -1.400873e+00 -3.901936e+00 1.545033e+00 -1.110705e+00 2.112914e+00 6.406176e+01 -3.333991e+00 -1.218986e+00 -4.441761e+00 -2.082291e+00 -2.195287e-01 -6.899211e-01 -4.340514e-01 3.458754e-01 5.836636e-01 -2.316265e-02 9.799649e-01 1.367208e-01 -3.974130e-01 -1.585239e-01 -5.500326e-01 9.449581e-01 -1.178625e+00 -5.953563e-01 -5.154564e-01 6.878667e-02 -4.135073e-01 -5.649770e-01 1.121003e-01 -3.182724e-01 2.213694e-01 3.223272e+00
<VARIANCE> 39
 2.364879e+02 2.065309e+02 3.529804e+02 2.493395e+02 1.800976e+02 1.947615e+02 2.211986e+02 2.067523e+02 1.891327e+02 1.594069e+02 1.443019e+02 1.278659e+02 5.282939e+02 2.049676e+01 3.137242e+01 4.735756e+01 3.704038e+01 2.526256e+01 2.698839e+01 2.749002e+01 2.911740e+01 3.208209e+01 2.202851e+01 2.084789e+01 1.824941e+01 1.404289e+02 3.378318e+00 6.225339e+00 6.789292e+00 6.685900e+00 4.782968e+00 4.803841e+00 5.132117e+00 5.094555e+00 5.556095e+00 4.087100e+00 3.779994e+00 3.439112e+00 1.523985e+01
<GCONST> 2.077247e+02
<STATE> 3
<MEAN> 39
 -3.399465e+01 9.759445e-01 6.412418e+00 -9.376466e+00 -4.884212e+00 -8.753860e+00 -2.099941e+00 -4.519237e+00 -1.021472e+01 2.062367e+00 -6.269847e-01 4.359237e+00 1.039844e+02 -3.193013e+00 1.574054e-01 1.213292e+00 -1.383798e+00 -2.149472e+00 -2.270300e+00 1.656980e+00 3.606648e-01 -1.341106e+00 1.813008e-02 -3.452283e-01 1.527941e+00 8.896679e+00 1.315534e+00 2.855339e-01 1.246590e+00 1.721824e+00 -6.212001e-02 3.575917e-01 4.899818e-01 4.236624e-01 5.071723e-01 4.584123e-02 -2.580485e-01 1.418564e-01 -2.681144e+00
<VARIANCE> 39
 2.490628e+02 2.162505e+02 2.182091e+02 2.188807e+02 1.935249e+02 2.005459e+02 2.133961e+02 2.075222e+02 1.903808e+02 1.667309e+02 1.527726e+02 1.354850e+02 9.985052e+02 2.704478e+01 2.221081e+01 2.615923e+01 2.486579e+01 2.044459e+01 2.491669e+01 2.566692e+01 2.362640e+01 2.279325e+01 1.975817e+01 2.014442e+01 1.670894e+01 1.086302e+02 5.623451e+00 5.128722e+00 4.397172e+00 5.166156e+00 4.353098e+00 4.365963e+00 4.399015e+00 4.100289e+00 4.451379e+00 3.835811e+00 3.642583e+00 3.408083e+00 2.148327e+01
<GCONST> 2.046989e+02
<STATE> 4
<MEAN> 39
 -3.080323e+01 -1.545909e+00 1.389084e+01 -3.136279e+00 -1.122357e+01 -1.136959e+01 6.785962e+00 1.518703e-02 -8.781633e+00 9.546917e-01 -1.752582e+00 8.915997e+00 1.019525e+02 3.752850e+00 -1.050459e+00 2.697425e+00 2.089429e+00 -1.345855e-01 9.599012e-02 8.594457e-01 1.246359e+00 8.947226e-01 -9.962669e-02 -8.365527e-01 2.248875e-01 -1.087330e+00 1.540830e+00 7.771333e-02 4.270202e-01 3.234045e-01 7.227191e-01 2.580206e-01 -5.709479e-01 -1.561541e-01 1.046192e-01 1.375823e-01 -1.033633e-01 -4.169531e-01 -3.710057e-01
<VARIANCE> 39
 3.377618e+02 1.403937e+02 2.260890e+02 1.953953e+02 1.915197e+02 2.623810e+02 2.636503e+02 3.055813e+02 2.208291e+02 1.978460e+02 2.253147e+02 1.789302e+02 6.423506e+02 3.142889e+01 1.310872e+01 2.948381e+01 1.997324e+01 1.669982e+01 1.846079e+01 1.799594e+01 1.898392e+01 1.773209e+01 1.666584e+01 1.635677e+01 1.494226e+01 2.657864e+01 6.211086e+00 2.820108e+00 3.537762e+00 3.201566e+00 3.234634e+00 4.330712e+00 3.691067e+00 3.722489e+00 3.745163e+00 3.479929e+00 3.521617e+00 3.021926e+00 6.645036e+00
<GCONST> 1.988241e+02
<TRANSP> 5
 0.000000e+00 1.000000e+00 0.000000e+00 0.000000e+00 0.000000e+00
 0.000000e+00 8.081586e-01 1.918414e-01 0.000000e+00 0.000000e+00
 0.000000e+00 0.000000e+00 6.251339e-01 3.748661e-01 0.000000e+00
 0.000000e+00 0.000000e+00 0.000000e+00 6.781824e-01 3.218176e-01
 0.000000e+00 0.000000e+00 0.000000e+00 0.000000e+00 0.000000e+00
<ENDHMM>
~h "v"
<BEGINHMM>
<NUMSTATES> 5
<STATE> 2
<MEAN> 39
 1.313729e+01 -2.659127e+01 1.697690e+01 -1.816574e+01 -1.120590e+01 -2.118869e+01 -1.691884e+00 1.215182e+01 1.360094e+01 1.361125e+01 -1.965389e+00 7.005758e+00 1.458966e+02 7.919403e-01 6.432016e-01 1.279833e-01 1.410663e+00 1.217082e+00 4.460336e-01 -6.665767e-01 -9.766605e-01 -7.284794e-01 5.972294e-01 2.203335e-01 -7.716054e-01 -2.013803e+00 -3.010544e-01 1.155110e+00 -6.858663e-02 1.399688e+00 1.081041e+00 1.054247e+00 -4.027924e-01 -8.720487e-01 -8.172229e-01 -2.890812e-01 -1.416085e-01 -1.190191e-01 -1.597341e+00
<VARIANCE> 39
 7.613090e+01 1.524248e+02 2.299254e+02 2.301696e+02 2.576195e+02 2.568501e+02 8.463391e+02 2.775236e+02 2.962277e+02 4.299439e+02 3.203227e+02 3.810859e+02 1.932611e+02 2.684892e+00 1.223282e+01 8.711202e+00 1.524445e+01 1.152880e+01 1.209938e+01 1.706588e+01 1.608514e+01 1.515504e+01 1.113782e+01 1.504686e+01 1.229781e+01 1.142141e+01 1.366727e+00 1.030412e+00 1.493788e+00 1.771461e+00 2.243139e+00 3.190047e+00 3.704144e+00 2.205466e+00 2.648728e+00 2.196967e+00 2.131035e+00 2.118420e+00 1.110776e+00
<GCONST> 1.845865e+02
<STATE> 3
<MEAN> 39
 1.746171e+01 -1.595972e+01 1.912004e+01 -1.487352e+00 -1.843163e+00 -1.719849e+01 -9.190857e+00 2.789189e+00 3.812741e+00 1.535398e+01 -1.509095e+00 2.659310e+00 1.266896e+02 -1.934880e+00 5.597361e+00 6.257005e-01 6.935797e+00 5.345377e+00 5.663046e+00 -3.881741e-01 -2.734505e+00 -3.223160e+00 -9.842034e-01 2.582209e-01 -4.916570e-01 -8.694661e+00 -1.826751e+00 6.196648e-02 -5.139953e-01 -1.500454e-01 1.643056e-01 1.383243e+00 1.260764e+00 8.326858e-01 1.304993e-01 -6.034571e-01 6.981604e-03 8.259901e-02 -5.055557e-01
<VARIANCE> 39
 7.912308e+01 2.027696e+02 2.391673e+02 3.222805e+02 2.770556e+02 3.240134e+02 5.315177e+02 2.995013e+02 4.101273e+02 3.543589e+02 3.537439e+02 3.287650e+02 3.421810e+02 1.927366e+01 1.738177e+01 1.692769e+01 2.329515e+01 2.232455e+01 2.480099e+01 3.395092e+01 2.279145e+01 2.560178e+01 2.285490e+01 2.371289e+01 1.971618e+01 1.606046e+01 2.790829e+00 3.100910e+00 2.494449e+00 4.413285e+00 4.138260e+00 4.923816e+00 4.098475e+00 3.816366e+00 4.954656e+00 3.348362e+00 3.743978e+00 2.993026e+00 3.261162e+00
<GCONST> 2.021649e+02
<STATE> 4
<MEAN> 39
 -4.653564e+00 -7.540674e+00 1.164987e+01 7.483019e+00 3.738034e+00 -2.793876e+00 -1.412032e+00 5.024735e+00 1.514290e+00 7.132642e+00 -3.192824e+00 3.534048e+00 9.838527e+01 -1.763367e+00 3.841149e-01 -9.140479e-01 -6.371099e-02 1.595743e-01 9.046204e-01 4.515222e-01 2.931910e-01 -5.407879e-01 -9.150534e-01 9.095384e-02 8.731529e-03 -2.152771e+00 4.301087e-01 -6.257159e-01 -7.419775e-02 -9.619257e-01 -7.421955e-01 -8.332528e-01 1.612795e-02 2.637237e-01 2.835960e-01 1.657123e-02 -5.609646e-03 1.196294e-01 1.025357e+00
<VARIANCE> 39
 4.220942e+02 1.867856e+02 1.999645e+02 2.432439e+02 2.172412e+02 2.534824e+02 2.850713e+02 2.552136e+02 2.607241e+02 2.568301e+02 2.318799e+02 2.128180e+02 4.796654e+02 3.503017e+01 2.135098e+01 1.515547e+01 2.780383e+01 2.478202e+01 3.406287e+01 2.503255e+01 2.230797e+01 2.440124e+01 1.887691e+01 1.920554e+01 1.575198e+01 2.967750e+01 4.683907e+00 4.347575e+00 3.028542e+00 6.029065e+00 5.102035e+00 6.051856e+00 4.698998e+00 4.389495e+00 4.410010e+00 3.565390e+00 3.504440e+00 3.032654e+00 5.346556e+00
<GCONST> 2.040769e+02
<TRANSP> 5
 0.000000e+00 1.000000e+00 0.000000e+00 0.000000e+00 0.000000e+00
 0.000000e+00 7.657879e-01 2.342121e-01 0.000000e+00 0.000000e+00
 0.000000e+00 0.000000e+00 4.224426e-01 5.775574e-01 0.000000e+00
 0.000000e+00 0.000000e+00 0.000000e+00 7.793515e-01 2.206485e-01
 0.000000e+00 0.000000e+00 0.000000e+00 0.000000e+00 0.000000e+00
<ENDHMM>
~h "w"
<BEGINHMM>
<NUMSTATES> 5
<STATE> 2
<MEAN> 39
 3.335065e+01 1.092548e+01 1.927637e+01 -3.456516e+01 -2.192148e+01 -2.084146e+00 -2.075213e+00 1.449918e+01 -5.713223e+00 1.389911e+01 1.005216e+00 2.978444e-02 1.195880e+02 -3.509665e-01 -3.965595e+00 -3.240717e+00 -6.123762e+00 1.600147e+00 2.250285e+00 1.426969e+00 4.390808e+00 4.142047e-01 -1.389616e+00 1.104918e+00 1.943844e-01 4.209189e+00 -5.862464e-01 -6.814804e-01 -7.758355e-01 8.845696e-01 1.924271e+00 1.462651e+00 4.288239e-01 -4.403323e-01 -4.182492e-01 -8.260865e-01 3.022131e-01 2.216183e-01 -1.603387e-01
<VARIANCE> 39
 4.489376e+01 1.789912e+02 2.470690e+02 3.214414e+02 4.055230e+02 2.781513e+02 5.876831e+02 3.849506e+02 4.428069e+02 3.939211e+02 3.352574e+02 2.960280e+02 1.089015e+02 2.359164e+00 1.150463e+01 9.707035e+00 1.596437e+01 2.089390e+01 1.995305e+01 2.186163e+01 2.154588e+01 2.093915e+01 2.049408e+01 1.677533e+01 1.752207e+01 5.901827e+00 6.805802e-01 1.301528e+00 1.467606e+00 3.505593e+00 2.649237e+00 2.754120e+00 4.155021e+00 4.521383e+00 3.757625e+00 3.564861e+00 3.327522e+00 2.996397e+00 7.338251e-01
<GCONST> 1.892538e+02
<STATE> 3
<MEAN> 39
 2.938275e+01 -6.262331e+00 2.953027e+00 -4.791742e+01 -2.544969e+00 1.554408e+01 4.236065e+00 2.211504e+01 -1.029796e+01 3.260164e+00 8.714214e+00 4.659879e+00 1.328013e+02 -1.520096e+00 -4.681214e+00 -2.885910e+00 4.975289e-01 6.596929e+00 3.740300e+00 -1.538455e+00 -1.797758e+00 -9.809613e-01 -5.223141e-01 3.365513e+00 5.132487e-01 2.817903e+00 -1.748997e-01 2.739474e-01 8.515543e-01 2.074144e+00 -5.949539e-02 -1.153058e+00 -1.469052e+00 -1.088368e+00 8.648612e-01 1.142423e+00 -2.033441e-01 -6.634127e-01 -5.344235e-01
<VARIANCE> 39
 4.922058e+01 1.719978e+02 2.432561e+02 2.895812e+02 6.431680e+02 3.175652e+02 5.672745e+02 4.290300e+02 4.127972e+02 4.346989e+02 3.364013e+02 2.931640e+02 1.266597e+02 1.964348e+00 6.877551e+00 6.258688e+00 1.592169e+01 1.254423e+01 1.472649e+01 2.445294e+01 2.170468e+01 2.192284e+01 2.365207e+01 1.709581e+01 2.011737e+01 3.181473e+00 2.700485e-01 7.640983e-01 1.086888e+00 2.045858e+00 3.093945e+00 3.047956e+00 2.905898e+00 4.034204e+00 4.117446e+00 3.743606e+00 4.183202e+00 3.267527e+00 3.079412e-01
<GCONST> 1.849971e+02
<STATE> 4
<MEAN> 39
 2.013665e+01 -2.407493e+01 1.316833e+00 -2.668169e+01 1.977913e+01 9.005268e+00 -1.077728e+01 1.725397e+01 1.950311e+00 9.149503e+00 9.983274e+00 -1.517331e+00 1.396256e+02 -1.269700e+00 -1.292808e+00 2.128061e+00 4.382554e+00 -2.871313e-01 -3.460014e+00 -1.525305e+00 8.702849e-01 2.288838e+00 4.407916e-01 -2.346544e+00 -2.538029e-01 1.578859e-01 1.709656e-01 9.451680e-01 8.323192e-01 1.846411e-01 -1.088840e+00 -5.471568e-01 1.087474e+00 2.132727e-01 -4.827513e-01 -3.301706e-01 -7.467641e-01 5.798282e-01 -7.324188e-01
<VARIANCE> 39
 7.006403e+01 1.512838e+02 2.130936e+02 3.441543e+02 4.420169e+02 4.320587e+02 4.955413e+02 4.630685e+02 4.488049e+02 3.888177e+02 3.908651e+02 3.316767e+02 1.519888e+02 1.749447e+00 6.676963e+00 7.562738e+00 1.074007e+01 1.854012e+01 1.342219e+01 2.184649e+01 1.922377e+01 2.019707e+01 2.376559e+01 1.964361e+01 2.181172e+01 2.791055e+00 2.598974e-01 8.010576e-01 9.747792e-01 1.558255e+00 2.355515e+00 2.805398e+00 3.374829e+00 3.855059e+00 3.872536e+00 3.118672e+00 4.231524e+00 3.441820e+00 4.438744e-01
<GCONST> 1.848511e+02
<TRANSP> 5
 0.000000e+00 1.000000e+00 0.000000e+00 0.000000e+00 0.000000e+00
 0.000000e+00 6.909732e-01 3.090268e-01 0.000000e+00 0.000000e+00
 0.000000e+00 0.000000e+00 7.526890e-01 2.473110e-01 0.000000e+00
 0.000000e+00 0.000000e+00 0.000000e+00 8.482374e-01 1.517626e-01
 0.000000e+00 0.000000e+00 0.000000e+00 0.000000e+00 0.000000e+00
<ENDHMM>
~h "z"
<BEGINHMM>
<NUMSTATES> 5
<STATE> 2
<MEAN> 39
 -1.187577e+01 1.201266e+01 1.599505e+01 1.569889e+01 5.141420e+00 -3.240847e+00 -1.613378e+00 2.848141e+00 -1.146583e+00 2.157404e+00 -6.434494e+00 5.513722e+00 8.712747e+01 -2.409286e+00 4.145919e+00 -3.103399e-01 2.252558e+00 1.922367e+00 7.776599e-01 5.500600e-01 9.084903e-01 4.618144e-01 5.979195e-02 2.131523e-02 2.628278e-01 2.275794e+00 -5.581891e-01 1.815081e-01 -3.537357e-01 -2.227042e-01 -1.504205e-03 1.244324e-01 6.404552e-02 3.446045e-02 -1.354999e-01 2.091832e-01 1.872760e-01 -7.845508e-02 3.768323e-01
<VARIANCE> 39
 3.444188e+02 2.320170e+02 3.508514e+02 2.955758e+02 3.101883e+02 2.876503e+02 2.822635e+02 2.603618e+02 2.363237e+02 2.483898e+02 2.519522e+02 3.044870e+02 7.285405e+02 4.143967e+01 2.480195e+01 3.256356e+01 2.821366e+01 2.373806e+01 2.795052e+01 2.425908e+01 2.420432e+01 2.215465e+01 2.288878e+01 2.142668e+01 1.919901e+01 3.169104e+01 4.376040e+00 3.432301e+00 4.545350e+00 3.622482e+00 3.722150e+00 4.242188e+00 4.173726e+00 4.313457e+00 3.713988e+00 4.146167e+00 3.738040e+00 3.663005e+00 3.522011e+00
<GCONST> 2.060441e+02
<STATE> 3
<MEAN> 39
 -2.945845e+01 3.262891e+01 1.121716e+01 2.592662e+01 1.413303e+01 3.220957e+00 2.603433e+00 6.733349e+00 -5.415422e-01 5.354135e+00 -4.951235e+00 6.719318e+00 1.074734e+02 -3.921301e+00 1.162356e+00 -1.613811e+00 4.719454e-02 3.446544e-01 8.627467e-01 6.568096e-01 4.169832e-01 -2.240975e-01 2.920426e-01 4.609044e-01 -7.118602e-02 1.570504e+00 1.276208e+00 -1.312276e+00 8.537737e-01 -6.457356e-01 -8.456196e-01 -6.187074e-01 -2.768867e-01 -6.132107e-01 -3.375626e-01 -2.343552e-01 -1.780494e-01 7.715955e-02 2.191112e-01
<VARIANCE> 39
 2.936613e+02 1.785255e+02 2.641268e+02 3.880712e+02 4.042712e+02 3.547421e+02 2.449642e+02 2.331821e+02 1.642149e+02 1.746229e+02 2.598020e+02 2.059838e+02 1.875708e+02 2.549809e+01 2.204953e+01 2.123959e+01 1.769138e+01 1.767414e+01 2.055191e+01 1.772228e+01 1.859558e+01 1.444126e+01 1.565275e+01 1.380260e+01 1.409479e+01 1.610607e+01 4.057701e+00 3.520180e+00 3.827128e+00 3.269392e+00 3.425332e+00 4.205322e+00 3.747348e+00 3.884269e+00 2.961735e+00 3.169911e+00 2.792247e+00 2.763994e+00 2.078284e+00
<GCONST> 1.962642e+02
<STATE> 4
<MEAN> 39
 -2.905589e+01 2.460542e+01 1.814331e+01 1.747224e+01 8.910334e+00 -4.328979e+00 -2.034574e+00 -4.793441e-02 -6.015130e+00 2.345252e+00 -7.591949e+00 5.079456e+00 1.211351e+02 6.484396e+00 -4.601877e+00 6.595914e+00 -1.618365e+00 -3.117160e+00 -3.186265e+00 -2.317009e+00 -2.540795e+00 -1.740299e+00 -1.299304e+00 -9.280047e-01 4.955766e-01 4.150507e+00 1.530318e+00 -1.543917e+00 1.522987e+00 -6.601593e-01 -2.978724e-01 -3.344438e-01 -4.233002e-01 3.384485e-02 -1.687226e-01 9.115408e-02 -7.497407e-04 1.778741e-01 1.738010e-01
<VARIANCE> 39
 2.975510e+02 1.920796e+02 3.506345e+02 3.235251e+02 4.840258e+02 3.285306e+02 2.906892e+02 2.024979e+02 1.487066e+02 1.692227e+02 2.942677e+02 2.260179e+02 1.656040e+02 3.305379e+01 2.769860e+01 4.036457e+01 2.654914e+01 1.943478e+01 2.524794e+01 2.279167e+01 2.865966e+01 1.767011e+01 1.578436e+01 1.558373e+01 1.780154e+01 6.475643e+00 5.036322e+00 3.310061e+00 5.120090e+00 4.471553e+00 3.933665e+00 4.307352e+00 4.102406e+00 4.433324e+00 3.279163e+00 3.417582e+00 3.224374e+00 2.957425e+00 1.065467e+00
<GCONST> 1.995862e+02
<TRANSP> 5
 0.000000e+00 1.000000e+00 0.000000e+00 0.000000e+00 0.000000e+00
 0.000000e+00 7.273284e-01 2.726716e-01 0.000000e+00 0.000000e+00
 0.000000e+00 0.000000e+00 7.950737e-01 2.049263e-01 0.000000e+00
 0.000000e+00 0.000000e+00 0.000000e+00 7.814439e-01 2.185561e-01
 0.000000e+00 0.000000e+00 0.000000e+00 0.000000e+00 0.000000e+00
<ENDHMM>
~h "ah"
<BEGINHMM>
<NUMSTATES> 5
<STATE> 2
<MEAN> 39
 1.768163e+01 -1.740580e+01 1.862749e+01 -6.067930e+00 8.618715e+00 -6.161448e+00 -1.353002e+01 7.095553e+00 -2.493809e+00 1.426771e+01 2.352417e+00 9.543276e-01 1.301373e+02 5.136416e-02 1.499785e+00 2.469247e+00 2.075386e+00 -8.042274e-01 -8.047111e-01 2.350167e+00 3.044240e-01 -7.348914e-01 -7.278627e-01 -1.756380e+00 1.188698e+00 -1.557200e+00 3.705839e-02 5.858910e-01 3.200364e-01 5.273172e-01 -5.127522e-01 5.912027e-01 1.005288e+00 -8.699815e-01 -4.672468e-03 -5.026590e-02 -4.177228e-01 3.197040e-01 -5.133099e-01
<VARIANCE> 39
 7.021253e+01 1.616535e+02 1.716106e+02 2.805281e+02 2.485551e+02 4.115486e+02 5.490025e+02 4.791491e+02 5.541356e+02 4.454777e+02 4.093169e+02 3.388619e+02 2.313297e+02 4.726035e+00 1.699430e+01 1.301340e+01 4.056591e+01 2.353177e+01 3.411980e+01 3.446380e+01 3.457458e+01 3.655754e+01 2.897586e+01 3.010879e+01 2.228100e+01 3.048714e+01 1.029410e+00 3.509204e+00 1.887725e+00 6.944532e+00 4.212222e+00 8.237581e+00 7.703199e+00 7.818066e+00 7.125968e+00 5.086616e+00 4.531536e+00 3.694724e+00 6.280954e+00
<GCONST> 2.065780e+02
<STATE> 3
<MEAN> 39
 1.795227e+01 -9.220495e+00 2.874852e+01 4.913129e+00 2.904125e+00 -9.621328e+00 4.497700e+00 7.021479e+00 -2.242514e+00 9.027061e+00 -9.160269e+00 1.013828e+01 1.219264e+02 5.694091e-01 4.463169e+00 3.685750e+00 5.577704e+00 -2.840656e+00 3.103114e+00 6.082776e+00 -6.166640e+00 -1.244893e+00 -8.636149e-01 -1.975769e+00 2.341445e+00 -5.012757e+00 -1.084596e-03 1.082831e-01 -5.906393e-01 -3.624562e-01 -5.451996e-02 1.220288e+00 -2.879446e-01 -7.642487e-01 5.379294e-01 -4.587530e-02 7.096066e-01 -2.465825e-01 -1.139357e-01
<VARIANCE> 39
 5.515326e+01 1.477717e+02 2.038670e+02 3.190422e+02 2.609770e+02 4.560673e+02 5.691564e+02 5.229112e+02 4.725217e+02 5.380013e+02 4.146908e+02 4.278762e+02 1.579184e+02 5.093034e+00 1.094506e+01 1.651909e+01 2.829823e+01 2.157306e+01 4.290768e+01 4.812118e+01 5.270033e+01 3.587807e+01 2.858941e+01 3.343253e+01 2.673200e+01 1.058943e+01 6.986620e-01 1.788270e+00 2.598575e+00 5.228531e+00 3.179319e+00 5.890582e+00 6.001451e+00 7.958311e+00 5.128495e+00 4.169975e+00 4.064746e+00 3.798782e+00 2.240830e+00
<GCONST> 2.028107e+02
<STATE> 4
<MEAN> 39
 1.944122e+01 2.611706e+00 3.542725e+01 1.550027e+01 -5.210153e+00 5.181423e+00 1.717786e+01 -1.027764e+01 -1.325408e+00 4.158587e+00 -8.777630e+00 1.584472e+01 1.094686e+02 -1.504734e-01 2.632629e+00 8.132733e-01 2.049184e+00 -6.854351e-01 2.680300e+00 1.867217e+00 -2.051832e+00 6.398521e-02 -5.583414e-01 -1.616099e-01 1.117814e-01 -3.079285e+00 -5.093865e-01 -5.527117e-01 -8.979905e-01 -8.530044e-01 8.685498e-01 -5.935549e-01 -1.024867e+00 1.761562e+00 1.368060e-01 1.362823e-01 3.353699e-01 -7.104917e-01 3.906363e-01
<VARIANCE> 39
 5.072818e+01 1.647989e+02 1.401921e+02 2.549451e+02 2.585587e+02 4.400094e+02 5.058361e+02 4.326959e+02 5.421202e+02 6.218820e+02 5.822274e+02 5.164466e+02 1.497400e+02 3.690508e+00 7.594211e+00 1.032258e+01 1.327855e+01 1.387784e+01 2.350202e+01 2.515048e+01 3.059355e+01 1.852414e+01 1.640311e+01 1.854729e+01 1.744877e+01 5.269065e+00 8.493292e-01 1.558449e+00 1.940437e+00 3.206484e+00 2.765216e+00 4.327023e+00 5.073292e+00 5.012944e+00 4.335983e+00 3.644984e+00 4.253659e+00 3.825587e+00 1.247393e+00
<GCONST> 1.929236e+02
<TRANSP> 5
 0.000000e+00 1.000000e+00 0.000000e+00 0.000000e+00 0.000000e+00
 0.000000e+00 7.411446e-01 2.588554e-01 0.000000e+00 0.000000e+00
 0.000000e+00 0.000000e+00 5.063434e-01 4.936567e-01 0.000000e+00
 0.000000e+00 0.000000e+00 0.000000e+00 7.243553e-01 2.756447e-01
 0.000000e+00 0.000000e+00 0.000000e+00 0.000000e+00 0.000000e+00
<ENDHMM>
~h "ao"
<BEGINHMM>
<NUMSTATES> 5
<STATE> 2
<MEAN> 39
 2.854727e+01 1.136213e+01 1.090015e+01 -3.282647e+01 -1.439635e+01 1.337074e+00 1.460143e+00 5.397568e+00 -1.093363e+01 4.724940e+00 -8.490840e+00 4.379909e+00 1.166884e+02 1.091575e+01 5.890752e+00 4.525933e+00 -1.053038e+01 -6.104609e+00 -1.292117e+00 -1.516159e-01 2.751863e+00 -1.570122e+00 1.003801e+00 -1.848670e+00 -1.043324e+00 3.997509e+00 -3.602157e+00 -1.759954e+00 -6.611438e-01 1.407689e+00 6.129225e-02 -3.664775e-01 -1.105295e+00 -1.919599e-01 7.602391e-02 2.647897e-01 3.135962e-01 -3.677780e-01 -6.610945e-01
<VARIANCE> 39
 1.942469e+02 1.594260e+02 1.695899e+02 5.525511e+02 3.862399e+02 2.333409e+02 2.673205e+02 2.545982e+02 2.364158e+02 2.034585e+02 1.944781e+02 2.669950e+02 1.767972e+02 4.020603e+01 2.408621e+01 2.335841e+01 3.694444e+01 3.634063e+01 2.595843e+01 3.648640e+01 3.123073e+01 3.078292e+01 2.908642e+01 2.490960e+01 3.424585e+01 1.256180e+01 4.095830e+00 2.827949e+00 2.474712e+00 7.626722e+00 4.391725e+00 2.557350e+00 3.043782e+00 3.269457e+00 3.229428e+00 2.657079e+00 2.676358e+00 3.255712e+00 2.558089e+00
<GCONST> 2.017744e+02
<STATE> 3
<MEAN> 39
 3.561390e+01 1.691472e+01 1.743223e+01 -4.679693e+01 -2.743826e+01 -2.510952e+00 -3.164431e+00 9.456165e+00 -1.200539e+01 1.090095e+01 -1.041211e+01 -4.708273e-01 1.210786e+02 3.395209e-01 -3.982939e-01 -5.199093e-01 8.172035e-02 -6.694305e-01 -5.601104e-01 5.324381e-01 5.221010e-01 -9.091557e-01 2.221611e-01 4.290022e-01 -1.505673e-03 2.672395e-01 -6.264263e-01 -8.564461e-01 -8.541030e-01 1.071404e+00 9.011429e-01 1.077467e-01 3.309968e-01 -2.170811e-01 -2.865394e-01 -2.819107e-01 4.614337e-01 4.441245e-01 -1.026646e-01
<VARIANCE> 39
 5.274399e+01 1.582088e+02 2.430415e+02 3.016442e+02 4.642486e+02 3.345706e+02 4.710027e+02 3.319907e+02 3.603013e+02 3.439358e+02 2.899318e+02 3.675252e+02 1.348376e+02 1.976180e+00 8.298557e+00 8.079727e+00 8.855852e+00 8.276577e+00 8.117212e+00 1.348243e+01 1.163048e+01 1.326806e+01 1.104605e+01 1.002769e+01 9.787951e+00 3.591794e+00 1.912023e+00 1.059452e+00 1.184837e+00 2.598389e+00 1.898680e+00 1.581173e+00 2.148702e+00 2.216907e+00 2.438531e+00 2.230872e+00 2.252040e+00 2.339773e+00 7.975099e-01
<GCONST> 1.788331e+02
<STATE> 4
<MEAN> 39
 3.745110e+01 -2.244020e+00 -8.088105e+00 -2.930038e+01 -5.672736e+00 -8.339322e+00 -4.896859e+00 1.440348e+01 -2.165948e+01 5.866850e+00 3.007981e+00 1.000250e+01 1.262848e+02 1.616505e-02 -2.908150e+00 -3.550970e+00 3.429631e+00 5.301358e+00 -1.171630e+00 -2.053376e+00 -4.923747e-01 7.131075e-01 4.222727e-01 1.525510e+00 1.306161e+00 3.506287e-01 -1.954790e-01 2.216169e-01 4.945321e-01 4.199118e-01 1.852942e-01 -2.366696e-01 -5.705139e-01 -6.126729e-02 9.749017e-01 2.240764e-01 -4.007110e-01 -4.731351e-01 -3.588866e-01
<VARIANCE> 39
 6.001371e+01 2.721231e+02 3.749973e+02 3.492050e+02 7.578143e+02 4.886645e+02 8.805807e+02 6.338902e+02 5.315097e+02 6.887234e+02 3.914761e+02 4.017435e+02 1.782910e+02 1.866060e+00 8.631898e+00 1.253821e+01 1.387045e+01 1.920231e+01 2.047592e+01 2.222749e+01 2.459803e+01 2.614274e+01 3.164321e+01 2.608198e+01 3.180176e+01 3.762786e+00 3.498980e-01 9.904078e-01 1.697694e+00 1.520201e+00 2.838525e+00 2.776370e+00 3.492945e+00 4.124096e+00 3.921831e+00 5.081143e+00 4.182094e+00 4.714612e+00 3.713972e-01
<GCONST> 1.937585e+02
<TRANSP> 5
 0.000000e+00 1.000000e+00 0.000000e+00 0.000000e+00 0.000000e+00
 0.000000e+00 6.009710e-01 3.990290e-01 0.000000e+00 0.000000e+00
 0.000000e+00 0.000000e+00 8.649579e-01 1.350421e-01 0.000000e+00
 0.000000e+00 0.000000e+00 0.000000e+00 8.722552e-01 1.277448e-01
 0.000000e+00 0.000000e+00 0.000000e+00 0.000000e+00 0.000000e+00
<ENDHMM>
~h "ay"
<BEGINHMM>
<NUMSTATES> 5
<STATE> 2
<MEAN> 39
 1.784867e+01 -3.221127e+01 -8.894585e-01 -2.439250e+01 9.746819e+00 6.951396e+00 -4.946004e+00 1.327707e+01 7.795180e+00 1.197929e+01 1.098976e+00 -1.618509e+00 1.461250e+02 -4.520882e-01 -1.823453e+00 -2.144295e+00 -1.272312e-01 2.285239e+00 2.400147e+00 -8.506352e-01 -1.809373e-01 9.468397e-01 -6.843332e-01 3.254482e-01 -1.440515e+00 9.011955e-01 -1.409272e-01 1.080503e+00 9.272065e-01 1.137457e+00 -3.120081e-01 -3.346298e-01 5.219725e-02 -5.365826e-01 -5.368880e-01 -9.284414e-02 -1.566328e-01 1.827041e-01 -1.281790e+00
<VARIANCE> 39
 7.847232e+01 1.558794e+02 2.790490e+02 3.713119e+02 4.241807e+02 3.644391e+02 4.267191e+02 4.358676e+02 3.985231e+02 4.185834e+02 4.652766e+02 3.591523e+02 1.171146e+02 2.585591e+00 4.850313e+00 7.516768e+00 9.904739e+00 1.002616e+01 1.100150e+01 1.615576e+01 1.179849e+01 1.324141e+01 1.324271e+01 1.501604e+01 1.317153e+01 2.451087e+00 9.497545e-01 1.043576e+00 1.117854e+00 2.207986e+00 1.910119e+00 2.148188e+00 3.104584e+00 3.121669e+00 2.634722e+00 2.286680e+00 2.499601e+00 1.832822e+00 1.107207e+00
<GCONST> 1.816741e+02
<STATE> 3
<MEAN> 39
 1.643782e+01 -3.603063e+01 -2.595441e+00 -2.177781e+01 1.387475e+01 9.908865e+00 -7.307497e+00 1.330321e+01 9.213303e+00 1.028881e+01 -8.049817e-01 -4.512764e+00 1.460053e+02 -2.180344e-01 -3.215865e-01 6.173142e-01 9.524214e-01 -2.367693e-01 -9.561803e-01 -9.934700e-02 7.149948e-01 3.368150e-01 -4.617408e-01 -4.438098e-01 5.842513e-02 -1.431367e-01 -9.457418e-03 1.739385e-01 3.806711e-01 1.035328e-01 -4.288761e-01 -4.572283e-01 2.167502e-01 1.613714e-01 -9.272697e-02 -4.234000e-02 -3.355425e-02 2.493268e-01 -9.093574e-02
<VARIANCE> 39
 7.315777e+01 1.605900e+02 2.250478e+02 3.674662e+02 4.732177e+02 3.463583e+02 3.642236e+02 4.299412e+02 3.629212e+02 3.620068e+02 4.096679e+02 3.936743e+02 1.425775e+02 8.285585e-01 1.618548e+00 3.057782e+00 3.528171e+00 4.933420e+00 6.604146e+00 5.897734e+00 4.866515e+00 4.792085e+00 5.000319e+00 5.368862e+00 5.292445e+00 7.211102e-01 1.341680e-01 2.677958e-01 3.621163e-01 4.646522e-01 6.037834e-01 6.602936e-01 8.596050e-01 7.353334e-01 7.953172e-01 7.917389e-01 8.091507e-01 8.055801e-01 1.128158e-01
<GCONST> 1.512264e+02
<STATE> 4
<MEAN> 39
 1.284074e+01 -3.171628e+01 1.542023e+01 -1.197202e+01 -1.873092e+00 -8.245235e+00 1.782120e+00 2.246846e+01 7.152197e+00 4.233761e+00 -2.409731e+00 3.980031e+00 1.411900e+02 -4.481062e-01 2.217772e+00 3.967856e+00 3.152483e-01 -3.437383e+00 -2.254881e+00 2.077854e+00 -2.474913e-01 -1.875793e+00 3.562998e-01 7.805042e-01 1.420732e+00 -1.366654e+00 1.854617e-01 6.503785e-01 1.137180e-01 6.036286e-02 3.233144e-01 4.118342e-01 -1.362805e-01 -8.826365e-01 -3.701073e-01 4.359620e-01 8.982418e-02 -1.499088e-01 -5.691206e-01
<VARIANCE> 39
 7.353735e+01 1.950332e+02 3.906494e+02 2.606390e+02 4.178592e+02 2.732424e+02 5.265490e+02 3.365031e+02 3.840994e+02 3.673219e+02 3.301638e+02 3.362279e+02 1.976662e+02 1.806952e+00 4.310327e+00 6.588414e+00 9.725344e+00 1.205787e+01 1.353445e+01 1.785111e+01 1.524066e+01 1.391799e+01 1.308710e+01 1.170351e+01 1.211401e+01 2.057647e+00 2.963722e-01 5.689674e-01 1.010860e+00 1.585305e+00 1.839317e+00 1.493467e+00 2.201334e+00 1.930418e+00 2.067096e+00 1.964942e+00 1.953587e+00 1.825391e+00 3.974353e-01
<GCONST> 1.759641e+02
<TRANSP> 5
 0.000000e+00 1.000000e+00 0.000000e+00 0.000000e+00 0.000000e+00
 0.000000e+00 6.135642e-01 3.864358e-01 0.000000e+00 0.000000e+00
 0.000000e+00 0.000000e+00 9.043418e-01 9.565818e-02 0.000000e+00
 0.000000e+00 0.000000e+00 0.000000e+00 8.026463e-01 1.973537e-01
 0.000000e+00 0.000000e+00 0.000000e+00 0.000000e+00 0.000000e+00
<ENDHMM>
~h "eh"
<BEGINHMM>
<NUMSTATES> 5
<STATE> 2
<MEAN> 39
 -5.137404e+01 8.238811e+00 -1.220881e+01 -1.793179e+00 -5.849779e+00 -7.734260e+00 -3.121613e+00 2.119777e+00 -5.713813e+00 1.371383e+00 -5.003940e+00 7.509879e+00 1.120970e+02 8.458069e+00 -5.460041e-01 5.776511e+00 3.613491e-01 -3.458964e-01 -2.278654e+00 -4.817450e-01 -6.093737e-01 1.742605e+00 1.625037e-02 -7.578092e-01 1.379967e+00 2.327854e+00 4.034751e+00 -1.090403e+00 2.252081e+00 -1.765051e-01 1.487759e-01 -1.047760e+00 -7.248328e-01 -2.203987e-01 8.871894e-01 6.999284e-01 -1.486640e-01 2.960899e-01 1.553584e+00
<VARIANCE> 39
 1.593644e+02 1.068861e+02 1.322664e+02 2.143834e+02 2.768696e+02 2.596061e+02 1.344342e+02 1.376445e+02 1.455332e+02 1.245486e+02 1.673491e+02 1.213485e+02 1.078227e+02 3.663021e+01 1.148726e+01 2.134596e+01 1.196780e+01 1.073367e+01 1.672476e+01 1.342157e+01 1.258503e+01 1.451787e+01 1.806886e+01 1.480848e+01 1.610600e+01 1.069021e+01 2.462735e+00 1.900477e+00 2.415201e+00 2.614651e+00 2.602004e+00 4.224951e+00 4.668511e+00 2.694371e+00 4.218189e+00 3.910247e+00 3.068981e+00 3.611996e+00 1.597639e+00
<GCONST> 1.863964e+02
<STATE> 3
<MEAN> 39
 -1.697818e+01 8.491340e+00 1.044155e+01 4.908046e+00 -4.232767e+00 -1.368927e+01 -5.810913e+00 -6.743085e-01 9.119868e-01 3.864226e+00 -8.583305e+00 1.014175e+01 1.166151e+02 1.748895e+01 -5.219717e+00 9.631042e+00 -1.659825e+00 -9.653145e-02 -4.415968e+00 -3.787891e+00 -1.109859e+00 3.131119e+00 2.914910e+00 -5.206628e-01 1.250476e+00 8.196663e+00 -7.363927e-01 -2.150927e+00 -1.173084e+00 -1.953841e+00 -4.958448e-01 -1.150840e-01 -3.569890e-01 8.648115e-01 3.224665e-01 8.375795e-01 6.572435e-01 -4.131598e-01 1.765864e+00
<VARIANCE> 39
 4.982625e+02 1.030433e+02 1.833270e+02 1.862123e+02 2.976471e+02 2.120250e+02 1.738137e+02 1.706723e+02 1.725746e+02 2.251407e+02 2.330022e+02 2.342969e+02 1.714966e+02 1.384315e+01 1.586720e+01 1.888165e+01 2.862546e+01 2.279916e+01 4.621472e+01 5.713799e+01 2.160098e+01 4.368423e+01 4.047286e+01 2.703292e+01 4.098402e+01 1.145593e+01 7.652324e+00 2.029606e+00 4.203430e+00 2.325490e+00 2.984168e+00 3.548183e+00 6.743681e+00 2.789063e+00 3.691605e+00 3.287662e+00 3.228003e+00 3.089036e+00 1.919247e+00
<GCONST> 1.993855e+02
<STATE> 4
<MEAN> 39
 1.213137e+01 -1.470241e+01 2.335080e+01 -1.062050e+01 -8.458456e+00 -2.521082e+01 -1.797807e+01 -6.810395e-01 6.845946e+00 1.343647e+01 -6.279382e+00 1.242952e+01 1.439937e+02 5.805412e+00 -7.387724e+00 1.634819e+00 -5.850642e+00 -1.846344e+00 -2.387883e+00 -5.029487e-01 2.914192e+00 3.499428e+00 2.884044e+00 1.606245e+00 -1.620353e-01 7.410656e+00 -4.431852e+00 6.188503e-01 -2.891039e+00 -7.862737e-02 7.365212e-03 1.532228e+00 1.783206e+00 1.077008e+00 -3.432495e-01 -4.835680e-01 2.924590e-01 -8.567909e-01 -1.857289e+00
<VARIANCE> 39
 5.474204e+01 1.397284e+02 1.753425e+02 2.348482e+02 3.112169e+02 2.520515e+02 6.816605e+02 2.772272e+02 3.564087e+02 4.773372e+02 4.051100e+02 5.343412e+02 1.282704e+02 3.829157e+01 1.089720e+01 2.285970e+01 1.833203e+01 2.023834e+01 2.549126e+01 6.559857e+01 1.845415e+01 2.587024e+01 2.260264e+01 2.014476e+01 2.073149e+01 1.210700e+01 1.866393e+00 2.375083e+00 2.238920e+00 3.276772e+00 2.706357e+00 4.872088e+00 5.098893e+00 2.816376e+00 5.038660e+00 3.975851e+00 3.642087e+00 4.944773e+00 1.322901e+00
<GCONST> 1.990580e+02
<TRANSP> 5
 0.000000e+00 1.000000e+00 0.000000e+00 0.000000e+00 0.000000e+00
 0.000000e+00 6.057764e-01 3.942236e-01 0.000000e+00 0.000000e+00
 0.000000e+00 0.000000e+00 3.970383e-01 6.029617e-01 0.000000e+00
 0.000000e+00 0.000000e+00 0.000000e+00 5.972658e-01 4.027342e-01
 0.000000e+00 0.000000e+00 0.000000e+00 0.000000e+00 0.000000e+00
<ENDHMM>
~h "ey"
<BEGINHMM>
<NUMSTATES> 5
<STATE> 2
<MEAN> 39
 -6.577495e+00 -1.003433e+01 2.058607e+01 -8.738317e+00 -1.629802e+01 -1.664287e+01 -2.195249e+00 2.941136e+00 -1.425586e+00 7.777675e+00 7.330849e-01 7.497627e+00 1.016466e+02 -1.681564e-01 -7.949979e-01 2.346362e+00 -1.110803e+00 -1.742718e+00 -3.016301e-01 9.411908e-01 2.887920e-01 3.379399e-02 3.719192e-01 3.767790e-01 2.046059e-01 2.471691e+00 4.982822e-01 -5.522919e-02 7.623733e-01 -2.207748e-01 1.528832e-01 2.311506e-01 2.638987e-01 -1.864697e-01 -2.703188e-01 8.936597e-02 -1.847107e-01 -2.863432e-02 1.145437e+00
<VARIANCE> 39
 3.323946e+02 2.465808e+02 5.270331e+02 3.278982e+02 2.931858e+02 3.526268e+02 5.245978e+02 3.670294e+02 3.556638e+02 2.711867e+02 2.204268e+02 2.139944e+02 1.718408e+03 1.529155e+01 1.431879e+01 1.915754e+01 1.850706e+01 2.160507e+01 2.520703e+01 2.703208e+01 2.652031e+01 2.274605e+01 1.872995e+01 1.748771e+01 1.684779e+01 5.325655e+01 2.656874e+00 2.543166e+00 3.224126e+00 3.455938e+00 4.101615e+00 4.424762e+00 5.102446e+00 4.443287e+00 4.091834e+00 3.415973e+00 3.305620e+00 3.155688e+00 1.086325e+01
<GCONST> 2.060117e+02
<STATE> 3
<MEAN> 39
 3.201108e-01 -1.414623e+01 5.020968e+01 -2.290757e+01 -2.339458e+01 -1.574014e+01 4.073319e-01 -2.187477e+00 -6.140942e+00 1.292190e+01 -7.087939e-01 9.125019e+00 1.358867e+02 7.565988e-01 4.773991e-01 3.899722e+00 -9.164444e-01 1.492933e-01 7.556269e-01 -4.907185e-01 -1.549254e+00 -1.097254e+00 -1.678229e-01 -7.039671e-01 -4.964171e-02 3.401527e+00 -3.087123e-01 4.577296e-01 -3.400497e-01 4.505914e-01 4.868073e-01 2.842410e-01 -2.080496e-01 -2.096087e-01 -7.445069e-02 -2.862808e-01 -1.946254e-01 -1.164136e-01 -1.170915e+00
<VARIANCE> 39
 1.043776e+02 1.991744e+02 4.272799e+02 4.539549e+02 2.106479e+02 2.815553e+02 5.177324e+02 3.557478e+02 6.507906e+02 2.633684e+02 1.875646e+02 1.944624e+02 4.877275e+02 1.160893e+01 1.256674e+01 1.563229e+01 1.560799e+01 1.254528e+01 1.332148e+01 1.971477e+01 1.523553e+01 1.660493e+01 1.368741e+01 1.085616e+01 1.238502e+01 6.899434e+01 1.495275e+00 1.441047e+00 2.056778e+00 2.045233e+00 1.743493e+00 2.039117e+00 2.800045e+00 2.157868e+00 2.308435e+00 2.065055e+00 1.815971e+00 1.777056e+00 5.975220e+00
<GCONST> 1.913124e+02
<STATE> 4
<MEAN> 39
 -3.067113e+00 5.036642e+00 6.685938e+01 -1.265434e+01 -9.667851e+00 -2.437815e+00 -4.644516e+00 -1.904861e+01 -1.227373e+01 1.979946e+00 -1.124041e+01 5.877778e+00 1.199889e+02 -4.967771e-01 2.346244e+00 -2.295606e+00 4.174241e+00 1.788997e+00 1.271853e+00 6.678246e-01 4.708455e-01 1.841755e-01 -1.027409e+00 -3.380512e-01 -8.052125e-01 -6.493876e+00 -2.009563e-01 -4.594560e-02 -1.838653e+00 4.009894e-01 6.269431e-02 -1.936120e-01 1.015836e-01 7.750864e-01 5.200455e-01 1.729364e-01 6.124309e-01 5.405759e-02 -1.081929e+00
<VARIANCE> 39
 7.674274e+01 2.575324e+02 3.912708e+02 6.223550e+02 2.818571e+02 3.295047e+02 3.314735e+02 5.371058e+02 7.034662e+02 3.860157e+02 3.352582e+02 4.040252e+02 5.131204e+02 6.907948e+00 1.262217e+01 5.098521e+01 2.692567e+01 1.866669e+01 1.772180e+01 2.342596e+01 3.077122e+01 3.114111e+01 2.157791e+01 2.192255e+01 2.132953e+01 4.229456e+01 1.445633e+00 2.096645e+00 5.181767e+00 4.814960e+00 3.106572e+00 3.032947e+00 3.931242e+00 5.030699e+00 4.829101e+00 3.779234e+00 3.754750e+00 3.683970e+00 4.513714e+00
<GCONST> 2.051380e+02
<TRANSP> 5
 0.000000e+00 1.000000e+00 0.000000e+00 0.000000e+00 0.000000e+00
 0.000000e+00 7.835811e-01 2.164189e-01 0.000000e+00 0.000000e+00
 0.000000e+00 0.000000e+00 8.862057e-01 1.137943e-01 0.000000e+00
 0.000000e+00 0.000000e+00 0.000000e+00 8.788193e-01 1.211807e-01
 0.000000e+00 0.000000e+00 0.000000e+00 0.000000e+00 0.000000e+00
<ENDHMM>
~h "hh"
<BEGINHMM>
<NUMSTATES> 5
<STATE> 2
<MEAN> 39
 -3.679436e+00 4.239651e+00 3.380551e+00 -1.887195e+00 1.101719e+00 5.940105e+00 1.953564e+00 2.112461e-01 -5.086527e+00 4.340303e+00 -1.769795e+00 2.470396e+00 7.623695e+01 2.235642e+00 2.671882e+00 1.169258e+00 2.265553e-01 -7.522522e-01 1.006967e+00 1.528523e+00 6.349009e-01 2.879610e-01 4.619716e-01 7.186822e-02 -1.801218e-01 -4.206945e-01 7.997358e-01 3.774524e-01 6.172623e-01 -2.391381e-01 -6.201015e-01 -6.003501e-01 -1.167517e-01 1.182397e-01 1.150602e-01 2.293349e-01 -1.103419e-01 -3.652748e-02 8.570784e-01
<VARIANCE> 39
 5.603739e+02 2.670022e+02 2.204099e+02 2.386113e+02 2.706993e+02 2.600595e+02 2.953937e+02 2.693967e+02 3.020186e+02 2.245001e+02 1.978924e+02 1.895201e+02 6.285171e+02 2.653162e+01 2.288326e+01 2.164615e+01 2.348695e+01 2.354371e+01 2.872263e+01 2.686636e+01 2.430058e+01 2.305977e+01 2.013611e+01 1.883834e+01 1.513150e+01 2.159513e+01 3.762361e+00 4.120951e+00 3.518918e+00 4.470438e+00 4.987592e+00 5.245291e+00 5.164712e+00 5.036416e+00 4.780273e+00 4.083837e+00 3.794601e+00 3.189171e+00 3.705113e+00
<GCONST> 2.043076e+02
<STATE> 3
<MEAN> 39
 2.004105e+01 2.227929e+01 1.681942e+01 6.302013e-01 -2.256910e+00 7.660217e+00 8.004175e+00 2.501777e+00 -4.172340e+00 7.803908e+00 -3.271185e+00 2.396293e+00 8.840096e+01 6.162840e+00 2.674815e+00 2.365947e+00 -2.692731e+00 -3.675268e+00 -1.580673e+00 -3.072719e-01 2.453800e-01 -4.216715e-02 1.371103e+00 -2.775980e-01 -4.339881e-01 4.515658e+00 -3.678248e-01 -1.433036e+00 -4.029430e-01 -1.591126e+00 -6.988385e-01 -1.014845e+00 -9.411634e-01 -8.728775e-02 -2.207818e-01 1.699246e-01 9.825905e-02 8.099335e-02 1.060901e+00
<VARIANCE> 39
 2.674552e+02 2.226460e+02 1.350912e+02 2.966910e+02 2.752401e+02 2.482176e+02 2.401455e+02 2.328463e+02 3.332684e+02 2.182056e+02 1.908464e+02 2.039025e+02 3.993758e+02 4.069677e+01 2.139419e+01 1.818493e+01 2.923246e+01 2.196839e+01 2.161372e+01 2.530219e+01 2.466605e+01 2.649461e+01 2.070478e+01 1.810878e+01 1.715825e+01 3.865485e+01 4.111992e+00 3.676805e+00 2.971578e+00 5.694117e+00 3.952186e+00 4.017839e+00 4.273582e+00 4.325374e+00 4.245051e+00 3.557257e+00 3.192652e+00 3.049170e+00 2.997205e+00
<GCONST> 2.017472e+02
<STATE> 4
<MEAN> 39
 3.243624e+01 2.207586e+01 2.203586e+01 -1.355809e+01 -1.635993e+01 -3.212683e-01 9.415453e-01 1.767454e+00 -7.018177e+00 1.225577e+01 -3.736035e+00 6.607955e-01 1.042497e+02 1.662612e+00 -1.238557e+00 3.878091e-01 -4.786105e+00 -2.706322e+00 -1.973208e+00 -1.600911e+00 1.186890e+00 1.835161e-01 1.164044e+00 8.153548e-01 8.684871e-02 3.879356e+00 -1.035475e+00 -1.175598e+00 -9.072704e-01 -6.685117e-01 8.924028e-01 6.207732e-01 3.164178e-01 8.342637e-01 9.057330e-02 -3.496712e-01 3.286309e-01 9.698941e-02 1.246944e-01
<VARIANCE> 39
 5.536414e+01 1.987738e+02 1.788626e+02 2.518939e+02 2.894801e+02 2.839768e+02 3.608665e+02 3.024858e+02 4.002862e+02 3.033790e+02 2.642252e+02 2.878333e+02 1.445474e+02 9.929969e+00 1.433033e+01 1.235524e+01 2.957124e+01 1.805392e+01 1.678046e+01 2.265730e+01 2.174494e+01 2.071589e+01 1.820819e+01 1.679969e+01 1.580723e+01 1.770448e+01 2.449286e+00 2.610304e+00 2.165720e+00 3.346034e+00 3.399470e+00 3.464248e+00 3.878219e+00 4.229044e+00 3.761012e+00 3.347858e+00 3.005171e+00 2.983565e+00 2.112497e+00
<GCONST> 1.942707e+02
<TRANSP> 5
 0.000000e+00 1.000000e+00 0.000000e+00 0.000000e+00 0.000000e+00
 0.000000e+00 6.708605e-01 3.291395e-01 0.000000e+00 0.000000e+00
 0.000000e+00 0.000000e+00 5.370506e-01 4.629494e-01 0.000000e+00
 0.000000e+00 0.000000e+00 0.000000e+00 6.935484e-01 3.064516e-01
 0.000000e+00 0.000000e+00 0.000000e+00 0.000000e+00 0.000000e+00
<ENDHMM>
~h "ih"
<BEGINHMM>
<NUMSTATES> 5
<STATE> 2
<MEAN> 39
 -3.671891e+01 7.930587e+00 6.968443e-01 -1.016841e-01 -1.200956e+01 -8.804447e+00 -6.074438e-01 -6.381059e-02 -4.837705e+00 1.164426e+00 -2.048185e+00 9.853381e+00 1.160426e+02 1.029704e+01 -5.676845e-01 8.929052e+00 1.190026e+00 6.235075e-02 -2.802319e+00 -6.563998e-01 -1.555596e+00 8.674173e-01 1.756979e-01 -8.721782e-01 1.096279e+00 3.397803e+00 2.387980e+00 -1.287572e+00 1.978258e+00 -9.581421e-02 6.229907e-02 -1.013170e+00 -8.297890e-01 -4.871460e-01 -1.618755e-01 4.192947e-01 -2.047543e-01 6.688643e-02 1.286248e+00
<VARIANCE> 39
 5.660474e+02 1.131583e+02 4.304023e+02 2.265042e+02 2.984287e+02 2.736351e+02 1.555182e+02 1.694167e+02 1.660145e+02 1.393795e+02 2.141426e+02 1.685847e+02 1.488329e+02 4.180209e+01 1.458031e+01 3.131659e+01 1.707445e+01 1.219853e+01 2.230996e+01 1.936498e+01 1.353038e+01 1.429981e+01 1.649192e+01 1.485625e+01 2.098535e+01 1.418970e+01 6.982387e+00 2.412280e+00 5.635731e+00 3.339896e+00 2.710514e+00 4.727096e+00 5.037650e+00 3.141140e+00 3.915992e+00 3.010301e+00 2.814791e+00 3.913698e+00 1.994813e+00
<GCONST> 1.956228e+02
<STATE> 3
<MEAN> 39
 2.245845e+00 -6.849442e+00 3.423086e+01 -3.025434e+00 -1.127108e+01 -2.617199e+01 -7.821618e+00 -6.452513e+00 -2.942821e+00 6.460348e+00 -6.017416e+00 1.418739e+01 1.365064e+02 5.664008e+00 -4.081576e+00 5.612509e+00 -1.454823e+00 -1.451801e+00 -3.113210e+00 -6.905417e-01 -9.168965e-01 -8.439599e-01 1.379250e+00 1.067107e-01 2.462945e-01 3.688267e+00 -2.115678e+00 1.528402e-01 -1.384009e+00 8.024121e-02 -2.857839e-01 4.744954e-01 6.569602e-01 3.476722e-01 -6.561916e-01 -5.906920e-02 3.318348e-01 -3.896735e-01 -1.123560e+00
<VARIANCE> 39
 1.909482e+02 2.171904e+02 2.382890e+02 2.859684e+02 3.670456e+02 2.380060e+02 5.492017e+02 2.397020e+02 2.460699e+02 2.352338e+02 3.219749e+02 4.250114e+02 2.007408e+02 5.842815e+01 1.740804e+01 3.858657e+01 2.496088e+01 1.538064e+01 2.967153e+01 4.843934e+01 2.248332e+01 2.657401e+01 1.809208e+01 1.842057e+01 2.465134e+01 2.125356e+01 5.626950e+00 2.947126e+00 3.474708e+00 3.537626e+00 2.260917e+00 3.791798e+00 4.542114e+00 2.866497e+00 3.005964e+00 3.106147e+00 3.102572e+00 3.900685e+00 2.527100e+00
<GCONST> 2.026482e+02
<STATE> 4
<MEAN> 39
 5.042815e+00 -1.511292e+01 4.484882e+01 2.837763e+00 -1.712183e+01 -3.166914e+01 -3.686244e+00 -4.421249e+00 -1.714622e+01 8.532703e+00 -3.252584e+00 7.872509e+00 1.332416e+02 -8.533483e-01 2.377434e+00 -1.711494e-01 4.875415e+00 1.080416e+00 8.651785e-01 2.312576e+00 9.862245e-01 -3.032916e+00 -1.192527e+00 9.750806e-01 -1.493050e+00 -7.898258e+00 -1.396825e+00 1.646154e+00 -2.192014e+00 7.230020e-01 1.254600e+00 1.406542e+00 -3.841802e-01 4.131616e-01 7.601225e-01 -7.596709e-01 3.468114e-02 -1.348736e-01 -3.235349e+00
<VARIANCE> 39
 7.964460e+01 2.085286e+02 2.313782e+02 4.136503e+02 3.234834e+02 3.776154e+02 1.055286e+03 8.766321e+02 6.503138e+02 3.434586e+02 2.742741e+02 3.096953e+02 3.831500e+02 1.083455e+01 2.628456e+01 2.306394e+01 2.793038e+01 2.296840e+01 3.040486e+01 4.431814e+01 4.080780e+01 3.393003e+01 2.549906e+01 2.242342e+01 2.232257e+01 6.246053e+01 2.779678e+00 3.875122e+00 3.945449e+00 6.533076e+00 3.425122e+00 5.743773e+00 1.103908e+01 9.317697e+00 8.475217e+00 4.918216e+00 4.137793e+00 3.954302e+00 4.958490e+00
<GCONST> 2.125763e+02
<TRANSP> 5
 0.000000e+00 1.000000e+00 0.000000e+00 0.000000e+00 0.000000e+00
 0.000000e+00 6.318193e-01 3.681807e-01 0.000000e+00 0.000000e+00
 0.000000e+00 0.000000e+00 7.888889e-01 2.111111e-01 0.000000e+00
 0.000000e+00 0.000000e+00 0.000000e+00 7.988293e-01 2.011707e-01
 0.000000e+00 0.000000e+00 0.000000e+00 0.000000e+00 0.000000e+00
<ENDHMM>
~h "iy"
<BEGINHMM>
<NUMSTATES> 5
<STATE> 2
<MEAN> 39
 2.773267e+00 -6.675778e+00 6.122464e+01 -2.926888e-01 -7.996522e+00 -1.756889e+01 -3.439200e-01 -1.094653e+01 -1.732545e+01 5.107314e+00 -8.186535e+00 1.019094e+01 1.344390e+02 9.439145e-01 -1.756231e+00 4.396796e+00 -3.485503e+00 -1.011533e+00 1.112924e+00 -6.951159e-02 -1.295184e+00 -2.311218e-01 9.336066e-01 -5.980437e-01 1.929038e-01 4.364328e-01 -4.637960e-01 6.006463e-01 -2.585014e+00 1.212853e+00 1.034469e+00 -2.300007e-01 -2.662564e-01 1.223549e+00 4.291193e-01 -2.440223e-01 4.800942e-01 -2.195799e-01 -8.846647e-01
<VARIANCE> 39
 8.805907e+01 2.395320e+02 2.484472e+02 3.402313e+02 2.213105e+02 3.248308e+02 6.165973e+02 5.968582e+02 4.107635e+02 3.693684e+02 2.517831e+02 3.765024e+02 1.229399e+02 2.405720e+01 4.052883e+01 2.757073e+01 3.387031e+01 2.137520e+01 4.627779e+01 2.987226e+01 3.504386e+01 2.765374e+01 2.357519e+01 1.927243e+01 1.493220e+01 7.685402e+00 2.806068e+00 2.284074e+00 2.828613e+00 4.092189e+00 4.083612e+00 3.821174e+00 4.419955e+00 4.165916e+00 4.099996e+00 3.484160e+00 2.682487e+00 2.958234e+00 5.497529e-01
<GCONST> 2.010316e+02
<STATE> 3
<MEAN> 39
 4.341201e+00 -9.720561e+00 6.462817e+01 1.484028e+00 -8.483555e+00 -1.605514e+01 -6.409533e-01 -3.430731e+00 -2.243614e+01 5.345371e+00 -6.077069e+00 5.682386e+00 1.304959e+02 8.180591e-01 -1.808721e-02 -3.957025e+00 1.946582e+00 1.449936e+00 -9.399477e-01 -2.690506e-01 1.396459e+00 1.058809e+00 -2.977305e-01 7.510328e-01 -2.905716e-01 -1.969444e+00 9.009491e-02 2.226436e-01 -2.192087e+00 4.831726e-01 9.691843e-01 -3.066454e-01 -6.184233e-01 2.322802e-01 7.720866e-01 -2.192452e-01 7.580153e-02 8.649243e-02 -4.643948e-01
<VARIANCE> 39
 1.233001e+02 2.775576e+02 3.050509e+02 4.342141e+02 2.391099e+02 5.197327e+02 6.899196e+02 6.984934e+02 4.763912e+02 4.589939e+02 2.540748e+02 3.345459e+02 2.325666e+02 1.637670e+01 1.769271e+01 3.399967e+01 2.293983e+01 1.873828e+01 3.561934e+01 2.646673e+01 2.795688e+01 2.420464e+01 1.820414e+01 1.501867e+01 1.415347e+01 6.257336e+00 1.591851e+00 2.295287e+00 2.543571e+00 4.601064e+00 3.582407e+00 4.279062e+00 3.996090e+00 4.345326e+00 3.922694e+00 3.070108e+00 2.513051e+00 2.268010e+00 6.302732e-01
<GCONST> 1.996490e+02
<STATE> 4
<MEAN> 39
 2.665989e+00 -1.189909e+00 4.862860e+01 -3.324932e+00 -3.051525e+00 -6.265082e+00 -1.243210e+00 -4.851409e+00 -7.752820e+00 3.275259e+00 -6.487300e+00 7.108406e+00 1.144221e+02 2.069417e-01 1.429879e-01 -4.665951e+00 5.891849e-01 1.646811e+00 3.606153e-01 -9.355131e-01 7.111608e-01 1.547332e+00 -1.745152e-01 3.359973e-01 -2.283971e-01 -2.330637e+00 -5.070274e-02 1.803562e-04 -2.195314e-01 -2.359020e-01 -5.101608e-02 1.084577e-01 -3.863975e-02 -1.717145e-01 -9.732258e-02 1.956491e-01 1.466725e-02 -2.573785e-02 1.469104e-03
<VARIANCE> 39
 2.783871e+02 4.767414e+02 5.726906e+02 4.910154e+02 3.071657e+02 9.832482e+02 6.517811e+02 5.119844e+02 4.500537e+02 3.852778e+02 2.662909e+02 2.710799e+02 6.186944e+02 1.173055e+01 1.329625e+01 2.675870e+01 1.633495e+01 1.930533e+01 2.618286e+01 2.165213e+01 2.119260e+01 1.968252e+01 1.630770e+01 1.364031e+01 1.372464e+01 5.798185e+00 8.980352e-01 1.825449e+00 2.493330e+00 3.041246e+00 2.559575e+00 4.179466e+00 3.059085e+00 3.347466e+00 3.161110e+00 2.677825e+00 2.318058e+00 2.101022e+00 6.731567e-01
<GCONST> 1.978193e+02
<TRANSP> 5
 0.000000e+00 1.000000e+00 0.000000e+00 0.000000e+00 0.000000e+00
 0.000000e+00 6.837875e-01 3.162126e-01 0.000000e+00 0.000000e+00
 0.000000e+00 0.000000e+00 6.802528e-01 3.197472e-01 0.000000e+00
 0.000000e+00 0.000000e+00 0.000000e+00 8.002175e-01 1.997825e-01
 0.000000e+00 0.000000e+00 0.000000e+00 0.000000e+00 0.000000e+00
<ENDHMM>
~h "ow"
<BEGINHMM>
<NUMSTATES> 5
<STATE> 2
<MEAN> 39
 3.747924e+00 -1.168764e+01 -2.527414e+00 -1.518476e+01 -1.675034e+00 -1.026267e+01 -8.011139e+00 -1.819244e+00 -9.951718e-01 1.404503e+01 2.089269e+00 2.003188e+00 9.994941e+01 1.806920e+00 -1.466034e+00 -3.565506e-01 -2.970423e+00 3.443750e-01 1.686322e+00 1.660607e+00 -8.971858e-02 7.115307e-01 2.062421e+00 1.059392e-01 -9.526222e-01 4.647811e+00 4.191442e-01 1.162399e-01 4.412386e-01 -1.425307e-01 2.149922e-01 2.994120e-01 -1.271845e-02 2.294306e-02 -7.760115e-02 -9.663244e-02 -2.093724e-01 2.900969e-01 8.823880e-01
<VARIANCE> 39
 5.422589e+02 3.153245e+02 2.388111e+02 3.485371e+02 3.520858e+02 4.957375e+02 5.217937e+02 4.990484e+02 6.227462e+02 5.732289e+02 5.370851e+02 3.417112e+02 1.302914e+03 3.991053e+01 2.073519e+01 1.884967e+01 3.152176e+01 3.049219e+01 2.916359e+01 3.385404e+01 3.569760e+01 4.114771e+01 3.822353e+01 3.823035e+01 2.969380e+01 1.100818e+02 5.007751e+00 3.412166e+00 2.894394e+00 4.545546e+00 4.776301e+00 4.404966e+00 5.921520e+00 6.038309e+00 6.509049e+00 6.831710e+00 6.679736e+00 5.359378e+00 1.350587e+01
<GCONST> 2.197776e+02
<STATE> 3
<MEAN> 39
 2.123113e+01 -2.126151e+01 1.667702e+00 -2.801734e+01 3.403429e+00 -7.291389e+00 -3.004641e+00 -1.279975e-01 -1.694115e+00 2.510241e+01 3.731448e+00 8.655095e-01 1.358542e+02 9.942216e-01 8.095804e-01 8.451264e-01 -2.423306e+00 -5.023255e-01 2.765514e+00 3.145494e-01 -1.079323e+00 -4.649261e-01 6.841548e-01 9.791628e-02 9.110456e-01 2.371786e+00 -6.591194e-01 7.436069e-01 -3.588838e-02 9.665893e-01 -1.339457e-01 -1.381405e-01 -4.027027e-01 4.111924e-02 -8.998245e-02 -8.523041e-01 -1.905313e-01 4.125692e-01 -1.701466e+00
<VARIANCE> 39
 1.207039e+02 2.063156e+02 2.342127e+02 3.226370e+02 3.631261e+02 5.702342e+02 5.552899e+02 3.789329e+02 8.253774e+02 5.223643e+02 5.593332e+02 2.648712e+02 2.906048e+02 1.210220e+01 1.122145e+01 8.269957e+00 1.466478e+01 1.229644e+01 1.492750e+01 1.719422e+01 1.627126e+01 2.034964e+01 1.943802e+01 1.814388e+01 1.565822e+01 3.466241e+01 2.154656e+00 1.357642e+00 1.352229e+00 2.290334e+00 2.135938e+00 2.181586e+00 2.639948e+00 2.642637e+00 3.207268e+00 3.023809e+00 3.189034e+00 2.458926e+00 4.436062e+00
<GCONST> 1.953201e+02
<STATE> 4
<MEAN> 39
 2.385501e+01 -3.632671e+00 5.912604e+00 -2.995414e+01 -2.466574e+00 6.246210e+00 -8.669256e-01 -1.511336e+00 -6.539588e+00 1.332711e+01 -1.378071e+00 6.944798e+00 1.237167e+02 -6.224570e-01 1.363026e+00 3.745077e-01 1.114543e+00 1.451922e-01 5.476364e-01 2.341220e-01 -1.680340e-01 -1.106809e-01 -8.885272e-01 -5.882978e-01 4.979216e-02 -2.103850e+00 -2.707210e-01 -7.652012e-02 -5.023689e-02 3.856876e-01 8.463594e-02 -2.020297e-01 -8.182901e-02 6.552570e-02 1.134648e-01 -3.922085e-02 3.617434e-02 -7.149825e-02 -2.173469e-01
<VARIANCE> 39
 1.362806e+02 3.629511e+02 2.555827e+02 5.126808e+02 5.492635e+02 4.778436e+02 4.729985e+02 4.158735e+02 8.002892e+02 4.686545e+02 4.266135e+02 3.343482e+02 5.483951e+02 6.576518e+00 9.871445e+00 7.824921e+00 1.609853e+01 1.159509e+01 1.371899e+01 1.432297e+01 1.597075e+01 1.828723e+01 1.626736e+01 1.610557e+01 1.407144e+01 5.500310e+00 9.700190e-01 1.332395e+00 1.162305e+00 2.147353e+00 1.773675e+00 2.108869e+00 2.205594e+00 2.534474e+00 2.752647e+00 2.439693e+00 2.415541e+00 2.192544e+00 5.946762e-01
<GCONST> 1.895443e+02
<TRANSP> 5
 0.000000e+00 1.000000e+00 0.000000e+00 0.000000e+00 0.000000e+00
 0.000000e+00 7.033117e-01 2.966883e-01 0.000000e+00 0.000000e+00
 0.000000e+00 0.000000e+00 6.272967e-01 3.727033e-01 0.000000e+00
 0.000000e+00 0.000000e+00 0.000000e+00 9.319474e-01 6.805262e-02
 0.000000e+00 0.000000e+00 0.000000e+00 0.000000e+00 0.000000e+00
<ENDHMM>
~h "sp"
<BEGINHMM>
<NUMSTATES> 3
<STATE> 2
~s "silst"
<TRANSP> 3
 0.000000e+00 7.000000e-01 3.000000e-01
 0.000000e+00 5.000000e-01 5.000000e-01
 0.000000e+00 0.000000e+00 0.000000e+00
<ENDHMM>
~h "th"
<BEGINHMM>
<NUMSTATES> 5
<STATE> 2
<MEAN> 39
 -2.481170e+01 2.206353e+00 2.753856e+00 8.065375e+00 -3.524363e+00 1.404628e+00 -2.892248e+00 6.358984e-01 -4.269058e+00 2.275210e+00 -2.178025e+00 4.214951e+00 7.971970e+01 -2.255184e+00 -1.013206e+00 -1.680278e+00 -1.293743e+00 -1.359198e+00 -2.601979e-01 -8.195405e-01 1.146838e-03 4.106442e-02 -4.807668e-01 4.963530e-02 2.591100e-01 1.539333e+00 9.482118e-01 -2.576420e-01 7.705289e-01 -3.517027e-01 -1.120962e-01 -3.687940e-01 1.058811e-01 -1.779949e-01 -5.082735e-02 1.807120e-01 -1.031643e-01 1.018016e-01 1.679707e+00
<VARIANCE> 39
 2.098252e+02 1.547247e+02 1.595773e+02 1.591654e+02 1.671915e+02 1.682427e+02 1.768803e+02 1.713949e+02 1.767889e+02 1.480420e+02 1.405965e+02 1.319861e+02 5.898167e+02 2.607335e+01 1.748136e+01 2.068476e+01 2.181244e+01 1.843098e+01 2.142038e+01 2.240483e+01 2.141331e+01 2.325457e+01 1.861608e+01 1.788735e+01 1.726353e+01 8.617636e+01 3.313781e+00 3.631540e+00 3.862706e+00 4.020115e+00 3.708130e+00 4.193768e+00 4.212031e+00 4.031496e+00 4.323827e+00 3.740879e+00 3.601959e+00 3.515559e+00 9.990749e+00
<GCONST> 1.982281e+02
<STATE> 3
<MEAN> 39
 -2.265615e+01 -5.783283e+00 1.005574e+01 5.932188e-02 -1.011275e+01 -3.900674e+00 -3.263087e+00 -8.046195e-01 -2.417932e+00 3.457073e+00 -3.563381e+00 6.347665e+00 1.127507e+02 5.810066e+00 -1.744579e+00 4.985216e+00 2.339462e+00 1.785386e+00 -1.901241e+00 2.561051e-02 4.672791e-02 1.363291e-01 1.297324e+00 4.517866e-01 -2.848659e-01 4.194536e+00 2.246472e+00 -2.216350e-01 -1.946006e-01 1.505242e+00 1.791229e+00 -3.285684e-01 -8.283868e-01 1.339989e-01 -4.264341e-01 -1.714450e-02 2.747146e-01 -2.933775e-01 -1.970714e+00
<VARIANCE> 39
 2.222453e+02 1.604755e+02 2.582665e+02 1.952440e+02 1.837629e+02 1.851931e+02 2.024366e+02 1.889641e+02 1.835671e+02 1.787882e+02 1.799703e+02 1.992761e+02 1.883091e+02 3.678167e+01 1.987533e+01 3.261266e+01 3.333347e+01 2.710543e+01 2.805606e+01 2.896240e+01 2.433691e+01 2.304072e+01 2.142935e+01 2.194022e+01 2.421934e+01 5.119939e+01 4.293252e+00 4.374327e+00 9.371944e+00 6.112014e+00 4.985560e+00 6.021607e+00 6.924193e+00 5.248545e+00 4.922175e+00 5.452231e+00 4.952820e+00 5.136579e+00 7.708092e+00
<GCONST> 2.058337e+02
<STATE> 4
<MEAN> 39
 1.815222e+01 -1.277858e+01 1.408303e+01 1.610770e+01 1.443179e+01 -1.093857e+01 -1.769082e+01 -3.019433e+00 -6.807812e+00 3.613206e+00 -1.720802e+00 3.662431e+00 1.163912e+02 9.972252e+00 -2.133230e+00 -2.490253e+00 1.529751e+00 6.892660e+00 -2.619069e+00 -6.015829e+00 -1.025807e-01 -1.509203e+00 -1.369783e+00 -1.690967e-01 1.995385e-03 1.987738e+00 -1.923674e+00 -1.070499e-01 -5.168826e-01 -1.107188e+00 -9.003166e-01 -1.975968e-01 2.073194e-01 4.867819e-01 -1.580290e-01 -2.996804e-01 -1.634239e-01 1.526324e-01 3.248036e-02
<VARIANCE> 39
 4.655787e+02 1.461099e+02 3.627403e+02 2.129566e+02 4.186015e+02 5.354573e+02 4.997574e+02 3.152484e+02 2.163692e+02 2.103875e+02 1.750300e+02 1.797730e+02 1.549099e+02 3.799848e+01 2.247265e+01 4.328044e+01 3.452940e+01 4.088596e+01 7.100590e+01 5.211806e+01 4.058227e+01 2.888999e+01 3.044501e+01 2.495798e+01 2.067151e+01 1.257841e+01 8.484368e+00 3.872589e+00 1.392909e+01 6.562572e+00 1.000163e+01 9.833569e+00 1.152632e+01 7.775277e+00 5.560420e+00 4.781622e+00 4.597188e+00 4.115245e+00 3.113653e+00
<GCONST> 2.141677e+02
<TRANSP> 5
 0.000000e+00 1.000000e+00 0.000000e+00 0.000000e+00 0.000000e+00
 0.000000e+00 8.479588e-01 1.520412e-01 0.000000e+00 0.000000e+00
 0.000000e+00 0.000000e+00 7.474746e-01 2.525254e-01 0.000000e+00
 0.000000e+00 0.000000e+00 0.000000e+00 7.208427e-01 2.791573e-01
 0.000000e+00 0.000000e+00 0.000000e+00 0.000000e+00 0.000000e+00
<ENDHMM>
~h "uw"
<BEGINHMM>
<NUMSTATES> 5
<STATE> 2
<MEAN> 39
 -6.481332e+00 -3.694157e+00 4.326446e+01 8.680042e+00 -5.590989e+00 -1.557228e+01 1.510135e+00 3.758671e+00 -1.202399e+01 2.079317e+00 -8.167906e+00 8.793568e+00 1.242716e+02 9.991504e+00 -2.368328e+00 6.801546e+00 2.464094e+00 1.302551e+00 -1.095635e+00 -3.902647e+00 -4.551679e-03 -1.875692e+00 5.299627e-01 -9.281248e-01 -9.546671e-01 4.132730e+00 -1.478880e+00 -3.908328e-01 -1.308843e+00 -1.339684e+00 -1.740709e-01 1.984832e-02 -9.858221e-01 -3.251093e-01 -7.284248e-01 -3.929917e-02 4.169763e-01 -2.513007e-01 6.824141e-01
<VARIANCE> 39
 3.379121e+02 1.667607e+02 2.599284e+02 2.485728e+02 1.479185e+02 2.363579e+02 4.977125e+02 4.272331e+02 2.679305e+02 2.027479e+02 2.037333e+02 2.496728e+02 2.029356e+02 2.446294e+01 1.315532e+01 2.234988e+01 2.807353e+01 1.974953e+01 3.913557e+01 3.651054e+01 2.406711e+01 3.103969e+01 2.833677e+01 2.570917e+01 3.059949e+01 1.329035e+01 7.430373e+00 1.900274e+00 3.988764e+00 2.762795e+00 2.515011e+00 4.850966e+00 4.804989e+00 3.128762e+00 4.001681e+00 3.855796e+00 3.069168e+00 3.163095e+00 3.397251e+00
<GCONST> 2.016444e+02
<STATE> 3
<MEAN> 39
 8.941811e+00 -1.469645e+01 5.607854e+01 8.278097e+00 -3.679471e+00 -1.987351e+01 -1.303177e+01 4.022536e+00 -2.164401e+01 2.167271e+00 -8.547884e+00 4.527674e+00 1.362564e+02 8.884451e-01 -2.600387e-01 -6.243612e-01 3.799129e-01 1.474322e+00 9.369916e-02 -1.304743e+00 -2.477619e-01 -2.050657e-01 2.040372e-01 -3.688385e-01 -7.489741e-01 -4.100436e-01 -8.003986e-01 7.163562e-01 -1.116757e+00 -2.004015e-02 1.899372e-01 5.460663e-01 6.396353e-01 -2.072385e-01 5.443146e-01 8.939116e-02 7.242139e-02 2.769080e-02 -9.602969e-01
<VARIANCE> 39
 7.658338e+01 1.510740e+02 1.905676e+02 3.806162e+02 2.127168e+02 3.909724e+02 1.009569e+03 6.461409e+02 3.878331e+02 4.100181e+02 2.953986e+02 6.324640e+02 1.361544e+02 5.466065e+00 6.546317e+00 1.025298e+01 8.175617e+00 9.357756e+00 1.346980e+01 1.549064e+01 1.230874e+01 1.390723e+01 1.416679e+01 1.155875e+01 1.301945e+01 6.306943e+00 2.103998e+00 1.048423e+00 1.591393e+00 1.721869e+00 1.652715e+00 2.456930e+00 3.032198e+00 2.320204e+00 2.524254e+00 2.597196e+00 2.161171e+00 2.382194e+00 9.425677e-01
<GCONST> 1.848142e+02
<STATE> 4
<MEAN> 39
 1.406450e+01 -6.240225e-02 3.077030e+01 7.259518e+00 7.787291e+00 -4.497951e+00 -5.364469e+00 -6.191850e+00 -1.488315e+01 6.300444e+00 -7.367958e+00 2.976476e+00 1.130619e+02 -6.768768e-01 8.927969e-01 -2.284470e+00 -4.981742e-02 3.410926e-01 1.452935e+00 1.140503e+00 -2.718841e-01 7.939746e-01 -2.530501e-02 2.494266e-01 7.373793e-02 -2.523126e+00 -3.744779e-01 -4.060037e-02 -4.406488e-02 -1.383637e-02 -3.028488e-01 -1.517239e-01 5.746521e-02 1.768087e-01 6.065280e-02 -1.173883e-01 6.615452e-02 8.448780e-02 -8.657239e-02
<VARIANCE> 39
 1.381860e+02 2.245337e+02 4.448983e+02 3.366883e+02 3.240086e+02 7.541823e+02 7.408552e+02 4.971890e+02 5.997725e+02 4.222598e+02 3.993196e+02 5.505095e+02 5.033984e+02 9.810005e+00 1.191383e+01 1.079401e+01 1.390779e+01 1.507208e+01 2.327126e+01 2.335563e+01 2.238980e+01 2.315582e+01 1.825800e+01 1.809403e+01 1.672658e+01 5.078178e+00 1.196062e+00 1.799488e+00 1.540721e+00 2.106765e+00 2.275509e+00 3.208696e+00 3.355047e+00 3.450053e+00 3.572322e+00 3.016907e+00 3.069647e+00 2.694002e+00 6.718237e-01
<GCONST> 1.958737e+02
<TRANSP> 5
 0.000000e+00 1.000000e+00 0.000000e+00 0.000000e+00 0.000000e+00
 0.000000e+00 6.923042e-01 3.076958e-01 0.000000e+00 0.000000e+00
 0.000000e+00 0.000000e+00 8.218588e-01 1.781412e-01 0.000000e+00
 0.000000e+00 0.000000e+00 0.000000e+00 9.144381e-01 8.556186e-02
 0.000000e+00 0.000000e+00 0.000000e+00 0.000000e+00 0.000000e+00
<ENDHMM>
~h "sil"
<BEGINHMM>
<NUMSTATES> 5
<STATE> 2
<MEAN> 39
 -1.128932e+01 -1.301113e+00 1.275392e+00 7.459153e+00 1.241168e+00 9.602910e-01 4.863653e+00 6.620027e+00 -5.444543e-01 4.204382e-01 -4.233929e+00 7.290620e-01 6.457046e+01 -5.107214e-01 9.072810e-01 -1.316931e-01 2.264688e-02 1.179251e-02 4.915476e-02 -3.365368e-01 -2.098663e-01 6.203267e-02 2.541356e-02 2.909648e-01 -1.218358e-02 -1.232380e+00 -1.347917e-02 8.254389e-02 1.289153e-01 7.141346e-03 2.223922e-02 3.033623e-02 4.716966e-03 -5.039619e-02 9.222026e-03 7.487562e-02 6.371947e-02 7.282802e-02 5.081651e-02
<VARIANCE> 39
 7.570924e+01 1.614515e+02 1.474188e+02 1.326653e+02 1.524391e+02 1.867601e+02 1.968685e+02 2.146066e+02 2.011570e+02 2.010486e+02 1.630137e+02 1.444706e+02 9.885381e+01 2.494462e+00 4.595182e+00 5.721666e+00 7.111144e+00 8.573846e+00 1.059094e+01 1.203050e+01 1.307095e+01 1.282322e+01 1.274348e+01 1.202129e+01 1.101144e+01 1.967636e+00 3.873399e-01 7.157642e-01 9.990095e-01 1.263306e+00 1.539560e+00 1.870084e+00 2.156848e+00 2.335424e+00 2.350893e+00 2.317216e+00 2.195396e+00 2.035536e+00 2.064910e-01
<GCONST> 1.667548e+02
<STATE> 3
~s "silst"
<STATE> 4
<MEAN> 39
 -2.341442e+01 -7.839643e-01 4.239383e-01 2.368912e+00 -2.975706e+00 -3.029904e+00 -3.414784e+00 1.831247e-01 -3.253097e+00 1.478616e+00 -8.537247e-01 2.219861e+00 6.000759e+01 3.001391e-02 -1.550078e-01 1.604916e-01 7.009409e-02 -4.953753e-03 1.474424e-01 1.714050e-01 1.008126e-01 -1.032361e-02 1.917107e-01 -1.331103e-01 5.622423e-02 9.162487e-01 9.020417e-02 -1.184611e-02 8.885912e-02 -3.183945e-02 1.034585e-02 -6.308458e-04 2.553833e-02 4.952195e-03 -2.189750e-03 2.200600e-02 -3.430237e-02 2.026241e-02 4.386828e-01
<VARIANCE> 39
 1.165332e+02 1.427086e+02 1.182893e+02 1.159797e+02 1.341830e+02 1.517666e+02 1.684116e+02 1.703087e+02 1.586820e+02 1.432590e+02 1.313071e+02 1.118337e+02 2.844477e+02 9.193376e+00 1.156877e+01 1.031416e+01 1.089245e+01 1.259868e+01 1.413883e+01 1.525310e+01 1.515569e+01 1.446622e+01 1.372314e+01 1.310086e+01 1.121591e+01 1.692139e+01 1.978052e+00 2.260122e+00 2.035769e+00 2.159111e+00 2.454499e+00 2.692084e+00 2.903848e+00 2.882211e+00 2.751423e+00 2.612617e+00 2.479950e+00 2.140591e+00 3.791052e+00
<GCONST> 1.814739e+02
<TRANSP> 5
 0.000000e+00 1.000000e+00 0.000000e+00 0.000000e+00 0.000000e+00
 0.000000e+00 6.942632e-01 1.057368e-01 2.000000e-01 0.000000e+00
 0.000000e+00 0.000000e+00 9.070775e-01 9.292248e-02 0.000000e+00
 0.000000e+00 2.000000e-01 0.000000e+00 6.694036e-01 1.305964e-01
 0.000000e+00 0.000000e+00 0.000000e+00 0.000000e+00 0.000000e+00
<ENDHMM>
