~o
<STREAMINFO> 1 39
<VECSIZE> 39<NULLD><MFCC_D_A_0><DIAGC>
~v "varFloor1"
<VARIANCE> 39
 6.753474e+00 3.412362e+00 5.607597e+00 4.796462e+00 3.472081e+00 4.011722e+00 4.412065e+00 3.618229e+00 3.682593e+00 3.039560e+00 2.639483e+00 2.510356e+00 1.295583e+01 2.277723e-01 1.546074e-01 2.184501e-01 2.118108e-01 1.813343e-01 2.097883e-01 2.257618e-01 2.166374e-01 2.009357e-01 1.748309e-01 1.664689e-01 1.534765e-01 2.729284e-01 3.005151e-02 2.352162e-02 2.950290e-02 3.333734e-02 2.970534e-02 3.528604e-02 3.796648e-02 3.764385e-02 3.477007e-02 3.067227e-02 2.924742e-02 2.697526e-02 3.680371e-02
~s "silst"
<NUMMIXES> 8
<MIXTURE> 1 9.249280e-02
<MEAN> 39
 -1.997871e+01 8.601721e+00 3.615298e+00 8.897558e+00 3.658177e+00 4.574800e+00 3.758397e+00 5.892248e+00 3.481622e+00 4.701077e+00 2.957695e+00 4.220567e+00 5.133478e+01 3.524052e-01 7.846497e-01 1.055961e+00 1.166530e+00 1.269969e+00 1.383650e+00 1.340326e+00 1.228135e+00 1.313697e+00 1.408283e+00 1.307659e+00 1.016027e+00 1.726837e-01 2.245084e-01 2.616923e-02 1.436493e-01 1.429797e-01 1.354964e-01 1.716694e-01 2.430337e-01 2.389811e-01 2.078716e-01 2.455905e-01 1.867080e-01 2.478216e-01 2.893821e-01
<VARIANCE> 39
 3.823935e+01 4.384434e+01 5.134534e+01 6.282383e+01 7.601557e+01 9.396135e+01 1.060891e+02 1.149934e+02 1.137024e+02 1.098174e+02 1.093787e+02 9.477825e+01 1.810910e+01 1.893675e+00 2.335951e+00 3.635014e+00 4.933898e+00 6.126131e+00 7.482390e+00 9.172637e+00 9.825670e+00 1.006304e+01 1.004365e+01 1.007105e+01 9.177126e+00 9.834361e-01 3.781736e-01 5.103961e-01 7.582241e-01 1.010501e+00 1.256668e+00 1.572346e+00 1.831661e+00 2.015886e+00 2.040788e+00 2.057893e+00 2.043555e+00 1.847212e+00 2.376898e-01
<GCONST> 1.502670e+02
<MIXTURE> 2 1.546460e-01
<MEAN> 39
 -2.560040e+01 5.350170e+00 -6.485616e-01 2.375909e+00 -4.201319e+00 -4.384149e+00 -6.156168e+00 -2.533643e+00 -1.334246e+00 2.800877e+00 3.476076e+00 4.672096e+00 4.787279e+01 1.933934e-01 3.680193e-01 5.079392e-01 5.835015e-01 6.520584e-01 7.150748e-01 7.328612e-01 7.597761e-01 8.346879e-01 9.157665e-01 9.092220e-01 8.041260e-01 1.100867e-01 2.456842e-01 1.609196e-01 2.671498e-01 3.709957e-01 4.598013e-01 5.333573e-01 6.085680e-01 5.818927e-01 4.328723e-01 3.257720e-01 1.950911e-01 2.012393e-01 2.141970e-01
<VARIANCE> 39
 1.692096e+01 1.921121e+01 2.621427e+01 3.551093e+01 4.876347e+01 6.354290e+01 7.607327e+01 7.998424e+01 7.868375e+01 7.679385e+01 7.419669e+01 6.834618e+01 1.295583e+01 8.511388e-01 1.507049e+00 2.674962e+00 3.802099e+00 4.946557e+00 6.088110e+00 7.321374e+00 8.073259e+00 8.317804e+00 8.240260e+00 8.006029e+00 7.436677e+00 3.747350e-01 1.875384e-01 3.175373e-01 5.463913e-01 7.804170e-01 1.000581e+00 1.208859e+00 1.458064e+00 1.604549e+00 1.626726e+00 1.630422e+00 1.602747e+00 1.469793e+00 9.823629e-02
<GCONST> 1.351132e+02
<MIXTURE> 3 1.016304e-01
<MEAN> 39
 -2.625827e+01 5.041511e+00 -1.196785e+00 1.559699e+00 -5.077116e+00 -5.125552e+00 -6.911420e+00 -3.213634e+00 -1.916497e+00 2.322720e+00 3.050292e+00 4.231489e+00 4.741111e+01 -1.617915e-01 -8.878261e-02 -8.372989e-02 -1.720142e-01 -2.137859e-01 -2.002922e-01 -2.180499e-01 -1.479090e-01 -1.867664e-02 3.158987e-02 7.441550e-02 1.809376e-01 -4.779352e-02 1.342062e-01 8.387651e-02 1.820947e-01 2.564430e-01 3.168849e-01 3.350708e-01 3.785795e-01 3.917102e-01 3.193528e-01 2.690367e-01 2.038767e-01 2.110914e-01 1.422983e-01
<VARIANCE> 39
 1.305452e+01 1.770296e+01 2.448589e+01 3.296842e+01 4.584027e+01 5.904354e+01 6.963319e+01 7.475837e+01 7.474004e+01 7.305635e+01 7.066904e+01 6.542377e+01 1.295583e+01 7.995631e-01 1.519876e+00 2.639892e+00 3.746540e+00 4.980896e+00 6.073247e+00 7.255428e+00 8.074268e+00 8.066796e+00 7.935415e+00 7.846038e+00 7.149509e+00 3.483329e-01 1.433206e-01 2.905765e-01 5.032946e-01 7.177427e-01 9.446198e-01 1.152574e+00 1.356856e+00 1.512802e+00 1.560621e+00 1.559044e+00 1.544340e+00 1.416182e+00 7.401694e-02
<GCONST> 1.326540e+02
<MIXTURE> 4 1.511558e-01
<MEAN> 39
 -2.308595e+01 5.876320e+00 7.677675e-01 5.819690e+00 1.274541e+00 2.528578e+00 1.496094e+00 4.084338e+00 2.388323e+00 3.906617e+00 2.520152e+00 3.993990e+00 4.980071e+01 -2.684523e-01 1.903490e-01 3.004240e-01 1.543963e-01 1.257415e-01 1.191565e-01 -1.009035e-02 -1.513183e-02 2.422252e-01 5.549609e-01 5.771286e-01 5.140132e-01 -1.255668e-01 1.916706e-01 -7.593156e-02 7.408661e-02 1.879579e-02 -3.369607e-02 -6.473717e-02 3.297076e-02 8.440211e-02 5.785975e-02 1.647367e-01 1.810905e-01 2.580166e-01 3.804060e-01
<VARIANCE> 39
 3.918792e+01 3.985170e+01 4.766416e+01 5.700953e+01 7.189272e+01 9.173013e+01 1.087162e+02 1.135829e+02 1.150786e+02 1.098443e+02 1.063063e+02 9.461758e+01 1.859519e+01 1.881410e+00 2.469110e+00 3.651190e+00 4.870432e+00 6.200214e+00 7.669134e+00 9.183801e+00 1.009672e+01 1.011667e+01 1.018222e+01 1.004288e+01 8.937032e+00 1.083507e+00 4.133084e-01 6.022896e-01 8.453065e-01 1.080001e+00 1.330137e+00 1.600829e+00 1.917565e+00 2.113407e+00 2.157289e+00 2.184585e+00 2.149091e+00 1.905676e+00 3.700565e-01
<GCONST> 1.513944e+02
<MIXTURE> 5 1.546460e-01
<MEAN> 39
 -2.724580e+01 3.596946e+00 -2.696557e+00 -7.732987e-03 -6.994553e+00 -7.572701e+00 -9.644968e+00 -6.110999e+00 -4.882401e+00 -7.044070e-01 3.057599e-02 1.365226e+00 4.643303e+01 -1.756353e-01 -1.230284e-01 -1.462732e-01 -1.964574e-01 -2.375759e-01 -2.718890e-01 -3.494604e-01 -3.767631e-01 -3.189363e-01 -2.324677e-01 -2.225750e-01 -2.866848e-01 -1.347757e-01 7.246139e-02 -6.448220e-02 -2.852338e-02 1.763088e-02 5.968511e-02 9.356476e-02 1.255667e-01 7.520953e-02 -7.730034e-02 -1.849799e-01 -3.113074e-01 -2.837008e-01 8.882636e-02
<VARIANCE> 39
 1.692096e+01 1.921121e+01 2.621427e+01 3.551093e+01 4.876347e+01 6.354290e+01 7.607327e+01 7.998424e+01 7.868375e+01 7.679385e+01 7.419669e+01 6.834618e+01 1.295583e+01 8.511388e-01 1.507049e+00 2.674962e+00 3.802099e+00 4.946557e+00 6.088110e+00 7.321374e+00 8.073259e+00 8.317804e+00 8.240260e+00 8.006029e+00 7.436677e+00 3.747350e-01 1.875384e-01 3.175373e-01 5.463913e-01 7.804170e-01 1.000581e+00 1.208859e+00 1.458064e+00 1.604549e+00 1.626726e+00 1.630422e+00 1.602747e+00 1.469793e+00 9.823629e-02
<GCONST> 1.351132e+02
<MIXTURE> 6 1.511558e-01
<MEAN> 39
 -2.558996e+01 3.351192e+00 -1.993802e+00 2.799504e+00 -2.117042e+00 -1.302456e+00 -2.674588e+00 -1.786737e-01 -1.902665e+00 -2.856487e-01 -1.604046e+00 1.031276e-01 4.807583e+01 -8.171103e-01 -4.381872e-01 -4.638995e-01 -7.283659e-01 -8.702677e-01 -9.885716e-01 -1.222282e+00 -1.286145e+00 -1.030043e+00 -7.214227e-01 -6.904916e-01 -6.817816e-01 -5.419334e-01 -6.548565e-02 -3.863608e-01 -2.936756e-01 -3.968966e-01 -4.950224e-01 -5.708326e-01 -5.209340e-01 -4.971003e-01 -5.296488e-01 -4.264770e-01 -4.053007e-01 -2.941683e-01 1.370769e-01
<VARIANCE> 39
 3.918792e+01 3.985170e+01 4.766416e+01 5.700953e+01 7.189272e+01 9.173013e+01 1.087162e+02 1.135829e+02 1.150786e+02 1.098443e+02 1.063063e+02 9.461758e+01 1.859519e+01 1.881410e+00 2.469110e+00 3.651190e+00 4.870432e+00 6.200214e+00 7.669134e+00 9.183801e+00 1.009672e+01 1.011667e+01 1.018222e+01 1.004288e+01 8.937032e+00 1.083507e+00 4.133084e-01 6.022896e-01 8.453065e-01 1.080001e+00 1.330137e+00 1.600829e+00 1.917565e+00 2.113407e+00 2.157289e+00 2.184585e+00 2.149091e+00 1.905676e+00 3.700565e-01
<GCONST> 1.513944e+02
<MIXTURE> 7 1.016304e-01
<MEAN> 39
 -2.770351e+01 3.358516e+00 -3.176113e+00 -7.370263e-01 -7.785334e+00 -8.199143e+00 -1.024928e+01 -6.672151e+00 -5.374589e+00 -1.096200e+00 -3.123035e-01 9.960908e-01 4.597135e+01 -5.194647e-01 -5.819156e-01 -7.336397e-01 -9.462534e-01 -1.106503e+00 -1.186051e+00 -1.295486e+00 -1.284519e+00 -1.154761e+00 -1.095205e+00 -1.046016e+00 -8.886050e-01 -2.838725e-01 -1.722465e-02 -1.317441e-01 -1.016784e-01 -8.243575e-02 -7.188130e-02 -9.436120e-02 -8.735713e-02 -1.002738e-01 -1.803465e-01 -2.304101e-01 -2.932092e-01 -2.649224e-01 3.347411e-02
<VARIANCE> 39
 1.305452e+01 1.770296e+01 2.448589e+01 3.296842e+01 4.584027e+01 5.904354e+01 6.963319e+01 7.475837e+01 7.474004e+01 7.305635e+01 7.066904e+01 6.542377e+01 1.295583e+01 7.995631e-01 1.519876e+00 2.639892e+00 3.746540e+00 4.980896e+00 6.073247e+00 7.255428e+00 8.074268e+00 8.066796e+00 7.935415e+00 7.846038e+00 7.149509e+00 3.483329e-01 1.433206e-01 2.905765e-01 5.032946e-01 7.177427e-01 9.446198e-01 1.152574e+00 1.356856e+00 1.512802e+00 1.560621e+00 1.559044e+00 1.544340e+00 1.416182e+00 7.401694e-02
<GCONST> 1.326540e+02
<MIXTURE> 8 9.249280e-02
<MEAN> 39
 -2.245223e+01 5.953119e+00 7.490716e-01 5.727099e+00 1.707008e-01 6.974537e-01 -3.615854e-01 1.602849e+00 -7.836316e-01 5.093250e-01 -1.225676e+00 3.264015e-01 4.963258e+01 -1.980383e-01 1.732970e-01 2.933327e-01 2.780348e-01 2.799284e-01 2.894918e-01 1.288711e-01 -2.570188e-02 4.480541e-02 1.406139e-01 3.826225e-02 -1.957240e-01 -2.239897e-01 -2.147485e-02 -2.595988e-01 -2.046549e-01 -2.591150e-01 -3.129084e-01 -3.299035e-01 -2.983218e-01 -3.289465e-01 -3.635530e-01 -3.282239e-01 -3.851038e-01 -2.958271e-01 9.436832e-02
<VARIANCE> 39
 3.823935e+01 4.384434e+01 5.134534e+01 6.282383e+01 7.601557e+01 9.396135e+01 1.060891e+02 1.149934e+02 1.137024e+02 1.098174e+02 1.093787e+02 9.477825e+01 1.810910e+01 1.893675e+00 2.335951e+00 3.635014e+00 4.933898e+00 6.126131e+00 7.482390e+00 9.172637e+00 9.825670e+00 1.006304e+01 1.004365e+01 1.007105e+01 9.177126e+00 9.834361e-01 3.781736e-01 5.103961e-01 7.582241e-01 1.010501e+00 1.256668e+00 1.572346e+00 1.831661e+00 2.015886e+00 2.040788e+00 2.057893e+00 2.043555e+00 1.847212e+00 2.376898e-01
<GCONST> 1.502670e+02
~h "f"
<BEGINHMM>
<NUMSTATES> 5
<STATE> 2
<NUMMIXES> 8
<MIXTURE> 1 1.194885e-01
<MEAN> 39
 -3.137322e+01 -1.181080e+01 5.338051e-01 4.843888e+00 -1.107596e+00 1.373729e+00 -4.916345e+00 2.745428e+00 -3.058909e+00 5.535553e+00 -1.747730e+00 4.333523e+00 9.302394e+01 4.873994e-01 2.729050e-01 5.739979e-01 9.007262e-01 1.458814e+00 2.117695e+00 1.941343e+00 1.753762e+00 1.609498e+00 1.801387e+00 1.507775e+00 1.138485e+00 1.829463e+00 1.852660e+00 6.682991e-01 4.866292e-01 1.174278e-01 5.740382e-01 4.812656e-01 7.191808e-01 4.299089e-01 5.454616e-01 5.717237e-01 4.218071e-01 3.599163e-01 1.166003e+00
<VARIANCE> 39
 1.163618e+02 1.065697e+02 7.122391e+01 7.210600e+01 8.328504e+01 1.009518e+02 1.127230e+02 1.130338e+02 1.191184e+02 1.124491e+02 1.098190e+02 1.008302e+02 3.437627e+02 8.712148e+00 6.724283e+00 6.129859e+00 7.072044e+00 8.030152e+00 9.683077e+00 1.024846e+01 1.114219e+01 1.105116e+01 1.098520e+01 1.085524e+01 9.769205e+00 2.155549e+01 3.533826e+00 1.723101e+00 1.472941e+00 1.951216e+00 1.825012e+00 2.124310e+00 2.315562e+00 2.323503e+00 2.374653e+00 2.453116e+00 2.414793e+00 2.035516e+00 3.616890e+00
<GCONST> 1.727961e+02
<MIXTURE> 2 9.942125e-02
<MEAN> 39
 -2.989288e+01 -1.148997e+01 3.765616e+00 7.891990e+00 2.466167e+00 3.254966e+00 -2.504664e+00 5.670639e+00 6.918750e-01 8.830803e+00 -1.494408e-02 5.785970e+00 9.608336e+01 -1.091892e+00 -1.576339e+00 -1.290518e+00 -8.198188e-01 -4.591486e-01 -1.317769e-02 -7.617214e-01 -2.204156e-02 4.922812e-01 9.307773e-01 9.546723e-01 9.352318e-01 1.953095e+00 2.592833e+00 1.190483e+00 7.920513e-01 2.546391e-02 4.073102e-01 5.300935e-01 8.193184e-01 1.888412e-01 -3.439543e-02 2.535413e-01 1.850646e-01 2.503136e-01 1.007295e+00
<VARIANCE> 39
 1.221867e+02 1.078194e+02 1.052435e+02 1.110897e+02 1.307536e+02 1.476575e+02 1.541720e+02 1.510553e+02 1.550950e+02 1.470602e+02 1.324946e+02 1.208234e+02 3.089948e+02 2.400621e+01 1.150099e+01 1.178472e+01 1.246899e+01 1.224347e+01 1.319644e+01 1.300784e+01 1.340769e+01 1.365620e+01 1.361337e+01 1.289924e+01 1.173898e+01 2.978268e+01 4.256412e+00 2.265861e+00 2.941308e+00 3.889971e+00 3.366747e+00 3.290324e+00 3.791474e+00 3.674871e+00 3.904526e+00 3.575946e+00 3.277961e+00 2.812678e+00 3.435143e+00
<GCONST> 1.862338e+02
<MIXTURE> 3 2.055454e-01
<MEAN> 39
 -3.336793e+01 -1.444633e+01 -1.334113e+00 3.120845e+00 -2.586510e+00 3.411222e-01 -6.504412e+00 9.405441e-01 -4.414167e+00 5.047685e+00 -2.046131e+00 4.176502e+00 9.194402e+01 -1.191855e-01 -1.194201e-01 -6.744251e-02 3.459504e-02 2.232421e-01 6.159428e-01 1.792440e-01 1.061727e-01 -9.912217e-02 1.363319e-01 1.284681e-01 2.793497e-01 1.986181e+00 1.257173e+00 5.494903e-01 4.370268e-01 3.119129e-01 5.227042e-01 3.878766e-01 5.949645e-01 4.295774e-01 4.880154e-01 3.974519e-01 3.455723e-01 3.039300e-01 8.990573e-01
<VARIANCE> 39
 8.820008e+01 8.733005e+01 6.112343e+01 6.360807e+01 7.335273e+01 8.739999e+01 1.002858e+02 1.033505e+02 1.067001e+02 1.012262e+02 1.007348e+02 9.060136e+01 2.963262e+02 5.890608e+00 5.535750e+00 4.959751e+00 6.022677e+00 7.029927e+00 8.321685e+00 9.507313e+00 9.804141e+00 9.924642e+00 9.991916e+00 9.785366e+00 9.116770e+00 1.397694e+01 1.965814e+00 1.321570e+00 1.133535e+00 1.362970e+00 1.563981e+00 1.821525e+00 2.067571e+00 2.055026e+00 2.062821e+00 2.117034e+00 2.032678e+00 1.817834e+00 2.657287e+00
<GCONST> 1.658541e+02
<MIXTURE> 4 7.552330e-02
<MEAN> 39
 -3.078906e+01 -1.339255e+01 3.467434e+00 7.422681e+00 1.280964e+00 2.002854e+00 -3.580447e+00 4.185956e+00 -1.273013e+00 7.157630e+00 -9.063380e-01 5.169809e+00 9.990243e+01 -3.500990e+00 -3.027945e+00 -3.061290e+00 -2.562423e+00 -2.759978e+00 -2.236612e+00 -3.108931e+00 -1.725280e+00 -1.120712e+00 -7.625632e-01 -4.310769e-01 -1.814442e-01 1.057392e+00 2.857913e+00 1.349637e+00 9.747792e-01 1.209028e-01 5.285370e-01 5.076755e-01 9.091754e-01 7.509041e-02 1.763105e-03 3.722534e-01 1.892043e-01 4.944263e-01 6.618153e-01
<VARIANCE> 39
 9.166946e+01 8.747821e+01 1.000378e+02 1.092265e+02 1.206151e+02 1.423908e+02 1.446808e+02 1.473086e+02 1.428140e+02 1.339111e+02 1.252547e+02 1.156762e+02 2.325693e+02 2.396356e+01 1.168953e+01 1.322880e+01 1.297856e+01 1.288765e+01 1.327993e+01 1.349728e+01 1.404426e+01 1.484663e+01 1.369458e+01 1.286772e+01 1.229961e+01 1.898775e+01 3.526302e+00 2.090654e+00 3.025779e+00 4.181023e+00 3.178493e+00 3.448326e+00 3.692858e+00 4.149840e+00 3.919947e+00 3.412375e+00 3.235371e+00 3.154523e+00 2.299542e+00
<GCONST> 1.844724e+02
<MIXTURE> 5 2.055454e-01
<MEAN> 39
 -3.712453e+01 -1.818435e+01 -4.461371e+00 -6.934142e-02 -6.012359e+00 -3.398396e+00 -1.051012e+01 -3.125914e+00 -8.545997e+00 1.023235e+00 -6.060801e+00 3.691120e-01 8.505836e+01 -1.090008e+00 -1.060547e+00 -9.582624e-01 -9.470507e-01 -8.373183e-01 -5.379504e-01 -1.054113e+00 -1.146290e+00 -1.359258e+00 -1.128068e+00 -1.122795e+00 -9.284099e-01 4.907511e-01 6.963432e-01 8.965208e-02 1.115640e-02 -1.550724e-01 2.246734e-02 -1.519790e-01 1.980248e-02 -1.438372e-01 -8.648559e-02 -1.845493e-01 -2.247158e-01 -2.353783e-01 2.470098e-01
<VARIANCE> 39
 8.820008e+01 8.733005e+01 6.112343e+01 6.360807e+01 7.335273e+01 8.739999e+01 1.002858e+02 1.033505e+02 1.067001e+02 1.012262e+02 1.007348e+02 9.060136e+01 2.963262e+02 5.890608e+00 5.535750e+00 4.959751e+00 6.022677e+00 7.029927e+00 8.321685e+00 9.507313e+00 9.804141e+00 9.924642e+00 9.991916e+00 9.785366e+00 9.116770e+00 1.397694e+01 1.965814e+00 1.321570e+00 1.133535e+00 1.362970e+00 1.563981e+00 1.821525e+00 2.067571e+00 2.055026e+00 2.062821e+00 2.117034e+00 2.032678e+00 1.817834e+00 2.657287e+00
<GCONST> 1.658541e+02
<MIXTURE> 6 1.194885e-01
<MEAN> 39
 -3.568806e+01 -1.594010e+01 -2.841965e+00 1.447278e+00 -4.758022e+00 -2.645262e+00 -9.163189e+00 -1.507266e+00 -7.424564e+00 1.293873e+00 -5.939512e+00 3.169532e-01 8.560760e+01 -6.932546e-01 -7.643440e-01 -4.163442e-01 -1.630064e-01 3.253132e-01 8.729892e-01 6.608147e-01 4.185656e-01 2.797667e-01 4.756294e-01 1.898835e-01 -1.117443e-01 -2.765274e-02 1.100722e+00 1.432313e-01 1.170024e-03 -4.413159e-01 3.366619e-02 -1.017350e-01 1.105020e-01 -1.798127e-01 -7.093479e-02 -5.477330e-02 -1.997771e-01 -2.107697e-01 4.052776e-01
<VARIANCE> 39
 1.163618e+02 1.065697e+02 7.122391e+01 7.210600e+01 8.328504e+01 1.009518e+02 1.127230e+02 1.130338e+02 1.191184e+02 1.124491e+02 1.098190e+02 1.008302e+02 3.437627e+02 8.712148e+00 6.724283e+00 6.129859e+00 7.072044e+00 8.030152e+00 9.683077e+00 1.024846e+01 1.114219e+01 1.105116e+01 1.098520e+01 1.085524e+01 9.769205e+00 2.155549e+01 3.533826e+00 1.723101e+00 1.472941e+00 1.951216e+00 1.825012e+00 2.124310e+00 2.315562e+00 2.323503e+00 2.374653e+00 2.453116e+00 2.414793e+00 2.035516e+00 3.616890e+00
<GCONST> 1.727961e+02
<MIXTURE> 7 9.942125e-02
<MEAN> 39
 -3.431440e+01 -1.564341e+01 -3.379142e-01 3.676026e+00 -2.107735e+00 -1.605611e+00 -7.471305e+00 7.544568e-01 -4.289611e+00 3.980067e+00 -4.619196e+00 1.389182e+00 8.905206e+01 -3.051738e+00 -2.932863e+00 -2.663674e+00 -2.232277e+00 -1.858775e+00 -1.466254e+00 -2.204377e+00 -1.486702e+00 -9.858907e-01 -5.450747e-01 -4.819481e-01 -4.352560e-01 -2.298455e-01 1.767590e+00 5.883719e-01 1.060416e-01 -7.634565e-01 -3.266376e-01 -1.954765e-01 4.045004e-02 -5.779570e-01 -8.247904e-01 -5.028657e-01 -5.391410e-01 -4.205280e-01 2.659299e-01
<VARIANCE> 39
 1.221867e+02 1.078194e+02 1.052435e+02 1.110897e+02 1.307536e+02 1.476575e+02 1.541720e+02 1.510553e+02 1.550950e+02 1.470602e+02 1.324946e+02 1.208234e+02 3.089948e+02 2.400621e+01 1.150099e+01 1.178472e+01 1.246899e+01 1.224347e+01 1.319644e+01 1.300784e+01 1.340769e+01 1.365620e+01 1.361337e+01 1.289924e+01 1.173898e+01 2.978268e+01 4.256412e+00 2.265861e+00 2.941308e+00 3.889971e+00 3.366747e+00 3.290324e+00 3.791474e+00 3.674871e+00 3.904526e+00 3.575946e+00 3.277961e+00 2.812678e+00 3.435143e+00
<GCONST> 1.862338e+02
<MIXTURE> 8 7.552330e-02
<MEAN> 39
 -3.461882e+01 -1.713375e+01 -5.333221e-01 3.242221e+00 -3.112032e+00 -2.770251e+00 -8.391781e+00 -6.688741e-01 -6.053205e+00 2.528832e+00 -5.383028e+00 8.676946e-01 9.380235e+01 -5.459094e+00 -4.395543e+00 -4.516146e+00 -4.003453e+00 -4.195952e+00 -3.694278e+00 -4.578477e+00 -3.224306e+00 -2.661964e+00 -2.242811e+00 -1.865941e+00 -1.584276e+00 -6.856055e-01 2.106775e+00 7.712731e-01 2.789886e-01 -6.969992e-01 -1.845962e-01 -2.351113e-01 1.405030e-01 -7.397558e-01 -7.901911e-01 -3.666512e-01 -5.302812e-01 -2.160129e-01 5.524567e-02
<VARIANCE> 39
 9.166946e+01 8.747821e+01 1.000378e+02 1.092265e+02 1.206151e+02 1.423908e+02 1.446808e+02 1.473086e+02 1.428140e+02 1.339111e+02 1.252547e+02 1.156762e+02 2.325693e+02 2.396356e+01 1.168953e+01 1.322880e+01 1.297856e+01 1.288765e+01 1.327993e+01 1.349728e+01 1.404426e+01 1.484663e+01 1.369458e+01 1.286772e+01 1.229961e+01 1.898775e+01 3.526302e+00 2.090654e+00 3.025779e+00 4.181023e+00 3.178493e+00 3.448326e+00 3.692858e+00 4.149840e+00 3.919947e+00 3.412375e+00 3.235371e+00 3.154523e+00 2.299542e+00
<GCONST> 1.844724e+02
<STATE> 3
<NUMMIXES> 8
<MIXTURE> 1 1.039687e-01
<MEAN> 39
 -1.882703e+01 -1.173531e+01 2.127859e+00 4.687085e+00 4.359008e+00 5.722996e+00 -1.034530e+00 4.474270e+00 5.774798e-01 8.625126e+00 -3.395419e-01 5.682681e+00 1.047281e+02 1.694016e+01 5.085511e+00 1.774724e+00 -6.552928e+00 1.515616e+00 2.218898e+00 4.301449e+00 1.005693e+00 1.943137e+00 3.918327e+00 1.099785e+00 1.479970e+00 8.190594e+00 2.680203e+00 3.664907e-01 2.161836e-01 -3.121547e+00 -3.316691e-01 4.022804e-02 6.752830e-01 1.927610e-01 1.298811e-01 1.061270e+00 1.681175e-01 4.431651e-01 1.994343e+00
<VARIANCE> 39
 1.187315e+02 7.021684e+01 6.625127e+01 7.520430e+01 1.024275e+02 1.137144e+02 1.099996e+02 1.099309e+02 1.177838e+02 1.171528e+02 1.000204e+02 9.475844e+01 1.911108e+02 1.735972e+01 2.848865e+01 1.448027e+01 2.743529e+01 1.952418e+01 1.793613e+01 2.062743e+01 1.990137e+01 3.186285e+01 2.320239e+01 3.010739e+01 1.847154e+01 3.400552e+01 3.108975e+00 4.396695e+00 2.620121e+00 3.511052e+00 4.222388e+00 3.681700e+00 4.003781e+00 3.413963e+00 4.708393e+00 3.770021e+00 4.429875e+00 3.455857e+00 4.067692e+00
<GCONST> 1.896429e+02
<MIXTURE> 2 1.547457e-01
<MEAN> 39
 -2.941898e+01 -1.811109e+01 -3.160522e+00 9.437613e-01 -2.029221e+00 2.633947e-01 -6.932767e+00 -1.804349e-01 -5.414774e+00 5.075914e+00 -2.042807e+00 4.784500e+00 1.064861e+02 9.532898e+00 3.379378e+00 1.666842e+00 -3.918521e-01 1.840858e+00 2.195693e+00 2.803770e+00 1.665790e+00 1.980904e+00 1.908871e+00 1.187245e+00 1.041050e+00 4.737958e+00 4.778125e+00 2.341255e+00 1.316232e+00 -1.850629e+00 -2.235743e-01 7.771528e-01 1.181695e+00 9.533781e-01 4.286139e-01 1.013246e+00 4.846985e-01 1.219414e-01 9.840688e-01
<VARIANCE> 39
 1.115796e+02 5.494127e+01 5.698109e+01 6.614818e+01 7.238940e+01 8.603692e+01 8.982963e+01 9.109862e+01 9.701994e+01 9.642034e+01 9.705576e+01 8.658646e+01 1.729744e+02 2.069518e+01 1.250115e+01 7.765696e+00 9.932233e+00 1.027707e+01 9.858041e+00 1.039224e+01 1.096776e+01 1.189867e+01 1.126289e+01 1.161517e+01 9.753263e+00 2.607303e+01 1.953671e+00 3.357339e+00 2.547353e+00 3.252295e+00 3.877948e+00 3.109945e+00 3.583655e+00 3.393966e+00 4.089240e+00 3.753625e+00 4.491267e+00 3.084587e+00 4.503919e+00
<GCONST> 1.777050e+02
<MIXTURE> 3 1.249962e-01
<MEAN> 39
 -1.935814e+01 -1.354019e+01 -1.470110e+00 1.422524e+00 5.958097e-01 3.206917e+00 -3.297259e+00 1.401880e+00 -3.377535e+00 6.712251e+00 -1.728347e+00 5.425893e+00 1.055674e+02 1.677165e+01 5.754700e+00 3.250472e+00 -5.970037e+00 -1.096210e+00 1.755977e+00 2.491265e+00 2.108630e+00 4.010358e-01 2.180649e+00 2.006340e+00 -6.869812e-01 7.848315e+00 2.997954e+00 8.468755e-01 1.112565e+00 -2.569677e+00 -8.225113e-01 5.106816e-01 3.814074e-01 9.686956e-01 3.217384e-02 9.632083e-01 8.960170e-01 -3.327637e-01 1.911828e+00
<VARIANCE> 39
 1.231771e+02 6.775642e+01 6.546226e+01 7.802207e+01 9.772910e+01 1.167049e+02 1.179199e+02 1.182226e+02 1.140805e+02 1.153893e+02 1.072686e+02 9.943768e+01 2.038816e+02 1.488240e+01 2.765660e+01 2.068201e+01 2.048636e+01 2.609455e+01 1.902172e+01 1.863358e+01 2.370872e+01 2.748827e+01 2.471954e+01 3.160802e+01 1.602540e+01 3.596850e+01 2.688875e+00 4.311917e+00 3.546048e+00 3.633566e+00 5.343995e+00 4.143069e+00 4.675039e+00 4.351957e+00 5.185782e+00 4.484993e+00 5.365012e+00 3.899002e+00 4.253623e+00
<GCONST> 1.916579e+02
<MIXTURE> 4 1.162779e-01
<MEAN> 39
 -3.106339e+01 -1.844276e+01 -4.440395e+00 -4.081655e-01 -4.021829e+00 -1.205523e+00 -9.154964e+00 -2.639549e+00 -8.304740e+00 2.735706e+00 -3.760802e+00 3.602416e+00 1.031025e+02 7.738580e+00 1.775805e+00 6.448880e-01 -1.169755e+00 4.015521e-01 4.962795e-01 9.639111e-01 2.536582e-01 3.895556e-01 3.191806e-01 1.231313e-02 2.507847e-01 6.399283e+00 4.580940e+00 2.303147e+00 1.472975e+00 -9.922514e-01 1.981128e-01 9.674127e-01 1.404078e+00 1.269225e+00 9.406447e-01 1.227135e+00 7.608876e-01 1.656932e-01 9.662693e-01
<VARIANCE> 39
 1.212733e+02 6.259028e+01 5.934349e+01 7.031640e+01 7.480798e+01 8.506749e+01 8.922935e+01 9.304279e+01 9.941384e+01 9.583895e+01 9.197723e+01 7.931072e+01 1.890083e+02 2.125686e+01 1.357752e+01 8.297139e+00 8.616892e+00 9.742080e+00 1.021226e+01 1.063407e+01 1.192917e+01 1.154201e+01 1.087825e+01 1.098782e+01 9.631047e+00 3.085248e+01 2.138251e+00 2.584595e+00 2.368596e+00 3.202160e+00 3.581749e+00 2.749738e+00 2.973802e+00 3.179665e+00 3.715891e+00 3.340146e+00 3.594364e+00 2.645584e+00 4.393687e+00
<GCONST> 1.768518e+02
<MIXTURE> 5 1.547457e-01
<MEAN> 39
 -3.364423e+01 -2.107599e+01 -6.179955e+00 -2.309500e+00 -5.432499e+00 -3.446849e+00 -1.072391e+01 -3.998259e+00 -9.354722e+00 1.148160e+00 -5.983483e+00 1.062426e+00 1.012253e+02 7.713220e+00 1.965100e+00 5.521620e-01 -1.652470e+00 5.585436e-01 9.397926e-01 1.514290e+00 3.410858e-01 6.011260e-01 5.664614e-01 -1.759969e-01 -2.081589e-01 2.695488e+00 4.219029e+00 1.608333e+00 6.778150e-01 -2.571994e+00 -1.011275e+00 7.175127e-02 4.244736e-01 2.164693e-01 -3.802609e-01 2.382748e-01 -3.630059e-01 -5.805783e-01 1.351712e-01
<VARIANCE> 39
 1.115796e+02 5.494127e+01 5.698109e+01 6.614818e+01 7.238940e+01 8.603692e+01 8.982963e+01 9.109862e+01 9.701994e+01 9.642034e+01 9.705576e+01 8.658646e+01 1.729744e+02 2.069518e+01 1.250115e+01 7.765696e+00 9.932233e+00 1.027707e+01 9.858041e+00 1.039224e+01 1.096776e+01 1.189867e+01 1.126289e+01 1.161517e+01 9.753263e+00 2.607303e+01 1.953671e+00 3.357339e+00 2.547353e+00 3.252295e+00 3.877948e+00 3.109945e+00 3.583655e+00 3.393966e+00 4.089240e+00 3.753625e+00 4.491267e+00 3.084587e+00 4.503919e+00
<GCONST> 1.777050e+02
<MIXTURE> 6 1.249962e-01
<MEAN> 39
 -2.379754e+01 -1.683277e+01 -4.706460e+00 -2.110680e+00 -3.358512e+00 -1.114285e+00 -7.640897e+00 -2.947329e+00 -7.649874e+00 2.415475e+00 -5.871169e+00 1.437155e+00 9.985596e+01 1.522855e+01 3.651118e+00 1.431373e+00 -7.780511e+00 -3.139524e+00 1.142085e-02 7.645993e-01 1.609660e-01 -1.696135e+00 1.918991e-01 -2.425004e-01 -2.288251e+00 5.449365e+00 2.342042e+00 1.626930e-02 3.593270e-01 -3.332153e+00 -1.747195e+00 -3.034996e-01 -4.834661e-01 1.342419e-01 -8.787186e-01 1.160962e-01 -3.048292e-02 -1.122599e+00 1.086856e+00
<VARIANCE> 39
 1.231771e+02 6.775642e+01 6.546226e+01 7.802207e+01 9.772910e+01 1.167049e+02 1.179199e+02 1.182226e+02 1.140805e+02 1.153893e+02 1.072686e+02 9.943768e+01 2.038816e+02 1.488240e+01 2.765660e+01 2.068201e+01 2.048636e+01 2.609455e+01 1.902172e+01 1.863358e+01 2.370872e+01 2.748827e+01 2.471954e+01 3.160802e+01 1.602540e+01 3.596850e+01 2.688875e+00 4.311917e+00 3.546048e+00 3.633566e+00 5.343995e+00 4.143069e+00 4.675039e+00 4.351957e+00 5.185782e+00 4.484993e+00 5.365012e+00 3.899002e+00 4.253623e+00
<GCONST> 1.916579e+02
<MIXTURE> 7 1.162779e-01
<MEAN> 39
 -3.546835e+01 -2.160732e+01 -7.521785e+00 -3.762361e+00 -7.481493e+00 -4.894805e+00 -1.293342e+01 -6.497897e+00 -1.229300e+01 -1.180189e+00 -7.596992e+00 4.015267e-02 9.760329e+01 5.894373e+00 3.018973e-01 -5.073022e-01 -2.343937e+00 -8.469401e-01 -7.819856e-01 -3.404858e-01 -1.127887e+00 -9.693859e-01 -1.000107e+00 -1.313602e+00 -9.905725e-01 4.177483e+00 3.996030e+00 1.660079e+00 8.573651e-01 -1.708035e+00 -5.589076e-01 3.041193e-01 7.142897e-01 5.559603e-01 1.695789e-01 4.960919e-01 2.535224e-03 -4.849169e-01 1.278243e-01
<VARIANCE> 39
 1.212733e+02 6.259028e+01 5.934349e+01 7.031640e+01 7.480798e+01 8.506749e+01 8.922935e+01 9.304279e+01 9.941384e+01 9.583895e+01 9.197723e+01 7.931072e+01 1.890083e+02 2.125686e+01 1.357752e+01 8.297139e+00 8.616892e+00 9.742080e+00 1.021226e+01 1.063407e+01 1.192917e+01 1.154201e+01 1.087825e+01 1.098782e+01 9.631047e+00 3.085248e+01 2.138251e+00 2.584595e+00 2.368596e+00 3.202160e+00 3.581749e+00 2.749738e+00 2.973802e+00 3.179665e+00 3.715891e+00 3.340146e+00 3.594364e+00 2.645584e+00 4.393687e+00
<GCONST> 1.768518e+02
<MIXTURE> 8 1.039687e-01
<MEAN> 39
 -2.318559e+01 -1.508713e+01 -1.127936e+00 1.218269e+00 3.107495e-01 1.457518e+00 -5.229758e+00 2.803521e-01 -3.763650e+00 4.295640e+00 -4.339950e+00 1.788923e+00 9.919835e+01 1.527356e+01 2.950521e+00 2.526059e-01 -8.648076e+00 -2.518313e-01 5.248556e-01 2.484751e+00 -7.787446e-01 -3.147508e-01 1.991573e+00 -1.095023e+00 -2.391711e-01 5.858024e+00 1.974911e+00 -4.722413e-01 -4.312880e-01 -3.871059e+00 -1.153607e+00 -7.272823e-01 -1.250951e-01 -5.463154e-01 -7.380723e-01 2.846079e-01 -6.737733e-01 -3.004324e-01 1.187603e+00
<VARIANCE> 39
 1.187315e+02 7.021684e+01 6.625127e+01 7.520430e+01 1.024275e+02 1.137144e+02 1.099996e+02 1.099309e+02 1.177838e+02 1.171528e+02 1.000204e+02 9.475844e+01 1.911108e+02 1.735972e+01 2.848865e+01 1.448027e+01 2.743529e+01 1.952418e+01 1.793613e+01 2.062743e+01 1.990137e+01 3.186285e+01 2.320239e+01 3.010739e+01 1.847154e+01 3.400552e+01 3.108975e+00 4.396695e+00 2.620121e+00 3.511052e+00 4.222388e+00 3.681700e+00 4.003781e+00 3.413963e+00 4.708393e+00 3.770021e+00 4.429875e+00 3.455857e+00 4.067692e+00
<GCONST> 1.896429e+02
<STATE> 4
<NUMMIXES> 8
<MIXTURE> 1 1.130813e-01
<MEAN> 39
 1.443692e+01 1.045465e+00 2.645455e+00 -7.145184e+00 9.081968e-01 5.371441e+00 2.119313e+00 1.264148e+00 1.239909e+00 1.099307e+01 -2.728140e+00 2.837562e+00 1.137826e+02 1.723826e+01 1.895573e+00 7.081364e-01 -1.021833e+01 1.915155e+00 2.192488e+00 4.915907e+00 6.839488e-01 3.185923e+00 5.694489e+00 1.711288e+00 1.544427e+00 1.182937e+01 -2.072076e+00 -1.670241e+00 -2.359526e-01 -8.107873e-01 3.448322e-01 3.711129e-01 2.862156e-01 6.507698e-01 3.611424e-01 5.838746e-01 3.926458e-01 6.506345e-01 5.443251e-01
<VARIANCE> 39
 2.169205e+02 1.179082e+02 7.618551e+01 1.906065e+02 1.020415e+02 1.150929e+02 1.183331e+02 1.192395e+02 1.693326e+02 1.438006e+02 1.529175e+02 1.082516e+02 1.909325e+02 1.030961e+01 4.098158e+01 2.190053e+01 3.351595e+01 3.163617e+01 2.645332e+01 3.111171e+01 2.750968e+01 5.051517e+01 3.227187e+01 4.985132e+01 2.983885e+01 2.825916e+01 2.948210e+00 2.082742e+00 1.542302e+00 2.917669e+00 2.291065e+00 2.564169e+00 2.339901e+00 2.299566e+00 2.584969e+00 2.731182e+00 2.613905e+00 2.409491e+00 3.359937e+00
<GCONST> 1.913507e+02
<MIXTURE> 2 1.404593e-01
<MEAN> 39
 2.694715e+01 -2.022522e+01 -2.219507e+00 -3.124374e+01 7.602481e+00 5.963778e+00 7.516087e+00 6.226442e-01 1.106387e+01 2.351557e+01 3.989544e-01 3.308829e+00 1.418720e+02 7.467606e+00 -5.135394e+00 -1.365710e+00 -7.031506e+00 3.927460e+00 3.268568e+00 3.574813e+00 1.359588e+00 3.700699e+00 4.130419e+00 1.025856e+00 1.278556e+00 1.059912e+01 -4.712276e+00 -1.305531e-01 2.532127e-01 2.855133e+00 3.480811e-01 7.835577e-01 -5.072939e-01 8.749328e-01 -3.012170e-01 -1.145677e+00 3.102903e-01 7.790586e-01 -2.533716e+00
<VARIANCE> 39
 5.861343e+01 1.704473e+02 1.736751e+02 2.741851e+02 2.606770e+02 2.330560e+02 2.238675e+02 2.451625e+02 5.303054e+02 2.803719e+02 4.578030e+02 2.298110e+02 1.116559e+02 3.326389e+01 1.336922e+01 1.481846e+01 2.772424e+01 2.335535e+01 1.769285e+01 1.952893e+01 1.866511e+01 2.943217e+01 2.297903e+01 2.727606e+01 1.927234e+01 1.742166e+01 1.273175e+00 1.980732e+00 1.742562e+00 2.941079e+00 2.437852e+00 2.773353e+00 3.079577e+00 2.832137e+00 6.723017e+00 3.843397e+00 5.046132e+00 3.425900e+00 2.059658e+00
<GCONST> 1.949116e+02
<MIXTURE> 3 1.316516e-01
<MEAN> 39
 1.878494e+01 8.818472e+00 7.219273e+00 -8.386398e+00 -3.780911e+00 5.413952e+00 4.436821e+00 6.108242e+00 -3.628459e+00 8.683321e+00 -9.483497e-01 4.748141e+00 1.113490e+02 1.730323e+01 7.614404e+00 5.607882e+00 -1.010878e+01 -4.821666e+00 1.476321e+00 1.876400e+00 4.208503e+00 -1.154002e+00 2.257767e+00 1.687928e+00 -8.180058e-01 7.332417e+00 -1.895179e+00 -1.218786e+00 1.258697e-01 -7.656571e-01 -7.231867e-01 -7.773158e-02 -8.948037e-01 4.239042e-01 -9.363833e-02 4.334366e-01 2.689969e-01 -3.067929e-01 8.318437e-01
<VARIANCE> 39
 2.200901e+02 1.504170e+02 8.420200e+01 2.164903e+02 1.560852e+02 1.341755e+02 1.237731e+02 1.335049e+02 1.476106e+02 1.291693e+02 1.327117e+02 9.604778e+01 1.806304e+02 1.032487e+01 3.557189e+01 3.087489e+01 3.233543e+01 4.127316e+01 3.409673e+01 3.619723e+01 3.831714e+01 3.959200e+01 3.562382e+01 4.559142e+01 3.115600e+01 2.283678e+01 3.204207e+00 2.219374e+00 1.836775e+00 2.905132e+00 2.836803e+00 2.451918e+00 2.615760e+00 2.756189e+00 3.137767e+00 2.772761e+00 2.563070e+00 2.472571e+00 2.799878e+00
<GCONST> 1.935885e+02
<MIXTURE> 4 1.147987e-01
<MEAN> 39
 2.767138e+01 -1.806878e+01 -9.327793e-02 -2.795873e+01 -8.289610e+00 1.274681e+01 -3.506058e+00 5.981662e+00 -7.398022e+00 2.420006e+01 2.483001e+01 -5.026698e+00 1.443516e+02 6.822948e+00 -4.307583e+00 -1.232125e+00 -6.209231e+00 -6.137041e-01 3.687882e+00 9.165400e-01 1.809084e+00 1.436593e+00 3.418391e+00 4.962529e+00 -2.577805e+00 9.997058e+00 -4.709616e+00 -1.768404e-01 -9.530288e-02 2.641975e+00 1.411796e+00 -4.852217e-02 7.382331e-01 3.071874e-01 1.973001e+00 -6.359692e-01 -2.000426e+00 4.444691e-01 -2.343671e+00
<VARIANCE> 39
 6.146203e+01 1.499308e+02 2.068691e+02 3.537377e+02 2.900464e+02 2.651840e+02 2.538411e+02 3.585680e+02 5.128725e+02 4.486848e+02 5.464370e+02 2.389810e+02 1.260820e+02 3.389593e+01 1.053195e+01 1.602311e+01 2.575762e+01 1.940816e+01 1.947651e+01 1.832646e+01 2.286122e+01 3.060413e+01 2.426206e+01 4.164211e+01 1.772827e+01 1.436358e+01 1.256634e+00 1.803915e+00 2.112882e+00 3.273003e+00 2.946706e+00 2.740189e+00 3.313917e+00 3.595543e+00 5.362975e+00 5.492667e+00 5.425360e+00 2.893313e+00 1.685085e+00
<GCONST> 1.973680e+02
<MIXTURE> 5 1.404593e-01
<MEAN> 39
 2.388477e+01 -2.544744e+01 -7.490941e+00 -3.786716e+01 1.144283e+00 -1.426904e-01 1.531205e+00 -5.640422e+00 1.852527e+00 1.681785e+01 -8.159578e+00 -2.754979e+00 1.376454e+02 5.160612e+00 -6.597952e+00 -2.905500e+00 -9.137659e+00 1.994365e+00 1.586054e+00 1.807151e+00 -3.685372e-01 1.530642e+00 2.212961e+00 -1.063204e+00 -4.774554e-01 8.929550e+00 -5.163616e+00 -6.935071e-01 -2.748119e-01 2.169149e+00 -2.764638e-01 1.174222e-01 -1.209243e+00 2.017746e-01 -1.338368e+00 -1.929861e+00 -5.882536e-01 3.869116e-02 -3.107776e+00
<VARIANCE> 39
 5.861343e+01 1.704473e+02 1.736751e+02 2.741851e+02 2.606770e+02 2.330560e+02 2.238675e+02 2.451625e+02 5.303054e+02 2.803719e+02 4.578030e+02 2.298110e+02 1.116559e+02 3.326389e+01 1.336922e+01 1.481846e+01 2.772424e+01 2.335535e+01 1.769285e+01 1.952893e+01 1.866511e+01 2.943217e+01 2.297903e+01 2.727606e+01 1.927234e+01 1.742166e+01 1.273175e+00 1.980732e+00 1.742562e+00 2.941079e+00 2.437852e+00 2.773353e+00 3.079577e+00 2.832137e+00 6.723017e+00 3.843397e+00 5.046132e+00 3.425900e+00 2.059658e+00
<GCONST> 1.949116e+02
<MIXTURE> 6 1.316516e-01
<MEAN> 39
 1.285076e+01 3.912688e+00 3.548807e+00 -1.427184e+01 -8.778274e+00 7.805860e-01 -1.331306e-02 1.486470e+00 -8.488263e+00 4.137215e+00 -5.556373e+00 8.279827e-01 1.059730e+02 1.601793e+01 5.228717e+00 3.385276e+00 -1.238335e+01 -7.391434e+00 -8.593755e-01 -5.301657e-01 1.732469e+00 -3.670888e+00 -1.296608e-01 -1.012928e+00 -3.050708e+00 5.420903e+00 -2.611191e+00 -1.814688e+00 -4.162409e-01 -1.447435e+00 -1.396899e+00 -7.040756e-01 -1.541736e+00 -2.401668e-01 -8.021880e-01 -2.326278e-01 -3.713868e-01 -9.357693e-01 1.625303e-01
<VARIANCE> 39
 2.200901e+02 1.504170e+02 8.420200e+01 2.164903e+02 1.560852e+02 1.341755e+02 1.237731e+02 1.335049e+02 1.476106e+02 1.291693e+02 1.327117e+02 9.604778e+01 1.806304e+02 1.032487e+01 3.557189e+01 3.087489e+01 3.233543e+01 4.127316e+01 3.409673e+01 3.619723e+01 3.831714e+01 3.959200e+01 3.562382e+01 4.559142e+01 3.115600e+01 2.283678e+01 3.204207e+00 2.219374e+00 1.836775e+00 2.905132e+00 2.836803e+00 2.451918e+00 2.615760e+00 2.756189e+00 3.137767e+00 2.772761e+00 2.563070e+00 2.472571e+00 2.799878e+00
<GCONST> 1.935885e+02
<MIXTURE> 7 1.147987e-01
<MEAN> 39
 2.453547e+01 -2.296663e+01 -5.846456e+00 -3.548190e+01 -1.510191e+01 6.233027e+00 -9.879015e+00 -1.592694e+00 -1.645670e+01 1.572718e+01 1.547961e+01 -1.121030e+01 1.398602e+02 4.494140e+00 -5.605701e+00 -2.833281e+00 -8.239310e+00 -2.375892e+00 1.922594e+00 -7.958366e-01 -1.034522e-01 -7.762474e-01 1.448129e+00 2.381301e+00 -4.262003e+00 8.481086e+00 -5.158014e+00 -7.140800e-01 -6.767331e-01 1.918317e+00 7.251576e-01 -7.106628e-01 1.006636e-02 -4.512892e-01 1.046677e+00 -1.573427e+00 -2.932122e+00 -2.359205e-01 -2.862915e+00
<VARIANCE> 39
 6.146203e+01 1.499308e+02 2.068691e+02 3.537377e+02 2.900464e+02 2.651840e+02 2.538411e+02 3.585680e+02 5.128725e+02 4.486848e+02 5.464370e+02 2.389810e+02 1.260820e+02 3.389593e+01 1.053195e+01 1.602311e+01 2.575762e+01 1.940816e+01 1.947651e+01 1.832646e+01 2.286122e+01 3.060413e+01 2.426206e+01 4.164211e+01 1.772827e+01 1.436358e+01 1.256634e+00 1.803915e+00 2.112882e+00 3.273003e+00 2.946706e+00 2.740189e+00 3.313917e+00 3.595543e+00 5.362975e+00 5.492667e+00 5.425360e+00 2.893313e+00 1.685085e+00
<GCONST> 1.973680e+02
<MIXTURE> 8 1.130813e-01
<MEAN> 39
 8.545635e+00 -3.297957e+00 -8.459179e-01 -1.266760e+01 -3.132427e+00 1.080187e+00 -2.231928e+00 -3.103725e+00 -3.965205e+00 6.196394e+00 -7.674532e+00 -1.324200e+00 1.082554e+02 1.595392e+01 -6.651007e-01 -1.163784e+00 -1.253405e+01 -3.346868e-01 1.351761e-01 2.684793e+00 -1.414038e+00 3.429614e-01 3.422155e+00 -1.112931e+00 -6.405708e-01 9.702993e+00 -2.758890e+00 -2.247509e+00 -7.327104e-01 -1.494035e+00 -2.606183e-01 -2.694080e-01 -3.256538e-01 4.419699e-02 -2.819712e-01 -7.717699e-02 -2.540572e-01 2.973309e-02 -1.888801e-01
<VARIANCE> 39
 2.169205e+02 1.179082e+02 7.618551e+01 1.906065e+02 1.020415e+02 1.150929e+02 1.183331e+02 1.192395e+02 1.693326e+02 1.438006e+02 1.529175e+02 1.082516e+02 1.909325e+02 1.030961e+01 4.098158e+01 2.190053e+01 3.351595e+01 3.163617e+01 2.645332e+01 3.111171e+01 2.750968e+01 5.051517e+01 3.227187e+01 4.985132e+01 2.983885e+01 2.825916e+01 2.948210e+00 2.082742e+00 1.542302e+00 2.917669e+00 2.291065e+00 2.564169e+00 2.339901e+00 2.299566e+00 2.584969e+00 2.731182e+00 2.613905e+00 2.409491e+00 3.359937e+00
<GCONST> 1.913507e+02
<TRANSP> 5
 0.000000e+00 1.000000e+00 0.000000e+00 0.000000e+00 0.000000e+00
 0.000000e+00 8.521684e-01 1.478316e-01 0.000000e+00 0.000000e+00
 0.000000e+00 0.000000e+00 6.340411e-01 3.659589e-01 0.000000e+00
 0.000000e+00 0.000000e+00 0.000000e+00 5.249064e-01 4.750936e-01
 0.000000e+00 0.000000e+00 0.000000e+00 0.000000e+00 0.000000e+00
<ENDHMM>
~h "k"
<BEGINHMM>
<NUMSTATES> 5
<STATE> 2
<NUMMIXES> 8
<MIXTURE> 1 1.158042e-01
<MEAN> 39
 4.453255e+00 1.959758e+00 4.589196e+01 3.409392e+01 -7.595491e-02 -2.663580e+01 1.151601e+01 1.786817e+01 -2.734725e+01 6.146923e+00 6.029445e+00 5.284758e+00 1.024654e+02 -3.388478e+00 9.223218e+00 -5.661436e+00 5.453526e+00 6.198055e+00 9.050282e+00 3.089753e+00 1.038064e+00 6.570568e+00 -1.174708e+00 2.289771e+00 7.936246e-01 -1.711285e+01 -1.213780e+00 -9.278226e-01 -2.542049e+00 -3.368629e+00 1.008494e-01 1.946085e+00 -2.246043e+00 -9.537585e-01 3.380563e+00 8.014283e-01 -4.869640e-01 9.467791e-01 1.244400e+00
<VARIANCE> 39
 7.774165e+01 2.077219e+02 2.453145e+02 1.888050e+02 3.526574e+02 4.084735e+02 5.059789e+02 7.106372e+02 5.322933e+02 3.830467e+02 2.696003e+02 2.322175e+02 3.187722e+02 1.189830e+01 2.323198e+01 2.580219e+01 2.898052e+01 2.752471e+01 3.624043e+01 6.513143e+01 6.646871e+01 5.164882e+01 3.754695e+01 2.796969e+01 2.805147e+01 2.847233e+01 1.746022e+00 4.906898e+00 3.547523e+00 3.127998e+00 4.312858e+00 7.292751e+00 5.805042e+00 9.657318e+00 7.807548e+00 5.864031e+00 4.796802e+00 4.905058e+00 6.947103e+00
<GCONST> 2.118667e+02
<MIXTURE> 2 1.389696e-01
<MEAN> 39
 -1.192651e+01 1.624671e+01 1.906732e+01 2.368953e+01 4.172009e+00 -4.457040e+00 -1.534480e+00 -1.225658e+00 -1.023326e+01 -2.775800e+00 1.309399e+00 4.415174e+00 5.913275e+01 -4.681045e+00 6.178943e-01 -8.514923e+00 -3.601243e+00 2.929955e+00 6.877340e+00 -1.369277e+00 1.311259e+00 6.888233e+00 1.538758e+00 1.180960e+00 8.586925e-01 -6.476194e+00 1.139568e+00 -3.252625e+00 7.716455e-01 -1.393743e+00 -6.943980e-01 -1.782490e+00 5.286697e-01 1.220376e+00 3.063890e-01 1.915273e+00 1.861659e-01 8.274494e-01 7.310688e+00
<VARIANCE> 39
 8.071272e+01 1.155819e+02 1.361577e+02 1.710345e+02 1.774872e+02 1.985934e+02 2.410858e+02 2.487363e+02 1.846452e+02 1.737802e+02 1.428230e+02 1.150338e+02 6.504986e+01 9.941199e+00 3.329151e+01 2.200310e+01 2.409280e+01 2.900265e+01 3.497244e+01 3.948059e+01 5.654505e+01 3.605067e+01 2.896961e+01 2.118163e+01 1.823251e+01 4.801580e+01 2.881009e+00 5.291475e+00 4.006877e+00 5.505683e+00 5.156734e+00 6.109964e+00 8.254356e+00 8.647520e+00 7.256997e+00 4.765357e+00 4.344655e+00 3.593543e+00 7.615983e+00
<GCONST> 2.019486e+02
<MIXTURE> 3 1.149948e-01
<MEAN> 39
 -9.340742e+00 1.942604e+01 2.083558e+01 2.317317e+01 2.858947e+00 -4.473849e+00 -4.113115e+00 -7.441837e+00 -1.399775e+01 -5.951071e+00 -2.794046e+00 1.018715e+00 5.978430e+01 -5.866812e+00 -1.063316e+00 -1.120981e+01 -3.502730e+00 3.490973e+00 3.983570e+00 -5.943535e+00 2.983236e+00 3.599308e+00 -1.525765e+00 4.538848e-01 -2.808076e-02 -6.788520e+00 5.803343e-01 -3.685734e+00 4.423352e-01 -1.822324e+00 -1.268720e+00 -1.676553e+00 1.682202e+00 8.870970e-01 1.565081e+00 2.503168e+00 5.981426e-01 1.647344e+00 7.945383e+00
<VARIANCE> 39
 6.763564e+01 1.069255e+02 1.058738e+02 1.201876e+02 1.587792e+02 2.015988e+02 2.251539e+02 2.286738e+02 2.261631e+02 1.927286e+02 1.510358e+02 1.138569e+02 5.433182e+01 6.992106e+00 4.050111e+01 1.669675e+01 2.479167e+01 2.507112e+01 3.554131e+01 3.510468e+01 6.134248e+01 3.878572e+01 2.767212e+01 2.035357e+01 1.709161e+01 6.083390e+01 2.780650e+00 4.668924e+00 3.596240e+00 4.265660e+00 4.813976e+00 6.005004e+00 7.554784e+00 9.362628e+00 8.417508e+00 5.056416e+00 3.962871e+00 3.918957e+00 7.382407e+00
<GCONST> 2.001553e+02
<MIXTURE> 4 1.302221e-01
<MEAN> 39
 -7.140357e-01 7.729138e+00 3.784718e+01 3.237027e+01 -3.716841e-01 -1.653354e+01 9.767029e+00 5.976008e+00 -1.610478e+01 4.520749e+00 3.552092e+00 6.913698e+00 8.842728e+01 -5.624741e+00 6.187492e+00 -8.357362e+00 2.809394e+00 5.577647e+00 7.090756e+00 -1.688097e+00 1.199763e+00 3.703785e+00 -2.197103e+00 5.493035e-01 -4.996980e-01 -1.607573e+01 -5.150409e-01 -1.825911e+00 -1.706968e+00 -3.476922e+00 -3.684875e-01 5.031289e-01 -1.368822e+00 2.640849e-01 1.960482e+00 8.788799e-01 2.179646e-01 7.537438e-01 3.193691e+00
<VARIANCE> 39
 1.347032e+02 2.562961e+02 2.235995e+02 2.067738e+02 4.308815e+02 4.414632e+02 4.891060e+02 6.005262e+02 3.477879e+02 2.786527e+02 2.321599e+02 1.808282e+02 2.375230e+02 1.016105e+01 2.868399e+01 2.481244e+01 3.502901e+01 3.107435e+01 3.533520e+01 6.885193e+01 8.962234e+01 6.403313e+01 3.800074e+01 2.460171e+01 2.651961e+01 2.981945e+01 2.876965e+00 5.672133e+00 3.848721e+00 3.564315e+00 5.488322e+00 7.278968e+00 6.552185e+00 7.482285e+00 5.649958e+00 4.812171e+00 4.789698e+00 4.378424e+00 7.760565e+00
<GCONST> 2.124413e+02
<MIXTURE> 5 1.389696e-01
<MEAN> 39
 -1.552012e+01 1.194635e+01 1.439986e+01 1.845833e+01 -1.156963e+00 -1.009397e+01 -7.745255e+00 -7.534208e+00 -1.566862e+01 -8.048828e+00 -3.470944e+00 1.250207e-01 5.590661e+01 -5.942231e+00 -1.690058e+00 -1.039122e+01 -5.564620e+00 7.757908e-01 4.511840e+00 -3.882621e+00 -1.696599e+00 4.486545e+00 -6.141785e-01 -6.599801e-01 -8.492892e-01 -9.247931e+00 4.606266e-01 -4.172753e+00 -2.904192e-02 -2.332311e+00 -1.602736e+00 -2.771224e+00 -6.205461e-01 4.410988e-02 -7.711636e-01 1.042085e+00 -6.475875e-01 6.918365e-02 6.206805e+00
<VARIANCE> 39
 8.071272e+01 1.155819e+02 1.361577e+02 1.710345e+02 1.774872e+02 1.985934e+02 2.410858e+02 2.487363e+02 1.846452e+02 1.737802e+02 1.428230e+02 1.150338e+02 6.504986e+01 9.941199e+00 3.329151e+01 2.200310e+01 2.409280e+01 2.900265e+01 3.497244e+01 3.948059e+01 5.654505e+01 3.605067e+01 2.896961e+01 2.118163e+01 1.823251e+01 4.801580e+01 2.881009e+00 5.291475e+00 4.006877e+00 5.505683e+00 5.156734e+00 6.109964e+00 8.254356e+00 8.647520e+00 7.256997e+00 4.765357e+00 4.344655e+00 3.593543e+00 7.615983e+00
<GCONST> 2.019486e+02
<MIXTURE> 6 1.302221e-01
<MEAN> 39
 -5.356504e+00 1.325438e+00 3.186588e+01 2.661841e+01 -8.674758e+00 -2.493795e+01 9.207320e-01 -3.826246e+00 -2.356441e+01 -2.156409e+00 -2.542626e+00 1.534803e+00 8.226256e+01 -6.899797e+00 4.045194e+00 -1.034984e+01 4.419817e-01 3.347872e+00 4.713019e+00 -5.007179e+00 -2.587000e+00 5.029569e-01 -4.662893e+00 -1.434701e+00 -2.559586e+00 -1.826001e+01 -1.193506e+00 -2.778561e+00 -2.491694e+00 -4.232098e+00 -1.305574e+00 -5.760536e-01 -2.392712e+00 -8.300657e-01 1.009696e+00 1.413494e-03 -6.574506e-01 -8.324358e-02 2.079379e+00
<VARIANCE> 39
 1.347032e+02 2.562961e+02 2.235995e+02 2.067738e+02 4.308815e+02 4.414632e+02 4.891060e+02 6.005262e+02 3.477879e+02 2.786527e+02 2.321599e+02 1.808282e+02 2.375230e+02 1.016105e+01 2.868399e+01 2.481244e+01 3.502901e+01 3.107435e+01 3.533520e+01 6.885193e+01 8.962234e+01 6.403313e+01 3.800074e+01 2.460171e+01 2.651961e+01 2.981945e+01 2.876965e+00 5.672133e+00 3.848721e+00 3.564315e+00 5.488322e+00 7.278968e+00 6.552185e+00 7.482285e+00 5.649958e+00 4.812171e+00 4.789698e+00 4.378424e+00 7.760565e+00
<GCONST> 2.124413e+02
<MIXTURE> 7 1.158042e-01
<MEAN> 39
 9.264055e-01 -3.805266e+00 3.962696e+01 2.859766e+01 -7.587625e+00 -3.472009e+01 2.518424e+00 7.205054e+00 -3.657585e+01 -1.681709e+00 -5.383592e-01 -8.107159e-01 9.532373e+01 -4.768234e+00 7.295236e+00 -7.693270e+00 3.300184e+00 4.099495e+00 6.642281e+00 -1.384089e-01 -2.223070e+00 3.695884e+00 -3.625730e+00 1.743155e-01 -1.324921e+00 -1.924723e+01 -1.742328e+00 -1.813883e+00 -3.295443e+00 -4.076075e+00 -7.298474e-01 8.658811e-01 -3.209789e+00 -2.196808e+00 2.262883e+00 -1.672021e-01 -1.363028e+00 6.088451e-02 1.901059e-01
<VARIANCE> 39
 7.774165e+01 2.077219e+02 2.453145e+02 1.888050e+02 3.526574e+02 4.084735e+02 5.059789e+02 7.106372e+02 5.322933e+02 3.830467e+02 2.696003e+02 2.322175e+02 3.187722e+02 1.189830e+01 2.323198e+01 2.580219e+01 2.898052e+01 2.752471e+01 3.624043e+01 6.513143e+01 6.646871e+01 5.164882e+01 3.754695e+01 2.796969e+01 2.805147e+01 2.847233e+01 1.746022e+00 4.906898e+00 3.547523e+00 3.127998e+00 4.312858e+00 7.292751e+00 5.805042e+00 9.657318e+00 7.807548e+00 5.864031e+00 4.796802e+00 4.905058e+00 6.947103e+00
<GCONST> 2.118667e+02
<MIXTURE> 8 1.149948e-01
<MEAN> 39
 -1.263038e+01 1.528984e+01 1.671978e+01 1.878797e+01 -2.181358e+00 -1.015327e+01 -1.011517e+01 -1.349062e+01 -2.001323e+01 -1.150414e+01 -7.709911e+00 -3.249435e+00 5.683590e+01 -6.924516e+00 -3.608936e+00 -1.284427e+01 -5.494380e+00 1.488131e+00 1.598908e+00 -8.313503e+00 -1.496217e-01 1.108181e+00 -3.629937e+00 -1.350712e+00 -1.681761e+00 -9.908364e+00 -8.667693e-02 -4.550042e+00 -3.162150e-01 -2.648463e+00 -2.146351e+00 -2.656757e+00 5.827637e-01 -3.368394e-01 4.045637e-01 1.603709e+00 -1.981358e-01 8.554899e-01 6.858559e+00
<VARIANCE> 39
 6.763564e+01 1.069255e+02 1.058738e+02 1.201876e+02 1.587792e+02 2.015988e+02 2.251539e+02 2.286738e+02 2.261631e+02 1.927286e+02 1.510358e+02 1.138569e+02 5.433182e+01 6.992106e+00 4.050111e+01 1.669675e+01 2.479167e+01 2.507112e+01 3.554131e+01 3.510468e+01 6.134248e+01 3.878572e+01 2.767212e+01 2.035357e+01 1.709161e+01 6.083390e+01 2.780650e+00 4.668924e+00 3.596240e+00 4.265660e+00 4.813976e+00 6.005004e+00 7.554784e+00 9.362628e+00 8.417508e+00 5.056416e+00 3.962871e+00 3.918957e+00 7.382407e+00
<GCONST> 2.001553e+02
<STATE> 3
<NUMMIXES> 8
<MIXTURE> 1 1.119950e-01
<MEAN> 39
 -1.951615e+01 4.414691e+00 9.573255e-01 7.674105e+00 -2.612183e+00 -5.366648e+00 -7.349811e+00 -3.418592e+00 -4.534106e+00 6.026223e-01 1.418413e+00 4.418123e+00 5.879379e+01 1.186718e+00 -3.515201e+00 -4.068773e+00 5.849151e-01 1.880776e+00 2.103970e+00 1.455893e+00 4.122846e+00 4.656041e+00 4.044999e+00 2.088608e+00 1.714124e+00 8.828927e+00 8.081391e-01 1.290345e-01 1.616261e+00 1.735193e+00 1.500814e-01 -6.271327e-01 9.724401e-01 7.379418e-01 -4.700714e-02 6.483774e-01 9.949426e-02 5.891369e-01 4.849677e+00
<VARIANCE> 39
 9.985228e+01 1.690848e+02 1.565920e+02 7.818037e+01 7.758599e+01 1.094920e+02 1.159347e+02 1.129923e+02 1.114921e+02 1.029379e+02 8.251861e+01 7.123692e+01 2.475271e+02 1.809532e+01 2.751448e+01 2.125354e+01 1.823093e+01 1.570198e+01 1.965250e+01 1.957018e+01 1.802459e+01 1.814693e+01 1.782597e+01 1.527394e+01 1.073406e+01 7.906568e+01 6.359794e+00 5.453554e+00 4.908415e+00 2.826396e+00 4.149086e+00 4.027876e+00 4.801259e+00 4.369345e+00 3.469034e+00 3.357904e+00 2.369733e+00 2.198629e+00 9.105635e+00
<GCONST> 1.902575e+02
<MIXTURE> 2 1.133208e-01
<MEAN> 39
 -1.640989e+01 -6.078576e+00 -2.567378e+00 1.163029e+01 7.564197e+00 -1.612664e+00 -4.299499e+00 4.847284e+00 -2.263117e-02 7.373454e+00 1.289445e+00 5.543524e+00 7.621053e+01 1.070417e-01 -4.783774e+00 -5.416220e+00 -1.154012e+00 1.787272e+00 -6.596084e-01 -2.085327e+00 1.463349e+00 2.549864e+00 3.047546e+00 -4.041845e-02 1.155442e+00 1.255724e+01 -4.215532e-01 1.743328e+00 2.644980e+00 1.406912e+00 -3.502204e-01 -1.487769e+00 7.316366e-01 7.150582e-01 -4.108137e-01 -1.056664e-01 -1.432985e-03 4.803649e-01 3.678107e+00
<VARIANCE> 39
 1.677214e+02 3.254713e+02 2.405573e+02 2.030293e+02 2.013161e+02 2.325742e+02 2.492661e+02 1.923842e+02 1.685275e+02 1.451336e+02 1.367824e+02 1.066592e+02 5.311677e+02 3.008002e+01 3.120083e+01 2.687578e+01 2.459510e+01 2.597368e+01 2.830015e+01 2.170940e+01 2.264102e+01 2.230419e+01 1.949741e+01 1.514942e+01 1.252147e+01 7.418243e+01 8.062721e+00 7.486041e+00 5.580134e+00 4.645631e+00 5.262009e+00 6.121902e+00 5.917974e+00 5.770003e+00 4.894077e+00 4.119283e+00 3.088850e+00 2.780799e+00 1.257116e+01
<GCONST> 2.046877e+02
<MIXTURE> 3 1.705489e-01
<MEAN> 39
 -2.180972e+01 4.634871e+00 2.086422e-01 5.397668e+00 -3.084687e+00 -4.804637e+00 -6.591139e+00 -2.950329e+00 -2.632259e+00 2.453392e+00 2.945344e+00 4.704873e+00 5.480225e+01 1.720882e+00 -2.864862e+00 -3.691499e+00 2.682547e-01 1.240845e+00 5.182979e-01 -8.744662e-01 1.396191e+00 1.856537e+00 1.419308e+00 8.432066e-02 6.302320e-01 7.681180e+00 1.015861e+00 -1.377144e-01 1.080288e+00 1.699901e+00 1.906064e-01 -4.520962e-01 7.165334e-01 5.856223e-01 1.923475e-02 4.752508e-01 -7.151622e-02 4.081463e-01 4.644683e+00
<VARIANCE> 39
 8.207655e+01 9.907253e+01 1.068260e+02 5.863787e+01 6.520978e+01 8.099961e+01 9.037663e+01 9.059927e+01 8.515868e+01 8.518536e+01 7.748498e+01 6.822968e+01 1.684727e+02 1.689843e+01 2.102457e+01 1.775258e+01 1.703731e+01 1.384164e+01 1.631182e+01 1.556909e+01 1.387789e+01 1.408881e+01 1.416472e+01 1.126465e+01 9.604001e+00 7.453111e+01 6.020073e+00 3.809726e+00 4.176450e+00 2.373320e+00 3.340744e+00 3.446346e+00 3.728639e+00 3.330655e+00 2.993333e+00 2.786652e+00 2.198924e+00 1.944013e+00 7.610349e+00
<GCONST> 1.822587e+02
<MIXTURE> 4 1.041239e-01
<MEAN> 39
 -1.665985e+01 -6.307638e+00 9.281566e-01 1.332844e+01 8.214396e+00 -2.630041e+00 -3.703283e+00 6.446791e+00 -1.485420e+00 5.753098e+00 7.254208e-01 5.859992e+00 7.883669e+01 -1.930486e+00 -6.055176e+00 -7.286114e+00 -3.320241e+00 2.737024e-01 -2.153666e+00 -4.425643e+00 -5.253196e-01 1.752306e+00 1.152616e+00 -1.522128e+00 5.504701e-01 1.181949e+01 -2.790707e-01 1.661785e+00 2.810103e+00 1.178814e+00 -6.787239e-01 -1.731968e+00 1.001422e+00 8.587998e-01 -4.288649e-01 1.583931e-01 1.609491e-01 4.705404e-01 4.365202e+00
<VARIANCE> 39
 1.564933e+02 3.634384e+02 2.412304e+02 1.967873e+02 1.881802e+02 2.309465e+02 2.496159e+02 2.076195e+02 1.689724e+02 1.273715e+02 1.448252e+02 1.016657e+02 5.682032e+02 3.606282e+01 3.167137e+01 2.883685e+01 2.833898e+01 2.464386e+01 3.102665e+01 2.071186e+01 2.514413e+01 2.772038e+01 1.910658e+01 1.702230e+01 1.341703e+01 7.295420e+01 7.450643e+00 7.816016e+00 5.179130e+00 4.697979e+00 5.502897e+00 6.318505e+00 6.374992e+00 6.240192e+00 5.375933e+00 4.185098e+00 3.510957e+00 3.070419e+00 1.294362e+01
<GCONST> 2.060200e+02
<MIXTURE> 5 1.705489e-01
<MEAN> 39
 -2.543356e+01 6.534632e-01 -3.925624e+00 2.334654e+00 -6.314790e+00 -8.404629e+00 -1.039380e+01 -6.757675e+00 -6.323517e+00 -1.238445e+00 -5.756780e-01 1.400823e+00 4.961037e+01 7.657391e-02 -4.698964e+00 -5.376851e+00 -1.382796e+00 -2.473291e-01 -1.097218e+00 -2.452774e+00 -9.393018e-02 3.551347e-01 -8.613408e-02 -1.258193e+00 -6.093809e-01 4.227924e+00 3.442734e-02 -9.184552e-01 2.628330e-01 1.083677e+00 -5.405018e-01 -1.194670e+00 -5.585399e-02 -1.443810e-01 -6.728153e-01 -1.924800e-01 -6.646670e-01 -1.495651e-01 3.541209e+00
<VARIANCE> 39
 8.207655e+01 9.907253e+01 1.068260e+02 5.863787e+01 6.520978e+01 8.099961e+01 9.037663e+01 9.059927e+01 8.515868e+01 8.518536e+01 7.748498e+01 6.822968e+01 1.684727e+02 1.689843e+01 2.102457e+01 1.775258e+01 1.703731e+01 1.384164e+01 1.631182e+01 1.556909e+01 1.387789e+01 1.408881e+01 1.416472e+01 1.126465e+01 9.604001e+00 7.453111e+01 6.020073e+00 3.809726e+00 4.176450e+00 2.373320e+00 3.340744e+00 3.446346e+00 3.728639e+00 3.330655e+00 2.993333e+00 2.786652e+00 2.198924e+00 1.944013e+00 7.610349e+00
<GCONST> 1.822587e+02
<MIXTURE> 6 1.133208e-01
<MEAN> 39
 -2.159019e+01 -1.329491e+01 -8.771342e+00 5.930758e+00 1.888760e+00 -7.712817e+00 -1.061476e+01 -7.008207e-01 -5.215357e+00 2.554598e+00 -3.388715e+00 1.412486e+00 6.699170e+01 -2.086769e+00 -7.018082e+00 -7.489894e+00 -3.137750e+00 -2.513027e-01 -2.787524e+00 -3.949061e+00 -4.399542e-01 6.607717e-01 1.281312e+00 -1.597309e+00 -2.599860e-01 9.112075e+00 -1.557350e+00 6.489024e-01 1.700088e+00 5.447627e-01 -1.267783e+00 -2.477468e+00 -2.414388e-01 -2.457750e-01 -1.295716e+00 -9.175071e-01 -7.044380e-01 -1.866643e-01 2.259873e+00
<VARIANCE> 39
 1.677214e+02 3.254713e+02 2.405573e+02 2.030293e+02 2.013161e+02 2.325742e+02 2.492661e+02 1.923842e+02 1.685275e+02 1.451336e+02 1.367824e+02 1.066592e+02 5.311677e+02 3.008002e+01 3.120083e+01 2.687578e+01 2.459510e+01 2.597368e+01 2.830015e+01 2.170940e+01 2.264102e+01 2.230419e+01 1.949741e+01 1.514942e+01 1.252147e+01 7.418243e+01 8.062721e+00 7.486041e+00 5.580134e+00 4.645631e+00 5.262009e+00 6.121902e+00 5.917974e+00 5.770003e+00 4.894077e+00 4.119283e+00 3.088850e+00 2.780799e+00 1.257116e+01
<GCONST> 2.046877e+02
<MIXTURE> 7 1.119950e-01
<MEAN> 39
 -2.351319e+01 -7.866132e-01 -4.048143e+00 4.137318e+00 -6.135499e+00 -9.552184e+00 -1.165673e+01 -7.670506e+00 -8.757698e+00 -3.455710e+00 -2.215177e+00 1.042045e+00 5.250059e+01 -5.148262e-01 -5.613371e+00 -5.912836e+00 -1.122993e+00 2.957475e-01 3.307242e-01 -3.136346e-01 2.424630e+00 2.952073e+00 2.356167e+00 5.253322e-01 4.036095e-01 5.272171e+00 -2.006062e-01 -8.050793e-01 7.300631e-01 1.062717e+00 -6.646909e-01 -1.429915e+00 9.596908e-02 -9.817737e-02 -7.920209e-01 -8.460599e-02 -5.162632e-01 -3.974080e-03 3.642655e+00
<VARIANCE> 39
 9.985228e+01 1.690848e+02 1.565920e+02 7.818037e+01 7.758599e+01 1.094920e+02 1.159347e+02 1.129923e+02 1.114921e+02 1.029379e+02 8.251861e+01 7.123692e+01 2.475271e+02 1.809532e+01 2.751448e+01 2.125354e+01 1.823093e+01 1.570198e+01 1.965250e+01 1.957018e+01 1.802459e+01 1.814693e+01 1.782597e+01 1.527394e+01 1.073406e+01 7.906568e+01 6.359794e+00 5.453554e+00 4.908415e+00 2.826396e+00 4.149086e+00 4.027876e+00 4.801259e+00 4.369345e+00 3.469034e+00 3.357904e+00 2.369733e+00 2.198629e+00 9.105635e+00
<GCONST> 1.902575e+02
<MIXTURE> 8 1.041239e-01
<MEAN> 39
 -2.166374e+01 -1.393326e+01 -5.284481e+00 7.717203e+00 2.727245e+00 -8.708811e+00 -1.002298e+01 6.831875e-01 -6.684996e+00 1.238739e+00 -4.088313e+00 1.826816e+00 6.930189e+01 -4.332580e+00 -8.306269e+00 -9.434113e+00 -5.449615e+00 -1.712001e+00 -4.381729e+00 -6.246055e+00 -2.531076e+00 -3.536997e-01 -5.958271e-01 -3.172452e+00 -9.147005e-01 8.402966e+00 -1.370905e+00 5.434993e-01 1.899795e+00 3.118211e-01 -1.617054e+00 -2.737434e+00 -8.527756e-03 -1.404152e-01 -1.356307e+00 -6.599075e-01 -5.885529e-01 -2.303641e-01 2.926112e+00
<VARIANCE> 39
 1.564933e+02 3.634384e+02 2.412304e+02 1.967873e+02 1.881802e+02 2.309465e+02 2.496159e+02 2.076195e+02 1.689724e+02 1.273715e+02 1.448252e+02 1.016657e+02 5.682032e+02 3.606282e+01 3.167137e+01 2.883685e+01 2.833898e+01 2.464386e+01 3.102665e+01 2.071186e+01 2.514413e+01 2.772038e+01 1.910658e+01 1.702230e+01 1.341703e+01 7.295420e+01 7.450643e+00 7.816016e+00 5.179130e+00 4.697979e+00 5.502897e+00 6.318505e+00 6.374992e+00 6.240192e+00 5.375933e+00 4.185098e+00 3.510957e+00 3.070419e+00 1.294362e+01
<GCONST> 2.060200e+02
<STATE> 4
<NUMMIXES> 8
<MIXTURE> 1 1.132705e-01
<MEAN> 39
 -1.544803e+01 -1.634322e+01 -1.448611e+01 1.839308e+01 -5.610248e+00 -1.375451e+01 -1.053084e+01 7.000378e+00 -2.192073e-01 2.626702e+00 4.738207e-01 9.644518e+00 1.172842e+02 -7.151146e+00 2.949678e+00 5.618078e-02 2.748761e+00 -2.979380e+00 -1.022067e+00 2.419754e+00 4.736040e+00 1.599750e+00 9.188695e-01 1.154326e+00 3.474657e+00 1.188594e+01 -1.868252e+00 4.216679e+00 3.041837e+00 2.075169e-01 3.435803e-01 1.691876e+00 2.039450e+00 8.696073e-02 -4.315680e-01 4.859987e-02 5.482110e-01 1.940739e-01 -4.257058e+00
<VARIANCE> 39
 2.519377e+02 1.847732e+02 2.116565e+02 1.502474e+02 2.393372e+02 2.123466e+02 1.967846e+02 1.751578e+02 1.691569e+02 1.524297e+02 1.565874e+02 1.159081e+02 1.181161e+02 2.730635e+01 3.237833e+01 1.796896e+01 1.750708e+01 2.259681e+01 2.145379e+01 2.089318e+01 1.561643e+01 1.868605e+01 1.512709e+01 1.338260e+01 1.212077e+01 5.364309e+01 5.248886e+00 4.242248e+00 4.516609e+00 3.995747e+00 4.078025e+00 4.514360e+00 4.122287e+00 4.174267e+00 4.322207e+00 3.710650e+00 3.203036e+00 2.512137e+00 4.185921e+00
<GCONST> 1.960813e+02
<MIXTURE> 2 1.200697e-01
<MEAN> 39
 -3.959359e+01 -7.805127e+00 -2.635356e+00 9.617923e+00 1.431882e+01 -2.257653e+01 -1.557933e+01 6.219189e+00 4.642360e+00 8.941379e+00 -6.905402e+00 4.393427e+00 1.178144e+02 -1.222302e+01 5.458772e+00 3.970008e+00 6.079207e-01 2.356029e-01 -3.620511e+00 3.096837e+00 3.802869e+00 3.795998e+00 -9.385834e-01 -7.551582e-01 1.199219e+00 5.075951e+00 1.049838e+00 2.053334e+00 1.331966e+00 2.271176e-01 -4.342192e-01 2.150895e+00 2.056734e+00 8.939413e-01 -5.150180e-01 -5.076085e-01 8.511825e-01 5.849607e-01 -3.506560e+00
<VARIANCE> 39
 2.735000e+02 1.037088e+02 1.846684e+02 1.968584e+02 2.401192e+02 3.131950e+02 1.991915e+02 2.152164e+02 1.696376e+02 1.512314e+02 1.409968e+02 1.061128e+02 1.672759e+02 1.618762e+01 1.427019e+01 1.505840e+01 1.622001e+01 1.867503e+01 1.858735e+01 1.581866e+01 1.784974e+01 1.610060e+01 1.520187e+01 1.298012e+01 1.253447e+01 2.491926e+01 6.512074e+00 2.430037e+00 3.781244e+00 3.147141e+00 2.939462e+00 5.223322e+00 3.048573e+00 3.902992e+00 3.856921e+00 3.235504e+00 2.834477e+00 2.175968e+00 3.870615e+00
<GCONST> 1.915943e+02
<MIXTURE> 3 1.742546e-01
<MEAN> 39
 -1.097376e+01 -1.702874e+01 -1.699740e+01 1.690265e+01 -2.784870e-01 -1.134830e+01 -1.495028e+01 4.134899e+00 -6.581199e-01 5.661490e+00 -1.879898e+00 8.869285e+00 1.139418e+02 -7.336495e+00 1.464774e+00 -1.097238e-02 2.488415e+00 -2.282674e+00 -2.640481e+00 4.638803e-01 3.383181e+00 6.898338e-01 -2.882528e-02 -5.193139e-01 2.305303e+00 1.256415e+01 -2.825912e+00 4.047321e+00 3.057961e+00 -1.618564e-02 -2.837575e-01 1.112890e+00 2.300580e+00 5.099360e-01 -1.039418e-01 -3.728081e-01 7.026101e-01 3.035268e-01 -4.261137e+00
<VARIANCE> 39
 2.194819e+02 1.535272e+02 1.985728e+02 1.645429e+02 2.418720e+02 2.315589e+02 1.768756e+02 1.766362e+02 1.748353e+02 1.583695e+02 1.438786e+02 1.184442e+02 1.164795e+02 2.207866e+01 2.376472e+01 1.542667e+01 1.857890e+01 2.809341e+01 2.664467e+01 1.976467e+01 1.582138e+01 1.782608e+01 1.448773e+01 1.306360e+01 1.250276e+01 4.277373e+01 4.993197e+00 3.586311e+00 3.906796e+00 3.728841e+00 3.877401e+00 4.607302e+00 3.780416e+00 4.066182e+00 4.585191e+00 3.640226e+00 2.796513e+00 2.720310e+00 3.056953e+00
<GCONST> 1.943402e+02
<MIXTURE> 4 9.239720e-02
<MEAN> 39
 -3.843545e+01 -9.835704e+00 -3.565334e+00 1.099134e+01 1.615057e+01 -1.935688e+01 -1.817524e+01 3.199931e+00 6.276324e+00 1.232225e+01 -5.281517e+00 2.517772e+00 1.123819e+02 -1.160991e+01 3.781831e+00 3.709904e+00 1.989031e-01 -3.596662e-01 -4.530425e+00 1.561763e+00 3.060433e+00 3.219664e+00 -1.187213e+00 -1.845191e+00 1.570925e-01 4.666686e+00 9.098890e-01 1.728850e+00 7.796454e-01 -4.257324e-01 -9.629757e-01 1.597116e+00 1.881216e+00 9.222516e-01 -4.885747e-01 -9.682449e-01 4.770921e-01 6.970084e-01 -3.071767e+00
<VARIANCE> 39
 2.637688e+02 1.123543e+02 1.736936e+02 2.026017e+02 2.744081e+02 2.828993e+02 2.050420e+02 2.144147e+02 2.013818e+02 1.473152e+02 1.482353e+02 1.007825e+02 1.666973e+02 1.370692e+01 1.193207e+01 1.208945e+01 1.518290e+01 2.103804e+01 1.928964e+01 1.564506e+01 1.728062e+01 1.554351e+01 1.615043e+01 1.235274e+01 1.155132e+01 2.219179e+01 6.843843e+00 1.894652e+00 2.866769e+00 2.610145e+00 3.121499e+00 4.450003e+00 2.994788e+00 3.412863e+00 3.526203e+00 2.825963e+00 2.742524e+00 2.054323e+00 2.787254e+00
<GCONST> 1.895039e+02
<MIXTURE> 5 1.742546e-01
<MEAN> 39
 -1.689972e+01 -2.198498e+01 -2.263404e+01 1.177168e+01 -6.499381e+00 -1.743512e+01 -2.027006e+01 -1.181283e+00 -5.947132e+00 6.276922e-01 -6.677874e+00 4.516002e+00 1.096248e+02 -9.216012e+00 -4.851893e-01 -1.582044e+00 7.642851e-01 -4.402802e+00 -4.705221e+00 -1.314419e+00 1.792137e+00 -9.990040e-01 -1.551335e+00 -1.965058e+00 8.909331e-01 9.948087e+00 -3.719730e+00 3.289819e+00 2.267337e+00 -7.885939e-01 -1.071402e+00 2.543054e-01 1.522848e+00 -2.966551e-01 -9.604642e-01 -1.135983e+00 3.369892e-02 -3.562077e-01 -4.960503e+00
<VARIANCE> 39
 2.194819e+02 1.535272e+02 1.985728e+02 1.645429e+02 2.418720e+02 2.315589e+02 1.768756e+02 1.766362e+02 1.748353e+02 1.583695e+02 1.438786e+02 1.184442e+02 1.164795e+02 2.207866e+01 2.376472e+01 1.542667e+01 1.857890e+01 2.809341e+01 2.664467e+01 1.976467e+01 1.582138e+01 1.782608e+01 1.448773e+01 1.306360e+01 1.250276e+01 4.277373e+01 4.993197e+00 3.586311e+00 3.906796e+00 3.728841e+00 3.877401e+00 4.607302e+00 3.780416e+00 4.066182e+00 4.585191e+00 3.640226e+00 2.796513e+00 2.720310e+00 3.056953e+00
<GCONST> 1.943402e+02
<MIXTURE> 6 1.200697e-01
<MEAN> 39
 -4.620873e+01 -1.187863e+01 -8.071066e+00 4.005673e+00 8.120503e+00 -2.965545e+01 -2.122474e+01 3.510866e-01 -5.674400e-01 4.022331e+00 -1.165509e+01 2.729845e-01 1.126410e+02 -1.383238e+01 3.947736e+00 2.417802e+00 -1.003042e+00 -1.492982e+00 -5.345033e+00 1.505929e+00 2.112911e+00 2.190976e+00 -2.498167e+00 -2.196276e+00 -2.169428e-01 3.079183e+00 2.908731e-02 1.429791e+00 5.541496e-01 -4.824898e-01 -1.120014e+00 1.236711e+00 1.358328e+00 1.037016e-01 -1.300580e+00 -1.227109e+00 1.777463e-01 -5.085856e-03 -4.293516e+00
<VARIANCE> 39
 2.735000e+02 1.037088e+02 1.846684e+02 1.968584e+02 2.401192e+02 3.131950e+02 1.991915e+02 2.152164e+02 1.696376e+02 1.512314e+02 1.409968e+02 1.061128e+02 1.672759e+02 1.618762e+01 1.427019e+01 1.505840e+01 1.622001e+01 1.867503e+01 1.858735e+01 1.581866e+01 1.784974e+01 1.610060e+01 1.520187e+01 1.298012e+01 1.253447e+01 2.491926e+01 6.512074e+00 2.430037e+00 3.781244e+00 3.147141e+00 2.939462e+00 5.223322e+00 3.048573e+00 3.902992e+00 3.856921e+00 3.235504e+00 2.834477e+00 2.175968e+00 3.870615e+00
<GCONST> 1.915943e+02
<MIXTURE> 7 1.132705e-01
<MEAN> 39
 -2.179705e+01 -2.178048e+01 -2.030547e+01 1.349006e+01 -1.179846e+01 -1.958335e+01 -1.614204e+01 1.706490e+00 -5.421621e+00 -2.311795e+00 -4.531575e+00 5.338093e+00 1.129370e+02 -9.241365e+00 6.735997e-01 -1.639412e+00 1.075103e+00 -4.880824e+00 -2.874797e+00 5.913919e-01 3.155334e+00 -1.293442e-01 -6.368729e-01 -3.089631e-01 2.082061e+00 8.956282e+00 -2.784670e+00 3.392810e+00 2.191745e+00 -5.920577e-01 -4.641846e-01 8.419955e-01 1.227314e+00 -7.302802e-01 -1.263165e+00 -7.219220e-01 -1.676701e-01 -4.399151e-01 -5.075439e+00
<VARIANCE> 39
 2.519377e+02 1.847732e+02 2.116565e+02 1.502474e+02 2.393372e+02 2.123466e+02 1.967846e+02 1.751578e+02 1.691569e+02 1.524297e+02 1.565874e+02 1.159081e+02 1.181161e+02 2.730635e+01 3.237833e+01 1.796896e+01 1.750708e+01 2.259681e+01 2.145379e+01 2.089318e+01 1.561643e+01 1.868605e+01 1.512709e+01 1.338260e+01 1.212077e+01 5.364309e+01 5.248886e+00 4.242248e+00 4.516609e+00 3.995747e+00 4.078025e+00 4.514360e+00 4.122287e+00 4.174267e+00 4.322207e+00 3.710650e+00 3.203036e+00 2.512137e+00 4.185921e+00
<GCONST> 1.960813e+02
<MIXTURE> 8 9.239720e-02
<MEAN> 39
 -4.493183e+01 -1.407560e+01 -8.837049e+00 5.297812e+00 9.524466e+00 -2.608472e+01 -2.390296e+01 -2.657232e+00 5.999618e-01 7.467310e+00 -1.015159e+01 -1.497848e+00 1.072175e+02 -1.309083e+01 2.400117e+00 2.319108e+00 -1.359707e+00 -2.194356e+00 -6.287223e+00 -2.039081e-02 1.397635e+00 1.642654e+00 -2.794717e+00 -3.251049e+00 -1.202397e+00 2.782359e+00 -1.365406e-01 1.178264e+00 1.023840e-01 -1.071970e+00 -1.669686e+00 7.533144e-01 1.188998e+00 1.832941e-01 -1.239702e+00 -1.640669e+00 -1.853307e-01 1.236920e-01 -3.739569e+00
<VARIANCE> 39
 2.637688e+02 1.123543e+02 1.736936e+02 2.026017e+02 2.744081e+02 2.828993e+02 2.050420e+02 2.144147e+02 2.013818e+02 1.473152e+02 1.482353e+02 1.007825e+02 1.666973e+02 1.370692e+01 1.193207e+01 1.208945e+01 1.518290e+01 2.103804e+01 1.928964e+01 1.564506e+01 1.728062e+01 1.554351e+01 1.615043e+01 1.235274e+01 1.155132e+01 2.219179e+01 6.843843e+00 1.894652e+00 2.866769e+00 2.610145e+00 3.121499e+00 4.450003e+00 2.994788e+00 3.412863e+00 3.526203e+00 2.825963e+00 2.742524e+00 2.054323e+00 2.787254e+00
<GCONST> 1.895039e+02
<TRANSP> 5
 0.000000e+00 1.000000e+00 0.000000e+00 0.000000e+00 0.000000e+00
 0.000000e+00 7.079535e-01 2.920466e-01 0.000000e+00 0.000000e+00
 0.000000e+00 0.000000e+00 7.200670e-01 2.799331e-01 0.000000e+00
 0.000000e+00 0.000000e+00 0.000000e+00 5.968759e-01 4.031241e-01
 0.000000e+00 0.000000e+00 0.000000e+00 0.000000e+00 0.000000e+00
<ENDHMM>
~h "n"
<BEGINHMM>
<NUMSTATES> 5
<STATE> 2
<NUMMIXES> 8
<MIXTURE> 1 9.199500e-02
<MEAN> 39
 1.036814e+01 3.476556e+00 3.817194e+01 3.393013e+00 1.690918e+00 6.546419e+00 2.322112e+01 4.277981e+00 1.628503e+00 1.174167e+01 9.846523e-01 1.408332e+01 1.128012e+02 6.123051e+00 5.572728e+00 2.926120e+00 7.479688e+00 2.875255e-01 3.274771e+00 4.182734e+00 -4.992386e+00 1.483302e+00 1.551164e+00 -3.134505e-01 3.603718e+00 -5.964490e-01 5.598890e-01 -2.099097e-01 -4.336288e-01 1.078793e+00 2.900640e-01 3.206451e-01 4.870448e-02 2.584561e-01 6.987724e-01 1.064650e-01 4.157923e-01 5.580903e-01 8.763126e-01
<VARIANCE> 39
 2.247931e+02 3.389887e+02 3.214293e+02 6.973685e+02 2.619048e+02 3.676135e+02 3.980491e+02 5.153856e+02 3.601651e+02 3.265018e+02 2.755094e+02 2.588725e+02 7.846915e+02 2.970144e+01 1.782215e+01 4.569122e+01 4.494762e+01 2.764835e+01 3.505660e+01 4.150613e+01 4.387021e+01 3.818225e+01 3.397352e+01 3.031794e+01 2.930289e+01 5.350798e+01 2.163134e+00 2.849936e+00 3.911737e+00 8.389202e+00 4.130810e+00 5.125141e+00 5.100112e+00 6.638662e+00 4.741024e+00 4.644809e+00 3.765555e+00 4.099873e+00 3.135761e+00
<GCONST> 2.135364e+02
<MIXTURE> 2 1.578392e-01
<MEAN> 39
 2.156136e+01 2.808316e+00 3.678935e+01 1.768694e+01 -2.847416e+00 8.588490e+00 2.122095e+01 -1.339976e+00 -9.206243e-01 1.614431e+01 -3.611464e+00 1.345402e+01 1.144576e+02 4.388001e-01 3.609255e+00 1.081284e-01 3.888697e+00 1.400855e+00 2.472939e+00 3.051079e+00 -8.225504e-01 1.353141e+00 1.473264e+00 -4.434982e-01 6.638417e-01 -2.928608e+00 -5.883145e-01 -2.696749e-01 -4.174209e-02 -4.284198e-01 1.051059e+00 1.563299e-01 -2.676472e-01 1.975057e+00 7.251500e-01 -8.530378e-03 8.167139e-01 2.304421e-01 5.987989e-01
<VARIANCE> 39
 6.503326e+01 2.349855e+02 1.912958e+02 4.318654e+02 3.133004e+02 4.298087e+02 5.896118e+02 5.393834e+02 6.002438e+02 4.668247e+02 4.434764e+02 4.612614e+02 2.048407e+02 4.118475e+00 9.786237e+00 1.250388e+01 2.061571e+01 1.533401e+01 1.982804e+01 2.690919e+01 3.026004e+01 2.460641e+01 2.016952e+01 1.874123e+01 1.736863e+01 5.484286e+00 1.527347e+00 2.031708e+00 3.495442e+00 6.230057e+00 3.786949e+00 5.104095e+00 6.850173e+00 6.679667e+00 5.439333e+00 4.619843e+00 4.452892e+00 4.379258e+00 1.436411e+00
<GCONST> 2.001254e+02
<MIXTURE> 3 1.394593e-01
<MEAN> 39
 2.015703e+01 1.928457e+00 3.706934e+01 2.164043e+01 -1.929503e+00 8.546486e+00 1.813788e+01 4.883528e-02 -6.457125e+00 1.808969e+01 -7.832860e+00 8.376869e+00 1.136075e+02 -3.173214e-01 3.569712e+00 -1.809480e-01 3.195877e+00 1.898590e+00 1.750896e+00 2.894370e+00 3.171962e-01 1.327760e+00 9.440793e-01 -6.206642e-01 -7.301563e-02 -2.993056e+00 -7.951251e-01 -2.948954e-01 -4.226811e-01 -6.786094e-01 1.061531e+00 4.505199e-02 -5.406529e-01 2.014662e+00 1.206133e+00 -1.330169e-01 1.260700e+00 4.992221e-01 5.925467e-01
<VARIANCE> 39
 6.911110e+01 2.127665e+02 1.740690e+02 3.846732e+02 3.303200e+02 4.145933e+02 5.082448e+02 4.856466e+02 5.836005e+02 5.910901e+02 5.711360e+02 4.995519e+02 2.448854e+02 5.612670e+00 1.144054e+01 1.260502e+01 1.718143e+01 1.512312e+01 1.873097e+01 2.470547e+01 2.457107e+01 2.475538e+01 2.293003e+01 2.015466e+01 1.972773e+01 6.880610e+00 2.210320e+00 2.486503e+00 3.613383e+00 6.045319e+00 4.371571e+00 5.149770e+00 7.359260e+00 6.587287e+00 6.340852e+00 5.368497e+00 5.740814e+00 5.390499e+00 1.896495e+00
<GCONST> 2.026758e+02
<MIXTURE> 4 1.106921e-01
<MEAN> 39
 1.327599e+01 -8.188815e+00 4.408624e+01 -4.617213e+00 -1.595156e+00 1.336439e-01 1.537865e+01 1.339984e+01 -4.822421e+00 1.338695e+01 5.908687e-01 1.082326e+01 1.285844e+02 3.010896e+00 5.401721e+00 1.154998e+00 7.071427e+00 1.243600e+00 2.609434e+00 4.685094e+00 -4.368754e+00 -1.722819e-01 2.822631e+00 -1.971739e+00 1.434617e+00 -4.144308e+00 5.703398e-01 3.529658e-01 -9.792486e-01 2.060190e+00 5.678043e-01 8.050697e-01 6.994337e-01 -1.498663e-01 1.135237e+00 1.073163e-01 7.728788e-02 3.171549e-01 -1.404324e-01
<VARIANCE> 39
 1.246697e+02 3.169351e+02 3.348815e+02 6.476217e+02 2.953513e+02 3.325358e+02 5.626311e+02 5.872526e+02 4.392733e+02 3.310803e+02 3.095377e+02 2.572139e+02 4.436457e+02 1.124729e+01 1.407582e+01 3.283022e+01 4.624010e+01 2.720127e+01 3.212360e+01 4.311932e+01 4.126317e+01 3.605517e+01 3.177556e+01 2.551423e+01 2.720482e+01 1.552553e+01 1.492671e+00 2.162135e+00 3.737404e+00 7.170744e+00 3.652068e+00 4.709023e+00 6.011117e+00 6.435649e+00 4.516926e+00 4.222029e+00 3.506894e+00 3.661161e+00 1.775095e+00
<GCONST> 2.080294e+02
<MIXTURE> 5 1.578392e-01
<MEAN> 39
 1.833564e+01 -3.323379e+00 3.125696e+01 9.374395e+00 -9.927534e+00 2.957582e-01 1.150819e+01 -1.062983e+01 -1.072057e+01 7.501855e+00 -1.203502e+01 4.863222e+00 1.087327e+02 -3.729610e-01 2.357937e+00 -1.306305e+00 2.072515e+00 -1.654913e-01 6.917913e-01 9.761165e-01 -3.022915e+00 -6.310531e-01 -3.231552e-01 -2.175144e+00 -1.003186e+00 -3.865350e+00 -1.082658e+00 -8.398269e-01 -7.895861e-01 -1.426823e+00 2.726559e-01 -7.473599e-01 -1.314561e+00 9.412550e-01 -2.077451e-01 -8.682832e-01 -2.736115e-02 -6.066251e-01 1.193975e-01
<VARIANCE> 39
 6.503326e+01 2.349855e+02 1.912958e+02 4.318654e+02 3.133004e+02 4.298087e+02 5.896118e+02 5.393834e+02 6.002438e+02 4.668247e+02 4.434764e+02 4.612614e+02 2.048407e+02 4.118475e+00 9.786237e+00 1.250388e+01 2.061571e+01 1.533401e+01 1.982804e+01 2.690919e+01 3.026004e+01 2.460641e+01 2.016952e+01 1.874123e+01 1.736863e+01 5.484286e+00 1.527347e+00 2.031708e+00 3.495442e+00 6.230057e+00 3.786949e+00 5.104095e+00 6.850173e+00 6.679667e+00 5.439333e+00 4.619843e+00 4.452892e+00 4.379258e+00 1.436411e+00
<GCONST> 2.001254e+02
<MIXTURE> 6 1.394593e-01
<MEAN> 39
 1.683171e+01 -3.906150e+00 3.179193e+01 1.379519e+01 -9.199387e+00 4.018602e-01 9.120163e+00 -8.766121e+00 -1.612025e+01 8.364751e+00 -1.739224e+01 -5.633948e-01 1.073479e+02 -1.264964e+00 2.216758e+00 -1.601090e+00 1.537857e+00 3.430519e-01 1.972455e-02 9.061860e-01 -1.665572e+00 -6.624309e-01 -9.713332e-01 -2.416422e+00 -1.849652e+00 -4.042292e+00 -1.389811e+00 -9.256414e-01 -1.183037e+00 -1.662099e+00 2.251993e-01 -8.626722e-01 -1.625771e+00 9.880338e-01 1.988910e-01 -1.059818e+00 3.022997e-01 -4.294759e-01 4.169354e-02
<VARIANCE> 39
 6.911110e+01 2.127665e+02 1.740690e+02 3.846732e+02 3.303200e+02 4.145933e+02 5.082448e+02 4.856466e+02 5.836005e+02 5.910901e+02 5.711360e+02 4.995519e+02 2.448854e+02 5.612670e+00 1.144054e+01 1.260502e+01 1.718143e+01 1.512312e+01 1.873097e+01 2.470547e+01 2.457107e+01 2.475538e+01 2.293003e+01 2.015466e+01 1.972773e+01 6.880610e+00 2.210320e+00 2.486503e+00 3.613383e+00 6.045319e+00 4.371571e+00 5.149770e+00 7.359260e+00 6.587287e+00 6.340852e+00 5.368497e+00 5.740814e+00 5.390499e+00 1.896495e+00
<GCONST> 2.026758e+02
<MIXTURE> 7 1.106921e-01
<MEAN> 39
 8.809769e+00 -1.530988e+01 3.676633e+01 -1.479658e+01 -8.469471e+00 -7.160582e+00 5.890710e+00 3.706521e+00 -1.320596e+01 6.108705e+00 -6.446605e+00 4.408105e+00 1.201592e+02 1.669416e+00 3.901011e+00 -1.136908e+00 4.351424e+00 -8.425940e-01 3.423263e-01 2.058482e+00 -6.938211e+00 -2.574120e+00 5.678387e-01 -3.992203e+00 -6.517128e-01 -5.720406e+00 8.164015e-02 -2.352023e-01 -1.752543e+00 9.890600e-01 -1.966111e-01 -6.294167e-02 -2.812695e-01 -1.164609e+00 2.851143e-01 -7.145869e-01 -6.717802e-01 -4.482115e-01 -6.733632e-01
<VARIANCE> 39
 1.246697e+02 3.169351e+02 3.348815e+02 6.476217e+02 2.953513e+02 3.325358e+02 5.626311e+02 5.872526e+02 4.392733e+02 3.310803e+02 3.095377e+02 2.572139e+02 4.436457e+02 1.124729e+01 1.407582e+01 3.283022e+01 4.624010e+01 2.720127e+01 3.212360e+01 4.311932e+01 4.126317e+01 3.605517e+01 3.177556e+01 2.551423e+01 2.720482e+01 1.552553e+01 1.492671e+00 2.162135e+00 3.737404e+00 7.170744e+00 3.652068e+00 4.709023e+00 6.011117e+00 6.435649e+00 4.516926e+00 4.222029e+00 3.506894e+00 3.661161e+00 1.775095e+00
<GCONST> 2.080294e+02
<MIXTURE> 8 9.199500e-02
<MEAN> 39
 4.370903e+00 -3.888102e+00 3.100056e+01 -7.170083e+00 -4.782472e+00 -1.122881e+00 1.524065e+01 -4.802862e+00 -5.962703e+00 4.513923e+00 -5.654738e+00 7.647517e+00 1.015962e+02 3.943089e+00 3.884076e+00 2.223084e-01 4.797968e+00 -1.815742e+00 9.064268e-01 1.605724e+00 -7.641770e+00 -9.883699e-01 -7.803082e-01 -2.515920e+00 1.438432e+00 -3.522415e+00 -2.841493e-02 -8.851799e-01 -1.224753e+00 -7.977161e-02 -5.229118e-01 -5.849059e-01 -8.546326e-01 -7.721679e-01 -1.721832e-01 -7.556078e-01 -3.604093e-01 -2.518355e-01 1.679894e-01
<VARIANCE> 39
 2.247931e+02 3.389887e+02 3.214293e+02 6.973685e+02 2.619048e+02 3.676135e+02 3.980491e+02 5.153856e+02 3.601651e+02 3.265018e+02 2.755094e+02 2.588725e+02 7.846915e+02 2.970144e+01 1.782215e+01 4.569122e+01 4.494762e+01 2.764835e+01 3.505660e+01 4.150613e+01 4.387021e+01 3.818225e+01 3.397352e+01 3.031794e+01 2.930289e+01 5.350798e+01 2.163134e+00 2.849936e+00 3.911737e+00 8.389202e+00 4.130810e+00 5.125141e+00 5.100112e+00 6.638662e+00 4.741024e+00 4.644809e+00 3.765555e+00 4.099873e+00 3.135761e+00
<GCONST> 2.135364e+02
<STATE> 3
<NUMMIXES> 8
<MIXTURE> 1 1.480587e-01
<MEAN> 39
 2.385808e+01 1.297205e+01 3.631502e+01 1.934858e+01 -5.776661e+00 1.815122e+01 2.580249e+01 -1.368061e+01 7.763198e+00 9.636633e+00 -3.907099e-01 2.121299e+01 1.052700e+02 -3.382630e-01 8.164394e-02 7.522107e-01 9.725026e-01 1.545620e+00 7.729487e-01 7.029269e-01 2.945035e+00 1.152322e+00 -3.317773e-03 1.325177e+00 1.144337e+00 7.324323e-01 -8.491510e-01 -8.465921e-01 -2.156896e-01 -7.930187e-01 1.328097e+00 -8.115326e-01 -4.828711e-01 2.710133e+00 1.034665e-01 4.407293e-01 5.286990e-01 -3.268940e-01 8.367481e-01
<VARIANCE> 39
 5.182433e+01 2.135995e+02 1.539290e+02 2.198455e+02 2.266177e+02 3.902663e+02 4.612307e+02 4.313781e+02 4.754460e+02 4.178722e+02 4.779230e+02 4.173578e+02 1.572762e+02 5.174072e+00 1.026892e+01 7.166608e+00 1.216098e+01 1.308174e+01 1.990582e+01 1.765545e+01 2.353317e+01 1.546827e+01 1.404035e+01 1.373065e+01 1.504931e+01 1.236255e+01 1.486973e+00 1.968184e+00 2.488636e+00 3.252492e+00 2.902234e+00 3.951216e+00 5.169574e+00 5.187252e+00 4.313860e+00 3.388452e+00 3.931653e+00 3.547654e+00 1.601625e+00
<GCONST> 1.924110e+02
<MIXTURE> 2 1.228952e-01
<MEAN> 39
 1.859645e+01 1.459065e+01 3.492600e+01 2.762365e+01 4.245089e+00 8.969833e+00 2.324498e+01 -7.478952e-02 -1.122287e+00 1.266406e+01 -8.318052e+00 9.837220e+00 1.003696e+02 -9.451842e-01 4.201167e-01 -1.200868e-01 -3.812453e-01 3.983441e+00 1.123694e+00 -7.418115e-01 4.834844e+00 2.851520e+00 8.787488e-01 2.386971e+00 6.441300e-01 2.638235e+00 -1.620458e+00 -1.514302e+00 -1.221091e+00 -1.617602e+00 2.684655e-01 5.614206e-02 -1.033653e+00 1.337463e+00 9.936215e-01 3.167841e-01 1.290530e+00 5.139355e-01 1.036741e+00
<VARIANCE> 39
 8.987690e+01 2.003670e+02 1.418013e+02 2.245541e+02 2.849042e+02 3.671237e+02 3.884849e+02 3.662461e+02 4.971133e+02 4.722076e+02 4.251325e+02 4.491435e+02 2.261091e+02 4.829699e+01 3.256420e+01 3.248465e+01 4.125202e+01 3.527858e+01 4.048763e+01 5.226151e+01 5.008405e+01 4.553863e+01 3.661009e+01 3.422814e+01 3.848109e+01 5.445174e+01 3.915720e+00 2.669033e+00 2.856183e+00 3.335691e+00 4.061512e+00 4.507644e+00 4.986076e+00 4.853978e+00 5.597891e+00 4.284482e+00 4.297247e+00 4.384801e+00 2.036407e+00
<GCONST> 2.110288e+02
<MIXTURE> 3 1.280338e-01
<MEAN> 39
 2.260712e+01 6.972345e+00 3.924258e+01 2.074935e+01 -6.956060e+00 1.285539e+01 2.363827e+01 -1.351809e+01 3.260823e+00 1.092751e+01 -4.191385e+00 2.104784e+01 1.101938e+02 -6.188268e-01 -2.135232e+00 3.859270e-02 -1.746541e+00 3.167612e+00 -2.040438e+00 -1.344934e+00 6.417016e+00 1.215338e+00 2.204844e-01 7.685795e-01 4.248981e-01 4.362314e+00 -1.188622e+00 -1.247874e+00 -1.247657e+00 -1.711989e+00 1.726285e+00 -6.210362e-01 -1.190787e+00 3.624209e+00 7.397752e-01 3.767105e-01 8.874137e-01 -6.062165e-01 1.161865e+00
<VARIANCE> 39
 5.735262e+01 2.042712e+02 1.508168e+02 2.720016e+02 2.289876e+02 4.265577e+02 4.869342e+02 4.301953e+02 5.299944e+02 4.559941e+02 5.149509e+02 5.249891e+02 1.701783e+02 1.084122e+01 1.764290e+01 1.396772e+01 2.574181e+01 2.353259e+01 3.945549e+01 3.522376e+01 4.647206e+01 2.554929e+01 2.054190e+01 2.111775e+01 2.508421e+01 2.787969e+01 2.676062e+00 2.469395e+00 3.323714e+00 4.492445e+00 4.136703e+00 5.631812e+00 6.661187e+00 6.953014e+00 6.934902e+00 4.304867e+00 5.325823e+00 5.681012e+00 2.827999e+00
<GCONST> 2.061064e+02
<MIXTURE> 4 1.009967e-01
<MEAN> 39
 1.408354e+01 1.871030e+01 3.467111e+01 2.756769e+01 8.852883e+00 1.490440e+01 2.295700e+01 -2.984986e-01 1.216700e+00 1.034754e+01 -7.524193e+00 1.060223e+01 9.543308e+01 -5.839789e+00 -5.449547e-01 -3.731205e+00 -1.662786e-01 3.931311e+00 9.971170e-01 -1.490205e+00 6.085179e+00 1.081786e+00 9.973183e-01 2.586483e+00 -1.779804e+00 -8.739107e-01 -1.582425e+00 -1.799544e+00 -1.563341e+00 -1.833845e+00 -9.383878e-01 -9.105514e-01 -1.028350e+00 5.728729e-01 4.959760e-01 2.196927e-01 1.087148e+00 6.836585e-01 1.329137e+00
<VARIANCE> 39
 9.546192e+01 1.676349e+02 1.258883e+02 1.932519e+02 2.310230e+02 3.026580e+02 3.107284e+02 3.686230e+02 3.636386e+02 4.034196e+02 3.661342e+02 3.483665e+02 1.873467e+02 3.434438e+01 2.498062e+01 2.640438e+01 2.908393e+01 2.708425e+01 3.566999e+01 4.214203e+01 3.983193e+01 4.570173e+01 4.204709e+01 4.424771e+01 4.130672e+01 3.464783e+01 3.205121e+00 2.618087e+00 2.697846e+00 2.936030e+00 4.431346e+00 4.403631e+00 4.643887e+00 5.868335e+00 4.667294e+00 4.631408e+00 4.315011e+00 4.453698e+00 2.728176e+00
<GCONST> 2.069664e+02
<MIXTURE> 5 1.480587e-01
<MEAN> 39
 2.097852e+01 7.126031e+00 3.135230e+01 1.341770e+01 -1.179819e+01 1.024916e+01 1.721198e+01 -2.198847e+01 -9.586918e-01 1.459864e+00 -9.135290e+00 1.304125e+01 1.002536e+02 -1.248127e+00 -1.200162e+00 -3.186101e-01 -4.224013e-01 9.887272e-02 -1.011689e+00 -9.778087e-01 1.004595e+00 -4.208674e-01 -1.502136e+00 -1.570188e-01 -4.074006e-01 -6.739845e-01 -1.336917e+00 -1.407760e+00 -8.467060e-01 -1.514405e+00 6.466589e-01 -1.606639e+00 -1.392339e+00 1.799111e+00 -7.273269e-01 -2.955807e-01 -2.644368e-01 -1.080303e+00 3.305268e-01
<VARIANCE> 39
 5.182433e+01 2.135995e+02 1.539290e+02 2.198455e+02 2.266177e+02 3.902663e+02 4.612307e+02 4.313781e+02 4.754460e+02 4.178722e+02 4.779230e+02 4.173578e+02 1.572762e+02 5.174072e+00 1.026892e+01 7.166608e+00 1.216098e+01 1.308174e+01 1.990582e+01 1.765545e+01 2.353317e+01 1.546827e+01 1.404035e+01 1.373065e+01 1.504931e+01 1.236255e+01 1.486973e+00 1.968184e+00 2.488636e+00 3.252492e+00 2.902234e+00 3.951216e+00 5.169574e+00 5.187252e+00 4.313860e+00 3.388452e+00 3.931653e+00 3.547654e+00 1.601625e+00
<GCONST> 1.924110e+02
<MIXTURE> 6 1.280338e-01
<MEAN> 39
 1.957786e+01 1.255406e+00 3.433028e+01 1.415236e+01 -1.300900e+01 4.594082e+00 1.481163e+01 -2.181455e+01 -5.947820e+00 2.385901e+00 -1.326840e+01 1.188278e+01 1.049758e+02 -1.935867e+00 -3.815370e+00 -1.456344e+00 -3.775997e+00 1.227196e+00 -4.552982e+00 -3.718918e+00 3.690198e+00 -8.065137e-01 -1.592443e+00 -1.069583e+00 -1.578467e+00 2.250266e+00 -1.842968e+00 -1.876446e+00 -1.976899e+00 -2.559805e+00 9.127293e-01 -1.570294e+00 -2.223158e+00 2.569467e+00 -3.135929e-01 -4.532164e-01 -3.569609e-02 -1.559611e+00 4.891992e-01
<VARIANCE> 39
 5.735262e+01 2.042712e+02 1.508168e+02 2.720016e+02 2.289876e+02 4.265577e+02 4.869342e+02 4.301953e+02 5.299944e+02 4.559941e+02 5.149509e+02 5.249891e+02 1.701783e+02 1.084122e+01 1.764290e+01 1.396772e+01 2.574181e+01 2.353259e+01 3.945549e+01 3.522376e+01 4.647206e+01 2.554929e+01 2.054190e+01 2.111775e+01 2.508421e+01 2.787969e+01 2.676062e+00 2.469395e+00 3.323714e+00 4.492445e+00 4.136703e+00 5.631812e+00 6.661187e+00 6.953014e+00 6.934902e+00 4.304867e+00 5.325823e+00 5.681012e+00 2.827999e+00
<GCONST> 2.061064e+02
<MIXTURE> 7 1.228952e-01
<MEAN> 39
 1.480431e+01 8.928609e+00 3.016278e+01 2.162959e+01 -2.506554e+00 1.305645e+00 1.536097e+01 -7.729813e+00 -1.004070e+01 3.971928e+00 -1.656555e+01 1.360018e+00 9.435483e+01 -3.725026e+00 -1.862485e+00 -2.399899e+00 -2.950355e+00 1.607611e+00 -1.421502e+00 -3.633497e+00 2.004040e+00 1.522276e-01 -1.541502e+00 4.677761e-02 -1.837195e+00 -3.134226e-01 -2.411986e+00 -2.167789e+00 -1.897101e+00 -2.348156e+00 -5.376623e-01 -7.931064e-01 -1.926833e+00 4.561936e-01 4.722694e-02 -5.111755e-01 4.613375e-01 -3.236611e-01 4.659302e-01
<VARIANCE> 39
 8.987690e+01 2.003670e+02 1.418013e+02 2.245541e+02 2.849042e+02 3.671237e+02 3.884849e+02 3.662461e+02 4.971133e+02 4.722076e+02 4.251325e+02 4.491435e+02 2.261091e+02 4.829699e+01 3.256420e+01 3.248465e+01 4.125202e+01 3.527858e+01 4.048763e+01 5.226151e+01 5.008405e+01 4.553863e+01 3.661009e+01 3.422814e+01 3.848109e+01 5.445174e+01 3.915720e+00 2.669033e+00 2.856183e+00 3.335691e+00 4.061512e+00 4.507644e+00 4.986076e+00 4.853978e+00 5.597891e+00 4.284482e+00 4.297247e+00 4.384801e+00 2.036407e+00
<GCONST> 2.110288e+02
<MIXTURE> 8 1.009967e-01
<MEAN> 39
 1.017536e+01 1.353134e+01 3.018311e+01 2.200709e+01 2.773107e+00 7.945576e+00 1.590600e+01 -7.978322e+00 -6.411024e+00 2.313416e+00 -1.517805e+01 3.136400e+00 8.995809e+01 -8.183952e+00 -2.544179e+00 -5.786613e+00 -2.323459e+00 1.849609e+00 -1.391857e+00 -4.086881e+00 3.560677e+00 -1.622336e+00 -1.596431e+00 -7.427514e-02 -4.350616e+00 -3.228407e+00 -2.298539e+00 -2.446764e+00 -2.220345e+00 -2.519239e+00 -1.780418e+00 -1.749945e+00 -1.890338e+00 -3.961129e-01 -3.681809e-01 -6.411356e-01 2.562442e-01 -1.604930e-01 6.684490e-01
<VARIANCE> 39
 9.546192e+01 1.676349e+02 1.258883e+02 1.932519e+02 2.310230e+02 3.026580e+02 3.107284e+02 3.686230e+02 3.636386e+02 4.034196e+02 3.661342e+02 3.483665e+02 1.873467e+02 3.434438e+01 2.498062e+01 2.640438e+01 2.908393e+01 2.708425e+01 3.566999e+01 4.214203e+01 3.983193e+01 4.570173e+01 4.204709e+01 4.424771e+01 4.130672e+01 3.464783e+01 3.205121e+00 2.618087e+00 2.697846e+00 2.936030e+00 4.431346e+00 4.403631e+00 4.643887e+00 5.868335e+00 4.667294e+00 4.631408e+00 4.315011e+00 4.453698e+00 2.728176e+00
<GCONST> 2.069664e+02
<STATE> 4
<NUMMIXES> 8
<MIXTURE> 1 1.001218e-01
<MEAN> 39
 1.716392e+01 -1.736437e+01 2.952885e+01 -6.438000e+00 9.809897e+00 -4.605839e+00 1.523049e+00 2.292628e+01 6.030145e+00 1.397184e+01 -2.084348e+00 1.289190e+01 1.357706e+02 -3.842877e-01 -5.272770e+00 -4.681889e+00 -5.812822e+00 3.772636e+00 9.398941e-01 -3.040914e+00 7.826892e+00 3.546255e+00 5.820051e-01 2.739186e+00 -2.180707e-01 6.422570e+00 4.904601e-01 1.234898e+00 -9.493384e-02 2.078152e+00 -1.830316e-01 2.120380e+00 1.806447e+00 -1.519588e+00 4.489736e-01 1.413961e-01 5.856289e-01 8.302081e-02 -1.070837e+00
<VARIANCE> 39
 7.955763e+01 2.249088e+02 2.298798e+02 3.247368e+02 2.791914e+02 3.589080e+02 7.359179e+02 4.155606e+02 3.252005e+02 4.240666e+02 3.312199e+02 3.422182e+02 2.406558e+02 5.156827e+00 1.843557e+01 1.725622e+01 3.208380e+01 3.027544e+01 3.380302e+01 4.605997e+01 4.343474e+01 4.617828e+01 2.765668e+01 3.056599e+01 2.663862e+01 1.474986e+01 7.260946e-01 2.231671e+00 2.729921e+00 4.795024e+00 3.639783e+00 5.660941e+00 7.986330e+00 6.699864e+00 4.873898e+00 3.826206e+00 3.827220e+00 3.394331e+00 1.711064e+00
<GCONST> 2.038277e+02
<MIXTURE> 2 1.925876e-01
<MEAN> 39
 -6.465530e-02 4.479653e+00 2.113397e+01 2.577517e+01 8.889265e+00 9.198500e+00 2.058815e+01 1.425999e+01 6.481870e+00 6.069665e+00 -5.431261e+00 6.873102e+00 8.239843e+01 -2.525251e+00 -1.787815e-01 -2.293223e+00 -7.710139e-01 5.855739e-01 3.415031e-01 -6.119360e-01 1.924821e+00 1.597721e+00 3.894635e-01 1.623375e+00 2.932587e-01 -1.898884e+00 4.000537e-01 2.474783e-01 3.505470e-01 -2.984840e-01 -8.604819e-02 -1.242558e-01 -1.156902e-01 -2.735158e-01 -5.603853e-02 5.190202e-01 3.686149e-01 4.638804e-01 6.770089e-01
<VARIANCE> 39
 1.261890e+02 1.442432e+02 2.171545e+02 2.571785e+02 2.287176e+02 2.661939e+02 3.329003e+02 3.475399e+02 3.430907e+02 3.411431e+02 2.670701e+02 2.463422e+02 2.296516e+02 1.460760e+01 1.262821e+01 1.310018e+01 1.618244e+01 1.498656e+01 1.797678e+01 1.809732e+01 2.173875e+01 2.125651e+01 1.802808e+01 1.848204e+01 1.623550e+01 8.053305e+00 1.325656e+00 2.052287e+00 2.335730e+00 2.881573e+00 2.844171e+00 3.323465e+00 3.512979e+00 3.869232e+00 3.722821e+00 3.094902e+00 3.053727e+00 2.804223e+00 1.071141e+00
<GCONST> 1.916010e+02
<MIXTURE> 3 1.229957e-01
<MEAN> 39
 -6.927214e+00 6.245131e+00 1.841840e+01 2.060619e+01 9.016890e+00 1.267553e+01 1.862699e+01 1.191341e+01 2.994125e+00 6.950975e+00 -2.489443e+00 5.700821e+00 8.465533e+01 -6.267354e+00 -2.731564e+00 -5.772432e+00 -3.689360e+00 -1.480842e+00 -2.480304e+00 -3.874897e+00 1.154514e+00 -2.937782e-02 -3.803065e-01 1.741364e+00 -5.221910e-01 -1.238457e+00 9.371279e-01 2.628228e-01 5.074659e-01 -2.818330e-01 -7.588992e-01 -4.099011e-01 -2.324125e-01 -9.185597e-01 1.127802e-01 2.441652e-01 2.397439e-01 1.090488e+00 1.487427e+00
<VARIANCE> 39
 1.107043e+02 1.644308e+02 1.620337e+02 1.962911e+02 2.060516e+02 2.218494e+02 2.765407e+02 3.138060e+02 2.577997e+02 2.970355e+02 2.151092e+02 1.931322e+02 3.006176e+02 3.016045e+01 1.555778e+01 1.777116e+01 1.711385e+01 1.917900e+01 2.121807e+01 2.456945e+01 2.895980e+01 2.755001e+01 2.358887e+01 2.812300e+01 2.366555e+01 1.835314e+01 2.094108e+00 3.388764e+00 2.800443e+00 3.470369e+00 4.284213e+00 4.189660e+00 4.595847e+00 4.786605e+00 4.624378e+00 4.568749e+00 4.503012e+00 4.258940e+00 3.841801e+00
<GCONST> 1.994359e+02
<MIXTURE> 4 8.427915e-02
<MEAN> 39
 1.096332e+01 -1.270982e+01 2.815212e+01 -1.596816e+00 5.093802e+00 -8.917774e+00 2.745316e+00 2.021576e+01 3.846049e+00 8.540659e+00 -2.831659e+00 1.220155e+01 1.244829e+02 -1.467593e+00 -3.735624e+00 -4.327063e+00 -4.675954e+00 2.333904e+00 -1.350247e+00 -2.572351e+00 7.933277e+00 3.719759e+00 -2.500534e-02 1.994726e+00 -7.250713e-01 4.709086e+00 4.427567e-01 1.188494e+00 -2.578693e-01 1.936718e+00 1.753168e-01 2.469197e+00 1.680143e+00 -1.130784e+00 6.760560e-01 4.278577e-01 4.389002e-01 -1.058207e-01 -9.774486e-01
<VARIANCE> 39
 1.577753e+02 1.758645e+02 3.087253e+02 2.893901e+02 2.827189e+02 3.439217e+02 5.732000e+02 3.799493e+02 3.626719e+02 4.778112e+02 3.443478e+02 3.359720e+02 5.381098e+02 9.112469e+00 2.474778e+01 2.029049e+01 3.555918e+01 3.464439e+01 4.265095e+01 4.404535e+01 5.594286e+01 4.832090e+01 3.216340e+01 3.209746e+01 3.579184e+01 3.783917e+01 1.416265e+00 2.442801e+00 3.882670e+00 4.274273e+00 4.193397e+00 5.775664e+00 7.135660e+00 6.588045e+00 5.392903e+00 4.752170e+00 4.506368e+00 4.137349e+00 2.270287e+00
<GCONST> 2.103069e+02
<MIXTURE> 5 1.925876e-01
<MEAN> 39
 -4.558011e+00 -3.243978e-01 1.523951e+01 1.936045e+01 2.839900e+00 2.672319e+00 1.328993e+01 6.803026e+00 -9.272137e-01 -1.318359e+00 -1.196817e+01 5.949857e-01 7.633672e+01 -4.054047e+00 -1.600229e+00 -3.740989e+00 -2.380110e+00 -9.629253e-01 -1.354458e+00 -2.313574e+00 5.982745e-02 -2.464706e-01 -1.308916e+00 -9.625477e-02 -1.318473e+00 -3.034018e+00 -6.049487e-02 -3.255540e-01 -2.607769e-01 -9.774919e-01 -7.606350e-01 -8.534708e-01 -8.654079e-01 -1.060330e+00 -8.278230e-01 -1.846732e-01 -3.303818e-01 -2.059522e-01 2.630251e-01
<VARIANCE> 39
 1.261890e+02 1.442432e+02 2.171545e+02 2.571785e+02 2.287176e+02 2.661939e+02 3.329003e+02 3.475399e+02 3.430907e+02 3.411431e+02 2.670701e+02 2.463422e+02 2.296516e+02 1.460760e+01 1.262821e+01 1.310018e+01 1.618244e+01 1.498656e+01 1.797678e+01 1.809732e+01 2.173875e+01 2.125651e+01 1.802808e+01 1.848204e+01 1.623550e+01 8.053305e+00 1.325656e+00 2.052287e+00 2.335730e+00 2.881573e+00 2.844171e+00 3.323465e+00 3.512979e+00 3.869232e+00 3.722821e+00 3.094902e+00 3.053727e+00 2.804223e+00 1.071141e+00
<GCONST> 1.916010e+02
<MIXTURE> 6 1.229957e-01
<MEAN> 39
 -1.113586e+01 1.115908e+00 1.332670e+01 1.500203e+01 3.275090e+00 6.717685e+00 1.197519e+01 4.827584e+00 -3.428332e+00 5.708838e-02 -8.356083e+00 1.419406e-01 7.772000e+01 -8.464096e+00 -4.309298e+00 -7.458666e+00 -5.344116e+00 -3.232596e+00 -4.322827e+00 -5.857601e+00 -9.980589e-01 -2.128902e+00 -2.323041e+00 -3.798810e-01 -2.468081e+00 -2.952079e+00 3.582866e-01 -4.735210e-01 -1.619151e-01 -1.026990e+00 -1.586833e+00 -1.228647e+00 -1.089930e+00 -1.793692e+00 -7.473944e-01 -6.108202e-01 -6.090683e-01 2.649996e-01 7.034068e-01
<VARIANCE> 39
 1.107043e+02 1.644308e+02 1.620337e+02 1.962911e+02 2.060516e+02 2.218494e+02 2.765407e+02 3.138060e+02 2.577997e+02 2.970355e+02 2.151092e+02 1.931322e+02 3.006176e+02 3.016045e+01 1.555778e+01 1.777116e+01 1.711385e+01 1.917900e+01 2.121807e+01 2.456945e+01 2.895980e+01 2.755001e+01 2.358887e+01 2.812300e+01 2.366555e+01 1.835314e+01 2.094108e+00 3.388764e+00 2.800443e+00 3.470369e+00 4.284213e+00 4.189660e+00 4.595847e+00 4.786605e+00 4.624378e+00 4.568749e+00 4.503012e+00 4.258940e+00 3.841801e+00
<GCONST> 1.994359e+02
<MIXTURE> 7 1.001218e-01
<MEAN> 39
 1.359612e+01 -2.336315e+01 2.346413e+01 -1.364618e+01 3.126288e+00 -1.218379e+01 -9.328074e+00 1.477216e+01 -1.183181e+00 5.734688e+00 -9.364128e+00 5.492242e+00 1.295654e+02 -1.292634e+00 -6.990236e+00 -6.343513e+00 -8.078526e+00 1.571712e+00 -1.385720e+00 -5.755614e+00 5.190690e+00 8.280710e-01 -1.521580e+00 5.277256e-01 -2.282575e+00 4.886348e+00 1.496153e-01 6.373467e-01 -7.558328e-01 1.202250e+00 -9.461602e-01 1.168670e+00 6.760431e-01 -2.554952e+00 -4.341026e-01 -6.410315e-01 -1.969023e-01 -6.539276e-01 -1.594067e+00
<VARIANCE> 39
 7.955763e+01 2.249088e+02 2.298798e+02 3.247368e+02 2.791914e+02 3.589080e+02 7.359179e+02 4.155606e+02 3.252005e+02 4.240666e+02 3.312199e+02 3.422182e+02 2.406558e+02 5.156827e+00 1.843557e+01 1.725622e+01 3.208380e+01 3.027544e+01 3.380302e+01 4.605997e+01 4.343474e+01 4.617828e+01 2.765668e+01 3.056599e+01 2.663862e+01 1.474986e+01 7.260946e-01 2.231671e+00 2.729921e+00 4.795024e+00 3.639783e+00 5.660941e+00 7.986330e+00 6.699864e+00 4.873898e+00 3.826206e+00 3.827220e+00 3.394331e+00 1.711064e+00
<GCONST> 2.038277e+02
<MIXTURE> 8 8.427915e-02
<MEAN> 39
 5.938976e+00 -1.801438e+01 2.112388e+01 -8.401404e+00 -1.631896e+00 -1.633582e+01 -6.831322e+00 1.241884e+01 -3.771530e+00 -2.028985e-01 -1.025430e+01 4.869730e+00 1.152041e+02 -2.675067e+00 -5.725510e+00 -6.128861e+00 -7.061214e+00 -2.047575e-02 -3.962555e+00 -5.227018e+00 4.941479e+00 9.392292e-01 -2.293517e+00 -2.714589e-01 -3.118123e+00 2.248544e+00 -3.327106e-02 5.633154e-01 -1.046049e+00 1.109746e+00 -6.437947e-01 1.507893e+00 6.116369e-01 -2.157472e+00 -2.528490e-01 -4.441213e-01 -4.102281e-01 -9.194397e-01 -1.580147e+00
<VARIANCE> 39
 1.577753e+02 1.758645e+02 3.087253e+02 2.893901e+02 2.827189e+02 3.439217e+02 5.732000e+02 3.799493e+02 3.626719e+02 4.778112e+02 3.443478e+02 3.359720e+02 5.381098e+02 9.112469e+00 2.474778e+01 2.029049e+01 3.555918e+01 3.464439e+01 4.265095e+01 4.404535e+01 5.594286e+01 4.832090e+01 3.216340e+01 3.209746e+01 3.579184e+01 3.783917e+01 1.416265e+00 2.442801e+00 3.882670e+00 4.274273e+00 4.193397e+00 5.775664e+00 7.135660e+00 6.588045e+00 5.392903e+00 4.752170e+00 4.506368e+00 4.137349e+00 2.270287e+00
<GCONST> 2.103069e+02
<TRANSP> 5
 0.000000e+00 1.000000e+00 0.000000e+00 0.000000e+00 0.000000e+00
 0.000000e+00 6.342649e-01 3.657351e-01 0.000000e+00 0.000000e+00
 0.000000e+00 0.000000e+00 6.215062e-01 3.784938e-01 0.000000e+00
 0.000000e+00 0.000000e+00 0.000000e+00 6.705933e-01 3.294067e-01
 0.000000e+00 0.000000e+00 0.000000e+00 0.000000e+00 0.000000e+00
<ENDHMM>
~h "r"
<BEGINHMM>
<NUMSTATES> 5
<STATE> 2
<NUMMIXES> 8
<MIXTURE> 1 1.454053e-01
<MEAN> 39
 3.846079e+01 -1.653479e+01 -2.124632e+00 6.178321e+00 2.962775e+01 -2.544321e+01 -2.148753e+01 8.817080e+00 -2.258684e+00 1.161411e+01 4.675705e+00 1.177771e+01 1.304871e+02 1.241289e+00 4.143567e-01 -2.227104e+00 -7.379925e-01 1.507231e+00 1.232569e+00 3.788678e-01 8.780535e-01 1.629342e+00 1.708129e+00 1.418569e+00 1.082968e+00 1.477500e-01 -5.847721e-01 -1.591836e-02 1.608260e+00 1.094782e-02 -1.147953e+00 2.849683e-01 1.491136e+00 6.715415e-01 -3.106354e-01 1.353107e-01 5.112182e-01 2.651608e-01 4.028804e-01
<VARIANCE> 39
 5.898602e+01 1.669624e+02 4.315069e+02 2.598446e+02 3.752995e+02 7.729925e+02 1.091636e+03 3.859715e+02 3.236293e+02 3.313876e+02 2.375859e+02 1.796609e+02 1.609254e+02 3.028914e+00 4.352403e+00 1.363030e+01 9.315330e+00 1.373528e+01 1.403243e+01 1.393268e+01 1.407785e+01 1.316666e+01 1.026716e+01 1.073124e+01 1.011280e+01 2.821589e+00 2.659649e-01 5.924045e-01 8.088078e-01 1.055664e+00 1.247755e+00 2.335417e+00 1.717760e+00 2.080295e+00 1.728136e+00 1.622129e+00 1.624709e+00 1.479162e+00 3.098552e-01
<GCONST> 1.750213e+02
<MIXTURE> 2 1.008931e-01
<MEAN> 39
 4.064035e+01 -8.709925e+00 -8.824135e+00 3.929949e+00 3.247050e+01 -5.003206e+00 -2.452421e+01 -8.415604e-02 -7.215810e+00 1.001783e+01 6.257069e+00 1.129445e+01 1.250581e+02 6.972485e-01 -6.890402e-01 4.209492e-01 2.615583e+00 2.568484e+00 -1.527498e+00 -5.590030e-01 2.014462e+00 3.064726e+00 1.811516e+00 5.571219e-01 7.385495e-01 9.071456e-01 -1.379979e+00 5.855206e-02 2.795421e+00 8.752740e-01 -1.895427e+00 -3.576306e-01 2.196300e+00 1.760026e+00 5.341645e-01 -1.268721e-01 7.016301e-03 4.424771e-01 3.656300e-01
<VARIANCE> 39
 6.495914e+01 1.804072e+02 4.570586e+02 4.047375e+02 4.229410e+02 7.989339e+02 8.181116e+02 4.244813e+02 3.297928e+02 4.147803e+02 2.815611e+02 2.508172e+02 1.526249e+02 7.232985e+00 1.269546e+01 2.683331e+01 2.405507e+01 2.156278e+01 4.619609e+01 2.819828e+01 3.252478e+01 2.531780e+01 2.236582e+01 1.883836e+01 1.840015e+01 1.094816e+01 1.809713e+00 2.061238e+00 2.845182e+00 3.112084e+00 4.199219e+00 6.295154e+00 6.042230e+00 4.384662e+00 4.663571e+00 4.066103e+00 3.692068e+00 3.480304e+00 1.397725e+00
<GCONST> 2.018569e+02
<MIXTURE> 3 1.562085e-01
<MEAN> 39
 3.621465e+01 -1.900025e+01 5.745407e+00 7.905195e+00 2.644223e+01 -2.215015e+01 -2.549718e+01 1.035325e+01 -4.529744e+00 7.869448e+00 5.596404e+00 9.264233e+00 1.323504e+02 1.685057e+00 5.089266e-01 -3.010076e+00 -1.034688e+00 2.325091e+00 1.423777e+00 -4.428608e-01 2.980881e-01 1.678404e+00 2.066604e+00 1.291172e+00 8.617844e-01 6.113830e-02 -5.417190e-01 8.402868e-02 1.470174e+00 -9.873062e-02 -1.114123e+00 4.606152e-01 1.329367e+00 5.177447e-01 -2.601374e-01 3.534948e-01 3.945472e-01 2.665963e-01 3.999532e-01
<VARIANCE> 39
 6.559606e+01 1.770027e+02 4.820949e+02 3.067768e+02 3.791762e+02 8.258723e+02 1.135892e+03 3.929641e+02 3.126398e+02 4.130674e+02 2.552505e+02 1.856666e+02 1.677167e+02 3.382663e+00 4.192165e+00 1.497880e+01 8.943593e+00 1.457831e+01 1.342820e+01 1.430406e+01 1.520462e+01 1.270324e+01 1.087684e+01 1.037414e+01 1.001988e+01 2.678263e+00 2.803575e-01 6.133325e-01 7.988154e-01 1.193853e+00 1.222680e+00 2.440474e+00 1.827574e+00 2.247420e+00 1.791045e+00 1.772430e+00 1.660075e+00 1.464872e+00 3.170898e-01
<GCONST> 1.766209e+02
<MIXTURE> 4 9.747155e-02
<MEAN> 39
 3.895726e+01 -1.376744e+01 -1.849450e+00 5.078065e+00 3.140696e+01 -2.766695e+00 -2.898843e+01 4.424477e-02 -6.709068e+00 9.978651e+00 5.699419e+00 7.687277e+00 1.278784e+02 3.284111e-01 -2.046205e+00 2.491826e+00 3.498564e+00 1.672095e+00 -3.453833e+00 -1.997965e+00 3.948730e+00 3.195543e+00 1.054126e+00 2.275741e-02 -6.852859e-02 1.976087e+00 -1.468469e+00 3.766451e-01 2.682552e+00 8.259615e-01 -2.107924e+00 -4.622323e-01 2.644678e+00 1.967852e+00 2.822080e-01 -3.243665e-01 -1.202464e-02 6.658590e-01 1.400553e-01
<VARIANCE> 39
 6.629221e+01 1.826389e+02 4.518973e+02 4.401554e+02 4.218922e+02 7.249032e+02 9.273901e+02 4.340886e+02 3.415644e+02 5.048098e+02 2.879645e+02 2.627535e+02 1.575822e+02 7.965304e+00 1.102471e+01 2.601881e+01 2.505920e+01 2.023734e+01 3.780224e+01 2.663133e+01 3.342751e+01 2.849393e+01 2.460483e+01 1.907898e+01 1.932872e+01 1.043949e+01 2.654853e+00 2.123543e+00 2.729647e+00 3.177139e+00 4.004545e+00 5.609380e+00 6.761133e+00 4.253507e+00 4.651543e+00 4.792470e+00 3.882548e+00 3.875672e+00 1.279315e+00
<GCONST> 2.027848e+02
<MIXTURE> 5 1.562085e-01
<MEAN> 39
 3.297499e+01 -2.432195e+01 -3.037257e+00 8.991768e-01 1.865325e+01 -3.364535e+01 -3.897838e+01 2.423923e+00 -1.160239e+01 -2.601762e-01 -7.942202e-01 3.813851e+00 1.271702e+02 9.493766e-01 -3.100644e-01 -4.558174e+00 -2.230922e+00 7.978290e-01 -4.200381e-02 -1.955689e+00 -1.261636e+00 2.527397e-01 7.474020e-01 2.815962e-03 -4.043834e-01 -5.934777e-01 -7.535142e-01 -2.292335e-01 1.112668e+00 -5.357850e-01 -1.556423e+00 -1.642655e-01 7.886153e-01 -8.191127e-02 -7.954571e-01 -1.790357e-01 -1.208284e-01 -2.175313e-01 1.747103e-01
<VARIANCE> 39
 6.559606e+01 1.770027e+02 4.820949e+02 3.067768e+02 3.791762e+02 8.258723e+02 1.135892e+03 3.929641e+02 3.126398e+02 4.130674e+02 2.552505e+02 1.856666e+02 1.677167e+02 3.382663e+00 4.192165e+00 1.497880e+01 8.943593e+00 1.457831e+01 1.342820e+01 1.430406e+01 1.520462e+01 1.270324e+01 1.087684e+01 1.037414e+01 1.001988e+01 2.678263e+00 2.803575e-01 6.133325e-01 7.988154e-01 1.193853e+00 1.222680e+00 2.440474e+00 1.827574e+00 2.247420e+00 1.791045e+00 1.772430e+00 1.660075e+00 1.464872e+00 3.170898e-01
<GCONST> 1.766209e+02
<MIXTURE> 6 1.454053e-01
<MEAN> 39
 3.538869e+01 -2.170335e+01 -1.043373e+01 -2.695572e-01 2.187869e+01 -3.656431e+01 -3.470350e+01 9.586174e-01 -9.454564e+00 4.332484e+00 -1.489823e+00 6.416205e+00 1.254129e+02 5.451381e-01 -4.201398e-01 -3.703874e+00 -1.958833e+00 2.478498e-02 -2.658268e-01 -1.114192e+00 -6.227649e-01 1.779068e-01 4.264328e-01 1.082256e-01 -1.890574e-01 -5.241534e-01 -7.910593e-01 -3.237897e-01 1.248525e+00 -4.000342e-01 -1.594765e+00 -3.263146e-01 9.668823e-01 9.461233e-02 -8.364698e-01 -3.741407e-01 1.361966e-03 -2.213224e-01 1.802218e-01
<VARIANCE> 39
 5.898602e+01 1.669624e+02 4.315069e+02 2.598446e+02 3.752995e+02 7.729925e+02 1.091636e+03 3.859715e+02 3.236293e+02 3.313876e+02 2.375859e+02 1.796609e+02 1.609254e+02 3.028914e+00 4.352403e+00 1.363030e+01 9.315330e+00 1.373528e+01 1.403243e+01 1.393268e+01 1.407785e+01 1.316666e+01 1.026716e+01 1.073124e+01 1.011280e+01 2.821589e+00 2.659649e-01 5.924045e-01 8.088078e-01 1.055664e+00 1.247755e+00 2.335417e+00 1.717760e+00 2.080295e+00 1.728136e+00 1.622129e+00 1.624709e+00 1.479162e+00 3.098552e-01
<GCONST> 1.750213e+02
<MIXTURE> 7 1.008931e-01
<MEAN> 39
 3.741645e+01 -1.408256e+01 -1.737571e+01 -4.117286e+00 2.424428e+01 -1.630937e+01 -3.596527e+01 -8.325334e+00 -1.447989e+01 1.871367e+00 -4.548445e-01 4.959563e+00 1.201165e+02 -3.785199e-01 -2.114268e+00 -1.651086e+00 6.537446e-01 7.110541e-01 -4.246206e+00 -2.683085e+00 -2.667580e-01 1.052054e+00 -8.018464e-02 -1.179005e+00 -9.772664e-01 -4.163746e-01 -1.918081e+00 -5.157285e-01 2.120715e+00 1.696300e-01 -2.715107e+00 -1.361236e+00 1.213062e+00 9.224423e-01 -3.296475e-01 -9.334553e-01 -7.615739e-01 -3.037458e-01 -1.072716e-01
<VARIANCE> 39
 6.495914e+01 1.804072e+02 4.570586e+02 4.047375e+02 4.229410e+02 7.989339e+02 8.181116e+02 4.244813e+02 3.297928e+02 4.147803e+02 2.815611e+02 2.508172e+02 1.526249e+02 7.232985e+00 1.269546e+01 2.683331e+01 2.405507e+01 2.156278e+01 4.619609e+01 2.819828e+01 3.252478e+01 2.531780e+01 2.236582e+01 1.883836e+01 1.840015e+01 1.094816e+01 1.809713e+00 2.061238e+00 2.845182e+00 3.112084e+00 4.199219e+00 6.295154e+00 6.042230e+00 4.384662e+00 4.663571e+00 4.066103e+00 3.692068e+00 3.480304e+00 1.397725e+00
<GCONST> 2.018569e+02
<MIXTURE> 8 9.747155e-02
<MEAN> 39
 3.570046e+01 -1.917320e+01 -1.035260e+01 -3.313888e+00 2.319096e+01 -1.353630e+01 -4.116966e+01 -8.289673e+00 -1.410165e+01 9.914622e-01 -1.088387e+00 1.203407e+00 1.228572e+02 -8.005037e-01 -3.374345e+00 4.514803e-01 1.496198e+00 -1.273419e-01 -5.913174e+00 -4.062187e+00 1.636069e+00 1.060355e+00 -9.300039e-01 -1.724422e+00 -1.827106e+00 6.836790e-01 -2.120217e+00 -2.062502e-01 2.021686e+00 1.129803e-01 -2.908378e+00 -1.409597e+00 1.604590e+00 1.142890e+00 -5.804895e-01 -1.200035e+00 -8.001919e-01 -1.216101e-01 -3.123719e-01
<VARIANCE> 39
 6.629221e+01 1.826389e+02 4.518973e+02 4.401554e+02 4.218922e+02 7.249032e+02 9.273901e+02 4.340886e+02 3.415644e+02 5.048098e+02 2.879645e+02 2.627535e+02 1.575822e+02 7.965304e+00 1.102471e+01 2.601881e+01 2.505920e+01 2.023734e+01 3.780224e+01 2.663133e+01 3.342751e+01 2.849393e+01 2.460483e+01 1.907898e+01 1.932872e+01 1.043949e+01 2.654853e+00 2.123543e+00 2.729647e+00 3.177139e+00 4.004545e+00 5.609380e+00 6.761133e+00 4.253507e+00 4.651543e+00 4.792470e+00 3.882548e+00 3.875672e+00 1.279315e+00
<GCONST> 2.027848e+02
<STATE> 3
<NUMMIXES> 8
<MIXTURE> 1 1.632383e-01
<MEAN> 39
 3.654191e+01 -2.178176e+01 2.305439e+00 5.608975e+00 2.178194e+01 -2.829150e+01 -1.946897e+01 1.704136e+01 -3.000952e+00 1.077811e+01 7.291539e+00 1.535252e+01 1.333439e+02 -1.479039e+00 -8.868663e-01 4.006856e+00 -1.728985e-01 -3.978017e+00 -8.348680e-01 5.577624e+00 3.828512e+00 -9.310110e-01 5.876865e-01 2.817092e+00 1.322653e+00 1.634225e+00 -4.550539e-01 7.798279e-01 1.302438e+00 -3.224628e-01 -5.577416e-01 1.703656e+00 1.811650e+00 -8.396342e-01 -6.141686e-01 7.370999e-01 5.605031e-01 -4.099213e-01 -1.613039e-01
<VARIANCE> 39
