~o
<STREAMINFO> 1 39
<VECSIZE> 39<NULLD><MFCC_D_A_0><DIAGC>
~v "varFloor1"
<VARIANCE> 39
 6.753474e+00 3.412362e+00 5.607597e+00 4.796462e+00 3.472081e+00 4.011722e+00 4.412065e+00 3.618229e+00 3.682593e+00 3.039560e+00 2.639483e+00 2.510356e+00 1.295583e+01 2.277723e-01 1.546074e-01 2.184501e-01 2.118108e-01 1.813343e-01 2.097883e-01 2.257618e-01 2.166374e-01 2.009357e-01 1.748309e-01 1.664689e-01 1.534765e-01 2.729284e-01 3.005151e-02 2.352162e-02 2.950290e-02 3.333734e-02 2.970534e-02 3.528604e-02 3.796648e-02 3.764385e-02 3.477007e-02 3.067227e-02 2.924742e-02 2.697526e-02 3.680371e-02
~s "silst"
<MEAN> 39
 -2.510197e+01 4.789368e+00 -9.952522e-01 2.774014e+00 -3.226341e+00 -2.978514e+00 -4.497972e+00 -1.455698e+00 -1.668107e+00 1.336141e+00 1.108920e+00 2.519354e+00 4.814400e+01 -2.220114e-01 6.923046e-03 4.608292e-02 -4.308211e-02 -7.192911e-02 -8.627485e-02 -1.793913e-01 -1.937578e-01 -5.345192e-02 8.936165e-02 9.639979e-02 4.865651e-02 -1.458876e-01 9.540316e-02 -6.808278e-02 1.604932e-02 2.860327e-02 3.306797e-02 3.830177e-02 8.640587e-02 8.187947e-02 3.623573e-03 -1.269702e-02 -7.568154e-02 -3.041688e-02 1.620990e-01
<VARIANCE> 39
 2.944291e+01 2.898862e+01 3.713689e+01 4.994336e+01 6.793115e+01 8.836432e+01 1.045618e+02 1.054122e+02 9.781425e+01 9.145125e+01 8.874011e+01 7.975568e+01 1.515442e+01 1.335711e+00 1.979888e+00 3.190624e+00 4.442643e+00 5.717434e+00 7.031759e+00 8.416834e+00 9.200296e+00 9.264509e+00 9.216018e+00 9.013237e+00 8.155129e+00 6.777253e-01 2.602494e-01 4.220306e-01 6.527631e-01 9.021503e-01 1.156155e+00 1.416815e+00 1.666979e+00 1.827008e+00 1.847889e+00 1.841393e+00 1.810251e+00 1.637114e+00 1.739555e-01
<GCONST> 1.440953e+02
~h "f"
<BEGINHMM>
<NUMSTATES> 5
<STATE> 2
<MEAN> 39
 -3.178311e+01 -1.380449e+01 -1.708577e-01 3.736459e+00 -1.752069e+00 7.040322e-02 -6.219134e+00 9.376730e-01 -4.697392e+00 4.028518e+00 -3.446694e+00 2.752799e+00 9.102417e+01 -2.164201e+00 -1.579047e+00 -1.242652e+00 -5.534968e-01 -6.771871e-01 -2.946642e-01 -9.030508e-01 -4.679425e-01 -3.232786e-01 -1.857201e-01 -1.099589e-01 -1.639099e-01 5.659140e-01 1.404759e+00 4.293353e-01 2.712076e-01 -2.343286e-01 1.294016e-01 3.415368e-02 2.739191e-01 -4.788887e-02 -7.412438e-02 8.361386e-02 -2.918042e-02 3.871047e-02 5.980223e-01
<VARIANCE> 39
 1.622180e+02 1.221270e+02 9.637263e+01 9.978115e+01 1.138850e+02 1.261762e+02 1.379128e+02 1.348943e+02 1.341712e+02 1.238550e+02 1.181570e+02 1.071498e+02 3.192809e+02 2.350443e+01 1.154084e+01 1.114173e+01 1.488401e+01 1.277622e+01 1.330722e+01 1.450114e+01 1.409855e+01 1.413951e+01 1.314061e+01 1.250847e+01 1.163191e+01 2.023779e+01 3.547721e+00 2.197740e+00 2.158814e+00 2.995407e+00 2.494483e+00 2.815054e+00 3.036856e+00 3.048992e+00 3.102048e+00 2.805423e+00 2.651730e+00 2.385373e+00 3.063241e+00
<GCONST> 1.826823e+02
<STATE> 3
<MEAN> 39
 -2.877438e+01 -1.730449e+01 -3.409514e+00 -1.699708e-02 -2.872677e+00 -7.603061e-01 -7.686373e+00 -1.399209e+00 -6.280048e+00 3.462739e+00 -4.246974e+00 2.739056e+00 1.015806e+02 1.060162e+01 2.400429e+00 8.025377e-01 -3.448213e+00 2.989990e-01 1.023624e+00 1.796122e+00 3.737486e-01 5.260199e-01 1.299619e+00 3.509449e-01 -1.381478e-01 5.657584e+00 3.702274e+00 1.127367e+00 6.661591e-01 -2.341231e+00 -5.398673e-01 3.255133e-01 6.406421e-01 4.538590e-01 2.924391e-02 6.999066e-01 2.185834e-01 -2.274770e-01 1.058635e+00
<VARIANCE> 39
 1.320671e+02 7.053302e+01 6.355087e+01 7.151077e+01 8.548331e+01 9.597868e+01 1.021694e+02 1.040374e+02 1.122581e+02 1.063715e+02 9.856810e+01 8.879433e+01 2.046473e+02 3.755809e+01 1.932849e+01 1.133854e+01 2.147550e+01 1.481054e+01 1.325626e+01 1.467247e+01 1.526854e+01 1.934153e+01 1.749535e+01 1.954243e+01 1.290318e+01 3.424140e+01 3.076443e+00 4.415499e+00 2.867950e+00 3.887439e+00 4.114592e+00 3.272172e+00 3.668291e+00 3.588811e+00 4.370451e+00 3.758427e+00 4.468551e+00 3.177876e+00 4.636655e+00
<GCONST> 1.861540e+02
<STATE> 4
<MEAN> 39
 1.695234e+01 -1.299972e+01 -1.609225e+00 -2.124871e+01 -1.410718e+00 5.374396e+00 5.322510e-01 4.697655e-02 -1.954500e+00 1.450519e+01 2.164074e+00 -8.576688e-01 1.261916e+02 1.054161e+01 -1.168854e+00 -9.477858e-02 -8.780260e+00 -5.396426e-01 1.835361e+00 1.923780e+00 9.913664e-01 6.822119e-01 2.554367e+00 1.025633e+00 -9.099864e-01 8.586289e+00 -3.275954e+00 -7.078158e-01 -7.822696e-02 5.743614e-01 -1.563844e-01 -1.002386e-01 -4.695883e-01 3.080378e-01 -6.324808e-02 -6.737823e-01 -6.697496e-01 4.540932e-02 -1.266498e+00
<VARIANCE> 39
 2.243540e+02 2.503854e+02 1.539510e+02 4.437981e+02 2.424800e+02 1.990281e+02 2.010214e+02 2.199035e+02 3.939226e+02 2.893311e+02 4.311018e+02 1.973797e+02 4.279034e+02 5.911298e+01 4.803007e+01 2.613730e+01 3.405191e+01 3.666648e+01 2.350527e+01 2.621555e+01 2.653483e+01 3.866191e+01 2.912721e+01 4.080439e+01 2.563199e+01 2.545314e+01 5.443847e+00 2.811730e+00 2.139318e+00 7.530067e+00 3.750694e+00 3.003256e+00 3.349922e+00 3.094115e+00 5.519505e+00 4.444139e+00 5.143685e+00 3.279144e+00 5.259433e+00
<GCONST> 2.074959e+02
<TRANSP> 5
 0.000000e+00 1.000000e+00 0.000000e+00 0.000000e+00 0.000000e+00
 0.000000e+00 8.590884e-01 1.409115e-01 0.000000e+00 0.000000e+00
 0.000000e+00 0.000000e+00 6.399081e-01 3.600920e-01 0.000000e+00
 0.000000e+00 0.000000e+00 0.000000e+00 5.457212e-01 4.542789e-01
 0.000000e+00 0.000000e+00 0.000000e+00 0.000000e+00 0.000000e+00
<ENDHMM>
~h "k"
<BEGINHMM>
<NUMSTATES> 5
<STATE> 2
<MEAN> 39
 -7.434182e+00 1.024519e+01 2.698168e+01 2.570908e+01 -1.806911e+00 -1.424855e+01 1.284393e+00 -2.562639e+00 -1.796642e+01 -2.382478e+00 -9.156487e-01 2.255571e+00 7.213806e+01 -5.706275e+00 2.165268e+00 -9.787512e+00 -1.260268e+00 3.410044e+00 5.706783e+00 -3.726401e+00 1.389070e-01 3.730802e+00 -1.988426e+00 3.110147e-02 -9.097248e-01 -1.254861e+01 -2.279137e-01 -3.099947e+00 -1.009392e+00 -2.980553e+00 -1.040572e+00 -1.120093e+00 -9.039948e-01 4.846796e-02 9.426325e-01 1.042768e+00 -2.227350e-01 6.203133e-01 4.774833e+00
<VARIANCE> 39
 1.306858e+02 2.061980e+02 2.691444e+02 1.981230e+02 3.050572e+02 3.708829e+02 3.868434e+02 4.781191e+02 3.227045e+02 2.673597e+02 2.010121e+02 1.583866e+02 3.447988e+02 1.082742e+01 4.587902e+01 2.449486e+01 4.212241e+01 3.026107e+01 3.898097e+01 5.604568e+01 7.208739e+01 5.292919e+01 3.535557e+01 2.362356e+01 2.276037e+01 6.412640e+01 3.429505e+00 5.885943e+00 5.479407e+00 4.838177e+00 5.374667e+00 8.099932e+00 9.035395e+00 8.795642e+00 7.792188e+00 5.613846e+00 4.682274e+00 4.271267e+00 1.243048e+01
<GCONST> 2.143362e+02
<STATE> 3
<MEAN> 39
 -1.870444e+01 -6.458301e+00 -6.316927e+00 7.308939e+00 -1.496655e-01 -7.174178e+00 -1.031259e+01 -1.914049e+00 -4.500778e+00 2.022668e+00 -1.097756e+00 3.326377e+00 7.100181e+01 -1.767526e+00 -4.512074e+00 -5.112653e+00 -9.964374e-01 -2.597041e-02 -1.599882e+00 -2.055293e+00 1.190519e+00 1.712654e+00 1.274235e+00 -6.766559e-01 5.221182e-01 9.331470e+00 -8.356564e-01 9.085110e-01 1.854045e+00 1.030401e+00 -6.437766e-01 -1.170708e+00 7.674834e-01 3.691235e-01 -5.408025e-01 -1.852280e-01 -1.986552e-01 2.036063e-01 2.390676e+00
<VARIANCE> 39
 1.443519e+02 3.074951e+02 2.374534e+02 1.303703e+02 1.546994e+02 1.654340e+02 1.762704e+02 1.576531e+02 1.350126e+02 1.278672e+02 1.139244e+02 8.773778e+01 7.724754e+02 3.167810e+01 2.791289e+01 2.553543e+01 2.504504e+01 2.209083e+01 2.656528e+01 2.169000e+01 2.110317e+01 2.013374e+01 1.797808e+01 1.533487e+01 1.164489e+01 7.530640e+01 8.751822e+00 8.795116e+00 5.503192e+00 3.511175e+00 4.375201e+00 5.219221e+00 5.117185e+00 4.691499e+00 4.213426e+00 3.875888e+00 2.748462e+00 2.429963e+00 1.930957e+01
<GCONST> 2.011252e+02
<STATE> 4
<MEAN> 39
 -4.176847e+01 -9.820282e+00 -7.772983e+00 1.159944e+01 6.023271e-01 -2.458696e+01 -1.501580e+01 6.291591e+00 1.007832e+00 2.875571e+00 -7.500994e+00 5.802290e+00 1.136168e+02 -1.035315e+01 4.342578e+00 2.030356e+00 -2.622804e-01 -2.450676e+00 -2.204768e+00 2.371312e+00 2.716940e+00 7.064633e-01 -1.607095e+00 -8.580526e-01 1.155524e+00 3.104737e+00 5.327424e-01 1.614126e+00 7.110949e-01 -6.695521e-01 -1.210413e-01 1.820322e+00 1.247889e+00 -3.000687e-01 -8.860363e-01 -3.364317e-01 4.972444e-01 -8.982209e-02 -3.828434e+00
<VARIANCE> 39
 3.163312e+02 1.138009e+02 1.796654e+02 2.118491e+02 3.934747e+02 2.674397e+02 2.169682e+02 2.032231e+02 1.858227e+02 1.695026e+02 1.686924e+02 1.317065e+02 1.454435e+02 2.980913e+01 1.522609e+01 1.380294e+01 1.541301e+01 2.176164e+01 2.606340e+01 1.702730e+01 1.641043e+01 2.033604e+01 1.499873e+01 1.378069e+01 1.414716e+01 2.631004e+01 6.915264e+00 3.374490e+00 3.237694e+00 2.806221e+00 3.852802e+00 4.040132e+00 3.613281e+00 3.775798e+00 3.697088e+00 3.502900e+00 2.860395e+00 2.457356e+00 4.545844e+00
<GCONST> 1.947743e+02
<TRANSP> 5
 0.000000e+00 1.000000e+00 0.000000e+00 0.000000e+00 0.000000e+00
 0.000000e+00 6.801992e-01 3.198008e-01 0.000000e+00 0.000000e+00
 0.000000e+00 0.000000e+00 7.772027e-01 2.227973e-01 0.000000e+00
 0.000000e+00 0.000000e+00 0.000000e+00 5.360450e-01 4.639550e-01
 0.000000e+00 0.000000e+00 0.000000e+00 0.000000e+00 0.000000e+00
<ENDHMM>
~h "n"
<BEGINHMM>
<NUMSTATES> 5
<STATE> 2
<MEAN> 39
 1.613712e+01 -8.982577e-01 3.514538e+01 7.530933e+00 -5.337928e+00 4.162661e+00 1.581358e+01 -3.666670e+00 -6.391591e+00 1.039104e+01 -6.412835e+00 8.751088e+00 1.116231e+02 1.130009e+00 3.284028e+00 6.665483e-03 3.869708e+00 4.198380e-01 1.426661e+00 2.306129e+00 -2.981071e+00 5.803486e-02 6.044032e-01 -1.574417e+00 2.742849e-01 -3.161963e+00 -5.504743e-01 -5.550269e-01 -7.603947e-01 -3.504932e-01 4.213255e-01 -2.927942e-01 -6.266761e-01 8.671325e-01 4.000365e-01 -3.719861e-01 2.434360e-01 -1.186850e-01 2.883071e-01
<VARIANCE> 39
 1.313375e+02 3.032014e+02 2.467392e+02 6.128544e+02 3.045753e+02 4.059907e+02 5.310484e+02 5.882634e+02 5.437422e+02 4.445741e+02 4.307681e+02 4.049300e+02 4.140683e+02 1.607642e+01 1.497781e+01 2.376797e+01 3.307058e+01 2.126113e+01 2.553292e+01 3.332293e+01 4.020280e+01 3.055857e+01 2.710965e+01 2.391088e+01 2.427627e+01 1.983683e+01 2.302257e+00 2.563493e+00 3.856784e+00 7.803296e+00 4.082353e+00 5.053893e+00 6.668899e+00 7.734418e+00 5.608160e+00 4.792079e+00 4.679913e+00 4.609225e+00 2.064268e+00
<GCONST> 2.100198e+02
<STATE> 3
<MEAN> 39
 1.795868e+01 7.000515e+00 3.453281e+01 1.871708e+01 -2.118657e+00 7.169973e+00 1.762732e+01 -8.228806e+00 -2.017918e+00 7.295368e+00 -9.766193e+00 1.138802e+01 1.034500e+02 -2.703907e+00 -2.552190e+00 -1.975238e+00 -2.591432e+00 2.587191e+00 -1.672696e+00 -2.691608e+00 5.113612e+00 7.403700e-01 -5.293080e-01 7.206309e-01 -1.074156e+00 1.777291e+00 -1.443405e+00 -1.465878e+00 -1.526862e+00 -1.693839e+00 2.145701e-01 -6.418641e-01 -1.273230e+00 1.416343e+00 2.374274e-01 -1.099113e-01 5.572227e-01 -4.224691e-01 6.396098e-01
<VARIANCE> 39
 8.070046e+01 2.513867e+02 1.424062e+02 2.965421e+02 2.856323e+02 4.393300e+02 4.714725e+02 4.542202e+02 4.633506e+02 4.493133e+02 4.578332e+02 4.617107e+02 2.775697e+02 2.310660e+01 2.474392e+01 2.191315e+01 3.443995e+01 2.640370e+01 3.874309e+01 4.309068e+01 4.401114e+01 3.677007e+01 2.842084e+01 2.911313e+01 3.194262e+01 3.896743e+01 3.096924e+00 2.662769e+00 2.874300e+00 4.012010e+00 4.787773e+00 5.943812e+00 5.996001e+00 7.199770e+00 5.491205e+00 4.141108e+00 4.629702e+00 4.680089e+00 2.362521e+00
<GCONST> 2.100249e+02
<STATE> 4
<MEAN> 39
 2.187360e-01 -3.610164e+00 1.872340e+01 1.201511e+01 5.242195e+00 1.678864e+00 1.035090e+01 1.263032e+01 1.458908e+00 3.694187e+00 -7.141541e+00 4.564044e+00 9.332174e+01 -3.790014e+00 -2.628033e+00 -4.682047e+00 -3.403254e+00 -2.035103e-01 -1.319361e+00 -2.993356e+00 2.101784e+00 5.981942e-01 -8.312724e-01 8.909461e-01 -1.184639e+00 -6.031849e-01 2.554373e-01 2.793178e-01 -2.904676e-02 7.911700e-02 -6.239266e-01 1.244254e-01 -3.045166e-03 -1.258886e+00 -2.290344e-01 1.304633e-02 -6.935393e-03 1.792068e-01 3.368731e-02
<VARIANCE> 39
 1.903249e+02 2.615049e+02 2.239525e+02 4.256139e+02 2.505312e+02 3.512431e+02 4.951056e+02 3.891879e+02 3.322725e+02 3.739831e+02 2.762433e+02 2.638162e+02 7.268699e+02 2.330209e+01 1.987039e+01 1.925459e+01 2.463886e+01 2.300576e+01 2.516082e+01 2.792699e+01 3.561659e+01 3.186667e+01 2.356460e+01 2.518270e+01 2.295578e+01 2.427406e+01 1.683360e+00 2.819015e+00 2.776154e+00 4.893280e+00 3.818376e+00 5.573643e+00 5.934264e+00 5.486076e+00 4.481373e+00 3.947027e+00 3.782840e+00 3.668885e+00 2.810854e+00
<GCONST> 2.060041e+02
<TRANSP> 5
 0.000000e+00 1.000000e+00 0.000000e+00 0.000000e+00 0.000000e+00
 0.000000e+00 6.618605e-01 3.381395e-01 0.000000e+00 0.000000e+00
 0.000000e+00 0.000000e+00 5.907574e-01 4.092426e-01 0.000000e+00
 0.000000e+00 0.000000e+00 0.000000e+00 6.201845e-01 3.798154e-01
 0.000000e+00 0.000000e+00 0.000000e+00 0.000000e+00 0.000000e+00
<ENDHMM>
~h "r"
<BEGINHMM>
<NUMSTATES> 5
<STATE> 2
<MEAN> 39
 3.661417e+01 -1.807086e+01 -5.333557e+00 3.078838e+00 2.583481e+01 -2.170198e+01 -3.171471e+01 2.526240e+00 -7.850984e+00 5.181734e+00 1.947566e+00 7.519992e+00 1.266158e+02 5.145935e-01 -7.701336e-01 -1.617987e+00 6.469952e-02 1.036290e+00 -1.186566e+00 -1.207332e+00 9.506473e-01 1.425815e+00 6.275623e-01 8.329689e-02 1.048342e-01 8.371067e-02 -1.095620e+00 -5.128317e-02 1.734985e+00 -1.164122e-03 -1.733216e+00 -1.541128e-01 1.494017e+00 6.128772e-01 -4.291414e-01 -1.933711e-01 4.022555e-02 4.114871e-02 1.401681e-01
<VARIANCE> 39
 6.585449e+01 1.845728e+02 4.759542e+02 3.192817e+02 3.868649e+02 8.975165e+02 1.004421e+03 4.270834e+02 3.246688e+02 3.920673e+02 2.649129e+02 2.135604e+02 1.731715e+02 6.272974e+00 8.286612e+00 2.616628e+01 1.852094e+01 1.964941e+01 2.914710e+01 2.231059e+01 2.397716e+01 1.920512e+01 1.642770e+01 1.468826e+01 1.359591e+01 6.673574e+00 1.273304e+00 1.261518e+00 1.832945e+00 2.051523e+00 2.643419e+00 4.327209e+00 3.765079e+00 3.410913e+00 2.920216e+00 2.863769e+00 2.532550e+00 2.333567e+00 7.383317e-01
<GCONST> 1.926940e+02
<STATE> 3
<MEAN> 39
 3.104073e+01 -2.466576e+01 7.125645e+00 9.332352e+00 1.678827e+01 -3.371310e+01 -2.564425e+01 1.588176e+01 -7.692615e+00 1.950532e+00 3.148653e-01 8.754773e+00 1.296855e+02 -3.857739e+00 -7.087978e-01 6.865896e+00 1.239915e+00 -5.756680e+00 -1.718994e+00 5.986442e+00 2.831515e+00 -2.273783e+00 -1.081972e+00 9.539399e-01 -1.186098e-01 3.097462e-01 -1.087112e+00 1.174739e+00 8.596493e-01 -1.132944e+00 -9.549264e-01 2.397350e+00 1.664441e+00 -1.743660e+00 -8.859076e-01 7.215255e-01 2.095313e-01 -4.390628e-01 -6.216621e-01
<VARIANCE> 39
 7.057524e+01 1.913576e+02 5.728053e+02 3.718772e+02 3.939122e+02 7.989814e+02 1.054517e+03 4.011267e+02 4.162472e+02 4.806137e+02 2.813975e+02 2.457358e+02 2.004690e+02 9.289205e+00 9.741329e+00 2.923822e+01 2.561912e+01 2.704131e+01 3.530340e+01 3.198615e+01 3.237278e+01 3.638126e+01 2.699913e+01 2.202768e+01 1.747687e+01 1.257926e+01 1.998832e+00 2.067207e+00 2.301303e+00 2.340051e+00 3.785374e+00 5.683662e+00 5.215669e+00 4.619033e+00 4.088957e+00 3.779521e+00 2.951313e+00 3.061258e+00 9.656891e-01
<GCONST> 2.022829e+02
<STATE> 4
<MEAN> 39
 1.709112e+01 -2.113955e+01 1.376838e+01 8.680997e+00 4.512691e+00 -2.264002e+01 -2.312673e+00 1.603225e+01 -1.065413e+01 5.222229e+00 3.337560e+00 4.258551e+00 1.175490e+02 -4.148159e+00 1.253907e+00 4.035668e+00 -1.866373e+00 -3.695424e+00 3.326537e+00 3.995359e+00 -2.506360e+00 -1.227546e+00 1.368798e+00 -4.840159e-01 -1.461288e+00 -1.564901e+00 4.004319e-02 7.209172e-01 -6.787284e-01 -7.604399e-01 6.870170e-01 8.313661e-01 -1.002293e+00 -1.008528e+00 6.124277e-01 2.430353e-01 -5.627285e-01 2.147027e-02 -2.994158e-01
<VARIANCE> 39
 2.063384e+02 2.026741e+02 9.194526e+02 3.684432e+02 4.570258e+02 7.468046e+02 7.671065e+02 4.159391e+02 6.447484e+02 4.178192e+02 2.948868e+02 2.643322e+02 6.405755e+02 1.513547e+01 1.455117e+01 2.395724e+01 2.113072e+01 2.091070e+01 2.634323e+01 2.979923e+01 2.847557e+01 2.280389e+01 2.263433e+01 1.843617e+01 1.614464e+01 1.039490e+01 1.447657e+00 1.894453e+00 2.480109e+00 2.863803e+00 3.664980e+00 4.760655e+00 4.080462e+00 3.552187e+00 4.720274e+00 3.056004e+00 3.086026e+00 2.598194e+00 1.036537e+00
<GCONST> 2.029444e+02
<TRANSP> 5
 0.000000e+00 1.000000e+00 0.000000e+00 0.000000e+00 0.000000e+00
 0.000000e+00 7.662131e-01 2.337870e-01 0.000000e+00 0.000000e+00
 0.000000e+00 0.000000e+00 5.109528e-01 4.890472e-01 0.000000e+00
 0.000000e+00 0.000000e+00 0.000000e+00 5.938857e-01 4.061143e-01
 0.000000e+00 0.000000e+00 0.000000e+00 0.000000e+00 0.000000e+00
<ENDHMM>
~h "s"
<BEGINHMM>
<NUMSTATES> 5
<STATE> 2
<MEAN> 39
 -2.902147e+01 4.930170e+00 8.420827e+00 6.535112e+00 2.720074e+00 -7.427486e+00 -1.351927e+00 3.895838e+00 -3.299723e+00 2.046862e+00 -4.933666e+00 5.551212e+00 1.036276e+02 -8.732275e+00 2.027784e+00 -3.941086e+00 -6.849331e-01 -8.737692e-01 -5.372594e-02 9.724942e-01 1.235610e+00 2.861442e-02 -5.221087e-01 6.645370e-01 3.122821e-01 7.207620e-01 3.740053e-01 -4.302103e-01 -9.476662e-01 -7.214686e-01 -3.358360e-01 6.794087e-02 -4.235894e-01 -3.848992e-01 -4.067026e-01 2.729535e-01 1.071190e-01 -8.941024e-02 -3.413548e-01
<VARIANCE> 39
 6.031697e+02 2.430682e+02 4.115284e+02 3.321063e+02 4.043970e+02 3.814131e+02 3.361010e+02 3.050678e+02 2.876868e+02 2.352608e+02 2.184162e+02 2.199963e+02 4.632780e+02 5.272821e+01 2.420172e+01 4.545037e+01 4.025171e+01 2.982681e+01 3.707666e+01 3.059309e+01 2.938546e+01 3.250372e+01 2.545586e+01 2.387046e+01 2.293108e+01 3.065507e+01 9.097583e+00 4.706750e+00 5.262074e+00 5.597758e+00 5.475639e+00 5.946692e+00 5.356369e+00 5.634028e+00 5.079532e+00 4.703509e+00 4.339531e+00 4.009859e+00 3.261523e+00
<GCONST> 2.130849e+02
<STATE> 3
<MEAN> 39
 -5.313372e+01 8.475734e+00 -1.001817e+01 6.153978e-01 -4.169993e+00 -1.080097e+01 -1.112146e+00 4.033274e+00 -5.604771e+00 1.122149e+00 -3.087880e+00 6.718538e+00 1.069027e+02 -3.369829e+00 8.491817e-01 -3.823152e+00 -1.422546e+00 -1.000278e+00 4.987822e-01 -7.608248e-01 -7.124293e-01 -7.534046e-01 1.066991e-01 -8.987711e-02 -4.396277e-02 3.768448e-01 2.550728e+00 -5.390348e-01 1.098105e+00 6.571021e-01 4.990771e-01 3.829039e-01 -1.991937e-01 -2.920418e-01 1.726256e-01 2.147079e-01 -2.828472e-01 -1.636818e-01 -5.624895e-01
<VARIANCE> 39
 1.349813e+02 1.460157e+02 1.792713e+02 2.793290e+02 3.616886e+02 2.914294e+02 1.970189e+02 1.805999e+02 1.647721e+02 1.532964e+02 1.660140e+02 1.312678e+02 1.850981e+02 1.783795e+01 1.572998e+01 1.690889e+01 1.516086e+01 1.701726e+01 1.974043e+01 1.878080e+01 1.580328e+01 1.454259e+01 1.423414e+01 1.328996e+01 1.246253e+01 1.288508e+01 2.696485e+00 2.277991e+00 3.642642e+00 2.903465e+00 3.292059e+00 3.364756e+00 3.536341e+00 3.516130e+00 3.174524e+00 3.025348e+00 2.880610e+00 2.801308e+00 1.892506e+00
<GCONST> 1.895589e+02
<STATE> 4
<MEAN> 39
 -5.176239e+01 5.711814e+00 -1.467251e+01 2.695099e+00 -6.777960e+00 -5.786771e+00 -4.333443e+00 3.553488e+00 -6.451848e+00 2.674800e+00 -3.911981e+00 5.876748e+00 1.048906e+02 6.749079e-01 -2.557283e-01 1.878706e-01 -1.624693e-01 2.776286e-02 2.639328e-01 2.133070e-02 -9.885481e-02 8.121569e-02 9.097101e-02 -1.338043e-01 -5.798380e-02 6.110787e-03 9.056851e-01 -9.645392e-02 7.692288e-01 1.231273e-01 8.256597e-02 -2.005353e-01 5.256572e-02 -2.017028e-02 1.570250e-01 -2.245969e-02 -1.141445e-02 5.260019e-02 4.055027e-02
<VARIANCE> 39
 1.600704e+02 1.365276e+02 1.556882e+02 2.442201e+02 2.992589e+02 2.759142e+02 1.562104e+02 1.424625e+02 1.439863e+02 1.312290e+02 1.409763e+02 1.206749e+02 1.993585e+02 6.551269e+00 5.586111e+00 6.478883e+00 7.340512e+00 8.994185e+00 1.064941e+01 1.086707e+01 1.118920e+01 1.092743e+01 1.112523e+01 1.067521e+01 1.002101e+01 5.785279e+00 1.849756e+00 1.206334e+00 1.783285e+00 1.558755e+00 1.764342e+00 2.161229e+00 2.247683e+00 2.239720e+00 2.207632e+00 2.265835e+00 2.140670e+00 2.049717e+00 9.176794e-01
<GCONST> 1.742660e+02
<TRANSP> 5
 0.000000e+00 1.000000e+00 0.000000e+00 0.000000e+00 0.000000e+00
 0.000000e+00 5.607682e-01 4.392317e-01 0.000000e+00 0.000000e+00
 0.000000e+00 0.000000e+00 5.228644e-01 4.771356e-01 0.000000e+00
 0.000000e+00 0.000000e+00 0.000000e+00 8.446992e-01 1.553008e-01
 0.000000e+00 0.000000e+00 0.000000e+00 0.000000e+00 0.000000e+00
<ENDHMM>
~h "t"
<BEGINHMM>
<NUMSTATES> 5
<STATE> 2
<MEAN> 39
 -1.486814e+01 1.077004e+01 1.614742e+01 1.336095e+01 2.888875e+00 1.708399e+00 -1.520344e+00 -1.104922e+00 -3.953805e+00 1.378395e+00 -1.570374e+00 1.941671e+00 6.259317e+01 -3.373442e+00 -1.367588e+00 -5.521031e+00 -1.919779e+00 7.193085e-02 -5.276566e-01 -5.267515e-01 6.682294e-01 9.987082e-01 1.461847e-02 1.200300e+00 8.532780e-02 -1.903226e+00 -2.950392e-01 -8.789932e-01 1.024390e+00 -1.614451e+00 -6.815941e-01 -6.231935e-01 -9.739554e-02 -5.336777e-01 -6.894681e-01 1.132409e-01 -3.601385e-01 2.328633e-01 3.820781e+00
<VARIANCE> 39
 2.485215e+02 1.904067e+02 3.599920e+02 2.306141e+02 1.832939e+02 1.912043e+02 2.318820e+02 2.217291e+02 2.030879e+02 1.727790e+02 1.583355e+02 1.346442e+02 4.081094e+02 2.213321e+01 3.398585e+01 5.293370e+01 4.151242e+01 2.660942e+01 2.745985e+01 2.794261e+01 3.135097e+01 3.458399e+01 2.295980e+01 2.173251e+01 1.965107e+01 1.315887e+02 3.510407e+00 5.867540e+00 6.949811e+00 6.313804e+00 4.844966e+00 4.789579e+00 5.248395e+00 5.234933e+00 5.846433e+00 4.298713e+00 3.958179e+00 3.614742e+00 1.267573e+01
<GCONST> 2.085155e+02
<STATE> 3
<MEAN> 39
 -3.346088e+01 -7.431140e-01 5.405701e+00 -1.100044e+01 -3.285299e+00 -8.363780e+00 -3.538030e+00 -4.620055e+00 -1.063041e+01 1.730435e+00 -1.096634e+00 3.215174e+00 1.055206e+02 -4.329666e+00 5.352964e-01 7.791102e-01 -2.114124e+00 -2.371360e+00 -2.839782e+00 1.395117e+00 -4.072986e-02 -2.063942e+00 -6.165728e-02 -3.013187e-01 1.508883e+00 1.144538e+01 9.433834e-01 7.335008e-01 1.287285e+00 2.058578e+00 -2.502097e-01 3.487019e-01 7.500397e-01 4.817826e-01 5.518871e-01 8.909150e-02 -1.206363e-01 3.328038e-01 -3.079862e+00
<VARIANCE> 39
 2.097434e+02 2.226872e+02 2.071554e+02 1.847172e+02 1.687856e+02 1.775924e+02 1.821584e+02 1.908955e+02 1.672626e+02 1.486392e+02 1.297803e+02 1.214704e+02 9.295333e+02 1.811012e+01 2.087414e+01 2.220416e+01 2.251822e+01 1.841742e+01 2.293454e+01 2.489960e+01 2.326472e+01 1.997768e+01 1.893458e+01 1.926945e+01 1.539065e+01 9.828343e+01 4.757085e+00 4.983918e+00 4.120758e+00 4.163806e+00 3.886134e+00 3.849727e+00 3.907207e+00 3.765077e+00 3.996172e+00 3.403808e+00 3.216125e+00 3.072440e+00 1.881865e+01
<GCONST> 2.003783e+02
<STATE> 4
<MEAN> 39
 -3.454401e+01 -1.657956e+00 1.386613e+01 -3.757380e+00 -1.163652e+01 -1.285714e+01 6.559370e+00 6.157912e-01 -9.899119e+00 7.534002e-01 -1.654235e+00 9.278715e+00 1.052612e+02 4.125713e+00 -1.234895e+00 3.054917e+00 2.774590e+00 -3.604152e-01 2.307228e-01 8.820814e-01 1.402254e+00 9.620245e-01 -1.616049e-01 -8.082702e-01 2.377868e-01 -1.973147e+00 2.096172e+00 2.876899e-02 6.259031e-01 4.379986e-01 8.488736e-01 4.450069e-01 -6.927097e-01 -1.580000e-01 1.270497e-01 9.924914e-02 -1.729048e-01 -5.334268e-01 -3.697209e-01
<VARIANCE> 39
 2.834742e+02 1.346486e+02 1.993443e+02 1.698147e+02 1.824235e+02 2.503708e+02 2.610022e+02 3.058092e+02 2.103043e+02 1.939958e+02 2.290043e+02 1.727436e+02 5.648856e+02 3.140294e+01 1.214269e+01 2.750424e+01 2.011629e+01 1.714597e+01 1.705396e+01 1.838393e+01 1.824129e+01 1.710975e+01 1.587558e+01 1.621013e+01 1.511484e+01 1.608946e+01 5.662480e+00 2.992318e+00 3.472506e+00 2.976498e+00 3.232701e+00 4.535623e+00 3.997352e+00 3.769863e+00 3.990570e+00 3.694694e+00 3.762006e+00 3.110434e+00 6.910550e+00
<GCONST> 1.974959e+02
<TRANSP> 5
 0.000000e+00 1.000000e+00 0.000000e+00 0.000000e+00 0.000000e+00
 0.000000e+00 7.807702e-01 2.192297e-01 0.000000e+00 0.000000e+00
 0.000000e+00 0.000000e+00 6.163544e-01 3.836457e-01 0.000000e+00
 0.000000e+00 0.000000e+00 0.000000e+00 6.891917e-01 3.108083e-01
 0.000000e+00 0.000000e+00 0.000000e+00 0.000000e+00 0.000000e+00
<ENDHMM>
~h "v"
<BEGINHMM>
<NUMSTATES> 5
<STATE> 2
<MEAN> 39
 1.268443e+01 -2.720508e+01 1.556620e+01 -1.942100e+01 -1.077641e+01 -2.050999e+01 -2.203155e+00 1.253456e+01 1.412520e+01 1.487925e+01 -2.144216e+00 6.037115e+00 1.473357e+02 1.012403e+00 2.724635e-01 1.168006e-01 9.289299e-01 9.372912e-01 1.617593e-01 -6.924997e-01 -1.027424e+00 -7.834368e-01 7.261990e-01 4.362717e-01 -7.628319e-01 -1.569915e+00 -1.673479e-02 1.154361e+00 7.867590e-02 1.450355e+00 1.052303e+00 8.840594e-01 -5.732365e-01 -1.059595e+00 -9.960774e-01 -2.951030e-01 -5.983829e-02 -5.918203e-02 -1.608472e+00
<VARIANCE> 39
 7.302580e+01 1.478654e+02 2.332951e+02 2.175326e+02 2.588104e+02 2.637082e+02 8.588492e+02 2.862068e+02 3.065562e+02 4.731375e+02 3.384691e+02 4.063858e+02 1.653339e+02 2.128680e+00 8.644608e+00 7.367547e+00 1.018324e+01 9.165200e+00 1.148100e+01 1.556910e+01 1.515698e+01 1.524841e+01 1.098163e+01 1.539948e+01 1.199395e+01 6.985480e+00 7.385683e-01 8.770454e-01 1.230178e+00 1.640365e+00 1.986043e+00 2.631929e+00 3.086131e+00 1.858779e+00 2.370808e+00 2.204914e+00 2.058715e+00 2.052208e+00 1.003168e+00
<GCONST> 1.805667e+02
<STATE> 3
<MEAN> 39
 1.913372e+01 -1.702944e+01 1.912491e+01 -2.264533e+00 -1.870022e-01 -1.537043e+01 -1.147093e+01 -1.537346e-01 -2.778818e-01 1.630287e+01 1.156506e+00 1.462343e+00 1.272542e+02 -1.244838e+00 5.924542e+00 9.120026e-01 7.307969e+00 5.436049e+00 5.742709e+00 1.524496e-01 -3.001949e+00 -3.848967e+00 -1.530020e+00 4.267537e-01 -2.047003e-01 -9.076575e+00 -1.786595e+00 2.052177e-01 -5.373016e-01 -4.238643e-02 7.768901e-02 1.194342e+00 1.344723e+00 1.219380e+00 6.558931e-01 -5.453067e-01 -3.413562e-01 9.270333e-02 -3.332151e-01
<VARIANCE> 39
 6.181259e+01 1.739983e+02 2.253191e+02 2.829650e+02 3.020363e+02 3.539840e+02 5.018702e+02 3.247155e+02 5.023648e+02 3.453072e+02 4.034934e+02 3.290735e+02 2.619853e+02 1.362286e+01 1.306176e+01 1.572436e+01 1.917672e+01 2.025480e+01 2.431185e+01 3.713523e+01 2.297419e+01 2.665977e+01 2.663668e+01 2.417576e+01 2.123949e+01 1.102465e+01 2.094981e+00 2.518638e+00 2.205636e+00 3.932283e+00 4.356558e+00 5.534450e+00 3.805401e+00 3.400938e+00 4.954136e+00 3.576921e+00 4.041265e+00 3.144721e+00 3.537989e+00
<GCONST> 2.003254e+02
<STATE> 4
<MEAN> 39
 -3.071404e+00 -3.547663e+00 1.465115e+01 1.249660e+01 7.921879e+00 2.314808e+00 -1.711487e-02 3.404257e+00 -9.529806e-01 7.621973e+00 -1.827126e+00 3.669540e+00 9.774412e+01 -2.890570e+00 -1.204190e-01 -1.207665e+00 -6.553697e-01 -7.202970e-01 3.102058e-01 4.070588e-01 8.610861e-01 5.589300e-02 -9.605859e-01 -1.989404e-01 1.155958e-01 -1.533534e+00 7.654584e-01 -1.323005e+00 -2.274989e-01 -1.875726e+00 -1.379819e+00 -1.750859e+00 -4.558126e-01 3.308055e-01 5.952052e-01 2.208349e-01 -6.968534e-02 7.575478e-02 2.017733e+00
<VARIANCE> 39
 3.949771e+02 1.729998e+02 1.820451e+02 1.968774e+02 2.099285e+02 2.404260e+02 2.416015e+02 2.608104e+02 2.823695e+02 2.165786e+02 2.302250e+02 1.969263e+02 3.068882e+02 3.992540e+01 2.189558e+01 1.604496e+01 2.725805e+01 2.353985e+01 3.492316e+01 2.617762e+01 2.071160e+01 2.188501e+01 1.794359e+01 1.828404e+01 1.535846e+01 3.002171e+01 4.698336e+00 4.618128e+00 3.456602e+00 6.150706e+00 5.363425e+00 6.122128e+00 5.629904e+00 4.754869e+00 4.851037e+00 4.166996e+00 3.852635e+00 3.472166e+00 5.191330e+00
<GCONST> 2.036798e+02
<TRANSP> 5
 0.000000e+00 1.000000e+00 0.000000e+00 0.000000e+00 0.000000e+00
 0.000000e+00 7.614150e-01 2.385850e-01 0.000000e+00 0.000000e+00
 0.000000e+00 0.000000e+00 6.402437e-01 3.597563e-01 0.000000e+00
 0.000000e+00 0.000000e+00 0.000000e+00 7.595219e-01 2.404781e-01
 0.000000e+00 0.000000e+00 0.000000e+00 0.000000e+00 0.000000e+00
<ENDHMM>
~h "w"
<BEGINHMM>
<NUMSTATES> 5
<STATE> 2
<MEAN> 39
 3.295285e+01 8.968977e+00 1.766887e+01 -3.803929e+01 -2.231346e+01 -1.851250e+00 -2.203134e+00 1.860388e+01 -4.144058e+00 1.378343e+01 1.565355e+00 -4.714296e-01 1.219766e+02 -5.150341e-01 -4.196633e+00 -3.852698e+00 -6.160950e+00 2.376720e+00 3.189677e+00 2.318190e+00 4.783444e+00 2.093683e-01 -2.263689e+00 6.481311e-01 1.765378e-01 4.170344e+00 -5.265393e-01 -6.330838e-01 -6.497077e-01 1.158477e+00 2.068516e+00 1.531481e+00 3.302328e-01 -9.195516e-01 -7.652004e-01 -8.973823e-01 3.974468e-01 4.147664e-01 -2.209741e-01
<VARIANCE> 39
 4.783763e+01 1.832384e+02 2.250396e+02 3.084017e+02 4.155731e+02 2.729994e+02 5.966915e+02 3.918436e+02 4.389097e+02 3.976333e+02 3.348575e+02 2.785985e+02 1.197183e+02 2.170049e+00 9.677865e+00 7.534444e+00 1.376904e+01 1.829954e+01 1.768183e+01 1.829219e+01 1.887671e+01 2.078626e+01 1.985045e+01 1.623651e+01 1.780725e+01 5.123501e+00 5.728044e-01 1.250434e+00 1.315961e+00 2.969652e+00 2.216560e+00 2.360304e+00 3.967911e+00 4.187150e+00 3.302978e+00 3.224435e+00 3.186781e+00 2.729308e+00 6.077535e-01
<GCONST> 1.863618e+02
<STATE> 3
<MEAN> 39
 2.849328e+01 -8.697872e+00 1.155756e+00 -4.812644e+01 1.204546e+00 1.881746e+01 4.035857e+00 2.042254e+01 -1.178558e+01 1.457906e+00 1.055705e+01 6.553070e+00 1.343272e+02 -1.479092e+00 -4.551861e+00 -2.497116e+00 1.572312e+00 6.638900e+00 3.202921e+00 -2.346051e+00 -2.951200e+00 -8.412598e-01 6.226933e-01 3.788046e+00 2.703536e-01 2.494689e+00 -1.380903e-01 3.193324e-01 9.382018e-01 2.000739e+00 -3.677437e-01 -1.472169e+00 -1.564818e+00 -7.559038e-01 1.230283e+00 1.411825e+00 -4.493780e-01 -1.014865e+00 -5.227982e-01
<VARIANCE> 39
 5.447151e+01 1.725187e+02 2.133840e+02 2.917918e+02 5.598839e+02 3.152797e+02 5.728226e+02 4.198436e+02 3.977951e+02 4.199764e+02 3.424331e+02 2.911786e+02 1.410125e+02 1.934685e+00 6.908452e+00 5.890038e+00 1.261191e+01 1.163497e+01 1.414709e+01 2.056010e+01 1.628068e+01 2.052680e+01 2.240777e+01 1.400252e+01 1.924076e+01 3.475608e+00 2.793020e-01 6.972426e-01 9.187343e-01 2.067877e+00 2.473612e+00 2.443171e+00 2.480361e+00 3.827408e+00 3.251635e+00 3.041407e+00 4.071624e+00 2.778018e+00 2.969816e-01
<GCONST> 1.821702e+02
<STATE> 4
<MEAN> 39
 2.064647e+01 -2.480272e+01 -1.256956e+00 -2.700740e+01 2.355910e+01 1.020629e+01 -1.207785e+01 1.444423e+01 3.221348e+00 1.217782e+01 1.079054e+01 -4.391680e+00 1.398728e+02 -1.473104e+00 -1.777863e+00 2.080006e+00 4.897432e+00 -3.105730e-01 -4.066024e+00 -2.339365e+00 1.669997e+00 3.458992e+00 1.512275e-01 -3.230268e+00 -7.465747e-01 5.229685e-01 1.331547e-01 9.488365e-01 9.231361e-01 2.383523e-02 -1.394276e+00 -7.498459e-01 1.313488e+00 6.906555e-01 -6.271676e-01 -7.201611e-01 -8.755733e-01 9.678328e-01 -6.574268e-01
<VARIANCE> 39
 6.700077e+01 1.461905e+02 2.003769e+02 2.891263e+02 4.333857e+02 3.716208e+02 4.382077e+02 4.485049e+02 4.317334e+02 3.429636e+02 3.953327e+02 2.999757e+02 1.513979e+02 1.690843e+00 5.254350e+00 5.609208e+00 8.675505e+00 1.634245e+01 1.115512e+01 1.953048e+01 1.639722e+01 1.736850e+01 2.464320e+01 1.504770e+01 2.186475e+01 1.989729e+00 2.356086e-01 7.266358e-01 9.454145e-01 1.329214e+00 2.208897e+00 2.360929e+00 2.571257e+00 2.950401e+00 3.588495e+00 2.611837e+00 4.512352e+00 3.000375e+00 3.737199e-01
<GCONST> 1.802085e+02
<TRANSP> 5
 0.000000e+00 1.000000e+00 0.000000e+00 0.000000e+00 0.000000e+00
 0.000000e+00 6.965605e-01 3.034395e-01 0.000000e+00 0.000000e+00
 0.000000e+00 0.000000e+00 7.595831e-01 2.404169e-01 0.000000e+00
 0.000000e+00 0.000000e+00 0.000000e+00 7.919197e-01 2.080803e-01
 0.000000e+00 0.000000e+00 0.000000e+00 0.000000e+00 0.000000e+00
<ENDHMM>
~h "z"
<BEGINHMM>
<NUMSTATES> 5
<STATE> 2
<MEAN> 39
 -9.314507e+00 1.566677e+01 2.021459e+01 1.722138e+01 9.331471e+00 -5.112085e+00 -2.617611e+00 1.876766e+00 -6.844931e-01 2.349174e+00 -8.752369e+00 6.215940e+00 9.438940e+01 -3.059519e+00 5.370036e+00 -6.249956e-01 2.657055e+00 2.035774e+00 9.713788e-01 5.319868e-01 7.123379e-01 4.692044e-01 -1.886867e-01 -4.790406e-02 2.215981e-01 3.046092e+00 -8.733395e-01 -7.525909e-02 -7.676806e-01 -3.223957e-01 -1.943007e-01 2.253727e-01 4.590409e-02 1.621980e-01 -2.238974e-01 2.760667e-01 3.384182e-01 -1.536005e-01 5.188568e-02
<VARIANCE> 39
 3.361763e+02 2.707970e+02 3.193340e+02 3.408778e+02 3.661223e+02 3.220045e+02 3.197395e+02 2.841967e+02 2.558734e+02 2.768106e+02 2.859579e+02 3.489978e+02 6.848092e+02 4.760538e+01 2.452073e+01 3.634358e+01 3.112174e+01 2.562433e+01 3.172287e+01 2.733175e+01 2.710028e+01 2.341183e+01 2.463672e+01 2.359697e+01 2.105420e+01 3.826944e+01 4.548142e+00 4.133513e+00 4.759869e+00 4.152518e+00 4.260020e+00 4.626863e+00 4.586476e+00 4.629541e+00 3.823520e+00 4.460719e+00 4.079817e+00 4.045866e+00 3.784498e+00
<GCONST> 2.095343e+02
<STATE> 3
<MEAN> 39
 -3.329460e+01 3.193519e+01 8.971684e+00 2.491292e+01 1.288584e+01 4.433138e+00 2.362330e+00 7.016279e+00 -1.338392e+00 5.571836e+00 -4.076597e+00 6.432785e+00 1.089187e+02 -3.323888e+00 -8.754277e-02 -1.374090e+00 -6.237674e-01 -2.533554e-01 5.717548e-01 5.508434e-01 2.792937e-01 -3.977717e-01 3.255226e-01 4.675706e-01 9.452507e-03 1.084159e+00 1.727232e+00 -1.123114e+00 1.264598e+00 -4.936827e-01 -7.302085e-01 -7.485054e-01 -2.968330e-01 -7.294312e-01 -3.028133e-01 -3.149799e-01 -2.675965e-01 8.964717e-02 3.995167e-01
<VARIANCE> 39
 2.288630e+02 1.926242e+02 2.762814e+02 3.898242e+02 4.212952e+02 3.458568e+02 2.504579e+02 2.220675e+02 1.584926e+02 1.616243e+02 2.462998e+02 1.839660e+02 1.722218e+02 1.741116e+01 1.518022e+01 1.601104e+01 1.412212e+01 1.532510e+01 1.744331e+01 1.518961e+01 1.631369e+01 1.315504e+01 1.356780e+01 1.124435e+01 1.203234e+01 8.229424e+00 2.652311e+00 3.480635e+00 2.954990e+00 2.972330e+00 3.127164e+00 3.823771e+00 3.474181e+00 3.561719e+00 2.839315e+00 2.829421e+00 2.426173e+00 2.492084e+00 1.529701e+00
<GCONST> 1.907944e+02
<STATE> 4
<MEAN> 39
 -2.683330e+01 2.318391e+01 1.992729e+01 1.724313e+01 6.259573e+00 -5.707759e+00 -2.111096e+00 -1.553432e+00 -6.707073e+00 1.382632e+00 -7.291118e+00 5.720273e+00 1.222297e+02 8.249309e+00 -5.035374e+00 8.366636e+00 -1.520432e+00 -3.156137e+00 -3.706048e+00 -2.515929e+00 -3.041296e+00 -1.748288e+00 -1.454992e+00 -1.160962e+00 5.766363e-01 4.731061e+00 1.308717e+00 -1.741346e+00 1.439851e+00 -8.346118e-01 -1.704105e-01 -2.123628e-01 -3.937389e-01 2.233235e-01 -1.386262e-01 2.451712e-01 4.033589e-02 1.915402e-01 7.448632e-02
<VARIANCE> 39
 3.143295e+02 1.723987e+02 3.418724e+02 3.031154e+02 4.799283e+02 3.066327e+02 2.818391e+02 1.991784e+02 1.493990e+02 1.701817e+02 2.945817e+02 2.420346e+02 1.710475e+02 2.194113e+01 3.080505e+01 3.291077e+01 3.161785e+01 2.140688e+01 2.852098e+01 2.487489e+01 3.178351e+01 2.002157e+01 1.719407e+01 1.690609e+01 2.022663e+01 6.078759e+00 5.724454e+00 2.920867e+00 5.684552e+00 4.710591e+00 4.207066e+00 4.406942e+00 4.312263e+00 4.536285e+00 3.518843e+00 3.676346e+00 3.423268e+00 3.118450e+00 1.100825e+00
<GCONST> 2.004742e+02
<TRANSP> 5
 0.000000e+00 1.000000e+00 0.000000e+00 0.000000e+00 0.000000e+00
 0.000000e+00 7.262852e-01 2.737148e-01 0.000000e+00 0.000000e+00
 0.000000e+00 0.000000e+00 8.100741e-01 1.899259e-01 0.000000e+00
 0.000000e+00 0.000000e+00 0.000000e+00 7.412483e-01 2.587517e-01
 0.000000e+00 0.000000e+00 0.000000e+00 0.000000e+00 0.000000e+00
<ENDHMM>
~h "ah"
<BEGINHMM>
<NUMSTATES> 5
<STATE> 2
<MEAN> 39
 1.735099e+01 -1.971607e+01 1.771102e+01 -9.726252e+00 6.110615e+00 -9.496861e+00 -1.130010e+01 1.393044e+01 3.100948e+00 1.069207e+01 1.004118e+00 3.018537e+00 1.335048e+02 -1.970275e-01 6.353008e-01 2.674297e+00 6.584314e-01 -1.549236e+00 -2.356479e+00 2.184398e+00 1.836657e+00 -2.833623e-01 -5.169714e-01 -1.978819e+00 1.499591e+00 -2.323169e-02 6.460637e-02 1.272154e+00 5.073156e-01 1.303940e+00 1.181243e-01 1.249393e+00 1.377064e+00 -1.548047e+00 -8.700412e-01 -6.746368e-03 -2.722866e-01 2.875579e-01 -1.614309e+00
<VARIANCE> 39
 7.613589e+01 1.455413e+02 1.780951e+02 2.135650e+02 2.464259e+02 3.675583e+02 6.325896e+02 4.439273e+02 4.573643e+02 4.523411e+02 3.583255e+02 3.526874e+02 1.763440e+02 3.893790e+00 1.153460e+01 1.154444e+01 3.140892e+01 1.758022e+01 1.972809e+01 2.627847e+01 2.343109e+01 2.830235e+01 2.488814e+01 2.863314e+01 2.097108e+01 1.801860e+01 9.806106e-01 1.742001e+00 1.710379e+00 3.920344e+00 3.172818e+00 4.694442e+00 6.541203e+00 5.689353e+00 5.069854e+00 4.145041e+00 3.976816e+00 3.349025e+00 2.092506e+00
<GCONST> 1.976002e+02
<STATE> 3
<MEAN> 39
 1.766992e+01 -1.022193e+01 2.817345e+01 3.185159e+00 4.584990e+00 -1.083107e+01 4.418593e+00 1.026975e+01 -1.992368e+00 7.933148e+00 -8.490294e+00 1.048821e+01 1.231489e+02 7.970427e-01 5.215273e+00 4.539013e+00 7.232534e+00 -3.048080e+00 3.565256e+00 6.475833e+00 -7.774841e+00 -1.541667e+00 -7.183007e-01 -2.159711e+00 2.514499e+00 -6.211123e+00 6.291771e-02 1.584254e-01 -5.436153e-01 -2.078123e-01 -2.796135e-01 1.585688e+00 -1.494503e-01 -1.166178e+00 6.405827e-01 -6.813091e-02 7.736706e-01 -2.660892e-01 -1.630814e-01
<VARIANCE> 39
 5.726916e+01 1.834021e+02 2.118946e+02 3.485124e+02 2.738349e+02 4.088762e+02 6.079530e+02 5.181744e+02 4.252061e+02 5.412283e+02 3.963575e+02 4.013892e+02 1.910977e+02 5.278086e+00 8.878442e+00 1.575344e+01 2.082442e+01 2.303635e+01 4.404263e+01 4.995770e+01 3.959254e+01 3.923097e+01 3.038449e+01 3.510982e+01 2.689251e+01 4.092798e+00 5.816914e-01 1.565163e+00 2.526128e+00 4.371838e+00 2.976087e+00 4.862969e+00 5.411979e+00 7.055945e+00 4.476090e+00 3.961900e+00 3.641525e+00 3.237698e+00 1.504143e+00
<GCONST> 1.998783e+02
<STATE> 4
<MEAN> 39
 1.932049e+01 2.735826e+00 3.569683e+01 1.697482e+01 -5.151436e+00 7.765492e+00 1.628160e+01 -9.345200e+00 -1.819585e+00 5.078409e+00 -7.108738e+00 1.399509e+01 1.080310e+02 -1.663243e-01 2.249417e+00 6.091991e-01 1.802308e+00 -4.487553e-01 2.253282e+00 1.640300e+00 -1.492873e+00 1.742313e-01 -3.295839e-01 -2.981579e-01 4.090319e-02 -2.692951e+00 -4.295123e-01 -4.716947e-01 -8.301148e-01 -7.470128e-01 8.417996e-01 -6.672748e-01 -8.846350e-01 1.592594e+00 1.313799e-01 7.979625e-02 1.625369e-01 -5.551089e-01 3.525577e-01
<VARIANCE> 39
 5.038901e+01 1.914466e+02 1.386801e+02 2.603725e+02 2.554552e+02 4.021741e+02 4.879432e+02 4.092290e+02 5.173077e+02 5.704755e+02 5.347667e+02 4.866283e+02 1.823327e+02 2.676966e+00 6.663472e+00 7.999297e+00 1.052642e+01 1.147083e+01 1.863241e+01 1.961399e+01 2.460659e+01 1.493052e+01 1.282675e+01 1.491467e+01 1.301184e+01 3.946885e+00 6.029933e-01 1.363473e+00 1.712603e+00 2.847239e+00 2.343519e+00 3.576229e+00 4.420272e+00 4.245294e+00 3.683234e+00 3.033380e+00 3.539767e+00 3.132810e+00 9.890845e-01
<GCONST> 1.873702e+02
<TRANSP> 5
 0.000000e+00 1.000000e+00 0.000000e+00 0.000000e+00 0.000000e+00
 0.000000e+00 7.139576e-01 2.860424e-01 0.000000e+00 0.000000e+00
 0.000000e+00 0.000000e+00 5.602442e-01 4.397558e-01 0.000000e+00
 0.000000e+00 0.000000e+00 0.000000e+00 7.532504e-01 2.467496e-01
 0.000000e+00 0.000000e+00 0.000000e+00 0.000000e+00 0.000000e+00
<ENDHMM>
~h "ao"
<BEGINHMM>
<NUMSTATES> 5
<STATE> 2
<MEAN> 39
 3.442391e+01 1.372214e+01 1.344435e+01 -3.915623e+01 -2.030815e+01 1.443457e-01 -5.318274e-01 8.229730e+00 -1.429051e+01 5.633600e+00 -8.872602e+00 1.688173e+00 1.198357e+02 7.819969e+00 3.890522e+00 3.509848e+00 -9.281835e+00 -5.386907e+00 -1.389928e+00 -8.615558e-01 2.289946e+00 -1.625065e+00 1.292832e+00 -1.339398e+00 -9.395196e-01 3.872063e+00 -4.303678e+00 -2.140859e+00 -1.108978e+00 2.495847e+00 9.541885e-01 -2.249690e-01 -7.922843e-01 -5.296390e-01 5.048891e-01 1.485551e-01 4.293830e-01 3.808036e-02 -1.009624e+00
<VARIANCE> 39
 5.624178e+01 1.452858e+02 1.957739e+02 3.609464e+02 4.436230e+02 3.085293e+02 3.707675e+02 3.671932e+02 3.420378e+02 2.894501e+02 2.559011e+02 3.546609e+02 1.479370e+02 3.783759e+01 2.225035e+01 2.018177e+01 3.671645e+01 3.354822e+01 2.331047e+01 3.301720e+01 2.887508e+01 2.993890e+01 2.829300e+01 2.378761e+01 3.048531e+01 1.093038e+01 1.503768e+00 2.211992e+00 2.263777e+00 4.769446e+00 4.070017e+00 2.929501e+00 3.709558e+00 3.732256e+00 3.806615e+00 3.009983e+00 3.119141e+00 3.816057e+00 1.939746e+00
<GCONST> 2.002660e+02
<STATE> 3
<MEAN> 39
 3.554287e+01 1.668121e+01 1.674499e+01 -4.620343e+01 -2.704735e+01 -3.347933e+00 -3.972616e+00 1.045139e+01 -1.190532e+01 1.007461e+01 -8.976856e+00 -1.837724e-01 1.212050e+02 1.519465e-01 -3.905647e-01 -7.554356e-01 4.457913e-01 -3.432767e-01 -4.676263e-01 6.326903e-01 4.523372e-01 -5.726762e-01 -2.576709e-02 2.652194e-01 1.711988e-01 2.654974e-02 -2.766538e-01 -7.004070e-01 -7.609940e-01 7.879831e-01 7.246010e-01 1.583013e-01 3.612976e-01 -1.114380e-01 -3.906442e-01 -2.879391e-01 3.399514e-01 3.739789e-01 -3.504045e-04
<VARIANCE> 39
 5.419494e+01 1.726070e+02 2.573446e+02 3.375938e+02 5.022138e+02 3.578247e+02 5.246268e+02 3.791844e+02 3.824505e+02 3.708058e+02 3.051515e+02 3.702063e+02 1.408719e+02 9.190950e-01 7.151010e+00 6.815118e+00 5.571658e+00 6.194654e+00 7.480897e+00 1.128789e+01 9.768239e+00 1.070133e+01 9.229287e+00 9.101071e+00 8.530936e+00 2.741582e+00 7.332719e-01 8.086056e-01 9.985480e-01 2.029753e+00 1.471614e+00 1.297047e+00 1.748113e+00 1.850748e+00 1.893282e+00 1.991265e+00 2.013146e+00 1.998448e+00 6.353344e-01
<GCONST> 1.732197e+02
<STATE> 4
<MEAN> 39
 3.763079e+01 -3.154265e+00 -8.291759e+00 -3.081674e+01 -6.686543e+00 -7.530972e+00 -1.678958e+00 1.315806e+01 -2.391057e+01 5.676401e+00 2.379329e+00 1.164725e+01 1.275456e+02 1.287148e-01 -3.726341e+00 -4.337399e+00 3.845320e+00 6.335989e+00 -1.335718e+00 -2.439009e+00 -7.501597e-01 2.815218e-01 5.818681e-01 2.170843e+00 1.697070e+00 7.904713e-01 -1.622208e-01 3.174213e-01 5.883498e-01 4.849245e-01 3.165701e-01 -4.060130e-01 -9.370864e-01 -1.234358e-01 1.278001e+00 4.011603e-01 -4.251920e-01 -6.488067e-01 -4.018198e-01
<VARIANCE> 39
 6.019880e+01 2.395203e+02 3.168728e+02 3.048809e+02 6.348182e+02 4.686778e+02 8.448273e+02 6.363856e+02 4.900918e+02 7.319246e+02 4.123881e+02 3.731600e+02 1.651062e+02 1.690509e+00 7.447332e+00 1.130101e+01 1.447623e+01 1.679366e+01 2.351284e+01 2.546781e+01 2.759737e+01 3.044654e+01 3.622391e+01 2.843607e+01 3.655938e+01 2.997881e+00 2.820795e-01 9.748681e-01 1.749399e+00 1.634107e+00 3.072638e+00 3.030787e+00 3.414002e+00 4.660656e+00 3.947714e+00 5.743736e+00 4.946034e+00 5.299633e+00 3.201993e-01
<GCONST> 1.935915e+02
<TRANSP> 5
 0.000000e+00 1.000000e+00 0.000000e+00 0.000000e+00 0.000000e+00
 0.000000e+00 6.163120e-01 3.836880e-01 0.000000e+00 0.000000e+00
 0.000000e+00 0.000000e+00 8.682743e-01 1.317257e-01 0.000000e+00
 0.000000e+00 0.000000e+00 0.000000e+00 8.393239e-01 1.606761e-01
 0.000000e+00 0.000000e+00 0.000000e+00 0.000000e+00 0.000000e+00
<ENDHMM>
~h "ay"
<BEGINHMM>
<NUMSTATES> 5
<STATE> 2
<MEAN> 39
 1.773720e+01 -3.210151e+01 -3.641620e-01 -2.354178e+01 9.886599e+00 5.836260e+00 -4.724530e+00 1.422320e+01 7.592566e+00 1.153584e+01 5.581251e-01 -9.144334e-01 1.458724e+02 -4.580528e-01 -1.953104e+00 -2.364142e+00 -1.646901e-01 2.230054e+00 2.362160e+00 -8.515429e-01 -4.787835e-02 1.058464e+00 -6.948296e-01 3.041713e-01 -1.381035e+00 1.019100e+00 -1.714066e-01 1.111724e+00 9.042938e-01 1.200412e+00 -3.018553e-01 -2.340572e-01 1.309925e-01 -6.902789e-01 -4.816608e-01 -1.028985e-01 -1.461188e-01 1.610941e-01 -1.337179e+00
<VARIANCE> 39
 8.014771e+01 1.587078e+02 2.890545e+02 3.685674e+02 4.286736e+02 3.724930e+02 4.359226e+02 4.436349e+02 4.026666e+02 4.305790e+02 4.558339e+02 3.675414e+02 1.173201e+02 2.603103e+00 5.491699e+00 8.780904e+00 1.030269e+01 1.123567e+01 1.177904e+01 1.699483e+01 1.269098e+01 1.438053e+01 1.371730e+01 1.550592e+01 1.372021e+01 2.833246e+00 1.162706e+00 1.132618e+00 1.213420e+00 2.525308e+00 2.095107e+00 2.498839e+00 3.551869e+00 3.664567e+00 2.945575e+00 2.523957e+00 2.668227e+00 1.987924e+00 1.248968e+00
<GCONST> 1.843387e+02
<STATE> 3
<MEAN> 39
 1.638411e+01 -3.573932e+01 -2.818049e+00 -2.169881e+01 1.377700e+01 1.020363e+01 -7.046443e+00 1.297908e+01 9.131166e+00 1.032514e+01 -7.453790e-01 -4.457880e+00 1.458140e+02 -2.029581e-01 -3.090853e-01 5.830315e-01 9.369657e-01 -2.226940e-01 -9.168151e-01 -9.607868e-02 6.799291e-01 3.515687e-01 -4.361737e-01 -4.441330e-01 3.095606e-02 -1.574842e-01 -1.506107e-02 1.378099e-01 3.549281e-01 1.090474e-01 -4.097909e-01 -4.513594e-01 2.019193e-01 1.825248e-01 -6.176871e-02 -5.082151e-02 -5.352358e-02 2.330965e-01 -6.596136e-02
<VARIANCE> 39
 7.322794e+01 1.639833e+02 2.254938e+02 3.781680e+02 4.765103e+02 3.495112e+02 3.663894e+02 4.292471e+02 3.657902e+02 3.580440e+02 4.119384e+02 3.909133e+02 1.472616e+02 7.834936e-01 1.545512e+00 2.595326e+00 3.344794e+00 4.361275e+00 5.860872e+00 5.211971e+00 4.516942e+00 4.524286e+00 4.698606e+00 4.979496e+00 4.899932e+00 6.977831e-01 1.263333e-01 2.370627e-01 3.377475e-01 4.320958e-01 5.594906e-01 6.246676e-01 7.961774e-01 6.738774e-01 7.222769e-01 7.474305e-01 7.537907e-01 7.418844e-01 9.419965e-02
<GCONST> 1.491542e+02
<STATE> 4
<MEAN> 39
 1.271567e+01 -3.285836e+01 1.552634e+01 -1.258857e+01 -9.371057e-01 -7.096863e+00 1.473198e+00 2.327229e+01 7.021593e+00 3.376629e+00 -2.393122e+00 3.853870e+00 1.421391e+02 -5.803735e-01 2.167050e+00 4.246061e+00 1.272274e-01 -3.711553e+00 -2.342646e+00 2.380672e+00 -1.127281e-01 -1.870555e+00 3.949406e-01 7.304717e-01 1.426611e+00 -1.224196e+00 1.968960e-01 6.851307e-01 1.497872e-01 -1.496927e-02 2.703427e-01 3.760942e-01 -1.206993e-01 -9.284256e-01 -3.606184e-01 5.015935e-01 9.379982e-02 -1.319131e-01 -5.474803e-01
<VARIANCE> 39
 7.547442e+01 1.919727e+02 3.756192e+02 2.583965e+02 4.324619e+02 2.699402e+02 5.303069e+02 3.254407e+02 3.793240e+02 3.606007e+02 3.326198e+02 3.401736e+02 1.912537e+02 1.662443e+00 4.711672e+00 6.177036e+00 1.009061e+01 1.146292e+01 1.461947e+01 1.795004e+01 1.668062e+01 1.472476e+01 1.420214e+01 1.233625e+01 1.278324e+01 1.836517e+00 2.867747e-01 5.509309e-01 1.055179e+00 1.529212e+00 1.951795e+00 1.548298e+00 2.384291e+00 2.054416e+00 2.180149e+00 2.006225e+00 2.060903e+00 1.969612e+00 3.368096e-01
<GCONST> 1.763260e+02
<TRANSP> 5
 0.000000e+00 1.000000e+00 0.000000e+00 0.000000e+00 0.000000e+00
 0.000000e+00 7.035497e-01 2.964503e-01 0.000000e+00 0.000000e+00
 0.000000e+00 0.000000e+00 8.987043e-01 1.012957e-01 0.000000e+00
 0.000000e+00 0.000000e+00 0.000000e+00 8.042651e-01 1.957349e-01
 0.000000e+00 0.000000e+00 0.000000e+00 0.000000e+00 0.000000e+00
<ENDHMM>
~h "eh"
<BEGINHMM>
<NUMSTATES> 5
<STATE> 2
<MEAN> 39
 -5.082273e+01 6.703763e+00 -1.291205e+01 -1.296830e+00 -7.338307e+00 -7.197597e+00 -3.518279e+00 1.936463e+00 -5.648488e+00 1.684763e+00 -4.835644e+00 7.390630e+00 1.113983e+02 9.057048e+00 -5.116770e-01 6.185391e+00 5.417187e-01 -2.339963e-01 -2.004922e+00 -6.528072e-01 -5.934277e-01 1.552563e+00 2.819769e-01 -7.339514e-01 1.157386e+00 2.263213e+00 4.404177e+00 -1.014030e+00 2.485623e+00 -1.594373e-01 1.823665e-01 -1.099541e+00 -9.112918e-01 -2.585075e-01 8.230574e-01 6.782120e-01 -1.195908e-01 3.209274e-01 1.782278e+00
<VARIANCE> 39
 1.305926e+02 1.070870e+02 1.309576e+02 2.075029e+02 2.604318e+02 2.751172e+02 1.402981e+02 1.413121e+02 1.544358e+02 1.272873e+02 1.718409e+02 1.248648e+02 1.171914e+02 3.295568e+01 1.259403e+01 1.791827e+01 1.295150e+01 1.104357e+01 1.543655e+01 1.406506e+01 1.284210e+01 1.420577e+01 1.891472e+01 1.498310e+01 1.558499e+01 9.973374e+00 1.653928e+00 2.063515e+00 2.156275e+00 2.633040e+00 2.767016e+00 4.547533e+00 5.059337e+00 2.834272e+00 4.531816e+00 4.291477e+00 3.253076e+00 3.908610e+00 1.345250e+00
<GCONST> 1.862548e+02
<STATE> 3
<MEAN> 39
 -1.577089e+01 8.290227e+00 1.054784e+01 5.743170e+00 -4.542062e+00 -1.201246e+01 -6.477036e+00 -6.476544e-01 -3.551266e-02 4.818742e+00 -8.017159e+00 9.205902e+00 1.162458e+02 1.766128e+01 -5.046638e+00 9.765609e+00 -1.760124e+00 -2.227942e-01 -4.561893e+00 -3.942765e+00 -1.114512e+00 3.073589e+00 2.690429e+00 -3.281161e-01 1.362465e+00 8.458340e+00 -9.181629e-01 -2.123427e+00 -1.251824e+00 -2.036750e+00 -5.409201e-01 -3.271936e-01 -1.491898e-01 8.798503e-01 5.193057e-01 6.648847e-01 6.706930e-01 -2.301268e-01 1.767334e+00
<VARIANCE> 39
 4.347303e+02 1.036115e+02 1.732092e+02 1.682351e+02 2.993922e+02 2.109077e+02 1.787241e+02 1.722676e+02 1.762922e+02 2.310924e+02 2.347507e+02 2.273180e+02 1.712652e+02 1.225728e+01 1.755144e+01 1.919605e+01 2.648071e+01 2.348754e+01 4.637859e+01 5.813405e+01 2.194643e+01 4.374434e+01 4.236271e+01 2.741344e+01 4.197349e+01 9.456372e+00 6.362638e+00 2.073936e+00 3.513665e+00 2.085032e+00 2.845645e+00 3.347481e+00 6.110859e+00 2.708590e+00 3.659912e+00 3.265339e+00 3.096927e+00 3.013732e+00 1.741250e+00
<GCONST> 1.981708e+02
<STATE> 4
<MEAN> 39
 1.244009e+01 -1.517054e+01 2.320755e+01 -1.096859e+01 -9.370333e+00 -2.516662e+01 -1.752263e+01 -4.617760e-02 7.345380e+00 1.267226e+01 -5.422825e+00 1.273388e+01 1.442971e+02 5.281218e+00 -7.240308e+00 1.406374e+00 -5.898033e+00 -1.794666e+00 -2.405580e+00 -2.652198e-03 3.022361e+00 3.668821e+00 2.630475e+00 1.611804e+00 2.266520e-02 7.217383e+00 -4.421866e+00 6.620352e-01 -2.864245e+00 5.565174e-03 9.098632e-02 1.583485e+00 1.806089e+00 1.015512e+00 -4.083829e-01 -4.386890e-01 2.121762e-01 -8.612326e-01 -1.943325e+00
<VARIANCE> 39
 5.323772e+01 1.414674e+02 1.778680e+02 2.347242e+02 3.063684e+02 2.505688e+02 6.976611e+02 2.774369e+02 3.495946e+02 4.778249e+02 4.018512e+02 5.299587e+02 1.209509e+02 3.511332e+01 1.095442e+01 2.224729e+01 1.729537e+01 1.940916e+01 2.574974e+01 6.131490e+01 1.719906e+01 2.443848e+01 2.167898e+01 1.976946e+01 2.025184e+01 1.242433e+01 1.709165e+00 2.474268e+00 2.297090e+00 3.244034e+00 2.712896e+00 4.793162e+00 5.141799e+00 2.833955e+00 4.986315e+00 3.996169e+00 3.626423e+00 4.862060e+00 1.139327e+00
<GCONST> 1.983071e+02
<TRANSP> 5
 0.000000e+00 1.000000e+00 0.000000e+00 0.000000e+00 0.000000e+00
 0.000000e+00 5.708565e-01 4.291435e-01 0.000000e+00 0.000000e+00
 0.000000e+00 0.000000e+00 4.159861e-01 5.840139e-01 0.000000e+00
 0.000000e+00 0.000000e+00 0.000000e+00 6.105071e-01 3.894929e-01
 0.000000e+00 0.000000e+00 0.000000e+00 0.000000e+00 0.000000e+00
<ENDHMM>
~h "ey"
<BEGINHMM>
<NUMSTATES> 5
<STATE> 2
<MEAN> 39
 -8.104152e+00 -7.372339e+00 1.857293e+01 -1.020165e+01 -1.620877e+01 -1.716880e+01 -4.775399e+00 -2.774752e+00 -2.190964e+00 8.973798e+00 -1.463847e+00 6.771774e+00 9.534357e+01 1.735529e+00 -2.480422e+00 4.097692e+00 -2.276882e+00 -2.391524e+00 -1.412348e+00 1.179070e+00 1.180538e+00 8.458155e-01 1.057482e+00 3.262193e-01 5.346380e-01 7.207746e+00 2.573931e-01 5.587408e-02 3.566630e-01 -1.190479e-01 1.747148e-01 4.028682e-01 1.836617e-01 7.403670e-02 -1.897830e-01 1.458898e-03 1.107460e-01 6.062365e-02 8.552983e-01
<VARIANCE> 39
 3.598039e+02 2.538156e+02 5.069326e+02 4.510493e+02 3.524064e+02 4.011299e+02 5.367835e+02 4.901990e+02 4.708139e+02 3.719297e+02 2.987413e+02 2.892078e+02 1.249828e+03 3.629428e+01 2.097118e+01 4.314315e+01 3.851667e+01 3.222215e+01 3.869792e+01 4.961576e+01 4.214183e+01 4.182950e+01 3.378604e+01 3.009340e+01 2.817172e+01 1.369891e+02 5.009402e+00 4.041422e+00 6.297505e+00 5.922760e+00 6.060616e+00 6.834051e+00 8.659542e+00 7.819015e+00 7.333694e+00 6.236522e+00 5.760481e+00 5.397057e+00 1.946058e+01
<GCONST> 2.228839e+02
<STATE> 3
<MEAN> 39
 2.322593e+00 -1.319451e+01 5.363130e+01 -2.266394e+01 -2.160726e+01 -1.438659e+01 -7.159379e-01 -2.698078e+00 -6.558692e+00 1.101419e+01 -1.196584e+00 9.257675e+00 1.410382e+02 -4.165105e-01 1.462021e+00 2.606492e+00 1.628344e-01 7.411458e-01 1.266981e+00 -7.182992e-01 -1.791610e+00 -1.138065e+00 -6.930677e-01 -7.437865e-01 -2.433839e-01 -1.450399e-01 -1.858367e-01 3.213215e-01 -1.632222e-01 4.104403e-01 3.742893e-01 1.717546e-01 -2.471035e-02 -1.749345e-01 -5.935139e-02 -1.815712e-01 -2.539237e-01 -1.272424e-01 -9.669366e-01
<VARIANCE> 39
 6.775721e+01 2.293499e+02 4.069141e+02 4.374031e+02 2.213059e+02 3.071821e+02 5.225842e+02 4.083692e+02 6.648114e+02 2.902234e+02 2.114064e+02 2.105542e+02 1.493657e+02 2.985918e+00 5.307000e+00 6.018538e+00 5.587994e+00 8.407454e+00 8.360828e+00 1.125597e+01 1.036597e+01 1.058707e+01 9.658707e+00 8.588426e+00 9.757576e+00 9.653708e+00 6.520569e-01 8.080246e-01 1.084450e+00 1.124542e+00 1.149446e+00 1.370318e+00 1.697652e+00 1.589274e+00 1.574640e+00 1.480238e+00 1.289383e+00 1.289939e+00 1.911232e+00
<GCONST> 1.743169e+02
<STATE> 4
<MEAN> 39
 -3.580925e+00 7.118561e+00 7.146104e+01 -8.900108e+00 -7.435328e+00 -1.858815e-01 -3.797209e+00 -2.031027e+01 -1.453182e+01 6.670163e-01 -1.358024e+01 5.297844e+00 1.175482e+02 -3.145722e-01 2.681420e+00 -3.568591e+00 5.683649e+00 1.666972e+00 1.233041e+00 1.291461e+00 9.525988e-01 2.475960e-01 -9.509276e-01 -1.752783e-01 -1.050880e+00 -8.500867e+00 -2.360001e-01 1.496092e-02 -2.692459e+00 6.302562e-01 6.084172e-02 -2.879798e-01 5.083942e-02 1.072292e+00 7.185076e-01 1.909025e-01 8.864051e-01 1.550010e-02 -1.563046e+00
<VARIANCE> 39
 7.199091e+01 2.421461e+02 2.143013e+02 5.444968e+02 2.745728e+02 3.231944e+02 3.161450e+02 5.794762e+02 6.650755e+02 3.869760e+02 3.354104e+02 4.443210e+02 3.496814e+02 6.852181e+00 1.310114e+01 4.780182e+01 2.513053e+01 1.993538e+01 1.837504e+01 2.276820e+01 2.961273e+01 3.271880e+01 2.199625e+01 2.255496e+01 2.281454e+01 2.945747e+01 1.543923e+00 2.331699e+00 4.255569e+00 4.947250e+00 3.451847e+00 3.272237e+00 3.896250e+00 4.930238e+00 4.961523e+00 3.927051e+00 3.777470e+00 4.082825e+00 3.180829e+00
<GCONST> 2.036304e+02
<TRANSP> 5
 0.000000e+00 1.000000e+00 0.000000e+00 0.000000e+00 0.000000e+00
 0.000000e+00 8.225328e-01 1.774672e-01 0.000000e+00 0.000000e+00
 0.000000e+00 0.000000e+00 9.137655e-01 8.623452e-02 0.000000e+00
 0.000000e+00 0.000000e+00 0.000000e+00 8.150617e-01 1.849383e-01
 0.000000e+00 0.000000e+00 0.000000e+00 0.000000e+00 0.000000e+00
<ENDHMM>
~h "hh"
<BEGINHMM>
<NUMSTATES> 5
<STATE> 2
<MEAN> 39
 -3.885561e+00 2.523758e+00 3.193357e+00 -2.441259e+00 1.448637e+00 4.553708e+00 1.170711e+00 6.187425e-01 -5.403338e+00 4.369199e+00 -2.335459e+00 2.653802e+00 8.089877e+01 3.124113e+00 2.703014e+00 1.252810e+00 1.239063e-01 -6.119714e-01 1.321322e+00 1.660329e+00 6.130162e-01 3.061633e-01 5.794435e-01 1.027070e-01 -3.410857e-01 -6.711394e-01 8.099528e-01 5.577587e-01 7.245609e-01 -1.359176e-01 -6.653600e-01 -4.902658e-01 -1.431968e-02 1.149115e-01 7.684220e-02 2.447241e-01 -6.714316e-02 -2.945296e-02 6.947907e-01
<VARIANCE> 39
 6.113504e+02 2.902107e+02 2.270413e+02 2.544577e+02 2.896659e+02 3.022397e+02 3.389556e+02 2.912388e+02 3.212900e+02 2.395555e+02 2.091389e+02 2.059229e+02 6.542197e+02 2.978833e+01 2.709253e+01 2.483087e+01 2.606808e+01 2.743211e+01 3.230170e+01 2.902445e+01 2.755086e+01 2.475048e+01 2.143884e+01 1.960417e+01 1.653174e+01 2.369249e+01 4.269743e+00 4.531001e+00 3.725794e+00 4.827248e+00 5.486702e+00 6.052429e+00 5.863044e+00 5.345261e+00 5.078987e+00 4.538674e+00 3.961565e+00 3.403728e+00 4.364579e+00
<GCONST> 2.078827e+02
<STATE> 3
<MEAN> 39
 2.048005e+01 2.330269e+01 1.734468e+01 7.795767e-01 -2.945463e+00 7.683334e+00 8.986771e+00 3.651171e+00 -3.399472e+00 7.706443e+00 -3.457246e+00 1.603599e+00 8.760065e+01 6.564010e+00 2.384981e+00 2.505054e+00 -3.059629e+00 -3.786211e+00 -1.895446e+00 -6.315548e-01 3.119604e-02 -1.402350e-01 1.607813e+00 -2.269652e-01 -4.817998e-01 5.295411e+00 -5.807625e-01 -1.605786e+00 -5.239170e-01 -1.607770e+00 -5.639178e-01 -9.255095e-01 -1.066657e+00 -2.852535e-01 -3.186842e-01 1.813371e-01 1.855654e-01 2.144555e-01 9.648671e-01
<VARIANCE> 39
 2.445930e+02 2.059172e+02 1.292275e+02 2.988243e+02 2.575478e+02 2.394011e+02 2.367304e+02 2.250089e+02 3.172151e+02 2.111784e+02 1.882140e+02 1.969788e+02 3.833060e+02 3.857646e+01 2.082288e+01 1.786879e+01 3.150292e+01 2.242738e+01 2.049287e+01 2.398341e+01 2.391672e+01 2.758262e+01 2.028792e+01 1.836754e+01 1.860991e+01 3.908093e+01 4.219909e+00 3.431115e+00 2.803220e+00 5.440817e+00 3.823102e+00 3.604966e+00 3.991998e+00 3.946926e+00 3.852545e+00 3.351610e+00 3.051094e+00 2.949421e+00 2.941624e+00
<GCONST> 2.005034e+02
<STATE> 4
<MEAN> 39
 3.261943e+01 2.062377e+01 2.240565e+01 -1.399849e+01 -1.709043e+01 -3.933230e-01 -3.201604e-01 1.616822e+00 -7.478898e+00 1.239783e+01 -2.658437e+00 7.239879e-01 1.057812e+02 1.075677e+00 -1.206941e+00 3.636975e-01 -4.379280e+00 -2.388144e+00 -1.838118e+00 -1.793690e+00 1.094400e+00 2.667699e-01 1.196303e+00 1.104856e+00 2.841567e-01 3.343273e+00 -8.401402e-01 -9.712012e-01 -8.882147e-01 -6.957312e-01 7.999673e-01 6.189001e-01 4.498436e-01 9.359354e-01 1.675132e-01 -3.654070e-01 2.144610e-01 4.022197e-02 1.550760e-01
<VARIANCE> 39
 5.018238e+01 2.134034e+02 1.917331e+02 2.437382e+02 2.878814e+02 2.911727e+02 3.792386e+02 3.100100e+02 4.047367e+02 3.202463e+02 2.787487e+02 2.976489e+02 1.460128e+02 6.228189e+00 1.304953e+01 1.066700e+01 2.657881e+01 1.561666e+01 1.539794e+01 2.051103e+01 1.959044e+01 1.811275e+01 1.707602e+01 1.574753e+01 1.447938e+01 1.365133e+01 2.113081e+00 2.305540e+00 2.016382e+00 2.898983e+00 3.220807e+00 3.226987e+00 3.509288e+00 3.943368e+00 3.617408e+00 3.202028e+00 3.007000e+00 3.028051e+00 1.938431e+00
<GCONST> 1.917410e+02
<TRANSP> 5
 0.000000e+00 1.000000e+00 0.000000e+00 0.000000e+00 0.000000e+00
 0.000000e+00 6.533414e-01 3.466586e-01 0.000000e+00 0.000000e+00
 0.000000e+00 0.000000e+00 5.406427e-01 4.593574e-01 0.000000e+00
 0.000000e+00 0.000000e+00 0.000000e+00 7.327670e-01 2.672330e-01
 0.000000e+00 0.000000e+00 0.000000e+00 0.000000e+00 0.000000e+00
<ENDHMM>
~h "ih"
<BEGINHMM>
<NUMSTATES> 5
<STATE> 2
<MEAN> 39
 -4.204993e+01 9.729739e+00 -2.721147e+00 2.815657e+00 -7.269543e+00 -8.006639e+00 -2.082358e+00 1.560964e+00 -5.125831e+00 1.715051e+00 -4.962082e+00 7.882596e+00 1.134247e+02 1.261139e+01 -1.075415e+00 1.052886e+01 1.848846e+00 2.655831e-01 -2.928196e+00 -1.819028e+00 -1.514391e+00 3.916708e-01 2.673478e-01 -9.712362e-01 8.435823e-01 4.293484e+00 2.661090e+00 -1.589950e+00 2.138205e+00 -3.183872e-01 -1.271574e-01 -1.249377e+00 -1.042078e+00 -4.382978e-01 -3.045324e-01 3.164566e-01 -5.694427e-02 1.603764e-01 1.709029e+00
<VARIANCE> 39
 2.845687e+02 1.119060e+02 2.630500e+02 2.234565e+02 2.937908e+02 2.832481e+02 1.531682e+02 1.445002e+02 1.664854e+02 1.517807e+02 2.111729e+02 1.582435e+02 1.190602e+02 3.056440e+01 1.977162e+01 2.466122e+01 1.819090e+01 1.518194e+01 2.710742e+01 2.988496e+01 1.682739e+01 1.943036e+01 2.004040e+01 1.727163e+01 2.598388e+01 1.411666e+01 5.806341e+00 2.378102e+00 4.856132e+00 3.712821e+00 3.200935e+00 4.464685e+00 5.692369e+00 3.638007e+00 4.857597e+00 3.520979e+00 3.204683e+00 4.069023e+00 1.132653e+00
<GCONST> 1.959036e+02
<STATE> 3
<MEAN> 39
 6.067150e+00 -9.769327e+00 3.684505e+01 -4.987883e+00 -1.420582e+01 -2.638084e+01 -9.283743e+00 -6.249380e+00 -3.152504e+00 6.253078e+00 -3.655658e+00 1.374327e+01 1.392738e+02 3.640909e+00 -3.706296e+00 4.138551e+00 -1.893346e+00 -1.738424e+00 -2.793894e+00 8.797374e-02 -4.124590e-01 -6.971822e-01 1.119399e+00 4.982587e-01 3.473522e-01 2.960675e+00 -2.249726e+00 5.386257e-01 -1.481694e+00 3.239003e-01 -1.180488e-01 5.707685e-01 9.678355e-01 2.984813e-01 -5.449611e-01 -6.011894e-02 1.929891e-01 -3.388027e-01 -1.454730e+00
<VARIANCE> 39
 7.399776e+01 1.954060e+02 1.890256e+02 2.860714e+02 3.366383e+02 2.407993e+02 6.547544e+02 2.801882e+02 2.795637e+02 2.400008e+02 3.366541e+02 4.348873e+02 1.550467e+02 3.966488e+01 1.629294e+01 2.962849e+01 2.023187e+01 1.315378e+01 2.504173e+01 4.032455e+01 2.244499e+01 2.538011e+01 1.666895e+01 1.654902e+01 2.000854e+01 1.866954e+01 5.241445e+00 2.215139e+00 3.300253e+00 3.151534e+00 2.004730e+00 3.607635e+00 3.967211e+00 2.691326e+00 2.568115e+00 2.871382e+00 2.984217e+00 3.860492e+00 1.584396e+00
<GCONST> 1.979210e+02
<STATE> 4
<MEAN> 39
 5.176892e+00 -1.546029e+01 4.554291e+01 3.629997e+00 -1.711133e+01 -3.296577e+01 -1.963351e+00 -2.951233e+00 -1.944286e+01 8.272028e+00 -3.238133e+00 8.462722e+00 1.334421e+02 -1.067278e+00 3.442110e+00 -1.655310e-01 5.832917e+00 1.483412e+00 1.025905e+00 3.389659e+00 3.299674e-01 -3.091764e+00 -1.136140e+00 6.872534e-01 -1.456223e+00 -9.171381e+00 -1.268503e+00 1.887773e+00 -2.249646e+00 8.613301e-01 1.348118e+00 1.722904e+00 -6.544919e-01 1.869910e-01 1.003617e+00 -7.733847e-01 8.096141e-03 -2.404483e-01 -3.721545e+00
<VARIANCE> 39
 7.434467e+01 1.794038e+02 2.414988e+02 3.980641e+02 3.474942e+02 3.678227e+02 9.748124e+02 9.607331e+02 6.753809e+02 3.579526e+02 2.593326e+02 2.869602e+02 2.771631e+02 7.647885e+00 2.090965e+01 1.868704e+01 2.183227e+01 2.104162e+01 2.902328e+01 3.698908e+01 4.067076e+01 3.339064e+01 2.479322e+01 2.369570e+01 2.303975e+01 5.046865e+01 2.183475e+00 3.298589e+00 3.931952e+00 6.422196e+00 3.617085e+00 5.431990e+00 1.060595e+01 1.088722e+01 9.306018e+00 5.320164e+00 4.203881e+00 3.734686e+00 3.750683e+00
<GCONST> 2.100624e+02
<TRANSP> 5
 0.000000e+00 1.000000e+00 0.000000e+00 0.000000e+00 0.000000e+00
 0.000000e+00 6.701555e-01 3.298446e-01 0.000000e+00 0.000000e+00
 0.000000e+00 0.000000e+00 8.160639e-01 1.839361e-01 0.000000e+00
 0.000000e+00 0.000000e+00 0.000000e+00 7.597842e-01 2.402158e-01
 0.000000e+00 0.000000e+00 0.000000e+00 0.000000e+00 0.000000e+00
<ENDHMM>
~h "iy"
<BEGINHMM>
<NUMSTATES> 5
<STATE> 2
<MEAN> 39
 3.073183e+00 -7.206719e+00 6.034418e+01 -3.969481e+00 -7.931956e+00 -2.117159e+01 3.806140e+00 -1.461642e+01 -1.488565e+01 8.647572e+00 -8.139526e+00 1.255277e+01 1.353206e+02 8.210040e-01 -1.873905e+00 4.980771e+00 -4.306068e+00 -7.138376e-01 1.472899e+00 -5.339063e-01 -1.562762e+00 7.620542e-02 1.143452e+00 -1.091209e+00 2.384080e-01 7.295725e-01 -3.735387e-01 6.448514e-01 -2.458589e+00 1.453253e+00 9.098808e-01 -1.694169e-01 -3.272636e-01 1.462902e+00 2.124394e-01 -4.382318e-01 5.662767e-01 -2.586261e-01 -8.903333e-01
<VARIANCE> 39
 7.581538e+01 1.935665e+02 2.220202e+02 3.115611e+02 2.165435e+02 2.993874e+02 6.207985e+02 5.016827e+02 3.477266e+02 3.573011e+02 2.372178e+02 3.396014e+02 1.043483e+02 2.275935e+01 4.058880e+01 1.841490e+01 2.645556e+01 2.024007e+01 4.503502e+01 2.662346e+01 3.205556e+01 2.711049e+01 2.111652e+01 1.760784e+01 1.381669e+01 5.182089e+00 2.693851e+00 1.825609e+00 2.625762e+00 3.671937e+00 3.654901e+00 3.397980e+00 4.203705e+00 3.344945e+00 3.521557e+00 3.136624e+00 2.343921e+00 2.726059e+00 4.638926e-01
<GCONST> 1.963996e+02
<STATE> 3
<MEAN> 39
 5.676676e+00 -1.427246e+01 6.695576e+01 3.817713e+00 -9.781387e+00 -1.575496e+01 -7.077065e+00 3.843429e+00 -2.783897e+01 2.608431e+00 -4.308696e+00 1.670204e+00 1.339348e+02 1.347532e+00 -6.326422e-03 -3.065041e+00 1.910619e+00 1.302066e+00 -1.473446e+00 1.157019e-01 1.265202e+00 5.783033e-01 -2.667806e-01 7.583654e-01 -2.184684e-01 -1.592505e+00 1.722132e-01 4.659988e-01 -2.141289e+00 4.767414e-01 1.162458e+00 -3.620243e-01 -5.125315e-01 -3.392506e-02 1.049171e+00 -2.279953e-01 -8.587231e-02 2.579217e-01 -5.079262e-01
<VARIANCE> 39
 1.087713e+02 2.026852e+02 3.150723e+02 3.580118e+02 2.256869e+02 5.417472e+02 7.075052e+02 5.818038e+02 3.784048e+02 4.840243e+02 2.535289e+02 3.100770e+02 1.606881e+02 1.109262e+01 1.508071e+01 2.510782e+01 1.595595e+01 1.534859e+01 2.809217e+01 2.290045e+01 2.205280e+01 1.741899e+01 1.488714e+01 1.273994e+01 1.140981e+01 3.892803e+00 1.157319e+00 1.598137e+00 2.396805e+00 2.879176e+00 2.878464e+00 3.374253e+00 3.415854e+00 3.380550e+00 2.887223e+00 2.513460e+00 2.125811e+00 1.875133e+00 4.696270e-01
<GCONST> 1.915988e+02
<STATE> 4
<MEAN> 39
 -1.537276e+00 6.210915e+00 4.962366e+01 -5.665720e+00 -1.978678e+00 -4.601500e-01 3.500440e+00 -1.004126e+01 -3.232332e+00 3.402532e+00 -9.064600e+00 9.385485e+00 1.081448e+02 -2.611923e-01 1.785328e-01 -5.125916e+00 1.051436e+00 1.435333e+00 8.778549e-01 -1.007983e+00 8.963580e-01 1.778651e+00 -5.283085e-01 3.229195e-01 -2.585746e-01 -3.053093e+00 -1.138139e-01 -1.909913e-01 -4.268978e-01 -1.975859e-01 -1.529194e-01 3.433730e-02 -1.135070e-01 -6.248154e-02 -2.611917e-01 2.676831e-01 1.376452e-01 -1.589598e-01 -2.149566e-02
<VARIANCE> 39
 2.173499e+02 3.857685e+02 4.818290e+02 5.403444e+02 2.860212e+02 8.310221e+02 4.998112e+02 5.451168e+02 4.045086e+02 3.577379e+02 2.670356e+02 2.841294e+02 5.601403e+02 1.387981e+01 1.703815e+01 2.951358e+01 2.125585e+01 2.443865e+01 3.097209e+01 2.626088e+01 2.589316e+01 2.523951e+01 1.998897e+01 1.583329e+01 1.640118e+01 7.317030e+00 1.294663e+00 2.513460e+00 2.958026e+00 4.334555e+00 2.917693e+00 5.198403e+00 3.611091e+00 4.295603e+00 3.749598e+00 3.295813e+00 2.784979e+00 2.577449e+00 9.699675e-01
<GCONST> 2.023038e+02
<TRANSP> 5
 0.000000e+00 1.000000e+00 0.000000e+00 0.000000e+00 0.000000e+00
 0.000000e+00 6.522498e-01 3.477502e-01 0.000000e+00 0.000000e+00
 0.000000e+00 0.000000e+00 7.247441e-01 2.752558e-01 0.000000e+00
 0.000000e+00 0.000000e+00 0.000000e+00 7.645055e-01 2.354945e-01
 0.000000e+00 0.000000e+00 0.000000e+00 0.000000e+00 0.000000e+00
<ENDHMM>
~h "ow"
<BEGINHMM>
<NUMSTATES> 5
<STATE> 2
<MEAN> 39
 9.602705e-01 -8.779359e+00 -1.688684e+00 -1.458083e+01 -4.042503e+00 -8.806141e+00 -7.396992e+00 -2.421121e+00 -5.305637e-01 1.173045e+01 4.119751e-01 2.870394e+00 9.609855e+01 2.331075e+00 -1.700201e+00 -5.366677e-01 -2.917692e+00 6.162001e-01 1.324203e+00 1.315965e+00 6.422011e-02 1.137240e+00 2.087470e+00 -1.471196e-01 -8.912566e-01 5.004262e+00 3.506510e-01 -1.281683e-02 3.716010e-01 -1.422824e-01 2.793894e-01 3.148593e-01 1.618351e-02 5.136076e-02 -7.658041e-02 2.553390e-02 -7.553416e-02 2.030367e-01 9.193795e-01
<VARIANCE> 39
 5.560823e+02 3.068514e+02 2.673228e+02 4.013226e+02 3.925281e+02 5.365115e+02 4.810515e+02 5.008940e+02 5.717365e+02 5.369694e+02 4.959172e+02 3.366960e+02 1.158328e+03 4.940897e+01 2.263034e+01 2.496135e+01 3.582534e+01 3.415157e+01 3.359635e+01 3.651884e+01 3.863010e+01 4.395244e+01 3.955343e+01 4.021133e+01 3.109359e+01 1.262084e+02 6.254334e+00 3.945254e+00 3.519475e+00 5.240554e+00 5.579228e+00 5.550068e+00 6.599407e+00 6.865563e+00 7.149842e+00 7.049118e+00 7.017159e+00 5.673107e+00 1.508066e+01
<GCONST> 2.228994e+02
<STATE> 3
<MEAN> 39
 2.090184e+01 -2.419224e+01 2.243448e+00 -2.959942e+01 6.943252e+00 -1.156144e+01 -1.374364e+00 -6.293025e-01 5.324372e+00 2.828713e+01 -1.132997e+00 1.107086e+00 1.405222e+02 4.897861e-01 1.198377e+00 4.110343e-01 -1.781296e+00 -2.002445e-01 2.413519e+00 -3.104441e-01 -1.681891e+00 -5.819746e-01 6.116997e-01 4.334888e-01 9.932456e-01 5.607945e-01 -2.320047e-01 6.255789e-01 1.348822e-02 6.210988e-01 -8.246356e-02 -3.110243e-02 -1.974754e-01 -2.014562e-02 -3.008350e-01 -7.748437e-01 -9.579043e-02 4.187436e-01 -1.112801e+00
<VARIANCE> 39
 9.042027e+01 1.550371e+02 2.171621e+02 2.823061e+02 2.940524e+02 5.296656e+02 5.285640e+02 3.883475e+02 7.725244e+02 4.347355e+02 5.133327e+02 2.449057e+02 1.798251e+02 4.137022e+00 6.744770e+00 5.550000e+00 8.459081e+00 7.913938e+00 1.171011e+01 1.182960e+01 1.221967e+01 1.554281e+01 1.390809e+01 1.361699e+01 1.240587e+01 1.146848e+01 1.137223e+00 7.853184e-01 8.944825e-01 1.493540e+00 1.382129e+00 1.509280e+00 1.939516e+00 1.978472e+00 2.080068e+00 2.160651e+00 2.279299e+00 1.755694e+00 2.485144e+00
<GCONST> 1.817774e+02
<STATE> 4
<MEAN> 39
 2.555454e+01 2.687123e-01 6.738635e+00 -3.074480e+01 -4.915431e+00 9.295103e+00 -1.446422e+00 -1.482925e+00 -1.016307e+01 1.055667e+01 -5.315056e-01 7.893500e+00 1.218806e+02 -7.222586e-01 1.456393e+00 4.452450e-01 1.568678e+00 2.184580e-01 5.078392e-01 5.272315e-01 2.137781e-01 -5.601779e-03 -1.155558e+00 -8.565878e-01 -1.792891e-01 -2.425975e+00 -3.738803e-01 -2.122607e-01 -8.233301e-02 4.304623e-01 1.340412e-01 -2.277170e-01 -8.703151e-02 7.289428e-02 2.271411e-01 7.327698e-02 3.963461e-02 -1.485925e-01 -1.752368e-01
<VARIANCE> 39
 1.163718e+02 3.170244e+02 2.641307e+02 5.395171e+02 5.781956e+02 4.338261e+02 4.755465e+02 4.168249e+02 7.670284e+02 4.225857e+02 4.248292e+02 3.534407e+02 4.865425e+02 7.143942e+00 1.033993e+01 8.261056e+00 1.737312e+01 1.257625e+01 1.384683e+01 1.471896e+01 1.621333e+01 1.874544e+01 1.674349e+01 1.663659e+01 1.438806e+01 5.256347e+00 1.033369e+00 1.427417e+00 1.227621e+00 2.344357e+00 1.877486e+00 2.234172e+00 2.324846e+00 2.631705e+00 2.860890e+00 2.445353e+00 2.510398e+00 2.291719e+00 5.766610e-01
<GCONST> 1.901108e+02
<TRANSP> 5
 0.000000e+00 1.000000e+00 0.000000e+00 0.000000e+00 0.000000e+00
 0.000000e+00 7.252235e-01 2.747765e-01 0.000000e+00 0.000000e+00
 0.000000e+00 0.000000e+00 7.997656e-01 2.002344e-01 0.000000e+00
 0.000000e+00 0.000000e+00 0.000000e+00 9.156694e-01 8.433066e-02
 0.000000e+00 0.000000e+00 0.000000e+00 0.000000e+00 0.000000e+00
<ENDHMM>
~h "sp"
<BEGINHMM>
<NUMSTATES> 3
<STATE> 2
~s "silst"
<TRANSP> 3
 0.000000e+00 2.849397e-02 9.715061e-01
 0.000000e+00 9.064175e-01 9.358246e-02
 0.000000e+00 0.000000e+00 0.000000e+00
<ENDHMM>
~h "th"
<BEGINHMM>
<NUMSTATES> 5
<STATE> 2
<MEAN> 39
 -2.613177e+01 1.710635e+00 1.681886e+00 8.046406e+00 -3.803717e+00 1.644083e+00 -3.355266e+00 8.660547e-01 -4.419404e+00 2.214149e+00 -2.345280e+00 4.308110e+00 8.067129e+01 -2.046598e+00 -1.076481e+00 -1.636903e+00 -1.421916e+00 -1.457527e+00 -3.452103e-01 -8.798016e-01 -1.283280e-01 3.573949e-03 -5.620115e-01 -5.652871e-02 3.027962e-01 2.044074e+00 1.046458e+00 -1.762297e-01 9.150849e-01 -3.595838e-01 -8.652055e-02 -3.734581e-01 1.807022e-01 -2.066160e-01 -3.002557e-02 1.969532e-01 -1.239033e-01 1.154876e-01 1.827877e+00
<VARIANCE> 39
 2.116006e+02 1.588551e+02 1.431279e+02 1.483893e+02 1.602097e+02 1.604801e+02 1.680818e+02 1.651876e+02 1.740728e+02 1.450234e+02 1.420932e+02 1.302115e+02 5.336541e+02 2.508334e+01 1.723372e+01 1.918920e+01 2.192302e+01 1.831014e+01 2.103975e+01 2.155053e+01 2.115038e+01 2.298122e+01 1.841966e+01 1.764648e+01 1.700327e+01 9.220459e+01 3.430235e+00 3.605734e+00 3.927609e+00 3.877534e+00 3.539785e+00 4.110953e+00 4.156915e+00 3.971995e+00 4.341574e+00 3.737735e+00 3.572638e+00 3.504473e+00 9.815742e+00
<GCONST> 1.974725e+02
<STATE> 3
<MEAN> 39
 -2.428576e+01 -5.869166e+00 1.064927e+01 -1.689123e+00 -1.212356e+01 -4.705062e+00 -2.499133e+00 -1.138991e+00 -2.648396e+00 3.275403e+00 -3.974623e+00 7.046364e+00 1.147515e+02 5.692994e+00 -1.996569e+00 5.998842e+00 2.766548e+00 1.717712e+00 -2.184864e+00 5.976698e-01 5.381528e-01 3.142749e-01 1.595817e+00 4.853348e-01 -3.802674e-01 4.153258e+00 2.340919e+00 -2.367591e-01 -3.180974e-01 1.809097e+00 2.071038e+00 -2.420754e-01 -9.385208e-01 1.916917e-01 -3.784982e-01 1.041795e-02 3.783931e-01 -3.857780e-01 -2.435074e+00
<VARIANCE> 39
 1.766663e+02 1.569112e+02 2.791326e+02 1.632327e+02 1.631080e+02 2.042569e+02 2.150771e+02 1.969666e+02 1.913538e+02 1.842305e+02 1.836861e+02 2.085673e+02 1.407006e+02 3.325084e+01 1.924119e+01 2.483526e+01 3.391545e+01 2.569723e+01 2.956522e+01 2.705608e+01 2.499670e+01 2.340826e+01 2.065560e+01 2.178103e+01 2.415983e+01 4.975923e+01 4.256949e+00 4.360152e+00 9.636840e+00 5.092441e+00 4.984546e+00 6.295150e+00 7.275401e+00 5.503944e+00 5.001842e+00 5.474946e+00 4.929222e+00 5.197136e+00 6.074553e+00
<GCONST> 2.046810e+02
<STATE> 4
<MEAN> 39
 1.762054e+01 -1.253057e+01 1.424303e+01 1.696793e+01 1.377608e+01 -9.140663e+00 -1.682762e+01 -3.068081e+00 -6.572126e+00 4.429015e+00 -6.385401e-01 3.380502e+00 1.153024e+02 1.046113e+01 -1.588417e+00 -3.912330e+00 1.032967e+00 7.455378e+00 -1.256796e+00 -6.566007e+00 -9.529509e-01 -1.340159e+00 -1.395004e+00 -3.605662e-02 -1.687128e-02 1.445553e+00 -1.720260e+00 -5.663456e-02 -8.122391e-01 -1.343017e+00 -7.537906e-01 -3.036970e-01 -7.000302e-02 4.352097e-01 -6.568207e-02 -3.864221e-01 -3.392844e-01 2.302865e-01 2.644392e-01
<VARIANCE> 39
 3.858509e+02 1.499931e+02 3.140608e+02 1.944368e+02 3.121371e+02 4.448081e+02 4.102825e+02 2.868886e+02 2.070684e+02 1.946452e+02 1.784967e+02 1.631353e+02 1.822156e+02 2.949545e+01 2.201991e+01 3.027957e+01 2.986474e+01 3.180825e+01 5.847339e+01 4.094613e+01 3.265263e+01 2.641801e+01 2.878066e+01 2.580945e+01 2.105578e+01 1.227460e+01 7.330767e+00 3.852988e+00 1.094013e+01 5.791657e+00 7.004195e+00 8.396635e+00 8.651594e+00 6.935429e+00 5.162853e+00 4.553312e+00 4.595098e+00 4.093083e+00 3.180222e+00
<GCONST> 2.096247e+02
<TRANSP> 5
 0.000000e+00 1.000000e+00 0.000000e+00 0.000000e+00 0.000000e+00
 0.000000e+00 8.352004e-01 1.647996e-01 0.000000e+00 0.000000e+00
 0.000000e+00 0.000000e+00 7.369137e-01 2.630863e-01 0.000000e+00
 0.000000e+00 0.000000e+00 0.000000e+00 7.378320e-01 2.621680e-01
 0.000000e+00 0.000000e+00 0.000000e+00 0.000000e+00 0.000000e+00
<ENDHMM>
~h "uw"
<BEGINHMM>
<NUMSTATES> 5
<STATE> 2
<MEAN> 39
 -6.439557e-01 -3.598492e+00 4.624114e+01 1.048635e+01 -5.437279e+00 -1.343570e+01 -8.597637e-01 3.102077e+00 -1.248372e+01 1.716346e+00 -7.453510e+00 7.076094e+00 1.259157e+02 9.242300e+00 -2.563524e+00 6.597908e+00 1.313978e+00 1.118757e+00 -1.510807e+00 -4.366417e+00 -4.024375e-01 -2.219193e+00 3.418434e-01 -5.989615e-01 -8.927168e-01 5.098327e+00 -2.389357e+00 -3.894354e-01 -1.685766e+00 -1.522671e+00 -2.682578e-01 -3.495130e-01 -4.699881e-01 -2.991170e-01 -5.355059e-01 6.824532e-02 3.646258e-01 3.586080e-02 3.570931e-01
<VARIANCE> 39
 2.134197e+02 1.964019e+02 2.196642e+02 2.682561e+02 1.562687e+02 2.452340e+02 6.056263e+02 4.560650e+02 2.998592e+02 2.279487e+02 2.183637e+02 2.884852e+02 2.255618e+02 2.658076e+01 1.362286e+01 2.369853e+01 2.502948e+01 2.004037e+01 4.050409e+01 3.669695e+01 2.467373e+01 3.147685e+01 3.028177e+01 2.631899e+01 3.241251e+01 7.755993e+00 3.743820e+00 1.915830e+00 3.321235e+00 2.414737e+00 2.285749e+00 4.066995e+00 4.900577e+00 3.003846e+00 4.051652e+00 3.649397e+00 2.829367e+00 3.018662e+00 3.676864e+00
<GCONST> 2.005429e+02
<STATE> 3
<MEAN> 39
 9.288713e+00 -1.140200e+01 5.303978e+01 7.364373e+00 -2.763458e+00 -2.085463e+01 -9.347574e+00 -5.741504e-01 -1.938661e+01 3.221537e+00 -7.822118e+00 5.784007e+00 1.337641e+02 6.839300e-01 1.680243e-01 -7.908885e-01 4.396040e-01 1.547101e+00 2.434796e-01 -5.544046e-01 -1.744323e-01 6.253981e-02 2.867644e-01 -4.444205e-01 -4.323664e-01 -1.069158e+00 -2.569521e-01 5.139602e-01 -6.372375e-01 8.607902e-02 1.902821e-01 4.466384e-01 2.788454e-01 -1.443656e-01 3.601239e-01 3.796122e-02 9.450937e-03 -2.008741e-02 -6.137967e-01
<VARIANCE> 39
 7.797540e+01 1.677573e+02 1.910182e+02 3.499067e+02 2.262535e+02 4.498332e+02 1.010731e+03 5.919919e+02 3.912891e+02 3.798125e+02 3.097357e+02 6.354095e+02 1.510463e+02 1.976112e+00 3.293489e+00 5.527806e+00 5.272709e+00 6.310726e+00 7.793813e+00 8.967382e+00 8.679869e+00 9.298015e+00 9.377482e+00 8.506645e+00 8.567272e+00 2.387454e+00 8.991829e-01 6.785933e-01 1.129103e+00 1.040184e+00 1.061584e+00 1.577502e+00 1.991946e+00 1.598494e+00 1.731052e+00 1.787107e+00 1.455440e+00 1.537757e+00 6.782125e-01
<GCONST> 1.722254e+02
<STATE> 4
<MEAN> 39
 1.653099e+01 3.484361e+00 2.322909e+01 6.940279e+00 1.258073e+01 3.414704e+00 -5.394216e+00 -6.465664e+00 -1.464121e+01 7.279352e+00 -7.565473e+00 1.633353e+00 1.059812e+02 -1.317775e+00 1.118687e+00 -3.147304e+00 -3.063741e-01 -2.127347e-01 2.163756e+00 1.764803e+00 -2.738768e-01 1.065442e+00 -1.760630e-01 6.063740e-01 1.562968e-01 -3.176868e+00 -6.454983e-01 -1.990618e-01 -1.645715e-02 -4.152223e-02 -5.578518e-01 -3.775032e-01 1.030220e-01 2.771194e-01 7.138728e-02 -1.656605e-01 8.511011e-02 1.083979e-01 -4.479136e-02
<VARIANCE> 39
 1.525309e+02 2.225298e+02 3.703583e+02 3.661718e+02 2.976631e+02 6.602716e+02 6.345427e+02 5.206735e+02 7.172945e+02 4.597095e+02 4.374172e+02 5.164406e+02 4.413351e+02 1.413198e+01 1.707979e+01 1.332180e+01 1.976341e+01 1.986773e+01 3.133917e+01 3.183263e+01 3.137650e+01 3.185217e+01 2.459449e+01 2.405328e+01 2.260339e+01 6.144872e+00 1.636234e+00 2.570182e+00 2.130657e+00 3.077070e+00 3.092084e+00 4.528129e+00 4.780721e+00 4.776588e+00 5.021252e+00 4.089851e+00 4.258276e+00 3.709973e+00 1.008126e+00
<GCONST> 2.039997e+02
<TRANSP> 5
 0.000000e+00 1.000000e+00 0.000000e+00 0.000000e+00 0.000000e+00
 0.000000e+00 7.040081e-01 2.959919e-01 0.000000e+00 0.000000e+00
 0.000000e+00 0.000000e+00 8.868194e-01 1.131806e-01 0.000000e+00
 0.000000e+00 0.000000e+00 0.000000e+00 8.752019e-01 1.247981e-01
 0.000000e+00 0.000000e+00 0.000000e+00 0.000000e+00 0.000000e+00
<ENDHMM>
~h "sil"
<BEGINHMM>
<NUMSTATES> 5
<STATE> 2
<MEAN> 39
 -1.194898e+01 -9.003884e-01 1.460750e+00 7.186275e+00 1.176400e+00 8.927445e-01 4.442609e+00 6.412694e+00 -6.311948e-01 3.250301e-01 -3.903918e+00 8.163512e-01 6.415993e+01 -5.118387e-01 8.009714e-01 -1.377618e-01 -1.462457e-02 -1.783326e-02 4.754625e-02 -3.274353e-01 -2.227876e-01 7.150903e-02 2.987919e-02 2.745622e-01 1.936208e-02 -1.163447e+00 -2.435300e-02 6.361597e-02 1.094375e-01 -1.514971e-02 3.712859e-04 4.636893e-04 -2.369074e-02 -7.687068e-02 -1.298821e-02 7.653863e-02 6.830802e-02 7.163267e-02 5.821714e-02
<VARIANCE> 39
 7.707611e+01 1.666397e+02 1.389710e+02 1.298161e+02 1.480325e+02 1.847007e+02 1.935373e+02 2.090557e+02 1.988564e+02 1.974362e+02 1.611346e+02 1.415470e+02 1.153182e+02 2.495059e+00 4.380830e+00 5.428213e+00 6.836547e+00 8.353938e+00 1.038173e+01 1.181683e+01 1.279022e+01 1.267263e+01 1.258165e+01 1.186662e+01 1.083543e+01 1.897240e+00 3.745299e-01 6.860393e-01 9.584866e-01 1.227513e+00 1.515004e+00 1.842127e+00 2.142574e+00 2.314016e+00 2.352733e+00 2.329493e+00 2.200246e+00 2.028511e+00 1.867533e-01
<GCONST> 1.661282e+02
<STATE> 3
~s "silst"
<STATE> 4
<MEAN> 39
 -2.310849e+01 -3.757862e-01 3.526977e-01 2.635679e+00 -2.453703e+00 -2.652225e+00 -2.712831e+00 2.005036e-01 -2.798501e+00 2.004474e+00 -1.215881e+00 2.135446e+00 5.940345e+01 1.728692e-01 -1.530764e-01 2.757863e-01 1.430333e-01 7.496709e-02 1.353164e-01 2.106499e-01 1.061560e-01 -1.852205e-02 2.165519e-01 -1.499941e-01 7.679339e-03 8.512555e-01 7.385295e-02 2.188978e-02 7.813416e-02 -1.128548e-02 9.710740e-03 2.314189e-02 3.438184e-02 2.866682e-02 1.061751e-02 -1.025940e-02 -3.186527e-02 2.967104e-02 4.627069e-01
<VARIANCE> 39
 1.080244e+02 1.351001e+02 1.119778e+02 1.188826e+02 1.448484e+02 1.605043e+02 1.770375e+02 1.718095e+02 1.580903e+02 1.429885e+02 1.352057e+02 1.166967e+02 2.129268e+02 1.170734e+01 1.408482e+01 1.234969e+01 1.281101e+01 1.475728e+01 1.640049e+01 1.727066e+01 1.673277e+01 1.584012e+01 1.478392e+01 1.415152e+01 1.203987e+01 2.082125e+01 2.414056e+00 2.719456e+00 2.428250e+00 2.508271e+00 2.838703e+00 3.073830e+00 3.274711e+00 3.169251e+00 3.022082e+00 2.798445e+00 2.658184e+00 2.291251e+00 4.345540e+00
<GCONST> 1.847522e+02
<TRANSP> 5
 0.000000e+00 1.000000e+00 0.000000e+00 0.000000e+00 0.000000e+00
 0.000000e+00 8.494156e-01 9.913281e-02 5.145162e-02 0.000000e+00
 0.000000e+00 0.000000e+00 9.035399e-01 9.646010e-02 0.000000e+00
 0.000000e+00 6.260359e-02 0.000000e+00 7.808359e-01 1.565604e-01
 0.000000e+00 0.000000e+00 0.000000e+00 0.000000e+00 0.000000e+00
<ENDHMM>
