~o
<STREAMINFO> 1 39
<VECSIZE> 39<NULLD><MFCC_D_A_0><DIAGC>
~v "varFloor1"
<VARIANCE> 39
 6.753474e+00 3.412362e+00 5.607597e+00 4.796462e+00 3.472081e+00 4.011722e+00 4.412065e+00 3.618229e+00 3.682593e+00 3.039560e+00 2.639483e+00 2.510356e+00 1.295583e+01 2.277723e-01 1.546074e-01 2.184501e-01 2.118108e-01 1.813343e-01 2.097883e-01 2.257618e-01 2.166374e-01 2.009357e-01 1.748309e-01 1.664689e-01 1.534765e-01 2.729284e-01 3.005151e-02 2.352162e-02 2.950290e-02 3.333734e-02 2.970534e-02 3.528604e-02 3.796648e-02 3.764385e-02 3.477007e-02 3.067227e-02 2.924742e-02 2.697526e-02 3.680371e-02
~s "silst"
<MEAN> 39
 -2.466667e+01 4.849827e+00 -8.718745e-01 2.991111e+00 -3.013518e+00 -2.729053e+00 -4.150491e+00 -1.180982e+00 -1.597623e+00 1.319121e+00 9.808700e-01 2.453043e+00 4.849671e+01 -2.403746e-01 2.768116e-02 5.576867e-02 -4.355899e-02 -6.921854e-02 -8.246765e-02 -1.853133e-01 -1.997217e-01 -4.873613e-02 9.693705e-02 1.083318e-01 5.569864e-02 -1.678813e-01 9.014688e-02 -7.426031e-02 1.399537e-02 2.416341e-02 2.745571e-02 3.257430e-02 8.018199e-02 7.506260e-02 3.453705e-04 -1.225146e-02 -7.307915e-02 -2.798830e-02 1.615617e-01
<VARIANCE> 39
 3.293344e+01 3.085999e+01 3.907648e+01 5.225659e+01 7.018851e+01 9.086986e+01 1.075857e+02 1.083853e+02 1.001006e+02 9.340566e+01 9.063306e+01 8.121543e+01 1.740857e+01 1.411717e+00 2.069680e+00 3.263033e+00 4.517184e+00 5.825714e+00 7.150918e+00 8.551618e+00 9.331550e+00 9.391738e+00 9.318614e+00 9.129978e+00 8.239740e+00 7.525709e-01 2.669142e-01 4.339916e-01 6.613746e-01 9.127364e-01 1.172686e+00 1.435445e+00 1.687365e+00 1.846783e+00 1.867258e+00 1.856600e+00 1.826777e+00 1.651639e+00 1.799838e-01
<GCONST> 1.452611e+02
~h "f"
<BEGINHMM>
<NUMSTATES> 5
<STATE> 2
<MEAN> 39
 -3.122770e+01 -1.336350e+01 1.329461e-01 3.898043e+00 -1.493165e+00 2.455869e-01 -5.954455e+00 9.317935e-01 -4.628800e+00 4.066945e+00 -3.364633e+00 2.799762e+00 9.039982e+01 -2.334988e+00 -1.639082e+00 -1.293583e+00 -5.319178e-01 -7.047909e-01 -3.253559e-01 -9.403630e-01 -4.414317e-01 -3.000520e-01 -1.957945e-01 -9.965068e-02 -1.537606e-01 5.147334e-01 1.338834e+00 3.825620e-01 2.587186e-01 -2.468769e-01 9.926546e-02 6.080571e-03 2.409770e-01 -6.371450e-02 -9.251566e-02 7.219675e-02 -3.858911e-02 3.560733e-02 6.137272e-01
<VARIANCE> 39
 1.727483e+02 1.292772e+02 1.009649e+02 1.057550e+02 1.193521e+02 1.298999e+02 1.414784e+02 1.389272e+02 1.369860e+02 1.248596e+02 1.190464e+02 1.082149e+02 3.342758e+02 2.443251e+01 1.239871e+01 1.183036e+01 1.590642e+01 1.354013e+01 1.384850e+01 1.517324e+01 1.470288e+01 1.482726e+01 1.339056e+01 1.280940e+01 1.202859e+01 2.053835e+01 3.688651e+00 2.390910e+00 2.266599e+00 3.130078e+00 2.642826e+00 2.950351e+00 3.185788e+00 3.174840e+00 3.208356e+00 2.844593e+00 2.699745e+00 2.456025e+00 3.218413e+00
<GCONST> 1.842434e+02
<STATE> 3
<MEAN> 39
 -2.914520e+01 -1.714845e+01 -3.252121e+00 3.799602e-02 -3.096199e+00 -1.006458e+00 -7.852341e+00 -1.375391e+00 -6.112741e+00 3.496863e+00 -4.395415e+00 2.565892e+00 1.011835e+02 1.011066e+01 1.926974e+00 5.456709e-01 -3.319649e+00 4.564572e-01 1.028489e+00 1.698485e+00 2.298034e-01 5.570752e-01 1.379175e+00 4.318585e-01 -1.425704e-01 5.866137e+00 3.640901e+00 1.036635e+00 5.960128e-01 -2.219266e+00 -4.096373e-01 3.808041e-01 6.898724e-01 4.286236e-01 6.730887e-02 7.011876e-01 2.572165e-01 -1.879263e-01 1.068343e+00
<VARIANCE> 39
 1.373511e+02 7.441935e+01 6.430860e+01 7.122531e+01 8.302125e+01 9.315324e+01 1.003173e+02 1.031533e+02 1.130422e+02 1.069611e+02 9.834821e+01 8.798724e+01 2.074517e+02 3.912365e+01 1.807652e+01 1.052873e+01 2.123549e+01 1.386665e+01 1.308924e+01 1.457853e+01 1.486321e+01 1.986698e+01 1.789371e+01 1.999552e+01 1.276309e+01 3.489128e+01 3.377149e+00 4.507529e+00 2.798943e+00 3.923360e+00 3.870536e+00 3.124418e+00 3.460889e+00 3.473611e+00 4.254237e+00 3.659045e+00 4.353021e+00 3.049576e+00 4.612882e+00
<GCONST> 1.858146e+02
<STATE> 4
<MEAN> 39
 1.638770e+01 -1.468714e+01 -2.456845e+00 -2.190792e+01 -1.060580e+00 5.736083e+00 5.076506e-01 -2.278678e-01 -2.031277e+00 1.490729e+01 2.608297e+00 -9.355478e-01 1.272640e+02 1.002605e+01 -1.257965e+00 -1.985745e-01 -8.396377e+00 -3.613431e-01 1.901217e+00 1.975598e+00 9.931345e-01 7.578360e-01 2.385407e+00 9.472230e-01 -8.202503e-01 8.298959e+00 -3.168133e+00 -4.947124e-01 2.511473e-02 6.425460e-01 -1.981447e-01 -1.266817e-01 -4.616659e-01 3.413177e-01 -6.228290e-02 -7.297167e-01 -7.331215e-01 4.829133e-02 -1.384924e+00
<VARIANCE> 39
 2.551567e+02 2.294042e+02 1.554652e+02 4.511683e+02 2.519321e+02 2.036114e+02 2.084745e+02 2.252843e+02 4.092392e+02 2.954752e+02 4.453539e+02 2.061566e+02 4.233805e+02 6.177645e+01 4.727168e+01 2.467784e+01 3.420541e+01 3.398558e+01 2.248917e+01 2.486019e+01 2.530674e+01 3.680821e+01 2.806902e+01 3.925952e+01 2.460686e+01 2.598525e+01 6.384845e+00 3.068038e+00 2.305569e+00 7.928478e+00 4.027585e+00 3.090080e+00 3.445759e+00 3.181459e+00 5.697722e+00 4.515041e+00 5.243089e+00 3.396797e+00 5.111553e+00
<GCONST> 2.080215e+02
<TRANSP> 5
 0.000000e+00 1.000000e+00 0.000000e+00 0.000000e+00 0.000000e+00
 0.000000e+00 8.599209e-01 1.400791e-01 0.000000e+00 0.000000e+00
 0.000000e+00 0.000000e+00 6.525819e-01 3.474181e-01 0.000000e+00
 0.000000e+00 0.000000e+00 0.000000e+00 5.455566e-01 4.544434e-01
 0.000000e+00 0.000000e+00 0.000000e+00 0.000000e+00 0.000000e+00
<ENDHMM>
~h "k"
<BEGINHMM>
<NUMSTATES> 5
<STATE> 2
<MEAN> 39
 -7.845704e+00 1.025430e+01 2.612884e+01 2.555842e+01 -1.091048e+00 -1.387022e+01 4.921808e-01 -1.924691e+00 -1.798461e+01 -2.840552e+00 -8.353369e-01 2.050882e+00 7.127567e+01 -5.661684e+00 1.833763e+00 -9.845426e+00 -1.560828e+00 3.281560e+00 5.550022e+00 -3.625572e+00 8.341551e-03 3.902907e+00 -1.809219e+00 -1.722145e-02 -7.543434e-01 -1.199560e+01 -1.801558e-01 -3.105889e+00 -8.995221e-01 -2.894200e+00 -1.111443e+00 -1.179906e+00 -8.190302e-01 -1.338500e-02 9.009916e-01 1.103294e+00 -2.459987e-01 6.209847e-01 4.931554e+00
<VARIANCE> 39
 1.322855e+02 2.076496e+02 2.698061e+02 1.996648e+02 2.854629e+02 3.641457e+02 3.756262e+02 4.629988e+02 3.168221e+02 2.594279e+02 1.973256e+02 1.532596e+02 3.450985e+02 1.100821e+01 4.874260e+01 2.464462e+01 4.052172e+01 3.017111e+01 3.940884e+01 5.579038e+01 7.116745e+01 5.138780e+01 3.565533e+01 2.372287e+01 2.242920e+01 7.119061e+01 3.473231e+00 5.938450e+00 5.512262e+00 5.177829e+00 5.260806e+00 8.200768e+00 9.075275e+00 8.867757e+00 7.889703e+00 5.520988e+00 4.647526e+00 4.266685e+00 1.239288e+01
<GCONST> 2.143113e+02
<STATE> 3
<MEAN> 39
 -1.875686e+01 -7.287939e+00 -7.040942e+00 7.373564e+00 1.135942e-02 -7.733988e+00 -1.083717e+01 -1.783388e+00 -4.256274e+00 2.284455e+00 -1.250835e+00 3.410335e+00 7.299223e+01 -2.085764e+00 -4.207289e+00 -4.799561e+00 -8.507720e-01 -1.673828e-01 -1.791886e+00 -1.938114e+00 1.272501e+00 1.655714e+00 1.165977e+00 -7.193619e-01 5.592450e-01 9.475038e+00 -9.214947e-01 1.096632e+00 1.909204e+00 9.997816e-01 -6.547989e-01 -1.048215e+00 8.413295e-01 3.747838e-01 -5.551357e-01 -2.532766e-01 -1.750399e-01 1.959129e-01 2.023128e+00
<VARIANCE> 39
 1.473142e+02 3.028150e+02 2.389848e+02 1.334508e+02 1.632632e+02 1.725406e+02 1.808012e+02 1.581137e+02 1.358426e+02 1.297686e+02 1.164031e+02 8.908762e+01 8.254580e+02 3.466751e+01 2.900584e+01 2.588931e+01 2.461530e+01 2.268981e+01 2.692265e+01 2.162068e+01 2.093501e+01 1.983854e+01 1.793278e+01 1.529067e+01 1.173160e+01 7.349404e+01 8.753053e+00 8.715425e+00 5.430097e+00 3.570855e+00 4.335726e+00 5.326401e+00 5.106975e+00 4.606415e+00 4.216764e+00 3.873945e+00 2.769898e+00 2.410146e+00 2.036320e+01
<GCONST> 2.015635e+02
<STATE> 4
<MEAN> 39
 -4.383869e+01 -7.774112e+00 -7.363888e+00 1.065189e+01 -5.814843e-01 -2.366662e+01 -1.316184e+01 6.891027e+00 4.682424e-01 2.284065e+00 -7.515544e+00 6.355299e+00 1.115604e+02 -8.656242e+00 3.988618e+00 1.895537e+00 -3.472517e-01 -1.996951e+00 -1.417277e+00 2.245812e+00 2.238032e+00 5.191984e-01 -1.252464e+00 -5.891800e-01 9.126681e-01 2.026056e+00 7.985963e-01 1.222943e+00 5.681071e-01 -5.426322e-01 4.594905e-02 1.635130e+00 9.569801e-01 -3.804235e-01 -7.430815e-01 -1.870727e-01 4.331439e-01 -1.736564e-01 -3.325486e+00
<VARIANCE> 39
 2.919487e+02 1.219652e+02 1.688740e+02 2.167253e+02 4.090487e+02 2.903969e+02 2.218550e+02 1.968834e+02 1.868729e+02 1.696225e+02 1.707832e+02 1.360202e+02 2.090955e+02 4.783052e+01 1.705979e+01 1.393305e+01 1.432290e+01 2.157258e+01 2.715698e+01 1.777891e+01 1.765353e+01 1.987972e+01 1.592379e+01 1.397020e+01 1.420364e+01 2.601851e+01 6.383139e+00 3.331908e+00 2.804365e+00 2.786018e+00 3.806427e+00 4.536431e+00 3.851550e+00 3.679314e+00 3.663962e+00 3.477199e+00 2.878553e+00 2.514004e+00 5.800519e+00
<GCONST> 1.961192e+02
<TRANSP> 5
 0.000000e+00 1.000000e+00 0.000000e+00 0.000000e+00 0.000000e+00
 0.000000e+00 6.839613e-01 3.160387e-01 0.000000e+00 0.000000e+00
 0.000000e+00 0.000000e+00 7.792645e-01 2.207355e-01 0.000000e+00
 0.000000e+00 0.000000e+00 0.000000e+00 5.439845e-01 4.560156e-01
 0.000000e+00 0.000000e+00 0.000000e+00 0.000000e+00 0.000000e+00
<ENDHMM>
~h "n"
<BEGINHMM>
<NUMSTATES> 5
<STATE> 2
<MEAN> 39
 1.609354e+01 -7.088561e-01 3.557119e+01 7.094619e+00 -5.573151e+00 4.272646e+00 1.586943e+01 -3.946656e+00 -6.398213e+00 1.005287e+01 -6.111059e+00 9.029535e+00 1.116463e+02 1.254243e+00 3.253822e+00 1.294172e-01 3.834282e+00 3.334969e-01 1.421467e+00 2.330152e+00 -3.072569e+00 7.297620e-04 6.677086e-01 -1.550630e+00 3.133067e-01 -2.963010e+00 -5.785504e-01 -5.982298e-01 -8.342968e-01 -3.535490e-01 4.426349e-01 -3.352005e-01 -6.664154e-01 8.792770e-01 4.087608e-01 -3.490934e-01 2.159794e-01 -1.397988e-01 2.938073e-01
<VARIANCE> 39
 1.305095e+02 3.120617e+02 2.426474e+02 6.164567e+02 3.023384e+02 4.029786e+02 5.313455e+02 5.957961e+02 5.431514e+02 4.434664e+02 4.324573e+02 4.096173e+02 4.258031e+02 1.702059e+01 1.547849e+01 2.477009e+01 3.416715e+01 2.211937e+01 2.606321e+01 3.418184e+01 4.116050e+01 3.145207e+01 2.787754e+01 2.481320e+01 2.562683e+01 2.275072e+01 2.483767e+00 2.692148e+00 3.875365e+00 7.974990e+00 4.187105e+00 5.096508e+00 6.823425e+00 8.005013e+00 5.723635e+00 4.868650e+00 4.773917e+00 4.763098e+00 2.158754e+00
<GCONST> 2.110038e+02
<STATE> 3
<MEAN> 39
 1.765652e+01 5.664349e+00 3.412955e+01 1.751085e+01 -1.589192e+00 6.211136e+00 1.662383e+01 -6.679453e+00 -2.082752e+00 7.723315e+00 -9.584941e+00 1.094028e+01 1.046983e+02 -2.752287e+00 -2.767119e+00 -2.239236e+00 -2.842465e+00 2.627085e+00 -1.721484e+00 -2.887698e+00 5.393706e+00 9.000131e-01 -5.301937e-01 7.031063e-01 -1.153393e+00 1.825919e+00 -1.286047e+00 -1.326723e+00 -1.439307e+00 -1.530488e+00 1.379864e-01 -4.656782e-01 -1.123932e+00 1.201348e+00 2.525592e-01 -1.440224e-01 5.473652e-01 -3.734481e-01 5.462289e-01
<VARIANCE> 39
 8.418138e+01 2.697508e+02 1.461217e+02 3.319519e+02 2.908791e+02 4.571609e+02 5.024897e+02 4.750088e+02 4.545087e+02 4.455178e+02 4.476489e+02 4.487869e+02 3.061464e+02 2.011191e+01 2.554105e+01 2.118955e+01 3.620118e+01 2.610979e+01 3.873222e+01 4.362932e+01 4.363016e+01 3.756381e+01 2.813817e+01 2.897987e+01 3.108946e+01 3.917293e+01 3.009573e+00 2.772791e+00 2.958377e+00 4.499099e+00 4.787504e+00 6.397037e+00 6.354126e+00 7.542442e+00 5.397445e+00 4.099457e+00 4.544358e+00 4.517761e+00 2.467121e+00
<GCONST> 2.106437e+02
<STATE> 4
<MEAN> 39
 8.065364e-01 -3.128376e+00 1.878468e+01 1.317222e+01 5.075508e+00 2.362879e+00 1.097684e+01 1.227352e+01 1.669186e+00 3.668845e+00 -7.286949e+00 4.510819e+00 9.248047e+01 -3.616409e+00 -2.302931e+00 -4.468913e+00 -2.985518e+00 -1.908368e-01 -1.112211e+00 -2.684201e+00 1.777292e+00 5.710073e-01 -8.106580e-01 8.252486e-01 -1.145715e+00 -9.258133e-01 1.992963e-01 2.709490e-01 1.073335e-02 3.323068e-02 -5.668445e-01 5.214333e-02 -2.852141e-02 -1.186901e+00 -2.465973e-01 2.434800e-02 1.382846e-03 1.776437e-01 4.319517e-02
<VARIANCE> 39
 1.919259e+02 2.670392e+02 2.205759e+02 4.285490e+02 2.520177e+02 3.439072e+02 4.835820e+02 3.940786e+02 3.423873e+02 3.775130e+02 2.774638e+02 2.624383e+02 6.974501e+02 2.193612e+01 1.851443e+01 1.914066e+01 2.321670e+01 2.177188e+01 2.414467e+01 2.613223e+01 3.163046e+01 2.954902e+01 2.253881e+01 2.404615e+01 2.174691e+01 2.117532e+01 1.741252e+00 2.796387e+00 2.704376e+00 4.769754e+00 3.655257e+00 5.187508e+00 5.660586e+00 5.410464e+00 4.371475e+00 3.837152e+00 3.656956e+00 3.533006e+00 2.631264e+00
<GCONST> 2.047681e+02
<TRANSP> 5
 0.000000e+00 1.000000e+00 0.000000e+00 0.000000e+00 0.000000e+00
 0.000000e+00 6.561339e-01 3.438661e-01 0.000000e+00 0.000000e+00
 0.000000e+00 0.000000e+00 6.041614e-01 3.958386e-01 0.000000e+00
 0.000000e+00 0.000000e+00 0.000000e+00 6.230377e-01 3.769623e-01
 0.000000e+00 0.000000e+00 0.000000e+00 0.000000e+00 0.000000e+00
<ENDHMM>
~h "r"
<BEGINHMM>
<NUMSTATES> 5
<STATE> 2
<MEAN> 39
 3.659602e+01 -1.814780e+01 -5.101314e+00 3.621238e+00 2.659417e+01 -2.160998e+01 -3.257785e+01 2.241432e+00 -7.916107e+00 5.041422e+00 1.679955e+00 7.270274e+00 1.266928e+02 4.326361e-01 -8.535290e-01 -1.393731e+00 1.277329e-01 9.280480e-01 -1.331355e+00 -1.171719e+00 1.077052e+00 1.408352e+00 5.384017e-01 3.614469e-02 1.356634e-01 1.430628e-01 -1.162317e+00 -1.909234e-02 1.792656e+00 -1.553169e-02 -1.823660e+00 -1.368241e-01 1.584933e+00 6.161005e-01 -4.568947e-01 -2.074979e-01 4.393600e-02 5.674094e-02 1.324768e-01
<VARIANCE> 39
 6.548630e+01 1.789095e+02 4.585174e+02 3.104695e+02 3.726283e+02 9.069739e+02 9.979886e+02 4.260330e+02 3.239928e+02 3.953683e+02 2.644220e+02 2.125999e+02 1.693146e+02 7.155691e+00 8.590227e+00 2.922738e+01 1.972305e+01 2.112055e+01 3.098866e+01 2.354831e+01 2.544504e+01 1.997260e+01 1.729797e+01 1.525203e+01 1.405496e+01 6.903124e+00 1.319108e+00 1.389063e+00 1.846018e+00 2.123420e+00 2.688833e+00 4.662570e+00 4.047140e+00 3.558830e+00 3.116320e+00 3.010597e+00 2.694196e+00 2.446297e+00 8.042333e-01
<GCONST> 1.940061e+02
<STATE> 3
<MEAN> 39
 3.054518e+01 -2.448293e+01 6.896057e+00 9.346047e+00 1.628185e+01 -3.413108e+01 -2.369280e+01 1.652625e+01 -7.386117e+00 2.243255e+00 6.847092e-01 8.965591e+00 1.290649e+02 -3.917237e+00 -5.246893e-01 6.617738e+00 1.005263e+00 -5.717350e+00 -1.087926e+00 6.151898e+00 2.475985e+00 -2.323908e+00 -8.906784e-01 1.036729e+00 -1.871919e-01 9.224263e-02 -9.989722e-01 1.110632e+00 6.970434e-01 -1.173325e+00 -7.873639e-01 2.356781e+00 1.407461e+00 -1.788507e+00 -8.136923e-01 7.685429e-01 1.730242e-01 -4.644476e-01 -5.795143e-01
<VARIANCE> 39
 7.313033e+01 1.948569e+02 5.814279e+02 3.678639e+02 3.778248e+02 8.043538e+02 1.050433e+03 3.930424e+02 4.303765e+02 4.712857e+02 2.766076e+02 2.388727e+02 2.240691e+02 1.050874e+01 9.929211e+00 3.006845e+01 2.491183e+01 2.743329e+01 3.356892e+01 3.092283e+01 3.138854e+01 3.530518e+01 2.645909e+01 2.161082e+01 1.746469e+01 1.310463e+01 1.862067e+00 2.168053e+00 2.124369e+00 2.347191e+00 3.373274e+00 5.779029e+00 4.915605e+00 4.463775e+00 3.988955e+00 3.558472e+00 2.868958e+00 2.902330e+00 9.898365e-01
<GCONST> 2.019395e+02
<STATE> 4
<MEAN> 39
 1.701037e+01 -2.170840e+01 1.457472e+01 7.813752e+00 3.852166e+00 -2.313206e+01 -2.282689e+00 1.564474e+01 -1.054051e+01 5.660201e+00 2.890615e+00 3.868663e+00 1.186705e+02 -3.926195e+00 1.328869e+00 3.795067e+00 -1.986193e+00 -3.554768e+00 3.319958e+00 3.753206e+00 -2.536483e+00 -1.183386e+00 1.351404e+00 -4.736024e-01 -1.391374e+00 -1.478442e+00 7.867172e-02 7.108377e-01 -6.715915e-01 -6.681331e-01 7.098008e-01 7.757186e-01 -9.715735e-01 -9.423718e-01 5.883940e-01 2.175827e-01 -5.082536e-01 4.996746e-02 -3.023275e-01
<VARIANCE> 39
 2.064159e+02 2.052123e+02 9.276633e+02 3.749368e+02 4.403625e+02 7.194971e+02 7.755724e+02 4.176833e+02 6.339726e+02 4.332520e+02 2.917013e+02 2.649107e+02 6.401298e+02 1.498217e+01 1.394906e+01 2.275135e+01 1.902950e+01 1.965215e+01 2.531563e+01 2.864017e+01 2.679840e+01 2.178864e+01 2.135704e+01 1.773302e+01 1.554375e+01 9.907343e+00 1.307519e+00 1.752752e+00 2.436179e+00 2.777792e+00 3.399354e+00 4.393100e+00 3.916949e+00 3.431343e+00 4.411473e+00 2.955223e+00 2.960709e+00 2.555261e+00 9.445058e-01
<GCONST> 2.015835e+02
<TRANSP> 5
 0.000000e+00 1.000000e+00 0.000000e+00 0.000000e+00 0.000000e+00
 0.000000e+00 7.601358e-01 2.398642e-01 0.000000e+00 0.000000e+00
 0.000000e+00 0.000000e+00 5.154271e-01 4.845729e-01 0.000000e+00
 0.000000e+00 0.000000e+00 0.000000e+00 6.092972e-01 3.907028e-01
 0.000000e+00 0.000000e+00 0.000000e+00 0.000000e+00 0.000000e+00
<ENDHMM>
~h "s"
<BEGINHMM>
<NUMSTATES> 5
<STATE> 2
<MEAN> 39
 -2.862662e+01 4.985804e+00 8.237318e+00 6.841021e+00 2.618512e+00 -6.977323e+00 -1.225465e+00 3.717749e+00 -3.248601e+00 2.119987e+00 -4.563849e+00 5.357437e+00 1.023018e+02 -8.659546e+00 1.869986e+00 -3.976559e+00 -7.789313e-01 -8.824442e-01 -2.286273e-01 8.518032e-01 1.180525e+00 -2.585875e-02 -5.045548e-01 6.312795e-01 2.815815e-01 9.133583e-01 3.103071e-01 -4.173887e-01 -9.048848e-01 -7.325460e-01 -3.818507e-01 1.642376e-02 -4.287833e-01 -3.797680e-01 -3.964978e-01 2.485307e-01 7.635241e-02 -6.581843e-02 -2.796719e-01
<VARIANCE> 39
 5.773455e+02 2.456916e+02 3.971010e+02 3.251386e+02 3.950739e+02 3.756007e+02 3.335502e+02 2.997833e+02 2.777927e+02 2.310362e+02 2.176558e+02 2.174554e+02 4.978210e+02 5.422285e+01 2.482729e+01 4.574741e+01 4.025302e+01 3.062435e+01 3.736451e+01 3.125702e+01 2.976290e+01 3.231534e+01 2.579972e+01 2.414367e+01 2.306472e+01 3.283542e+01 9.252750e+00 4.873373e+00 5.376028e+00 5.646465e+00 5.557137e+00 5.992184e+00 5.418057e+00 5.629208e+00 5.059139e+00 4.722540e+00 4.392755e+00 4.017412e+00 3.669690e+00
<GCONST> 2.134035e+02
<STATE> 3
<MEAN> 39
 -5.237724e+01 8.235920e+00 -1.038401e+01 1.459297e+00 -4.780714e+00 -1.020012e+01 -1.376312e+00 3.965303e+00 -5.634816e+00 1.261463e+00 -2.991966e+00 6.533899e+00 1.061536e+02 -3.296951e+00 8.107865e-01 -3.598760e+00 -1.383225e+00 -9.407206e-01 4.608989e-01 -7.301216e-01 -6.455109e-01 -7.148142e-01 1.060744e-01 -1.321424e-01 -1.386205e-02 4.243328e-01 2.493167e+00 -5.225546e-01 1.078568e+00 5.999845e-01 4.889797e-01 3.606291e-01 -1.657744e-01 -2.967225e-01 1.662213e-01 1.933544e-01 -2.595012e-01 -1.259732e-01 -5.591862e-01
<VARIANCE> 39
 1.419464e+02 1.492530e+02 1.794484e+02 2.762164e+02 3.594700e+02 2.949518e+02 1.940819e+02 1.781068e+02 1.651816e+02 1.530345e+02 1.633352e+02 1.288620e+02 1.939930e+02 1.994415e+01 1.560220e+01 1.725192e+01 1.520794e+01 1.710509e+01 1.953214e+01 1.875605e+01 1.598584e+01 1.460077e+01 1.437206e+01 1.328054e+01 1.239482e+01 1.355512e+01 2.855176e+00 2.327883e+00 3.659705e+00 2.939411e+00 3.320051e+00 3.499751e+00 3.551230e+00 3.517520e+00 3.222647e+00 3.051738e+00 2.891171e+00 2.768087e+00 1.992218e+00
<GCONST> 1.900154e+02
<STATE> 4
<MEAN> 39
 -5.061566e+01 5.204010e+00 -1.391633e+01 2.390593e+00 -6.244823e+00 -6.064674e+00 -4.257347e+00 3.754464e+00 -6.176568e+00 2.719883e+00 -4.071423e+00 5.667222e+00 1.038944e+02 8.130361e-01 -2.627075e-01 1.917895e-01 -1.254032e-01 3.038172e-02 3.102001e-01 5.055862e-02 -9.752647e-02 8.906960e-02 7.182290e-02 -1.318665e-01 -8.041047e-02 -1.585497e-01 8.415523e-01 -7.006346e-02 7.092580e-01 1.311537e-01 6.523138e-02 -1.708192e-01 5.388814e-02 -3.082059e-02 1.425563e-01 -2.325714e-02 -8.134805e-04 5.095223e-02 3.280216e-02
<VARIANCE> 39
 1.956112e+02 1.396297e+02 1.644967e+02 2.432698e+02 3.033538e+02 2.772695e+02 1.641055e+02 1.483922e+02 1.486222e+02 1.365677e+02 1.442869e+02 1.256785e+02 2.303288e+02 7.996438e+00 5.958189e+00 7.112756e+00 7.812575e+00 9.598188e+00 1.124076e+01 1.138583e+01 1.163348e+01 1.126574e+01 1.141058e+01 1.095672e+01 1.024770e+01 6.996071e+00 1.973495e+00 1.245616e+00 1.860387e+00 1.598819e+00 1.842533e+00 2.254551e+00 2.323115e+00 2.303655e+00 2.259512e+00 2.307699e+00 2.181350e+00 2.092493e+00 1.020253e+00
<GCONST> 1.763451e+02
<TRANSP> 5
 0.000000e+00 1.000000e+00 0.000000e+00 0.000000e+00 0.000000e+00
 0.000000e+00 5.756909e-01 4.243091e-01 0.000000e+00 0.000000e+00
 0.000000e+00 0.000000e+00 5.296590e-01 4.703410e-01 0.000000e+00
 0.000000e+00 0.000000e+00 0.000000e+00 8.515868e-01 1.484132e-01
 0.000000e+00 0.000000e+00 0.000000e+00 0.000000e+00 0.000000e+00
<ENDHMM>
~h "t"
<BEGINHMM>
<NUMSTATES> 5
<STATE> 2
<MEAN> 39
 -1.532130e+01 1.029294e+01 1.552965e+01 1.270850e+01 2.788133e+00 1.604433e+00 -1.718302e+00 -1.111035e+00 -3.836040e+00 1.465760e+00 -1.358436e+00 2.014588e+00 6.238938e+01 -3.387601e+00 -1.428218e+00 -5.265754e+00 -2.045023e+00 -1.904133e-02 -5.898986e-01 -5.306117e-01 5.779163e-01 8.868341e-01 1.772772e-02 1.143544e+00 9.649025e-02 -1.421905e+00 -2.736112e-01 -8.009884e-01 1.030904e+00 -1.523602e+00 -6.737769e-01 -6.167266e-01 -5.385185e-02 -5.216240e-01 -6.850574e-01 1.091638e-01 -3.636291e-01 2.305825e-01 3.791998e+00
<VARIANCE> 39
 2.429374e+02 1.944781e+02 3.557617e+02 2.324301e+02 1.816868e+02 1.905512e+02 2.281480e+02 2.143996e+02 1.965831e+02 1.673692e+02 1.517827e+02 1.314358e+02 4.176678e+02 2.154519e+01 3.354559e+01 5.188705e+01 4.032257e+01 2.636323e+01 2.735106e+01 2.779574e+01 3.080688e+01 3.399889e+01 2.267595e+01 2.147445e+01 1.933758e+01 1.347742e+02 3.474433e+00 6.045846e+00 6.967036e+00 6.382506e+00 4.852168e+00 4.812987e+00 5.237622e+00 5.214819e+00 5.782440e+00 4.229393e+00 3.889114e+00 3.573718e+00 1.306419e+01
<GCONST> 2.081889e+02
<STATE> 3
<MEAN> 39
 -3.423729e+01 -3.202696e-01 5.733711e+00 -1.115206e+01 -3.704570e+00 -8.777838e+00 -3.108557e+00 -4.789991e+00 -1.096178e+01 1.854193e+00 -1.019839e+00 3.525697e+00 1.071171e+02 -4.133689e+00 5.439402e-01 9.850920e-01 -1.841159e+00 -2.428671e+00 -2.758967e+00 1.524071e+00 7.188904e-02 -1.920251e+00 -4.605119e-02 -2.809398e-01 1.609293e+00 1.075721e+01 1.109362e+00 6.063514e-01 1.286641e+00 2.058572e+00 -2.007508e-01 3.965789e-01 6.901829e-01 5.035343e-01 5.955371e-01 7.190157e-02 -1.519021e-01 2.862173e-01 -3.248005e+00
<VARIANCE> 39
 2.205124e+02 2.244098e+02 2.102431e+02 1.875581e+02 1.766050e+02 1.833404e+02 1.910715e+02 1.981219e+02 1.718699e+02 1.550170e+02 1.364738e+02 1.262848e+02 8.700059e+02 1.957314e+01 2.083176e+01 2.267328e+01 2.319883e+01 1.883704e+01 2.346390e+01 2.505142e+01 2.348844e+01 2.064561e+01 1.904697e+01 1.961878e+01 1.558881e+01 1.026505e+02 5.044541e+00 5.166749e+00 4.195728e+00 4.240138e+00 4.027834e+00 3.962616e+00 4.030264e+00 3.822656e+00 4.096962e+00 3.532979e+00 3.342643e+00 3.154309e+00 1.810101e+01
<GCONST> 2.013506e+02
<STATE> 4
<MEAN> 39
 -3.375404e+01 -1.828223e+00 1.372237e+01 -3.605143e+00 -1.176258e+01 -1.239187e+01 6.766421e+00 4.271727e-01 -9.654841e+00 6.685252e-01 -1.576940e+00 9.280860e+00 1.040604e+02 4.022231e+00 -1.214881e+00 2.872806e+00 2.621923e+00 -2.959620e-01 2.541002e-01 9.090728e-01 1.393100e+00 1.041666e+00 -1.703953e-01 -8.469709e-01 2.231017e-01 -1.932063e+00 1.969174e+00 8.945134e-02 5.745033e-01 4.116488e-01 8.614981e-01 3.831885e-01 -6.401517e-01 -1.688492e-01 1.428811e-01 1.248963e-01 -1.719144e-01 -5.147210e-01 -3.257306e-01
<VARIANCE> 39
 2.941127e+02 1.335358e+02 1.966457e+02 1.728937e+02 1.851573e+02 2.555803e+02 2.613663e+02 3.047667e+02 2.125931e+02 1.942328e+02 2.291149e+02 1.745897e+02 5.855582e+02 2.982421e+01 1.232487e+01 2.810103e+01 1.979296e+01 1.682598e+01 1.707628e+01 1.806134e+01 1.838750e+01 1.717580e+01 1.594170e+01 1.608055e+01 1.478205e+01 1.825463e+01 5.853768e+00 2.921622e+00 3.501023e+00 2.918019e+00 3.227039e+00 4.488042e+00 3.838047e+00 3.759347e+00 3.850984e+00 3.614247e+00 3.701363e+00 3.088517e+00 6.378387e+00
<GCONST> 1.974474e+02
<TRANSP> 5
 0.000000e+00 1.000000e+00 0.000000e+00 0.000000e+00 0.000000e+00
 0.000000e+00 7.853364e-01 2.146635e-01 0.000000e+00 0.000000e+00
 0.000000e+00 0.000000e+00 6.203545e-01 3.796456e-01 0.000000e+00
 0.000000e+00 0.000000e+00 0.000000e+00 6.747045e-01 3.252955e-01
 0.000000e+00 0.000000e+00 0.000000e+00 0.000000e+00 0.000000e+00
<ENDHMM>
~h "v"
<BEGINHMM>
<NUMSTATES> 5
<STATE> 2
<MEAN> 39
 1.280560e+01 -2.705816e+01 1.593434e+01 -1.929951e+01 -1.081428e+01 -2.065748e+01 -2.247731e+00 1.227754e+01 1.400624e+01 1.462491e+01 -2.008375e+00 6.335822e+00 1.471451e+02 9.955890e-01 3.218679e-01 1.040286e-01 1.025859e+00 1.016429e+00 2.572185e-01 -6.837573e-01 -1.052793e+00 -7.977170e-01 7.122051e-01 4.051226e-01 -7.942666e-01 -1.673209e+00 -8.779837e-02 1.171162e+00 4.660898e-02 1.468197e+00 1.069682e+00 9.397971e-01 -5.240197e-01 -1.014022e+00 -9.758481e-01 -2.994383e-01 -8.366939e-02 -7.516775e-02 -1.634414e+00
<VARIANCE> 39
 7.360188e+01 1.476852e+02 2.295478e+02 2.164937e+02 2.587740e+02 2.637389e+02 8.612850e+02 2.857253e+02 3.050443e+02 4.665054e+02 3.377679e+02 4.010023e+02 1.668569e+02 2.196529e+00 9.343571e+00 7.531519e+00 1.138543e+01 9.607702e+00 1.141017e+01 1.611487e+01 1.571861e+01 1.559950e+01 1.114216e+01 1.553173e+01 1.206746e+01 7.975978e+00 8.630679e-01 8.977824e-01 1.288392e+00 1.657699e+00 2.039914e+00 2.770414e+00 3.230655e+00 1.939582e+00 2.427354e+00 2.219223e+00 2.092442e+00 2.084389e+00 1.020744e+00
<GCONST> 1.815488e+02
<STATE> 3
<MEAN> 39
 1.899024e+01 -1.656091e+01 1.923993e+01 -1.548164e+00 -3.150171e-01 -1.585010e+01 -1.133014e+01 -5.807281e-02 4.091408e-01 1.626227e+01 4.669780e-01 1.708574e+00 1.267676e+02 -1.470191e+00 6.072692e+00 9.002792e-01 7.488495e+00 5.637420e+00 6.050412e+00 1.195424e-01 -3.018598e+00 -3.891760e+00 -1.493952e+00 4.444585e-01 -2.650090e-01 -9.301809e+00 -1.867223e+00 1.679287e-01 -5.738416e-01 -1.016773e-01 6.378535e-02 1.264382e+00 1.441340e+00 1.227222e+00 5.985825e-01 -6.114099e-01 -2.644677e-01 1.098281e-01 -3.497624e-01
<VARIANCE> 39
 6.282150e+01 1.793993e+02 2.303193e+02 2.871073e+02 2.989892e+02 3.404035e+02 5.008738e+02 3.216376e+02 4.764052e+02 3.458221e+02 3.999857e+02 3.283058e+02 2.711330e+02 1.482597e+01 1.360270e+01 1.635919e+01 1.948981e+01 2.046277e+01 2.415013e+01 3.733121e+01 2.355452e+01 2.726875e+01 2.669048e+01 2.477742e+01 2.173141e+01 1.120101e+01 2.164314e+00 2.650983e+00 2.285094e+00 3.990728e+00 4.283617e+00 5.227573e+00 3.721125e+00 3.430142e+00 4.894817e+00 3.503470e+00 4.083354e+00 3.159436e+00 3.356667e+00
<GCONST> 2.005981e+02
<STATE> 4
<MEAN> 39
 -4.087712e+00 -4.450825e+00 1.363049e+01 1.159158e+01 6.869877e+00 1.232761e+00 8.003712e-04 3.968669e+00 -1.166999e-01 7.139643e+00 -2.473384e+00 3.799263e+00 9.710046e+01 -2.541312e+00 -9.689450e-03 -1.197756e+00 -5.568697e-01 -5.460103e-01 4.437443e-01 5.070596e-01 7.184696e-01 -1.113270e-01 -1.035949e+00 -9.186330e-02 1.360644e-01 -1.723739e+00 7.172114e-01 -1.148123e+00 -1.751562e-01 -1.659962e+00 -1.228655e+00 -1.554106e+00 -3.311550e-01 3.175930e-01 5.326725e-01 1.690178e-01 -3.685818e-02 8.513679e-02 1.784530e+00
<VARIANCE> 39
 3.987950e+02 1.769541e+02 1.901452e+02 2.061687e+02 2.166067e+02 2.437618e+02 2.409869e+02 2.599739e+02 2.683323e+02 2.226237e+02 2.240495e+02 1.961895e+02 3.202761e+02 3.942783e+01 2.185229e+01 1.562449e+01 2.717430e+01 2.372661e+01 3.471273e+01 2.609187e+01 2.101718e+01 2.219885e+01 1.817612e+01 1.843279e+01 1.541781e+01 2.960348e+01 4.735084e+00 4.763450e+00 3.371001e+00 6.366780e+00 5.484201e+00 6.346058e+00 5.415314e+00 4.681355e+00 4.795609e+00 3.961057e+00 3.762380e+00 3.379452e+00 5.489950e+00
<GCONST> 2.038184e+02
<TRANSP> 5
 0.000000e+00 1.000000e+00 0.000000e+00 0.000000e+00 0.000000e+00
 0.000000e+00 7.670494e-01 2.329505e-01 0.000000e+00 0.000000e+00
 0.000000e+00 0.000000e+00 6.086457e-01 3.913543e-01 0.000000e+00
 0.000000e+00 0.000000e+00 0.000000e+00 7.654465e-01 2.345535e-01
 0.000000e+00 0.000000e+00 0.000000e+00 0.000000e+00 0.000000e+00
<ENDHMM>
~h "w"
<BEGINHMM>
<NUMSTATES> 5
<STATE> 2
<MEAN> 39
 3.310444e+01 9.832032e+00 1.867640e+01 -3.633110e+01 -2.264235e+01 -2.388725e+00 -2.838346e+00 1.690315e+01 -4.723572e+00 1.423760e+01 1.611329e+00 -2.821478e-01 1.209904e+02 -4.298069e-01 -4.062970e+00 -3.621365e+00 -6.293071e+00 1.890266e+00 2.739033e+00 2.014005e+00 4.849459e+00 4.680605e-01 -1.874256e+00 7.150615e-01 1.066799e-01 4.196686e+00 -5.445510e-01 -6.678706e-01 -7.503501e-01 9.894131e-01 2.041675e+00 1.569752e+00 4.760641e-01 -6.658010e-01 -6.497804e-01 -9.578292e-01 3.037193e-01 3.406233e-01 -1.840534e-01
<VARIANCE> 39
 4.745573e+01 1.803428e+02 2.298715e+02 3.093401e+02 4.036537e+02 2.703230e+02 5.911168e+02 3.902132e+02 4.449052e+02 3.940235e+02 3.365798e+02 2.826063e+02 1.152137e+02 2.175422e+00 1.015905e+01 8.232562e+00 1.386006e+01 1.847798e+01 1.839424e+01 1.968994e+01 1.892183e+01 2.031120e+01 1.999235e+01 1.621725e+01 1.761097e+01 5.276584e+00 6.071647e-01 1.262867e+00 1.333407e+00 3.091247e+00 2.331236e+00 2.397603e+00 3.867845e+00 4.299810e+00 3.469473e+00 3.218689e+00 3.220221e+00 2.804580e+00 6.490135e-01
<GCONST> 1.869070e+02
<STATE> 3
<MEAN> 39
 2.879797e+01 -7.770673e+00 1.718424e+00 -4.843758e+01 -1.441884e-01 1.775185e+01 4.539873e+00 2.131449e+01 -1.127449e+01 1.710589e+00 9.609159e+00 5.969631e+00 1.338578e+02 -1.489710e+00 -4.621408e+00 -2.681155e+00 1.165979e+00 6.715969e+00 3.504522e+00 -1.986774e+00 -2.639304e+00 -1.049005e+00 1.506473e-01 3.728735e+00 4.671464e-01 2.616282e+00 -1.522988e-01 2.918130e-01 9.067844e-01 2.055476e+00 -2.367603e-01 -1.357169e+00 -1.591835e+00 -9.295701e-01 1.102963e+00 1.379794e+00 -3.001835e-01 -8.983977e-01 -5.249497e-01
<VARIANCE> 39
 5.331006e+01 1.706561e+02 2.194218e+02 2.880768e+02 5.774257e+02 3.168474e+02 5.668307e+02 4.230760e+02 4.015515e+02 4.225265e+02 3.411633e+02 2.925952e+02 1.372269e+02 1.931642e+00 6.890921e+00 5.920940e+00 1.346744e+01 1.146604e+01 1.393911e+01 2.181392e+01 1.772018e+01 2.044913e+01 2.310601e+01 1.462805e+01 1.917386e+01 3.410513e+00 2.764027e-01 7.035515e-01 9.383012e-01 2.040979e+00 2.632858e+00 2.589187e+00 2.485387e+00 3.858831e+00 3.550987e+00 3.125165e+00 4.079631e+00 2.966085e+00 2.954063e-01
<GCONST> 1.827193e+02
<STATE> 4
<MEAN> 39
 2.022517e+01 -2.479603e+01 -9.442508e-02 -2.621086e+01 2.213939e+01 9.057381e+00 -1.140721e+01 1.583176e+01 3.010618e+00 1.078288e+01 1.021165e+01 -3.053057e+00 1.397960e+02 -1.393276e+00 -1.520033e+00 2.182072e+00 4.629719e+00 -4.615381e-01 -3.894080e+00 -1.900155e+00 1.445084e+00 2.917125e+00 2.222244e-01 -2.855944e+00 -4.870943e-01 3.624131e-01 1.574358e-01 9.596716e-01 8.801957e-01 5.256453e-02 -1.242101e+00 -6.387985e-01 1.232818e+00 4.757234e-01 -6.049755e-01 -5.479692e-01 -7.952520e-01 7.980633e-01 -6.966457e-01
<VARIANCE> 39
 7.106329e+01 1.449950e+02 2.052923e+02 3.039460e+02 4.293246e+02 4.018363e+02 4.579805e+02 4.606721e+02 4.377362e+02 3.616277e+02 3.948665e+02 3.146564e+02 1.519372e+02 1.715751e+00 5.870956e+00 6.176480e+00 9.546090e+00 1.724124e+01 1.164175e+01 2.124328e+01 1.705130e+01 1.899440e+01 2.427068e+01 1.674479e+01 2.231369e+01 2.203218e+00 2.506859e-01 7.451501e-01 9.633607e-01 1.390757e+00 2.323147e+00 2.540635e+00 2.814116e+00 3.361155e+00 3.704337e+00 2.820073e+00 4.460139e+00 3.202761e+00 4.033179e-01
<GCONST> 1.821643e+02
<TRANSP> 5
 0.000000e+00 1.000000e+00 0.000000e+00 0.000000e+00 0.000000e+00
 0.000000e+00 6.967069e-01 3.032931e-01 0.000000e+00 0.000000e+00
 0.000000e+00 0.000000e+00 7.611551e-01 2.388449e-01 0.000000e+00
 0.000000e+00 0.000000e+00 0.000000e+00 8.195053e-01 1.804947e-01
 0.000000e+00 0.000000e+00 0.000000e+00 0.000000e+00 0.000000e+00
<ENDHMM>
~h "z"
<BEGINHMM>
<NUMSTATES> 5
<STATE> 2
<MEAN> 39
 -9.576256e+00 1.337634e+01 1.908527e+01 1.641125e+01 7.728873e+00 -4.674247e+00 -2.394557e+00 2.135422e+00 -8.295064e-01 2.224971e+00 -8.208761e+00 6.009995e+00 9.116097e+01 -2.563695e+00 5.046893e+00 -2.780449e-01 2.631221e+00 2.055417e+00 8.666852e-01 5.399359e-01 7.619036e-01 4.721318e-01 -1.412911e-01 -8.458635e-02 2.803667e-01 3.080262e+00 -8.500527e-01 1.613317e-01 -6.873581e-01 -2.600704e-01 -1.036058e-01 1.931477e-01 5.086645e-02 1.172415e-01 -1.953354e-01 2.508834e-01 3.138025e-01 -1.435004e-01 2.169159e-01
<VARIANCE> 39
 3.379080e+02 2.428476e+02 3.383446e+02 3.202504e+02 3.496326e+02 3.116020e+02 3.080203e+02 2.753254e+02 2.530508e+02 2.746178e+02 2.779074e+02 3.387222e+02 7.121934e+02 4.695685e+01 2.534003e+01 3.619010e+01 3.143117e+01 2.600650e+01 3.128942e+01 2.699700e+01 2.654796e+01 2.345794e+01 2.452647e+01 2.341536e+01 2.064860e+01 3.751733e+01 4.692624e+00 3.697632e+00 4.856423e+00 4.049576e+00 4.180312e+00 4.567207e+00 4.534033e+00 4.605522e+00 3.863991e+00 4.504248e+00 4.068790e+00 4.028704e+00 3.902825e+00
<GCONST> 2.090934e+02
<STATE> 3
<MEAN> 39
 -3.194004e+01 3.281491e+01 9.862874e+00 2.569061e+01 1.343651e+01 4.210795e+00 2.639396e+00 7.104435e+00 -9.637936e-01 5.447469e+00 -4.124301e+00 6.647636e+00 1.085961e+02 -3.766418e+00 3.948994e-01 -1.631598e+00 -3.828999e-01 -3.980577e-03 7.873098e-01 6.716826e-01 4.293416e-01 -3.214062e-01 3.768675e-01 5.205298e-01 -3.027296e-02 1.101718e+00 1.578692e+00 -1.256342e+00 1.113202e+00 -5.799060e-01 -7.826129e-01 -7.171232e-01 -2.887552e-01 -7.037374e-01 -3.255275e-01 -2.847245e-01 -2.580047e-01 9.850280e-02 3.117457e-01
<VARIANCE> 39
 2.395421e+02 1.799435e+02 2.633975e+02 3.855273e+02 4.103565e+02 3.504131e+02 2.500069e+02 2.278913e+02 1.609061e+02 1.654765e+02 2.503505e+02 1.912893e+02 1.681569e+02 1.910174e+01 1.762457e+01 1.705434e+01 1.524257e+01 1.583894e+01 1.816513e+01 1.587381e+01 1.696169e+01 1.363893e+01 1.426051e+01 1.196991e+01 1.271886e+01 1.022682e+01 2.872587e+00 3.451941e+00 3.049866e+00 3.038820e+00 3.226910e+00 3.991957e+00 3.565838e+00 3.684690e+00 2.897381e+00 2.940463e+00 2.520733e+00 2.542518e+00 1.745630e+00
<GCONST> 1.922619e+02
<STATE> 4
<MEAN> 39
 -2.836610e+01 2.379476e+01 1.852917e+01 1.703648e+01 7.333339e+00 -5.159829e+00 -2.170091e+00 -9.760292e-01 -6.508065e+00 1.823743e+00 -7.461308e+00 5.282797e+00 1.216049e+02 7.601345e+00 -4.764449e+00 7.673173e+00 -1.474927e+00 -3.158078e+00 -3.537095e+00 -2.467676e+00 -2.902758e+00 -1.752608e+00 -1.433813e+00 -1.111587e+00 5.102676e-01 4.528467e+00 1.482751e+00 -1.671700e+00 1.575012e+00 -7.332071e-01 -2.126123e-01 -2.480624e-01 -4.093196e-01 1.472220e-01 -1.354220e-01 1.840786e-01 2.040503e-02 1.888048e-01 1.445362e-01
<VARIANCE> 39
 3.054830e+02 1.732458e+02 3.503314e+02 3.124496e+02 4.886945e+02 3.102131e+02 2.815121e+02 1.960840e+02 1.474981e+02 1.690409e+02 2.916159e+02 2.314922e+02 1.707162e+02 2.534184e+01 2.906337e+01 3.549597e+01 2.878662e+01 2.016381e+01 2.653932e+01 2.351980e+01 3.024696e+01 1.892326e+01 1.627425e+01 1.616138e+01 1.905959e+01 6.103636e+00 5.309729e+00 3.135442e+00 5.302721e+00 4.691179e+00 4.083849e+00 4.309563e+00 4.240540e+00 4.437817e+00 3.436739e+00 3.531950e+00 3.321645e+00 3.038595e+00 1.061344e+00
<GCONST> 1.997355e+02
<TRANSP> 5
 0.000000e+00 1.000000e+00 0.000000e+00 0.000000e+00 0.000000e+00
 0.000000e+00 7.215626e-01 2.784373e-01 0.000000e+00 0.000000e+00
 0.000000e+00 0.000000e+00 8.068370e-01 1.931630e-01 0.000000e+00
 0.000000e+00 0.000000e+00 0.000000e+00 7.551808e-01 2.448192e-01
 0.000000e+00 0.000000e+00 0.000000e+00 0.000000e+00 0.000000e+00
<ENDHMM>
~h "ah"
<BEGINHMM>
<NUMSTATES> 5
<STATE> 2
<MEAN> 39
 1.776726e+01 -1.899486e+01 1.847435e+01 -8.858604e+00 6.606390e+00 -8.307838e+00 -1.298841e+01 1.136190e+01 7.366803e-01 1.246976e+01 1.778930e+00 1.732989e+00 1.326334e+02 -1.305170e-01 7.081465e-01 2.608807e+00 8.806156e-01 -1.382937e+00 -2.136590e+00 2.148509e+00 1.606909e+00 -1.453181e-01 -4.465744e-01 -2.147796e+00 1.282930e+00 -1.647866e-01 4.747634e-02 1.100935e+00 4.793356e-01 1.177590e+00 -6.916770e-02 1.100892e+00 1.295933e+00 -1.399843e+00 -6.333352e-01 -1.147397e-02 -3.802133e-01 3.189056e-01 -1.350675e+00
<VARIANCE> 39
 7.233562e+01 1.455187e+02 1.742689e+02 2.285825e+02 2.436626e+02 3.860807e+02 6.021681e+02 4.471212e+02 5.079199e+02 4.453771e+02 3.747362e+02 3.500650e+02 1.820958e+02 3.907677e+00 1.266703e+01 1.201283e+01 3.479292e+01 1.786305e+01 2.133215e+01 2.884559e+01 2.597581e+01 3.048529e+01 2.587363e+01 2.845556e+01 2.094277e+01 2.038398e+01 9.524459e-01 2.232374e+00 1.782461e+00 4.702647e+00 3.516957e+00 5.660966e+00 7.117794e+00 6.406692e+00 5.814448e+00 4.542222e+00 4.137858e+00 3.428832e+00 3.320816e+00
<GCONST> 2.001974e+02
<STATE> 3
<MEAN> 39
 1.754751e+01 -1.021493e+01 2.829971e+01 3.474785e+00 4.189185e+00 -1.122677e+01 5.220823e+00 1.065988e+01 -2.084640e+00 7.816434e+00 -8.916130e+00 1.068354e+01 1.230126e+02 7.811419e-01 5.102391e+00 4.401496e+00 6.841629e+00 -3.047433e+00 3.460275e+00 6.439396e+00 -7.513085e+00 -1.562954e+00 -7.307727e-01 -2.101287e+00 2.571607e+00 -5.987595e+00 7.503815e-02 1.808437e-01 -5.623153e-01 -2.125237e-01 -2.089622e-01 1.578019e+00 -2.483592e-01 -1.184263e+00 6.531074e-01 -4.593106e-02 7.890450e-01 -2.671583e-01 -1.892515e-01
<VARIANCE> 39
 5.639340e+01 1.657463e+02 2.090981e+02 3.388604e+02 2.642481e+02 4.144320e+02 5.685269e+02 5.130109e+02 4.270543e+02 5.326278e+02 3.937167e+02 3.978094e+02 1.719920e+02 5.141293e+00 9.007305e+00 1.588479e+01 2.198392e+01 2.241099e+01 4.286397e+01 4.943288e+01 4.186343e+01 3.770486e+01 2.979291e+01 3.454475e+01 2.670340e+01 4.975345e+00 5.860675e-01 1.512241e+00 2.520598e+00 4.392123e+00 2.886877e+00 4.831938e+00 5.123343e+00 6.878759e+00 4.419148e+00 3.903637e+00 3.613489e+00 3.253815e+00 1.537119e+00
<GCONST> 1.994921e+02
<STATE> 4
<MEAN> 39
 1.953486e+01 2.828548e+00 3.577790e+01 1.647295e+01 -5.458361e+00 7.379089e+00 1.676220e+01 -1.001588e+01 -1.600365e+00 4.696146e+00 -7.401383e+00 1.468398e+01 1.084077e+02 -1.187630e-01 2.405983e+00 6.564679e-01 1.888523e+00 -5.339367e-01 2.415091e+00 1.683250e+00 -1.712205e+00 1.553321e-01 -3.854116e-01 -2.635106e-01 7.191662e-02 -2.810914e+00 -4.644985e-01 -4.933200e-01 -8.516481e-01 -7.626175e-01 8.793181e-01 -6.633620e-01 -9.220726e-01 1.675570e+00 1.208180e-01 1.023059e-01 1.994072e-01 -6.123836e-01 3.648338e-01
<VARIANCE> 39
 4.886142e+01 1.844350e+02 1.371757e+02 2.553333e+02 2.522574e+02 4.087388e+02 4.878823e+02 4.084958e+02 5.243588e+02 5.818887e+02 5.475993e+02 4.938905e+02 1.666553e+02 2.778300e+00 6.808703e+00 8.397026e+00 1.092797e+01 1.183558e+01 1.968356e+01 2.058236e+01 2.596696e+01 1.553600e+01 1.353521e+01 1.558452e+01 1.385640e+01 4.189934e+00 6.527988e-01 1.396581e+00 1.751825e+00 2.887895e+00 2.396319e+00 3.702661e+00 4.548476e+00 4.344555e+00 3.826277e+00 3.197500e+00 3.711323e+00 3.302110e+00 1.027782e+00
<GCONST> 1.883262e+02
<TRANSP> 5
 0.000000e+00 1.000000e+00 0.000000e+00 0.000000e+00 0.000000e+00
 0.000000e+00 7.096498e-01 2.903502e-01 0.000000e+00 0.000000e+00
 0.000000e+00 0.000000e+00 5.389667e-01 4.610333e-01 0.000000e+00
 0.000000e+00 0.000000e+00 0.000000e+00 7.535877e-01 2.464124e-01
 0.000000e+00 0.000000e+00 0.000000e+00 0.000000e+00 0.000000e+00
<ENDHMM>
~h "ao"
<BEGINHMM>
<NUMSTATES> 5
<STATE> 2
<MEAN> 39
 3.268958e+01 1.332751e+01 1.252483e+01 -3.639913e+01 -1.818270e+01 4.893756e-01 3.716774e-01 7.335655e+00 -1.311464e+01 5.077775e+00 -8.597211e+00 2.587515e+00 1.184894e+02 9.456404e+00 4.818127e+00 4.025634e+00 -1.024044e+01 -5.939998e+00 -1.392807e+00 -6.340437e-01 2.578751e+00 -1.805696e+00 1.175438e+00 -1.585943e+00 -1.065658e+00 4.170780e+00 -4.193678e+00 -2.109187e+00 -9.715370e-01 2.057380e+00 6.187387e-01 -2.991405e-01 -9.655331e-01 -4.365219e-01 3.401323e-01 2.278749e-01 3.700655e-01 -1.085465e-01 -8.498215e-01
<VARIANCE> 39
 8.597201e+01 1.393635e+02 1.814290e+02 4.223151e+02 4.199997e+02 2.800670e+02 3.292792e+02 3.308220e+02 3.051262e+02 2.549752e+02 2.320529e+02 3.224393e+02 1.626147e+02 3.726540e+01 2.364792e+01 2.207984e+01 3.450709e+01 3.560934e+01 2.568727e+01 3.632334e+01 3.120469e+01 3.144884e+01 3.033827e+01 2.535453e+01 3.345984e+01 1.123313e+01 2.053174e+00 2.214905e+00 2.262991e+00 5.792585e+00 4.149698e+00 2.763521e+00 3.357510e+00 3.547984e+00 3.570904e+00 2.830013e+00 2.925240e+00 3.557466e+00 2.231793e+00
<GCONST> 2.009199e+02
<STATE> 3
<MEAN> 39
 3.552038e+01 1.675306e+01 1.699419e+01 -4.634418e+01 -2.720992e+01 -3.112141e+00 -3.810515e+00 1.024679e+01 -1.205071e+01 1.033991e+01 -9.317517e+00 -3.013065e-01 1.212326e+02 1.718353e-01 -3.858939e-01 -6.500955e-01 3.385160e-01 -4.578218e-01 -5.081083e-01 5.941287e-01 4.616494e-01 -6.321486e-01 6.286399e-02 3.184072e-01 1.154386e-01 8.810000e-02 -4.117109e-01 -7.534158e-01 -7.983331e-01 9.097408e-01 7.911954e-01 1.434135e-01 3.602063e-01 -1.437300e-01 -3.461652e-01 -2.939522e-01 3.798752e-01 3.989642e-01 -5.098729e-02
<VARIANCE> 39
 5.352527e+01 1.685055e+02 2.516300e+02 3.300966e+02 4.963445e+02 3.541937e+02 5.126692e+02 3.642068e+02 3.818321e+02 3.647342e+02 3.028350e+02 3.739633e+02 1.393360e+02 1.013187e+00 7.335853e+00 7.037906e+00 6.190630e+00 6.397378e+00 7.559328e+00 1.183262e+01 1.004489e+01 1.123774e+01 9.553450e+00 9.101696e+00 8.617694e+00 2.891307e+00 1.164298e+00 9.045824e-01 1.071646e+00 2.344021e+00 1.648951e+00 1.401909e+00 1.880900e+00 1.977239e+00 2.099294e+00 2.095108e+00 2.113265e+00 2.130108e+00 7.266273e-01
<GCONST> 1.750721e+02
<STATE> 4
<MEAN> 39
 3.767999e+01 -3.401180e+00 -8.965070e+00 -3.007129e+01 -5.573880e+00 -7.877042e+00 -2.932848e+00 1.341833e+01 -2.306750e+01 5.636220e+00 2.801363e+00 1.132003e+01 1.272836e+02 1.064814e-01 -3.461130e+00 -4.118374e+00 3.719994e+00 6.077443e+00 -1.293624e+00 -2.401303e+00 -6.893307e-01 4.759256e-01 5.718142e-01 1.926189e+00 1.548373e+00 6.450988e-01 -1.691696e-01 3.083805e-01 5.837288e-01 4.577846e-01 2.507807e-01 -3.498637e-01 -8.236690e-01 -9.968445e-02 1.187682e+00 3.488597e-01 -4.287280e-01 -6.042532e-01 -3.984507e-01
<VARIANCE> 39
 5.992389e+01 2.446673e+02 3.275022e+02 3.123270e+02 6.653893e+02 4.768679e+02 8.702211e+02 6.407950e+02 5.012589e+02 7.195400e+02 4.045419e+02 3.750653e+02 1.691257e+02 1.677795e+00 7.944446e+00 1.162138e+01 1.422594e+01 1.718584e+01 2.261033e+01 2.392867e+01 2.679783e+01 2.908563e+01 3.497158e+01 2.805676e+01 3.526220e+01 3.230823e+00 2.893598e-01 9.511439e-01 1.685697e+00 1.597843e+00 3.013102e+00 2.965985e+00 3.469085e+00 4.492941e+00 3.942746e+00 5.505624e+00 4.663528e+00 5.087773e+00 3.271581e-01
<GCONST> 1.934435e+02
<TRANSP> 5
 0.000000e+00 1.000000e+00 0.000000e+00 0.000000e+00 0.000000e+00
 0.000000e+00 5.981022e-01 4.018978e-01 0.000000e+00 0.000000e+00
 0.000000e+00 0.000000e+00 8.716002e-01 1.283998e-01 0.000000e+00
 0.000000e+00 0.000000e+00 0.000000e+00 8.501002e-01 1.498998e-01
 0.000000e+00 0.000000e+00 0.000000e+00 0.000000e+00 0.000000e+00
<ENDHMM>
~h "ay"
<BEGINHMM>
<NUMSTATES> 5
<STATE> 2
<MEAN> 39
 1.771165e+01 -3.223297e+01 -4.893154e-01 -2.366398e+01 9.975991e+00 6.070172e+00 -4.789213e+00 1.413994e+01 7.692875e+00 1.149326e+01 6.611693e-01 -1.067525e+00 1.459838e+02 -4.479806e-01 -1.895976e+00 -2.314099e+00 -1.155652e-01 2.251423e+00 2.387161e+00 -8.629071e-01 -1.204463e-01 1.019244e+00 -7.028603e-01 3.177021e-01 -1.411311e+00 9.605580e-01 -1.418879e-01 1.108581e+00 9.219611e-01 1.171845e+00 -3.087128e-01 -2.647606e-01 1.103270e-01 -6.590126e-01 -4.961058e-01 -8.714169e-02 -1.427168e-01 1.668700e-01 -1.313420e+00
<VARIANCE> 39
 7.989392e+01 1.573135e+02 2.850872e+02 3.687567e+02 4.277121e+02 3.712234e+02 4.340740e+02 4.418502e+02 4.023151e+02 4.285755e+02 4.561181e+02 3.659668e+02 1.162265e+02 2.561243e+00 5.175650e+00 8.429747e+00 9.981163e+00 1.094872e+01 1.157711e+01 1.686648e+01 1.236880e+01 1.410649e+01 1.367734e+01 1.539672e+01 1.361395e+01 2.570844e+00 1.042617e+00 1.102087e+00 1.181425e+00 2.423036e+00 2.051425e+00 2.384497e+00 3.418093e+00 3.530455e+00 2.858704e+00 2.456443e+00 2.600711e+00 1.946508e+00 1.186466e+00
<GCONST> 1.834192e+02
<STATE> 3
<MEAN> 39
 1.639132e+01 -3.582140e+01 -2.747746e+00 -2.169309e+01 1.381995e+01 1.013291e+01 -7.111397e+00 1.309092e+01 9.133995e+00 1.028803e+01 -7.746401e-01 -4.449676e+00 1.458540e+02 -2.083451e-01 -3.113535e-01 6.035232e-01 9.459091e-01 -2.406617e-01 -9.426183e-01 -8.947185e-02 6.978632e-01 3.486165e-01 -4.447863e-01 -4.502470e-01 4.509927e-02 -1.535963e-01 -1.424742e-02 1.456284e-01 3.610827e-01 1.053185e-01 -4.162209e-01 -4.534476e-01 2.084711e-01 1.792487e-01 -6.958923e-02 -4.984035e-02 -4.671552e-02 2.380168e-01 -7.032172e-02
<VARIANCE> 39
 7.321700e+01 1.632496e+02 2.252185e+02 3.754716e+02 4.755223e+02 3.489863e+02 3.660985e+02 4.294396e+02 3.643015e+02 3.593110e+02 4.116866e+02 3.924250e+02 1.465526e+02 7.924384e-01 1.558398e+00 2.706961e+00 3.392977e+00 4.502883e+00 6.051827e+00 5.380773e+00 4.618702e+00 4.585128e+00 4.772581e+00 5.070628e+00 4.988829e+00 6.948969e-01 1.278481e-01 2.426087e-01 3.435021e-01 4.380152e-01 5.694745e-01 6.326059e-01 8.120293e-01 6.860589e-01 7.395715e-01 7.566038e-01 7.665305e-01 7.587838e-01 9.663492e-02
<GCONST> 1.496246e+02
<STATE> 4
<MEAN> 39
 1.268948e+01 -3.250288e+01 1.557134e+01 -1.235050e+01 -1.382577e+00 -7.521451e+00 1.615747e+00 2.317818e+01 7.046735e+00 3.622899e+00 -2.395652e+00 3.869415e+00 1.419025e+02 -5.449720e-01 2.210957e+00 4.206723e+00 1.459524e-01 -3.655594e+00 -2.317894e+00 2.317563e+00 -1.723184e-01 -1.906817e+00 4.127547e-01 7.734872e-01 1.430096e+00 -1.276508e+00 2.019784e-01 6.814653e-01 1.345886e-01 6.728012e-03 2.999151e-01 3.994018e-01 -1.356647e-01 -9.433142e-01 -3.641399e-01 4.949489e-01 8.965594e-02 -1.462421e-01 -5.602059e-01
<VARIANCE> 39
 7.506240e+01 1.933918e+02 3.794953e+02 2.580903e+02 4.262013e+02 2.680786e+02 5.286521e+02 3.262417e+02 3.833790e+02 3.649640e+02 3.310833e+02 3.383319e+02 1.930920e+02 1.712867e+00 4.555589e+00 6.305172e+00 1.000674e+01 1.168373e+01 1.442648e+01 1.811118e+01 1.639116e+01 1.461359e+01 1.404408e+01 1.223731e+01 1.273839e+01 1.872976e+00 2.888707e-01 5.565684e-01 1.050369e+00 1.561300e+00 1.926334e+00 1.531552e+00 2.356474e+00 2.028403e+00 2.175829e+00 2.015769e+00 2.055112e+00 1.945028e+00 3.520085e-01
<GCONST> 1.763486e+02
<TRANSP> 5
 0.000000e+00 1.000000e+00 0.000000e+00 0.000000e+00 0.000000e+00
 0.000000e+00 6.857284e-01 3.142716e-01 0.000000e+00 0.000000e+00
 0.000000e+00 0.000000e+00 9.003545e-01 9.964551e-02 0.000000e+00
 0.000000e+00 0.000000e+00 0.000000e+00 8.035785e-01 1.964215e-01
 0.000000e+00 0.000000e+00 0.000000e+00 0.000000e+00 0.000000e+00
<ENDHMM>
~h "eh"
<BEGINHMM>
<NUMSTATES> 5
<STATE> 2
<MEAN> 39
 -5.086977e+01 7.028643e+00 -1.298702e+01 -1.245169e+00 -7.272540e+00 -7.135276e+00 -3.395655e+00 1.983812e+00 -5.774150e+00 1.556945e+00 -4.700345e+00 7.442348e+00 1.115134e+02 8.885470e+00 -4.762953e-01 6.102557e+00 4.910158e-01 -2.682905e-01 -2.102431e+00 -5.637733e-01 -5.826427e-01 1.620744e+00 1.691668e-01 -7.301220e-01 1.252985e+00 2.267664e+00 4.346029e+00 -1.028489e+00 2.459439e+00 -1.605101e-01 1.896213e-01 -1.111887e+00 -8.589917e-01 -2.569000e-01 8.625803e-01 6.793016e-01 -1.404535e-01 3.339542e-01 1.730891e+00
<VARIANCE> 39
 1.354550e+02 1.075224e+02 1.283986e+02 2.080893e+02 2.628357e+02 2.711805e+02 1.384743e+02 1.393664e+02 1.521060e+02 1.257186e+02 1.706002e+02 1.235365e+02 1.146049e+02 3.305189e+01 1.224436e+01 1.845755e+01 1.266957e+01 1.091532e+01 1.566430e+01 1.356755e+01 1.272824e+01 1.416149e+01 1.852502e+01 1.495713e+01 1.558972e+01 1.004443e+01 1.766647e+00 1.995759e+00 2.175262e+00 2.617509e+00 2.716250e+00 4.477304e+00 4.959877e+00 2.788889e+00 4.468419e+00 4.211090e+00 3.208247e+00 3.857158e+00 1.395229e+00
<GCONST> 1.860423e+02
<STATE> 3
<MEAN> 39
 -1.622340e+01 8.471457e+00 1.055129e+01 5.605869e+00 -4.367279e+00 -1.243137e+01 -6.209762e+00 -6.533054e-01 2.779033e-01 4.581909e+00 -8.229180e+00 9.400579e+00 1.161554e+02 1.767998e+01 -5.103295e+00 9.759996e+00 -1.723077e+00 -1.790535e-01 -4.496007e+00 -3.945331e+00 -1.130083e+00 3.066072e+00 2.768218e+00 -3.783960e-01 1.302274e+00 8.407874e+00 -8.581810e-01 -2.145248e+00 -1.231289e+00 -2.026766e+00 -5.383224e-01 -2.708102e-01 -2.258207e-01 8.758499e-01 4.545828e-01 7.113359e-01 6.741810e-01 -2.845926e-01 1.787983e+00
<VARIANCE> 39
 4.490323e+02 1.016123e+02 1.709810e+02 1.721848e+02 2.972136e+02 2.116809e+02 1.757439e+02 1.716077e+02 1.745824e+02 2.294294e+02 2.334682e+02 2.278880e+02 1.689857e+02 1.237382e+01 1.683784e+01 1.894817e+01 2.710512e+01 2.339864e+01 4.669704e+01 5.775918e+01 2.191993e+01 4.384295e+01 4.194793e+01 2.738061e+01 4.194472e+01 9.786042e+00 6.592000e+00 2.053919e+00 3.620138e+00 2.120010e+00 2.873199e+00 3.371394e+00 6.287676e+00 2.732096e+00 3.644996e+00 3.272370e+00 3.116322e+00 3.001398e+00 1.756842e+00
<GCONST> 1.982700e+02
<STATE> 4
<MEAN> 39
 1.239475e+01 -1.492169e+01 2.335178e+01 -1.070679e+01 -9.022976e+00 -2.518291e+01 -1.792923e+01 -4.087082e-01 6.961387e+00 1.288872e+01 -5.737907e+00 1.262727e+01 1.441685e+02 5.563086e+00 -7.361883e+00 1.560240e+00 -5.942307e+00 -1.845857e+00 -2.503601e+00 -2.312412e-01 2.965102e+00 3.652103e+00 2.725322e+00 1.630086e+00 3.924258e-02 7.399744e+00 -4.490712e+00 6.243617e-01 -2.919747e+00 -6.054359e-02 4.881167e-02 1.567667e+00 1.838235e+00 1.068616e+00 -3.609036e-01 -4.470229e-01 2.511683e-01 -8.582593e-01 -1.914820e+00
<VARIANCE> 39
 5.268394e+01 1.393410e+02 1.768876e+02 2.344981e+02 3.094644e+02 2.511879e+02 6.842677e+02 2.766897e+02 3.508995e+02 4.782537e+02 4.031707e+02 5.346530e+02 1.210137e+02 3.580426e+01 1.087570e+01 2.246925e+01 1.765362e+01 1.970578e+01 2.560926e+01 6.324887e+01 1.768530e+01 2.514795e+01 2.218070e+01 1.994985e+01 2.042422e+01 1.194428e+01 1.613208e+00 2.454015e+00 2.218443e+00 3.214704e+00 2.716751e+00 4.864512e+00 5.035536e+00 2.803146e+00 5.021111e+00 4.033712e+00 3.637142e+00 4.942831e+00 1.172460e+00
<GCONST> 1.983625e+02
<TRANSP> 5
 0.000000e+00 1.000000e+00 0.000000e+00 0.000000e+00 0.000000e+00
 0.000000e+00 5.787647e-01 4.212353e-01 0.000000e+00 0.000000e+00
 0.000000e+00 0.000000e+00 4.120831e-01 5.879169e-01 0.000000e+00
 0.000000e+00 0.000000e+00 0.000000e+00 5.978838e-01 4.021163e-01
 0.000000e+00 0.000000e+00 0.000000e+00 0.000000e+00 0.000000e+00
<ENDHMM>
~h "ey"
<BEGINHMM>
<NUMSTATES> 5
<STATE> 2
<MEAN> 39
 -9.459439e+00 -6.624060e+00 1.561118e+01 -7.035038e+00 -1.539581e+01 -1.699064e+01 -5.987301e+00 -1.843182e+00 -1.759668e+00 7.782308e+00 -1.147509e+00 6.883827e+00 9.024765e+01 1.279110e+00 -2.393267e+00 3.764136e+00 -2.042705e+00 -2.476168e+00 -1.278708e+00 1.571829e+00 1.352866e+00 8.463302e-01 8.685784e-01 3.495553e-01 5.208884e-01 6.256795e+00 5.491709e-01 -1.391475e-01 8.246685e-01 -4.465327e-01 8.780494e-02 3.378261e-01 3.909551e-01 5.267119e-02 -2.395056e-01 1.251124e-01 4.189250e-02 4.084597e-02 1.725333e+00
<VARIANCE> 39
 3.738439e+02 2.479191e+02 4.269564e+02 3.694547e+02 3.581455e+02 4.081620e+02 5.190571e+02 4.815784e+02 4.234528e+02 3.467336e+02 2.815131e+02 2.772674e+02 1.244331e+03 3.360962e+01 2.094859e+01 4.036697e+01 3.592994e+01 3.278896e+01 3.948799e+01 4.728704e+01 4.059470e+01 3.745142e+01 3.138431e+01 2.883556e+01 2.649143e+01 1.216794e+02 4.574425e+00 3.862118e+00 5.404883e+00 5.339283e+00 6.238591e+00 6.951292e+00 8.251226e+00 7.495966e+00 6.802640e+00 5.809391e+00 5.519001e+00 5.114339e+00 1.569081e+01
<GCONST> 2.206633e+02
<STATE> 3
<MEAN> 39
 2.213695e+00 -1.434612e+01 5.250724e+01 -2.319712e+01 -2.254058e+01 -1.529990e+01 3.268617e-01 -1.830987e+00 -6.268875e+00 1.202287e+01 -7.564983e-01 9.443781e+00 1.407517e+02 -4.087090e-04 1.128553e+00 3.001848e+00 -2.689988e-01 4.782953e-01 1.061516e+00 -7.089065e-01 -1.745371e+00 -1.135735e+00 -4.390287e-01 -6.639915e-01 -1.561842e-01 1.116644e+00 -2.913816e-01 4.248614e-01 -2.925676e-01 4.946510e-01 4.443834e-01 2.351748e-01 -1.421874e-01 -2.052290e-01 -7.567766e-02 -2.588162e-01 -2.461525e-01 -1.427217e-01 -1.219398e+00
<VARIANCE> 39
 6.864803e+01 2.064665e+02 3.769366e+02 4.364417e+02 2.093029e+02 2.943173e+02 5.258879e+02 3.822932e+02 6.484874e+02 2.710454e+02 1.964785e+02 1.957165e+02 1.665887e+02 5.867490e+00 7.286244e+00 9.107408e+00 8.728599e+00 9.060995e+00 9.426115e+00 1.267026e+01 1.101248e+01 1.210650e+01 1.069100e+01 8.881736e+00 1.014241e+01 3.062117e+01 8.740833e-01 9.679448e-01 1.467938e+00 1.409970e+00 1.236905e+00 1.486074e+00 1.969104e+00 1.652187e+00 1.660585e+00 1.545207e+00 1.354472e+00 1.355706e+00 3.134444e+00
<GCONST> 1.795801e+02
<STATE> 4
<MEAN> 39
 -3.443381e+00 6.797866e+00 7.074856e+01 -1.017210e+01 -7.835203e+00 -4.925653e-01 -4.366646e+00 -2.005860e+01 -1.390080e+01 5.349617e-01 -1.298184e+01 5.305966e+00 1.189009e+02 -3.979372e-01 2.653103e+00 -3.078835e+00 5.153088e+00 1.842912e+00 1.334473e+00 1.070759e+00 7.559065e-01 2.143733e-01 -1.035367e+00 -2.762884e-01 -9.803492e-01 -7.864372e+00 -2.184754e-01 -2.916607e-02 -2.378012e+00 5.503201e-01 3.421799e-02 -2.747278e-01 9.102381e-02 9.665835e-01 6.523389e-01 2.265538e-01 7.997203e-01 4.756928e-02 -1.388537e+00
<VARIANCE> 39
 7.031902e+01 2.402667e+02 2.343392e+02 5.713901e+02 2.705510e+02 3.176160e+02 3.148628e+02 5.581594e+02 6.692752e+02 3.806462e+02 3.364787e+02 4.355132e+02 3.820471e+02 6.456767e+00 1.219121e+01 4.790874e+01 2.486256e+01 1.864164e+01 1.743629e+01 2.195241e+01 2.849438e+01 3.074357e+01 2.093527e+01 2.144351e+01 2.150782e+01 3.061534e+01 1.451532e+00 2.152264e+00 4.429464e+00 4.731894e+00 3.184049e+00 3.056606e+00 3.686342e+00 4.652428e+00 4.617824e+00 3.658522e+00 3.598715e+00 3.803190e+00 3.201348e+00
<GCONST> 2.025433e+02
<TRANSP> 5
 0.000000e+00 1.000000e+00 0.000000e+00 0.000000e+00 0.000000e+00
 0.000000e+00 7.857459e-01 2.142541e-01 0.000000e+00 0.000000e+00
 0.000000e+00 0.000000e+00 9.113564e-01 8.864354e-02 0.000000e+00
 0.000000e+00 0.000000e+00 0.000000e+00 8.412459e-01 1.587542e-01
 0.000000e+00 0.000000e+00 0.000000e+00 0.000000e+00 0.000000e+00
<ENDHMM>
~h "hh"
<BEGINHMM>
<NUMSTATES> 5
<STATE> 2
<MEAN> 39
 -3.945313e+00 3.148386e+00 3.004992e+00 -2.485412e+00 1.414521e+00 5.105337e+00 1.400296e+00 9.813227e-02 -5.384332e+00 4.343989e+00 -2.015917e+00 2.710874e+00 7.900479e+01 2.857594e+00 2.769336e+00 1.279194e+00 2.515801e-01 -5.800290e-01 1.346721e+00 1.736668e+00 6.835611e-01 3.188951e-01 5.299672e-01 8.658187e-02 -2.628235e-01 -6.197521e-01 8.375904e-01 5.423036e-01 7.247235e-01 -1.501703e-01 -6.833997e-01 -5.479600e-01 -4.518922e-02 1.320272e-01 1.038663e-01 2.370866e-01 -9.484966e-02 -4.203375e-02 7.731642e-01
<VARIANCE> 39
 5.882693e+02 2.825359e+02 2.246191e+02 2.465608e+02 2.884326e+02 2.866274e+02 3.244253e+02 2.835303e+02 3.133786e+02 2.348506e+02 2.069518e+02 2.018145e+02 6.424805e+02 2.894102e+01 2.581663e+01 2.425044e+01 2.545180e+01 2.636497e+01 3.150062e+01 2.872417e+01 2.641091e+01 2.440268e+01 2.116135e+01 1.956316e+01 1.614928e+01 2.318751e+01 4.175035e+00 4.472059e+00 3.720276e+00 4.725915e+00 5.437168e+00 5.896485e+00 5.725463e+00 5.256474e+00 5.035206e+00 4.402761e+00 3.963949e+00 3.346302e+00 4.242218e+00
<GCONST> 2.070195e+02
<STATE> 3
<MEAN> 39
 1.999610e+01 2.300185e+01 1.715127e+01 1.162291e+00 -2.111829e+00 8.137866e+00 9.004125e+00 3.449748e+00 -3.495544e+00 7.531526e+00 -3.362168e+00 2.034577e+00 8.761993e+01 6.444467e+00 2.562047e+00 2.462898e+00 -2.877082e+00 -3.782660e+00 -1.822325e+00 -4.922338e-01 1.401086e-01 -5.863259e-02 1.518828e+00 -2.873642e-01 -4.896874e-01 4.989380e+00 -4.519496e-01 -1.540367e+00 -4.657045e-01 -1.626110e+00 -6.658371e-01 -1.026960e+00 -1.085783e+00 -2.532737e-01 -2.940577e-01 2.120602e-01 1.598895e-01 1.509431e-01 1.043433e+00
<VARIANCE> 39
 2.497030e+02 2.083999e+02 1.283176e+02 2.954298e+02 2.580471e+02 2.388518e+02 2.353257e+02 2.258062e+02 3.239636e+02 2.130258e+02 1.877326e+02 1.998323e+02 3.882921e+02 3.977222e+01 2.093640e+01 1.793675e+01 2.983659e+01 2.220932e+01 2.083463e+01 2.453868e+01 2.453352e+01 2.754727e+01 2.027630e+01 1.823839e+01 1.826519e+01 3.904767e+01 4.120992e+00 3.495342e+00 2.873653e+00 5.617174e+00 3.749430e+00 3.696642e+00 4.065512e+00 4.020389e+00 4.008607e+00 3.446300e+00 3.116982e+00 3.011498e+00 2.899107e+00
<GCONST> 2.007705e+02
<STATE> 4
<MEAN> 39
 3.258399e+01 2.139191e+01 2.223237e+01 -1.356212e+01 -1.675801e+01 -3.422132e-01 2.279561e-01 1.453643e+00 -7.270873e+00 1.219108e+01 -3.162246e+00 6.592661e-01 1.049433e+02 1.332313e+00 -1.186894e+00 4.586942e-01 -4.467925e+00 -2.553391e+00 -1.966362e+00 -1.813947e+00 9.764175e-01 1.816536e-01 1.236737e+00 1.018924e+00 2.335096e-01 3.546422e+00 -9.368515e-01 -1.054437e+00 -8.875689e-01 -6.974140e-01 8.191509e-01 6.051134e-01 3.871652e-01 9.093502e-01 1.466787e-01 -3.382487e-01 2.694121e-01 7.003106e-02 1.328599e-01
<VARIANCE> 39
 5.062576e+01 2.061754e+02 1.856395e+02 2.391085e+02 2.806837e+02 2.882969e+02 3.699175e+02 3.061314e+02 3.995527e+02 3.131183e+02 2.730628e+02 2.952106e+02 1.401549e+02 7.728298e+00 1.332997e+01 1.118712e+01 2.799252e+01 1.645115e+01 1.574330e+01 2.094743e+01 1.994817e+01 1.894916e+01 1.746424e+01 1.620667e+01 1.494876e+01 1.536069e+01 2.318804e+00 2.453406e+00 2.075010e+00 3.010741e+00 3.257765e+00 3.257729e+00 3.617012e+00 4.062369e+00 3.670469e+00 3.223423e+00 3.004342e+00 3.031919e+00 2.057458e+00
<GCONST> 1.925657e+02
<TRANSP> 5
 0.000000e+00 1.000000e+00 0.000000e+00 0.000000e+00 0.000000e+00
 0.000000e+00 6.606834e-01 3.393166e-01 0.000000e+00 0.000000e+00
 0.000000e+00 0.000000e+00 5.378861e-01 4.621139e-01 0.000000e+00
 0.000000e+00 0.000000e+00 0.000000e+00 7.165368e-01 2.834632e-01
 0.000000e+00 0.000000e+00 0.000000e+00 0.000000e+00 0.000000e+00
<ENDHMM>
~h "ih"
<BEGINHMM>
<NUMSTATES> 5
<STATE> 2
<MEAN> 39
 -4.314371e+01 9.520391e+00 -3.792999e+00 2.452928e+00 -8.104412e+00 -7.630207e+00 -1.789417e+00 1.698657e+00 -5.389190e+00 1.305613e+00 -4.361611e+00 8.231874e+00 1.132045e+02 1.223874e+01 -8.170926e-01 1.037497e+01 1.743953e+00 2.886563e-01 -3.023510e+00 -1.435532e+00 -1.558374e+00 6.045763e-01 1.632943e-01 -9.486388e-01 1.043958e+00 4.110486e+00 2.818091e+00 -1.550415e+00 2.260212e+00 -2.608319e-01 -4.554984e-02 -1.263859e+00 -1.028950e+00 -5.055842e-01 -2.382664e-01 3.698131e-01 -1.225149e-01 1.405506e-01 1.700677e+00
<VARIANCE> 39
 2.713264e+02 1.109472e+02 2.505101e+02 2.238208e+02 2.847150e+02 2.848067e+02 1.505152e+02 1.439949e+02 1.648901e+02 1.472890e+02 2.089926e+02 1.565512e+02 1.143422e+02 3.046051e+01 1.816441e+01 2.470186e+01 1.756943e+01 1.440000e+01 2.587362e+01 2.613259e+01 1.592566e+01 1.774274e+01 1.929272e+01 1.676226e+01 2.487484e+01 1.385381e+01 5.334596e+00 2.371006e+00 4.683268e+00 3.726900e+00 3.110979e+00 4.508784e+00 5.702406e+00 3.529181e+00 4.756827e+00 3.436790e+00 3.164702e+00 4.119422e+00 1.175458e+00
<GCONST> 1.948449e+02
<STATE> 3
<MEAN> 39
 5.406515e+00 -8.451517e+00 3.606991e+01 -4.574474e+00 -1.344140e+01 -2.612994e+01 -8.523983e+00 -6.753438e+00 -2.588630e+00 6.205735e+00 -4.075145e+00 1.394958e+01 1.385669e+02 4.193539e+00 -3.915704e+00 4.480225e+00 -1.905049e+00 -1.695539e+00 -2.828017e+00 -2.349053e-01 -5.393862e-01 -6.626843e-01 1.235159e+00 3.767182e-01 2.785512e-01 3.275204e+00 -2.282111e+00 4.110019e-01 -1.490573e+00 2.217890e-01 -2.132127e-01 5.732836e-01 8.752400e-01 3.487915e-01 -5.754076e-01 -5.194962e-02 2.419278e-01 -3.439801e-01 -1.356014e+00
<VARIANCE> 39
 8.687897e+01 1.994195e+02 1.915227e+02 2.856823e+02 3.507427e+02 2.323341e+02 6.087850e+02 2.576650e+02 2.635561e+02 2.360785e+02 3.375805e+02 4.317762e+02 1.597791e+02 4.559629e+01 1.670042e+01 3.196238e+01 2.148651e+01 1.374182e+01 2.638377e+01 4.377111e+01 2.212266e+01 2.592227e+01 1.694334e+01 1.699508e+01 2.106842e+01 1.882302e+01 5.217471e+00 2.351460e+00 3.310790e+00 3.168416e+00 2.011144e+00 3.599322e+00 3.924611e+00 2.695340e+00 2.601363e+00 2.913627e+00 2.994312e+00 3.852376e+00 1.728682e+00
<GCONST> 1.986710e+02
<STATE> 4
<MEAN> 39
 5.311779e+00 -1.559982e+01 4.540241e+01 3.032625e+00 -1.734661e+01 -3.244223e+01 -2.906023e+00 -3.044924e+00 -1.863643e+01 8.442310e+00 -3.198030e+00 8.326068e+00 1.337322e+02 -1.000507e+00 3.076720e+00 -1.229815e-01 5.481833e+00 1.288650e+00 9.224740e-01 3.090123e+00 5.370939e-01 -3.085999e+00 -1.114667e+00 7.821862e-01 -1.421564e+00 -8.633402e+00 -1.278396e+00 1.817411e+00 -2.179202e+00 8.601683e-01 1.330731e+00 1.580614e+00 -5.215862e-01 2.178930e-01 8.924189e-01 -7.668405e-01 1.530152e-03 -2.121720e-01 -3.552140e+00
<VARIANCE> 39
 7.328902e+01 1.867868e+02 2.329220e+02 3.971477e+02 3.394396e+02 3.710728e+02 1.007055e+03 9.303459e+02 6.616565e+02 3.493987e+02 2.621242e+02 2.929036e+02 2.939513e+02 7.840452e+00 2.187833e+01 1.878656e+01 2.317955e+01 2.140667e+01 2.856539e+01 3.755468e+01 4.004458e+01 3.247003e+01 2.441107e+01 2.288330e+01 2.239817e+01 5.335259e+01 2.286485e+00 3.337355e+00 3.931936e+00 6.227347e+00 3.465069e+00 5.508762e+00 1.065033e+01 1.025800e+01 8.966094e+00 5.078431e+00 4.110540e+00 3.728199e+00 3.924371e+00
<GCONST> 2.100463e+02
<TRANSP> 5
 0.000000e+00 1.000000e+00 0.000000e+00 0.000000e+00 0.000000e+00
 0.000000e+00 6.601478e-01 3.398522e-01 0.000000e+00 0.000000e+00
 0.000000e+00 0.000000e+00 8.087369e-01 1.912632e-01 0.000000e+00
 0.000000e+00 0.000000e+00 0.000000e+00 7.797959e-01 2.202041e-01
 0.000000e+00 0.000000e+00 0.000000e+00 0.000000e+00 0.000000e+00
<ENDHMM>
~h "iy"
<BEGINHMM>
<NUMSTATES> 5
<STATE> 2
<MEAN> 39
 2.971832e+00 -7.200558e+00 6.043398e+01 -2.378710e+00 -7.946396e+00 -1.994228e+01 1.903061e+00 -1.295606e+01 -1.593101e+01 7.290453e+00 -8.174243e+00 1.157894e+01 1.353145e+02 1.015713e+00 -2.018392e+00 4.974746e+00 -4.176399e+00 -8.407213e-01 1.344923e+00 -4.571683e-01 -1.494685e+00 -1.547898e-02 1.103306e+00 -9.459945e-01 2.650579e-01 7.427073e-01 -4.284852e-01 6.670622e-01 -2.523786e+00 1.379043e+00 9.767557e-01 -1.951049e-01 -2.848989e-01 1.395662e+00 2.927449e-01 -3.879239e-01 5.418356e-01 -2.374331e-01 -9.108112e-01
<VARIANCE> 39
 7.670857e+01 2.016195e+02 2.321524e+02 3.124366e+02 2.201451e+02 3.020837e+02 6.304938e+02 5.244142e+02 3.662669e+02 3.615011e+02 2.436876e+02 3.568162e+02 1.064678e+02 2.376554e+01 4.111145e+01 2.009822e+01 2.814348e+01 2.076439e+01 4.613450e+01 2.766327e+01 3.300573e+01 2.725641e+01 2.215827e+01 1.855336e+01 1.443258e+01 5.860412e+00 2.744317e+00 1.933491e+00 2.661696e+00 3.791969e+00 3.799650e+00 3.498830e+00 4.289711e+00 3.525745e+00 3.678833e+00 3.272389e+00 2.463524e+00 2.839129e+00 4.740608e-01
<GCONST> 1.978008e+02
<STATE> 3
<MEAN> 39
 4.984456e+00 -1.205801e+01 6.682380e+01 2.676792e+00 -9.486816e+00 -1.575739e+01 -3.551666e+00 6.530616e-01 -2.637952e+01 4.355491e+00 -5.111987e+00 3.008061e+00 1.325741e+02 1.171193e+00 6.848796e-02 -3.621862e+00 2.249182e+00 1.367228e+00 -1.357301e+00 6.652686e-02 1.395681e+00 8.158713e-01 -3.815928e-01 7.697413e-01 -2.363225e-01 -1.862751e+00 1.321559e-01 3.159438e-01 -2.249563e+00 5.186665e-01 1.100110e+00 -3.658124e-01 -6.115435e-01 1.189575e-01 9.915031e-01 -2.627557e-01 1.243755e-03 2.051145e-01 -5.122849e-01
<VARIANCE> 39
 1.072630e+02 2.318252e+02 2.947155e+02 3.928636e+02 2.259935e+02 5.234529e+02 7.083049e+02 6.651570e+02 4.285135e+02 4.757362e+02 2.563622e+02 3.310646e+02 1.775440e+02 1.310808e+01 1.608299e+01 2.713517e+01 1.871038e+01 1.646032e+01 3.135296e+01 2.450121e+01 2.526310e+01 2.050817e+01 1.647271e+01 1.373664e+01 1.264187e+01 5.226607e+00 1.409122e+00 1.938561e+00 2.304807e+00 3.578079e+00 3.180388e+00 3.698188e+00 3.697395e+00 3.881267e+00 3.353089e+00 2.756048e+00 2.345228e+00 2.055112e+00 5.376690e-01
<GCONST> 1.952630e+02
<STATE> 4
<MEAN> 39
 -4.250598e-02 3.357272e+00 4.961776e+01 -4.985471e+00 -2.422045e+00 -2.582802e+00 1.420405e+00 -7.948166e+00 -4.611740e+00 2.883543e+00 -8.122778e+00 8.612324e+00 1.105918e+02 -1.950996e-02 1.457092e-01 -4.853560e+00 8.026538e-01 1.595824e+00 6.145111e-01 -1.066018e+00 7.981491e-01 1.719331e+00 -4.274275e-01 2.822064e-01 -2.444001e-01 -2.736161e+00 -7.522926e-02 -8.152202e-02 -3.179067e-01 -2.397102e-01 -1.126778e-01 7.960452e-02 -6.572639e-02 -1.633776e-01 -2.107900e-01 2.772030e-01 7.206036e-02 -1.105102e-01 -3.726475e-03
<VARIANCE> 39
 2.372934e+02 4.401967e+02 5.042266e+02 5.245851e+02 2.888850e+02 9.137959e+02 5.616077e+02 5.342551e+02 4.101093e+02 3.707343e+02 2.676199e+02 2.761853e+02 5.980677e+02 1.257941e+01 1.538377e+01 2.816780e+01 1.815311e+01 2.236194e+01 2.876814e+01 2.392836e+01 2.309580e+01 2.238422e+01 1.809337e+01 1.457333e+01 1.504118e+01 6.514339e+00 1.054196e+00 2.210612e+00 2.558178e+00 3.652281e+00 2.677514e+00 4.775670e+00 3.258772e+00 3.797871e+00 3.410187e+00 2.990490e+00 2.551970e+00 2.356942e+00 8.011506e-01
<GCONST> 1.999422e+02
<TRANSP> 5
 0.000000e+00 1.000000e+00 0.000000e+00 0.000000e+00 0.000000e+00
 0.000000e+00 6.652285e-01 3.347714e-01 0.000000e+00 0.000000e+00
 0.000000e+00 0.000000e+00 7.072968e-01 2.927031e-01 0.000000e+00
 0.000000e+00 0.000000e+00 0.000000e+00 7.736160e-01 2.263841e-01
 0.000000e+00 0.000000e+00 0.000000e+00 0.000000e+00 0.000000e+00
<ENDHMM>
~h "ow"
<BEGINHMM>
<NUMSTATES> 5
<STATE> 2
<MEAN> 39
 8.341753e-01 -8.609621e+00 -2.015552e+00 -1.458839e+01 -3.790951e+00 -9.092482e+00 -7.409519e+00 -3.002603e+00 -4.788742e-01 1.213384e+01 2.903043e-01 2.855157e+00 9.557910e+01 2.119505e+00 -1.621039e+00 -5.287776e-01 -2.725572e+00 5.520972e-01 1.295134e+00 1.341579e+00 5.988477e-02 1.122514e+00 1.969069e+00 -1.513351e-01 -9.078826e-01 4.620443e+00 4.266763e-01 -5.603319e-02 4.038021e-01 -1.848083e-01 2.754349e-01 2.997467e-01 4.506574e-02 9.415318e-02 -6.951268e-02 2.664040e-02 -7.828322e-02 2.078141e-01 1.068287e+00
<VARIANCE> 39
 5.524160e+02 3.070976e+02 2.609374e+02 3.923983e+02 3.821683e+02 5.101932e+02 4.895818e+02 5.189459e+02 6.114346e+02 5.526696e+02 5.046437e+02 3.484661e+02 1.163780e+03 4.852513e+01 2.301859e+01 2.456632e+01 3.660476e+01 3.407217e+01 3.398066e+01 3.799060e+01 4.116064e+01 4.605255e+01 4.187333e+01 4.137236e+01 3.209439e+01 1.272254e+02 5.960935e+00 3.949797e+00 3.457582e+00 5.198308e+00 5.525582e+00 5.546275e+00 6.856532e+00 7.277943e+00 7.643939e+00 7.432539e+00 7.248927e+00 5.898695e+00 1.462909e+01
<GCONST> 2.234381e+02
<STATE> 3
<MEAN> 39
 2.127213e+01 -2.306009e+01 2.328696e+00 -2.937285e+01 5.011700e+00 -9.685410e+00 -1.841976e+00 -4.793685e-01 6.535872e-01 2.778843e+01 1.924981e+00 9.171593e-02 1.386385e+02 6.708483e-01 9.367927e-01 6.422331e-01 -2.233251e+00 -3.958569e-01 2.782558e+00 -7.387677e-02 -1.349513e+00 -4.727460e-01 7.209269e-01 3.458990e-01 9.935966e-01 1.572285e+00 -4.947695e-01 7.730717e-01 -4.935531e-02 8.911005e-01 -1.401940e-01 -6.404414e-02 -3.134136e-01 3.120124e-03 -2.091643e-01 -9.111142e-01 -1.455161e-01 4.733697e-01 -1.568756e+00
<VARIANCE> 39
 9.672268e+01 1.830900e+02 2.294401e+02 3.008164e+02 3.436074e+02 5.860072e+02 5.587273e+02 3.756737e+02 8.002966e+02 4.822862e+02 5.420538e+02 2.450533e+02 2.142777e+02 6.993100e+00 9.306655e+00 7.187056e+00 1.099537e+01 1.015399e+01 1.377111e+01 1.469466e+01 1.481293e+01 1.834322e+01 1.718824e+01 1.653787e+01 1.453393e+01 1.966856e+01 1.787103e+00 1.065483e+00 1.184681e+00 1.929353e+00 1.841546e+00 1.921193e+00 2.458162e+00 2.447854e+00 2.741776e+00 2.629043e+00 2.901331e+00 2.179555e+00 3.660203e+00
<GCONST> 1.898254e+02
<STATE> 4
<MEAN> 39
 2.474467e+01 -2.652166e+00 6.277460e+00 -3.065061e+01 -3.229095e+00 6.927913e+00 -1.420948e+00 -1.495720e+00 -7.196541e+00 1.257899e+01 -1.303647e+00 7.403110e+00 1.241315e+02 -5.936914e-01 1.445060e+00 4.056931e-01 1.280478e+00 2.109114e-01 5.628330e-01 3.456845e-01 -5.544287e-02 -1.022342e-01 -9.761261e-01 -6.583750e-01 -2.013642e-02 -2.220401e+00 -3.102071e-01 -1.388793e-01 -6.009584e-02 3.923256e-01 1.094599e-01 -2.053529e-01 -7.344298e-02 6.256311e-02 1.405624e-01 2.014063e-03 3.675187e-02 -9.994357e-02 -2.007900e-01
<VARIANCE> 39
 1.187547e+02 3.578503e+02 2.593151e+02 5.086686e+02 5.599589e+02 4.674253e+02 4.729797e+02 4.150224e+02 8.083807e+02 4.488713e+02 4.294991e+02 3.409191e+02 4.993458e+02 6.597958e+00 9.574862e+00 7.721620e+00 1.631186e+01 1.165885e+01 1.317201e+01 1.407166e+01 1.570928e+01 1.802595e+01 1.600857e+01 1.597103e+01 1.387966e+01 5.168125e+00 9.443294e-01 1.315725e+00 1.146129e+00 2.148668e+00 1.754989e+00 2.098647e+00 2.183856e+00 2.476628e+00 2.707178e+00 2.355350e+00 2.377326e+00 2.158096e+00 5.392837e-01
<GCONST> 1.887995e+02
<TRANSP> 5
 0.000000e+00 1.000000e+00 0.000000e+00 0.000000e+00 0.000000e+00
 0.000000e+00 7.279690e-01 2.720310e-01 0.000000e+00 0.000000e+00
 0.000000e+00 0.000000e+00 7.065578e-01 2.934422e-01 0.000000e+00
 0.000000e+00 0.000000e+00 0.000000e+00 9.260353e-01 7.396463e-02
 0.000000e+00 0.000000e+00 0.000000e+00 0.000000e+00 0.000000e+00
<ENDHMM>
~h "sp"
<BEGINHMM>
<NUMSTATES> 3
<STATE> 2
~s "silst"
<TRANSP> 3
 0.000000e+00 3.672731e-02 9.632728e-01
 0.000000e+00 8.887525e-01 1.112475e-01
 0.000000e+00 0.000000e+00 0.000000e+00
<ENDHMM>
~h "th"
<BEGINHMM>
<NUMSTATES> 5
<STATE> 2
<MEAN> 39
 -2.578641e+01 2.020860e+00 2.168587e+00 8.240859e+00 -3.601161e+00 1.727113e+00 -3.129979e+00 7.874539e-01 -4.457870e+00 2.306698e+00 -2.215349e+00 4.288950e+00 8.030113e+01 -2.190985e+00 -1.087835e+00 -1.745420e+00 -1.412554e+00 -1.461823e+00 -3.202507e-01 -8.674869e-01 -6.194922e-02 3.973939e-03 -5.509347e-01 -2.194300e-02 3.032072e-01 1.941396e+00 1.013265e+00 -2.116133e-01 8.675135e-01 -3.914047e-01 -1.170761e-01 -3.819441e-01 1.479546e-01 -2.057148e-01 -3.603810e-02 1.862171e-01 -1.266436e-01 1.201055e-01 1.848222e+00
<VARIANCE> 39
 2.114589e+02 1.581083e+02 1.509945e+02 1.529095e+02 1.640401e+02 1.628145e+02 1.718176e+02 1.675778e+02 1.746008e+02 1.457742e+02 1.415835e+02 1.308519e+02 5.382735e+02 2.552553e+01 1.756364e+01 1.989849e+01 2.222248e+01 1.872504e+01 2.147939e+01 2.218177e+01 2.159705e+01 2.333762e+01 1.861622e+01 1.782080e+01 1.728125e+01 9.178979e+01 3.430433e+00 3.651680e+00 3.945151e+00 3.930059e+00 3.644212e+00 4.194970e+00 4.247744e+00 4.035816e+00 4.374887e+00 3.777910e+00 3.598055e+00 3.536831e+00 9.918980e+00
<GCONST> 1.980324e+02
<STATE> 3
<MEAN> 39
 -2.408904e+01 -6.108307e+00 1.042789e+01 -1.173133e+00 -1.164704e+01 -4.532897e+00 -2.706666e+00 -9.654571e-01 -2.531524e+00 3.346142e+00 -3.892508e+00 6.770515e+00 1.142343e+02 5.716179e+00 -1.888157e+00 5.699655e+00 2.680687e+00 1.736605e+00 -2.070127e+00 4.434470e-01 3.924150e-01 2.861808e-01 1.527781e+00 4.808069e-01 -3.619667e-01 4.122468e+00 2.337770e+00 -1.964962e-01 -2.833644e-01 1.709051e+00 2.004387e+00 -2.496861e-01 -9.113020e-01 1.580547e-01 -3.944821e-01 3.181430e-03 3.484848e-01 -3.486675e-01 -2.294737e+00
<VARIANCE> 39
 1.817706e+02 1.601913e+02 2.735295e+02 1.705073e+02 1.671102e+02 1.974654e+02 2.108685e+02 1.946055e+02 1.902574e+02 1.836266e+02 1.827919e+02 2.067418e+02 1.503628e+02 3.349964e+01 1.937077e+01 2.651780e+01 3.360046e+01 2.585514e+01 2.870371e+01 2.725608e+01 2.484367e+01 2.319613e+01 2.066010e+01 2.179795e+01 2.412111e+01 5.022810e+01 4.215136e+00 4.406901e+00 9.547215e+00 5.336668e+00 4.949959e+00 6.197594e+00 7.167697e+00 5.420982e+00 5.007526e+00 5.475288e+00 4.933718e+00 5.169863e+00 6.507721e+00
<GCONST> 2.048550e+02
<STATE> 4
<MEAN> 39
 1.829209e+01 -1.244388e+01 1.430639e+01 1.693928e+01 1.415901e+01 -9.596558e+00 -1.723213e+01 -3.176975e+00 -6.721755e+00 4.241847e+00 -9.049485e-01 3.440777e+00 1.155994e+02 1.048301e+01 -1.752103e+00 -3.744720e+00 1.088222e+00 7.439249e+00 -1.606147e+00 -6.599180e+00 -7.639990e-01 -1.400813e+00 -1.449062e+00 -9.398247e-02 4.215313e-03 1.642879e+00 -1.857450e+00 -1.071771e-01 -7.518972e-01 -1.307914e+00 -8.315358e-01 -2.935824e-01 2.391674e-02 4.899074e-01 -7.805280e-02 -3.771329e-01 -2.910855e-01 2.160373e-01 2.163028e-01
<VARIANCE> 39
 3.801970e+02 1.471423e+02 3.257615e+02 1.980805e+02 3.322957e+02 4.582386e+02 4.275702e+02 2.916191e+02 2.069700e+02 1.955514e+02 1.768577e+02 1.668167e+02 1.741401e+02 3.055929e+01 2.228522e+01 3.210982e+01 3.071235e+01 3.290522e+01 6.275099e+01 4.239613e+01 3.464658e+01 2.693323e+01 2.931983e+01 2.583332e+01 2.109412e+01 1.233968e+01 7.324542e+00 3.786703e+00 1.180441e+01 5.998276e+00 7.656993e+00 8.549621e+00 9.353351e+00 7.074760e+00 5.190470e+00 4.555083e+00 4.583876e+00 4.110808e+00 3.111664e+00
<GCONST> 2.104301e+02
<TRANSP> 5
 0.000000e+00 1.000000e+00 0.000000e+00 0.000000e+00 0.000000e+00
 0.000000e+00 8.360240e-01 1.639760e-01 0.000000e+00 0.000000e+00
 0.000000e+00 0.000000e+00 7.465999e-01 2.534001e-01 0.000000e+00
 0.000000e+00 0.000000e+00 0.000000e+00 7.285454e-01 2.714546e-01
 0.000000e+00 0.000000e+00 0.000000e+00 0.000000e+00 0.000000e+00
<ENDHMM>
~h "uw"
<BEGINHMM>
<NUMSTATES> 5
<STATE> 2
<MEAN> 39
 -3.386299e+00 -2.751471e+00 4.446284e+01 1.021046e+01 -5.336633e+00 -1.364064e+01 8.713487e-01 3.352742e+00 -1.156085e+01 1.800860e+00 -7.719793e+00 7.656044e+00 1.241572e+02 1.024620e+01 -2.375137e+00 7.060476e+00 1.891280e+00 1.292064e+00 -1.324761e+00 -4.266634e+00 -3.322996e-01 -2.061934e+00 4.210893e-01 -7.241046e-01 -9.547198e-01 4.953661e+00 -2.040095e+00 -5.204881e-01 -1.485926e+00 -1.587249e+00 -2.832682e-01 -3.064170e-01 -8.204095e-01 -3.428027e-01 -7.515553e-01 3.177485e-02 4.154274e-01 -6.533529e-02 7.132391e-01
<VARIANCE> 39
 2.589885e+02 1.822027e+02 2.235819e+02 2.469217e+02 1.509427e+02 2.364192e+02 5.337495e+02 4.324319e+02 2.759848e+02 2.047235e+02 2.098212e+02 2.564303e+02 2.136235e+02 2.137832e+01 1.395686e+01 2.285415e+01 2.725539e+01 2.068249e+01 4.194682e+01 3.727120e+01 2.539377e+01 3.234638e+01 3.028290e+01 2.717675e+01 3.239922e+01 9.271894e+00 5.189272e+00 1.811406e+00 3.648875e+00 2.341865e+00 2.330951e+00 4.375099e+00 4.765519e+00 3.053118e+00 3.925412e+00 3.751936e+00 2.906414e+00 3.085136e+00 3.360666e+00
<GCONST> 2.005161e+02
<STATE> 3
<MEAN> 39
 8.730263e+00 -1.259854e+01 5.449511e+01 7.310997e+00 -3.714960e+00 -2.122143e+01 -9.509684e+00 4.206543e-01 -2.007989e+01 2.936265e+00 -8.002747e+00 5.836265e+00 1.350632e+02 7.046101e-01 -7.473513e-02 -6.129245e-01 4.311594e-01 1.485840e+00 6.063964e-02 -7.551790e-01 -1.151013e-01 -4.697831e-02 2.509003e-01 -4.697782e-01 -4.975843e-01 -8.027104e-01 -4.047714e-01 5.848017e-01 -7.906570e-01 6.850997e-02 2.183817e-01 4.663970e-01 3.540171e-01 -1.770248e-01 4.370209e-01 5.341569e-02 5.910464e-03 -7.619200e-03 -7.297437e-01
<VARIANCE> 39
 7.517345e+01 1.552865e+02 1.766130e+02 3.595529e+02 2.106023e+02 4.178987e+02 1.025497e+03 6.176244e+02 3.727065e+02 3.757849e+02 2.935307e+02 6.240936e+02 1.349182e+02 2.462549e+00 4.141129e+00 6.348171e+00 5.594354e+00 6.900246e+00 8.583229e+00 1.035954e+01 8.918178e+00 1.005333e+01 1.031517e+01 8.814305e+00 9.405288e+00 3.500441e+00 1.303120e+00 7.558852e-01 1.321398e+00 1.178361e+00 1.153068e+00 1.772269e+00 2.280658e+00 1.737228e+00 1.883798e+00 1.934007e+00 1.575384e+00 1.698970e+00 7.846907e-01
<GCONST> 1.750835e+02
<STATE> 4
<MEAN> 39
 1.658823e+01 2.963938e+00 2.464157e+01 7.207578e+00 1.183850e+01 1.826229e+00 -6.001123e+00 -6.626843e+00 -1.454109e+01 7.221078e+00 -7.429735e+00 1.686053e+00 1.075622e+02 -1.013714e+00 1.122445e+00 -2.943218e+00 -2.704308e-01 1.843542e-02 2.118811e+00 1.607111e+00 -3.703073e-01 9.628459e-01 -9.838479e-02 5.334612e-01 1.433121e-01 -3.011446e+00 -5.768626e-01 -1.735212e-01 5.083468e-03 -3.243072e-02 -5.062492e-01 -3.145826e-01 1.103962e-01 2.767017e-01 3.795049e-02 -1.751677e-01 9.217553e-02 1.035721e-01 -3.813553e-02
<VARIANCE> 39
 1.368593e+02 2.177995e+02 3.645674e+02 3.529099e+02 3.063806e+02 6.998613e+02 6.581257e+02 4.978006e+02 7.000754e+02 4.602897e+02 4.432547e+02 5.370031e+02 4.337127e+02 1.214005e+01 1.518883e+01 1.231326e+01 1.812095e+01 1.807860e+01 2.868463e+01 2.935320e+01 2.879601e+01 2.937539e+01 2.262802e+01 2.221115e+01 2.079796e+01 5.636958e+00 1.480215e+00 2.260726e+00 1.877600e+00 2.727895e+00 2.820997e+00 4.101885e+00 4.297284e+00 4.322054e+00 4.567562e+00 3.761009e+00 3.903204e+00 3.408733e+00 8.473428e-01
<GCONST> 2.013130e+02
<TRANSP> 5
 0.000000e+00 1.000000e+00 0.000000e+00 0.000000e+00 0.000000e+00
 0.000000e+00 6.874380e-01 3.125620e-01 0.000000e+00 0.000000e+00
 0.000000e+00 0.000000e+00 8.811120e-01 1.188880e-01 0.000000e+00
 0.000000e+00 0.000000e+00 0.000000e+00 8.838745e-01 1.161255e-01
 0.000000e+00 0.000000e+00 0.000000e+00 0.000000e+00 0.000000e+00
<ENDHMM>
~h "sil"
<BEGINHMM>
<NUMSTATES> 5
<STATE> 2
<MEAN> 39
 -1.155212e+01 -1.159939e+00 1.416523e+00 7.321911e+00 1.253853e+00 9.692560e-01 4.652570e+00 6.585745e+00 -5.868965e-01 2.839605e-01 -4.102196e+00 7.387126e-01 6.436452e+01 -5.190108e-01 8.574008e-01 -1.522383e-01 -9.074360e-04 -1.884853e-02 5.351251e-02 -3.288082e-01 -2.274880e-01 6.936236e-02 2.399586e-02 2.763549e-01 1.031416e-02 -1.199522e+00 -3.189141e-02 7.518592e-02 1.205069e-01 -1.724378e-02 1.541365e-03 4.820228e-04 -2.779673e-02 -8.210208e-02 -1.317951e-02 8.288956e-02 7.859875e-02 7.888951e-02 6.054632e-02
<VARIANCE> 39
 7.497462e+01 1.674332e+02 1.424988e+02 1.306992e+02 1.500304e+02 1.867698e+02 1.961946e+02 2.122168e+02 2.014232e+02 2.010904e+02 1.630063e+02 1.434632e+02 1.060478e+02 2.436352e+00 4.440138e+00 5.533441e+00 6.949796e+00 8.456565e+00 1.051109e+01 1.195642e+01 1.292802e+01 1.278170e+01 1.270985e+01 1.197144e+01 1.094422e+01 1.891690e+00 3.733970e-01 6.919187e-01 9.727781e-01 1.237846e+00 1.524060e+00 1.855206e+00 2.154942e+00 2.330226e+00 2.367239e+00 2.345921e+00 2.211173e+00 2.043333e+00 1.878295e-01
<GCONST> 1.663552e+02
<STATE> 3
~s "silst"
<STATE> 4
<MEAN> 39
 -2.318943e+01 -4.737333e-01 4.462614e-01 2.554428e+00 -2.612433e+00 -2.754582e+00 -2.888795e+00 4.716226e-02 -2.982810e+00 1.876192e+00 -1.060840e+00 2.176847e+00 5.941443e+01 9.460561e-02 -1.735280e-01 2.529261e-01 1.205461e-01 6.462860e-02 1.202575e-01 1.967874e-01 1.158334e-01 -2.348379e-02 2.142777e-01 -1.427486e-01 1.928811e-02 8.840615e-01 9.630422e-02 9.778637e-03 8.080694e-02 -9.396039e-04 2.093637e-02 3.143836e-02 4.684933e-02 4.211697e-02 1.912620e-02 -8.703746e-03 -4.120329e-02 2.393417e-02 4.442256e-01
<VARIANCE> 39
 1.054312e+02 1.368957e+02 1.099364e+02 1.158615e+02 1.383380e+02 1.561460e+02 1.722547e+02 1.681985e+02 1.561688e+02 1.404144e+02 1.321114e+02 1.139004e+02 2.168858e+02 1.074688e+01 1.354470e+01 1.179104e+01 1.218981e+01 1.402338e+01 1.566817e+01 1.668069e+01 1.629075e+01 1.540447e+01 1.448121e+01 1.384705e+01 1.177657e+01 1.935260e+01 2.274802e+00 2.631968e+00 2.341818e+00 2.416796e+00 2.717638e+00 2.952044e+00 3.164372e+00 3.082355e+00 2.933192e+00 2.736811e+00 2.596180e+00 2.237570e+00 4.189919e+00
<GCONST> 1.835235e+02
<TRANSP> 5
 0.000000e+00 1.000000e+00 0.000000e+00 0.000000e+00 0.000000e+00
 0.000000e+00 8.321861e-01 1.083373e-01 5.947653e-02 0.000000e+00
 0.000000e+00 0.000000e+00 9.079112e-01 9.208882e-02 0.000000e+00
 0.000000e+00 7.545704e-02 0.000000e+00 7.573113e-01 1.672317e-01
 0.000000e+00 0.000000e+00 0.000000e+00 0.000000e+00 0.000000e+00
<ENDHMM>
