~o
<STREAMINFO> 1 39
<VECSIZE> 39<NULLD><MFCC_D_A_0><DIAGC>
~v "varFloor1"
<VARIANCE> 39
 6.753474e+00 3.412362e+00 5.607597e+00 4.796462e+00 3.472081e+00 4.011722e+00 4.412065e+00 3.618229e+00 3.682593e+00 3.039560e+00 2.639483e+00 2.510356e+00 1.295583e+01 2.277723e-01 1.546074e-01 2.184501e-01 2.118108e-01 1.813343e-01 2.097883e-01 2.257618e-01 2.166374e-01 2.009357e-01 1.748309e-01 1.664689e-01 1.534765e-01 2.729284e-01 3.005151e-02 2.352162e-02 2.950290e-02 3.333734e-02 2.970534e-02 3.528604e-02 3.796648e-02 3.764385e-02 3.477007e-02 3.067227e-02 2.924742e-02 2.697526e-02 3.680371e-02
~s "silst"
<NUMMIXES> 8
<MIXTURE> 1 6.745562e-02
<MEAN> 39
 -1.883722e+01 9.544235e+00 4.564566e+00 9.907406e+00 4.264523e+00 4.896870e+00 4.049428e+00 5.691370e+00 2.660927e+00 3.450638e+00 1.268876e+00 2.597231e+00 5.153499e+01 2.385772e-01 7.039523e-01 9.461636e-01 1.066981e+00 1.172361e+00 1.269330e+00 1.160152e+00 1.005159e+00 1.043559e+00 1.020972e+00 9.169573e-01 5.800245e-01 1.991846e-02 7.224035e-02 -9.760909e-02 -3.619488e-02 -5.254653e-02 -5.929403e-02 -4.212663e-02 -9.040982e-03 -2.851647e-02 -1.705652e-02 1.823002e-02 -3.478065e-02 5.485281e-03 1.333743e-01
<VARIANCE> 39
 3.121077e+01 4.503427e+01 5.158073e+01 6.184359e+01 7.476221e+01 8.934728e+01 9.916224e+01 1.106038e+02 1.104314e+02 1.085179e+02 1.101922e+02 9.528548e+01 1.555866e+01 1.823131e+00 2.362524e+00 3.615627e+00 4.927757e+00 6.058622e+00 7.386529e+00 9.163753e+00 9.713276e+00 1.008134e+01 9.919711e+00 1.009289e+01 9.192246e+00 8.917595e-01 3.063257e-01 4.594972e-01 6.902302e-01 9.416924e-01 1.196145e+00 1.509058e+00 1.750310e+00 1.933430e+00 1.999429e+00 1.984083e+00 1.999298e+00 1.824653e+00 1.468843e-01
<GCONST> 1.483212e+02
<MIXTURE> 2 1.335407e-01
<MEAN> 39
 -2.590281e+01 4.711101e+00 -1.338498e+00 1.674800e+00 -5.050724e+00 -5.496718e+00 -7.379017e+00 -3.858891e+00 -2.791580e+00 1.363032e+00 2.018336e+00 3.342670e+00 4.753239e+01 2.485619e-01 3.919714e-01 5.244104e-01 6.300744e-01 6.946577e-01 7.570379e-01 7.626826e-01 7.121115e-01 7.169170e-01 7.563425e-01 6.873004e-01 5.185534e-01 1.066451e-01 2.358849e-01 1.076854e-01 1.915095e-01 2.848118e-01 3.709436e-01 4.682003e-01 5.439841e-01 4.759308e-01 2.812408e-01 1.303141e-01 -4.416490e-02 -2.901226e-02 2.003970e-01
<VARIANCE> 39
 1.931324e+01 2.063860e+01 2.772337e+01 3.715966e+01 4.950674e+01 6.375605e+01 7.662148e+01 8.111655e+01 8.076038e+01 7.945355e+01 7.757568e+01 7.084155e+01 1.295583e+01 9.022737e-01 1.534194e+00 2.746788e+00 3.845655e+00 4.951996e+00 6.089914e+00 7.398340e+00 8.129670e+00 8.501328e+00 8.460725e+00 8.153256e+00 7.642226e+00 3.946028e-01 2.147600e-01 3.406067e-01 5.830171e-01 8.209415e-01 1.033138e+00 1.245731e+00 1.517473e+00 1.659642e+00 1.675002e+00 1.696757e+00 1.665831e+00 1.522480e+00 1.097589e-01
<GCONST> 1.365878e+02
<MIXTURE> 3 1.236804e-01
<MEAN> 39
 -2.620609e+01 4.967165e+00 -1.248850e+00 1.476761e+00 -5.262160e+00 -5.440115e+00 -7.211218e+00 -3.626460e+00 -2.496116e+00 1.530874e+00 2.098380e+00 3.210859e+00 4.717605e+01 -1.722930e-01 -1.210420e-01 -1.300127e-01 -2.080800e-01 -2.498723e-01 -2.550233e-01 -2.775716e-01 -2.087044e-01 -8.370880e-02 -2.128815e-02 4.925966e-02 1.086410e-01 -7.952328e-02 1.117340e-01 4.478382e-02 1.176867e-01 1.961712e-01 2.408748e-01 2.413982e-01 2.604264e-01 2.580641e-01 1.872768e-01 1.375826e-01 7.882492e-02 7.037568e-02 1.040676e-01
<VARIANCE> 39
 1.347741e+01 1.684497e+01 2.386201e+01 3.243145e+01 4.501088e+01 5.744978e+01 6.761572e+01 7.289003e+01 7.345100e+01 7.231647e+01 7.002906e+01 6.491341e+01 1.295583e+01 7.350093e-01 1.432391e+00 2.557739e+00 3.638122e+00 4.825574e+00 5.893831e+00 7.035444e+00 7.838849e+00 7.964665e+00 7.814361e+00 7.688098e+00 7.098404e+00 3.105337e-01 1.303871e-01 2.691947e-01 4.786114e-01 6.947637e-01 9.127837e-01 1.105503e+00 1.306455e+00 1.461386e+00 1.532529e+00 1.525687e+00 1.502349e+00 1.393267e+00 6.129190e-02
<GCONST> 1.312775e+02
<MIXTURE> 4 1.651951e-01
<MEAN> 39
 -2.378048e+01 5.057400e+00 2.521342e-02 5.361898e+00 1.187081e+00 2.681012e+00 1.782051e+00 4.213801e+00 2.177330e+00 3.232920e+00 1.407778e+00 2.749161e+00 4.919862e+01 -4.538424e-01 6.855430e-02 1.618196e-01 -2.385892e-02 -9.270768e-02 -1.428713e-01 -2.992331e-01 -2.804356e-01 7.755351e-02 5.109246e-01 6.242227e-01 4.784454e-01 -3.042223e-01 2.205636e-01 -1.061888e-01 6.847581e-02 1.445772e-02 -9.632299e-02 -1.714555e-01 -8.372028e-02 -6.347295e-02 -1.236547e-01 -1.786101e-02 -2.262114e-02 6.258714e-02 3.526646e-01
<VARIANCE> 39
 4.235886e+01 4.180529e+01 4.867821e+01 5.808313e+01 7.174760e+01 9.070045e+01 1.080600e+02 1.138666e+02 1.147714e+02 1.114434e+02 1.084569e+02 9.564201e+01 1.989677e+01 1.982462e+00 2.558131e+00 3.753295e+00 4.947664e+00 6.234678e+00 7.707030e+00 9.173493e+00 1.014200e+01 1.022053e+01 1.028450e+01 1.012131e+01 9.038605e+00 1.143433e+00 4.385447e-01 6.304630e-01 8.569880e-01 1.088953e+00 1.337765e+00 1.624276e+00 1.934506e+00 2.140652e+00 2.190838e+00 2.225592e+00 2.183383e+00 1.946297e+00 3.888443e-01
<GCONST> 1.521804e+02
<MIXTURE> 5 1.802740e-01
<MEAN> 39
 -2.724622e+01 3.800280e+00 -2.477913e+00 1.794167e-01 -6.861222e+00 -7.461414e+00 -9.581104e+00 -5.847732e+00 -4.255980e+00 2.085415e-01 1.146327e+00 2.484637e+00 4.664427e+01 -1.041709e-01 -2.914118e-02 -2.471710e-02 -5.042352e-02 -7.332514e-02 -7.838473e-02 -1.458847e-01 -1.741257e-01 -1.315258e-01 -7.321204e-02 -1.064407e-01 -1.486836e-01 -7.329154e-02 7.978256e-02 -1.983609e-02 2.633634e-02 6.698916e-02 1.322351e-01 1.915724e-01 2.429852e-01 2.080370e-01 6.257237e-02 -3.523917e-02 -1.482323e-01 -1.126851e-01 1.071384e-01
<VARIANCE> 39
 1.511628e+01 1.911883e+01 2.612154e+01 3.515181e+01 4.735562e+01 6.077910e+01 7.224742e+01 7.757070e+01 7.789176e+01 7.668390e+01 7.403776e+01 6.796219e+01 1.295583e+01 7.446311e-01 1.415680e+00 2.543285e+00 3.621204e+00 4.748826e+00 5.845690e+00 7.020274e+00 7.782438e+00 8.069793e+00 8.004846e+00 7.838641e+00 7.239208e+00 3.364332e-01 1.753586e-01 3.133304e-01 5.375693e-01 7.765734e-01 1.000051e+00 1.203160e+00 1.444267e+00 1.598484e+00 1.625834e+00 1.628755e+00 1.603909e+00 1.466650e+00 9.283943e-02
<GCONST> 1.339561e+02
<MIXTURE> 6 1.324966e-01
<MEAN> 39
 -2.541961e+01 3.847032e+00 -1.515561e+00 3.311845e+00 -1.059227e+00 2.239211e-01 -1.021554e+00 1.683811e+00 1.146508e-01 1.675941e+00 3.421997e-01 1.970829e+00 4.828353e+01 -8.728045e-01 -3.734638e-01 -4.205463e-01 -7.769420e-01 -9.495558e-01 -1.079408e+00 -1.337807e+00 -1.356420e+00 -9.251968e-01 -4.771635e-01 -3.312185e-01 -2.861802e-01 -5.396995e-01 8.253919e-02 -2.540253e-01 -1.176894e-01 -1.996984e-01 -3.163874e-01 -4.080594e-01 -3.313392e-01 -2.805746e-01 -3.169448e-01 -2.006498e-01 -1.583028e-01 -5.094603e-02 2.834727e-01
<VARIANCE> 39
 3.616726e+01 3.820680e+01 4.632002e+01 5.413843e+01 6.864966e+01 8.760065e+01 1.050074e+02 1.097329e+02 1.119375e+02 1.074416e+02 1.041784e+02 9.303255e+01 1.733549e+01 1.993293e+00 2.653802e+00 3.857466e+00 4.988052e+00 6.355274e+00 7.883544e+00 9.400309e+00 1.036624e+01 1.033553e+01 1.039886e+01 1.011262e+01 8.921443e+00 1.179282e+00 4.207931e-01 6.393740e-01 8.745585e-01 1.108773e+00 1.348099e+00 1.614545e+00 1.941524e+00 2.146467e+00 2.197415e+00 2.234908e+00 2.179152e+00 1.921559e+00 3.802280e-01
<GCONST> 1.515946e+02
<MIXTURE> 7 7.193241e-02
<MEAN> 39
 -2.708363e+01 4.202584e+00 -2.320609e+00 1.154190e-01 -6.849438e+00 -7.067771e+00 -8.973847e+00 -5.284544e+00 -3.992139e+00 3.059320e-01 1.074366e+00 2.311222e+00 4.656206e+01 -4.636841e-01 -5.124384e-01 -6.288562e-01 -8.330712e-01 -9.695215e-01 -1.012284e+00 -1.076525e+00 -1.024068e+00 -8.876780e-01 -8.557635e-01 -7.970815e-01 -5.785925e-01 -2.193652e-01 1.673030e-02 -4.711999e-02 8.154325e-03 5.181796e-02 7.702921e-02 5.304690e-02 5.868849e-02 6.612462e-02 3.009538e-02 -4.565865e-03 -4.697815e-02 -3.003411e-02 5.046115e-02
<VARIANCE> 39
 1.152495e+01 1.642044e+01 2.303938e+01 3.117942e+01 4.340544e+01 5.497461e+01 6.402658e+01 6.966663e+01 7.144864e+01 7.012429e+01 6.837736e+01 6.375707e+01 1.295583e+01 7.179388e-01 1.453166e+00 2.541408e+00 3.644937e+00 4.820863e+00 5.864930e+00 6.983575e+00 7.880655e+00 7.828370e+00 7.678217e+00 7.679980e+00 6.971209e+00 3.027512e-01 1.199301e-01 2.640806e-01 4.738700e-01 6.712885e-01 8.949271e-01 1.103550e+00 1.286863e+00 1.435721e+00 1.499791e+00 1.490064e+00 1.497942e+00 1.378796e+00 5.706595e-02
<GCONST> 1.303082e+02
<MIXTURE> 8 1.252393e-01
<MEAN> 39
 -2.144933e+01 6.801404e+00 1.612819e+00 6.635441e+00 1.035469e+00 1.557423e+00 5.423192e-01 2.644619e+00 -9.341240e-04 1.032572e+00 -5.394943e-01 1.183618e+00 5.044902e+01 -2.515630e-01 1.893139e-01 2.790205e-01 2.364837e-01 2.550724e-01 2.646685e-01 7.370573e-02 -6.727047e-02 -9.347286e-03 5.895209e-02 -5.290039e-02 -1.949018e-01 -2.288587e-01 -1.069145e-01 -2.909303e-01 -2.805527e-01 -3.359137e-01 -3.766403e-01 -3.838834e-01 -3.605165e-01 -3.358121e-01 -2.882721e-01 -1.927989e-01 -1.778773e-01 -9.534819e-02 4.941135e-02
<VARIANCE> 39
 3.476495e+01 4.180275e+01 4.995755e+01 6.010975e+01 7.330096e+01 8.984873e+01 1.020923e+02 1.116257e+02 1.146689e+02 1.110899e+02 1.097280e+02 9.675520e+01 1.687798e+01 1.766836e+00 2.284936e+00 3.538027e+00 4.777973e+00 5.974876e+00 7.348817e+00 8.954973e+00 9.691135e+00 9.946809e+00 9.993084e+00 1.011366e+01 9.080610e+00 9.261995e-01 2.887084e-01 4.514315e-01 6.907514e-01 9.473391e-01 1.198221e+00 1.481077e+00 1.744933e+00 1.937031e+00 2.009002e+00 2.016406e+00 2.012443e+00 1.816866e+00 1.533845e-01
<GCONST> 1.483099e+02
~h "f"
<BEGINHMM>
<NUMSTATES> 5
<STATE> 2
<NUMMIXES> 8
<MIXTURE> 1 8.506484e-02
<MEAN> 39
 -3.218776e+01 -1.223687e+01 1.803950e-01 4.012901e+00 -2.341311e+00 -1.505075e-01 -6.343781e+00 1.172347e+00 -4.939932e+00 3.257648e+00 -3.921468e+00 2.244464e+00 8.903902e+01 6.363750e-02 -4.273963e-02 4.502674e-01 8.736838e-01 1.466938e+00 2.211838e+00 2.103210e+00 1.831929e+00 1.652727e+00 1.795187e+00 1.351384e+00 8.076619e-01 8.461477e-01 1.608376e+00 3.743674e-01 1.968435e-01 -2.665966e-01 3.339928e-01 2.318792e-01 4.588641e-01 1.494349e-01 3.197528e-01 4.145766e-01 2.171757e-01 1.372519e-01 9.281149e-01
<VARIANCE> 39
 1.219764e+02 1.119300e+02 7.098639e+01 7.446564e+01 8.404001e+01 1.053055e+02 1.146853e+02 1.136028e+02 1.245806e+02 1.176036e+02 1.154151e+02 1.075831e+02 3.639765e+02 9.673796e+00 7.457690e+00 6.642729e+00 7.421544e+00 8.448291e+00 1.012350e+01 1.025906e+01 1.172340e+01 1.162507e+01 1.148448e+01 1.156684e+01 1.019271e+01 2.398601e+01 3.991040e+00 1.864599e+00 1.544297e+00 2.099323e+00 1.840460e+00 2.227566e+00 2.370599e+00 2.402992e+00 2.455444e+00 2.611968e+00 2.600529e+00 2.170408e+00 4.160314e+00
<GCONST> 1.748562e+02
<MIXTURE> 2 9.217851e-02
<MEAN> 39
 -3.050515e+01 -1.100638e+01 3.186607e+00 6.879129e+00 1.402259e+00 2.268910e+00 -3.554587e+00 4.763214e+00 -2.019790e-01 7.837134e+00 -1.239540e+00 4.110286e+00 8.961427e+01 -1.038760e+00 -1.791519e+00 -1.186935e+00 -7.805115e-01 -2.840214e-01 2.284732e-01 -4.826348e-01 4.566053e-02 5.014340e-01 9.402515e-01 8.176251e-01 7.493542e-01 1.698266e+00 2.207010e+00 6.886937e-01 2.380280e-01 -6.390520e-01 -8.717671e-02 6.390995e-02 3.223071e-01 -2.881609e-01 -4.831835e-01 -1.640903e-01 -2.168903e-01 -1.420634e-01 9.997674e-01
<VARIANCE> 39
 1.395255e+02 1.231453e+02 1.103748e+02 1.122341e+02 1.396817e+02 1.553165e+02 1.651747e+02 1.578097e+02 1.667137e+02 1.602208e+02 1.425804e+02 1.309923e+02 3.593810e+02 2.488058e+01 1.234140e+01 1.160062e+01 1.246920e+01 1.182644e+01 1.380301e+01 1.340143e+01 1.405885e+01 1.385812e+01 1.435932e+01 1.343096e+01 1.206883e+01 4.048003e+01 5.254691e+00 2.602085e+00 3.055645e+00 3.950398e+00 3.474245e+00 3.436440e+00 4.018746e+00 3.739619e+00 4.038553e+00 3.844469e+00 3.544999e+00 2.871005e+00 4.579894e+00
<GCONST> 1.889167e+02
<MIXTURE> 3 2.427075e-01
<MEAN> 39
 -3.485254e+01 -1.614251e+01 -2.228050e+00 2.140497e+00 -3.390046e+00 -6.511735e-01 -7.472145e+00 -1.438469e-02 -5.548853e+00 4.137470e+00 -3.287559e+00 3.048282e+00 9.173228e+01 -2.436092e-01 -2.290899e-01 -2.551200e-01 -1.742934e-01 8.910711e-02 3.930553e-01 4.711017e-03 -1.119433e-01 -2.383296e-01 -1.025873e-02 5.873654e-02 1.067321e-01 1.185099e+00 1.256112e+00 5.211413e-01 4.565733e-01 2.777991e-01 5.022672e-01 3.306217e-01 5.372644e-01 3.224932e-01 3.437447e-01 2.413047e-01 1.610048e-01 1.152968e-01 5.278314e-01
<VARIANCE> 39
 7.886675e+01 7.637487e+01 5.963367e+01 6.259464e+01 7.194833e+01 8.485968e+01 9.486999e+01 9.922784e+01 9.985988e+01 9.672406e+01 9.569170e+01 8.575450e+01 2.803328e+02 5.381730e+00 4.793574e+00 4.816563e+00 5.916083e+00 6.794491e+00 7.931063e+00 9.279535e+00 9.448200e+00 9.636308e+00 9.739230e+00 9.463127e+00 8.883535e+00 1.177588e+01 1.807896e+00 1.170267e+00 1.122575e+00 1.397258e+00 1.555123e+00 1.772963e+00 2.001574e+00 1.983335e+00 1.977269e+00 2.025467e+00 1.961217e+00 1.759167e+00 2.116213e+00
<GCONST> 1.637646e+02
<MIXTURE> 4 8.386371e-02
<MEAN> 39
 -3.222814e+01 -1.510346e+01 2.759553e+00 6.747524e+00 -1.965005e-01 6.225109e-02 -5.269342e+00 2.848921e+00 -2.700677e+00 5.461503e+00 -2.557056e+00 3.771389e+00 9.932097e+01 -4.335639e+00 -3.411055e+00 -3.960611e+00 -3.307895e+00 -3.119851e+00 -2.534651e+00 -3.192862e+00 -1.605801e+00 -7.633411e-01 -4.735771e-01 -1.532747e-01 -1.350075e-01 2.751863e-02 2.913424e+00 1.334748e+00 1.028201e+00 -7.808203e-02 4.620960e-01 4.850967e-01 8.872988e-01 -2.042844e-01 -3.166191e-01 2.073884e-01 -1.067055e-01 2.022835e-01 4.175951e-01
<VARIANCE> 39
 8.610918e+01 7.627499e+01 9.517735e+01 1.025617e+02 1.161564e+02 1.372940e+02 1.328986e+02 1.421916e+02 1.379964e+02 1.277845e+02 1.178283e+02 1.105606e+02 1.973039e+02 2.173318e+01 1.017138e+01 1.156081e+01 1.146879e+01 1.140280e+01 1.211067e+01 1.284533e+01 1.395073e+01 1.455979e+01 1.354414e+01 1.247932e+01 1.176241e+01 1.559781e+01 2.437282e+00 1.888701e+00 2.912694e+00 4.251595e+00 3.090214e+00 3.219654e+00 3.563133e+00 4.270127e+00 4.161502e+00 3.397614e+00 3.193718e+00 3.167789e+00 1.962888e+00
<GCONST> 1.818373e+02
<MIXTURE> 5 1.972907e-01
<MEAN> 39
 -3.602341e+01 -1.776578e+01 -3.702992e+00 6.927280e-01 -5.047215e+00 -2.177588e+00 -9.157444e+00 -1.923412e+00 -7.104616e+00 2.654985e+00 -4.405277e+00 2.042063e+00 8.893121e+01 -8.241281e-01 -7.577739e-01 -8.022378e-01 -7.981310e-01 -8.229373e-01 -5.696943e-01 -1.135809e+00 -1.143186e+00 -1.362611e+00 -1.114807e+00 -1.034497e+00 -6.761751e-01 1.200244e+00 8.217592e-01 3.256547e-01 1.942116e-01 1.018414e-01 2.365120e-01 7.986645e-02 2.294545e-01 9.902674e-02 1.354596e-01 1.628736e-02 5.502924e-03 -3.021505e-02 3.874819e-01
<VARIANCE> 39
 7.651335e+01 7.743346e+01 5.828583e+01 6.287581e+01 7.155711e+01 8.531548e+01 9.841460e+01 1.014509e+02 1.037222e+02 9.845638e+01 9.770718e+01 8.895325e+01 2.675162e+02 5.125354e+00 5.091728e+00 4.813248e+00 5.989302e+00 6.971600e+00 8.151305e+00 9.534060e+00 9.718361e+00 9.789953e+00 9.849577e+00 9.676481e+00 9.095533e+00 1.117924e+01 1.545831e+00 1.183464e+00 1.056030e+00 1.272692e+00 1.487588e+00 1.759503e+00 2.022084e+00 2.015548e+00 1.992616e+00 2.075450e+00 1.949134e+00 1.788547e+00 2.143943e+00
<GCONST> 1.637372e+02
<MIXTURE> 6 1.372176e-01
<MEAN> 39
 -3.435746e+01 -1.394394e+01 -1.731441e+00 2.837008e+00 -3.957800e+00 -1.653012e+00 -8.487565e+00 -6.859350e-01 -6.677085e+00 1.751256e+00 -5.031694e+00 1.228277e+00 8.550082e+01 -9.163907e-01 -7.306513e-01 -3.093586e-01 1.672512e-02 3.681163e-01 1.080866e+00 7.585661e-01 6.198018e-01 3.539118e-01 5.662448e-01 2.016727e-01 -3.199023e-02 6.587601e-01 1.029473e+00 1.642682e-01 -2.487328e-02 -3.198454e-01 4.950324e-02 -7.027791e-02 1.668673e-01 -5.461997e-02 1.158105e-01 1.234483e-01 4.551768e-02 4.478069e-02 8.122802e-01
<VARIANCE> 39
 1.211755e+02 1.077657e+02 7.178504e+01 7.278214e+01 8.361476e+01 1.028318e+02 1.150392e+02 1.150129e+02 1.215514e+02 1.134157e+02 1.149749e+02 1.020975e+02 3.339668e+02 9.078688e+00 7.544106e+00 6.240502e+00 7.111331e+00 8.316549e+00 9.793138e+00 1.026422e+01 1.124088e+01 1.118401e+01 1.073351e+01 1.088692e+01 9.981909e+00 2.275340e+01 3.396914e+00 1.841864e+00 1.449261e+00 1.788916e+00 1.839401e+00 2.171063e+00 2.314178e+00 2.341244e+00 2.409348e+00 2.433802e+00 2.446603e+00 2.094008e+00 4.092650e+00
<GCONST> 1.734192e+02
<MIXTURE> 7 1.007243e-01
<MEAN> 39
 -3.189213e+01 -1.308152e+01 1.100169e+00 4.996279e+00 -1.089697e-01 3.564956e-01 -5.438069e+00 2.721053e+00 -1.759719e+00 6.466239e+00 -2.187301e+00 3.351384e+00 8.840607e+01 -2.735743e+00 -2.928565e+00 -2.098762e+00 -1.727267e+00 -1.546235e+00 -1.041249e+00 -2.000718e+00 -1.242152e+00 -8.831040e-01 -3.435230e-01 -3.630161e-01 -2.284093e-01 1.049616e+00 1.628696e+00 5.739288e-01 6.458220e-02 -5.014800e-01 -2.924405e-01 -1.596286e-01 5.688401e-02 -4.025768e-01 -6.895716e-01 -4.728940e-01 -3.270862e-01 -2.429188e-01 6.735182e-01
<VARIANCE> 39
 1.268676e+02 1.163867e+02 1.058108e+02 1.134198e+02 1.331894e+02 1.536547e+02 1.636215e+02 1.570659e+02 1.612240e+02 1.513475e+02 1.404133e+02 1.260834e+02 3.465814e+02 2.502358e+01 1.231421e+01 1.149061e+01 1.221533e+01 1.203432e+01 1.349313e+01 1.299703e+01 1.364248e+01 1.407365e+01 1.428060e+01 1.349909e+01 1.218170e+01 3.585455e+01 4.802959e+00 2.454925e+00 2.942469e+00 3.533410e+00 3.340058e+00 3.413911e+00 3.870152e+00 3.655477e+00 3.757011e+00 3.601411e+00 3.434777e+00 2.904648e+00 4.189168e+00
<GCONST> 1.876405e+02
<MIXTURE> 8 6.091379e-02
<MEAN> 39
 -3.328212e+01 -1.582900e+01 1.594895e+00 5.558887e+00 -1.404564e+00 -1.204388e+00 -6.743544e+00 1.450172e+00 -4.362940e+00 4.110941e+00 -3.667511e+00 2.524231e+00 9.906913e+01 -5.798511e+00 -4.462750e+00 -4.893510e+00 -4.279834e+00 -4.614366e+00 -3.912886e+00 -4.768409e+00 -3.025891e+00 -2.362239e+00 -1.997154e+00 -1.483790e+00 -1.231341e+00 -3.964401e-01 2.872402e+00 1.171913e+00 7.537453e-01 -4.055623e-01 2.017174e-01 1.020052e-01 5.973431e-01 -5.232248e-01 -4.983136e-01 5.750057e-02 -2.582375e-01 2.285155e-01 2.909977e-01
<VARIANCE> 39
 7.870518e+01 8.074252e+01 1.017844e+02 1.085316e+02 1.178800e+02 1.418738e+02 1.424554e+02 1.460039e+02 1.406557e+02 1.323431e+02 1.236126e+02 1.125987e+02 1.820101e+02 2.008875e+01 1.066394e+01 1.230314e+01 1.206893e+01 1.169119e+01 1.246245e+01 1.318208e+01 1.416649e+01 1.529659e+01 1.361671e+01 1.281152e+01 1.259897e+01 1.384158e+01 2.825193e+00 2.004324e+00 3.184622e+00 4.522741e+00 3.200432e+00 3.541998e+00 3.631695e+00 4.468352e+00 4.165938e+00 3.459918e+00 3.290993e+00 3.272840e+00 1.801492e+00
<GCONST> 1.828671e+02
<STATE> 3
<NUMMIXES> 8
<MIXTURE> 1 9.424234e-02
<MEAN> 39
 -1.988826e+01 -1.244539e+01 1.890830e+00 4.023214e+00 3.676291e+00 4.552273e+00 -2.331723e+00 3.296055e+00 -3.630204e-01 6.872903e+00 -1.870013e+00 4.108901e+00 1.011827e+02 1.682945e+01 3.838579e+00 7.299906e-01 -8.377557e+00 1.537975e+00 1.335024e+00 4.016595e+00 -2.462463e-01 1.429399e+00 3.644984e+00 -4.340781e-01 1.370427e+00 7.852465e+00 2.041908e+00 -3.173923e-01 -3.621567e-01 -3.625088e+00 -4.500014e-01 -4.658950e-01 4.695683e-01 -3.221368e-01 -8.837005e-02 8.258129e-01 -4.054571e-01 3.830888e-01 1.690794e+00
<VARIANCE> 39
 1.178671e+02 6.975797e+01 6.296299e+01 7.238297e+01 1.014221e+02 1.113303e+02 1.090274e+02 1.052486e+02 1.214223e+02 1.187394e+02 9.657409e+01 9.312119e+01 1.876607e+02 1.435653e+01 3.050631e+01 1.281628e+01 2.638386e+01 1.719839e+01 1.750548e+01 2.123331e+01 1.874283e+01 3.503046e+01 2.254505e+01 2.985994e+01 1.925713e+01 3.224519e+01 3.007410e+00 4.134592e+00 2.140860e+00 3.352196e+00 3.718778e+00 3.418570e+00 3.662102e+00 3.014986e+00 4.647642e+00 3.424917e+00 3.876971e+00 3.149401e+00 3.983868e+00
<GCONST> 1.878974e+02
<MIXTURE> 2 1.495596e-01
<MEAN> 39
 -3.125083e+01 -1.933281e+01 -4.107799e+00 4.364110e-01 -2.377140e+00 -2.951905e-01 -7.408200e+00 -5.897611e-01 -5.767599e+00 4.433337e+00 -3.141413e+00 3.444193e+00 1.047426e+02 9.101266e+00 3.331412e+00 1.545430e+00 -5.960315e-01 1.912127e+00 2.211862e+00 2.878122e+00 1.424637e+00 1.752045e+00 1.765149e+00 9.825659e-01 8.125930e-01 2.945898e+00 4.578377e+00 1.997392e+00 9.579422e-01 -2.500237e+00 -7.165860e-01 2.863419e-01 7.257242e-01 4.388053e-01 -1.564440e-01 5.428481e-01 -5.642465e-02 -1.298905e-01 6.636968e-01
<VARIANCE> 39
 1.043074e+02 5.362565e+01 5.773627e+01 6.643568e+01 7.474447e+01 8.968244e+01 9.371590e+01 9.434724e+01 1.007535e+02 1.007188e+02 1.013896e+02 9.105343e+01 1.606133e+02 1.898829e+01 1.093905e+01 7.107970e+00 1.003301e+01 9.693099e+00 9.499015e+00 1.015490e+01 1.054441e+01 1.181880e+01 1.138345e+01 1.168242e+01 9.687349e+00 2.054812e+01 1.791241e+00 3.480862e+00 2.529408e+00 3.260133e+00 3.710397e+00 3.195156e+00 3.736790e+00 3.490418e+00 4.056765e+00 3.698647e+00 4.618607e+00 3.216410e+00 4.169662e+00
<GCONST> 1.771591e+02
<MIXTURE> 3 1.203052e-01
<MEAN> 39
 -1.998760e+01 -1.491981e+01 -3.276639e+00 -5.964262e-01 -5.699826e-01 1.777648e+00 -4.405043e+00 -3.306636e-01 -4.517973e+00 6.184632e+00 -2.799336e+00 4.448383e+00 1.053802e+02 1.645597e+01 5.529659e+00 3.091681e+00 -6.259322e+00 -2.681978e+00 1.723154e+00 1.567144e+00 2.203802e+00 -5.808898e-01 1.452878e+00 1.859906e+00 -1.186990e+00 5.810942e+00 2.550569e+00 6.109535e-01 9.281714e-01 -2.701777e+00 -1.698006e+00 3.215006e-01 -3.727893e-01 8.556588e-01 -5.908637e-01 4.100538e-01 5.648006e-01 -8.828876e-01 1.175908e+00
<VARIANCE> 39
 1.193880e+02 6.159059e+01 6.201922e+01 7.311569e+01 1.009876e+02 1.209910e+02 1.209046e+02 1.233273e+02 1.149917e+02 1.197742e+02 1.093169e+02 9.899932e+01 1.835433e+02 1.180879e+01 2.588719e+01 1.988573e+01 1.858470e+01 2.472042e+01 1.949712e+01 1.825661e+01 2.274216e+01 2.553849e+01 2.532516e+01 3.150138e+01 1.491010e+01 3.364069e+01 2.472409e+00 4.342174e+00 3.447160e+00 3.558786e+00 5.165408e+00 4.251367e+00 4.656007e+00 4.248578e+00 4.927391e+00 4.780757e+00 5.454457e+00 3.497385e+00 4.319670e+00
<GCONST> 1.905593e+02
<MIXTURE> 4 1.262674e-01
<MEAN> 39
 -3.312782e+01 -1.881541e+01 -4.343050e+00 -1.283885e+00 -5.476212e+00 -2.741629e+00 -1.025092e+01 -3.435822e+00 -9.216138e+00 1.236481e+00 -5.224628e+00 2.216490e+00 1.005411e+02 6.932319e+00 7.281449e-01 4.287511e-02 -1.290853e+00 4.636872e-01 2.325056e-01 6.549286e-01 -1.505932e-01 4.791899e-01 4.455055e-01 -1.557986e-01 2.352697e-01 6.456345e+00 4.397861e+00 1.903933e+00 9.496409e-01 -1.259424e+00 1.857098e-01 8.318065e-01 1.345657e+00 8.754199e-01 8.065683e-01 1.147086e+00 4.026950e-01 1.003873e-02 5.115542e-01
<VARIANCE> 39
 1.215378e+02 6.189125e+01 5.743106e+01 6.675412e+01 7.031731e+01 7.895455e+01 7.957030e+01 8.548949e+01 9.178452e+01 8.709415e+01 8.181689e+01 7.385751e+01 1.997876e+02 1.967557e+01 1.173008e+01 7.151103e+00 8.148623e+00 8.388200e+00 9.543122e+00 1.010533e+01 1.092094e+01 1.162914e+01 1.068551e+01 1.071577e+01 9.592950e+00 3.264835e+01 2.215541e+00 2.707538e+00 2.310709e+00 3.092513e+00 3.194648e+00 2.623532e+00 2.748769e+00 3.013168e+00 3.672848e+00 3.258584e+00 3.538856e+00 2.481066e+00 4.948384e+00
<GCONST> 1.750777e+02
<MIXTURE> 5 1.642861e-01
<MEAN> 39
 -3.287947e+01 -2.071013e+01 -5.559478e+00 -7.043264e-01 -3.654967e+00 -1.592864e+00 -9.129763e+00 -2.485827e+00 -7.558484e+00 3.239549e+00 -4.299243e+00 2.276755e+00 1.027082e+02 7.873815e+00 2.464460e+00 7.053866e-01 -1.358880e+00 8.008627e-01 1.181456e+00 1.737697e+00 4.900097e-01 6.223782e-01 5.074596e-01 -2.650560e-02 -6.604557e-02 2.813004e+00 4.512794e+00 1.950557e+00 1.061148e+00 -2.316405e+00 -7.769753e-01 1.966231e-01 6.064970e-01 4.429560e-01 -2.081126e-01 3.537545e-01 4.951352e-02 -3.100737e-01 7.039742e-01
<VARIANCE> 39
 1.003387e+02 5.429078e+01 5.740546e+01 6.867535e+01 7.707764e+01 9.034754e+01 9.688840e+01 9.721266e+01 1.010113e+02 9.749299e+01 1.029232e+02 8.773106e+01 1.572539e+02 2.036184e+01 1.061358e+01 7.090872e+00 9.361143e+00 9.338305e+00 9.166046e+00 9.904262e+00 1.023760e+01 1.147258e+01 1.082124e+01 1.117651e+01 9.456629e+00 1.935792e+01 1.747259e+00 3.110293e+00 2.415995e+00 3.159503e+00 3.570310e+00 3.004897e+00 3.362797e+00 3.310382e+00 3.827322e+00 3.555722e+00 4.581597e+00 2.994476e+00 3.953328e+00
<GCONST> 1.761168e+02
<MIXTURE> 6 1.196424e-01
<MEAN> 39
 -2.006349e+01 -1.640838e+01 -5.298666e+00 -2.612470e+00 -2.952375e+00 1.798081e-02 -6.501184e+00 -2.733545e+00 -7.818562e+00 3.570570e+00 -4.785313e+00 3.377399e+00 1.044084e+02 1.611364e+01 5.536647e+00 3.381184e+00 -6.823399e+00 -3.709580e+00 7.718712e-01 8.869604e-01 1.983491e+00 -1.602907e+00 3.367473e-01 1.155833e+00 -2.269479e+00 5.739105e+00 2.589186e+00 8.091183e-01 1.282305e+00 -2.652302e+00 -1.801539e+00 2.339604e-01 -3.992512e-01 1.008591e+00 -6.735262e-01 3.307078e-01 6.543094e-01 -1.184896e+00 1.219449e+00
<VARIANCE> 39
 1.143603e+02 6.003827e+01 6.082209e+01 7.563588e+01 9.652383e+01 1.170854e+02 1.225835e+02 1.203789e+02 1.143647e+02 1.172117e+02 1.056193e+02 9.894740e+01 1.781233e+02 1.129039e+01 2.456064e+01 2.017758e+01 1.772338e+01 2.440090e+01 1.997488e+01 1.707802e+01 2.342684e+01 2.517445e+01 2.376734e+01 3.047605e+01 1.423023e+01 3.356319e+01 2.421525e+00 4.073657e+00 3.417406e+00 3.448170e+00 5.092757e+00 4.270808e+00 4.432024e+00 4.399627e+00 5.187988e+00 4.622616e+00 5.298634e+00 3.562333e+00 4.013484e+00
<GCONST> 1.897936e+02
<MIXTURE> 7 1.185735e-01
<MEAN> 39
 -3.545439e+01 -2.031652e+01 -5.946088e+00 -2.176321e+00 -6.603752e+00 -3.775388e+00 -1.195259e+01 -5.134977e+00 -1.098836e+01 -5.793905e-02 -6.268418e+00 1.257060e+00 9.769875e+01 5.034326e+00 -1.955464e-01 -7.480202e-01 -1.918067e+00 -6.208379e-01 -8.954719e-01 -5.616510e-01 -1.276331e+00 -9.382188e-01 -9.278952e-01 -1.136263e+00 -5.518545e-01 5.716348e+00 4.067829e+00 1.865654e+00 9.980002e-01 -9.367101e-01 1.520662e-01 6.712573e-01 1.148301e+00 8.282720e-01 7.185270e-01 8.969899e-01 3.460185e-01 -5.216649e-02 5.112396e-01
<VARIANCE> 39
 1.147844e+02 6.581583e+01 6.116768e+01 7.200691e+01 7.308454e+01 8.387801e+01 8.674237e+01 8.985521e+01 9.748512e+01 9.448647e+01 8.977668e+01 7.683107e+01 1.913272e+02 1.549577e+01 1.042998e+01 7.049193e+00 7.482639e+00 8.158294e+00 9.385354e+00 9.964928e+00 1.101143e+01 1.056139e+01 1.018240e+01 1.020647e+01 9.227955e+00 2.873970e+01 2.203860e+00 2.180244e+00 2.089514e+00 2.839614e+00 2.831132e+00 2.426927e+00 2.527336e+00 2.800198e+00 3.136573e+00 2.885456e+00 2.958774e+00 2.284350e+00 4.334243e+00
<GCONST> 1.733837e+02
<MIXTURE> 8 1.071040e-01
<MEAN> 39
 -2.228805e+01 -1.361681e+01 3.631046e-01 2.526980e+00 1.031241e+00 2.350620e+00 -4.472292e+00 1.500765e+00 -2.960955e+00 4.614477e+00 -3.359536e+00 2.659167e+00 9.978409e+01 1.619137e+01 3.212940e+00 1.489727e-01 -8.527270e+00 7.950668e-01 3.212973e-01 3.243858e+00 -1.189215e+00 6.344154e-01 2.594782e+00 -9.688781e-01 1.291125e-02 8.324280e+00 2.386236e+00 -2.816737e-01 -3.285679e-01 -3.639017e+00 -3.296729e-01 -4.554612e-01 6.166818e-01 -4.595772e-01 -1.779407e-02 8.710885e-01 -3.509226e-01 1.880062e-01 1.847788e+00
<VARIANCE> 39
 1.216800e+02 7.489591e+01 6.382010e+01 7.548469e+01 9.794350e+01 1.093763e+02 1.064915e+02 1.037621e+02 1.141615e+02 1.109061e+02 9.594849e+01 9.083984e+01 2.060406e+02 1.573061e+01 2.955121e+01 1.328010e+01 2.559763e+01 1.624456e+01 1.757233e+01 2.069042e+01 1.774450e+01 3.138763e+01 2.297812e+01 2.892047e+01 1.895309e+01 3.403153e+01 3.042722e+00 4.235014e+00 2.353831e+00 3.600463e+00 3.754583e+00 3.462894e+00 3.857888e+00 3.112108e+00 4.716254e+00 3.476985e+00 4.129127e+00 3.404541e+00 4.268920e+00
<GCONST> 1.882919e+02
<STATE> 4
<NUMMIXES> 8
<MIXTURE> 1 1.123330e-01
<MEAN> 39
 9.164915e+00 -2.057731e+00 8.059882e-01 -8.388925e+00 -6.866344e-01 3.311054e+00 -6.765072e-01 -6.819432e-01 -3.560925e-01 9.197039e+00 -4.704180e+00 9.437342e-01 1.111479e+02 1.687542e+01 -4.938899e-01 -7.299125e-01 -1.084624e+01 2.014402e+00 1.646830e+00 4.164130e+00 -6.191543e-01 2.755380e+00 5.278827e+00 7.373309e-01 6.038158e-01 1.159332e+01 -2.266430e+00 -2.085484e+00 -5.286455e-01 -1.133914e+00 3.375297e-01 2.855551e-01 2.710824e-01 4.268683e-01 2.274761e-01 3.009539e-01 1.360101e-01 4.527295e-01 1.991440e-01
<VARIANCE> 39
 2.124700e+02 9.710918e+01 6.970512e+01 1.685959e+02 9.249972e+01 1.099780e+02 1.162712e+02 1.123938e+02 1.566526e+02 1.416646e+02 1.458884e+02 1.064649e+02 1.761798e+02 9.895884e+00 2.985091e+01 1.791399e+01 3.414259e+01 2.536030e+01 2.391706e+01 3.026002e+01 2.574632e+01 5.037475e+01 3.166160e+01 5.010082e+01 2.987213e+01 2.255137e+01 2.759980e+00 1.858510e+00 1.539162e+00 2.769964e+00 2.039946e+00 2.444293e+00 2.123961e+00 2.199016e+00 2.432290e+00 2.599720e+00 2.554749e+00 2.327488e+00 3.313131e+00
<GCONST> 1.885483e+02
<MIXTURE> 2 1.323534e-01
<MEAN> 39
 2.537278e+01 -2.190987e+01 -6.439175e+00 -3.309797e+01 8.181526e+00 1.753584e+00 6.281784e+00 -3.453123e+00 1.234402e+01 1.962828e+01 -1.022400e+01 1.117231e+00 1.395384e+02 7.065630e+00 -5.790381e+00 -2.471774e+00 -8.075175e+00 4.371923e+00 2.637121e+00 3.595336e+00 6.157681e-01 4.054482e+00 3.663126e+00 -7.742989e-01 1.489447e+00 1.013006e+01 -4.938940e+00 -4.917953e-01 1.698434e-01 2.438540e+00 -1.129795e-01 6.739678e-01 -9.685528e-01 7.519874e-01 -1.429057e+00 -1.547884e+00 5.164515e-01 7.127242e-01 -2.853435e+00
<VARIANCE> 39
 5.516912e+01 1.720319e+02 1.532735e+02 2.587497e+02 1.663298e+02 2.091828e+02 2.062946e+02 2.167929e+02 3.591403e+02 2.514255e+02 2.900102e+02 2.288649e+02 1.126287e+02 3.282243e+01 1.436719e+01 1.449542e+01 2.823511e+01 1.718968e+01 1.702220e+01 1.864818e+01 1.725584e+01 2.568700e+01 2.246321e+01 1.975461e+01 1.837258e+01 1.760728e+01 1.191741e+00 1.976368e+00 1.561474e+00 2.910668e+00 2.020289e+00 2.619354e+00 2.851419e+00 2.576851e+00 4.801934e+00 3.349099e+00 3.795053e+00 3.275103e+00 1.992189e+00
<GCONST> 1.905887e+02
<MIXTURE> 3 1.246703e-01
<MEAN> 39
 1.605624e+01 8.198484e+00 6.987420e+00 -1.037997e+01 -6.415810e+00 3.659361e+00 2.467649e+00 5.102014e+00 -6.465520e+00 5.211654e+00 -3.214800e+00 3.693460e+00 1.072118e+02 1.710339e+01 8.072328e+00 5.439138e+00 -1.146626e+01 -6.360669e+00 4.340734e-01 8.605201e-01 3.702227e+00 -2.073964e+00 1.167409e+00 7.781863e-03 -7.657240e-01 5.329352e+00 -2.142962e+00 -1.308582e+00 -1.039914e-01 -1.218785e+00 -1.042845e+00 -4.351239e-01 -1.166282e+00 1.045353e-01 -3.176193e-01 4.086000e-01 -3.397554e-03 -4.092712e-01 5.105534e-01
<VARIANCE> 39
 2.036262e+02 1.355064e+02 6.880778e+01 2.043259e+02 1.630611e+02 1.351477e+02 1.165197e+02 1.146037e+02 1.246579e+02 1.129598e+02 1.206721e+02 8.401212e+01 1.737600e+02 9.072629e+00 2.873806e+01 2.452665e+01 3.029639e+01 3.593327e+01 3.546601e+01 3.597178e+01 3.389196e+01 3.523104e+01 3.305563e+01 4.236625e+01 3.143414e+01 1.871528e+01 2.827026e+00 2.187910e+00 1.781280e+00 2.973825e+00 2.702690e+00 2.508120e+00 2.369949e+00 2.850276e+00 3.021470e+00 2.894814e+00 2.629829e+00 2.389051e+00 2.834363e+00
<GCONST> 1.908637e+02
<MIXTURE> 4 1.291911e-01
<MEAN> 39
 2.744608e+01 -1.951315e+01 -3.710834e-01 -3.354517e+01 -1.396108e+01 1.076718e+01 -6.895788e+00 3.623359e+00 -1.687515e+01 1.769149e+01 2.439326e+01 -5.762521e+00 1.406639e+02 6.148619e+00 -4.419128e+00 -1.281200e+00 -7.647619e+00 -1.750428e+00 3.115675e+00 2.567478e-01 1.221601e+00 5.758309e-02 2.785886e+00 4.945366e+00 -2.821948e+00 9.156176e+00 -4.715189e+00 -4.116874e-01 -5.063486e-01 2.301423e+00 1.321783e+00 -3.446145e-01 5.142442e-01 -1.329986e-01 2.052161e+00 -5.636082e-01 -2.549203e+00 -1.646921e-01 -2.353523e+00
<VARIANCE> 39
 5.665335e+01 1.462996e+02 2.043102e+02 3.465173e+02 2.798319e+02 2.628221e+02 2.188725e+02 3.528038e+02 4.612640e+02 4.296609e+02 3.916213e+02 2.312781e+02 1.312737e+02 3.987437e+01 1.036442e+01 1.594554e+01 2.839832e+01 1.886252e+01 2.089701e+01 1.787955e+01 2.430362e+01 3.457648e+01 2.668891e+01 3.771296e+01 1.663830e+01 1.800718e+01 1.383040e+00 1.808570e+00 2.084647e+00 3.433575e+00 2.787136e+00 2.684260e+00 2.749904e+00 3.614252e+00 4.218479e+00 4.638445e+00 4.310332e+00 2.864256e+00 1.832375e+00
<GCONST> 1.964529e+02
<MIXTURE> 5 1.364217e-01
<MEAN> 39
 2.400274e+01 -2.445660e+01 -7.153183e+00 -3.384533e+01 8.209137e+00 1.433275e+00 6.791852e+00 -4.103393e+00 1.197768e+01 2.212154e+01 -9.225299e+00 -1.285694e-01 1.401555e+02 5.328724e+00 -6.359231e+00 -2.607929e+00 -7.607862e+00 3.521927e+00 1.844398e+00 2.641932e+00 -1.449688e-01 2.550835e+00 2.689889e+00 -1.504261e+00 9.377119e-02 9.649451e+00 -5.001874e+00 -3.701301e-01 1.218161e-01 2.522182e+00 -3.381742e-01 4.570307e-01 -1.221291e+00 5.923797e-01 -1.507405e+00 -2.069934e+00 1.151515e-01 5.264427e-01 -2.985224e+00
<VARIANCE> 39
 5.617760e+01 1.646475e+02 1.602961e+02 2.575146e+02 1.782827e+02 2.147182e+02 1.986172e+02 2.228997e+02 3.553461e+02 2.670778e+02 3.128419e+02 2.112791e+02 9.462399e+01 2.830024e+01 1.216241e+01 1.312280e+01 2.504784e+01 1.696509e+01 1.539319e+01 1.858126e+01 1.662630e+01 2.245020e+01 2.018019e+01 1.980622e+01 1.642183e+01 1.556162e+01 1.146924e+00 1.941409e+00 1.618010e+00 2.684510e+00 1.962214e+00 2.674018e+00 2.864857e+00 2.567245e+00 4.672597e+00 3.709618e+00 4.028449e+00 3.143699e+00 1.819374e+00
<GCONST> 1.892900e+02
<MIXTURE> 6 1.279020e-01
<MEAN> 39
 1.868774e+01 9.359079e+00 7.312812e+00 -1.283513e+01 -9.612113e+00 2.669164e+00 1.864188e+00 5.593680e+00 -7.978702e+00 4.496048e+00 -4.125402e+00 2.601182e+00 1.079720e+02 1.641814e+01 7.740162e+00 5.656230e+00 -1.151106e+01 -8.010245e+00 -1.467373e-01 -2.547361e-01 3.932746e+00 -3.587210e+00 -7.427423e-02 -6.618637e-01 -2.868644e+00 5.294600e+00 -2.427897e+00 -1.550071e+00 -1.672087e-01 -1.053049e+00 -1.156199e+00 -5.626921e-01 -1.523159e+00 -7.405952e-02 -6.060694e-01 7.875429e-02 -1.249514e-01 -7.966444e-01 4.760593e-01
<VARIANCE> 39
 2.095420e+02 1.366987e+02 7.540444e+01 2.201353e+02 1.732973e+02 1.444302e+02 1.212180e+02 1.191152e+02 1.316051e+02 1.141290e+02 1.207311e+02 9.039306e+01 1.643754e+02 9.597732e+00 2.396001e+01 2.460028e+01 3.178266e+01 3.432027e+01 3.609892e+01 3.416356e+01 3.410626e+01 3.660051e+01 3.366073e+01 3.850769e+01 2.954489e+01 1.674297e+01 3.040604e+00 2.136854e+00 1.713287e+00 2.911489e+00 2.871528e+00 2.301088e+00 2.347580e+00 2.723327e+00 3.078119e+00 2.658695e+00 2.418230e+00 2.271680e+00 2.637619e+00
<GCONST> 1.906304e+02
<MIXTURE> 7 1.172957e-01
<MEAN> 39
 2.623869e+01 -2.068526e+01 -2.506153e+00 -3.109350e+01 -1.560013e+01 1.037593e+01 -9.438582e+00 2.659211e+00 -1.535106e+01 1.950118e+01 2.546074e+01 -1.021450e+01 1.427925e+02 5.642315e+00 -5.116316e+00 -2.080926e+00 -7.272094e+00 -2.530152e+00 2.739498e+00 -5.621707e-01 7.851554e-01 -1.980259e-01 2.114108e+00 4.267517e+00 -4.297407e+00 9.144614e+00 -5.050199e+00 -4.959814e-01 -5.027375e-01 2.195001e+00 1.272902e+00 -5.869886e-01 6.036285e-01 -2.366091e-01 1.909572e+00 -1.018303e+00 -3.045321e+00 2.312370e-02 -2.605375e+00
<VARIANCE> 39
 6.456174e+01 1.453834e+02 2.131281e+02 3.701315e+02 2.296154e+02 2.790028e+02 2.414453e+02 3.788422e+02 4.634615e+02 4.700382e+02 4.086280e+02 2.375486e+02 1.325156e+02 3.295962e+01 1.010212e+01 1.681114e+01 2.676681e+01 1.609348e+01 2.057254e+01 1.747278e+01 2.375008e+01 3.139104e+01 2.457553e+01 3.841955e+01 1.631856e+01 1.373726e+01 1.290924e+00 1.794500e+00 2.173131e+00 3.305931e+00 2.769061e+00 2.669008e+00 3.040607e+00 3.583964e+00 4.278648e+00 5.528463e+00 4.518783e+00 2.823245e+00 1.682808e+00
<GCONST> 1.961407e+02
<MIXTURE> 8 1.198116e-01
<MEAN> 39
 1.276032e+01 -2.039657e+00 -6.206290e-01 -1.125396e+01 -1.790655e+00 2.673731e+00 -5.278220e-01 -2.718155e+00 -1.764157e+00 9.827927e+00 -4.247899e+00 -1.018841e+00 1.129165e+02 1.620724e+01 -7.426548e-01 -1.331590e+00 -1.115384e+01 6.007805e-01 9.355326e-01 3.468085e+00 -1.551877e+00 1.255187e+00 4.514365e+00 1.317912e+00 -7.111095e-01 1.168981e+01 -2.664511e+00 -2.215795e+00 -6.143303e-01 -9.908059e-01 4.835939e-02 4.080585e-02 3.792077e-03 2.624177e-01 4.566243e-02 4.335418e-03 -3.411645e-02 1.666183e-01 1.822672e-01
<VARIANCE> 39
 2.248127e+02 1.038427e+02 7.858575e+01 1.867955e+02 9.260600e+01 1.132148e+02 1.238630e+02 1.263829e+02 1.793407e+02 1.582266e+02 1.819894e+02 1.170476e+02 1.826174e+02 1.117015e+01 3.025986e+01 1.947793e+01 3.547252e+01 2.588963e+01 2.502324e+01 3.154695e+01 2.576021e+01 4.824495e+01 3.154670e+01 5.645420e+01 3.080556e+01 2.324994e+01 3.000681e+00 1.737868e+00 1.502664e+00 2.606545e+00 2.039130e+00 2.357170e+00 2.295017e+00 2.202845e+00 2.492795e+00 2.626645e+00 2.600446e+00 2.587985e+00 3.026822e+00
<GCONST> 1.902436e+02
<TRANSP> 5
 0.000000e+00 1.000000e+00 0.000000e+00 0.000000e+00 0.000000e+00
 0.000000e+00 8.502248e-01 1.497752e-01 0.000000e+00 0.000000e+00
 0.000000e+00 0.000000e+00 6.476529e-01 3.523470e-01 0.000000e+00
 0.000000e+00 0.000000e+00 0.000000e+00 5.247447e-01 4.752553e-01
 0.000000e+00 0.000000e+00 0.000000e+00 0.000000e+00 0.000000e+00
<ENDHMM>
~h "k"
<BEGINHMM>
<NUMSTATES> 5
<STATE> 2
<NUMMIXES> 8
<MIXTURE> 1 1.116486e-01
<MEAN> 39
 4.837170e+00 -6.011592e+00 4.585387e+01 3.161958e+01 3.163444e-01 -3.621587e+01 2.693623e+00 2.165007e+01 -4.074516e+01 9.387641e-01 2.607255e+00 8.261600e-01 1.079470e+02 -3.221071e+00 9.282778e+00 -5.163962e+00 5.711212e+00 4.916942e+00 7.618445e+00 5.131975e+00 -1.250227e+00 6.127284e+00 -1.216918e+00 1.936790e+00 8.287306e-01 -1.809153e+01 -1.498392e+00 -4.204000e-01 -3.053267e+00 -3.322599e+00 -3.009020e-01 2.512562e+00 -2.553066e+00 -2.380338e+00 3.939530e+00 4.652317e-01 -1.014824e+00 4.507733e-01 -4.952620e-01
<VARIANCE> 39
 5.550287e+01 1.561449e+02 2.570302e+02 1.960047e+02 2.906448e+02 3.276966e+02 5.032779e+02 4.961193e+02 4.297826e+02 4.273987e+02 2.937164e+02 2.421833e+02 2.932805e+02 1.148007e+01 1.966975e+01 2.492228e+01 2.533620e+01 2.609449e+01 3.763595e+01 4.788783e+01 4.387281e+01 4.558425e+01 3.619209e+01 2.910199e+01 2.507963e+01 2.426312e+01 1.380124e+00 4.416547e+00 3.278638e+00 3.253535e+00 3.838675e+00 5.811436e+00 5.703526e+00 8.307914e+00 7.086772e+00 6.416177e+00 4.565270e+00 5.239645e+00 6.503581e+00
<GCONST> 2.080382e+02
<MIXTURE> 2 1.227647e-01
<MEAN> 39
 -1.461748e+01 1.359878e+01 1.554811e+01 2.104313e+01 2.715468e+00 -6.625124e+00 -3.998189e+00 -2.022221e+00 -1.114342e+01 -4.588064e+00 5.974282e-01 3.877898e+00 5.658391e+01 -4.651535e+00 2.408028e-02 -8.290417e+00 -4.626395e+00 1.412425e+00 6.731636e+00 -8.487934e-01 -6.556424e-01 7.107285e+00 1.837716e+00 4.632990e-01 4.932875e-01 -7.075551e+00 1.063508e+00 -3.638497e+00 6.054581e-01 -1.561359e+00 -8.639215e-01 -2.365252e+00 -3.051984e-01 9.069921e-01 -7.249465e-01 1.397077e+00 -3.371733e-01 1.609189e-01 6.714024e+00
<VARIANCE> 39
 7.487868e+01 1.030327e+02 1.246530e+02 1.745244e+02 1.753011e+02 1.996689e+02 2.361367e+02 2.479823e+02 1.801625e+02 1.646441e+02 1.365328e+02 1.098032e+02 5.535042e+01 1.037583e+01 3.044926e+01 2.225911e+01 2.026736e+01 2.590351e+01 3.341993e+01 3.399909e+01 4.744799e+01 3.161331e+01 2.618376e+01 2.061934e+01 1.792515e+01 4.204028e+01 2.579490e+00 5.276340e+00 3.685342e+00 5.862598e+00 5.434224e+00 6.077241e+00 8.063217e+00 8.546390e+00 6.716574e+00 4.666826e+00 4.472032e+00 3.271785e+00 7.609762e+00
<GCONST> 1.999414e+02
<MIXTURE> 3 1.122802e-01
<MEAN> 39
 -9.724658e+00 1.940105e+01 1.982572e+01 2.113535e+01 1.386433e-01 -5.677573e+00 -5.928836e+00 -1.129685e+01 -1.640605e+01 -8.024820e+00 -5.490769e+00 -2.103214e+00 5.819158e+01 -5.749628e+00 -2.808200e+00 -1.187773e+01 -3.092047e+00 3.859219e+00 2.746926e+00 -6.822786e+00 4.254441e+00 2.606809e+00 -2.278499e+00 8.091900e-01 -3.398215e-01 -7.636319e+00 9.510475e-02 -4.141683e+00 -1.025304e-02 -2.207683e+00 -1.912363e+00 -2.112539e+00 1.519253e+00 -1.171374e-01 1.368641e+00 2.232908e+00 3.217530e-01 1.660328e+00 7.602390e+00
<VARIANCE> 39
 6.395098e+01 9.628568e+01 1.063755e+02 1.214097e+02 1.454742e+02 1.850934e+02 2.095644e+02 1.918163e+02 2.069492e+02 1.873441e+02 1.437569e+02 1.123430e+02 3.931228e+01 7.301525e+00 4.235541e+01 1.615195e+01 2.415973e+01 2.420328e+01 3.485574e+01 3.365224e+01 4.889711e+01 3.727245e+01 2.569618e+01 2.003143e+01 1.775662e+01 7.007613e+01 2.804001e+00 4.693584e+00 3.889372e+00 4.623577e+00 4.538120e+00 5.467227e+00 7.060432e+00 8.457002e+00 7.615745e+00 4.833962e+00 3.972697e+00 3.511707e+00 7.225022e+00
<GCONST> 1.984170e+02
<MIXTURE> 4 1.459916e-01
<MEAN> 39
 -3.947784e+00 8.255052e+00 3.380986e+01 3.019161e+01 -6.193359e+00 -1.658463e+01 8.895341e+00 -2.044975e+00 -1.567208e+01 3.434837e+00 1.329722e+00 4.006705e+00 8.094882e+01 -5.648132e+00 4.693164e+00 -8.539508e+00 2.084940e+00 5.769574e+00 7.274193e+00 -3.188477e+00 2.242632e+00 3.112546e+00 -2.857387e+00 8.075198e-01 -1.631399e+00 -1.593637e+01 -7.071317e-01 -2.642649e+00 -1.893564e+00 -3.804320e+00 -6.321288e-01 -5.489521e-01 -1.788590e+00 6.057422e-02 1.127097e+00 4.050675e-01 -2.583742e-01 6.136677e-01 3.124231e+00
<VARIANCE> 39
 1.445745e+02 2.533375e+02 2.183427e+02 2.067416e+02 4.201406e+02 3.809875e+02 4.292715e+02 4.944638e+02 2.924635e+02 2.639842e+02 2.171269e+02 1.755243e+02 1.931223e+02 1.150837e+01 2.519984e+01 2.548829e+01 3.460500e+01 3.136351e+01 3.574137e+01 6.099668e+01 8.077384e+01 6.088112e+01 3.463953e+01 2.530309e+01 2.503349e+01 3.269948e+01 3.179680e+00 6.139761e+00 4.124805e+00 3.744869e+00 5.436314e+00 6.541409e+00 6.617256e+00 6.323323e+00 5.242942e+00 4.577999e+00 4.660413e+00 4.221260e+00 6.994916e+00
<GCONST> 2.109037e+02
<MIXTURE> 5 1.455454e-01
<MEAN> 39
 -1.536168e+01 1.265950e+01 1.466472e+01 1.964996e+01 2.264884e+00 -7.908168e+00 -5.848239e+00 -3.191155e+00 -1.234999e+01 -5.727535e+00 -9.893761e-01 3.010386e+00 5.610645e+01 -5.905488e+00 -9.949521e-01 -9.751727e+00 -6.512227e+00 1.702594e-01 5.153016e+00 -3.065229e+00 -3.117319e+00 5.265989e+00 4.811533e-01 -9.970750e-01 -2.848048e-01 -7.476251e+00 1.012878e+00 -3.722965e+00 5.562387e-01 -1.598980e+00 -1.047465e+00 -2.472766e+00 -3.854085e-01 9.423689e-01 -7.451636e-01 1.255169e+00 -3.122001e-01 7.750462e-02 6.882228e+00
<VARIANCE> 39
 6.537888e+01 9.906866e+01 1.103789e+02 1.443566e+02 1.620326e+02 1.922897e+02 2.330430e+02 2.229348e+02 1.847292e+02 1.697037e+02 1.332358e+02 1.008191e+02 5.364670e+01 9.437644e+00 3.175582e+01 1.986236e+01 1.962830e+01 2.627717e+01 3.218486e+01 3.402576e+01 4.541554e+01 3.043550e+01 2.540532e+01 1.993104e+01 1.616981e+01 4.264430e+01 2.686658e+00 5.015198e+00 3.525630e+00 4.664894e+00 5.062555e+00 6.696076e+00 7.262997e+00 9.241256e+00 6.771301e+00 4.737884e+00 4.144255e+00 3.091977e+00 7.971471e+00
<GCONST> 1.983312e+02
<MIXTURE> 6 1.335542e-01
<MEAN> 39
 -5.368512e+00 7.098265e+00 3.285848e+01 2.976350e+01 -4.503089e+00 -1.682177e+01 5.485745e+00 -2.781590e+00 -1.788259e+01 7.053318e-01 -6.698779e-01 3.126565e+00 8.019103e+01 -6.677120e+00 3.828817e+00 -1.026380e+01 4.779392e-01 4.171604e+00 5.323451e+00 -5.294353e+00 -1.914454e-01 1.398141e+00 -4.017570e+00 -5.921463e-01 -2.137094e+00 -1.664642e+01 -6.657096e-01 -2.712602e+00 -1.899939e+00 -3.996861e+00 -1.020391e+00 -6.672343e-01 -1.679800e+00 1.882482e-02 1.178289e+00 4.710015e-01 -1.292290e-01 4.942282e-01 3.459039e+00
<VARIANCE> 39
 1.403228e+02 2.611803e+02 2.056572e+02 2.036301e+02 4.075675e+02 3.801213e+02 4.554081e+02 4.846758e+02 2.891060e+02 2.629778e+02 2.320034e+02 1.747697e+02 1.773654e+02 1.003645e+01 2.751482e+01 2.339506e+01 3.606192e+01 3.123543e+01 3.490363e+01 6.328038e+01 9.240836e+01 6.437907e+01 3.858205e+01 2.411163e+01 2.568069e+01 2.953599e+01 3.099834e+00 6.079426e+00 3.880698e+00 3.580716e+00 5.394831e+00 6.527354e+00 6.603988e+00 6.423204e+00 5.455935e+00 4.792589e+00 4.886145e+00 4.533327e+00 7.418325e+00
<GCONST> 2.110123e+02
<MIXTURE> 7 1.285926e-01
<MEAN> 39
 3.957259e+00 -6.621294e+00 4.334453e+01 3.062464e+01 -6.319828e-01 -3.774197e+01 1.009611e+00 1.985580e+01 -3.897216e+01 -7.143061e-01 2.211357e+00 2.321251e+00 1.043625e+02 -4.843877e+00 8.854064e+00 -7.478706e+00 3.365290e+00 3.667556e+00 6.162912e+00 2.114365e+00 -5.021283e+00 4.754920e+00 -3.246575e+00 -3.205501e-01 3.603879e-01 -1.935310e+01 -1.618914e+00 -8.768612e-01 -3.091056e+00 -3.779665e+00 -7.573280e-01 2.167591e+00 -2.936060e+00 -2.496069e+00 3.354619e+00 4.045395e-01 -1.092024e+00 2.039476e-01 1.126394e-01
<VARIANCE> 39
 5.290569e+01 1.546854e+02 2.409629e+02 1.749177e+02 2.938351e+02 3.475475e+02 4.998260e+02 4.886441e+02 3.747259e+02 3.618283e+02 2.698892e+02 2.287919e+02 2.798604e+02 9.793813e+00 2.130386e+01 2.594367e+01 2.542905e+01 2.578486e+01 3.602959e+01 5.542804e+01 4.806546e+01 4.337716e+01 3.793954e+01 2.709270e+01 2.490874e+01 2.446950e+01 1.302712e+00 4.178452e+00 3.062557e+00 2.979657e+00 3.787523e+00 5.426315e+00 5.566919e+00 7.852243e+00 5.997759e+00 5.886251e+00 4.433638e+00 4.760052e+00 7.084572e+00
<GCONST> 2.067079e+02
<MIXTURE> 8 9.960042e-02
<MEAN> 39
 -1.056401e+01 1.839799e+01 1.812374e+01 1.934535e+01 -1.376478e+00 -7.805909e+00 -9.126524e+00 -1.394034e+01 -1.886099e+01 -1.050910e+01 -7.098022e+00 -2.808339e+00 5.739384e+01 -6.564713e+00 -2.862912e+00 -1.278147e+01 -4.304102e+00 2.838871e+00 1.748319e+00 -8.778790e+00 2.489183e+00 9.243065e-01 -3.879728e+00 -4.479833e-01 -1.328010e+00 -8.680387e+00 1.152318e-01 -4.244758e+00 5.237946e-02 -2.274873e+00 -1.857046e+00 -2.095737e+00 1.790680e+00 1.070350e-02 1.521603e+00 2.347115e+00 2.932932e-01 1.605064e+00 7.536802e+00
<VARIANCE> 39
 5.512883e+01 8.112415e+01 8.434870e+01 1.001499e+02 1.404960e+02 1.957991e+02 2.050926e+02 1.992533e+02 2.298901e+02 1.911330e+02 1.457124e+02 1.087309e+02 3.611736e+01 6.080504e+00 4.181390e+01 1.460803e+01 2.278403e+01 2.205604e+01 3.538408e+01 2.888159e+01 5.407392e+01 3.476054e+01 2.321791e+01 1.911282e+01 1.649371e+01 6.168013e+01 2.353088e+00 4.170299e+00 3.322334e+00 4.014844e+00 4.649429e+00 5.634527e+00 6.472504e+00 9.225199e+00 7.654766e+00 4.739937e+00 3.700062e+00 3.397561e+00 7.082315e+00
<GCONST> 1.961506e+02
<STATE> 3
<NUMMIXES> 8
<MIXTURE> 1 7.646986e-02
<MEAN> 39
 -2.152592e+01 6.479199e+00 3.158758e+00 7.667713e+00 -4.037165e+00 -8.148378e+00 -9.644722e+00 -7.033268e+00 -8.622183e+00 -3.541127e+00 -1.254584e+00 2.589783e+00 5.208870e+01 -1.031843e-01 -5.539991e+00 -5.461058e+00 -8.368228e-01 1.538551e+00 1.984685e+00 1.692099e+00 4.692766e+00 5.382445e+00 4.530307e+00 2.360188e+00 1.608081e+00 6.367787e+00 7.605758e-01 -9.195926e-01 1.202952e+00 1.387371e+00 -2.582543e-01 -1.174703e+00 7.914233e-01 4.528715e-01 -4.233709e-01 6.610980e-01 -8.050326e-02 4.156557e-01 5.337527e+00
<VARIANCE> 39
 6.473744e+01 1.089096e+02 8.938454e+01 7.571158e+01 7.814432e+01 1.102068e+02 1.249095e+02 1.205062e+02 1.194077e+02 1.072611e+02 8.150828e+01 7.556226e+01 6.789738e+01 1.570215e+01 3.383141e+01 2.411431e+01 1.791620e+01 1.708377e+01 2.240606e+01 2.104661e+01 1.704506e+01 1.745689e+01 1.719529e+01 1.724905e+01 1.143731e+01 7.603304e+01 4.296505e+00 4.545619e+00 4.584702e+00 3.043911e+00 5.096171e+00 4.482522e+00 5.780382e+00 5.231687e+00 4.057531e+00 3.713003e+00 2.516142e+00 2.398384e+00 7.475714e+00
<GCONST> 1.886009e+02
<MIXTURE> 2 1.074764e-01
<MEAN> 39
 -1.465626e+01 -1.554743e+01 -1.137356e+01 8.765113e+00 4.882386e+00 -4.994433e+00 -8.733546e+00 1.235621e+00 -3.996564e+00 5.397346e+00 -2.349885e+00 2.440289e+00 7.990263e+01 -6.212739e-01 -5.002426e+00 -5.746005e+00 -5.690045e-01 1.416475e+00 -6.353288e-01 -1.445735e+00 1.916508e+00 2.560209e+00 3.526616e+00 2.116040e-01 8.187228e-01 1.296970e+01 -2.002912e+00 2.209269e+00 2.692079e+00 1.061635e+00 -8.665465e-01 -1.715302e+00 3.632514e-01 3.388272e-01 -5.158615e-01 -6.457264e-01 -1.899769e-01 3.665941e-01 1.619827e+00
<VARIANCE> 39
 2.205159e+02 2.772050e+02 3.043753e+02 2.359974e+02 2.333563e+02 2.607966e+02 2.660365e+02 2.000990e+02 1.761235e+02 1.472171e+02 1.226658e+02 1.047196e+02 3.569306e+02 2.837759e+01 2.844645e+01 2.557640e+01 2.391501e+01 2.641718e+01 2.734970e+01 2.327160e+01 2.455466e+01 2.319643e+01 1.972659e+01 1.553091e+01 1.214478e+01 6.408938e+01 8.157095e+00 5.690804e+00 6.046901e+00 5.209004e+00 4.836275e+00 5.816295e+00 5.746125e+00 5.582911e+00 4.530367e+00 3.903553e+00 2.828735e+00 2.670213e+00 8.110500e+00
<GCONST> 2.039273e+02
<MIXTURE> 3 2.280363e-01
<MEAN> 39
 -2.551535e+01 5.024481e+00 2.460887e-01 4.252232e+00 -3.840240e+00 -5.015250e+00 -6.383119e+00 -2.949049e+00 -2.394957e+00 2.086750e+00 3.076441e+00 4.319330e+00 4.820206e+01 1.717089e+00 -3.676566e+00 -4.251150e+00 -2.999973e-01 8.919793e-01 1.764837e-01 -1.222631e+00 9.849992e-01 1.474120e+00 1.082240e+00 -2.523763e-01 4.120052e-01 5.923254e+00 9.935213e-01 -7.806094e-01 5.021864e-01 1.596160e+00 1.603764e-02 -8.324183e-01 2.594867e-01 2.162116e-01 -3.958870e-01 1.489113e-01 -4.215157e-01 1.137215e-01 4.798043e+00
<VARIANCE> 39
 3.131649e+01 3.731318e+01 4.354798e+01 4.769242e+01 5.711808e+01 7.410038e+01 8.353819e+01 8.782258e+01 8.334972e+01 8.104111e+01 7.638708e+01 6.925887e+01 2.350420e+01 1.698991e+01 2.236740e+01 1.825691e+01 1.632987e+01 1.312307e+01 1.631623e+01 1.576323e+01 1.308736e+01 1.316678e+01 1.315790e+01 1.106726e+01 9.223130e+00 7.001604e+01 3.772515e+00 2.669579e+00 3.353023e+00 2.326127e+00 3.456620e+00 3.688749e+00 3.502732e+00 3.333801e+00 3.049484e+00 2.616568e+00 2.228461e+00 1.964858e+00 5.474271e+00
<GCONST> 1.751627e+02
<MIXTURE> 4 9.479678e-02
<MEAN> 39
 -1.865060e+01 -1.243640e+01 -1.853703e+00 1.367400e+01 6.580509e+00 -6.341964e+00 -6.631406e+00 5.371320e+00 -4.026833e+00 3.033780e+00 -2.609131e+00 4.441007e+00 7.755605e+01 -3.351737e+00 -7.244608e+00 -8.694086e+00 -4.182352e+00 -6.542323e-01 -2.681224e+00 -4.498911e+00 -4.019524e-01 2.301515e+00 1.312506e+00 -1.475791e+00 6.647077e-01 1.117938e+01 -9.338514e-01 1.543197e+00 2.727663e+00 6.949959e-01 -1.137421e+00 -2.136602e+00 7.610741e-01 5.943711e-01 -9.170123e-01 -2.742636e-02 3.452449e-02 2.061769e-01 3.769197e+00
<VARIANCE> 39
 1.672086e+02 3.514127e+02 2.602372e+02 2.168058e+02 2.065803e+02 2.658968e+02 2.609424e+02 2.214324e+02 1.840405e+02 1.388744e+02 1.464867e+02 1.038259e+02 4.867844e+02 3.682611e+01 3.183084e+01 2.876398e+01 2.751148e+01 2.395360e+01 3.196285e+01 2.160130e+01 2.727948e+01 3.053259e+01 1.998625e+01 1.842996e+01 1.455172e+01 6.244827e+01 6.381948e+00 7.319434e+00 5.016840e+00 5.023556e+00 5.616684e+00 7.103894e+00 6.707880e+00 6.490958e+00 5.666774e+00 4.459264e+00 3.642159e+00 3.156883e+00 1.071672e+01
<GCONST> 2.069178e+02
<MIXTURE> 5 2.126051e-01
<MEAN> 39
 -2.622708e+01 4.482836e+00 -4.500217e-01 3.081699e+00 -5.067205e+00 -6.357931e+00 -7.511544e+00 -4.209374e+00 -3.641243e+00 1.106166e+00 2.062607e+00 3.413275e+00 4.790151e+01 9.138855e-01 -4.051575e+00 -4.870691e+00 -1.372953e+00 1.031768e-01 -9.172137e-01 -2.627360e+00 -3.294110e-01 1.089920e-01 -2.687590e-01 -1.249458e+00 -3.372969e-01 4.970189e+00 9.820539e-01 -8.314916e-01 4.275067e-01 1.336844e+00 -2.146363e-01 -9.560599e-01 1.284024e-01 -5.154072e-02 -5.310891e-01 4.542655e-02 -5.604318e-01 -3.116775e-02 4.512154e+00
<VARIANCE> 39
 2.659405e+01 3.538357e+01 3.973462e+01 4.785568e+01 5.777233e+01 7.285216e+01 8.452552e+01 8.989320e+01 8.126774e+01 8.120406e+01 7.633884e+01 6.957140e+01 1.996017e+01 1.692380e+01 2.216889e+01 1.815621e+01 1.687433e+01 1.341181e+01 1.636016e+01 1.587206e+01 1.325420e+01 1.355511e+01 1.295105e+01 1.084142e+01 9.613470e+00 7.020385e+01 3.555419e+00 2.482634e+00 3.361945e+00 2.298171e+00 3.434642e+00 3.593673e+00 3.770529e+00 3.078174e+00 2.977466e+00 2.599579e+00 2.183120e+00 1.938900e+00 5.245185e+00
<GCONST> 1.745128e+02
<MIXTURE> 6 1.010028e-01
<MEAN> 39
 -1.643844e+01 -1.461657e+01 -9.265488e+00 7.170112e+00 5.283218e+00 -5.044647e+00 -9.052601e+00 8.031319e-01 -4.078152e+00 4.882294e+00 -2.376768e+00 1.951981e+00 7.755910e+01 -1.402063e+00 -5.670323e+00 -6.252478e+00 -1.991175e+00 6.821628e-01 -2.299123e+00 -3.483224e+00 -2.471011e-01 7.083371e-01 1.888414e+00 -1.231096e+00 -3.374723e-01 1.139965e+01 -1.819514e+00 1.750876e+00 2.275964e+00 8.388908e-01 -1.003304e+00 -2.048567e+00 -2.647206e-03 2.303795e-01 -6.552858e-01 -7.959741e-01 -3.898281e-01 1.291875e-01 1.759350e+00
<VARIANCE> 39
 2.268783e+02 2.858238e+02 2.991241e+02 2.386925e+02 2.185594e+02 2.554119e+02 2.716963e+02 2.193887e+02 1.744915e+02 1.362444e+02 1.264452e+02 1.003598e+02 3.892742e+02 2.958200e+01 2.772274e+01 2.610793e+01 2.581396e+01 2.723084e+01 2.893650e+01 2.228699e+01 2.374260e+01 2.090681e+01 1.887348e+01 1.561572e+01 1.204508e+01 7.135919e+01 9.222324e+00 5.987324e+00 5.762404e+00 5.099155e+00 4.794170e+00 5.886123e+00 5.513448e+00 5.768142e+00 4.957074e+00 3.868951e+00 3.056911e+00 2.680286e+00 9.398457e+00
<GCONST> 2.044823e+02
<MIXTURE> 7 9.760617e-02
<MEAN> 39
 -2.303847e+01 5.490366e+00 2.121805e+00 6.042023e+00 -4.924861e+00 -8.433596e+00 -1.071454e+01 -8.019852e+00 -8.932306e+00 -4.332876e+00 -2.293551e+00 1.454764e+00 5.124286e+01 -4.951391e-01 -6.088503e+00 -6.476791e+00 -2.006244e+00 8.410658e-01 8.490697e-01 -1.590827e-01 3.052862e+00 3.688763e+00 2.939312e+00 9.267707e-01 7.942780e-01 5.724110e+00 8.182542e-01 -1.051935e+00 1.088108e+00 1.178002e+00 -3.901638e-01 -1.421133e+00 5.374584e-01 2.820492e-01 -5.706857e-01 5.362647e-01 -2.109855e-01 3.407377e-01 5.263003e+00
<VARIANCE> 39
 5.280966e+01 9.532181e+01 8.172196e+01 7.168038e+01 7.407961e+01 1.069542e+02 1.193317e+02 1.201425e+02 1.200526e+02 1.104292e+02 8.898598e+01 7.861690e+01 5.819164e+01 1.596215e+01 3.254164e+01 2.352930e+01 1.977566e+01 1.687178e+01 2.075034e+01 2.184451e+01 1.840161e+01 1.722770e+01 1.794542e+01 1.500684e+01 1.169936e+01 7.784937e+01 4.138308e+00 4.291809e+00 4.413793e+00 2.954866e+00 4.860616e+00 4.583643e+00 5.811481e+00 5.262473e+00 4.255266e+00 3.869413e+00 2.569582e+00 2.459947e+00 7.683986e+00
<GCONST> 1.879942e+02
<MIXTURE> 8 8.197807e-02
<MEAN> 39
 -1.928952e+01 -1.205079e+01 3.316164e-02 1.312122e+01 6.630623e+00 -7.039538e+00 -6.562083e+00 5.150390e+00 -5.310154e+00 2.439798e+00 -2.886908e+00 3.998014e+00 7.768942e+01 -4.919802e+00 -8.298954e+00 -1.000632e+01 -5.928101e+00 -1.481595e+00 -3.791364e+00 -6.250861e+00 -2.268262e+00 9.897361e-01 -1.490783e-01 -3.001937e+00 -3.051583e-01 9.983406e+00 -8.785545e-01 1.132932e+00 2.544415e+00 4.124172e-01 -1.480067e+00 -2.584706e+00 4.897580e-01 4.041263e-01 -1.138941e+00 -1.783514e-01 -9.821662e-02 7.296915e-02 4.080008e+00
<VARIANCE> 39
 1.564400e+02 3.730658e+02 2.606160e+02 2.204998e+02 2.074511e+02 2.563314e+02 2.724339e+02 2.182261e+02 1.860392e+02 1.293007e+02 1.542743e+02 1.051437e+02 4.846522e+02 3.642047e+01 3.163142e+01 2.770479e+01 2.877024e+01 2.357030e+01 3.311609e+01 2.095641e+01 2.845583e+01 3.342076e+01 1.959888e+01 1.916352e+01 1.482493e+01 6.184065e+01 6.513748e+00 7.429309e+00 5.041483e+00 5.318753e+00 5.841807e+00 6.818586e+00 6.961587e+00 7.083034e+00 5.770543e+00 4.544601e+00 3.978531e+00 3.464017e+00 1.088037e+01
<GCONST> 2.075181e+02
<STATE> 4
<NUMMIXES> 8
<MIXTURE> 1 8.272011e-02
<MEAN> 39
 -1.951483e+01 -2.010628e+01 -1.479108e+01 1.871786e+01 -1.277404e+01 -1.771499e+01 -1.019078e+01 6.538920e+00 -2.498512e+00 -1.634410e+00 1.260287e+00 8.051983e+00 1.156939e+02 -7.620792e+00 1.972029e+00 -9.849047e-01 1.842947e+00 -4.794336e+00 -1.035561e+00 2.323234e+00 4.666982e+00 7.923955e-01 6.298506e-01 1.510388e+00 3.482530e+00 1.052091e+01 -1.916332e+00 4.085371e+00 2.523360e+00 -3.302411e-01 2.492952e-01 1.703065e+00 1.509222e+00 -7.355785e-01 -1.026928e+00 5.057984e-02 -3.838116e-02 -1.344587e-01 -4.514585e+00
<VARIANCE> 39
 1.754397e+02 1.769457e+02 1.805612e+02 1.152467e+02 1.855864e+02 1.641499e+02 2.087267e+02 1.604613e+02 1.679249e+02 1.357972e+02 1.610380e+02 1.153440e+02 1.263302e+02 2.608931e+01 3.565520e+01 1.944983e+01 1.643555e+01 1.811014e+01 1.842186e+01 2.007896e+01 1.475825e+01 1.920189e+01 1.514522e+01 1.298502e+01 1.168751e+01 5.134479e+01 3.694248e+00 4.117465e+00 4.040104e+00 3.583590e+00 3.864916e+00 3.870903e+00 4.535274e+00 3.804543e+00 4.214204e+00 3.404595e+00 3.470511e+00 2.390528e+00 5.730929e+00
<GCONST> 1.936212e+02
<MIXTURE> 2 1.105606e-01
<MEAN> 39
 -4.488015e+01 -7.835073e+00 -3.662199e+00 7.796471e+00 9.735754e+00 -2.921658e+01 -1.522642e+01 5.289858e+00 1.809701e+00 3.675102e+00 -9.786795e+00 4.559622e+00 1.186412e+02 -1.369510e+01 6.139406e+00 3.160398e+00 1.092753e-01 -7.055430e-01 -3.970052e+00 3.320466e+00 3.395101e+00 3.115805e+00 -1.968808e+00 -7.908365e-01 1.363385e+00 3.888226e+00 8.332002e-01 1.974438e+00 1.053999e+00 6.475179e-02 -4.207217e-01 2.295892e+00 1.796826e+00 4.406449e-01 -8.701195e-01 -4.145184e-01 7.834168e-01 1.477293e-01 -4.387857e+00
<VARIANCE> 39
 2.132692e+02 9.594469e+01 1.748906e+02 1.953586e+02 2.459999e+02 2.741960e+02 1.957871e+02 2.083820e+02 1.650305e+02 1.367529e+02 1.332503e+02 1.055470e+02 1.383335e+02 1.516023e+01 1.562004e+01 1.604180e+01 1.570421e+01 1.724684e+01 1.798006e+01 1.431233e+01 1.815346e+01 1.707003e+01 1.518539e+01 1.363892e+01 1.349848e+01 2.233670e+01 4.955338e+00 2.628304e+00 3.672469e+00 3.440218e+00 2.825299e+00 4.587521e+00 3.146299e+00 3.977965e+00 3.965053e+00 3.069365e+00 2.793040e+00 2.150130e+00 4.007495e+00
<GCONST> 1.903281e+02
<MIXTURE> 3 2.114826e-01
<MEAN> 39
 -8.505032e+00 -2.131844e+01 -2.273695e+01 1.170532e+01 1.750263e+00 -1.072920e+01 -1.848973e+01 3.676436e-01 -3.066424e+00 5.718827e+00 -5.375946e+00 4.999253e+00 1.112977e+02 -6.552061e+00 -6.417667e-01 -1.313912e+00 2.410577e+00 -1.445043e+00 -3.743140e+00 -9.529475e-01 2.891133e+00 1.446536e+00 4.916199e-01 -1.249633e+00 1.460005e+00 1.412271e+01 -3.911876e+00 3.938388e+00 3.430975e+00 3.039544e-01 -9.748207e-01 8.402264e-02 2.179311e+00 6.557355e-01 -3.184781e-01 -1.003935e+00 4.570376e-01 2.528566e-01 -4.048618e+00
<VARIANCE> 39
 1.226125e+02 1.513088e+02 1.931294e+02 1.662991e+02 1.961875e+02 2.314803e+02 1.522627e+02 1.658679e+02 1.612300e+02 1.561421e+02 1.212570e+02 1.071848e+02 1.308367e+02 2.625101e+01 1.899141e+01 1.606858e+01 1.918426e+01 2.920598e+01 2.386377e+01 1.715783e+01 1.667406e+01 1.586932e+01 1.469379e+01 1.186568e+01 1.148461e+01 2.830193e+01 3.236448e+00 3.431241e+00 3.544358e+00 3.861272e+00 3.304677e+00 4.350438e+00 3.360379e+00 3.630183e+00 4.401120e+00 3.657532e+00 2.612169e+00 2.521940e+00 3.458974e+00
<GCONST> 1.911737e+02
<MIXTURE> 4 9.548768e-02
<MEAN> 39
 -4.129833e+01 -1.186350e+01 -6.256531e+00 9.141189e+00 1.251357e+01 -1.962195e+01 -2.189548e+01 8.618674e-01 3.396315e+00 1.147986e+01 -5.509307e+00 6.518793e-02 1.103518e+02 -1.199912e+01 3.439593e+00 3.833125e+00 1.488967e-01 -7.692989e-01 -4.625315e+00 1.386151e+00 2.791428e+00 3.221995e+00 -1.099410e+00 -1.912117e+00 -1.406720e-01 4.060606e+00 4.561157e-01 1.493953e+00 6.613023e-01 -5.803294e-01 -1.052473e+00 1.058415e+00 1.801015e+00 8.384714e-01 -7.704328e-01 -1.380609e+00 3.974870e-02 5.645079e-01 -3.182907e+00
<VARIANCE> 39
 2.213892e+02 1.137550e+02 1.633179e+02 2.299530e+02 2.846258e+02 2.748018e+02 2.032255e+02 2.000151e+02 1.880135e+02 1.384189e+02 1.364563e+02 1.032368e+02 1.786091e+02 1.420128e+01 9.912680e+00 1.197787e+01 1.598282e+01 2.064997e+01 1.864718e+01 1.480440e+01 1.713707e+01 1.520750e+01 1.464989e+01 1.257598e+01 1.186203e+01 1.990279e+01 5.967635e+00 1.848452e+00 2.768401e+00 2.684998e+00 3.007474e+00 4.109067e+00 2.920384e+00 3.358242e+00 3.533495e+00 2.564880e+00 2.638331e+00 2.089728e+00 2.821256e+00
<GCONST> 1.883758e+02
<MIXTURE> 5 1.848655e-01
<MEAN> 39
 -8.588858e+00 -2.090115e+01 -2.239017e+01 9.888423e+00 2.654062e+00 -1.174423e+01 -2.016024e+01 -2.393135e+00 -4.671332e+00 5.616154e+00 -6.016273e+00 3.978015e+00 1.088067e+02 -7.352003e+00 -1.314720e+00 -1.469460e+00 1.547613e+00 -1.835900e+00 -5.153291e+00 -2.189537e+00 1.535576e+00 1.605668e-01 -6.876238e-01 -2.189375e+00 5.578790e-01 1.315181e+01 -4.185140e+00 3.608954e+00 3.015903e+00 -1.652724e-02 -1.274054e+00 -1.329569e-01 1.964218e+00 6.272583e-01 -2.095881e-01 -1.185376e+00 3.011596e-01 1.854105e-01 -4.165270e+00
<VARIANCE> 39
 1.326348e+02 1.530723e+02 1.896246e+02 1.706467e+02 2.064079e+02 2.324821e+02 1.552411e+02 1.668491e+02 1.666266e+02 1.534608e+02 1.307246e+02 1.093228e+02 1.358082e+02 2.420121e+01 1.827566e+01 1.636918e+01 1.841318e+01 2.990216e+01 2.546968e+01 1.726672e+01 1.718482e+01 1.659501e+01 1.469733e+01 1.260930e+01 1.190037e+01 2.842301e+01 3.089184e+00 3.418716e+00 3.333513e+00 3.758552e+00 3.340969e+00 4.470091e+00 3.432275e+00 3.659692e+00 4.429433e+00 3.597711e+00 2.645924e+00 2.625135e+00 3.113346e+00
<GCONST> 1.914945e+02
<MIXTURE> 6 1.257817e-01
<MEAN> 39
 -4.601513e+01 -9.531377e+00 -4.426409e+00 7.453838e+00 8.911518e+00 -2.979218e+01 -1.756315e+01 4.111053e+00 1.782588e+00 3.829100e+00 -1.071822e+01 3.226300e+00 1.150557e+02 -1.366315e+01 4.852188e+00 2.790594e+00 -8.387591e-01 -1.789747e+00 -4.820877e+00 2.250628e+00 2.720377e+00 2.030575e+00 -2.793667e+00 -1.836306e+00 4.042149e-01 2.808175e+00 8.573702e-01 1.587629e+00 4.778279e-01 -5.034994e-01 -8.281366e-01 2.084813e+00 1.411161e+00 1.804623e-02 -1.081747e+00 -6.403428e-01 6.222721e-01 9.790356e-02 -4.153987e+00
<VARIANCE> 39
 2.034100e+02 9.529797e+01 1.669320e+02 1.954333e+02 2.625766e+02 2.752797e+02 1.962633e+02 2.186591e+02 1.728413e+02 1.450974e+02 1.379134e+02 1.060455e+02 1.410823e+02 1.285469e+01 1.354027e+01 1.436830e+01 1.574458e+01 1.883566e+01 1.753478e+01 1.467280e+01 1.734100e+01 1.686751e+01 1.458344e+01 1.222984e+01 1.247638e+01 1.958430e+01 5.076482e+00 2.221227e+00 3.166112e+00 2.834483e+00 2.928761e+00 4.367786e+00 3.099156e+00 3.743143e+00 3.784272e+00 2.974136e+00 2.784739e+00 2.208255e+00 3.347252e+00
<GCONST> 1.889570e+02
<MIXTURE> 7 1.137197e-01
<MEAN> 39
 -2.110711e+01 -1.887957e+01 -1.515869e+01 1.802794e+01 -1.347881e+01 -1.882955e+01 -1.226181e+01 5.180323e+00 -2.867138e+00 -2.206912e+00 3.942089e-01 8.761241e+00 1.134618e+02 -8.942200e+00 1.823739e+00 -9.539349e-01 8.874115e-01 -5.773468e+00 -1.764179e+00 1.234979e+00 3.394855e+00 -9.674464e-01 -7.651540e-01 3.227091e-01 2.684790e+00 8.723036e+00 -2.062958e+00 3.650495e+00 1.954626e+00 -8.270684e-01 1.250094e-01 1.529437e+00 1.147217e+00 -9.049740e-01 -1.159335e+00 -1.688247e-01 -1.073326e-01 -3.776178e-01 -4.824646e+00
<VARIANCE> 39
 1.880954e+02 1.689958e+02 1.727582e+02 1.193432e+02 1.856997e+02 1.748647e+02 2.033074e+02 1.588000e+02 1.698508e+02 1.401477e+02 1.580919e+02 1.173595e+02 1.252285e+02 2.451962e+01 3.246668e+01 1.843260e+01 1.799351e+01 1.930475e+01 2.098139e+01 2.114515e+01 1.414565e+01 1.959609e+01 1.442691e+01 1.308469e+01 1.214460e+01 4.881179e+01 3.867400e+00 4.034478e+00 3.568653e+00 3.325435e+00 3.650262e+00 3.949567e+00 4.325863e+00 3.628798e+00 4.134682e+00 3.471004e+00 3.253888e+00 2.496645e+00 4.761397e+00
<GCONST> 1.932363e+02
<MIXTURE> 8 7.536551e-02
<MEAN> 39
 -4.280899e+01 -1.289009e+01 -6.641263e+00 8.764177e+00 1.290214e+01 -2.132127e+01 -2.281930e+01 -1.516005e+00 4.660918e+00 1.150213e+01 -6.718995e+00 -8.398791e-01 1.078324e+02 -1.241772e+01 2.528797e+00 3.008465e+00 -6.360106e-01 -1.836669e+00 -5.738435e+00 2.823558e-01 2.060244e+00 2.254382e+00 -2.003926e+00 -2.920252e+00 -1.046424e+00 2.986658e+00 5.875903e-01 1.261624e+00 1.765825e-01 -1.014022e+00 -1.484595e+00 9.535937e-01 1.504268e+00 5.982613e-01 -9.445215e-01 -1.540594e+00 -1.120666e-01 4.740276e-01 -3.199353e+00
<VARIANCE> 39
 1.941288e+02 1.199104e+02 1.659372e+02 2.177399e+02 3.027668e+02 2.500924e+02 2.094391e+02 2.045604e+02 2.157599e+02 1.343577e+02 1.490774e+02 9.584036e+01 1.563043e+02 1.290912e+01 1.000493e+01 1.069640e+01 1.485879e+01 2.129364e+01 1.915171e+01 1.437921e+01 1.701402e+01 1.526781e+01 1.627745e+01 1.182543e+01 1.116035e+01 1.745956e+01 5.467839e+00 1.600615e+00 2.317946e+00 2.571986e+00 3.121067e+00 3.785552e+00 2.987672e+00 3.129267e+00 3.274469e+00 2.493432e+00 2.623313e+00 1.962331e+00 2.477061e+00
<GCONST> 1.870240e+02
<TRANSP> 5
 0.000000e+00 1.000000e+00 0.000000e+00 0.000000e+00 0.000000e+00
 0.000000e+00 7.128963e-01 2.871037e-01 0.000000e+00 0.000000e+00
 0.000000e+00 0.000000e+00 7.057066e-01 2.942934e-01 0.000000e+00
 0.000000e+00 0.000000e+00 0.000000e+00 6.098467e-01 3.901533e-01
 0.000000e+00 0.000000e+00 0.000000e+00 0.000000e+00 0.000000e+00
<ENDHMM>
~h "n"
<BEGINHMM>
<NUMSTATES> 5
<STATE> 2
<NUMMIXES> 8
<MIXTURE> 1 6.005076e-02
<MEAN> 39
 3.591419e+00 8.928638e+00 2.851687e+01 9.541164e+00 2.715712e-01 8.490752e+00 1.946537e+01 -6.234035e+00 7.536634e-01 6.418974e+00 -2.624651e+00 1.054256e+01 9.167170e+01 7.262051e+00 4.288978e+00 3.190828e+00 6.078636e+00 -8.416733e-01 2.634063e+00 3.246192e+00 -5.361253e+00 1.252910e+00 2.310616e-01 -1.727652e-01 3.179169e+00 8.886614e-01 2.779856e-01 -9.834449e-01 -2.108372e-01 -5.812712e-01 -3.850569e-01 -4.999174e-01 -5.007778e-01 1.700312e-01 1.398543e-01 -1.285937e-01 3.369976e-01 2.595710e-01 1.379915e+00
<VARIANCE> 39
 2.968406e+02 2.260121e+02 2.672383e+02 4.851876e+02 2.392662e+02 3.441796e+02 3.467797e+02 4.261319e+02 3.106706e+02 3.126794e+02 2.618857e+02 2.673426e+02 6.731006e+02 3.580085e+01 2.063735e+01 5.309822e+01 4.415887e+01 2.713943e+01 3.564714e+01 4.031681e+01 4.445144e+01 3.692773e+01 3.184376e+01 2.943538e+01 2.882018e+01 6.921722e+01 3.041610e+00 3.134614e+00 3.761717e+00 6.304444e+00 4.202499e+00 5.038229e+00 4.775540e+00 6.495366e+00 4.655880e+00 4.551644e+00 3.874756e+00 4.268140e+00 3.126777e+00
<GCONST> 2.126268e+02
<MIXTURE> 2 1.493895e-01
<MEAN> 39
 2.158506e+01 3.103508e+00 3.347396e+01 1.504168e+01 -6.087919e+00 5.115037e+00 2.070129e+01 -1.088362e+01 -8.840233e-01 1.099388e+01 -6.852992e+00 1.419422e+01 1.099518e+02 4.724735e-01 3.093323e+00 -7.384032e-01 3.810800e+00 1.309084e-01 2.338462e+00 1.972340e+00 -2.791699e+00 1.056856e+00 5.620781e-01 -1.024951e+00 5.258478e-01 -3.356061e+00 -8.828367e-01 -6.670358e-01 -5.486057e-02 -1.328133e+00 6.812721e-01 -1.996141e-01 -8.404903e-01 1.896785e+00 -3.414088e-02 -3.061208e-01 4.914709e-01 -3.993534e-01 6.014874e-01
<VARIANCE> 39
 5.573716e+01 2.128702e+02 1.792129e+02 3.342304e+02 2.880484e+02 4.380541e+02 5.720172e+02 5.063367e+02 5.881838e+02 4.334953e+02 3.963217e+02 4.503959e+02 1.586036e+02 3.857303e+00 9.501832e+00 1.323108e+01 2.301813e+01 1.542328e+01 2.138610e+01 2.911059e+01 3.590535e+01 2.508474e+01 1.955499e+01 1.924989e+01 1.821602e+01 5.000578e+00 1.077861e+00 1.768162e+00 3.167805e+00 4.874397e+00 3.429180e+00 5.001440e+00 5.859636e+00 5.973542e+00 4.847630e+00 4.205042e+00 3.831149e+00 3.969149e+00 1.085264e+00
<GCONST> 1.973220e+02
<MIXTURE> 3 1.372424e-01
<MEAN> 39
 2.066147e+01 1.356300e+00 3.367787e+01 2.178053e+01 -4.126163e+00 5.232141e+00 1.604166e+01 -4.957298e+00 -1.055355e+01 1.482711e+01 -1.249053e+01 4.124933e+00 1.091380e+02 -7.885245e-01 3.169441e+00 -5.984389e-01 2.457847e+00 1.359508e+00 1.170343e+00 2.320135e+00 -2.295878e-01 7.765170e-01 2.328682e-01 -9.907498e-01 -4.574548e-01 -3.345997e+00 -1.299533e+00 -7.057707e-01 -6.266425e-01 -1.617889e+00 7.680933e-01 -2.591769e-01 -1.319716e+00 1.762311e+00 8.130932e-01 -5.691286e-01 9.973849e-01 1.804782e-01 6.180421e-01
<VARIANCE> 39
 6.233062e+01 1.884191e+02 1.634628e+02 2.937956e+02 3.387640e+02 4.417238e+02 4.932018e+02 4.191954e+02 6.223967e+02 6.000614e+02 5.696014e+02 5.564336e+02 1.890988e+02 5.278585e+00 1.189864e+01 1.347633e+01 1.671313e+01 1.577619e+01 1.964699e+01 2.588959e+01 2.419389e+01 2.485809e+01 2.280935e+01 2.009065e+01 2.017815e+01 7.541609e+00 2.189423e+00 2.701087e+00 3.744695e+00 5.303013e+00 5.081908e+00 5.559979e+00 7.641741e+00 6.144476e+00 6.962635e+00 6.081341e+00 5.872482e+00 5.853939e+00 1.895148e+00
<GCONST> 2.027005e+02
<MIXTURE> 4 1.639578e-01
<MEAN> 39
 1.213479e+01 -1.418769e+01 4.393544e+01 -1.634325e+01 -4.886042e+00 -2.835891e+00 1.325324e+01 1.246299e+01 -7.829022e+00 1.167977e+01 6.440068e-01 9.759687e+00 1.293825e+02 2.068172e+00 5.459785e+00 2.091885e-02 5.642761e+00 5.458382e-01 1.359661e+00 3.126850e+00 -5.910593e+00 -1.099470e+00 1.716218e+00 -2.368264e+00 1.207713e+00 -5.632360e+00 5.074388e-01 3.111808e-01 -1.692373e+00 2.281371e+00 4.111984e-01 3.454585e-01 4.390580e-01 -1.032941e+00 7.886891e-01 -4.149048e-01 -3.576676e-01 2.394031e-01 -7.327482e-01
<VARIANCE> 39
 7.500256e+01 2.375793e+02 2.647463e+02 5.173325e+02 2.966589e+02 3.256053e+02 5.797422e+02 4.903258e+02 4.121222e+02 3.295215e+02 2.906778e+02 2.371271e+02 2.003622e+02 5.768118e+00 1.055307e+01 2.853506e+01 4.441995e+01 2.621704e+01 3.100223e+01 4.043338e+01 3.925669e+01 3.465680e+01 3.204985e+01 2.611938e+01 2.672441e+01 5.188408e+00 8.238527e-01 1.652848e+00 2.939511e+00 5.550158e+00 3.704358e+00 4.716076e+00 5.864705e+00 5.705339e+00 4.503446e+00 4.617946e+00 3.609377e+00 3.655915e+00 9.097818e-01
<GCONST> 2.011116e+02
<MIXTURE> 5 1.451325e-01
<MEAN> 39
 1.977263e+01 8.349891e-01 3.269442e+01 1.508938e+01 -6.604095e+00 3.779649e+00 1.710232e+01 -1.074539e+01 -5.471033e+00 9.743246e+00 -1.043081e+01 9.732363e+00 1.095557e+02 -3.232020e-02 2.682607e+00 -1.058620e+00 3.111647e+00 1.150527e-01 1.584573e+00 1.603562e+00 -2.132555e+00 3.915917e-01 5.091706e-02 -1.662593e+00 -6.150266e-01 -3.418749e+00 -9.908468e-01 -7.253368e-01 -2.813479e-01 -1.226043e+00 5.685458e-01 -4.110243e-01 -1.058778e+00 1.880440e+00 3.241695e-02 -4.269158e-01 4.427737e-01 -4.537029e-01 4.134834e-01
<VARIANCE> 39
 6.043966e+01 2.187746e+02 1.747842e+02 3.576641e+02 2.937091e+02 4.285080e+02 5.326848e+02 5.113295e+02 5.733044e+02 4.475438e+02 4.197287e+02 4.505788e+02 1.768451e+02 4.290548e+00 9.477227e+00 1.224359e+01 2.069026e+01 1.478444e+01 2.039914e+01 2.697874e+01 3.265638e+01 2.382993e+01 1.955804e+01 1.809018e+01 1.753009e+01 5.462845e+00 1.347366e+00 1.887727e+00 3.326441e+00 4.942926e+00 3.454999e+00 5.008293e+00 6.130548e+00 6.225624e+00 4.923582e+00 4.014539e+00 3.894925e+00 4.103871e+00 1.311236e+00
<GCONST> 1.978330e+02
<MIXTURE> 6 1.250615e-01
<MEAN> 39
 1.848642e+01 1.426699e-01 3.354380e+01 2.055730e+01 -4.790462e+00 3.906106e+00 1.421037e+01 -6.924715e+00 -1.426576e+01 1.454461e+01 -1.767521e+01 8.223035e-01 1.081660e+02 -1.505689e+00 3.013536e+00 -1.351992e+00 1.879086e+00 1.179778e+00 4.853877e-01 1.593193e+00 -2.836921e-01 5.575991e-01 -8.777720e-01 -1.572383e+00 -1.271884e+00 -3.783409e+00 -1.513817e+00 -8.171443e-01 -9.569805e-01 -1.673593e+00 6.012722e-01 -4.749122e-01 -1.605310e+00 1.787467e+00 9.056104e-01 -7.968837e-01 1.254892e+00 1.846272e-01 4.129932e-01
<VARIANCE> 39
 6.639326e+01 1.783781e+02 1.530974e+02 2.957881e+02 3.277748e+02 4.153013e+02 4.507944e+02 4.197260e+02 5.838612e+02 7.114927e+02 6.332144e+02 5.249822e+02 2.060629e+02 6.136658e+00 1.233156e+01 1.342695e+01 1.566014e+01 1.550715e+01 1.883149e+01 2.505150e+01 2.182644e+01 2.546388e+01 2.597268e+01 2.306605e+01 2.272379e+01 8.316291e+00 2.535249e+00 2.780453e+00 3.877608e+00 5.239869e+00 4.960633e+00 5.406099e+00 7.465816e+00 6.224113e+00 7.206386e+00 6.214177e+00 6.448709e+00 6.319446e+00 2.186585e+00
<GCONST> 2.036427e+02
<MIXTURE> 7 1.492557e-01
<MEAN> 39
 1.151142e+01 -1.695905e+01 4.260775e+01 -1.325698e+01 -8.209742e+00 -5.216896e+00 5.209373e+00 1.367006e+01 -1.246971e+01 8.986452e+00 -2.070818e+00 5.665671e+00 1.305945e+02 1.763514e+00 4.853627e+00 -1.888955e-02 5.065816e+00 7.379504e-01 1.114277e+00 3.322064e+00 -5.383830e+00 -2.188673e+00 1.940222e+00 -3.216681e+00 -1.617976e-01 -5.421303e+00 4.739487e-01 2.691270e-01 -1.653776e+00 2.070736e+00 3.531647e-01 3.832432e-01 5.633941e-01 -1.012065e+00 8.423952e-01 -2.915069e-01 -6.086210e-01 -1.372795e-01 -7.753963e-01
<VARIANCE> 39
 8.391829e+01 2.327763e+02 2.960672e+02 5.033582e+02 3.186931e+02 3.138480e+02 6.001357e+02 5.098221e+02 4.388750e+02 3.372790e+02 3.174545e+02 2.532928e+02 2.255622e+02 5.831368e+00 1.013760e+01 2.691204e+01 4.159867e+01 2.472742e+01 2.879549e+01 3.861656e+01 3.855640e+01 3.152781e+01 2.853407e+01 2.298418e+01 2.610512e+01 5.360326e+00 9.240221e-01 1.610620e+00 2.950184e+00 5.115704e+00 3.628091e+00 4.587379e+00 5.826515e+00 5.712110e+00 4.261342e+00 4.186127e+00 3.344528e+00 3.672310e+00 9.572516e-01
<GCONST> 2.008586e+02
<MIXTURE> 8 6.989364e-02
<MEAN> 39
 3.744991e+00 7.743011e+00 2.730994e+01 9.684827e+00 -6.231112e-01 5.758461e+00 1.706453e+01 -5.405434e+00 -1.905251e+00 7.753922e+00 -5.780995e+00 6.821311e+00 9.288627e+01 6.482150e+00 2.456458e+00 2.404711e+00 4.799636e+00 -1.778407e+00 1.711410e+00 2.083773e+00 -5.227592e+00 -4.875597e-01 -4.118174e-02 -1.981714e+00 1.362595e+00 1.150052e+00 -3.172459e-02 -1.234996e+00 -3.479518e-01 -6.163740e-01 -4.835528e-01 -6.006802e-01 -1.017915e+00 1.027107e-01 -8.947702e-02 -4.951091e-01 1.440790e-02 -1.196909e-01 1.198149e+00
<VARIANCE> 39
 2.823773e+02 2.637172e+02 2.752579e+02 5.569481e+02 2.602393e+02 3.447214e+02 3.230812e+02 4.499583e+02 3.267496e+02 3.065391e+02 2.633533e+02 2.556178e+02 6.695897e+02 3.874583e+01 2.187073e+01 4.734498e+01 4.868024e+01 2.655398e+01 3.286291e+01 4.126897e+01 4.187331e+01 3.633747e+01 3.099947e+01 2.799516e+01 2.820809e+01 6.832047e+01 3.134513e+00 3.350521e+00 3.785041e+00 6.840401e+00 4.163357e+00 5.171034e+00 5.033530e+00 6.357441e+00 4.733232e+00 4.358229e+00 3.663752e+00 3.981359e+00 3.575369e+00
<GCONST> 2.130206e+02
<STATE> 3
<NUMMIXES> 8
<MIXTURE> 1 1.587242e-01
<MEAN> 39
 2.241475e+01 1.172798e+01 3.372740e+01 1.672026e+01 -7.483766e+00 1.594302e+01 2.221341e+01 -1.698834e+01 5.030385e+00 6.047002e+00 -2.367971e+00 1.791961e+01 1.017631e+02 -6.838404e-01 -5.781366e-02 5.476484e-01 8.602711e-01 7.859090e-01 6.167021e-01 4.322224e-01 1.836025e+00 4.628923e-01 -6.707042e-01 7.565279e-01 4.903760e-01 -6.309139e-01 -8.633166e-01 -9.220024e-01 -2.524470e-01 -8.272092e-01 8.703787e-01 -1.078148e+00 -5.654573e-01 2.004938e+00 -3.224179e-01 5.437544e-02 7.938877e-02 -5.108438e-01 4.895883e-01
<VARIANCE> 39
 5.182420e+01 2.059773e+02 1.534624e+02 2.127684e+02 2.227521e+02 3.637309e+02 4.500959e+02 4.236234e+02 4.481377e+02 4.179838e+02 4.604039e+02 3.785477e+02 1.543200e+02 3.390442e+00 7.658943e+00 5.420708e+00 8.598829e+00 1.025918e+01 1.468242e+01 1.285883e+01 1.801242e+01 1.302457e+01 1.238835e+01 1.174628e+01 1.222683e+01 7.794738e+00 9.924477e-01 1.635373e+00 2.036685e+00 2.718603e+00 2.375812e+00 3.373412e+00 4.166354e+00 4.473050e+00 3.500577e+00 2.958740e+00 3.360129e+00 2.912663e+00 1.154146e+00
<GCONST> 1.856823e+02
<MIXTURE> 2 1.048831e-01
<MEAN> 39
 1.890042e+01 1.137275e+01 3.164513e+01 2.468237e+01 -3.670745e-01 3.870439e+00 1.935460e+01 -3.562830e+00 -7.896050e+00 1.036678e+01 -1.202488e+01 3.452708e+00 9.937363e+01 -8.044767e-01 6.604436e-02 -2.166720e-02 -1.425668e+00 2.339799e+00 2.651372e-01 -1.875384e+00 2.034018e+00 2.286047e+00 -2.965420e-01 1.702686e+00 7.683144e-01 2.051124e+00 -2.170351e+00 -1.691671e+00 -1.280151e+00 -1.870546e+00 2.011498e-01 -7.945476e-02 -1.471605e+00 1.108209e+00 8.579889e-01 -7.798129e-02 9.983100e-01 3.351886e-01 7.668657e-01
<VARIANCE> 39
 8.342418e+01 2.110222e+02 1.483581e+02 2.266362e+02 3.037068e+02 3.568860e+02 4.158156e+02 3.638262e+02 5.278881e+02 4.599834e+02 4.316376e+02 4.405788e+02 2.024651e+02 5.130462e+01 3.426031e+01 3.496562e+01 4.344257e+01 3.848786e+01 3.946238e+01 5.747121e+01 4.871346e+01 4.746769e+01 3.663258e+01 3.320101e+01 3.771333e+01 5.316940e+01 4.015258e+00 2.827560e+00 2.977350e+00 3.496197e+00 4.018056e+00 4.304243e+00 5.330497e+00 4.243712e+00 5.642073e+00 4.159775e+00 4.308014e+00 4.231615e+00 2.151578e+00
<GCONST> 2.114568e+02
<MIXTURE> 3 1.298886e-01
<MEAN> 39
 2.237125e+01 3.248199e+00 3.893789e+01 1.740742e+01 -9.593134e+00 7.106249e+00 1.993896e+01 -1.652759e+01 7.315397e-01 6.517279e+00 -7.594860e+00 1.842869e+01 1.102515e+02 -1.086292e+00 -3.451463e+00 -6.745740e-01 -3.603077e+00 2.930203e+00 -3.854771e+00 -2.758477e+00 5.733450e+00 7.062601e-01 4.918700e-02 4.361516e-01 2.072861e-01 4.511067e+00 -1.435044e+00 -1.627854e+00 -1.779361e+00 -2.350094e+00 1.627040e+00 -8.877118e-01 -1.804240e+00 3.355983e+00 2.236637e-01 1.376715e-01 5.197739e-01 -1.118894e+00 1.100845e+00
<VARIANCE> 39
 4.923063e+01 2.049994e+02 1.413757e+02 2.564005e+02 2.432191e+02 4.639891e+02 5.340792e+02 4.260534e+02 5.674646e+02 4.670519e+02 5.212702e+02 5.756635e+02 1.255770e+02 9.315804e+00 1.819963e+01 1.563839e+01 2.819241e+01 2.520619e+01 4.037518e+01 4.211685e+01 5.101382e+01 2.762741e+01 2.184194e+01 2.313140e+01 2.778046e+01 2.096684e+01 2.674972e+00 2.578162e+00 3.127913e+00 4.707666e+00 4.250510e+00 6.212392e+00 7.362044e+00 6.562542e+00 7.619865e+00 4.697706e+00 5.828342e+00 5.867510e+00 2.769425e+00
<GCONST> 2.069275e+02
<MIXTURE> 4 1.171159e-01
<MEAN> 39
 1.364192e+01 1.815523e+01 3.313881e+01 2.579157e+01 6.932449e+00 1.363029e+01 2.188487e+01 -2.501644e+00 -3.719342e-02 4.547114e+00 -9.690559e+00 9.227709e+00 9.131070e+01 -6.587871e+00 -4.272927e-01 -3.597365e+00 5.737695e-01 4.023581e+00 1.238638e+00 -9.742919e-01 5.743377e+00 3.278141e-01 4.627339e-01 1.595036e+00 -2.835903e+00 -3.102366e+00 -1.845874e+00 -2.063363e+00 -1.661674e+00 -1.745353e+00 -1.131539e+00 -1.210824e+00 -1.110059e+00 1.242641e-01 -2.875540e-02 1.279489e-01 6.264874e-01 1.550552e-01 8.713359e-01
<VARIANCE> 39
 8.487432e+01 1.340377e+02 1.216113e+02 1.743002e+02 2.136190e+02 2.805149e+02 3.040280e+02 3.614181e+02 3.402347e+02 3.748673e+02 3.500669e+02 3.504966e+02 1.458813e+02 1.958875e+01 2.073166e+01 2.027287e+01 2.269549e+01 2.194775e+01 3.189854e+01 3.694290e+01 3.239892e+01 3.879052e+01 3.765881e+01 3.632384e+01 3.358353e+01 1.923351e+01 2.998602e+00 2.329952e+00 2.546778e+00 2.741251e+00 3.414975e+00 3.770411e+00 4.057569e+00 4.926704e+00 3.748723e+00 3.964829e+00 3.712703e+00 3.741660e+00 2.083093e+00
<GCONST> 2.006711e+02
<MIXTURE> 5 1.584053e-01
<MEAN> 39
 2.064499e+01 8.819255e+00 3.264636e+01 1.699843e+01 -9.000246e+00 1.359007e+01 2.023207e+01 -1.705735e+01 8.093795e-01 5.043604e+00 -7.559221e+00 1.463585e+01 1.014435e+02 -1.134933e+00 -6.716924e-01 -6.722048e-02 4.404249e-01 5.592703e-01 -1.180345e-01 -2.712893e-01 1.827135e+00 3.404468e-02 -1.162364e+00 -2.681166e-03 -3.392511e-01 -5.560393e-01 -1.019404e+00 -1.086351e+00 -5.798451e-01 -1.039232e+00 7.576221e-01 -1.310046e+00 -9.654567e-01 1.963664e+00 -3.047314e-01 1.218653e-02 3.896296e-02 -7.087516e-01 4.126262e-01
<VARIANCE> 39
 6.018057e+01 2.077413e+02 1.542697e+02 2.393448e+02 2.225776e+02 3.658954e+02 4.307899e+02 4.314663e+02 4.498860e+02 4.070652e+02 4.622686e+02 3.748604e+02 1.841146e+02 4.871881e+00 8.099865e+00 6.185402e+00 8.968486e+00 1.065578e+01 1.533155e+01 1.340843e+01 1.780578e+01 1.322251e+01 1.275168e+01 1.230505e+01 1.271499e+01 1.027386e+01 1.270361e+00 1.832995e+00 2.244549e+00 2.725950e+00 2.571494e+00 3.598386e+00 4.489009e+00 4.861260e+00 3.775018e+00 3.101738e+00 3.474895e+00 3.026983e+00 1.472832e+00
<GCONST> 1.884019e+02
<MIXTURE> 6 1.219314e-01
<MEAN> 39
 2.064140e+01 2.265943e+00 3.806754e+01 1.635618e+01 -1.073772e+01 5.312485e+00 1.789492e+01 -1.966042e+01 -1.582785e+00 5.733815e+00 -8.969404e+00 1.789102e+01 1.100840e+02 -1.602663e+00 -4.218749e+00 -1.326406e+00 -4.512253e+00 2.821258e+00 -4.641526e+00 -3.891723e+00 6.774142e+00 -1.410236e-01 -7.964822e-01 -4.909291e-01 -1.346643e+00 4.732811e+00 -1.578474e+00 -1.766048e+00 -2.005905e+00 -2.489639e+00 1.364440e+00 -9.172391e-01 -1.838126e+00 3.487718e+00 2.624151e-01 -1.499075e-01 3.983895e-01 -1.383743e+00 9.632393e-01
<VARIANCE> 39
 5.192367e+01 1.945221e+02 1.394911e+02 2.837104e+02 2.237019e+02 4.416062e+02 4.998657e+02 4.209453e+02 5.534953e+02 4.742635e+02 5.356252e+02 5.563309e+02 1.384699e+02 1.051422e+01 1.850371e+01 1.674746e+01 2.875878e+01 2.668706e+01 4.317265e+01 4.142414e+01 5.149060e+01 3.106870e+01 2.395158e+01 2.489833e+01 3.063820e+01 2.713165e+01 2.954448e+00 2.522841e+00 3.397785e+00 4.615090e+00 4.465484e+00 6.530265e+00 7.002272e+00 6.896869e+00 7.976208e+00 4.619390e+00 5.742769e+00 6.549680e+00 3.042617e+00
<GCONST> 2.083251e+02
<MIXTURE> 7 1.113298e-01
<MEAN> 39
 1.676164e+01 9.872949e+00 3.105806e+01 2.340398e+01 -1.331199e+00 3.395682e+00 1.569723e+01 -4.790194e+00 -9.282567e+00 1.145370e+01 -1.423186e+01 1.513187e+00 9.858204e+01 -1.994027e+00 -9.745618e-01 -1.447752e+00 -2.608231e+00 1.551615e+00 -9.077962e-01 -3.115416e+00 1.953739e+00 1.400422e+00 -1.364504e+00 8.406839e-01 -2.309324e-01 1.893143e+00 -2.310869e+00 -1.850718e+00 -1.604189e+00 -2.128957e+00 -1.154169e-01 -3.742481e-01 -1.683018e+00 8.628640e-01 7.196332e-01 -3.889329e-01 9.242765e-01 1.777710e-01 5.345424e-01
<VARIANCE> 39
 9.225542e+01 2.116463e+02 1.457585e+02 2.431500e+02 2.887457e+02 3.471387e+02 3.815934e+02 3.465592e+02 4.669251e+02 4.760743e+02 4.303656e+02 3.915926e+02 2.140586e+02 5.868465e+01 3.352185e+01 3.535695e+01 4.123812e+01 4.018584e+01 3.747742e+01 5.130262e+01 4.807322e+01 5.011961e+01 3.716817e+01 3.827625e+01 3.865464e+01 6.395993e+01 3.972704e+00 2.826442e+00 2.897201e+00 3.489236e+00 4.066862e+00 4.471639e+00 5.250268e+00 4.481189e+00 5.954813e+00 4.533538e+00 4.451847e+00 4.255340e+00 2.456818e+00
<GCONST> 2.119642e+02
<MIXTURE> 8 9.769709e-02
<MEAN> 39
 1.011145e+01 1.785187e+01 3.138025e+01 2.402303e+01 7.846686e+00 1.396709e+01 1.944445e+01 -4.072382e+00 -1.813323e+00 4.604116e+00 -1.057428e+01 7.113099e+00 9.036056e+01 -9.253356e+00 -2.235160e+00 -6.213066e+00 -1.205487e+00 2.566813e+00 -3.354330e-01 -3.193097e+00 4.873538e+00 -1.169526e+00 -2.014582e-01 1.185167e+00 -4.102833e+00 -3.545464e+00 -1.920119e+00 -2.294652e+00 -1.968542e+00 -2.265025e+00 -1.983672e+00 -1.794036e+00 -1.528926e+00 -4.290850e-01 -1.709072e-01 -2.398110e-01 5.033207e-01 3.876819e-01 1.110797e+00
<VARIANCE> 39
 9.234068e+01 1.397398e+02 1.162711e+02 1.646278e+02 1.986521e+02 2.508797e+02 2.828438e+02 3.591885e+02 2.999323e+02 3.285606e+02 3.064073e+02 2.962813e+02 1.527132e+02 1.923108e+01 2.151267e+01 2.126662e+01 2.343019e+01 2.322893e+01 3.329177e+01 3.990578e+01 3.555782e+01 4.346026e+01 4.227161e+01 4.605640e+01 4.028066e+01 2.090733e+01 2.777475e+00 2.422956e+00 2.561149e+00 2.641886e+00 3.835578e+00 3.854209e+00 4.471706e+00 5.423620e+00 4.058677e+00 4.507678e+00 4.075140e+00 4.277919e+00 2.784661e+00
<GCONST> 2.020066e+02
<STATE> 4
<NUMMIXES> 8
<MIXTURE> 1 9.947307e-02
<MEAN> 39
 1.667452e+01 -2.298543e+01 2.610793e+01 -1.226630e+01 8.016274e+00 -7.830009e+00 -6.669213e+00 2.166076e+01 4.018184e+00 1.186918e+01 -5.565116e+00 9.826677e+00 1.368287e+02 -6.162859e-01 -6.707963e+00 -5.930076e+00 -7.518779e+00 2.854977e+00 2.252471e-01 -4.819373e+00 6.635990e+00 2.429596e+00 -2.325835e-01 1.832682e+00 -1.096570e+00 6.302667e+00 3.704312e-01 1.122718e+00 -3.471908e-01 1.895624e+00 -6.186250e-01 1.766605e+00 1.543903e+00 -2.362801e+00 -7.910842e-02 -3.732114e-01 3.343497e-01 -2.329973e-01 -1.523238e+00
<VARIANCE> 39
 5.851995e+01 1.984575e+02 2.090604e+02 2.914283e+02 2.748766e+02 3.435140e+02 7.484306e+02 3.825064e+02 2.984606e+02 4.050648e+02 3.097475e+02 3.267131e+02 1.476389e+02 4.456028e+00 1.525624e+01 1.495493e+01 2.794150e+01 3.031161e+01 3.143420e+01 4.511518e+01 4.193422e+01 4.811440e+01 2.683658e+01 3.115213e+01 2.583016e+01 9.173903e+00 5.797354e-01 2.081043e+00 2.506253e+00 4.520695e+00 3.557340e+00 5.456013e+00 8.111090e+00 6.344620e+00 4.828591e+00 3.667749e+00 3.668536e+00 3.209613e+00 1.433757e+00
<GCONST> 2.002485e+02
<MIXTURE> 2 2.126162e-01
<MEAN> 39
 2.125471e+00 3.115430e+00 2.154199e+01 2.485391e+01 6.266425e+00 6.309850e+00 1.890090e+01 9.684660e+00 3.330391e+00 3.107594e+00 -8.898939e+00 5.358273e+00 8.247316e+01 -2.102134e+00 -3.793349e-01 -1.827343e+00 -4.458520e-01 4.795161e-01 5.498061e-01 -5.229150e-01 1.677850e+00 1.018940e+00 -9.762502e-02 9.060515e-01 -2.955844e-01 -2.227349e+00 8.855009e-02 -4.593864e-02 -2.356732e-02 -5.874465e-01 -1.914301e-01 -3.987739e-01 -3.353352e-01 -3.553054e-01 -2.501119e-01 3.084410e-01 1.311736e-01 1.249130e-01 3.638453e-01
<VARIANCE> 39
 1.402088e+02 1.385868e+02 2.265832e+02 2.640011e+02 2.361964e+02 2.870476e+02 3.477035e+02 3.754086e+02 3.797986e+02 3.720733e+02 2.969654e+02 2.728270e+02 2.434688e+02 7.546714e+00 9.090474e+00 1.019779e+01 1.419804e+01 1.260015e+01 1.552905e+01 1.581249e+01 1.880402e+01 1.847041e+01 1.542427e+01 1.549938e+01 1.383889e+01 5.489962e+00 1.000723e+00 1.596408e+00 2.047473e+00 2.583380e+00 2.482032e+00 3.044407e+00 3.205932e+00 3.534528e+00 3.374625e+00 2.737759e+00 2.780976e+00 2.459791e+00 7.275254e-01
<GCONST> 1.874213e+02
<MIXTURE> 3 1.170261e-01
<MEAN> 39
 -8.831058e+00 6.025347e+00 1.540961e+01 1.649860e+01 7.592127e+00 9.750883e+00 1.397225e+01 7.038645e+00 -9.359648e-01 6.004286e+00 -4.444869e+00 1.829706e+00 8.406880e+01 -7.803619e+00 -2.384562e+00 -5.919311e+00 -3.870716e+00 -8.629855e-01 -2.552748e+00 -4.030173e+00 1.625901e+00 5.202976e-01 -6.822023e-01 2.152218e+00 -2.271442e-01 -1.423606e+00 6.339791e-01 -2.268520e-01 3.530621e-01 -4.261881e-01 -1.151290e+00 -5.899642e-01 -3.725436e-01 -1.068641e+00 -1.590550e-01 -6.656848e-02 -2.397245e-01 7.707081e-01 1.308410e+00
<VARIANCE> 39
 1.209528e+02 1.882705e+02 1.455768e+02 1.868907e+02 2.059486e+02 2.182126e+02 2.633495e+02 2.881404e+02 2.420388e+02 2.699148e+02 1.986723e+02 1.804809e+02 4.005427e+02 3.761751e+01 2.233845e+01 2.124935e+01 2.194354e+01 2.607437e+01 2.505198e+01 2.786194e+01 3.294558e+01 3.363365e+01 2.766200e+01 3.011804e+01 2.667307e+01 2.426881e+01 2.828442e+00 4.253430e+00 3.106892e+00 3.904039e+00 4.621865e+00 4.446984e+00 5.065055e+00 5.355990e+00 4.975512e+00 4.801063e+00 4.670218e+00 4.367140e+00 4.854627e+00
<GCONST> 2.034104e+02
<MIXTURE> 4 6.837124e-02
<MEAN> 39
 9.101444e+00 -1.081395e+01 2.638096e+01 -3.034422e+00 2.587705e+00 -1.186129e+01 3.284602e+00 1.612333e+01 7.474303e-02 3.058193e+00 -4.329334e+00 9.974215e+00 1.186253e+02 -1.828347e+00 -4.083002e+00 -4.291054e+00 -4.668984e+00 1.735565e+00 -2.591619e+00 -2.529443e+00 6.510433e+00 2.136649e+00 -6.566688e-01 1.259897e+00 -1.134801e+00 3.436900e+00 2.847930e-01 5.816166e-01 -6.286464e-01 1.388823e+00 -8.441518e-02 1.987643e+00 7.744060e-01 -1.348582e+00 3.024985e-01 2.769214e-01 -4.567221e-02 -3.620628e-01 -1.050608e+00
<VARIANCE> 39
 1.514438e+02 1.817645e+02 3.297575e+02 2.723230e+02 2.682138e+02 3.427079e+02 5.365836e+02 3.692890e+02 3.699912e+02 4.204301e+02 3.563539e+02 3.411847e+02 4.335206e+02 1.020481e+01 2.825763e+01 2.231688e+01 3.849456e+01 3.380201e+01 4.490325e+01 4.503505e+01 5.509311e+01 4.291595e+01 3.389144e+01 3.364438e+01 3.382897e+01 3.349939e+01 1.717310e+00 2.589969e+00 4.119145e+00 4.295299e+00 4.167583e+00 5.674084e+00 6.733159e+00 6.359561e+00 5.537370e+00 4.815153e+00 4.690686e+00 4.426334e+00 2.159720e+00
<GCONST> 2.104309e+02
<MIXTURE> 5 2.352971e-01
<MEAN> 39
 -3.875226e+00 -2.507545e-01 1.800066e+01 2.233005e+01 3.990431e+00 5.024238e+00 1.683982e+01 1.225326e+01 3.514874e+00 7.251120e-02 -9.063521e+00 4.686730e+00 7.626083e+01 -3.257254e+00 -1.824834e+00 -3.837005e+00 -2.499143e+00 -1.280942e+00 -1.534394e+00 -2.241828e+00 -3.044318e-01 -4.185885e-01 -1.106000e+00 -3.707268e-01 -1.376635e+00 -2.814893e+00 2.070893e-01 6.465584e-02 -1.199034e-01 -7.702907e-01 -4.781645e-01 -6.196675e-01 -7.209049e-01 -9.559141e-01 -6.609889e-01 2.675146e-03 -7.288316e-02 -4.216801e-02 3.465167e-01
<VARIANCE> 39
 9.202739e+01 1.277956e+02 2.362295e+02 2.619850e+02 2.210452e+02 2.712762e+02 3.342065e+02 3.452198e+02 3.490286e+02 3.479496e+02 2.829214e+02 2.462095e+02 1.431102e+02 7.340654e+00 1.013154e+01 1.158130e+01 1.380833e+01 1.188956e+01 1.619102e+01 1.632031e+01 1.909046e+01 1.876590e+01 1.589293e+01 1.651183e+01 1.459366e+01 5.363148e+00 8.963531e-01 1.639332e+00 2.238196e+00 2.673637e+00 2.427474e+00 3.220328e+00 3.284646e+00 3.576560e+00 3.443979e+00 2.977201e+00 2.930335e+00 2.662763e+00 7.100174e-01
<GCONST> 1.865436e+02
<MIXTURE> 6 9.838627e-02
<MEAN> 39
 -1.073142e+01 4.863469e+00 1.461537e+01 1.580299e+01 6.397423e+00 1.038631e+01 1.346776e+01 5.925627e+00 -2.175859e+00 4.686950e+00 -5.332258e+00 1.574853e+00 8.379357e+01 -9.087055e+00 -4.253870e+00 -7.659327e+00 -5.149819e+00 -2.898392e+00 -4.015523e+00 -5.970116e+00 1.409720e-01 -1.528343e+00 -1.689680e+00 9.056907e-01 -1.673150e+00 -2.032362e+00 6.803299e-01 -2.873557e-01 1.335419e-01 -7.403580e-01 -1.534707e+00 -1.000838e+00 -7.101757e-01 -1.543638e+00 -2.400570e-01 -3.154798e-01 -2.314848e-01 9.008876e-01 1.289472e+00
<VARIANCE> 39
 1.179106e+02 1.650818e+02 1.405567e+02 1.759976e+02 1.957880e+02 2.017688e+02 2.557879e+02 2.991868e+02 2.223937e+02 2.628637e+02 1.966595e+02 1.736042e+02 3.396826e+02 2.982360e+01 1.706364e+01 1.836076e+01 1.831676e+01 2.135706e+01 2.306997e+01 2.630650e+01 3.151284e+01 3.020562e+01 2.568317e+01 3.028231e+01 2.626494e+01 2.254572e+01 2.479581e+00 3.774176e+00 2.872332e+00 3.634462e+00 4.514174e+00 4.398856e+00 5.049774e+00 5.266578e+00 5.022042e+00 5.094685e+00 5.144012e+00 4.755628e+00 4.858440e+00
<GCONST> 2.010313e+02
<MIXTURE> 7 1.034511e-01
<MEAN> 39
 1.556425e+01 -2.342431e+01 2.648937e+01 -1.177658e+01 6.355968e+00 -9.762516e+00 -9.365044e+00 1.897443e+01 1.857563e+00 1.152081e+01 -7.926718e+00 7.143015e+00 1.365799e+02 -1.067249e+00 -6.809515e+00 -6.226198e+00 -7.991942e+00 2.815766e+00 -5.473671e-01 -5.054295e+00 7.535792e+00 2.892440e+00 -1.012422e+00 1.460105e+00 -1.770524e+00 6.761065e+00 2.846494e-01 1.050871e+00 -5.858721e-01 1.779295e+00 -7.032024e-01 1.904986e+00 1.644555e+00 -2.236266e+00 -6.189790e-02 -4.689192e-01 3.074856e-01 -4.862070e-01 -1.451213e+00
<VARIANCE> 39
 5.672178e+01 1.748338e+02 2.147565e+02 3.048216e+02 2.751211e+02 3.452657e+02 6.834290e+02 3.611786e+02 3.014970e+02 4.574388e+02 3.241013e+02 3.442207e+02 1.554036e+02 4.454599e+00 1.477796e+01 1.522710e+01 2.735013e+01 3.168174e+01 3.467391e+01 4.628268e+01 4.346254e+01 5.036244e+01 2.797846e+01 2.981363e+01 2.804773e+01 1.039025e+01 6.204100e-01 2.028908e+00 2.508502e+00 4.407695e+00 3.542818e+00 5.694614e+00 7.994410e+00 6.235786e+00 4.716826e+00 3.668445e+00 3.610615e+00 3.187194e+00 1.542009e+00
<GCONST> 2.007706e+02
<MIXTURE> 8 6.535115e-02
<MEAN> 39
 4.400724e+00 -1.233214e+01 2.435846e+01 -4.492919e+00 -1.035460e+00 -1.555129e+01 1.118039e+00 1.450696e+01 -1.660892e+00 -5.321777e-01 -5.975537e+00 9.628620e+00 1.114828e+02 -3.091165e+00 -3.953742e+00 -5.236599e+00 -5.535900e+00 -1.416174e-01 -3.973426e+00 -3.929062e+00 5.717113e+00 1.513995e+00 -1.584924e+00 3.764736e-01 -2.744529e+00 1.146829e+00 4.793188e-02 8.714782e-01 -8.197843e-01 1.562804e+00 -1.468213e-01 2.025804e+00 8.633055e-01 -1.593680e+00 3.271174e-01 1.432744e-01 -2.951311e-01 -6.015479e-01 -1.461614e+00
<VARIANCE> 39
 1.542624e+02 1.479337e+02 3.276525e+02 2.770854e+02 2.855401e+02 3.321096e+02 5.073299e+02 3.827327e+02 3.712067e+02 4.403871e+02 3.539481e+02 3.196554e+02 4.748208e+02 1.099739e+01 2.742577e+01 2.241013e+01 3.473414e+01 3.538781e+01 4.536141e+01 4.151908e+01 5.862443e+01 4.879387e+01 3.548355e+01 3.522634e+01 4.307762e+01 4.731623e+01 1.964085e+00 2.810368e+00 4.598994e+00 4.402671e+00 4.613079e+00 5.980808e+00 6.820806e+00 6.829754e+00 5.757318e+00 5.275106e+00 5.076250e+00 4.900039e+00 2.961362e+00
<GCONST> 2.123401e+02
<TRANSP> 5
 0.000000e+00 1.000000e+00 0.000000e+00 0.000000e+00 0.000000e+00
 0.000000e+00 6.351728e-01 3.648271e-01 0.000000e+00 0.000000e+00
 0.000000e+00 0.000000e+00 6.272689e-01 3.727312e-01 0.000000e+00
 0.000000e+00 0.000000e+00 0.000000e+00 6.806797e-01 3.193203e-01
 0.000000e+00 0.000000e+00 0.000000e+00 0.000000e+00 0.000000e+00
<ENDHMM>
~h "r"
<BEGINHMM>
<NUMSTATES> 5
<STATE> 2
<NUMMIXES> 8
<MIXTURE> 1 1.386123e-01
<MEAN> 39
 3.846704e+01 -1.706421e+01 -1.036078e+01 1.728471e+00 2.854587e+01 -3.106316e+01 -2.699682e+01 3.315872e+00 -4.796927e+00 1.023866e+01 1.280553e+00 1.023821e+01 1.271391e+02 5.988989e-01 -1.744543e-01 -2.289088e+00 -1.295105e+00 1.217027e-01 2.299610e-01 1.716607e-01 6.203586e-01 8.252638e-01 9.703097e-01 8.751503e-01 6.630605e-01 5.239062e-02 -6.857393e-01 -3.071888e-01 1.493170e+00 -1.972410e-02 -1.386792e+00 -2.864563e-01 1.251941e+00 6.683725e-01 -5.026642e-01 -2.836658e-01 3.411403e-01 9.130484e-02 3.328798e-01
<VARIANCE> 39
 5.295329e+01 1.576775e+02 3.693246e+02 2.434012e+02 3.665699e+02 7.380094e+02 1.066266e+03 3.908511e+02 3.316289e+02 2.949735e+02 2.296419e+02 1.743121e+02 1.542585e+02 2.115842e+00 3.984990e+00 9.409765e+00 8.522256e+00 1.032043e+01 1.304962e+01 1.125454e+01 1.189017e+01 1.212716e+01 8.867064e+00 9.954059e+00 9.582961e+00 2.505193e+00 2.429783e-01 5.178933e-01 7.545196e-01 8.739542e-01 1.158375e+00 2.016647e+00 1.618001e+00 1.777382e+00 1.652188e+00 1.478134e+00 1.536994e+00 1.406810e+00 2.793624e-01
<GCONST> 1.709632e+02
<MIXTURE> 2 1.080084e-01
<MEAN> 39
 3.990063e+01 -7.535298e+00 -1.692494e+01 -2.021372e+00 2.891825e+01 -9.827004e+00 -2.700914e+01 -4.654099e+00 -1.190340e+01 6.449189e+00 3.691108e+00 1.028277e+01 1.211317e+02 3.947458e-01 -5.684469e-01 -1.667772e+00 1.164655e+00 2.109988e+00 -1.404607e+00 -8.167419e-01 -2.472460e-01 1.956540e+00 1.496051e+00 2.025525e-01 1.419746e-01 -3.708502e-01 -1.453738e+00 -4.839785e-01 2.403589e+00 6.845316e-01 -2.044984e+00 -1.032339e+00 1.305679e+00 1.387056e+00 4.281437e-01 -3.663325e-01 -3.739794e-01 -5.162686e-03 2.743580e-01
<VARIANCE> 39
 6.460030e+01 1.637195e+02 4.623088e+02 3.949727e+02 4.051591e+02 8.170886e+02 7.384953e+02 4.179485e+02 3.257621e+02 3.767487e+02 2.778187e+02 2.461454e+02 1.470038e+02 6.222581e+00 1.182562e+01 2.167536e+01 2.216145e+01 2.012511e+01 4.400763e+01 2.719001e+01 2.781268e+01 2.410680e+01 2.036609e+01 1.880984e+01 1.780133e+01 1.024730e+01 1.376481e+00 1.933470e+00 2.591652e+00 3.020985e+00 3.897063e+00 6.516102e+00 5.832026e+00 4.216641e+00 4.533338e+00 3.649292e+00 3.471259e+00 3.214540e+00 1.539362e+00
<GCONST> 1.995976e+02
<MIXTURE> 3 1.488163e-01
<MEAN> 39
 3.395903e+01 -2.334665e+01 5.626742e+00 7.028129e+00 2.097061e+01 -2.952220e+01 -3.408289e+01 7.854984e+00 -7.373998e+00 2.508171e+00 2.495194e+00 6.658865e+00 1.316848e+02 1.870519e+00 5.032650e-01 -5.140037e+00 -2.004025e+00 2.383872e+00 1.511912e+00 -1.606999e+00 -1.158286e+00 1.178704e+00 1.992261e+00 9.382596e-01 4.211168e-01 -5.322351e-01 -6.627374e-01 2.919779e-02 1.330709e+00 -5.174839e-01 -1.384728e+00 3.231567e-01 1.260757e+00 -1.068574e-02 -6.657124e-01 2.238717e-01 1.944603e-01 1.735719e-01 3.061270e-01
<VARIANCE> 39
 6.222279e+01 1.647664e+02 3.947125e+02 2.742635e+02 3.781573e+02 8.162927e+02 1.150363e+03 3.699007e+02 3.105295e+02 4.218483e+02 2.521646e+02 1.744427e+02 1.708569e+02 3.098945e+00 3.865436e+00 1.389617e+01 8.331941e+00 1.419687e+01 1.276393e+01 1.371420e+01 1.504810e+01 1.242475e+01 1.098343e+01 1.027197e+01 1.029731e+01 2.375361e+00 2.693294e-01 5.680934e-01 8.035185e-01 1.161901e+00 1.255407e+00 2.391882e+00 1.790948e+00 2.207682e+00 1.839727e+00 1.760526e+00 1.671069e+00 1.487074e+00 2.757509e-01
<GCONST> 1.752535e+02
<MIXTURE> 4 1.044396e-01
<MEAN> 39
 3.866866e+01 -1.793779e+01 -6.099539e+00 1.871092e+00 2.818575e+01 -9.731249e+00 -3.488180e+01 -4.052841e+00 -8.452686e+00 7.086209e+00 1.921859e+00 4.405187e+00 1.272686e+02 -6.459163e-01 -3.534347e+00 2.923892e+00 3.450347e+00 2.341061e-01 -6.332019e+00 -3.132339e+00 4.324408e+00 2.633235e+00 -3.253250e-01 -8.025053e-01 -7.593946e-01 2.004471e+00 -1.942095e+00 3.017861e-01 2.681156e+00 5.026934e-01 -2.736759e+00 -8.668696e-01 2.592289e+00 1.726502e+00 -4.060012e-01 -9.661595e-01 -3.647902e-01 4.526237e-01 -1.345873e-01
<VARIANCE> 39
 6.029012e+01 1.536392e+02 3.788247e+02 4.035638e+02 4.350587e+02 7.188289e+02 9.725550e+02 4.232234e+02 3.284439e+02 5.013259e+02 2.882970e+02 2.475756e+02 1.350010e+02 6.983838e+00 7.848152e+00 1.811348e+01 2.298088e+01 1.887531e+01 3.081695e+01 2.647988e+01 2.912215e+01 2.835334e+01 2.444498e+01 1.847434e+01 1.877131e+01 7.899515e+00 2.642933e+00 1.984868e+00 2.938729e+00 2.983783e+00 4.175284e+00 5.392821e+00 6.261770e+00 4.198587e+00 4.559560e+00 4.833108e+00 3.979658e+00 3.890097e+00 1.004261e+00
<GCONST> 1.999763e+02
<MIXTURE> 5 1.465786e-01
<MEAN> 39
 3.248621e+01 -2.436896e+01 8.200280e+00 6.798062e+00 2.043486e+01 -2.836716e+01 -3.535162e+01 8.099295e+00 -9.160027e+00 3.946104e-01 2.096902e+00 4.264966e+00 1.311781e+02 1.869803e+00 3.676010e-01 -4.952772e+00 -2.145668e+00 2.474869e+00 1.289760e+00 -2.009154e+00 -1.381967e+00 9.531981e-01 1.777230e+00 5.941433e-01 6.833220e-02 -4.737433e-01 -6.650451e-01 3.159776e-02 1.241376e+00 -5.018398e-01 -1.416461e+00 3.474956e-01 1.071845e+00 1.154084e-02 -6.773012e-01 2.655403e-01 1.056376e-01 2.442397e-02 3.117071e-01
<VARIANCE> 39
 6.240139e+01 1.563497e+02 4.177521e+02 2.983802e+02 3.694715e+02 8.560623e+02 1.147708e+03 3.671446e+02 3.016722e+02 4.451464e+02 2.651790e+02 1.788458e+02 1.629679e+02 3.123701e+00 3.940472e+00 1.380830e+01 8.528113e+00 1.391002e+01 1.280324e+01 1.358649e+01 1.518698e+01 1.210868e+01 1.113609e+01 1.005401e+01 9.995095e+00 2.410681e+00 2.779972e-01 5.680381e-01 7.880269e-01 1.185188e+00 1.256651e+00 2.389648e+00 1.871076e+00 2.251719e+00 1.815437e+00 1.744061e+00 1.682626e+00 1.446998e+00 2.935094e-01
<GCONST> 1.755053e+02
<MIXTURE> 6 1.410819e-01
<MEAN> 39
 3.721250e+01 -1.840354e+01 -8.784353e+00 1.043727e+00 2.702399e+01 -3.005535e+01 -2.740129e+01 2.740332e+00 -6.351949e+00 9.236151e+00 1.088389e+00 8.136553e+00 1.269575e+02 5.357031e-01 -2.848321e-01 -2.118313e+00 -1.317560e+00 1.755016e-01 3.923303e-02 -1.469873e-01 3.938763e-01 6.154115e-01 7.551920e-01 5.232201e-01 2.251399e-01 6.497979e-02 -6.841734e-01 -3.129575e-01 1.434358e+00 -3.719825e-02 -1.388356e+00 -2.632771e-01 1.063142e+00 6.592040e-01 -4.565549e-01 -3.023825e-01 1.948802e-01 -2.350870e-02 3.187562e-01
<VARIANCE> 39
 5.551770e+01 1.653062e+02 4.018124e+02 2.725215e+02 3.700855e+02 8.043625e+02 1.071748e+03 4.050288e+02 3.272662e+02 3.093279e+02 2.321017e+02 1.766652e+02 1.475054e+02 2.162904e+00 4.021866e+00 9.314966e+00 8.491014e+00 1.003523e+01 1.326305e+01 1.145303e+01 1.214836e+01 1.202263e+01 8.860217e+00 9.944709e+00 9.431919e+00 2.551022e+00 2.535139e-01 5.216802e-01 7.523057e-01 9.166941e-01 1.127857e+00 1.960342e+00 1.661235e+00 1.812871e+00 1.621890e+00 1.495148e+00 1.517627e+00 1.387271e+00 2.861590e-01
<GCONST> 1.715174e+02
<MIXTURE> 7 1.088610e-01
<MEAN> 39
 3.857964e+01 -8.520618e+00 -1.540691e+01 -2.870044e+00 2.849352e+01 -6.473808e+00 -3.079117e+01 -6.495436e+00 -1.335114e+01 4.470679e+00 3.026442e+00 7.940035e+00 1.202009e+02 2.373116e-01 -6.024538e-01 -1.732920e+00 7.401332e-01 1.669713e+00 -1.273287e+00 -1.360681e+00 -5.787597e-01 1.417445e+00 1.258548e+00 -2.781823e-01 -3.204618e-01 -3.455118e-01 -1.432463e+00 -5.954203e-01 2.215882e+00 6.686679e-01 -2.088522e+00 -1.131757e+00 9.935349e-01 1.392118e+00 4.739715e-01 -4.968864e-01 -3.820860e-01 -9.921370e-02 2.548280e-01
<VARIANCE> 39
 6.661340e+01 1.808817e+02 4.885619e+02 4.346244e+02 4.135112e+02 7.974434e+02 7.433242e+02 4.146507e+02 3.244212e+02 4.003548e+02 2.751305e+02 2.531703e+02 1.577322e+02 6.691075e+00 1.186828e+01 2.265100e+01 2.296711e+01 1.978158e+01 3.903564e+01 2.639258e+01 2.691958e+01 2.381795e+01 2.022159e+01 1.894231e+01 1.754999e+01 1.053733e+01 1.510207e+00 1.931796e+00 2.455615e+00 3.088334e+00 3.711309e+00 5.944986e+00 6.226594e+00 4.139679e+00 4.462612e+00 3.682802e+00 3.456365e+00 3.284640e+00 1.620821e+00
<GCONST> 2.000057e+02
<MIXTURE> 8 1.035719e-01
<MEAN> 39
 3.697063e+01 -2.008498e+01 -3.580564e+00 2.071583e+00 2.733131e+01 -9.537772e+00 -3.771683e+01 -4.739628e+00 -9.733982e+00 6.397549e+00 1.200554e+00 2.074037e+00 1.268626e+02 -7.941916e-01 -3.796756e+00 3.287219e+00 3.342335e+00 -1.208586e-01 -6.660953e+00 -3.673464e+00 4.371552e+00 2.209884e+00 -7.656603e-01 -1.356293e+00 -1.395348e+00 2.199335e+00 -1.985097e+00 2.796967e-01 2.494351e+00 3.573971e-01 -2.814110e+00 -9.173284e-01 2.576910e+00 1.664007e+00 -4.541240e-01 -1.021463e+00 -4.208453e-01 4.307299e-01 -2.482224e-01
<VARIANCE> 39
 6.315075e+01 1.512958e+02 3.921165e+02 4.213236e+02 4.250811e+02 7.034232e+02 1.010281e+03 4.368010e+02 3.450903e+02 5.293499e+02 2.871450e+02 2.502012e+02 1.391702e+02 7.396617e+00 7.655143e+00 1.837671e+01 2.318235e+01 1.852847e+01 2.907515e+01 2.559957e+01 2.845964e+01 3.037073e+01 2.425808e+01 1.865543e+01 1.911955e+01 8.353647e+00 3.142680e+00 1.958419e+00 2.767373e+00 3.081666e+00 4.029169e+00 5.330621e+00 6.339115e+00 4.079180e+00 4.461066e+00 4.935115e+00 3.991329e+00 3.917343e+00 1.049497e+00
<GCONST> 2.004388e+02
<STATE> 3
<NUMMIXES> 8
<MIXTURE> 1 2.041980e-01
<MEAN> 39
 3.639025e+01 -2.293440e+01 -5.909117e+00 -1.071984e+00 1.772456e+01 -3.084933e+01 -2.562855e+01 1.277707e+01 -6.062002e+00 8.845732e+00 6.188264e+00 1.343221e+01 1.311572e+02 -1.271139e+00 -1.144206e+00 1.784518e+00 -1.304627e+00 -3.886617e+00 -8.243973e-01 4.159556e+00 2.708104e+00 -1.003227e+00 2.921951e-01 2.282589e+00 5.588112e-01 9.919837e-01 -4.635928e-01 4.654592e-01 9.301656e-01 -3.408564e-01 -6.402526e-01 1.056438e+00 1.280601e+00 -8.154199e-01 -7.356447e-01 3.639535e-01 2.011263e-01 -7.065899e-01 -1.980404e-01
<VARIANCE> 39
