~o
<STREAMINFO> 1 39
<VECSIZE> 39<NULLD><MFCC_D_A_0><DIAGC>
~v "varFloor1"
<VARIANCE> 39
 6.753474e+00 3.412362e+00 5.607597e+00 4.796462e+00 3.472081e+00 4.011722e+00 4.412065e+00 3.618229e+00 3.682593e+00 3.039560e+00 2.639483e+00 2.510356e+00 1.295583e+01 2.277723e-01 1.546074e-01 2.184501e-01 2.118108e-01 1.813343e-01 2.097883e-01 2.257618e-01 2.166374e-01 2.009357e-01 1.748309e-01 1.664689e-01 1.534765e-01 2.729284e-01 3.005151e-02 2.352162e-02 2.950290e-02 3.333734e-02 2.970534e-02 3.528604e-02 3.796648e-02 3.764385e-02 3.477007e-02 3.067227e-02 2.924742e-02 2.697526e-02 3.680371e-02
~s "silst"
<NUMMIXES> 2
<MIXTURE> 1 5.000000e-01
<MEAN> 39
 -2.401674e+01 5.866190e+00 2.235487e-01 4.187427e+00 -1.577934e+00 -1.098468e+00 -2.452863e+00 5.977108e-01 3.099147e-01 3.248744e+00 2.992959e+00 4.305475e+00 4.892257e+01 9.134531e-03 2.883400e-01 4.033293e-01 3.784695e-01 4.062940e-01 4.440744e-01 4.008443e-01 4.128820e-01 5.553012e-01 6.965196e-01 6.968409e-01 6.198003e-01 1.876055e-02 1.974325e-01 6.184499e-02 1.776368e-01 2.185665e-01 2.481173e-01 2.763619e-01 3.446290e-01 3.522132e-01 2.754977e-01 2.586989e-01 1.934096e-01 2.254826e-01 2.455150e-01
<VARIANCE> 39
 2.944291e+01 2.898862e+01 3.713689e+01 4.994336e+01 6.793115e+01 8.836432e+01 1.045618e+02 1.054122e+02 9.781425e+01 9.145125e+01 8.874011e+01 7.975568e+01 1.515442e+01 1.335711e+00 1.979888e+00 3.190624e+00 4.442643e+00 5.717434e+00 7.031759e+00 8.416834e+00 9.200296e+00 9.264509e+00 9.216018e+00 9.013237e+00 8.155129e+00 6.777253e-01 2.602494e-01 4.220306e-01 6.527631e-01 9.021503e-01 1.156155e+00 1.416815e+00 1.666979e+00 1.827008e+00 1.847889e+00 1.841393e+00 1.810251e+00 1.637114e+00 1.739555e-01
<GCONST> 1.440953e+02
<MIXTURE> 2 5.000000e-01
<MEAN> 39
 -2.618720e+01 3.712546e+00 -2.214053e+00 1.360602e+00 -4.874748e+00 -4.858560e+00 -6.543081e+00 -3.509107e+00 -3.646129e+00 -5.764619e-01 -7.751194e-01 7.332335e-01 4.736543e+01 -4.531573e-01 -2.744939e-01 -3.111635e-01 -4.646337e-01 -5.501522e-01 -6.166241e-01 -7.596269e-01 -8.003976e-01 -6.622050e-01 -5.177962e-01 -5.040413e-01 -5.224872e-01 -3.105357e-01 -6.626137e-03 -1.980105e-01 -1.455382e-01 -1.613599e-01 -1.819813e-01 -1.997583e-01 -1.718172e-01 -1.884543e-01 -2.682506e-01 -2.840929e-01 -3.447727e-01 -2.863164e-01 7.868306e-02
<VARIANCE> 39
 2.944291e+01 2.898862e+01 3.713689e+01 4.994336e+01 6.793115e+01 8.836432e+01 1.045618e+02 1.054122e+02 9.781425e+01 9.145125e+01 8.874011e+01 7.975568e+01 1.515442e+01 1.335711e+00 1.979888e+00 3.190624e+00 4.442643e+00 5.717434e+00 7.031759e+00 8.416834e+00 9.200296e+00 9.264509e+00 9.216018e+00 9.013237e+00 8.155129e+00 6.777253e-01 2.602494e-01 4.220306e-01 6.527631e-01 9.021503e-01 1.156155e+00 1.416815e+00 1.666979e+00 1.827008e+00 1.847889e+00 1.841393e+00 1.810251e+00 1.637114e+00 1.739555e-01
<GCONST> 1.440953e+02
~h "f"
<BEGINHMM>
<NUMSTATES> 5
<STATE> 2
<NUMMIXES> 2
<MIXTURE> 1 5.000000e-01
<MEAN> 39
 -2.923581e+01 -1.159427e+01 1.792534e+00 5.734269e+00 3.822694e-01 2.316967e+00 -3.870408e+00 3.260553e+00 -2.380746e+00 6.254322e+00 -1.272693e+00 4.823063e+00 9.459785e+01 -1.194574e+00 -8.996107e-01 -5.750675e-01 2.180992e-01 3.768969e-02 4.349171e-01 -1.414436e-01 2.830182e-01 4.287722e-01 5.392795e-01 5.973874e-01 5.182018e-01 1.465643e+00 1.781467e+00 7.258308e-01 5.650656e-01 1.118163e-01 4.452803e-01 3.697161e-01 6.224506e-01 3.013384e-01 2.781283e-01 4.186018e-01 2.965023e-01 3.476035e-01 9.480646e-01
<VARIANCE> 39
 1.622180e+02 1.221270e+02 9.637263e+01 9.978115e+01 1.138850e+02 1.261762e+02 1.379128e+02 1.348943e+02 1.341712e+02 1.238550e+02 1.181570e+02 1.071498e+02 3.192809e+02 2.350443e+01 1.154084e+01 1.114173e+01 1.488401e+01 1.277622e+01 1.330722e+01 1.450114e+01 1.409855e+01 1.413951e+01 1.314061e+01 1.250847e+01 1.163191e+01 2.023779e+01 3.547721e+00 2.197740e+00 2.158814e+00 2.995407e+00 2.494483e+00 2.815054e+00 3.036856e+00 3.048992e+00 3.102048e+00 2.805423e+00 2.651730e+00 2.385373e+00 3.063241e+00
<GCONST> 1.826823e+02
<MIXTURE> 2 5.000000e-01
<MEAN> 39
 -3.433041e+01 -1.601471e+01 -2.134249e+00 1.738649e+00 -3.886407e+00 -2.176160e+00 -8.567860e+00 -1.385207e+00 -7.014038e+00 1.802715e+00 -5.620695e+00 6.825352e-01 8.745049e+01 -3.133828e+00 -2.258483e+00 -1.910237e+00 -1.325093e+00 -1.392064e+00 -1.024246e+00 -1.664658e+00 -1.218903e+00 -1.075329e+00 -9.107197e-01 -8.173052e-01 -8.460217e-01 -3.338146e-01 1.028051e+00 1.328398e-01 -2.265045e-02 -5.804735e-01 -1.864771e-01 -3.014088e-01 -7.461244e-02 -3.971161e-01 -4.263770e-01 -2.513741e-01 -3.548631e-01 -2.701826e-01 2.479799e-01
<VARIANCE> 39
 1.622180e+02 1.221270e+02 9.637263e+01 9.978115e+01 1.138850e+02 1.261762e+02 1.379128e+02 1.348943e+02 1.341712e+02 1.238550e+02 1.181570e+02 1.071498e+02 3.192809e+02 2.350443e+01 1.154084e+01 1.114173e+01 1.488401e+01 1.277622e+01 1.330722e+01 1.450114e+01 1.409855e+01 1.413951e+01 1.314061e+01 1.250847e+01 1.163191e+01 2.023779e+01 3.547721e+00 2.197740e+00 2.158814e+00 2.995407e+00 2.494483e+00 2.815054e+00 3.036856e+00 3.048992e+00 3.102048e+00 2.805423e+00 2.651730e+00 2.385373e+00 3.063241e+00
<GCONST> 1.826823e+02
<STATE> 3
<NUMMIXES> 2
<MIXTURE> 1 5.000000e-01
<MEAN> 39
 -2.647597e+01 -1.562481e+01 -1.815138e+00 1.674284e+00 -1.023533e+00 1.199068e+00 -5.664796e+00 6.407654e-01 -4.161009e+00 5.525470e+00 -2.261344e+00 4.623671e+00 1.044417e+02 1.182731e+01 3.279713e+00 1.475993e+00 -2.521380e+00 1.068688e+00 1.751807e+00 2.562215e+00 1.155248e+00 1.405600e+00 2.136168e+00 1.235081e+00 5.802722e-01 6.827908e+00 4.053070e+00 1.547629e+00 1.004860e+00 -1.946899e+00 -1.341781e-01 6.872962e-01 1.023698e+00 8.327422e-01 4.473564e-01 1.087640e+00 6.413624e-01 1.290550e-01 1.489293e+00
<VARIANCE> 39
 1.320671e+02 7.053302e+01 6.355087e+01 7.151077e+01 8.548331e+01 9.597868e+01 1.021694e+02 1.040374e+02 1.122581e+02 1.063715e+02 9.856810e+01 8.879433e+01 2.046473e+02 3.755809e+01 1.932849e+01 1.133854e+01 2.147550e+01 1.481054e+01 1.325626e+01 1.467247e+01 1.526854e+01 1.934153e+01 1.749535e+01 1.954243e+01 1.290318e+01 3.424140e+01 3.076443e+00 4.415499e+00 2.867950e+00 3.887439e+00 4.114592e+00 3.272172e+00 3.668291e+00 3.588811e+00 4.370451e+00 3.758427e+00 4.468551e+00 3.177876e+00 4.636655e+00
<GCONST> 1.861540e+02
<MIXTURE> 2 5.000000e-01
<MEAN> 39
 -3.107279e+01 -1.898417e+01 -5.003890e+00 -1.708278e+00 -4.721821e+00 -2.719680e+00 -9.707951e+00 -3.439183e+00 -8.399086e+00 1.400008e+00 -6.232604e+00 8.544413e-01 9.871950e+01 9.375927e+00 1.521145e+00 1.290827e-01 -4.375046e+00 -4.706903e-01 2.954410e-01 1.030029e+00 -4.077510e-01 -3.535603e-01 4.630701e-01 -5.331916e-01 -8.565677e-01 4.487261e+00 3.351478e+00 7.071052e-01 3.274586e-01 -2.735563e+00 -9.455564e-01 -3.626961e-02 2.575864e-01 7.497585e-02 -3.888686e-01 3.121733e-01 -2.041956e-01 -5.840090e-01 6.279771e-01
<VARIANCE> 39
 1.320671e+02 7.053302e+01 6.355087e+01 7.151077e+01 8.548331e+01 9.597868e+01 1.021694e+02 1.040374e+02 1.122581e+02 1.063715e+02 9.856810e+01 8.879433e+01 2.046473e+02 3.755809e+01 1.932849e+01 1.133854e+01 2.147550e+01 1.481054e+01 1.325626e+01 1.467247e+01 1.526854e+01 1.934153e+01 1.749535e+01 1.954243e+01 1.290318e+01 3.424140e+01 3.076443e+00 4.415499e+00 2.867950e+00 3.887439e+00 4.114592e+00 3.272172e+00 3.668291e+00 3.588811e+00 4.370451e+00 3.758427e+00 4.468551e+00 3.177876e+00 4.636655e+00
<GCONST> 1.861540e+02
<STATE> 4
<NUMMIXES> 2
<MIXTURE> 1 5.000000e-01
<MEAN> 39
 1.994803e+01 -9.835005e+00 8.723149e-01 -1.703541e+01 1.703636e+00 8.195942e+00 3.367891e+00 3.012805e+00 2.014997e+00 1.790714e+01 6.316672e+00 1.952169e+00 1.303288e+02 1.207931e+01 2.172207e-01 9.277144e-01 -7.613180e+00 6.714145e-01 2.805006e+00 2.947803e+00 2.021606e+00 1.925786e+00 3.633760e+00 2.303199e+00 1.025746e-01 9.595311e+00 -2.809313e+00 -3.724515e-01 2.143012e-01 1.123181e+00 2.309498e-01 2.463595e-01 -1.035325e-01 6.598397e-01 4.066244e-01 -2.521597e-01 -2.161557e-01 4.075775e-01 -8.078289e-01
<VARIANCE> 39
 2.243540e+02 2.503854e+02 1.539510e+02 4.437981e+02 2.424800e+02 1.990281e+02 2.010214e+02 2.199035e+02 3.939226e+02 2.893311e+02 4.311018e+02 1.973797e+02 4.279034e+02 5.911298e+01 4.803007e+01 2.613730e+01 3.405191e+01 3.666648e+01 2.350527e+01 2.621555e+01 2.653483e+01 3.866191e+01 2.912721e+01 4.080439e+01 2.563199e+01 2.545314e+01 5.443847e+00 2.811730e+00 2.139318e+00 7.530067e+00 3.750694e+00 3.003256e+00 3.349922e+00 3.094115e+00 5.519505e+00 4.444139e+00 5.143685e+00 3.279144e+00 5.259433e+00
<GCONST> 2.074959e+02
<MIXTURE> 2 5.000000e-01
<MEAN> 39
 1.395665e+01 -1.616443e+01 -4.090765e+00 -2.546201e+01 -4.525072e+00 2.552849e+00 -2.303389e+00 -2.918852e+00 -5.923997e+00 1.110324e+01 -1.988524e+00 -3.667507e+00 1.220544e+02 9.003910e+00 -2.554929e+00 -1.117272e+00 -9.947340e+00 -1.750700e+00 8.657163e-01 8.997575e-01 -3.887308e-02 -5.613621e-01 1.474974e+00 -2.519333e-01 -1.922547e+00 7.577267e+00 -3.742595e+00 -1.043180e+00 -3.707551e-01 2.554202e-02 -5.437186e-01 -4.468367e-01 -8.356441e-01 -4.376414e-02 -5.331206e-01 -1.095405e+00 -1.123343e+00 -3.167588e-01 -1.725167e+00
<VARIANCE> 39
 2.243540e+02 2.503854e+02 1.539510e+02 4.437981e+02 2.424800e+02 1.990281e+02 2.010214e+02 2.199035e+02 3.939226e+02 2.893311e+02 4.311018e+02 1.973797e+02 4.279034e+02 5.911298e+01 4.803007e+01 2.613730e+01 3.405191e+01 3.666648e+01 2.350527e+01 2.621555e+01 2.653483e+01 3.866191e+01 2.912721e+01 4.080439e+01 2.563199e+01 2.545314e+01 5.443847e+00 2.811730e+00 2.139318e+00 7.530067e+00 3.750694e+00 3.003256e+00 3.349922e+00 3.094115e+00 5.519505e+00 4.444139e+00 5.143685e+00 3.279144e+00 5.259433e+00
<GCONST> 2.074959e+02
<TRANSP> 5
 0.000000e+00 1.000000e+00 0.000000e+00 0.000000e+00 0.000000e+00
 0.000000e+00 8.590885e-01 1.409115e-01 0.000000e+00 0.000000e+00
 0.000000e+00 0.000000e+00 6.399080e-01 3.600920e-01 0.000000e+00
 0.000000e+00 0.000000e+00 0.000000e+00 5.457212e-01 4.542789e-01
 0.000000e+00 0.000000e+00 0.000000e+00 0.000000e+00 0.000000e+00
<ENDHMM>
~h "k"
<BEGINHMM>
<NUMSTATES> 5
<STATE> 2
<NUMMIXES> 2
<MIXTURE> 1 5.000000e-01
<MEAN> 39
 -5.147824e+00 1.311711e+01 3.026280e+01 2.852420e+01 1.686266e+00 -1.039689e+01 5.218060e+00 1.810548e+00 -1.437362e+01 8.877497e-01 1.919926e+00 4.772606e+00 7.585181e+01 -5.048174e+00 3.519949e+00 -8.797667e+00 3.776765e-02 4.510245e+00 6.955478e+00 -2.229128e+00 1.836993e+00 5.185851e+00 -7.992150e-01 1.003183e+00 4.443187e-02 -1.094703e+01 1.424648e-01 -2.614728e+00 -5.412294e-01 -2.540636e+00 -5.769055e-01 -5.508854e-01 -3.028162e-01 6.416169e-01 1.500922e+00 1.516639e+00 2.100363e-01 1.033654e+00 5.479971e+00
<VARIANCE> 39
 1.306858e+02 2.061980e+02 2.691444e+02 1.981230e+02 3.050572e+02 3.708829e+02 3.868434e+02 4.781191e+02 3.227045e+02 2.673597e+02 2.010121e+02 1.583866e+02 3.447988e+02 1.082742e+01 4.587902e+01 2.449486e+01 4.212241e+01 3.026107e+01 3.898097e+01 5.604568e+01 7.208739e+01 5.292919e+01 3.535557e+01 2.362356e+01 2.276037e+01 6.412640e+01 3.429505e+00 5.885943e+00 5.479407e+00 4.838177e+00 5.374667e+00 8.099932e+00 9.035395e+00 8.795642e+00 7.792188e+00 5.613846e+00 4.682274e+00 4.271267e+00 1.243048e+01
<GCONST> 2.143362e+02
<MIXTURE> 2 5.000000e-01
<MEAN> 39
 -9.720540e+00 7.373271e+00 2.370056e+01 2.289396e+01 -5.300088e+00 -1.810021e+01 -2.649274e+00 -6.935826e+00 -2.155922e+01 -5.652706e+00 -3.751224e+00 -2.614639e-01 6.842431e+01 -6.364376e+00 8.105868e-01 -1.077736e+01 -2.558304e+00 2.309843e+00 4.458088e+00 -5.223674e+00 -1.559179e+00 2.275753e+00 -3.177637e+00 -9.409800e-01 -1.863881e+00 -1.415019e+01 -5.982922e-01 -3.585166e+00 -1.477555e+00 -3.420470e+00 -1.504239e+00 -1.689301e+00 -1.505173e+00 -5.446810e-01 3.843427e-01 5.688969e-01 -6.555063e-01 2.069724e-01 4.069695e+00
<VARIANCE> 39
 1.306858e+02 2.061980e+02 2.691444e+02 1.981230e+02 3.050572e+02 3.708829e+02 3.868434e+02 4.781191e+02 3.227045e+02 2.673597e+02 2.010121e+02 1.583866e+02 3.447988e+02 1.082742e+01 4.587902e+01 2.449486e+01 4.212241e+01 3.026107e+01 3.898097e+01 5.604568e+01 7.208739e+01 5.292919e+01 3.535557e+01 2.362356e+01 2.276037e+01 6.412640e+01 3.429505e+00 5.885943e+00 5.479407e+00 4.838177e+00 5.374667e+00 8.099932e+00 9.035395e+00 8.795642e+00 7.792188e+00 5.613846e+00 4.682274e+00 4.271267e+00 1.243048e+01
<GCONST> 2.143362e+02
<STATE> 3
<NUMMIXES> 2
<MIXTURE> 1 5.000000e-01
<MEAN> 39
 -1.630151e+01 -2.951193e+00 -3.235022e+00 9.592535e+00 2.337899e+00 -4.601755e+00 -7.657252e+00 5.971507e-01 -2.176880e+00 4.284235e+00 1.036951e+00 5.199746e+00 7.656049e+01 -6.418600e-01 -3.455421e+00 -4.102001e+00 4.463017e-03 9.140472e-01 -5.690516e-01 -1.123843e+00 2.109283e+00 2.610067e+00 2.122246e+00 1.065394e-01 1.204610e+00 1.106705e+01 -2.439868e-01 1.501642e+00 2.323223e+00 1.405164e+00 -2.254370e-01 -7.137957e-01 1.219907e+00 8.023208e-01 -1.302698e-01 2.085175e-01 1.329145e-01 5.153731e-01 3.269529e+00
<VARIANCE> 39
 1.443519e+02 3.074951e+02 2.374534e+02 1.303703e+02 1.546994e+02 1.654340e+02 1.762704e+02 1.576531e+02 1.350126e+02 1.278672e+02 1.139244e+02 8.773778e+01 7.724754e+02 3.167810e+01 2.791289e+01 2.553543e+01 2.504504e+01 2.209083e+01 2.656528e+01 2.169000e+01 2.110317e+01 2.013374e+01 1.797808e+01 1.533487e+01 1.164489e+01 7.530640e+01 8.751822e+00 8.795116e+00 5.503192e+00 3.511175e+00 4.375201e+00 5.219221e+00 5.117185e+00 4.691499e+00 4.213426e+00 3.875888e+00 2.748462e+00 2.429963e+00 1.930957e+01
<GCONST> 2.011252e+02
<MIXTURE> 2 5.000000e-01
<MEAN> 39
 -2.110737e+01 -9.965408e+00 -9.398831e+00 5.025343e+00 -2.637230e+00 -9.746601e+00 -1.296793e+01 -4.425249e+00 -6.824677e+00 -2.388997e-01 -3.232463e+00 1.453008e+00 6.544312e+01 -2.893192e+00 -5.568727e+00 -6.123305e+00 -1.997338e+00 -9.659880e-01 -2.630713e+00 -2.986743e+00 2.717552e-01 8.152413e-01 4.262236e-01 -1.459851e+00 -1.603740e-01 7.595884e+00 -1.427326e+00 3.153797e-01 1.384867e+00 6.556384e-01 -1.062116e+00 -1.627620e+00 3.150595e-01 -6.407389e-02 -9.513351e-01 -5.789735e-01 -5.302249e-01 -1.081605e-01 1.511823e+00
<VARIANCE> 39
 1.443519e+02 3.074951e+02 2.374534e+02 1.303703e+02 1.546994e+02 1.654340e+02 1.762704e+02 1.576531e+02 1.350126e+02 1.278672e+02 1.139244e+02 8.773778e+01 7.724754e+02 3.167810e+01 2.791289e+01 2.553543e+01 2.504504e+01 2.209083e+01 2.656528e+01 2.169000e+01 2.110317e+01 2.013374e+01 1.797808e+01 1.533487e+01 1.164489e+01 7.530640e+01 8.751822e+00 8.795116e+00 5.503192e+00 3.511175e+00 4.375201e+00 5.219221e+00 5.117185e+00 4.691499e+00 4.213426e+00 3.875888e+00 2.748462e+00 2.429963e+00 1.930957e+01
<GCONST> 2.011252e+02
<STATE> 4
<NUMMIXES> 2
<MIXTURE> 1 5.000000e-01
<MEAN> 39
 -3.821133e+01 -7.686732e+00 -5.092196e+00 1.451045e+01 4.569567e+00 -2.131624e+01 -1.206983e+01 9.142718e+00 3.734168e+00 5.479434e+00 -4.903361e+00 8.097559e+00 1.160288e+02 -9.261195e+00 5.122991e+00 2.773402e+00 5.229077e-01 -1.517689e+00 -1.183721e+00 3.196595e+00 3.527136e+00 1.608373e+00 -8.325311e-01 -1.156055e-01 1.907778e+00 4.130603e+00 1.058680e+00 1.981522e+00 1.070967e+00 -3.345165e-01 2.715298e-01 2.222324e+00 1.628062e+00 8.855957e-02 -5.014800e-01 3.788900e-02 8.354985e-01 2.236970e-01 -3.402014e+00
<VARIANCE> 39
 3.163312e+02 1.138009e+02 1.796654e+02 2.118491e+02 3.934747e+02 2.674397e+02 2.169682e+02 2.032231e+02 1.858227e+02 1.695026e+02 1.686924e+02 1.317065e+02 1.454435e+02 2.980913e+01 1.522609e+01 1.380294e+01 1.541301e+01 2.176164e+01 2.606340e+01 1.702730e+01 1.641043e+01 2.033604e+01 1.499873e+01 1.378069e+01 1.414716e+01 2.631004e+01 6.915264e+00 3.374490e+00 3.237694e+00 2.806221e+00 3.852802e+00 4.040132e+00 3.613281e+00 3.775798e+00 3.697088e+00 3.502900e+00 2.860395e+00 2.457356e+00 4.545844e+00
<GCONST> 1.947743e+02
<MIXTURE> 2 5.000000e-01
<MEAN> 39
 -4.532561e+01 -1.195383e+01 -1.045377e+01 8.688433e+00 -3.364912e+00 -2.785768e+01 -1.796177e+01 3.440464e+00 -1.718504e+00 2.717078e-01 -1.009863e+01 3.507021e+00 1.112048e+02 -1.144511e+01 3.562165e+00 1.287310e+00 -1.047469e+00 -3.383663e+00 -3.225814e+00 1.546029e+00 1.906744e+00 -1.954467e-01 -2.381659e+00 -1.600500e+00 4.032698e-01 2.078871e+00 6.804585e-03 1.246730e+00 3.512231e-01 -1.004588e+00 -5.136124e-01 1.418320e+00 8.677164e-01 -6.886970e-01 -1.270593e+00 -7.107524e-01 1.589904e-01 -4.033412e-01 -4.254854e+00
<VARIANCE> 39
 3.163312e+02 1.138009e+02 1.796654e+02 2.118491e+02 3.934747e+02 2.674397e+02 2.169682e+02 2.032231e+02 1.858227e+02 1.695026e+02 1.686924e+02 1.317065e+02 1.454435e+02 2.980913e+01 1.522609e+01 1.380294e+01 1.541301e+01 2.176164e+01 2.606340e+01 1.702730e+01 1.641043e+01 2.033604e+01 1.499873e+01 1.378069e+01 1.414716e+01 2.631004e+01 6.915264e+00 3.374490e+00 3.237694e+00 2.806221e+00 3.852802e+00 4.040132e+00 3.613281e+00 3.775798e+00 3.697088e+00 3.502900e+00 2.860395e+00 2.457356e+00 4.545844e+00
<GCONST> 1.947743e+02
<TRANSP> 5
 0.000000e+00 1.000000e+00 0.000000e+00 0.000000e+00 0.000000e+00
 0.000000e+00 6.801992e-01 3.198008e-01 0.000000e+00 0.000000e+00
 0.000000e+00 0.000000e+00 7.772027e-01 2.227973e-01 0.000000e+00
 0.000000e+00 0.000000e+00 0.000000e+00 5.360450e-01 4.639550e-01
 0.000000e+00 0.000000e+00 0.000000e+00 0.000000e+00 0.000000e+00
<ENDHMM>
~h "n"
<BEGINHMM>
<NUMSTATES> 5
<STATE> 2
<NUMMIXES> 2
<MIXTURE> 1 5.000000e-01
<MEAN> 39
 1.842917e+01 2.584278e+00 3.828696e+01 1.248211e+01 -1.847511e+00 8.192503e+00 2.042248e+01 1.184159e+00 -1.727935e+00 1.460802e+01 -2.261844e+00 1.277566e+01 1.156928e+02 1.931917e+00 4.058052e+00 9.817136e-01 5.019849e+00 1.342034e+00 2.437263e+00 3.460649e+00 -1.712957e+00 1.163631e+00 1.645742e+00 -5.964419e-01 1.259704e+00 -2.271192e+00 -2.470105e-01 -2.348087e-01 -3.676208e-01 2.081944e-01 8.254222e-01 1.568231e-01 -1.101918e-01 1.423349e+00 8.736676e-01 6.583026e-02 6.760981e-01 3.106971e-01 5.756583e-01
<VARIANCE> 39
 1.313375e+02 3.032014e+02 2.467392e+02 6.128544e+02 3.045753e+02 4.059907e+02 5.310484e+02 5.882634e+02 5.437422e+02 4.445741e+02 4.307681e+02 4.049300e+02 4.140683e+02 1.607642e+01 1.497781e+01 2.376797e+01 3.307058e+01 2.126113e+01 2.553292e+01 3.332293e+01 4.020280e+01 3.055857e+01 2.710965e+01 2.391088e+01 2.427627e+01 1.983683e+01 2.302257e+00 2.563493e+00 3.856784e+00 7.803296e+00 4.082353e+00 5.053893e+00 6.668899e+00 7.734418e+00 5.608160e+00 4.792079e+00 4.679913e+00 4.609225e+00 2.064268e+00
<GCONST> 2.100198e+02
<MIXTURE> 2 5.000000e-01
<MEAN> 39
 1.384507e+01 -4.380794e+00 3.200379e+01 2.579754e+00 -8.828345e+00 1.328187e-01 1.120468e+01 -8.517499e+00 -1.105525e+01 6.174055e+00 -1.056383e+01 4.726513e+00 1.075534e+02 3.281008e-01 2.510005e+00 -9.683827e-01 2.719568e+00 -5.023578e-01 4.160588e-01 1.151609e+00 -4.249185e+00 -1.047561e+00 -4.369354e-01 -2.552392e+00 -7.111342e-01 -4.052734e+00 -8.539381e-01 -8.752451e-01 -1.153169e+00 -9.091808e-01 1.722881e-02 -7.424115e-01 -1.143160e+00 3.109161e-01 -7.359457e-02 -8.098024e-01 -1.892261e-01 -5.480671e-01 9.558797e-04
<VARIANCE> 39
 1.313375e+02 3.032014e+02 2.467392e+02 6.128544e+02 3.045753e+02 4.059907e+02 5.310484e+02 5.882634e+02 5.437422e+02 4.445741e+02 4.307681e+02 4.049300e+02 4.140683e+02 1.607642e+01 1.497781e+01 2.376797e+01 3.307058e+01 2.126113e+01 2.553292e+01 3.332293e+01 4.020280e+01 3.055857e+01 2.710965e+01 2.391088e+01 2.427627e+01 1.983683e+01 2.302257e+00 2.563493e+00 3.856784e+00 7.803296e+00 4.082353e+00 5.053893e+00 6.668899e+00 7.734418e+00 5.608160e+00 4.792079e+00 4.679913e+00 4.609225e+00 2.064268e+00
<GCONST> 2.100198e+02
<STATE> 3
<NUMMIXES> 2
<MIXTURE> 1 5.000000e-01
<MEAN> 39
 1.975535e+01 1.017155e+01 3.691949e+01 2.216116e+01 1.261475e+00 1.136201e+01 2.197000e+01 -3.966317e+00 2.287198e+00 1.153477e+01 -5.486786e+00 1.568551e+01 1.067821e+02 -1.742521e+00 -1.557325e+00 -1.039008e+00 -1.417721e+00 3.614882e+00 -4.278170e-01 -1.378738e+00 6.440430e+00 1.953137e+00 5.369160e-01 1.799763e+00 5.620003e-02 3.025769e+00 -1.091443e+00 -1.139518e+00 -1.187787e+00 -1.293239e+00 6.521897e-01 -1.542654e-01 -7.834953e-01 1.952991e+00 7.060938e-01 2.970830e-01 9.875576e-01 1.020116e-02 9.470197e-01
<VARIANCE> 39
 8.070046e+01 2.513867e+02 1.424062e+02 2.965421e+02 2.856323e+02 4.393300e+02 4.714725e+02 4.542202e+02 4.633506e+02 4.493133e+02 4.578332e+02 4.617107e+02 2.775697e+02 2.310660e+01 2.474392e+01 2.191315e+01 3.443995e+01 2.640370e+01 3.874309e+01 4.309068e+01 4.401114e+01 3.677007e+01 2.842084e+01 2.911313e+01 3.194262e+01 3.896743e+01 3.096924e+00 2.662769e+00 2.874300e+00 4.012010e+00 4.787773e+00 5.943812e+00 5.996001e+00 7.199770e+00 5.491205e+00 4.141108e+00 4.629702e+00 4.680089e+00 2.362521e+00
<GCONST> 2.100249e+02
<MIXTURE> 2 5.000000e-01
<MEAN> 39
 1.616201e+01 3.829479e+00 3.214613e+01 1.527300e+01 -5.498789e+00 2.977933e+00 1.328464e+01 -1.249129e+01 -6.323034e+00 3.055966e+00 -1.404560e+01 7.090528e+00 1.001179e+02 -3.665293e+00 -3.547055e+00 -2.911468e+00 -3.765143e+00 1.559500e+00 -2.917575e+00 -4.004478e+00 3.786794e+00 -4.723967e-01 -1.595532e+00 -3.585008e-01 -2.204512e+00 5.288131e-01 -1.795367e+00 -1.792238e+00 -1.865937e+00 -2.094439e+00 -2.230495e-01 -1.129463e+00 -1.762965e+00 8.796952e-01 -2.312390e-01 -5.169055e-01 1.268879e-01 -8.551394e-01 3.321999e-01
<VARIANCE> 39
 8.070046e+01 2.513867e+02 1.424062e+02 2.965421e+02 2.856323e+02 4.393300e+02 4.714725e+02 4.542202e+02 4.633506e+02 4.493133e+02 4.578332e+02 4.617107e+02 2.775697e+02 2.310660e+01 2.474392e+01 2.191315e+01 3.443995e+01 2.640370e+01 3.874309e+01 4.309068e+01 4.401114e+01 3.677007e+01 2.842084e+01 2.911313e+01 3.194262e+01 3.896743e+01 3.096924e+00 2.662769e+00 2.874300e+00 4.012010e+00 4.787773e+00 5.943812e+00 5.996001e+00 7.199770e+00 5.491205e+00 4.141108e+00 4.629702e+00 4.680089e+00 2.362521e+00
<GCONST> 2.100249e+02
<STATE> 4
<NUMMIXES> 2
<MIXTURE> 1 5.000000e-01
<MEAN> 39
 2.977902e+00 -3.759413e-01 2.171641e+01 1.614119e+01 8.407831e+00 5.427160e+00 1.480109e+01 1.657589e+01 5.104577e+00 7.561915e+00 -3.817427e+00 7.812528e+00 9.871384e+01 -2.824569e+00 -1.736509e+00 -3.804446e+00 -2.410503e+00 7.557761e-01 -3.161497e-01 -1.936436e+00 3.295377e+00 1.727206e+00 1.395953e-01 1.894593e+00 -2.263951e-01 3.821894e-01 5.149261e-01 6.151162e-01 3.041891e-01 5.215322e-01 -2.331133e-01 5.965967e-01 4.841617e-01 -7.904385e-01 1.943507e-01 4.103889e-01 3.820551e-01 5.622935e-01 3.689994e-01
<VARIANCE> 39
 1.903249e+02 2.615049e+02 2.239525e+02 4.256139e+02 2.505312e+02 3.512431e+02 4.951056e+02 3.891879e+02 3.322725e+02 3.739831e+02 2.762433e+02 2.638162e+02 7.268699e+02 2.330209e+01 1.987039e+01 1.925459e+01 2.463886e+01 2.300576e+01 2.516082e+01 2.792699e+01 3.561659e+01 3.186667e+01 2.356460e+01 2.518270e+01 2.295578e+01 2.427406e+01 1.683360e+00 2.819015e+00 2.776154e+00 4.893280e+00 3.818376e+00 5.573643e+00 5.934264e+00 5.486076e+00 4.481373e+00 3.947027e+00 3.782840e+00 3.668885e+00 2.810854e+00
<GCONST> 2.060041e+02
<MIXTURE> 2 5.000000e-01
<MEAN> 39
 -2.540430e+00 -6.844387e+00 1.573039e+01 7.889028e+00 2.076560e+00 -2.069432e+00 5.900706e+00 8.684751e+00 -2.186761e+00 -1.735415e-01 -1.046565e+01 1.315560e+00 8.792963e+01 -4.755459e+00 -3.519557e+00 -5.559648e+00 -4.396005e+00 -1.162797e+00 -2.322572e+00 -4.050276e+00 9.081913e-01 -5.308173e-01 -1.802140e+00 -1.127012e-01 -2.142883e+00 -1.588559e+00 -4.051417e-03 -5.648068e-02 -3.622827e-01 -3.632982e-01 -1.014740e+00 -3.477459e-01 -4.902521e-01 -1.727333e+00 -6.524194e-01 -3.842962e-01 -3.959259e-01 -2.038799e-01 -3.016247e-01
<VARIANCE> 39
 1.903249e+02 2.615049e+02 2.239525e+02 4.256139e+02 2.505312e+02 3.512431e+02 4.951056e+02 3.891879e+02 3.322725e+02 3.739831e+02 2.762433e+02 2.638162e+02 7.268699e+02 2.330209e+01 1.987039e+01 1.925459e+01 2.463886e+01 2.300576e+01 2.516082e+01 2.792699e+01 3.561659e+01 3.186667e+01 2.356460e+01 2.518270e+01 2.295578e+01 2.427406e+01 1.683360e+00 2.819015e+00 2.776154e+00 4.893280e+00 3.818376e+00 5.573643e+00 5.934264e+00 5.486076e+00 4.481373e+00 3.947027e+00 3.782840e+00 3.668885e+00 2.810854e+00
<GCONST> 2.060041e+02
<TRANSP> 5
 0.000000e+00 1.000000e+00 0.000000e+00 0.000000e+00 0.000000e+00
 0.000000e+00 6.618605e-01 3.381395e-01 0.000000e+00 0.000000e+00
 0.000000e+00 0.000000e+00 5.907574e-01 4.092426e-01 0.000000e+00
 0.000000e+00 0.000000e+00 0.000000e+00 6.201845e-01 3.798155e-01
 0.000000e+00 0.000000e+00 0.000000e+00 0.000000e+00 0.000000e+00
<ENDHMM>
~h "r"
<BEGINHMM>
<NUMSTATES> 5
<STATE> 2
<NUMMIXES> 2
<MIXTURE> 1 5.000000e-01
<MEAN> 39
 3.823719e+01 -1.535371e+01 -9.702821e-01 6.652529e+00 2.976859e+01 -1.571026e+01 -2.537619e+01 6.659439e+00 -4.247271e+00 9.141872e+00 5.202795e+00 1.044273e+01 1.292477e+02 1.015512e+00 -1.944041e-01 -5.949273e-01 9.254188e-01 1.922843e+00 -1.068048e-01 -2.626503e-01 1.929977e+00 2.302288e+00 1.438184e+00 8.498022e-01 8.422868e-01 6.003759e-01 -8.699385e-01 1.733515e-01 2.005758e+00 2.852987e-01 -1.408044e+00 2.619261e-01 1.882093e+00 9.822503e-01 -8.736861e-02 1.450824e-01 3.585053e-01 3.466691e-01 3.120205e-01
<VARIANCE> 39
 6.585449e+01 1.845728e+02 4.759542e+02 3.192817e+02 3.868649e+02 8.975165e+02 1.004421e+03 4.270834e+02 3.246688e+02 3.920673e+02 2.649129e+02 2.135604e+02 1.731715e+02 6.272974e+00 8.286612e+00 2.616628e+01 1.852094e+01 1.964941e+01 2.914710e+01 2.231059e+01 2.397716e+01 1.920512e+01 1.642770e+01 1.468826e+01 1.359591e+01 6.673574e+00 1.273304e+00 1.261518e+00 1.832945e+00 2.051523e+00 2.643419e+00 4.327209e+00 3.765079e+00 3.410913e+00 2.920216e+00 2.863769e+00 2.532550e+00 2.333567e+00 7.383317e-01
<GCONST> 1.926940e+02
<MIXTURE> 2 5.000000e-01
<MEAN> 39
 3.499115e+01 -2.078801e+01 -9.696833e+00 -4.948530e-01 2.190103e+01 -2.769370e+01 -3.805323e+01 -1.606959e+00 -1.145470e+01 1.221596e+00 -1.307663e+00 4.597251e+00 1.239839e+02 1.367533e-02 -1.345863e+00 -2.641047e+00 -7.960197e-01 1.497369e-01 -2.266327e+00 -2.152014e+00 -2.868229e-02 5.493420e-01 -1.830597e-01 -6.832084e-01 -6.326184e-01 -4.329545e-01 -1.321302e+00 -2.759178e-01 1.464212e+00 -2.876269e-01 -2.058388e+00 -5.701517e-01 1.105941e+00 2.435040e-01 -7.709142e-01 -5.318246e-01 -2.780542e-01 -2.643716e-01 -3.168435e-02
<VARIANCE> 39
 6.585449e+01 1.845728e+02 4.759542e+02 3.192817e+02 3.868649e+02 8.975165e+02 1.004421e+03 4.270834e+02 3.246688e+02 3.920673e+02 2.649129e+02 2.135604e+02 1.731715e+02 6.272974e+00 8.286612e+00 2.616628e+01 1.852094e+01 1.964941e+01 2.914710e+01 2.231059e+01 2.397716e+01 1.920512e+01 1.642770e+01 1.468826e+01 1.359591e+01 6.673574e+00 1.273304e+00 1.261518e+00 1.832945e+00 2.051523e+00 2.643419e+00 4.327209e+00 3.765079e+00 3.410913e+00 2.920216e+00 2.863769e+00 2.532550e+00 2.333567e+00 7.383317e-01
<GCONST> 1.926940e+02
<STATE> 3
<NUMMIXES> 2
<MIXTURE> 1 5.000000e-01
<MEAN> 39
 3.272091e+01 -2.189912e+01 1.191232e+01 1.318918e+01 2.075772e+01 -2.805985e+01 -1.914959e+01 1.988739e+01 -3.612187e+00 6.335113e+00 3.669847e+00 1.188997e+01 1.325172e+02 -3.248175e+00 -8.457577e-02 7.947344e+00 2.252222e+00 -4.716655e+00 -5.306607e-01 7.117568e+00 3.969457e+00 -1.067445e+00 -4.275823e-02 1.892613e+00 7.174972e-01 1.019091e+00 -8.043518e-01 1.462295e+00 1.163050e+00 -8.269995e-01 -5.658056e-01 2.874159e+00 2.121198e+00 -1.313821e+00 -4.814842e-01 1.110345e+00 5.531191e-01 -8.913377e-02 -4.251231e-01
<VARIANCE> 39
 7.057524e+01 1.913576e+02 5.728053e+02 3.718772e+02 3.939122e+02 7.989814e+02 1.054517e+03 4.011267e+02 4.162472e+02 4.806137e+02 2.813975e+02 2.457358e+02 2.004690e+02 9.289205e+00 9.741329e+00 2.923822e+01 2.561912e+01 2.704131e+01 3.530340e+01 3.198615e+01 3.237278e+01 3.638126e+01 2.699913e+01 2.202768e+01 1.747687e+01 1.257926e+01 1.998832e+00 2.067207e+00 2.301303e+00 2.340051e+00 3.785374e+00 5.683662e+00 5.215669e+00 4.619033e+00 4.088957e+00 3.779521e+00 2.951313e+00 3.061258e+00 9.656891e-01
<GCONST> 2.022829e+02
<MIXTURE> 2 5.000000e-01
<MEAN> 39
 2.936055e+01 -2.743240e+01 2.338975e+00 5.475528e+00 1.281883e+01 -3.936635e+01 -3.213892e+01 1.187613e+01 -1.177304e+01 -2.434049e+00 -3.040116e+00 5.619581e+00 1.268538e+02 -4.467303e+00 -1.333020e+00 5.784449e+00 2.276083e-01 -6.796705e+00 -2.907327e+00 4.855316e+00 1.693573e+00 -3.480121e+00 -2.121186e+00 1.526684e-02 -9.547167e-01 -3.995988e-01 -1.369872e+00 8.871833e-01 5.562484e-01 -1.438889e+00 -1.344047e+00 1.920541e+00 1.207684e+00 -2.173499e+00 -1.290331e+00 3.327057e-01 -1.340564e-01 -7.889918e-01 -8.182011e-01
<VARIANCE> 39
 7.057524e+01 1.913576e+02 5.728053e+02 3.718772e+02 3.939122e+02 7.989814e+02 1.054517e+03 4.011267e+02 4.162472e+02 4.806137e+02 2.813975e+02 2.457358e+02 2.004690e+02 9.289205e+00 9.741329e+00 2.923822e+01 2.561912e+01 2.704131e+01 3.530340e+01 3.198615e+01 3.237278e+01 3.638126e+01 2.699913e+01 2.202768e+01 1.747687e+01 1.257926e+01 1.998832e+00 2.067207e+00 2.301303e+00 2.340051e+00 3.785374e+00 5.683662e+00 5.215669e+00 4.619033e+00 4.088957e+00 3.779521e+00 2.951313e+00 3.061258e+00 9.656891e-01
<GCONST> 2.022829e+02
<STATE> 4
<NUMMIXES> 2
<MIXTURE> 1 5.000000e-01
<MEAN> 39
 1.996402e+01 -1.829228e+01 1.983288e+01 1.251997e+01 8.788323e+00 -1.717447e+01 3.226665e+00 2.011117e+01 -5.575750e+00 9.310354e+00 6.772014e+00 7.510211e+00 1.226109e+02 -3.370072e+00 2.016827e+00 5.014591e+00 -9.470097e-01 -2.780860e+00 4.353050e+00 5.087132e+00 -1.439110e+00 -2.724776e-01 2.320309e+00 3.747313e-01 -6.576801e-01 -9.200785e-01 2.806804e-01 9.961955e-01 -3.637612e-01 -4.219844e-01 1.069900e+00 1.267745e+00 -5.982899e-01 -6.315831e-01 1.046952e+00 5.926639e-01 -2.113867e-01 3.438486e-01 -9.579487e-02
<VARIANCE> 39
 2.063384e+02 2.026741e+02 9.194526e+02 3.684432e+02 4.570258e+02 7.468046e+02 7.671065e+02 4.159391e+02 6.447484e+02 4.178192e+02 2.948868e+02 2.643322e+02 6.405755e+02 1.513547e+01 1.455117e+01 2.395724e+01 2.113072e+01 2.091070e+01 2.634323e+01 2.979923e+01 2.847557e+01 2.280389e+01 2.263433e+01 1.843617e+01 1.614464e+01 1.039490e+01 1.447657e+00 1.894453e+00 2.480109e+00 2.863803e+00 3.664980e+00 4.760655e+00 4.080462e+00 3.552187e+00 4.720274e+00 3.056004e+00 3.086026e+00 2.598194e+00 1.036537e+00
<GCONST> 2.029444e+02
<MIXTURE> 2 5.000000e-01
<MEAN> 39
 1.421822e+01 -2.398682e+01 7.703885e+00 4.842022e+00 2.370586e-01 -2.810557e+01 -7.852011e+00 1.195333e+01 -1.573251e+01 1.134104e+00 -9.689379e-02 1.006892e+00 1.124871e+02 -4.926246e+00 4.909870e-01 3.056745e+00 -2.785736e+00 -4.609988e+00 2.300024e+00 2.903585e+00 -3.573610e+00 -2.182614e+00 4.172870e-01 -1.342763e+00 -2.264896e+00 -2.209723e+00 -2.005941e-01 4.456390e-01 -9.936956e-01 -1.098895e+00 3.041343e-01 3.949876e-01 -1.406296e+00 -1.385473e+00 1.779039e-01 -1.065933e-01 -9.140703e-01 -3.009080e-01 -5.030367e-01
<VARIANCE> 39
 2.063384e+02 2.026741e+02 9.194526e+02 3.684432e+02 4.570258e+02 7.468046e+02 7.671065e+02 4.159391e+02 6.447484e+02 4.178192e+02 2.948868e+02 2.643322e+02 6.405755e+02 1.513547e+01 1.455117e+01 2.395724e+01 2.113072e+01 2.091070e+01 2.634323e+01 2.979923e+01 2.847557e+01 2.280389e+01 2.263433e+01 1.843617e+01 1.614464e+01 1.039490e+01 1.447657e+00 1.894453e+00 2.480109e+00 2.863803e+00 3.664980e+00 4.760655e+00 4.080462e+00 3.552187e+00 4.720274e+00 3.056004e+00 3.086026e+00 2.598194e+00 1.036537e+00
<GCONST> 2.029444e+02
<TRANSP> 5
 0.000000e+00 1.000000e+00 0.000000e+00 0.000000e+00 0.000000e+00
 0.000000e+00 7.662130e-01 2.337870e-01 0.000000e+00 0.000000e+00
 0.000000e+00 0.000000e+00 5.109528e-01 4.890472e-01 0.000000e+00
 0.000000e+00 0.000000e+00 0.000000e+00 5.938857e-01 4.061143e-01
 0.000000e+00 0.000000e+00 0.000000e+00 0.000000e+00 0.000000e+00
<ENDHMM>
~h "s"
<BEGINHMM>
<NUMSTATES> 5
<STATE> 2
<NUMMIXES> 2
<MIXTURE> 1 5.000000e-01
<MEAN> 39
 -2.410957e+01 8.048299e+00 1.247806e+01 1.017987e+01 6.741999e+00 -3.521526e+00 2.314685e+00 7.389076e+00 9.254360e-02 5.114505e+00 -1.977884e+00 8.517666e+00 1.079324e+02 -7.279991e+00 3.011689e+00 -2.592748e+00 5.839515e-01 2.185094e-01 1.164086e+00 2.078715e+00 2.319777e+00 1.168855e+00 4.869673e-01 1.641685e+00 1.270010e+00 1.828102e+00 9.772493e-01 3.690630e-03 -4.888820e-01 -2.482770e-01 1.321657e-01 5.556577e-01 3.928721e-02 8.982295e-02 4.405373e-02 7.067050e-01 5.237498e-01 3.110824e-01 1.983896e-02
<VARIANCE> 39
 6.031697e+02 2.430682e+02 4.115284e+02 3.321063e+02 4.043970e+02 3.814131e+02 3.361010e+02 3.050678e+02 2.876868e+02 2.352608e+02 2.184162e+02 2.199963e+02 4.632780e+02 5.272821e+01 2.420172e+01 4.545037e+01 4.025171e+01 2.982681e+01 3.707666e+01 3.059309e+01 2.938546e+01 3.250372e+01 2.545586e+01 2.387046e+01 2.293108e+01 3.065507e+01 9.097583e+00 4.706750e+00 5.262074e+00 5.597758e+00 5.475639e+00 5.946692e+00 5.356369e+00 5.634028e+00 5.079532e+00 4.703509e+00 4.339531e+00 4.009859e+00 3.261523e+00
<GCONST> 2.130848e+02
<MIXTURE> 2 5.000000e-01
<MEAN> 39
 -3.393337e+01 1.812041e+00 4.363594e+00 2.890355e+00 -1.301851e+00 -1.133345e+01 -5.018538e+00 4.025998e-01 -6.691989e+00 -1.020781e+00 -7.889448e+00 2.584757e+00 9.932282e+01 -1.018456e+01 1.043879e+00 -5.289424e+00 -1.953818e+00 -1.966048e+00 -1.271538e+00 -1.337263e-01 1.514429e-01 -1.111626e+00 -1.531185e+00 -3.126111e-01 -6.454461e-01 -3.865784e-01 -2.292387e-01 -8.641112e-01 -1.406451e+00 -1.194660e+00 -8.038377e-01 -4.197760e-01 -8.864660e-01 -8.596213e-01 -8.574589e-01 -1.607980e-01 -3.095118e-01 -4.899029e-01 -7.025485e-01
<VARIANCE> 39
 6.031697e+02 2.430682e+02 4.115284e+02 3.321063e+02 4.043970e+02 3.814131e+02 3.361010e+02 3.050678e+02 2.876868e+02 2.352608e+02 2.184162e+02 2.199963e+02 4.632780e+02 5.272821e+01 2.420172e+01 4.545037e+01 4.025171e+01 2.982681e+01 3.707666e+01 3.059309e+01 2.938546e+01 3.250372e+01 2.545586e+01 2.387046e+01 2.293108e+01 3.065507e+01 9.097583e+00 4.706750e+00 5.262074e+00 5.597758e+00 5.475639e+00 5.946692e+00 5.356369e+00 5.634028e+00 5.079532e+00 4.703509e+00 4.339531e+00 4.009859e+00 3.261523e+00
<GCONST> 2.130848e+02
<STATE> 3
<NUMMIXES> 2
<MIXTURE> 1 5.000000e-01
<MEAN> 39
 -5.081009e+01 1.089247e+01 -7.340325e+00 3.958025e+00 -3.663704e-01 -7.386709e+00 1.695123e+00 6.721024e+00 -3.037499e+00 3.598408e+00 -5.109513e-01 9.009981e+00 1.096237e+02 -2.525129e+00 1.642403e+00 -3.000744e+00 -6.438071e-01 -1.752384e-01 1.387386e+00 1.059116e-01 8.263749e-02 9.290338e-03 8.612623e-01 6.392308e-01 6.620834e-01 1.094761e+00 2.879148e+00 -2.371745e-01 1.479819e+00 9.978932e-01 8.619578e-01 7.497693e-01 1.769095e-01 8.298513e-02 5.289695e-01 5.625784e-01 5.660000e-02 1.710604e-01 -2.873527e-01
<VARIANCE> 39
 1.349813e+02 1.460157e+02 1.792713e+02 2.793290e+02 3.616886e+02 2.914294e+02 1.970189e+02 1.805999e+02 1.647721e+02 1.532964e+02 1.660140e+02 1.312678e+02 1.850981e+02 1.783795e+01 1.572998e+01 1.690889e+01 1.516086e+01 1.701726e+01 1.974043e+01 1.878080e+01 1.580328e+01 1.454259e+01 1.423414e+01 1.328996e+01 1.246253e+01 1.288508e+01 2.696485e+00 2.277991e+00 3.642642e+00 2.903465e+00 3.292059e+00 3.364756e+00 3.536341e+00 3.516130e+00 3.174524e+00 3.025348e+00 2.880610e+00 2.801308e+00 1.892506e+00
<GCONST> 1.895589e+02
<MIXTURE> 2 5.000000e-01
<MEAN> 39
 -5.545735e+01 6.058994e+00 -1.269602e+01 -2.727230e+00 -7.973616e+00 -1.421523e+01 -3.919415e+00 1.345525e+00 -8.172043e+00 -1.354110e+00 -5.664808e+00 4.427094e+00 1.041817e+02 -4.214529e+00 5.596089e-02 -4.645560e+00 -2.201285e+00 -1.825318e+00 -3.898219e-01 -1.627561e+00 -1.507496e+00 -1.516100e+00 -6.478641e-01 -8.189851e-01 -7.500089e-01 -3.410711e-01 2.222309e+00 -8.408951e-01 7.163908e-01 3.163110e-01 1.361965e-01 1.603848e-02 -5.752969e-01 -6.670687e-01 -1.837183e-01 -1.331627e-01 -6.222944e-01 -4.984240e-01 -8.376263e-01
<VARIANCE> 39
 1.349813e+02 1.460157e+02 1.792713e+02 2.793290e+02 3.616886e+02 2.914294e+02 1.970189e+02 1.805999e+02 1.647721e+02 1.532964e+02 1.660140e+02 1.312678e+02 1.850981e+02 1.783795e+01 1.572998e+01 1.690889e+01 1.516086e+01 1.701726e+01 1.974043e+01 1.878080e+01 1.580328e+01 1.454259e+01 1.423414e+01 1.328996e+01 1.246253e+01 1.288508e+01 2.696485e+00 2.277991e+00 3.642642e+00 2.903465e+00 3.292059e+00 3.364756e+00 3.536341e+00 3.516130e+00 3.174524e+00 3.025348e+00 2.880610e+00 2.801308e+00 1.892506e+00
<GCONST> 1.895589e+02
<STATE> 4
<NUMMIXES> 2
<MIXTURE> 1 5.000000e-01
<MEAN> 39
 -4.923201e+01 8.048715e+00 -1.217701e+01 5.820608e+00 -3.318140e+00 -2.464638e+00 -1.833760e+00 5.940641e+00 -4.051962e+00 4.965904e+00 -1.537312e+00 8.073791e+00 1.077145e+02 1.186817e+00 2.169708e-01 6.969436e-01 3.793983e-01 6.275690e-01 9.166015e-01 6.806355e-01 5.701505e-01 7.423490e-01 7.580611e-01 5.196545e-01 5.751358e-01 4.871629e-01 1.177697e+00 1.232126e-01 1.036308e+00 3.728275e-01 3.482230e-01 9.348708e-02 3.524112e-01 2.791436e-01 4.541870e-01 2.785941e-01 2.812061e-01 3.389369e-01 2.321414e-01
<VARIANCE> 39
 1.600704e+02 1.365276e+02 1.556882e+02 2.442201e+02 2.992589e+02 2.759142e+02 1.562104e+02 1.424625e+02 1.439863e+02 1.312290e+02 1.409763e+02 1.206749e+02 1.993585e+02 6.551269e+00 5.586111e+00 6.478883e+00 7.340512e+00 8.994185e+00 1.064941e+01 1.086707e+01 1.118920e+01 1.092743e+01 1.112523e+01 1.067521e+01 1.002101e+01 5.785279e+00 1.849756e+00 1.206334e+00 1.783285e+00 1.558755e+00 1.764342e+00 2.161229e+00 2.247683e+00 2.239720e+00 2.207632e+00 2.265835e+00 2.140670e+00 2.049717e+00 9.176794e-01
<GCONST> 1.742660e+02
<MIXTURE> 2 5.000000e-01
<MEAN> 39
 -5.429277e+01 3.374913e+00 -1.716801e+01 -4.304094e-01 -1.023778e+01 -9.108904e+00 -6.833126e+00 1.166335e+00 -8.851734e+00 3.836954e-01 -6.286650e+00 3.679706e+00 1.020667e+02 1.629990e-01 -7.284274e-01 -3.212024e-01 -7.043369e-01 -5.720433e-01 -3.887359e-01 -6.379741e-01 -7.678601e-01 -5.799176e-01 -5.761191e-01 -7.872632e-01 -6.911034e-01 -4.749413e-01 6.336737e-01 -3.161204e-01 5.021495e-01 -1.265729e-01 -1.830911e-01 -4.945577e-01 -2.472798e-01 -3.194842e-01 -1.401371e-01 -3.235135e-01 -3.040350e-01 -2.337365e-01 -1.510409e-01
<VARIANCE> 39
 1.600704e+02 1.365276e+02 1.556882e+02 2.442201e+02 2.992589e+02 2.759142e+02 1.562104e+02 1.424625e+02 1.439863e+02 1.312290e+02 1.409763e+02 1.206749e+02 1.993585e+02 6.551269e+00 5.586111e+00 6.478883e+00 7.340512e+00 8.994185e+00 1.064941e+01 1.086707e+01 1.118920e+01 1.092743e+01 1.112523e+01 1.067521e+01 1.002101e+01 5.785279e+00 1.849756e+00 1.206334e+00 1.783285e+00 1.558755e+00 1.764342e+00 2.161229e+00 2.247683e+00 2.239720e+00 2.207632e+00 2.265835e+00 2.140670e+00 2.049717e+00 9.176794e-01
<GCONST> 1.742660e+02
<TRANSP> 5
 0.000000e+00 1.000000e+00 0.000000e+00 0.000000e+00 0.000000e+00
 0.000000e+00 5.607682e-01 4.392318e-01 0.000000e+00 0.000000e+00
 0.000000e+00 0.000000e+00 5.228644e-01 4.771356e-01 0.000000e+00
 0.000000e+00 0.000000e+00 0.000000e+00 8.446992e-01 1.553008e-01
 0.000000e+00 0.000000e+00 0.000000e+00 0.000000e+00 0.000000e+00
<ENDHMM>
~h "t"
<BEGINHMM>
<NUMSTATES> 5
<STATE> 2
<NUMMIXES> 2
<MIXTURE> 1 5.000000e-01
<MEAN> 39
 -1.171523e+01 1.352980e+01 1.994211e+01 1.639815e+01 5.596597e+00 4.473932e+00 1.525191e+00 1.873192e+00 -1.103627e+00 4.007304e+00 9.462547e-01 4.262397e+00 6.663351e+01 -2.432523e+00 -2.016404e-01 -4.065920e+00 -6.311762e-01 1.103617e+00 5.203864e-01 5.304639e-01 1.788068e+00 2.174871e+00 9.729462e-01 2.132663e+00 9.719183e-01 3.910164e-01 7.968241e-02 -3.945331e-01 1.551640e+00 -1.111905e+00 -2.413684e-01 -1.854914e-01 3.607920e-01 -7.607818e-02 -2.058801e-01 5.279077e-01 3.776497e-02 6.131128e-01 4.532841e+00
<VARIANCE> 39
 2.485215e+02 1.904067e+02 3.599920e+02 2.306141e+02 1.832939e+02 1.912043e+02 2.318820e+02 2.217291e+02 2.030879e+02 1.727790e+02 1.583355e+02 1.346442e+02 4.081094e+02 2.213321e+01 3.398585e+01 5.293370e+01 4.151242e+01 2.660942e+01 2.745985e+01 2.794261e+01 3.135097e+01 3.458399e+01 2.295980e+01 2.173251e+01 1.965107e+01 1.315887e+02 3.510407e+00 5.867540e+00 6.949811e+00 6.313804e+00 4.844966e+00 4.789579e+00 5.248395e+00 5.234933e+00 5.846433e+00 4.298713e+00 3.958179e+00 3.614742e+00 1.267573e+01
<GCONST> 2.085155e+02
<MIXTURE> 2 5.000000e-01
<MEAN> 39
 -1.802105e+01 8.010281e+00 1.235273e+01 1.032375e+01 1.811535e-01 -1.057134e+00 -4.565879e+00 -4.083036e+00 -6.803983e+00 -1.250514e+00 -4.087003e+00 -3.790547e-01 5.855283e+01 -4.314361e+00 -2.533536e+00 -6.976142e+00 -3.208382e+00 -9.597556e-01 -1.575700e+00 -1.583967e+00 -4.516093e-01 -1.774549e-01 -9.437093e-01 2.679372e-01 -8.012627e-01 -4.197468e+00 -6.697608e-01 -1.363453e+00 4.971401e-01 -2.116997e+00 -1.121820e+00 -1.060896e+00 -5.555831e-01 -9.912772e-01 -1.173056e+00 -3.014259e-01 -7.580420e-01 -1.473862e-01 3.108721e+00
<VARIANCE> 39
 2.485215e+02 1.904067e+02 3.599920e+02 2.306141e+02 1.832939e+02 1.912043e+02 2.318820e+02 2.217291e+02 2.030879e+02 1.727790e+02 1.583355e+02 1.346442e+02 4.081094e+02 2.213321e+01 3.398585e+01 5.293370e+01 4.151242e+01 2.660942e+01 2.745985e+01 2.794261e+01 3.135097e+01 3.458399e+01 2.295980e+01 2.173251e+01 1.965107e+01 1.315887e+02 3.510407e+00 5.867540e+00 6.949811e+00 6.313804e+00 4.844966e+00 4.789579e+00 5.248395e+00 5.234933e+00 5.846433e+00 4.298713e+00 3.958179e+00 3.614742e+00 1.267573e+01
<GCONST> 2.085155e+02
<STATE> 3
<NUMMIXES> 2
<MIXTURE> 1 5.000000e-01
<MEAN> 39
 -3.056438e+01 2.241427e+00 8.284280e+00 -8.282226e+00 -6.869488e-01 -5.698504e+00 -8.387084e-01 -1.856756e+00 -8.043809e+00 4.168788e+00 1.181789e+00 5.419446e+00 1.116182e+02 -3.478546e+00 1.449061e+00 1.721536e+00 -1.165057e+00 -1.513050e+00 -1.881982e+00 2.393107e+00 9.239405e-01 -1.170014e+00 8.086203e-01 5.766209e-01 2.293501e+00 1.342814e+01 1.379598e+00 1.179995e+00 1.693278e+00 2.466686e+00 1.440559e-01 7.411163e-01 1.145373e+00 8.698587e-01 9.516957e-01 4.580798e-01 2.380349e-01 6.833713e-01 -2.212253e+00
<VARIANCE> 39
 2.097434e+02 2.226872e+02 2.071554e+02 1.847172e+02 1.687856e+02 1.775924e+02 1.821584e+02 1.908955e+02 1.672626e+02 1.486392e+02 1.297803e+02 1.214704e+02 9.295333e+02 1.811012e+01 2.087414e+01 2.220416e+01 2.251822e+01 1.841742e+01 2.293454e+01 2.489960e+01 2.326472e+01 1.997768e+01 1.893458e+01 1.926945e+01 1.539065e+01 9.828343e+01 4.757085e+00 4.983918e+00 4.120758e+00 4.163806e+00 3.886134e+00 3.849727e+00 3.907207e+00 3.765077e+00 3.996172e+00 3.403808e+00 3.216125e+00 3.072440e+00 1.881865e+01
<GCONST> 2.003783e+02
<MIXTURE> 2 5.000000e-01
<MEAN> 39
 -3.635738e+01 -3.727655e+00 2.527122e+00 -1.371865e+01 -5.883649e+00 -1.102906e+01 -6.237351e+00 -7.383354e+00 -1.321701e+01 -7.079185e-01 -3.375057e+00 1.010902e+00 9.942295e+01 -5.180786e+00 -3.784682e-01 -1.633157e-01 -3.063191e+00 -3.229671e+00 -3.797582e+00 3.971271e-01 -1.005400e+00 -2.957870e+00 -9.319350e-01 -1.179258e+00 7.242646e-01 9.462620e+00 5.071685e-01 2.870069e-01 8.812920e-01 1.650470e+00 -6.444753e-01 -4.371253e-02 3.547066e-01 9.370646e-02 1.520785e-01 -2.798967e-01 -4.793075e-01 -1.776376e-02 -3.947472e+00
<VARIANCE> 39
 2.097434e+02 2.226872e+02 2.071554e+02 1.847172e+02 1.687856e+02 1.775924e+02 1.821584e+02 1.908955e+02 1.672626e+02 1.486392e+02 1.297803e+02 1.214704e+02 9.295333e+02 1.811012e+01 2.087414e+01 2.220416e+01 2.251822e+01 1.841742e+01 2.293454e+01 2.489960e+01 2.326472e+01 1.997768e+01 1.893458e+01 1.926945e+01 1.539065e+01 9.828343e+01 4.757085e+00 4.983918e+00 4.120758e+00 4.163806e+00 3.886134e+00 3.849727e+00 3.907207e+00 3.765077e+00 3.996172e+00 3.403808e+00 3.216125e+00 3.072440e+00 1.881865e+01
<GCONST> 2.003783e+02
<STATE> 4
<NUMMIXES> 2
<MIXTURE> 1 5.000000e-01
<MEAN> 39
 -3.117667e+01 6.628078e-01 1.668992e+01 -1.151121e+00 -8.935236e+00 -9.692517e+00 9.790483e+00 4.113272e+00 -6.998745e+00 3.539048e+00 1.372343e+00 1.190735e+01 1.100147e+02 5.246480e+00 -5.379677e-01 4.103807e+00 3.671614e+00 4.677387e-01 1.056652e+00 1.739611e+00 2.256450e+00 1.789303e+00 6.352786e-01 -3.034055e-03 1.015343e+00 -1.170914e+00 2.572091e+00 3.747354e-01 9.985964e-01 7.830492e-01 1.208468e+00 8.709470e-01 -2.928421e-01 2.303227e-01 5.265779e-01 4.836809e-01 2.150130e-01 -1.806984e-01 1.560376e-01
<VARIANCE> 39
 2.834742e+02 1.346486e+02 1.993443e+02 1.698147e+02 1.824235e+02 2.503708e+02 2.610022e+02 3.058092e+02 2.103043e+02 1.939958e+02 2.290043e+02 1.727436e+02 5.648856e+02 3.140294e+01 1.214269e+01 2.750424e+01 2.011629e+01 1.714597e+01 1.705396e+01 1.838393e+01 1.824129e+01 1.710975e+01 1.587558e+01 1.621013e+01 1.511484e+01 1.608946e+01 5.662480e+00 2.992318e+00 3.472506e+00 2.976498e+00 3.232701e+00 4.535623e+00 3.997352e+00 3.769863e+00 3.990570e+00 3.694694e+00 3.762006e+00 3.110434e+00 6.910550e+00
<GCONST> 1.974959e+02
<MIXTURE> 2 5.000000e-01
<MEAN> 39
 -3.791135e+01 -3.978720e+00 1.104234e+01 -6.363639e+00 -1.433780e+01 -1.602176e+01 3.328258e+00 -2.881689e+00 -1.279949e+01 -2.032248e+00 -4.680813e+00 6.650076e+00 1.005077e+02 3.004946e+00 -1.931822e+00 2.006027e+00 1.877566e+00 -1.188569e+00 -5.952061e-01 2.455169e-02 5.480576e-01 1.347458e-01 -9.584883e-01 -1.613506e+00 -5.397694e-01 -2.775380e+00 1.620253e+00 -3.171974e-01 2.532099e-01 9.294799e-02 4.892793e-01 1.906684e-02 -1.092577e+00 -5.463227e-01 -2.724785e-01 -2.851826e-01 -5.608227e-01 -8.861552e-01 -8.954794e-01
<VARIANCE> 39
 2.834742e+02 1.346486e+02 1.993443e+02 1.698147e+02 1.824235e+02 2.503708e+02 2.610022e+02 3.058092e+02 2.103043e+02 1.939958e+02 2.290043e+02 1.727436e+02 5.648856e+02 3.140294e+01 1.214269e+01 2.750424e+01 2.011629e+01 1.714597e+01 1.705396e+01 1.838393e+01 1.824129e+01 1.710975e+01 1.587558e+01 1.621013e+01 1.511484e+01 1.608946e+01 5.662480e+00 2.992318e+00 3.472506e+00 2.976498e+00 3.232701e+00 4.535623e+00 3.997352e+00 3.769863e+00 3.990570e+00 3.694694e+00 3.762006e+00 3.110434e+00 6.910550e+00
<GCONST> 1.974959e+02
<TRANSP> 5
 0.000000e+00 1.000000e+00 0.000000e+00 0.000000e+00 0.000000e+00
 0.000000e+00 7.807703e-01 2.192297e-01 0.000000e+00 0.000000e+00
 0.000000e+00 0.000000e+00 6.163543e-01 3.836457e-01 0.000000e+00
 0.000000e+00 0.000000e+00 0.000000e+00 6.891917e-01 3.108083e-01
 0.000000e+00 0.000000e+00 0.000000e+00 0.000000e+00 0.000000e+00
<ENDHMM>
~h "v"
<BEGINHMM>
<NUMSTATES> 5
<STATE> 2
<NUMMIXES> 2
<MIXTURE> 1 5.000000e-01
<MEAN> 39
 1.439353e+01 -2.477308e+01 1.862100e+01 -1.647120e+01 -7.558893e+00 -1.726217e+01 3.658071e+00 1.591809e+01 1.762695e+01 1.922960e+01 1.535290e+00 1.006892e+01 1.499073e+02 1.304203e+00 8.604978e-01 6.596651e-01 1.567154e+00 1.542773e+00 8.394318e-01 9.665430e-02 -2.487847e-01 -2.452493e-03 1.388970e+00 1.221115e+00 -7.018626e-02 -1.041314e+00 1.551452e-01 1.341662e+00 3.005027e-01 1.706509e+00 1.334157e+00 1.208524e+00 -2.218888e-01 -7.869209e-01 -6.881288e-01 1.876056e-03 2.271262e-01 2.273286e-01 -1.408155e+00
<VARIANCE> 39
 7.302580e+01 1.478654e+02 2.332951e+02 2.175326e+02 2.588104e+02 2.637082e+02 8.588492e+02 2.862068e+02 3.065562e+02 4.731375e+02 3.384691e+02 4.063858e+02 1.653339e+02 2.128680e+00 8.644608e+00 7.367547e+00 1.018324e+01 9.165200e+00 1.148100e+01 1.556910e+01 1.515698e+01 1.524841e+01 1.098163e+01 1.539948e+01 1.199395e+01 6.985480e+00 7.385683e-01 8.770454e-01 1.230178e+00 1.640365e+00 1.986043e+00 2.631929e+00 3.086131e+00 1.858779e+00 2.370808e+00 2.204914e+00 2.058715e+00 2.052208e+00 1.003168e+00
<GCONST> 1.805667e+02
<MIXTURE> 2 5.000000e-01
<MEAN> 39
 1.097533e+01 -2.963708e+01 1.251140e+01 -2.237080e+01 -1.399393e+01 -2.375781e+01 -8.064381e+00 9.151031e+00 1.062345e+01 1.052890e+01 -5.823722e+00 2.005312e+00 1.447641e+02 7.206031e-01 -3.155708e-01 -4.260639e-01 2.907062e-01 3.318096e-01 -5.159132e-01 -1.481654e+00 -1.806063e+00 -1.564421e+00 6.342810e-02 -3.485717e-01 -1.455478e+00 -2.098516e+00 -1.886148e-01 9.670596e-01 -1.431509e-01 1.194202e+00 7.704489e-01 5.595950e-01 -9.245843e-01 -1.332269e+00 -1.304026e+00 -5.920821e-01 -3.468028e-01 -3.456926e-01 -1.808789e+00
<VARIANCE> 39
 7.302580e+01 1.478654e+02 2.332951e+02 2.175326e+02 2.588104e+02 2.637082e+02 8.588492e+02 2.862068e+02 3.065562e+02 4.731375e+02 3.384691e+02 4.063858e+02 1.653339e+02 2.128680e+00 8.644608e+00 7.367547e+00 1.018324e+01 9.165200e+00 1.148100e+01 1.556910e+01 1.515698e+01 1.524841e+01 1.098163e+01 1.539948e+01 1.199395e+01 6.985480e+00 7.385683e-01 8.770454e-01 1.230178e+00 1.640365e+00 1.986043e+00 2.631929e+00 3.086131e+00 1.858779e+00 2.370808e+00 2.204914e+00 2.058715e+00 2.052208e+00 1.003168e+00
<GCONST> 1.805667e+02
<STATE> 3
<NUMMIXES> 2
<MIXTURE> 1 5.000000e-01
<MEAN> 39
 2.070614e+01 -1.439127e+01 2.212704e+01 1.099780e+00 3.288836e+00 -1.160754e+01 -6.990438e+00 3.450238e+00 4.204818e+00 2.001936e+01 5.173935e+00 5.090420e+00 1.304914e+02 -5.066548e-01 6.647363e+00 1.705082e+00 8.183794e+00 6.336156e+00 6.728850e+00 1.371223e+00 -2.043321e+00 -2.816305e+00 -4.978052e-01 1.410131e+00 7.170262e-01 -8.412508e+00 -1.497114e+00 5.226220e-01 -2.402739e-01 3.542133e-01 4.951364e-01 1.664850e+00 1.734872e+00 1.588213e+00 1.101051e+00 -1.670517e-01 6.070179e-02 4.473705e-01 4.297578e-02
<VARIANCE> 39
 6.181259e+01 1.739983e+02 2.253191e+02 2.829650e+02 3.020363e+02 3.539840e+02 5.018702e+02 3.247155e+02 5.023648e+02 3.453072e+02 4.034934e+02 3.290735e+02 2.619853e+02 1.362286e+01 1.306176e+01 1.572436e+01 1.917672e+01 2.025480e+01 2.431185e+01 3.713523e+01 2.297419e+01 2.665977e+01 2.663668e+01 2.417576e+01 2.123949e+01 1.102465e+01 2.094981e+00 2.518638e+00 2.205636e+00 3.932283e+00 4.356558e+00 5.534450e+00 3.805401e+00 3.400938e+00 4.954136e+00 3.576921e+00 4.041265e+00 3.144721e+00 3.537989e+00
<GCONST> 2.003254e+02
<MIXTURE> 2 5.000000e-01
<MEAN> 39
 1.756130e+01 -1.966761e+01 1.612278e+01 -5.628846e+00 -3.662840e+00 -1.913332e+01 -1.595142e+01 -3.757708e+00 -4.760581e+00 1.258638e+01 -2.860923e+00 -2.165734e+00 1.240170e+02 -1.983021e+00 5.201721e+00 1.189235e-01 6.432145e+00 4.535942e+00 4.756568e+00 -1.066324e+00 -3.960577e+00 -4.881629e+00 -2.562235e+00 -5.566233e-01 -1.126427e+00 -9.740643e+00 -2.076076e+00 -1.121867e-01 -8.343292e-01 -4.389862e-01 -3.397584e-01 7.238338e-01 9.545742e-01 8.505474e-01 2.107353e-01 -9.235617e-01 -7.434142e-01 -2.619639e-01 -7.094060e-01
<VARIANCE> 39
 6.181259e+01 1.739983e+02 2.253191e+02 2.829650e+02 3.020363e+02 3.539840e+02 5.018702e+02 3.247155e+02 5.023648e+02 3.453072e+02 4.034934e+02 3.290735e+02 2.619853e+02 1.362286e+01 1.306176e+01 1.572436e+01 1.917672e+01 2.025480e+01 2.431185e+01 3.713523e+01 2.297419e+01 2.665977e+01 2.663668e+01 2.417576e+01 2.123949e+01 1.102465e+01 2.094981e+00 2.518638e+00 2.205636e+00 3.932283e+00 4.356558e+00 5.534450e+00 3.805401e+00 3.400938e+00 4.954136e+00 3.576921e+00 4.041265e+00 3.144721e+00 3.537989e+00
<GCONST> 2.003254e+02
<STATE> 4
<NUMMIXES> 2
<MIXTURE> 1 5.000000e-01
<MEAN> 39
 9.034023e-01 -9.170752e-01 1.734963e+01 1.530286e+01 1.081966e+01 5.415943e+00 3.091592e+00 6.634182e+00 2.407790e+00 1.056530e+01 1.207507e+00 6.476149e+00 1.012478e+02 -1.626839e+00 8.154352e-01 -4.065418e-01 3.888152e-01 2.500607e-01 1.492122e+00 1.430340e+00 1.771286e+00 9.915214e-01 -1.133884e-01 6.562564e-01 8.993933e-01 -4.376926e-01 1.198971e+00 -8.932084e-01 1.443399e-01 -1.379714e+00 -9.166377e-01 -1.256000e+00 1.873577e-02 7.669188e-01 1.035707e+00 6.290993e-01 3.228773e-01 4.484298e-01 2.473423e+00
<VARIANCE> 39
 3.949771e+02 1.729998e+02 1.820451e+02 1.968774e+02 2.099285e+02 2.404260e+02 2.416015e+02 2.608104e+02 2.823695e+02 2.165786e+02 2.302250e+02 1.969263e+02 3.068882e+02 3.992540e+01 2.189558e+01 1.604496e+01 2.725805e+01 2.353985e+01 3.492316e+01 2.617762e+01 2.071160e+01 2.188501e+01 1.794359e+01 1.828404e+01 1.535846e+01 3.002171e+01 4.698336e+00 4.618128e+00 3.456602e+00 6.150706e+00 5.363425e+00 6.122128e+00 5.629904e+00 4.754869e+00 4.851037e+00 4.166996e+00 3.852635e+00 3.472166e+00 5.191330e+00
<GCONST> 2.036798e+02
<MIXTURE> 2 5.000000e-01
<MEAN> 39
 -7.046210e+00 -6.178251e+00 1.195267e+01 9.690340e+00 5.024097e+00 -7.863274e-01 -3.125822e+00 1.743319e-01 -4.313752e+00 4.678651e+00 -4.861759e+00 8.629313e-01 9.424047e+01 -4.154301e+00 -1.056273e+00 -2.008788e+00 -1.699555e+00 -1.690655e+00 -8.717107e-01 -6.162226e-01 -4.911393e-02 -8.797354e-01 -1.807783e+00 -1.054137e+00 -6.682016e-01 -2.629375e+00 3.319455e-01 -1.752802e+00 -5.993377e-01 -2.371738e+00 -1.843000e+00 -2.245718e+00 -9.303610e-01 -1.053077e-01 1.547038e-01 -1.874295e-01 -4.622479e-01 -2.969202e-01 1.562043e+00
<VARIANCE> 39
 3.949771e+02 1.729998e+02 1.820451e+02 1.968774e+02 2.099285e+02 2.404260e+02 2.416015e+02 2.608104e+02 2.823695e+02 2.165786e+02 2.302250e+02 1.969263e+02 3.068882e+02 3.992540e+01 2.189558e+01 1.604496e+01 2.725805e+01 2.353985e+01 3.492316e+01 2.617762e+01 2.071160e+01 2.188501e+01 1.794359e+01 1.828404e+01 1.535846e+01 3.002171e+01 4.698336e+00 4.618128e+00 3.456602e+00 6.150706e+00 5.363425e+00 6.122128e+00 5.629904e+00 4.754869e+00 4.851037e+00 4.166996e+00 3.852635e+00 3.472166e+00 5.191330e+00
<GCONST> 2.036798e+02
<TRANSP> 5
 0.000000e+00 1.000000e+00 0.000000e+00 0.000000e+00 0.000000e+00
 0.000000e+00 7.614150e-01 2.385850e-01 0.000000e+00 0.000000e+00
 0.000000e+00 0.000000e+00 6.402437e-01 3.597563e-01 0.000000e+00
 0.000000e+00 0.000000e+00 0.000000e+00 7.595219e-01 2.404781e-01
 0.000000e+00 0.000000e+00 0.000000e+00 0.000000e+00 0.000000e+00
<ENDHMM>
~h "w"
<BEGINHMM>
<NUMSTATES> 5
<STATE> 2
<NUMMIXES> 2
<MIXTURE> 1 5.000000e-01
<MEAN> 39
 3.433614e+01 1.167629e+01 2.066913e+01 -3.452702e+01 -1.823634e+01 1.453289e+00 2.682320e+00 2.256289e+01 4.597616e-02 1.777158e+01 5.225177e+00 2.866825e+00 1.241649e+02 -2.204123e-01 -3.574448e+00 -3.303719e+00 -5.418817e+00 3.232279e+00 4.030673e+00 3.173578e+00 5.652390e+00 1.121207e+00 -1.372612e+00 1.454022e+00 1.020511e+00 4.623047e+00 -3.751717e-01 -4.094382e-01 -4.202770e-01 1.503131e+00 2.366278e+00 1.838747e+00 7.286251e-01 -5.103011e-01 -4.017184e-01 -5.382481e-01 7.544780e-01 7.451788e-01 -6.505701e-02
<VARIANCE> 39
 4.783763e+01 1.832384e+02 2.250396e+02 3.084017e+02 4.155731e+02 2.729994e+02 5.966915e+02 3.918436e+02 4.389097e+02 3.976333e+02 3.348575e+02 2.785985e+02 1.197183e+02 2.170049e+00 9.677865e+00 7.534444e+00 1.376904e+01 1.829954e+01 1.768183e+01 1.829219e+01 1.887671e+01 2.078626e+01 1.985045e+01 1.623651e+01 1.780725e+01 5.123501e+00 5.728044e-01 1.250434e+00 1.315961e+00 2.969652e+00 2.216560e+00 2.360304e+00 3.967911e+00 4.187150e+00 3.302978e+00 3.224435e+00 3.186781e+00 2.729308e+00 6.077535e-01
<GCONST> 1.863618e+02
<MIXTURE> 2 5.000000e-01
<MEAN> 39
 3.156956e+01 6.261665e+00 1.466861e+01 -4.155157e+01 -2.639058e+01 -5.155789e+00 -7.088588e+00 1.464487e+01 -8.334093e+00 9.795281e+00 -2.094468e+00 -3.809684e+00 1.197883e+02 -8.096558e-01 -4.818818e+00 -4.401677e+00 -6.903083e+00 1.521161e+00 2.348682e+00 1.462803e+00 3.914497e+00 -7.024708e-01 -3.154766e+00 -1.577600e-01 -6.674349e-01 3.717641e+00 -6.779070e-01 -8.567294e-01 -8.791384e-01 8.138233e-01 1.770754e+00 1.224215e+00 -6.815952e-02 -1.328802e+00 -1.128682e+00 -1.256517e+00 4.041567e-02 8.435404e-02 -3.768912e-01
<VARIANCE> 39
 4.783763e+01 1.832384e+02 2.250396e+02 3.084017e+02 4.155731e+02 2.729994e+02 5.966915e+02 3.918436e+02 4.389097e+02 3.976333e+02 3.348575e+02 2.785985e+02 1.197183e+02 2.170049e+00 9.677865e+00 7.534444e+00 1.376904e+01 1.829954e+01 1.768183e+01 1.829219e+01 1.887671e+01 2.078626e+01 1.985045e+01 1.623651e+01 1.780725e+01 5.123501e+00 5.728044e-01 1.250434e+00 1.315961e+00 2.969652e+00 2.216560e+00 2.360304e+00 3.967911e+00 4.187150e+00 3.302978e+00 3.224435e+00 3.186781e+00 2.729308e+00 6.077535e-01
<GCONST> 1.863618e+02
<STATE> 3
<NUMMIXES> 2
<MIXTURE> 1 5.000000e-01
<MEAN> 39
 2.996938e+01 -6.070945e+00 4.077290e+00 -4.471006e+01 5.936919e+00 2.236868e+01 8.822599e+00 2.452056e+01 -7.796619e+00 5.556571e+00 1.425804e+01 9.965861e+00 1.367022e+02 -1.200906e+00 -4.026182e+00 -2.011728e+00 2.282577e+00 7.321101e+00 3.955173e+00 -1.439186e+00 -2.144213e+00 6.487048e-02 1.569430e+00 4.536445e+00 1.147639e+00 2.867549e+00 -3.239223e-02 4.863345e-01 1.129903e+00 2.288342e+00 -5.318928e-02 -1.159556e+00 -1.249835e+00 -3.646285e-01 1.590929e+00 1.760617e+00 -4.581270e-02 -6.815173e-01 -4.138061e-01
<VARIANCE> 39
 5.447151e+01 1.725187e+02 2.133840e+02 2.917918e+02 5.598839e+02 3.152797e+02 5.728226e+02 4.198436e+02 3.977951e+02 4.199764e+02 3.424331e+02 2.911786e+02 1.410125e+02 1.934685e+00 6.908452e+00 5.890038e+00 1.261191e+01 1.163497e+01 1.414709e+01 2.056010e+01 1.628068e+01 2.052680e+01 2.240777e+01 1.400252e+01 1.924076e+01 3.475608e+00 2.793020e-01 6.972426e-01 9.187343e-01 2.067877e+00 2.473612e+00 2.443171e+00 2.480361e+00 3.827408e+00 3.251635e+00 3.041407e+00 4.071624e+00 2.778018e+00 2.969816e-01
<GCONST> 1.821702e+02
<MIXTURE> 2 5.000000e-01
<MEAN> 39
 2.701718e+01 -1.132480e+01 -1.765778e+00 -5.154282e+01 -3.527827e+00 1.526624e+01 -7.508855e-01 1.632452e+01 -1.577454e+01 -2.640759e+00 6.856060e+00 3.140279e+00 1.319522e+02 -1.757278e+00 -5.077539e+00 -2.982504e+00 8.620470e-01 5.956698e+00 2.450669e+00 -3.252916e+00 -3.758187e+00 -1.747390e+00 -3.240436e-01 3.039647e+00 -6.069323e-01 2.121829e+00 -2.437884e-01 1.523303e-01 7.465005e-01 1.713137e+00 -6.822981e-01 -1.784782e+00 -1.879801e+00 -1.147179e+00 8.696372e-01 1.063032e+00 -8.529433e-01 -1.348213e+00 -6.317902e-01
<VARIANCE> 39
 5.447151e+01 1.725187e+02 2.133840e+02 2.917918e+02 5.598839e+02 3.152797e+02 5.728226e+02 4.198436e+02 3.977951e+02 4.199764e+02 3.424331e+02 2.911786e+02 1.410125e+02 1.934685e+00 6.908452e+00 5.890038e+00 1.261191e+01 1.163497e+01 1.414709e+01 2.056010e+01 1.628068e+01 2.052680e+01 2.240777e+01 1.400252e+01 1.924076e+01 3.475608e+00 2.793020e-01 6.972426e-01 9.187343e-01 2.067877e+00 2.473612e+00 2.443171e+00 2.480361e+00 3.827408e+00 3.251635e+00 3.041407e+00 4.071624e+00 2.778018e+00 2.969816e-01
<GCONST> 1.821702e+02
<STATE> 4
<NUMMIXES> 2
<MIXTURE> 1 5.000000e-01
<MEAN> 39
 2.228355e+01 -2.238453e+01 1.574135e+00 -2.360666e+01 2.772268e+01 1.406178e+01 -7.891168e+00 1.867982e+01 7.376987e+00 1.588168e+01 1.476713e+01 -9.277184e-01 1.423337e+02 -1.213039e+00 -1.319416e+00 2.553681e+00 5.486516e+00 4.979429e-01 -3.398038e+00 -1.455499e+00 2.479867e+00 4.292502e+00 1.144066e+00 -2.454441e+00 1.886205e-01 8.050840e-01 2.302338e-01 1.119322e+00 1.117601e+00 2.544183e-01 -1.097029e+00 -4.425396e-01 1.634191e+00 1.034190e+00 -2.483011e-01 -3.969375e-01 -4.507273e-01 1.314265e+00 -5.351615e-01
<VARIANCE> 39
 6.700077e+01 1.461905e+02 2.003769e+02 2.891263e+02 4.333857e+02 3.716208e+02 4.382077e+02 4.485049e+02 4.317334e+02 3.429636e+02 3.953327e+02 2.999757e+02 1.513979e+02 1.690843e+00 5.254350e+00 5.609208e+00 8.675505e+00 1.634245e+01 1.115512e+01 1.953048e+01 1.639722e+01 1.736850e+01 2.464320e+01 1.504770e+01 2.186475e+01 1.989729e+00 2.356086e-01 7.266358e-01 9.454145e-01 1.329214e+00 2.208897e+00 2.360929e+00 2.571257e+00 2.950401e+00 3.588495e+00 2.611837e+00 4.512352e+00 3.000375e+00 3.737199e-01
<GCONST> 1.802085e+02
<MIXTURE> 2 5.000000e-01
<MEAN> 39
 1.900939e+01 -2.722091e+01 -4.088047e+00 -3.040814e+01 1.939552e+01 6.350797e+00 -1.626453e+01 1.020864e+01 -9.342911e-01 8.473965e+00 6.813945e+00 -7.855641e+00 1.374119e+02 -1.733169e+00 -2.236310e+00 1.606331e+00 4.308348e+00 -1.119089e+00 -4.734009e+00 -3.223231e+00 8.601273e-01 2.625481e+00 -8.416109e-01 -4.006095e+00 -1.681770e+00 2.408530e-01 3.607564e-02 7.783507e-01 7.286713e-01 -2.067479e-01 -1.691523e+00 -1.057152e+00 9.927852e-01 3.471209e-01 -1.006034e+00 -1.043385e+00 -1.300419e+00 6.214010e-01 -7.796921e-01
<VARIANCE> 39
 6.700077e+01 1.461905e+02 2.003769e+02 2.891263e+02 4.333857e+02 3.716208e+02 4.382077e+02 4.485049e+02 4.317334e+02 3.429636e+02 3.953327e+02 2.999757e+02 1.513979e+02 1.690843e+00 5.254350e+00 5.609208e+00 8.675505e+00 1.634245e+01 1.115512e+01 1.953048e+01 1.639722e+01 1.736850e+01 2.464320e+01 1.504770e+01 2.186475e+01 1.989729e+00 2.356086e-01 7.266358e-01 9.454145e-01 1.329214e+00 2.208897e+00 2.360929e+00 2.571257e+00 2.950401e+00 3.588495e+00 2.611837e+00 4.512352e+00 3.000375e+00 3.737199e-01
<GCONST> 1.802085e+02
<TRANSP> 5
 0.000000e+00 1.000000e+00 0.000000e+00 0.000000e+00 0.000000e+00
 0.000000e+00 6.965605e-01 3.034395e-01 0.000000e+00 0.000000e+00
 0.000000e+00 0.000000e+00 7.595831e-01 2.404169e-01 0.000000e+00
 0.000000e+00 0.000000e+00 0.000000e+00 7.919197e-01 2.080803e-01
 0.000000e+00 0.000000e+00 0.000000e+00 0.000000e+00 0.000000e+00
<ENDHMM>
~h "z"
<BEGINHMM>
<NUMSTATES> 5
<STATE> 2
<NUMMIXES> 2
<MIXTURE> 1 5.000000e-01
<MEAN> 39
 -5.647484e+00 1.895795e+01 2.378857e+01 2.091396e+01 1.315834e+01 -1.523188e+00 9.586413e-01 5.248393e+00 2.514716e+00 5.676700e+00 -5.370311e+00 9.952236e+00 9.962317e+01 -1.679586e+00 6.360404e+00 5.807171e-01 3.772792e+00 3.048183e+00 2.097840e+00 1.577582e+00 1.753496e+00 1.436920e+00 8.040211e-01 9.236302e-01 1.139295e+00 4.283338e+00 -4.468120e-01 3.313618e-01 -3.313381e-01 8.515885e-02 2.184956e-01 6.555756e-01 4.742253e-01 5.925254e-01 1.671791e-01 6.984750e-01 7.423893e-01 2.486863e-01 4.409614e-01
<VARIANCE> 39
 3.361763e+02 2.707970e+02 3.193340e+02 3.408778e+02 3.661223e+02 3.220045e+02 3.197395e+02 2.841967e+02 2.558734e+02 2.768106e+02 2.859579e+02 3.489978e+02 6.848092e+02 4.760538e+01 2.452073e+01 3.634358e+01 3.112174e+01 2.562433e+01 3.172287e+01 2.733175e+01 2.710028e+01 2.341183e+01 2.463672e+01 2.359697e+01 2.105420e+01 3.826944e+01 4.548142e+00 4.133513e+00 4.759869e+00 4.152518e+00 4.260020e+00 4.626863e+00 4.586476e+00 4.629541e+00 3.823520e+00 4.460719e+00 4.079817e+00 4.045866e+00 3.784498e+00
<GCONST> 2.095343e+02
<MIXTURE> 2 5.000000e-01
<MEAN> 39
 -1.298153e+01 1.237559e+01 1.664061e+01 1.352880e+01 5.504607e+00 -8.700981e+00 -6.193863e+00 -1.494861e+00 -3.883702e+00 -9.783514e-01 -1.213443e+01 2.479643e+00 8.915562e+01 -4.439452e+00 4.379668e+00 -1.830708e+00 1.541318e+00 1.023364e+00 -1.550823e-01 -5.136088e-01 -3.288206e-01 -4.985111e-01 -1.181395e+00 -1.019438e+00 -6.960990e-01 1.808846e+00 -1.299867e+00 -4.818799e-01 -1.204023e+00 -7.299503e-01 -6.070970e-01 -2.048302e-01 -3.824171e-01 -2.681293e-01 -6.149739e-01 -1.463416e-01 -6.555295e-02 -5.558873e-01 -3.371900e-01
<VARIANCE> 39
 3.361763e+02 2.707970e+02 3.193340e+02 3.408778e+02 3.661223e+02 3.220045e+02 3.197395e+02 2.841967e+02 2.558734e+02 2.768106e+02 2.859579e+02 3.489978e+02 6.848092e+02 4.760538e+01 2.452073e+01 3.634358e+01 3.112174e+01 2.562433e+01 3.172287e+01 2.733175e+01 2.710028e+01 2.341183e+01 2.463672e+01 2.359697e+01 2.105420e+01 3.826944e+01 4.548142e+00 4.133513e+00 4.759869e+00 4.152518e+00 4.260020e+00 4.626863e+00 4.586476e+00 4.629541e+00 3.823520e+00 4.460719e+00 4.079817e+00 4.045866e+00 3.784498e+00
<GCONST> 2.095343e+02
<STATE> 3
<NUMMIXES> 2
<MIXTURE> 1 5.000000e-01
<MEAN> 39
 -3.026896e+01 3.471097e+01 1.229603e+01 2.886171e+01 1.699094e+01 8.152583e+00 5.527502e+00 9.996665e+00 1.179485e+00 8.114467e+00 -9.378088e-01 9.145466e+00 1.115434e+02 -2.489354e+00 6.916932e-01 -5.738140e-01 1.278208e-01 5.295904e-01 1.407059e+00 1.330320e+00 1.087098e+00 3.276258e-01 1.062212e+00 1.138223e+00 7.032058e-01 1.657898e+00 2.052950e+00 -7.499848e-01 1.608400e+00 -1.488738e-01 -3.765327e-01 -3.574161e-01 7.595009e-02 -3.519809e-01 3.419206e-02 2.143776e-02 4.392704e-02 4.053739e-01 6.468788e-01
<VARIANCE> 39
 2.288630e+02 1.926242e+02 2.762814e+02 3.898242e+02 4.212952e+02 3.458568e+02 2.504579e+02 2.220675e+02 1.584926e+02 1.616243e+02 2.462998e+02 1.839660e+02 1.722218e+02 1.741116e+01 1.518022e+01 1.601104e+01 1.412212e+01 1.532510e+01 1.744331e+01 1.518961e+01 1.631369e+01 1.315504e+01 1.356780e+01 1.124435e+01 1.203234e+01 8.229424e+00 2.652311e+00 3.480635e+00 2.954990e+00 2.972330e+00 3.127164e+00 3.823771e+00 3.474181e+00 3.561719e+00 2.839315e+00 2.829421e+00 2.426173e+00 2.492084e+00 1.529701e+00
<GCONST> 1.907943e+02
<MIXTURE> 2 5.000000e-01
<MEAN> 39
 -3.632024e+01 2.915941e+01 5.647342e+00 2.096413e+01 8.780745e+00 7.136927e-01 -8.028424e-01 4.035893e+00 -3.856269e+00 3.029205e+00 -7.215385e+00 3.720104e+00 1.062940e+02 -4.158422e+00 -8.667788e-01 -2.174366e+00 -1.375355e+00 -1.036301e+00 -2.635490e-01 -2.286336e-01 -5.285106e-01 -1.123169e+00 -4.111673e-01 -2.030814e-01 -6.843008e-01 5.104195e-01 1.401514e+00 -1.496243e+00 9.207963e-01 -8.384917e-01 -1.083884e+00 -1.139595e+00 -6.696161e-01 -1.106882e+00 -6.398187e-01 -6.513976e-01 -5.791200e-01 -2.260796e-01 1.521545e-01
<VARIANCE> 39
 2.288630e+02 1.926242e+02 2.762814e+02 3.898242e+02 4.212952e+02 3.458568e+02 2.504579e+02 2.220675e+02 1.584926e+02 1.616243e+02 2.462998e+02 1.839660e+02 1.722218e+02 1.741116e+01 1.518022e+01 1.601104e+01 1.412212e+01 1.532510e+01 1.744331e+01 1.518961e+01 1.631369e+01 1.315504e+01 1.356780e+01 1.124435e+01 1.203234e+01 8.229424e+00 2.652311e+00 3.480635e+00 2.954990e+00 2.972330e+00 3.127164e+00 3.823771e+00 3.474181e+00 3.561719e+00 2.839315e+00 2.829421e+00 2.426173e+00 2.492084e+00 1.529701e+00
<GCONST> 1.907943e+02
<STATE> 4
<NUMMIXES> 2
<MIXTURE> 1 5.000000e-01
<MEAN> 39
 -2.328743e+01 2.580993e+01 2.362525e+01 2.072517e+01 1.064103e+01 -2.205573e+00 1.246517e+00 1.269180e+00 -4.262496e+00 3.991706e+00 -3.858442e+00 8.831765e+00 1.248454e+02 9.186136e+00 -3.925328e+00 9.513994e+00 -3.958369e-01 -2.230786e+00 -2.637947e+00 -1.518434e+00 -1.913759e+00 -8.533787e-01 -6.256773e-01 -3.386217e-01 1.476117e+00 5.224164e+00 1.787234e+00 -1.399535e+00 1.916697e+00 -4.005339e-01 2.398122e-01 2.074915e-01 2.158090e-02 6.492946e-01 2.365454e-01 6.286472e-01 4.103774e-01 5.447229e-01 2.843267e-01
<VARIANCE> 39
 3.143295e+02 1.723987e+02 3.418724e+02 3.031154e+02 4.799283e+02 3.066327e+02 2.818391e+02 1.991784e+02 1.493990e+02 1.701817e+02 2.945817e+02 2.420346e+02 1.710475e+02 2.194113e+01 3.080505e+01 3.291077e+01 3.161785e+01 2.140688e+01 2.852098e+01 2.487489e+01 3.178351e+01 2.002157e+01 1.719407e+01 1.690609e+01 2.022663e+01 6.078759e+00 5.724454e+00 2.920867e+00 5.684552e+00 4.710591e+00 4.207066e+00 4.406942e+00 4.312263e+00 4.536285e+00 3.518843e+00 3.676346e+00 3.423268e+00 3.118450e+00 1.100825e+00
<GCONST> 2.004742e+02
<MIXTURE> 2 5.000000e-01
<MEAN> 39
 -3.037917e+01 2.055790e+01 1.622933e+01 1.376109e+01 1.878119e+00 -9.209945e+00 -5.468709e+00 -4.376043e+00 -9.151651e+00 -1.226442e+00 -1.072379e+01 2.608781e+00 1.196140e+02 7.312481e+00 -6.145420e+00 7.219278e+00 -2.645027e+00 -4.081489e+00 -4.774149e+00 -3.513424e+00 -4.168833e+00 -2.643198e+00 -2.284307e+00 -1.983302e+00 -3.228442e-01 4.237958e+00 8.302004e-01 -2.083157e+00 9.630051e-01 -1.268690e+00 -5.806332e-01 -6.322172e-01 -8.090587e-01 -2.026476e-01 -5.137978e-01 -1.383048e-01 -3.297056e-01 -1.616425e-01 -1.353541e-01
<VARIANCE> 39
 3.143295e+02 1.723987e+02 3.418724e+02 3.031154e+02 4.799283e+02 3.066327e+02 2.818391e+02 1.991784e+02 1.493990e+02 1.701817e+02 2.945817e+02 2.420346e+02 1.710475e+02 2.194113e+01 3.080505e+01 3.291077e+01 3.161785e+01 2.140688e+01 2.852098e+01 2.487489e+01 3.178351e+01 2.002157e+01 1.719407e+01 1.690609e+01 2.022663e+01 6.078759e+00 5.724454e+00 2.920867e+00 5.684552e+00 4.710591e+00 4.207066e+00 4.406942e+00 4.312263e+00 4.536285e+00 3.518843e+00 3.676346e+00 3.423268e+00 3.118450e+00 1.100825e+00
<GCONST> 2.004742e+02
<TRANSP> 5
 0.000000e+00 1.000000e+00 0.000000e+00 0.000000e+00 0.000000e+00
 0.000000e+00 7.262852e-01 2.737148e-01 0.000000e+00 0.000000e+00
 0.000000e+00 0.000000e+00 8.100741e-01 1.899259e-01 0.000000e+00
 0.000000e+00 0.000000e+00 0.000000e+00 7.412483e-01 2.587517e-01
 0.000000e+00 0.000000e+00 0.000000e+00 0.000000e+00 0.000000e+00
<ENDHMM>
~h "ah"
<BEGINHMM>
<NUMSTATES> 5
<STATE> 2
<NUMMIXES> 2
<MIXTURE> 1 5.000000e-01
<MEAN> 39
 1.909611e+01 -1.730326e+01 2.038007e+01 -6.803479e+00 9.250206e+00 -5.662499e+00 -6.269834e+00 1.814436e+01 7.378163e+00 1.494573e+01 4.790015e+00 6.774532e+00 1.361607e+02 1.976263e-01 1.314553e+00 3.353839e+00 1.779305e+00 -7.106606e-01 -1.468153e+00 3.209649e+00 2.804770e+00 7.806368e-01 4.807889e-01 -9.086201e-01 2.415475e+00 8.257348e-01 2.626579e-01 1.536124e+00 7.688785e-01 1.699937e+00 4.743724e-01 1.682726e+00 1.888579e+00 -1.071000e+00 -4.197145e-01 4.004411e-01 1.265525e-01 6.535648e-01 -1.324999e+00
<VARIANCE> 39
 7.613589e+01 1.455413e+02 1.780951e+02 2.135650e+02 2.464259e+02 3.675583e+02 6.325896e+02 4.439273e+02 4.573643e+02 4.523411e+02 3.583255e+02 3.526874e+02 1.763440e+02 3.893790e+00 1.153460e+01 1.154444e+01 3.140892e+01 1.758022e+01 1.972809e+01 2.627847e+01 2.343109e+01 2.830235e+01 2.488814e+01 2.863314e+01 2.097108e+01 1.801860e+01 9.806106e-01 1.742001e+00 1.710379e+00 3.920344e+00 3.172818e+00 4.694442e+00 6.541203e+00 5.689353e+00 5.069854e+00 4.145041e+00 3.976816e+00 3.349025e+00 2.092506e+00
<GCONST> 1.976002e+02
<MIXTURE> 2 5.000000e-01
<MEAN> 39
 1.560587e+01 -2.212888e+01 1.504197e+01 -1.264902e+01 2.971023e+00 -1.333122e+01 -1.633037e+01 9.716523e+00 -1.176267e+00 6.438407e+00 -2.781780e+00 -7.374578e-01 1.308489e+02 -5.916812e-01 -4.395175e-02 1.994755e+00 -4.624418e-01 -2.387812e+00 -3.244805e+00 1.159147e+00 8.685436e-01 -1.347361e+00 -1.514732e+00 -3.049018e+00 5.837072e-01 -8.721982e-01 -1.334452e-01 1.008184e+00 2.457527e-01 9.079429e-01 -2.381238e-01 8.160598e-01 8.655485e-01 -2.025094e+00 -1.320368e+00 -4.139339e-01 -6.711257e-01 -7.844895e-02 -1.903619e+00
<VARIANCE> 39
 7.613589e+01 1.455413e+02 1.780951e+02 2.135650e+02 2.464259e+02 3.675583e+02 6.325896e+02 4.439273e+02 4.573643e+02 4.523411e+02 3.583255e+02 3.526874e+02 1.763440e+02 3.893790e+00 1.153460e+01 1.154444e+01 3.140892e+01 1.758022e+01 1.972809e+01 2.627847e+01 2.343109e+01 2.830235e+01 2.488814e+01 2.863314e+01 2.097108e+01 1.801860e+01 9.806106e-01 1.742001e+00 1.710379e+00 3.920344e+00 3.172818e+00 4.694442e+00 6.541203e+00 5.689353e+00 5.069854e+00 4.145041e+00 3.976816e+00 3.349025e+00 2.092506e+00
<GCONST> 1.976002e+02
<STATE> 3
<NUMMIXES> 2
<MIXTURE> 1 5.000000e-01
<MEAN> 39
 1.918345e+01 -7.513409e+00 3.108477e+01 6.918857e+00 7.894582e+00 -6.786932e+00 9.349934e+00 1.482244e+01 2.131737e+00 1.258601e+01 -4.508549e+00 1.449515e+01 1.259137e+02 1.256524e+00 5.811207e+00 5.332825e+00 8.145209e+00 -2.088156e+00 4.892549e+00 7.889448e+00 -6.516389e+00 -2.889744e-01 3.841418e-01 -9.746400e-01 3.551659e+00 -5.806509e+00 2.154551e-01 4.086384e-01 -2.257393e-01 2.103665e-01 6.541330e-02 2.026731e+00 3.158229e-01 -6.349174e-01 1.063718e+00 3.299595e-01 1.155326e+00 9.378290e-02 8.220562e-02
<VARIANCE> 39
 5.726916e+01 1.834021e+02 2.118946e+02 3.485124e+02 2.738349e+02 4.088762e+02 6.079530e+02 5.181744e+02 4.252061e+02 5.412283e+02 3.963575e+02 4.013892e+02 1.910977e+02 5.278086e+00 8.878442e+00 1.575344e+01 2.082442e+01 2.303635e+01 4.404263e+01 4.995770e+01 3.959254e+01 3.923097e+01 3.038449e+01 3.510982e+01 2.689251e+01 4.092798e+00 5.816914e-01 1.565163e+00 2.526128e+00 4.371838e+00 2.976087e+00 4.862969e+00 5.411979e+00 7.055945e+00 4.476090e+00 3.961900e+00 3.641525e+00 3.237698e+00 1.504143e+00
<GCONST> 1.998783e+02
<MIXTURE> 2 5.000000e-01
<MEAN> 39
 1.615639e+01 -1.293045e+01 2.526213e+01 -5.485384e-01 1.275398e+00 -1.487521e+01 -5.127478e-01 5.717061e+00 -6.116473e+00 3.280285e+00 -1.247204e+01 6.481270e+00 1.203841e+02 3.375610e-01 4.619339e+00 3.745201e+00 6.319858e+00 -4.008004e+00 2.237964e+00 5.062218e+00 -9.033293e+00 -2.794360e+00 -1.820743e+00 -3.344782e+00 1.477339e+00 -6.615736e+00 -8.961968e-02 -9.178756e-02 -8.614912e-01 -6.259911e-01 -6.246403e-01 1.144645e+00 -6.147236e-01 -1.697439e+00 2.174473e-01 -4.662214e-01 3.920150e-01 -6.259613e-01 -4.083684e-01
<VARIANCE> 39
 5.726916e+01 1.834021e+02 2.118946e+02 3.485124e+02 2.738349e+02 4.088762e+02 6.079530e+02 5.181744e+02 4.252061e+02 5.412283e+02 3.963575e+02 4.013892e+02 1.910977e+02 5.278086e+00 8.878442e+00 1.575344e+01 2.082442e+01 2.303635e+01 4.404263e+01 4.995770e+01 3.959254e+01 3.923097e+01 3.038449e+01 3.510982e+01 2.689251e+01 4.092798e+00 5.816914e-01 1.565163e+00 2.526128e+00 4.371838e+00 2.976087e+00 4.862969e+00 5.411979e+00 7.055945e+00 4.476090e+00 3.961900e+00 3.641525e+00 3.237698e+00 1.504143e+00
<GCONST> 1.998783e+02
<STATE> 4
<NUMMIXES> 2
<MIXTURE> 1 5.000000e-01
<MEAN> 39
 2.074019e+01 5.503111e+00 3.805208e+01 2.020203e+01 -1.954843e+00 1.177635e+01 2.069949e+01 -5.299318e+00 2.729295e+00 9.855335e+00 -2.483733e+00 1.840702e+01 1.107316e+02 1.609044e-01 2.765691e+00 1.174860e+00 2.451197e+00 2.286170e-01 3.116588e+00 2.526054e+00 -5.007724e-01 9.470319e-01 3.867051e-01 4.742324e-01 7.623418e-01 -2.295616e+00 -2.742070e-01 -2.381590e-01 -5.683819e-01 -4.095375e-01 1.147971e+00 -2.890564e-01 -4.641461e-01 2.004676e+00 5.152150e-01 4.281283e-01 5.388223e-01 -2.011140e-01 5.514631e-01
<VARIANCE> 39
 5.038901e+01 1.914466e+02 1.386801e+02 2.603725e+02 2.554552e+02 4.021741e+02 4.879432e+02 4.092290e+02 5.173077e+02 5.704755e+02 5.347667e+02 4.866283e+02 1.823327e+02 2.676966e+00 6.663472e+00 7.999297e+00 1.052642e+01 1.147083e+01 1.863241e+01 1.961399e+01 2.460659e+01 1.493052e+01 1.282675e+01 1.491467e+01 1.301184e+01 3.946885e+00 6.029933e-01 1.363473e+00 1.712603e+00 2.847239e+00 2.343519e+00 3.576229e+00 4.420272e+00 4.245294e+00 3.683234e+00 3.033380e+00 3.539767e+00 3.132810e+00 9.890845e-01
<GCONST> 1.873702e+02
<MIXTURE> 2 5.000000e-01
<MEAN> 39
 1.790079e+01 -3.145862e-02 3.334158e+01 1.374761e+01 -8.348029e+00 3.754636e+00 1.186371e+01 -1.339108e+01 -6.368464e+00 3.014832e-01 -1.173374e+01 9.583158e+00 1.053304e+02 -4.935530e-01 1.733143e+00 4.353851e-02 1.153419e+00 -1.126128e+00 1.389977e+00 7.545463e-01 -2.484973e+00 -5.985693e-01 -1.045873e+00 -1.070548e+00 -6.805354e-01 -3.090286e+00 -5.848176e-01 -7.052304e-01 -1.091848e+00 -1.084488e+00 5.356285e-01 -1.045493e+00 -1.305124e+00 1.180512e+00 -2.524552e-01 -2.685358e-01 -2.137485e-01 -9.091039e-01 1.536522e-01
<VARIANCE> 39
 5.038901e+01 1.914466e+02 1.386801e+02 2.603725e+02 2.554552e+02 4.021741e+02 4.879432e+02 4.092290e+02 5.173077e+02 5.704755e+02 5.347667e+02 4.866283e+02 1.823327e+02 2.676966e+00 6.663472e+00 7.999297e+00 1.052642e+01 1.147083e+01 1.863241e+01 1.961399e+01 2.460659e+01 1.493052e+01 1.282675e+01 1.491467e+01 1.301184e+01 3.946885e+00 6.029933e-01 1.363473e+00 1.712603e+00 2.847239e+00 2.343519e+00 3.576229e+00 4.420272e+00 4.245294e+00 3.683234e+00 3.033380e+00 3.539767e+00 3.132810e+00 9.890845e-01
<GCONST> 1.873702e+02
<TRANSP> 5
 0.000000e+00 1.000000e+00 0.000000e+00 0.000000e+00 0.000000e+00
 0.000000e+00 7.139576e-01 2.860424e-01 0.000000e+00 0.000000e+00
 0.000000e+00 0.000000e+00 5.602442e-01 4.397558e-01 0.000000e+00
 0.000000e+00 0.000000e+00 0.000000e+00 7.532504e-01 2.467496e-01
 0.000000e+00 0.000000e+00 0.000000e+00 0.000000e+00 0.000000e+00
<ENDHMM>
~h "ao"
<BEGINHMM>
<NUMSTATES> 5
<STATE> 2
<NUMMIXES> 2
<MIXTURE> 1 5.000000e-01
<MEAN> 39
 3.592380e+01 1.613283e+01 1.624273e+01 -3.535651e+01 -1.609568e+01 3.657346e+00 3.319237e+00 1.206219e+01 -1.059166e+01 9.036247e+00 -5.673221e+00 5.454661e+00 1.222683e+02 9.050215e+00 4.833928e+00 4.408330e+00 -8.069953e+00 -4.228491e+00 -4.243096e-01 2.876561e-01 3.364657e+00 -5.307360e-01 2.356655e+00 -3.639472e-01 1.647505e-01 4.533286e+00 -4.058422e+00 -1.843404e+00 -8.080610e-01 2.932628e+00 1.357674e+00 1.173467e-01 -4.070801e-01 -1.432581e-01 8.951001e-01 4.955412e-01 7.826048e-01 4.287750e-01 -7.310745e-01
<VARIANCE> 39
 5.624178e+01 1.452858e+02 1.957739e+02 3.609464e+02 4.436230e+02 3.085293e+02 3.707675e+02 3.671932e+02 3.420378e+02 2.894501e+02 2.559011e+02 3.546609e+02 1.479370e+02 3.783759e+01 2.225035e+01 2.018177e+01 3.671645e+01 3.354822e+01 2.331047e+01 3.301720e+01 2.887508e+01 2.993890e+01 2.829300e+01 2.378761e+01 3.048531e+01 1.093038e+01 1.503768e+00 2.211992e+00 2.263777e+00 4.769446e+00 4.070017e+00 2.929501e+00 3.709558e+00 3.732256e+00 3.806615e+00 3.009983e+00 3.119141e+00 3.816057e+00 1.939746e+00
<GCONST> 2.002660e+02
<MIXTURE> 2 5.000000e-01
<MEAN> 39
 3.292402e+01 1.131145e+01 1.064597e+01 -4.295595e+01 -2.452062e+01 -3.368655e+00 -4.382892e+00 4.397272e+00 -1.798936e+01 2.230953e+00 -1.207198e+01 -2.078315e+00 1.174031e+02 6.589724e+00 2.947116e+00 2.611366e+00 -1.049372e+01 -6.545323e+00 -2.355546e+00 -2.010768e+00 1.215235e+00 -2.719394e+00 2.290087e-01 -2.314849e+00 -2.043790e+00 3.210840e+00 -4.548934e+00 -2.438314e+00 -1.409895e+00 2.059066e+00 5.507029e-01 -5.672847e-01 -1.177489e+00 -9.160199e-01 1.146781e-01 -1.984310e-01 7.616121e-02 -3.526143e-01 -1.288174e+00
<VARIANCE> 39
 5.624178e+01 1.452858e+02 1.957739e+02 3.609464e+02 4.436230e+02 3.085293e+02 3.707675e+02 3.671932e+02 3.420378e+02 2.894501e+02 2.559011e+02 3.546609e+02 1.479370e+02 3.783759e+01 2.225035e+01 2.018177e+01 3.671645e+01 3.354822e+01 2.331047e+01 3.301720e+01 2.887508e+01 2.993890e+01 2.829300e+01 2.378761e+01 3.048531e+01 1.093038e+01 1.503768e+00 2.211992e+00 2.263777e+00 4.769446e+00 4.070017e+00 2.929501e+00 3.709558e+00 3.732256e+00 3.806615e+00 3.009983e+00 3.119141e+00 3.816057e+00 1.939746e+00
<GCONST> 2.002660e+02
<STATE> 3
<NUMMIXES> 2
<MIXTURE> 1 5.000000e-01
<MEAN> 39
 3.701521e+01 1.930881e+01 1.995338e+01 -4.252869e+01 -2.256532e+01 4.353180e-01 6.083305e-01 1.434592e+01 -7.994052e+00 1.392587e+01 -5.483139e+00 3.664377e+00 1.235788e+02 3.436854e-01 1.442628e-01 -2.333199e-01 9.178785e-01 1.545045e-01 7.939824e-02 1.304639e+00 1.077421e+00 8.158159e-02 5.818278e-01 8.685790e-01 7.553541e-01 3.577042e-01 -1.053912e-01 -5.205621e-01 -5.611393e-01 1.072922e+00 9.672211e-01 3.860772e-01 6.257300e-01 1.606464e-01 -1.154510e-01 -5.714715e-03 6.237221e-01 6.567119e-01 1.590653e-01
<VARIANCE> 39
 5.419494e+01 1.726070e+02 2.573446e+02 3.375938e+02 5.022138e+02 3.578247e+02 5.246268e+02 3.791844e+02 3.824505e+02 3.708058e+02 3.051515e+02 3.702063e+02 1.408719e+02 9.190950e-01 7.151010e+00 6.815118e+00 5.571658e+00 6.194654e+00 7.480897e+00 1.128789e+01 9.768239e+00 1.070133e+01 9.229287e+00 9.101071e+00 8.530936e+00 2.741582e+00 7.332719e-01 8.086056e-01 9.985480e-01 2.029753e+00 1.471614e+00 1.297047e+00 1.748113e+00 1.850748e+00 1.893282e+00 1.991265e+00 2.013146e+00 1.998448e+00 6.353344e-01
<GCONST> 1.732197e+02
<MIXTURE> 2 5.000000e-01
<MEAN> 39
 3.407053e+01 1.405361e+01 1.353660e+01 -4.987817e+01 -3.152938e+01 -7.131184e+00 -8.553562e+00 6.556859e+00 -1.581659e+01 6.223346e+00 -1.247057e+01 -4.031922e+00 1.188312e+02 -3.979239e-02 -9.253922e-01 -1.277551e+00 -2.629590e-02 -8.410580e-01 -1.014651e+00 -3.925884e-02 -1.727464e-01 -1.226934e+00 -6.333619e-01 -3.381402e-01 -4.129565e-01 -3.046047e-01 -4.479164e-01 -8.802520e-01 -9.608487e-01 5.030443e-01 4.819808e-01 -6.947465e-02 9.686515e-02 -3.835224e-01 -6.658374e-01 -5.701635e-01 5.618066e-02 9.124595e-02 -1.597661e-01
<VARIANCE> 39
 5.419494e+01 1.726070e+02 2.573446e+02 3.375938e+02 5.022138e+02 3.578247e+02 5.246268e+02 3.791844e+02 3.824505e+02 3.708058e+02 3.051515e+02 3.702063e+02 1.408719e+02 9.190950e-01 7.151010e+00 6.815118e+00 5.571658e+00 6.194654e+00 7.480897e+00 1.128789e+01 9.768239e+00 1.070133e+01 9.229287e+00 9.101071e+00 8.530936e+00 2.741582e+00 7.332719e-01 8.086056e-01 9.985480e-01 2.029753e+00 1.471614e+00 1.297047e+00 1.748113e+00 1.850748e+00 1.893282e+00 1.991265e+00 2.013146e+00 1.998448e+00 6.353344e-01
<GCONST> 1.732197e+02
<STATE> 4
<NUMMIXES> 2
<MIXTURE> 1 5.000000e-01
<MEAN> 39
 3.918255e+01 -5.897617e-02 -4.731574e+00 -2.732457e+01 -1.647423e+00 -3.201179e+00 4.134224e+00 1.820340e+01 -1.948297e+01 1.108722e+01 6.440797e+00 1.551072e+01 1.301155e+02 3.887540e-01 -3.180545e+00 -3.665060e+00 4.606273e+00 7.155591e+00 -3.659172e-01 -1.429696e+00 3.005043e-01 1.385090e+00 1.785594e+00 3.237352e+00 2.906357e+00 1.136759e+00 -5.599849e-02 5.148921e-01 8.528795e-01 7.405889e-01 6.671489e-01 -5.782989e-02 -5.675460e-01 3.083353e-01 1.675378e+00 8.804822e-01 1.960161e-02 -1.883880e-01 -2.886475e-01
<VARIANCE> 39
 6.019880e+01 2.395203e+02 3.168728e+02 3.048809e+02 6.348182e+02 4.686778e+02 8.448273e+02 6.363856e+02 4.900918e+02 7.319246e+02 4.123881e+02 3.731600e+02 1.651062e+02 1.690509e+00 7.447332e+00 1.130101e+01 1.447623e+01 1.679366e+01 2.351284e+01 2.546781e+01 2.759737e+01 3.044654e+01 3.622391e+01 2.843607e+01 3.655938e+01 2.997881e+00 2.820795e-01 9.748681e-01 1.749399e+00 1.634107e+00 3.072638e+00 3.030787e+00 3.414002e+00 4.660656e+00 3.947714e+00 5.743736e+00 4.946034e+00 5.299633e+00 3.201993e-01
<GCONST> 1.935915e+02
<MIXTURE> 2 5.000000e-01
<MEAN> 39
 3.607903e+01 -6.249554e+00 -1.185194e+01 -3.430891e+01 -1.172566e+01 -1.186077e+01 -7.492140e+00 8.112722e+00 -2.833817e+01 2.655802e-01 -1.682139e+00 7.783780e+00 1.249757e+02 -1.313244e-01 -4.272137e+00 -5.009738e+00 3.084367e+00 5.516387e+00 -2.305519e+00 -3.448322e+00 -1.800824e+00 -8.220459e-01 -6.218579e-01 1.104333e+00 4.877830e-01 4.441835e-01 -2.684431e-01 1.199505e-01 3.238201e-01 2.292601e-01 -3.400874e-02 -7.541962e-01 -1.306627e+00 -5.552069e-01 8.806238e-01 -7.816157e-02 -8.699856e-01 -1.109225e+00 -5.149921e-01
<VARIANCE> 39
 6.019880e+01 2.395203e+02 3.168728e+02 3.048809e+02 6.348182e+02 4.686778e+02 8.448273e+02 6.363856e+02 4.900918e+02 7.319246e+02 4.123881e+02 3.731600e+02 1.651062e+02 1.690509e+00 7.447332e+00 1.130101e+01 1.447623e+01 1.679366e+01 2.351284e+01 2.546781e+01 2.759737e+01 3.044654e+01 3.622391e+01 2.843607e+01 3.655938e+01 2.997881e+00 2.820795e-01 9.748681e-01 1.749399e+00 1.634107e+00 3.072638e+00 3.030787e+00 3.414002e+00 4.660656e+00 3.947714e+00 5.743736e+00 4.946034e+00 5.299633e+00 3.201993e-01
<GCONST> 1.935915e+02
<TRANSP> 5
 0.000000e+00 1.000000e+00 0.000000e+00 0.000000e+00 0.000000e+00
 0.000000e+00 6.163120e-01 3.836880e-01 0.000000e+00 0.000000e+00
 0.000000e+00 0.000000e+00 8.682743e-01 1.317257e-01 0.000000e+00
 0.000000e+00 0.000000e+00 0.000000e+00 8.393239e-01 1.606761e-01
 0.000000e+00 0.000000e+00 0.000000e+00 0.000000e+00 0.000000e+00
<ENDHMM>
~h "ay"
<BEGINHMM>
<NUMSTATES> 5
<STATE> 2
<NUMMIXES> 2
<MIXTURE> 1 5.000000e-01
<MEAN> 39
 1.952770e+01 -2.958192e+01 3.036159e+00 -1.970216e+01 1.402748e+01 9.696276e+00 -5.487781e-01 1.843573e+01 1.160588e+01 1.568592e+01 4.828178e+00 2.919841e+00 1.480387e+02 -1.353701e-01 -1.484416e+00 -1.771490e+00 4.772660e-01 2.900447e+00 3.048572e+00 -2.704716e-02 6.646097e-01 1.816897e+00 4.590791e-02 1.091722e+00 -6.402189e-01 1.355745e+00 4.425110e-02 1.324573e+00 1.124604e+00 1.518236e+00 -1.236561e-02 8.209713e-02 5.079206e-01 -3.074177e-01 -1.384073e-01 2.148408e-01 1.805754e-01 4.430816e-01 -1.113665e+00
<VARIANCE> 39
 8.014771e+01 1.587078e+02 2.890545e+02 3.685674e+02 4.286736e+02 3.724930e+02 4.359226e+02 4.436349e+02 4.026666e+02 4.305790e+02 4.558339e+02 3.675414e+02 1.173201e+02 2.603103e+00 5.491699e+00 8.780904e+00 1.030269e+01 1.123567e+01 1.177904e+01 1.699483e+01 1.269098e+01 1.438053e+01 1.371730e+01 1.550592e+01 1.372021e+01 2.833246e+00 1.162706e+00 1.132618e+00 1.213420e+00 2.525308e+00 2.095107e+00 2.498839e+00 3.551869e+00 3.664567e+00 2.945575e+00 2.523957e+00 2.668227e+00 1.987924e+00 1.248968e+00
<GCONST> 1.843387e+02
<MIXTURE> 2 5.000000e-01
<MEAN> 39
 1.594669e+01 -3.462109e+01 -3.764483e+00 -2.738140e+01 5.745712e+00 1.976244e+00 -8.900282e+00 1.001067e+01 3.579255e+00 7.385760e+00 -3.711928e+00 -4.748707e+00 1.437061e+02 -7.807355e-01 -2.421792e+00 -2.956794e+00 -8.066462e-01 1.559661e+00 1.675748e+00 -1.676039e+00 -7.603664e-01 3.000306e-01 -1.435567e+00 -4.833799e-01 -2.121851e+00 6.824549e-01 -3.870643e-01 8.988750e-01 6.839831e-01 8.825877e-01 -5.913450e-01 -5.502115e-01 -2.459356e-01 -1.073140e+00 -8.249143e-01 -4.206378e-01 -4.728130e-01 -1.208934e-01 -1.560693e+00
<VARIANCE> 39
 8.014771e+01 1.587078e+02 2.890545e+02 3.685674e+02 4.286736e+02 3.724930e+02 4.359226e+02 4.436349e+02 4.026666e+02 4.305790e+02 4.558339e+02 3.675414e+02 1.173201e+02 2.603103e+00 5.491699e+00 8.780904e+00 1.030269e+01 1.123567e+01 1.177904e+01 1.699483e+01 1.269098e+01 1.438053e+01 1.371730e+01 1.550592e+01 1.372021e+01 2.833246e+00 1.162706e+00 1.132618e+00 1.213420e+00 2.525308e+00 2.095107e+00 2.498839e+00 3.551869e+00 3.664567e+00 2.945575e+00 2.523957e+00 2.668227e+00 1.987924e+00 1.248968e+00
<GCONST> 1.843387e+02
<STATE> 3
<NUMMIXES> 2
<MIXTURE> 1 5.000000e-01
<MEAN> 39
 1.809558e+01 -3.317820e+01 1.852412e-01 -1.780950e+01 1.814282e+01 1.394267e+01 -3.218183e+00 1.712274e+01 1.295630e+01 1.410955e+01 3.313874e+00 -5.035744e-01 1.482410e+02 -2.592775e-02 -6.044807e-02 9.052318e-01 1.302741e+00 1.949793e-01 -4.326304e-01 3.605161e-01 1.104991e+00 7.769761e-01 -2.648324e-03 2.162665e-03 4.736719e-01 9.582624e-03 5.602572e-02 2.351881e-01 4.711602e-01 2.405154e-01 -2.601927e-01 -2.932876e-01 3.803768e-01 3.467049e-01 1.082051e-01 1.220866e-01 1.201187e-01 4.053619e-01 -4.577436e-03
<VARIANCE> 39
 7.322794e+01 1.639833e+02 2.254938e+02 3.781680e+02 4.765103e+02 3.495112e+02 3.663894e+02 4.292471e+02 3.657902e+02 3.580440e+02 4.119384e+02 3.909133e+02 1.472616e+02 7.834936e-01 1.545512e+00 2.595326e+00 3.344794e+00 4.361275e+00 5.860872e+00 5.211971e+00 4.516942e+00 4.524286e+00 4.698606e+00 4.979496e+00 4.899932e+00 6.977831e-01 1.263333e-01 2.370627e-01 3.377475e-01 4.320958e-01 5.594906e-01 6.246676e-01 7.961774e-01 6.738774e-01 7.222769e-01 7.474305e-01 7.537907e-01 7.418844e-01 9.419965e-02
<GCONST> 1.491542e+02
<MIXTURE> 2 5.000000e-01
<MEAN> 39
 1.467264e+01 -3.830044e+01 -5.821339e+00 -2.558812e+01 9.411177e+00 6.464587e+00 -1.087470e+01 8.835424e+00 5.306038e+00 6.540730e+00 -4.804632e+00 -8.412186e+00 1.433870e+02 -3.799885e-01 -5.577226e-01 2.608312e-01 5.711901e-01 -6.403673e-01 -1.401000e+00 -5.526735e-01 2.548671e-01 -7.383868e-02 -8.696991e-01 -8.904287e-01 -4.117597e-01 -3.245510e-01 -8.614787e-02 4.043173e-02 2.386960e-01 -2.242059e-02 -5.593891e-01 -6.094312e-01 2.346176e-02 1.834473e-02 -2.317425e-01 -2.237296e-01 -2.271658e-01 6.083107e-02 -1.273453e-01
<VARIANCE> 39
 7.322794e+01 1.639833e+02 2.254938e+02 3.781680e+02 4.765103e+02 3.495112e+02 3.663894e+02 4.292471e+02 3.657902e+02 3.580440e+02 4.119384e+02 3.909133e+02 1.472616e+02 7.834936e-01 1.545512e+00 2.595326e+00 3.344794e+00 4.361275e+00 5.860872e+00 5.211971e+00 4.516942e+00 4.524286e+00 4.698606e+00 4.979496e+00 4.899932e+00 6.977831e-01 1.263333e-01 2.370627e-01 3.377475e-01 4.320958e-01 5.594906e-01 6.246676e-01 7.961774e-01 6.738774e-01 7.222769e-01 7.474305e-01 7.537907e-01 7.418844e-01 9.419965e-02
<GCONST> 1.491542e+02
<STATE> 4
<NUMMIXES> 2
<MIXTURE> 1 5.000000e-01
<MEAN> 39
 1.445319e+01 -3.008728e+01 1.940252e+01 -9.373627e+00 3.222038e+00 -3.810891e+00 6.078876e+00 2.688028e+01 1.091684e+01 7.174527e+00 1.254452e+00 7.542629e+00 1.449050e+02 -3.225020e-01 2.601178e+00 4.743134e+00 7.625418e-01 -3.034414e+00 -1.577938e+00 3.228022e+00 7.041102e-01 -1.103098e+00 1.148655e+00 1.432932e+00 2.141684e+00 -9.531597e-01 3.039987e-01 8.335801e-01 3.552310e-01 2.323534e-01 5.497561e-01 6.249554e-01 1.881237e-01 -6.417609e-01 -6.531185e-02 7.848760e-01 3.809167e-01 1.487726e-01 -4.314097e-01
<VARIANCE> 39
 7.547442e+01 1.919727e+02 3.756192e+02 2.583965e+02 4.324619e+02 2.699402e+02 5.303069e+02 3.254407e+02 3.793240e+02 3.606007e+02 3.326198e+02 3.401736e+02 1.912537e+02 1.662443e+00 4.711672e+00 6.177036e+00 1.009061e+01 1.146292e+01 1.461947e+01 1.795004e+01 1.668062e+01 1.472476e+01 1.420214e+01 1.233625e+01 1.278324e+01 1.836517e+00 2.867747e-01 5.509309e-01 1.055179e+00 1.529212e+00 1.951795e+00 1.548298e+00 2.384291e+00 2.054416e+00 2.180149e+00 2.006225e+00 2.060903e+00 1.969612e+00 3.368096e-01
<GCONST> 1.763260e+02
<MIXTURE> 2 5.000000e-01
<MEAN> 39
 1.097815e+01 -3.562944e+01 1.165016e+01 -1.580351e+01 -5.096250e+00 -1.038283e+01 -3.132481e+00 1.966430e+01 3.126345e+00 -4.212689e-01 -6.040695e+00 1.651106e-01 1.393732e+02 -8.382450e-01 1.732922e+00 3.748988e+00 -5.080870e-01 -4.388692e+00 -3.107354e+00 1.533322e+00 -9.295664e-01 -2.638012e+00 -3.587739e-01 2.801168e-02 7.115378e-01 -1.495232e+00 8.979330e-02 5.366813e-01 -5.565661e-02 -2.622919e-01 -9.070605e-03 1.272329e-01 -4.295223e-01 -1.215090e+00 -6.559250e-01 2.183109e-01 -1.933171e-01 -4.125988e-01 -6.635509e-01
<VARIANCE> 39
 7.547442e+01 1.919727e+02 3.756192e+02 2.583965e+02 4.324619e+02 2.699402e+02 5.303069e+02 3.254407e+02 3.793240e+02 3.606007e+02 3.326198e+02 3.401736e+02 1.912537e+02 1.662443e+00 4.711672e+00 6.177036e+00 1.009061e+01 1.146292e+01 1.461947e+01 1.795004e+01 1.668062e+01 1.472476e+01 1.420214e+01 1.233625e+01 1.278324e+01 1.836517e+00 2.867747e-01 5.509309e-01 1.055179e+00 1.529212e+00 1.951795e+00 1.548298e+00 2.384291e+00 2.054416e+00 2.180149e+00 2.006225e+00 2.060903e+00 1.969612e+00 3.368096e-01
<GCONST> 1.763260e+02
<TRANSP> 5
 0.000000e+00 1.000000e+00 0.000000e+00 0.000000e+00 0.000000e+00
 0.000000e+00 7.035497e-01 2.964503e-01 0.000000e+00 0.000000e+00
 0.000000e+00 0.000000e+00 8.987043e-01 1.012957e-01 0.000000e+00
 0.000000e+00 0.000000e+00 0.000000e+00 8.042651e-01 1.957349e-01
 0.000000e+00 0.000000e+00 0.000000e+00 0.000000e+00 0.000000e+00
<ENDHMM>
~h "eh"
<BEGINHMM>
<NUMSTATES> 5
<STATE> 2
<NUMMIXES> 2
<MIXTURE> 1 5.000000e-01
<MEAN> 39
 -4.853719e+01 8.773420e+00 -1.062332e+01 1.584162e+00 -4.110727e+00 -3.880266e+00 -1.149329e+00 4.313958e+00 -3.163044e+00 3.941196e+00 -2.213882e+00 9.625488e+00 1.135634e+02 1.020519e+01 1.980844e-01 7.031991e+00 1.261483e+00 4.306410e-01 -1.219134e+00 9.726107e-02 1.232898e-01 2.306374e+00 1.151798e+00 4.020882e-02 1.946943e+00 2.894826e+00 4.661387e+00 -7.267312e-01 2.779308e+00 1.650956e-01 5.150535e-01 -6.730421e-01 -4.614324e-01 7.819843e-02 1.248819e+00 1.092530e+00 2.411349e-01 7.163315e-01 2.014248e+00
<VARIANCE> 39
 1.305926e+02 1.070870e+02 1.309576e+02 2.075029e+02 2.604318e+02 2.751172e+02 1.402981e+02 1.413121e+02 1.544358e+02 1.272873e+02 1.718409e+02 1.248648e+02 1.171914e+02 3.295568e+01 1.259403e+01 1.791827e+01 1.295150e+01 1.104357e+01 1.543655e+01 1.406506e+01 1.284210e+01 1.420577e+01 1.891472e+01 1.498310e+01 1.558499e+01 9.973374e+00 1.653928e+00 2.063515e+00 2.156275e+00 2.633040e+00 2.767016e+00 4.547533e+00 5.059337e+00 2.834272e+00 4.531816e+00 4.291477e+00 3.253076e+00 3.908610e+00 1.345250e+00
<GCONST> 1.862548e+02
<MIXTURE> 2 5.000000e-01
<MEAN> 39
 -5.310827e+01 4.634106e+00 -1.520078e+01 -4.177822e+00 -1.056589e+01 -1.051493e+01 -5.887229e+00 -4.410323e-01 -8.133932e+00 -5.716705e-01 -7.457406e+00 5.155771e+00 1.092332e+02 7.908907e+00 -1.221438e+00 5.338791e+00 -1.780452e-01 -8.986336e-01 -2.790709e+00 -1.402875e+00 -1.310145e+00 7.987521e-01 -5.878443e-01 -1.508112e+00 3.678294e-01 1.631600e+00 4.146967e+00 -1.301329e+00 2.191938e+00 -4.839702e-01 -1.503205e-01 -1.526040e+00 -1.361151e+00 -5.952134e-01 3.972962e-01 2.638943e-01 -4.803165e-01 -7.447669e-02 1.550308e+00
<VARIANCE> 39
 1.305926e+02 1.070870e+02 1.309576e+02 2.075029e+02 2.604318e+02 2.751172e+02 1.402981e+02 1.413121e+02 1.544358e+02 1.272873e+02 1.718409e+02 1.248648e+02 1.171914e+02 3.295568e+01 1.259403e+01 1.791827e+01 1.295150e+01 1.104357e+01 1.543655e+01 1.406506e+01 1.284210e+01 1.420577e+01 1.891472e+01 1.498310e+01 1.558499e+01 9.973374e+00 1.653928e+00 2.063515e+00 2.156275e+00 2.633040e+00 2.767016e+00 4.547533e+00 5.059337e+00 2.834272e+00 4.531816e+00 4.291477e+00 3.253076e+00 3.908610e+00 1.345250e+00
<GCONST> 1.862548e+02
<STATE> 3
<NUMMIXES> 2
<MIXTURE> 1 5.000000e-01
<MEAN> 39
 -1.160085e+01 1.032602e+01 1.318002e+01 8.337279e+00 -1.081471e+00 -9.107927e+00 -3.803281e+00 1.977361e+00 2.619989e+00 7.859087e+00 -4.952844e+00 1.222132e+01 1.188632e+02 1.836149e+01 -4.208749e+00 1.064187e+01 -7.309357e-01 7.464848e-01 -3.199856e+00 -2.417851e+00 -1.775716e-01 4.396379e+00 3.992162e+00 7.190409e-01 2.658204e+00 9.073364e+00 -4.136775e-01 -1.835404e+00 -8.769286e-01 -1.747957e+00 -2.035393e-01 3.872886e-02 3.452132e-01 1.209006e+00 9.019237e-01 1.026290e+00 1.022655e+00 1.170753e-01 2.031247e+00
<VARIANCE> 39
 4.347303e+02 1.036115e+02 1.732092e+02 1.682351e+02 2.993922e+02 2.109077e+02 1.787241e+02 1.722676e+02 1.762922e+02 2.310924e+02 2.347507e+02 2.273180e+02 1.712652e+02 1.225728e+01 1.755144e+01 1.919605e+01 2.648071e+01 2.348754e+01 4.637859e+01 5.813405e+01 2.194643e+01 4.374434e+01 4.236271e+01 2.741344e+01 4.197349e+01 9.456372e+00 6.362638e+00 2.073936e+00 3.513665e+00 2.085032e+00 2.845645e+00 3.347481e+00 6.110859e+00 2.708590e+00 3.659912e+00 3.265339e+00 3.096927e+00 3.013732e+00 1.741250e+00
<GCONST> 1.981708e+02
<MIXTURE> 2 5.000000e-01
<MEAN> 39
 -1.994093e+01 6.254432e+00 7.915661e+00 3.149060e+00 -8.002653e+00 -1.491699e+01 -9.150791e+00 -3.272669e+00 -2.691014e+00 1.778397e+00 -1.108147e+01 6.190488e+00 1.136284e+02 1.696107e+01 -5.884527e+00 8.889343e+00 -2.789312e+00 -1.192073e+00 -5.923930e+00 -5.467679e+00 -2.051452e+00 1.750799e+00 1.388696e+00 -1.375273e+00 6.672597e-02 7.843315e+00 -1.422648e+00 -2.411450e+00 -1.626719e+00 -2.325543e+00 -8.783009e-01 -6.931161e-01 -6.435928e-01 5.506945e-01 1.366878e-01 3.034797e-01 3.187312e-01 -5.773289e-01 1.503421e+00
<VARIANCE> 39
 4.347303e+02 1.036115e+02 1.732092e+02 1.682351e+02 2.993922e+02 2.109077e+02 1.787241e+02 1.722676e+02 1.762922e+02 2.310924e+02 2.347507e+02 2.273180e+02 1.712652e+02 1.225728e+01 1.755144e+01 1.919605e+01 2.648071e+01 2.348754e+01 4.637859e+01 5.813405e+01 2.194643e+01 4.374434e+01 4.236271e+01 2.741344e+01 4.197349e+01 9.456372e+00 6.362638e+00 2.073936e+00 3.513665e+00 2.085032e+00 2.845645e+00 3.347481e+00 6.110859e+00 2.708590e+00 3.659912e+00 3.265339e+00 3.096927e+00 3.013732e+00 1.741250e+00
<GCONST> 1.981708e+02
<STATE> 4
<NUMMIXES> 2
<MIXTURE> 1 5.000000e-01
<MEAN> 39
 1.389937e+01 -1.279174e+01 2.587489e+01 -7.904448e+00 -5.869656e+00 -2.200075e+01 -1.223998e+01 3.285110e+00 1.108487e+01 1.704410e+01 -1.413579e+00 1.733805e+01 1.464967e+02 6.466348e+00 -6.578359e+00 2.349715e+00 -5.066279e+00 -9.135495e-01 -1.390696e+00 1.563424e+00 3.851796e+00 4.657527e+00 3.561689e+00 2.501061e+00 9.227061e-01 7.922346e+00 -4.160396e+00 9.766313e-01 -2.561122e+00 3.657892e-01 4.204037e-01 2.021351e+00 2.259600e+00 1.352199e+00 3.821826e-02 -3.888059e-02 5.930396e-01 -4.202310e-01 -1.729846e+00
<VARIANCE> 39
 5.323772e+01 1.414674e+02 1.778680e+02 2.347242e+02 3.063684e+02 2.505688e+02 6.976611e+02 2.774369e+02 3.495946e+02 4.778249e+02 4.018512e+02 5.299587e+02 1.209509e+02 3.511332e+01 1.095442e+01 2.224729e+01 1.729537e+01 1.940916e+01 2.574974e+01 6.131490e+01 1.719906e+01 2.443848e+01 2.167898e+01 1.976946e+01 2.025184e+01 1.242433e+01 1.709165e+00 2.474268e+00 2.297090e+00 3.244034e+00 2.712896e+00 4.793162e+00 5.141799e+00 2.833955e+00 4.986315e+00 3.996169e+00 3.626423e+00 4.862060e+00 1.139327e+00
<GCONST> 1.983071e+02
<MIXTURE> 2 5.000000e-01
<MEAN> 39
 1.098081e+01 -1.754934e+01 2.054021e+01 -1.403273e+01 -1.287101e+01 -2.833249e+01 -2.280529e+01 -3.377465e+00 3.605890e+00 8.300419e+00 -9.432070e+00 8.129713e+00 1.420975e+02 4.096088e+00 -7.902257e+00 4.630333e-01 -6.729787e+00 -2.675783e+00 -3.420464e+00 -1.568729e+00 2.192926e+00 2.680115e+00 1.699261e+00 7.225468e-01 -8.773757e-01 6.512420e+00 -4.683336e+00 3.474391e-01 -3.167368e+00 -3.546589e-01 -2.384311e-01 1.145619e+00 1.352578e+00 6.788249e-01 -8.549840e-01 -8.384974e-01 -1.686872e-01 -1.302234e+00 -2.156804e+00
<VARIANCE> 39
 5.323772e+01 1.414674e+02 1.778680e+02 2.347242e+02 3.063684e+02 2.505688e+02 6.976611e+02 2.774369e+02 3.495946e+02 4.778249e+02 4.018512e+02 5.299587e+02 1.209509e+02 3.511332e+01 1.095442e+01 2.224729e+01 1.729537e+01 1.940916e+01 2.574974e+01 6.131490e+01 1.719906e+01 2.443848e+01 2.167898e+01 1.976946e+01 2.025184e+01 1.242433e+01 1.709165e+00 2.474268e+00 2.297090e+00 3.244034e+00 2.712896e+00 4.793162e+00 5.141799e+00 2.833955e+00 4.986315e+00 3.996169e+00 3.626423e+00 4.862060e+00 1.139327e+00
<GCONST> 1.983071e+02
<TRANSP> 5
 0.000000e+00 1.000000e+00 0.000000e+00 0.000000e+00 0.000000e+00
 0.000000e+00 5.708565e-01 4.291435e-01 0.000000e+00 0.000000e+00
 0.000000e+00 0.000000e+00 4.159861e-01 5.840139e-01 0.000000e+00
 0.000000e+00 0.000000e+00 0.000000e+00 6.105071e-01 3.894929e-01
 0.000000e+00 0.000000e+00 0.000000e+00 0.000000e+00 0.000000e+00
<ENDHMM>
~h "ey"
<BEGINHMM>
<NUMSTATES> 5
<STATE> 2
<NUMMIXES> 2
<MIXTURE> 1 5.000000e-01
<MEAN> 39
 -4.310452e+00 -4.186020e+00 2.307596e+01 -5.954065e+00 -1.245427e+01 -1.316315e+01 -1.416812e-01 1.653336e+00 2.148685e+00 1.283089e+01 1.992980e+00 1.017300e+01 1.024141e+02 2.940423e+00 -1.564536e+00 5.411361e+00 -1.035646e+00 -1.256233e+00 -1.681949e-01 2.587839e+00 2.478873e+00 2.139330e+00 2.219997e+00 1.423368e+00 1.596179e+00 9.548594e+00 7.050270e-01 4.579398e-01 8.585596e-01 3.676865e-01 6.670812e-01 9.257086e-01 7.722037e-01 6.332868e-01 3.518329e-01 5.009195e-01 5.907661e-01 5.252550e-01 1.737581e+00
<VARIANCE> 39
 3.598039e+02 2.538156e+02 5.069326e+02 4.510493e+02 3.524064e+02 4.011299e+02 5.367835e+02 4.901990e+02 4.708139e+02 3.719297e+02 2.987413e+02 2.892078e+02 1.249828e+03 3.629428e+01 2.097118e+01 4.314315e+01 3.851667e+01 3.222215e+01 3.869792e+01 4.961576e+01 4.214183e+01 4.182950e+01 3.378604e+01 3.009340e+01 2.817172e+01 1.369891e+02 5.009402e+00 4.041422e+00 6.297505e+00 5.922760e+00 6.060616e+00 6.834051e+00 8.659542e+00 7.819015e+00 7.333694e+00 6.236522e+00 5.760481e+00 5.397057e+00 1.946058e+01
<GCONST> 2.228839e+02
<MIXTURE> 2 5.000000e-01
<MEAN> 39
 -1.189785e+01 -1.055866e+01 1.406990e+01 -1.444923e+01 -1.996327e+01 -2.117445e+01 -9.409117e+00 -7.202840e+00 -6.530613e+00 5.116702e+00 -4.920674e+00 3.370552e+00 8.827299e+01 5.306343e-01 -3.396308e+00 2.784023e+00 -3.518118e+00 -3.526815e+00 -2.656501e+00 -2.296991e-01 -1.177968e-01 -4.476991e-01 -1.050333e-01 -7.709297e-01 -5.269029e-01 4.866899e+00 -1.902408e-01 -3.461917e-01 -1.452336e-01 -6.057823e-01 -3.176516e-01 -1.199722e-01 -4.048803e-01 -4.852133e-01 -7.313989e-01 -4.980017e-01 -3.692740e-01 -4.040077e-01 -2.698469e-02
<VARIANCE> 39
 3.598039e+02 2.538156e+02 5.069326e+02 4.510493e+02 3.524064e+02 4.011299e+02 5.367835e+02 4.901990e+02 4.708139e+02 3.719297e+02 2.987413e+02 2.892078e+02 1.249828e+03 3.629428e+01 2.097118e+01 4.314315e+01 3.851667e+01 3.222215e+01 3.869792e+01 4.961576e+01 4.214183e+01 4.182950e+01 3.378604e+01 3.009340e+01 2.817172e+01 1.369891e+02 5.009402e+00 4.041422e+00 6.297505e+00 5.922760e+00 6.060616e+00 6.834051e+00 8.659542e+00 7.819015e+00 7.333694e+00 6.236522e+00 5.760481e+00 5.397057e+00 1.946058e+01
<GCONST> 2.228839e+02
<STATE> 3
<NUMMIXES> 2
<MIXTURE> 1 5.000000e-01
<MEAN> 39
 3.968888e+00 -1.016565e+01 5.766573e+01 -1.848110e+01 -1.863199e+01 -1.088127e+01 3.856083e+00 1.343551e+00 -1.401905e+00 1.442138e+01 1.711380e+00 1.215977e+01 1.434825e+02 -7.091430e-02 1.922760e+00 3.097146e+00 6.356132e-01 1.321058e+00 1.845283e+00 -4.730082e-02 -1.147686e+00 -4.873094e-01 -7.149851e-02 -1.576662e-01 3.813585e-01 4.763684e-01 -2.433662e-02 5.011019e-01 4.505166e-02 6.225291e-01 5.887138e-01 4.058758e-01 2.358776e-01 7.719833e-02 1.916179e-01 6.175886e-02 -2.682170e-02 9.990858e-02 -6.904420e-01
<VARIANCE> 39
 6.775721e+01 2.293499e+02 4.069141e+02 4.374031e+02 2.213059e+02 3.071821e+02 5.225842e+02 4.083692e+02 6.648114e+02 2.902234e+02 2.114064e+02 2.105542e+02 1.493657e+02 2.985918e+00 5.307000e+00 6.018538e+00 5.587994e+00 8.407454e+00 8.360828e+00 1.125597e+01 1.036597e+01 1.058707e+01 9.658707e+00 8.588426e+00 9.757576e+00 9.653708e+00 6.520569e-01 8.080246e-01 1.084450e+00 1.124542e+00 1.149446e+00 1.370318e+00 1.697652e+00 1.589274e+00 1.574640e+00 1.480238e+00 1.289383e+00 1.289939e+00 1.911232e+00
<GCONST> 1.743169e+02
<MIXTURE> 2 5.000000e-01
<MEAN> 39
 6.762975e-01 -1.622337e+01 4.959688e+01 -2.684678e+01 -2.458253e+01 -1.789191e+01 -5.287959e+00 -6.739707e+00 -1.171548e+01 7.607001e+00 -4.104548e+00 6.355578e+00 1.385939e+02 -7.621067e-01 1.001282e+00 2.115838e+00 -3.099444e-01 1.612336e-01 6.886790e-01 -1.389298e+00 -2.435534e+00 -1.788821e+00 -1.314637e+00 -1.329907e+00 -8.681263e-01 -7.664483e-01 -3.473368e-01 1.415411e-01 -3.714961e-01 1.983514e-01 1.598649e-01 -6.236658e-02 -2.852983e-01 -4.270673e-01 -3.103207e-01 -4.249012e-01 -4.810257e-01 -3.543934e-01 -1.243431e+00
<VARIANCE> 39
 6.775721e+01 2.293499e+02 4.069141e+02 4.374031e+02 2.213059e+02 3.071821e+02 5.225842e+02 4.083692e+02 6.648114e+02 2.902234e+02 2.114064e+02 2.105542e+02 1.493657e+02 2.985918e+00 5.307000e+00 6.018538e+00 5.587994e+00 8.407454e+00 8.360828e+00 1.125597e+01 1.036597e+01 1.058707e+01 9.658707e+00 8.588426e+00 9.757576e+00 9.653708e+00 6.520569e-01 8.080246e-01 1.084450e+00 1.124542e+00 1.149446e+00 1.370318e+00 1.697652e+00 1.589274e+00 1.574640e+00 1.480238e+00 1.289383e+00 1.289939e+00 1.911232e+00
<GCONST> 1.743169e+02
<STATE> 4
<NUMMIXES> 2
<MIXTURE> 1 5.000000e-01
<MEAN> 39
