~o
<STREAMINFO> 1 39
<VECSIZE> 39<NULLD><MFCC_D_A_0><DIAGC>
~v "varFloor1"
<VARIANCE> 39
 6.753474e+00 3.412362e+00 5.607597e+00 4.796462e+00 3.472081e+00 4.011722e+00 4.412065e+00 3.618229e+00 3.682593e+00 3.039560e+00 2.639483e+00 2.510356e+00 1.295583e+01 2.277723e-01 1.546074e-01 2.184501e-01 2.118108e-01 1.813343e-01 2.097883e-01 2.257618e-01 2.166374e-01 2.009357e-01 1.748309e-01 1.664689e-01 1.534765e-01 2.729284e-01 3.005151e-02 2.352162e-02 2.950290e-02 3.333734e-02 2.970534e-02 3.528604e-02 3.796648e-02 3.764385e-02 3.477007e-02 3.067227e-02 2.924742e-02 2.697526e-02 3.680371e-02
~s "silst"
<NUMMIXES> 4
<MIXTURE> 1 1.849856e-01
<MEAN> 39
 -2.121547e+01 7.277420e+00 2.182185e+00 7.312329e+00 1.914439e+00 2.636127e+00 1.698406e+00 3.747548e+00 1.348995e+00 2.605201e+00 8.660092e-01 2.273484e+00 5.048368e+01 7.718343e-02 4.789734e-01 6.746469e-01 7.222824e-01 7.749489e-01 8.365710e-01 7.345984e-01 6.012166e-01 6.792513e-01 7.744483e-01 6.729606e-01 4.101514e-01 -2.565299e-02 1.015168e-01 -1.167148e-01 -3.050281e-02 -5.806762e-02 -8.870600e-02 -7.911709e-02 -2.764405e-02 -4.498268e-02 -7.784072e-02 -4.131668e-02 -9.919788e-02 -2.400275e-02 1.918752e-01
<VARIANCE> 39
 3.823935e+01 4.384434e+01 5.134534e+01 6.282383e+01 7.601557e+01 9.396135e+01 1.060891e+02 1.149934e+02 1.137024e+02 1.098174e+02 1.093787e+02 9.477825e+01 1.810910e+01 1.893675e+00 2.335951e+00 3.635014e+00 4.933898e+00 6.126131e+00 7.482390e+00 9.172637e+00 9.825670e+00 1.006304e+01 1.004365e+01 1.007105e+01 9.177126e+00 9.834361e-01 3.781736e-01 5.103961e-01 7.582241e-01 1.010501e+00 1.256668e+00 1.572346e+00 1.831661e+00 2.015886e+00 2.040788e+00 2.057893e+00 2.043555e+00 1.847212e+00 2.376898e-01
<GCONST> 1.502670e+02
<MIXTURE> 2 3.092920e-01
<MEAN> 39
 -2.642310e+01 4.473558e+00 -1.672559e+00 1.184088e+00 -5.597936e+00 -5.978425e+00 -7.900568e+00 -4.322321e+00 -3.108323e+00 1.048235e+00 1.753326e+00 3.018661e+00 4.715291e+01 8.879036e-03 1.224955e-01 1.808330e-01 1.935220e-01 2.072412e-01 2.215929e-01 1.917004e-01 1.915065e-01 2.578758e-01 3.416494e-01 3.433235e-01 2.587206e-01 -1.234452e-02 1.590728e-01 4.821871e-02 1.193132e-01 1.943133e-01 2.597432e-01 3.134610e-01 3.670673e-01 3.285511e-01 1.777860e-01 7.039605e-02 -5.810816e-02 -4.123072e-02 1.515117e-01
<VARIANCE> 39
 1.692096e+01 1.921121e+01 2.621427e+01 3.551093e+01 4.876347e+01 6.354290e+01 7.607327e+01 7.998424e+01 7.868375e+01 7.679385e+01 7.419669e+01 6.834618e+01 1.295583e+01 8.511388e-01 1.507049e+00 2.674962e+00 3.802099e+00 4.946557e+00 6.088110e+00 7.321374e+00 8.073259e+00 8.317804e+00 8.240260e+00 8.006029e+00 7.436677e+00 3.747350e-01 1.875384e-01 3.175373e-01 5.463913e-01 7.804170e-01 1.000581e+00 1.208859e+00 1.458064e+00 1.604549e+00 1.626726e+00 1.630422e+00 1.602747e+00 1.469793e+00 9.823629e-02
<GCONST> 1.351132e+02
<MIXTURE> 3 2.032608e-01
<MEAN> 39
 -2.698089e+01 4.200013e+00 -2.186449e+00 4.113363e-01 -6.431225e+00 -6.662348e+00 -8.580350e+00 -4.942892e+00 -3.645543e+00 6.132598e-01 1.368994e+00 2.613790e+00 4.669123e+01 -3.406281e-01 -3.353491e-01 -4.086848e-01 -5.591338e-01 -6.601443e-01 -6.931714e-01 -7.567679e-01 -7.162141e-01 -5.867188e-01 -5.318075e-01 -4.858001e-01 -3.538337e-01 -1.658330e-01 5.849076e-02 -2.393379e-02 4.020814e-02 8.700364e-02 1.225018e-01 1.203548e-01 1.456112e-01 1.457182e-01 6.950313e-02 1.931326e-02 -4.466625e-02 -2.691549e-02 8.788622e-02
<VARIANCE> 39
 1.305452e+01 1.770296e+01 2.448589e+01 3.296842e+01 4.584027e+01 5.904354e+01 6.963319e+01 7.475837e+01 7.474004e+01 7.305635e+01 7.066904e+01 6.542377e+01 1.295583e+01 7.995631e-01 1.519876e+00 2.639892e+00 3.746540e+00 4.980896e+00 6.073247e+00 7.255428e+00 8.074268e+00 8.066796e+00 7.935415e+00 7.846038e+00 7.149509e+00 3.483329e-01 1.433206e-01 2.905765e-01 5.032946e-01 7.177427e-01 9.446198e-01 1.152574e+00 1.356856e+00 1.512802e+00 1.560621e+00 1.559044e+00 1.544340e+00 1.416182e+00 7.401694e-02
<GCONST> 1.326540e+02
<MIXTURE> 4 3.023117e-01
<MEAN> 39
 -2.433796e+01 4.613756e+00 -6.130172e-01 4.309597e+00 -4.212506e-01 6.130607e-01 -5.892470e-01 1.952832e+00 2.428287e-01 1.810484e+00 4.580529e-01 2.048559e+00 4.893827e+01 -5.427813e-01 -1.239191e-01 -8.173773e-02 -2.869848e-01 -3.722631e-01 -4.347076e-01 -6.161861e-01 -6.506386e-01 -3.939091e-01 -8.323091e-02 -5.668143e-02 -8.388420e-02 -3.337501e-01 6.309249e-02 -2.311462e-01 -1.097945e-01 -1.890504e-01 -2.643592e-01 -3.177849e-01 -2.439816e-01 -2.063491e-01 -2.358945e-01 -1.308701e-01 -1.121051e-01 -1.807582e-02 2.587414e-01
<VARIANCE> 39
 3.918792e+01 3.985170e+01 4.766416e+01 5.700953e+01 7.189272e+01 9.173013e+01 1.087162e+02 1.135829e+02 1.150786e+02 1.098443e+02 1.063063e+02 9.461758e+01 1.859519e+01 1.881410e+00 2.469110e+00 3.651190e+00 4.870432e+00 6.200214e+00 7.669134e+00 9.183801e+00 1.009672e+01 1.011667e+01 1.018222e+01 1.004288e+01 8.937032e+00 1.083507e+00 4.133084e-01 6.022896e-01 8.453065e-01 1.080001e+00 1.330137e+00 1.600829e+00 1.917565e+00 2.113407e+00 2.157289e+00 2.184585e+00 2.149091e+00 1.905676e+00 3.700565e-01
<GCONST> 1.513944e+02
~h "f"
<BEGINHMM>
<NUMSTATES> 5
<STATE> 2
<NUMMIXES> 4
<MIXTURE> 1 2.389770e-01
<MEAN> 39
 -3.353064e+01 -1.387545e+01 -1.154080e+00 3.145583e+00 -2.932809e+00 -6.357660e-01 -7.039767e+00 6.190809e-01 -5.241737e+00 3.414713e+00 -3.843621e+00 2.325238e+00 8.931577e+01 -1.029276e-01 -2.457195e-01 7.882684e-02 3.688599e-01 8.920636e-01 1.495342e+00 1.301079e+00 1.086164e+00 9.446324e-01 1.138508e+00 8.488294e-01 5.133702e-01 9.009051e-01 1.476691e+00 4.057652e-01 2.438996e-01 -1.619441e-01 3.038522e-01 1.897653e-01 4.148414e-01 1.250481e-01 2.372634e-01 2.584752e-01 1.110150e-01 7.457329e-02 7.856400e-01
<VARIANCE> 39
 1.163618e+02 1.065697e+02 7.122391e+01 7.210600e+01 8.328504e+01 1.009518e+02 1.127230e+02 1.130338e+02 1.191184e+02 1.124491e+02 1.098190e+02 1.008302e+02 3.437627e+02 8.712148e+00 6.724283e+00 6.129859e+00 7.072044e+00 8.030152e+00 9.683077e+00 1.024846e+01 1.114219e+01 1.105116e+01 1.098520e+01 1.085524e+01 9.769205e+00 2.155549e+01 3.533826e+00 1.723101e+00 1.472941e+00 1.951216e+00 1.825012e+00 2.124310e+00 2.315562e+00 2.323503e+00 2.374653e+00 2.453116e+00 2.414793e+00 2.035516e+00 3.616890e+00
<GCONST> 1.727961e+02
<MIXTURE> 2 1.988425e-01
<MEAN> 39
 -3.210364e+01 -1.356669e+01 1.713851e+00 5.784008e+00 1.792160e-01 8.246775e-01 -4.987984e+00 3.212548e+00 -1.798868e+00 6.405435e+00 -2.317070e+00 3.587576e+00 9.256771e+01 -2.071815e+00 -2.254601e+00 -1.977096e+00 -1.526048e+00 -1.158962e+00 -7.397158e-01 -1.483049e+00 -7.543718e-01 -2.468048e-01 1.928513e-01 2.363621e-01 2.499879e-01 8.616247e-01 2.180211e+00 8.894275e-01 4.490465e-01 -3.689963e-01 4.033630e-02 1.673085e-01 4.298842e-01 -1.945579e-01 -4.295929e-01 -1.246622e-01 -1.770382e-01 -8.510716e-02 6.366127e-01
<VARIANCE> 39
 1.221867e+02 1.078194e+02 1.052435e+02 1.110897e+02 1.307536e+02 1.476575e+02 1.541720e+02 1.510553e+02 1.550950e+02 1.470602e+02 1.324946e+02 1.208234e+02 3.089948e+02 2.400621e+01 1.150099e+01 1.178472e+01 1.246899e+01 1.224347e+01 1.319644e+01 1.300784e+01 1.340769e+01 1.365620e+01 1.361337e+01 1.289924e+01 1.173898e+01 2.978268e+01 4.256412e+00 2.265861e+00 2.941308e+00 3.889971e+00 3.366747e+00 3.290324e+00 3.791474e+00 3.674871e+00 3.904526e+00 3.575946e+00 3.277961e+00 2.812678e+00 3.435143e+00
<GCONST> 1.862338e+02
<MIXTURE> 3 4.110908e-01
<MEAN> 39
 -3.524623e+01 -1.631534e+01 -2.897742e+00 1.525752e+00 -4.299434e+00 -1.528637e+00 -8.507268e+00 -1.092685e+00 -6.480082e+00 3.035460e+00 -4.053466e+00 2.272807e+00 8.850119e+01 -6.045970e-01 -5.899836e-01 -5.128525e-01 -4.562278e-01 -3.070381e-01 3.899620e-02 -4.374346e-01 -5.200586e-01 -7.291902e-01 -4.958679e-01 -4.971633e-01 -3.245301e-01 1.238466e+00 9.767582e-01 3.195712e-01 2.240916e-01 7.842025e-02 2.725858e-01 1.179488e-01 3.073835e-01 1.428701e-01 2.007649e-01 1.064513e-01 6.042825e-02 3.427588e-02 5.730335e-01
<VARIANCE> 39
 8.820008e+01 8.733005e+01 6.112343e+01 6.360807e+01 7.335273e+01 8.739999e+01 1.002858e+02 1.033505e+02 1.067001e+02 1.012262e+02 1.007348e+02 9.060136e+01 2.963262e+02 5.890608e+00 5.535750e+00 4.959751e+00 6.022677e+00 7.029927e+00 8.321685e+00 9.507313e+00 9.804141e+00 9.924642e+00 9.991916e+00 9.785366e+00 9.116770e+00 1.397694e+01 1.965814e+00 1.321570e+00 1.133535e+00 1.362970e+00 1.563981e+00 1.821525e+00 2.067571e+00 2.055026e+00 2.062821e+00 2.117034e+00 2.032678e+00 1.817834e+00 2.657287e+00
<GCONST> 1.658541e+02
<MIXTURE> 4 1.510466e-01
<MEAN> 39
 -3.270394e+01 -1.526315e+01 1.467056e+00 5.332451e+00 -9.155337e-01 -3.836983e-01 -5.986114e+00 1.758541e+00 -3.663109e+00 4.843231e+00 -3.144683e+00 3.018752e+00 9.685239e+01 -4.480042e+00 -3.711744e+00 -3.788718e+00 -3.282938e+00 -3.477965e+00 -2.965445e+00 -3.843704e+00 -2.474793e+00 -1.891338e+00 -1.502687e+00 -1.148509e+00 -8.828602e-01 1.858932e-01 2.482344e+00 1.060455e+00 6.268839e-01 -2.880482e-01 1.719704e-01 1.362821e-01 5.248392e-01 -3.323327e-01 -3.942140e-01 2.801068e-03 -1.705385e-01 1.392067e-01 3.585305e-01
<VARIANCE> 39
 9.166946e+01 8.747821e+01 1.000378e+02 1.092265e+02 1.206151e+02 1.423908e+02 1.446808e+02 1.473086e+02 1.428140e+02 1.339111e+02 1.252547e+02 1.156762e+02 2.325693e+02 2.396356e+01 1.168953e+01 1.322880e+01 1.297856e+01 1.288765e+01 1.327993e+01 1.349728e+01 1.404426e+01 1.484663e+01 1.369458e+01 1.286772e+01 1.229961e+01 1.898775e+01 3.526302e+00 2.090654e+00 3.025779e+00 4.181023e+00 3.178493e+00 3.448326e+00 3.692858e+00 4.149840e+00 3.919947e+00 3.412375e+00 3.235371e+00 3.154523e+00 2.299542e+00
<GCONST> 1.844724e+02
<STATE> 3
<NUMMIXES> 4
<MIXTURE> 1 2.079373e-01
<MEAN> 39
 -2.100631e+01 -1.341122e+01 4.999617e-01 2.952677e+00 2.334879e+00 3.590257e+00 -3.132144e+00 2.377311e+00 -1.593085e+00 6.460383e+00 -2.339746e+00 3.735802e+00 1.019632e+02 1.610686e+01 4.018016e+00 1.013665e+00 -7.600502e+00 6.318922e-01 1.371877e+00 3.393100e+00 1.134744e-01 8.141930e-01 2.954950e+00 2.381265e-03 6.203995e-01 7.024309e+00 2.327557e+00 -5.287531e-02 -1.075522e-01 -3.496303e+00 -7.426381e-01 -3.435271e-01 2.750939e-01 -1.767772e-01 -3.040956e-01 6.729387e-01 -2.528279e-01 7.136635e-02 1.590973e+00
<VARIANCE> 39
 1.187315e+02 7.021684e+01 6.625127e+01 7.520430e+01 1.024275e+02 1.137144e+02 1.099996e+02 1.099309e+02 1.177838e+02 1.171528e+02 1.000204e+02 9.475844e+01 1.911108e+02 1.735972e+01 2.848865e+01 1.448027e+01 2.743529e+01 1.952418e+01 1.793613e+01 2.062743e+01 1.990137e+01 3.186285e+01 2.320239e+01 3.010739e+01 1.847154e+01 3.400552e+01 3.108975e+00 4.396695e+00 2.620121e+00 3.511052e+00 4.222388e+00 3.681700e+00 4.003781e+00 3.413963e+00 4.708393e+00 3.770021e+00 4.429875e+00 3.455857e+00 4.067692e+00
<GCONST> 1.896429e+02
<MIXTURE> 2 3.094915e-01
<MEAN> 39
 -3.153160e+01 -1.959354e+01 -4.670239e+00 -6.828694e-01 -3.730860e+00 -1.591727e+00 -8.828337e+00 -2.089347e+00 -7.384748e+00 3.112037e+00 -4.013145e+00 2.923463e+00 1.038557e+02 8.623059e+00 2.672239e+00 1.109502e+00 -1.022161e+00 1.199701e+00 1.567743e+00 2.159030e+00 1.003438e+00 1.291015e+00 1.237666e+00 5.056238e-01 4.164454e-01 3.716723e+00 4.498577e+00 1.974794e+00 9.970236e-01 -2.211311e+00 -6.174244e-01 4.244520e-01 8.030845e-01 5.849237e-01 2.417652e-02 6.257603e-01 6.084627e-02 -2.293185e-01 5.596200e-01
<VARIANCE> 39
 1.115796e+02 5.494127e+01 5.698109e+01 6.614818e+01 7.238940e+01 8.603692e+01 8.982963e+01 9.109862e+01 9.701994e+01 9.642034e+01 9.705576e+01 8.658646e+01 1.729744e+02 2.069518e+01 1.250115e+01 7.765696e+00 9.932233e+00 1.027707e+01 9.858041e+00 1.039224e+01 1.096776e+01 1.189867e+01 1.126289e+01 1.161517e+01 9.753263e+00 2.607303e+01 1.953671e+00 3.357339e+00 2.547353e+00 3.252295e+00 3.877948e+00 3.109945e+00 3.583655e+00 3.393966e+00 4.089240e+00 3.753625e+00 4.491267e+00 3.084587e+00 4.503919e+00
<GCONST> 1.777050e+02
<MIXTURE> 3 2.499924e-01
<MEAN> 39
 -2.157784e+01 -1.518648e+01 -3.088285e+00 -3.440776e-01 -1.381351e+00 1.046316e+00 -5.469078e+00 -7.727247e-01 -5.513705e+00 4.563863e+00 -3.799758e+00 3.431524e+00 1.027117e+02 1.600010e+01 4.702909e+00 2.340922e+00 -6.875274e+00 -2.117867e+00 8.836988e-01 1.627932e+00 1.134798e+00 -6.475494e-01 1.186274e+00 8.819199e-01 -1.487616e+00 6.648840e+00 2.669998e+00 4.315724e-01 7.359461e-01 -2.950915e+00 -1.284853e+00 1.035910e-01 -5.102938e-02 5.514688e-01 -4.232724e-01 5.396523e-01 4.327670e-01 -7.276815e-01 1.499342e+00
<VARIANCE> 39
 1.231771e+02 6.775642e+01 6.546226e+01 7.802207e+01 9.772910e+01 1.167049e+02 1.179199e+02 1.182226e+02 1.140805e+02 1.153893e+02 1.072686e+02 9.943768e+01 2.038816e+02 1.488240e+01 2.765660e+01 2.068201e+01 2.048636e+01 2.609455e+01 1.902172e+01 1.863358e+01 2.370872e+01 2.748827e+01 2.471954e+01 3.160802e+01 1.602540e+01 3.596850e+01 2.688875e+00 4.311917e+00 3.546048e+00 3.633566e+00 5.343995e+00 4.143069e+00 4.675039e+00 4.351957e+00 5.185782e+00 4.484993e+00 5.365012e+00 3.899002e+00 4.253623e+00
<GCONST> 1.916579e+02
<MIXTURE> 4 2.325557e-01
<MEAN> 39
 -3.326587e+01 -2.002504e+01 -5.981090e+00 -2.085263e+00 -5.751661e+00 -3.050164e+00 -1.104419e+01 -4.568723e+00 -1.029887e+01 7.777584e-01 -5.678897e+00 1.821284e+00 1.003529e+02 6.816477e+00 1.038851e+00 6.879291e-02 -1.756846e+00 -2.226940e-01 -1.428531e-01 3.117126e-01 -4.371144e-01 -2.899151e-01 -3.404632e-01 -6.506445e-01 -3.698939e-01 5.288383e+00 4.288485e+00 1.981613e+00 1.165170e+00 -1.350143e+00 -1.803974e-01 6.357660e-01 1.059184e+00 9.125926e-01 5.551118e-01 8.616133e-01 3.817114e-01 -1.596118e-01 5.470468e-01
<VARIANCE> 39
 1.212733e+02 6.259028e+01 5.934349e+01 7.031640e+01 7.480798e+01 8.506749e+01 8.922935e+01 9.304279e+01 9.941384e+01 9.583895e+01 9.197723e+01 7.931072e+01 1.890083e+02 2.125686e+01 1.357752e+01 8.297139e+00 8.616892e+00 9.742080e+00 1.021226e+01 1.063407e+01 1.192917e+01 1.154201e+01 1.087825e+01 1.098782e+01 9.631047e+00 3.085248e+01 2.138251e+00 2.584595e+00 2.368596e+00 3.202160e+00 3.581749e+00 2.749738e+00 2.973802e+00 3.179665e+00 3.715891e+00 3.340146e+00 3.594364e+00 2.645584e+00 4.393687e+00
<GCONST> 1.768518e+02
<STATE> 4
<NUMMIXES> 4
<MIXTURE> 1 2.261626e-01
<MEAN> 39
 1.149128e+01 -1.126246e+00 8.997684e-01 -9.906390e+00 -1.112115e+00 3.225814e+00 -5.630755e-02 -9.197884e-01 -1.362648e+00 8.594732e+00 -5.201336e+00 7.566811e-01 1.110190e+02 1.659609e+01 6.152364e-01 -2.278236e-01 -1.137619e+01 7.902340e-01 1.163832e+00 3.800350e+00 -3.650447e-01 1.764442e+00 4.558322e+00 2.991784e-01 4.519282e-01 1.076618e+01 -2.415483e+00 -1.958875e+00 -4.843315e-01 -1.152411e+00 4.210696e-02 5.085246e-02 -1.971909e-02 3.474834e-01 3.958559e-02 2.533488e-01 6.929426e-02 3.401838e-01 1.777225e-01
<VARIANCE> 39
 2.169205e+02 1.179082e+02 7.618551e+01 1.906065e+02 1.020415e+02 1.150929e+02 1.183331e+02 1.192395e+02 1.693326e+02 1.438006e+02 1.529175e+02 1.082516e+02 1.909325e+02 1.030961e+01 4.098158e+01 2.190053e+01 3.351595e+01 3.163617e+01 2.645332e+01 3.111171e+01 2.750968e+01 5.051517e+01 3.227187e+01 4.985132e+01 2.983885e+01 2.825916e+01 2.948210e+00 2.082742e+00 1.542302e+00 2.917669e+00 2.291065e+00 2.564169e+00 2.339901e+00 2.299566e+00 2.584969e+00 2.731182e+00 2.613905e+00 2.409491e+00 3.359937e+00
<GCONST> 1.913507e+02
<MIXTURE> 2 2.809187e-01
<MEAN> 39
 2.541596e+01 -2.283633e+01 -4.855224e+00 -3.455545e+01 4.373382e+00 2.910544e+00 4.523646e+00 -2.508889e+00 6.458199e+00 2.016671e+01 -3.880312e+00 2.769251e-01 1.397587e+02 6.314109e+00 -5.866673e+00 -2.135605e+00 -8.084582e+00 2.960913e+00 2.427311e+00 2.690982e+00 4.955255e-01 2.615671e+00 3.171690e+00 -1.867390e-02 4.005501e-01 9.764336e+00 -4.937946e+00 -4.120301e-01 -1.079961e-02 2.512141e+00 3.580865e-02 4.504899e-01 -8.582684e-01 5.383537e-01 -8.197927e-01 -1.537769e+00 -1.389816e-01 4.088749e-01 -2.820746e+00
<VARIANCE> 39
 5.861343e+01 1.704473e+02 1.736751e+02 2.741851e+02 2.606770e+02 2.330560e+02 2.238675e+02 2.451625e+02 5.303054e+02 2.803719e+02 4.578030e+02 2.298110e+02 1.116559e+02 3.326389e+01 1.336922e+01 1.481846e+01 2.772424e+01 2.335535e+01 1.769285e+01 1.952893e+01 1.866511e+01 2.943217e+01 2.297903e+01 2.727606e+01 1.927234e+01 1.742166e+01 1.273175e+00 1.980732e+00 1.742562e+00 2.941079e+00 2.437852e+00 2.773353e+00 3.079577e+00 2.832137e+00 6.723017e+00 3.843397e+00 5.046132e+00 3.425900e+00 2.059658e+00
<GCONST> 1.949116e+02
<MIXTURE> 3 2.633031e-01
<MEAN> 39
 1.581785e+01 6.365580e+00 5.384040e+00 -1.132912e+01 -6.279592e+00 3.097269e+00 2.211754e+00 3.797356e+00 -6.058361e+00 6.410268e+00 -3.252361e+00 2.788062e+00 1.086610e+02 1.666058e+01 6.421561e+00 4.496579e+00 -1.124606e+01 -6.106550e+00 3.084726e-01 6.731170e-01 2.970486e+00 -2.412445e+00 1.064053e+00 3.375000e-01 -1.934357e+00 6.376660e+00 -2.253185e+00 -1.516737e+00 -1.451856e-01 -1.106546e+00 -1.060043e+00 -3.909036e-01 -1.218270e+00 9.186871e-02 -4.479132e-01 1.004044e-01 -5.119495e-02 -6.212811e-01 4.971870e-01
<VARIANCE> 39
 2.200901e+02 1.504170e+02 8.420200e+01 2.164903e+02 1.560852e+02 1.341755e+02 1.237731e+02 1.335049e+02 1.476106e+02 1.291693e+02 1.327117e+02 9.604778e+01 1.806304e+02 1.032487e+01 3.557189e+01 3.087489e+01 3.233543e+01 4.127316e+01 3.409673e+01 3.619723e+01 3.831714e+01 3.959200e+01 3.562382e+01 4.559142e+01 3.115600e+01 2.283678e+01 3.204207e+00 2.219374e+00 1.836775e+00 2.905132e+00 2.836803e+00 2.451918e+00 2.615760e+00 2.756189e+00 3.137767e+00 2.772761e+00 2.563070e+00 2.472571e+00 2.799878e+00
<GCONST> 1.935885e+02
<MIXTURE> 4 2.295975e-01
<MEAN> 39
 2.610342e+01 -2.051770e+01 -2.969867e+00 -3.172031e+01 -1.169576e+01 9.489921e+00 -6.692537e+00 2.194484e+00 -1.192736e+01 1.996362e+01 2.015481e+01 -8.118500e+00 1.421059e+02 5.658544e+00 -4.956642e+00 -2.032703e+00 -7.224271e+00 -1.494798e+00 2.805238e+00 6.035170e-02 8.528160e-01 3.301727e-01 2.433260e+00 3.671915e+00 -3.419904e+00 9.239072e+00 -4.933815e+00 -4.454602e-01 -3.860180e-01 2.280146e+00 1.068477e+00 -3.795925e-01 3.741497e-01 -7.205091e-02 1.509839e+00 -1.104698e+00 -2.466274e+00 1.042743e-01 -2.603293e+00
<VARIANCE> 39
 6.146203e+01 1.499308e+02 2.068691e+02 3.537377e+02 2.900464e+02 2.651840e+02 2.538411e+02 3.585680e+02 5.128725e+02 4.486848e+02 5.464370e+02 2.389810e+02 1.260820e+02 3.389593e+01 1.053195e+01 1.602311e+01 2.575762e+01 1.940816e+01 1.947651e+01 1.832646e+01 2.286122e+01 3.060413e+01 2.426206e+01 4.164211e+01 1.772827e+01 1.436358e+01 1.256634e+00 1.803915e+00 2.112882e+00 3.273003e+00 2.946706e+00 2.740189e+00 3.313917e+00 3.595543e+00 5.362975e+00 5.492667e+00 5.425360e+00 2.893313e+00 1.685085e+00
<GCONST> 1.973680e+02
<TRANSP> 5
 0.000000e+00 1.000000e+00 0.000000e+00 0.000000e+00 0.000000e+00
 0.000000e+00 8.521684e-01 1.478316e-01 0.000000e+00 0.000000e+00
 0.000000e+00 0.000000e+00 6.340411e-01 3.659589e-01 0.000000e+00
 0.000000e+00 0.000000e+00 0.000000e+00 5.249064e-01 4.750936e-01
 0.000000e+00 0.000000e+00 0.000000e+00 0.000000e+00 0.000000e+00
<ENDHMM>
~h "k"
<BEGINHMM>
<NUMSTATES> 5
<STATE> 2
<NUMMIXES> 4
<MIXTURE> 1 2.316085e-01
<MEAN> 39
 2.689830e+00 -9.227540e-01 4.275946e+01 3.134579e+01 -3.831790e+00 -3.067794e+01 7.017219e+00 1.253661e+01 -3.196155e+01 2.232607e+00 2.745543e+00 2.237021e+00 9.889457e+01 -4.078356e+00 8.259227e+00 -6.677353e+00 4.376855e+00 5.148775e+00 7.846281e+00 1.475672e+00 -5.925027e-01 5.133226e+00 -2.400219e+00 1.232043e+00 -2.656482e-01 -1.818004e+01 -1.478054e+00 -1.370853e+00 -2.918746e+00 -3.722352e+00 -3.144990e-01 1.405983e+00 -2.727916e+00 -1.575283e+00 2.821723e+00 3.171131e-01 -9.249961e-01 5.038318e-01 7.172530e-01
<VARIANCE> 39
 7.774165e+01 2.077219e+02 2.453145e+02 1.888050e+02 3.526574e+02 4.084735e+02 5.059789e+02 7.106372e+02 5.322933e+02 3.830467e+02 2.696003e+02 2.322175e+02 3.187722e+02 1.189830e+01 2.323198e+01 2.580219e+01 2.898052e+01 2.752471e+01 3.624043e+01 6.513143e+01 6.646871e+01 5.164882e+01 3.754695e+01 2.796969e+01 2.805147e+01 2.847233e+01 1.746022e+00 4.906898e+00 3.547523e+00 3.127998e+00 4.312858e+00 7.292751e+00 5.805042e+00 9.657318e+00 7.807548e+00 5.864031e+00 4.796802e+00 4.905058e+00 6.947103e+00
<GCONST> 2.118667e+02
<MIXTURE> 2 2.779392e-01
<MEAN> 39
 -1.372331e+01 1.409653e+01 1.673359e+01 2.107393e+01 1.507523e+00 -7.275503e+00 -4.639868e+00 -4.379933e+00 -1.295094e+01 -5.412314e+00 -1.080773e+00 2.270097e+00 5.751968e+01 -5.311638e+00 -5.360817e-01 -9.453073e+00 -4.582931e+00 1.852873e+00 5.694590e+00 -2.625949e+00 -1.926699e-01 5.687389e+00 4.622899e-01 2.604901e-01 4.701674e-03 -7.862063e+00 8.000973e-01 -3.712689e+00 3.713018e-01 -1.863027e+00 -1.148567e+00 -2.276857e+00 -4.593819e-02 6.322432e-01 -2.323873e-01 1.478679e+00 -2.307108e-01 4.483165e-01 6.758746e+00
<VARIANCE> 39
 8.071272e+01 1.155819e+02 1.361577e+02 1.710345e+02 1.774872e+02 1.985934e+02 2.410858e+02 2.487363e+02 1.846452e+02 1.737802e+02 1.428230e+02 1.150338e+02 6.504986e+01 9.941199e+00 3.329151e+01 2.200310e+01 2.409280e+01 2.900265e+01 3.497244e+01 3.948059e+01 5.654505e+01 3.605067e+01 2.896961e+01 2.118163e+01 1.823251e+01 4.801580e+01 2.881009e+00 5.291475e+00 4.006877e+00 5.505683e+00 5.156734e+00 6.109964e+00 8.254356e+00 8.647520e+00 7.256997e+00 4.765357e+00 4.344655e+00 3.593543e+00 7.615983e+00
<GCONST> 2.019486e+02
<MIXTURE> 3 2.299897e-01
<MEAN> 39
 -1.098556e+01 1.735794e+01 1.877768e+01 2.098057e+01 3.387945e-01 -7.313559e+00 -7.114141e+00 -1.046623e+01 -1.700549e+01 -8.727606e+00 -5.251979e+00 -1.115360e+00 5.831010e+01 -6.395664e+00 -2.336126e+00 -1.202704e+01 -4.498555e+00 2.489552e+00 2.791239e+00 -7.128519e+00 1.416807e+00 2.353745e+00 -2.577851e+00 -4.484138e-01 -8.549208e-01 -8.348442e+00 2.468287e-01 -4.117888e+00 6.306008e-02 -2.235393e+00 -1.707535e+00 -2.166655e+00 1.132483e+00 2.751288e-01 9.848225e-01 2.053439e+00 2.000034e-01 1.251417e+00 7.401971e+00
<VARIANCE> 39
 6.763564e+01 1.069255e+02 1.058738e+02 1.201876e+02 1.587792e+02 2.015988e+02 2.251539e+02 2.286738e+02 2.261631e+02 1.927286e+02 1.510358e+02 1.138569e+02 5.433182e+01 6.992106e+00 4.050111e+01 1.669675e+01 2.479167e+01 2.507112e+01 3.554131e+01 3.510468e+01 6.134248e+01 3.878572e+01 2.767212e+01 2.035357e+01 1.709161e+01 6.083390e+01 2.780650e+00 4.668924e+00 3.596240e+00 4.265660e+00 4.813976e+00 6.005004e+00 7.554784e+00 9.362628e+00 8.417508e+00 5.056416e+00 3.962871e+00 3.918957e+00 7.382407e+00
<GCONST> 2.001553e+02
<MIXTURE> 4 2.604441e-01
<MEAN> 39
 -3.035270e+00 4.527288e+00 3.485653e+01 2.949434e+01 -4.523221e+00 -2.073574e+01 5.343880e+00 1.074881e+00 -1.983459e+01 1.182170e+00 5.047333e-01 4.224251e+00 8.534492e+01 -6.262269e+00 5.116343e+00 -9.353603e+00 1.625688e+00 4.462760e+00 5.901888e+00 -3.347638e+00 -6.936189e-01 2.103371e+00 -3.429998e+00 -4.426987e-01 -1.529642e+00 -1.716787e+01 -8.542733e-01 -2.302236e+00 -2.099331e+00 -3.854510e+00 -8.370309e-01 -3.646237e-02 -1.880767e+00 -2.829904e-01 1.485089e+00 4.401467e-01 -2.197430e-01 3.352501e-01 2.636535e+00
<VARIANCE> 39
 1.347032e+02 2.562961e+02 2.235995e+02 2.067738e+02 4.308815e+02 4.414632e+02 4.891060e+02 6.005262e+02 3.477879e+02 2.786527e+02 2.321599e+02 1.808282e+02 2.375230e+02 1.016105e+01 2.868399e+01 2.481244e+01 3.502901e+01 3.107435e+01 3.533520e+01 6.885193e+01 8.962234e+01 6.403313e+01 3.800074e+01 2.460171e+01 2.651961e+01 2.981945e+01 2.876965e+00 5.672133e+00 3.848721e+00 3.564315e+00 5.488322e+00 7.278968e+00 6.552185e+00 7.482285e+00 5.649958e+00 4.812171e+00 4.789698e+00 4.378424e+00 7.760565e+00
<GCONST> 2.124413e+02
<STATE> 3
<NUMMIXES> 4
<MIXTURE> 1 2.239899e-01
<MEAN> 39
 -2.151467e+01 1.814039e+00 -1.545409e+00 5.905711e+00 -4.373841e+00 -7.459416e+00 -9.503270e+00 -5.544549e+00 -6.645902e+00 -1.426544e+00 -3.983817e-01 2.730084e+00 5.564719e+01 3.359457e-01 -4.564286e+00 -4.990804e+00 -2.690388e-01 1.088262e+00 1.217347e+00 5.711293e-01 3.273738e+00 3.804057e+00 3.200583e+00 1.306970e+00 1.058867e+00 7.050549e+00 3.037665e-01 -3.380224e-01 1.173162e+00 1.398955e+00 -2.573047e-01 -1.028524e+00 5.342046e-01 3.198822e-01 -4.195140e-01 2.818857e-01 -2.083845e-01 2.925814e-01 4.246166e+00
<VARIANCE> 39
 9.985228e+01 1.690848e+02 1.565920e+02 7.818037e+01 7.758599e+01 1.094920e+02 1.159347e+02 1.129923e+02 1.114921e+02 1.029379e+02 8.251861e+01 7.123692e+01 2.475271e+02 1.809532e+01 2.751448e+01 2.125354e+01 1.823093e+01 1.570198e+01 1.965250e+01 1.957018e+01 1.802459e+01 1.814693e+01 1.782597e+01 1.527394e+01 1.073406e+01 7.906568e+01 6.359794e+00 5.453554e+00 4.908415e+00 2.826396e+00 4.149086e+00 4.027876e+00 4.801259e+00 4.369345e+00 3.469034e+00 3.357904e+00 2.369733e+00 2.198629e+00 9.105635e+00
<GCONST> 1.902575e+02
<MIXTURE> 2 2.266415e-01
<MEAN> 39
 -1.900004e+01 -9.686741e+00 -5.669360e+00 8.780524e+00 4.726478e+00 -4.662740e+00 -7.457131e+00 2.073232e+00 -2.618994e+00 4.964026e+00 -1.049635e+00 3.478005e+00 7.160111e+01 -9.898634e-01 -5.900928e+00 -6.453057e+00 -2.145881e+00 7.679849e-01 -1.723566e+00 -3.017194e+00 5.116974e-01 1.605318e+00 2.164429e+00 -8.188636e-01 4.477278e-01 1.083466e+01 -9.894518e-01 1.196115e+00 2.172534e+00 9.758373e-01 -8.090018e-01 -1.982619e+00 2.450989e-01 2.346416e-01 -8.532649e-01 -5.115867e-01 -3.529355e-01 1.468503e-01 2.968990e+00
<VARIANCE> 39
 1.677214e+02 3.254713e+02 2.405573e+02 2.030293e+02 2.013161e+02 2.325742e+02 2.492661e+02 1.923842e+02 1.685275e+02 1.451336e+02 1.367824e+02 1.066592e+02 5.311677e+02 3.008002e+01 3.120083e+01 2.687578e+01 2.459510e+01 2.597368e+01 2.830015e+01 2.170940e+01 2.264102e+01 2.230419e+01 1.949741e+01 1.514942e+01 1.252147e+01 7.418243e+01 8.062721e+00 7.486041e+00 5.580134e+00 4.645631e+00 5.262009e+00 6.121902e+00 5.917974e+00 5.770003e+00 4.894077e+00 4.119283e+00 3.088850e+00 2.780799e+00 1.257116e+01
<GCONST> 2.046877e+02
<MIXTURE> 3 3.410978e-01
<MEAN> 39
 -2.362164e+01 2.644167e+00 -1.858491e+00 3.866161e+00 -4.699738e+00 -6.604633e+00 -8.492472e+00 -4.854002e+00 -4.477888e+00 6.074737e-01 1.184833e+00 3.052848e+00 5.220631e+01 8.987279e-01 -3.781913e+00 -4.534175e+00 -5.572708e-01 4.967580e-01 -2.894599e-01 -1.663620e+00 6.511306e-01 1.105836e+00 6.665869e-01 -5.869364e-01 1.042558e-02 5.954552e+00 5.251441e-01 -5.280848e-01 6.715603e-01 1.391789e+00 -1.749477e-01 -8.233829e-01 3.303397e-01 2.206206e-01 -3.267903e-01 1.413854e-01 -3.680916e-01 1.292906e-01 4.092946e+00
<VARIANCE> 39
 8.207655e+01 9.907253e+01 1.068260e+02 5.863787e+01 6.520978e+01 8.099961e+01 9.037663e+01 9.059927e+01 8.515868e+01 8.518536e+01 7.748498e+01 6.822968e+01 1.684727e+02 1.689843e+01 2.102457e+01 1.775258e+01 1.703731e+01 1.384164e+01 1.631182e+01 1.556909e+01 1.387789e+01 1.408881e+01 1.416472e+01 1.126465e+01 9.604001e+00 7.453111e+01 6.020073e+00 3.809726e+00 4.176450e+00 2.373320e+00 3.340744e+00 3.446346e+00 3.728639e+00 3.330655e+00 2.993333e+00 2.786652e+00 2.198924e+00 1.944013e+00 7.610349e+00
<GCONST> 1.822587e+02
<MIXTURE> 4 2.082478e-01
<MEAN> 39
 -1.916179e+01 -1.012045e+01 -2.178162e+00 1.052282e+01 5.470821e+00 -5.669426e+00 -6.863130e+00 3.564989e+00 -4.085208e+00 3.495919e+00 -1.681446e+00 3.843404e+00 7.406929e+01 -3.131533e+00 -7.180722e+00 -8.360113e+00 -4.384928e+00 -7.191493e-01 -3.267697e+00 -5.335849e+00 -1.528198e+00 6.993032e-01 2.783944e-01 -2.347290e+00 -1.821152e-01 1.011123e+01 -8.249880e-01 1.102642e+00 2.354949e+00 7.453176e-01 -1.147889e+00 -2.234701e+00 4.964472e-01 3.591923e-01 -8.925861e-01 -2.507572e-01 -2.138019e-01 1.200882e-01 3.645657e+00
<VARIANCE> 39
 1.564933e+02 3.634384e+02 2.412304e+02 1.967873e+02 1.881802e+02 2.309465e+02 2.496159e+02 2.076195e+02 1.689724e+02 1.273715e+02 1.448252e+02 1.016657e+02 5.682032e+02 3.606282e+01 3.167137e+01 2.883685e+01 2.833898e+01 2.464386e+01 3.102665e+01 2.071186e+01 2.514413e+01 2.772038e+01 1.910658e+01 1.702230e+01 1.341703e+01 7.295420e+01 7.450643e+00 7.816016e+00 5.179130e+00 4.697979e+00 5.502897e+00 6.318505e+00 6.374992e+00 6.240192e+00 5.375933e+00 4.185098e+00 3.510957e+00 3.070419e+00 1.294362e+01
<GCONST> 2.060200e+02
<STATE> 4
<NUMMIXES> 4
<MIXTURE> 1 2.265410e-01
<MEAN> 39
 -1.862254e+01 -1.906185e+01 -1.739579e+01 1.594157e+01 -8.704353e+00 -1.666893e+01 -1.333644e+01 4.353434e+00 -2.820414e+00 1.574532e-01 -2.028877e+00 7.491306e+00 1.151106e+02 -8.196256e+00 1.811639e+00 -7.916154e-01 1.911932e+00 -3.930102e+00 -1.948432e+00 1.505573e+00 3.945687e+00 7.352031e-01 1.409983e-01 4.226817e-01 2.778359e+00 1.042111e+01 -2.326461e+00 3.804744e+00 2.616791e+00 -1.922704e-01 -6.030215e-02 1.266936e+00 1.633382e+00 -3.216597e-01 -8.473664e-01 -3.366611e-01 1.902705e-01 -1.229206e-01 -4.666249e+00
<VARIANCE> 39
 2.519377e+02 1.847732e+02 2.116565e+02 1.502474e+02 2.393372e+02 2.123466e+02 1.967846e+02 1.751578e+02 1.691569e+02 1.524297e+02 1.565874e+02 1.159081e+02 1.181161e+02 2.730635e+01 3.237833e+01 1.796896e+01 1.750708e+01 2.259681e+01 2.145379e+01 2.089318e+01 1.561643e+01 1.868605e+01 1.512709e+01 1.338260e+01 1.212077e+01 5.364309e+01 5.248886e+00 4.242248e+00 4.516609e+00 3.995747e+00 4.078025e+00 4.514360e+00 4.122287e+00 4.174267e+00 4.322207e+00 3.710650e+00 3.203036e+00 2.512137e+00 4.185921e+00
<GCONST> 1.960813e+02
<MIXTURE> 2 2.401394e-01
<MEAN> 39
 -4.290116e+01 -9.841877e+00 -5.353211e+00 6.811798e+00 1.121966e+01 -2.611599e+01 -1.840203e+01 3.285138e+00 2.037460e+00 6.481855e+00 -9.280244e+00 2.333206e+00 1.152277e+02 -1.302770e+01 4.703254e+00 3.193905e+00 -1.975608e-01 -6.286894e-01 -4.482772e+00 2.301383e+00 2.957890e+00 2.993487e+00 -1.718375e+00 -1.475717e+00 4.911383e-01 4.077567e+00 5.394626e-01 1.741563e+00 9.430580e-01 -1.276861e-01 -7.771164e-01 1.693803e+00 1.707531e+00 4.988214e-01 -9.077989e-01 -8.673586e-01 5.144644e-01 2.899374e-01 -3.900038e+00
<VARIANCE> 39
 2.735000e+02 1.037088e+02 1.846684e+02 1.968584e+02 2.401192e+02 3.131950e+02 1.991915e+02 2.152164e+02 1.696376e+02 1.512314e+02 1.409968e+02 1.061128e+02 1.672759e+02 1.618762e+01 1.427019e+01 1.505840e+01 1.622001e+01 1.867503e+01 1.858735e+01 1.581866e+01 1.784974e+01 1.610060e+01 1.520187e+01 1.298012e+01 1.253447e+01 2.491926e+01 6.512074e+00 2.430037e+00 3.781244e+00 3.147141e+00 2.939462e+00 5.223322e+00 3.048573e+00 3.902992e+00 3.856921e+00 3.235504e+00 2.834477e+00 2.175968e+00 3.870615e+00
<GCONST> 1.915943e+02
<MIXTURE> 3 3.485092e-01
<MEAN> 39
 -1.393674e+01 -1.950686e+01 -1.981572e+01 1.433717e+01 -3.388934e+00 -1.439171e+01 -1.761017e+01 1.476808e+00 -3.302626e+00 3.144591e+00 -4.278886e+00 6.692643e+00 1.117833e+02 -8.276254e+00 4.897922e-01 -7.965084e-01 1.626350e+00 -3.342738e+00 -3.672851e+00 -4.252692e-01 2.587659e+00 -1.545851e-01 -7.900803e-01 -1.242186e+00 1.598118e+00 1.125612e+01 -3.272821e+00 3.668570e+00 2.662649e+00 -4.023898e-01 -6.775799e-01 6.835980e-01 1.911714e+00 1.066405e-01 -5.322030e-01 -7.543956e-01 3.681545e-01 -2.634047e-02 -4.610820e+00
<VARIANCE> 39
 2.194819e+02 1.535272e+02 1.985728e+02 1.645429e+02 2.418720e+02 2.315589e+02 1.768756e+02 1.766362e+02 1.748353e+02 1.583695e+02 1.438786e+02 1.184442e+02 1.164795e+02 2.207866e+01 2.376472e+01 1.542667e+01 1.857890e+01 2.809341e+01 2.664467e+01 1.976467e+01 1.582138e+01 1.782608e+01 1.448773e+01 1.306360e+01 1.250276e+01 4.277373e+01 4.993197e+00 3.586311e+00 3.906796e+00 3.728841e+00 3.877401e+00 4.607302e+00 3.780416e+00 4.066182e+00 4.585191e+00 3.640226e+00 2.796513e+00 2.720310e+00 3.056953e+00
<GCONST> 1.943402e+02
<MIXTURE> 4 1.847944e-01
<MEAN> 39
 -4.168364e+01 -1.195565e+01 -6.201191e+00 8.144576e+00 1.283752e+01 -2.272080e+01 -2.103910e+01 2.713497e-01 3.438143e+00 9.894779e+00 -7.716555e+00 5.099623e-01 1.097997e+02 -1.235037e+01 3.090974e+00 3.014506e+00 -5.804017e-01 -1.277011e+00 -5.408824e+00 7.706859e-01 2.229034e+00 2.431159e+00 -1.990965e+00 -2.548120e+00 -5.226522e-01 3.724522e+00 3.866742e-01 1.453557e+00 4.410147e-01 -7.488513e-01 -1.316331e+00 1.175215e+00 1.535107e+00 5.527728e-01 -8.641384e-01 -1.304457e+00 1.458807e-01 4.103502e-01 -3.405668e+00
<VARIANCE> 39
 2.637688e+02 1.123543e+02 1.736936e+02 2.026017e+02 2.744081e+02 2.828993e+02 2.050420e+02 2.144147e+02 2.013818e+02 1.473152e+02 1.482353e+02 1.007825e+02 1.666973e+02 1.370692e+01 1.193207e+01 1.208945e+01 1.518290e+01 2.103804e+01 1.928964e+01 1.564506e+01 1.728062e+01 1.554351e+01 1.615043e+01 1.235274e+01 1.155132e+01 2.219179e+01 6.843843e+00 1.894652e+00 2.866769e+00 2.610145e+00 3.121499e+00 4.450003e+00 2.994788e+00 3.412863e+00 3.526203e+00 2.825963e+00 2.742524e+00 2.054323e+00 2.787254e+00
<GCONST> 1.895039e+02
<TRANSP> 5
 0.000000e+00 1.000000e+00 0.000000e+00 0.000000e+00 0.000000e+00
 0.000000e+00 7.079535e-01 2.920466e-01 0.000000e+00 0.000000e+00
 0.000000e+00 0.000000e+00 7.200670e-01 2.799331e-01 0.000000e+00
 0.000000e+00 0.000000e+00 0.000000e+00 5.968759e-01 4.031241e-01
 0.000000e+00 0.000000e+00 0.000000e+00 0.000000e+00 0.000000e+00
<ENDHMM>
~h "n"
<BEGINHMM>
<NUMSTATES> 5
<STATE> 2
<NUMMIXES> 4
<MIXTURE> 1 1.839900e-01
<MEAN> 39
 7.369524e+00 -2.057732e-01 3.458625e+01 -1.888535e+00 -1.545777e+00 2.711769e+00 1.923088e+01 -2.624403e-01 -2.167100e+00 8.127795e+00 -2.335043e+00 1.086542e+01 1.071987e+02 5.033070e+00 4.728402e+00 1.574214e+00 6.138828e+00 -7.641084e-01 2.090599e+00 2.894229e+00 -6.317078e+00 2.474659e-01 3.854280e-01 -1.414685e+00 2.521075e+00 -2.059432e+00 2.657370e-01 -5.475448e-01 -8.291910e-01 4.995108e-01 -1.164239e-01 -1.321304e-01 -4.029641e-01 -2.568559e-01 2.632946e-01 -3.245714e-01 2.769147e-02 1.531274e-01 5.221510e-01
<VARIANCE> 39
 2.247931e+02 3.389887e+02 3.214293e+02 6.973685e+02 2.619048e+02 3.676135e+02 3.980491e+02 5.153856e+02 3.601651e+02 3.265018e+02 2.755094e+02 2.588725e+02 7.846915e+02 2.970144e+01 1.782215e+01 4.569122e+01 4.494762e+01 2.764835e+01 3.505660e+01 4.150613e+01 4.387021e+01 3.818225e+01 3.397352e+01 3.031794e+01 2.930289e+01 5.350798e+01 2.163134e+00 2.849936e+00 3.911737e+00 8.389202e+00 4.130810e+00 5.125141e+00 5.100112e+00 6.638662e+00 4.741024e+00 4.644809e+00 3.765555e+00 4.099873e+00 3.135761e+00
<GCONST> 2.135364e+02
<MIXTURE> 2 3.156784e-01
<MEAN> 39
 1.994850e+01 -2.575316e-01 3.402316e+01 1.353067e+01 -6.387475e+00 4.442124e+00 1.636457e+01 -5.984902e+00 -5.820599e+00 1.182308e+01 -7.823240e+00 9.158622e+00 1.115952e+02 3.291957e-02 2.983596e+00 -5.990881e-01 2.980606e+00 6.176820e-01 1.582365e+00 2.013598e+00 -1.922733e+00 3.610439e-01 5.750546e-01 -1.309321e+00 -1.696720e-01 -3.396979e+00 -8.354863e-01 -5.547509e-01 -4.156641e-01 -9.276215e-01 6.618576e-01 -2.955150e-01 -7.911039e-01 1.458156e+00 2.587025e-01 -4.384068e-01 3.946764e-01 -1.880915e-01 3.590982e-01
<VARIANCE> 39
 6.503326e+01 2.349855e+02 1.912958e+02 4.318654e+02 3.133004e+02 4.298087e+02 5.896118e+02 5.393834e+02 6.002438e+02 4.668247e+02 4.434764e+02 4.612614e+02 2.048407e+02 4.118475e+00 9.786237e+00 1.250388e+01 2.061571e+01 1.533401e+01 1.982804e+01 2.690919e+01 3.026004e+01 2.460641e+01 2.016952e+01 1.874123e+01 1.736863e+01 5.484286e+00 1.527347e+00 2.031708e+00 3.495442e+00 6.230057e+00 3.786949e+00 5.104095e+00 6.850173e+00 6.679667e+00 5.439333e+00 4.619843e+00 4.452892e+00 4.379258e+00 1.436411e+00
<GCONST> 2.001254e+02
<MIXTURE> 3 2.789186e-01
<MEAN> 39
 1.849437e+01 -9.888461e-01 3.443063e+01 1.771781e+01 -5.564445e+00 4.474173e+00 1.362902e+01 -4.358643e+00 -1.128869e+01 1.322722e+01 -1.261255e+01 3.906737e+00 1.104777e+02 -7.911429e-01 2.893235e+00 -8.910190e-01 2.366867e+00 1.120821e+00 8.853104e-01 1.900278e+00 -6.741880e-01 3.326647e-01 -1.362695e-02 -1.518543e+00 -9.613338e-01 -3.517674e+00 -1.092468e+00 -6.102684e-01 -8.028591e-01 -1.170354e+00 6.433653e-01 -4.088101e-01 -1.083212e+00 1.501348e+00 7.025120e-01 -5.964172e-01 7.814997e-01 3.487311e-02 3.171201e-01
<VARIANCE> 39
 6.911110e+01 2.127665e+02 1.740690e+02 3.846732e+02 3.303200e+02 4.145933e+02 5.082448e+02 4.856466e+02 5.836005e+02 5.910901e+02 5.711360e+02 4.995519e+02 2.448854e+02 5.612670e+00 1.144054e+01 1.260502e+01 1.718143e+01 1.512312e+01 1.873097e+01 2.470547e+01 2.457107e+01 2.475538e+01 2.293003e+01 2.015466e+01 1.972773e+01 6.880610e+00 2.210320e+00 2.486503e+00 3.613383e+00 6.045319e+00 4.371571e+00 5.149770e+00 7.359260e+00 6.587287e+00 6.340852e+00 5.368497e+00 5.740814e+00 5.390499e+00 1.896495e+00
<GCONST> 2.026758e+02
<MIXTURE> 4 2.213842e-01
<MEAN> 39
 1.104288e+01 -1.174935e+01 4.042628e+01 -9.706896e+00 -5.032314e+00 -3.513469e+00 1.063468e+01 8.553180e+00 -9.014191e+00 9.747828e+00 -2.927868e+00 7.615683e+00 1.243718e+02 2.340156e+00 4.651366e+00 9.045094e-03 5.711426e+00 2.005028e-01 1.475880e+00 3.371788e+00 -5.653483e+00 -1.373201e+00 1.695235e+00 -2.981971e+00 3.914521e-01 -4.932357e+00 3.259900e-01 5.888176e-02 -1.365896e+00 1.524625e+00 1.855966e-01 3.710640e-01 2.090821e-01 -6.572379e-01 7.101756e-01 -3.036353e-01 -2.972462e-01 -6.552829e-02 -4.068978e-01
<VARIANCE> 39
 1.246697e+02 3.169351e+02 3.348815e+02 6.476217e+02 2.953513e+02 3.325358e+02 5.626311e+02 5.872526e+02 4.392733e+02 3.310803e+02 3.095377e+02 2.572139e+02 4.436457e+02 1.124729e+01 1.407582e+01 3.283022e+01 4.624010e+01 2.720127e+01 3.212360e+01 4.311932e+01 4.126317e+01 3.605517e+01 3.177556e+01 2.551423e+01 2.720482e+01 1.552553e+01 1.492671e+00 2.162135e+00 3.737404e+00 7.170744e+00 3.652068e+00 4.709023e+00 6.011117e+00 6.435649e+00 4.516926e+00 4.222029e+00 3.506894e+00 3.661161e+00 1.775095e+00
<GCONST> 2.080294e+02
<STATE> 3
<NUMMIXES> 4
<MIXTURE> 1 2.961173e-01
<MEAN> 39
 2.241830e+01 1.004904e+01 3.383366e+01 1.638314e+01 -8.787427e+00 1.420019e+01 2.150723e+01 -1.783454e+01 3.402253e+00 5.548249e+00 -4.763000e+00 1.712712e+01 1.027618e+02 -7.931947e-01 -5.592592e-01 2.168003e-01 2.750506e-01 8.222465e-01 -1.193701e-01 -1.374409e-01 1.974815e+00 3.657271e-01 -7.527269e-01 5.840790e-01 3.684682e-01 2.922392e-02 -1.093034e+00 -1.127176e+00 -5.311978e-01 -1.153712e+00 9.873778e-01 -1.209086e+00 -9.376050e-01 2.254622e+00 -3.119302e-01 7.257427e-02 1.321311e-01 -7.035983e-01 5.836375e-01
<VARIANCE> 39
 5.182433e+01 2.135995e+02 1.539290e+02 2.198455e+02 2.266177e+02 3.902663e+02 4.612307e+02 4.313781e+02 4.754460e+02 4.178722e+02 4.779230e+02 4.173578e+02 1.572762e+02 5.174072e+00 1.026892e+01 7.166608e+00 1.216098e+01 1.308174e+01 1.990582e+01 1.765545e+01 2.353317e+01 1.546827e+01 1.404035e+01 1.373065e+01 1.504931e+01 1.236255e+01 1.486973e+00 1.968184e+00 2.488636e+00 3.252492e+00 2.902234e+00 3.951216e+00 5.169574e+00 5.187252e+00 4.313860e+00 3.388452e+00 3.931653e+00 3.547654e+00 1.601625e+00
<GCONST> 1.924110e+02
<MIXTURE> 2 2.457905e-01
<MEAN> 39
 1.670038e+01 1.175963e+01 3.254439e+01 2.462662e+01 8.692675e-01 5.137739e+00 1.930297e+01 -3.902301e+00 -5.581495e+00 8.317996e+00 -1.244180e+01 5.598619e+00 9.736221e+01 -2.335105e+00 -7.211843e-01 -1.259993e+00 -1.665800e+00 2.795526e+00 -1.489038e-01 -2.187654e+00 3.419442e+00 1.501874e+00 -3.313767e-01 1.216874e+00 -5.965326e-01 1.162406e+00 -2.016222e+00 -1.841045e+00 -1.559096e+00 -1.982879e+00 -1.345984e-01 -3.684822e-01 -1.480243e+00 8.968285e-01 5.204242e-01 -9.719570e-02 8.759336e-01 9.513719e-02 7.513357e-01
<VARIANCE> 39
 8.987690e+01 2.003670e+02 1.418013e+02 2.245541e+02 2.849042e+02 3.671237e+02 3.884849e+02 3.662461e+02 4.971133e+02 4.722076e+02 4.251325e+02 4.491435e+02 2.261091e+02 4.829699e+01 3.256420e+01 3.248465e+01 4.125202e+01 3.527858e+01 4.048763e+01 5.226151e+01 5.008405e+01 4.553863e+01 3.661009e+01 3.422814e+01 3.848109e+01 5.445174e+01 3.915720e+00 2.669033e+00 2.856183e+00 3.335691e+00 4.061512e+00 4.507644e+00 4.986076e+00 4.853978e+00 5.597891e+00 4.284482e+00 4.297247e+00 4.384801e+00 2.036407e+00
<GCONST> 2.110288e+02
<MIXTURE> 3 2.560675e-01
<MEAN> 39
 2.109249e+01 4.113876e+00 3.678643e+01 1.745086e+01 -9.982528e+00 8.724737e+00 1.922495e+01 -1.766632e+01 -1.343498e+00 6.656705e+00 -8.729891e+00 1.646531e+01 1.075848e+02 -1.277347e+00 -2.975301e+00 -7.088756e-01 -2.761269e+00 2.197404e+00 -3.296710e+00 -2.531926e+00 5.053607e+00 2.044124e-01 -6.859791e-01 -1.505016e-01 -5.767847e-01 3.306290e+00 -1.515795e+00 -1.562160e+00 -1.612278e+00 -2.135897e+00 1.319507e+00 -1.095665e+00 -1.706973e+00 3.096838e+00 2.130911e-01 -3.825297e-02 4.258588e-01 -1.082914e+00 8.255323e-01
<VARIANCE> 39
 5.735262e+01 2.042712e+02 1.508168e+02 2.720016e+02 2.289876e+02 4.265577e+02 4.869342e+02 4.301953e+02 5.299944e+02 4.559941e+02 5.149509e+02 5.249891e+02 1.701783e+02 1.084122e+01 1.764290e+01 1.396772e+01 2.574181e+01 2.353259e+01 3.945549e+01 3.522376e+01 4.647206e+01 2.554929e+01 2.054190e+01 2.111775e+01 2.508421e+01 2.787969e+01 2.676062e+00 2.469395e+00 3.323714e+00 4.492445e+00 4.136703e+00 5.631812e+00 6.661187e+00 6.953014e+00 6.934902e+00 4.304867e+00 5.325823e+00 5.681012e+00 2.827999e+00
<GCONST> 2.061064e+02
<MIXTURE> 4 2.019934e-01
<MEAN> 39
 1.212945e+01 1.612082e+01 3.242711e+01 2.478739e+01 5.812995e+00 1.142499e+01 1.943150e+01 -4.138410e+00 -2.597162e+00 6.330477e+00 -1.135112e+01 6.869316e+00 9.269559e+01 -7.011871e+00 -1.544567e+00 -4.758909e+00 -1.244869e+00 2.890460e+00 -1.973702e-01 -2.788543e+00 4.822928e+00 -2.702748e-01 -2.995563e-01 1.256104e+00 -3.065210e+00 -2.051159e+00 -1.940482e+00 -2.123154e+00 -1.891843e+00 -2.176542e+00 -1.359403e+00 -1.330248e+00 -1.459344e+00 8.837998e-02 6.389754e-02 -2.107214e-01 6.716963e-01 2.615828e-01 9.987929e-01
<VARIANCE> 39
 9.546192e+01 1.676349e+02 1.258883e+02 1.932519e+02 2.310230e+02 3.026580e+02 3.107284e+02 3.686230e+02 3.636386e+02 4.034196e+02 3.661342e+02 3.483665e+02 1.873467e+02 3.434438e+01 2.498062e+01 2.640438e+01 2.908393e+01 2.708425e+01 3.566999e+01 4.214203e+01 3.983193e+01 4.570173e+01 4.204709e+01 4.424771e+01 4.130672e+01 3.464783e+01 3.205121e+00 2.618087e+00 2.697846e+00 2.936030e+00 4.431346e+00 4.403631e+00 4.643887e+00 5.868335e+00 4.667294e+00 4.631408e+00 4.315011e+00 4.453698e+00 2.728176e+00
<GCONST> 2.069664e+02
<STATE> 4
<NUMMIXES> 4
<MIXTURE> 1 2.002437e-01
<MEAN> 39
 1.538002e+01 -2.036376e+01 2.649649e+01 -1.004209e+01 6.468093e+00 -8.394813e+00 -3.902512e+00 1.884922e+01 2.423482e+00 9.853264e+00 -5.724238e+00 9.192070e+00 1.326680e+02 -8.384607e-01 -6.131503e+00 -5.512701e+00 -6.945674e+00 2.672174e+00 -2.229132e-01 -4.398264e+00 6.508791e+00 2.187163e+00 -4.697872e-01 1.633456e+00 -1.250323e+00 5.654459e+00 3.200377e-01 9.361223e-01 -4.253833e-01 1.640201e+00 -5.645959e-01 1.644525e+00 1.241245e+00 -2.037270e+00 7.435486e-03 -2.498177e-01 1.943633e-01 -2.854534e-01 -1.332452e+00
<VARIANCE> 39
 7.955763e+01 2.249088e+02 2.298798e+02 3.247368e+02 2.791914e+02 3.589080e+02 7.359179e+02 4.155606e+02 3.252005e+02 4.240666e+02 3.312199e+02 3.422182e+02 2.406558e+02 5.156827e+00 1.843557e+01 1.725622e+01 3.208380e+01 3.027544e+01 3.380302e+01 4.605997e+01 4.343474e+01 4.617828e+01 2.765668e+01 3.056599e+01 2.663862e+01 1.474986e+01 7.260946e-01 2.231671e+00 2.729921e+00 4.795024e+00 3.639783e+00 5.660941e+00 7.986330e+00 6.699864e+00 4.873898e+00 3.826206e+00 3.827220e+00 3.394331e+00 1.711064e+00
<GCONST> 2.038277e+02
<MIXTURE> 2 3.851751e-01
<MEAN> 39
 -2.311333e+00 2.077628e+00 1.818674e+01 2.256781e+01 5.864582e+00 5.935409e+00 1.693904e+01 1.053151e+01 2.777328e+00 2.375653e+00 -8.699717e+00 3.734044e+00 7.936758e+01 -3.289649e+00 -8.895054e-01 -3.017106e+00 -1.575562e+00 -1.886757e-01 -5.064776e-01 -1.462755e+00 9.923241e-01 6.756250e-01 -4.597262e-01 7.635601e-01 -5.126073e-01 -2.466451e+00 1.697794e-01 -3.903783e-02 4.488505e-02 -6.379880e-01 -4.233416e-01 -4.888633e-01 -4.905491e-01 -6.669231e-01 -4.419308e-01 1.671735e-01 1.911658e-02 1.289641e-01 4.700170e-01
<VARIANCE> 39
 1.261890e+02 1.442432e+02 2.171545e+02 2.571785e+02 2.287176e+02 2.661939e+02 3.329003e+02 3.475399e+02 3.430907e+02 3.411431e+02 2.670701e+02 2.463422e+02 2.296516e+02 1.460760e+01 1.262821e+01 1.310018e+01 1.618244e+01 1.498656e+01 1.797678e+01 1.809732e+01 2.173875e+01 2.125651e+01 1.802808e+01 1.848204e+01 1.623550e+01 8.053305e+00 1.325656e+00 2.052287e+00 2.335730e+00 2.881573e+00 2.844171e+00 3.323465e+00 3.512979e+00 3.869232e+00 3.722821e+00 3.094902e+00 3.053727e+00 2.804223e+00 1.071141e+00
<GCONST> 1.916010e+02
<MIXTURE> 3 2.459913e-01
<MEAN> 39
 -9.031536e+00 3.680519e+00 1.587255e+01 1.780411e+01 6.145990e+00 9.696607e+00 1.530109e+01 8.370499e+00 -2.171036e-01 3.504032e+00 -5.422763e+00 2.921381e+00 8.118767e+01 -7.365725e+00 -3.520431e+00 -6.615549e+00 -4.516738e+00 -2.356719e+00 -3.401566e+00 -4.866249e+00 7.822734e-02 -1.079140e+00 -1.351674e+00 6.807415e-01 -1.495136e+00 -2.095268e+00 6.477072e-01 -1.053491e-01 1.727754e-01 -6.544115e-01 -1.172866e+00 -8.192743e-01 -6.611710e-01 -1.356126e+00 -3.173071e-01 -1.833275e-01 -1.846622e-01 6.777436e-01 1.095417e+00
<VARIANCE> 39
 1.107043e+02 1.644308e+02 1.620337e+02 1.962911e+02 2.060516e+02 2.218494e+02 2.765407e+02 3.138060e+02 2.577997e+02 2.970355e+02 2.151092e+02 1.931322e+02 3.006176e+02 3.016045e+01 1.555778e+01 1.777116e+01 1.711385e+01 1.917900e+01 2.121807e+01 2.456945e+01 2.895980e+01 2.755001e+01 2.358887e+01 2.812300e+01 2.366555e+01 1.835314e+01 2.094108e+00 3.388764e+00 2.800443e+00 3.470369e+00 4.284213e+00 4.189660e+00 4.595847e+00 4.786605e+00 4.624378e+00 4.568749e+00 4.503012e+00 4.258940e+00 3.841801e+00
<GCONST> 1.994359e+02
<MIXTURE> 4 1.685583e-01
<MEAN> 39
 8.451149e+00 -1.536210e+01 2.463800e+01 -4.999110e+00 1.730953e+00 -1.262680e+01 -2.043003e+00 1.631730e+01 3.725976e-02 4.168880e+00 -6.542981e+00 8.535638e+00 1.198435e+02 -2.071330e+00 -4.730567e+00 -5.227962e+00 -5.868584e+00 1.156714e+00 -2.656401e+00 -3.899685e+00 6.437378e+00 2.329494e+00 -1.159261e+00 8.616335e-01 -1.921597e+00 3.478815e+00 2.047428e-01 8.759046e-01 -6.519591e-01 1.523232e+00 -2.342389e-01 1.988545e+00 1.145890e+00 -1.644128e+00 2.116035e-01 -8.131810e-03 1.433609e-02 -5.126302e-01 -1.278798e+00
<VARIANCE> 39
 1.577753e+02 1.758645e+02 3.087253e+02 2.893901e+02 2.827189e+02 3.439217e+02 5.732000e+02 3.799493e+02 3.626719e+02 4.778112e+02 3.443478e+02 3.359720e+02 5.381098e+02 9.112469e+00 2.474778e+01 2.029049e+01 3.555918e+01 3.464439e+01 4.265095e+01 4.404535e+01 5.594286e+01 4.832090e+01 3.216340e+01 3.209746e+01 3.579184e+01 3.783917e+01 1.416265e+00 2.442801e+00 3.882670e+00 4.274273e+00 4.193397e+00 5.775664e+00 7.135660e+00 6.588045e+00 5.392903e+00 4.752170e+00 4.506368e+00 4.137349e+00 2.270287e+00
<GCONST> 2.103069e+02
<TRANSP> 5
 0.000000e+00 1.000000e+00 0.000000e+00 0.000000e+00 0.000000e+00
 0.000000e+00 6.342649e-01 3.657351e-01 0.000000e+00 0.000000e+00
 0.000000e+00 0.000000e+00 6.215062e-01 3.784938e-01 0.000000e+00
 0.000000e+00 0.000000e+00 0.000000e+00 6.705933e-01 3.294067e-01
 0.000000e+00 0.000000e+00 0.000000e+00 0.000000e+00 0.000000e+00
<ENDHMM>
~h "r"
<BEGINHMM>
<NUMSTATES> 5
<STATE> 2
<NUMMIXES> 4
<MIXTURE> 1 2.908106e-01
<MEAN> 39
 3.692474e+01 -1.911907e+01 -6.279181e+00 2.954382e+00 2.575322e+01 -3.100376e+01 -2.809551e+01 4.887849e+00 -5.856624e+00 7.973295e+00 1.592941e+00 9.096958e+00 1.279500e+02 8.932136e-01 -2.891582e-03 -2.965489e+00 -1.348413e+00 7.660078e-01 4.833709e-01 -3.676623e-01 1.276443e-01 9.036246e-01 1.067281e+00 7.633971e-01 4.469551e-01 -1.882017e-01 -6.879157e-01 -1.698540e-01 1.428392e+00 -1.945432e-01 -1.371359e+00 -2.067314e-02 1.229009e+00 3.830769e-01 -5.735526e-01 -1.194150e-01 2.562901e-01 2.191916e-02 2.915511e-01
<VARIANCE> 39
 5.898602e+01 1.669624e+02 4.315069e+02 2.598446e+02 3.752995e+02 7.729925e+02 1.091636e+03 3.859715e+02 3.236293e+02 3.313876e+02 2.375859e+02 1.796609e+02 1.609254e+02 3.028914e+00 4.352403e+00 1.363030e+01 9.315330e+00 1.373528e+01 1.403243e+01 1.393268e+01 1.407785e+01 1.316666e+01 1.026716e+01 1.073124e+01 1.011280e+01 2.821589e+00 2.659649e-01 5.924045e-01 8.088078e-01 1.055664e+00 1.247755e+00 2.335417e+00 1.717760e+00 2.080295e+00 1.728136e+00 1.622129e+00 1.624709e+00 1.479162e+00 3.098552e-01
<GCONST> 1.750213e+02
<MIXTURE> 2 2.017863e-01
<MEAN> 39
 3.902840e+01 -1.139624e+01 -1.309992e+01 -9.366858e-02 2.835739e+01 -1.065629e+01 -3.024474e+01 -4.204745e+00 -1.084785e+01 5.944598e+00 2.901112e+00 8.127005e+00 1.225873e+02 1.593643e-01 -1.401654e+00 -6.150684e-01 1.634664e+00 1.639769e+00 -2.886852e+00 -1.621044e+00 8.738520e-01 2.058390e+00 8.656657e-01 -3.109418e-01 -1.193585e-01 2.453855e-01 -1.649030e+00 -2.285882e-01 2.458068e+00 5.224520e-01 -2.305267e+00 -8.594335e-01 1.704681e+00 1.341234e+00 1.022585e-01 -5.301637e-01 -3.772788e-01 6.936564e-02 1.291792e-01
<VARIANCE> 39
 6.495914e+01 1.804072e+02 4.570586e+02 4.047375e+02 4.229410e+02 7.989339e+02 8.181116e+02 4.244813e+02 3.297928e+02 4.147803e+02 2.815611e+02 2.508172e+02 1.526249e+02 7.232985e+00 1.269546e+01 2.683331e+01 2.405507e+01 2.156278e+01 4.619609e+01 2.819828e+01 3.252478e+01 2.531780e+01 2.236582e+01 1.883836e+01 1.840015e+01 1.094816e+01 1.809713e+00 2.061238e+00 2.845182e+00 3.112084e+00 4.199219e+00 6.295154e+00 6.042230e+00 4.384662e+00 4.663571e+00 4.066103e+00 3.692068e+00 3.480304e+00 1.397725e+00
<GCONST> 2.018569e+02
<MIXTURE> 3 3.124169e-01
<MEAN> 39
 3.459482e+01 -2.166110e+01 1.354075e+00 4.402186e+00 2.254774e+01 -2.789775e+01 -3.223778e+01 6.388588e+00 -8.066069e+00 3.804636e+00 2.401092e+00 6.539042e+00 1.297603e+02 1.317217e+00 9.943110e-02 -3.784125e+00 -1.632805e+00 1.561460e+00 6.908864e-01 -1.199275e+00 -4.817739e-01 9.655718e-01 1.407003e+00 6.469942e-01 2.287005e-01 -2.661697e-01 -6.476166e-01 -7.260242e-02 1.291421e+00 -3.172578e-01 -1.335273e+00 1.481748e-01 1.058991e+00 2.179167e-01 -5.277973e-01 8.722955e-02 1.368594e-01 2.453250e-02 2.873318e-01
<VARIANCE> 39
 6.559606e+01 1.770027e+02 4.820949e+02 3.067768e+02 3.791762e+02 8.258723e+02 1.135892e+03 3.929641e+02 3.126398e+02 4.130674e+02 2.552505e+02 1.856666e+02 1.677167e+02 3.382663e+00 4.192165e+00 1.497880e+01 8.943593e+00 1.457831e+01 1.342820e+01 1.430406e+01 1.520462e+01 1.270324e+01 1.087684e+01 1.037414e+01 1.001988e+01 2.678263e+00 2.803575e-01 6.133325e-01 7.988154e-01 1.193853e+00 1.222680e+00 2.440474e+00 1.827574e+00 2.247420e+00 1.791045e+00 1.772430e+00 1.660075e+00 1.464872e+00 3.170898e-01
<GCONST> 1.766209e+02
<MIXTURE> 4 1.949431e-01
<MEAN> 39
 3.732886e+01 -1.647032e+01 -6.101025e+00 8.820885e-01 2.729896e+01 -8.151500e+00 -3.507905e+01 -4.122714e+00 -1.040536e+01 5.485057e+00 2.305516e+00 4.445342e+00 1.253678e+02 -2.360463e-01 -2.710275e+00 1.471653e+00 2.497381e+00 7.723767e-01 -4.683503e+00 -3.030076e+00 2.792400e+00 2.127949e+00 6.206128e-02 -8.508324e-01 -9.478174e-01 1.329883e+00 -1.794343e+00 8.519743e-02 2.352119e+00 4.694709e-01 -2.508151e+00 -9.359149e-01 2.124634e+00 1.555371e+00 -1.491407e-01 -7.622007e-01 -4.061083e-01 2.721244e-01 -8.615833e-02
<VARIANCE> 39
 6.629221e+01 1.826389e+02 4.518973e+02 4.401554e+02 4.218922e+02 7.249032e+02 9.273901e+02 4.340886e+02 3.415644e+02 5.048098e+02 2.879645e+02 2.627535e+02 1.575822e+02 7.965304e+00 1.102471e+01 2.601881e+01 2.505920e+01 2.023734e+01 3.780224e+01 2.663133e+01 3.342751e+01 2.849393e+01 2.460483e+01 1.907898e+01 1.932872e+01 1.043949e+01 2.654853e+00 2.123543e+00 2.729647e+00 3.177139e+00 4.004545e+00 5.609380e+00 6.761133e+00 4.253507e+00 4.651543e+00 4.792470e+00 3.882548e+00 3.875672e+00 1.279315e+00
<GCONST> 2.027848e+02
<STATE> 3
<NUMMIXES> 4
<MIXTURE> 1 3.264767e-01
<MEAN> 39
 3.505293e+01 -2.424957e+01 -1.749942e+00 2.110476e+00 1.778391e+01 -3.372788e+01 -2.598755e+01 1.331448e+01 -6.686228e+00 6.918254e+00 3.835155e+00 1.225051e+01 1.308872e+02 -1.803727e+00 -1.346765e+00 3.224392e+00 -8.945228e-01 -4.689789e+00 -1.761291e+00 4.708769e+00 3.004467e+00 -1.781496e+00 -2.811962e-01 1.952384e+00 5.912659e-01 1.245310e+00 -5.917934e-01 6.263720e-01 1.075872e+00 -5.360480e-01 -8.612972e-01 1.390232e+00 1.484825e+00 -1.144109e+00 -9.004679e-01 4.604465e-01 2.650346e-01 -7.111169e-01 -2.535918e-01
<VARIANCE> 39
 5.542678e+01 1.522527e+02 4.111529e+02 3.059874e+02 3.996065e+02 7.388555e+02 1.062297e+03 3.472398e+02 3.395315e+02 3.724614e+02 2.986648e+02 2.405616e+02 1.508821e+02 2.635551e+00 5.287670e+00 1.530626e+01 1.301854e+01 1.266547e+01 2.145649e+01 1.887272e+01 1.697626e+01 1.808312e+01 1.887393e+01 1.869300e+01 1.337319e+01 3.781369e+00 4.674424e-01 5.887179e-01 1.283301e+00 1.140466e+00 2.303649e+00 2.455868e+00 2.670369e+00 2.317623e+00 2.049181e+00 1.913427e+00 2.182541e+00 2.267970e+00 2.129264e-01
<GCONST> 1.818736e+02
<MIXTURE> 2 1.985407e-01
<MEAN> 39
 3.263903e+01 -2.107709e+01 1.162170e+00 9.972961e+00 2.111118e+01 -3.185064e+01 -2.388630e+01 1.270109e+01 -3.462561e+00 5.213572e+00 -3.324805e+00 5.397399e+00 1.274998e+02 -4.205504e+00 -2.764950e-02 8.487870e+00 4.536853e+00 -5.065344e+00 -2.781029e+00 4.305197e+00 4.074935e+00 -2.357496e-01 -3.533569e+00 -7.639902e-01 4.681867e-01 -7.417603e-01 -1.977357e+00 1.655316e+00 1.476970e+00 -1.119349e+00 -1.723005e+00 3.147781e+00 2.703801e+00 -1.448409e+00 -1.388066e+00 2.046306e-01 5.703166e-01 3.654016e-01 -9.600329e-01
<VARIANCE> 39
 7.133232e+01 2.096065e+02 5.220693e+02 4.229693e+02 4.563434e+02 7.808362e+02 9.883283e+02 4.427481e+02 3.935819e+02 5.681566e+02 2.577809e+02 2.582369e+02 1.691836e+02 7.741046e+00 1.719450e+01 2.731563e+01 2.391238e+01 3.746925e+01 5.747258e+01 4.718166e+01 4.498423e+01 5.025435e+01 3.744140e+01 2.572998e+01 2.370294e+01 1.781464e+01 2.895939e+00 3.170286e+00 4.195413e+00 3.754200e+00 6.209495e+00 7.894190e+00 6.731294e+00 7.402651e+00 5.849795e+00 6.762039e+00 3.899599e+00 4.542015e+00 1.122239e+00
<GCONST> 2.109055e+02
<MIXTURE> 3 3.127542e-01
<MEAN> 39
 3.138879e+01 -3.018872e+01 1.274454e+01 9.783112e+00 1.647410e+01 -3.639043e+01 -3.091375e+01 1.596760e+01 -7.171932e+00 5.861921e-01 -3.762314e-02 6.727372e+00 1.329748e+02 -3.066602e+00 -1.751724e+00 6.381962e+00 -3.879311e-02 -6.060830e+00 -3.441303e+00 5.455239e+00 4.107112e+00 -3.030699e+00 -1.157771e+00 1.071395e+00 2.090390e-01 1.893032e+00 -6.419276e-01 1.065784e+00 9.049796e-01 -9.184946e-01 -8.906226e-01 2.070952e+00 1.748073e+00 -1.691890e+00 -1.100485e+00 7.393449e-01 2.673487e-01 -4.116416e-01 -4.309132e-01
<VARIANCE> 39
 5.745355e+01 1.178048e+02 4.511036e+02 3.092737e+02 3.417588e+02 6.963773e+02 1.127512e+03 3.610755e+02 3.233373e+02 4.808039e+02 2.656075e+02 2.005576e+02 1.173506e+02 3.761717e+00 4.509920e+00 2.447573e+01 1.218038e+01 1.591699e+01 2.114329e+01 2.157800e+01 1.976570e+01 2.078518e+01 1.664008e+01 1.424337e+01 1.119747e+01 2.711415e+00 5.187438e-01 6.686240e-01 1.325664e+00 1.353568e+00 2.203284e+00 3.318786e+00 2.845833e+00 2.955775e+00 2.186069e+00 2.193771e+00 1.912143e+00 1.834681e+00 2.428863e-01
<GCONST> 1.826135e+02
<MIXTURE> 4 1.622119e-01
<MEAN> 39
 3.023816e+01 -2.064660e+01 1.930147e+00 7.632647e+00 2.004120e+01 -2.437233e+01 -3.115693e+01 8.875287e+00 -7.939026e+00 4.797541e+00 -2.993143e+00 6.816389e+00 1.279255e+02 -5.946845e+00 2.389173e-01 7.840903e+00 4.764954e+00 -4.577251e+00 -2.566452e+00 5.402637e+00 1.980133e+00 1.198554e+00 -8.303391e-01 -1.087455e+00 -1.816302e+00 -2.169018e+00 -2.270650e+00 1.836138e+00 9.731005e-01 -1.193469e+00 -1.934800e+00 2.478702e+00 2.717446e+00 -7.080811e-01 -8.994649e-01 -1.737809e-01 3.037088e-01 -4.231041e-02 -1.514653e+00
<VARIANCE> 39
 8.190225e+01 2.262498e+02 5.935126e+02 4.740422e+02 4.776709e+02 9.076541e+02 1.008574e+03 4.833756e+02 4.771176e+02 5.319069e+02 2.991277e+02 2.917950e+02 2.029343e+02 1.684488e+01 2.094341e+01 3.428257e+01 3.449316e+01 4.710370e+01 5.187437e+01 5.674625e+01 5.561300e+01 6.445164e+01 3.920353e+01 3.386477e+01 3.040899e+01 3.250129e+01 3.550280e+00 3.887872e+00 4.384844e+00 4.681209e+00 6.178841e+00 9.222840e+00 8.324677e+00 8.736997e+00 7.626031e+00 7.661932e+00 5.180524e+00 4.965163e+00 3.149570e+00
<GCONST> 2.187538e+02
<STATE> 4
<NUMMIXES> 4
<MIXTURE> 1 2.527198e-01
<MEAN> 39
 2.490808e+01 -2.630868e+01 2.233155e+01 1.653481e+00 4.598278e-02 -3.674399e+01 -5.765579e+00 1.346749e+01 -2.060147e+01 9.638585e+00 7.203395e+00 8.082472e+00 1.349978e+02 -3.148343e+00 1.479636e+00 5.335166e+00 -3.900186e+00 -4.886384e+00 3.951131e+00 5.967866e+00 -3.438026e+00 -2.187788e+00 2.996276e+00 2.028769e-01 -1.609035e+00 6.240917e-01 1.617379e-02 1.083336e+00 -4.734271e-01 -5.965714e-01 1.147368e+00 1.780224e+00 -1.159243e+00 -1.549670e+00 1.227952e+00 2.449612e-01 -1.033161e+00 -1.173568e-01 -5.735409e-01
<VARIANCE> 39
 1.113303e+02 1.628915e+02 7.914818e+02 3.738349e+02 3.300549e+02 6.316083e+02 1.006294e+03 4.154344e+02 4.717188e+02 5.337701e+02 3.024892e+02 2.492543e+02 1.354200e+02 5.057789e+00 6.096810e+00 2.433112e+01 9.816109e+00 1.669368e+01 1.773459e+01 2.190809e+01 2.598377e+01 2.157422e+01 1.611001e+01 1.798997e+01 1.306307e+01 2.305121e+00 3.859814e-01 8.072782e-01 1.562359e+00 1.678669e+00 2.107925e+00 3.548689e+00 3.465751e+00 3.032472e+00 2.967167e+00 2.715950e+00 1.972519e+00 2.246525e+00 2.400714e-01
<GCONST> 1.872431e+02
<MIXTURE> 2 2.558478e-01
<MEAN> 39
 1.781194e+01 -1.086992e+01 -7.420977e+00 1.268138e+01 1.718115e+01 -1.054187e+01 -2.636052e+00 1.634131e+01 7.019658e+00 5.366528e+00 -1.797324e+00 5.285699e+00 9.924930e+01 -5.352051e+00 1.280498e+00 3.493157e+00 3.315706e+00 -8.572829e-01 3.680356e+00 3.406866e+00 7.682430e-01 9.677987e-01 -1.229093e+00 -3.832945e-01 -2.304205e-01 -4.280098e+00 -7.279311e-01 -1.847350e-01 -4.337008e-01 -9.984020e-01 -7.256015e-02 3.278422e-01 -8.952585e-02 -3.668561e-01 -7.056170e-01 3.400843e-01 2.884223e-01 3.354956e-02 4.340492e-02
<VARIANCE> 39
 2.210552e+02 1.838050e+02 4.241181e+02 2.955965e+02 4.019630e+02 4.720864e+02 4.926522e+02 4.171725e+02 3.362988e+02 2.773632e+02 2.521682e+02 2.739333e+02 3.415409e+02 2.250609e+01 2.358576e+01 1.791992e+01 2.336665e+01 2.612740e+01 3.452050e+01 3.100221e+01 2.917733e+01 2.691543e+01 2.422056e+01 2.115134e+01 2.072036e+01 9.193313e+00 2.773285e+00 3.130589e+00 3.613271e+00 3.811204e+00 3.779869e+00 4.434564e+00 3.954064e+00 4.171661e+00 4.258632e+00 4.053566e+00 3.592775e+00 3.402643e+00 1.459089e+00
<GCONST> 2.036757e+02
<MIXTURE> 3 2.732562e-01
<MEAN> 39
 2.084733e+01 -2.785752e+01 3.274059e+01 6.503366e+00 -3.353196e+00 -3.916339e+01 -5.125650e+00 1.475923e+01 -2.447485e+01 4.331080e+00 6.868081e+00 5.043633e+00 1.364227e+02 -3.845723e+00 1.860728e+00 7.018841e+00 -4.012748e+00 -5.745915e+00 4.453330e+00 6.545225e+00 -4.170295e+00 -3.073917e+00 3.366485e+00 -5.548728e-02 -2.006022e+00 6.545315e-01 1.404150e-01 1.191866e+00 -8.212342e-01 -7.794562e-01 1.516301e+00 2.100843e+00 -1.555224e+00 -1.709792e+00 1.589449e+00 4.420210e-01 -1.222270e+00 -6.700733e-02 -6.796546e-01
<VARIANCE> 39
 1.087818e+02 1.389066e+02 7.256619e+02 3.650863e+02 2.942767e+02 6.142358e+02 9.863448e+02 4.120601e+02 4.611270e+02 5.535827e+02 2.667120e+02 2.357429e+02 1.417517e+02 4.460362e+00 5.295518e+00 2.179996e+01 9.333869e+00 1.698373e+01 1.783462e+01 2.013343e+01 2.740307e+01 2.183257e+01 1.456710e+01 1.575899e+01 1.150253e+01 2.281125e+00 4.127842e-01 7.431382e-01 1.449561e+00 1.665356e+00 2.076537e+00 3.654839e+00 3.409279e+00 3.031117e+00 2.917204e+00 2.732052e+00 1.893290e+00 1.883930e+00 2.531554e-01
<GCONST> 1.855870e+02
<MIXTURE> 4 2.181556e-01
<MEAN> 39
 1.129478e+00 -1.459245e+01 -4.098550e+00 1.788446e+01 1.803919e+01 -7.159221e-01 4.462911e+00 1.903063e+01 6.142101e+00 4.101894e+00 -2.555928e+00 2.767742e+00 8.819369e+01 -6.853005e+00 -8.654851e-01 9.378867e-01 -1.102900e+00 -3.697135e+00 5.798856e-01 4.139981e-01 -1.712290e+00 -9.093535e-01 -1.007994e+00 -1.017248e+00 -1.547379e+00 -4.198286e+00 6.791471e-01 2.997734e-01 -8.145530e-01 -1.370350e+00 -5.663873e-01 -8.404956e-01 -1.079619e+00 -7.375506e-01 -6.516093e-01 3.958464e-02 8.673620e-02 6.178951e-02 3.692529e-01
<VARIANCE> 39
 1.757409e+02 2.098299e+02 3.123716e+02 2.494910e+02 3.208905e+02 3.717508e+02 4.450239e+02 4.280180e+02 3.118213e+02 2.699666e+02 2.281882e+02 2.429138e+02 2.744179e+02 3.157578e+01 2.222948e+01 2.261467e+01 2.534446e+01 2.478920e+01 3.139024e+01 3.497041e+01 2.683715e+01 2.683181e+01 2.119775e+01 2.060272e+01 1.869072e+01 1.746989e+01 2.326164e+00 3.413772e+00 3.715132e+00 4.895480e+00 4.242327e+00 5.624490e+00 4.737174e+00 4.732373e+00 4.634106e+00 4.071795e+00 3.680451e+00 3.732052e+00 1.574829e+00
<GCONST> 2.040111e+02
<TRANSP> 5
 0.000000e+00 1.000000e+00 0.000000e+00 0.000000e+00 0.000000e+00
 0.000000e+00 7.378395e-01 2.621605e-01 0.000000e+00 0.000000e+00
 0.000000e+00 0.000000e+00 5.397776e-01 4.602224e-01 0.000000e+00
 0.000000e+00 0.000000e+00 0.000000e+00 6.464887e-01 3.535112e-01
 0.000000e+00 0.000000e+00 0.000000e+00 0.000000e+00 0.000000e+00
<ENDHMM>
~h "s"
<BEGINHMM>
<NUMSTATES> 5
<STATE> 2
<NUMMIXES> 4
<MIXTURE> 1 1.471608e-01
<MEAN> 39
 2.512393e+00 4.439028e+00 2.856748e+01 8.212048e+00 1.081114e+01 -1.254729e+01 -5.782732e+00 -4.911636e+00 -1.631899e+00 2.868661e+00 -1.004402e+01 8.950445e+00 1.178470e+02 -1.148733e+01 5.984415e+00 -3.214935e+00 4.488785e+00 5.446849e-01 1.147979e+00 3.624560e+00 3.322674e+00 1.959724e+00 -2.738321e+00 1.164168e+00 8.857720e-01 -2.198092e+00 -3.051603e+00 -4.829530e-01 -2.842178e+00 -1.337436e+00 -1.020518e+00 2.402954e-01 3.415094e-01 9.846315e-01 -8.187284e-01 5.062329e-01 1.091967e+00 -3.415786e-01 1.252814e-01
<VARIANCE> 39
 2.820911e+02 1.977473e+02 3.867398e+02 3.657059e+02 2.932083e+02 3.724271e+02 4.254502e+02 3.697867e+02 4.976540e+02 3.438350e+02 2.561132e+02 4.334731e+02 3.130235e+02 4.224548e+01 2.516959e+01 4.292510e+01 5.439721e+01 3.560278e+01 6.559265e+01 3.628128e+01 3.821041e+01 5.066064e+01 3.784153e+01 3.771579e+01 3.213831e+01 1.608208e+01 3.797103e+00 4.145716e+00 4.630033e+00 5.857467e+00 4.569773e+00 5.512932e+00 5.661067e+00 5.055543e+00 5.217359e+00 5.930559e+00 4.522798e+00 5.567134e+00 1.461004e+00
<GCONST> 2.142729e+02
<MIXTURE> 2 3.930271e-01
<MEAN> 39
 -4.395927e+01 1.456160e+00 -2.205407e+00 4.101639e+00 -4.166738e+00 -1.363422e+01 -2.372014e+00 7.213822e+00 -3.431556e+00 5.835121e-01 -4.392837e+00 6.571618e+00 1.009526e+02 -7.345853e+00 2.867956e+00 -2.133005e+00 -1.614388e+00 -7.734942e-01 3.217082e-01 1.501757e+00 1.161249e+00 -2.680244e-01 -1.433125e-01 5.365409e-01 1.096256e+00 2.483168e+00 1.552637e+00 1.073403e-01 -2.921997e-01 -3.069496e-02 4.098172e-01 9.359746e-01 -2.754840e-01 -6.791097e-01 -2.808979e-01 3.050654e-01 3.051104e-02 -3.145460e-01 -1.290650e+00
<VARIANCE> 39
 2.405527e+02 1.907071e+02 2.035080e+02 2.595641e+02 4.010202e+02 3.233474e+02 2.417597e+02 2.058706e+02 1.946525e+02 1.743015e+02 1.799748e+02 1.411915e+02 3.834479e+02 3.056688e+01 1.535821e+01 2.641726e+01 1.872131e+01 1.916753e+01 1.996676e+01 1.979781e+01 1.779479e+01 1.767813e+01 1.609883e+01 1.504997e+01 1.357139e+01 2.805043e+01 5.042262e+00 3.305977e+00 2.880396e+00 3.393451e+00 4.194197e+00 4.516376e+00 3.826614e+00 3.875067e+00 3.804399e+00 3.331760e+00 3.228091e+00 2.724613e+00 3.767421e+00
<GCONST> 1.976407e+02
<MIXTURE> 3 2.994086e-01
<MEAN> 39
 -4.257396e+01 6.137927e+00 1.041388e+00 7.784407e+00 -4.680911e-01 -7.413074e+00 1.077615e+00 7.439445e+00 -3.034363e+00 2.310033e+00 -2.424364e+00 5.890290e+00 1.055545e+02 -9.502079e+00 6.165545e-01 -5.834797e+00 -3.193438e+00 -2.720754e+00 -1.106283e+00 -7.408174e-01 2.132173e-01 -1.572271e+00 -7.192252e-01 1.945965e-01 -1.378891e-01 1.510914e+00 2.213638e+00 -4.295799e-01 -7.189506e-02 -5.180788e-01 -2.386130e-01 1.930769e-01 -6.441311e-01 -1.089312e+00 -3.673006e-01 1.549461e-01 -3.688004e-01 6.771587e-03 -7.816921e-01
<VARIANCE> 39
 2.073302e+02 2.604850e+02 2.357055e+02 3.086274e+02 3.806772e+02 3.959983e+02 3.096107e+02 2.161213e+02 1.974228e+02 1.712255e+02 1.891374e+02 1.467160e+02 2.860837e+02 3.125088e+01 2.012426e+01 4.600375e+01 2.182098e+01 2.207417e+01 2.289012e+01 2.509455e+01 2.185596e+01 2.029259e+01 1.872351e+01 1.743636e+01 1.894287e+01 2.386165e+01 4.909476e+00 4.557306e+00 3.917239e+00 4.966773e+00 5.009686e+00 6.237373e+00 5.177462e+00 4.489273e+00 4.508237e+00 3.819610e+00 4.083596e+00 3.506465e+00 2.992561e+00
<GCONST> 2.031868e+02
<MIXTURE> 4 1.603905e-01
<MEAN> 39
 -2.141399e+01 8.478664e+00 2.180938e+01 1.229650e+01 1.067851e+01 -6.779953e+00 -2.893179e+00 4.218905e+00 -3.368895e+00 1.732473e+00 -7.214191e+00 2.360785e+00 1.075161e+02 -1.290748e+01 2.565810e+00 -5.115775e+00 -1.389504e+00 -4.167431e-01 -3.392559e-01 1.772225e+00 2.030094e+00 1.421531e+00 -7.003312e-01 7.795415e-01 4.093315e-01 -4.008731e-01 -2.988940e-01 -1.019387e+00 -2.191057e+00 -1.981874e+00 -1.032499e+00 -3.660672e-01 -7.407032e-01 -2.158503e-01 -8.694329e-01 3.442388e-01 4.054852e-01 1.971221e-01 3.104255e-01
<VARIANCE> 39
 3.510076e+02 2.755559e+02 3.648641e+02 3.725852e+02 3.465772e+02 3.022336e+02 4.119274e+02 3.528124e+02 3.205273e+02 2.959499e+02 2.483356e+02 2.978229e+02 4.633954e+02 7.593182e+01 2.416892e+01 5.607600e+01 5.025274e+01 3.937945e+01 5.738931e+01 3.777303e+01 4.066904e+01 4.671711e+01 3.235295e+01 3.119227e+01 3.337301e+01 3.060853e+01 7.864967e+00 6.065639e+00 6.212633e+00 7.009377e+00 6.760519e+00 6.920011e+00 7.122265e+00 7.073223e+00 6.460831e+00 6.471819e+00 5.257503e+00 5.167901e+00 2.307117e+00
<GCONST> 2.187171e+02
<STATE> 3
<NUMMIXES> 4
<MIXTURE> 1 2.567728e-01
<MEAN> 39
 -5.721990e+01 6.663567e+00 -6.735208e+00 -4.037359e+00 9.786367e-03 -1.764633e+01 -3.820519e+00 7.013865e+00 -5.273281e+00 -6.305264e-01 -7.281113e+00 7.705902e+00 1.106023e+02 -1.669365e+00 2.499087e+00 -1.634714e+00 -4.004297e-01 8.753016e-01 2.467818e+00 1.481963e+00 5.541460e-02 8.819464e-02 1.084150e+00 7.365794e-01 2.354639e-01 -2.207892e-01 2.210738e+00 -7.708625e-01 3.975018e-01 7.553840e-01 5.002934e-01 6.561960e-01 -1.932585e-01 -3.371334e-01 2.844439e-01 5.667182e-01 1.923137e-01 -3.865041e-01 -7.790334e-01
<VARIANCE> 39
 1.222485e+02 1.325675e+02 1.716286e+02 2.911786e+02 3.885874e+02 2.676074e+02 2.083214e+02 2.053259e+02 1.648508e+02 1.586487e+02 1.669608e+02 1.408422e+02 1.852925e+02 1.240616e+01 9.302902e+00 9.900541e+00 1.252731e+01 1.224772e+01 1.615503e+01 1.483410e+01 1.529914e+01 1.393040e+01 1.340252e+01 1.281194e+01 1.151099e+01 1.011737e+01 2.370931e+00 1.781155e+00 2.161539e+00 2.514580e+00 3.111757e+00 2.874259e+00 3.174121e+00 3.422253e+00 2.792143e+00 2.846995e+00 2.516126e+00 2.416245e+00 1.656950e+00
<GCONST> 1.847759e+02
<MIXTURE> 2 1.988462e-01
<MEAN> 39
 -5.335510e+01 1.175830e+01 -1.422362e+01 3.988390e+00 -6.497861e+00 -6.316831e+00 5.639225e-01 2.069640e+00 -6.352571e+00 2.765098e+00 4.351616e-03 5.098417e+00 1.081568e+02 -3.366506e+00 -7.087789e-01 -5.216373e+00 -1.052028e+00 -2.376277e+00 -4.225492e-01 -2.045271e+00 -4.968553e-01 -4.845860e-01 1.412440e-01 -7.445848e-02 3.271604e-01 -3.186105e-01 3.023464e+00 -2.631854e-01 2.410893e+00 8.337421e-01 7.432951e-01 4.650862e-01 1.732467e-01 -2.360637e-02 1.530217e-01 -2.187293e-02 -6.333846e-01 1.650165e-01 -6.698191e-02
<VARIANCE> 39
 1.215709e+02 1.443988e+02 1.706514e+02 2.504229e+02 3.029337e+02 2.510812e+02 1.777183e+02 1.618639e+02 1.589162e+02 1.525823e+02 1.558893e+02 1.252614e+02 1.527232e+02 1.527794e+01 1.440559e+01 1.582006e+01 1.854629e+01 1.573702e+01 1.987079e+01 1.703606e+01 1.588404e+01 1.510630e+01 1.399083e+01 1.327830e+01 1.285485e+01 8.510764e+00 2.378460e+00 2.595006e+00 3.018821e+00 3.398096e+00 3.165323e+00 3.140172e+00 3.673444e+00 3.656915e+00 3.406219e+00 3.180614e+00 2.939859e+00 3.046222e+00 1.403116e+00
<GCONST> 1.876358e+02
<MIXTURE> 3 3.809530e-01
<MEAN> 39
 -5.678685e+01 5.834797e+00 -6.059803e+00 -5.170802e+00 4.149833e-01 -1.724342e+01 -4.235450e+00 5.341156e+00 -4.484927e+00 -7.473177e-02 -7.623783e+00 7.448740e+00 1.080073e+02 -2.435941e+00 2.378057e+00 -2.196052e+00 -1.130409e+00 5.893022e-02 1.518092e+00 4.538119e-01 -8.317849e-01 -9.264208e-01 -1.996258e-01 -2.350200e-01 -2.670040e-01 6.783096e-01 2.120663e+00 -7.639350e-01 6.867218e-02 6.023909e-01 3.141659e-01 4.708334e-01 -3.425452e-01 -3.401110e-01 1.135004e-01 4.130124e-01 1.624105e-01 -4.144054e-01 -8.635761e-01
<VARIANCE> 39
 1.134011e+02 1.251889e+02 1.673390e+02 2.890092e+02 3.875908e+02 2.511116e+02 2.119435e+02 2.073142e+02 1.770914e+02 1.583121e+02 1.672481e+02 1.402345e+02 1.854100e+02 1.014175e+01 8.042729e+00 7.962110e+00 1.053288e+01 1.089066e+01 1.454006e+01 1.406223e+01 1.387836e+01 1.296226e+01 1.288249e+01 1.243943e+01 1.137207e+01 1.068576e+01 1.935014e+00 1.441054e+00 1.763381e+00 2.185149e+00 2.916933e+00 2.730025e+00 2.916991e+00 3.157308e+00 2.709546e+00 2.670693e+00 2.468919e+00 2.363942e+00 1.456590e+00
<GCONST> 1.821244e+02
<MIXTURE> 4 1.634181e-01
<MEAN> 39
 -5.235561e+01 1.210671e+01 -1.158777e+01 5.135387e+00 -3.690973e+00 -4.108073e+00 2.647830e+00 3.381732e+00 -5.285281e+00 2.883168e+00 -2.091956e-01 5.602770e+00 1.088231e+02 -5.246261e+00 -2.511623e+00 -7.253468e+00 -3.396431e+00 -3.986098e+00 -1.956511e+00 -3.690094e+00 -1.791248e+00 -1.821357e+00 -6.986467e-01 -7.579807e-01 -5.976291e-01 -4.629275e-01 3.445888e+00 -4.175820e-01 2.305125e+00 4.496835e-01 2.484875e-01 -1.217596e-01 -3.223348e-01 -5.789180e-01 -9.276405e-03 -8.146330e-02 -7.667783e-01 1.874274e-01 1.658767e-02
<VARIANCE> 39
 1.091258e+02 1.381004e+02 1.681599e+02 2.461711e+02 3.094783e+02 2.667558e+02 1.941642e+02 1.680914e+02 1.690610e+02 1.462648e+02 1.551549e+02 1.287353e+02 1.414510e+02 1.464826e+01 1.531859e+01 1.929204e+01 1.535189e+01 1.513905e+01 1.898782e+01 1.753780e+01 1.619964e+01 1.446911e+01 1.546724e+01 1.381293e+01 1.424092e+01 9.012638e+00 2.546512e+00 2.443281e+00 3.178861e+00 3.416469e+00 3.181973e+00 3.639727e+00 3.760995e+00 3.625176e+00 3.864111e+00 3.270298e+00 3.216801e+00 3.486947e+00 1.239344e+00
<GCONST> 1.883625e+02
<STATE> 4
<NUMMIXES> 4
<MIXTURE> 1 1.705772e-01
<MEAN> 39
 -5.084610e+01 4.541415e+00 -1.719610e+01 4.249038e+00 -1.207833e+01 -3.588245e+00 -3.903912e+00 2.905806e+00 -7.640875e+00 2.119023e+00 -2.077568e+00 6.573842e+00 1.071250e+02 2.520552e+00 1.668006e-01 2.210895e+00 2.097649e-01 3.447986e-01 4.059304e-01 9.995137e-01 5.088571e-01 8.449067e-01 5.320526e-01 2.845764e-01 6.011639e-01 4.606545e-01 2.709537e+00 1.425398e-01 2.305378e+00 6.613680e-01 5.188829e-01 -5.021592e-01 -1.879695e-02 -1.879611e-01 3.793223e-01 4.186185e-02 -2.424250e-01 2.568609e-01 4.565979e-01
<VARIANCE> 39
 1.091420e+02 1.284261e+02 1.228443e+02 1.863689e+02 2.449002e+02 2.614782e+02 1.430079e+02 1.351487e+02 1.376226e+02 1.315681e+02 1.399999e+02 1.212304e+02 1.463473e+02 1.276858e+01 8.985839e+00 1.089335e+01 1.021867e+01 1.232807e+01 1.286225e+01 1.260462e+01 1.278880e+01 1.241944e+01 1.277773e+01 1.246989e+01 1.136310e+01 6.976884e+00 3.050090e+00 1.878935e+00 2.602804e+00 1.972676e+00 2.325426e+00 3.113017e+00 3.010160e+00 2.685099e+00 2.591434e+00 2.854064e+00 2.443513e+00 2.626785e+00 1.634148e+00
<GCONST> 1.800990e+02
<MIXTURE> 2 3.614613e-01
<MEAN> 39
 -5.447974e+01 7.465021e+00 -1.601783e+01 3.091057e+00 -6.445291e+00 -6.042834e+00 -4.318148e+00 3.241997e+00 -6.647809e+00 2.446475e+00 -4.067181e+00 5.954037e+00 1.069896e+02 1.416556e-01 4.595359e-02 6.445049e-02 1.099011e-01 2.158657e-01 5.519981e-01 3.249721e-01 2.397655e-01 3.490242e-01 4.047796e-01 2.259052e-01 1.931175e-01 3.730822e-01 5.525498e-01 -7.594333e-02 5.848597e-01 2.967295e-02 6.816214e-02 -8.933260e-02 1.660692e-01 9.050292e-02 1.638429e-01 2.073159e-02 6.786960e-02 7.356275e-02 8.772046e-02
<VARIANCE> 39
 1.108236e+02 1.239696e+02 1.378509e+02 2.458205e+02 2.854521e+02 2.683865e+02 1.424478e+02 1.276129e+02 1.324399e+02 1.155375e+02 1.271721e+02 1.091486e+02 1.689320e+02 1.873258e+00 3.497057e+00 4.127675e+00 5.526573e+00 6.504775e+00 8.070748e+00 8.680422e+00 9.303770e+00 9.278327e+00 9.554873e+00 9.002061e+00 8.747555e+00 2.139299e+00 6.645179e-01 8.365687e-01 9.716113e-01 1.160286e+00 1.385939e+00 1.693070e+00 1.878554e+00 1.957929e+00 1.938447e+00 1.962765e+00 1.905068e+00 1.802721e+00 3.959902e-01
<GCONST> 1.632962e+02
<MIXTURE> 3 2.504041e-01
<MEAN> 39
 -5.364146e+01 6.371459e+00 -1.495801e+01 3.083513e+00 -6.109879e+00 -4.948845e+00 -4.810730e+00 3.253649e+00 -6.111721e+00 3.164794e+00 -3.768507e+00 5.768161e+00 1.046363e+02 -1.280138e-01 -3.610379e-01 -4.216065e-01 -5.735320e-01 -3.833674e-01 -1.421729e-01 -6.798968e-01 -7.419808e-01 -5.978888e-01 -3.607647e-01 -4.843090e-01 -3.593912e-01 1.599231e-01 3.491352e-01 -2.417497e-01 2.821555e-01 -1.489297e-01 -1.924851e-01 -3.465777e-01 -5.188258e-02 -2.837785e-02 -7.920004e-04 -1.283586e-01 -3.201887e-02 3.573352e-02 5.038553e-02
<VARIANCE> 39
 1.085801e+02 1.275177e+02 1.457921e+02 2.500678e+02 2.908753e+02 2.705873e+02 1.495841e+02 1.325561e+02 1.413988e+02 1.211106e+02 1.331272e+02 1.137510e+02 1.636002e+02 1.896912e+00 3.648933e+00 4.234696e+00 5.757682e+00 6.844168e+00 8.357550e+00 9.169061e+00 9.823533e+00 9.702561e+00 9.679386e+00 9.499959e+00 9.189773e+00 2.091662e+00 4.924739e-01 7.640519e-01 8.685257e-01 1.151711e+00 1.387650e+00 1.679896e+00 1.920607e+00 2.001463e+00 2.015476e+00 2.010969e+00 1.934113e+00 1.857045e+00 3.643193e-01
<GCONST> 1.636658e+02
<MIXTURE> 4 2.175124e-01
<MEAN> 39
 -4.930673e+01 4.962022e+00 -1.595627e+01 5.261221e+00 -1.027506e+01 -3.858000e+00 -3.910076e+00 3.249408e+00 -6.817582e+00 2.485933e+00 -2.457513e+00 6.514949e+00 1.031321e+02 1.446470e+00 -9.566152e-01 4.891911e-01 -5.643032e-01 -8.856037e-02 -2.042011e-01 -5.071362e-01 -4.963700e-01 -1.419787e-01 -1.955699e-01 -5.967987e-01 -3.466043e-01 -6.188782e-01 1.402298e+00 -2.017043e-01 1.150697e+00 1.318483e-01 2.660053e-01 -3.584510e-01 -5.990130e-02 -9.243663e-02 1.987927e-01 -4.530136e-02 -1.619854e-01 -2.127176e-02 -1.450426e-01
<VARIANCE> 39
 1.417926e+02 1.436845e+02 1.553407e+02 2.175869e+02 2.791572e+02 2.613471e+02 1.566135e+02 1.463870e+02 1.522756e+02 1.441923e+02 1.466363e+02 1.283534e+02 1.874502e+02 9.533743e+00 7.908617e+00 8.685430e+00 9.527984e+00 1.244205e+01 1.460247e+01 1.233167e+01 1.266955e+01 1.236828e+01 1.282182e+01 1.224704e+01 1.142756e+01 1.287379e+01 2.436216e+00 1.824558e+00 2.389511e+00 2.069678e+00 2.294389e+00 2.827591e+00 2.749811e+00 2.595545e+00 2.573891e+00 2.646198e+00 2.458906e+00 2.354027e+00 2.020431e+00
<GCONST> 1.811965e+02
<TRANSP> 5
 0.000000e+00 1.000000e+00 0.000000e+00 0.000000e+00 0.000000e+00
 0.000000e+00 5.307699e-01 4.692301e-01 0.000000e+00 0.000000e+00
 0.000000e+00 0.000000e+00 5.466328e-01 4.533673e-01 0.000000e+00
 0.000000e+00 0.000000e+00 0.000000e+00 8.378499e-01 1.621501e-01
 0.000000e+00 0.000000e+00 0.000000e+00 0.000000e+00 0.000000e+00
<ENDHMM>
~h "t"
<BEGINHMM>
<NUMSTATES> 5
<STATE> 2
<NUMMIXES> 4
<MIXTURE> 1 1.809068e-01
<MEAN> 39
 1.138725e+00 8.391532e+00 4.381929e+01 2.253644e+01 3.157058e-01 -5.510771e-02 1.735233e+00 2.071965e+00 -1.029963e+01 3.160148e+00 -2.932168e+00 1.400696e+00 9.048045e+01 -2.318326e+00 5.340202e+00 -8.965323e+00 4.884683e+00 3.921624e+00 2.342731e+00 2.184570e+00 2.481602e+00 5.528433e+00 3.014469e-02 1.948434e+00 9.398121e-01 -1.250054e+01 -1.305601e+00 -8.702512e-01 -1.231563e+00 -2.746810e+00 -2.641756e-01 -1.309498e-01 -7.243092e-01 -7.493382e-01 -2.247951e-01 6.994787e-02 -1.753159e-01 5.568551e-02 5.277881e-01
<VARIANCE> 39
 2.065649e+02 3.415970e+02 4.136006e+02 3.376119e+02 2.987082e+02 3.083805e+02 3.654603e+02 3.331916e+02 3.627344e+02 2.398955e+02 2.207123e+02 2.458157e+02 5.114077e+02 2.022009e+01 3.152118e+01 6.157924e+01 4.189148e+01 3.441464e+01 4.091378e+01 3.582357e+01 4.477976e+01 5.218261e+01 3.480113e+01 3.087842e+01 3.227227e+01 4.554934e+01 2.648530e+00 7.110552e+00 6.620070e+00 6.636345e+00 6.111925e+00 5.452721e+00 6.336192e+00 5.258178e+00 6.452256e+00 4.578138e+00 4.180233e+00 4.011590e+00 1.137653e+01
<GCONST> 2.158795e+02
<MIXTURE> 2 2.936563e-01
<MEAN> 39
 -2.349806e+01 8.412812e+00 4.668376e+00 7.121073e+00 -1.512110e-01 -1.117958e+00 -4.432847e+00 -2.645689e+00 -3.102913e+00 1.049245e+00 9.240919e-01 2.986057e+00 4.976839e+01 -2.079027e+00 -2.581948e+00 -3.277024e+00 -2.809695e+00 -3.954179e-01 -4.879079e-01 2.568330e-01 1.186277e+00 1.403397e+00 1.319647e+00 1.638651e+00 8.766753e-01 1.331506e+00 4.593730e-01 -3.514895e-01 2.055803e+00 -4.724365e-01 -1.981964e-01 -1.234256e-01 3.831093e-01 -3.197919e-01 -6.709427e-01 1.182432e-02 -7.035511e-01 -4.303449e-02 4.656382e+00
<VARIANCE> 39
 5.767675e+01 6.026727e+01 8.216056e+01 8.971003e+01 9.730186e+01 1.161067e+02 1.358626e+02 1.344359e+02 1.194044e+02 1.110389e+02 9.807484e+01 8.544370e+01 3.253563e+01 1.566727e+01 1.489677e+01 3.191540e+01 1.909278e+01 1.537953e+01 1.552405e+01 1.834978e+01 2.013416e+01 1.893952e+01 1.563705e+01 1.634311e+01 1.354225e+01 7.604655e+01 2.607718e+00 3.022632e+00 4.922496e+00 3.506288e+00 3.281491e+00 3.507634e+00 3.883712e+00 4.238851e+00 4.172135e+00 3.248669e+00 3.017813e+00 2.813497e+00 7.846148e+00
<GCONST> 1.855269e+02
<MIXTURE> 3 2.698567e-01
<MEAN> 39
 -2.380250e+01 8.294610e+00 4.125289e+00 7.317586e+00 8.621377e-01 6.568725e-01 -2.469589e+00 -5.066012e-01 -7.209505e-01 2.876242e+00 1.895013e+00 2.934432e+00 4.930086e+01 -2.657197e+00 -4.307474e+00 -2.756482e+00 -5.246369e+00 -1.906022e+00 -2.500177e+00 -2.221341e+00 -1.496794e+00 -1.519300e+00 -8.674330e-01 -3.835796e-01 -2.556196e-01 5.944372e+00 -7.062353e-02 -2.591011e-01 1.697485e+00 -6.784571e-01 -4.642247e-01 -7.542767e-01 2.159777e-01 -3.126150e-01 -1.098952e+00 -1.715474e-01 -6.463081e-01 1.307968e-01 5.517797e+00
<VARIANCE> 39
 5.338728e+01 5.642647e+01 7.481470e+01 8.329885e+01 9.815718e+01 1.130549e+02 1.255420e+02 1.201906e+02 1.052670e+02 1.004420e+02 9.257092e+01 8.108773e+01 3.002679e+01 1.703242e+01 1.744720e+01 3.050375e+01 1.921644e+01 1.773256e+01 1.711941e+01 1.804937e+01 1.640565e+01 1.583666e+01 1.354583e+01 1.289188e+01 1.144637e+01 1.087236e+02 2.606843e+00 3.085788e+00 4.144413e+00 3.163731e+00 3.440082e+00 3.525919e+00 3.609568e+00 3.889459e+00 3.693033e+00 2.932144e+00 2.804576e+00 2.468115e+00 7.792756e+00
<GCONST> 1.836448e+02
<MIXTURE> 4 2.555467e-01
<MEAN> 39
 -7.292730e+00 1.798431e+01 2.857310e+01 2.107184e+01 5.769911e+00 4.213946e+00 5.030462e-01 -4.043609e+00 -7.622843e+00 -1.921265e+00 -7.531973e+00 -9.315342e-01 7.001093e+01 -5.017161e+00 -4.185966e-01 -9.767158e+00 -7.883126e-01 7.455268e-01 -1.014748e-01 -1.026675e+00 1.566819e+00 8.291658e-01 -7.616193e-01 1.979082e+00 -7.766802e-01 -8.489665e+00 -6.851721e-01 -2.234621e+00 3.883527e-01 -3.179507e+00 -1.259968e+00 -9.792377e-01 -6.293564e-01 -6.377161e-01 -2.476120e-01 6.066602e-01 2.417856e-01 7.841431e-01 3.436107e+00
<VARIANCE> 39
 2.172030e+02 2.511855e+02 2.666655e+02 2.540423e+02 2.798572e+02 2.574488e+02 3.205392e+02 3.614380e+02 3.057011e+02 2.691603e+02 2.234312e+02 1.987605e+02 2.318854e+02 2.590172e+01 3.172702e+01 5.570786e+01 4.481087e+01 2.886952e+01 3.019975e+01 3.172503e+01 4.160187e+01 4.018267e+01 2.871223e+01 2.578638e+01 2.611073e+01 6.757481e+01 4.149384e+00 6.958501e+00 7.603777e+00 6.476823e+00 6.416020e+00 6.278140e+00 6.641173e+00 7.397569e+00 9.104675e+00 6.171766e+00 5.285982e+00 5.044155e+00 1.058034e+01
<GCONST> 2.148055e+02
<STATE> 3
<NUMMIXES> 4
<MIXTURE> 1 2.169804e-01
<MEAN> 39
 -3.955779e+01 8.745298e+00 6.270952e+00 -1.028677e+01 -6.242254e+00 -1.158297e+01 -2.747667e-02 -6.030910e+00 -1.435587e+01 2.367756e+00 -4.076368e-01 5.419715e+00 1.177150e+02 -3.533043e+00 2.086514e+00 2.035529e+00 1.200248e+00 -2.356806e+00 -1.498355e+00 3.811556e+00 1.501219e+00 7.948428e-04 9.314095e-01 7.506570e-01 2.746891e+00 4.286954e+00 2.497447e+00 -7.939544e-01 1.644353e+00 2.000988e+00 7.843836e-02 8.855721e-01 4.953473e-01 5.622947e-01 1.180902e+00 4.200026e-02 -2.669797e-01 1.285301e-01 -4.669095e+00
<VARIANCE> 39
 3.449307e+02 1.491722e+02 2.696764e+02 2.116318e+02 1.793693e+02 1.918792e+02 2.315731e+02 2.549401e+02 1.975494e+02 1.959776e+02 1.678411e+02 1.543914e+02 5.109845e+02 1.948102e+01 1.865639e+01 2.045335e+01 2.128124e+01 1.798051e+01 2.388790e+01 2.110011e+01 2.583986e+01 2.060177e+01 1.840097e+01 2.144238e+01 1.697574e+01 5.970876e+01 4.459434e+00 3.799704e+00 5.019011e+00 5.392065e+00 3.965268e+00 3.840997e+00 4.338579e+00 4.330038e+00 4.429528e+00 4.124362e+00 3.483546e+00 3.309395e+00 1.547006e+01
<GCONST> 2.020061e+02
<MIXTURE> 2 2.739124e-01
<MEAN> 39
 -2.747579e+01 -7.847715e+00 5.685043e+00 -9.567547e+00 -1.051474e+00 -4.432760e+00 -6.358989e+00 -2.557348e+00 -6.278695e+00 1.337713e+00 -8.287997e-01 1.551512e+00 8.963053e+01 -3.702715e+00 -5.319262e-01 5.972832e-01 -3.614429e+00 -6.542540e-01 -2.201639e+00 1.317737e+00 2.452060e-01 -2.179075e+00 3.485054e-01 -5.859379e-01 9.712353e-01 1.781404e+01 -3.984387e-01 2.052154e+00 9.633120e-01 1.833939e+00 -4.008818e-01 -1.268943e-01 1.160192e+00 2.389004e-01 -3.834973e-02 2.110634e-01 -1.224945e-01 4.925001e-01 -7.198992e-01
<VARIANCE> 39
 8.152699e+01 1.507235e+02 1.455084e+02 2.004411e+02 1.516975e+02 1.371994e+02 1.418750e+02 1.317909e+02 1.161510e+02 9.934995e+01 9.079044e+01 8.724550e+01 1.117150e+03 1.788255e+01 1.643067e+01 2.154503e+01 1.518447e+01 1.718227e+01 1.986069e+01 2.060536e+01 2.243503e+01 1.870747e+01 1.753061e+01 1.693330e+01 1.342025e+01 6.775181e+01 2.855989e+00 2.487566e+00 3.431181e+00 3.857102e+00 3.709696e+00 3.515646e+00 3.307254e+00 3.336845e+00 3.107234e+00 2.665233e+00 2.769578e+00 2.603263e+00 1.834785e+01
<GCONST> 1.918920e+02
<MIXTURE> 3 2.179143e-01
<MEAN> 39
 -2.596129e+01 -1.124177e+01 8.429839e+00 -9.866168e+00 -9.525996e-01 -3.183994e+00 -5.106489e+00 -2.054176e+00 -7.646966e+00 5.521490e-01 -2.262389e+00 1.480852e+00 9.547369e+01 -5.070972e+00 -1.957852e+00 -6.238132e-01 -5.499321e+00 -2.531555e+00 -4.408975e+00 -1.599292e+00 -1.342848e+00 -3.853451e+00 -1.526690e+00 -1.614945e+00 3.284055e-01 1.676290e+01 -3.162843e-01 2.236502e+00 1.023184e+00 1.920962e+00 -4.148734e-01 -4.467546e-01 8.127111e-01 2.695947e-01 -2.385312e-02 2.083685e-01 -9.485318e-02 5.411444e-01 -1.134211e+00
<VARIANCE> 39
 1.160298e+02 1.713296e+02 1.947055e+02 2.054876e+02 1.670351e+02 1.706957e+02 1.557373e+02 1.528820e+02 1.251605e+02 1.289284e+02 1.025271e+02 9.567819e+01 7.849818e+02 2.029686e+01 2.313640e+01 3.067167e+01 1.664798e+01 2.099065e+01 2.340858e+01 2.538532e+01 2.217109e+01 1.947700e+01 2.115992e+01 1.735761e+01 1.406279e+01 6.288154e+01 3.125581e+00 2.929760e+00 4.366420e+00 4.153166e+00 3.995047e+00 4.127283e+00 3.868792e+00 3.881583e+00 3.452636e+00 3.105904e+00 3.084017e+00 2.892511e+00 1.370352e+01
<GCONST> 1.964335e+02
<MIXTURE> 4 2.911742e-01
<MEAN> 39
 -4.173580e+01 7.292858e+00 2.121275e+00 -1.325476e+01 -4.950596e+00 -1.285071e+01 1.748202e-01 -7.466808e+00 -1.389628e+01 3.037493e+00 -1.006257e+00 4.463131e+00 1.228277e+02 -5.188067e+00 2.104669e+00 1.420474e+00 -5.889441e-01 -3.516545e+00 -2.884678e+00 2.327750e+00 -3.024901e-01 -2.105077e+00 -2.140177e-02 1.998629e-01 1.990932e+00 7.711669e+00 1.926823e+00 -6.421177e-01 1.424787e+00 2.102680e+00 -3.388444e-01 7.849813e-01 2.606518e-01 7.237214e-01 9.610544e-01 -8.414394e-02 2.563579e-02 2.259814e-01 -5.687792e+00
<VARIANCE> 39
 1.741381e+02 1.350962e+02 2.192033e+02 1.416530e+02 1.769902e+02 1.732257e+02 1.940420e+02 2.163708e+02 1.856049e+02 1.794798e+02 1.619592e+02 1.476750e+02 2.121315e+02 1.438875e+01 1.699420e+01 1.724405e+01 1.718923e+01 1.572932e+01 2.226848e+01 2.036796e+01 2.092613e+01 1.727443e+01 1.748675e+01 1.905313e+01 1.485823e+01 6.443285e+01 3.448628e+00 3.448189e+00 3.523955e+00 4.166211e+00 3.834039e+00 3.387759e+00 3.962598e+00 3.587391e+00 3.995521e+00 3.750690e+00 3.424315e+00 3.319267e+00 7.074463e+00
<GCONST> 1.950173e+02
<STATE> 4
<NUMMIXES> 4
<MIXTURE> 1 2.098593e-01
<MEAN> 39
 -3.856945e+01 -2.895959e+00 1.995007e+01 -4.469807e+00 -1.545928e+01 -1.242040e+01 8.612423e+00 -1.247500e+00 -1.203925e+01 2.571745e+00 -7.361516e-01 1.032883e+01 1.173082e+02 9.906084e+00 -4.632039e-01 7.970215e+00 5.705335e+00 1.534229e+00 1.045520e+00 1.492221e+00 1.444520e+00 1.291412e+00 -3.042242e-02 -1.222284e+00 2.922030e-01 -1.354257e+00 3.062440e+00 3.075067e-01 1.213460e+00 5.585733e-02 1.396204e+00 -2.337676e-01 -1.308076e+00 -4.543059e-01 -2.138491e-01 2.333782e-01 -3.665388e-01 -3.543695e-01 1.125548e+00
<VARIANCE> 39
 1.093097e+02 9.301656e+01 1.310521e+02 1.588655e+02 1.647806e+02 2.257551e+02 2.389986e+02 3.120174e+02 1.894428e+02 1.796579e+02 2.107502e+02 1.651072e+02 1.126110e+02 2.165434e+01 9.896827e+00 1.765952e+01 1.558999e+01 1.357404e+01 1.572518e+01 1.831679e+01 1.560003e+01 1.580815e+01 1.531128e+01 1.560244e+01 1.412020e+01 6.784482e+00 3.052652e+00 2.778848e+00 2.569994e+00 3.138462e+00 3.351835e+00 6.158111e+00 4.066054e+00 3.607078e+00 4.570071e+00 4.129842e+00 4.271892e+00 3.443497e+00 4.115990e+00
<GCONST> 1.899901e+02
<MIXTURE> 2 2.404875e-01
<MEAN> 39
 -2.232882e+01 -2.822809e+00 1.035939e+01 2.235585e+00 -8.937909e+00 -1.033105e+01 3.013475e+00 1.429568e+00 -6.150216e+00 -6.572388e-01 -3.398637e+00 6.677493e+00 8.800085e+01 1.521742e+00 -1.772026e-01 -4.893976e-02 1.286645e+00 1.356626e-01 8.608112e-01 1.187507e+00 1.837805e+00 1.673926e+00 9.695648e-01 -1.817017e-01 2.658500e-01 -8.131236e-01 4.711030e-01 4.726728e-01 3.343367e-01 2.316855e-01 5.342197e-01 5.126914e-01 8.467867e-02 2.324187e-02 1.798843e-01 1.932391e-01 8.165542e-03 -2.642780e-01 -3.010748e-01
<VARIANCE> 39
 3.158413e+02 1.811358e+02 2.560409e+02 2.058607e+02 2.109794e+02 2.791346e+02 2.791220e+02 3.016035e+02 2.137987e+02 1.921119e+02 2.280651e+02 1.734340e+02 6.301226e+02 2.409404e+01 1.484374e+01 1.853032e+01 1.931426e+01 1.947865e+01 2.049087e+01 1.865811e+01 2.293607e+01 1.991075e+01 1.734016e+01 1.800549e+01 1.659527e+01 3.766061e+01 4.300690e+00 2.997834e+00 4.233075e+00 3.158222e+00 3.252948e+00 3.786929e+00 3.774263e+00 4.059089e+00 3.820405e+00 3.527204e+00 3.279487e+00 2.960468e+00 7.638516e+00
<GCONST> 1.997606e+02
<MIXTURE> 3 2.359667e-01
<MEAN> 39
 -2.329404e+01 -7.394904e+00 1.052562e+01 -8.544885e-01 -1.081752e+01 -1.327261e+01 6.679606e+00 4.772822e+00 -7.213484e+00 -2.118695e+00 -2.334749e+00 8.317624e+00 8.830203e+01 1.735607e+00 -1.084746e+00 -1.272578e+00 2.846039e-01 -5.670784e-01 -1.665710e-01 -1.245366e+00 9.640599e-01 3.459588e-01 -7.736467e-01 -9.248542e-01 -5.338291e-01 -3.186656e+00 1.267005e-01 6.057059e-01 -2.951368e-01 1.192511e-01 4.389693e-01 4.369733e-01 -3.242538e-01 -2.784198e-01 1.137070e-01 1.415031e-01 7.816517e-02 -4.183203e-01 -3.938109e-01
<VARIANCE> 39
 1.998934e+02 1.125325e+02 2.058552e+02 1.699792e+02 2.031843e+02 2.803495e+02 2.877577e+02 3.276414e+02 2.359621e+02 2.051918e+02 2.792052e+02 2.036116e+02 4.645299e+02 1.649805e+01 1.018713e+01 1.346379e+01 1.327445e+01 1.954047e+01 1.805882e+01 1.743663e+01 2.098137e+01 1.878104e+01 1.626669e+01 1.655466e+01 1.584097e+01 1.879935e+01 2.821448e+00 1.930624e+00 3.093742e+00 2.733024e+00 2.957547e+00 3.343223e+00 3.496908e+00 3.953911e+00 3.773945e+00 3.428865e+00 3.571755e+00 3.180113e+00 4.545813e+00
<GCONST> 1.939979e+02
<MIXTURE> 4 3.136682e-01
<MEAN> 39
 -4.542080e+01 1.536407e+00 1.619811e+01 -7.483092e+00 -1.033690e+01 -1.534631e+01 6.262105e+00 1.127553e+00 -1.241924e+01 1.730531e+00 -2.473619e+00 1.046494e+01 1.204271e+02 4.472125e+00 -2.710614e+00 4.866982e+00 3.901878e+00 -1.404173e+00 -2.929726e-01 9.519899e-01 1.435055e+00 3.948539e-01 -6.916916e-01 -1.052460e+00 1.745450e-01 -2.126560e+00 3.723612e+00 -7.353922e-01 8.765406e-01 8.591605e-01 8.658136e-01 8.965545e-01 -1.210567e+00 -1.212199e-01 1.519671e-01 -7.580488e-02 -1.593279e-01 -9.322931e-01 -1.104629e+00
<VARIANCE> 39
 1.202506e+02 1.049131e+02 1.449826e+02 1.389304e+02 1.549749e+02 2.172662e+02 2.535453e+02 2.902328e+02 1.922067e+02 1.936400e+02 2.179847e+02 1.580026e+02 1.027035e+02 2.505258e+01 9.521432e+00 1.246205e+01 1.692402e+01 1.392101e+01 1.550616e+01 1.665438e+01 1.498511e+01 1.521609e+01 1.468040e+01 1.547784e+01 1.434466e+01 6.004255e+00 2.836340e+00 2.696676e+00 2.632654e+00 2.852451e+00 3.121018e+00 4.387659e+00 3.811659e+00 3.468307e+00 4.111800e+00 3.813269e+00 3.938727e+00 2.799002e+00 7.046523e+00
<GCONST> 1.889434e+02
<TRANSP> 5
 0.000000e+00 1.000000e+00 0.000000e+00 0.000000e+00 0.000000e+00
 0.000000e+00 7.908962e-01 2.091038e-01 0.000000e+00 0.000000e+00
 0.000000e+00 0.000000e+00 6.260927e-01 3.739073e-01 0.000000e+00
 0.000000e+00 0.000000e+00 0.000000e+00 6.977796e-01 3.022204e-01
 0.000000e+00 0.000000e+00 0.000000e+00 0.000000e+00 0.000000e+00
<ENDHMM>
~h "v"
<BEGINHMM>
<NUMSTATES> 5
<STATE> 2
<NUMMIXES> 4
<MIXTURE> 1 2.210715e-01
<MEAN> 39
 1.354320e+01 -2.597030e+01 1.284525e+01 -1.875408e+01 -1.090201e+01 -2.018748e+01 1.288187e+01 1.314822e+01 1.876760e+01 6.453023e+00 -3.998849e+00 1.170992e+01 1.431012e+02 1.917998e+00 3.085289e+00 2.003729e+00 3.433967e+00 1.032453e+00 -1.643101e+00 -3.880748e+00 -3.189109e+00 -4.627674e-01 2.218120e+00 -3.214205e-01 -2.053577e-01 -4.360746e+00 -3.166918e-01 1.381064e+00 2.380864e-01 2.334870e+00 2.005890e+00 1.873815e+00 -9.807498e-01 -9.719560e-01 -1.225566e+00 -1.249944e-02 -1.788310e-01 -2.461256e-01 -2.356463e+00
<VARIANCE> 39
 6.376051e+01 1.610550e+02 2.350618e+02 1.855589e+02 2.353580e+02 2.639044e+02 4.770578e+02 2.444679e+02 2.287452e+02 2.973060e+02 2.993716e+02 2.992800e+02 1.599529e+02 1.903061e+00 6.299980e+00 8.000367e+00 9.820953e+00 1.765131e+01 1.429306e+01 1.414104e+01 1.359184e+01 1.569747e+01 1.341975e+01 1.920455e+01 1.467780e+01 5.001335e+00 8.391908e-01 1.241272e+00 1.734396e+00 1.874959e+00 2.306936e+00 2.728861e+00 3.381342e+00 2.575988e+00 2.159086e+00 2.656808e+00 2.864554e+00 2.421777e+00 1.015672e+00
<GCONST> 1.810683e+02
<MIXTURE> 2 3.002816e-01
<MEAN> 39
 1.179813e+01 -2.822323e+01 1.445074e+01 -2.073148e+01 -1.226340e+01 -1.693098e+01 -2.001331e+00 1.452904e+01 1.470778e+01 1.324320e+01 -1.329563e+00 5.562417e+00 1.498239e+02 7.335403e-01 -8.880292e-01 -8.743515e-01 -1.984118e-01 7.827751e-01 7.358357e-01 3.297946e-01 8.395284e-03 -2.399192e-02 5.136030e-01 7.057562e-02 -7.116760e-01 -2.737194e-01 3.375013e-01 9.323524e-01 3.738947e-01 8.803557e-01 4.945451e-01 -1.720837e-01 -9.051458e-01 -1.169512e+00 -6.794369e-01 -2.508886e-02 8.905305e-02 3.017477e-01 -1.011381e+00
<VARIANCE> 39
 6.883159e+01 1.378315e+02 1.990228e+02 1.857396e+02 2.473456e+02 2.529063e+02 9.764475e+02 2.671091e+02 2.587655e+02 5.047219e+02 3.276654e+02 4.221456e+02 1.372756e+02 1.063157e+00 2.767748e+00 2.845351e+00 3.497876e+00 4.430525e+00 5.904772e+00 7.469335e+00 7.487834e+00 8.502367e+00 6.695173e+00 1.095016e+01 7.659351e+00 1.271811e+00 2.864386e-01 4.911647e-01 5.826728e-01 8.844094e-01 1.121007e+00 1.490075e+00 1.950750e+00 1.283151e+00 2.365308e+00 1.675238e+00 1.338300e+00 1.360443e+00 4.505835e-01
<GCONST> 1.627695e+02
<MIXTURE> 3 2.395318e-01
<MEAN> 39
 1.054916e+01 -2.749197e+01 1.782102e+01 -2.171432e+01 -1.006859e+01 -2.357025e+01 -5.648447e+00 1.204137e+01 1.495486e+01 1.705419e+01 -4.552866e+00 8.487274e+00 1.509946e+02 2.344071e-01 -1.927049e+00 -1.309278e+00 -1.197907e+00 5.776913e-01 1.334507e+00 1.709554e+00 1.323445e+00 3.545911e-01 6.081258e-01 2.870423e-01 -2.107549e+00 5.821816e-01 5.644136e-02 1.275625e+00 6.982550e-02 1.370257e+00 5.863798e-01 5.236868e-01 -7.120319e-01 -1.299377e+00 -1.132091e+00 -3.475196e-01 -4.962887e-02 -9.309720e-02 -1.417856e+00
<VARIANCE> 39
 6.923564e+01 1.342519e+02 2.204651e+02 2.151453e+02 2.705591e+02 2.362250e+02 9.060411e+02 2.854852e+02 2.900130e+02 5.139355e+02 3.172814e+02 3.790589e+02 1.230406e+02 1.643018e+00 3.853598e+00 3.771148e+00 4.892095e+00 6.228005e+00 6.970227e+00 9.760074e+00 9.903378e+00 9.416656e+00 7.669859e+00 1.297952e+01 8.654793e+00 1.939976e+00 7.369754e-01 7.200684e-01 8.857758e-01 1.322215e+00 1.277801e+00 1.682974e+00 2.897414e+00 1.440465e+00 2.022780e+00 1.773765e+00 1.709135e+00 1.677427e+00 7.565437e-01
<GCONST> 1.700691e+02
<MIXTURE> 4 2.390833e-01
<MEAN> 39
 1.445302e+01 -2.687840e+01 1.758103e+01 -1.543278e+01 -1.167132e+01 -2.277875e+01 -7.641712e+00 1.172231e+01 9.692264e+00 2.000801e+01 -8.376129e-01 9.437385e-01 1.440691e+02 1.462576e+00 2.319382e+00 2.088718e+00 2.930645e+00 1.286137e+00 -8.512270e-01 -2.556823e+00 -3.678201e+00 -3.510371e+00 9.452856e-02 1.686798e+00 4.492796e-01 -3.384772e+00 -3.706012e-03 9.583421e-01 -3.320862e-01 1.510282e+00 1.685941e+00 1.756084e+00 6.795216e-02 -8.670802e-01 -1.061911e+00 -7.273562e-01 -1.764118e-01 -3.573137e-01 -1.810237e+00
<VARIANCE> 39
 7.304404e+01 1.746178e+02 2.622704e+02 2.687699e+02 2.874411e+02 2.707073e+02 7.195573e+02 3.402068e+02 3.492698e+02 4.065211e+02 3.721715e+02 3.879696e+02 2.184262e+02 1.954670e+00 4.697883e+00 8.834119e+00 7.109417e+00 1.217605e+01 1.568717e+01 1.120207e+01 1.149446e+01 1.900332e+01 1.494960e+01 1.786360e+01 1.633271e+01 2.892443e+00 5.756819e-01 1.104142e+00 1.595746e+00 1.543864e+00 2.021629e+00 2.167960e+00 3.095773e+00 2.475263e+00 2.599182e+00 2.520525e+00 2.708740e+00 2.842714e+00 8.755849e-01
<GCONST> 1.817002e+02
<STATE> 3
<NUMMIXES> 4
<MIXTURE> 1 2.056846e-01
<MEAN> 39
 1.862215e+01 -1.673831e+01 1.664882e+01 -4.044957e+00 1.276530e+00 -2.167756e+01 1.176219e+00 2.342513e+00 1.847630e+01 1.186605e+01 -1.279673e+01 1.261227e+01 1.263919e+02 -7.058238e-01 7.338203e+00 2.293755e+00 1.008906e+01 6.970180e+00 6.743669e+00 -4.639345e+00 -4.307357e+00 -3.745544e+00 2.298563e+00 -1.261660e-02 -2.197658e+00 -1.094795e+01 -1.823840e+00 5.661986e-01 1.441131e-02 4.067596e-01 2.348587e-01 2.091343e+00 1.686327e+00 1.206357e+00 -8.600960e-01 -1.018078e+00 1.078075e+00 8.790906e-02 -5.384003e-01
<VARIANCE> 39
 4.527367e+01 1.344157e+02 1.607493e+02 2.144807e+02 2.408258e+02 2.506610e+02 2.500279e+02 2.255130e+02 1.970964e+02 2.580275e+02 1.616186e+02 1.967619e+02 2.005319e+02 8.188758e+00 1.327308e+01 1.472655e+01 1.680175e+01 1.851454e+01 2.419351e+01 2.221074e+01 2.065400e+01 1.972401e+01 1.781444e+01 2.297398e+01 1.794233e+01 9.759199e+00 1.363197e+00 2.128487e+00 1.643930e+00 4.048978e+00 4.152728e+00 4.572383e+00 3.284361e+00 3.088451e+00 2.930063e+00 2.948828e+00 2.501308e+00 3.030770e+00 3.430269e+00
<GCONST> 1.895226e+02
<MIXTURE> 2 3.222983e-01
<MEAN> 39
 2.258250e+01 -2.093844e+01 1.673835e+01 -4.015210e+00 2.825516e-01 -6.256001e+00 -2.746678e+01 -4.247931e+00 -1.367662e+01 1.951752e+01 1.530253e+01 -1.033644e+01 1.317657e+02 -2.422138e-01 4.937933e+00 6.747933e-02 5.198361e+00 5.006244e+00 5.503182e+00 3.833298e+00 -3.007239e+00 -5.208178e+00 -3.942035e+00 1.387549e+00 1.524445e+00 -8.174063e+00 -1.389682e+00 5.317932e-01 -3.167933e-01 9.292290e-02 -1.178825e-02 2.737233e-01 1.478452e+00 1.234390e+00 1.676026e+00 -3.631764e-02 -1.480406e+00 4.104663e-01 -3.664133e-01
<VARIANCE> 39
 6.149982e+01 1.518121e+02 2.347704e+02 2.733752e+02 2.646919e+02 3.131580e+02 2.866965e+02 3.762492e+02 4.041554e+02 4.039766e+02 3.364961e+02 2.156259e+02 2.094908e+02 7.335865e+00 1.044567e+01 1.247242e+01 1.304077e+01 1.803441e+01 2.066661e+01 2.261551e+01 2.195925e+01 2.799826e+01 2.239205e+01 2.309291e+01 1.889040e+01 9.651274e+00 1.512720e+00 1.684105e+00 1.550707e+00 2.362405e+00 2.921790e+00 3.962573e+00 3.954976e+00 3.227707e+00 3.780143e+00 3.754390e+00 2.697824e+00 2.638363e+00 2.756249e+00
<GCONST> 1.925461e+02
<MIXTURE> 3 2.378856e-01
<MEAN> 39
 1.925787e+01 -2.109387e+01 2.140654e+01 -4.719825e+00 -3.775305e-01 -1.648182e+01 -2.453942e+01 3.775587e+00 -1.276910e+01 2.245167e+01 7.590732e+00 -6.733939e+00 1.310916e+02 -1.096477e+00 4.783907e+00 -3.141952e-01 5.280159e+00 3.953572e+00 4.471324e+00 2.402721e+00 -3.107450e+00 -3.617763e+00 -3.573925e+00 7.654787e-01 3.796476e-01 -7.251116e+00 -1.678473e+00 4.323665e-01 -7.932854e-01 4.561775e-02 3.157533e-02 1.082169e+00 1.585619e+00 7.123931e-01 1.555931e+00 -5.223472e-01 -9.291167e-01 1.185107e-01 -6.742831e-01
<VARIANCE> 39
 6.750098e+01 1.823356e+02 2.742080e+02 3.503808e+02 3.165229e+02 3.273679e+02 3.104642e+02 3.679974e+02 3.675344e+02 4.175983e+02 3.631695e+02 2.406156e+02 2.790319e+02 1.609086e+01 1.218896e+01 1.521146e+01 1.495362e+01 1.842550e+01 2.000898e+01 2.027159e+01 1.857213e+01 3.173127e+01 1.840523e+01 2.638927e+01 1.861220e+01 9.361370e+00 2.600459e+00 2.263848e+00 2.345486e+00 2.843046e+00 3.172088e+00 3.944919e+00 3.248549e+00 3.007666e+00 3.714918e+00 3.633208e+00 3.068736e+00 2.901854e+00 2.402098e+00
<GCONST> 1.962051e+02
<MIXTURE> 4 2.341048e-01
<MEAN> 39
 1.643690e+01 -1.396721e+01 2.302355e+01 -3.368246e+00 -6.905322e+00 -2.497575e+01 6.993737e+00 2.673618e+00 1.223028e+01 1.130002e+01 -9.894856e+00 1.375483e+01 1.258891e+02 -1.683048e+00 6.084834e+00 1.608773e+00 8.989128e+00 5.816602e+00 5.432477e+00 -3.415104e+00 -2.538120e+00 -3.106945e+00 9.512848e-02 -4.528421e-01 -1.581620e+00 -9.497611e+00 -2.317790e+00 -1.641871e-02 -1.014024e+00 2.346424e-01 8.804001e-01 2.518713e+00 7.272952e-01 1.132865e+00 -5.788958e-01 -8.182115e-01 5.530155e-01 -4.869860e-01 -8.286079e-01
<VARIANCE> 39
 5.219197e+01 1.647567e+02 2.101177e+02 2.361690e+02 2.846835e+02 2.554973e+02 3.257016e+02 2.522191e+02 2.222225e+02 2.485605e+02 1.903358e+02 2.030718e+02 2.554365e+02 1.505235e+01 1.308522e+01 1.458297e+01 1.609409e+01 2.040017e+01 2.381930e+01 2.144857e+01 2.603521e+01 1.909365e+01 1.974507e+01 2.018411e+01 1.825414e+01 9.746779e+00 2.379916e+00 2.690364e+00 2.461383e+00 4.055752e+00 4.172769e+00 4.137715e+00 3.469218e+00 3.363257e+00 3.169630e+00 2.955848e+00 2.741876e+00 2.975712e+00 2.432312e+00
<GCONST> 1.931438e+02
<STATE> 4
<NUMMIXES> 4
<MIXTURE> 1 2.460062e-01
<MEAN> 39
 1.308150e+01 -1.521846e+00 1.985625e+01 1.602471e+01 1.671026e+01 3.303205e+00 -5.538615e+00 -5.485733e+00 -2.046587e+00 1.376913e+01 -1.466919e+00 3.985808e+00 1.055349e+02 -3.028768e+00 3.576099e+00 9.023545e-01 3.462441e+00 1.975985e+00 3.769192e+00 2.013315e+00 1.419747e+00 -1.047771e+00 -1.216298e+00 5.799886e-01 3.106531e-01 -4.499270e+00 -1.269848e-01 -2.224157e+00 -4.508108e-01 -3.325752e+00 -2.606734e+00 -2.781752e+00 4.250463e-01 1.680268e+00 1.611921e+00 -2.744655e-01 -2.570848e-01 5.313762e-01 3.514793e+00
<VARIANCE> 39
 8.817133e+01 1.510655e+02 1.149623e+02 1.820594e+02 1.493855e+02 2.423778e+02 2.052894e+02 2.349456e+02 3.547178e+02 2.197290e+02 2.672235e+02 2.277516e+02 1.935966e+02 1.687545e+01 2.019460e+01 1.038244e+01 2.922084e+01 2.475197e+01 3.895410e+01 2.398716e+01 1.859505e+01 2.168250e+01 1.728828e+01 1.658873e+01 1.427474e+01 3.174262e+01 3.066493e+00 2.551453e+00 2.591978e+00 4.072139e+00 3.676937e+00 4.737158e+00 6.568332e+00 4.360778e+00 4.153615e+00 5.016685e+00 4.708038e+00 4.159960e+00 2.707421e+00
<GCONST> 1.969529e+02
<MIXTURE> 2 2.561297e-01
<MEAN> 39
 -1.363512e+01 -8.251433e+00 8.527822e+00 6.268943e+00 -1.905943e-01 -3.528537e+00 2.501599e+00 9.290191e+00 3.050675e+00 4.224778e+00 -5.686424e+00 4.736401e+00 9.447487e+01 1.458636e+00 -7.479943e-01 -5.806857e-01 -1.749577e+00 -1.043370e+00 -1.421749e+00 -7.495467e-02 7.025061e-01 1.048177e+00 3.746878e-02 2.009986e-01 2.135235e-01 3.310329e-01 1.078874e+00 1.411026e-01 2.586854e-01 -1.069254e-01 2.120314e-01 -9.295186e-02 -8.275416e-02 -1.266841e-01 6.245475e-03 8.896634e-02 2.377957e-01 9.715860e-03 9.756768e-02
<VARIANCE> 39
 3.448208e+02 1.603722e+02 1.899265e+02 1.686277e+02 1.909850e+02 2.126584e+02 2.051667e+02 1.967685e+02 2.080777e+02 1.974832e+02 1.763662e+02 1.856978e+02 2.970111e+02 2.777949e+01 1.514510e+01 1.284756e+01 2.223898e+01 2.100121e+01 2.782394e+01 2.117584e+01 2.061067e+01 1.882413e+01 1.716026e+01 1.726595e+01 1.497430e+01 2.945739e+01 4.864606e+00 3.079943e+00 2.702821e+00 4.045601e+00 3.666324e+00 4.536802e+00 4.480011e+00 3.746527e+00 3.983688e+00 3.332399e+00 3.204000e+00 2.858613e+00 3.513326e+00
<GCONST> 1.965536e+02
<MIXTURE> 3 2.858057e-01
<MEAN> 39
 6.719390e+00 1.359815e+00 1.934103e+01 1.633944e+01 1.245819e+01 6.362988e+00 -1.929667e+00 -1.026559e-01 -6.290370e+00 8.968078e+00 2.548795e+00 9.951431e-01 1.019010e+02 -5.651237e+00 9.535213e-01 -1.167562e+00 6.246685e-01 1.321267e-01 1.932004e+00 1.621394e+00 1.501065e+00 7.519343e-01 -1.401894e+00 -9.691485e-01 1.750670e-01 -2.925851e+00 -7.818283e-02 -2.679739e+00 -7.753645e-01 -3.048996e+00 -2.346815e+00 -2.541337e+00 -1.150480e+00 6.051106e-01 9.184906e-01 6.403462e-01 -2.498722e-01 -2.896857e-02 3.035060e+00
<VARIANCE> 39
 1.804119e+02 1.575719e+02 1.436835e+02 1.920600e+02 1.454614e+02 2.486965e+02 2.849853e+02 2.482491e+02 3.266191e+02 2.091400e+02 2.702501e+02 2.136110e+02 2.884044e+02 4.292049e+01 2.024784e+01 1.416495e+01 2.326428e+01 2.404752e+01 3.714581e+01 3.096097e+01 2.038059e+01 2.444099e+01 2.029768e+01 2.164757e+01 1.819478e+01 3.372333e+01 4.144726e+00 2.831698e+00 4.190551e+00 3.618527e+00 3.751206e+00 4.820978e+00 5.357579e+00 4.367738e+00 5.098759e+00 4.385228e+00 4.008420e+00 3.647890e+00 2.928101e+00
<GCONST> 2.011823e+02
<MIXTURE> 4 2.120309e-01
<MEAN> 39
