~o
<STREAMINFO> 1 39
<VECSIZE> 39<NULLD><MFCC_D_A_0><DIAGC>
~v "varFloor1"
<VARIANCE> 39
 6.753474e+00 3.412362e+00 5.607597e+00 4.796462e+00 3.472081e+00 4.011722e+00 4.412065e+00 3.618229e+00 3.682593e+00 3.039560e+00 2.639483e+00 2.510356e+00 1.295583e+01 2.277723e-01 1.546074e-01 2.184501e-01 2.118108e-01 1.813343e-01 2.097883e-01 2.257618e-01 2.166374e-01 2.009357e-01 1.748309e-01 1.664689e-01 1.534765e-01 2.729284e-01 3.005151e-02 2.352162e-02 2.950290e-02 3.333734e-02 2.970534e-02 3.528604e-02 3.796648e-02 3.764385e-02 3.477007e-02 3.067227e-02 2.924742e-02 2.697526e-02 3.680371e-02
~s "silst"
<NUMMIXES> 16
<MIXTURE> 1 2.676251e-02
<MEAN> 39
 -1.562292e+01 1.438748e+01 9.416011e+00 1.435708e+01 8.557958e+00 8.761486e+00 7.089408e+00 8.039536e+00 4.846511e+00 5.665728e+00 3.209367e+00 3.950828e+00 5.233543e+01 1.070429e-01 5.912352e-01 7.419811e-01 8.900577e-01 1.059540e+00 1.146449e+00 1.026107e+00 9.486490e-01 9.006581e-01 6.993695e-01 7.255126e-01 4.227919e-01 -9.268415e-02 8.451594e-02 -1.060122e-01 -9.807466e-02 -9.682991e-02 -1.260370e-01 -1.432599e-01 -9.479853e-02 -9.746838e-02 -1.330431e-01 -2.043024e-01 -2.778873e-01 -1.670363e-01 1.081338e-01
<VARIANCE> 39
 1.903567e+01 3.467834e+01 3.910932e+01 4.960725e+01 6.068085e+01 7.311393e+01 8.672646e+01 9.518940e+01 9.262874e+01 9.629103e+01 9.345482e+01 8.860503e+01 1.295583e+01 1.346474e+00 2.332941e+00 3.328210e+00 4.632076e+00 6.061862e+00 7.426177e+00 9.081395e+00 9.385617e+00 9.967549e+00 9.907928e+00 9.673518e+00 9.065046e+00 5.084358e-01 2.118456e-01 3.734990e-01 5.780909e-01 8.270862e-01 1.084910e+00 1.383227e+00 1.733243e+00 1.766849e+00 1.803362e+00 1.815258e+00 1.803747e+00 1.790529e+00 7.811898e-02
<GCONST> 1.424174e+02
<MIXTURE> 2 4.456903e-02
<MEAN> 39
 -2.487790e+01 4.653759e+00 -1.731418e+00 1.321852e+00 -5.501556e+00 -5.897827e+00 -7.527674e+00 -4.448993e+00 -4.012912e+00 1.508424e-01 7.930889e-01 2.696954e+00 4.836486e+01 6.782857e-01 8.106914e-01 1.038202e+00 1.235621e+00 1.326349e+00 1.491182e+00 1.544570e+00 1.218409e+00 9.442051e-01 7.525186e-01 3.693811e-01 2.457518e-01 3.280238e-01 3.494509e-01 1.625688e-01 3.113553e-01 4.502627e-01 5.607980e-01 7.085148e-01 8.017948e-01 6.953999e-01 4.404859e-01 1.991477e-01 -9.299590e-02 -7.194518e-02 2.946948e-01
<VARIANCE> 39
 2.436100e+01 2.462909e+01 3.405145e+01 4.409658e+01 5.405529e+01 6.668590e+01 7.583498e+01 8.461395e+01 8.867185e+01 9.005666e+01 9.079567e+01 8.153603e+01 1.295583e+01 1.410845e+00 2.019884e+00 3.498137e+00 4.504038e+00 5.628695e+00 6.716434e+00 8.426622e+00 9.239971e+00 1.000543e+01 9.878757e+00 9.474586e+00 8.849899e+00 6.677627e-01 3.204195e-01 4.642859e-01 7.322453e-01 9.598527e-01 1.163126e+00 1.405022e+00 1.642354e+00 1.861318e+00 1.887801e+00 1.971562e+00 1.938525e+00 1.770205e+00 1.606122e-01
<GCONST> 1.432812e+02
<MIXTURE> 3 6.771609e-02
<MEAN> 39
 -2.525798e+01 6.095648e+00 1.810619e-01 3.036260e+00 -3.576240e+00 -3.523650e+00 -4.744749e+00 -1.176500e+00 -9.669826e-01 2.022887e+00 1.962176e+00 3.095087e+00 4.759154e+01 3.273273e-02 1.664070e-01 2.384606e-01 2.756733e-01 2.883719e-01 2.940891e-01 2.525494e-01 3.146886e-01 4.540594e-01 5.876001e-01 6.910403e-01 4.797448e-01 -1.442919e-02 7.310455e-02 -2.845071e-02 -2.852661e-02 5.752412e-02 8.650689e-02 6.236695e-02 -1.070343e-02 -5.134037e-02 -4.297174e-02 -2.870756e-02 -3.234512e-02 -2.933610e-02 6.986762e-02
<VARIANCE> 39
 1.508369e+01 1.463433e+01 2.068674e+01 3.027240e+01 4.381728e+01 5.623219e+01 6.527618e+01 6.761845e+01 7.008221e+01 7.006325e+01 6.775401e+01 6.418504e+01 1.295583e+01 6.326541e-01 1.270663e+00 2.444543e+00 3.508643e+00 4.589608e+00 5.727707e+00 6.868234e+00 7.688181e+00 7.913427e+00 7.951473e+00 7.794672e+00 7.303750e+00 2.729284e-01 1.037144e-01 2.205684e-01 4.096030e-01 6.253992e-01 8.191188e-01 1.007303e+00 1.204087e+00 1.328447e+00 1.435914e+00 1.459148e+00 1.410517e+00 1.336102e+00 4.040096e-02
<GCONST> 1.285083e+02
<MIXTURE> 4 5.484014e-02
<MEAN> 39
 -2.601340e+01 1.462063e+00 -2.754970e+00 4.046896e+00 1.882191e+00 5.091443e+00 5.729161e+00 8.535680e+00 5.531950e+00 5.346571e+00 1.955597e+00 2.861597e+00 4.856355e+01 -2.742362e-01 3.211789e-01 5.627105e-01 6.254200e-01 6.629641e-01 6.499358e-01 4.911469e-01 4.375179e-01 7.367055e-01 1.033743e+00 1.031911e+00 6.698820e-01 -2.544970e-01 3.523557e-01 2.234112e-01 3.330745e-01 2.157129e-01 -8.043808e-02 -3.350413e-01 -4.508351e-01 -5.199925e-01 -5.259757e-01 -4.014105e-01 -2.719512e-01 -9.968978e-02 2.845646e-01
<VARIANCE> 39
 5.161040e+01 4.018851e+01 4.985403e+01 6.488473e+01 7.880656e+01 9.449487e+01 1.022166e+02 1.110744e+02 1.175357e+02 1.229849e+02 1.256071e+02 1.064856e+02 3.044074e+01 1.951263e+00 2.574451e+00 3.913274e+00 5.184569e+00 6.474028e+00 7.665065e+00 9.046771e+00 1.018982e+01 1.054594e+01 1.060928e+01 1.032133e+01 9.618966e+00 1.060187e+00 4.225883e-01 5.907540e-01 8.384418e-01 1.151417e+00 1.454784e+00 1.722354e+00 1.853058e+00 2.098114e+00 2.240933e+00 2.339262e+00 2.323858e+00 2.061298e+00 2.984643e-01
<GCONST> 1.534388e+02
<MIXTURE> 5 9.269215e-02
<MEAN> 39
 -2.749022e+01 3.859299e+00 -1.966773e+00 1.135701e+00 -5.899359e+00 -7.165248e+00 -1.003637e+01 -6.233774e+00 -3.724350e+00 1.372655e+00 2.316753e+00 3.173931e+00 4.647048e+01 1.238581e-01 1.951281e-01 2.486078e-01 3.453825e-01 4.060975e-01 4.146304e-01 3.746226e-01 3.518191e-01 3.624090e-01 4.116105e-01 3.424042e-01 2.637665e-01 4.988349e-02 1.695276e-01 7.737481e-02 9.443091e-02 9.781732e-02 1.870055e-01 3.599836e-01 5.268764e-01 4.908094e-01 2.203370e-01 2.418198e-02 -9.955150e-02 -3.891391e-02 1.416615e-01
<VARIANCE> 39
 1.276791e+01 1.740212e+01 2.541261e+01 3.576125e+01 4.867998e+01 6.065663e+01 6.986353e+01 7.535841e+01 7.730276e+01 7.776642e+01 7.481940e+01 6.746761e+01 1.295583e+01 5.617071e-01 1.208234e+00 2.265787e+00 3.367791e+00 4.442958e+00 5.432597e+00 6.488999e+00 7.310758e+00 7.695273e+00 7.661230e+00 7.398612e+00 6.912829e+00 2.729284e-01 1.577858e-01 3.024878e-01 5.445181e-01 7.963927e-01 1.027050e+00 1.180921e+00 1.374134e+00 1.545584e+00 1.637781e+00 1.665976e+00 1.619108e+00 1.441485e+00 7.756473e-02
<GCONST> 1.320057e+02
<MIXTURE> 6 6.496763e-02
<MEAN> 39
 -2.463898e+01 5.023333e+00 -6.494609e-01 3.549156e+00 -1.163599e+00 -1.976395e-02 -1.171918e+00 1.657020e+00 8.330348e-01 2.956770e+00 1.943622e+00 3.294039e+00 4.837217e+01 -1.165893e+00 1.046788e-02 1.209556e-01 -3.850887e-01 -6.423450e-01 -9.157909e-01 -1.361377e+00 -1.337761e+00 -4.219434e-01 5.456913e-01 9.736926e-01 6.620902e-01 -8.475471e-01 4.095146e-01 -1.977717e-01 6.549729e-02 2.008395e-01 1.380404e-01 9.056426e-02 2.569820e-01 2.651271e-01 -2.924018e-02 -1.568073e-01 -2.816647e-01 -1.419587e-01 5.140863e-01
<VARIANCE> 39
 2.658715e+01 2.780999e+01 4.020225e+01 5.145717e+01 6.408549e+01 8.022446e+01 9.231969e+01 9.779734e+01 1.009138e+02 1.007356e+02 9.986724e+01 9.116102e+01 1.329223e+01 2.465598e+00 3.483370e+00 5.038309e+00 5.958111e+00 7.150591e+00 8.901749e+00 1.023878e+01 1.123714e+01 1.127987e+01 1.167509e+01 1.121217e+01 9.781768e+00 1.459527e+00 3.939927e-01 6.864252e-01 9.416239e-01 1.143248e+00 1.363043e+00 1.687136e+00 1.912742e+00 2.099376e+00 2.125134e+00 2.178899e+00 2.161822e+00 1.937383e+00 3.403832e-01
<GCONST> 1.517848e+02
<MIXTURE> 7 4.512560e-02
<MEAN> 39
 -2.546151e+01 5.688345e+00 -1.097079e+00 1.017549e+00 -6.025111e+00 -5.931590e+00 -7.313395e+00 -3.772934e+00 -3.086801e+00 7.201639e-01 1.284481e+00 2.616430e+00 4.755464e+01 -3.667271e-01 -3.244276e-01 -3.605855e-01 -4.830285e-01 -5.688893e-01 -5.941670e-01 -6.167913e-01 -5.051342e-01 -3.087132e-01 -2.130930e-01 -5.224641e-02 3.218259e-02 -1.751300e-01 6.732205e-02 2.529994e-02 1.195847e-01 2.442188e-01 2.720511e-01 1.870168e-01 1.264273e-01 1.415254e-01 1.639335e-01 1.602082e-01 1.245016e-01 8.160979e-02 6.215469e-02
<VARIANCE> 39
 1.122647e+01 1.248365e+01 1.963396e+01 2.869204e+01 4.109117e+01 5.118034e+01 5.890258e+01 6.273006e+01 6.583600e+01 6.544108e+01 6.449303e+01 6.070138e+01 1.295583e+01 6.821228e-01 1.396833e+00 2.579197e+00 3.616794e+00 4.738975e+00 5.713520e+00 6.868865e+00 7.716182e+00 7.850154e+00 7.696012e+00 7.607766e+00 7.124132e+00 2.729284e-01 1.018877e-01 2.245462e-01 4.118016e-01 6.063015e-01 8.267741e-01 1.017342e+00 1.176809e+00 1.284956e+00 1.383472e+00 1.385229e+00 1.386454e+00 1.312487e+00 4.251410e-02
<GCONST> 1.274377e+02
<MIXTURE> 8 8.137215e-02
<MEAN> 39
 -1.866937e+01 9.526931e+00 3.956041e+00 8.873024e+00 2.962485e+00 3.346343e+00 2.022133e+00 3.276543e+00 -5.363010e-01 -6.728355e-01 -2.678846e+00 -2.338470e-01 5.164417e+01 -2.144124e-01 2.697306e-01 2.931725e-01 2.249798e-01 2.890295e-01 2.949603e-01 1.355656e-01 1.818466e-01 3.640531e-01 4.931715e-01 5.864168e-01 3.421511e-01 -2.396178e-01 -9.858990e-02 -2.539481e-01 -2.123643e-01 -2.159564e-01 -2.058935e-01 -1.642030e-01 -6.336971e-02 1.472927e-02 1.750841e-01 3.627505e-01 3.758413e-01 2.931924e-01 2.684498e-02
<VARIANCE> 39
 2.205192e+01 2.912354e+01 3.714825e+01 4.833257e+01 6.202114e+01 7.930934e+01 9.363556e+01 1.058673e+02 1.133466e+02 1.081233e+02 1.092293e+02 9.699047e+01 1.295583e+01 1.364497e+00 2.029564e+00 3.215269e+00 4.521276e+00 5.717219e+00 7.146321e+00 8.529722e+00 9.296548e+00 9.854649e+00 9.904217e+00 9.837631e+00 8.914145e+00 6.174769e-01 1.838483e-01 3.328279e-01 5.450416e-01 7.987424e-01 1.075451e+00 1.367121e+00 1.632268e+00 1.841959e+00 1.976861e+00 1.907405e+00 1.875218e+00 1.762643e+00 7.823553e-02
<GCONST> 1.427678e+02
<MIXTURE> 9 7.085781e-02
<MEAN> 39
 -2.807646e+01 3.207878e+00 -2.974184e+00 -1.935525e-01 -7.454420e+00 -8.663735e+00 -1.157579e+01 -7.719073e+00 -4.940754e+00 4.640121e-01 1.610138e+00 2.573096e+00 4.608197e+01 -1.635558e-01 -1.936234e-01 -2.381867e-01 -2.849543e-01 -3.385161e-01 -3.531763e-01 -4.021529e-01 -4.083879e-01 -3.597246e-01 -3.591411e-01 -4.324959e-01 -3.352928e-01 -7.486013e-02 1.106788e-01 6.563114e-02 1.013831e-01 9.786536e-02 1.844208e-01 3.249907e-01 4.834343e-01 4.665138e-01 2.215759e-01 3.520031e-02 -7.258791e-02 -1.547661e-02 1.011495e-01
<VARIANCE> 39
 1.043274e+01 1.712711e+01 2.526881e+01 3.538371e+01 4.853094e+01 5.849771e+01 6.616958e+01 7.253639e+01 7.594765e+01 7.639859e+01 7.378613e+01 6.698136e+01 1.295583e+01 5.243033e-01 1.223827e+00 2.252364e+00 3.270995e+00 4.444133e+00 5.385409e+00 6.346158e+00 7.179328e+00 7.440680e+00 7.454829e+00 7.399813e+00 6.714459e+00 2.729284e-01 1.371841e-01 3.012943e-01 5.342959e-01 7.824476e-01 1.036183e+00 1.179832e+00 1.340170e+00 1.507873e+00 1.623223e+00 1.632970e+00 1.594142e+00 1.447545e+00 6.965806e-02
<GCONST> 1.309831e+02
<MIXTURE> 10 8.769523e-02
<MEAN> 39
 -2.856503e+01 -4.356830e-01 -4.969837e+00 1.625398e+00 2.308753e-01 3.644902e+00 3.440837e+00 6.355569e+00 3.767653e+00 3.795392e+00 1.337610e+00 2.516052e+00 4.711106e+01 -4.629607e-01 -1.296252e-01 -9.682931e-02 -2.191434e-01 -3.007816e-01 -3.367145e-01 -4.602951e-01 -4.701051e-01 -2.384829e-01 4.521078e-02 5.594435e-02 -1.559792e-02 -2.963991e-01 2.220429e-01 1.808178e-01 2.619518e-01 9.435426e-02 -2.505631e-01 -5.237678e-01 -5.955878e-01 -6.043307e-01 -5.247964e-01 -3.157134e-01 -1.595544e-01 -4.687586e-02 1.990505e-01
<VARIANCE> 39
 3.915637e+01 3.151649e+01 4.336422e+01 5.699468e+01 7.250748e+01 8.490295e+01 9.627556e+01 1.016156e+02 1.106181e+02 1.104473e+02 1.136939e+02 1.006570e+02 2.318151e+01 1.586254e+00 2.267274e+00 3.474276e+00 4.758613e+00 6.041695e+00 7.385333e+00 8.604130e+00 9.845127e+00 1.021340e+01 1.017857e+01 9.869843e+00 9.008556e+00 8.774065e-01 3.430357e-01 5.302405e-01 7.877790e-01 1.119470e+00 1.395420e+00 1.591753e+00 1.827162e+00 2.028655e+00 2.159690e+00 2.262334e+00 2.281128e+00 2.031015e+00 2.661573e-01
<GCONST> 1.498183e+02
<MIXTURE> 11 7.830931e-02
<MEAN> 39
 -2.113520e+01 8.019224e+00 2.318633e+00 6.782484e+00 6.452884e-01 6.587451e-01 -9.752504e-01 8.248419e-01 -1.695669e+00 -6.897835e-01 -1.722769e+00 5.141928e-01 5.021113e+01 -5.893705e-01 -2.197494e-01 -2.894242e-01 -5.317108e-01 -6.140894e-01 -6.780737e-01 -8.335716e-01 -8.369035e-01 -6.785020e-01 -4.505707e-01 -3.839805e-01 -3.023673e-01 -3.795301e-01 -2.683777e-01 -4.240015e-01 -4.377647e-01 -4.897016e-01 -4.805916e-01 -4.450279e-01 -3.653891e-01 -2.337334e-01 -4.803318e-02 1.524918e-01 2.209711e-01 1.929012e-01 -5.700754e-02
<VARIANCE> 39
 2.042601e+01 2.223111e+01 3.167038e+01 4.278938e+01 5.869613e+01 7.479266e+01 8.901315e+01 9.795855e+01 1.058975e+02 1.064190e+02 9.999988e+01 9.331599e+01 1.295583e+01 1.343483e+00 2.007320e+00 3.208787e+00 4.438209e+00 5.708533e+00 7.181406e+00 8.587934e+00 9.285123e+00 9.670374e+00 9.631330e+00 9.679434e+00 8.706097e+00 6.250749e-01 1.889477e-01 3.221437e-01 5.514711e-01 7.805205e-01 1.063956e+00 1.313467e+00 1.610237e+00 1.822456e+00 1.995123e+00 1.992643e+00 1.900513e+00 1.789597e+00 8.537099e-02
<GCONST> 1.416516e+02
<MIXTURE> 12 8.282995e-02
<MEAN> 39
 -2.708984e+01 3.109065e+00 -3.271362e+00 -5.949525e-01 -7.439926e+00 -7.917006e+00 -1.002076e+01 -6.573563e+00 -5.348508e+00 -5.375963e-01 9.143826e-01 2.730165e+00 4.709422e+01 4.477668e-02 1.603559e-01 2.060775e-01 1.904767e-01 2.179061e-01 2.923985e-01 2.404289e-01 1.189961e-01 1.117285e-02 -8.175337e-02 -2.768495e-01 -2.216799e-01 4.113303e-03 1.839338e-01 1.513965e-02 1.583112e-01 2.624118e-01 3.800651e-01 4.678639e-01 5.699659e-01 5.316572e-01 3.118965e-01 1.324850e-01 -1.371199e-01 -1.194777e-01 2.339835e-01
<VARIANCE> 39
 1.945177e+01 2.397645e+01 3.204781e+01 4.118907e+01 5.137743e+01 6.302036e+01 7.390070e+01 8.130486e+01 8.857299e+01 8.984538e+01 8.878419e+01 7.964813e+01 1.295583e+01 1.164727e+00 1.876150e+00 3.125875e+00 4.248714e+00 5.408463e+00 6.620892e+00 8.014139e+00 8.810791e+00 9.428408e+00 9.280549e+00 8.979650e+00 8.164862e+00 5.857437e-01 2.967238e-01 4.572419e-01 7.075177e-01 9.613164e-01 1.173740e+00 1.378937e+00 1.628377e+00 1.823260e+00 1.913707e+00 1.933284e+00 1.951320e+00 1.750919e+00 1.774838e-01
<GCONST> 1.416283e+02
<MIXTURE> 13 8.522881e-02
<MEAN> 39
 -2.648632e+01 5.265754e+00 -9.894106e-01 1.377589e+00 -5.804288e+00 -6.000355e+00 -7.449699e+00 -3.513056e+00 -2.444701e+00 1.149388e+00 1.482982e+00 2.718488e+00 4.682487e+01 -1.920254e-01 -1.647954e-01 -1.881285e-01 -2.577376e-01 -3.397632e-01 -3.580932e-01 -3.931636e-01 -3.409947e-01 -2.643001e-01 -2.058168e-01 -1.429427e-01 -1.471405e-01 -9.605722e-02 -2.989374e-02 -1.040060e-01 -1.032238e-01 -6.403201e-02 -4.114041e-02 -9.549116e-02 -1.734443e-01 -1.911265e-01 -1.460367e-01 -6.748060e-02 -2.796038e-02 -3.233063e-02 1.354380e-02
<VARIANCE> 39
 1.002957e+01 1.251982e+01 1.882764e+01 2.781961e+01 4.093491e+01 5.246782e+01 5.922635e+01 6.392187e+01 6.583901e+01 6.542836e+01 6.355973e+01 5.926799e+01 1.295583e+01 5.390022e-01 1.178976e+00 2.265971e+00 3.298854e+00 4.392849e+00 5.354780e+00 6.481230e+00 7.281971e+00 7.404083e+00 7.396800e+00 7.249630e+00 6.804960e+00 2.729284e-01 9.116420e-02 2.074747e-01 3.910359e-01 5.759051e-01 7.799652e-01 9.715447e-01 1.119708e+00 1.274163e+00 1.362449e+00 1.395769e+00 1.374864e+00 1.277952e+00 3.781580e-02
<GCONST> 1.255704e+02
<MIXTURE> 14 4.066488e-02
<MEAN> 39
 -2.594532e+01 4.293069e+00 -1.563412e+00 2.108841e+00 -2.965306e+00 -1.960046e+00 -3.326720e+00 -3.927734e-01 -7.933866e-01 2.230405e+00 1.785882e+00 3.099079e+00 4.751444e+01 -1.421782e+00 -4.367552e-01 -5.595492e-01 -1.258009e+00 -1.600886e+00 -1.941691e+00 -2.422536e+00 -2.382607e+00 -1.349827e+00 -5.646340e-01 -9.224433e-02 -8.405185e-02 -9.630138e-01 3.209201e-01 -2.372049e-01 -3.153769e-02 7.515888e-02 1.641399e-02 -4.783171e-02 9.883773e-02 1.667551e-01 -6.874877e-02 -1.962574e-01 -2.836335e-01 -1.361062e-01 4.592093e-01
<VARIANCE> 39
 2.166467e+01 2.646199e+01 3.777131e+01 4.642506e+01 6.089272e+01 7.678259e+01 8.784485e+01 9.342536e+01 9.767909e+01 9.471990e+01 9.186753e+01 8.422042e+01 1.295583e+01 2.333709e+00 3.685964e+00 5.151711e+00 5.885422e+00 7.424553e+00 9.000070e+00 1.016411e+01 1.132878e+01 1.153034e+01 1.169044e+01 1.096207e+01 9.390003e+00 1.448016e+00 3.651188e-01 6.311024e-01 8.867617e-01 1.104320e+00 1.327143e+00 1.647949e+00 1.853289e+00 2.066158e+00 2.143831e+00 2.161573e+00 2.064554e+00 1.832557e+00 3.145510e-01
<GCONST> 1.503727e+02
<MIXTURE> 15 2.239451e-02
<MEAN> 39
 -2.621499e+01 4.940963e+00 -2.100293e+00 2.475983e-02 -7.074069e+00 -7.101935e+00 -8.712942e+00 -5.064464e+00 -4.213558e+00 1.355138e-01 1.073335e+00 2.276888e+00 4.705626e+01 -6.905927e-01 -7.541608e-01 -8.714143e-01 -1.160742e+00 -1.286706e+00 -1.340221e+00 -1.393454e+00 -1.289176e+00 -1.112936e+00 -1.059069e+00 -9.034630e-01 -5.621326e-01 -3.061699e-01 -6.597457e-03 -2.331874e-02 8.642451e-02 1.569803e-01 1.734148e-01 9.968264e-02 5.442072e-02 7.701211e-02 1.374661e-01 1.040408e-01 4.772370e-02 4.509494e-02 2.421879e-02
<VARIANCE> 39
 9.641661e+00 1.234164e+01 1.932730e+01 2.756861e+01 3.863007e+01 4.843752e+01 5.577137e+01 6.018793e+01 6.388182e+01 6.296692e+01 6.358668e+01 6.116954e+01 1.295583e+01 6.980287e-01 1.456265e+00 2.578457e+00 3.773913e+00 4.727827e+00 5.761520e+00 6.856327e+00 7.994548e+00 7.783474e+00 7.596578e+00 7.706341e+00 7.067590e+00 2.729284e-01 9.896732e-02 2.297004e-01 4.283754e-01 5.958542e-01 8.070815e-01 1.031472e+00 1.176728e+00 1.284727e+00 1.358036e+00 1.323582e+00 1.427974e+00 1.334127e+00 4.343068e-02
<GCONST> 1.270686e+02
<MIXTURE> 16 5.377841e-02
<MEAN> 39
 -1.842067e+01 1.116721e+01 6.453185e+00 1.147855e+01 5.619308e+00 5.851815e+00 4.443675e+00 6.261430e+00 3.983974e+00 5.107993e+00 3.157603e+00 3.643419e+00 5.138443e+01 -4.337998e-01 1.925151e-02 2.488001e-02 -3.772694e-02 3.047988e-02 3.394598e-02 -2.025435e-01 -2.465364e-01 -1.179764e-01 -6.734355e-02 2.238964e-02 -6.296325e-02 -3.483431e-01 -1.141561e-01 -3.746007e-01 -4.384337e-01 -4.909768e-01 -5.264689e-01 -5.080855e-01 -4.321950e-01 -4.528739e-01 -5.117702e-01 -5.080333e-01 -5.203157e-01 -3.140204e-01 3.430571e-02
<VARIANCE> 39
 1.979897e+01 2.882232e+01 3.825023e+01 5.222383e+01 6.826648e+01 8.558009e+01 9.771586e+01 1.005100e+02 9.908376e+01 9.467630e+01 9.835234e+01 9.027547e+01 1.295583e+01 1.349337e+00 2.240709e+00 3.433111e+00 4.781939e+00 5.991982e+00 7.352785e+00 8.704454e+00 9.350964e+00 9.868136e+00 9.540405e+00 9.814389e+00 8.875763e+00 5.654413e-01 2.091648e-01 3.859428e-01 6.171339e-01 8.720661e-01 1.144117e+00 1.474883e+00 1.721235e+00 1.797723e+00 1.823599e+00 1.716915e+00 1.772708e+00 1.677142e+00 8.344874e-02
<GCONST> 1.430836e+02
~h "f"
<BEGINHMM>
<NUMSTATES> 5
<STATE> 2
<NUMMIXES> 16
<MIXTURE> 1 2.389912e-02
<MEAN> 39
 -3.000645e+01 -1.072588e+01 1.103758e+00 3.723425e+00 -4.443556e+00 -3.039833e+00 -9.973088e+00 -2.482200e+00 -9.621693e+00 -2.154181e+00 -1.003729e+01 -2.964997e+00 9.142203e+01 -7.783805e-01 -3.086379e-02 7.581861e-01 1.624352e+00 2.349470e+00 3.310840e+00 3.210492e+00 3.019676e+00 2.685771e+00 2.602369e+00 2.070125e+00 1.201499e+00 -9.693699e-02 1.271018e+00 2.579775e-01 1.056088e-01 -2.540109e-01 4.978170e-01 5.368210e-01 7.568086e-01 5.279203e-01 7.843032e-01 1.045866e+00 9.672903e-01 6.770166e-01 5.814141e-01
<VARIANCE> 39
 1.170405e+02 9.784249e+01 6.767332e+01 8.612967e+01 1.019683e+02 1.240627e+02 1.381688e+02 1.316528e+02 1.813837e+02 1.709755e+02 1.736251e+02 1.928013e+02 3.057775e+02 1.193938e+01 9.057247e+00 8.763435e+00 9.136026e+00 1.054327e+01 1.196979e+01 1.134964e+01 1.440755e+01 1.493307e+01 1.614552e+01 1.687957e+01 1.534741e+01 2.012717e+01 4.457649e+00 1.757275e+00 1.624135e+00 2.666275e+00 2.285179e+00 2.799709e+00 2.783607e+00 3.038706e+00 3.299946e+00 3.740339e+00 3.800405e+00 3.422678e+00 3.356210e+00
<GCONST> 1.822813e+02
<MIXTURE> 2 3.520071e-02
<MEAN> 39
 -2.630988e+01 -5.829995e+00 5.933285e+00 1.038642e+01 4.585608e+00 6.550269e+00 5.033005e-01 6.838856e+00 5.792455e-01 8.347019e+00 -2.851438e-01 3.952327e+00 8.358336e+01 -8.725985e-01 -4.796343e-01 2.493818e-01 5.290638e-01 7.359179e-01 1.410107e+00 1.067207e+00 1.003184e+00 1.095397e+00 1.291149e+00 9.272770e-01 7.608764e-01 1.149282e+00 1.433071e+00 -2.773190e-01 -6.116232e-01 -1.486199e+00 -7.359405e-01 -7.768741e-01 -5.617724e-01 -7.474571e-01 -6.553413e-01 -3.914465e-01 -3.948898e-01 -2.904253e-01 1.291231e+00
<VARIANCE> 39
 1.880996e+02 1.242782e+02 1.210559e+02 1.043143e+02 1.406187e+02 1.529965e+02 1.513974e+02 1.560177e+02 1.659516e+02 1.665980e+02 1.330968e+02 1.294481e+02 3.521708e+02 2.888569e+01 1.318220e+01 1.123922e+01 1.192087e+01 1.158936e+01 1.377662e+01 1.416704e+01 1.507614e+01 1.423511e+01 1.474673e+01 1.378894e+01 1.247954e+01 3.603647e+01 7.185812e+00 2.766556e+00 2.704213e+00 3.423225e+00 3.194298e+00 3.518670e+00 3.833297e+00 3.974355e+00 3.830961e+00 3.991013e+00 3.323722e+00 2.825869e+00 5.413074e+00
<GCONST> 1.894427e+02
<MIXTURE> 3 1.073009e-01
<MEAN> 39
 -3.657557e+01 -1.930015e+01 -4.239004e+00 8.821577e-01 -4.493454e+00 -1.927502e+00 -7.987058e+00 3.361708e-01 -4.882483e+00 4.913948e+00 -2.962567e+00 3.608945e+00 9.746820e+01 -2.307432e-01 5.017880e-02 -8.796184e-02 2.784649e-01 7.807676e-01 1.294086e+00 1.051992e+00 8.270826e-01 7.455770e-01 9.986137e-01 8.597330e-01 4.207355e-01 2.282261e-01 1.489232e+00 8.210083e-01 7.392455e-01 4.084359e-01 6.416615e-01 4.556464e-01 5.525948e-01 2.133994e-01 1.356956e-01 2.818397e-02 -3.133617e-03 -5.146794e-02 2.120054e-01
<VARIANCE> 39
 6.503017e+01 5.461045e+01 6.098695e+01 7.083479e+01 7.911111e+01 9.010522e+01 9.854357e+01 1.019576e+02 9.388390e+01 9.290878e+01 9.394142e+01 8.342950e+01 2.075414e+02 4.698032e+00 3.711468e+00 4.939767e+00 6.102313e+00 7.067899e+00 8.070919e+00 9.210711e+00 9.623029e+00 9.748589e+00 9.765676e+00 9.733074e+00 9.028853e+00 7.225823e+00 1.673812e+00 9.783155e-01 1.199974e+00 1.660044e+00 1.699690e+00 1.844794e+00 2.014843e+00 1.963374e+00 1.932842e+00 1.977215e+00 1.965858e+00 1.734980e+00 1.293449e+00
<GCONST> 1.620137e+02
<MIXTURE> 4 5.065998e-02
<MEAN> 39
 -3.462289e+01 -1.799755e+01 4.464068e-01 5.222175e+00 -2.328704e+00 -3.593965e+00 -9.325033e+00 5.537317e-01 -3.021843e+00 5.270769e+00 -2.249490e+00 5.027388e+00 1.005203e+02 -3.676173e+00 -2.671939e+00 -3.890348e+00 -2.978863e+00 -1.931988e+00 -7.985878e-01 -1.173049e+00 8.041520e-02 7.212663e-01 1.142570e+00 1.052986e+00 7.330341e-01 -7.902174e-01 2.847247e+00 1.660750e+00 1.564117e+00 3.273036e-01 6.433294e-01 9.131108e-01 1.216309e+00 8.160999e-02 -5.890206e-01 -1.044219e-01 -3.768363e-01 -3.008491e-01 2.259026e-01
<VARIANCE> 39
 7.828340e+01 6.054244e+01 8.668988e+01 9.432356e+01 1.139919e+02 1.218244e+02 1.227842e+02 1.494463e+02 1.525448e+02 1.313433e+02 1.227170e+02 1.087639e+02 1.813840e+02 1.285773e+01 7.495483e+00 8.549343e+00 9.344980e+00 1.050432e+01 1.219879e+01 1.236138e+01 1.452137e+01 1.415876e+01 1.332924e+01 1.200790e+01 1.119059e+01 1.052374e+01 1.610620e+00 1.372565e+00 2.257348e+00 3.331167e+00 2.998302e+00 2.587964e+00 3.117198e+00 4.046167e+00 4.331841e+00 3.501659e+00 3.121213e+00 2.810893e+00 1.625629e+00
<GCONST> 1.773691e+02
<MIXTURE> 5 1.013416e-01
<MEAN> 39
 -3.477606e+01 -1.658241e+01 -2.009332e+00 2.127950e+00 -3.123240e+00 -4.047629e-01 -7.084314e+00 2.469022e-01 -5.429925e+00 4.293142e+00 -3.224677e+00 3.199672e+00 9.139376e+01 -4.269710e-01 -2.718687e-01 -4.765973e-01 -5.212256e-01 -4.614771e-01 -2.886033e-01 -8.957818e-01 -9.782076e-01 -1.108290e+00 -7.904285e-01 -4.996927e-01 -1.475502e-01 1.039006e+00 1.030327e+00 4.881401e-01 3.825169e-01 3.140603e-01 4.508396e-01 2.641969e-01 4.309646e-01 2.345596e-01 2.611989e-01 1.245500e-01 8.769700e-02 2.223856e-02 3.411220e-01
<VARIANCE> 39
 6.921742e+01 6.190568e+01 5.448106e+01 5.836360e+01 7.007368e+01 8.592077e+01 9.695787e+01 1.020049e+02 1.037069e+02 1.024063e+02 9.495797e+01 8.960964e+01 2.606688e+02 4.725039e+00 4.416939e+00 4.964219e+00 6.019980e+00 6.958591e+00 8.254972e+00 9.628224e+00 9.558916e+00 9.760406e+00 9.733607e+00 9.556845e+00 9.221386e+00 9.355275e+00 1.326145e+00 9.895031e-01 1.015702e+00 1.289738e+00 1.459116e+00 1.821299e+00 2.125601e+00 2.107919e+00 2.055642e+00 2.112170e+00 1.933459e+00 1.832087e+00 1.659694e+00
<GCONST> 1.624254e+02
<MIXTURE> 6 8.016064e-02
<MEAN> 39
 -3.091907e+01 -7.013206e+00 1.976180e+00 5.821331e+00 -1.401058e+00 1.213616e+00 -5.800415e+00 3.366949e-02 -6.316288e+00 1.766747e+00 -4.098262e+00 1.268162e+00 7.628464e+01 -7.189180e-01 -7.713509e-01 4.404247e-02 1.062653e-01 4.472243e-01 9.442561e-01 7.339817e-01 7.989551e-01 4.117377e-01 5.650040e-01 2.736641e-01 2.563757e-01 1.777130e+00 1.084878e+00 -2.679346e-01 -2.125388e-01 -4.751247e-01 -2.097093e-02 -1.189694e-01 2.134663e-01 1.210148e-01 4.103058e-01 4.728928e-01 1.889334e-01 2.038768e-01 1.601859e+00
<VARIANCE> 39
 1.220260e+02 8.953170e+01 5.676298e+01 5.774448e+01 6.772148e+01 8.470170e+01 9.524158e+01 9.525420e+01 9.447075e+01 8.797593e+01 9.235352e+01 7.868413e+01 3.219150e+02 8.960848e+00 9.915869e+00 5.776568e+00 6.357670e+00 7.413009e+00 8.233004e+00 9.538297e+00 9.547905e+00 1.007610e+01 1.003879e+01 9.844709e+00 8.760528e+00 2.925158e+01 3.391585e+00 1.640458e+00 1.200042e+00 1.469414e+00 1.537182e+00 1.888171e+00 2.096213e+00 2.110810e+00 1.994257e+00 2.052181e+00 1.977028e+00 1.727738e+00 4.720872e+00
<GCONST> 1.687182e+02
<MIXTURE> 7 5.774266e-02
<MEAN> 39
 -2.924916e+01 -9.264816e+00 1.641730e+00 5.260195e+00 5.100186e-01 3.456476e+00 -1.079806e+00 6.779781e+00 2.534032e+00 1.101992e+01 2.209241e+00 5.805585e+00 7.979930e+01 -1.306494e+00 -2.061346e+00 -9.092416e-01 -1.057944e+00 -8.881227e-01 -7.461612e-01 -1.534012e+00 -9.039016e-01 -7.974392e-01 -3.651709e-01 -1.388064e-01 2.789676e-01 3.035224e+00 1.458714e+00 2.869509e-01 1.072601e-01 -3.132525e-01 -1.185055e-01 -2.294007e-01 -1.894152e-01 -7.058783e-01 -8.091881e-01 -7.516042e-01 -7.209794e-01 -4.451672e-01 1.288602e+00
<VARIANCE> 39
 1.390699e+02 1.059496e+02 8.818182e+01 8.491271e+01 9.796896e+01 1.091149e+02 1.210306e+02 1.192935e+02 1.071585e+02 1.013059e+02 9.902356e+01 1.022667e+02 3.569204e+02 1.640466e+01 1.286430e+01 8.739417e+00 9.543330e+00 9.835443e+00 1.085866e+01 1.178329e+01 1.176261e+01 1.224987e+01 1.266230e+01 1.154423e+01 1.081661e+01 3.882315e+01 4.445311e+00 2.081400e+00 2.008189e+00 2.338484e+00 2.279639e+00 2.474625e+00 2.915694e+00 2.591705e+00 2.514583e+00 2.466485e+00 2.531788e+00 2.255252e+00 5.322674e+00
<GCONST> 1.791157e+02
<MIXTURE> 8 3.651636e-02
<MEAN> 39
 -3.104867e+01 -1.340197e+01 6.380897e+00 1.119869e+01 4.601835e+00 4.330796e+00 -1.154861e+00 5.405214e+00 -1.967239e+00 5.625020e+00 -2.831641e+00 2.936769e+00 1.012645e+02 -7.743414e+00 -5.021527e+00 -4.798510e+00 -3.441046e+00 -4.111086e+00 -3.598817e+00 -4.183717e+00 -1.677045e+00 -6.326874e-01 -5.760130e-01 -2.265606e-01 -5.814173e-01 -9.810706e-01 3.453104e+00 1.075517e+00 2.394349e-01 -1.384974e+00 -4.134871e-01 -3.914491e-01 1.894035e-01 -1.037325e+00 -7.192201e-01 2.321137e-01 -2.309074e-01 4.587667e-01 4.299432e-01
<VARIANCE> 39
 7.209830e+01 6.617941e+01 9.008313e+01 9.389600e+01 1.085713e+02 1.197643e+02 1.174914e+02 1.311468e+02 1.346373e+02 1.268231e+02 1.101093e+02 1.077873e+02 1.513027e+02 2.040083e+01 9.993318e+00 1.191778e+01 1.318873e+01 1.121228e+01 1.144984e+01 1.292780e+01 1.350631e+01 1.406050e+01 1.298790e+01 1.220801e+01 1.184809e+01 1.103921e+01 1.725492e+00 1.998908e+00 3.187860e+00 5.009124e+00 3.233775e+00 3.300309e+00 3.820500e+00 4.676758e+00 4.693732e+00 3.647710e+00 3.517780e+00 3.563926e+00 1.642111e+00
<GCONST> 1.805523e+02
<MIXTURE> 9 1.452626e-01
<MEAN> 39
 -3.787296e+01 -2.043601e+01 -5.464697e+00 -1.955906e-01 -5.426877e+00 -2.839116e+00 -9.853757e+00 -1.407713e+00 -6.178988e+00 3.956419e+00 -3.382164e+00 2.963202e+00 9.442680e+01 -7.163798e-01 -3.345431e-01 -5.883240e-01 -3.793895e-01 -2.143623e-01 2.488339e-01 -8.595969e-02 -1.491725e-01 -2.724924e-01 -3.325879e-02 -1.427546e-01 -1.618625e-01 4.535995e-01 1.020119e+00 5.274519e-01 4.858488e-01 3.019786e-01 4.082510e-01 2.469899e-01 3.921503e-01 1.106972e-01 5.433014e-02 -7.699956e-02 -8.505706e-02 -8.595364e-02 2.052955e-01
<VARIANCE> 39
 6.058490e+01 5.429887e+01 6.010806e+01 7.003630e+01 7.942220e+01 8.908946e+01 9.823486e+01 1.047866e+02 1.020469e+02 9.283924e+01 9.659406e+01 8.941817e+01 2.010136e+02 4.117198e+00 3.740756e+00 4.854496e+00 6.060165e+00 7.066944e+00 7.892303e+00 9.223408e+00 9.609721e+00 9.657857e+00 9.652962e+00 9.569985e+00 9.235771e+00 6.546898e+00 1.245764e+00 9.356740e-01 1.120094e+00 1.433603e+00 1.683174e+00 1.841599e+00 2.038799e+00 2.035528e+00 1.999026e+00 1.940431e+00 1.949994e+00 1.778071e+00 1.227425e+00
<GCONST> 1.612510e+02
<MIXTURE> 10 6.606428e-02
<MEAN> 39
 -3.504338e+01 -1.842970e+01 -3.229069e+00 7.059896e-01 -4.830992e+00 -1.875787e+00 -8.187302e+00 -1.533213e+00 -6.617613e+00 3.052746e+00 -4.076944e+00 2.532872e+00 9.005289e+01 -9.177497e-01 -8.090729e-01 -9.490331e-01 -1.102062e+00 -1.421933e+00 -1.390191e+00 -2.123062e+00 -2.033297e+00 -2.269009e+00 -1.995263e+00 -1.728004e+00 -9.094255e-01 1.543874e+00 7.376266e-01 4.854230e-01 2.056339e-01 2.310017e-01 3.403924e-01 1.864109e-01 2.497407e-01 1.650796e-01 2.025746e-01 7.459787e-02 9.110080e-02 -1.581398e-02 1.226560e-01
<VARIANCE> 39
 6.517175e+01 6.320741e+01 5.184241e+01 5.722440e+01 7.124829e+01 8.721157e+01 1.051511e+02 1.109028e+02 1.093009e+02 1.088859e+02 1.004436e+02 9.532740e+01 2.410900e+02 4.824402e+00 4.795241e+00 5.062117e+00 6.589910e+00 7.368311e+00 8.574098e+00 1.014163e+01 1.029366e+01 9.951034e+00 1.005625e+01 1.009275e+01 9.592405e+00 9.696130e+00 1.087995e+00 1.083841e+00 9.548515e-01 1.196903e+00 1.431909e+00 1.779552e+00 2.183777e+00 2.169797e+00 2.065493e+00 2.274851e+00 1.985606e+00 1.909884e+00 1.714392e+00
<GCONST> 1.632328e+02
<MIXTURE> 11 8.502652e-02
<MEAN> 39
 -3.021879e+01 -8.481489e+00 5.950236e-01 4.525456e+00 -3.034184e+00 -3.270347e-01 -7.749794e+00 -2.249451e+00 -8.021111e+00 4.493839e-01 -5.510949e+00 1.563443e-01 7.478738e+01 -1.254285e+00 -1.783205e+00 -4.816810e-01 -5.781907e-01 -3.825107e-01 -3.788720e-02 -7.555802e-01 -4.015872e-01 -9.084747e-01 -6.799859e-01 -8.545753e-01 -4.967843e-01 2.847537e+00 5.529615e-01 -2.281335e-01 -2.671382e-01 -4.129577e-01 -6.555059e-02 -1.494590e-01 1.708883e-01 1.866110e-01 4.460330e-01 4.339465e-01 2.972817e-01 2.940128e-01 1.329410e+00
<VARIANCE> 39
 1.174834e+02 9.631694e+01 5.523995e+01 5.665670e+01 7.012440e+01 8.394240e+01 9.386247e+01 9.115105e+01 9.488947e+01 8.514287e+01 9.299227e+01 8.125369e+01 2.871128e+02 9.256396e+00 1.090494e+01 5.620756e+00 6.177260e+00 7.584071e+00 8.397384e+00 9.780976e+00 9.430001e+00 9.850142e+00 9.552255e+00 9.682051e+00 8.901641e+00 2.786617e+01 3.061293e+00 1.893579e+00 1.107671e+00 1.302589e+00 1.581989e+00 1.846921e+00 2.057661e+00 1.971703e+00 1.975487e+00 1.966617e+00 1.973705e+00 1.750784e+00 5.139591e+00
<GCONST> 1.683807e+02
<MIXTURE> 12 4.385963e-02
<MEAN> 39
 -2.890733e+01 -1.044571e+01 1.504686e+00 4.277106e+00 -2.801606e-01 2.624474e+00 -1.882954e+00 4.770045e+00 5.126750e-01 9.029035e+00 7.774686e-01 4.398641e+00 7.918491e+01 -2.272208e+00 -3.465934e+00 -1.859809e+00 -2.181242e+00 -2.140658e+00 -2.175696e+00 -3.298486e+00 -2.304299e+00 -2.259101e+00 -1.928243e+00 -1.601308e+00 -7.015947e-01 3.913585e+00 9.837690e-01 2.736667e-01 -1.199941e-01 -1.639143e-01 -1.675726e-01 -3.279194e-01 -2.602760e-01 -6.658340e-01 -7.242687e-01 -6.999193e-01 -5.400472e-01 -3.155460e-01 9.916528e-01
<VARIANCE> 39
 1.243686e+02 1.205350e+02 8.344247e+01 9.057370e+01 9.957893e+01 1.115996e+02 1.238607e+02 1.182826e+02 1.019778e+02 1.080716e+02 1.094678e+02 1.015616e+02 3.160452e+02 1.705063e+01 1.294263e+01 8.525347e+00 1.000149e+01 1.022402e+01 1.121705e+01 1.293363e+01 1.263774e+01 1.317273e+01 1.374421e+01 1.235061e+01 1.139049e+01 3.507404e+01 4.169638e+00 2.332688e+00 1.864796e+00 2.161447e+00 2.195609e+00 2.467851e+00 3.008420e+00 2.551177e+00 2.276084e+00 2.457067e+00 2.676628e+00 2.298647e+00 5.419816e+00
<GCONST> 1.795194e+02
<MIXTURE> 13 4.588806e-02
<MEAN> 39
 -2.840945e+01 -6.743442e+00 6.077114e+00 1.021659e+01 4.384490e+00 6.420419e+00 -3.352747e-01 5.426492e+00 -7.690217e-01 7.840708e+00 -1.227218e+00 3.436689e+00 8.424012e+01 -3.543683e+00 -2.133823e+00 -9.772869e-01 -5.522467e-01 -8.944596e-01 -4.654641e-01 -1.068536e+00 -4.004881e-01 -1.315617e-01 -6.454790e-02 -9.193226e-02 3.262776e-02 6.440907e-01 1.686107e+00 -3.541727e-01 -8.148038e-01 -1.459988e+00 -8.654914e-01 -9.234084e-01 -6.669348e-01 -6.530061e-01 -7.290759e-01 -4.574175e-01 -2.887519e-01 -1.919944e-01 1.336750e+00
<VARIANCE> 39
 1.479824e+02 1.184419e+02 1.193137e+02 1.113525e+02 1.394717e+02 1.485998e+02 1.612642e+02 1.630240e+02 1.780165e+02 1.742242e+02 1.492543e+02 1.298376e+02 3.683215e+02 3.581511e+01 1.330034e+01 1.124385e+01 1.238457e+01 1.204163e+01 1.366586e+01 1.388515e+01 1.442774e+01 1.452598e+01 1.508619e+01 1.432853e+01 1.205324e+01 3.114860e+01 5.688992e+00 2.731698e+00 3.001672e+00 3.300186e+00 3.473582e+00 3.747422e+00 4.253306e+00 3.983909e+00 4.265362e+00 4.283582e+00 3.603102e+00 3.018901e+00 4.876451e+00
<GCONST> 1.899773e+02
<MIXTURE> 14 5.121415e-02
<MEAN> 39
 -3.410359e+01 -1.821636e+01 -6.465557e-01 3.640263e+00 -3.918276e+00 -5.180696e+00 -1.086180e+01 -1.434826e+00 -4.634944e+00 4.347694e+00 -3.740329e+00 3.243237e+00 1.014298e+02 -4.472741e+00 -3.503477e+00 -4.877712e+00 -4.261323e+00 -3.598766e+00 -2.484569e+00 -3.028951e+00 -1.864319e+00 -1.101102e+00 -6.429874e-01 -3.720723e-01 -2.368858e-01 -6.745788e-01 2.843814e+00 1.554952e+00 1.583901e+00 4.217342e-01 7.585681e-01 9.069800e-01 1.242794e+00 1.841804e-01 -4.708279e-01 -4.214448e-02 -2.131252e-01 -6.107950e-02 1.575630e-01
<VARIANCE> 39
 7.694236e+01 6.162377e+01 8.778231e+01 9.768403e+01 1.058099e+02 1.185157e+02 1.165032e+02 1.370945e+02 1.474696e+02 1.225035e+02 1.179826e+02 1.079780e+02 1.649478e+02 1.262052e+01 7.525721e+00 9.952263e+00 1.021932e+01 1.017953e+01 1.107035e+01 1.162151e+01 1.314684e+01 1.495216e+01 1.303370e+01 1.176951e+01 1.140009e+01 1.053319e+01 1.758449e+00 1.541216e+00 2.386337e+00 3.168994e+00 2.881705e+00 2.639832e+00 3.005283e+00 3.839224e+00 4.352496e+00 3.451262e+00 3.031891e+00 2.966520e+00 1.512543e+00
<GCONST> 1.769433e+02
<MIXTURE> 15 4.749867e-02
<MEAN> 39
 -3.217059e+01 -1.312714e+01 8.602066e-02 3.767394e+00 -4.615472e+00 -3.022639e+00 -1.102369e+01 -3.560034e+00 -1.094725e+01 -3.547163e+00 -1.118272e+01 -3.243109e+00 8.836915e+01 -1.837182e+00 -4.558331e-01 -6.110786e-02 7.343509e-01 9.278314e-01 1.919158e+00 1.417997e+00 1.214593e+00 6.338653e-01 8.298959e-01 4.360957e-01 7.320981e-02 -3.341126e-01 6.690365e-01 1.883951e-01 -1.520085e-01 -2.558637e-01 2.056023e-01 1.700194e-01 5.721536e-01 4.831306e-01 7.763260e-01 9.147131e-01 9.783210e-01 7.287878e-01 3.297083e-01
<VARIANCE> 39
 1.294339e+02 8.390878e+01 7.193816e+01 7.568724e+01 8.969711e+01 1.192818e+02 1.334118e+02 1.368957e+02 1.594076e+02 1.462159e+02 1.572988e+02 1.521858e+02 2.552506e+02 1.144180e+01 7.577130e+00 7.460474e+00 7.842687e+00 9.674746e+00 1.096221e+01 1.099483e+01 1.323925e+01 1.322826e+01 1.242820e+01 1.401338e+01 1.340526e+01 1.694362e+01 2.942580e+00 1.566125e+00 1.442911e+00 1.767861e+00 1.916088e+00 2.338881e+00 2.707692e+00 2.826147e+00 2.969660e+00 2.974689e+00 3.083396e+00 2.857123e+00 3.035063e+00
<GCONST> 1.771532e+02
<MIXTURE> 16 2.231828e-02
<MEAN> 39
 -3.335368e+01 -1.444570e+01 4.069179e+00 8.369290e+00 8.326291e-01 1.528082e+00 -3.749745e+00 4.127649e+00 -3.771943e+00 4.038227e+00 -3.642248e+00 1.952223e+00 1.013028e+02 -7.349287e+00 -5.364783e+00 -5.531926e+00 -4.811667e+00 -5.846346e+00 -5.062823e+00 -5.937026e+00 -3.688545e+00 -3.035509e+00 -2.527612e+00 -1.889882e+00 -1.679663e+00 -8.383411e-01 3.550015e+00 1.236998e+00 5.038986e-01 -9.168199e-01 1.434635e-02 -2.799188e-01 4.167303e-01 -1.013611e+00 -4.545863e-01 2.313842e-01 -2.067902e-01 7.133546e-01 3.097849e-01
<VARIANCE> 39
 7.043963e+01 8.947060e+01 1.097849e+02 1.023604e+02 1.163710e+02 1.442533e+02 1.484413e+02 1.388988e+02 1.466339e+02 1.487831e+02 1.333920e+02 1.178056e+02 1.238325e+02 1.702566e+01 9.711522e+00 1.234715e+01 1.177791e+01 1.133904e+01 1.221756e+01 1.248905e+01 1.410850e+01 1.372725e+01 1.230521e+01 1.406386e+01 1.373438e+01 1.085700e+01 2.082868e+00 2.258920e+00 3.582877e+00 4.836056e+00 3.381106e+00 3.990022e+00 3.856985e+00 4.658613e+00 4.735267e+00 3.679842e+00 3.700872e+00 3.423003e+00 1.496111e+00
<GCONST> 1.825464e+02
<STATE> 3
<NUMMIXES> 16
<MIXTURE> 1 3.135077e-02
<MEAN> 39
 -1.536773e+01 -1.113610e+01 2.699692e+00 5.228886e+00 8.590580e+00 8.751187e+00 3.317139e-01 2.660450e+00 1.175492e+00 1.071649e+01 -2.726328e-02 3.712656e+00 9.862476e+01 1.765079e+01 4.654352e+00 1.649506e+00 -1.073664e+01 1.152943e+00 1.265508e+00 3.877511e+00 -1.250047e-01 -1.718454e+00 3.683779e+00 5.538132e-01 2.325466e+00 7.112802e+00 1.258749e+00 -3.791840e-01 -2.907858e-01 -4.114933e+00 -1.177696e+00 -1.062144e+00 -8.893463e-02 -2.015001e-01 -9.164218e-01 4.910151e-01 -4.946807e-01 5.086942e-01 1.916803e+00
<VARIANCE> 39
 7.973914e+01 6.337630e+01 6.009833e+01 7.198930e+01 7.602222e+01 9.426165e+01 1.101562e+02 1.110637e+02 1.404091e+02 1.285365e+02 1.024446e+02 9.256952e+01 1.656594e+02 1.050370e+01 2.734348e+01 1.238950e+01 2.174797e+01 1.720922e+01 1.688266e+01 2.406495e+01 2.264506e+01 3.780201e+01 2.457739e+01 3.398740e+01 1.768991e+01 2.107976e+01 1.946175e+00 3.826459e+00 1.758527e+00 2.599259e+00 2.136492e+00 2.446561e+00 3.393922e+00 2.952138e+00 3.613068e+00 2.954822e+00 3.633905e+00 2.722728e+00 3.218745e+00
<GCONST> 1.837600e+02
<MIXTURE> 2 5.382959e-02
<MEAN> 39
 -2.904562e+01 -1.906509e+01 -3.763945e+00 1.238967e+00 -6.538539e-01 3.555847e-01 -7.141897e+00 -2.308291e-01 -5.001122e+00 4.659151e+00 -3.447456e+00 2.536699e+00 1.057631e+02 9.698188e+00 4.260905e+00 2.067570e+00 -6.802112e-01 2.579528e+00 3.040556e+00 3.910756e+00 1.719050e+00 1.520628e+00 2.084104e+00 1.420923e+00 1.205595e+00 1.355712e+00 4.297939e+00 2.095282e+00 8.874430e-01 -3.079564e+00 -1.046915e+00 -8.252230e-02 6.366976e-01 2.296109e-01 -6.488566e-01 4.578801e-01 -1.791943e-01 1.643144e-01 5.944096e-01
<VARIANCE> 39
 9.416744e+01 5.371986e+01 5.969679e+01 6.918317e+01 7.935615e+01 9.742361e+01 1.056658e+02 1.015442e+02 1.117942e+02 1.047030e+02 9.833063e+01 9.567470e+01 1.536381e+02 1.926305e+01 1.088664e+01 6.714517e+00 1.240329e+01 9.559539e+00 9.913535e+00 1.089780e+01 1.064139e+01 1.177493e+01 1.239897e+01 1.267377e+01 1.047409e+01 1.429569e+01 1.672685e+00 3.397513e+00 2.285147e+00 3.571323e+00 3.231591e+00 3.406734e+00 4.119891e+00 3.671123e+00 3.965355e+00 3.377430e+00 4.603787e+00 3.679585e+00 3.771458e+00
<GCONST> 1.776260e+02
<MIXTURE> 3 3.964125e-02
<MEAN> 39
 -1.855667e+01 -1.260883e+01 3.632153e-01 2.675821e+00 4.335338e+00 5.383362e+00 -1.046362e+00 1.741463e+00 -4.669228e-01 1.129333e+01 -3.917345e-01 3.688960e+00 1.059623e+02 1.694541e+01 5.275611e+00 2.979094e+00 -7.116354e+00 -4.166636e+00 3.269830e+00 7.255506e-01 2.468358e+00 -2.356842e+00 6.463490e-01 3.620449e+00 -1.034627e+00 5.614295e+00 2.218491e+00 1.180589e-02 2.595786e-01 -3.064004e+00 -2.667364e+00 2.765939e-01 -1.118058e+00 5.752792e-01 -1.460575e+00 -5.711223e-01 6.532470e-01 -1.012537e+00 1.425367e+00
<VARIANCE> 39
 1.238557e+02 6.823110e+01 6.239974e+01 7.593385e+01 1.149154e+02 1.324061e+02 1.247914e+02 1.387684e+02 1.068399e+02 1.241215e+02 1.182062e+02 9.595556e+01 1.617408e+02 1.324019e+01 2.286700e+01 1.762805e+01 1.950052e+01 2.572498e+01 2.086328e+01 1.937587e+01 2.250015e+01 2.547588e+01 2.776426e+01 3.175616e+01 1.469320e+01 2.375109e+01 2.730010e+00 3.461122e+00 2.849848e+00 3.211974e+00 3.637475e+00 4.210474e+00 4.098160e+00 3.891120e+00 4.057628e+00 4.246117e+00 5.312285e+00 2.998142e+00 4.159127e+00
<GCONST> 1.892757e+02
<MIXTURE> 4 7.075813e-02
<MEAN> 39
 -3.020068e+01 -1.769490e+01 -1.695749e+00 -2.114566e+00 -7.512531e+00 -5.103665e+00 -1.108118e+01 -2.854817e+00 -8.633254e+00 -9.790598e-01 -5.960968e+00 2.088797e+00 1.027086e+02 7.748574e+00 7.082294e-01 -4.029576e-02 -9.768366e-01 1.603284e+00 1.347908e+00 1.630373e+00 8.194357e-01 2.187289e+00 1.914641e+00 5.384514e-02 3.670008e-01 7.111828e+00 4.166590e+00 1.278014e+00 1.765615e-01 -1.596490e+00 7.032155e-01 1.005223e+00 1.481388e+00 4.362381e-01 8.803821e-01 1.613166e+00 1.677110e-01 -3.655071e-02 3.157963e-01
<VARIANCE> 39
 1.285409e+02 5.186414e+01 4.468332e+01 5.338936e+01 5.034743e+01 5.589176e+01 5.592653e+01 6.133718e+01 7.014973e+01 6.369065e+01 6.520705e+01 6.562933e+01 2.315823e+02 2.185860e+01 1.157775e+01 6.496729e+00 8.765783e+00 7.994435e+00 9.441810e+00 9.210434e+00 1.045160e+01 1.250953e+01 1.178110e+01 1.232576e+01 9.901436e+00 3.101108e+01 2.757871e+00 3.727271e+00 1.948922e+00 2.948486e+00 2.649270e+00 2.529409e+00 2.673320e+00 2.615362e+00 3.842520e+00 3.078125e+00 4.020595e+00 2.706182e+00 7.051854e+00
<GCONST> 1.729882e+02
<MIXTURE> 5 8.230228e-02
<MEAN> 39
 -3.576714e+01 -2.063636e+01 -5.623123e+00 1.233184e+00 -1.491669e+00 1.182866e+00 -5.941742e+00 3.018109e-01 -4.553248e+00 6.935008e+00 -2.249039e+00 3.505714e+00 1.018364e+02 7.706547e+00 2.764308e+00 1.276032e+00 -7.519566e-01 1.120571e+00 1.289650e+00 1.760669e+00 5.411260e-01 6.976525e-01 8.902657e-01 8.290373e-01 3.751481e-01 2.756114e+00 4.982984e+00 1.979708e+00 1.208296e+00 -2.422990e+00 -9.498485e-01 2.027088e-01 3.606988e-01 3.429868e-01 -5.026858e-01 -2.114773e-03 1.223834e-01 -3.308972e-01 1.097296e+00
<VARIANCE> 39
 7.245575e+01 5.286561e+01 5.781600e+01 7.076715e+01 7.792227e+01 8.930850e+01 9.793398e+01 1.124250e+02 1.134025e+02 9.535803e+01 1.053968e+02 9.086537e+01 1.357608e+02 1.760291e+01 8.140079e+00 6.284374e+00 9.124322e+00 8.431556e+00 8.568468e+00 9.406181e+00 9.983388e+00 1.035661e+01 9.713433e+00 1.028365e+01 8.721867e+00 1.454833e+01 1.348570e+00 2.485378e+00 2.148168e+00 3.197788e+00 3.146362e+00 2.839985e+00 3.212436e+00 3.536869e+00 3.811400e+00 3.178010e+00 4.805377e+00 2.755996e+00 2.644032e+00
<GCONST> 1.731937e+02
<MIXTURE> 6 6.617510e-02
<MEAN> 39
 -1.563188e+01 -1.659048e+01 -6.070665e+00 -2.971508e+00 -1.305290e+00 3.283489e+00 -4.586417e+00 -1.781188e+00 -8.929012e+00 3.397956e+00 -2.549503e+00 5.892758e+00 1.078011e+02 1.578384e+01 8.814960e+00 5.101780e+00 -5.549951e+00 -3.776310e+00 3.201482e-01 2.214056e+00 3.346313e+00 -8.451149e-02 2.001015e-01 -8.574357e-01 -6.299822e-01 2.137196e+00 2.527977e+00 2.403618e+00 2.037502e+00 -2.689080e+00 -2.449215e+00 -5.062097e-01 -5.711041e-01 1.108627e+00 -5.047756e-01 3.327225e-01 -5.349123e-01 -1.001198e+00 -5.925012e-02
<VARIANCE> 39
 8.542976e+01 5.403556e+01 4.780809e+01 6.436175e+01 8.440989e+01 9.647701e+01 1.118546e+02 1.074753e+02 9.125052e+01 9.141967e+01 9.316106e+01 8.279084e+01 1.620609e+02 1.103748e+01 9.834216e+00 1.178655e+01 1.761985e+01 1.901775e+01 1.709914e+01 1.615998e+01 1.652765e+01 1.654156e+01 1.401784e+01 1.395257e+01 1.230381e+01 1.725749e+01 1.896041e+00 2.523117e+00 2.073442e+00 3.440120e+00 3.794255e+00 3.894776e+00 4.424845e+00 4.046642e+00 4.060699e+00 3.835360e+00 3.681663e+00 3.337974e+00 4.123572e+00
<GCONST> 1.802278e+02
<MIXTURE> 7 8.158755e-02
<MEAN> 39
 -3.744658e+01 -1.951303e+01 -4.341922e+00 -1.074405e-01 -5.442657e+00 -2.150692e+00 -9.790699e+00 -2.749704e+00 -8.342098e+00 2.690831e+00 -4.547296e+00 1.879967e+00 9.586040e+01 3.843938e+00 -6.829262e-01 -6.809954e-01 -1.161992e+00 -1.034749e-02 -5.544958e-01 -3.658114e-01 -9.018583e-01 -3.809102e-01 -1.451521e-02 2.487823e-02 4.667783e-01 5.650222e+00 4.113859e+00 1.952157e+00 9.606879e-01 -6.927534e-01 3.788676e-01 7.182655e-01 1.180736e+00 6.795968e-01 5.260260e-01 6.304951e-01 2.317370e-01 1.213104e-01 5.462240e-01
<VARIANCE> 39
 9.297094e+01 6.587912e+01 5.662130e+01 6.674763e+01 6.862999e+01 8.051210e+01 8.504907e+01 9.046341e+01 9.289902e+01 8.658414e+01 8.255126e+01 7.451680e+01 1.799375e+02 6.982520e+00 6.457612e+00 5.593431e+00 6.496039e+00 7.254211e+00 8.531599e+00 9.128067e+00 9.397496e+00 8.990044e+00 8.873403e+00 8.865814e+00 8.914043e+00 2.009980e+01 2.144633e+00 1.476269e+00 1.478658e+00 2.281517e+00 2.085295e+00 2.067858e+00 2.177370e+00 2.476812e+00 2.349705e+00 2.277482e+00 2.528031e+00 1.918408e+00 3.594175e+00
<GCONST> 1.668885e+02
<MIXTURE> 8 6.553420e-02
<MEAN> 39
 -2.661559e+01 -1.485677e+01 -3.217324e-01 1.289010e-01 -4.335879e+00 -2.205162e+00 -6.285902e+00 2.510570e+00 -2.718380e+00 2.440677e+00 -4.302109e+00 4.737040e+00 1.023996e+02 1.616688e+01 6.592232e-01 -8.506941e-01 -6.346954e+00 2.632515e+00 8.978229e-01 2.676140e+00 -8.806657e-01 3.944376e+00 4.537492e+00 -1.410079e+00 -9.088675e-01 1.097906e+01 2.754871e+00 -1.092354e+00 -6.014286e-01 -2.717228e+00 1.002229e+00 4.942869e-01 1.025024e+00 -3.050027e-01 9.168692e-01 1.484181e+00 -2.868802e-01 -1.275099e-01 1.884863e+00
<VARIANCE> 39
 9.086012e+01 6.787621e+01 6.119006e+01 7.039900e+01 7.367242e+01 8.557766e+01 9.691062e+01 1.045083e+02 1.085646e+02 9.321204e+01 9.035087e+01 8.881896e+01 2.079943e+02 1.155051e+01 1.635699e+01 1.056785e+01 1.851371e+01 1.382974e+01 1.492268e+01 1.781352e+01 1.590432e+01 2.762177e+01 2.087114e+01 2.425626e+01 1.732229e+01 2.544215e+01 2.808415e+00 2.589359e+00 2.242955e+00 3.601088e+00 2.573863e+00 2.909769e+00 3.176741e+00 3.175049e+00 4.193344e+00 3.319623e+00 3.772908e+00 3.080294e+00 4.185407e+00
<GCONST> 1.823381e+02
<MIXTURE> 9 8.848526e-02
<MEAN> 39
 -3.567793e+01 -2.192248e+01 -7.574509e+00 1.760123e-01 -9.858924e-01 1.563668e+00 -6.754059e+00 -1.296872e+00 -5.725903e+00 6.037642e+00 -3.206693e+00 2.943761e+00 1.018629e+02 5.556980e+00 1.494197e+00 2.315104e-01 -1.078850e+00 2.685069e-01 5.471618e-01 7.475896e-01 -3.274761e-01 -5.822448e-01 -5.828127e-01 -4.506739e-01 -3.019297e-01 2.074313e+00 4.558815e+00 2.211390e+00 1.536657e+00 -1.682007e+00 -1.015799e+00 -1.412502e-02 2.590256e-01 5.633985e-01 -3.250299e-01 -1.168510e-01 2.290928e-01 -3.663262e-01 7.002726e-01
<VARIANCE> 39
 7.681599e+01 5.353297e+01 6.117441e+01 7.642419e+01 8.659744e+01 9.468288e+01 1.081343e+02 1.212520e+02 1.193418e+02 9.624372e+01 1.111296e+02 9.153106e+01 1.236438e+02 1.286609e+01 6.536572e+00 6.322132e+00 8.125319e+00 8.490041e+00 8.840264e+00 9.644254e+00 1.018891e+01 1.077690e+01 1.007221e+01 1.012036e+01 9.160068e+00 1.185173e+01 1.454902e+00 1.811963e+00 1.846608e+00 2.665107e+00 2.779147e+00 2.600151e+00 2.820327e+00 3.294621e+00 3.225472e+00 2.759073e+00 4.113026e+00 2.535872e+00 2.349211e+00
<GCONST> 1.714562e+02
<MIXTURE> 10 6.855918e-02
<MEAN> 39
 -3.002825e+01 -2.082714e+01 -5.328462e+00 7.198673e-02 -2.032310e+00 -9.371299e-01 -9.045131e+00 -2.636817e+00 -7.426854e+00 3.957932e+00 -3.840941e+00 2.129544e+00 1.050485e+02 9.110120e+00 3.655995e+00 1.397908e+00 -1.284380e+00 1.392320e+00 2.051117e+00 2.855263e+00 9.922879e-01 5.702252e-01 7.075289e-01 4.675472e-01 3.964955e-01 1.381977e+00 4.351268e+00 2.289737e+00 1.194403e+00 -2.732761e+00 -9.921125e-01 1.357575e-02 8.216587e-01 5.842463e-01 -3.261737e-01 3.605229e-01 -5.812633e-02 1.236087e-02 5.366377e-01
<VARIANCE> 39
 9.669034e+01 5.504177e+01 5.859028e+01 8.027472e+01 8.763593e+01 1.086082e+02 1.185830e+02 1.100610e+02 1.147431e+02 1.071326e+02 1.118633e+02 9.799662e+01 1.439813e+02 2.060938e+01 1.043731e+01 6.815028e+00 1.183962e+01 9.216999e+00 9.401463e+00 1.030809e+01 1.060866e+01 1.169414e+01 1.133111e+01 1.274872e+01 1.034280e+01 1.278123e+01 1.717831e+00 3.097930e+00 2.229670e+00 3.922162e+00 3.204913e+00 3.466566e+00 4.021510e+00 3.618586e+00 4.001342e+00 3.499763e+00 4.698504e+00 3.477950e+00 3.606556e+00
<GCONST> 1.779153e+02
<MIXTURE> 11 7.219476e-02
<MEAN> 39
 -3.862774e+01 -1.923027e+01 -4.297452e+00 -4.196579e-01 -6.248518e+00 -2.702615e+00 -1.084842e+01 -3.565801e+00 -9.812322e+00 1.013444e+00 -5.398717e+00 1.896474e+00 9.302625e+01 2.981986e+00 -1.261038e+00 -1.359582e+00 -2.058005e+00 -1.279704e+00 -1.814966e+00 -1.580575e+00 -2.114858e+00 -1.774461e+00 -1.528650e+00 -1.307552e+00 -6.092097e-01 5.979031e+00 3.672938e+00 1.642094e+00 8.257656e-01 -2.844355e-01 5.104251e-01 6.787443e-01 1.060490e+00 6.810299e-01 7.162199e-01 8.016796e-01 3.053102e-01 6.995469e-02 8.691396e-01
<VARIANCE> 39
 9.104915e+01 6.973295e+01 6.090821e+01 7.581847e+01 7.069579e+01 8.243457e+01 9.316518e+01 8.878304e+01 9.643443e+01 9.651678e+01 9.631251e+01 7.768942e+01 1.834416e+02 7.738572e+00 7.184221e+00 6.142482e+00 6.010140e+00 7.246243e+00 8.721244e+00 9.539583e+00 1.020839e+01 8.902768e+00 8.892692e+00 9.132251e+00 8.468524e+00 2.040950e+01 2.206207e+00 1.428037e+00 1.469266e+00 2.169684e+00 1.940717e+00 1.951148e+00 2.137639e+00 2.203411e+00 2.207278e+00 2.335937e+00 2.335907e+00 1.881799e+00 3.361911e+00
<GCONST> 1.674416e+02
<MIXTURE> 12 7.119180e-02
<MEAN> 39
 -3.225785e+01 -1.617961e+01 -1.658385e+00 -1.062162e+00 -7.245170e+00 -5.162838e+00 -1.179469e+01 -3.309890e+00 -1.006777e+01 -1.649423e+00 -6.412049e+00 9.886167e-01 9.553576e+01 5.898539e+00 -7.539182e-01 -8.408672e-01 -1.891878e+00 1.203159e-01 -1.606293e-01 1.146999e-01 -2.697948e-01 7.518330e-01 5.470081e-01 -6.466028e-01 -2.486070e-01 8.467136e+00 4.145411e+00 1.163503e+00 1.596354e-01 -1.437256e+00 5.582895e-01 9.150140e-01 1.396478e+00 4.240313e-01 1.018379e+00 1.539070e+00 3.664302e-01 -7.704303e-03 8.967388e-01
<VARIANCE> 39
 1.254396e+02 6.544093e+01 4.630123e+01 5.790565e+01 5.394757e+01 6.162377e+01 5.985479e+01 7.174493e+01 8.045212e+01 6.685220e+01 6.533283e+01 6.089708e+01 2.957723e+02 2.054029e+01 1.272581e+01 6.107415e+00 7.525499e+00 7.840779e+00 9.015387e+00 9.617002e+00 1.035684e+01 1.031430e+01 1.058533e+01 1.074873e+01 9.021216e+00 3.452276e+01 3.031388e+00 3.327774e+00 1.898618e+00 2.961661e+00 2.646594e+00 2.365524e+00 2.311053e+00 2.660427e+00 3.611220e+00 2.843147e+00 3.401720e+00 2.248277e+00 7.348744e+00
<GCONST> 1.727355e+02
<MIXTURE> 13 6.529389e-02
<MEAN> 39
 -2.853645e+01 -1.450008e+01 -9.096544e-01 1.607258e-01 -5.037270e+00 -3.247573e+00 -8.585220e+00 1.818662e-01 -5.136672e+00 9.892636e-01 -5.959796e+00 2.646389e+00 9.964751e+01 1.537411e+01 7.286502e-01 -1.228583e+00 -6.396857e+00 1.049354e+00 3.433172e-01 2.007523e+00 -1.901567e+00 2.080469e+00 3.282932e+00 -2.014962e-01 -1.852134e+00 1.117193e+01 3.286245e+00 -8.203984e-01 -5.602062e-01 -2.718308e+00 7.277367e-01 6.280125e-01 1.309963e+00 -3.657427e-01 9.517139e-01 1.633510e+00 4.948170e-01 -3.420787e-01 2.134864e+00
<VARIANCE> 39
 9.836359e+01 7.579372e+01 6.818959e+01 7.507241e+01 7.572240e+01 9.690449e+01 1.043384e+02 1.074295e+02 1.079769e+02 9.515090e+01 9.133576e+01 9.474281e+01 2.416230e+02 1.370579e+01 1.803715e+01 1.112862e+01 1.734595e+01 1.464838e+01 1.456644e+01 1.665945e+01 1.557773e+01 2.489586e+01 2.151399e+01 2.774011e+01 1.553908e+01 2.819943e+01 2.772796e+00 2.824663e+00 2.579668e+00 3.822919e+00 2.824837e+00 3.233305e+00 3.380473e+00 3.201180e+00 4.562022e+00 3.525825e+00 4.839153e+00 3.637549e+00 4.520737e+00
<GCONST> 1.846293e+02
<MIXTURE> 14 5.163410e-02
<MEAN> 39
 -1.654626e+01 -1.738374e+01 -7.933663e+00 -5.408415e+00 -4.253450e+00 1.241443e+00 -6.324544e+00 -3.842751e+00 -1.219648e+01 1.119075e+00 -4.634900e+00 5.407474e+00 1.055287e+02 1.553611e+01 8.259869e+00 5.836414e+00 -5.685325e+00 -5.100517e+00 -1.173127e-01 8.457014e-01 3.987999e+00 -1.359090e+00 -8.462868e-01 -4.557280e-01 -2.464317e+00 2.453046e+00 2.579819e+00 2.066511e+00 2.526015e+00 -2.254606e+00 -2.480785e+00 -9.293928e-02 -8.211962e-01 1.720452e+00 -6.327401e-01 2.477556e-01 1.726553e-01 -1.670525e+00 6.639364e-01
<VARIANCE> 39
 8.937528e+01 5.283778e+01 4.715810e+01 7.087121e+01 8.604128e+01 1.016107e+02 1.189603e+02 1.173225e+02 9.684056e+01 1.012204e+02 8.934478e+01 8.772330e+01 1.502123e+02 1.037651e+01 9.614865e+00 1.317107e+01 1.739817e+01 1.901072e+01 1.742924e+01 1.514790e+01 1.866305e+01 2.071902e+01 1.534041e+01 1.487659e+01 1.244048e+01 1.740305e+01 2.127284e+00 2.315342e+00 2.132693e+00 3.202547e+00 3.685375e+00 3.721924e+00 3.673201e+00 4.604869e+00 4.710101e+00 3.830073e+00 3.326931e+00 2.777202e+00 2.737946e+00
<GCONST> 1.804500e+02
<MIXTURE> 15 5.045501e-02
<MEAN> 39
 -2.124061e+01 -1.450724e+01 -2.470123e+00 1.321657e-03 -2.706426e-01 3.755498e-01 -4.459305e+00 -1.239656e+00 -2.007169e+00 9.649961e+00 -3.688880e+00 1.018792e+00 1.050748e+02 1.663972e+01 3.363884e+00 2.137099e+00 -7.034261e+00 -4.390292e+00 3.014835e+00 1.819533e-02 1.848359e+00 -3.361722e+00 2.608099e-01 5.644994e+00 -2.243702e+00 7.835147e+00 2.482460e+00 -2.959812e-01 3.884699e-01 -2.572908e+00 -2.140005e+00 9.171154e-01 -7.823193e-01 8.864115e-01 -1.350446e+00 -3.999910e-01 1.947392e+00 -1.083375e+00 1.860450e+00
<VARIANCE> 39
 1.169528e+02 6.378681e+01 6.329351e+01 7.139655e+01 1.034898e+02 1.258333e+02 1.256116e+02 1.313596e+02 1.009828e+02 1.183941e+02 1.286905e+02 1.001653e+02 1.608594e+02 1.181194e+01 1.934343e+01 1.673394e+01 1.700562e+01 2.383340e+01 2.141908e+01 1.801965e+01 2.464307e+01 2.552900e+01 2.830357e+01 3.320028e+01 1.513763e+01 2.740236e+01 2.951760e+00 2.728797e+00 2.564117e+00 3.066934e+00 3.401815e+00 4.075220e+00 3.850587e+00 4.133616e+00 4.572942e+00 4.049961e+00 5.612077e+00 3.011443e+00 3.603521e+00
<GCONST> 1.882301e+02
<MIXTURE> 16 4.098061e-02
<MEAN> 39
 -1.775909e+01 -1.418499e+01 -1.894116e-01 3.846088e+00 5.540192e+00 6.260326e+00 -3.106246e+00 -3.395915e-02 -3.594568e+00 7.020351e+00 -1.098659e+00 2.144951e+00 9.902091e+01 1.779177e+01 6.495775e+00 1.757077e+00 -1.110946e+01 2.301381e-01 7.654200e-02 4.757234e+00 -9.945865e-01 -1.555637e+00 1.579791e+00 -4.678249e-01 2.180383e+00 6.037673e+00 1.904085e+00 6.220665e-01 1.508810e-01 -4.475077e+00 -1.046841e+00 -1.221258e+00 6.007149e-01 -3.131468e-01 -4.079843e-01 6.206408e-01 -5.771429e-01 9.862025e-01 1.596674e+00
<VARIANCE> 39
 9.504076e+01 7.139091e+01 6.342750e+01 7.964275e+01 8.249340e+01 9.863740e+01 1.100326e+02 1.043869e+02 1.229434e+02 1.173180e+02 1.027197e+02 9.160831e+01 1.612150e+02 1.087022e+01 2.363480e+01 1.098854e+01 2.123598e+01 1.334259e+01 1.729740e+01 2.271016e+01 1.832374e+01 2.416566e+01 2.171131e+01 2.987951e+01 1.560729e+01 1.945506e+01 2.209274e+00 3.996371e+00 1.766713e+00 2.926821e+00 2.023475e+00 2.737507e+00 3.942936e+00 3.150521e+00 3.737824e+00 3.269446e+00 3.933927e+00 3.007212e+00 3.321797e+00
<GCONST> 1.832654e+02
<STATE> 4
<NUMMIXES> 16
<MIXTURE> 1 5.347886e-02
<MEAN> 39
 -1.972918e+00 -4.355741e+00 2.267172e+00 -2.069953e+00 -1.055756e+00 7.924720e-01 -3.615405e+00 2.366760e+00 2.492635e+00 6.046130e+00 -7.051472e+00 2.363569e+00 1.088295e+02 1.717441e+01 -1.594367e+00 -1.265590e+00 -9.994220e+00 3.590715e+00 1.699411e+00 3.836383e+00 -3.718600e-01 4.657605e+00 5.855589e+00 -1.204194e+00 2.869748e-02 1.270622e+01 -1.227079e+00 -2.224779e+00 -7.932315e-01 -1.775308e+00 7.431263e-01 6.574929e-01 5.818284e-01 2.264047e-01 1.024098e-01 5.313055e-01 1.273046e-01 4.417296e-01 4.051356e-01
<VARIANCE> 39
 1.318183e+02 7.957777e+01 6.255225e+01 8.307093e+01 7.762067e+01 9.112203e+01 8.903046e+01 8.302070e+01 1.016655e+02 1.063132e+02 8.660667e+01 9.367370e+01 1.666761e+02 8.675784e+00 1.805924e+01 1.555972e+01 3.058228e+01 2.172371e+01 2.089062e+01 2.633797e+01 2.459646e+01 5.101365e+01 2.845107e+01 3.639122e+01 2.569809e+01 1.803052e+01 1.969917e+00 2.132537e+00 1.661711e+00 2.421405e+00 1.958640e+00 2.228608e+00 1.930870e+00 2.063546e+00 2.262682e+00 2.520412e+00 2.264782e+00 2.073692e+00 3.907241e+00
<GCONST> 1.818264e+02
<MIXTURE> 2 6.072518e-02
<MEAN> 39
 2.659365e+01 -1.672049e+01 -7.547196e+00 -2.650877e+01 7.072440e+00 1.123861e+00 9.786172e-01 -4.848910e+00 1.549652e+01 1.365784e+01 -1.461997e+01 -3.780817e+00 1.329443e+02 1.193113e+01 -5.320427e+00 -3.420261e+00 -9.493918e+00 5.540688e+00 2.466372e+00 4.328562e+00 -5.199233e-02 7.264122e+00 4.238498e+00 -2.010512e+00 4.233429e-01 1.249497e+01 -4.957584e+00 -1.368312e+00 2.097367e-02 1.436857e+00 2.337122e-01 6.700996e-01 -2.917733e-01 6.876099e-01 -1.589217e+00 -1.000878e+00 8.855186e-01 1.299600e+00 -2.292086e+00
<VARIANCE> 39
 3.939443e+01 1.274422e+02 9.847510e+01 1.700814e+02 1.135367e+02 1.826140e+02 1.589205e+02 1.470579e+02 1.656517e+02 1.609913e+02 1.868005e+02 1.715094e+02 1.030679e+02 1.380285e+01 1.758170e+01 1.418049e+01 2.352982e+01 1.727353e+01 2.148145e+01 2.031198e+01 1.777843e+01 1.920678e+01 2.118383e+01 2.281243e+01 2.091678e+01 1.726494e+01 1.138915e+00 1.239061e+00 1.049444e+00 1.895109e+00 1.667209e+00 2.151691e+00 2.124656e+00 2.033049e+00 2.506813e+00 2.373975e+00 2.369307e+00 1.979522e+00 1.984202e+00
<GCONST> 1.810439e+02
<MIXTURE> 3 7.094870e-02
<MEAN> 39
 1.102159e+01 5.217911e+00 6.158837e+00 -4.188917e+00 5.132922e-01 4.679166e+00 1.899322e+00 1.571604e+00 -6.480958e+00 2.285459e+00 -4.439856e+00 3.915852e+00 1.040622e+02 1.810197e+01 1.029797e+01 3.341756e+00 -1.434768e+01 -1.970060e+00 -1.801253e+00 5.612049e+00 5.746671e-01 -2.892942e-01 2.305712e+00 -3.801300e+00 3.587294e+00 4.565650e+00 -1.677303e+00 -5.710102e-01 -2.334955e-01 -2.561773e+00 -1.002813e+00 -1.300265e+00 -3.456487e-01 3.091376e-02 6.123273e-02 1.035140e+00 -7.074380e-01 5.457663e-01 2.996090e-01
<VARIANCE> 39
 1.566835e+02 1.073673e+02 5.105212e+01 1.455019e+02 8.848993e+01 9.832861e+01 9.447379e+01 9.556736e+01 8.776709e+01 8.119511e+01 8.095674e+01 7.957838e+01 1.782240e+02 7.771357e+00 1.472737e+01 1.627647e+01 2.419963e+01 2.191269e+01 2.538981e+01 3.264399e+01 2.797765e+01 2.559240e+01 2.473197e+01 2.357463e+01 2.466568e+01 1.393272e+01 2.176271e+00 2.218693e+00 1.485061e+00 2.524849e+00 1.982626e+00 2.046242e+00 2.646930e+00 2.527683e+00 2.567194e+00 3.040904e+00 2.561431e+00 2.751275e+00 2.865899e+00
<GCONST> 1.818880e+02
<MIXTURE> 4 7.096140e-02
<MEAN> 39
 2.916879e+01 -1.739794e+01 6.812219e+00 -4.262151e+01 -8.057678e+00 6.335173e+00 -1.834123e+00 2.353721e+00 -2.479858e+01 1.965561e+01 1.641371e+01 5.515255e+00 1.356872e+02 7.932002e+00 -4.185062e+00 5.685693e-01 -1.119059e+01 -1.234178e+00 2.060858e+00 8.275873e-01 1.561364e+00 -2.476594e+00 3.730657e+00 4.447389e+00 -1.384532e-01 9.537305e+00 -4.790998e+00 -7.431556e-01 -1.039139e+00 2.559815e+00 7.394187e-01 7.324912e-02 -1.040719e-01 4.062578e-04 2.459098e+00 -4.954816e-01 -1.644243e+00 -1.032108e+00 -1.890822e+00
<VARIANCE> 39
 4.541117e+01 1.393462e+02 1.214478e+02 2.510764e+02 3.349310e+02 2.207366e+02 1.790467e+02 3.040800e+02 2.841189e+02 3.309505e+02 2.110658e+02 1.740028e+02 1.161594e+02 3.619538e+01 1.143123e+01 1.398243e+01 2.973390e+01 2.701368e+01 2.128668e+01 1.661423e+01 2.261386e+01 3.107319e+01 2.880241e+01 2.748072e+01 1.631340e+01 1.666992e+01 1.185905e+00 1.574133e+00 1.522558e+00 3.387379e+00 2.837024e+00 2.302023e+00 2.425573e+00 3.607181e+00 3.266321e+00 3.259531e+00 2.394011e+00 2.418888e+00 1.947851e+00
<GCONST> 1.907415e+02
<MIXTURE> 5 6.840030e-02
<MEAN> 39
 2.070404e+01 -3.042455e+01 -1.007392e+01 -3.674609e+01 1.509133e+01 2.232968e+00 1.087026e+01 -7.874955e-01 2.292341e+01 1.735611e+01 -1.314197e+01 3.212488e+00 1.459716e+02 1.806738e+00 -7.443849e+00 -2.434619e+00 -5.720187e+00 5.477482e+00 2.678358e+00 3.115633e+00 1.016201e+00 3.087749e+00 1.300713e+00 -5.726210e-01 2.723678e+00 8.320004e+00 -4.765548e+00 4.878521e-01 6.635990e-01 3.327004e+00 -7.475913e-01 5.639393e-01 -1.717479e+00 5.133018e-01 -2.841114e+00 -1.725557e+00 8.879032e-01 7.567782e-01 -3.775477e+00
<VARIANCE> 39
 5.552107e+01 1.413151e+02 1.502033e+02 2.095741e+02 1.702501e+02 2.376691e+02 2.023598e+02 1.973904e+02 1.972826e+02 2.204999e+02 2.375233e+02 2.424298e+02 8.242892e+01 1.528577e+01 8.696228e+00 1.015740e+01 1.861509e+01 1.181982e+01 1.265397e+01 1.449323e+01 1.271268e+01 1.355213e+01 1.540698e+01 1.176023e+01 1.265192e+01 1.266659e+01 1.183573e+00 1.468996e+00 1.511019e+00 2.245908e+00 2.129396e+00 3.258136e+00 2.795723e+00 2.683903e+00 3.084003e+00 3.430758e+00 3.761539e+00 3.267330e+00 1.391369e+00
<GCONST> 1.824232e+02
<MIXTURE> 6 5.463019e-02
<MEAN> 39
 2.299103e+01 1.528743e+01 1.074351e+01 -1.319452e+01 -1.586727e+01 -1.637833e+00 -1.744369e+00 8.257596e+00 -5.352639e+00 3.219858e+00 -6.215935e+00 2.280533e-01 1.083356e+02 1.660148e+01 9.328429e+00 7.598067e+00 -9.937593e+00 -9.695182e+00 -1.784638e-01 -1.957841e+00 4.656457e+00 -1.590677e+00 -3.613217e-01 1.736116e-01 -3.591696e+00 4.112563e+00 -2.706048e+00 -1.688836e+00 -1.660547e-01 -5.515591e-01 -6.819841e-01 5.408310e-02 -1.233350e+00 -3.160974e-01 -6.151575e-01 1.199654e-01 4.678271e-01 -4.019702e-01 2.528219e-01
<VARIANCE> 39
 1.135116e+02 7.412479e+01 6.264285e+01 1.449780e+02 1.091840e+02 1.311078e+02 1.061993e+02 1.073390e+02 1.076832e+02 8.971147e+01 8.872005e+01 7.182277e+01 1.483532e+02 8.530937e+00 1.576403e+01 2.336510e+01 3.031392e+01 3.355870e+01 3.140100e+01 2.971003e+01 3.628153e+01 3.128078e+01 3.279843e+01 2.908851e+01 2.469231e+01 1.309357e+01 1.734455e+00 1.417061e+00 1.496154e+00 1.937112e+00 2.369269e+00 2.098829e+00 2.137015e+00 2.506478e+00 2.598538e+00 2.473480e+00 1.989413e+00 2.018612e+00 2.603020e+00
<GCONST> 1.826170e+02
<MIXTURE> 7 7.147275e-02
<MEAN> 39
 2.593383e+01 -1.984752e+01 -1.035041e+01 -2.595857e+01 -1.961607e+01 1.324093e+01 -4.992243e+00 -6.468317e+00 -1.627530e+00 8.096226e+00 3.722061e+01 -1.415555e+01 1.457594e+02 2.585936e+00 -4.033232e+00 -3.120533e+00 -3.962309e+00 -1.327845e+00 2.305883e+00 1.343494e+00 -1.286210e+00 4.167212e+00 6.181983e-01 3.717476e+00 -4.146290e+00 6.741890e+00 -4.328374e+00 1.496720e-02 3.195540e-01 2.056025e+00 1.829763e+00 -8.835869e-01 5.545149e-01 4.765906e-01 1.007087e+00 1.012766e-01 -4.030487e+00 4.010824e-01 -2.865436e+00
<VARIANCE> 39
 7.407540e+01 1.174878e+02 1.988253e+02 2.385839e+02 1.805587e+02 2.922006e+02 2.898951e+02 4.157847e+02 3.988981e+02 4.177198e+02 3.831261e+02 1.997217e+02 1.149378e+02 2.837967e+01 8.647233e+00 1.323128e+01 1.668673e+01 1.355317e+01 1.723936e+01 1.998616e+01 1.741873e+01 1.482150e+01 1.714947e+01 4.735291e+01 1.275313e+01 1.802606e+01 2.000669e+00 1.561346e+00 2.297590e+00 2.741241e+00 2.272597e+00 2.864904e+00 3.538721e+00 4.227633e+00 3.957512e+00 4.372543e+00 3.792490e+00 2.709352e+00 1.381164e+00
<GCONST> 1.922037e+02
<MIXTURE> 8 5.965696e-02
<MEAN> 39
 1.893652e+01 -1.631529e+00 -1.049713e+00 -1.689163e+01 -1.815207e+00 6.395401e+00 2.923142e+00 -3.731537e+00 -5.222124e+00 1.397695e+01 5.133036e-01 -2.165447e-01 1.146348e+02 1.604539e+01 -1.101612e+00 -2.711675e-01 -1.130600e+01 -5.231035e-01 2.698431e+00 2.710602e+00 -6.385862e-01 -6.260157e-01 4.322837e+00 4.273328e+00 -3.965716e-01 1.122680e+01 -3.248296e+00 -2.240612e+00 -4.209760e-01 -3.332630e-01 -9.251553e-02 1.075550e-01 -4.481408e-01 5.889323e-01 3.467722e-01 -2.991989e-01 -1.113953e-02 -5.668977e-02 1.742865e-01
<VARIANCE> 39
 1.307900e+02 9.497058e+01 6.802458e+01 1.639895e+02 1.408518e+02 1.178969e+02 1.432939e+02 1.514498e+02 2.041599e+02 1.433526e+02 1.776207e+02 1.208907e+02 1.504333e+02 1.113846e+01 1.696116e+01 1.916528e+01 3.209311e+01 3.014502e+01 2.438705e+01 3.160059e+01 3.038232e+01 4.778215e+01 3.794750e+01 5.008128e+01 2.676919e+01 1.599423e+01 1.880116e+00 1.345994e+00 1.388176e+00 1.692742e+00 1.820071e+00 2.136261e+00 2.266884e+00 2.520030e+00 2.583596e+00 2.119900e+00 2.739582e+00 2.357856e+00 2.671103e+00
<GCONST> 1.874372e+02
<MIXTURE> 9 8.183776e-02
<MEAN> 39
 2.834591e+01 -2.099791e+01 5.780139e+00 -4.278140e+01 -1.140133e+01 1.108802e+01 -5.843738e+00 4.824613e+00 -2.388774e+01 2.385772e+01 1.647150e+01 -1.380574e+00 1.397041e+02 7.541586e+00 -5.463360e+00 1.198057e-01 -1.095326e+01 -2.166050e+00 3.522163e+00 -5.295486e-01 1.858526e+00 -2.811839e+00 3.811495e+00 3.952246e+00 -2.351547e+00 1.056000e+01 -5.173787e+00 -6.589282e-01 -1.082770e+00 2.812352e+00 9.721412e-01 -2.652121e-01 4.154140e-02 -2.933325e-01 2.329463e+00 -1.205232e+00 -1.918123e+00 -5.279260e-01 -2.327538e+00
<VARIANCE> 39
 5.032899e+01 1.465246e+02 1.237010e+02 2.390870e+02 3.338166e+02 2.403172e+02 1.549456e+02 2.249581e+02 3.077709e+02 3.992693e+02 2.697465e+02 1.402091e+02 1.088917e+02 2.852713e+01 1.202749e+01 1.236040e+01 2.046392e+01 2.316282e+01 2.138664e+01 1.483506e+01 1.801917e+01 2.628897e+01 2.766138e+01 2.764371e+01 1.405202e+01 1.250455e+01 1.120483e+00 1.631166e+00 1.394059e+00 3.091643e+00 3.217378e+00 2.519847e+00 2.058379e+00 2.759083e+00 3.431112e+00 4.487325e+00 2.835531e+00 2.009005e+00 1.644752e+00
<GCONST> 1.886867e+02
<MIXTURE> 10 6.549989e-02
<MEAN> 39
 2.114188e+01 -3.049044e+00 -2.777442e+00 -1.436844e+01 -4.657136e+00 6.215102e+00 1.602239e+00 -2.974682e+00 -6.980968e+00 1.510774e+01 7.329358e+00 -3.129354e+00 1.189270e+02 1.549743e+01 -1.502931e+00 -1.213214e+00 -9.635450e+00 -2.473394e+00 2.582197e+00 1.057453e+00 -5.716506e-01 -1.592482e+00 3.439831e+00 6.614053e+00 -2.341387e+00 1.140957e+01 -3.604565e+00 -2.306168e+00 -5.068590e-01 -3.324889e-01 -2.541668e-01 -1.048370e-01 -5.771780e-01 3.863702e-01 5.340292e-01 -5.563174e-01 -5.786638e-01 -3.840811e-01 1.694185e-01
<VARIANCE> 39
 1.318939e+02 1.005573e+02 8.727269e+01 1.703962e+02 1.234135e+02 1.373260e+02 1.587823e+02 1.963241e+02 2.379376e+02 1.900245e+02 2.374346e+02 1.363318e+02 1.700383e+02 1.215821e+01 1.458378e+01 2.112999e+01 3.141496e+01 2.214804e+01 2.394405e+01 3.061215e+01 3.367724e+01 4.496756e+01 4.056935e+01 5.416302e+01 2.576716e+01 1.449429e+01 1.989025e+00 1.259982e+00 1.478886e+00 1.616217e+00 1.721575e+00 2.125247e+00 2.358214e+00 2.499519e+00 2.597898e+00 2.510476e+00 3.026886e+00 2.692999e+00 2.401826e+00
<GCONST> 1.891247e+02
<MIXTURE> 11 5.210619e-02
<MEAN> 39
 2.258085e+01 -3.135347e+01 -4.989630e+00 -3.497577e+01 9.137884e+00 1.596515e+00 3.855062e+00 1.643236e+00 1.081631e+01 3.067779e+01 -1.325994e+01 -5.620543e-01 1.432095e+02 2.266993e+00 -7.749713e+00 -1.887796e+00 -6.203899e+00 3.120697e+00 2.236187e+00 1.243537e+00 1.396332e+00 1.249222e+00 2.492921e+00 -2.521677e+00 -2.047917e-02 8.904346e+00 -4.836145e+00 5.004497e-01 6.365529e-02 2.987190e+00 -4.913829e-01 5.976660e-01 -1.020091e+00 3.021048e-01 -1.305234e+00 -3.136728e+00 3.024754e-01 5.879078e-01 -3.468602e+00
<VARIANCE> 39
 4.682248e+01 1.158457e+02 1.462323e+02 2.291956e+02 1.449619e+02 2.007332e+02 2.387670e+02 2.626202e+02 2.648209e+02 2.852103e+02 2.576362e+02 2.022834e+02 6.529327e+01 1.434990e+01 7.094628e+00 9.307406e+00 1.542314e+01 1.260173e+01 1.113657e+01 1.664937e+01 1.565489e+01 1.378509e+01 1.591172e+01 1.331636e+01 1.345606e+01 1.200128e+01 1.022613e+00 1.232219e+00 1.572301e+00 2.140061e+00 1.589033e+00 2.679731e+00 3.102408e+00 2.610925e+00 3.840577e+00 4.145312e+00 3.854534e+00 2.737205e+00 1.238235e+00
<GCONST> 1.817764e+02
<MIXTURE> 12 5.530454e-02
<MEAN> 39
 2.755131e+01 1.502785e+01 1.107709e+01 -1.880861e+01 -2.119258e+01 3.318435e+00 -1.313238e-01 1.007863e+01 -1.052001e+01 1.040511e+00 -4.866325e+00 -9.535958e-01 1.121779e+02 1.605306e+01 7.548223e+00 6.700066e+00 -1.057853e+01 -1.094174e+01 1.008474e+00 -2.220555e+00 5.063095e+00 -3.722757e+00 -1.393083e+00 -4.625356e-01 -4.769550e+00 5.336153e+00 -3.351521e+00 -2.025729e+00 -4.185710e-01 -1.246198e-01 -4.032093e-01 -4.087372e-01 -1.638641e+00 -4.853961e-01 -3.155404e-01 1.930065e-01 1.184131e-01 -5.739231e-01 1.306199e-01
<VARIANCE> 39
 8.418393e+01 7.671964e+01 8.368057e+01 1.545885e+02 1.649480e+02 1.615023e+02 1.246140e+02 1.401167e+02 1.532739e+02 1.069961e+02 1.096447e+02 9.152197e+01 1.518012e+02 7.788127e+00 1.610856e+01 2.384122e+01 3.161878e+01 2.908895e+01 3.222547e+01 2.843871e+01 3.286992e+01 3.901088e+01 3.301575e+01 3.078479e+01 2.255283e+01 1.278623e+01 1.464358e+00 1.343192e+00 1.289609e+00 1.687569e+00 2.252988e+00 1.969037e+00 2.094681e+00 2.170418e+00 2.474037e+00 2.177633e+00 1.863899e+00 1.735545e+00 2.272108e+00
<GCONST> 1.833470e+02
<MIXTURE> 13 6.327326e-02
<MEAN> 39
 8.696997e+00 3.980382e+00 5.412251e+00 -4.167305e+00 -5.095947e-01 5.658200e+00 2.512129e+00 3.001733e+00 -5.942264e+00 4.653532e+00 -3.859505e+00 5.511632e+00 1.039796e+02 1.717130e+01 8.937739e+00 5.768444e+00 -1.226805e+01 -6.002487e+00 -6.278521e-01 1.868066e+00 3.743186e+00 -3.434751e+00 8.536903e-01 -2.315328e+00 -1.413843e+00 4.787325e+00 -1.282119e+00 -7.067469e-01 3.123608e-01 -2.241295e+00 -1.819496e+00 -9.944616e-01 -1.236030e+00 4.089066e-01 -8.923368e-01 4.077054e-01 -5.062268e-01 -7.999901e-01 7.570301e-01
<VARIANCE> 39
 1.587243e+02 9.755807e+01 4.919555e+01 1.546982e+02 8.174978e+01 1.087645e+02 1.082378e+02 9.268312e+01 9.457201e+01 9.254905e+01 8.444567e+01 7.772832e+01 1.859654e+02 9.322106e+00 1.429237e+01 2.147038e+01 3.009154e+01 3.379846e+01 3.510092e+01 3.581625e+01 3.599730e+01 3.677476e+01 2.873162e+01 2.672521e+01 3.378471e+01 1.403605e+01 2.238230e+00 1.942748e+00 1.693648e+00 2.737012e+00 2.955874e+00 2.462958e+00 2.678391e+00 2.882762e+00 3.497818e+00 3.000823e+00 2.409404e+00 2.940291e+00 2.859736e+00
<GCONST> 1.860664e+02
<MIXTURE> 14 6.127296e-02
<MEAN> 39
 2.636557e+01 -1.701741e+01 -1.132596e+01 -2.493372e+01 5.097991e+00 1.520451e+00 7.694330e+00 -6.150308e+00 1.583294e+01 1.940707e+01 -1.299316e+01 -3.193732e+00 1.358828e+02 9.206744e+00 -4.786440e+00 -4.267798e+00 -7.331278e+00 3.501342e+00 2.091104e+00 4.032279e+00 -1.188705e+00 4.727301e+00 3.692622e+00 -2.197137e+00 -5.366826e-01 1.062491e+01 -5.318832e+00 -1.389357e+00 2.632704e-01 1.612821e+00 6.820208e-02 4.530397e-01 -1.096057e+00 6.574863e-01 -1.770614e+00 -1.776925e+00 5.065081e-01 1.081233e+00 -2.258921e+00
<VARIANCE> 39
 4.692127e+01 1.055229e+02 1.169120e+02 2.099422e+02 1.404851e+02 2.166394e+02 1.728046e+02 1.838760e+02 1.912435e+02 2.126886e+02 2.055615e+02 1.876801e+02 7.379853e+01 1.643191e+01 1.129969e+01 1.284463e+01 2.179149e+01 1.751937e+01 2.001057e+01 2.033498e+01 1.725262e+01 2.206114e+01 2.176937e+01 2.260355e+01 1.655472e+01 1.590293e+01 1.085077e+00 1.074051e+00 1.246700e+00 2.321825e+00 1.666206e+00 2.625722e+00 2.920233e+00 2.338773e+00 2.704631e+00 2.941794e+00 2.727319e+00 2.655963e+00 1.311225e+00
<GCONST> 1.828400e+02
<MIXTURE> 15 5.107009e-02
<MEAN> 39
 2.365036e+01 -2.139173e+01 -8.295482e+00 -2.082166e+01 -1.665553e+01 7.677957e+00 -1.550561e+01 4.928247e+00 -1.061585e+01 2.250239e+01 3.023838e+01 -2.032677e+01 1.479137e+02 4.402666e+00 -5.056334e+00 -3.366772e+00 -4.466246e+00 -2.624396e+00 2.325705e+00 -8.124851e-01 1.494463e+00 1.496363e+00 2.186205e+00 3.833036e+00 -6.272147e+00 8.732236e+00 -4.957806e+00 -2.432118e-01 -1.693845e-03 1.707662e+00 1.375436e+00 -5.254810e-01 1.403466e+00 -1.838585e-01 1.788184e+00 -1.502828e+00 -3.935008e+00 8.387844e-01 -3.011520e+00
<VARIANCE> 39
 6.545818e+01 1.361275e+02 1.926850e+02 3.362780e+02 1.256768e+02 3.277116e+02 2.916340e+02 4.255257e+02 4.718055e+02 4.443317e+02 3.977316e+02 2.042255e+02 1.301368e+02 2.658380e+01 9.407424e+00 1.606888e+01 1.750846e+01 1.044397e+01 2.132674e+01 1.887386e+01 2.616757e+01 2.305575e+01 2.357576e+01 4.562235e+01 1.521542e+01 1.259868e+01 1.277071e+00 1.585489e+00 2.169934e+00 2.938827e+00 2.049457e+00 2.764087e+00 3.382245e+00 3.748961e+00 4.820757e+00 5.478596e+00 3.581213e+00 2.575974e+00 1.359994e+00
<GCONST> 1.934124e+02
<MIXTURE> 16 5.933808e-02
<MEAN> 39
 -5.264547e-01 -4.411695e+00 1.276347e+00 -3.427789e+00 -1.968505e+00 -1.971191e-01 -4.282168e+00 1.667134e+00 2.693734e+00 7.938138e+00 -8.351246e+00 -6.027771e-01 1.080767e+02 1.684881e+01 -2.375281e+00 -1.787802e+00 -9.306334e+00 1.503412e+00 1.676035e+00 2.677451e+00 -5.752441e-01 2.695759e+00 5.909693e+00 1.018796e+00 -2.246508e+00 1.348801e+01 -1.283655e+00 -2.313359e+00 -8.191616e-01 -1.435789e+00 4.289200e-01 7.108296e-01 4.510152e-01 1.013595e-01 -1.530142e-01 4.102238e-01 4.831840e-01 3.494768e-02 6.276231e-01
<VARIANCE> 39
 1.509263e+02 7.298599e+01 7.225516e+01 8.698231e+01 6.879921e+01 9.649407e+01 8.621371e+01 9.771197e+01 9.860773e+01 1.141416e+02 9.290884e+01 9.202711e+01 1.825856e+02 1.091453e+01 1.869782e+01 1.935388e+01 3.095735e+01 2.639367e+01 2.391765e+01 2.863709e+01 2.510973e+01 5.064385e+01 2.862615e+01 4.824584e+01 2.172637e+01 2.092507e+01 2.300149e+00 1.948008e+00 1.830387e+00 2.305296e+00 2.162903e+00 2.089764e+00 2.205886e+00 2.262716e+00 2.296430e+00 2.469958e+00 2.426896e+00 2.559338e+00 3.580850e+00
<GCONST> 1.840671e+02
<TRANSP> 5
 0.000000e+00 1.000000e+00 0.000000e+00 0.000000e+00 0.000000e+00
 0.000000e+00 8.482412e-01 1.517588e-01 0.000000e+00 0.000000e+00
 0.000000e+00 0.000000e+00 6.792157e-01 3.207843e-01 0.000000e+00
 0.000000e+00 0.000000e+00 0.000000e+00 5.278581e-01 4.721419e-01
 0.000000e+00 0.000000e+00 0.000000e+00 0.000000e+00 0.000000e+00
<ENDHMM>
~h "k"
<BEGINHMM>
<NUMSTATES> 5
<STATE> 2
<NUMMIXES> 16
<MIXTURE> 1 7.146823e-02
<MEAN> 39
 4.833019e+00 -1.431493e+01 5.183182e+01 2.255035e+01 2.419924e-01 -4.141563e+01 -7.429299e+00 2.755113e+01 -5.382672e+01 3.827987e+00 -1.757786e+00 -2.450962e+00 1.261569e+02 -1.558589e+00 8.199946e+00 -2.763281e+00 8.275130e+00 4.243998e+00 3.731149e+00 9.073380e+00 3.957968e-01 2.436055e+00 -1.224895e+00 3.027341e+00 6.568201e-01 -1.676020e+01 -1.197070e+00 1.637674e+00 -3.388650e+00 -1.649462e+00 1.160903e-01 3.654390e+00 -1.609905e+00 -3.354391e+00 5.706925e+00 -9.271625e-02 -6.963880e-01 5.557014e-01 -3.295047e+00
<VARIANCE> 39
 5.376656e+01 9.893290e+01 2.849498e+02 2.429830e+02 2.626338e+02 2.982023e+02 3.227734e+02 3.061671e+02 3.660840e+02 4.389038e+02 2.822553e+02 2.238835e+02 1.800829e+02 9.004774e+00 1.382769e+01 1.791474e+01 1.796791e+01 2.134822e+01 2.671917e+01 2.195205e+01 2.522269e+01 3.881217e+01 2.758252e+01 2.560355e+01 2.513855e+01 1.791364e+01 1.232123e+00 2.859800e+00 3.421089e+00 3.332228e+00 3.518462e+00 4.607006e+00 4.618824e+00 6.486982e+00 6.173998e+00 7.634009e+00 4.031364e+00 4.970785e+00 3.283757e+00
<GCONST> 1.999142e+02
<MIXTURE> 2 2.881172e-02
<MEAN> 39
 -1.371124e+01 1.300637e+01 1.762668e+01 2.478215e+01 5.606681e+00 -5.209476e+00 2.559016e+00 6.908013e+00 -7.272322e+00 -6.838109e-01 5.813717e+00 7.682099e+00 5.780649e+01 -4.257052e+00 2.377107e+00 -8.048502e+00 -3.551171e+00 7.626021e-01 9.311401e+00 -1.439222e-01 -1.875219e+00 8.479286e+00 1.616768e+00 4.674599e-01 1.788508e-01 -9.143396e+00 9.317513e-01 -3.819449e+00 3.849615e-01 -2.556869e+00 -7.958276e-01 -2.759296e+00 -1.609498e+00 4.172254e-02 -1.620913e+00 8.163543e-01 -1.324637e+00 -4.536275e-01 6.029348e+00
<VARIANCE> 39
 9.674437e+01 1.440000e+02 1.434326e+02 1.634089e+02 1.858887e+02 2.382053e+02 2.352589e+02 2.095976e+02 1.761191e+02 1.579249e+02 1.559183e+02 1.113826e+02 3.590541e+01 1.069998e+01 1.815852e+01 3.053582e+01 1.712099e+01 2.388587e+01 3.307726e+01 2.951691e+01 4.326810e+01 3.906032e+01 2.528486e+01 2.059685e+01 2.059206e+01 2.582590e+01 2.281065e+00 6.723485e+00 3.181704e+00 5.747250e+00 5.247166e+00 5.131901e+00 6.679104e+00 5.894060e+00 5.998991e+00 4.421137e+00 4.165163e+00 3.428176e+00 7.197801e+00
<GCONST> 1.984247e+02
<MIXTURE> 3 5.114535e-02
<MEAN> 39
 -3.166749e+00 2.667468e+01 2.905957e+01 2.920318e+01 4.540283e+00 3.568948e+00 6.899869e+00 -3.489912e+00 -7.997905e+00 9.593049e-01 -1.771666e+00 -3.152130e+00 6.166333e+01 -6.051327e+00 -1.328947e+00 -1.187808e+01 -1.280962e+00 6.376309e+00 3.715144e+00 -8.425357e+00 6.657990e+00 1.419596e+00 -4.150079e+00 9.452399e-01 -1.333367e+00 -1.065829e+01 -1.000917e+00 -5.166722e+00 -1.507540e+00 -3.643417e+00 -2.718113e+00 -3.434336e+00 -3.829064e-01 -1.629121e+00 9.373856e-02 9.090385e-01 -4.664103e-01 1.755131e+00 6.784369e+00
<VARIANCE> 39
 6.436234e+01 9.861694e+01 7.587968e+01 8.860999e+01 1.372433e+02 1.199792e+02 1.183288e+02 1.446871e+02 1.473947e+02 1.482044e+02 1.363223e+02 1.201151e+02 2.650123e+01 9.195388e+00 2.993631e+01 1.660929e+01 2.377311e+01 1.978754e+01 3.313494e+01 3.640477e+01 3.281582e+01 4.166601e+01 1.932488e+01 1.952084e+01 2.057100e+01 4.950803e+01 2.282416e+00 4.950349e+00 3.090340e+00 3.143627e+00 3.360581e+00 3.785159e+00 4.230243e+00 5.934216e+00 6.626815e+00 3.960210e+00 3.775583e+00 3.232059e+00 6.596643e+00
<GCONST> 1.915522e+02
<MIXTURE> 4 6.867564e-02
<MEAN> 39
 -7.528324e-01 1.167730e+01 4.052354e+01 3.285978e+01 -1.396957e+01 -1.599547e+01 2.261030e+01 -7.222470e+00 -1.824793e+01 1.160766e+01 2.332418e+00 9.530663e-03 8.293129e+01 -3.960590e+00 5.944132e+00 -7.763863e+00 3.191327e+00 7.546488e+00 8.726685e+00 -5.104015e+00 5.382524e+00 4.425760e+00 -4.589752e+00 2.549855e+00 -2.334977e+00 -1.657102e+01 -1.358473e+00 -2.875724e+00 -2.675903e+00 -4.062838e+00 1.047117e-01 -7.882085e-01 -3.033508e+00 1.684500e-01 1.191145e+00 -4.995393e-01 -8.537058e-01 1.452380e+00 2.629267e+00
<VARIANCE> 39
 1.165040e+02 1.759264e+02 1.497315e+02 1.669203e+02 2.067806e+02 3.161623e+02 2.158828e+02 2.654027e+02 3.341939e+02 1.991057e+02 2.236393e+02 2.083600e+02 1.798011e+02 1.317660e+01 2.030936e+01 2.224691e+01 2.469001e+01 2.407581e+01 3.373877e+01 5.244621e+01 5.015998e+01 5.432816e+01 2.698272e+01 2.480393e+01 2.404528e+01 3.355837e+01 2.517783e+00 5.068718e+00 3.494300e+00 3.139517e+00 3.438524e+00 5.450985e+00 5.168323e+00 4.760937e+00 5.251574e+00 3.620506e+00 4.317456e+00 3.477948e+00 5.448952e+00
<GCONST> 2.029148e+02
<MIXTURE> 5 5.972341e-02
<MEAN> 39
 -1.407108e+01 1.692449e+01 1.540636e+01 1.961972e+01 5.771704e+00 -2.200140e+00 -4.422606e+00 -2.867964e+00 -9.510406e+00 -4.642449e+00 1.983586e-01 4.055511e+00 5.355244e+01 -5.495142e+00 -1.126000e+00 -9.516376e+00 -7.020570e+00 -6.171023e-01 5.970209e+00 -1.720817e+00 -3.985365e+00 7.320440e+00 2.474636e+00 -1.254363e+00 6.296166e-01 -6.582693e+00 1.092086e+00 -4.679682e+00 7.364820e-01 -1.111269e+00 -7.806507e-01 -3.428344e+00 -8.656647e-01 2.046249e+00 -1.733837e+00 1.013418e+00 -2.556992e-01 -2.241726e-01 7.813972e+00
<VARIANCE> 39
 3.006520e+01 4.261654e+01 5.439068e+01 6.318285e+01 8.722637e+01 1.389393e+02 1.583638e+02 1.478750e+02 1.606628e+02 1.393137e+02 1.052847e+02 8.667142e+01 1.500521e+01 6.683530e+00 2.965514e+01 1.674369e+01 1.137150e+01 1.592981e+01 2.959377e+01 3.083848e+01 2.662757e+01 2.398425e+01 2.083377e+01 1.810479e+01 1.494021e+01 3.590773e+01 1.887088e+00 3.393572e+00 2.934543e+00 2.955088e+00 4.168939e+00 5.940156e+00 5.601636e+00 7.090805e+00 5.552641e+00 4.463711e+00 4.450441e+00 2.673803e+00 7.520965e+00
<GCONST> 1.856948e+02
<MIXTURE> 6 8.052178e-02
<MEAN> 39
 -7.538892e+00 5.016978e+00 2.904417e+01 3.457344e+01 5.830180e+00 -2.209552e+01 1.091627e+00 9.967690e+00 -2.162891e+01 -4.838774e+00 1.263212e+00 4.029224e+00 7.790038e+01 -6.605082e+00 3.740997e+00 -8.917444e+00 -2.144099e+00 2.332300e+00 8.072090e+00 -4.608043e-01 -4.493141e+00 7.368812e+00 -9.847460e-01 -3.975676e-01 2.886100e-01 -1.388268e+01 -1.834305e-01 -2.750395e+00 -1.212620e+00 -3.902135e+00 -1.591395e+00 -2.605209e-01 -2.079576e+00 -3.723154e-01 8.652771e-01 1.268591e+00 -4.651713e-01 1.575717e-02 4.306368e+00
<VARIANCE> 39
 1.484505e+02 2.394626e+02 2.359962e+02 2.053588e+02 3.647536e+02 2.541420e+02 3.180437e+02 3.535498e+02 2.963457e+02 2.280658e+02 2.260546e+02 1.677366e+02 1.819463e+02 1.184389e+01 3.042295e+01 3.255602e+01 2.924931e+01 2.844273e+01 3.815479e+01 4.493187e+01 5.469971e+01 4.982102e+01 3.475887e+01 2.517171e+01 2.401696e+01 3.893774e+01 3.687902e+00 6.973577e+00 4.059806e+00 4.255300e+00 5.556118e+00 5.264408e+00 7.306407e+00 6.414316e+00 6.343810e+00 4.450171e+00 4.959632e+00 4.166604e+00 8.951264e+00
<GCONST> 2.098257e+02
<MIXTURE> 7 7.604213e-02
<MEAN> 39
 5.326890e+00 -4.593078e+00 3.728881e+01 3.729668e+01 7.332695e+00 -3.688636e+01 -5.039726e+00 3.064350e+01 -3.184788e+01 -8.453656e+00 5.376429e+00 6.634034e+00 1.002229e+02 -5.206787e+00 8.649130e+00 -5.817168e+00 2.605633e+00 4.069725e+00 8.170712e+00 5.582731e+00 -4.348723e+00 6.434590e+00 6.172878e-01 -5.781263e-01 1.592166e+00 -1.813752e+01 -1.544157e+00 -1.390605e+00 -2.497008e+00 -4.322256e+00 -1.310363e+00 2.267852e+00 -2.263560e+00 -3.284875e+00 2.640041e+00 1.564136e+00 -1.103498e+00 -7.349267e-01 9.338300e-01
<VARIANCE> 39
 5.521572e+01 1.165584e+02 2.702679e+02 1.620924e+02 1.999264e+02 2.758542e+02 4.637733e+02 2.515459e+02 3.328383e+02 3.186770e+02 2.526077e+02 2.166504e+02 2.211925e+02 1.096295e+01 2.741996e+01 3.048755e+01 2.335924e+01 2.867633e+01 4.018504e+01 3.170011e+01 4.373443e+01 5.131498e+01 4.075927e+01 2.951673e+01 2.331448e+01 2.663944e+01 1.444382e+00 3.300774e+00 2.973018e+00 2.954681e+00 3.323742e+00 4.439616e+00 6.075126e+00 5.176548e+00 5.196687e+00 4.666052e+00 4.721722e+00 4.502143e+00 5.397891e+00
<GCONST> 2.034263e+02
<MIXTURE> 8 5.799997e-02
<MEAN> 39
 -1.323237e+01 1.505945e+01 1.355844e+01 1.319866e+01 -7.542819e+00 -1.359100e+01 -1.532446e+01 -2.026480e+01 -2.337955e+01 -1.394367e+01 -9.113777e+00 -2.692690e+00 5.594418e+01 -5.396254e+00 -9.738611e-01 -1.042452e+01 -1.928391e+00 4.427030e+00 3.348486e+00 -5.550939e+00 5.787305e+00 2.249622e+00 -1.654050e+00 1.233758e+00 -1.132741e+00 -9.221488e+00 6.934410e-01 -3.183837e+00 9.941550e-01 -1.761225e+00 -1.146798e+00 -8.271220e-01 3.162132e+00 4.753850e-01 3.053238e+00 2.849029e+00 1.058845e+00 1.621497e+00 6.840559e+00
<VARIANCE> 39
 2.753039e+01 4.636614e+01 5.521492e+01 7.427979e+01 1.078820e+02 1.263754e+02 1.287697e+02 1.230331e+02 1.322007e+02 1.452485e+02 1.491239e+02 1.197931e+02 1.847803e+01 6.968209e+00 3.275433e+01 1.664931e+01 2.780235e+01 2.495261e+01 3.830836e+01 3.403241e+01 3.618930e+01 3.655364e+01 2.292345e+01 1.926054e+01 1.793421e+01 4.466150e+01 1.608009e+00 3.396482e+00 2.689660e+00 4.101179e+00 3.282856e+00 3.935092e+00 4.342687e+00 6.105148e+00 4.512724e+00 3.944207e+00 3.647290e+00 3.289576e+00 7.013099e+00
<GCONST> 1.880766e+02
<MIXTURE> 9 1.019503e-01
<MEAN> 39
 -5.958535e+00 1.100183e+01 3.602027e+01 2.799412e+01 -1.444184e+01 -7.936766e+00 1.710125e+01 -1.293941e+01 -1.304058e+01 8.753135e+00 1.969759e+00 3.632662e-01 7.803902e+01 -6.002443e+00 3.334350e+00 -1.056703e+01 3.210012e+00 6.982414e+00 4.870203e+00 -8.659224e+00 6.474663e+00 -1.150002e+00 -6.034742e+00 1.334786e+00 -3.450303e+00 -1.744477e+01 -6.765560e-01 -2.754358e+00 -2.286969e+00 -4.199786e+00 -2.345559e-01 -1.621556e+00 -1.679265e+00 4.085144e-01 1.355561e+00 -1.859512e-01 -3.946387e-01 1.501298e+00 3.146754e+00
<VARIANCE> 39
 1.511462e+02 2.333839e+02 1.538065e+02 1.514096e+02 1.781530e+02 3.230667e+02 1.863503e+02 2.258295e+02 2.456684e+02 1.626256e+02 1.898028e+02 1.618156e+02 1.651460e+02 9.078215e+00 2.114670e+01 1.736226e+01 2.400940e+01 1.936360e+01 3.071691e+01 3.659658e+01 3.820800e+01 4.364096e+01 2.612553e+01 2.006879e+01 1.988726e+01 2.142884e+01 3.047686e+00 5.907632e+00 3.487823e+00 2.945385e+00 3.082466e+00 5.576420e+00 4.446009e+00 4.822845e+00 4.904754e+00 3.480240e+00 4.207262e+00 3.337527e+00 6.065301e+00
<GCONST> 1.992724e+02
<MIXTURE> 10 6.597388e-02
<MEAN> 39
 -7.311518e+00 7.699533e+00 2.837323e+01 3.302910e+01 4.082561e+00 -2.278483e+01 -6.515861e+00 6.997232e-01 -2.595414e+01 -1.128270e+01 -4.101695e+00 3.256013e+00 7.408585e+01 -6.907781e+00 3.332788e+00 -1.062169e+01 -3.495633e+00 1.406772e+00 6.112176e+00 -3.280929e+00 -5.973718e+00 5.183078e+00 -2.336209e+00 -1.670867e+00 -5.287954e-01 -1.423317e+01 -2.793847e-01 -3.270953e+00 -1.234846e+00 -3.667984e+00 -1.579511e+00 -1.486032e-01 -1.070357e+00 6.155826e-01 1.437978e+00 1.893634e+00 1.932038e-01 1.081239e-01 5.356098e+00
<VARIANCE> 39
 1.257781e+02 2.299229e+02 1.837470e+02 1.652229e+02 3.072884e+02 2.464754e+02 3.918806e+02 3.902802e+02 2.577032e+02 2.288776e+02 2.368398e+02 1.552293e+02 1.248985e+02 8.806287e+00 3.596357e+01 2.488037e+01 2.783502e+01 2.989758e+01 3.366460e+01 5.857246e+01 6.745574e+01 5.246532e+01 3.921241e+01 2.290203e+01 2.316250e+01 3.854268e+01 3.402901e+00 6.062039e+00 3.614751e+00 3.616265e+00 4.834615e+00 5.189439e+00 7.915862e+00 7.424717e+00 6.857305e+00 5.358558e+00 5.107403e+00 4.348540e+00 7.905603e+00
<GCONST> 2.084823e+02
<MIXTURE> 11 5.590992e-02
<MEAN> 39
 -1.277587e+01 1.769377e+01 1.518139e+01 1.858050e+01 4.269613e+00 -5.874070e+00 -8.820646e+00 -7.390581e+00 -1.360561e+01 -8.596227e+00 -3.561561e+00 2.385042e+00 5.430276e+01 -6.102048e+00 -3.401651e+00 -1.081422e+01 -8.967885e+00 -1.324000e+00 4.881203e+00 -3.279623e+00 -5.956958e+00 5.817195e+00 1.765778e+00 -2.235435e+00 -8.101761e-02 -4.167896e+00 6.388558e-01 -4.883167e+00 5.824338e-01 -9.638014e-01 -4.422821e-01 -3.297606e+00 -5.104646e-01 2.805223e+00 -1.511451e+00 1.656763e+00 4.803053e-02 -9.264347e-02 8.651623e+00
<VARIANCE> 39
 3.609351e+01 4.682214e+01 5.543763e+01 6.517761e+01 8.518916e+01 1.514510e+02 1.704715e+02 1.771632e+02 1.868000e+02 1.628476e+02 1.153920e+02 7.766135e+01 1.886971e+01 7.072584e+00 3.613237e+01 1.686127e+01 1.183817e+01 1.795465e+01 2.650506e+01 2.593122e+01 2.625190e+01 2.528871e+01 2.035608e+01 1.891479e+01 1.355347e+01 5.159925e+01 3.000249e+00 3.394424e+00 3.360059e+00 3.101019e+00 4.573903e+00 6.967962e+00 5.979347e+00 8.981518e+00 6.347133e+00 5.454441e+00 3.795468e+00 2.761601e+00 7.193808e+00
<GCONST> 1.886829e+02
<MIXTURE> 12 6.276323e-02
<MEAN> 39
 2.753161e+00 -3.923969e+00 3.785807e+01 3.305593e+01 6.520034e+00 -3.711712e+01 -5.498170e+00 2.334242e+01 -3.430171e+01 -5.470343e+00 1.835987e+00 5.495575e+00 9.543490e+01 -5.915762e+00 9.320480e+00 -8.782937e+00 5.606809e-01 2.546890e+00 6.342664e+00 2.589486e+00 -9.581254e+00 5.933093e+00 -2.061767e+00 -2.147740e+00 1.159764e+00 -1.996985e+01 -1.288575e+00 -1.704617e+00 -2.375288e+00 -3.976557e+00 -1.752531e+00 2.174198e+00 -2.503292e+00 -2.324797e+00 2.493170e+00 1.004942e+00 -5.911314e-01 -5.532909e-01 1.567902e+00
<VARIANCE> 39
 6.047926e+01 1.282737e+02 2.159522e+02 1.481759e+02 2.535288e+02 3.052964e+02 5.213814e+02 2.697610e+02 3.100134e+02 2.847086e+02 2.454249e+02 1.885209e+02 1.839056e+02 7.693158e+00 2.440214e+01 2.544222e+01 2.207345e+01 2.696806e+01 3.564062e+01 4.081713e+01 3.637024e+01 3.717847e+01 4.004129e+01 2.440731e+01 1.981788e+01 2.173776e+01 1.513547e+00 3.267373e+00 2.955099e+00 2.792900e+00 4.260800e+00 4.074821e+00 6.692276e+00 4.738323e+00 5.890745e+00 4.720012e+00 4.587994e+00 3.666786e+00 5.430552e+00
<GCONST> 2.016255e+02
<MIXTURE> 13 8.535209e-02
<MEAN> 39
 5.642549e+00 -1.587699e+01 4.978762e+01 2.140568e+01 -1.904545e+00 -3.962705e+01 -4.458186e+00 2.291435e+01 -4.650819e+01 3.651680e+00 -5.811032e-01 -6.910521e-01 1.212611e+02 -3.630469e+00 9.002359e+00 -5.804899e+00 6.897708e+00 3.850994e+00 3.610118e+00 5.339722e+00 -3.517432e+00 2.557337e+00 -3.461211e+00 8.219312e-01 4.564727e-01 -1.832603e+01 -1.694137e+00 9.754130e-01 -3.526399e+00 -2.393862e+00 -2.845537e-01 2.877114e+00 -2.546078e+00 -3.053478e+00 4.493361e+00 -3.274927e-01 -9.774143e-01 6.297554e-01 -2.521491e+00
<VARIANCE> 39
 4.755700e+01 1.068972e+02 2.674702e+02 1.648372e+02 2.614374e+02 3.641907e+02 4.171448e+02 3.242723e+02 3.083771e+02 3.664422e+02 2.823002e+02 2.095467e+02 1.632322e+02 9.192032e+00 1.686403e+01 1.981841e+01 2.015449e+01 2.421466e+01 2.726138e+01 3.344091e+01 2.651260e+01 3.892313e+01 2.952457e+01 2.572464e+01 2.302423e+01 2.325324e+01 1.058450e+00 2.650588e+00 3.390959e+00 2.393793e+00 3.043067e+00 4.980181e+00 6.073622e+00 6.707182e+00 4.645775e+00 5.884146e+00 4.237113e+00 4.067711e+00 3.377634e+00
<GCONST> 1.997162e+02
<MIXTURE> 14 3.936163e-02
<MEAN> 39
 -1.519589e+01 8.784105e+00 1.537763e+01 2.435458e+01 4.500943e+00 -1.186035e+01 -4.170404e+00 5.254820e+00 -1.057628e+01 -5.901233e+00 1.566649e+00 6.318834e+00 5.849287e+01 -6.053551e+00 2.499821e+00 -8.390897e+00 -5.974482e+00 -8.004397e-01 8.211600e+00 -1.290575e+00 -5.072777e+00 6.075941e+00 9.535820e-01 -3.330022e-01 -7.374467e-01 -1.089909e+01 1.223122e+00 -3.094076e+00 2.426819e-01 -2.311667e+00 -1.050192e+00 -1.692085e+00 -1.023838e+00 2.154780e-01 -6.661643e-01 1.289541e+00 -4.373918e-01 -1.600861e-01 5.619079e+00
<VARIANCE> 39
 8.442521e+01 1.419514e+02 1.155357e+02 1.152395e+02 1.735023e+02 2.335527e+02 2.578537e+02 2.006837e+02 1.827096e+02 1.630821e+02 1.468566e+02 1.137234e+02 3.507514e+01 9.968306e+00 1.827112e+01 2.430743e+01 1.590206e+01 2.471764e+01 3.365263e+01 3.921452e+01 3.679774e+01 3.145302e+01 2.314511e+01 1.897185e+01 1.544976e+01 2.291796e+01 2.277668e+00 5.498242e+00 3.073866e+00 3.624619e+00 4.494625e+00 5.666775e+00 5.756516e+00 6.749194e+00 5.458141e+00 4.300760e+00 3.878261e+00 3.299510e+00 7.195737e+00
<GCONST> 1.956887e+02
<MIXTURE> 15 5.564465e-02
<MEAN> 39
 -1.079053e+01 2.008115e+01 2.002237e+01 2.274436e+01 4.181386e+00 2.004332e+00 1.473780e+00 -4.861351e+00 -8.034678e+00 -9.715884e-01 -1.184113e+00 -2.235056e+00 5.654528e+01 -6.732186e+00 -4.923903e+00 -1.347627e+01 -3.393405e+00 3.928413e+00 3.100370e-01 -9.717434e+00 5.491937e+00 -2.408705e-01 -4.745123e+00 4.052451e-01 -9.393193e-01 -7.591872e+00 1.594802e-01 -4.401009e+00 -3.259566e-01 -2.732778e+00 -3.207801e+00 -3.214523e+00 9.302414e-01 -1.995695e+00 5.465537e-01 1.298493e+00 -5.647553e-01 1.916354e+00 7.833673e+00
<VARIANCE> 39
 5.248726e+01 7.846250e+01 6.556322e+01 7.157926e+01 1.086958e+02 1.039757e+02 1.076899e+02 1.192457e+02 1.361133e+02 1.274328e+02 1.246102e+02 1.132672e+02 2.471624e+01 7.512678e+00 3.628047e+01 1.295503e+01 1.831483e+01 1.782648e+01 3.216622e+01 2.338410e+01 2.200810e+01 2.692900e+01 1.580249e+01 1.587249e+01 1.761282e+01 5.825597e+01 2.314903e+00 4.329273e+00 2.688676e+00 3.335702e+00 3.459040e+00 3.325171e+00 3.921705e+00 4.388376e+00 5.140267e+00 3.656580e+00 3.363928e+00 3.343366e+00 7.225407e+00
<GCONST> 1.863122e+02
<MIXTURE> 16 3.863177e-02
<MEAN> 39
 -1.002373e+01 1.793566e+01 1.536972e+01 1.428377e+01 -8.016247e+00 -1.575146e+01 -1.845918e+01 -2.324128e+01 -2.735349e+01 -1.724606e+01 -1.112676e+01 -2.895668e+00 5.703169e+01 -6.510828e+00 2.495552e-01 -1.186671e+01 -4.085930e+00 3.221184e+00 3.424764e+00 -9.159506e+00 2.054430e+00 1.230610e+00 -4.579050e+00 -5.830131e-01 -1.789271e+00 -1.183667e+01 2.679905e-01 -4.102942e+00 5.469118e-01 -1.941873e+00 -7.201492e-01 -8.677917e-01 3.162356e+00 1.395615e+00 2.931289e+00 3.334886e+00 9.574223e-01 1.596335e+00 6.944672e+00
<VARIANCE> 39
 3.342809e+01 4.269666e+01 5.475377e+01 6.052680e+01 9.538705e+01 1.350580e+02 1.349651e+02 1.452324e+02 1.580081e+02 1.457190e+02 1.227358e+02 8.893472e+01 1.874296e+01 4.125862e+00 2.581488e+01 1.384916e+01 1.949840e+01 2.287563e+01 4.129382e+01 2.911169e+01 5.120097e+01 3.589875e+01 1.938523e+01 1.744636e+01 1.508780e+01 2.979595e+01 1.516024e+00 3.413015e+00 2.361900e+00 3.603001e+00 3.614975e+00 3.877392e+00 5.201478e+00 8.106175e+00 5.054225e+00 4.032629e+00 2.991318e+00 2.409360e+00 6.298073e+00
<GCONST> 1.856005e+02
<STATE> 3
<NUMMIXES> 16
<MIXTURE> 1 2.722431e-02
<MEAN> 39
 -1.696653e+01 1.349190e+01 9.996029e+00 1.181937e+01 -3.447881e+00 -7.774498e+00 -9.179689e+00 -9.756583e+00 -1.122281e+01 -4.740959e+00 -3.584358e+00 6.191428e-01 5.327725e+01 -6.709049e-01 -4.101752e+00 -4.305511e+00 -5.610266e-01 2.030513e+00 3.103343e+00 3.014087e+00 5.185375e+00 5.580495e+00 4.496267e+00 2.787553e+00 1.194877e+00 3.553761e+00 3.918603e-01 -2.022348e+00 9.485602e-03 3.190180e-01 -6.763608e-01 -1.154868e+00 4.334700e-01 8.159378e-02 -2.162502e-01 7.731833e-01 1.691807e-01 5.968871e-01 4.756819e+00
<VARIANCE> 39
 6.231764e+01 8.231383e+01 8.111932e+01 7.985349e+01 9.220176e+01 1.199147e+02 1.538881e+02 1.341575e+02 1.362826e+02 1.147205e+02 8.443357e+01 7.492401e+01 2.445399e+01 1.465138e+01 3.456277e+01 2.352454e+01 1.566977e+01 1.501034e+01 2.089306e+01 2.036815e+01 1.725788e+01 2.140892e+01 1.936643e+01 1.860032e+01 1.137204e+01 5.974990e+01 3.270481e+00 4.006989e+00 7.037689e+00 3.635576e+00 4.897559e+00 4.183105e+00 7.600823e+00 5.294294e+00 4.644597e+00 3.837358e+00 2.704207e+00 2.225927e+00 7.067044e+00
<GCONST> 1.882286e+02
<MIXTURE> 2 4.205827e-02
<MEAN> 39
 -9.950479e+00 -2.122306e+01 -1.828024e+01 6.771235e+00 1.591103e+00 -6.863780e+00 -1.093142e+01 8.190067e-01 -4.683332e+00 2.623596e+00 -3.418525e+00 2.280234e+00 8.504265e+01 -1.135317e+00 -6.662928e+00 -6.919676e+00 5.438547e-01 6.143333e-01 -8.474880e-01 -6.874579e-01 3.676678e+00 4.074141e+00 4.315555e+00 7.378237e-01 1.465673e+00 1.657158e+01 -2.964970e+00 3.123997e+00 3.631921e+00 1.629582e+00 -9.572946e-01 -1.602191e+00 8.381358e-01 3.313104e-01 -6.365445e-01 -5.459564e-01 -9.297001e-02 4.400817e-01 1.074733e+00
<VARIANCE> 39
 1.364763e+02 1.712410e+02 2.071415e+02 1.533319e+02 1.661401e+02 1.812537e+02 1.597722e+02 1.598968e+02 1.061761e+02 9.577312e+01 7.434846e+01 7.703958e+01 2.495171e+02 2.808789e+01 2.049336e+01 2.092518e+01 1.993609e+01 2.452834e+01 2.288860e+01 2.242826e+01 2.208421e+01 2.270129e+01 2.038914e+01 1.484529e+01 1.128309e+01 1.784890e+01 3.650480e+00 3.087903e+00 3.799011e+00 3.707577e+00 3.797657e+00 4.398923e+00 4.771241e+00 5.090313e+00 3.085692e+00 3.256490e+00 2.178386e+00 2.511953e+00 4.435130e+00
<GCONST> 1.915979e+02
<MIXTURE> 3 9.680651e-02
<MEAN> 39
 -2.503410e+01 6.126559e+00 8.911984e-01 4.531171e+00 -3.047929e+00 -3.870776e+00 -5.894833e+00 -2.449019e+00 -1.228799e+00 3.071790e+00 4.023941e+00 4.949727e+00 4.801629e+01 1.332294e+00 -4.612012e+00 -4.559681e+00 -2.710679e-01 1.301124e+00 6.519204e-01 6.333360e-02 2.187925e+00 2.726357e+00 2.579615e+00 4.581731e-01 5.517730e-01 6.701730e+00 8.928502e-01 -9.377671e-01 4.552383e-01 1.615855e+00 4.579620e-02 -1.584012e+00 -2.953256e-01 -4.882611e-03 -1.177237e+00 -5.177699e-01 -8.625416e-01 -1.252606e-01 5.010535e+00
<VARIANCE> 39
 1.892949e+01 2.432700e+01 3.098266e+01 4.396939e+01 5.829063e+01 7.764167e+01 8.726444e+01 9.759724e+01 8.712287e+01 8.296111e+01 7.915339e+01 7.088485e+01 1.295583e+01 1.537152e+01 2.331691e+01 1.859779e+01 1.627306e+01 1.337916e+01 1.746548e+01 1.680184e+01 1.416658e+01 1.269861e+01 1.444245e+01 1.305265e+01 8.967171e+00 7.081710e+01 3.799122e+00 2.705597e+00 3.196090e+00 2.168617e+00 3.547428e+00 4.215906e+00 3.455979e+00 3.792116e+00 3.508828e+00 2.854694e+00 2.532474e+00 2.186539e+00 5.038919e+00
<GCONST> 1.745055e+02
<MIXTURE> 4 4.719155e-02
<MEAN> 39
 -2.695880e+01 -1.747664e+01 -5.801892e-01 1.950340e+01 -4.168005e-01 -1.873733e+01 -9.912682e+00 2.902871e+00 -1.007900e+01 -5.735204e+00 -3.855335e+00 4.909971e+00 7.918203e+01 -3.368036e+00 -5.233875e+00 -8.169337e+00 -2.791455e+00 -5.498005e-01 -4.919944e-01 -2.065216e+00 2.956802e+00 4.473655e+00 2.091738e+00 5.485197e-01 1.519785e+00 6.741940e+00 7.815639e-01 2.047279e+00 2.367597e+00 -1.940767e-01 -1.188919e+00 -1.592131e-01 1.200387e+00 -1.500524e-01 -2.850952e-01 1.184748e+00 1.660801e-01 1.658853e-01 3.508773e+00
<VARIANCE> 39
 1.751568e+02 1.757626e+02 2.224191e+02 2.139753e+02 3.502578e+02 2.566414e+02 2.750031e+02 2.900041e+02 2.517484e+02 1.562473e+02 1.589976e+02 1.271732e+02 2.708451e+02 3.051391e+01 2.820934e+01 2.466139e+01 1.950205e+01 2.469239e+01 2.874645e+01 2.688929e+01 2.987697e+01 2.440726e+01 2.113629e+01 1.833153e+01 1.517332e+01 6.947765e+01 5.303654e+00 3.859232e+00 4.986207e+00 5.638981e+00 6.915088e+00 6.564035e+00 6.739564e+00 6.904194e+00 6.337104e+00 4.728946e+00 3.808691e+00 3.372963e+00 6.115037e+00
<GCONST> 2.056484e+02
<MIXTURE> 5 1.145526e-01
<MEAN> 39
 -2.577717e+01 5.373180e+00 2.775635e-01 4.237275e+00 -4.145936e+00 -5.999005e+00 -7.054215e+00 -3.184878e+00 -2.741165e+00 1.979689e+00 3.267619e+00 4.508329e+00 4.771836e+01 1.272235e+00 -4.398942e+00 -4.857427e+00 -9.866934e-01 4.043424e-02 -9.095894e-01 -2.424422e+00 1.425003e-01 4.351904e-01 -8.020228e-02 -8.799164e-01 3.251715e-01 5.995622e+00 9.956989e-01 -6.286772e-01 7.816756e-01 1.619087e+00 -2.552851e-01 -7.099169e-01 6.075245e-01 1.667337e-01 -3.336397e-01 2.413393e-01 -3.991278e-01 2.189287e-02 4.823608e+00
<VARIANCE> 39
 1.361561e+01 2.059843e+01 2.681176e+01 4.245439e+01 5.695552e+01 7.310789e+01 8.686514e+01 8.462365e+01 8.042827e+01 7.573855e+01 7.162605e+01 6.522480e+01 1.295583e+01 1.632480e+01 2.935662e+01 1.991195e+01 1.830756e+01 1.625937e+01 1.964194e+01 1.730231e+01 1.369642e+01 1.368795e+01 1.349618e+01 1.218479e+01 1.052024e+01 7.790035e+01 3.017331e+00 2.280720e+00 3.346388e+00 2.572505e+00 3.857138e+00 3.656790e+00 3.184045e+00 3.085634e+00 2.769082e+00 2.334851e+00 1.962975e+00 1.899865e+00 4.815629e+00
<GCONST> 1.728138e+02
<MIXTURE> 6 4.806900e-02
<MEAN> 39
 -2.024260e+01 -7.105522e+00 2.619766e+00 9.849154e+00 -1.206685e+00 -4.804286e+00 -2.894667e+00 -1.604977e+00 -5.566106e+00 6.572198e+00 -1.344776e+00 7.938381e-01 7.126253e+01 1.589002e-01 -1.180442e+00 -2.801089e+00 7.303861e-02 1.622591e+00 2.308786e-01 -1.383212e+00 -2.258249e-01 6.056356e-01 1.140752e+00 -2.337904e-01 -1.729559e-01 5.224159e+00 -6.002328e-01 7.709696e-01 3.074906e-01 1.835569e-01 -3.669855e-01 -1.167217e+00 -6.615299e-01 2.102612e-01 -4.295390e-02 -7.016851e-01 -1.200168e-01 4.404521e-01 1.357106e+00
<VARIANCE> 39
 2.552455e+02 3.417354e+02 3.414999e+02 2.626912e+02 3.311855e+02 2.642427e+02 3.472090e+02 2.342561e+02 1.967063e+02 1.680699e+02 1.463071e+02 1.187982e+02 2.526561e+02 2.490219e+01 3.060175e+01 2.426055e+01 2.312957e+01 1.936817e+01 2.781071e+01 2.547995e+01 1.907456e+01 1.722749e+01 1.728108e+01 1.402437e+01 1.213108e+01 9.893623e+01 7.937471e+00 6.279925e+00 6.893014e+00 5.494230e+00 4.974267e+00 5.039255e+00 5.407173e+00 4.686458e+00 3.936377e+00 3.437446e+00 3.049145e+00 2.452729e+00 5.196798e+00
<GCONST> 2.039756e+02
<MIXTURE> 7 6.992213e-02
<MEAN> 39
 -2.041187e+01 1.138553e+01 5.951367e+00 8.275753e+00 -1.834122e+00 -6.194838e+00 -1.084045e+01 -9.132051e+00 -9.550723e+00 -5.067599e+00 -2.372288e+00 1.538868e+00 4.993220e+01 -1.844120e+00 -7.290978e+00 -8.246378e+00 -4.086851e+00 7.227765e-01 1.083161e+00 -8.525628e-01 3.152628e+00 5.198793e+00 3.778937e+00 1.299299e+00 1.460195e+00 4.365520e+00 1.272575e+00 -2.360358e+00 1.461900e+00 1.395213e+00 -4.753650e-01 -2.202151e+00 1.337886e+00 1.070251e+00 -5.423591e-01 1.191293e+00 -1.695770e-02 5.833132e-01 7.488595e+00
<VARIANCE> 39
 1.870278e+01 2.576406e+01 3.181764e+01 4.794293e+01 6.168255e+01 8.290312e+01 9.958888e+01 1.074031e+02 1.147828e+02 1.072376e+02 7.621073e+01 7.910046e+01 1.295583e+01 1.267204e+01 3.575285e+01 2.132784e+01 1.536700e+01 1.949235e+01 2.304189e+01 2.074839e+01 1.946731e+01 1.972116e+01 1.985776e+01 1.583173e+01 1.277830e+01 7.044419e+01 2.567849e+00 3.634844e+00 2.969870e+00 2.838581e+00 5.920608e+00 5.136361e+00 5.473876e+00 7.277408e+00 4.962625e+00 4.047047e+00 2.860040e+00 2.647753e+00 5.761100e+00
<GCONST> 1.814783e+02
<MIXTURE> 8 4.097755e-02
<MEAN> 39
 -1.985013e+01 1.041618e+00 8.945451e+00 2.245835e+01 1.225212e+01 2.277815e+00 1.084285e+00 1.052871e+01 3.988067e-01 5.905988e+00 6.422784e-01 4.651853e+00 6.551226e+01 -3.273434e+00 -8.027781e+00 -1.040551e+01 -6.108863e+00 -3.525379e-01 -9.892224e-01 -4.530993e+00 -1.702243e+00 2.209716e+00 1.800193e+00 -1.816567e+00 3.349251e-01 7.155951e+00 -1.758889e-01 -8.401657e-01 1.112610e+00 -6.855915e-01 -1.653841e+00 -3.624013e+00 -1.055699e+00 -3.263174e-01 -1.907780e+00 -6.645254e-01 -4.947404e-01 -1.662818e-01 5.954246e+00
<VARIANCE> 39
 1.443436e+02 2.512277e+02 2.149522e+02 2.224193e+02 1.681014e+02 2.523078e+02 2.837499e+02 2.086091e+02 1.953360e+02 1.660168e+02 1.624530e+02 1.215968e+02 2.765602e+02 3.407361e+01 2.701397e+01 2.290876e+01 2.337808e+01 1.880852e+01 3.097712e+01 2.391612e+01 2.602169e+01 3.179945e+01 2.064598e+01 1.796058e+01 1.552463e+01 6.638901e+01 6.404959e+00 4.574874e+00 5.734069e+00 5.966860e+00 6.185647e+00 6.829568e+00 7.139547e+00 6.605974e+00 5.372763e+00 4.188079e+00 4.082933e+00 3.711463e+00 6.295692e+00
<GCONST> 2.048963e+02
<MIXTURE> 9 1.266375e-01
<MEAN> 39
 -2.815340e+01 2.906039e+00 -2.080680e+00 1.951592e+00 -4.859615e+00 -5.097290e+00 -6.350796e+00 -2.954129e+00 -1.715008e+00 2.059071e+00 2.447004e+00 3.751532e+00 4.637165e+01 2.473279e+00 -4.127128e+00 -4.291734e+00 2.807644e-02 1.169214e+00 1.127325e-01 -1.209573e+00 8.743017e-01 1.117463e+00 1.228142e+00 -4.871158e-01 -6.396261e-02 7.263860e+00 8.892242e-01 -5.454094e-01 2.332290e-01 1.498672e+00 8.895101e-02 -1.010061e+00 -4.808275e-01 -1.166063e-01 -8.088220e-01 -2.235702e-01 -6.570562e-01 -2.016984e-02 4.395268e+00
<VARIANCE> 39
 1.742217e+01 2.635305e+01 3.011465e+01 4.413802e+01 5.918364e+01 7.835888e+01 9.038355e+01 1.009950e+02 9.287803e+01 8.724242e+01 8.268583e+01 7.557077e+01 1.295583e+01 1.613944e+01 2.023859e+01 1.803635e+01 1.384976e+01 1.259866e+01 1.549051e+01 1.484717e+01 1.404896e+01 1.314107e+01 1.253362e+01 1.101624e+01 9.152172e+00 6.497924e+01 3.681904e+00 2.291196e+00 2.868248e+00 1.995699e+00 3.260200e+00 3.671818e+00 3.227584e+00 3.289444e+00 3.270440e+00 2.496652e+00 2.366311e+00 2.002343e+00 4.047331e+00
<GCONST> 1.724526e+02
<MIXTURE> 10 8.824140e-02
<MEAN> 39
