~o
<STREAMINFO> 1 39
<VECSIZE> 39<NULLD><MFCC_D_A_0><DIAGC>
~v "varFloor1"
<VARIANCE> 39
 6.753474e+00 3.412362e+00 5.607597e+00 4.796462e+00 3.472081e+00 4.011722e+00 4.412065e+00 3.618229e+00 3.682593e+00 3.039560e+00 2.639483e+00 2.510356e+00 1.295583e+01 2.277723e-01 1.546074e-01 2.184501e-01 2.118108e-01 1.813343e-01 2.097883e-01 2.257618e-01 2.166374e-01 2.009357e-01 1.748309e-01 1.664689e-01 1.534765e-01 2.729284e-01 3.005151e-02 2.352162e-02 2.950290e-02 3.333734e-02 2.970534e-02 3.528604e-02 3.796648e-02 3.764385e-02 3.477007e-02 3.067227e-02 2.924742e-02 2.697526e-02 3.680371e-02
~h "f"
<BEGINHMM>
<NUMSTATES> 5
<STATE> 2
<MEAN> 39
 -3.266659e+00 -8.821850e+00 4.210884e+00 -8.778763e+00 -2.530975e+00 -1.537241e+00 -3.382566e+00 2.499810e+00 -3.966107e+00 6.598213e+00 -2.549130e+00 2.286405e+00 1.014404e+02 3.620104e-01 -1.772124e-01 -1.381388e-01 -2.806241e-01 5.052434e-03 5.603760e-02 3.834228e-02 1.029625e-01 2.018730e-02 1.190310e-01 -4.440386e-02 -1.789065e-02 6.647342e-01 1.712317e-02 -9.981059e-03 4.419870e-03 3.363475e-04 4.945650e-03 -6.618652e-03 1.228254e-03 1.060398e-02 1.302359e-03 -9.627817e-04 -1.274300e-04 5.354907e-03 3.500938e-02
<VARIANCE> 39
 7.677705e+02 3.523201e+02 3.945793e+02 5.420718e+02 3.478914e+02 3.170139e+02 3.272848e+02 3.064443e+02 3.473856e+02 2.861638e+02 2.651393e+02 2.487132e+02 1.258762e+03 3.226251e+01 1.608977e+01 1.676280e+01 2.400768e+01 1.798017e+01 1.779365e+01 1.909340e+01 1.849458e+01 1.886569e+01 1.691220e+01 1.648089e+01 1.489950e+01 2.636746e+01 4.452386e+00 2.533350e+00 2.350135e+00 3.623504e+00 2.876199e+00 3.040028e+00 3.304219e+00 3.274906e+00 3.292929e+00 2.999148e+00 2.932710e+00 2.612854e+00 3.430425e+00
<GCONST> 2.024261e+02
<STATE> 3
<MEAN> 39
 -1.518639e+00 -9.588469e+00 3.719758e+00 -1.003028e+01 -2.511107e+00 -1.346650e+00 -3.202672e+00 3.005880e+00 -3.864798e+00 7.070119e+00 -2.713561e+00 2.249362e+00 1.045219e+02 4.405584e-01 -1.884759e-01 -1.178272e-01 -2.780120e-01 2.220790e-02 2.580573e-02 4.538520e-02 1.406038e-01 3.182712e-02 1.150536e-01 -3.741648e-02 4.758276e-04 7.554587e-01 1.421775e-02 -1.917257e-03 6.410194e-03 4.598481e-03 5.222938e-03 -7.161641e-03 2.032047e-03 8.604668e-03 3.225324e-03 -2.177023e-03 1.475928e-03 4.236617e-03 1.683770e-02
<VARIANCE> 39
 7.915003e+02 3.699712e+02 3.828203e+02 5.657791e+02 3.729474e+02 3.288529e+02 3.374481e+02 3.130779e+02 3.557861e+02 2.927372e+02 2.737552e+02 2.590232e+02 1.169502e+03 3.352225e+01 1.657149e+01 1.671291e+01 2.499858e+01 1.868262e+01 1.815910e+01 1.924723e+01 1.845458e+01 1.899353e+01 1.710564e+01 1.670940e+01 1.512966e+01 2.719816e+01 4.630536e+00 2.580633e+00 2.349328e+00 3.716027e+00 2.936980e+00 3.073801e+00 3.316874e+00 3.251326e+00 3.301933e+00 3.017092e+00 2.958113e+00 2.634888e+00 3.476618e+00
<GCONST> 2.031200e+02
<STATE> 4
<MEAN> 39
 1.627869e+00 -1.061343e+01 3.102930e+00 -1.221805e+01 -2.483039e+00 -1.072136e+00 -2.792595e+00 3.836404e+00 -3.489342e+00 7.725942e+00 -2.909273e+00 2.300508e+00 1.096854e+02 5.091963e-01 -1.332838e-01 -6.399710e-02 -2.162425e-01 3.740620e-02 -3.806555e-02 5.638338e-02 1.781173e-01 5.126587e-02 9.395418e-02 -1.194732e-02 1.895387e-02 6.903712e-01 -8.003463e-03 1.052331e-02 9.763585e-03 2.254051e-02 5.348389e-03 -9.953099e-03 5.957293e-04 2.875808e-03 2.775851e-03 -6.500453e-03 3.287869e-03 2.810972e-03 -3.015761e-02
<VARIANCE> 39
 7.980546e+02 4.037593e+02 3.799694e+02 6.043534e+02 4.195524e+02 3.579162e+02 3.628845e+02 3.249548e+02 3.732337e+02 3.076968e+02 2.896455e+02 2.795178e+02 1.049805e+03 3.392493e+01 1.673729e+01 1.666106e+01 2.600390e+01 1.960690e+01 1.868783e+01 1.943571e+01 1.828192e+01 1.899788e+01 1.730701e+01 1.687760e+01 1.539703e+01 2.715760e+01 4.667652e+00 2.545214e+00 2.320886e+00 3.771779e+00 2.990267e+00 3.102973e+00 3.305804e+00 3.181596e+00 3.276425e+00 3.020553e+00 2.956661e+00 2.646034e+00 3.388717e+00
<GCONST> 2.038531e+02
<TRANSP> 5
 0.000000e+00 1.000000e+00 0.000000e+00 0.000000e+00 0.000000e+00
 0.000000e+00 7.326850e-01 2.673150e-01 0.000000e+00 0.000000e+00
 0.000000e+00 0.000000e+00 7.326862e-01 2.673138e-01 0.000000e+00
 0.000000e+00 0.000000e+00 0.000000e+00 8.578409e-01 1.421591e-01
 0.000000e+00 0.000000e+00 0.000000e+00 0.000000e+00 0.000000e+00
<ENDHMM>
~h "k"
<BEGINHMM>
<NUMSTATES> 5
<STATE> 2
<MEAN> 39
 -2.356375e+01 -2.027780e+00 6.159235e+00 2.792604e+00 -5.237604e+00 -1.256718e+01 -4.739721e+00 1.165723e+00 -6.302378e+00 3.632484e+00 -3.566808e+00 5.951564e+00 1.038092e+02 1.154517e-01 -6.969830e-02 -9.192519e-02 -1.086324e-02 9.796441e-02 8.953963e-02 3.404228e-02 9.667077e-02 6.126767e-02 3.796191e-03 -1.983684e-02 -5.911256e-02 -1.395000e-01 3.450345e-02 -2.169551e-03 4.130471e-03 -8.315969e-03 5.820316e-03 1.587628e-02 4.935260e-03 1.835205e-03 4.919542e-03 1.702392e-03 2.190849e-03 -4.590063e-03 -2.816244e-02
<VARIANCE> 39
 7.872075e+02 2.624633e+02 6.492154e+02 3.572645e+02 3.545522e+02 3.843256e+02 3.750666e+02 3.280927e+02 3.101267e+02 2.325304e+02 2.160470e+02 2.118055e+02 9.009192e+02 4.230457e+01 2.326315e+01 3.530303e+01 2.309700e+01 1.931196e+01 2.667234e+01 2.811920e+01 2.468695e+01 2.440123e+01 1.921109e+01 1.679536e+01 1.656322e+01 6.006738e+01 5.860084e+00 4.432587e+00 4.728173e+00 4.110133e+00 3.491302e+00 4.805666e+00 5.074925e+00 4.537685e+00 4.407807e+00 3.645736e+00 3.131811e+00 3.064899e+00 9.483286e+00
<GCONST> 2.102588e+02
<STATE> 3
<MEAN> 39
 -2.318562e+01 -2.256588e+00 5.654037e+00 2.679889e+00 -4.810241e+00 -1.210505e+01 -4.595792e+00 1.562171e+00 -6.029888e+00 3.658822e+00 -3.650201e+00 5.696998e+00 1.030747e+02 2.294483e-01 -7.145634e-02 -8.082373e-02 -4.576348e-02 1.170517e-01 1.485293e-01 5.227864e-02 1.026587e-01 7.880339e-02 1.123148e-02 -1.374758e-02 -7.405909e-02 -2.209955e-01 3.008844e-02 9.721580e-04 5.135817e-03 -8.124179e-03 3.981708e-03 1.391178e-02 3.478432e-03 -2.025983e-04 3.623615e-03 2.183041e-03 3.087443e-03 -3.000389e-03 -2.215273e-02
<VARIANCE> 39
 7.885703e+02 2.615996e+02 6.307058e+02 3.635458e+02 3.561795e+02 3.834634e+02 3.710795e+02 3.290285e+02 3.125920e+02 2.353709e+02 2.172910e+02 2.115938e+02 9.009348e+02 4.129070e+01 2.295237e+01 3.399100e+01 2.284279e+01 1.932508e+01 2.630863e+01 2.767694e+01 2.456062e+01 2.425321e+01 1.914349e+01 1.677695e+01 1.644868e+01 5.908928e+01 5.715824e+00 4.387308e+00 4.596204e+00 4.063560e+00 3.483665e+00 4.753972e+00 5.013249e+00 4.518010e+00 4.383707e+00 3.635768e+00 3.130299e+00 3.049121e+00 9.428965e+00
<GCONST> 2.099862e+02
<STATE> 4
<MEAN> 39
 -2.240405e+01 -2.542239e+00 4.748407e+00 2.192556e+00 -4.360593e+00 -1.111343e+01 -4.379610e+00 2.064599e+00 -5.456775e+00 3.837620e+00 -3.686078e+00 5.362654e+00 1.016949e+02 3.413019e-01 -5.679556e-02 -6.510304e-02 -9.213636e-02 1.350911e-01 2.167291e-01 7.273316e-02 1.023127e-01 9.406903e-02 2.288004e-02 -5.647725e-03 -8.758754e-02 -3.012788e-01 2.770782e-02 3.570005e-03 1.223585e-02 -5.907096e-03 8.458801e-04 8.743810e-03 1.797860e-03 -3.999615e-03 7.393023e-04 2.413556e-03 4.829380e-03 -7.762861e-04 -1.314357e-02
<VARIANCE> 39
 7.893110e+02 2.594441e+02 5.983806e+02 3.737250e+02 3.585613e+02 3.824861e+02 3.638956e+02 3.252849e+02 3.128131e+02 2.410833e+02 2.201216e+02 2.113520e+02 9.199644e+02 3.848867e+01 2.163310e+01 3.089810e+01 2.193567e+01 1.909928e+01 2.521386e+01 2.635962e+01 2.374702e+01 2.338278e+01 1.879971e+01 1.656698e+01 1.606148e+01 5.565251e+01 5.353185e+00 4.105713e+00 4.248117e+00 3.886532e+00 3.413579e+00 4.554692e+00 4.783173e+00 4.366682e+00 4.225132e+00 3.561861e+00 3.086389e+00 2.978039e+00 8.875223e+00
<GCONST> 2.088763e+02
<TRANSP> 5
 0.000000e+00 1.000000e+00 0.000000e+00 0.000000e+00 0.000000e+00
 0.000000e+00 7.257082e-01 2.742918e-01 0.000000e+00 0.000000e+00
 0.000000e+00 0.000000e+00 7.257028e-01 2.742973e-01 0.000000e+00
 0.000000e+00 0.000000e+00 0.000000e+00 8.498114e-01 1.501885e-01
 0.000000e+00 0.000000e+00 0.000000e+00 0.000000e+00 0.000000e+00
<ENDHMM>
~h "n"
<BEGINHMM>
<NUMSTATES> 5
<STATE> 2
<MEAN> 39
 5.043596e+00 -7.663115e+00 1.716648e+01 -9.191151e-01 7.751307e-01 -4.876988e-01 1.582403e+00 5.606875e+00 -1.216359e+00 5.690673e+00 -3.238614e+00 4.933238e+00 1.093480e+02 -1.866952e-01 1.060676e-01 -3.852894e-02 1.109009e-01 -1.347492e-02 1.730041e-02 5.664133e-02 -1.583673e-02 -3.681780e-02 -5.223824e-02 -3.486955e-02 -2.724553e-02 -3.050302e-01 -5.157878e-04 -2.878716e-03 -1.417573e-02 -2.059459e-02 -3.889677e-04 -8.395856e-03 -1.831232e-02 3.778599e-04 -1.776741e-03 4.938259e-03 9.059582e-03 -3.422865e-03 6.554432e-03
<VARIANCE> 39
 4.787794e+02 4.134991e+02 4.731349e+02 5.694341e+02 3.804062e+02 3.936538e+02 5.408420e+02 4.771581e+02 4.253058e+02 3.661884e+02 3.298932e+02 3.136280e+02 1.069500e+03 1.918364e+01 1.667656e+01 2.143954e+01 2.560275e+01 1.913577e+01 2.241357e+01 2.713772e+01 2.828269e+01 2.206175e+01 1.874582e+01 1.871754e+01 1.734497e+01 2.309175e+01 2.542790e+00 2.326698e+00 2.887389e+00 3.930356e+00 3.088144e+00 3.830559e+00 4.446765e+00 4.821475e+00 3.750686e+00 3.201485e+00 3.188937e+00 2.955881e+00 2.881458e+00
<GCONST> 2.064901e+02
<STATE> 3
<MEAN> 39
 4.421141e+00 -7.351998e+00 1.695704e+01 -6.210366e-01 7.419481e-01 -4.670148e-01 1.708930e+00 5.585734e+00 -1.337768e+00 5.520437e+00 -3.338447e+00 4.821126e+00 1.083529e+02 -1.906699e-01 8.338179e-02 -9.898227e-02 2.848893e-02 -1.001626e-02 -1.688030e-02 -1.752593e-02 -8.378058e-03 -3.927396e-02 -3.650890e-02 8.971868e-04 -4.009138e-02 -2.803767e-01 2.770364e-03 -4.558908e-03 -9.669392e-03 -1.715485e-02 1.037749e-03 -7.505261e-03 -1.515073e-02 3.855004e-04 -3.669897e-04 5.639709e-03 9.048253e-03 -5.997645e-04 9.684983e-03
<VARIANCE> 39
 4.819191e+02 4.152509e+02 4.774321e+02 5.623427e+02 3.769305e+02 3.922702e+02 5.312382e+02 4.717916e+02 4.207012e+02 3.597413e+02 3.224791e+02 3.084303e+02 1.091966e+03 1.951345e+01 1.649838e+01 2.157286e+01 2.500903e+01 1.891012e+01 2.201219e+01 2.659396e+01 2.773471e+01 2.175060e+01 1.852272e+01 1.839686e+01 1.714769e+01 2.286401e+01 2.576519e+00 2.296971e+00 2.897990e+00 3.853584e+00 3.052575e+00 3.755312e+00 4.347721e+00 4.718235e+00 3.694630e+00 3.171012e+00 3.146852e+00 2.930643e+00 2.833993e+00
<GCONST> 2.061082e+02
<STATE> 4
<MEAN> 39
 3.869537e+00 -7.380257e+00 1.640093e+01 -9.538428e-01 8.051994e-01 -4.186208e-01 1.573568e+00 5.795392e+00 -1.365394e+00 5.334296e+00 -3.209356e+00 4.633427e+00 1.076935e+02 -2.043380e-01 6.437418e-02 -1.567282e-01 -4.002671e-02 -5.916916e-03 -5.263029e-02 -8.208396e-02 -3.942091e-03 -3.878226e-02 -2.052114e-02 3.759677e-02 -4.611668e-02 -2.920086e-01 -5.917663e-04 5.236319e-04 -3.402225e-03 -6.546135e-03 -9.439921e-05 -4.351521e-03 -6.485831e-03 -2.629663e-03 -3.236461e-04 4.648153e-03 6.290390e-03 1.781969e-03 -9.924796e-04
<VARIANCE> 39
 4.809673e+02 4.215831e+02 4.858733e+02 5.534341e+02 3.796981e+02 3.920434e+02 5.227212e+02 4.700458e+02 4.164104e+02 3.523613e+02 3.137375e+02 3.010891e+02 1.136198e+03 1.894888e+01 1.598681e+01 2.122089e+01 2.404834e+01 1.847338e+01 2.127782e+01 2.551582e+01 2.684081e+01 2.117196e+01 1.813633e+01 1.784392e+01 1.672523e+01 2.235029e+01 2.499767e+00 2.207301e+00 2.832441e+00 3.715354e+00 2.961124e+00 3.614007e+00 4.148706e+00 4.530524e+00 3.580095e+00 3.104694e+00 3.062156e+00 2.863616e+00 2.762290e+00
<GCONST> 2.052785e+02
<TRANSP> 5
 0.000000e+00 1.000000e+00 0.000000e+00 0.000000e+00 0.000000e+00
 0.000000e+00 7.228568e-01 2.771432e-01 0.000000e+00 0.000000e+00
 0.000000e+00 0.000000e+00 7.228487e-01 2.771513e-01 0.000000e+00
 0.000000e+00 0.000000e+00 0.000000e+00 8.463646e-01 1.536354e-01
 0.000000e+00 0.000000e+00 0.000000e+00 0.000000e+00 0.000000e+00
<ENDHMM>
~h "r"
<BEGINHMM>
<NUMSTATES> 5
<STATE> 2
<MEAN> 39
 6.197595e+00 -6.276087e+00 1.349754e+01 -2.728747e+00 1.485922e+00 -8.982594e+00 -5.893501e+00 2.951308e+00 -7.618114e+00 5.990820e+00 -2.060628e+00 5.236207e+00 1.116624e+02 1.516883e-02 -8.118702e-02 1.363379e-01 -3.885534e-04 3.596817e-02 1.068680e-01 1.125383e-01 -3.023311e-03 3.534356e-02 1.801763e-02 -5.328160e-03 -2.496512e-02 -3.584719e-02 -3.846497e-02 2.012199e-02 -3.787939e-03 9.207058e-04 -1.110687e-02 1.590406e-02 9.565201e-03 -4.970150e-03 5.158203e-03 -3.673348e-03 -3.273970e-03 -4.420984e-03 -5.041355e-02
<VARIANCE> 39
 7.556947e+02 3.957612e+02 7.961050e+02 5.712906e+02 4.843840e+02 5.789937e+02 6.554724e+02 4.322653e+02 4.215918e+02 3.618133e+02 2.869922e+02 2.635936e+02 8.061925e+02 2.899475e+01 1.867432e+01 3.100743e+01 2.501016e+01 2.552021e+01 2.733673e+01 2.815638e+01 2.493608e+01 2.275254e+01 2.002137e+01 1.802620e+01 1.688284e+01 2.290096e+01 3.367230e+00 2.618214e+00 4.014750e+00 3.764296e+00 3.815584e+00 4.221032e+00 4.440110e+00 4.143078e+00 3.806046e+00 3.413268e+00 3.128750e+00 2.960686e+00 2.958578e+00
<GCONST> 2.097520e+02
<STATE> 3
<MEAN> 39
 5.932443e+00 -6.439369e+00 1.400596e+01 -2.688139e+00 1.568800e+00 -8.431740e+00 -5.373749e+00 2.899203e+00 -7.414433e+00 6.040235e+00 -2.111331e+00 5.111442e+00 1.111335e+02 -1.423272e-01 1.224681e-02 1.184386e-01 -8.210074e-04 -1.305653e-02 1.752074e-01 1.524388e-01 -2.277505e-02 5.497068e-02 3.013274e-03 -1.970939e-02 -4.079508e-02 -2.282342e-01 -3.424659e-02 2.084816e-02 -1.019711e-02 1.203491e-03 -9.120864e-03 1.062300e-02 4.812780e-03 -3.520472e-03 5.069747e-03 -3.349387e-03 -1.183132e-03 -2.902091e-03 -4.322553e-02
<VARIANCE> 39
 7.298655e+02 3.899706e+02 8.138483e+02 5.539297e+02 4.710811e+02 5.858646e+02 6.544731e+02 4.348933e+02 4.314208e+02 3.649643e+02 2.884351e+02 2.640416e+02 8.331438e+02 2.806150e+01 1.834612e+01 3.067409e+01 2.459939e+01 2.495424e+01 2.737079e+01 2.805602e+01 2.489022e+01 2.285727e+01 2.000078e+01 1.797921e+01 1.676228e+01 2.231403e+01 3.255709e+00 2.569323e+00 3.938240e+00 3.723410e+00 3.756643e+00 4.219734e+00 4.429304e+00 4.135021e+00 3.820204e+00 3.402092e+00 3.114496e+00 2.936401e+00 2.865627e+00
<GCONST> 2.094696e+02
<STATE> 4
<MEAN> 39
 4.990407e+00 -6.118239e+00 1.442473e+01 -2.972738e+00 1.382920e+00 -7.267797e+00 -4.440123e+00 2.685625e+00 -6.893466e+00 6.092390e+00 -2.229722e+00 4.872982e+00 1.095996e+02 -3.253379e-01 1.323713e-01 6.457281e-02 9.220632e-03 -6.620598e-02 2.494695e-01 1.850566e-01 -3.788154e-02 8.585291e-02 -1.984126e-02 -2.878138e-02 -5.471433e-02 -4.605229e-01 -2.065102e-02 1.483964e-02 -1.689427e-02 2.680348e-03 -4.931685e-03 6.908102e-04 -2.625317e-03 8.547334e-05 3.711267e-03 -3.167152e-03 2.021710e-03 -7.260302e-04 -2.786051e-02
<VARIANCE> 39
 6.977961e+02 3.826641e+02 8.339037e+02 5.379844e+02 4.519997e+02 5.819504e+02 6.322109e+02 4.338988e+02 4.407625e+02 3.639012e+02 2.883002e+02 2.639096e+02 9.054622e+02 2.604390e+01 1.753517e+01 2.942919e+01 2.372565e+01 2.370386e+01 2.673657e+01 2.720299e+01 2.442709e+01 2.265275e+01 1.970935e+01 1.774715e+01 1.648340e+01 2.178744e+01 3.045460e+00 2.464158e+00 3.716871e+00 3.608599e+00 3.591576e+00 4.123315e+00 4.310790e+00 4.054698e+00 3.782621e+00 3.346512e+00 3.069817e+00 2.880165e+00 2.784949e+00
<GCONST> 2.086163e+02
<TRANSP> 5
 0.000000e+00 1.000000e+00 0.000000e+00 0.000000e+00 0.000000e+00
 0.000000e+00 7.269109e-01 2.730891e-01 0.000000e+00 0.000000e+00
 0.000000e+00 0.000000e+00 7.269103e-01 2.730897e-01 0.000000e+00
 0.000000e+00 0.000000e+00 0.000000e+00 8.507147e-01 1.492853e-01
 0.000000e+00 0.000000e+00 0.000000e+00 0.000000e+00 0.000000e+00
<ENDHMM>
~h "s"
<BEGINHMM>
<NUMSTATES> 5
<STATE> 2
<MEAN> 39
 -1.734910e+01 -2.315039e+00 6.669005e+00 1.267233e-01 -3.713577e+00 -8.715218e+00 -3.967149e+00 1.433308e+00 -5.111309e+00 4.237145e+00 -2.961032e+00 4.935144e+00 9.911122e+01 -3.935935e-02 2.686428e-02 -5.952065e-02 -2.412488e-02 6.113006e-03 4.535317e-03 5.910935e-03 6.113462e-03 3.993108e-02 3.977314e-02 -2.285219e-02 1.005147e-02 1.525819e-01 2.924772e-03 -4.242242e-03 -8.887982e-05 -2.553974e-03 9.382946e-04 -2.042257e-03 -3.313079e-03 8.090113e-05 1.218482e-03 3.823985e-03 1.185708e-03 1.833731e-03 2.638251e-02
<VARIANCE> 39
 7.925865e+02 2.745347e+02 5.640092e+02 3.708851e+02 3.207060e+02 3.698633e+02 3.719074e+02 3.136779e+02 3.229331e+02 2.601830e+02 2.301092e+02 2.230472e+02 1.185448e+03 3.616104e+01 1.833407e+01 2.800574e+01 2.096301e+01 1.795776e+01 2.290845e+01 2.407674e+01 2.169872e+01 2.145540e+01 1.801551e+01 1.647940e+01 1.568869e+01 3.833994e+01 4.776191e+00 3.186646e+00 3.815117e+00 3.570017e+00 3.163131e+00 4.039803e+00 4.250861e+00 3.947895e+00 3.818287e+00 3.302516e+00 3.008039e+00 2.861249e+00 5.797004e+00
<GCONST> 2.062871e+02
<STATE> 3
<MEAN> 39
 -1.742195e+01 -2.273696e+00 6.492138e+00 3.122687e-02 -3.692117e+00 -8.714945e+00 -3.939359e+00 1.493021e+00 -4.965089e+00 4.390250e+00 -3.049397e+00 4.985544e+00 9.994901e+01 -7.995278e-03 8.288197e-03 -4.217828e-02 -2.908593e-02 6.519996e-03 -6.371103e-03 -2.447627e-03 1.033532e-02 4.504153e-02 4.934740e-02 -1.600948e-02 1.685311e-02 2.466241e-01 8.321841e-03 -6.337639e-03 4.433802e-03 -1.623509e-03 8.419655e-04 -2.880488e-03 -2.038670e-03 2.175862e-03 1.580536e-03 2.846837e-03 1.326853e-03 1.772552e-03 2.885947e-02
<VARIANCE> 39
 8.074568e+02 2.763524e+02 5.598391e+02 3.729683e+02 3.231748e+02 3.715742e+02 3.737357e+02 3.118653e+02 3.240070e+02 2.612670e+02 2.315414e+02 2.250108e+02 1.151092e+03 3.679233e+01 1.847942e+01 2.796582e+01 2.107273e+01 1.802752e+01 2.305754e+01 2.420546e+01 2.167172e+01 2.149049e+01 1.807141e+01 1.654247e+01 1.574581e+01 3.857200e+01 4.872318e+00 3.213365e+00 3.825367e+00 3.593159e+00 3.174715e+00 4.071455e+00 4.272942e+00 3.950373e+00 3.823300e+00 3.309549e+00 3.012809e+00 2.868841e+00 5.802375e+00
<GCONST> 2.064399e+02
<STATE> 4
<MEAN> 39
 -1.731668e+01 -2.310662e+00 6.329031e+00 -1.498291e-01 -3.866768e+00 -8.662374e+00 -3.899352e+00 1.598732e+00 -4.665946e+00 4.613627e+00 -3.077827e+00 5.129969e+00 1.014423e+02 1.181320e-01 -2.749218e-02 3.903434e-02 -2.253458e-02 8.379467e-03 -1.921305e-02 -4.641339e-03 1.741317e-02 6.096109e-02 5.482168e-02 3.210856e-03 2.012199e-02 2.861553e-01 1.981863e-02 -7.447632e-03 1.172163e-02 4.694655e-04 1.755112e-03 -1.417286e-03 -6.610651e-04 1.950716e-03 3.206985e-03 2.019508e-03 2.689070e-03 2.728036e-04 8.852145e-03
<VARIANCE> 39
 8.248093e+02 2.804154e+02 5.594323e+02 3.776569e+02 3.284203e+02 3.759680e+02 3.803677e+02 3.104128e+02 3.250745e+02 2.637190e+02 2.341595e+02 2.288596e+02 1.111206e+03 3.668539e+01 1.840291e+01 2.770662e+01 2.100834e+01 1.792817e+01 2.312240e+01 2.436873e+01 2.152991e+01 2.138975e+01 1.804439e+01 1.651027e+01 1.578193e+01 3.870169e+01 4.892309e+00 3.187490e+00 3.798901e+00 3.582958e+00 3.148140e+00 4.083394e+00 4.293705e+00 3.926531e+00 3.804662e+00 3.297265e+00 2.997755e+00 2.870028e+00 5.748053e+00
<GCONST> 2.064663e+02
<TRANSP> 5
 0.000000e+00 1.000000e+00 0.000000e+00 0.000000e+00 0.000000e+00
 0.000000e+00 7.202504e-01 2.797497e-01 0.000000e+00 0.000000e+00
 0.000000e+00 0.000000e+00 7.202523e-01 2.797477e-01 0.000000e+00
 0.000000e+00 0.000000e+00 0.000000e+00 8.433275e-01 1.566725e-01
 0.000000e+00 0.000000e+00 0.000000e+00 0.000000e+00 0.000000e+00
<ENDHMM>
~h "t"
<BEGINHMM>
<NUMSTATES> 5
<STATE> 2
<MEAN> 39
 -8.551374e+00 -2.690977e+00 2.348466e+01 -2.885805e+00 -5.158648e+00 -7.110386e+00 -2.818137e+00 -2.208512e+00 -7.789993e+00 4.510540e+00 -3.342856e+00 4.928308e+00 1.002630e+02 8.100953e-02 4.462604e-02 8.703632e-03 1.422125e-01 1.253369e-01 8.248198e-02 4.081242e-02 1.114859e-02 -4.739243e-02 -1.721575e-02 -5.707799e-02 -2.473835e-02 1.603799e-01 5.076403e-03 -2.132186e-03 -2.299870e-02 5.331288e-03 8.067304e-03 7.074222e-03 1.207359e-03 9.835244e-03 6.070488e-03 -2.702270e-03 1.673431e-03 -2.210384e-03 -5.322412e-03
<VARIANCE> 39
 5.091806e+02 2.737498e+02 8.085645e+02 4.547553e+02 3.042045e+02 3.695685e+02 4.283041e+02 3.895580e+02 4.117910e+02 2.854519e+02 2.519335e+02 2.632533e+02 1.386516e+03 2.176386e+01 1.582389e+01 3.024275e+01 2.260668e+01 1.780449e+01 2.051154e+01 2.257804e+01 2.174805e+01 2.176526e+01 1.772285e+01 1.695586e+01 1.600982e+01 5.590240e+01 3.139109e+00 2.677548e+00 3.900721e+00 3.782301e+00 3.053982e+00 3.456300e+00 3.813198e+00 3.766472e+00 3.757995e+00 3.171056e+00 3.027484e+00 2.786366e+00 8.104956e+00
<GCONST> 2.065968e+02
<STATE> 3
<MEAN> 39
 -8.102196e+00 -2.571606e+00 2.330822e+01 -2.218156e+00 -4.579387e+00 -6.811276e+00 -2.660325e+00 -2.057646e+00 -7.960939e+00 4.415077e+00 -3.562379e+00 4.825915e+00 1.008460e+02 1.114494e-01 3.785284e-02 -8.880878e-02 1.639977e-01 1.542479e-01 1.095183e-01 4.515457e-02 5.163582e-02 -1.776452e-02 -2.032219e-02 -4.703199e-02 -3.336663e-02 1.030496e-01 4.533840e-03 -1.426623e-03 -2.026615e-02 3.000703e-03 5.559920e-03 4.051801e-03 -1.767230e-04 9.481530e-03 6.551350e-03 -1.569710e-03 3.124768e-03 -1.145221e-03 -1.051929e-02
<VARIANCE> 39
 5.201859e+02 2.733427e+02 7.960621e+02 4.549128e+02 3.063541e+02 3.793045e+02 4.359275e+02 3.962670e+02 4.143745e+02 2.882889e+02 2.549259e+02 2.705631e+02 1.330889e+03 2.241241e+01 1.582310e+01 3.013403e+01 2.257455e+01 1.779522e+01 2.069931e+01 2.278358e+01 2.182777e+01 2.191654e+01 1.780890e+01 1.710268e+01 1.614078e+01 5.435850e+01 3.223252e+00 2.675312e+00 3.871395e+00 3.778754e+00 3.050867e+00 3.469588e+00 3.826007e+00 3.769723e+00 3.776997e+00 3.181576e+00 3.047810e+00 2.797886e+00 7.894577e+00
<GCONST> 2.067469e+02
<STATE> 4
<MEAN> 39
 -7.145476e+00 -2.376895e+00 2.236872e+01 -1.475025e+00 -3.658121e+00 -6.280386e+00 -2.496801e+00 -1.700852e+00 -7.966886e+00 4.264578e+00 -3.765081e+00 4.687828e+00 1.013253e+02 1.687399e-01 3.071916e-02 -2.387898e-01 1.669379e-01 1.822657e-01 1.418011e-01 4.901329e-02 1.002656e-01 3.250031e-02 -6.723404e-03 -2.686339e-02 -4.558054e-02 -6.705176e-02 -3.057814e-04 9.415272e-04 -1.686192e-02 -4.294401e-03 8.562831e-04 3.539096e-03 -9.340092e-04 5.929315e-03 8.137144e-03 9.574246e-04 4.866647e-03 -3.588106e-04 -2.056842e-02
<VARIANCE> 39
 5.335111e+02 2.738533e+02 7.685575e+02 4.499195e+02 3.110596e+02 3.974457e+02 4.523333e+02 4.043611e+02 4.206147e+02 2.953837e+02 2.621073e+02 2.838667e+02 1.271700e+03 2.246897e+01 1.539472e+01 2.880542e+01 2.177099e+01 1.754302e+01 2.065163e+01 2.276807e+01 2.168629e+01 2.179353e+01 1.785747e+01 1.717688e+01 1.621097e+01 4.931448e+01 3.197693e+00 2.582327e+00 3.691736e+00 3.633292e+00 2.986178e+00 3.426507e+00 3.784505e+00 3.722704e+00 3.743490e+00 3.174619e+00 3.048705e+00 2.793515e+00 7.147481e+00
<GCONST> 2.063956e+02
<TRANSP> 5
 0.000000e+00 1.000000e+00 0.000000e+00 0.000000e+00 0.000000e+00
 0.000000e+00 7.409636e-01 2.590364e-01 0.000000e+00 0.000000e+00
 0.000000e+00 0.000000e+00 7.409618e-01 2.590382e-01 0.000000e+00
 0.000000e+00 0.000000e+00 0.000000e+00 8.684317e-01 1.315683e-01
 0.000000e+00 0.000000e+00 0.000000e+00 0.000000e+00 0.000000e+00
<ENDHMM>
~h "v"
<BEGINHMM>
<NUMSTATES> 5
<STATE> 2
<MEAN> 39
 -2.138616e+00 -1.179325e+01 8.675043e+00 -5.210497e+00 -1.385932e+00 -4.946877e+00 -2.164161e+00 4.256496e+00 9.698560e-01 8.693299e+00 -3.189532e+00 3.570812e+00 1.160222e+02 3.020625e-01 1.217247e-01 3.105451e-01 1.967044e-01 4.285727e-02 -1.748171e-02 4.583675e-02 2.232120e-02 -8.272134e-03 -2.078416e-02 -1.606215e-02 4.184878e-02 -2.168439e-01 -1.147845e-02 2.354043e-02 1.209698e-03 1.328125e-02 3.790769e-03 1.188098e-02 6.989082e-03 -6.609582e-03 -1.264329e-02 -1.063553e-02 3.020471e-05 -1.915155e-04 -5.436741e-02
<VARIANCE> 39
 7.081714e+02 3.841765e+02 4.249410e+02 4.585670e+02 3.269178e+02 3.906096e+02 4.306054e+02 3.264307e+02 3.740459e+02 3.405998e+02 3.151594e+02 3.148303e+02 9.293801e+02 3.228386e+01 1.760700e+01 1.923739e+01 2.425989e+01 1.890375e+01 2.384209e+01 2.396372e+01 2.073925e+01 2.109224e+01 1.791525e+01 1.779000e+01 1.587706e+01 2.967322e+01 4.470273e+00 2.666020e+00 2.835168e+00 3.964903e+00 3.255386e+00 4.162770e+00 4.133000e+00 3.749963e+00 3.709625e+00 3.090035e+00 3.038759e+00 2.750970e+00 4.002577e+00
<GCONST> 2.060471e+02
<STATE> 3
<MEAN> 39
 -1.295672e+00 -1.114355e+01 9.752659e+00 -4.399310e+00 -1.230200e+00 -4.984621e+00 -1.994163e+00 4.276014e+00 8.319271e-01 8.525957e+00 -3.251162e+00 3.730208e+00 1.147240e+02 2.458580e-01 2.048818e-01 2.934244e-01 2.310457e-01 5.796495e-02 3.141042e-02 7.070480e-02 -3.278265e-03 -5.257123e-02 -5.757668e-02 -1.588001e-02 3.928520e-02 -3.909821e-01 -2.129171e-02 2.262393e-02 -4.869889e-03 9.333475e-03 1.362165e-03 1.144024e-02 7.190560e-03 -6.719783e-03 -1.133658e-02 -1.039317e-02 2.563152e-04 3.882284e-04 -4.417692e-02
<VARIANCE> 39
 6.694230e+02 3.745831e+02 4.277375e+02 4.599042e+02 3.232910e+02 3.879096e+02 4.412770e+02 3.347231e+02 3.768390e+02 3.453204e+02 3.159089e+02 3.144381e+02 9.518928e+02 3.046865e+01 1.757788e+01 1.910590e+01 2.450352e+01 1.908594e+01 2.411806e+01 2.449861e+01 2.151697e+01 2.137367e+01 1.809315e+01 1.803530e+01 1.609438e+01 2.922026e+01 4.218792e+00 2.675210e+00 2.825704e+00 4.032641e+00 3.300330e+00 4.238219e+00 4.230363e+00 3.894378e+00 3.773348e+00 3.125269e+00 3.081620e+00 2.792970e+00 4.029736e+00
<GCONST> 2.062276e+02
<STATE> 4
<MEAN> 39
 -8.662417e-01 -9.998704e+00 1.066689e+01 -3.398511e+00 -1.078823e+00 -4.643449e+00 -1.493196e+00 4.278627e+00 5.700529e-01 7.902492e+00 -3.376158e+00 3.918441e+00 1.118352e+02 1.157794e-01 3.035424e-01 2.240357e-01 2.408869e-01 6.226924e-02 7.846357e-02 8.548185e-02 -3.584940e-02 -9.672797e-02 -1.012114e-01 -8.772335e-03 3.403046e-02 -5.848724e-01 -2.401679e-02 1.397344e-02 -9.976298e-03 1.097139e-03 -1.685392e-03 8.257432e-03 4.136298e-03 -5.406941e-03 -6.817884e-03 -7.159647e-03 1.709199e-03 3.119874e-04 -2.391789e-02
<VARIANCE> 39
 6.191047e+02 3.610743e+02 4.367899e+02 4.614124e+02 3.183702e+02 3.821679e+02 4.438085e+02 3.438848e+02 3.748947e+02 3.459629e+02 3.113611e+02 3.072940e+02 1.014474e+03 2.759716e+01 1.700156e+01 1.877160e+01 2.419948e+01 1.896257e+01 2.390099e+01 2.447869e+01 2.216930e+01 2.125106e+01 1.804254e+01 1.801627e+01 1.607684e+01 2.818901e+01 3.823900e+00 2.615031e+00 2.767338e+00 4.002788e+00 3.285777e+00 4.223747e+00 4.229812e+00 4.007208e+00 3.771957e+00 3.131350e+00 3.096078e+00 2.798682e+00 3.970548e+00
<GCONST> 2.058315e+02
<TRANSP> 5
 0.000000e+00 1.000000e+00 0.000000e+00 0.000000e+00 0.000000e+00
 0.000000e+00 7.215416e-01 2.784584e-01 0.000000e+00 0.000000e+00
 0.000000e+00 0.000000e+00 7.215442e-01 2.784558e-01 0.000000e+00
 0.000000e+00 0.000000e+00 0.000000e+00 8.452318e-01 1.547682e-01
 0.000000e+00 0.000000e+00 0.000000e+00 0.000000e+00 0.000000e+00
<ENDHMM>
~h "w"
<BEGINHMM>
<NUMSTATES> 5
<STATE> 2
<MEAN> 39
 1.338516e+01 -1.716840e+00 1.280926e+01 -1.319119e+01 -1.086279e+00 2.265677e+00 -5.810822e-01 6.649913e+00 -4.207793e+00 7.038715e+00 -2.791061e-01 3.420067e+00 1.102768e+02 2.961528e-01 -2.089567e-01 1.879182e-01 -1.596091e-02 1.565341e-01 9.853317e-02 7.527625e-02 1.687836e-01 1.022807e-01 3.174588e-02 -1.059102e-02 5.771364e-02 6.755760e-01 -5.617819e-02 -1.976609e-02 1.564171e-03 4.986260e-02 8.607402e-03 -1.629028e-02 9.472894e-04 -1.736782e-02 3.202079e-03 -7.397455e-03 -1.189317e-02 6.889172e-03 -3.565310e-02
<VARIANCE> 39
 5.283524e+02 4.222295e+02 4.340436e+02 6.814465e+02 4.973460e+02 4.071487e+02 5.068510e+02 4.682216e+02 4.394382e+02 3.761219e+02 3.529081e+02 3.152025e+02 9.521198e+02 1.790635e+01 1.984447e+01 2.095391e+01 3.095178e+01 2.552135e+01 2.574361e+01 2.756573e+01 2.821174e+01 2.385803e+01 2.131992e+01 2.155807e+01 1.919492e+01 2.425292e+01 2.316928e+00 2.615743e+00 2.845216e+00 4.084256e+00 3.941108e+00 4.423902e+00 4.730964e+00 4.945254e+00 4.227010e+00 3.721531e+00 3.714356e+00 3.305803e+00 2.765068e+00
<GCONST> 2.091628e+02
<STATE> 3
<MEAN> 39
 1.403629e+01 -2.604994e+00 1.342362e+01 -1.293583e+01 -4.618844e-01 2.513368e+00 -3.208423e-01 7.159603e+00 -3.847345e+00 7.073577e+00 -3.605015e-01 3.636208e+00 1.123788e+02 7.920963e-02 -2.401135e-01 2.018086e-01 1.942382e-01 1.721027e-01 3.989800e-02 9.329884e-02 8.914494e-02 1.072695e-01 3.969255e-03 -6.184828e-02 7.936708e-02 4.857720e-01 -6.218344e-02 -1.190483e-03 2.370437e-03 5.842528e-02 1.841549e-04 -1.631428e-02 6.648508e-03 -2.412604e-02 -3.402756e-04 -8.420237e-03 -1.490497e-02 4.619838e-03 -6.262124e-02
<VARIANCE> 39
 4.917162e+02 4.234888e+02 4.346161e+02 7.134838e+02 5.037624e+02 4.135032e+02 5.221449e+02 4.790515e+02 4.450327e+02 3.849077e+02 3.659353e+02 3.246442e+02 8.758361e+02 1.747068e+01 1.986566e+01 2.113707e+01 3.151842e+01 2.553738e+01 2.616817e+01 2.833218e+01 2.924560e+01 2.419229e+01 2.161321e+01 2.215062e+01 1.970818e+01 2.382808e+01 2.241700e+00 2.568660e+00 2.837278e+00 4.076735e+00 3.907854e+00 4.459966e+00 4.826814e+00 5.092308e+00 4.277752e+00 3.744643e+00 3.781374e+00 3.369827e+00 2.663385e+00
<GCONST> 2.093981e+02
<STATE> 4
<MEAN> 39
 1.378976e+01 -3.594053e+00 1.423041e+01 -1.174088e+01 2.907943e-01 2.561089e+00 1.081030e-01 7.416269e+00 -3.363297e+00 6.968046e+00 -6.598506e-01 3.980711e+00 1.141206e+02 -1.707088e-01 -1.752868e-01 2.219272e-01 4.470661e-01 1.325640e-01 -3.239096e-02 1.338308e-01 -2.992716e-02 9.235121e-02 -2.950989e-02 -1.245059e-01 9.306474e-02 1.541796e-01 -4.993374e-02 2.043380e-02 5.423785e-04 4.473867e-02 -1.221800e-02 -1.355447e-02 8.209703e-03 -2.407625e-02 -3.882276e-03 -7.086506e-03 -1.237342e-02 1.151262e-03 -7.273664e-02
<VARIANCE> 39
 4.635822e+02 4.201787e+02 4.451288e+02 7.462431e+02 4.988167e+02 4.203407e+02 5.412212e+02 4.902220e+02 4.473514e+02 3.937779e+02 3.775591e+02 3.349040e+02 8.167872e+02 1.696165e+01 1.939349e+01 2.121757e+01 3.101197e+01 2.477232e+01 2.617344e+01 2.888049e+01 2.998337e+01 2.421895e+01 2.154565e+01 2.245685e+01 1.999073e+01 2.325359e+01 2.168082e+00 2.472612e+00 2.791612e+00 3.978795e+00 3.754363e+00 4.401974e+00 4.860199e+00 5.164785e+00 4.253636e+00 3.692750e+00 3.784713e+00 3.384979e+00 2.612326e+00
<GCONST> 2.092577e+02
<TRANSP> 5
 0.000000e+00 1.000000e+00 0.000000e+00 0.000000e+00 0.000000e+00
 0.000000e+00 7.153248e-01 2.846752e-01 0.000000e+00 0.000000e+00
 0.000000e+00 0.000000e+00 7.153271e-01 2.846729e-01 0.000000e+00
 0.000000e+00 0.000000e+00 0.000000e+00 8.368379e-01 1.631621e-01
 0.000000e+00 0.000000e+00 0.000000e+00 0.000000e+00 0.000000e+00
<ENDHMM>
~h "z"
<BEGINHMM>
<NUMSTATES> 5
<STATE> 2
<MEAN> 39
 -5.955505e+00 5.284057e-01 1.624110e+01 5.381485e+00 2.533168e+00 -9.135964e+00 -5.348216e+00 1.528768e+00 -6.129812e+00 4.229301e+00 -2.980839e+00 5.175219e+00 1.023715e+02 2.612542e-01 6.587031e-02 1.276474e-01 1.728632e-01 2.465309e-01 -1.546122e-01 -1.088214e-01 3.352652e-02 -3.406153e-02 8.588209e-02 -1.624983e-02 5.649246e-02 6.246930e-01 2.639329e-02 -1.310903e-02 5.743627e-04 -8.757198e-03 7.165079e-03 -2.136079e-03 6.311681e-04 5.694834e-03 -1.851468e-03 6.590456e-03 4.046157e-03 2.674195e-03 5.283233e-02
<VARIANCE> 39
 6.874581e+02 4.741982e+02 6.557101e+02 4.177598e+02 3.744803e+02 4.852407e+02 5.396165e+02 3.482344e+02 3.204175e+02 2.994910e+02 2.603857e+02 2.566852e+02 1.289700e+03 2.479917e+01 2.110130e+01 3.067925e+01 2.170888e+01 2.013425e+01 2.274664e+01 2.213590e+01 2.244245e+01 1.889115e+01 1.725018e+01 1.621362e+01 1.498278e+01 1.860692e+01 3.076427e+00 2.751641e+00 3.946985e+00 3.298624e+00 3.241264e+00 3.612367e+00 3.582574e+00 3.766115e+00 3.209043e+00 3.005583e+00 2.817801e+00 2.649148e+00 2.381443e+00
<GCONST> 2.050988e+02
<STATE> 3
<MEAN> 39
 -4.805152e+00 6.543217e-01 1.685936e+01 5.962052e+00 3.456712e+00 -9.760748e+00 -5.723757e+00 1.688544e+00 -6.309063e+00 4.557614e+00 -3.032197e+00 5.416749e+00 1.053130e+02 3.692345e-01 -1.248901e-02 1.254054e-01 1.069117e-01 2.474601e-01 -1.699117e-01 -1.110851e-01 4.686948e-02 -4.698601e-02 1.005620e-01 8.658338e-03 6.584235e-02 8.086714e-01 2.614583e-02 -2.058415e-02 -1.534240e-03 -2.048987e-02 -2.618656e-03 1.952032e-04 2.888858e-03 3.066198e-03 -3.595631e-03 3.528171e-03 6.968827e-03 2.015655e-03 4.468769e-02
<VARIANCE> 39
 7.194457e+02 5.090108e+02 6.624320e+02 4.315923e+02 3.878641e+02 5.135323e+02 5.758298e+02 3.540901e+02 3.249788e+02 3.087774e+02 2.703736e+02 2.586622e+02 1.181196e+03 2.570578e+01 2.202937e+01 3.243683e+01 2.240864e+01 2.087741e+01 2.353621e+01 2.275619e+01 2.298229e+01 1.914203e+01 1.759565e+01 1.647420e+01 1.518404e+01 1.901378e+01 3.199268e+00 2.851166e+00 4.145752e+00 3.382162e+00 3.339471e+00 3.704248e+00 3.639831e+00 3.829297e+00 3.242476e+00 3.054173e+00 2.844085e+00 2.678134e+00 2.380611e+00
<GCONST> 2.060879e+02
<STATE> 4
<MEAN> 39
 -2.699995e+00 2.268553e-01 1.783040e+01 6.234402e+00 4.406226e+00 -1.070365e+01 -6.132063e+00 1.801336e+00 -6.602002e+00 4.978428e+00 -2.883534e+00 5.814922e+00 1.103053e+02 5.628787e-01 -2.303500e-01 8.644536e-02 -7.280844e-02 1.825762e-01 -2.192609e-01 -1.340009e-01 3.812698e-02 -7.065467e-02 1.094498e-01 6.513532e-02 6.280833e-02 9.232199e-01 2.638222e-02 -3.374350e-02 -1.467279e-02 -3.392720e-02 -1.411986e-02 2.055872e-03 1.615484e-03 -1.153116e-03 -2.203848e-03 1.915494e-03 1.030710e-02 -2.015006e-03 -1.950591e-04
<VARIANCE> 39
 7.551658e+02 5.571823e+02 6.864752e+02 4.545938e+02 4.056244e+02 5.588875e+02 6.301104e+02 3.669603e+02 3.364464e+02 3.275145e+02 2.850945e+02 2.604037e+02 1.005544e+03 2.608620e+01 2.265617e+01 3.481480e+01 2.311774e+01 2.172754e+01 2.459473e+01 2.344973e+01 2.362825e+01 1.938070e+01 1.789097e+01 1.660786e+01 1.531276e+01 1.875541e+01 3.223229e+00 2.892220e+00 4.352937e+00 3.457138e+00 3.427856e+00 3.795607e+00 3.689308e+00 3.879387e+00 3.254668e+00 3.069544e+00 2.832156e+00 2.683044e+00 2.280836e+00
<GCONST> 2.070131e+02
<TRANSP> 5
 0.000000e+00 1.000000e+00 0.000000e+00 0.000000e+00 0.000000e+00
 0.000000e+00 7.187790e-01 2.812211e-01 0.000000e+00 0.000000e+00
 0.000000e+00 0.000000e+00 7.187769e-01 2.812231e-01 0.000000e+00
 0.000000e+00 0.000000e+00 0.000000e+00 8.404849e-01 1.595151e-01
 0.000000e+00 0.000000e+00 0.000000e+00 0.000000e+00 0.000000e+00
<ENDHMM>
~h "ah"
<BEGINHMM>
<NUMSTATES> 5
<STATE> 2
<MEAN> 39
 8.352020e+00 -5.673193e+00 1.621294e+01 -4.681578e+00 8.356249e-02 -1.574005e+00 -1.373174e-01 4.787098e+00 -1.369079e+00 7.879984e+00 -2.592994e+00 5.233129e+00 1.152500e+02 -9.009019e-02 7.325457e-02 2.443896e-01 4.678891e-01 7.115376e-02 9.452412e-02 2.378071e-01 -7.133839e-02 -6.247044e-03 -9.825825e-02 -1.312113e-01 5.243256e-02 -3.721696e-01 -4.878115e-02 2.033530e-02 -2.496585e-02 1.909963e-03 -1.306844e-02 -5.756829e-03 -2.924000e-03 -5.791897e-03 -7.103315e-03 -1.199955e-02 -6.434929e-04 -5.473902e-03 -5.325091e-02
<VARIANCE> 39
 5.507016e+02 3.650408e+02 4.280468e+02 6.435864e+02 3.969329e+02 4.379632e+02 5.637672e+02 4.426003e+02 4.414775e+02 4.047889e+02 3.731990e+02 3.390609e+02 7.391827e+02 2.297433e+01 1.880713e+01 2.099905e+01 2.955220e+01 2.204284e+01 2.686661e+01 3.002597e+01 2.923666e+01 2.471197e+01 2.113139e+01 2.180120e+01 1.941500e+01 2.614510e+01 3.033385e+00 2.710206e+00 2.956861e+00 4.403099e+00 3.613266e+00 4.677294e+00 5.094017e+00 5.194192e+00 4.362589e+00 3.599538e+00 3.643587e+00 3.315396e+00 3.554140e+00
<GCONST> 2.098752e+02
<STATE> 3
<MEAN> 39
 7.809718e+00 -5.299942e+00 1.696796e+01 -3.024825e+00 2.540288e-01 -1.284363e+00 6.903110e-01 4.494620e+00 -1.426740e+00 7.483606e+00 -3.055966e+00 5.407787e+00 1.137004e+02 -2.390770e-01 1.337753e-01 1.503799e-01 4.456022e-01 2.420723e-02 7.216740e-02 2.150873e-01 -8.166631e-02 -2.766709e-02 -1.334147e-01 -1.254595e-01 2.998550e-02 -5.324581e-01 -3.662539e-02 1.097007e-02 -3.283526e-02 -1.959763e-02 -1.136770e-02 -9.124887e-03 -1.580543e-02 -1.237336e-05 -5.876451e-03 -6.859174e-03 6.479676e-03 -8.853369e-03 -3.456268e-02
<VARIANCE> 39
 5.304991e+02 3.571963e+02 4.350941e+02 6.484088e+02 3.855526e+02 4.350312e+02 5.627286e+02 4.422822e+02 4.373026e+02 4.037107e+02 3.707435e+02 3.376115e+02 7.578691e+02 2.268292e+01 1.830378e+01 2.126449e+01 2.898412e+01 2.153077e+01 2.648871e+01 2.976273e+01 2.925117e+01 2.432997e+01 2.084035e+01 2.160161e+01 1.926302e+01 2.541041e+01 2.979167e+00 2.659850e+00 2.966924e+00 4.334684e+00 3.553714e+00 4.591952e+00 5.029317e+00 5.187248e+00 4.291471e+00 3.555614e+00 3.616696e+00 3.285855e+00 3.481554e+00
<GCONST> 2.094718e+02
<STATE> 4
<MEAN> 39
 6.643447e+00 -4.651423e+00 1.734185e+01 -1.580187e+00 2.089266e-01 -9.612520e-01 1.494483e+00 4.227389e+00 -1.527222e+00 6.816210e+00 -3.440342e+00 5.532046e+00 1.114377e+02 -3.538263e-01 1.540600e-01 1.301310e-02 3.340406e-01 -1.740710e-02 3.040693e-02 1.351465e-01 -7.099986e-02 -4.621320e-02 -1.475834e-01 -8.935406e-02 -6.583253e-03 -6.407557e-01 -1.906426e-02 -1.201426e-03 -3.444766e-02 -3.530436e-02 -5.948032e-03 -1.164571e-02 -2.631450e-02 4.594340e-03 -4.152427e-03 8.573888e-04 1.237933e-02 -1.002656e-02 -1.256902e-02
<VARIANCE> 39
 5.226633e+02 3.503768e+02 4.526615e+02 6.471971e+02 3.756674e+02 4.305322e+02 5.541689e+02 4.395881e+02 4.292686e+02 3.981445e+02 3.609524e+02 3.307672e+02 8.081382e+02 2.236062e+01 1.750001e+01 2.147836e+01 2.770485e+01 2.069170e+01 2.552740e+01 2.875298e+01 2.858651e+01 2.348790e+01 2.024301e+01 2.093269e+01 1.876651e+01 2.469807e+01 2.918990e+00 2.565783e+00 2.954538e+00 4.159682e+00 3.428514e+00 4.392554e+00 4.826050e+00 5.038970e+00 4.126290e+00 3.459136e+00 3.520802e+00 3.199481e+00 3.397857e+00
<GCONST> 2.086263e+02
<TRANSP> 5
 0.000000e+00 1.000000e+00 0.000000e+00 0.000000e+00 0.000000e+00
 0.000000e+00 7.120103e-01 2.879897e-01 0.000000e+00 0.000000e+00
 0.000000e+00 0.000000e+00 7.120161e-01 2.879839e-01 0.000000e+00
 0.000000e+00 0.000000e+00 0.000000e+00 8.327283e-01 1.672716e-01
 0.000000e+00 0.000000e+00 0.000000e+00 0.000000e+00 0.000000e+00
<ENDHMM>
~h "ao"
<BEGINHMM>
<NUMSTATES> 5
<STATE> 2
<MEAN> 39
 8.138157e+00 -3.092198e+00 3.371181e+00 -1.459422e+01 -4.804308e+00 -4.470163e+00 -4.216543e+00 5.547062e+00 -8.361280e+00 6.561831e+00 -2.850172e+00 4.423100e+00 1.072754e+02 5.031578e-01 -4.430455e-02 -1.444444e-01 -3.719703e-02 1.705738e-01 -1.014460e-01 2.312454e-02 1.970695e-01 3.610781e-02 4.934860e-02 4.360333e-02 5.135822e-02 4.000472e-01 -3.770678e-02 -2.501282e-03 1.051348e-02 3.596551e-02 1.137751e-02 5.955540e-04 2.639604e-03 -4.796606e-03 1.127512e-02 -5.391001e-03 2.158920e-03 -5.160316e-03 -4.528460e-02
<VARIANCE> 39
 9.588638e+02 3.388754e+02 4.334812e+02 7.206810e+02 5.495992e+02 3.757835e+02 4.668134e+02 3.879913e+02 3.867602e+02 3.293428e+02 2.703861e+02 2.749560e+02 7.175461e+02 3.662691e+01 1.944925e+01 2.077072e+01 3.028802e+01 2.467773e+01 2.016800e+01 2.313448e+01 2.175239e+01 2.176146e+01 2.006303e+01 1.836836e+01 1.883152e+01 2.195914e+01 4.514261e+00 2.893179e+00 2.828597e+00 4.083940e+00 3.423090e+00 3.350959e+00 3.841171e+00 3.689133e+00 3.641680e+00 3.432800e+00 3.197171e+00 3.229247e+00 2.841321e+00
<GCONST> 2.073833e+02
<STATE> 3
<MEAN> 39
 9.918396e+00 -3.304368e+00 2.802486e+00 -1.446855e+01 -4.014064e+00 -4.893448e+00 -4.138721e+00 6.284348e+00 -8.148166e+00 6.733117e+00 -2.614414e+00 4.603289e+00 1.084886e+02 3.031098e-01 -7.197604e-02 -1.117410e-01 1.351566e-01 2.280822e-01 -9.045759e-02 2.871318e-02 1.678920e-01 8.458580e-02 2.363061e-02 4.941783e-02 3.003656e-02 1.908586e-01 -5.350554e-02 -5.955112e-04 1.447811e-02 3.553483e-02 5.306769e-03 4.143836e-03 1.247751e-03 -1.113218e-02 8.793610e-03 -7.051920e-03 1.368529e-04 -6.458700e-03 -5.439927e-02
<VARIANCE> 39
 9.230013e+02 3.460916e+02 4.525280e+02 7.321230e+02 5.833033e+02 3.976122e+02 4.947330e+02 4.018684e+02 4.040846e+02 3.437202e+02 2.802728e+02 2.833803e+02 6.858802e+02 3.591365e+01 1.948305e+01 2.143297e+01 3.021364e+01 2.547759e+01 2.100003e+01 2.386166e+01 2.221036e+01 2.237341e+01 2.068928e+01 1.886313e+01 1.930109e+01 2.157322e+01 4.336798e+00 2.871540e+00 2.912840e+00 4.030123e+00 3.483907e+00 3.463805e+00 3.944392e+00 3.735597e+00 3.723147e+00 3.521245e+00 3.270401e+00 3.300116e+00 2.748861e+00
<GCONST> 2.080858e+02
<STATE> 4
<MEAN> 39
 1.149202e+01 -3.707940e+00 2.015345e+00 -1.382697e+01 -2.773889e+00 -5.436661e+00 -4.018858e+00 7.028204e+00 -7.539374e+00 6.956898e+00 -2.221585e+00 4.756540e+00 1.094334e+02 -3.770649e-02 -1.219011e-01 -6.666915e-02 3.760105e-01 2.956156e-01 -5.450280e-02 3.213422e-02 1.009011e-01 1.490887e-01 -1.886266e-02 4.324373e-02 1.960751e-03 -1.207278e-01 -6.302660e-02 3.880217e-03 2.013358e-02 2.592012e-02 -5.137469e-03 9.389937e-03 6.308586e-04 -1.706906e-02 5.705125e-03 -7.860576e-03 -3.726588e-03 -6.416879e-03 -5.359250e-02
<VARIANCE> 39
 8.693379e+02 3.549223e+02 4.859481e+02 7.420175e+02 6.148712e+02 4.279742e+02 5.293981e+02 4.142186e+02 4.254196e+02 3.610952e+02 2.926446e+02 2.932108e+02 6.947957e+02 3.349511e+01 1.899324e+01 2.198519e+01 2.907560e+01 2.599368e+01 2.198346e+01 2.450423e+01 2.255350e+01 2.287706e+01 2.122886e+01 1.926945e+01 1.967092e+01 2.140270e+01 3.967115e+00 2.760254e+00 2.960938e+00 3.857191e+00 3.496658e+00 3.586210e+00 4.027524e+00 3.754698e+00 3.790181e+00 3.592299e+00 3.321596e+00 3.343936e+00 2.700842e+00
<GCONST> 2.085882e+02
<TRANSP> 5
 0.000000e+00 1.000000e+00 0.000000e+00 0.000000e+00 0.000000e+00
 0.000000e+00 7.318357e-01 2.681643e-01 0.000000e+00 0.000000e+00
 0.000000e+00 0.000000e+00 7.318347e-01 2.681653e-01 0.000000e+00
 0.000000e+00 0.000000e+00 0.000000e+00 8.564175e-01 1.435825e-01
 0.000000e+00 0.000000e+00 0.000000e+00 0.000000e+00 0.000000e+00
<ENDHMM>
~h "ay"
<BEGINHMM>
<NUMSTATES> 5
<STATE> 2
<MEAN> 39
 4.915730e+00 -1.702423e+01 1.038676e+01 -7.082026e+00 1.878093e+00 8.452678e-01 -3.944601e-01 7.050968e+00 1.329462e+00 7.569402e+00 -2.422347e+00 2.375786e+00 1.182522e+02 1.377567e-01 -9.377231e-02 1.267519e-01 7.822257e-03 -8.993652e-03 -3.595318e-02 1.202643e-01 1.285398e-01 3.496685e-02 2.838353e-02 -4.547866e-02 2.293445e-02 3.558610e-01 -3.035858e-02 2.925717e-02 -3.763255e-03 1.409245e-02 -8.654619e-03 -1.118963e-02 -2.331516e-03 -8.699341e-03 -1.119196e-02 -9.606280e-03 -1.339394e-04 2.039179e-03 -6.729279e-02
<VARIANCE> 39
 4.754709e+02 4.323376e+02 4.657888e+02 5.287447e+02 3.952617e+02 3.761493e+02 4.496706e+02 4.374777e+02 4.008694e+02 3.409359e+02 3.322677e+02 3.220876e+02 1.047771e+03 2.241005e+01 1.632268e+01 1.775253e+01 2.449722e+01 1.803096e+01 2.032767e+01 2.256915e+01 2.332467e+01 1.966642e+01 1.665102e+01 1.672050e+01 1.490498e+01 2.750902e+01 3.278767e+00 2.220059e+00 2.381957e+00 3.736483e+00 2.829384e+00 3.373640e+00 3.671771e+00 3.907952e+00 3.285136e+00 2.832662e+00 2.855738e+00 2.491394e+00 3.048182e+00
<GCONST> 2.039542e+02
<STATE> 3
<MEAN> 39
 5.174680e+00 -1.709335e+01 1.093460e+01 -6.871592e+00 1.712337e+00 5.630774e-01 9.336972e-02 7.459813e+00 1.356585e+00 7.601650e+00 -2.597783e+00 2.501195e+00 1.189562e+02 5.241465e-04 5.135828e-02 1.253013e-01 8.942594e-02 -5.190626e-02 -7.608663e-02 1.216814e-01 7.580656e-02 -1.762996e-02 -7.235730e-03 -5.105328e-02 3.526411e-02 4.315348e-02 -3.310292e-02 3.482166e-02 -4.806332e-03 1.647225e-02 -8.239115e-03 -8.972988e-03 -3.659216e-03 -1.249961e-02 -1.235763e-02 -9.522557e-03 2.173453e-04 1.328647e-03 -7.676180e-02
<VARIANCE> 39
 4.609220e+02 4.358329e+02 4.681467e+02 5.353864e+02 3.964401e+02 3.791133e+02 4.589118e+02 4.397543e+02 4.014976e+02 3.418825e+02 3.327025e+02 3.245331e+02 9.977678e+02 2.201455e+01 1.633205e+01 1.790196e+01 2.464227e+01 1.826893e+01 2.052768e+01 2.264307e+01 2.341918e+01 1.969537e+01 1.668498e+01 1.669004e+01 1.500273e+01 2.665860e+01 3.195595e+00 2.195539e+00 2.399967e+00 3.764036e+00 2.871250e+00 3.404811e+00 3.668644e+00 3.903433e+00 3.281668e+00 2.836236e+00 2.846267e+00 2.509409e+00 2.969608e+00
<GCONST> 2.039314e+02
<STATE> 4
<MEAN> 39
 4.874506e+00 -1.636549e+01 1.173877e+01 -6.312140e+00 1.210659e+00 8.597326e-02 9.220884e-01 7.631735e+00 1.153167e+00 7.419896e+00 -2.900107e+00 2.822504e+00 1.185004e+02 -1.879130e-01 2.744139e-01 1.249072e-01 2.179965e-01 -1.107922e-01 -1.174082e-01 1.227823e-01 -2.196277e-02 -9.111711e-02 -4.969110e-02 -6.227813e-02 5.456098e-02 -4.203062e-01 -2.692518e-02 3.063181e-02 -9.758937e-03 1.148770e-02 -3.300406e-03 -2.923749e-03 -7.538024e-03 -1.379581e-02 -9.693329e-03 -7.364402e-03 1.253014e-03 -3.543794e-04 -6.593981e-02
<VARIANCE> 39
 4.503346e+02 4.381133e+02 4.758148e+02 5.414168e+02 3.953532e+02 3.823850e+02 4.682259e+02 4.410278e+02 4.006339e+02 3.418870e+02 3.292386e+02 3.224646e+02 9.820118e+02 2.112832e+01 1.598510e+01 1.811259e+01 2.447668e+01 1.843684e+01 2.068530e+01 2.256587e+01 2.339769e+01 1.960851e+01 1.677403e+01 1.661563e+01 1.509135e+01 2.506955e+01 3.033406e+00 2.153902e+00 2.424765e+00 3.767425e+00 2.911469e+00 3.436182e+00 3.643489e+00 3.874495e+00 3.268597e+00 2.854815e+00 2.833369e+00 2.535840e+00 2.901017e+00
<GCONST> 2.037643e+02
<TRANSP> 5
 0.000000e+00 1.000000e+00 0.000000e+00 0.000000e+00 0.000000e+00
 0.000000e+00 7.332941e-01 2.667060e-01 0.000000e+00 0.000000e+00
 0.000000e+00 0.000000e+00 7.332931e-01 2.667069e-01 0.000000e+00
 0.000000e+00 0.000000e+00 0.000000e+00 8.586757e-01 1.413243e-01
 0.000000e+00 0.000000e+00 0.000000e+00 0.000000e+00 0.000000e+00
<ENDHMM>
~h "eh"
<BEGINHMM>
<NUMSTATES> 5
<STATE> 2
<MEAN> 39
 -1.306623e+01 -3.955694e+00 7.218027e+00 -2.969332e+00 -3.224426e+00 -8.170937e+00 -4.301056e+00 1.936392e+00 -2.172555e+00 6.747782e+00 -3.029873e+00 5.519784e+00 1.106863e+02 3.953239e-01 -2.026283e-01 1.466389e-01 -7.772771e-02 7.153101e-03 -8.303036e-02 -2.409403e-02 5.442280e-02 2.082203e-01 1.696801e-01 -1.579274e-02 5.182543e-02 8.680478e-01 6.906433e-02 -1.621892e-02 3.595493e-02 6.549817e-03 7.011685e-03 7.726386e-03 4.536158e-03 3.176332e-03 3.939453e-03 3.351676e-03 3.282472e-03 -3.151665e-03 -1.102529e-02
<VARIANCE> 39
 9.624097e+02 3.221466e+02 4.953932e+02 3.783759e+02 3.117176e+02 3.631503e+02 4.325017e+02 3.020898e+02 3.735164e+02 3.202767e+02 2.751560e+02 2.691534e+02 9.749482e+02 4.223698e+01 1.840843e+01 2.510006e+01 2.304760e+01 1.824615e+01 2.389239e+01 2.579653e+01 2.145210e+01 2.249263e+01 1.903489e+01 1.810553e+01 1.685373e+01 2.891834e+01 5.497612e+00 2.854953e+00 3.645602e+00 3.874801e+00 3.199625e+00 4.246059e+00 4.469798e+00 3.954787e+00 3.941501e+00 3.306775e+00 3.141123e+00 3.000280e+00 4.116619e+00
<GCONST> 2.073307e+02
<STATE> 3
<MEAN> 39
 -1.120225e+01 -4.793610e+00 7.992564e+00 -3.217350e+00 -3.166481e+00 -8.431717e+00 -4.367595e+00 2.155321e+00 -1.386754e+00 7.351116e+00 -3.056873e+00 5.683434e+00 1.135911e+02 6.368938e-01 -2.526096e-01 2.767600e-01 -5.199862e-02 3.647393e-02 -4.744744e-02 -5.125023e-03 5.713996e-02 2.144701e-01 1.808218e-01 -4.864900e-03 3.792170e-02 7.766639e-01 6.135630e-02 -8.884248e-03 3.604760e-02 1.164815e-02 8.770225e-03 1.307148e-02 8.510171e-03 4.988136e-04 -1.770688e-03 1.911848e-04 1.738271e-03 -3.616108e-03 -3.562092e-02
<VARIANCE> 39
 9.758544e+02 3.307551e+02 4.839717e+02 3.819760e+02 3.143311e+02 3.695139e+02 4.567169e+02 3.064150e+02 3.836140e+02 3.354997e+02 2.874785e+02 2.819231e+02 8.872122e+02 4.196859e+01 1.878468e+01 2.458874e+01 2.378187e+01 1.839059e+01 2.454775e+01 2.676511e+01 2.190756e+01 2.302522e+01 1.936523e+01 1.847622e+01 1.718274e+01 2.931432e+01 5.520761e+00 2.903628e+00 3.620097e+00 4.010280e+00 3.220692e+00 4.384074e+00 4.626481e+00 4.044641e+00 4.032677e+00 3.336216e+00 3.170162e+00 3.042666e+00 4.184531e+00
<GCONST> 2.079470e+02
<STATE> 4
<MEAN> 39
 -7.629960e+00 -6.081537e+00 9.643017e+00 -3.425302e+00 -3.032373e+00 -8.356314e+00 -4.224240e+00 2.538992e+00 -3.434393e-01 8.045951e+00 -3.024175e+00 5.868071e+00 1.168110e+02 8.324116e-01 -2.590691e-01 4.062935e-01 3.532223e-03 8.498267e-02 2.335850e-02 4.065821e-02 4.646852e-02 1.828109e-01 1.703606e-01 -4.635882e-03 1.924561e-02 5.448948e-01 2.530980e-02 7.948978e-03 2.196779e-02 1.766534e-02 9.606360e-03 1.853303e-02 1.393441e-02 -2.984735e-03 -1.177624e-02 -6.463275e-03 -1.537482e-03 -3.033656e-03 -5.792414e-02
<VARIANCE> 39
 9.415102e+02 3.385326e+02 4.673460e+02 3.944072e+02 3.169116e+02 3.805385e+02 4.939306e+02 3.185307e+02 3.978329e+02 3.572585e+02 3.055836e+02 2.998005e+02 8.097374e+02 3.970042e+01 1.911109e+01 2.352243e+01 2.501726e+01 1.872122e+01 2.551806e+01 2.793406e+01 2.287163e+01 2.370029e+01 1.978005e+01 1.900444e+01 1.757710e+01 3.008903e+01 5.315419e+00 2.953212e+00 3.521978e+00 4.232455e+00 3.268672e+00 4.594818e+00 4.814257e+00 4.216526e+00 4.148377e+00 3.371375e+00 3.215510e+00 3.094388e+00 4.333770e+00
<GCONST> 2.087074e+02
<TRANSP> 5
 0.000000e+00 1.000000e+00 0.000000e+00 0.000000e+00 0.000000e+00
 0.000000e+00 7.086048e-01 2.913952e-01 0.000000e+00 0.000000e+00
 0.000000e+00 0.000000e+00 7.086081e-01 2.913919e-01 0.000000e+00
 0.000000e+00 0.000000e+00 0.000000e+00 8.284191e-01 1.715809e-01
 0.000000e+00 0.000000e+00 0.000000e+00 0.000000e+00 0.000000e+00
<ENDHMM>
~h "ey"
<BEGINHMM>
<NUMSTATES> 5
<STATE> 2
<MEAN> 39
 -7.888550e+00 -4.481880e+00 2.478618e+01 -7.666492e+00 -9.410074e+00 -8.094589e+00 -2.705606e+00 -2.265440e+00 -5.948576e+00 5.716302e+00 -2.390213e+00 5.486076e+00 9.953254e+01 -3.000897e-02 2.546087e-02 4.070321e-01 -5.732621e-02 -9.323181e-02 -6.046284e-03 6.329315e-02 -8.688745e-02 -4.459459e-02 2.136888e-02 -4.851015e-02 3.075119e-02 3.436075e-01 1.595579e-02 -7.033797e-03 2.477848e-03 4.907021e-04 5.833529e-03 3.623381e-03 3.230922e-03 6.145308e-03 -9.443109e-04 -2.205265e-03 -2.019862e-03 -3.788944e-04 2.845800e-02
<VARIANCE> 39
 4.229068e+02 2.975696e+02 9.122676e+02 4.918789e+02 3.203659e+02 3.469182e+02 4.046674e+02 3.927181e+02 4.451832e+02 2.977383e+02 2.465191e+02 2.365797e+02 1.591071e+03 1.520603e+01 1.506586e+01 3.065084e+01 2.242214e+01 1.848691e+01 1.959845e+01 2.193211e+01 2.268888e+01 2.192229e+01 1.788285e+01 1.670329e+01 1.599675e+01 5.553846e+01 2.291584e+00 2.432675e+00 4.025492e+00 3.724925e+00 3.129422e+00 3.352149e+00 3.794911e+00 3.942695e+00 3.762410e+00 3.184555e+00 3.018226e+00 2.840725e+00 7.514595e+00
<GCONST> 2.059459e+02
<STATE> 3
<MEAN> 39
 -7.809220e+00 -4.400707e+00 2.667095e+01 -7.920194e+00 -9.722020e+00 -8.064944e+00 -2.439866e+00 -2.600507e+00 -6.173396e+00 5.742867e+00 -2.620454e+00 5.617722e+00 1.013589e+02 1.084691e-02 2.588997e-02 3.657447e-01 -2.506473e-02 -4.627328e-02 2.364089e-02 7.114582e-02 -6.340528e-02 -4.476800e-02 -1.992434e-04 -5.596031e-02 2.128461e-02 3.585443e-01 1.282987e-02 -5.158723e-04 -1.037566e-02 7.612463e-03 1.190628e-02 7.988551e-03 1.024331e-03 6.555616e-03 1.048418e-03 -4.319761e-03 -1.878671e-03 -2.735483e-03 5.309274e-03
<VARIANCE> 39
 4.088788e+02 3.022301e+02 9.330912e+02 5.066699e+02 3.241920e+02 3.479586e+02 4.034363e+02 3.987823e+02 4.555887e+02 2.997362e+02 2.497984e+02 2.402462e+02 1.536686e+03 1.585589e+01 1.569034e+01 3.312099e+01 2.324410e+01 1.882131e+01 1.975245e+01 2.211639e+01 2.298813e+01 2.240068e+01 1.809893e+01 1.694596e+01 1.627236e+01 6.006924e+01 2.396075e+00 2.530067e+00 4.298518e+00 3.857863e+00 3.181127e+00 3.367562e+00 3.818881e+00 3.980235e+00 3.817626e+00 3.211795e+00 3.049573e+00 2.880487e+00 8.017422e+00
<GCONST> 2.067508e+02
<STATE> 4
<MEAN> 39
 -7.839325e+00 -3.659573e+00 2.894313e+01 -8.244652e+00 -9.685776e+00 -7.368699e+00 -2.217856e+00 -3.251673e+00 -6.265565e+00 5.428431e+00 -2.955400e+00 5.691597e+00 1.033971e+02 -2.405620e-02 8.628513e-02 7.258173e-02 1.147615e-01 8.900130e-02 8.933397e-02 6.912585e-02 -1.769345e-02 -2.286037e-02 -6.194570e-02 -5.469570e-02 -1.454923e-02 4.503991e-02 -5.497628e-04 5.396240e-03 -4.734372e-02 1.849253e-02 1.820690e-02 9.945760e-03 -1.344629e-03 9.503392e-03 6.605243e-03 -5.466550e-03 1.218004e-03 -5.623635e-03 -4.391500e-02
<VARIANCE> 39
 3.901612e+02 3.091657e+02 9.689866e+02 5.250094e+02 3.293060e+02 3.469533e+02 3.947023e+02 4.073813e+02 4.662874e+02 3.042764e+02 2.562826e+02 2.450396e+02 1.456445e+03 1.626417e+01 1.612906e+01 3.589298e+01 2.399422e+01 1.895028e+01 1.959708e+01 2.203393e+01 2.322876e+01 2.284987e+01 1.837684e+01 1.730535e+01 1.654410e+01 6.337122e+01 2.470455e+00 2.601789e+00 4.610719e+00 3.989532e+00 3.203541e+00 3.329107e+00 3.800944e+00 4.004648e+00 3.882032e+00 3.247404e+00 3.088724e+00 2.915961e+00 8.392282e+00
<GCONST> 2.073966e+02
<TRANSP> 5
 0.000000e+00 1.000000e+00 0.000000e+00 0.000000e+00 0.000000e+00
 0.000000e+00 7.410949e-01 2.589051e-01 0.000000e+00 0.000000e+00
 0.000000e+00 0.000000e+00 7.410946e-01 2.589054e-01 0.000000e+00
 0.000000e+00 0.000000e+00 0.000000e+00 8.690483e-01 1.309517e-01
 0.000000e+00 0.000000e+00 0.000000e+00 0.000000e+00 0.000000e+00
<ENDHMM>
~h "hh"
<BEGINHMM>
<NUMSTATES> 5
<STATE> 2
<MEAN> 39
 5.856279e+00 -1.234193e+00 1.052095e+01 -9.868580e+00 -2.161412e+00 -1.685975e-01 -1.801103e+00 3.560873e+00 -4.971130e+00 6.200846e+00 -7.981192e-01 3.296554e+00 1.003642e+02 6.171327e-01 1.837122e-01 1.734969e-01 -2.869272e-01 -4.882541e-03 2.493326e-01 1.540089e-01 1.829227e-01 8.176608e-03 8.179051e-02 3.750872e-02 -2.049453e-02 5.153142e-01 1.798921e-02 -1.403442e-02 1.422342e-02 3.050754e-03 6.556790e-03 -4.428141e-03 -3.799986e-03 1.196710e-02 7.780662e-03 1.890856e-03 -2.464607e-03 3.304435e-03 4.930141e-02
<VARIANCE> 39
 6.847188e+02 3.704533e+02 4.672945e+02 5.582438e+02 4.076468e+02 3.830703e+02 4.458452e+02 4.124254e+02 4.084615e+02 3.386217e+02 2.988813e+02 2.786693e+02 1.304259e+03 1.728876e+01 1.737055e+01 1.983091e+01 2.508931e+01 2.215917e+01 2.295290e+01 2.414565e+01 2.390876e+01 2.171789e+01 1.924951e+01 1.884057e+01 1.680018e+01 2.371103e+01 2.347075e+00 2.512188e+00 2.767311e+00 3.710083e+00 3.574517e+00 4.015323e+00 4.230448e+00 4.254719e+00 3.867038e+00 3.450157e+00 3.345960e+00 2.971616e+00 3.079989e+00
<GCONST> 2.061478e+02
<STATE> 3
<MEAN> 39
 8.278667e+00 -7.638423e-01 1.120206e+01 -1.098730e+01 -2.111864e+00 6.683125e-01 -1.334871e+00 4.342208e+00 -4.891205e+00 6.509672e+00 -6.552473e-01 3.247417e+00 1.027403e+02 6.516073e-01 9.624670e-02 1.984056e-01 -2.874772e-01 2.959438e-02 2.257553e-01 1.270094e-01 2.202452e-01 3.962530e-02 8.516872e-02 3.626969e-02 -4.128500e-03 6.875547e-01 3.256873e-03 -2.735712e-02 8.211021e-03 5.512885e-03 1.061360e-02 -9.336725e-03 -7.919831e-03 6.988223e-03 8.996294e-03 7.606152e-04 -2.081379e-03 6.329875e-03 4.499133e-02
<VARIANCE> 39
 6.532706e+02 3.883602e+02 4.540722e+02 5.897950e+02 4.344684e+02 3.884600e+02 4.602361e+02 4.274858e+02 4.165859e+02 3.476119e+02 3.125957e+02 2.876250e+02 1.210620e+03 1.809809e+01 1.841391e+01 2.030080e+01 2.700158e+01 2.344786e+01 2.385553e+01 2.512477e+01 2.502677e+01 2.239787e+01 1.987722e+01 1.958144e+01 1.743822e+01 2.439836e+01 2.430391e+00 2.605130e+00 2.826329e+00 3.882381e+00 3.750092e+00 4.168978e+00 4.385699e+00 4.451984e+00 3.986068e+00 3.540824e+00 3.455739e+00 3.064742e+00 3.050364e+00
<GCONST> 2.073307e+02
<STATE> 4
<MEAN> 39
 1.132749e+01 -7.872541e-01 1.200309e+01 -1.268232e+01 -1.763888e+00 1.660408e+00 -9.583834e-01 5.559198e+00 -4.510951e+00 6.891832e+00 -4.178469e-01 3.324183e+00 1.069141e+02 5.308370e-01 -8.840042e-02 1.746618e-01 -2.235037e-01 1.016054e-01 1.662582e-01 8.090655e-02 2.331779e-01 7.322432e-02 5.895209e-02 3.530979e-02 2.065401e-02 7.756870e-01 -3.456236e-02 -3.243801e-02 -2.584338e-04 2.663401e-02 1.323376e-02 -1.344420e-02 -5.900192e-03 -4.915241e-03 6.716261e-03 -4.980350e-03 -4.928577e-03 6.882030e-03 2.839136e-03
<VARIANCE> 39
 5.901110e+02 4.159994e+02 4.440316e+02 6.408097e+02 4.757617e+02 3.989400e+02 4.877596e+02 4.491347e+02 4.290911e+02 3.638421e+02 3.320891e+02 3.017467e+02 1.076480e+03 1.822122e+01 1.945170e+01 2.067801e+01 2.930663e+01 2.482335e+01 2.484781e+01 2.632124e+01 2.662858e+01 2.317842e+01 2.061123e+01 2.053156e+01 1.830520e+01 2.486140e+01 2.407816e+00 2.647570e+00 2.845135e+00 4.027666e+00 3.893177e+00 4.311321e+00 4.555683e+00 4.707221e+00 4.109251e+00 3.629844e+00 3.580795e+00 3.185270e+00 2.957893e+00
<GCONST> 2.085165e+02
<TRANSP> 5
 0.000000e+00 1.000000e+00 0.000000e+00 0.000000e+00 0.000000e+00
 0.000000e+00 7.153291e-01 2.846709e-01 0.000000e+00 0.000000e+00
 0.000000e+00 0.000000e+00 7.153289e-01 2.846710e-01 0.000000e+00
 0.000000e+00 0.000000e+00 0.000000e+00 8.368441e-01 1.631559e-01
 0.000000e+00 0.000000e+00 0.000000e+00 0.000000e+00 0.000000e+00
<ENDHMM>
~h "ih"
<BEGINHMM>
<NUMSTATES> 5
<STATE> 2
<MEAN> 39
 -2.281844e+01 -1.204243e+00 7.133349e+00 2.003817e+00 -5.828897e+00 -1.196786e+01 -4.654409e+00 2.724752e-01 -6.630696e+00 3.682004e+00 -3.263057e+00 6.216329e+00 1.035990e+02 -2.067315e-01 -2.526377e-02 -5.584452e-02 8.844160e-02 -1.935904e-02 -1.362063e-01 -3.122124e-02 3.454698e-02 -1.492271e-02 -8.101335e-03 -3.759895e-02 2.521916e-02 2.953365e-01 3.165187e-02 -7.734026e-03 9.889047e-03 -3.369338e-03 6.080048e-03 8.895565e-03 3.680437e-03 4.387204e-03 4.621189e-03 5.058231e-04 2.651437e-03 -4.774812e-03 -1.902613e-02
<VARIANCE> 39
 7.928924e+02 2.621520e+02 6.573645e+02 3.455391e+02 3.385099e+02 3.882688e+02 3.760121e+02 3.121313e+02 2.988725e+02 2.304634e+02 2.150276e+02 2.150920e+02 9.737148e+02 4.216917e+01 2.148284e+01 3.545601e+01 2.243946e+01 1.858022e+01 2.564897e+01 2.701376e+01 2.324337e+01 2.286410e+01 1.858520e+01 1.644060e+01 1.632557e+01 5.181052e+01 5.748280e+00 3.950404e+00 4.658142e+00 3.925467e+00 3.345243e+00 4.545536e+00 4.786644e+00 4.251861e+00 4.106056e+00 3.480244e+00 3.040888e+00 2.990469e+00 7.766626e+00
<GCONST> 2.088473e+02
<STATE> 3
<MEAN> 39
 -2.324107e+01 -1.386554e+00 7.082336e+00 2.331587e+00 -5.868258e+00 -1.244788e+01 -4.748004e+00 4.086604e-01 -6.649088e+00 3.658499e+00 -3.359443e+00 6.277117e+00 1.043864e+02 -1.024659e-01 -4.813438e-02 -3.723904e-02 7.340860e-02 8.919889e-03 -9.301715e-02 -1.641229e-02 4.928891e-02 3.203493e-03 -6.753227e-03 -2.771581e-02 3.611618e-03 1.790727e-01 3.590432e-02 -7.170104e-03 8.591833e-03 -4.686624e-03 7.113456e-03 1.243006e-02 4.797379e-03 3.690519e-03 5.056755e-03 6.627280e-04 2.901768e-03 -5.838080e-03 -3.127034e-02
<VARIANCE> 39
 7.937719e+02 2.636027e+02 6.655317e+02 3.475155e+02 3.441107e+02 3.884767e+02 3.792467e+02 3.175323e+02 3.016847e+02 2.297627e+02 2.152105e+02 2.149893e+02 9.369318e+02 4.291867e+01 2.230058e+01 3.625228e+01 2.280029e+01 1.881853e+01 2.624448e+01 2.771184e+01 2.382715e+01 2.349614e+01 1.884011e+01 1.658339e+01 1.651304e+01 5.514283e+01 5.878935e+00 4.147282e+00 4.768329e+00 4.012096e+00 3.396847e+00 4.670950e+00 4.931613e+00 4.363523e+00 4.226711e+00 3.543482e+00 3.073607e+00 3.032217e+00 8.379930e+00
<GCONST> 2.095473e+02
<STATE> 4
<MEAN> 39
 -2.306386e+01 -1.803879e+00 7.114920e+00 2.562639e+00 -6.016905e+00 -1.279127e+01 -4.817386e+00 5.540756e-01 -6.463196e+00 3.727033e+00 -3.337918e+00 6.315231e+00 1.047417e+02 -1.935148e-02 -6.212520e-02 -7.959730e-02 4.234206e-02 5.914200e-02 -9.652000e-03 2.966139e-03 7.269427e-02 3.228164e-02 -2.831113e-03 -2.027165e-02 -3.091816e-02 -3.721324e-02 2.552964e-02 -3.043821e-03 -2.238106e-03 -7.645782e-03 8.164131e-03 1.694384e-02 4.989204e-03 4.157993e-03 5.482694e-03 1.017280e-03 1.205230e-03 -5.966105e-03 -3.156396e-02
<VARIANCE> 39
 7.863840e+02 2.650150e+02 6.694048e+02 3.536422e+02 3.521021e+02 3.903384e+02 3.841788e+02 3.248798e+02 3.063920e+02 2.314403e+02 2.165254e+02 2.145056e+02 9.330564e+02 4.252316e+01 2.298214e+01 3.613898e+01 2.314836e+01 1.914013e+01 2.665516e+01 2.825991e+01 2.430393e+01 2.404090e+01 1.909166e+01 1.667915e+01 1.657774e+01 5.953188e+01 5.898835e+00 4.311981e+00 4.780508e+00 4.096160e+00 3.450852e+00 4.757146e+00 5.048029e+00 4.453124e+00 4.327900e+00 3.599202e+00 3.098965e+00 3.050879e+00 9.120981e+00
<GCONST> 2.101615e+02
<TRANSP> 5
 0.000000e+00 1.000000e+00 0.000000e+00 0.000000e+00 0.000000e+00
 0.000000e+00 7.257088e-01 2.742912e-01 0.000000e+00 0.000000e+00
 0.000000e+00 0.000000e+00 7.257108e-01 2.742892e-01 0.000000e+00
 0.000000e+00 0.000000e+00 0.000000e+00 8.498284e-01 1.501716e-01
 0.000000e+00 0.000000e+00 0.000000e+00 0.000000e+00 0.000000e+00
<ENDHMM>
~h "iy"
<BEGINHMM>
<NUMSTATES> 5
<STATE> 2
<MEAN> 39
 -5.599136e-01 -2.985919e+00 2.330351e+01 2.719111e+00 1.662039e+00 -8.652537e+00 -4.980206e+00 5.664061e-01 -7.922451e+00 4.827100e+00 -3.468503e+00 5.356622e+00 1.110728e+02 2.148357e-01 -1.024882e-01 -1.788741e-01 -1.656217e-01 2.714246e-02 3.689997e-02 5.426243e-02 7.202005e-02 2.956805e-02 6.665991e-02 6.634001e-02 -9.316718e-03 1.638597e-01 2.509346e-03 -1.284255e-02 -3.667377e-02 -1.115745e-02 -6.035265e-03 -2.041851e-03 -3.347827e-03 2.408709e-03 3.830141e-03 -1.982305e-04 9.291410e-03 -2.180005e-03 -3.080634e-02
<VARIANCE> 39
 6.719279e+02 4.695178e+02 8.675803e+02 4.742996e+02 4.144239e+02 6.079000e+02 6.398272e+02 4.212655e+02 4.015747e+02 3.424402e+02 2.789091e+02 2.597034e+02 8.932822e+02 2.598274e+01 1.970306e+01 3.760366e+01 2.346267e+01 2.379156e+01 2.854499e+01 2.748556e+01 2.564895e+01 2.216736e+01 1.886485e+01 1.683595e+01 1.539214e+01 2.177569e+01 3.162788e+00 2.644841e+00 4.538718e+00 3.721690e+00 3.795474e+00 4.392129e+00 4.338005e+00 4.246761e+00 3.712291e+00 3.241200e+00 2.930801e+00 2.713579e+00 2.703406e+00
<GCONST> 2.090323e+02
<STATE> 3
<MEAN> 39
 2.700539e-01 -3.503330e+00 2.231231e+01 1.991445e+00 1.705886e+00 -8.508749e+00 -4.798086e+00 8.549807e-01 -7.745907e+00 5.082414e+00 -3.163892e+00 5.284267e+00 1.113262e+02 2.261878e-01 -1.474828e-01 -3.249906e-01 -1.952679e-01 1.416200e-02 2.590553e-02 3.795062e-02 8.357771e-02 4.657010e-02 6.828821e-02 9.975872e-02 -1.810356e-02 3.393562e-02 -8.096290e-04 -7.422703e-03 -2.627340e-02 -7.300052e-03 -4.646260e-03 2.068774e-04 -2.598967e-03 6.764730e-04 3.910241e-03 2.162594e-04 6.010506e-03 -1.394575e-03 -3.291985e-02
<VARIANCE> 39
 6.756237e+02 4.661636e+02 8.540774e+02 4.785415e+02 4.118160e+02 6.121745e+02 6.474102e+02 4.183090e+02 4.071530e+02 3.486035e+02 2.857315e+02 2.607798e+02 9.040739e+02 2.501379e+01 1.920173e+01 3.662990e+01 2.319285e+01 2.305338e+01 2.776930e+01 2.691282e+01 2.519477e+01 2.197887e+01 1.871659e+01 1.682950e+01 1.537477e+01 2.079744e+01 3.022488e+00 2.566767e+00 4.394616e+00 3.652088e+00 3.673195e+00 4.253353e+00 4.227454e+00 4.167854e+00 3.669619e+00 3.195703e+00 2.905734e+00 2.692034e+00 2.571598e+00
<GCONST> 2.085096e+02
<STATE> 4
<MEAN> 39
 1.423238e+00 -4.276132e+00 2.041524e+01 5.676441e-01 1.578753e+00 -8.096259e+00 -4.533743e+00 1.138751e+00 -7.272027e+00 5.475018e+00 -2.633098e+00 5.113228e+00 1.107966e+02 1.991731e-01 -1.533600e-01 -4.835980e-01 -2.029544e-01 9.977693e-03 3.866139e-02 3.628625e-02 9.351690e-02 7.756516e-02 7.560730e-02 1.233174e-01 -2.950647e-02 -1.688618e-01 -1.122299e-02 5.706124e-03 -9.322211e-03 3.349658e-04 -2.050797e-03 6.288950e-03 1.647170e-03 -2.142634e-03 3.665640e-03 -1.103601e-04 2.057228e-04 -1.459277e-04 -2.960114e-02
<VARIANCE> 39
 6.705095e+02 4.510734e+02 8.307308e+02 4.817109e+02 4.061095e+02 6.152982e+02 6.472546e+02 4.130990e+02 4.166103e+02 3.563853e+02 2.917378e+02 2.595005e+02 9.687236e+02 2.300717e+01 1.798898e+01 3.404533e+01 2.245770e+01 2.184741e+01 2.640818e+01 2.585336e+01 2.429391e+01 2.155718e+01 1.844201e+01 1.676131e+01 1.525722e+01 1.969355e+01 2.754338e+00 2.407509e+00 4.057396e+00 3.496242e+00 3.457322e+00 4.022366e+00 4.046213e+00 4.015310e+00 3.590450e+00 3.122796e+00 2.866138e+00 2.649560e+00 2.446461e+00
<GCONST> 2.074188e+02
<TRANSP> 5
 0.000000e+00 1.000000e+00 0.000000e+00 0.000000e+00 0.000000e+00
 0.000000e+00 7.243992e-01 2.756009e-01 0.000000e+00 0.000000e+00
 0.000000e+00 0.000000e+00 7.243977e-01 2.756023e-01 0.000000e+00
 0.000000e+00 0.000000e+00 0.000000e+00 8.477188e-01 1.522812e-01
 0.000000e+00 0.000000e+00 0.000000e+00 0.000000e+00 0.000000e+00
<ENDHMM>
~h "ow"
<BEGINHMM>
<NUMSTATES> 5
<STATE> 2
<MEAN> 39
 6.463506e+00 -5.647288e+00 7.429312e+00 -1.133672e+01 3.297945e-01 -2.656849e+00 -3.705483e+00 5.695727e-01 -4.909537e+00 8.904541e+00 -1.314196e+00 4.963612e+00 1.078790e+02 -8.672187e-02 1.198049e-01 -6.462138e-02 -8.617859e-02 -3.934234e-02 2.232596e-01 1.437517e-01 -2.259323e-03 2.477671e-02 -1.126231e-02 -5.290254e-02 -4.104957e-02 -1.768936e-01 -1.027292e-02 5.168939e-03 1.039682e-02 1.240629e-02 4.366467e-04 -1.090004e-02 -7.791066e-03 1.764606e-03 2.714320e-04 -5.254604e-03 4.256180e-04 5.277413e-04 2.523400e-03
<VARIANCE> 39
 6.410631e+02 3.617155e+02 4.743332e+02 6.229485e+02 4.252860e+02 5.493810e+02 5.419212e+02 3.792504e+02 5.201567e+02 4.050959e+02 3.355079e+02 2.762096e+02 1.185324e+03 2.057457e+01 1.552658e+01 1.843096e+01 2.194809e+01 1.769502e+01 2.030329e+01 2.130493e+01 2.111422e+01 2.172548e+01 1.975485e+01 1.840546e+01 1.616252e+01 2.917567e+01 2.477033e+00 2.216481e+00 2.540163e+00 3.216587e+00 2.804959e+00 3.166923e+00 3.446416e+00 3.565346e+00 3.534591e+00 3.264894e+00 3.081221e+00 2.776979e+00 3.652808e+00
<GCONST> 2.052724e+02
<STATE> 3
<MEAN> 39
 6.218920e+00 -5.072592e+00 7.317586e+00 -1.160101e+01 1.886016e-01 -1.763766e+00 -3.104206e+00 6.008062e-01 -4.856940e+00 8.782888e+00 -1.557261e+00 4.842505e+00 1.073310e+02 -1.417470e-01 1.419919e-01 -1.959906e-02 -1.180537e-02 -3.542816e-02 1.691059e-01 1.088615e-01 6.516056e-03 2.204815e-02 -4.290337e-02 -4.924616e-02 -3.784331e-02 -2.144356e-01 -6.410665e-03 4.763870e-03 1.144015e-02 1.297985e-02 1.831894e-04 -1.206707e-02 -8.237545e-03 2.062367e-03 -4.214958e-04 -4.094108e-03 2.679713e-03 2.506832e-03 2.414822e-04
<VARIANCE> 39
 6.295717e+02 3.599882e+02 4.604645e+02 6.332816e+02 4.267865e+02 5.352063e+02 5.234827e+02 3.771117e+02 5.202698e+02 4.000018e+02 3.301017e+02 2.764377e+02 1.174945e+03 2.093139e+01 1.529479e+01 1.783875e+01 2.197592e+01 1.745092e+01 1.990586e+01 2.095490e+01 2.084629e+01 2.168380e+01 1.965266e+01 1.826408e+01 1.607533e+01 2.915597e+01 2.517040e+00 2.189498e+00 2.480463e+00 3.214898e+00 2.764671e+00 3.123718e+00 3.420312e+00 3.524523e+00 3.530127e+00 3.255571e+00 3.070541e+00 2.763329e+00 3.634012e+00
<GCONST> 2.049381e+02
<STATE> 4
<MEAN> 39
 6.306245e+00 -3.661185e+00 6.943877e+00 -1.304151e+01 -4.256860e-01 8.965588e-02 -2.116956e+00 5.124161e-01 -4.620585e+00 8.567783e+00 -2.017653e+00 4.839289e+00 1.063127e+02 -2.480598e-01 1.732552e-01 3.483039e-02 1.789526e-01 -8.687001e-03 8.537315e-02 7.856198e-02 3.680763e-02 1.975688e-02 -1.045649e-01 -3.534283e-02 -3.515483e-02 -3.965292e-01 -1.104629e-02 5.113268e-05 6.942337e-03 1.748875e-02 1.215785e-03 -1.330897e-02 -8.455104e-03 2.305394e-03 1.626324e-03 -2.433968e-03 4.938639e-03 1.984012e-03 -1.207448e-02
<VARIANCE> 39
 6.056870e+02 3.572185e+02 4.353086e+02 6.667955e+02 4.327934e+02 4.999461e+02 4.865524e+02 3.746144e+02 5.218361e+02 3.927374e+02 3.265209e+02 2.798476e+02 1.180186e+03 2.001493e+01 1.451139e+01 1.648816e+01 2.147095e+01 1.673437e+01 1.884989e+01 2.006544e+01 2.031154e+01 2.133476e+01 1.919849e+01 1.797731e+01 1.585573e+01 2.796072e+01 2.415370e+00 2.077641e+00 2.325165e+00 3.130764e+00 2.656853e+00 3.000398e+00 3.319233e+00 3.429566e+00 3.480269e+00 3.192325e+00 3.041515e+00 2.714149e+00 3.466850e+00
<GCONST> 2.038368e+02
<TRANSP> 5
 0.000000e+00 1.000000e+00 0.000000e+00 0.000000e+00 0.000000e+00
 0.000000e+00 7.428884e-01 2.571116e-01 0.000000e+00 0.000000e+00
 0.000000e+00 0.000000e+00 7.428885e-01 2.571115e-01 0.000000e+00
 0.000000e+00 0.000000e+00 0.000000e+00 8.737757e-01 1.262243e-01
 0.000000e+00 0.000000e+00 0.000000e+00 0.000000e+00 0.000000e+00
<ENDHMM>
~h "th"
<BEGINHMM>
<NUMSTATES> 5
<STATE> 2
<MEAN> 39
 -5.476891e+00 -5.053650e+00 1.508213e+01 2.540668e+00 -1.040635e+00 -7.597040e+00 -6.181331e+00 -4.649346e-01 -7.027068e+00 3.744529e+00 -2.367974e+00 4.570121e+00 9.784679e+01 2.420132e-01 -9.454253e-02 4.519733e-01 7.810219e-02 7.190487e-02 -1.216816e-01 -7.335379e-02 -7.330206e-02 -1.277564e-01 8.214851e-03 -6.326991e-02 4.019109e-02 6.244720e-01 1.521078e-02 -7.624091e-03 2.342358e-02 -6.877679e-03 1.068727e-03 3.002812e-03 5.153553e-03 5.940365e-03 -4.616810e-03 -6.531985e-04 -4.698879e-03 8.145404e-04 4.077812e-02
<VARIANCE> 39
 6.711498e+02 2.782920e+02 7.039496e+02 3.693651e+02 3.482818e+02 4.711647e+02 4.958817e+02 3.596124e+02 3.446017e+02 2.695005e+02 2.165095e+02 2.159297e+02 1.210916e+03 2.941824e+01 1.601697e+01 3.068387e+01 2.181769e+01 2.555431e+01 2.794517e+01 2.937146e+01 2.464452e+01 2.199611e+01 1.855260e+01 1.692932e+01 1.543113e+01 3.341142e+01 3.664329e+00 2.593562e+00 4.532801e+00 3.850864e+00 4.218356e+00 4.601793e+00 4.917867e+00 4.335743e+00 3.908949e+00 3.421443e+00 3.216042e+00 2.932384e+00 4.983215e+00
<GCONST> 2.081572e+02
<STATE> 3
<MEAN> 39
 -4.231512e+00 -5.578914e+00 1.699764e+01 2.809072e+00 -6.845437e-01 -8.168283e+00 -6.514303e+00 -6.713648e-01 -7.569266e+00 3.755223e+00 -2.622318e+00 4.747174e+00 1.007442e+02 3.026436e-01 -1.109895e-01 5.509763e-01 4.747278e-02 7.187355e-02 -1.102542e-01 -5.096198e-02 -5.217552e-02 -1.409752e-01 4.109461e-03 -7.730333e-02 4.244681e-02 7.372432e-01 1.133841e-02 -2.584042e-03 1.800471e-02 -7.948970e-03 4.154464e-05 6.651409e-03 8.529612e-03 6.982825e-03 -1.027521e-03 -8.241875e-04 -3.533470e-03 -2.946385e-05 2.091778e-02
<VARIANCE> 39
 6.827241e+02 2.883183e+02 7.630186e+02 3.757108e+02 3.683149e+02 5.056642e+02 5.282684e+02 3.769745e+02 3.546287e+02 2.774835e+02 2.177949e+02 2.181440e+02 1.122557e+03 3.079697e+01 1.647080e+01 3.304877e+01 2.253043e+01 2.706478e+01 2.970006e+01 3.087875e+01 2.568204e+01 2.263072e+01 1.897899e+01 1.706932e+01 1.545492e+01 3.395061e+01 3.804374e+00 2.645532e+00 4.821224e+00 3.990897e+00 4.420699e+00 4.831381e+00 5.126166e+00 4.486633e+00 4.010748e+00 3.490036e+00 3.243987e+00 2.938094e+00 5.036426e+00
<GCONST> 2.094019e+02
<STATE> 4
<MEAN> 39
 -1.932488e+00 -6.312363e+00 2.023290e+01 2.695815e+00 -7.822919e-02 -8.936565e+00 -6.980619e+00 -9.694285e-01 -8.392239e+00 3.820174e+00 -2.963190e+00 5.037126e+00 1.054534e+02 3.154807e-01 -7.422638e-02 6.761335e-01 -2.031486e-02 3.329428e-02 -6.476514e-02 1.226667e-02 -4.038484e-02 -1.394770e-01 3.860313e-03 -8.792411e-02 3.410159e-02 6.986998e-01 -1.196777e-02 1.135065e-02 4.276923e-03 -1.150688e-02 -8.325798e-03 1.731224e-02 1.715821e-02 4.279307e-03 4.982220e-03 6.364870e-04 -1.498956e-03 -2.971003e-03 -2.626408e-02
<VARIANCE> 39
 6.851396e+02 3.076841e+02 8.598798e+02 3.950890e+02 4.016060e+02 5.622855e+02 5.795592e+02 4.082862e+02 3.766335e+02 2.956309e+02 2.241675e+02 2.245937e+02 9.964584e+02 3.160925e+01 1.675481e+01 3.612672e+01 2.323276e+01 2.888716e+01 3.211106e+01 3.251518e+01 2.701470e+01 2.345333e+01 1.944497e+01 1.711456e+01 1.536247e+01 3.267730e+01 3.826319e+00 2.629657e+00 5.064733e+00 4.083904e+00 4.610600e+00 5.121993e+00 5.310760e+00 4.648169e+00 4.124173e+00 3.544815e+00 3.231641e+00 2.903090e+00 4.747200e+00
<GCONST> 2.107063e+02
<TRANSP> 5
 0.000000e+00 1.000000e+00 0.000000e+00 0.000000e+00 0.000000e+00
 0.000000e+00 7.298461e-01 2.701539e-01 0.000000e+00 0.000000e+00
 0.000000e+00 0.000000e+00 7.298502e-01 2.701499e-01 0.000000e+00
 0.000000e+00 0.000000e+00 0.000000e+00 8.544064e-01 1.455936e-01
 0.000000e+00 0.000000e+00 0.000000e+00 0.000000e+00 0.000000e+00
<ENDHMM>
~h "uw"
<BEGINHMM>
<NUMSTATES> 5
<STATE> 2
<MEAN> 39
 -3.624983e+00 -2.277452e+00 2.228608e+01 2.105078e+00 1.745644e-01 -5.709393e+00 -3.094856e+00 -1.240431e+00 -1.021509e+01 4.671767e+00 -4.565786e+00 4.192166e+00 1.054854e+02 1.651107e-01 3.078715e-02 -1.197471e-01 4.778640e-02 9.975731e-02 1.834208e-01 1.141751e-01 1.080713e-01 7.372169e-02 3.087769e-03 -2.071773e-02 -3.843638e-02 -1.981673e-02 -1.175117e-02 2.627362e-03 -1.961238e-02 -6.579348e-03 -4.780972e-03 -5.310799e-03 -6.323896e-03 6.021581e-03 1.279148e-02 -1.939241e-03 6.703126e-03 2.368316e-04 -4.035652e-02
<VARIANCE> 39
 6.019231e+02 2.621440e+02 6.505572e+02 4.068889e+02 3.046188e+02 4.771629e+02 5.491557e+02 4.215453e+02 4.302046e+02 3.190178e+02 2.822217e+02 3.408295e+02 1.057603e+03 2.679180e+01 1.534290e+01 2.505490e+01 2.062513e+01 1.722482e+01 2.286470e+01 2.487872e+01 2.136982e+01 2.178307e+01 1.838642e+01 1.765114e+01 1.690682e+01 4.169556e+01 3.622375e+00 2.585857e+00 3.029399e+00 3.420402e+00 2.874873e+00 3.649274e+00 3.935285e+00 3.600575e+00 3.688633e+00 3.226297e+00 3.103884e+00 2.803542e+00 6.290693e+00
<GCONST> 2.066352e+02
<STATE> 3
<MEAN> 39
 -3.032117e+00 -2.079662e+00 2.141965e+01 2.245171e+00 5.955269e-01 -4.846469e+00 -2.597157e+00 -8.178797e-01 -9.756520e+00 4.703161e+00 -4.602399e+00 4.015837e+00 1.047409e+02 7.856458e-02 4.462983e-02 -2.229822e-01 1.180095e-02 7.272006e-02 1.646674e-01 9.134537e-02 1.290792e-01 1.319237e-01 -7.042861e-03 1.157928e-02 -3.654163e-02 -2.067398e-01 -1.348870e-02 2.736424e-03 -1.738263e-02 -8.489978e-03 -5.540198e-03 -8.649543e-03 -1.028866e-02 1.813751e-03 1.003702e-02 -1.871421e-04 7.978498e-03 1.694402e-03 -3.547932e-02
<VARIANCE> 39
 5.873935e+02 2.692587e+02 6.561447e+02 4.159991e+02 3.113030e+02 4.790060e+02 5.428326e+02 4.229692e+02 4.356273e+02 3.231169e+02 2.841991e+02 3.427221e+02 1.051366e+03 2.615195e+01 1.511989e+01 2.455833e+01 2.027421e+01 1.721881e+01 2.264794e+01 2.458703e+01 2.143041e+01 2.167556e+01 1.841873e+01 1.769859e+01 1.700588e+01 3.704196e+01 3.478091e+00 2.510761e+00 2.975345e+00 3.344788e+00 2.851346e+00 3.610012e+00 3.900711e+00 3.611111e+00 3.661152e+00 3.228368e+00 3.112796e+00 2.821859e+00 5.533888e+00
<GCONST> 2.062486e+02
<STATE> 4
<MEAN> 39
 -2.189413e+00 -1.657975e+00 1.938781e+01 1.894683e+00 1.114617e+00 -3.571385e+00 -1.995771e+00 -4.897828e-01 -8.767158e+00 4.871019e+00 -4.511174e+00 3.863816e+00 1.026947e+02 -7.411374e-02 5.899582e-02 -3.725842e-01 -4.347331e-02 2.548085e-02 1.428522e-01 6.922651e-02 1.431988e-01 2.056632e-01 -1.718877e-02 6.477796e-02 -2.911505e-02 -4.675998e-01 -1.397515e-02 -1.465318e-04 -5.095156e-03 -8.090328e-03 -7.240981e-03 -1.353047e-02 -1.168535e-02 -1.205645e-03 3.142012e-03 7.311156e-04 8.026342e-03 3.378243e-03 -1.410203e-02
<VARIANCE> 39
 5.628378e+02 2.795752e+02 6.494017e+02 4.301497e+02 3.202094e+02 4.759983e+02 5.245041e+02 4.168932e+02 4.417296e+02 3.252101e+02 2.859283e+02 3.365311e+02 1.088691e+03 2.376392e+01 1.445477e+01 2.279907e+01 1.919338e+01 1.696449e+01 2.191202e+01 2.373044e+01 2.121022e+01 2.121179e+01 1.814770e+01 1.746808e+01 1.682298e+01 3.046942e+01 3.089357e+00 2.342960e+00 2.794510e+00 3.143314e+00 2.778189e+00 3.486178e+00 3.781612e+00 3.573201e+00 3.567984e+00 3.174897e+00 3.072779e+00 2.808144e+00 4.443545e+00
<GCONST> 2.049689e+02
<TRANSP> 5
 0.000000e+00 1.000000e+00 0.000000e+00 0.000000e+00 0.000000e+00
 0.000000e+00 7.408229e-01 2.591772e-01 0.000000e+00 0.000000e+00
 0.000000e+00 0.000000e+00 7.408214e-01 2.591786e-01 0.000000e+00
 0.000000e+00 0.000000e+00 0.000000e+00 8.678012e-01 1.321987e-01
 0.000000e+00 0.000000e+00 0.000000e+00 0.000000e+00 0.000000e+00
<ENDHMM>
~h "sil"
<BEGINHMM>
<NUMSTATES> 5
<STATE> 2
<MEAN> 39
 -1.741261e+01 1.426429e+00 1.020258e+00 3.996280e+00 -1.341450e+00 -1.364271e+00 -4.284832e-01 2.123878e+00 -1.680286e+00 8.501997e-01 -1.264054e+00 2.108273e+00 5.878198e+01 -3.607811e-01 2.431246e-01 -1.349152e-01 4.014290e-02 -7.564072e-04 3.330722e-02 -1.199535e-01 -9.548274e-02 4.179845e-02 2.799263e-02 1.139666e-01 4.653146e-03 -6.531343e-01 9.646568e-03 3.161081e-03 1.467784e-02 -1.504708e-02 -9.434064e-03 1.571815e-03 1.987921e-03 -8.956334e-03 2.433500e-03 1.481322e-02 -1.752793e-03 1.303687e-03 3.980622e-02
<VARIANCE> 39
 1.705676e+02 1.248080e+02 1.462443e+02 1.430324e+02 1.389480e+02 1.701219e+02 1.957442e+02 1.930045e+02 1.710475e+02 1.604716e+02 1.441889e+02 1.251078e+02 2.921713e+02 3.623500e+00 5.260362e+00 6.435131e+00 7.775592e+00 8.678757e+00 1.054283e+01 1.187660e+01 1.263741e+01 1.249877e+01 1.209845e+01 1.165322e+01 1.052497e+01 4.412638e+00 5.111005e-01 8.120967e-01 1.007339e+00 1.296471e+00 1.475691e+00 1.788333e+00 2.017043e+00 2.154499e+00 2.156439e+00 2.083262e+00 2.010100e+00 1.828338e+00 5.279446e-01
<GCONST> 1.695922e+02
<STATE> 3
<MEAN> 39
 -1.879529e+01 2.335278e+00 6.306763e-01 4.105238e+00 -1.379879e+00 -1.237262e+00 -8.765498e-01 1.695880e+00 -1.516112e+00 1.074250e+00 -8.460263e-01 2.097681e+00 5.661291e+01 -2.881809e-01 2.188774e-01 -3.864559e-02 -1.440399e-02 -2.142644e-02 2.841197e-02 -1.116538e-01 -1.256400e-01 2.854423e-02 8.289453e-02 1.050365e-01 1.807220e-02 -3.812256e-01 2.051331e-02 -1.198376e-02 2.104725e-02 -9.794632e-03 -3.163261e-03 -4.462723e-06 7.361659e-03 -3.288138e-03 -2.319281e-03 1.088612e-02 -6.693079e-03 1.597922e-03 6.886504e-02
<VARIANCE> 39
 1.415202e+02 1.118260e+02 1.177380e+02 1.238304e+02 1.257723e+02 1.521421e+02 1.757051e+02 1.744137e+02 1.558022e+02 1.467323e+02 1.334600e+02 1.153837e+02 2.274337e+02 3.719295e+00 5.082472e+00 5.943446e+00 7.186893e+00 8.175267e+00 9.841584e+00 1.113339e+01 1.187619e+01 1.173558e+01 1.137926e+01 1.092996e+01 9.856127e+00 5.425352e+00 5.839829e-01 8.684710e-01 1.052932e+00 1.344568e+00 1.573112e+00 1.879383e+00 2.133064e+00 2.273852e+00 2.277256e+00 2.217825e+00 2.141583e+00 1.938786e+00 7.133813e-01
<GCONST> 1.684979e+02
<STATE> 4
<MEAN> 39
 -1.860936e+01 2.519764e+00 1.520758e+00 3.024384e+00 -1.443882e+00 -9.856188e-01 -1.238147e+00 1.159882e+00 -1.544255e+00 2.068779e+00 -7.311887e-01 2.287661e+00 6.003519e+01 -4.187087e-02 7.352373e-02 1.411155e-01 -9.713968e-02 -8.817364e-03 1.543389e-02 -7.690646e-02 -8.215626e-02 -5.291643e-03 1.235363e-01 5.406011e-02 5.055285e-02 3.380539e-01 3.878937e-02 -2.234254e-02 2.289750e-02 -9.067789e-03 4.672319e-03 -1.079215e-03 7.429564e-03 8.966585e-03 -3.599280e-03 3.915731e-03 -1.145789e-02 3.261896e-03 1.018828e-01
<VARIANCE> 39
 1.929140e+02 1.348901e+02 1.499641e+02 1.730933e+02 1.442350e+02 1.648856e+02 1.840793e+02 1.763295e+02 1.685475e+02 1.563573e+02 1.402043e+02 1.213994e+02 4.861633e+02 6.930220e+00 6.741362e+00 7.666696e+00 9.044353e+00 9.518262e+00 1.111350e+01 1.236905e+01 1.285691e+01 1.269061e+01 1.224423e+01 1.172154e+01 1.041356e+01 1.348024e+01 1.057675e+00 1.144230e+00 1.286594e+00 1.588246e+00 1.737120e+00 2.028949e+00 2.252913e+00 2.358523e+00 2.324627e+00 2.257157e+00 2.169192e+00 1.937366e+00 1.751966e+00
<GCONST> 1.763355e+02
<TRANSP> 5
 0.000000e+00 1.000000e+00 0.000000e+00 0.000000e+00 0.000000e+00
 0.000000e+00 7.465886e-01 2.534114e-01 0.000000e+00 0.000000e+00
 0.000000e+00 0.000000e+00 7.465858e-01 2.534142e-01 0.000000e+00
 0.000000e+00 0.000000e+00 0.000000e+00 8.755382e-01 1.244617e-01
 0.000000e+00 0.000000e+00 0.000000e+00 0.000000e+00 0.000000e+00
<ENDHMM>
