~o
<STREAMINFO> 1 39
<VECSIZE> 39<NULLD><MFCC_D_A_0><DIAGC>
~v "varFloor1"
<VARIANCE> 39
 6.753474e+00 3.412362e+00 5.607597e+00 4.796462e+00 3.472081e+00 4.011722e+00 4.412065e+00 3.618229e+00 3.682593e+00 3.039560e+00 2.639483e+00 2.510356e+00 1.295583e+01 2.277723e-01 1.546074e-01 2.184501e-01 2.118108e-01 1.813343e-01 2.097883e-01 2.257618e-01 2.166374e-01 2.009357e-01 1.748309e-01 1.664689e-01 1.534765e-01 2.729284e-01 3.005151e-02 2.352162e-02 2.950290e-02 3.333734e-02 2.970534e-02 3.528604e-02 3.796648e-02 3.764385e-02 3.477007e-02 3.067227e-02 2.924742e-02 2.697526e-02 3.680371e-02
~s "silst"
<NUMMIXES> 4
<MIXTURE> 1 1.905315e-01
<MEAN> 39
 -2.210924e+01 6.678095e+00 1.513339e+00 6.436089e+00 1.047328e+00 1.737612e+00 7.030608e-01 2.971473e+00 1.101609e+00 2.781585e+00 1.294479e+00 2.663862e+00 4.998779e+01 1.360945e-01 4.851895e-01 6.887245e-01 7.434266e-01 7.973666e-01 8.609012e-01 7.939535e-01 6.784292e-01 7.686474e-01 8.941011e-01 8.028623e-01 5.504040e-01 3.024504e-02 1.747500e-01 -5.488475e-02 5.612347e-02 3.835212e-02 1.803860e-02 4.002137e-02 1.080434e-01 8.148313e-02 1.078784e-02 2.526726e-02 -5.435708e-02 1.403669e-02 2.517945e-01
<VARIANCE> 39
 3.921294e+01 4.131207e+01 4.892013e+01 6.173344e+01 7.659579e+01 9.635527e+01 1.100850e+02 1.162595e+02 1.122798e+02 1.063516e+02 1.054761e+02 9.193636e+01 1.837052e+01 1.773541e+00 2.241449e+00 3.508821e+00 4.804809e+00 5.993436e+00 7.348827e+00 8.944073e+00 9.615981e+00 9.862010e+00 9.827092e+00 9.754615e+00 8.913554e+00 9.255334e-01 3.862621e-01 5.166709e-01 7.666437e-01 1.018452e+00 1.268674e+00 1.590122e+00 1.852134e+00 2.022555e+00 2.033825e+00 2.049332e+00 2.027197e+00 1.834161e+00 2.772274e-01
<GCONST> 1.499497e+02
<MIXTURE> 2 3.136592e-01
<MEAN> 39
 -2.612128e+01 4.715667e+00 -1.365787e+00 1.660127e+00 -4.863041e+00 -4.996055e+00 -6.802464e+00 -3.333688e+00 -2.376992e+00 1.541602e+00 2.055486e+00 3.256783e+00 4.732589e+01 -7.515258e-02 4.508093e-02 9.082347e-02 5.257908e-02 4.610605e-02 4.906485e-02 1.523020e-02 4.679877e-02 1.571629e-01 2.731137e-01 3.126297e-01 2.862244e-01 -4.414888e-02 1.664946e-01 4.836947e-02 1.398368e-01 2.104211e-01 2.603122e-01 2.902147e-01 3.425867e-01 3.223152e-01 1.950999e-01 1.166523e-01 8.725449e-03 1.922578e-02 1.681346e-01
<VARIANCE> 39
 1.745815e+01 1.969940e+01 2.669959e+01 3.629303e+01 5.117724e+01 6.771249e+01 8.106242e+01 8.390486e+01 8.060094e+01 7.752602e+01 7.449202e+01 6.866070e+01 1.295583e+01 9.388320e-01 1.599144e+00 2.747714e+00 3.894241e+00 5.072200e+00 6.245324e+00 7.477580e+00 8.258880e+00 8.389878e+00 8.294019e+00 8.064577e+00 7.436332e+00 4.280579e-01 1.899112e-01 3.301174e-01 5.519726e-01 7.769353e-01 1.004017e+00 1.218981e+00 1.457961e+00 1.608416e+00 1.638962e+00 1.638564e+00 1.609752e+00 1.476074e+00 1.100427e-01
<GCONST> 1.361389e+02
<MIXTURE> 3 2.165368e-01
<MEAN> 39
 -2.707984e+01 3.975061e+00 -2.371165e+00 3.642271e-01 -6.340379e+00 -6.501026e+00 -8.418146e+00 -4.852435e+00 -3.710909e+00 4.106494e-01 1.083990e+00 2.397110e+00 4.665725e+01 -3.969615e-01 -3.689503e-01 -4.486329e-01 -6.178696e-01 -7.317675e-01 -7.801242e-01 -8.664496e-01 -8.385073e-01 -6.927441e-01 -6.025996e-01 -5.488219e-01 -4.225263e-01 -2.028504e-01 5.196143e-02 -5.713430e-02 8.008033e-03 3.971297e-02 6.549884e-02 6.207426e-02 9.261450e-02 9.367637e-02 1.049182e-02 -3.466551e-02 -1.005926e-01 -6.963074e-02 1.020238e-01
<VARIANCE> 39
 1.453715e+01 1.898766e+01 2.569427e+01 3.450685e+01 4.882876e+01 6.414446e+01 7.614809e+01 8.010236e+01 7.812045e+01 7.534446e+01 7.257220e+01 6.707230e+01 1.295583e+01 9.104726e-01 1.611984e+00 2.733090e+00 3.851155e+00 5.100275e+00 6.246665e+00 7.458879e+00 8.291654e+00 8.251149e+00 8.136518e+00 7.997165e+00 7.262136e+00 4.161209e-01 1.661149e-01 3.204359e-01 5.344585e-01 7.509953e-01 9.857553e-01 1.203265e+00 1.420269e+00 1.577416e+00 1.613089e+00 1.611805e+00 1.590727e+00 1.451865e+00 9.687116e-02
<GCONST> 1.348875e+02
<MIXTURE> 4 2.791503e-01
<MEAN> 39
 -2.454242e+01 4.542466e+00 -7.716207e-01 3.839063e+00 -1.382460e+00 -7.106133e-01 -2.045683e+00 5.949560e-01 -7.949215e-01 1.164110e+00 1.144338e-01 1.758399e+00 4.881911e+01 -3.801562e-01 -3.559572e-02 2.706936e-02 -9.167095e-02 -1.376636e-01 -1.706594e-01 -3.290564e-01 -3.937699e-01 -2.452834e-01 -3.998114e-02 -8.163607e-02 -1.564266e-01 -2.457279e-01 2.457588e-02 -2.183393e-01 -1.388280e-01 -2.012138e-01 -2.482145e-01 -2.711008e-01 -2.130260e-01 -1.961203e-01 -2.341733e-01 -1.716536e-01 -1.751310e-01 -8.379219e-02 1.908079e-01
<VARIANCE> 39
 3.809461e+01 3.854491e+01 4.661568e+01 5.746697e+01 7.380276e+01 9.485371e+01 1.113221e+02 1.148961e+02 1.133841e+02 1.067949e+02 1.037908e+02 9.241441e+01 1.828767e+01 1.703533e+00 2.271373e+00 3.456174e+00 4.690093e+00 5.958667e+00 7.365476e+00 8.861286e+00 9.703898e+00 9.800555e+00 9.824586e+00 9.717851e+00 8.735568e+00 9.434517e-01 3.738210e-01 5.488158e-01 7.913029e-01 1.039681e+00 1.295574e+00 1.580578e+00 1.873613e+00 2.050385e+00 2.083133e+00 2.091834e+00 2.073183e+00 1.848031e+00 3.060538e-01
<GCONST> 1.498887e+02
~h "f"
<BEGINHMM>
<NUMSTATES> 5
<STATE> 2
<NUMMIXES> 4
<MIXTURE> 1 2.563055e-01
<MEAN> 39
 -3.311389e+01 -1.387290e+01 -1.078109e+00 3.178022e+00 -2.528574e+00 -2.494000e-01 -6.566175e+00 9.907274e-01 -4.687829e+00 4.089656e+00 -3.314557e+00 2.791428e+00 8.999012e+01 5.378991e-02 -2.134459e-01 7.582539e-02 3.004120e-01 8.348563e-01 1.360784e+00 1.138426e+00 9.563410e-01 8.642540e-01 1.085866e+00 8.721489e-01 6.052283e-01 1.145772e+00 1.557666e+00 4.872099e-01 3.407571e-01 -7.676898e-02 3.630477e-01 2.690811e-01 4.909729e-01 1.972253e-01 2.644859e-01 2.820732e-01 1.312965e-01 9.498577e-02 7.661373e-01
<VARIANCE> 39
 1.164809e+02 1.048270e+02 7.127698e+01 7.169067e+01 8.441948e+01 1.005916e+02 1.130033e+02 1.139242e+02 1.193316e+02 1.117461e+02 1.079462e+02 9.891526e+01 3.415629e+02 8.968400e+00 6.624479e+00 6.096873e+00 7.066011e+00 7.968842e+00 9.570674e+00 1.019657e+01 1.090359e+01 1.087100e+01 1.084503e+01 1.058781e+01 9.582220e+00 2.055279e+01 3.442286e+00 1.687894e+00 1.465789e+00 1.919772e+00 1.828995e+00 2.083162e+00 2.329286e+00 2.321918e+00 2.393650e+00 2.423927e+00 2.368710e+00 2.005219e+00 3.403770e+00
<GCONST> 1.724099e+02
<MIXTURE> 2 2.184303e-01
<MEAN> 39
 -3.200331e+01 -1.408443e+01 1.402324e+00 5.529055e+00 -9.234720e-02 1.010213e+00 -4.932908e+00 2.666094e+00 -2.594187e+00 5.928249e+00 -2.408736e+00 3.673143e+00 9.431326e+01 -2.031299e+00 -2.058984e+00 -1.921692e+00 -1.441797e+00 -1.270794e+00 -9.983232e-01 -1.682061e+00 -1.001548e+00 -5.177170e-01 -2.031375e-01 -4.202590e-02 5.945699e-02 9.290604e-01 2.224706e+00 9.522972e-01 5.881177e-01 -2.128585e-01 2.368457e-01 2.855250e-01 5.709743e-01 -8.096159e-03 -1.820566e-01 9.308094e-02 -3.183597e-02 7.275993e-02 5.782994e-01
<VARIANCE> 39
 1.140483e+02 9.849094e+01 9.845562e+01 1.060656e+02 1.221018e+02 1.367495e+02 1.416240e+02 1.405985e+02 1.420047e+02 1.332360e+02 1.224813e+02 1.127151e+02 2.838844e+02 2.381518e+01 1.140677e+01 1.161960e+01 1.261440e+01 1.232065e+01 1.266255e+01 1.297758e+01 1.284881e+01 1.326447e+01 1.285420e+01 1.223065e+01 1.137487e+01 2.292600e+01 3.664320e+00 2.040509e+00 2.626600e+00 3.796290e+00 3.044458e+00 3.048857e+00 3.441805e+00 3.499238e+00 3.659600e+00 3.240478e+00 3.016651e+00 2.693240e+00 2.821594e+00
<GCONST> 1.835072e+02
<MIXTURE> 3 3.614104e-01
<MEAN> 39
 -3.507567e+01 -1.590484e+01 -2.914702e+00 1.605157e+00 -4.333699e+00 -1.841290e+00 -8.663726e+00 -1.058569e+00 -6.455121e+00 2.670493e+00 -4.350807e+00 1.924455e+00 8.730965e+01 -7.237465e-01 -7.373996e-01 -5.445033e-01 -4.290197e-01 -1.914025e-01 2.485731e-01 -2.065261e-01 -2.813521e-01 -4.732508e-01 -2.032570e-01 -3.101967e-01 -2.536798e-01 1.030823e+00 9.642226e-01 2.754232e-01 1.370895e-01 -6.583589e-02 1.571600e-01 3.832763e-02 2.211508e-01 2.882378e-02 9.441136e-02 3.329889e-02 -1.227123e-02 -2.293350e-02 5.927615e-01
<VARIANCE> 39
 1.028833e+02 9.744666e+01 6.645262e+01 6.802230e+01 7.910943e+01 9.412883e+01 1.085361e+02 1.104646e+02 1.153700e+02 1.073468e+02 1.065430e+02 9.580312e+01 3.130587e+02 7.390687e+00 6.319367e+00 5.547159e+00 6.545921e+00 7.556449e+00 8.979908e+00 9.794081e+00 1.025952e+01 1.036077e+01 1.034043e+01 1.014433e+01 9.313152e+00 1.722799e+01 2.514439e+00 1.512232e+00 1.274923e+00 1.536169e+00 1.700619e+00 1.953981e+00 2.204921e+00 2.188343e+00 2.243967e+00 2.260944e+00 2.187247e+00 1.909243e+00 3.108109e+00
<GCONST> 1.693174e+02
<MIXTURE> 4 1.638109e-01
<MEAN> 39
 -3.316784e+01 -1.556053e+01 2.026002e-01 4.233122e+00 -1.547084e+00 -7.162018e-01 -6.637793e+00 7.769927e-01 -4.385484e+00 4.286274e+00 -3.561173e+00 2.691597e+00 9.454807e+01 -3.771180e+00 -3.220786e+00 -3.043723e+00 -2.599483e+00 -2.875266e+00 -2.487588e+00 -3.374043e+00 -2.373965e+00 -1.981394e+00 -1.584200e+00 -1.313062e+00 -1.005279e+00 3.217073e-01 2.023515e+00 8.455969e-01 4.017254e-01 -3.346476e-01 4.315004e-02 1.316753e-02 3.250887e-01 -2.672060e-01 -3.752348e-01 -8.710845e-02 -1.719589e-01 3.926730e-02 3.320373e-01
<VARIANCE> 39
 9.777885e+01 9.279958e+01 9.730474e+01 1.069182e+02 1.193624e+02 1.373650e+02 1.425709e+02 1.424084e+02 1.409149e+02 1.309151e+02 1.236547e+02 1.139228e+02 2.599343e+02 2.453911e+01 1.222936e+01 1.297743e+01 1.335793e+01 1.318938e+01 1.320840e+01 1.335606e+01 1.330773e+01 1.399709e+01 1.301912e+01 1.245661e+01 1.187691e+01 1.979625e+01 3.775610e+00 2.040538e+00 2.720902e+00 3.876480e+00 2.993423e+00 3.208554e+00 3.451408e+00 3.713199e+00 3.598789e+00 3.234999e+00 3.052866e+00 2.893613e+00 2.468556e+00
<GCONST> 1.837348e+02
<STATE> 3
<NUMMIXES> 4
<MIXTURE> 1 2.285376e-01
<MEAN> 39
 -2.195749e+01 -1.389377e+01 -1.934636e-01 2.520918e+00 1.647151e+00 3.195845e+00 -3.447117e+00 2.184070e+00 -1.922172e+00 6.535524e+00 -2.216456e+00 4.071355e+00 1.028596e+02 1.550960e+01 4.196586e+00 1.509712e+00 -6.530986e+00 4.696335e-01 1.767360e+00 3.195369e+00 7.687567e-01 9.261757e-01 2.823777e+00 6.779189e-01 4.778826e-01 6.464229e+00 2.606946e+00 1.913203e-01 1.366393e-01 -3.323897e+00 -8.375283e-01 -1.469077e-01 2.348904e-01 4.144117e-02 -3.218462e-01 6.620051e-01 -6.106976e-02 -6.433685e-02 1.497072e+00
<VARIANCE> 39
 1.230598e+02 7.007906e+01 6.619238e+01 7.397600e+01 1.007803e+02 1.113357e+02 1.100256e+02 1.109301e+02 1.140879e+02 1.157147e+02 1.023237e+02 9.552026e+01 1.900207e+02 2.072992e+01 2.657318e+01 1.542519e+01 2.757078e+01 2.115945e+01 1.717232e+01 1.968924e+01 2.005025e+01 2.965610e+01 2.294354e+01 2.929425e+01 1.742303e+01 3.467450e+01 3.305869e+00 4.665140e+00 2.933022e+00 3.499378e+00 4.517159e+00 3.748692e+00 4.219278e+00 3.660015e+00 4.732889e+00 3.982393e+00 4.758875e+00 3.578374e+00 4.074116e+00
<GCONST> 1.902423e+02
<MIXTURE> 2 2.812131e-01
<MEAN> 39
 -3.066987e+01 -1.900373e+01 -4.802577e+00 -1.177104e+00 -4.184095e+00 -1.827988e+00 -9.079936e+00 -2.631504e+00 -8.071082e+00 2.593046e+00 -4.319713e+00 3.051245e+00 1.037125e+02 9.194018e+00 2.660266e+00 1.197004e+00 -1.374144e+00 6.914580e-01 1.245952e+00 1.805890e+00 9.555677e-01 1.081787e+00 1.077304e+00 4.767397e-01 2.299001e-01 4.727040e+00 4.416968e+00 1.951351e+00 1.095876e+00 -1.965235e+00 -5.670077e-01 6.096359e-01 8.882691e-01 8.264772e-01 2.528282e-01 8.025447e-01 2.697878e-01 -2.654955e-01 5.506216e-01
<VARIANCE> 39
 1.239601e+02 5.775614e+01 5.656419e+01 6.563519e+01 7.120757e+01 8.452471e+01 8.761596e+01 9.079694e+01 9.576000e+01 9.462847e+01 9.361681e+01 8.484628e+01 1.877665e+02 2.328561e+01 1.496099e+01 9.204124e+00 1.078613e+01 1.210155e+01 1.069068e+01 1.103119e+01 1.240479e+01 1.267140e+01 1.195764e+01 1.250829e+01 1.022963e+01 3.139631e+01 2.193924e+00 3.443071e+00 2.683534e+00 3.235859e+00 4.175829e+00 3.121863e+00 3.643827e+00 3.504236e+00 4.196998e+00 3.832913e+00 4.471211e+00 3.081885e+00 4.776264e+00
<GCONST> 1.795991e+02
<MIXTURE> 3 2.554573e-01
<MEAN> 39
 -2.305697e+01 -1.527507e+01 -2.144327e+00 7.192734e-01 -7.699752e-01 1.257510e+00 -5.367984e+00 -8.828235e-02 -4.701634e+00 4.618476e+00 -3.703234e+00 2.938813e+00 1.016783e+02 1.517503e+01 4.015866e+00 1.480635e+00 -6.812382e+00 -1.046494e+00 8.147550e-01 2.060016e+00 3.658294e-01 -3.935872e-01 1.415572e+00 2.898899e-01 -9.917300e-01 6.593939e+00 2.791379e+00 3.616822e-01 3.979826e-01 -3.221444e+00 -1.029113e+00 -1.273448e-01 1.456768e-01 1.533314e-01 -4.429243e-01 5.391555e-01 9.719208e-02 -4.490874e-01 1.564988e+00
<VARIANCE> 39
 1.272783e+02 7.184321e+01 6.603198e+01 7.781471e+01 9.718150e+01 1.132526e+02 1.124806e+02 1.116720e+02 1.109227e+02 1.124932e+02 1.048732e+02 9.688155e+01 2.001584e+02 2.160112e+01 2.657251e+01 1.784519e+01 2.466669e+01 2.367083e+01 1.775793e+01 1.886132e+01 2.142827e+01 2.789633e+01 2.363844e+01 2.998663e+01 1.672357e+01 3.580534e+01 3.128980e+00 4.574358e+00 3.248099e+00 3.566916e+00 4.869683e+00 3.918236e+00 4.468834e+00 3.988612e+00 4.990437e+00 4.194906e+00 5.136025e+00 3.860039e+00 4.200806e+00
<GCONST> 1.912177e+02
<MIXTURE> 4 2.347768e-01
<MEAN> 39
 -3.202997e+01 -2.006633e+01 -6.277243e+00 -2.453656e+00 -5.748790e+00 -3.163640e+00 -1.105604e+01 -4.752942e+00 -1.045678e+01 6.551389e-01 -5.836941e+00 1.764740e+00 1.010505e+02 7.833248e+00 1.659639e+00 4.415748e-01 -2.141021e+00 -5.272505e-01 4.256576e-03 4.787507e-01 -1.564088e-01 -2.946608e-01 -3.049080e-01 -5.832311e-01 -6.600718e-01 4.875174e+00 4.220973e+00 1.909805e+00 1.183711e+00 -1.656176e+00 -5.211328e-01 5.261244e-01 8.279006e-01 8.708973e-01 3.142264e-01 7.112036e-01 3.552004e-01 -3.522985e-01 5.803281e-01
<VARIANCE> 39
 1.275172e+02 6.171083e+01 5.759326e+01 6.895057e+01 7.390085e+01 8.556654e+01 9.165673e+01 9.479829e+01 1.003508e+02 9.720836e+01 9.484568e+01 8.218374e+01 1.913928e+02 2.554883e+01 1.589590e+01 1.003386e+01 1.017927e+01 1.221598e+01 1.097477e+01 1.117660e+01 1.319273e+01 1.254200e+01 1.175238e+01 1.232406e+01 1.022314e+01 3.131212e+01 2.233729e+00 2.940647e+00 2.569309e+00 3.206096e+00 4.034666e+00 2.939042e+00 3.271047e+00 3.388753e+00 4.003514e+00 3.577641e+00 4.006467e+00 2.915479e+00 4.497743e+00
<GCONST> 1.794487e+02
<STATE> 4
<NUMMIXES> 4
<MIXTURE> 1 2.475056e-01
<MEAN> 39
 1.272741e+01 -6.097957e-01 1.917067e+00 -1.059129e+01 -5.521588e-01 3.353683e+00 1.483645e+00 4.132806e-01 -9.398227e-01 8.707956e+00 -5.365400e+00 2.052702e+00 1.112587e+02 1.631401e+01 2.240296e+00 1.330243e+00 -1.117012e+01 -4.740049e-01 1.231625e+00 3.211471e+00 1.078589e+00 1.236670e+00 3.809561e+00 1.282123e-01 4.337521e-01 9.351783e+00 -2.385218e+00 -1.611169e+00 -2.450400e-01 -1.048905e+00 -3.200984e-01 1.260483e-02 -4.027277e-01 4.098650e-01 -2.140021e-01 1.902871e-01 1.657034e-01 1.872353e-01 1.183780e-01
<VARIANCE> 39
 2.166114e+02 1.606121e+02 8.602033e+01 2.293235e+02 1.269779e+02 1.287263e+02 1.252643e+02 1.317785e+02 1.865675e+02 1.444349e+02 1.480999e+02 1.108583e+02 2.371779e+02 1.313458e+01 5.066087e+01 2.983017e+01 3.267036e+01 4.477714e+01 2.779984e+01 3.394846e+01 3.237069e+01 5.071166e+01 3.424842e+01 4.438950e+01 3.002578e+01 3.130095e+01 3.483663e+00 2.309186e+00 1.685725e+00 3.494538e+00 2.709442e+00 2.745775e+00 2.643357e+00 2.518479e+00 3.004373e+00 2.905838e+00 2.696348e+00 2.646595e+00 3.899413e+00
<GCONST> 1.956773e+02
<MIXTURE> 2 2.551913e-01
<MEAN> 39
 2.602675e+01 -2.139534e+01 -3.137648e+00 -3.379105e+01 -2.411066e+00 5.985435e+00 6.808201e-01 2.701383e-01 -1.967212e+00 1.930195e+01 6.882006e+00 -2.130208e+00 1.398797e+02 6.310525e+00 -5.214582e+00 -1.690038e+00 -7.649318e+00 9.271942e-01 3.009206e+00 1.689916e+00 1.055830e+00 1.522606e+00 3.021921e+00 2.289465e+00 -6.838723e-01 9.441362e+00 -4.824548e+00 -3.693907e-01 -1.323585e-01 2.451257e+00 4.986399e-01 1.897765e-01 -3.408513e-01 3.417916e-01 2.564221e-01 -1.164625e+00 -9.886987e-01 2.395100e-01 -2.638962e+00
<VARIANCE> 39
 6.377191e+01 1.834586e+02 1.939065e+02 3.116799e+02 3.459856e+02 2.639660e+02 2.665162e+02 2.923310e+02 6.078264e+02 3.495445e+02 5.890667e+02 2.499164e+02 1.433618e+02 3.529171e+01 1.493824e+01 1.619452e+01 2.746636e+01 2.843515e+01 1.924746e+01 2.012021e+01 2.160062e+01 3.106518e+01 2.457257e+01 3.687179e+01 2.176964e+01 1.813220e+01 1.641654e+00 1.945459e+00 1.981960e+00 3.321582e+00 2.964592e+00 2.931965e+00 3.442360e+00 3.352659e+00 7.498374e+00 4.570632e+00 6.115261e+00 3.455105e+00 2.409136e+00
<GCONST> 1.999573e+02
<MIXTURE> 3 2.718702e-01
<MEAN> 39
 1.467939e+01 1.865839e+00 2.743484e+00 -1.206199e+01 -2.811279e+00 2.300222e+00 1.736751e+00 8.460250e-01 -2.674330e+00 7.879972e+00 -5.437670e+00 1.810588e+00 1.114042e+02 1.608613e+01 3.773582e+00 2.328614e+00 -1.138167e+01 -3.415330e+00 1.919009e-01 1.825383e+00 1.314556e+00 -8.475674e-01 2.038860e+00 -3.867177e-01 -1.432364e+00 8.101607e+00 -2.429343e+00 -1.624353e+00 -2.400690e-01 -1.020890e+00 -8.456927e-01 -2.720354e-01 -9.189177e-01 1.780646e-01 -5.606340e-01 -9.273016e-02 -1.861864e-02 -3.343634e-01 2.139492e-01
<VARIANCE> 39
 2.202320e+02 1.787457e+02 9.730257e+01 2.423693e+02 1.455775e+02 1.316608e+02 1.269854e+02 1.422418e+02 1.877679e+02 1.443993e+02 1.436053e+02 1.121499e+02 2.335598e+02 1.463822e+01 4.876139e+01 3.539444e+01 3.349178e+01 5.098377e+01 3.060945e+01 3.599732e+01 3.652842e+01 4.803716e+01 3.611110e+01 4.377768e+01 3.091156e+01 2.947603e+01 3.753788e+00 2.292405e+00 1.738576e+00 3.451114e+00 2.907757e+00 2.682432e+00 2.821743e+00 2.608285e+00 3.134007e+00 2.943817e+00 2.578479e+00 2.833770e+00 3.528818e+00
<GCONST> 1.970381e+02
<MIXTURE> 4 2.254108e-01
<MEAN> 39
 2.525372e+01 -2.090785e+01 -3.760724e+00 -3.305961e+01 -6.466270e+00 6.982267e+00 -2.559753e+00 -5.624580e-02 -6.458194e+00 2.043497e+01 1.247844e+01 -5.739855e+00 1.413163e+02 5.713024e+00 -5.213146e+00 -2.060047e+00 -7.679648e+00 -4.993379e-01 2.363305e+00 5.461748e-01 5.157300e-01 3.400797e-01 2.240251e+00 2.349836e+00 -2.619364e+00 9.267216e+00 -4.947332e+00 -4.904796e-01 -2.876602e-01 2.359291e+00 5.935050e-01 -2.020329e-01 -1.841141e-01 1.078640e-01 7.249797e-01 -1.406588e+00 -1.819068e+00 9.558949e-02 -2.664680e+00
<VARIANCE> 39
 6.637738e+01 1.768085e+02 1.988271e+02 3.393862e+02 3.338684e+02 2.624219e+02 2.786674e+02 3.248323e+02 5.884383e+02 4.018395e+02 6.139991e+02 2.525611e+02 1.353982e+02 3.268187e+01 1.336415e+01 1.618973e+01 2.606797e+01 2.540066e+01 1.872789e+01 1.948422e+01 2.198354e+01 3.002388e+01 2.345509e+01 4.022783e+01 2.059686e+01 1.438302e+01 1.409344e+00 1.882583e+00 2.068309e+00 3.242907e+00 3.070709e+00 2.863000e+00 3.719790e+00 3.426964e+00 6.941981e+00 5.186897e+00 6.263000e+00 3.072660e+00 2.053507e+00
<GCONST> 1.993452e+02
<TRANSP> 5
 0.000000e+00 1.000000e+00 0.000000e+00 0.000000e+00 0.000000e+00
 0.000000e+00 8.569582e-01 1.430418e-01 0.000000e+00 0.000000e+00
 0.000000e+00 0.000000e+00 6.189542e-01 3.810458e-01 0.000000e+00
 0.000000e+00 0.000000e+00 0.000000e+00 5.202366e-01 4.797634e-01
 0.000000e+00 0.000000e+00 0.000000e+00 0.000000e+00 0.000000e+00
<ENDHMM>
~h "k"
<BEGINHMM>
<NUMSTATES> 5
<STATE> 2
<NUMMIXES> 4
<MIXTURE> 1 2.206196e-01
<MEAN> 39
 4.209731e-01 3.229046e+00 3.954878e+01 3.118304e+01 -5.136055e+00 -2.514712e+01 9.236239e+00 6.366034e+00 -2.459807e+01 3.245227e+00 2.685903e+00 3.554780e+00 9.179186e+01 -4.401615e+00 7.280034e+00 -7.039340e+00 3.885549e+00 5.575849e+00 8.339102e+00 2.031084e-01 8.585142e-01 4.822187e+00 -1.998850e+00 1.273782e+00 -7.175190e-01 -1.733201e+01 -1.193980e+00 -1.912584e+00 -2.535788e+00 -3.733921e+00 -2.943163e-01 7.047082e-01 -2.461051e+00 -7.420815e-01 2.100750e+00 3.373666e-01 -6.243678e-01 4.969221e-01 1.641451e+00
<VARIANCE> 39
 1.101603e+02 2.146418e+02 2.553559e+02 2.098681e+02 4.015655e+02 4.180687e+02 4.756457e+02 7.309885e+02 4.953927e+02 3.539676e+02 2.510817e+02 2.165282e+02 2.965284e+02 1.274896e+01 2.612143e+01 2.581851e+01 3.303004e+01 2.904250e+01 3.517364e+01 6.656885e+01 7.330819e+01 5.928701e+01 3.739769e+01 2.709028e+01 2.801877e+01 3.101287e+01 2.393063e+00 4.854025e+00 3.998436e+00 3.395025e+00 5.003419e+00 7.370397e+00 6.126473e+00 9.096869e+00 7.245418e+00 5.452385e+00 4.949252e+00 4.675681e+00 6.696172e+00
<GCONST> 2.132550e+02
<MIXTURE> 2 2.781575e-01
<MEAN> 39
 -1.191212e+01 1.548078e+01 1.889041e+01 2.249090e+01 1.512015e+00 -6.749432e+00 -4.233061e+00 -5.799566e+00 -1.410577e+01 -5.924485e+00 -2.136379e+00 1.409808e+00 5.915444e+01 -5.515009e+00 -6.237550e-01 -1.013141e+01 -3.835268e+00 2.702059e+00 5.309036e+00 -3.654898e+00 1.041840e+00 5.122777e+00 -3.229564e-01 4.523753e-01 -6.309786e-02 -8.467917e+00 5.432877e-01 -3.834473e+00 1.585779e-01 -2.161403e+00 -1.338872e+00 -2.180036e+00 2.754895e-01 5.197523e-01 2.725000e-01 1.713596e+00 -3.034908e-02 7.687541e-01 6.867672e+00
<VARIANCE> 39
 8.403653e+01 1.322517e+02 1.412699e+02 1.603763e+02 1.852708e+02 2.093639e+02 2.463543e+02 2.614338e+02 1.995144e+02 1.858390e+02 1.544892e+02 1.193741e+02 8.070535e+01 9.009368e+00 3.532225e+01 2.097127e+01 2.599079e+01 2.831488e+01 3.681248e+01 4.225809e+01 6.094243e+01 4.123570e+01 3.031042e+01 2.120687e+01 1.862628e+01 5.222018e+01 3.018379e+00 5.440732e+00 4.168890e+00 5.060019e+00 5.053178e+00 6.059488e+00 8.458438e+00 8.524239e+00 7.976498e+00 4.977259e+00 4.409544e+00 3.940866e+00 7.655036e+00
<GCONST> 2.034452e+02
<MIXTURE> 3 2.438565e-01
<MEAN> 39
 -1.169415e+01 1.568759e+01 1.883068e+01 2.168736e+01 8.159683e-01 -7.831401e+00 -6.356020e+00 -8.465180e+00 -1.640274e+01 -7.960189e+00 -4.352603e+00 -2.383311e-01 5.929994e+01 -6.571732e+00 -1.676046e+00 -1.176407e+01 -4.909219e+00 1.960650e+00 3.397966e+00 -6.505298e+00 -3.049779e-02 2.778327e+00 -2.320631e+00 -7.906906e-01 -9.950075e-01 -8.991529e+00 3.081104e-01 -4.020948e+00 1.378506e-02 -2.372809e+00 -1.600724e+00 -2.242760e+00 5.512538e-01 3.775928e-01 5.710618e-01 1.768547e+00 2.189910e-02 9.183315e-01 7.050976e+00
<VARIANCE> 39
 7.720357e+01 1.306776e+02 1.219600e+02 1.352122e+02 1.799693e+02 2.111259e+02 2.459039e+02 2.562928e+02 2.249417e+02 1.934474e+02 1.568085e+02 1.173390e+02 7.855585e+01 7.673599e+00 3.759655e+01 1.829175e+01 2.583706e+01 2.662654e+01 3.636537e+01 3.960126e+01 6.452345e+01 4.130755e+01 2.945352e+01 2.062217e+01 1.772212e+01 5.387957e+01 2.912787e+00 5.065398e+00 3.722116e+00 4.281834e+00 4.914325e+00 6.291995e+00 8.007991e+00 9.230944e+00 8.523618e+00 5.127910e+00 4.127417e+00 4.042683e+00 7.678666e+00
<GCONST> 2.024295e+02
<MIXTURE> 4 2.573499e-01
<MEAN> 39
 -1.984268e+00 2.902143e+00 3.664008e+01 2.956611e+01 -5.100206e+00 -2.385190e+01 6.197659e+00 3.042216e+00 -2.307140e+01 1.507726e+00 8.962039e-01 3.823824e+00 8.832925e+01 -5.988624e+00 5.830534e+00 -9.137506e+00 1.812563e+00 4.166924e+00 6.152853e+00 -2.915080e+00 -1.638032e+00 2.490717e+00 -3.592385e+00 -5.066931e-01 -1.478248e+00 -1.778012e+01 -1.041767e+00 -2.131786e+00 -2.369692e+00 -3.916918e+00 -7.226201e-01 2.640882e-01 -2.294735e+00 -5.723599e-01 1.724102e+00 2.956158e-01 -4.238090e-01 3.215850e-01 2.197238e+00
<VARIANCE> 39
 1.231866e+02 2.275805e+02 2.412838e+02 2.058866e+02 4.197694e+02 4.430026e+02 4.878637e+02 6.728411e+02 4.239659e+02 3.034883e+02 2.419300e+02 1.967547e+02 2.592370e+02 1.082571e+01 2.855706e+01 2.504061e+01 3.471550e+01 2.976440e+01 3.478674e+01 6.949478e+01 8.475622e+01 6.294761e+01 3.885987e+01 2.486445e+01 2.767061e+01 2.975250e+01 2.623726e+00 4.992807e+00 3.899491e+00 3.469470e+00 5.266470e+00 7.260142e+00 6.262825e+00 8.433913e+00 6.344673e+00 5.118625e+00 4.987905e+00 4.445982e+00 7.353014e+00
<GCONST> 2.128767e+02
<STATE> 3
<NUMMIXES> 4
<MIXTURE> 1 2.417668e-01
<MEAN> 39
 -1.949514e+01 -1.624163e+00 -4.467582e+00 6.433236e+00 -3.292959e+00 -6.883485e+00 -9.623689e+00 -4.328278e+00 -5.694660e+00 1.866195e-01 -2.158493e-01 3.135315e+00 6.188867e+01 1.397880e-01 -4.043755e+00 -4.554706e+00 2.839066e-01 1.024984e+00 8.287778e-01 3.015957e-01 3.061136e+00 3.495248e+00 3.064003e+00 1.074933e+00 1.117803e+00 8.149473e+00 -2.262187e-01 2.167736e-01 1.478944e+00 1.374599e+00 -2.749858e-01 -9.163280e-01 6.520168e-01 4.380150e-01 -3.304359e-01 1.500524e-01 -1.607380e-01 3.046796e-01 3.379781e+00
<VARIANCE> 39
 1.342438e+02 2.403339e+02 2.178151e+02 9.346217e+01 9.852023e+01 1.250927e+02 1.307529e+02 1.205566e+02 1.141586e+02 1.106532e+02 8.703492e+01 7.378246e+01 4.977216e+02 2.047525e+01 2.475131e+01 1.986322e+01 1.876649e+01 1.739032e+01 2.037678e+01 1.891937e+01 1.769971e+01 1.812865e+01 1.751262e+01 1.468676e+01 1.067540e+01 8.163744e+01 8.097770e+00 7.003872e+00 5.619895e+00 2.985542e+00 3.915391e+00 4.085832e+00 4.584479e+00 4.329455e+00 3.452360e+00 3.504229e+00 2.370295e+00 2.187292e+00 1.274245e+01
<GCONST> 1.938393e+02
<MIXTURE> 2 2.504490e-01
<MEAN> 39
 -2.014097e+01 -5.649408e+00 -2.969096e+00 8.915334e+00 3.374166e+00 -4.543511e+00 -6.914623e+00 1.639827e+00 -2.651143e+00 4.080524e+00 -5.383170e-02 3.987090e+00 6.705560e+01 -8.575952e-01 -5.574124e+00 -6.282659e+00 -2.226921e+00 4.792697e-01 -1.667470e+00 -3.247152e+00 2.469858e-01 1.523878e+00 1.450937e+00 -1.066783e+00 4.667762e-01 9.782135e+00 -4.837212e-01 7.014246e-01 1.924202e+00 1.114443e+00 -6.576245e-01 -1.741388e+00 5.296066e-01 3.831849e-01 -6.688486e-01 -1.773620e-01 -2.548311e-01 2.128379e-01 3.648673e+00
<VARIANCE> 39
 1.361748e+02 3.169001e+02 1.942010e+02 1.642474e+02 1.750422e+02 1.946370e+02 2.093966e+02 1.772626e+02 1.503003e+02 1.334333e+02 1.280539e+02 9.706087e+01 5.715485e+02 3.061406e+01 3.139409e+01 2.707165e+01 2.479820e+01 2.276617e+01 2.784150e+01 1.967826e+01 2.047573e+01 2.124549e+01 1.787682e+01 1.431657e+01 1.206671e+01 7.862720e+01 7.651365e+00 8.143332e+00 5.284868e+00 4.057989e+00 5.164316e+00 5.934980e+00 5.571053e+00 5.363923e+00 4.742457e+00 3.942952e+00 2.978534e+00 2.676160e+00 1.363645e+01
<GCONST> 2.022791e+02
<MIXTURE> 3 2.872023e-01
<MEAN> 39
 -2.050208e+01 -2.199944e+00 -5.162025e+00 4.660902e+00 -3.997323e+00 -7.585759e+00 -1.057877e+01 -5.404161e+00 -5.987088e+00 -8.288372e-02 -7.844207e-01 2.360203e+00 6.110128e+01 -3.092589e-01 -4.256684e+00 -4.905841e+00 -5.339065e-01 3.130335e-01 -4.892940e-01 -1.360087e+00 1.403846e+00 1.774960e+00 1.411178e+00 -2.191587e-01 2.138089e-01 7.273901e+00 -2.542968e-01 1.029528e-01 1.225197e+00 1.184871e+00 -4.179709e-01 -1.020867e+00 4.190601e-01 2.530229e-01 -4.404037e-01 -3.943735e-02 -3.347206e-01 1.377884e-01 3.112101e+00
<VARIANCE> 39
 1.348667e+02 2.266134e+02 2.034430e+02 8.711464e+01 9.575531e+01 1.128218e+02 1.225685e+02 1.151152e+02 1.060385e+02 1.053342e+02 8.815659e+01 7.409218e+01 4.939316e+02 2.024645e+01 2.219680e+01 1.898278e+01 1.899043e+01 1.740132e+01 1.937197e+01 1.761703e+01 1.647514e+01 1.646494e+01 1.627418e+01 1.291207e+01 1.039366e+01 8.024705e+01 8.345628e+00 6.445149e+00 5.427853e+00 2.767488e+00 3.658546e+00 3.860376e+00 4.321138e+00 4.016730e+00 3.383164e+00 3.456442e+00 2.353524e+00 2.131720e+00 1.236948e+01
<GCONST> 1.920826e+02
<MIXTURE> 4 2.205619e-01
<MEAN> 39
 -2.040622e+01 -6.980174e+00 -2.243484e+00 8.382337e+00 3.182443e+00 -5.836884e+00 -7.659119e+00 1.197295e+00 -4.192554e+00 2.869321e+00 -1.043237e+00 3.356397e+00 6.870395e+01 -2.400376e+00 -6.520687e+00 -7.545649e+00 -3.798029e+00 -5.792841e-01 -3.015800e+00 -4.994301e+00 -1.449612e+00 2.284696e-01 -4.431871e-02 -2.325958e+00 -4.156517e-01 8.871550e+00 -5.056521e-01 6.195732e-01 1.894032e+00 8.132509e-01 -1.012048e+00 -2.030176e+00 4.192481e-01 2.197579e-01 -8.164899e-01 -2.275449e-01 -3.482318e-01 8.749986e-02 3.698117e+00
<VARIANCE> 39
 1.359614e+02 3.425418e+02 1.990875e+02 1.644617e+02 1.699182e+02 1.942892e+02 2.133214e+02 1.867540e+02 1.507551e+02 1.213081e+02 1.317613e+02 9.481728e+01 5.830575e+02 3.381040e+01 3.128435e+01 2.839894e+01 2.719424e+01 2.286702e+01 2.892923e+01 1.966842e+01 2.195007e+01 2.322120e+01 1.765970e+01 1.508744e+01 1.225509e+01 7.853599e+01 7.623795e+00 8.038745e+00 5.218129e+00 4.129638e+00 5.162235e+00 5.946120e+00 5.842533e+00 5.635371e+00 4.957280e+00 3.971015e+00 3.191291e+00 2.820017e+00 1.362986e+01
<GCONST> 2.031037e+02
<STATE> 4
<NUMMIXES> 4
<MIXTURE> 1 2.360914e-01
<MEAN> 39
 -2.248177e+01 -1.629713e+01 -1.555490e+01 1.595262e+01 -6.958871e+00 -1.836412e+01 -1.325878e+01 5.355188e+00 -2.100915e+00 6.718376e-01 -3.183847e+00 8.330435e+00 1.164704e+02 -9.342508e+00 3.316145e+00 3.079123e-01 1.808294e+00 -3.564463e+00 -1.975754e+00 2.218118e+00 3.908928e+00 7.973184e-01 -3.280558e-01 3.704328e-01 2.831615e+00 9.107491e+00 -1.852148e+00 3.557658e+00 2.420968e+00 -2.248412e-01 6.510353e-02 1.611323e+00 1.850724e+00 -2.092519e-01 -7.320403e-01 -2.365938e-01 4.411285e-01 -1.229603e-01 -4.904507e+00
<VARIANCE> 39
 3.166344e+02 1.773554e+02 2.143103e+02 1.626879e+02 2.776304e+02 2.254610e+02 1.939456e+02 1.802919e+02 1.704255e+02 1.517701e+02 1.565881e+02 1.165512e+02 1.127792e+02 2.356861e+01 2.764138e+01 1.665833e+01 1.702843e+01 2.248107e+01 2.304091e+01 1.985704e+01 1.563905e+01 1.882414e+01 1.462505e+01 1.316153e+01 1.214592e+01 5.190879e+01 6.495466e+00 4.405457e+00 4.468639e+00 3.875572e+00 4.077934e+00 4.247203e+00 4.009098e+00 4.185036e+00 4.380079e+00 3.592859e+00 3.129221e+00 2.508323e+00 3.507010e+00
<GCONST> 1.959828e+02
<MIXTURE> 2 2.525860e-01
<MEAN> 39
 -3.999914e+01 -1.100622e+01 -6.533249e+00 8.925011e+00 1.038279e+01 -2.320407e+01 -1.928119e+01 3.485600e+00 2.823474e+00 8.178857e+00 -8.259474e+00 2.284164e+00 1.137109e+02 -1.200520e+01 4.029450e+00 3.134571e+00 1.083061e-01 -6.887468e-01 -4.174547e+00 1.903631e+00 3.034229e+00 2.830967e+00 -1.369768e+00 -1.617772e+00 5.170795e-01 4.760553e+00 2.323260e-01 1.794845e+00 9.982554e-01 -3.272804e-01 -7.904814e-01 1.466156e+00 1.813423e+00 5.386612e-01 -8.864200e-01 -1.005759e+00 4.674399e-01 3.942192e-01 -3.680200e+00
<VARIANCE> 39
 3.354627e+02 1.055377e+02 1.917920e+02 2.053484e+02 2.709991e+02 3.129598e+02 1.972743e+02 2.087047e+02 1.731452e+02 1.531118e+02 1.464124e+02 1.086288e+02 1.645130e+02 1.690473e+01 1.335813e+01 1.456303e+01 1.641225e+01 2.061371e+01 2.067532e+01 1.659695e+01 1.701008e+01 1.648775e+01 1.466301e+01 1.275030e+01 1.237882e+01 2.872059e+01 7.894678e+00 2.518814e+00 3.672339e+00 2.884590e+00 3.170674e+00 4.924740e+00 2.996897e+00 3.794692e+00 3.779814e+00 3.188348e+00 2.789740e+00 2.176228e+00 3.424147e+00
<GCONST> 1.922237e+02
<MIXTURE> 3 3.037481e-01
<MEAN> 39
 -2.144950e+01 -1.689725e+01 -1.677041e+01 1.508136e+01 -6.451101e+00 -1.886797e+01 -1.593352e+01 3.277626e+00 -2.988221e+00 5.481642e-01 -4.151369e+00 7.809065e+00 1.137188e+02 -9.989734e+00 2.182765e+00 -1.161214e-01 1.015009e+00 -4.269857e+00 -3.114548e+00 8.736067e-01 2.812336e+00 -5.565057e-01 -1.389528e+00 -7.694920e-01 1.882746e+00 8.514812e+00 -2.269968e+00 3.342783e+00 2.089557e+00 -6.767167e-01 -3.149035e-01 1.306893e+00 1.621606e+00 -3.533841e-01 -7.895622e-01 -4.931353e-01 3.473621e-01 -2.451587e-01 -4.996698e+00
<VARIANCE> 39
 3.143790e+02 1.581754e+02 2.053634e+02 1.648912e+02 2.737446e+02 2.320964e+02 1.920466e+02 1.834097e+02 1.767842e+02 1.533674e+02 1.566863e+02 1.200664e+02 1.137778e+02 2.019243e+01 2.499942e+01 1.548958e+01 1.781535e+01 2.402085e+01 2.608414e+01 1.994652e+01 1.531867e+01 1.877944e+01 1.420629e+01 1.315155e+01 1.243617e+01 4.903865e+01 6.652270e+00 4.048279e+00 4.162974e+00 3.511292e+00 3.979027e+00 4.273377e+00 4.035345e+00 4.094538e+00 4.521298e+00 3.525854e+00 2.976522e+00 2.634707e+00 2.971181e+00
<GCONST> 1.953488e+02
<MIXTURE> 4 2.075659e-01
<MEAN> 39
 -4.013177e+01 -1.241149e+01 -7.257494e+00 8.505657e+00 1.072972e+01 -2.324275e+01 -2.099440e+01 7.875983e-01 2.900796e+00 8.721778e+00 -8.467862e+00 1.156064e+00 1.100878e+02 -1.227076e+01 2.903071e+00 2.574787e+00 -6.541889e-01 -1.627746e+00 -5.348728e+00 6.325146e-01 2.144772e+00 1.952343e+00 -2.232868e+00 -2.593209e+00 -3.935522e-01 3.943131e+00 1.247326e-01 1.560433e+00 5.372729e-01 -8.010346e-01 -1.264759e+00 1.183683e+00 1.520219e+00 3.402418e-01 -9.590407e-01 -1.261215e+00 2.317305e-01 3.203810e-01 -3.611126e+00
<VARIANCE> 39
 3.190546e+02 1.084820e+02 1.865690e+02 2.035771e+02 2.925587e+02 2.948925e+02 1.989546e+02 2.152685e+02 1.963279e+02 1.531786e+02 1.506874e+02 1.050900e+02 1.570079e+02 1.441962e+01 1.311616e+01 1.311543e+01 1.581732e+01 2.164494e+01 2.086756e+01 1.612483e+01 1.685076e+01 1.664897e+01 1.541011e+01 1.241410e+01 1.187351e+01 2.611122e+01 7.835277e+00 2.138096e+00 3.142240e+00 2.645036e+00 3.286517e+00 4.651522e+00 3.006829e+00 3.540205e+00 3.578314e+00 3.022355e+00 2.773599e+00 2.136392e+00 2.881633e+00
<GCONST> 1.910867e+02
<TRANSP> 5
 0.000000e+00 1.000000e+00 0.000000e+00 0.000000e+00 0.000000e+00
 0.000000e+00 6.905516e-01 3.094484e-01 0.000000e+00 0.000000e+00
 0.000000e+00 0.000000e+00 7.446749e-01 2.553251e-01 0.000000e+00
 0.000000e+00 0.000000e+00 0.000000e+00 5.678120e-01 4.321880e-01
 0.000000e+00 0.000000e+00 0.000000e+00 0.000000e+00 0.000000e+00
<ENDHMM>
~h "n"
<BEGINHMM>
<NUMSTATES> 5
<STATE> 2
<NUMMIXES> 4
<MIXTURE> 1 1.988637e-01
<MEAN> 39
 1.057142e+01 -1.608711e+00 3.612471e+01 -1.835915e+00 -1.840040e+00 1.906031e+00 1.924932e+01 2.510946e-01 -2.221884e+00 8.814833e+00 -2.038874e+00 1.229620e+01 1.112338e+02 3.850964e+00 4.913567e+00 9.688703e-01 6.316732e+00 -3.058355e-01 2.262133e+00 3.169982e+00 -5.998352e+00 4.086156e-01 7.862446e-01 -1.341314e+00 2.288629e+00 -3.197625e+00 1.303546e-01 -3.937281e-01 -8.318231e-01 4.748232e-01 5.949032e-02 5.970716e-02 -2.385433e-01 -8.258039e-02 3.645512e-01 -2.093272e-01 9.687293e-02 8.878337e-02 3.454660e-01
<VARIANCE> 39
 1.930233e+02 3.382914e+02 3.114867e+02 6.954231e+02 2.682722e+02 3.724159e+02 4.580267e+02 5.584284e+02 4.017477e+02 3.393014e+02 2.911433e+02 2.790544e+02 6.567261e+02 2.459702e+01 1.625817e+01 4.140070e+01 4.330191e+01 2.716581e+01 3.394791e+01 4.206074e+01 4.562117e+01 3.813412e+01 3.377060e+01 2.949511e+01 2.885621e+01 3.909320e+01 1.994344e+00 2.611026e+00 3.939641e+00 8.395056e+00 3.940523e+00 4.944243e+00 5.359199e+00 7.010516e+00 4.708578e+00 4.581035e+00 3.753863e+00 4.046893e+00 2.564569e+00
<GCONST> 2.125497e+02
<MIXTURE> 2 3.112384e-01
<MEAN> 39
 1.932879e+01 -1.855719e+00 3.542275e+01 1.219370e+01 -5.930952e+00 4.650469e+00 1.526262e+01 -2.778781e+00 -7.710248e+00 1.324204e+01 -7.354682e+00 7.806987e+00 1.136347e+02 2.583125e-02 3.177398e+00 -4.141810e-01 2.931837e+00 1.017437e+00 1.395935e+00 2.296071e+00 -1.646408e+00 2.638294e-01 8.610690e-01 -1.301425e+00 -1.713446e-01 -3.469151e+00 -7.390192e-01 -4.096843e-01 -6.114132e-01 -6.587907e-01 7.042960e-01 -2.478190e-01 -6.673029e-01 1.205740e+00 5.114027e-01 -4.524325e-01 4.348300e-01 -1.467350e-02 2.718807e-01
<VARIANCE> 39
 7.343472e+01 2.480733e+02 2.085142e+02 5.140178e+02 3.199601e+02 4.228922e+02 5.862300e+02 5.518177e+02 5.950098e+02 4.841162e+02 4.713309e+02 4.569278e+02 2.467667e+02 4.651430e+00 1.056855e+01 1.334356e+01 2.183082e+01 1.608948e+01 2.013782e+01 2.768571e+01 2.919711e+01 2.562036e+01 2.181758e+01 1.952700e+01 1.797320e+01 6.200415e+00 1.825002e+00 2.210194e+00 3.718473e+00 7.314414e+00 4.013301e+00 5.125041e+00 7.298188e+00 7.153705e+00 5.767324e+00 4.989728e+00 4.933942e+00 4.613245e+00 1.635691e+00
<GCONST> 2.026414e+02
<MIXTURE> 3 2.809830e-01
<MEAN> 39
 1.758532e+01 -3.297386e+00 3.494316e+01 1.357689e+01 -6.950273e+00 3.261266e+00 1.202209e+01 -3.258946e+00 -1.153557e+01 1.212109e+01 -1.121673e+01 4.015124e+00 1.126288e+02 -5.293016e-01 2.853651e+00 -8.938013e-01 2.422934e+00 9.208885e-01 7.662953e-01 1.849425e+00 -1.346655e+00 -1.572678e-01 2.000638e-01 -1.889671e+00 -1.093376e+00 -3.650335e+00 -8.962180e-01 -5.297543e-01 -8.760497e-01 -8.172857e-01 5.737600e-01 -4.319128e-01 -9.091174e-01 1.253953e+00 6.061413e-01 -5.902985e-01 5.008463e-01 -8.146676e-02 1.585100e-01
<VARIANCE> 39
 7.566634e+01 2.401030e+02 1.996479e+02 4.880071e+02 3.235645e+02 4.065020e+02 5.363735e+02 5.470801e+02 5.702268e+02 5.425209e+02 5.340195e+02 4.624763e+02 2.821187e+02 5.748144e+00 1.141198e+01 1.312892e+01 1.997255e+01 1.567252e+01 1.947438e+01 2.627708e+01 2.689675e+01 2.563389e+01 2.296810e+01 2.007731e+01 1.919549e+01 6.798495e+00 2.166957e+00 2.377335e+00 3.725917e+00 6.996202e+00 4.104546e+00 5.137862e+00 7.416649e+00 7.203243e+00 6.061934e+00 5.013163e+00 5.434066e+00 5.040934e+00 1.856090e+00
<GCONST> 2.036028e+02
<MIXTURE> 4 2.088935e-01
<MEAN> 39
 1.050459e+01 -4.824452e+00 3.566495e+01 -2.069985e+00 -3.918306e+00 -9.174064e-01 1.445975e+01 1.088776e+00 -6.152559e+00 7.914646e+00 -5.196755e+00 8.296931e+00 1.144192e+02 2.695029e+00 3.929096e+00 2.140511e-01 5.335029e+00 -5.332010e-01 1.624361e+00 2.716828e+00 -5.453288e+00 -7.474384e-01 7.743499e-01 -2.652609e+00 6.565644e-01 -3.686219e+00 -6.340206e-03 -4.276657e-01 -9.728817e-01 5.394078e-01 1.610935e-02 7.123798e-02 -3.706801e-01 -5.006221e-02 3.478101e-01 -3.411738e-01 -1.268852e-01 -2.104967e-01 8.638328e-02
<VARIANCE> 39
 1.763836e+02 3.517592e+02 3.299063e+02 7.102443e+02 2.831390e+02 3.648562e+02 4.919183e+02 5.911843e+02 4.346070e+02 3.474424e+02 3.163517e+02 2.874073e+02 6.183063e+02 2.137973e+01 1.692859e+01 3.552753e+01 4.554726e+01 2.618374e+01 3.223381e+01 4.140779e+01 4.496194e+01 3.628837e+01 3.205248e+01 2.654916e+01 2.758501e+01 3.034653e+01 2.091021e+00 2.607084e+00 3.883891e+00 8.219937e+00 3.765656e+00 4.921426e+00 5.714948e+00 7.013425e+00 4.654815e+00 4.221018e+00 3.604699e+00 3.827590e+00 2.372254e+00
<GCONST> 2.118247e+02
<STATE> 3
<NUMMIXES> 4
<MIXTURE> 1 2.842045e-01
<MEAN> 39
 2.253918e+01 9.000582e+00 3.507584e+01 1.756109e+01 -8.204449e+00 1.267249e+01 2.176339e+01 -1.626707e+01 2.556130e+00 6.551237e+00 -5.281951e+00 1.703141e+01 1.040127e+02 -7.705674e-01 -1.037685e+00 1.874376e-01 -5.027777e-01 1.428085e+00 -7.466758e-01 -6.428258e-01 2.838125e+00 6.472952e-01 -4.554740e-01 7.773027e-01 5.184240e-01 1.098634e+00 -1.220335e+00 -1.233408e+00 -7.939659e-01 -1.418171e+00 1.131168e+00 -1.053580e+00 -1.138306e+00 2.432174e+00 -9.441537e-02 1.046723e-01 3.070458e-01 -6.834860e-01 7.027544e-01
<VARIANCE> 39
 5.280299e+01 2.179340e+02 1.516884e+02 2.272222e+02 2.392281e+02 4.153376e+02 4.771545e+02 4.324562e+02 5.080930e+02 4.296174e+02 4.858727e+02 4.662263e+02 1.624275e+02 8.054157e+00 1.402913e+01 9.899967e+00 1.838164e+01 1.730501e+01 2.746225e+01 2.571391e+01 3.170369e+01 1.936515e+01 1.638594e+01 1.632167e+01 1.846785e+01 1.933780e+01 1.925162e+00 2.160544e+00 2.807956e+00 3.713539e+00 3.357826e+00 4.449830e+00 5.857119e+00 5.693019e+00 5.185208e+00 3.676705e+00 4.443395e+00 4.153036e+00 1.870754e+00
<GCONST> 1.986332e+02
<MIXTURE> 2 2.353369e-01
<MEAN> 39
 1.595254e+01 1.271646e+01 3.372421e+01 2.494876e+01 2.661085e+00 7.387262e+00 2.058327e+01 -4.055324e+00 -3.342635e+00 7.745878e+00 -1.135576e+01 7.877954e+00 9.706635e+01 -3.161479e+00 -8.114741e-01 -1.889483e+00 -1.437851e+00 3.436629e+00 -1.357222e-01 -1.968580e+00 4.711339e+00 1.318641e+00 7.596141e-02 1.447155e+00 -1.152474e+00 6.771822e-01 -1.839917e+00 -1.810687e+00 -1.632976e+00 -1.953717e+00 -2.790168e-01 -5.310995e-01 -1.361200e+00 9.186019e-01 4.035797e-01 -3.222243e-02 8.627626e-01 5.819683e-02 9.132767e-01
<VARIANCE> 39
 9.137672e+01 1.980692e+02 1.376990e+02 2.222893e+02 2.761965e+02 3.668867e+02 3.734903e+02 3.826580e+02 4.750689e+02 4.612535e+02 4.223583e+02 4.567747e+02 2.402311e+02 4.194736e+01 3.092914e+01 3.034512e+01 3.828946e+01 3.164752e+01 4.184069e+01 4.810172e+01 4.855042e+01 4.401374e+01 3.740633e+01 3.495892e+01 3.832865e+01 4.766033e+01 3.851604e+00 2.699364e+00 2.823591e+00 3.324101e+00 4.429616e+00 4.682493e+00 4.826693e+00 5.719690e+00 5.393426e+00 4.368928e+00 4.343932e+00 4.595294e+00 2.123394e+00
<GCONST> 2.106338e+02
<MIXTURE> 3 2.787002e-01
<MEAN> 39
 2.051065e+01 5.950012e+00 3.461983e+01 1.744720e+01 -9.439913e+00 1.003126e+01 1.907580e+01 -1.673372e+01 -1.325174e+00 6.180336e+00 -9.217389e+00 1.438504e+01 1.042132e+02 -1.401944e+00 -2.246162e+00 -6.449195e-01 -1.750007e+00 1.461857e+00 -2.173551e+00 -1.944327e+00 3.628610e+00 8.964679e-02 -1.016688e+00 -1.019910e-01 -5.797346e-01 1.818056e+00 -1.469505e+00 -1.474586e+00 -1.306433e+00 -1.807388e+00 9.991276e-01 -1.214878e+00 -1.525629e+00 2.517499e+00 2.079809e-02 -7.555816e-02 3.004899e-01 -8.985118e-01 6.359855e-01
<VARIANCE> 39
 6.258247e+01 2.109881e+02 1.518954e+02 2.593453e+02 2.318184e+02 4.089432e+02 4.591250e+02 4.360927e+02 5.023280e+02 4.402766e+02 4.961084e+02 4.749767e+02 1.957201e+02 1.143772e+01 1.605101e+01 1.248439e+01 2.212550e+01 2.057887e+01 3.297752e+01 3.032780e+01 3.796786e+01 2.300186e+01 1.863904e+01 1.878559e+01 2.156392e+01 2.744253e+01 2.446724e+00 2.305698e+00 3.090886e+00 3.880867e+00 3.793387e+00 4.935932e+00 6.034462e+00 6.669559e+00 5.949358e+00 3.902038e+00 4.755505e+00 4.872380e+00 2.374668e+00
<GCONST> 2.031388e+02
<MIXTURE> 4 2.017354e-01
<MEAN> 39
 1.292134e+01 1.360116e+01 3.273503e+01 2.396157e+01 3.145890e+00 8.682865e+00 1.843473e+01 -5.768034e+00 -4.048152e+00 6.762465e+00 -1.235163e+01 6.781903e+00 9.463603e+01 -5.984967e+00 -2.003305e+00 -4.323052e+00 -2.143827e+00 2.540665e+00 -9.284614e-01 -3.303418e+00 4.491044e+00 -1.835385e-01 -7.253945e-01 7.839528e-01 -2.846712e+00 -8.800946e-01 -2.014899e+00 -2.070343e+00 -1.981179e+00 -2.290849e+00 -1.003652e+00 -1.113203e+00 -1.613231e+00 4.324720e-01 1.458726e-01 -3.022718e-01 7.046859e-01 6.589353e-02 8.916763e-01
<VARIANCE> 39
 9.623234e+01 1.915124e+02 1.296539e+02 2.176646e+02 2.531741e+02 3.376463e+02 3.321436e+02 3.824317e+02 4.032874e+02 4.374260e+02 3.957510e+02 3.892000e+02 2.215946e+02 4.204652e+01 2.796767e+01 2.953904e+01 3.364563e+01 3.035033e+01 3.904602e+01 4.435980e+01 4.512756e+01 4.679963e+01 4.061996e+01 4.313179e+01 4.286168e+01 4.698703e+01 3.499534e+00 2.704665e+00 2.766783e+00 3.129760e+00 4.918835e+00 4.863098e+00 4.853377e+00 6.521052e+00 5.349253e+00 4.704220e+00 4.552824e+00 4.917175e+00 2.665307e+00
<GCONST> 2.102042e+02
<STATE> 4
<NUMMIXES> 4
<MIXTURE> 1 2.026438e-01
<MEAN> 39
 1.321535e+01 -1.669110e+01 2.540339e+01 -6.328197e+00 5.444246e+00 -8.311258e+00 -3.444943e-01 1.821836e+01 2.167788e+00 7.708367e+00 -5.275853e+00 9.479896e+00 1.257895e+02 -9.259420e-01 -5.099798e+00 -4.794151e+00 -5.712858e+00 2.332584e+00 -4.574300e-01 -3.643401e+00 5.937950e+00 2.129492e+00 -2.667414e-01 1.576364e+00 -9.676296e-01 4.516992e+00 3.163637e-01 8.478048e-01 -3.396009e-01 1.462730e+00 -3.520222e-01 1.593536e+00 1.048634e+00 -1.744082e+00 1.152265e-01 -3.290531e-02 1.836608e-01 -1.986160e-01 -1.130896e+00
<VARIANCE> 39
 1.316784e+02 2.344993e+02 2.647053e+02 3.517058e+02 2.840343e+02 3.650646e+02 6.863260e+02 4.335710e+02 3.517051e+02 4.297634e+02 3.320403e+02 3.413126e+02 4.399412e+02 6.466918e+00 2.339850e+01 1.883450e+01 3.636413e+01 2.929287e+01 3.377644e+01 4.401127e+01 4.551884e+01 4.318180e+01 2.752315e+01 2.965208e+01 2.649199e+01 2.227755e+01 9.391615e-01 2.245512e+00 2.990484e+00 4.731113e+00 3.773922e+00 5.778706e+00 7.511349e+00 6.761636e+00 4.889076e+00 4.021101e+00 3.906862e+00 3.542435e+00 1.884975e+00
<GCONST> 2.068042e+02
<MIXTURE> 2 3.291167e-01
<MEAN> 39
 -4.064189e+00 3.474054e+00 1.773501e+01 2.207188e+01 7.364709e+00 7.668620e+00 1.732364e+01 1.052184e+01 2.328928e+00 3.706051e+00 -7.385286e+00 3.418485e+00 7.976888e+01 -4.363647e+00 -1.226371e+00 -3.728814e+00 -2.191517e+00 -3.587106e-01 -9.801257e-01 -2.085431e+00 1.232536e+00 6.984132e-01 -3.538821e-01 1.226874e+00 -4.214891e-01 -2.219018e+00 3.451523e-01 -5.199790e-02 1.730402e-01 -5.962936e-01 -6.079661e-01 -5.165724e-01 -4.478521e-01 -7.859776e-01 -3.604183e-01 1.590153e-01 5.634904e-03 3.610438e-01 7.393039e-01
<VARIANCE> 39
 1.201377e+02 1.494183e+02 1.864361e+02 2.362344e+02 2.192256e+02 2.490800e+02 3.145511e+02 3.253193e+02 3.113617e+02 3.202857e+02 2.420801e+02 2.256321e+02 2.581426e+02 2.313732e+01 1.507211e+01 1.626323e+01 1.788465e+01 1.779053e+01 2.061969e+01 2.181353e+01 2.493381e+01 2.432423e+01 2.052483e+01 2.200509e+01 1.903365e+01 1.172908e+01 1.775083e+00 2.611443e+00 2.543924e+00 3.133190e+00 3.438082e+00 3.613570e+00 3.854717e+00 4.156254e+00 4.055629e+00 3.541717e+00 3.461183e+00 3.257582e+00 2.001467e+00
<GCONST> 1.957089e+02
<MIXTURE> 3 2.557357e-01
<MEAN> 39
 -8.287586e+00 2.543984e+00 1.562475e+01 1.844829e+01 5.392062e+00 8.056858e+00 1.496907e+01 8.951118e+00 3.298168e-01 2.342752e+00 -6.813076e+00 2.737628e+00 7.970303e+01 -6.648460e+00 -3.171012e+00 -6.094150e+00 -4.108160e+00 -2.259714e+00 -3.035257e+00 -4.380583e+00 -2.172359e-01 -1.100853e+00 -1.442621e+00 2.703296e-01 -1.642470e+00 -2.525258e+00 4.904414e-01 -1.325365e-01 5.755216e-02 -7.670957e-01 -1.083571e+00 -8.258604e-01 -7.652098e-01 -1.330322e+00 -4.607236e-01 -1.739848e-01 -1.661635e-01 5.003567e-01 8.732934e-01
<VARIANCE> 39
 1.117290e+02 1.529235e+02 1.789110e+02 2.120593e+02 2.098462e+02 2.335683e+02 2.878411e+02 3.152341e+02 2.779520e+02 3.028872e+02 2.293140e+02 2.016549e+02 2.708574e+02 2.751634e+01 1.540071e+01 1.777332e+01 1.680606e+01 1.758416e+01 2.092947e+01 2.418904e+01 2.676961e+01 2.553395e+01 2.211101e+01 2.530270e+01 2.175041e+01 1.508562e+01 1.904269e+00 2.932985e+00 2.629578e+00 3.218307e+00 3.955862e+00 3.906428e+00 4.219546e+00 4.467959e+00 4.359121e+00 4.184536e+00 4.120998e+00 3.965132e+00 2.795485e+00
<GCONST> 1.976125e+02
<MIXTURE> 4 2.124700e-01
<MEAN> 39
 8.729994e+00 -1.676156e+01 2.350204e+01 -5.064179e+00 2.200269e+00 -1.135234e+01 -3.286745e+00 1.644236e+01 1.068132e-01 4.938120e+00 -7.226073e+00 7.324301e+00 1.195480e+02 -1.820586e+00 -4.866194e+00 -5.305495e+00 -6.026019e+00 1.250256e+00 -1.997536e+00 -4.177307e+00 5.919775e+00 2.053922e+00 -1.197048e+00 8.045290e-01 -1.900597e+00 3.519100e+00 1.768722e-01 8.551327e-01 -5.493339e-01 1.403872e+00 -3.703321e-01 1.741913e+00 1.109702e+00 -1.703675e+00 8.667833e-02 -1.218137e-01 2.239177e-02 -5.017829e-01 -1.203233e+00
<VARIANCE> 39
 1.654090e+02 1.901148e+02 2.910096e+02 3.303887e+02 2.839911e+02 3.495527e+02 6.039270e+02 4.012796e+02 3.600486e+02 4.762580e+02 3.317573e+02 3.303751e+02 6.065429e+02 8.054134e+00 2.359394e+01 1.922149e+01 3.531039e+01 3.177753e+01 3.807019e+01 4.248816e+01 5.251798e+01 4.693704e+01 2.931645e+01 2.965945e+01 3.124288e+01 3.478563e+01 1.170721e+00 2.257608e+00 3.379028e+00 4.429937e+00 3.920796e+00 5.869001e+00 7.273897e+00 6.558035e+00 5.049938e+00 4.290855e+00 4.136834e+00 3.759860e+00 2.077057e+00
<GCONST> 2.088889e+02
<TRANSP> 5
 0.000000e+00 1.000000e+00 0.000000e+00 0.000000e+00 0.000000e+00
 0.000000e+00 6.347780e-01 3.652220e-01 0.000000e+00 0.000000e+00
 0.000000e+00 0.000000e+00 6.155484e-01 3.844516e-01 0.000000e+00
 0.000000e+00 0.000000e+00 0.000000e+00 6.538206e-01 3.461794e-01
 0.000000e+00 0.000000e+00 0.000000e+00 0.000000e+00 0.000000e+00
<ENDHMM>
~h "r"
<BEGINHMM>
<NUMSTATES> 5
<STATE> 2
<NUMMIXES> 4
<MIXTURE> 1 3.023342e-01
<MEAN> 39
 3.700832e+01 -1.869681e+01 -5.697474e+00 3.489302e+00 2.538288e+01 -2.970616e+01 -2.812632e+01 5.425452e+00 -6.071452e+00 7.287819e+00 2.228597e+00 9.578805e+00 1.278952e+02 9.672794e-01 3.668474e-02 -3.104328e+00 -1.111146e+00 1.056906e+00 3.998909e-01 -5.164136e-01 2.029095e-01 1.164476e+00 1.132299e+00 7.781128e-01 5.604259e-01 -2.672138e-01 -7.060810e-01 -1.278090e-01 1.441246e+00 -2.080668e-01 -1.356877e+00 4.348919e-02 1.244927e+00 3.363910e-01 -5.325533e-01 -3.523628e-02 2.428007e-01 4.295875e-02 2.760626e-01
<VARIANCE> 39
 6.054497e+01 1.728537e+02 4.527866e+02 2.677306e+02 3.730695e+02 7.831929e+02 1.086506e+03 3.827044e+02 3.191718e+02 3.378158e+02 2.436552e+02 1.848258e+02 1.690689e+02 3.476153e+00 4.700597e+00 1.554300e+01 1.041818e+01 1.557768e+01 1.515018e+01 1.521275e+01 1.525349e+01 1.407962e+01 1.104313e+01 1.128786e+01 1.044401e+01 3.240934e+00 3.060933e-01 6.771063e-01 8.900239e-01 1.197123e+00 1.357809e+00 2.699651e+00 1.847615e+00 2.282839e+00 1.859531e+00 1.737138e+00 1.731614e+00 1.552225e+00 3.679402e-01
<GCONST> 1.777684e+02
<MIXTURE> 2 1.952072e-01
<MEAN> 39
 3.831695e+01 -1.385847e+01 -9.174554e+00 1.477769e+00 2.706440e+01 -1.106000e+01 -3.197103e+01 -1.806581e+00 -9.727925e+00 4.934731e+00 2.893117e+00 7.276365e+00 1.247051e+02 3.275519e-01 -1.625899e+00 -3.717620e-01 1.712885e+00 1.674584e+00 -3.099735e+00 -2.075624e+00 1.569737e+00 2.250482e+00 7.454167e-01 -2.712560e-01 -3.472030e-02 5.123839e-01 -1.636023e+00 6.834969e-03 2.339743e+00 4.249219e-01 -2.236578e+00 -6.619427e-01 1.956118e+00 1.215829e+00 -7.422358e-02 -4.237474e-01 -3.004941e-01 1.802887e-01 6.393127e-02
<VARIANCE> 39
 6.846298e+01 1.838708e+02 4.717288e+02 4.037234e+02 4.285412e+02 7.817330e+02 8.623862e+02 4.392870e+02 3.314282e+02 4.524910e+02 2.872630e+02 2.524677e+02 1.629145e+02 7.770676e+00 1.181279e+01 2.917288e+01 2.418668e+01 2.223350e+01 4.336192e+01 2.759374e+01 3.333262e+01 2.553997e+01 2.321439e+01 1.821735e+01 1.808663e+01 1.035791e+01 1.997684e+00 1.998860e+00 2.888463e+00 3.100427e+00 4.132915e+00 6.043335e+00 5.821898e+00 4.464170e+00 4.398198e+00 4.299020e+00 3.641536e+00 3.499038e+00 1.225540e+00
<GCONST> 2.020793e+02
<MIXTURE> 3 3.102337e-01
<MEAN> 39
 3.548130e+01 -2.008829e+01 -3.088468e+00 3.227074e+00 2.402809e+01 -2.783690e+01 -3.067973e+01 4.975735e+00 -7.953504e+00 5.157226e+00 1.719386e+00 7.266767e+00 1.280015e+02 1.009531e+00 -4.717433e-02 -3.172257e+00 -1.265367e+00 1.220533e+00 2.812338e-01 -1.005835e+00 -1.507038e-01 9.298819e-01 1.019434e+00 4.387041e-01 1.411185e-01 -2.463402e-01 -6.902637e-01 -1.284442e-01 1.367115e+00 -2.417222e-01 -1.384265e+00 5.457154e-02 1.058466e+00 3.235211e-01 -5.100888e-01 -3.257751e-02 1.285708e-01 -6.947446e-02 2.675276e-01
<VARIANCE> 39
 6.363176e+01 1.789227e+02 4.964804e+02 2.997111e+02 3.728696e+02 8.363168e+02 1.097444e+03 3.952060e+02 3.144227e+02 3.693663e+02 2.534935e+02 1.895486e+02 1.643492e+02 3.613244e+00 4.705283e+00 1.563423e+01 1.009642e+01 1.544033e+01 1.514219e+01 1.526051e+01 1.576394e+01 1.379718e+01 1.123452e+01 1.108104e+01 1.028666e+01 3.163250e+00 3.216046e-01 6.786035e-01 8.806465e-01 1.233033e+00 1.311981e+00 2.645566e+00 1.907987e+00 2.331691e+00 1.868953e+00 1.805060e+00 1.731565e+00 1.536973e+00 3.772075e-01
<GCONST> 1.783832e+02
<MIXTURE> 4 1.921854e-01
<MEAN> 39
 3.668979e+01 -1.622768e+01 -6.195531e+00 1.028446e+00 2.650154e+01 -9.331184e+00 -3.548531e+01 -2.924069e+00 -1.073199e+01 3.658250e+00 2.197974e+00 4.765783e+00 1.246635e+02 8.440132e-02 -2.075570e+00 2.116313e-01 1.676154e+00 1.265345e+00 -3.622765e+00 -2.907177e+00 1.711139e+00 1.885630e+00 2.729762e-01 -8.922299e-01 -8.220977e-01 8.061786e-01 -1.663265e+00 2.349898e-03 2.160765e+00 3.404445e-01 -2.362444e+00 -7.483919e-01 1.860736e+00 1.244253e+00 -1.632544e-01 -5.568371e-01 -3.591371e-01 1.065342e-01 -5.212362e-02
<VARIANCE> 39
 6.979587e+01 1.922057e+02 4.908039e+02 4.334052e+02 4.226722e+02 7.655273e+02 8.992674e+02 4.467129e+02 3.382401e+02 4.918044e+02 2.903412e+02 2.607097e+02 1.691519e+02 8.240657e+00 1.161184e+01 3.011020e+01 2.477271e+01 2.168968e+01 3.997083e+01 2.638986e+01 3.345914e+01 2.665103e+01 2.365670e+01 1.851264e+01 1.819306e+01 1.054191e+01 2.438515e+00 2.017836e+00 2.714596e+00 3.162009e+00 3.906839e+00 5.713022e+00 6.157837e+00 4.390363e+00 4.324133e+00 4.498256e+00 3.686642e+00 3.608263e+00 1.248536e+00
<GCONST> 2.026959e+02
<STATE> 3
<NUMMIXES> 4
<MIXTURE> 1 3.111866e-01
<MEAN> 39
 3.409731e+01 -2.522741e+01 3.582142e+00 6.233784e+00 1.869646e+01 -3.601459e+01 -2.644060e+01 1.526633e+01 -6.483751e+00 4.813352e+00 1.741300e+00 1.128611e+01 1.313601e+02 -2.341035e+00 -1.363185e+00 4.800966e+00 -2.430974e-01 -5.357300e+00 -2.555143e+00 5.335240e+00 3.508961e+00 -2.331840e+00 -7.289842e-01 1.763505e+00 8.690453e-01 1.414820e+00 -7.281315e-01 8.495703e-01 1.167400e+00 -7.394336e-01 -1.032694e+00 1.877021e+00 1.741631e+00 -1.494229e+00 -1.029061e+00 6.434635e-01 4.075297e-01 -5.509551e-01 -3.184952e-01
<VARIANCE> 39
 5.719972e+01 1.479518e+02 4.681927e+02 3.129034e+02 3.866183e+02 7.263853e+02 1.059733e+03 3.503198e+02 3.295912e+02 4.090413e+02 2.867602e+02 2.349414e+02 1.492594e+02 3.655842e+00 5.693791e+00 2.249205e+01 1.475260e+01 1.552458e+01 2.404855e+01 2.142916e+01 1.973423e+01 2.040972e+01 1.970804e+01 1.802213e+01 1.270139e+01 4.353680e+00 6.251118e-01 7.701651e-01 1.608290e+00 1.350296e+00 2.680687e+00 3.264906e+00 2.996007e+00 2.798761e+00 2.310223e+00 2.194742e+00 2.197162e+00 2.349556e+00 2.506892e-01
<GCONST> 1.858537e+02
<MIXTURE> 2 1.990654e-01
<MEAN> 39
 3.253899e+01 -2.070424e+01 2.641554e+00 1.038555e+01 2.048534e+01 -2.711875e+01 -2.750539e+01 1.302274e+01 -4.750834e+00 3.562777e+00 -2.337273e+00 6.236682e+00 1.282411e+02 -4.493238e+00 1.071861e-01 8.444880e+00 4.697909e+00 -4.634056e+00 -2.356704e+00 4.902108e+00 3.648750e+00 1.612878e-02 -2.401862e+00 -5.170527e-01 -2.751328e-02 -8.997052e-01 -1.986232e+00 1.698285e+00 1.338640e+00 -1.066614e+00 -1.562949e+00 2.890152e+00 2.839318e+00 -1.262889e+00 -1.160590e+00 2.509918e-01 4.239060e-01 2.430369e-01 -1.017577e+00
<VARIANCE> 39
 7.538330e+01 2.203031e+02 5.773580e+02 4.492700e+02 4.617505e+02 8.351733e+02 1.007263e+03 4.817422e+02 4.307242e+02 5.746349e+02 2.663573e+02 2.631541e+02 1.874895e+02 9.458512e+00 1.636216e+01 2.866987e+01 2.807764e+01 4.115853e+01 5.378119e+01 5.036147e+01 4.816949e+01 5.694241e+01 4.035693e+01 2.798546e+01 2.518435e+01 1.888371e+01 3.139215e+00 3.497162e+00 4.042258e+00 4.061090e+00 6.131208e+00 8.800627e+00 7.207373e+00 8.261572e+00 6.264887e+00 6.988524e+00 4.111584e+00 4.508982e+00 1.550616e+00
<GCONST> 2.134984e+02
<MIXTURE> 3 3.170201e-01
<MEAN> 39
 3.206268e+01 -2.817659e+01 7.848159e+00 7.557908e+00 1.694818e+01 -3.701254e+01 -2.868327e+01 1.447571e+01 -7.539818e+00 2.581488e+00 4.790242e-01 8.175525e+00 1.315619e+02 -2.776425e+00 -1.693862e+00 5.703225e+00 -1.561986e-01 -5.784315e+00 -3.092301e+00 5.220115e+00 3.688876e+00 -2.763160e+00 -1.099239e+00 1.128341e+00 1.219386e-01 1.616369e+00 -6.879846e-01 9.428056e-01 1.047976e+00 -8.641673e-01 -9.882538e-01 1.988974e+00 1.668056e+00 -1.561276e+00 -1.070484e+00 6.133103e-01 2.484501e-01 -5.667663e-01 -4.037356e-01
<VARIANCE> 39
 5.942833e+01 1.400013e+02 4.757810e+02 3.218693e+02 3.617581e+02 7.175414e+02 1.111934e+03 3.636639e+02 3.366825e+02 4.479888e+02 2.813431e+02 2.205771e+02 1.321089e+02 3.892490e+00 5.261456e+00 2.454512e+01 1.358259e+01 1.636214e+01 2.395144e+01 2.190178e+01 2.034242e+01 2.052758e+01 1.858027e+01 1.642651e+01 1.223806e+01 3.905520e+00 6.306403e-01 7.428476e-01 1.494381e+00 1.357717e+00 2.520599e+00 3.356472e+00 2.965660e+00 2.894537e+00 2.370482e+00 2.246061e+00 2.107879e+00 2.144953e+00 2.703785e-01
<GCONST> 1.854794e+02
<MIXTURE> 4 1.727108e-01
<MEAN> 39
 3.037432e+01 -2.208634e+01 2.491188e+00 9.072626e+00 1.976051e+01 -2.623157e+01 -3.184795e+01 9.665180e+00 -7.338701e+00 2.398555e+00 -2.921082e+00 5.496700e+00 1.279271e+02 -5.512052e+00 -5.676183e-01 8.200729e+00 4.228957e+00 -5.203509e+00 -3.276835e+00 4.717739e+00 2.936214e+00 1.297097e-01 -1.699272e+00 -9.141198e-01 -1.533659e+00 -1.224046e+00 -2.130156e+00 1.686568e+00 1.075960e+00 -1.282225e+00 -1.935589e+00 2.538673e+00 2.671455e+00 -9.688977e-01 -1.087480e+00 5.714206e-02 2.738158e-01 -9.644863e-02 -1.303929e+00
<VARIANCE> 39
 7.708974e+01 2.277580e+02 6.089224e+02 4.712711e+02 4.737623e+02 8.578211e+02 1.037828e+03 4.864355e+02 4.586356e+02 5.636157e+02 2.768165e+02 2.795522e+02 2.043314e+02 1.309435e+01 1.626652e+01 3.308472e+01 3.057216e+01 4.250719e+01 5.015240e+01 5.275534e+01 5.195504e+01 6.087636e+01 3.709419e+01 3.079639e+01 2.743767e+01 2.618905e+01 3.491799e+00 3.536346e+00 3.854639e+00 4.128556e+00 5.984947e+00 8.791350e+00 7.722031e+00 8.255410e+00 6.796066e+00 7.224240e+00 4.526557e+00 4.583655e+00 2.401156e+00
<GCONST> 2.158927e+02
<STATE> 4
<NUMMIXES> 4
<MIXTURE> 1 2.668085e-01
<MEAN> 39
 2.361724e+01 -2.548227e+01 2.657618e+01 4.937117e+00 -7.316561e-01 -3.642783e+01 -5.834361e+00 1.504020e+01 -2.163694e+01 7.064690e+00 7.072651e+00 7.553117e+00 1.346927e+02 -3.376332e+00 1.759412e+00 5.905762e+00 -3.748398e+00 -5.065337e+00 4.194437e+00 6.235417e+00 -3.545329e+00 -2.320541e+00 3.226567e+00 3.145962e-01 -1.422832e+00 5.323491e-01 5.670276e-02 1.080338e+00 -6.266109e-01 -6.831852e-01 1.301474e+00 1.912731e+00 -1.240905e+00 -1.573042e+00 1.387808e+00 4.184736e-01 -1.027648e+00 -5.209018e-02 -5.762120e-01
<VARIANCE> 39
 1.231466e+02 1.645541e+02 8.412418e+02 3.648352e+02 3.218489e+02 6.203402e+02 9.718412e+02 4.080417e+02 4.807858e+02 5.374116e+02 2.823312e+02 2.518591e+02 1.567708e+02 5.196605e+00 6.765565e+00 2.366381e+01 1.055114e+01 1.643872e+01 1.805173e+01 2.132224e+01 2.728078e+01 2.078557e+01 1.658689e+01 1.707136e+01 1.289259e+01 2.743829e+00 4.437956e-01 8.852081e-01 1.761628e+00 1.645144e+00 2.231167e+00 3.501571e+00 3.626855e+00 2.973948e+00 3.219864e+00 2.587338e+00 1.992637e+00 2.110857e+00 2.758046e-01
<GCONST> 1.882293e+02
<MIXTURE> 2 2.418056e-01
<MEAN> 39
 1.388100e+01 -1.176546e+01 -5.771862e+00 1.471065e+01 1.796287e+01 -7.550893e+00 -5.991077e-01 1.737953e+01 7.302367e+00 5.344047e+00 -1.718888e+00 4.864933e+00 9.663492e+01 -5.421680e+00 1.072949e+00 3.270142e+00 2.524323e+00 -1.201424e+00 3.289097e+00 3.141929e+00 4.510397e-01 8.700014e-01 -8.059549e-01 -2.502016e-01 -2.461115e-01 -4.087824e+00 -3.528477e-01 6.422836e-02 -5.135605e-01 -1.041223e+00 -9.636746e-02 1.204918e-01 -2.586943e-01 -3.722442e-01 -6.117616e-01 3.167617e-01 3.090355e-01 1.451669e-01 1.453788e-01
<VARIANCE> 39
 2.440791e+02 1.863377e+02 4.034408e+02 2.941038e+02 3.762925e+02 4.628107e+02 4.940149e+02 4.307193e+02 3.361561e+02 2.790794e+02 2.492524e+02 2.613749e+02 3.687241e+02 2.312791e+01 2.398901e+01 1.991733e+01 2.684804e+01 2.663167e+01 3.570642e+01 3.441282e+01 2.959148e+01 2.799923e+01 2.440374e+01 2.109079e+01 2.071409e+01 1.024251e+01 3.165516e+00 3.370445e+00 3.708895e+00 4.220733e+00 4.034719e+00 5.072720e+00 4.397638e+00 4.429184e+00 4.535380e+00 4.213455e+00 3.677305e+00 3.534594e+00 1.684912e+00
<GCONST> 2.053252e+02
<MIXTURE> 3 2.824458e-01
<MEAN> 39
 2.178576e+01 -2.758701e+01 2.885983e+01 4.927314e+00 -3.227097e+00 -3.787406e+01 -6.117790e+00 1.432130e+01 -2.331396e+01 4.531321e+00 6.668431e+00 5.083762e+00 1.348529e+02 -3.513865e+00 1.655806e+00 6.249206e+00 -3.855940e+00 -5.391484e+00 4.065734e+00 6.114300e+00 -3.752811e+00 -2.863763e+00 3.007388e+00 -8.995771e-02 -2.129968e+00 4.821681e-01 8.165659e-02 1.101191e+00 -6.795381e-01 -6.804808e-01 1.354518e+00 1.885320e+00 -1.372502e+00 -1.604096e+00 1.422295e+00 3.621719e-01 -1.179201e+00 -1.632063e-01 -6.294364e-01
<VARIANCE> 39
 1.227861e+02 1.558737e+02 7.929948e+02 3.616591e+02 3.151819e+02 6.353579e+02 9.690327e+02 4.009680e+02 4.815309e+02 5.200243e+02 2.777838e+02 2.420032e+02 1.693557e+02 4.771540e+00 6.046540e+00 2.252611e+01 9.950896e+00 1.686777e+01 1.778235e+01 2.009904e+01 2.683434e+01 2.058619e+01 1.585375e+01 1.652752e+01 1.235844e+01 2.945722e+00 4.429000e-01 8.156150e-01 1.585563e+00 1.569912e+00 2.181751e+00 3.440451e+00 3.431642e+00 2.870961e+00 3.056891e+00 2.564661e+00 1.988756e+00 2.012201e+00 2.860504e-01
<GCONST> 1.872071e+02
<MIXTURE> 4 2.089237e-01
<MEAN> 39
 4.747223e+00 -1.431689e+01 -5.185146e+00 1.576271e+01 1.768861e+01 -3.402087e+00 1.817856e+00 1.788856e+01 5.654139e+00 4.189346e+00 -2.748503e+00 2.958554e+00 9.147795e+01 -7.354591e+00 -6.658989e-01 1.346188e+00 -2.943744e-01 -3.523013e+00 1.076460e+00 8.112544e-01 -1.581671e+00 -6.173336e-01 -1.401291e+00 -1.305646e+00 -1.673763e+00 -4.506704e+00 2.159722e-01 1.658226e-01 -8.447434e-01 -1.428458e+00 -6.294883e-01 -6.573635e-01 -9.401486e-01 -7.858158e-01 -7.978837e-01 1.021460e-02 6.907484e-02 -2.074769e-02 1.986497e-01
<VARIANCE> 39
 2.209059e+02 2.018200e+02 3.515567e+02 2.732643e+02 3.439529e+02 4.252361e+02 4.929330e+02 4.341950e+02 3.344663e+02 2.750123e+02 2.337899e+02 2.588708e+02 3.323727e+02 3.169545e+01 2.458558e+01 2.372329e+01 2.978260e+01 2.744997e+01 3.604613e+01 3.703949e+01 2.821686e+01 2.836458e+01 2.268460e+01 2.163659e+01 1.990249e+01 1.521165e+01 3.202253e+00 3.514036e+00 3.839917e+00 4.638169e+00 4.205009e+00 5.692468e+00 4.766259e+00 4.766109e+00 4.715377e+00 4.183287e+00 3.740529e+00 3.820414e+00 1.891162e+00
<GCONST> 2.064680e+02
<TRANSP> 5
 0.000000e+00 1.000000e+00 0.000000e+00 0.000000e+00 0.000000e+00
 0.000000e+00 7.474515e-01 2.525485e-01 0.000000e+00 0.000000e+00
 0.000000e+00 0.000000e+00 5.108652e-01 4.891348e-01 0.000000e+00
 0.000000e+00 0.000000e+00 0.000000e+00 6.405627e-01 3.594373e-01
 0.000000e+00 0.000000e+00 0.000000e+00 0.000000e+00 0.000000e+00
<ENDHMM>
~h "s"
<BEGINHMM>
<NUMSTATES> 5
<STATE> 2
<NUMMIXES> 4
<MIXTURE> 1 1.618504e-01
<MEAN> 39
 -6.580030e+00 4.414396e+00 2.286174e+01 6.655212e+00 9.681887e+00 -1.129116e+01 -4.895257e+00 -1.696130e+00 -1.240013e+00 2.750652e+00 -8.813091e+00 7.267426e+00 1.117041e+02 -1.011351e+01 4.962104e+00 -2.312494e+00 3.040997e+00 1.068258e+00 1.056190e+00 3.270750e+00 3.029084e+00 1.939095e+00 -1.544119e+00 1.189968e+00 1.230595e+00 -8.405418e-01 -2.144242e+00 -3.156820e-01 -2.265110e+00 -9.760519e-01 -7.758967e-01 3.079627e-01 2.657508e-01 7.143772e-01 -6.541566e-01 4.835071e-01 8.919132e-01 -1.815902e-01 1.247787e-01
<VARIANCE> 39
 5.492537e+02 2.047878e+02 4.306149e+02 3.712241e+02 3.243276e+02 3.864055e+02 3.856547e+02 3.710129e+02 4.285950e+02 3.184148e+02 2.478896e+02 3.652097e+02 4.984142e+02 5.884668e+01 2.747349e+01 4.193264e+01 5.756170e+01 3.512636e+01 5.860827e+01 3.534828e+01 3.670345e+01 4.505271e+01 3.737270e+01 3.314049e+01 2.930943e+01 2.653327e+01 6.892868e+00 4.382709e+00 5.700091e+00 6.465678e+00 5.280560e+00 5.956576e+00 5.956114e+00 5.723105e+00 5.598516e+00 5.754249e+00 4.598617e+00 5.101455e+00 2.228608e+00
<GCONST> 2.173309e+02
<MIXTURE> 2 3.553198e-01
<MEAN> 39
 -4.258032e+01 4.483091e+00 6.557274e-02 6.920051e+00 -1.704576e+00 -9.868095e+00 5.049131e-01 8.371485e+00 -2.691905e+00 1.716603e+00 -3.047555e+00 6.436872e+00 1.029614e+02 -7.859349e+00 2.142518e+00 -3.495790e+00 -1.846512e+00 -1.083361e+00 2.890583e-01 1.096290e+00 1.295872e+00 -2.587419e-01 1.698846e-01 1.047003e+00 9.349860e-01 1.893115e+00 1.796494e+00 -1.938754e-01 -1.344214e-01 -2.566282e-01 1.877664e-01 5.943390e-01 -4.586818e-01 -8.059527e-01 -2.916709e-01 3.242182e-01 -1.173444e-01 -1.207019e-01 -8.775173e-01
<VARIANCE> 39
 2.441509e+02 2.407720e+02 2.431482e+02 2.824206e+02 4.050256e+02 3.540002e+02 2.781288e+02 2.081976e+02 1.943082e+02 1.776536e+02 1.839859e+02 1.447678e+02 3.820344e+02 3.796759e+01 1.755162e+01 3.913994e+01 2.090778e+01 2.083833e+01 2.221353e+01 2.275318e+01 1.975939e+01 1.964207e+01 1.727464e+01 1.617614e+01 1.626205e+01 2.648050e+01 4.943224e+00 4.234533e+00 3.639777e+00 4.321738e+00 4.811427e+00 5.333420e+00 4.546866e+00 4.224298e+00 4.219093e+00 3.664967e+00 3.651526e+00 3.142758e+00 3.528716e+00
<GCONST> 2.017879e+02
<MIXTURE> 3 3.100119e-01
<MEAN> 39
 -4.258779e+01 4.213650e+00 -1.520581e-01 7.201571e+00 -1.940581e+00 -9.453011e+00 -3.085077e-01 7.005252e+00 -3.412318e+00 1.318607e+00 -3.399348e+00 5.713874e+00 1.032779e+02 -8.916254e+00 8.307574e-01 -4.873819e+00 -3.037578e+00 -2.604966e+00 -9.208496e-01 -4.254377e-01 1.284483e-01 -1.595760e+00 -8.513862e-01 -2.428025e-02 -1.676553e-01 1.463362e+00 1.950439e+00 -3.775254e-01 -2.652631e-01 -5.837719e-01 -1.362861e-01 2.818636e-01 -6.879818e-01 -1.065205e+00 -4.034131e-01 1.422222e-01 -2.839222e-01 -1.151989e-01 -9.087016e-01
<VARIANCE> 39
 2.239516e+02 2.470828e+02 2.397923e+02 2.924632e+02 3.954035e+02 3.792531e+02 2.914649e+02 2.154450e+02 1.962611e+02 1.739893e+02 1.868683e+02 1.475863e+02 3.333526e+02 3.562982e+01 1.947752e+01 4.461834e+01 2.115300e+01 2.147069e+01 2.301785e+01 2.477822e+01 2.098775e+01 1.991904e+01 1.781071e+01 1.673255e+01 1.808429e+01 2.622685e+01 5.096798e+00 4.395891e+00 3.706071e+00 4.595321e+00 5.007446e+00 5.874676e+00 4.776052e+00 4.292841e+00 4.253940e+00 3.741526e+00 3.854612e+00 3.305338e+00 3.332536e+00
<GCONST> 2.027569e+02
<MIXTURE> 4 1.728031e-01
<MEAN> 39
 -1.781713e+01 4.695801e+00 1.874738e+01 7.159643e+00 9.013802e+00 -9.521986e+00 -6.199593e+00 3.472323e-01 -3.253968e+00 1.950330e+00 -9.073764e+00 3.676081e+00 1.056262e+02 -1.112123e+01 3.154061e+00 -3.845583e+00 6.788164e-02 -1.434901e-01 -4.150819e-01 1.704069e+00 1.749488e+00 1.236935e+00 -1.445171e+00 2.035539e-01 2.566853e-01 -5.214623e-01 -1.039888e+00 -6.123246e-01 -2.152602e+00 -1.438160e+00 -9.128250e-01 -1.024104e-01 -2.956098e-01 1.706150e-01 -7.867777e-01 2.648422e-01 6.247120e-01 -5.630553e-02 3.765810e-02
<VARIANCE> 39
 5.004584e+02 2.315295e+02 4.089228e+02 3.714763e+02 3.561819e+02 3.400120e+02 3.852655e+02 3.638222e+02 3.712626e+02 3.087537e+02 2.464885e+02 3.238794e+02 5.092481e+02 7.562415e+01 2.646754e+01 4.500301e+01 5.292646e+01 3.680980e+01 5.682567e+01 3.612414e+01 3.991183e+01 4.662062e+01 3.295475e+01 3.117878e+01 2.936679e+01 3.244683e+01 8.321411e+00 5.058805e+00 5.997223e+00 6.843711e+00 5.858891e+00 6.408008e+00 6.266060e+00 6.533026e+00 6.164755e+00 6.220206e+00 4.798135e+00 5.180619e+00 2.621056e+00
<GCONST> 2.185421e+02
<STATE> 3
<NUMMIXES> 4
<MIXTURE> 1 2.508743e-01
<MEAN> 39
 -5.550846e+01 7.264175e+00 -7.693448e+00 -2.032563e+00 -2.028022e+00 -1.549920e+01 -2.703080e+00 6.421754e+00 -5.255396e+00 3.505850e-02 -5.561234e+00 7.944623e+00 1.095436e+02 -1.937258e+00 2.585607e+00 -1.909258e+00 -1.661491e-01 8.539773e-01 2.451761e+00 1.381676e+00 2.700586e-01 2.427396e-01 1.091892e+00 7.686185e-01 4.426499e-01 1.688411e-01 2.291172e+00 -6.590117e-01 5.841431e-01 8.038433e-01 6.720023e-01 7.260560e-01 -7.972696e-02 -1.701875e-01 3.585460e-01 5.592029e-01 1.284019e-01 -3.038045e-01 -7.359633e-01
<VARIANCE> 39
 1.329345e+02 1.388650e+02 1.780304e+02 2.904890e+02 3.920131e+02 2.786183e+02 1.996031e+02 2.014006e+02 1.645069e+02 1.582216e+02 1.727366e+02 1.390464e+02 1.930907e+02 1.333242e+01 1.004145e+01 1.031693e+01 1.316713e+01 1.284251e+01 1.656752e+01 1.513184e+01 1.525701e+01 1.411702e+01 1.333282e+01 1.273619e+01 1.151040e+01 1.115170e+01 2.295012e+00 1.955692e+00 2.623049e+00 2.616585e+00 3.195977e+00 2.999317e+00 3.283919e+00 3.479860e+00 2.866570e+00 2.885697e+00 2.596225e+00 2.473681e+00 1.730958e+00
<GCONST> 1.859662e+02
<MIXTURE> 2 2.322203e-01
<MEAN> 39
 -5.307256e+01 1.099200e+01 -1.096675e+01 3.011230e+00 -3.783992e+00 -6.896587e+00 1.137572e+00 4.124776e+00 -5.093893e+00 3.114019e+00 -1.031023e+00 6.003153e+00 1.087348e+02 -3.630308e+00 -2.709406e-01 -4.912100e+00 -1.582722e+00 -2.007653e+00 -4.172649e-01 -1.679337e+00 -6.663587e-01 -7.025219e-01 6.217735e-02 -2.240619e-02 3.534779e-01 8.445162e-02 3.074196e+00 -2.401546e-01 1.982576e+00 8.573661e-01 5.880898e-01 4.355761e-01 4.737111e-02 -1.755409e-01 1.388680e-01 7.789075e-02 -4.528642e-01 1.164792e-01 -1.529415e-01
<VARIANCE> 39
 1.254230e+02 1.429168e+02 1.839607e+02 2.654526e+02 3.273729e+02 2.754283e+02 1.907596e+02 1.699959e+02 1.653773e+02 1.506466e+02 1.623953e+02 1.292441e+02 1.608708e+02 1.610999e+01 1.633348e+01 1.747666e+01 1.620149e+01 1.644477e+01 1.898773e+01 1.800471e+01 1.554994e+01 1.441589e+01 1.394232e+01 1.320392e+01 1.284678e+01 1.008982e+01 2.508132e+00 2.387055e+00 3.752536e+00 3.220458e+00 3.166502e+00 3.293735e+00 3.620252e+00 3.557728e+00 3.420943e+00 3.108849e+00 3.025818e+00 3.086798e+00 1.546273e+00
<GCONST> 1.887808e+02
<MIXTURE> 3 3.313515e-01
<MEAN> 39
 -5.581727e+01 5.589630e+00 -8.105886e+00 -3.517165e+00 -2.580731e+00 -1.656172e+01 -4.325299e+00 4.458134e+00 -5.750668e+00 -7.244484e-01 -6.473503e+00 7.224272e+00 1.068201e+02 -2.593960e+00 2.178092e+00 -2.508231e+00 -1.099647e+00 -6.519389e-02 1.551373e+00 3.044752e-01 -7.926745e-01 -8.327444e-01 -3.715435e-02 -2.177310e-01 -3.527293e-01 3.706186e-01 2.159493e+00 -8.231435e-01 2.170915e-01 5.600471e-01 4.146913e-01 4.766210e-01 -3.697661e-01 -3.642913e-01 1.411104e-01 3.795114e-01 5.553633e-03 -4.475389e-01 -8.932176e-01
<VARIANCE> 39
 1.250377e+02 1.327809e+02 1.757003e+02 2.890369e+02 3.941700e+02 2.673016e+02 2.034591e+02 2.042165e+02 1.731348e+02 1.584572e+02 1.730788e+02 1.395073e+02 1.912409e+02 1.209622e+01 9.388542e+00 9.270258e+00 1.207496e+01 1.215075e+01 1.582058e+01 1.485196e+01 1.452132e+01 1.345835e+01 1.317562e+01 1.264933e+01 1.150375e+01 1.170476e+01 2.159580e+00 1.724042e+00 2.222188e+00 2.422033e+00 3.127628e+00 2.933486e+00 3.141226e+00 3.321366e+00 2.806190e+00 2.806427e+00 2.585174e+00 2.439590e+00 1.648245e+00
<GCONST> 1.846598e+02
<MIXTURE> 4 1.855549e-01
<MEAN> 39
 -5.288198e+01 1.009609e+01 -1.085329e+01 2.250552e+00 -3.280005e+00 -7.282351e+00 5.748560e-01 3.064667e+00 -5.297943e+00 2.266082e+00 -1.955761e+00 5.476951e+00 1.075273e+02 -4.858031e+00 -1.540947e+00 -6.260909e+00 -3.124729e+00 -3.307112e+00 -1.660975e+00 -3.108951e+00 -1.872999e+00 -1.894167e+00 -9.854684e-01 -9.692224e-01 -6.330289e-01 -4.671353e-02 3.088979e+00 -4.740475e-01 1.753878e+00 4.872628e-01 2.124822e-01 7.887930e-04 -3.542916e-01 -5.504540e-01 -7.834357e-02 -7.503948e-02 -6.311578e-01 7.467717e-03 -2.465128e-01
<VARIANCE> 39
 1.121388e+02 1.400364e+02 1.762153e+02 2.628664e+02 3.257702e+02 2.776850e+02 1.982445e+02 1.734214e+02 1.689671e+02 1.482574e+02 1.614892e+02 1.294271e+02 1.598874e+02 1.524854e+01 1.735459e+01 1.893503e+01 1.524370e+01 1.611507e+01 1.882719e+01 1.847393e+01 1.578558e+01 1.389703e+01 1.477814e+01 1.342652e+01 1.346372e+01 1.079893e+01 2.755217e+00 2.262960e+00 3.813285e+00 3.173500e+00 3.135391e+00 3.509715e+00 3.534551e+00 3.518956e+00 3.558623e+00 3.126483e+00 3.151487e+00 3.239937e+00 1.531289e+00
<GCONST> 1.890277e+02
<STATE> 4
<NUMMIXES> 4
<MIXTURE> 1 1.796201e-01
<MEAN> 39
 -5.088057e+01 5.229964e+00 -1.614794e+01 4.013395e+00 -1.030972e+01 -4.135715e+00 -3.757886e+00 3.362591e+00 -7.208176e+00 2.618617e+00 -2.481760e+00 6.558309e+00 1.074885e+02 1.999417e+00 2.055540e-01 1.708360e+00 3.027498e-01 4.630256e-01 7.194322e-01 1.067396e+00 7.399429e-01 9.710354e-01 7.294775e-01 5.131877e-01 6.384405e-01 4.365854e-01 2.273680e+00 1.752298e-01 1.974171e+00 6.041061e-01 4.929464e-01 -2.807974e-01 1.541659e-01 -4.680955e-02 4.265378e-01 7.357508e-02 -9.021413e-02 2.509903e-01 3.577321e-01
<VARIANCE> 39
 1.225223e+02 1.317687e+02 1.346008e+02 2.060056e+02 2.708198e+02 2.707462e+02 1.462918e+02 1.355176e+02 1.373454e+02 1.301097e+02 1.398614e+02 1.199726e+02 1.586213e+02 1.029151e+01 7.694867e+00 9.169978e+00 9.154139e+00 1.109572e+01 1.214438e+01 1.190802e+01 1.199531e+01 1.175280e+01 1.205888e+01 1.170614e+01 1.079251e+01 6.747584e+00 3.081306e+00 1.710212e+00 2.612370e+00 1.887781e+00 2.143270e+00 2.824493e+00 2.701395e+00 2.517133e+00 2.426464e+00 2.634126e+00 2.339051e+00 2.405530e+00 1.480591e+00
<GCONST> 1.785988e+02
<MIXTURE> 2 3.410832e-01
<MEAN> 39
 -5.375765e+01 7.775485e+00 -1.486288e+01 3.861055e+00 -5.875813e+00 -5.061421e+00 -3.796506e+00 4.077785e+00 -6.092600e+00 3.156915e+00 -3.595182e+00 6.323406e+00 1.070830e+02 2.001930e-01 6.016310e-02 4.333677e-02 7.166315e-02 2.295264e-01 5.612296e-01 2.225114e-01 1.343892e-01 2.599533e-01 3.746194e-01 2.241264e-01 2.305504e-01 3.978670e-01 5.842106e-01 -9.026423e-02 5.601017e-01 2.760109e-02 6.063734e-02 -9.709006e-02 1.763219e-01 1.185162e-01 1.764782e-01 3.055647e-02 1.070622e-01 1.055435e-01 1.059073e-01
<VARIANCE> 39
 1.174975e+02 1.255807e+02 1.432083e+02 2.521296e+02 2.938024e+02 2.706669e+02 1.452268e+02 1.309430e+02 1.346981e+02 1.185435e+02 1.305243e+02 1.113318e+02 1.739275e+02 2.170851e+00 3.812476e+00 4.280313e+00 5.704390e+00 6.758621e+00 8.434945e+00 9.004664e+00 9.556355e+00 9.495772e+00 9.703243e+00 9.238992e+00 8.915949e+00 2.567949e+00 6.943761e-01 8.624855e-01 9.846372e-01 1.187698e+00 1.416461e+00 1.730846e+00 1.921724e+00 1.988284e+00 1.994849e+00 1.999212e+00 1.936505e+00 1.833811e+00 4.540477e-01
<GCONST> 1.647553e+02
<MIXTURE> 3 2.521856e-01
<MEAN> 39
 -5.399379e+01 6.155247e+00 -1.517398e+01 2.241199e+00 -6.008093e+00 -6.013733e+00 -5.214422e+00 2.801183e+00 -6.372300e+00 2.679682e+00 -4.334210e+00 5.582967e+00 1.041842e+02 -1.573154e-01 -4.127640e-01 -5.205617e-01 -6.344002e-01 -4.526201e-01 -2.175295e-01 -7.677568e-01 -8.322562e-01 -6.903244e-01 -4.674947e-01 -6.162810e-01 -4.932342e-01 1.115091e-01 3.845418e-01 -2.922491e-01 2.897394e-01 -1.769390e-01 -2.050912e-01 -3.663478e-01 -9.236529e-02 -7.594067e-02 -2.511555e-02 -1.465076e-01 -6.524490e-02 -2.232544e-02 8.841097e-03
<VARIANCE> 39
 1.116822e+02 1.270480e+02 1.481727e+02 2.513110e+02 2.949041e+02 2.734651e+02 1.495954e+02 1.343706e+02 1.420902e+02 1.228811e+02 1.345689e+02 1.135129e+02 1.672679e+02 2.179106e+00 3.938004e+00 4.338479e+00 5.878048e+00 6.959194e+00 8.589993e+00 9.291615e+00 9.898703e+00 9.734596e+00 9.778097e+00 9.531743e+00 9.171115e+00 2.535458e+00 5.746490e-01 8.107592e-01 9.090293e-01 1.182094e+00 1.418682e+00 1.713457e+00 1.940548e+00 2.016907e+00 2.023247e+00 2.022865e+00 1.947934e+00 1.859801e+00 4.321403e-01
<GCONST> 1.648659e+02
<MIXTURE> 4 2.270662e-01
<MEAN> 39
 -5.174437e+01 4.738313e+00 -1.702089e+01 2.868190e+00 -9.742981e+00 -5.544337e+00 -4.864601e+00 2.410023e+00 -7.501697e+00 1.709332e+00 -3.444556e+00 5.858610e+00 1.042176e+02 9.933861e-01 -6.782149e-01 4.141275e-01 -5.172541e-01 -2.154163e-01 -1.457218e-01 -2.472955e-01 -3.344095e-01 -5.833619e-02 -1.610359e-01 -4.696774e-01 -2.972744e-01 -2.165169e-01 1.451398e+00 -1.461625e-01 1.221491e+00 2.200213e-01 2.194089e-01 -3.883450e-01 -9.127486e-02 -1.634182e-01 1.824176e-01 -5.408727e-02 -1.896458e-01 -1.690648e-02 -7.369019e-02
<VARIANCE> 39
 1.276019e+02 1.364839e+02 1.492169e+02 2.277140e+02 2.843426e+02 2.714886e+02 1.506915e+02 1.407400e+02 1.464848e+02 1.340066e+02 1.422718e+02 1.233402e+02 1.707683e+02 8.189976e+00 7.081845e+00 8.008078e+00 8.669271e+00 1.094013e+01 1.269745e+01 1.159166e+01 1.177242e+01 1.156595e+01 1.196183e+01 1.152204e+01 1.080923e+01 8.255707e+00 2.468306e+00 1.611741e+00 2.289643e+00 1.883842e+00 2.090045e+00 2.654651e+00 2.585575e+00 2.479973e+00 2.410527e+00 2.534248e+00 2.339750e+00 2.274078e+00 1.592091e+00
<GCONST> 1.782664e+02
<TRANSP> 5
 0.000000e+00 1.000000e+00 0.000000e+00 0.000000e+00 0.000000e+00
 0.000000e+00 5.347818e-01 4.652182e-01 0.000000e+00 0.000000e+00
 0.000000e+00 0.000000e+00 5.260570e-01 4.739430e-01 0.000000e+00
 0.000000e+00 0.000000e+00 0.000000e+00 8.387548e-01 1.612452e-01
 0.000000e+00 0.000000e+00 0.000000e+00 0.000000e+00 0.000000e+00
<ENDHMM>
~h "t"
<BEGINHMM>
<NUMSTATES> 5
<STATE> 2
<NUMMIXES> 4
<MIXTURE> 1 1.846311e-01
<MEAN> 39
 -1.017626e+00 1.193159e+01 3.756631e+01 2.263794e+01 3.608337e+00 1.969355e+00 1.547310e+00 1.464182e+00 -7.519859e+00 2.386366e+00 -3.379914e+00 1.509925e+00 8.423460e+01 -2.495441e+00 4.029262e+00 -8.206897e+00 3.629731e+00 3.469199e+00 2.394099e+00 2.117473e+00 3.025028e+00 4.869693e+00 6.414976e-01 2.501748e+00 8.641788e-01 -1.065848e+01 -1.005438e+00 -1.178443e+00 -4.318755e-01 -2.707899e+00 -5.702741e-01 -2.593674e-01 -4.558963e-01 -6.481586e-01 -2.835686e-01 2.531034e-01 -9.262031e-02 2.748435e-01 1.357938e+00
<VARIANCE> 39
 2.699702e+02 3.395656e+02 4.054834e+02 3.358214e+02 2.922613e+02 2.936626e+02 3.541487e+02 3.394904e+02 3.311469e+02 2.460801e+02 2.188747e+02 2.195756e+02 5.224638e+02 2.372275e+01 3.607360e+01 6.358059e+01 4.550169e+01 3.387802e+01 3.766327e+01 3.486317e+01 4.322780e+01 5.126595e+01 3.238932e+01 2.960539e+01 3.018831e+01 5.654370e+01 3.436768e+00 7.533272e+00 7.647840e+00 7.268907e+00 6.400568e+00 5.765722e+00 6.594734e+00 5.911322e+00 7.256495e+00 5.041411e+00 4.536396e+00 4.392554e+00 1.293491e+01
<GCONST> 2.174607e+02
<MIXTURE> 2 3.104891e-01
<MEAN> 39
 -2.188253e+01 9.709037e+00 6.695524e+00 9.437184e+00 2.025933e+00 1.410231e+00 -1.985351e+00 -7.801546e-01 -1.683038e+00 2.075983e+00 1.187963e+00 3.041383e+00 5.109450e+01 -2.488409e+00 -3.048799e+00 -3.468311e+00 -3.529253e+00 -5.886499e-01 -8.067850e-01 -2.678838e-01 7.845711e-01 9.419676e-01 1.007866e+00 1.502926e+00 8.611687e-01 2.199428e+00 3.363726e-01 -4.401659e-01 2.034939e+00 -6.312613e-01 -3.639391e-01 -3.784283e-01 2.924250e-01 -3.065314e-01 -8.104014e-01 2.946720e-02 -6.235956e-01 8.298802e-02 5.004547e+00
<VARIANCE> 39
 7.581152e+01 7.890079e+01 1.024915e+02 1.052573e+02 1.101761e+02 1.285000e+02 1.520420e+02 1.439100e+02 1.278342e+02 1.201856e+02 1.063588e+02 9.152197e+01 5.005320e+01 1.751482e+01 1.684729e+01 3.364697e+01 2.110739e+01 1.696685e+01 1.715168e+01 2.005367e+01 2.114573e+01 2.021649e+01 1.629980e+01 1.640681e+01 1.358019e+01 8.923967e+01 2.750596e+00 3.631577e+00 4.905763e+00 3.724313e+00 3.635020e+00 3.846771e+00 4.071018e+00 4.399314e+00 4.430729e+00 3.418052e+00 3.154575e+00 2.975450e+00 8.146300e+00
<GCONST> 1.894032e+02
<MIXTURE> 3 2.731411e-01
<MEAN> 39
 -2.271029e+01 9.044910e+00 5.476345e+00 8.146340e+00 1.039470e+00 5.040606e-01 -2.966918e+00 -1.620609e+00 -2.263225e+00 1.465632e+00 4.497018e-01 2.080134e+00 5.061140e+01 -3.196227e+00 -4.210084e+00 -3.988499e+00 -5.001890e+00 -1.853879e+00 -2.336040e+00 -2.179056e+00 -1.148243e+00 -9.536656e-01 -6.238928e-01 5.089080e-02 -2.659003e-01 3.025950e+00 7.929623e-03 -5.899628e-01 1.725166e+00 -9.640187e-01 -6.574433e-01 -7.833703e-01 5.239528e-02 -5.108239e-01 -1.016563e+00 -1.149146e-01 -6.574803e-01 1.187799e-01 5.244001e+00
<VARIANCE> 39
 7.123862e+01 7.493381e+01 9.609470e+01 9.775159e+01 1.083607e+02 1.244215e+02 1.424826e+02 1.364075e+02 1.228763e+02 1.164604e+02 1.052577e+02 8.920087e+01 4.958478e+01 1.890001e+01 1.786679e+01 3.478929e+01 2.048172e+01 1.756291e+01 1.759602e+01 1.935450e+01 1.905672e+01 1.829515e+01 1.529939e+01 1.472281e+01 1.246557e+01 9.928982e+01 2.692520e+00 3.605564e+00 4.712629e+00 3.536205e+00 3.741367e+00 3.789347e+00 3.851093e+00 4.241846e+00 4.331378e+00 3.330105e+00 3.100162e+00 2.819192e+00 8.159149e+00
<GCONST> 1.883581e+02
<MIXTURE> 4 2.317073e-01
<MEAN> 39
 -6.157009e+00 1.431285e+01 3.110065e+01 2.043373e+01 3.623564e+00 1.710570e+00 -6.442094e-01 -2.903761e+00 -8.889294e+00 -9.995046e-01 -6.468439e+00 -2.504982e-01 7.646278e+01 -4.628246e+00 1.167552e+00 -9.382302e+00 6.049693e-01 1.254588e+00 3.452104e-01 -6.528052e-01 1.166621e+00 1.536995e+00 -1.113286e+00 1.448475e+00 -7.513431e-01 -1.029758e+01 -8.754692e-01 -1.906830e+00 -2.478238e-01 -3.180475e+00 -1.010574e+00 -7.994036e-01 -7.431337e-01 -7.569008e-01 -2.700793e-01 3.938965e-01 1.231530e-01 5.051333e-01 2.334540e+00
<VARIANCE> 39
 2.867865e+02 3.176747e+02 3.499505e+02 2.984678e+02 2.971544e+02 2.798117e+02 3.406596e+02 3.472704e+02 3.178422e+02 2.653874e+02 2.235842e+02 2.092123e+02 3.860338e+02 2.745695e+01 3.613353e+01 6.562978e+01 4.574446e+01 3.145635e+01 3.425237e+01 3.420943e+01 4.226885e+01 4.669331e+01 3.076984e+01 2.745581e+01 2.793184e+01 6.149825e+01 4.152865e+00 7.693430e+00 7.760630e+00 7.042321e+00 6.484682e+00 6.326193e+00 6.758744e+00 6.837736e+00 8.429625e+00 6.020305e+00 5.098903e+00 4.875325e+00 1.287046e+01
<GCONST> 2.176196e+02
<STATE> 3
<NUMMIXES> 4
<MIXTURE> 1 2.161650e-01
<MEAN> 39
 -3.786872e+01 7.479067e+00 4.915665e+00 -1.053364e+01 -4.761333e+00 -1.054524e+01 -5.758305e-01 -5.784705e+00 -1.305383e+01 3.062943e+00 -1.292305e-01 4.932443e+00 1.166876e+02 -3.843563e+00 2.438458e+00 1.924673e+00 7.608698e-01 -2.145174e+00 -1.483013e+00 3.865784e+00 1.343070e+00 -2.363547e-01 1.154135e+00 9.466196e-01 2.768178e+00 6.533287e+00 2.157298e+00 -3.972054e-01 1.757069e+00 2.215856e+00 -8.860528e-04 9.342717e-01 7.289615e-01 6.541201e-01 1.112230e+00 5.121109e-02 -1.646609e-01 2.747161e-01 -4.649347e+00
<VARIANCE> 39
 2.891338e+02 1.639762e+02 2.379260e+02 1.992132e+02 1.741726e+02 1.785176e+02 2.110590e+02 2.303005e+02 1.931304e+02 1.806806e+02 1.543034e+02 1.445050e+02 6.630818e+02 2.006818e+01 1.863156e+01 1.893676e+01 1.948471e+01 1.761983e+01 2.296922e+01 2.092746e+01 2.515218e+01 2.005302e+01 1.797121e+01 2.054911e+01 1.606775e+01 6.989513e+01 4.384192e+00 4.025704e+00 4.665805e+00 4.887496e+00 3.924996e+00 3.689838e+00 4.149096e+00 4.193319e+00 4.372829e+00 3.941761e+00 3.463286e+00 3.243586e+00 1.660517e+01
<GCONST> 2.009559e+02
<MIXTURE> 2 2.903359e-01
<MEAN> 39
 -2.731054e+01 -6.919267e+00 5.854808e+00 -8.580825e+00 -9.608581e-01 -3.865689e+00 -5.454480e+00 -2.081266e+00 -5.881997e+00 1.573068e+00 -4.869133e-01 2.070385e+00 8.843353e+01 -3.627302e+00 -7.356119e-01 6.461611e-01 -3.858566e+00 -9.195477e-01 -2.558416e+00 7.853147e-01 3.692746e-02 -2.365241e+00 1.338691e-03 -5.872042e-01 1.027839e+00 1.749818e+01 -2.501006e-01 2.020260e+00 1.109948e+00 1.889637e+00 -2.186204e-01 -6.851617e-02 1.203137e+00 4.292376e-01 6.728378e-02 2.854274e-01 -5.270164e-02 5.293052e-01 -4.659138e-01
<VARIANCE> 39
 8.557179e+01 1.641776e+02 1.569838e+02 1.886397e+02 1.488332e+02 1.412519e+02 1.414103e+02 1.338045e+02 1.161805e+02 1.024827e+02 9.298579e+01 8.824387e+01 1.159739e+03 1.775644e+01 1.791093e+01 2.241048e+01 1.521421e+01 1.820926e+01 2.069083e+01 2.174440e+01 2.122843e+01 1.789767e+01 1.800040e+01 1.627858e+01 1.322505e+01 7.034538e+01 2.915379e+00 2.768896e+00 3.419871e+00 3.890867e+00 3.720857e+00 3.617246e+00 3.375582e+00 3.339934e+00 3.090966e+00 2.685698e+00 2.750795e+00 2.623771e+00 2.015967e+01
<GCONST> 1.926344e+02
<MIXTURE> 3 2.337396e-01
<MEAN> 39
 -2.753570e+01 -8.483365e+00 5.753349e+00 -9.553379e+00 -2.002203e+00 -5.034335e+00 -6.409475e+00 -3.476331e+00 -7.671291e+00 3.717924e-01 -1.997177e+00 1.393522e+00 9.020193e+01 -4.668664e+00 -1.678339e+00 -5.351598e-01 -5.178111e+00 -2.259999e+00 -4.010923e+00 -1.087315e+00 -1.474339e+00 -3.721040e+00 -1.364844e+00 -1.654058e+00 1.001687e-01 1.635935e+01 -4.182416e-01 1.879290e+00 8.884239e-01 1.650110e+00 -4.554415e-01 -3.675332e-01 7.930009e-01 2.058780e-01 -1.357705e-01 1.236046e-01 -1.310717e-01 4.613957e-01 -6.810610e-01
<VARIANCE> 39
 9.190324e+01 1.717572e+02 1.677399e+02 1.787126e+02 1.448461e+02 1.469836e+02 1.377669e+02 1.383840e+02 1.158593e+02 1.122986e+02 9.551211e+01 8.912061e+01 9.839359e+02 1.833937e+01 2.061594e+01 2.554877e+01 1.555599e+01 1.983650e+01 2.199317e+01 2.326165e+01 2.018727e+01 1.792988e+01 1.905618e+01 1.598220e+01 1.307582e+01 6.914367e+01 2.948456e+00 2.856872e+00 3.682326e+00 3.809468e+00 3.588507e+00 3.631718e+00 3.420471e+00 3.475530e+00 3.143345e+00 2.799935e+00 2.829345e+00 2.625150e+00 1.752393e+01
<GCONST> 1.933093e+02
<MIXTURE> 4 2.597437e-01
<MEAN> 39
 -3.969358e+01 6.267552e+00 2.795603e+00 -1.241156e+01 -5.344873e+00 -1.237783e+01 -2.076716e+00 -7.507404e+00 -1.406103e+01 2.273938e+00 -1.186975e+00 3.835190e+00 1.163452e+02 -4.891847e+00 1.669156e+00 8.998442e-01 -7.817325e-01 -3.336488e+00 -2.697394e+00 2.168335e+00 -1.189362e-01 -1.821093e+00 5.329742e-02 1.011856e-01 1.782661e+00 7.001328e+00 1.761499e+00 -5.490901e-01 1.386502e+00 1.908712e+00 -3.918911e-01 6.253077e-01 3.350754e-01 5.167419e-01 8.335656e-01 -1.145839e-01 -1.596161e-01 1.687117e-01 -4.835304e+00
<VARIANCE> 39
 2.367889e+02 1.596152e+02 2.391126e+02 1.736618e+02 1.798064e+02 1.758668e+02 2.035248e+02 2.212255e+02 1.909867e+02 1.811195e+02 1.586307e+02 1.440938e+02 5.363671e+02 1.699361e+01 1.849151e+01 1.913823e+01 1.818036e+01 1.693987e+01 2.272766e+01 2.095241e+01 2.270013e+01 1.886995e+01 1.784077e+01 1.963510e+01 1.548859e+01 6.929066e+01 3.812769e+00 3.839543e+00 4.104631e+00 4.642373e+00 3.972205e+00 3.565092e+00 4.024252e+00 3.992469e+00 4.307321e+00 3.820466e+00 3.519679e+00 3.345457e+00 1.359759e+01
<GCONST> 1.991307e+02
<STATE> 4
<NUMMIXES> 4
<MIXTURE> 1 2.136238e-01
<MEAN> 39
 -3.959859e+01 -9.693127e-01 1.956842e+01 -4.375153e+00 -1.325805e+01 -1.266897e+01 8.276129e+00 -2.413988e-01 -1.157969e+01 3.006845e+00 -1.218273e+00 1.058564e+01 1.180793e+02 8.527503e+00 -5.327686e-01 7.565634e+00 5.784195e+00 1.119631e+00 1.071126e+00 1.975111e+00 1.882725e+00 1.539815e+00 3.059816e-01 -7.874228e-01 6.754909e-01 -1.351726e+00 3.300800e+00 3.045727e-02 1.200076e+00 3.721302e-01 1.252077e+00 1.336307e-01 -1.216866e+00 -3.117621e-01 -3.975073e-02 1.836838e-01 -2.074702e-01 -4.094728e-01 4.559612e-01
<VARIANCE> 39
 1.396014e+02 1.072916e+02 1.421684e+02 1.601349e+02 1.750541e+02 2.269252e+02 2.458696e+02 3.111812e+02 1.922624e+02 1.809919e+02 2.119028e+02 1.623216e+02 1.516577e+02 2.973946e+01 1.118266e+01 1.765891e+01 1.656549e+01 1.476216e+01 1.659125e+01 1.905683e+01 1.627933e+01 1.619599e+01 1.529488e+01 1.558407e+01 1.482810e+01 8.808671e+00 3.576578e+00 3.088867e+00 2.789900e+00 3.436392e+00 3.503159e+00 6.289230e+00 4.152983e+00 3.685653e+00 4.526018e+00 4.215805e+00 4.301010e+00 3.460329e+00 6.881054e+00
<GCONST> 1.929996e+02
<MIXTURE> 2 2.770404e-01
<MEAN> 39
 -2.722189e+01 -1.850271e+00 1.134015e+01 -5.692118e-01 -9.084178e+00 -1.176610e+01 5.749284e+00 2.393793e+00 -7.210077e+00 -7.418299e-02 -2.044187e+00 8.657970e+00 9.602174e+01 1.917622e+00 -6.833575e-01 6.685545e-01 1.516294e+00 -2.703883e-01 5.613351e-01 1.034428e+00 1.912538e+00 1.450649e+00 5.431787e-01 -3.972014e-02 5.745455e-01 -1.476279e+00 1.081233e+00 3.160044e-01 4.231944e-01 5.161414e-01 6.444697e-01 6.818059e-01 -4.843300e-02 7.364982e-02 3.432778e-01 2.399732e-01 1.546860e-03 -3.681799e-01 -6.158925e-01
<VARIANCE> 39
 3.563865e+02 1.629801e+02 2.223189e+02 1.934149e+02 1.921223e+02 2.640550e+02 2.705472e+02 3.041479e+02 2.184029e+02 1.964467e+02 2.342769e+02 1.789574e+02 6.853529e+02 1.980980e+01 1.313683e+01 1.704124e+01 1.636204e+01 1.824432e+01 1.844769e+01 1.719177e+01 2.023256e+01 1.805715e+01 1.619221e+01 1.666058e+01 1.559141e+01 2.427844e+01 5.081917e+00 2.908065e+00 3.624273e+00 2.950114e+00 2.923613e+00 3.448435e+00 3.536925e+00 3.752087e+00 3.718045e+00 3.388096e+00 3.266795e+00 2.848668e+00 7.083943e+00
<GCONST> 1.972794e+02
<MIXTURE> 3 2.372134e-01
<MEAN> 39
 -2.851982e+01 -4.648506e+00 9.785675e+00 -2.760898e+00 -1.080933e+01 -1.375204e+01 5.243663e+00 2.124653e+00 -8.749112e+00 -1.562807e+00 -2.123255e+00 8.132703e+00 9.259650e+01 1.214773e+00 -1.497511e+00 -6.905972e-01 2.751449e-01 -1.348793e+00 -5.877307e-01 -9.139982e-01 7.658505e-01 1.048169e-01 -8.728386e-01 -9.667630e-01 -3.294732e-01 -2.809865e+00 6.967051e-01 2.419434e-01 -1.269972e-01 2.455008e-01 4.090407e-01 4.745204e-01 -3.918769e-01 -2.150355e-01 1.614862e-01 4.555041e-02 -7.463288e-02 -5.229667e-01 -8.164773e-01
<VARIANCE> 39
 2.868469e+02 1.384156e+02 2.137611e+02 1.762752e+02 1.892837e+02 2.632125e+02 2.770343e+02 3.160620e+02 2.288254e+02 1.991925e+02 2.523770e+02 1.894433e+02 5.824799e+02 1.796008e+01 1.148984e+01 1.584167e+01 1.445962e+01 1.907365e+01 1.815927e+01 1.757972e+01 2.014543e+01 1.848041e+01 1.614959e+01 1.643783e+01 1.607646e+01 2.008685e+01 4.313820e+00 2.576051e+00 3.402696e+00 2.866001e+00 2.890904e+00 3.324600e+00 3.471234e+00 3.858953e+00 3.734565e+00 3.383149e+00 3.481765e+00 3.023512e+00 6.278607e+00
<GCONST> 1.958965e+02
<MIXTURE> 4 2.720967e-01
<MEAN> 39
 -4.236008e+01 -4.484394e-01 1.684221e+01 -6.220226e+00 -1.214789e+01 -1.494509e+01 6.055725e+00 7.548397e-01 -1.223331e+01 1.286042e+00 -2.858833e+00 9.523520e+00 1.177587e+02 5.914651e+00 -2.124260e+00 5.431136e+00 4.218971e+00 -6.990529e-01 -1.422087e-01 6.536716e-01 1.089289e+00 2.102706e-01 -7.241918e-01 -1.513319e+00 -2.858269e-01 -1.778921e+00 3.340887e+00 -5.372437e-01 9.271709e-01 4.899227e-01 9.248987e-01 5.606006e-01 -1.418948e+00 -2.934228e-01 -1.341116e-01 -9.927344e-02 -2.423479e-01 -8.562513e-01 -4.519213e-01
<VARIANCE> 39
 1.499497e+02 1.151781e+02 1.532106e+02 1.556406e+02 1.689593e+02 2.292852e+02 2.604784e+02 3.066247e+02 1.970164e+02 1.944062e+02 2.250196e+02 1.621099e+02 1.363907e+02 3.319821e+01 1.072079e+01 1.661994e+01 1.702002e+01 1.573374e+01 1.666163e+01 1.880614e+01 1.595096e+01 1.595812e+01 1.567501e+01 1.641702e+01 1.507066e+01 8.533441e+00 3.351212e+00 2.941296e+00 2.743929e+00 3.238131e+00 3.450327e+00 5.187042e+00 4.040460e+00 3.688337e+00 4.584050e+00 4.062654e+00 4.159384e+00 3.103161e+00 8.185218e+00
<GCONST> 1.929520e+02
<TRANSP> 5
 0.000000e+00 1.000000e+00 0.000000e+00 0.000000e+00 0.000000e+00
 0.000000e+00 7.799891e-01 2.200109e-01 0.000000e+00 0.000000e+00
 0.000000e+00 0.000000e+00 6.344434e-01 3.655565e-01 0.000000e+00
 0.000000e+00 0.000000e+00 0.000000e+00 7.030957e-01 2.969043e-01
 0.000000e+00 0.000000e+00 0.000000e+00 0.000000e+00 0.000000e+00
<ENDHMM>
~h "v"
<BEGINHMM>
<NUMSTATES> 5
<STATE> 2
<NUMMIXES> 4
<MIXTURE> 1 2.284989e-01
<MEAN> 39
 1.417721e+01 -2.582956e+01 1.323679e+01 -1.753432e+01 -1.102861e+01 -1.900164e+01 7.387247e+00 1.357313e+01 1.659644e+01 9.694132e+00 -2.152117e+00 8.341043e+00 1.436788e+02 1.823280e+00 2.641196e+00 1.859420e+00 3.058668e+00 1.071851e+00 -1.350968e+00 -3.215850e+00 -2.986143e+00 -1.071533e+00 1.649208e+00 3.198457e-01 2.702161e-01 -3.847192e+00 -1.581490e-01 1.265526e+00 1.556712e-01 2.036885e+00 1.827978e+00 1.641129e+00 -6.911290e-01 -9.428461e-01 -1.080156e+00 -1.597003e-01 -1.298853e-01 -1.200242e-01 -2.144732e+00
<VARIANCE> 39
 6.704480e+01 1.638653e+02 2.434122e+02 2.036877e+02 2.445645e+02 2.670046e+02 6.468317e+02 2.740299e+02 2.736568e+02 3.682985e+02 3.304770e+02 3.640687e+02 1.740464e+02 1.873509e+00 6.344039e+00 8.032086e+00 8.851418e+00 1.510697e+01 1.464783e+01 1.366368e+01 1.318531e+01 1.772532e+01 1.429473e+01 1.918000e+01 1.469830e+01 4.748763e+00 7.104020e-01 1.173343e+00 1.647794e+00 1.938245e+00 2.291169e+00 2.801237e+00 3.543241e+00 2.441814e+00 2.323239e+00 2.709770e+00 2.697710e+00 2.450995e+00 1.049910e+00
<GCONST> 1.821835e+02
<MIXTURE> 2 2.835473e-01
<MEAN> 39
 1.207615e+01 -2.733945e+01 1.627890e+01 -2.083099e+01 -1.104515e+01 -1.884166e+01 -5.190779e+00 1.345357e+01 1.393608e+01 1.599767e+01 -2.023319e+00 5.818140e+00 1.504285e+02 6.142070e-01 -1.239525e+00 -9.579616e-01 -5.527605e-01 7.173355e-01 1.047214e+00 8.927946e-01 4.461143e-01 9.982288e-03 5.921381e-01 4.984229e-01 -9.797028e-01 -4.263749e-02 2.093016e-01 1.079883e+00 2.224203e-01 1.085492e+00 5.630983e-01 1.579525e-01 -6.686426e-01 -1.151687e+00 -8.456946e-01 -2.353370e-01 7.673229e-02 2.382397e-01 -1.180325e+00
<VARIANCE> 39
 6.922129e+01 1.333489e+02 2.076695e+02 2.029980e+02 2.624660e+02 2.487579e+02 9.518870e+02 2.849189e+02 2.872887e+02 5.139931e+02 3.266289e+02 4.163994e+02 1.370800e+02 1.394068e+00 3.635172e+00 3.438314e+00 4.644003e+00 5.218611e+00 6.528878e+00 8.610179e+00 9.579447e+00 1.035911e+01 7.275194e+00 1.176959e+01 8.298126e+00 2.053955e+00 4.950201e-01 6.133819e-01 7.465123e-01 1.077770e+00 1.170095e+00 1.756426e+00 2.479465e+00 1.366328e+00 2.316266e+00 1.795416e+00 1.457172e+00 1.496606e+00 5.987092e-01
<GCONST> 1.678788e+02
<MIXTURE> 3 2.658854e-01
<MEAN> 39
 1.066773e+01 -2.846714e+01 1.690691e+01 -2.134608e+01 -1.055315e+01 -2.172464e+01 -6.311494e+00 1.220151e+01 1.382030e+01 1.751789e+01 -3.526562e+00 6.053556e+00 1.501827e+02 3.736830e-01 -1.467171e+00 -1.120471e+00 -7.841731e-01 6.246808e-01 1.178121e+00 1.222296e+00 7.121446e-01 -1.257300e-01 3.617331e-01 3.388343e-01 -1.878941e+00 2.035903e-01 1.133228e-01 1.115652e+00 1.139323e-01 1.150648e+00 5.380750e-01 3.552989e-01 -7.021002e-01 -1.240953e+00 -1.033373e+00 -3.359938e-01 1.222484e-02 -1.942101e-02 -1.287235e+00
<VARIANCE> 39
 7.062469e+01 1.344591e+02 2.199947e+02 2.089035e+02 2.651337e+02 2.542272e+02 9.280764e+02 2.867943e+02 2.936451e+02 5.226642e+02 3.244126e+02 4.049423e+02 1.302076e+02 1.587644e+00 4.107883e+00 3.622979e+00 4.887100e+00 5.426301e+00 6.683218e+00 9.479383e+00 1.018497e+01 1.010645e+01 7.320860e+00 1.260269e+01 8.633033e+00 2.298498e+00 6.511285e-01 6.487538e-01 8.261500e-01 1.188643e+00 1.171624e+00 1.757938e+00 2.510191e+00 1.379593e+00 2.197780e+00 1.757283e+00 1.589608e+00 1.616191e+00 7.200645e-01
<GCONST> 1.695645e+02
<MIXTURE> 4 2.220339e-01
<MEAN> 39
 1.358431e+01 -2.719524e+01 1.467439e+01 -1.740103e+01 -1.178844e+01 -2.233562e+01 1.775347e+00 1.234569e+01 1.402278e+01 1.340221e+01 -2.193174e+00 5.468333e+00 1.438150e+02 1.545914e+00 2.313923e+00 1.805971e+00 2.830513e+00 1.077734e+00 -1.370444e+00 -3.059436e+00 -3.337751e+00 -2.086963e+00 8.581244e-01 5.333067e-01 1.786768e-03 -3.406567e+00 -6.334634e-02 1.085147e+00 -7.722633e-02 1.727361e+00 1.673753e+00 1.581287e+00 -5.429761e-01 -1.022487e+00 -1.114031e+00 -3.448202e-01 -2.306999e-01 -3.834316e-01 -1.925043e+00
<VARIANCE> 39
 7.208365e+01 1.674617e+02 2.518740e+02 2.348944e+02 2.598937e+02 2.762220e+02 7.139703e+02 2.824559e+02 3.126553e+02 3.963560e+02 3.554301e+02 3.996129e+02 1.914423e+02 1.888772e+00 5.864948e+00 8.654780e+00 8.101687e+00 1.379224e+01 1.406676e+01 1.269773e+01 1.268257e+01 1.888803e+01 1.467793e+01 1.894262e+01 1.510089e+01 4.078149e+00 6.807134e-01 1.136328e+00 1.631611e+00 1.821941e+00 2.217225e+00 2.572867e+00 3.400237e+00 2.346250e+00 2.384514e+00 2.604895e+00 2.709130e+00 2.620276e+00 1.011758e+00
<GCONST> 1.824454e+02
<STATE> 3
<NUMMIXES> 4
<MIXTURE> 1 2.161406e-01
<MEAN> 39
 1.875446e+01 -1.628567e+01 1.773685e+01 -3.183911e+00 -4.129386e-02 -2.026487e+01 5.406950e-01 1.522483e+00 1.556856e+01 1.290800e+01 -9.452762e+00 1.093091e+01 1.269064e+02 -6.829053e-01 7.149955e+00 2.146634e+00 9.623803e+00 6.785061e+00 6.607152e+00 -3.651443e+00 -3.738272e+00 -3.696393e+00 1.558031e+00 3.646597e-01 -1.468268e+00 -1.052868e+01 -1.807279e+00 5.775146e-01 -7.780538e-02 4.554631e-01 4.373329e-01 2.090584e+00 1.580978e+00 1.341092e+00 -5.585980e-01 -8.925251e-01 7.628257e-01 1.477680e-01 -5.866128e-01
<VARIANCE> 39
 4.974553e+01 1.406347e+02 1.812463e+02 2.381676e+02 2.682734e+02 2.847109e+02 3.406949e+02 2.637568e+02 2.563495e+02 2.799523e+02 2.139462e+02 2.396696e+02 2.178989e+02 8.450878e+00 1.332350e+01 1.520426e+01 1.826590e+01 1.937815e+01 2.559803e+01 2.815126e+01 2.239402e+01 2.079970e+01 2.078749e+01 2.342001e+01 1.940996e+01 1.015210e+01 1.461422e+00 2.165089e+00 1.869982e+00 4.212489e+00 4.597324e+00 5.185408e+00 3.613153e+00 3.363835e+00 3.462272e+00 3.105538e+00 3.119128e+00 3.178794e+00 3.543730e+00
<GCONST> 1.935918e+02
<MIXTURE> 2 2.923649e-01
<MEAN> 39
 2.123694e+01 -1.895080e+01 1.994109e+01 -3.179904e+00 -9.486835e-01 -1.070220e+01 -2.254999e+01 -6.298542e-01 -1.160026e+01 1.881520e+01 1.085059e+01 -6.200868e+00 1.305215e+02 -6.756330e-01 4.926669e+00 3.034829e-01 5.665337e+00 4.876383e+00 5.146300e+00 3.076146e+00 -2.613637e+00 -4.111567e+00 -3.464716e+00 1.065022e+00 1.347486e+00 -7.847369e+00 -1.544144e+00 4.380373e-01 -6.025798e-01 1.396029e-01 1.882394e-01 8.039728e-01 1.521289e+00 1.124013e+00 1.546999e+00 -1.316594e-01 -1.111454e+00 2.517048e-01 -4.926407e-01
<VARIANCE> 39
 6.947978e+01 1.864528e+02 2.720337e+02 2.868621e+02 2.981698e+02 3.448497e+02 4.197856e+02 3.769732e+02 3.944064e+02 4.013695e+02 3.700622e+02 2.708820e+02 2.509074e+02 1.059957e+01 1.085676e+01 1.370570e+01 1.358925e+01 1.800512e+01 2.176637e+01 2.539750e+01 2.201917e+01 2.971497e+01 2.178104e+01 2.357412e+01 1.829610e+01 9.090470e+00 1.939129e+00 2.063044e+00 2.068671e+00 2.699135e+00 3.306080e+00 4.491420e+00 3.798168e+00 3.317230e+00 3.900254e+00 3.709907e+00 3.109972e+00 2.848563e+00 2.639809e+00
<GCONST> 1.961158e+02
<MIXTURE> 3 2.660003e-01
<MEAN> 39
 1.921340e+01 -2.041912e+01 2.060047e+01 -4.923089e+00 -2.113579e+00 -1.453861e+01 -2.231376e+01 1.796717e+00 -1.169063e+01 2.024334e+01 9.332637e+00 -6.150201e+00 1.299774e+02 -1.220667e+00 4.762150e+00 -1.809205e-01 5.321419e+00 4.075365e+00 4.330708e+00 2.228846e+00 -2.986619e+00 -4.153333e+00 -3.811146e+00 5.556163e-01 6.156154e-01 -7.443341e+00 -1.702174e+00 2.552015e-01 -8.453028e-01 -3.938347e-02 8.530508e-02 9.056847e-01 1.315516e+00 8.013561e-01 1.419350e+00 -3.979187e-01 -1.067414e+00 -2.379128e-02 -5.370705e-01
<VARIANCE> 39
 6.957276e+01 1.913022e+02 2.655408e+02 3.179035e+02 3.151513e+02 3.612752e+02 4.127108e+02 3.705784e+02 4.133598e+02 4.059449e+02 3.967245e+02 2.762607e+02 2.783616e+02 1.676152e+01 1.134689e+01 1.474314e+01 1.445217e+01 1.865679e+01 2.068519e+01 2.342326e+01 1.996126e+01 3.065709e+01 1.944386e+01 2.515198e+01 1.856921e+01 9.063112e+00 2.519820e+00 2.396745e+00 2.331666e+00 2.813086e+00 3.330833e+00 4.150264e+00 3.539657e+00 3.093838e+00 3.964816e+00 3.593097e+00 3.214592e+00 2.963351e+00 2.485738e+00
<GCONST> 1.973354e+02
<MIXTURE> 4 2.254698e-01
<MEAN> 39
 1.743888e+01 -1.688781e+01 1.864799e+01 -4.124322e+00 -2.865634e+00 -2.297066e+01 5.088215e-01 4.718661e-01 1.270659e+01 1.340946e+01 -9.781391e+00 9.884983e+00 1.277215e+02 -1.023486e+00 6.273417e+00 1.622129e+00 8.731877e+00 5.908444e+00 5.832019e+00 -3.300658e+00 -3.745535e+00 -4.049254e+00 5.350158e-01 -1.271072e-01 -2.091945e+00 -9.982106e+00 -2.031810e+00 2.224173e-01 -5.454975e-01 2.294080e-01 4.783934e-01 2.052668e+00 1.028293e+00 1.109679e+00 -6.243652e-01 -9.944502e-01 4.621734e-01 -2.077518e-01 -7.594243e-01
<VARIANCE> 39
 5.266224e+01 1.433599e+02 1.982027e+02 2.448166e+02 2.867656e+02 2.796641e+02 3.940245e+02 2.770432e+02 2.726928e+02 2.918588e+02 2.389093e+02 2.689435e+02 2.397568e+02 1.161912e+01 1.322400e+01 1.460971e+01 1.810312e+01 2.053489e+01 2.426056e+01 2.587795e+01 2.367730e+01 2.106779e+01 2.127099e+01 2.255070e+01 1.943927e+01 1.105825e+01 2.139653e+00 2.349015e+00 2.042744e+00 4.080802e+00 4.356926e+00 4.785511e+00 3.561286e+00 3.291148e+00 3.613302e+00 3.038180e+00 3.137443e+00 3.106872e+00 3.068506e+00
<GCONST> 1.949847e+02
<STATE> 4
<NUMMIXES> 4
<MIXTURE> 1 2.524658e-01
<MEAN> 39
 1.234006e+01 -2.715734e-01 1.992826e+01 1.594306e+01 1.568316e+01 4.949889e+00 -4.174028e+00 -3.491187e+00 -3.314771e+00 1.260102e+01 5.953121e-01 3.951215e+00 1.054145e+02 -2.972081e+00 2.897348e+00 8.057963e-01 2.618563e+00 1.524003e+00 3.001164e+00 2.267491e+00 1.974787e+00 -1.002815e-01 -8.843301e-01 3.156182e-01 6.798014e-01 -3.477020e+00 3.532258e-02 -2.228853e+00 -4.061812e-01 -3.116440e+00 -2.356445e+00 -2.616613e+00 2.511598e-02 1.436091e+00 1.518706e+00 6.638360e-02 -2.414567e-01 4.138529e-01 3.351323e+00
<VARIANCE> 39
 1.110667e+02 1.579402e+02 1.238540e+02 1.943959e+02 1.520076e+02 2.455324e+02 2.284479e+02 2.354258e+02 3.652631e+02 2.184078e+02 2.734084e+02 2.240962e+02 2.151375e+02 2.163914e+01 2.149955e+01 1.074700e+01 3.025102e+01 2.484465e+01 4.060540e+01 2.618856e+01 1.902389e+01 2.311844e+01 1.802896e+01 1.821181e+01 1.481625e+01 3.341111e+01 3.260503e+00 2.694732e+00 2.921366e+00 4.158011e+00 3.917400e+00 4.878277e+00 6.715586e+00 4.410324e+00 4.313459e+00 5.056056e+00 4.498302e+00 4.068130e+00 2.918614e+00
<GCONST> 1.989027e+02
<MIXTURE> 2 2.439839e-01
<MEAN> 39
 -1.442283e+01 -6.328189e+00 1.081490e+01 9.196321e+00 1.945140e+00 -2.470002e-01 4.697128e+00 1.044333e+01 3.204178e+00 4.563623e+00 -4.251585e+00 5.670887e+00 9.394293e+01 -1.671592e-01 -1.326675e+00 -1.271149e+00 -2.169667e+00 -1.472564e+00 -1.213426e+00 -1.166797e-01 6.812891e-01 7.851429e-01 -1.568867e-02 4.107279e-01 4.257368e-01 5.994085e-01 1.621136e+00 -1.006103e-02 2.651390e-01 -4.137914e-01 -9.463359e-02 -5.424286e-01 -2.964276e-01 -3.075940e-01 3.462052e-02 2.510720e-01 2.116871e-01 1.918249e-02 6.633949e-01
<VARIANCE> 39
 3.243422e+02 1.611290e+02 1.879934e+02 1.753523e+02 1.879367e+02 2.167195e+02 2.014078e+02 1.891085e+02 1.984323e+02 1.819056e+02 1.696090e+02 1.694221e+02 2.950495e+02 4.057860e+01 1.579542e+01 1.547648e+01 2.147334e+01 2.077116e+01 2.739042e+01 2.159043e+01 2.077906e+01 1.986917e+01 1.705361e+01 1.751225e+01 1.502506e+01 2.595065e+01 5.047660e+00 3.696467e+00 3.139069e+00 4.903714e+00 4.504846e+00 5.412102e+00 4.805580e+00 3.990900e+00 4.174930e+00 3.442411e+00 3.375499e+00 2.886013e+00 3.978562e+00
<GCONST> 1.980576e+02
<MIXTURE> 3 2.853758e-01
<MEAN> 39
 9.148711e+00 -6.729264e-01 1.866789e+01 1.496658e+01 1.298353e+01 4.553559e+00 -4.881006e+00 -3.111139e+00 -6.318826e+00 1.057171e+01 1.566971e+00 2.369207e-01 1.036558e+02 -4.766638e+00 1.295985e+00 -7.602768e-01 9.186938e-01 2.007980e-01 1.849010e+00 1.239982e+00 1.274665e+00 2.382582e-01 -1.568120e+00 -8.552582e-01 -9.927544e-02 -3.019731e+00 -2.541355e-01 -2.541392e+00 -6.581640e-01 -3.062979e+00 -2.378041e+00 -2.566802e+00 -7.599041e-01 9.070176e-01 1.091227e+00 3.690584e-01 -3.370711e-01 7.872304e-02 3.045034e+00
<VARIANCE> 39
 1.540423e+02 1.596415e+02 1.347939e+02 1.939705e+02 1.503953e+02 2.503266e+02 2.652150e+02 2.519823e+02 3.459572e+02 2.237585e+02 2.891250e+02 2.249639e+02 2.708552e+02 3.886579e+01 2.014704e+01 1.231681e+01 2.506460e+01 2.383547e+01 3.899390e+01 2.835083e+01 1.892807e+01 2.371298e+01 1.914623e+01 1.982870e+01 1.672184e+01 3.592351e+01 3.490774e+00 2.845162e+00 3.761185e+00 3.817535e+00 3.804935e+00 4.707861e+00 5.836809e+00 4.281087e+00 4.860699e+00 4.680197e+00 4.140232e+00 3.800921e+00 3.066432e+00
<GCONST> 2.006299e+02
<MIXTURE> 4 2.181395e-01
<MEAN> 39
