~o
<STREAMINFO> 1 39
<VECSIZE> 39<NULLD><MFCC_D_A_0><DIAGC>
~v "varFloor1"
<VARIANCE> 39
 6.753474e+00 3.412362e+00 5.607597e+00 4.796462e+00 3.472081e+00 4.011722e+00 4.412065e+00 3.618229e+00 3.682593e+00 3.039560e+00 2.639483e+00 2.510356e+00 1.295583e+01 2.277723e-01 1.546074e-01 2.184501e-01 2.118108e-01 1.813343e-01 2.097883e-01 2.257618e-01 2.166374e-01 2.009357e-01 1.748309e-01 1.664689e-01 1.534765e-01 2.729284e-01 3.005151e-02 2.352162e-02 2.950290e-02 3.333734e-02 2.970534e-02 3.528604e-02 3.796648e-02 3.764385e-02 3.477007e-02 3.067227e-02 2.924742e-02 2.697526e-02 3.680371e-02
~h "f"
<BEGINHMM>
<NUMSTATES> 5
<STATE> 2
<MEAN> 39
 -2.695787e+01 -1.108461e+01 4.222932e-01 2.514717e+00 -1.305260e+00 1.585884e-01 -5.179446e+00 9.230134e-01 -4.407928e+00 3.950419e+00 -3.025262e+00 2.611314e+00 8.717255e+01 -1.559020e+00 -1.271145e+00 -1.035302e+00 -4.826680e-01 -4.573887e-01 -1.856332e-01 -5.532525e-01 -2.113753e-01 -5.464119e-02 9.715989e-03 3.610069e-02 -1.411969e-01 8.564507e-01 1.178247e+00 2.136214e-01 2.170756e-01 -2.604263e-01 1.021114e-01 5.919122e-02 2.044121e-01 -2.905346e-02 -1.264000e-02 1.454368e-01 -2.077751e-04 1.330144e-02 6.476700e-01
<VARIANCE> 39
 3.046194e+02 1.668872e+02 1.134943e+02 1.472503e+02 1.356136e+02 1.405111e+02 1.557487e+02 1.559782e+02 1.559206e+02 1.384473e+02 1.326343e+02 1.200754e+02 4.533341e+02 3.526563e+01 1.514623e+01 1.191242e+01 2.031456e+01 1.488465e+01 1.493357e+01 1.646497e+01 1.571046e+01 1.659130e+01 1.514598e+01 1.424683e+01 1.247605e+01 2.645497e+01 5.446394e+00 3.045348e+00 2.317227e+00 3.650469e+00 2.890874e+00 3.034070e+00 3.314924e+00 3.185353e+00 3.336275e+00 3.068474e+00 2.956301e+00 2.534192e+00 3.617642e+00
<GCONST> 1.897722e+02
<STATE> 3
<MEAN> 39
 -2.489325e+01 -1.483826e+01 -1.950167e+00 -1.665531e+00 -2.685406e+00 4.129472e-01 -5.955775e+00 -3.013492e-01 -5.130504e+00 5.394252e+00 -3.275357e+00 2.062644e+00 1.002791e+02 5.138355e+00 -3.096416e-01 -4.982606e-01 -2.740622e+00 6.038580e-02 5.596834e-01 6.127906e-01 -1.080882e-01 2.784162e-01 1.010014e+00 3.483004e-01 -2.892467e-01 4.678206e+00 1.850624e+00 3.126760e-01 2.355115e-01 -9.350109e-01 3.063480e-02 2.609252e-01 3.736672e-01 1.494766e-01 8.396601e-02 2.957619e-01 1.008864e-01 -4.272242e-02 7.348340e-01
<VARIANCE> 39
 4.634385e+02 1.291544e+02 9.093462e+01 1.897165e+02 1.163064e+02 1.221823e+02 1.337257e+02 1.284220e+02 1.537459e+02 1.455605e+02 1.414915e+02 1.101067e+02 3.614966e+02 6.529247e+01 1.702432e+01 1.089022e+01 2.767073e+01 1.518834e+01 1.463425e+01 1.640690e+01 1.482976e+01 2.052483e+01 1.886600e+01 2.029556e+01 1.331809e+01 3.760950e+01 8.719104e+00 3.709686e+00 2.148197e+00 4.683309e+00 2.957263e+00 2.772297e+00 3.117675e+00 2.932462e+00 3.645666e+00 3.353523e+00 3.590333e+00 2.588621e+00 4.533083e+00
<GCONST> 1.924573e+02
<STATE> 4
<MEAN> 39
 7.780322e+00 -1.484397e+01 -2.685747e+00 -2.474028e+01 -2.935426e+00 6.161128e+00 -9.009780e-01 3.723054e-01 -4.039940e+00 1.261825e+01 1.080623e-01 3.355843e-01 1.247314e+02 5.764271e+00 -5.686228e-01 -1.755552e-01 -3.966382e+00 3.113742e-01 1.248423e+00 1.041314e+00 4.976420e-01 6.779650e-01 1.188299e+00 3.053794e-01 -4.914915e-01 4.544872e+00 -7.411462e-01 1.915844e-01 2.246258e-01 2.987065e-01 -9.298903e-02 -9.860287e-02 -7.893933e-02 2.087091e-01 -2.092974e-02 -2.913864e-01 -3.046789e-01 6.976377e-03 -7.808101e-01
<VARIANCE> 39
 7.091653e+02 2.843825e+02 1.618462e+02 6.227030e+02 2.847779e+02 2.590028e+02 2.017746e+02 1.832403e+02 3.212801e+02 2.881064e+02 3.490972e+02 1.940715e+02 4.849171e+02 5.896217e+01 2.476781e+01 1.257932e+01 3.686946e+01 1.955013e+01 1.578658e+01 1.641212e+01 1.498273e+01 2.215556e+01 1.945648e+01 2.431165e+01 1.534374e+01 3.150798e+01 1.136257e+01 3.377235e+00 1.970501e+00 6.845947e+00 3.090240e+00 2.553413e+00 2.849633e+00 2.537127e+00 3.893451e+00 3.489081e+00 3.892364e+00 2.531555e+00 4.220976e+00
<GCONST> 2.026132e+02
<TRANSP> 5
 0.000000e+00 1.000000e+00 0.000000e+00 0.000000e+00 0.000000e+00
 0.000000e+00 8.148147e-01 1.851854e-01 0.000000e+00 0.000000e+00
 0.000000e+00 0.000000e+00 6.696514e-01 3.303486e-01 0.000000e+00
 0.000000e+00 0.000000e+00 0.000000e+00 7.281821e-01 2.718179e-01
 0.000000e+00 0.000000e+00 0.000000e+00 0.000000e+00 0.000000e+00
<ENDHMM>
~h "k"
<BEGINHMM>
<NUMSTATES> 5
<STATE> 2
<MEAN> 39
 -1.482426e+01 -1.960670e+00 1.406653e+01 1.471448e+01 -3.590374e+00 -1.738387e+01 -6.295464e+00 1.087365e+00 -1.308209e+01 4.607251e-01 -2.375764e+00 4.170555e+00 9.046478e+01 -3.385573e+00 2.696694e-01 -4.889535e+00 -3.424892e-02 1.162016e+00 1.367259e+00 -7.991005e-01 5.963681e-01 1.606467e+00 -5.143338e-01 -7.092150e-02 -2.585553e-02 -2.778285e+00 -3.560854e-01 -3.678617e-01 -3.917026e-02 -6.191481e-01 -2.982040e-01 -2.484625e-01 -4.151854e-02 -6.022945e-02 3.414555e-01 2.464086e-01 -1.402094e-01 2.044590e-01 1.526131e+00
<VARIANCE> 39
 4.341515e+02 3.385356e+02 6.768307e+02 2.888592e+02 3.140932e+02 3.848573e+02 4.332031e+02 4.601961e+02 4.153813e+02 2.500308e+02 1.990757e+02 1.724010e+02 1.097002e+03 3.496797e+01 5.313259e+01 4.412405e+01 3.881324e+01 2.990363e+01 4.572653e+01 4.738540e+01 4.644323e+01 4.329034e+01 2.911751e+01 2.182715e+01 2.015889e+01 1.590192e+02 6.710310e+00 1.155982e+01 7.963593e+00 7.528626e+00 5.768858e+00 8.965854e+00 8.761682e+00 8.613626e+00 8.301487e+00 5.710400e+00 4.194910e+00 3.811708e+00 2.620351e+01
<GCONST> 2.234549e+02
<STATE> 3
<MEAN> 39
 -2.843187e+01 -3.695714e+00 -2.359810e+00 1.065262e+01 -1.958504e+00 -1.493085e+01 -9.230026e+00 2.206788e+00 -5.718821e+00 7.945652e-01 -3.432483e+00 5.134238e+00 9.112316e+01 -3.563203e+00 -3.752349e-01 -2.589843e+00 -1.073946e+00 -1.011147e-01 -1.685092e-02 -2.385218e-01 7.304014e-01 1.258007e+00 2.779174e-01 -3.986282e-01 3.424940e-01 2.658860e+00 1.403043e-01 3.064972e-01 8.661453e-01 -6.809762e-02 -2.466031e-01 -6.746799e-02 3.769551e-01 1.342343e-02 -2.778122e-01 5.854788e-02 9.267207e-03 1.492924e-02 4.577539e-01
<VARIANCE> 39
 4.882052e+02 2.775597e+02 3.712701e+02 2.351800e+02 3.225748e+02 3.153202e+02 2.740741e+02 2.667755e+02 2.385266e+02 1.910519e+02 1.738587e+02 1.409418e+02 8.708081e+02 5.171268e+01 4.099162e+01 3.621422e+01 2.505642e+01 2.800329e+01 3.768208e+01 3.173645e+01 3.089440e+01 2.807268e+01 2.304963e+01 1.849182e+01 1.599867e+01 1.115951e+02 9.174364e+00 8.992552e+00 5.660938e+00 5.141304e+00 5.295181e+00 7.513865e+00 6.210834e+00 6.002307e+00 5.355011e+00 4.721114e+00 3.628376e+00 3.227429e+00 2.182705e+01
<GCONST> 2.142598e+02
<STATE> 4
<MEAN> 39
 -3.994215e+01 -1.742121e+00 -7.167394e+00 6.570860e+00 -3.516406e+00 -1.354331e+01 -7.595052e+00 4.110493e+00 -3.308391e+00 1.750409e+00 -4.202140e+00 5.928059e+00 9.743890e+01 -1.165553e+00 6.255338e-01 1.079089e-01 -8.611859e-01 -1.767998e-01 5.286375e-01 6.462457e-01 2.847911e-01 1.117084e-01 2.378459e-01 -1.727792e-01 6.067631e-02 1.271751e+00 7.540571e-01 8.074138e-02 4.093765e-01 1.014588e-02 2.530868e-02 1.817392e-01 1.005881e-01 -1.968204e-01 -1.658545e-01 3.360517e-02 7.052258e-02 -6.432501e-02 -4.153892e-01
<VARIANCE> 39
 4.139717e+02 1.933690e+02 2.233153e+02 2.236261e+02 3.555079e+02 3.102759e+02 2.295911e+02 2.050526e+02 1.862424e+02 1.703383e+02 1.725926e+02 1.419171e+02 6.704592e+02 5.264811e+01 2.269700e+01 2.065821e+01 1.709092e+01 2.163552e+01 2.694078e+01 2.252612e+01 2.052830e+01 1.920035e+01 1.777981e+01 1.541761e+01 1.440262e+01 7.015832e+01 7.847956e+00 4.487565e+00 3.642328e+00 3.375271e+00 4.176545e+00 5.147600e+00 4.375565e+00 4.036233e+00 3.770074e+00 3.669046e+00 3.017596e+00 2.844396e+00 1.294599e+01
<GCONST> 2.034270e+02
<TRANSP> 5
 0.000000e+00 1.000000e+00 0.000000e+00 0.000000e+00 0.000000e+00
 0.000000e+00 7.732809e-01 2.267192e-01 0.000000e+00 0.000000e+00
 0.000000e+00 0.000000e+00 7.181709e-01 2.818290e-01 0.000000e+00
 0.000000e+00 0.000000e+00 0.000000e+00 7.694832e-01 2.305168e-01
 0.000000e+00 0.000000e+00 0.000000e+00 0.000000e+00 0.000000e+00
<ENDHMM>
~h "n"
<BEGINHMM>
<NUMSTATES> 5
<STATE> 2
<MEAN> 39
 1.381187e+01 -2.194119e+00 3.235241e+01 7.753375e+00 -2.961106e+00 2.725365e+00 1.329971e+01 -7.863369e-01 -3.079674e+00 7.191271e+00 -5.914938e+00 9.896122e+00 1.098755e+02 2.682911e-01 1.377064e+00 2.358280e-01 1.601029e+00 2.008888e-01 7.280542e-01 1.194042e+00 -1.003100e+00 4.504977e-02 2.697933e-01 -6.533830e-01 1.384035e-01 -1.220244e+00 -2.672038e-01 -4.388757e-01 -6.660372e-01 -3.625282e-01 2.768059e-01 -2.027213e-01 -5.368057e-01 4.890330e-01 2.013164e-01 -8.355531e-02 1.084034e-01 -2.221323e-01 2.225241e-01
<VARIANCE> 39
 1.874065e+02 3.165025e+02 2.706946e+02 5.398382e+02 3.061679e+02 4.089144e+02 5.852217e+02 6.217911e+02 4.891584e+02 4.377131e+02 4.191912e+02 4.004020e+02 5.380104e+02 1.639425e+01 2.228776e+01 2.337361e+01 3.825851e+01 2.274034e+01 2.846947e+01 3.949063e+01 5.245755e+01 3.081721e+01 2.555670e+01 2.548325e+01 2.470352e+01 2.769667e+01 2.192372e+00 2.775935e+00 3.293151e+00 6.318181e+00 3.983828e+00 4.979871e+00 6.517400e+00 8.380445e+00 5.118447e+00 4.267654e+00 4.371389e+00 4.263800e+00 2.259266e+00
<GCONST> 2.115900e+02
<STATE> 3
<MEAN> 39
 1.285990e+01 9.794760e-02 2.992246e+01 1.279902e+01 -1.122248e+00 4.409655e+00 1.387631e+01 -1.199293e-01 -1.714575e+00 6.699036e+00 -7.362657e+00 8.933090e+00 1.051463e+02 -1.229622e+00 -6.604500e-01 -1.769458e+00 -5.185438e-01 8.249177e-01 -5.959109e-02 -9.144555e-01 1.588792e+00 5.442961e-01 -2.180935e-01 1.098316e-01 -6.975652e-01 -3.620704e-01 -4.660827e-01 -4.720152e-01 -6.339443e-01 -6.194527e-01 9.283384e-02 -2.215457e-01 -5.640876e-01 3.753408e-01 8.592116e-02 -8.976317e-02 2.306345e-01 -1.745721e-01 1.788034e-01
<VARIANCE> 39
 1.928286e+02 3.029508e+02 2.513167e+02 4.531140e+02 2.968343e+02 4.060154e+02 5.351010e+02 5.563929e+02 4.533586e+02 4.313833e+02 3.925642e+02 3.889862e+02 5.051370e+02 1.713679e+01 2.395770e+01 2.181754e+01 3.473065e+01 2.204773e+01 2.878221e+01 3.697422e+01 4.577512e+01 2.822508e+01 2.245760e+01 2.371537e+01 2.264536e+01 2.913262e+01 2.318851e+00 2.864140e+00 3.211665e+00 5.133147e+00 3.853374e+00 5.038375e+00 5.885589e+00 7.619255e+00 4.755220e+00 3.864756e+00 4.000768e+00 3.848231e+00 2.148265e+00
<GCONST> 2.094632e+02
<STATE> 4
<MEAN> 39
 6.241992e+00 -2.666401e+00 2.228213e+01 1.099410e+01 1.033315e+00 3.806204e+00 1.083301e+01 6.569512e+00 3.713818e-01 4.779621e+00 -6.152989e+00 6.121078e+00 9.887465e+01 -1.966923e+00 -1.043823e+00 -2.610698e+00 -1.495811e+00 4.086808e-01 -5.125654e-01 -1.623710e+00 1.174393e+00 3.645688e-01 -2.966371e-01 4.014525e-01 -8.389237e-01 -6.705082e-01 -1.468625e-01 1.139931e-02 -1.418245e-01 -2.212311e-01 -7.780056e-02 -8.214786e-02 -1.836736e-01 -3.157306e-01 -9.385666e-02 2.352624e-03 9.689973e-02 2.389203e-02 7.546771e-02
<VARIANCE> 39
 2.574688e+02 3.221245e+02 3.072665e+02 4.470209e+02 2.898934e+02 3.643379e+02 4.880829e+02 4.920482e+02 3.934439e+02 3.935037e+02 3.222401e+02 3.088684e+02 7.549996e+02 1.448696e+01 1.834667e+01 1.828707e+01 2.408778e+01 1.911369e+01 2.244910e+01 2.611572e+01 3.068321e+01 2.353137e+01 1.938092e+01 1.975801e+01 1.842740e+01 1.996111e+01 2.059893e+00 2.492740e+00 2.892065e+00 3.939721e+00 3.167977e+00 4.142766e+00 4.589088e+00 5.455466e+00 3.854310e+00 3.316376e+00 3.302610e+00 3.070572e+00 1.973039e+00
<GCONST> 2.037154e+02
<TRANSP> 5
 0.000000e+00 1.000000e+00 0.000000e+00 0.000000e+00 0.000000e+00
 0.000000e+00 6.884037e-01 3.115963e-01 0.000000e+00 0.000000e+00
 0.000000e+00 0.000000e+00 6.139768e-01 3.860232e-01 0.000000e+00
 0.000000e+00 0.000000e+00 0.000000e+00 6.949105e-01 3.050895e-01
 0.000000e+00 0.000000e+00 0.000000e+00 0.000000e+00 0.000000e+00
<ENDHMM>
~h "r"
<BEGINHMM>
<NUMSTATES> 5
<STATE> 2
<MEAN> 39
 3.108916e+01 -1.765876e+01 1.847071e+00 3.986076e+00 1.973944e+01 -2.232871e+01 -2.398150e+01 5.420479e+00 -9.825182e+00 5.571034e+00 7.530389e-01 6.876161e+00 1.257521e+02 -4.556965e-01 -7.982992e-01 2.596523e-01 5.141620e-01 4.242864e-01 -6.512959e-01 -4.616649e-01 5.935217e-01 8.571761e-01 2.500976e-01 -1.029256e-01 -1.597212e-01 -1.723645e-01 -9.926789e-01 3.552369e-01 1.014648e+00 -3.266292e-01 -1.230071e+00 3.316334e-01 9.885420e-01 1.026895e-01 -1.872487e-01 -8.188014e-02 -8.900043e-02 -2.098987e-04 -1.362326e-01
<VARIANCE> 39
 1.890528e+02 2.177175e+02 7.270667e+02 3.857115e+02 5.313029e+02 8.629648e+02 1.187199e+03 5.101884e+02 3.994395e+02 4.344664e+02 2.777571e+02 2.482261e+02 2.485983e+02 2.000998e+01 1.315661e+01 4.182101e+01 2.627175e+01 3.619691e+01 3.743031e+01 3.814904e+01 3.345795e+01 2.782186e+01 2.461704e+01 1.999090e+01 1.808522e+01 9.784121e+00 2.112745e+00 2.194430e+00 3.825033e+00 3.175482e+00 4.540037e+00 6.220453e+00 5.984548e+00 5.246254e+00 4.363407e+00 4.077525e+00 3.584877e+00 3.262519e+00 1.257366e+00
<GCONST> 2.079415e+02
<STATE> 3
<MEAN> 39
 2.644054e+01 -1.919088e+01 7.609029e+00 5.148062e+00 1.486376e+01 -2.424628e+01 -1.914289e+01 8.174250e+00 -8.641893e+00 5.934518e+00 4.578731e-01 6.945229e+00 1.249528e+02 -2.577526e+00 1.510890e-01 2.619880e+00 -2.504092e-01 -2.340090e+00 6.245443e-01 2.152869e+00 3.640344e-01 1.666511e-02 1.241496e-01 -4.128492e-02 -2.395818e-01 -5.688769e-01 -6.084130e-01 4.389783e-01 3.857047e-01 -4.359071e-01 -5.918973e-01 5.937133e-01 6.081070e-01 -3.119258e-01 -2.696208e-01 4.294312e-02 4.313832e-02 -5.399283e-02 -1.880359e-01
<VARIANCE> 39
 2.547915e+02 2.361315e+02 8.725583e+02 3.727632e+02 5.283376e+02 8.622812e+02 1.193101e+03 5.376736e+02 4.663238e+02 4.261789e+02 2.749022e+02 2.514000e+02 3.413513e+02 1.938462e+01 1.538421e+01 3.447278e+01 2.419531e+01 2.922507e+01 3.861842e+01 3.721588e+01 3.288817e+01 2.811881e+01 2.388039e+01 1.974440e+01 1.763934e+01 1.256770e+01 2.128250e+00 2.294428e+00 3.936572e+00 3.184769e+00 4.494597e+00 6.130369e+00 5.951119e+00 5.231166e+00 4.348660e+00 3.729664e+00 3.192135e+00 2.946146e+00 1.294777e+00
<GCONST> 2.085623e+02
<STATE> 4
<MEAN> 39
 1.676495e+01 -1.677158e+01 1.609784e+01 2.769382e+00 5.869070e+00 -1.911655e+01 -7.754803e+00 7.358201e+00 -7.857280e+00 7.003066e+00 -4.265394e-01 5.769692e+00 1.199310e+02 -2.948141e+00 1.180937e+00 2.208385e+00 -1.268019e+00 -2.294863e+00 2.041866e+00 2.169269e+00 -8.623460e-01 -2.106697e-01 2.781508e-01 -1.240411e-01 -4.549733e-01 -1.243635e+00 -1.911429e-02 3.065888e-01 -2.691985e-01 -1.737480e-01 1.600914e-01 2.282578e-01 -1.236642e-01 -2.748221e-01 -2.558033e-02 4.725401e-02 -3.747201e-03 -5.214131e-03 -1.590642e-01
<VARIANCE> 39
 3.628787e+02 2.845945e+02 1.107988e+03 4.266433e+02 4.832497e+02 7.354052e+02 9.517759e+02 5.701810e+02 5.383489e+02 4.185916e+02 2.913476e+02 2.714146e+02 5.737289e+02 1.694437e+01 1.536185e+01 2.318296e+01 1.891651e+01 2.135401e+01 3.018953e+01 3.069788e+01 2.681598e+01 2.391467e+01 2.067707e+01 1.802538e+01 1.565839e+01 1.167121e+01 1.732357e+00 1.993197e+00 3.363606e+00 3.126289e+00 3.431745e+00 4.554520e+00 4.513584e+00 4.299665e+00 3.910990e+00 3.270060e+00 2.892584e+00 2.759843e+00 1.108568e+00
<GCONST> 2.053961e+02
<TRANSP> 5
 0.000000e+00 1.000000e+00 0.000000e+00 0.000000e+00 0.000000e+00
 0.000000e+00 5.950419e-01 4.049582e-01 0.000000e+00 0.000000e+00
 0.000000e+00 0.000000e+00 5.674805e-01 4.325196e-01 0.000000e+00
 0.000000e+00 0.000000e+00 0.000000e+00 6.251430e-01 3.748569e-01
 0.000000e+00 0.000000e+00 0.000000e+00 0.000000e+00 0.000000e+00
<ENDHMM>
~h "s"
<BEGINHMM>
<NUMSTATES> 5
<STATE> 2
<MEAN> 39
 -3.275288e+01 3.562856e+00 -3.056302e-01 4.952031e+00 -2.790026e+00 -5.930733e+00 -2.484327e+00 2.502139e+00 -4.733963e+00 2.442230e+00 -3.400963e+00 5.176103e+00 9.622353e+01 -3.873896e+00 6.577814e-01 -2.172682e+00 -7.227627e-01 -2.288260e-01 -1.485096e-01 -2.712421e-02 3.662837e-01 -4.212447e-02 -1.656692e-01 1.663643e-01 5.715032e-02 8.905282e-01 2.963710e-01 -1.870364e-01 -3.653020e-03 -1.828168e-01 -9.955620e-02 -1.656834e-01 -1.341661e-01 -1.042135e-01 -6.801971e-02 6.755321e-02 -2.070034e-03 4.816892e-02 2.137612e-01
<VARIANCE> 39
 5.803718e+02 1.930220e+02 3.698416e+02 2.509304e+02 3.145314e+02 3.041047e+02 2.476362e+02 2.124174e+02 2.124941e+02 1.779174e+02 1.775448e+02 1.651140e+02 6.015592e+02 5.383395e+01 1.957157e+01 3.279377e+01 2.451820e+01 2.116158e+01 2.479734e+01 2.348428e+01 2.171266e+01 2.225404e+01 1.925277e+01 1.793660e+01 1.696946e+01 2.869559e+01 6.792618e+00 3.400865e+00 4.758142e+00 4.015810e+00 3.817847e+00 4.150033e+00 3.998112e+00 3.985217e+00 3.753275e+00 3.430990e+00 3.293930e+00 3.053256e+00 3.930013e+00
<GCONST> 2.034421e+02
<STATE> 3
<MEAN> 39
 -4.175173e+01 5.232224e+00 -5.763597e+00 2.661873e+00 -3.373327e+00 -6.819551e+00 -2.924125e+00 3.004714e+00 -5.066945e+00 2.652287e+00 -3.463979e+00 5.407591e+00 1.010902e+02 -1.823946e+00 2.363836e-01 -1.340987e+00 -7.007445e-01 -3.858145e-01 -2.150899e-01 -1.469250e-01 3.704605e-02 -6.473920e-02 1.005271e-02 -1.887932e-02 1.244802e-01 9.759222e-01 9.341213e-01 -1.996242e-01 4.672808e-01 4.545889e-02 -3.850041e-02 -3.631447e-02 -2.846185e-02 -1.153415e-01 1.307561e-02 5.299875e-02 -4.743442e-02 3.436478e-02 5.579196e-02
<VARIANCE> 39
 4.452554e+02 1.841693e+02 3.124244e+02 2.642643e+02 3.275179e+02 2.922498e+02 2.195522e+02 1.914371e+02 1.850110e+02 1.639179e+02 1.671093e+02 1.509358e+02 4.331753e+02 4.901800e+01 1.460732e+01 2.776471e+01 1.816990e+01 1.744121e+01 1.997875e+01 1.890633e+01 1.778151e+01 1.754523e+01 1.593405e+01 1.488656e+01 1.423878e+01 2.184962e+01 5.306785e+00 2.720933e+00 3.811970e+00 3.320980e+00 3.213448e+00 3.697020e+00 3.557299e+00 3.481591e+00 3.348494e+00 3.077023e+00 2.943949e+00 2.791798e+00 3.113209e+00
<GCONST> 1.972713e+02
<STATE> 4
<MEAN> 39
 -3.919561e+01 3.671658e+00 -4.552298e+00 1.181961e-01 -5.228283e+00 -8.336869e+00 -3.146593e+00 2.548568e+00 -4.274834e+00 3.569930e+00 -3.647676e+00 6.096348e+00 1.056814e+02 1.274639e+00 -3.146801e-01 5.958003e-01 -2.780766e-01 -3.230644e-01 -2.143039e-01 1.242064e-01 -1.628518e-01 1.567858e-01 7.496283e-02 -8.974004e-02 1.431330e-01 6.435758e-01 6.900543e-01 -9.001601e-02 4.986947e-01 7.185774e-02 6.777285e-03 -1.168192e-01 6.974374e-03 -5.915182e-02 5.935571e-02 8.061652e-03 -7.353730e-03 5.139375e-02 8.803168e-02
<VARIANCE> 39
 6.248422e+02 1.941437e+02 4.252192e+02 2.689002e+02 3.387176e+02 2.996724e+02 2.370078e+02 1.916649e+02 1.903682e+02 1.762609e+02 1.799867e+02 1.831971e+02 4.606667e+02 3.017327e+01 1.071517e+01 1.971007e+01 1.336809e+01 1.299292e+01 1.670428e+01 1.602649e+01 1.444551e+01 1.447251e+01 1.400248e+01 1.317252e+01 1.327407e+01 1.829419e+01 4.654494e+00 1.993832e+00 3.162098e+00 2.436689e+00 2.413602e+00 3.115597e+00 3.063704e+00 2.807412e+00 2.824085e+00 2.709037e+00 2.545626e+00 2.577348e+00 2.461887e+00
<GCONST> 1.930543e+02
<TRANSP> 5
 0.000000e+00 1.000000e+00 0.000000e+00 0.000000e+00 0.000000e+00
 0.000000e+00 6.713530e-01 3.286469e-01 0.000000e+00 0.000000e+00
 0.000000e+00 0.000000e+00 6.664023e-01 3.335977e-01 0.000000e+00
 0.000000e+00 0.000000e+00 0.000000e+00 8.099538e-01 1.900462e-01
 0.000000e+00 0.000000e+00 0.000000e+00 0.000000e+00 0.000000e+00
<ENDHMM>
~h "t"
<BEGINHMM>
<NUMSTATES> 5
<STATE> 2
<MEAN> 39
 -1.948483e+01 4.400284e+00 1.545871e+01 3.939183e+00 -1.614892e+00 -2.897754e+00 -2.261024e+00 -3.127609e+00 -6.299092e+00 2.021908e+00 -1.551948e+00 3.224834e+00 7.816355e+01 -2.488915e+00 -4.544390e-01 -1.994684e+00 -1.263529e+00 -3.652887e-01 -7.270739e-01 1.730057e-01 2.686194e-01 1.629703e-03 -1.207681e-01 3.958611e-01 2.551900e-01 1.477063e+00 1.192171e-01 -1.629637e-01 5.143713e-01 -3.680315e-01 -2.208383e-01 -2.051473e-01 1.444682e-01 -9.161620e-02 -1.865754e-01 7.343476e-02 -1.591398e-01 1.574320e-01 1.470605e+00
<VARIANCE> 39
 3.197256e+02 2.162063e+02 5.123422e+02 3.021475e+02 2.001080e+02 2.337368e+02 2.444206e+02 2.400155e+02 2.254567e+02 1.710750e+02 1.630833e+02 1.548177e+02 1.083689e+03 2.425237e+01 2.776826e+01 4.149876e+01 3.452865e+01 2.246642e+01 2.554657e+01 2.674037e+01 2.539599e+01 2.746000e+01 2.013970e+01 1.938497e+01 1.716490e+01 1.452596e+02 4.022745e+00 5.450127e+00 6.048077e+00 6.532610e+00 4.236371e+00 4.559739e+00 4.702147e+00 4.585108e+00 4.851288e+00 3.694599e+00 3.589395e+00 3.212315e+00 2.133722e+01
<GCONST> 2.091303e+02
<STATE> 3
<MEAN> 39
 -2.532288e+01 2.213684e+00 1.487633e+01 -1.205614e+00 -4.862041e+00 -6.696627e+00 3.484697e-01 -2.981877e+00 -8.242955e+00 2.051445e+00 -1.519707e+00 5.101767e+00 9.409409e+01 -8.545122e-01 -8.191835e-01 3.719826e-01 -7.304298e-01 -7.590826e-01 -1.145573e+00 6.900801e-01 4.806397e-01 -2.732237e-01 8.848237e-03 -1.803371e-01 6.953992e-01 3.913113e+00 7.138605e-01 -5.848723e-02 6.442729e-01 3.634606e-01 1.039640e-02 2.870484e-02 2.794336e-02 5.964627e-02 3.769979e-02 7.280996e-02 -1.559925e-01 1.410805e-02 -1.438037e-01
<VARIANCE> 39
 3.745927e+02 2.166548e+02 4.386922e+02 3.043997e+02 2.119570e+02 2.569201e+02 2.648287e+02 2.611746e+02 2.292732e+02 1.822092e+02 1.781358e+02 1.679235e+02 1.145518e+03 3.870837e+01 2.297099e+01 4.084214e+01 3.074169e+01 2.084375e+01 2.470131e+01 2.532665e+01 2.339003e+01 2.489613e+01 1.941035e+01 1.913754e+01 1.711629e+01 1.135911e+02 5.930569e+00 4.753343e+00 5.049548e+00 6.172031e+00 4.129607e+00 4.600800e+00 4.616416e+00 4.268057e+00 4.715878e+00 3.740328e+00 3.561114e+00 3.279448e+00 2.118091e+01
<GCONST> 2.091656e+02
<STATE> 4
<MEAN> 39
 -2.024220e+01 -1.103901e+00 2.112638e+01 -2.980440e-01 -7.684791e+00 -1.040776e+01 4.073848e+00 -1.558941e+00 -8.274588e+00 1.923482e+00 -2.886012e+00 7.658330e+00 1.020511e+02 2.052557e+00 -8.039569e-01 1.299414e+00 8.738986e-01 1.368366e-01 -3.719035e-01 1.508927e-01 7.106071e-01 2.122268e-01 1.602025e-01 -5.030645e-01 1.985955e-01 7.951688e-01 5.001563e-01 1.726165e-02 9.461360e-02 1.413098e-01 2.287749e-01 1.530300e-01 -2.995839e-01 -6.015836e-02 -1.961019e-02 6.027710e-02 -1.522812e-02 -1.800478e-01 -2.842597e-01
<VARIANCE> 39
 4.533624e+02 1.937096e+02 5.612278e+02 2.693819e+02 2.084798e+02 3.010652e+02 3.173907e+02 3.608664e+02 2.661960e+02 2.155465e+02 2.199477e+02 2.105866e+02 9.310782e+02 3.660061e+01 1.505013e+01 3.283763e+01 2.222814e+01 1.738948e+01 2.133719e+01 2.157061e+01 2.075693e+01 2.088585e+01 1.799737e+01 1.738451e+01 1.685764e+01 4.614300e+01 6.070704e+00 2.899657e+00 4.130561e+00 3.920665e+00 3.310298e+00 3.968519e+00 3.958332e+00 3.743754e+00 4.018457e+00 3.459404e+00 3.264708e+00 2.999810e+00 8.856422e+00
<GCONST> 2.046046e+02
<TRANSP> 5
 0.000000e+00 1.000000e+00 0.000000e+00 0.000000e+00 0.000000e+00
 0.000000e+00 7.621580e-01 2.378419e-01 0.000000e+00 0.000000e+00
 0.000000e+00 0.000000e+00 6.985790e-01 3.014210e-01 0.000000e+00
 0.000000e+00 0.000000e+00 0.000000e+00 7.073904e-01 2.926096e-01
 0.000000e+00 0.000000e+00 0.000000e+00 0.000000e+00 0.000000e+00
<ENDHMM>
~h "v"
<BEGINHMM>
<NUMSTATES> 5
<STATE> 2
<MEAN> 39
 1.015452e+01 -2.203933e+01 1.604651e+01 -1.139059e+01 -8.429102e+00 -1.847606e+01 -3.085561e+00 9.895056e+00 9.862486e+00 1.324003e+01 -2.146758e+00 5.274231e+00 1.371759e+02 -7.879432e-01 5.415065e-01 -1.340016e-01 1.170421e+00 9.951297e-01 9.023720e-01 1.653861e-01 -1.322310e-01 -4.932970e-01 1.169298e-01 2.095259e-01 -3.872571e-01 -2.188517e+00 -6.904966e-01 6.894311e-01 -3.067474e-01 7.275896e-01 6.194342e-01 8.358546e-01 -5.048386e-02 -4.316896e-01 -4.805106e-01 -3.441550e-01 -1.681265e-01 -8.891276e-02 -1.087779e+00
<VARIANCE> 39
 2.053508e+02 2.148915e+02 2.463960e+02 3.469898e+02 2.846282e+02 3.011046e+02 7.204666e+02 2.609663e+02 3.169842e+02 3.845726e+02 3.106763e+02 3.615725e+02 5.047808e+02 1.744786e+01 2.140246e+01 1.344421e+01 2.491203e+01 1.837890e+01 2.008848e+01 2.043789e+01 1.788019e+01 1.831286e+01 1.404167e+01 1.610831e+01 1.399768e+01 2.196982e+01 3.775687e+00 2.643976e+00 2.206365e+00 3.619627e+00 3.515623e+00 4.436507e+00 4.499203e+00 2.923577e+00 3.425931e+00 2.575860e+00 2.514979e+00 2.429587e+00 2.682072e+00
<GCONST> 1.990787e+02
<STATE> 3
<MEAN> 39
 6.644044e+00 -1.774300e+01 1.544530e+01 -5.117116e+00 -3.590984e+00 -1.387309e+01 -3.570704e+00 7.534066e+00 6.607244e+00 1.254776e+01 -2.366835e+00 4.392397e+00 1.264349e+02 -1.474181e+00 1.475050e+00 -2.638064e-01 1.959702e+00 1.686242e+00 1.930916e+00 -2.109319e-01 -9.303876e-01 -1.150023e+00 -4.269367e-01 3.815208e-02 -2.937287e-01 -3.722492e+00 -2.209432e-01 1.602484e-01 -1.316304e-01 4.437754e-02 1.097732e-01 3.112724e-01 -1.966289e-02 -1.728604e-01 -2.034585e-01 -1.886475e-01 -2.864645e-02 -2.945966e-03 -3.330414e-01
<VARIANCE> 39
 3.277061e+02 2.543975e+02 2.282746e+02 4.112390e+02 2.868993e+02 3.592364e+02 5.893801e+02 2.719800e+02 3.453341e+02 3.664185e+02 2.994358e+02 3.153335e+02 7.149285e+02 2.752886e+01 2.240608e+01 1.438560e+01 2.846291e+01 2.290244e+01 2.780158e+01 2.467452e+01 1.920403e+01 2.226320e+01 1.726746e+01 1.868342e+01 1.549456e+01 2.731791e+01 4.432302e+00 3.725990e+00 2.409050e+00 5.122598e+00 4.536657e+00 5.966772e+00 4.624806e+00 3.801438e+00 4.352046e+00 3.046971e+00 2.947000e+00 2.645490e+00 4.529988e+00
<GCONST> 2.053774e+02
<STATE> 4
<MEAN> 39
 3.421383e-01 -1.306757e+01 1.264067e+01 1.391945e-01 1.471624e-01 -8.376605e+00 -2.690537e+00 5.810912e+00 3.772065e+00 9.138704e+00 -3.399515e+00 3.878146e+00 1.104575e+02 -7.033359e-01 9.716513e-01 -3.979224e-01 6.946279e-01 7.786617e-01 1.082652e+00 -1.824494e-01 -5.233951e-01 -8.463139e-01 -5.179919e-01 5.501672e-02 -1.627168e-01 -2.647038e+00 1.510949e-01 1.359503e-02 1.519191e-02 -2.056108e-01 -1.741378e-01 -1.217566e-01 4.277488e-02 -8.928996e-03 -4.786586e-02 -1.987393e-02 3.922018e-02 6.407335e-02 1.968206e-01
<VARIANCE> 39
 4.173580e+02 2.267661e+02 2.199204e+02 3.368004e+02 2.475012e+02 3.210603e+02 4.152092e+02 2.792679e+02 3.221385e+02 3.314158e+02 2.743673e+02 2.647074e+02 8.282188e+02 2.564496e+01 1.861457e+01 1.357578e+01 2.623205e+01 2.292583e+01 2.804982e+01 2.364956e+01 2.169934e+01 2.307396e+01 1.826148e+01 1.878786e+01 1.567507e+01 2.839396e+01 3.749121e+00 3.490964e+00 2.439016e+00 5.137738e+00 4.309407e+00 5.549229e+00 4.389184e+00 4.160381e+00 4.305932e+00 3.310942e+00 3.265239e+00 2.831470e+00 5.158628e+00
<GCONST> 2.043091e+02
<TRANSP> 5
 0.000000e+00 1.000000e+00 0.000000e+00 0.000000e+00 0.000000e+00
 0.000000e+00 6.033964e-01 3.966036e-01 0.000000e+00 0.000000e+00
 0.000000e+00 0.000000e+00 6.166003e-01 3.833998e-01 0.000000e+00
 0.000000e+00 0.000000e+00 0.000000e+00 7.477200e-01 2.522800e-01
 0.000000e+00 0.000000e+00 0.000000e+00 0.000000e+00 0.000000e+00
<ENDHMM>
~h "w"
<BEGINHMM>
<NUMSTATES> 5
<STATE> 2
<MEAN> 39
 3.193658e+01 9.296023e+00 1.457818e+01 -3.217109e+01 -1.388132e+01 3.303624e+00 4.318621e-01 1.278185e+01 -7.435800e+00 1.067841e+01 1.870091e+00 8.378372e-01 1.189148e+02 -2.213866e-01 -3.441197e+00 -2.178169e+00 -4.136813e+00 1.793142e+00 1.602105e+00 -2.159839e-02 2.186687e+00 1.040120e-02 -5.957816e-01 1.468787e+00 1.925243e-01 3.741976e+00 -5.622523e-01 -5.257431e-01 -3.331397e-01 8.192661e-01 1.144374e+00 5.243590e-01 -8.464750e-02 -3.006333e-01 3.006540e-02 -2.034334e-01 1.779759e-01 3.620201e-02 -1.845250e-01
<VARIANCE> 39
 6.176703e+01 2.872329e+02 3.125191e+02 4.392440e+02 5.670027e+02 3.392789e+02 5.147454e+02 4.311336e+02 4.434625e+02 3.892225e+02 3.461899e+02 3.139103e+02 2.203851e+02 5.530972e+00 1.619805e+01 1.323576e+01 3.083424e+01 3.160012e+01 2.524737e+01 2.666636e+01 2.797947e+01 2.388710e+01 2.314742e+01 2.008450e+01 1.888455e+01 1.113826e+01 1.097396e+00 1.934754e+00 2.249975e+00 4.654326e+00 4.160330e+00 4.424692e+00 4.838594e+00 5.256527e+00 4.398598e+00 4.327548e+00 3.780248e+00 3.408306e+00 1.175297e+00
<GCONST> 2.001999e+02
<STATE> 3
<MEAN> 39
 2.889495e+01 -3.888300e+00 6.783533e+00 -4.026333e+01 -2.276100e+00 1.048720e+01 -6.599168e-01 1.729631e+01 -7.453198e+00 8.253744e+00 7.389610e+00 1.434760e+00 1.299570e+02 -1.243424e+00 -4.025143e+00 -1.938607e+00 -2.968240e-01 4.100705e+00 1.758799e+00 -1.168900e+00 4.128751e-01 4.760699e-01 -4.271299e-01 1.414133e+00 -2.964983e-02 2.820507e+00 -2.063449e-01 1.724360e-01 4.713494e-01 1.377825e+00 5.145355e-02 -5.238169e-01 -4.181364e-01 -4.725194e-01 3.313391e-01 2.169945e-01 -3.513803e-01 -1.199093e-01 -4.517899e-01
<VARIANCE> 39
 6.532016e+01 3.205741e+02 3.282007e+02 3.974941e+02 8.047330e+02 3.723793e+02 5.656509e+02 4.602849e+02 4.628800e+02 4.361992e+02 3.849592e+02 3.275229e+02 1.969071e+02 2.922405e+00 1.095557e+01 1.228078e+01 3.213898e+01 2.638560e+01 2.547666e+01 2.782707e+01 2.927937e+01 2.651619e+01 2.546177e+01 2.392486e+01 2.157894e+01 6.376585e+00 4.752993e-01 1.466202e+00 1.918696e+00 3.546445e+00 4.881179e+00 4.523695e+00 4.940397e+00 5.273378e+00 4.701860e+00 4.729619e+00 4.671829e+00 3.871624e+00 6.419920e-01
<GCONST> 1.984658e+02
<STATE> 4
<MEAN> 39
 2.193703e+01 -1.853842e+01 5.551781e+00 -2.964555e+01 1.254903e+01 9.856074e+00 -7.751246e+00 1.835692e+01 -1.209486e+00 7.503283e+00 8.207193e+00 6.491566e-01 1.370475e+02 -1.064351e+00 -1.332634e+00 1.267660e+00 3.432801e+00 6.391482e-01 -1.702300e+00 -8.002355e-01 -1.856326e-01 1.207565e+00 2.118216e-01 -1.103199e+00 2.047347e-01 2.075635e-01 9.877860e-02 7.133569e-01 6.331186e-01 4.794409e-01 -7.113519e-01 -4.349487e-01 5.561547e-01 -2.057773e-01 -1.660044e-01 1.050616e-02 -4.712690e-01 2.374196e-01 -6.167392e-01
<VARIANCE> 39
 8.116846e+01 2.773030e+02 2.852808e+02 4.847257e+02 6.223890e+02 4.466501e+02 5.967151e+02 5.122045e+02 4.799241e+02 4.538737e+02 4.200814e+02 3.689290e+02 1.855696e+02 2.333905e+00 1.173000e+01 1.364149e+01 1.970013e+01 2.620920e+01 2.383197e+01 2.712502e+01 2.780523e+01 2.433103e+01 2.525758e+01 2.645542e+01 2.340220e+01 6.763830e+00 3.541394e-01 1.184403e+00 1.359630e+00 2.535687e+00 2.982150e+00 3.751995e+00 4.780405e+00 5.060735e+00 4.465996e+00 3.953800e+00 4.441129e+00 3.890177e+00 6.490858e-01
<GCONST> 1.961525e+02
<TRANSP> 5
 0.000000e+00 1.000000e+00 0.000000e+00 0.000000e+00 0.000000e+00
 0.000000e+00 6.476691e-01 3.523309e-01 0.000000e+00 0.000000e+00
 0.000000e+00 0.000000e+00 7.057050e-01 2.942950e-01 0.000000e+00
 0.000000e+00 0.000000e+00 0.000000e+00 8.723710e-01 1.276291e-01
 0.000000e+00 0.000000e+00 0.000000e+00 0.000000e+00 0.000000e+00
<ENDHMM>
~h "z"
<BEGINHMM>
<NUMSTATES> 5
<STATE> 2
<MEAN> 39
 -1.716885e+01 1.377133e+01 1.418929e+01 1.552898e+01 5.191142e+00 -2.193077e+00 -7.545276e-01 3.029089e+00 -2.478742e+00 2.829320e+00 -5.501000e+00 5.002587e+00 9.179662e+01 -2.319833e+00 2.741379e+00 -5.268024e-01 1.485945e+00 1.310059e+00 3.394552e-01 3.189296e-01 5.650076e-01 2.515222e-01 3.460050e-05 -8.521897e-02 2.051123e-01 1.620775e+00 2.619852e-02 -1.182509e-01 3.803836e-02 -1.817861e-01 -1.141984e-01 -4.673255e-02 -1.197480e-02 -6.690601e-02 -1.011298e-01 6.630820e-02 5.669547e-02 1.214855e-02 3.292429e-01
<VARIANCE> 39
 4.178448e+02 3.406186e+02 3.874859e+02 3.297490e+02 3.408484e+02 3.055024e+02 2.782134e+02 2.544194e+02 2.215473e+02 2.184048e+02 2.319247e+02 2.549022e+02 7.486919e+02 3.393204e+01 2.368775e+01 2.810433e+01 2.325875e+01 2.075066e+01 2.272719e+01 2.091936e+01 2.166563e+01 1.914712e+01 1.910726e+01 1.772422e+01 1.651244e+01 2.312107e+01 4.197029e+00 3.909036e+00 4.121303e+00 3.426296e+00 3.561212e+00 3.916089e+00 3.744882e+00 3.887946e+00 3.341971e+00 3.392232e+00 3.090708e+00 2.995955e+00 2.793654e+00
<GCONST> 2.030208e+02
<STATE> 3
<MEAN> 39
 -2.392599e+01 2.551093e+01 1.469567e+01 2.121680e+01 1.132796e+01 -8.476973e-01 3.019075e-01 3.886080e+00 -1.982296e+00 4.069209e+00 -6.671716e+00 6.056913e+00 1.053284e+02 -2.070391e+00 1.619681e+00 -1.487067e-01 6.468512e-01 4.886059e-01 9.798919e-02 1.508523e-01 1.149708e-01 -2.123039e-01 -8.031841e-02 4.205587e-02 1.362027e-01 2.584861e+00 7.423530e-01 -8.997105e-01 5.348502e-01 -4.560869e-01 -5.229975e-01 -2.792860e-01 -1.939445e-01 -2.821862e-01 -2.246305e-01 -5.032668e-02 -1.784342e-02 -3.886976e-03 2.108872e-01
<VARIANCE> 39
 4.401986e+02 2.725734e+02 3.454145e+02 3.738304e+02 4.139601e+02 3.409955e+02 2.754341e+02 2.429406e+02 1.897291e+02 1.995215e+02 2.611525e+02 2.457392e+02 3.895999e+02 4.133448e+01 2.915152e+01 3.268557e+01 2.281619e+01 2.210183e+01 2.428127e+01 2.082621e+01 2.192387e+01 1.690932e+01 1.789138e+01 1.657341e+01 1.621600e+01 2.109163e+01 5.826096e+00 4.210753e+00 5.068256e+00 3.559415e+00 3.705131e+00 4.171957e+00 3.894030e+00 4.028949e+00 3.143477e+00 3.413541e+00 3.116947e+00 3.088040e+00 2.345481e+00
<GCONST> 2.032319e+02
<STATE> 4
<MEAN> 39
 -2.393162e+01 2.320843e+01 2.086868e+01 1.932763e+01 9.931162e+00 -3.995456e+00 -2.121228e+00 1.667649e+00 -4.853372e+00 2.787113e+00 -7.410372e+00 6.493642e+00 1.190721e+02 2.975420e+00 -3.329021e+00 3.761224e+00 -1.378509e+00 -1.866961e+00 -1.577368e+00 -1.293412e+00 -9.784388e-01 -1.269562e+00 -5.826110e-01 -2.001483e-01 3.163126e-01 3.025506e+00 9.824224e-01 -1.015116e+00 7.910916e-01 -4.885838e-01 -3.040237e-01 -3.280549e-01 -2.812572e-01 -5.450191e-02 -1.930744e-01 -3.801123e-05 4.051303e-02 6.484085e-02 3.716546e-02
<VARIANCE> 39
 4.169942e+02 3.716377e+02 4.381245e+02 3.744333e+02 4.502668e+02 3.795053e+02 3.634402e+02 2.484119e+02 1.804160e+02 1.997825e+02 2.954408e+02 2.530841e+02 2.505144e+02 4.957362e+01 3.619759e+01 4.775237e+01 2.742090e+01 2.306348e+01 2.793416e+01 2.419175e+01 2.743146e+01 1.759414e+01 1.818688e+01 1.642258e+01 1.660545e+01 1.040020e+01 5.593167e+00 4.273910e+00 6.125865e+00 4.075918e+00 4.004562e+00 4.317129e+00 3.923007e+00 4.385773e+00 3.077122e+00 3.428070e+00 3.104857e+00 3.019231e+00 1.498735e+00
<GCONST> 2.047733e+02
<TRANSP> 5
 0.000000e+00 1.000000e+00 0.000000e+00 0.000000e+00 0.000000e+00
 0.000000e+00 7.337993e-01 2.662007e-01 0.000000e+00 0.000000e+00
 0.000000e+00 0.000000e+00 7.208391e-01 2.791608e-01 0.000000e+00
 0.000000e+00 0.000000e+00 0.000000e+00 8.402146e-01 1.597854e-01
 0.000000e+00 0.000000e+00 0.000000e+00 0.000000e+00 0.000000e+00
<ENDHMM>
~h "ah"
<BEGINHMM>
<NUMSTATES> 5
<STATE> 2
<MEAN> 39
 1.703185e+01 -1.501914e+01 1.948113e+01 -3.678938e+00 6.415049e+00 -6.160479e+00 -8.194139e+00 4.421153e+00 1.698837e-01 1.320156e+01 -3.447721e-01 4.159309e+00 1.271180e+02 3.113998e-02 2.176952e+00 2.001230e+00 2.944271e+00 -1.713552e-01 4.413794e-01 1.848262e+00 -1.198458e+00 -1.141095e+00 -5.995033e-01 -1.087996e+00 8.165001e-01 -2.730974e+00 -2.879452e-02 2.145199e-01 5.166046e-02 -9.079711e-02 -3.600834e-01 3.133225e-01 5.784444e-01 -2.023250e-01 1.006830e-01 -1.189091e-01 -1.341803e-01 1.549668e-01 -3.208660e-02
<VARIANCE> 39
 9.564237e+01 2.241373e+02 2.110119e+02 3.653579e+02 2.920923e+02 4.456284e+02 6.235613e+02 4.708035e+02 5.651843e+02 4.800269e+02 4.480750e+02 3.814871e+02 3.175122e+02 8.091813e+00 2.040223e+01 1.471232e+01 4.196292e+01 3.026192e+01 4.458039e+01 4.223637e+01 4.309165e+01 3.698001e+01 2.936053e+01 3.212411e+01 2.552332e+01 3.399864e+01 1.601377e+00 4.035997e+00 2.259919e+00 7.410206e+00 4.768491e+00 8.614304e+00 7.638508e+00 7.885530e+00 6.882705e+00 5.029316e+00 4.877178e+00 4.140360e+00 6.574964e+00
<GCONST> 2.119921e+02
<STATE> 3
<MEAN> 39
 1.736565e+01 -8.171531e+00 2.613607e+01 3.983643e+00 2.690213e+00 -5.092476e+00 1.963921e+00 1.627265e+00 -5.183907e-01 9.863171e+00 -6.034368e+00 8.775404e+00 1.203106e+02 -1.984520e-02 2.437607e+00 1.907833e+00 2.667710e+00 -1.362451e+00 1.310122e+00 3.150512e+00 -2.112393e+00 -4.578553e-01 -7.060036e-01 -1.323792e+00 1.072502e+00 -2.709822e+00 -1.335495e-01 -8.336888e-02 -3.681488e-01 -3.289299e-01 1.150192e-02 4.117674e-01 -9.956244e-02 6.654577e-02 1.711618e-01 -4.449043e-02 2.870591e-01 -1.915546e-01 3.379637e-02
<VARIANCE> 39
 8.766264e+01 2.161598e+02 2.302942e+02 3.777647e+02 2.944253e+02 4.672026e+02 7.113907e+02 5.096053e+02 5.221156e+02 5.440530e+02 4.920301e+02 4.643130e+02 2.653232e+02 8.113890e+00 1.722165e+01 1.709633e+01 3.772609e+01 2.380239e+01 4.145904e+01 4.609132e+01 5.242745e+01 3.418979e+01 2.723652e+01 3.087462e+01 2.622555e+01 2.372248e+01 1.487768e+00 3.127762e+00 2.767077e+00 6.782842e+00 4.394608e+00 7.461924e+00 8.153152e+00 9.373731e+00 6.181713e+00 4.687525e+00 5.042331e+00 4.609890e+00 4.422219e+00
<GCONST> 2.110986e+02
<STATE> 4
<MEAN> 39
 1.638450e+01 -3.022404e-01 3.040494e+01 1.186747e+01 -1.173868e+00 7.190526e-01 1.187042e+01 -3.529455e+00 -4.587593e-01 6.163832e+00 -8.855278e+00 1.184327e+01 1.105095e+02 -9.282365e-01 1.668921e+00 4.171724e-01 1.560946e+00 -4.026597e-01 1.721563e+00 1.588119e+00 -6.722363e-01 -8.091867e-03 -6.319144e-01 -2.422010e-01 -5.110535e-02 -2.658506e+00 -4.214818e-01 -4.593994e-01 -6.434388e-01 -6.226386e-01 3.191428e-01 -1.793328e-01 -6.845801e-01 7.788632e-01 1.465660e-01 4.981142e-02 3.589427e-01 -3.842664e-01 2.159222e-01
<VARIANCE> 39
 1.155047e+02 2.233733e+02 2.178494e+02 3.829273e+02 2.858895e+02 4.697034e+02 6.201653e+02 5.103581e+02 4.976301e+02 5.721071e+02 5.138653e+02 4.810276e+02 2.872531e+02 1.161967e+01 1.489889e+01 1.797572e+01 2.706973e+01 2.116722e+01 3.205544e+01 3.776410e+01 4.384608e+01 2.764420e+01 2.309660e+01 2.597400e+01 2.492213e+01 1.568861e+01 1.757192e+00 2.454242e+00 2.677649e+00 4.681968e+00 3.949061e+00 5.641776e+00 6.361546e+00 7.576861e+00 5.056017e+00 4.097051e+00 4.614118e+00 4.259192e+00 2.593704e+00
<GCONST> 2.071669e+02
<TRANSP> 5
 0.000000e+00 1.000000e+00 0.000000e+00 0.000000e+00 0.000000e+00
 0.000000e+00 7.333875e-01 2.666125e-01 0.000000e+00 0.000000e+00
 0.000000e+00 0.000000e+00 6.630251e-01 3.369749e-01 0.000000e+00
 0.000000e+00 0.000000e+00 0.000000e+00 6.844852e-01 3.155148e-01
 0.000000e+00 0.000000e+00 0.000000e+00 0.000000e+00 0.000000e+00
<ENDHMM>
~h "ao"
<BEGINHMM>
<NUMSTATES> 5
<STATE> 2
<MEAN> 39
 2.424207e+01 8.736694e+00 1.062805e+01 -3.320115e+01 -1.666552e+01 3.168049e-01 -1.129398e+00 5.293203e+00 -1.098671e+01 6.754887e+00 -8.211345e+00 3.072760e+00 1.159156e+02 6.741849e+00 3.525836e+00 2.291135e+00 -5.195774e+00 -3.017669e+00 -7.656548e-01 4.128523e-01 1.543459e+00 -9.148834e-01 7.867380e-01 -7.565132e-01 -3.513403e-01 2.008448e+00 -1.432874e+00 -7.314861e-01 -3.368447e-01 6.113698e-01 7.469124e-02 -1.731707e-01 -3.165582e-01 -3.911904e-02 -5.814509e-02 8.601517e-02 2.121404e-01 -9.882068e-02 -3.014720e-01
<VARIANCE> 39
 5.042587e+02 2.575305e+02 2.279346e+02 6.510165e+02 4.454357e+02 2.232316e+02 2.784504e+02 2.513505e+02 2.343082e+02 2.351366e+02 2.149891e+02 2.618501e+02 1.894575e+02 6.104402e+01 2.673576e+01 1.936505e+01 5.117444e+01 2.820596e+01 1.648287e+01 2.359295e+01 2.152469e+01 2.093882e+01 1.900468e+01 1.851782e+01 2.194103e+01 1.309750e+01 7.325058e+00 3.554790e+00 2.599733e+00 7.544806e+00 4.227227e+00 2.422382e+00 3.345206e+00 3.171353e+00 3.178408e+00 2.811350e+00 2.773339e+00 3.219061e+00 2.060698e+00
<GCONST> 2.023819e+02
<STATE> 3
<MEAN> 39
 3.474216e+01 1.288762e+01 1.339576e+01 -4.105552e+01 -2.421939e+01 -2.932523e+00 -1.606698e+00 9.985704e+00 -1.453320e+01 9.504457e+00 -7.921445e+00 1.418556e+00 1.207350e+02 1.660777e+00 -2.334944e-01 -4.257546e-01 -6.120715e-01 -5.373405e-01 -8.088844e-01 8.795024e-02 8.455735e-01 -1.220756e+00 4.438366e-01 7.187216e-01 1.255812e-01 1.013484e+00 -1.016114e+00 -9.046614e-01 -7.455570e-01 1.136790e+00 8.986669e-01 -3.696691e-02 -7.676142e-02 -2.266393e-01 2.785952e-02 -1.612163e-01 3.543725e-01 2.453363e-01 -2.100207e-01
<VARIANCE> 39
 1.258304e+02 2.224229e+02 2.878813e+02 4.220594e+02 5.158722e+02 3.377361e+02 4.640857e+02 3.858105e+02 3.674648e+02 3.714253e+02 3.170050e+02 3.704927e+02 1.450116e+02 1.937400e+01 1.771386e+01 1.685845e+01 2.866448e+01 2.483261e+01 1.344293e+01 2.006029e+01 1.941903e+01 1.980714e+01 1.901774e+01 1.776763e+01 1.902833e+01 6.380337e+00 3.475660e+00 1.872099e+00 1.765773e+00 3.446539e+00 2.764400e+00 2.238915e+00 3.126338e+00 3.011129e+00 3.361104e+00 2.890454e+00 2.943222e+00 3.201198e+00 1.020761e+00
<GCONST> 1.959459e+02
<STATE> 4
<MEAN> 39
 3.577618e+01 1.175140e+00 -2.966522e+00 -2.947080e+01 -7.561753e+00 -8.065553e+00 -6.720997e+00 1.482626e+01 -1.756413e+01 8.243392e+00 -1.605911e-01 7.043694e+00 1.233362e+02 -3.762995e-01 -2.136887e+00 -2.356824e+00 2.969523e+00 3.549793e+00 -8.180853e-01 -9.104564e-01 -2.931947e-02 6.441181e-01 1.040077e-03 8.804795e-01 7.897034e-01 -1.622083e-01 -3.368156e-01 -2.900058e-02 2.074153e-01 3.829885e-01 1.640002e-01 -5.246250e-02 -1.487118e-01 -7.573295e-02 4.545710e-01 -7.287755e-03 -1.740361e-01 -1.631973e-01 -2.511133e-01
<VARIANCE> 39
 8.984961e+01 3.378861e+02 4.937765e+02 5.154872e+02 9.583300e+02 4.653734e+02 7.615361e+02 5.466602e+02 5.606244e+02 5.999817e+02 3.979075e+02 4.321622e+02 2.096151e+02 5.904936e+00 1.086803e+01 1.603780e+01 1.694133e+01 2.508795e+01 1.910866e+01 2.456025e+01 2.313122e+01 2.671487e+01 2.783029e+01 2.353763e+01 2.815531e+01 6.541372e+00 9.882768e-01 1.487325e+00 2.071111e+00 2.059430e+00 3.238067e+00 2.730584e+00 3.780855e+00 3.785639e+00 4.244148e+00 4.687919e+00 3.950338e+00 4.587449e+00 6.546406e-01
<GCONST> 1.999260e+02
<TRANSP> 5
 0.000000e+00 1.000000e+00 0.000000e+00 0.000000e+00 0.000000e+00
 0.000000e+00 7.777367e-01 2.222634e-01 0.000000e+00 0.000000e+00
 0.000000e+00 0.000000e+00 7.346049e-01 2.653951e-01 0.000000e+00
 0.000000e+00 0.000000e+00 0.000000e+00 8.982407e-01 1.017593e-01
 0.000000e+00 0.000000e+00 0.000000e+00 0.000000e+00 0.000000e+00
<ENDHMM>
~h "ay"
<BEGINHMM>
<NUMSTATES> 5
<STATE> 2
<MEAN> 39
 1.722905e+01 -3.364280e+01 -1.832726e+00 -2.381015e+01 1.166522e+01 9.726553e+00 -6.321342e+00 1.147643e+01 8.641456e+00 1.166180e+01 1.229954e+00 -3.739493e+00 1.460918e+02 -2.450770e-01 -1.503606e+00 -1.018905e+00 -1.735756e-01 1.305423e+00 8.619434e-01 -6.759794e-01 4.187540e-01 7.143873e-01 -4.256080e-01 5.982513e-02 -7.388481e-01 8.834494e-01 -1.391629e-01 5.655097e-01 5.214662e-01 6.230887e-01 -3.444963e-01 -3.006742e-01 1.326109e-01 -1.776510e-01 -2.900514e-01 -8.866612e-02 -1.335711e-01 1.761322e-01 -6.995027e-01
<VARIANCE> 39
 7.918509e+01 1.692998e+02 2.779979e+02 3.766628e+02 4.567212e+02 3.674304e+02 3.883751e+02 4.303788e+02 3.683181e+02 3.741010e+02 4.592773e+02 3.777489e+02 1.532767e+02 2.622083e+00 6.807451e+00 7.423360e+00 1.153977e+01 9.034023e+00 1.093535e+01 1.190429e+01 1.096593e+01 1.067468e+01 9.481079e+00 1.086642e+01 9.725678e+00 6.449594e+00 1.064275e+00 9.647735e-01 9.270703e-01 1.869189e+00 1.319648e+00 1.799262e+00 2.265068e+00 2.262256e+00 1.918841e+00 1.705860e+00 1.902483e+00 1.409338e+00 1.224247e+00
<GCONST> 1.791145e+02
<STATE> 3
<MEAN> 39
 1.643666e+01 -3.652148e+01 -8.942251e-01 -2.129386e+01 1.374444e+01 8.353757e+00 -7.886909e+00 1.455848e+01 9.725481e+00 1.002443e+01 -2.823420e-01 -4.557399e+00 1.460400e+02 -2.499237e-01 -3.249583e-01 7.019033e-01 8.451040e-01 -3.333228e-01 -9.287653e-01 -1.343445e-02 7.310070e-01 2.012525e-01 -4.735177e-01 -3.335095e-01 9.488959e-02 -9.146337e-02 -1.960400e-02 2.917953e-01 4.263872e-01 1.628547e-01 -4.246450e-01 -3.900245e-01 2.138336e-01 3.848952e-02 -1.533025e-01 -1.590462e-02 -2.964450e-02 2.368363e-01 -1.980050e-01
<VARIANCE> 39
 7.742397e+01 1.686293e+02 2.540976e+02 3.412610e+02 4.729130e+02 3.554553e+02 3.806859e+02 4.314477e+02 3.635269e+02 3.695691e+02 4.121727e+02 4.093094e+02 1.505206e+02 1.243682e+00 2.930870e+00 5.588678e+00 5.438527e+00 7.796387e+00 9.059367e+00 8.933937e+00 6.886808e+00 6.861787e+00 6.521333e+00 7.161273e+00 7.090592e+00 1.613941e+00 2.282452e-01 4.849322e-01 5.290620e-01 8.335173e-01 8.736753e-01 9.965053e-01 1.243726e+00 1.206788e+00 1.151286e+00 1.085807e+00 1.102762e+00 1.050902e+00 3.336625e-01
<GCONST> 1.632367e+02
<STATE> 4
<MEAN> 39
 1.386256e+01 -3.253219e+01 9.811371e+00 -1.410793e+01 3.720115e+00 -2.360731e+00 -8.344259e-01 1.863971e+01 8.033316e+00 6.707786e+00 -2.745353e+00 1.476002e+00 1.413361e+02 -2.462889e-01 1.447263e+00 2.460712e+00 9.015709e-01 -1.980465e+00 -1.722250e+00 1.093037e+00 -4.104435e-02 -8.506159e-01 -6.170761e-03 8.855250e-02 8.871800e-01 -1.213547e+00 5.543328e-02 4.251600e-01 1.150150e-01 2.084659e-01 7.724527e-02 1.321003e-01 3.891678e-02 -3.937770e-01 -2.123371e-01 1.272149e-01 7.175138e-03 4.496584e-02 -4.101685e-01
<VARIANCE> 39
 7.842200e+01 2.064926e+02 4.132613e+02 3.129721e+02 4.913430e+02 3.524456e+02 5.093699e+02 3.987054e+02 3.708687e+02 3.624359e+02 3.520139e+02 3.720655e+02 2.110273e+02 2.081629e+00 5.866853e+00 7.764503e+00 9.597284e+00 1.190842e+01 1.140129e+01 1.383837e+01 1.297577e+01 1.161693e+01 1.056528e+01 1.002883e+01 9.615547e+00 3.778583e+00 4.179639e-01 6.296721e-01 1.000713e+00 1.606186e+00 1.728288e+00 1.585718e+00 1.900930e+00 1.891499e+00 1.670943e+00 1.656530e+00 1.577795e+00 1.520765e+00 5.311964e-01
<GCONST> 1.766782e+02
<TRANSP> 5
 0.000000e+00 1.000000e+00 0.000000e+00 0.000000e+00 0.000000e+00
 0.000000e+00 7.763035e-01 2.236965e-01 0.000000e+00 0.000000e+00
 0.000000e+00 0.000000e+00 7.882857e-01 2.117143e-01 0.000000e+00
 0.000000e+00 0.000000e+00 0.000000e+00 8.875543e-01 1.124457e-01
 0.000000e+00 0.000000e+00 0.000000e+00 0.000000e+00 0.000000e+00
<ENDHMM>
~h "eh"
<BEGINHMM>
<NUMSTATES> 5
<STATE> 2
<MEAN> 39
 -4.735684e+01 8.116432e+00 -6.459863e+00 -2.992805e+00 -2.705993e+00 -9.658073e+00 -3.897201e+00 2.375309e+00 -3.837461e+00 2.248661e+00 -5.709249e+00 7.729281e+00 1.138165e+02 6.367125e+00 -1.147820e+00 4.119917e+00 -5.216050e-01 -3.981068e-01 -2.180415e+00 -5.458105e-01 -4.117962e-01 1.613539e+00 2.940132e-01 -5.139822e-01 1.161739e+00 2.886641e+00 2.391802e+00 -8.843856e-01 1.151464e+00 -2.292445e-01 7.813204e-03 -4.978921e-01 -3.166714e-01 2.114370e-02 5.141566e-01 4.940453e-01 -5.941181e-02 4.769031e-02 9.148552e-01
<VARIANCE> 39
 4.813356e+02 1.376336e+02 2.443021e+02 2.555513e+02 3.095444e+02 2.599645e+02 1.727837e+02 1.590231e+02 1.666115e+02 1.526014e+02 1.776637e+02 1.558202e+02 1.472099e+02 6.223893e+01 1.401326e+01 3.119663e+01 1.516864e+01 1.239494e+01 2.205819e+01 1.977011e+01 1.397678e+01 1.954733e+01 1.931516e+01 1.611911e+01 1.867457e+01 1.642147e+01 7.073672e+00 2.402328e+00 4.392443e+00 3.021387e+00 2.542300e+00 3.810278e+00 4.410857e+00 2.814752e+00 3.726152e+00 3.532697e+00 2.973146e+00 3.267246e+00 2.125890e+00
<GCONST> 1.951168e+02
<STATE> 3
<MEAN> 39
 -2.293139e+01 3.528838e+00 6.886156e+00 -2.282394e+00 -4.502685e+00 -1.556937e+01 -6.738846e+00 4.046546e-01 8.288109e-01 4.241796e+00 -7.311778e+00 1.051543e+01 1.220881e+02 1.219456e+01 -4.242494e+00 6.426269e+00 -1.694771e+00 -4.537333e-01 -3.175080e+00 -1.971337e+00 -2.033038e-01 2.764609e+00 2.108859e+00 -3.681278e-01 8.508247e-01 5.950657e+00 -2.538878e-02 -1.249529e+00 -5.704009e-01 -9.191569e-01 -1.744322e-01 1.508521e-01 -1.666181e-01 5.445905e-01 1.939302e-01 6.450297e-01 2.973808e-01 -4.438263e-01 8.250386e-01
<VARIANCE> 39
 9.097988e+02 1.779507e+02 3.131823e+02 2.393978e+02 3.144841e+02 2.643449e+02 2.683115e+02 1.910325e+02 2.176774e+02 2.367233e+02 2.529807e+02 2.726037e+02 2.541580e+02 5.260815e+01 2.171073e+01 3.009330e+01 2.791445e+01 1.867277e+01 3.302917e+01 4.834478e+01 1.981491e+01 3.141906e+01 3.057156e+01 2.208213e+01 2.848205e+01 2.111431e+01 1.506473e+01 2.754252e+00 6.961528e+00 3.351862e+00 2.948571e+00 4.811637e+00 6.352496e+00 3.230174e+00 4.212806e+00 3.746116e+00 3.398829e+00 3.781408e+00 3.502776e+00
<GCONST> 2.071388e+02
<STATE> 4
<MEAN> 39
 5.817488e+00 -1.175673e+01 1.919008e+01 -9.298563e+00 -7.408965e+00 -2.189559e+01 -1.275809e+01 1.697002e+00 7.427603e+00 1.187091e+01 -6.326750e+00 1.119677e+01 1.390776e+02 6.137452e+00 -5.876180e+00 1.990976e+00 -4.096964e+00 -1.097395e+00 -1.532675e+00 -6.575570e-01 2.040057e+00 2.571288e+00 2.566859e+00 8.512065e-01 -5.573392e-01 5.816627e+00 -2.940560e+00 3.741138e-01 -1.942443e+00 -6.734494e-02 2.667958e-02 1.043995e+00 9.521633e-01 6.091163e-01 -3.722066e-01 -2.991076e-01 2.283795e-01 -6.064110e-01 -1.153514e+00
<VARIANCE> 39
 3.284282e+02 2.295056e+02 2.236511e+02 2.731983e+02 3.184696e+02 2.873768e+02 7.158897e+02 2.754885e+02 3.543179e+02 4.340035e+02 3.604989e+02 4.456931e+02 2.851076e+02 5.948428e+01 1.756474e+01 2.952533e+01 2.586752e+01 2.142460e+01 2.997872e+01 6.009521e+01 2.170730e+01 2.813858e+01 2.499680e+01 2.154052e+01 2.263744e+01 2.040927e+01 7.420040e+00 3.322378e+00 4.041314e+00 4.148011e+00 2.970057e+00 5.083030e+00 6.882322e+00 3.480810e+00 4.831787e+00 3.912358e+00 3.555645e+00 4.327687e+00 3.703120e+00
<GCONST> 2.090141e+02
<TRANSP> 5
 0.000000e+00 1.000000e+00 0.000000e+00 0.000000e+00 0.000000e+00
 0.000000e+00 5.750951e-01 4.249050e-01 0.000000e+00 0.000000e+00
 0.000000e+00 0.000000e+00 5.251113e-01 4.748888e-01 0.000000e+00
 0.000000e+00 0.000000e+00 0.000000e+00 6.363695e-01 3.636306e-01
 0.000000e+00 0.000000e+00 0.000000e+00 0.000000e+00 0.000000e+00
<ENDHMM>
~h "ey"
<BEGINHMM>
<NUMSTATES> 5
<STATE> 2
<MEAN> 39
 -6.563273e+00 -9.939615e+00 2.917445e+01 -1.171188e+01 -1.766929e+01 -1.512199e+01 -1.270405e+00 3.894341e-01 -4.212462e+00 8.554152e+00 1.856422e-02 7.580076e+00 1.076856e+02 9.270189e-03 -1.436848e-01 2.414195e+00 -8.873428e-01 -9.854693e-01 8.059774e-02 2.042924e-01 -5.277094e-01 -4.307318e-01 1.454056e-01 2.592453e-02 -3.729014e-03 2.069254e+00 2.527937e-01 2.983454e-02 3.418149e-01 6.061753e-04 1.831033e-01 1.265891e-01 8.081697e-02 -1.065788e-01 -1.164837e-01 2.265050e-03 -1.557746e-01 -4.688333e-02 4.294768e-01
<VARIANCE> 39
 2.912064e+02 2.384842e+02 7.344305e+02 3.817603e+02 2.676750e+02 3.163582e+02 4.631083e+02 3.453515e+02 4.306075e+02 2.618235e+02 1.987662e+02 2.010377e+02 1.673966e+03 1.262622e+01 1.400790e+01 1.753928e+01 1.624579e+01 1.781149e+01 1.983403e+01 2.336181e+01 2.246513e+01 1.989733e+01 1.643684e+01 1.473839e+01 1.476025e+01 5.083596e+01 2.019318e+00 2.302306e+00 2.896394e+00 2.936943e+00 3.159593e+00 3.394858e+00 3.988744e+00 3.614645e+00 3.344103e+00 2.839678e+00 2.711509e+00 2.560612e+00 8.767591e+00
<GCONST> 2.014875e+02
<STATE> 3
<MEAN> 39
 -3.698266e+00 -1.039989e+01 4.160785e+01 -1.646230e+01 -2.052334e+01 -1.496852e+01 -8.279167e-01 -2.756889e+00 -6.279304e+00 1.015791e+01 -1.099376e+00 7.927858e+00 1.206547e+02 7.659070e-01 3.589796e-02 3.691166e+00 -8.957829e-01 -3.151899e-01 4.218842e-01 1.377520e-01 -9.658693e-01 -7.729589e-01 2.669664e-02 -4.918613e-01 -5.941569e-02 3.536432e+00 1.482755e-02 2.100144e-01 -7.793471e-02 2.158438e-01 3.153571e-01 1.828831e-01 -3.590162e-02 -8.163729e-02 -3.132544e-02 -9.720540e-02 -1.074235e-01 -5.474151e-02 -3.157801e-01
<VARIANCE> 39
 1.992182e+02 2.419877e+02 7.153362e+02 4.470528e+02 2.590784e+02 3.035786e+02 4.859355e+02 3.924031e+02 5.721180e+02 2.778443e+02 2.128804e+02 2.201944e+02 1.217729e+03 1.531173e+01 1.617751e+01 2.213512e+01 2.074036e+01 1.840306e+01 1.898104e+01 2.551749e+01 2.198253e+01 2.187600e+01 1.742804e+01 1.470760e+01 1.550521e+01 8.829689e+01 2.271283e+00 2.262161e+00 3.478842e+00 3.148001e+00 2.942505e+00 3.154201e+00 4.005331e+00 3.429604e+00 3.467330e+00 2.885275e+00 2.591009e+00 2.555999e+00 1.092929e+01
<GCONST> 2.035473e+02
<STATE> 4
<MEAN> 39
 -4.359442e+00 1.173704e-01 5.506425e+01 -1.410733e+01 -1.282590e+01 -6.033461e+00 -2.879875e+00 -1.279353e+01 -8.622381e+00 5.184629e+00 -6.495983e+00 6.620146e+00 1.172821e+02 -4.896262e-01 1.181645e+00 -1.194310e+00 1.837848e+00 1.036117e+00 7.719687e-01 8.000298e-02 5.938115e-02 -7.660269e-03 -6.121703e-01 -1.917974e-01 -3.527299e-01 -3.024025e+00 -1.627688e-01 -5.780109e-02 -7.639803e-01 1.275231e-01 6.746364e-02 -6.106893e-02 1.639033e-02 2.663832e-01 1.711500e-01 2.342195e-02 1.657704e-01 1.214342e-02 -4.819041e-01
<VARIANCE> 39
 1.209181e+02 3.211505e+02 7.118621e+02 6.358065e+02 3.189340e+02 3.100045e+02 3.623754e+02 4.854357e+02 6.398864e+02 3.484598e+02 2.921208e+02 2.999288e+02 1.044784e+03 1.022714e+01 1.708052e+01 5.846359e+01 3.207587e+01 1.951593e+01 1.788877e+01 2.289159e+01 2.806280e+01 2.888237e+01 2.052235e+01 2.017855e+01 1.963396e+01 7.758892e+01 1.741463e+00 2.848099e+00 7.102194e+00 5.401391e+00 3.382639e+00 3.048424e+00 3.863805e+00 4.746085e+00 4.709403e+00 3.585903e+00 3.546784e+00 3.298642e+00 9.904671e+00
<GCONST> 2.093014e+02
<TRANSP> 5
 0.000000e+00 1.000000e+00 0.000000e+00 0.000000e+00 0.000000e+00
 0.000000e+00 7.705253e-01 2.294747e-01 0.000000e+00 0.000000e+00
 0.000000e+00 0.000000e+00 7.705433e-01 2.294566e-01 0.000000e+00
 0.000000e+00 0.000000e+00 0.000000e+00 9.257200e-01 7.428003e-02
 0.000000e+00 0.000000e+00 0.000000e+00 0.000000e+00 0.000000e+00
<ENDHMM>
~h "hh"
<BEGINHMM>
<NUMSTATES> 5
<STATE> 2
<MEAN> 39
 3.275607e+00 6.675177e+00 7.197464e+00 -4.183304e+00 -2.233706e+00 3.538318e+00 1.012770e+00 7.295151e-01 -6.004941e+00 5.191881e+00 -1.658445e+00 2.118114e+00 8.221078e+01 2.145148e+00 2.081076e+00 8.723952e-01 -6.190305e-01 -8.510863e-01 5.309791e-01 6.974624e-01 5.146469e-01 1.526087e-01 5.435609e-01 1.913282e-01 -2.191243e-01 5.454538e-01 3.544863e-01 -5.208273e-02 2.265939e-01 -2.974954e-01 -3.033257e-01 -2.942461e-01 -7.133159e-02 1.260667e-01 3.709429e-02 7.673902e-02 -9.685508e-03 1.964184e-02 5.691449e-01
<VARIANCE> 39
 6.778770e+02 3.055595e+02 2.785523e+02 3.073695e+02 2.974290e+02 2.852530e+02 3.118108e+02 2.936497e+02 3.405378e+02 2.632422e+02 2.194274e+02 2.141159e+02 7.820629e+02 2.083405e+01 1.938083e+01 1.964022e+01 2.320111e+01 2.291461e+01 2.493198e+01 2.330426e+01 2.231924e+01 2.205134e+01 1.897378e+01 1.744185e+01 1.483871e+01 2.242952e+01 3.348194e+00 3.390583e+00 3.093103e+00 4.043927e+00 4.354857e+00 4.498732e+00 4.421471e+00 4.395398e+00 4.315526e+00 3.682675e+00 3.432699e+00 2.950184e+00 3.270795e+00
<GCONST> 2.034640e+02
<STATE> 3
<MEAN> 39
 1.863729e+01 1.621273e+01 1.483912e+01 -6.433357e+00 -6.326124e+00 4.506464e+00 3.794298e+00 2.177146e+00 -6.456878e+00 8.276389e+00 -2.161003e+00 1.788038e+00 9.201787e+01 3.736678e+00 1.629157e+00 1.271434e+00 -2.255709e+00 -2.003928e+00 -4.169835e-01 2.245025e-02 7.772048e-01 3.272087e-02 8.180348e-01 1.819572e-01 -2.526287e-01 2.948728e+00 -1.596108e-01 -7.877595e-01 -2.239377e-01 -8.020323e-01 -1.977316e-01 -3.443727e-01 -3.023439e-01 1.833638e-01 -4.443555e-02 -3.097428e-02 6.332795e-02 3.611176e-02 6.684711e-01
<VARIANCE> 39
 4.436508e+02 2.949736e+02 2.253809e+02 3.835975e+02 3.473460e+02 2.854304e+02 3.140068e+02 2.937397e+02 3.770812e+02 2.752289e+02 2.356828e+02 2.384112e+02 6.037383e+02 2.954246e+01 2.138557e+01 1.998550e+01 2.811037e+01 2.309080e+01 2.330652e+01 2.490689e+01 2.335885e+01 2.363694e+01 2.027066e+01 1.844422e+01 1.584670e+01 3.139707e+01 3.613549e+00 3.508925e+00 2.907121e+00 5.057201e+00 4.638478e+00 4.430321e+00 4.481266e+00 4.577190e+00 4.332798e+00 3.727931e+00 3.418267e+00 3.002045e+00 3.047054e+00
<GCONST> 2.048795e+02
<STATE> 4
<MEAN> 39
 2.968374e+01 1.813733e+01 1.825456e+01 -1.692073e+01 -1.311082e+01 2.112033e+00 1.458052e+00 5.087610e+00 -7.049544e+00 1.040608e+01 -1.744861e+00 1.048786e+00 1.050956e+02 1.815641e+00 -1.009428e+00 -2.159944e-01 -4.151964e+00 -1.498761e+00 -5.183316e-01 -5.441881e-01 1.600900e+00 1.230810e-01 4.285556e-01 6.635194e-01 -7.695683e-02 3.635209e+00 -7.371032e-01 -9.356028e-01 -6.008391e-01 -3.557028e-01 6.627614e-01 3.307406e-01 2.194455e-02 3.087955e-01 1.071190e-02 -2.548851e-01 2.235309e-01 9.314908e-02 1.562960e-01
<VARIANCE> 39
 1.487153e+02 2.671482e+02 2.383725e+02 4.359763e+02 4.135443e+02 3.023574e+02 3.909261e+02 3.391266e+02 4.029481e+02 3.215417e+02 2.816972e+02 2.783563e+02 3.379193e+02 1.722031e+01 2.027604e+01 1.706647e+01 3.157754e+01 2.586338e+01 2.294637e+01 2.554401e+01 2.499504e+01 2.308767e+01 2.119669e+01 1.903260e+01 1.698677e+01 2.414241e+01 2.397849e+00 2.857437e+00 2.505176e+00 4.867948e+00 4.312951e+00 4.304921e+00 4.393040e+00 4.592597e+00 4.090644e+00 3.739530e+00 3.344756e+00 3.038067e+00 2.191482e+00
<GCONST> 2.025423e+02
<TRANSP> 5
 0.000000e+00 1.000000e+00 0.000000e+00 0.000000e+00 0.000000e+00
 0.000000e+00 6.495774e-01 3.504226e-01 0.000000e+00 0.000000e+00
 0.000000e+00 0.000000e+00 5.765342e-01 4.234657e-01 0.000000e+00
 0.000000e+00 0.000000e+00 0.000000e+00 6.970633e-01 3.029367e-01
 0.000000e+00 0.000000e+00 0.000000e+00 0.000000e+00 0.000000e+00
<ENDHMM>
~h "ih"
<BEGINHMM>
<NUMSTATES> 5
<STATE> 2
<MEAN> 39
 -3.294624e+01 4.956450e+00 4.208698e+00 1.267151e+00 -9.310367e+00 -1.345591e+01 -2.415402e+00 -1.326713e+00 -5.623936e+00 2.697276e+00 -4.139007e+00 9.423834e+00 1.175613e+02 4.759463e+00 -9.397711e-01 4.314935e+00 4.133126e-01 -6.617887e-01 -1.903807e+00 -4.082932e-01 -1.000836e+00 -1.746548e-01 1.998884e-01 -3.489392e-01 5.815913e-01 1.918133e+00 1.165814e+00 -4.721940e-01 9.797384e-01 8.315314e-02 4.852893e-02 -3.047732e-01 -3.088966e-01 -1.471053e-01 -1.199232e-01 1.617897e-01 -3.669225e-02 -6.547225e-02 2.435852e-01
<VARIANCE> 39
 8.067119e+02 2.077632e+02 7.039875e+02 2.584411e+02 3.263425e+02 3.444652e+02 2.832821e+02 2.209219e+02 1.916740e+02 1.746683e+02 2.047859e+02 2.094174e+02 3.312934e+02 6.483210e+01 1.703738e+01 4.813435e+01 2.096890e+01 1.505335e+01 2.437553e+01 2.499701e+01 1.768604e+01 1.799805e+01 1.638765e+01 1.549472e+01 1.911102e+01 2.541488e+01 9.345674e+00 3.081642e+00 7.050398e+00 3.579911e+00 2.842466e+00 4.427200e+00 4.680210e+00 3.286879e+00 3.412527e+00 3.109571e+00 2.847894e+00 3.388785e+00 3.639966e+00
<GCONST> 2.036895e+02
<STATE> 3
<MEAN> 39
 -1.438506e+01 -1.382032e+00 2.146106e+01 1.187508e+00 -1.057937e+01 -2.065496e+01 -5.613495e+00 -4.065609e+00 -6.481396e+00 4.479104e+00 -5.578333e+00 1.055254e+01 1.254306e+02 5.954318e+00 -2.401206e+00 5.614885e+00 3.789100e-01 -6.589385e-01 -2.307131e+00 -8.525487e-01 -8.852052e-01 -9.079610e-01 5.949626e-01 -1.385525e-01 1.137137e-01 1.929667e+00 -5.792022e-01 -1.346742e-01 -3.850138e-01 7.976687e-02 4.419474e-02 1.725227e-01 9.799745e-02 2.204869e-01 -3.451498e-01 -1.754088e-02 1.699610e-01 -2.478916e-01 -6.162496e-01
<VARIANCE> 39
 7.276698e+02 2.639088e+02 6.934796e+02 2.752376e+02 3.390633e+02 3.570125e+02 4.973448e+02 3.152660e+02 2.696328e+02 2.164320e+02 2.606871e+02 3.012149e+02 4.663493e+02 6.881232e+01 2.436630e+01 5.264899e+01 2.936175e+01 1.889582e+01 3.233076e+01 4.434402e+01 2.560063e+01 2.748378e+01 2.084722e+01 1.925207e+01 2.416186e+01 4.448296e+01 1.035357e+01 4.340980e+00 7.511725e+00 4.559620e+00 3.311889e+00 5.430433e+00 6.769186e+00 4.284437e+00 4.414473e+00 3.751790e+00 3.405098e+00 4.064570e+00 5.883840e+00
<GCONST> 2.133679e+02
<STATE> 4
<MEAN> 39
 -4.248030e+00 -7.381888e+00 3.179971e+01 5.902719e+00 -1.155966e+01 -2.476348e+01 -4.550681e+00 -4.470773e+00 -1.261814e+01 4.742013e+00 -3.525216e+00 8.174756e+00 1.176408e+02 -2.120187e-02 1.226380e-01 -4.686489e-01 1.714617e+00 5.587619e-01 3.307123e-01 1.610951e-01 5.549045e-01 -1.089343e+00 -4.703390e-01 4.539347e-01 -7.600452e-01 -3.927685e+00 -1.028156e+00 4.722013e-01 -1.250326e+00 9.693417e-02 3.144259e-01 5.169424e-01 -4.598103e-03 2.638300e-01 2.534073e-01 -2.166454e-01 3.825258e-02 -3.739978e-02 -9.066647e-01
<VARIANCE> 39
 3.524960e+02 3.054014e+02 6.051096e+02 3.883748e+02 3.289145e+02 4.072411e+02 7.359467e+02 5.640222e+02 4.593922e+02 2.769096e+02 2.523223e+02 2.871991e+02 1.115492e+03 4.265026e+01 3.810773e+01 5.740411e+01 3.756062e+01 2.494364e+01 3.924650e+01 5.209233e+01 3.905656e+01 3.935099e+01 2.602875e+01 2.140510e+01 2.243750e+01 9.962307e+01 5.752782e+00 7.156117e+00 6.469936e+00 7.327817e+00 4.495142e+00 6.917022e+00 9.352969e+00 7.135347e+00 7.052120e+00 4.894042e+00 3.963974e+00 4.079737e+00 1.603359e+01
<GCONST> 2.219292e+02
<TRANSP> 5
 0.000000e+00 1.000000e+00 0.000000e+00 0.000000e+00 0.000000e+00
 0.000000e+00 6.508858e-01 3.491143e-01 0.000000e+00 0.000000e+00
 0.000000e+00 0.000000e+00 6.727044e-01 3.272957e-01 0.000000e+00
 0.000000e+00 0.000000e+00 0.000000e+00 8.466600e-01 1.533400e-01
 0.000000e+00 0.000000e+00 0.000000e+00 0.000000e+00 0.000000e+00
<ENDHMM>
~h "iy"
<BEGINHMM>
<NUMSTATES> 5
<STATE> 2
<MEAN> 39
 2.713931e+00 -5.330041e+00 5.664192e+01 3.909266e+00 -4.990142e+00 -1.424260e+01 -4.298846e+00 -5.718231e+00 -1.626756e+01 2.067365e+00 -7.108226e+00 8.355151e+00 1.292809e+02 9.045666e-01 -1.244188e+00 2.220140e+00 -1.311997e+00 -7.756745e-01 -1.211917e-01 2.677064e-01 -3.022442e-01 -4.036768e-01 2.496751e-01 1.575209e-01 4.528277e-02 -1.451636e-01 -3.442367e-01 2.907807e-01 -1.821316e+00 4.467016e-01 6.463076e-01 -1.618490e-02 -1.008120e-01 4.597121e-01 3.276666e-01 9.668602e-02 2.354339e-01 -1.554863e-01 -5.678167e-01
<VARIANCE> 39
 2.240028e+02 3.997075e+02 5.039924e+02 4.145192e+02 2.861841e+02 5.359039e+02 6.817200e+02 6.309041e+02 4.383572e+02 3.740623e+02 2.567548e+02 3.355232e+02 2.464957e+02 2.780107e+01 3.090609e+01 5.705020e+01 3.470739e+01 2.715089e+01 4.205876e+01 3.377848e+01 3.636267e+01 2.788747e+01 2.203827e+01 1.743324e+01 1.527421e+01 1.213886e+01 2.676325e+00 2.981558e+00 5.002459e+00 5.122433e+00 4.188024e+00 5.161434e+00 4.470220e+00 5.273183e+00 4.258523e+00 3.422306e+00 2.767778e+00 2.710618e+00 9.347283e-01
<GCONST> 2.083039e+02
<STATE> 3
<MEAN> 39
 4.894011e+00 -8.097481e+00 5.475047e+01 2.891514e+00 -4.266858e+00 -1.534045e+01 -4.172928e+00 -3.444141e+00 -1.624690e+01 3.032367e+00 -5.958757e+00 7.261122e+00 1.269261e+02 5.095932e-01 -5.547233e-01 -3.325052e+00 2.837661e-01 1.011618e+00 -3.226869e-01 -3.324594e-01 8.250692e-01 6.737778e-01 2.914410e-01 6.271207e-01 -3.140590e-01 -1.472755e+00 -7.863937e-02 2.541046e-01 -1.487134e+00 2.052012e-01 5.034981e-01 1.392447e-02 -2.743841e-01 1.163309e-01 3.371074e-01 9.206025e-03 6.108622e-02 -3.977798e-02 -3.149367e-01
<VARIANCE> 39
 2.471243e+02 3.834981e+02 5.507019e+02 4.196007e+02 3.099693e+02 6.767517e+02 7.873400e+02 6.131959e+02 4.577701e+02 4.184737e+02 2.556130e+02 3.073447e+02 3.599902e+02 2.033565e+01 1.991179e+01 5.017567e+01 2.743323e+01 2.431926e+01 3.541536e+01 2.961651e+01 2.985817e+01 2.559200e+01 1.950102e+01 1.584197e+01 1.463510e+01 8.230059e+00 1.797248e+00 2.503484e+00 4.554591e+00 5.043406e+00 4.064267e+00 4.902828e+00 4.264643e+00 4.781917e+00 4.162001e+00 3.201009e+00 2.634135e+00 2.386234e+00 8.986620e-01
<GCONST> 2.056559e+02
<STATE> 4
<MEAN> 39
 5.928514e+00 -6.268522e+00 4.288895e+01 -4.332345e-01 -9.520490e-01 -1.166892e+01 -4.241542e+00 -1.782660e+00 -1.055931e+01 4.100788e+00 -4.633779e+00 6.403457e+00 1.180989e+02 4.299307e-01 -1.462267e-01 -4.567079e+00 2.182466e-01 1.311763e+00 1.310315e-01 -5.823357e-01 5.760884e-01 1.069229e+00 2.696404e-01 4.327488e-01 -2.361979e-01 -1.881134e+00 -4.036395e-02 7.974757e-02 -1.456335e-01 -1.292454e-01 -2.794378e-02 7.474824e-02 -2.699892e-02 -7.357682e-02 6.777143e-03 4.979070e-02 -3.352885e-04 3.324712e-02 8.819127e-03
<VARIANCE> 39
 3.729401e+02 4.511253e+02 7.988896e+02 4.269985e+02 3.875660e+02 1.033942e+03 8.484205e+02 4.999860e+02 4.586977e+02 4.031295e+02 2.696458e+02 2.684569e+02 6.065292e+02 1.248577e+01 1.342366e+01 2.799203e+01 1.933081e+01 1.935709e+01 2.742239e+01 2.261213e+01 2.294417e+01 2.035042e+01 1.670034e+01 1.415345e+01 1.362958e+01 6.482308e+00 1.128343e+00 1.726737e+00 3.563581e+00 3.146884e+00 3.029061e+00 4.045252e+00 3.556606e+00 3.569059e+00 3.428363e+00 2.742144e+00 2.366900e+00 2.152275e+00 7.605444e-01
<GCONST> 2.006618e+02
<TRANSP> 5
 0.000000e+00 1.000000e+00 0.000000e+00 0.000000e+00 0.000000e+00
 0.000000e+00 6.899436e-01 3.100564e-01 0.000000e+00 0.000000e+00
 0.000000e+00 0.000000e+00 6.534882e-01 3.465118e-01 0.000000e+00
 0.000000e+00 0.000000e+00 0.000000e+00 8.093264e-01 1.906737e-01
 0.000000e+00 0.000000e+00 0.000000e+00 0.000000e+00 0.000000e+00
<ENDHMM>
~h "ow"
<BEGINHMM>
<NUMSTATES> 5
<STATE> 2
<MEAN> 39
 1.405025e+01 -1.718526e+01 4.569564e-01 -1.609715e+01 2.935252e+00 -1.187396e+01 -9.685423e+00 1.145717e+00 -4.037203e+00 1.668643e+01 4.546295e+00 2.958500e+00 1.164778e+02 7.863954e-01 -2.559615e-01 -1.902039e-02 -2.360244e+00 -3.919291e-01 1.739023e+00 1.334728e+00 -6.317474e-01 -2.951905e-02 1.317499e+00 1.670370e-01 -3.638572e-01 2.304254e+00 1.296902e-01 2.159516e-01 2.449894e-01 1.033968e-01 8.221839e-02 1.065953e-01 -9.161272e-02 -5.962077e-02 -2.924224e-02 -2.371360e-01 -2.246231e-01 1.674640e-01 1.201739e-01
<VARIANCE> 39
 5.384049e+02 2.896945e+02 2.551284e+02 3.744707e+02 3.731089e+02 6.030823e+02 6.727003e+02 4.304543e+02 6.798987e+02 5.603182e+02 5.031768e+02 2.961521e+02 1.159879e+03 1.924534e+01 1.468183e+01 1.231525e+01 1.939181e+01 1.870576e+01 2.028408e+01 2.284936e+01 2.246410e+01 2.595021e+01 2.472345e+01 2.494602e+01 1.937948e+01 5.425158e+01 2.603725e+00 2.172715e+00 1.918722e+00 2.986986e+00 2.831450e+00 2.937730e+00 3.485261e+00 3.593355e+00 3.888129e+00 4.183681e+00 4.091634e+00 3.265605e+00 7.423123e+00
<GCONST> 2.072689e+02
<STATE> 3
<MEAN> 39
 1.792116e+01 -1.612216e+01 1.615768e+00 -2.297369e+01 1.875632e+00 -4.749852e+00 -4.631565e+00 -6.084073e-01 -3.728513e+00 1.912831e+01 3.295536e+00 3.023459e+00 1.244971e+02 8.597665e-01 7.176449e-01 5.771881e-01 -1.578906e+00 -2.774146e-01 1.865024e+00 7.488063e-01 -6.597765e-01 -1.647957e-01 2.450148e-01 -3.383307e-01 3.648687e-01 1.783656e+00 -2.303418e-01 3.124661e-01 1.000411e-01 4.557475e-01 -5.560330e-04 -1.264876e-01 -2.168842e-01 4.014013e-02 -8.119596e-03 -3.647063e-01 -1.244158e-01 1.569533e-01 -5.752336e-01
<VARIANCE> 39
 3.338009e+02 2.572209e+02 2.479314e+02 4.029413e+02 3.856008e+02 5.533585e+02 5.407081e+02 3.962290e+02 8.106038e+02 5.333069e+02 5.103352e+02 2.872726e+02 8.028583e+02 1.745801e+01 1.323425e+01 9.742947e+00 1.935675e+01 1.512573e+01 1.619402e+01 1.899652e+01 1.836564e+01 2.298115e+01 2.234219e+01 2.042378e+01 1.674636e+01 5.127708e+01 2.274895e+00 1.771348e+00 1.536671e+00 2.785036e+00 2.296288e+00 2.429429e+00 2.755406e+00 2.901710e+00 3.471122e+00 3.467322e+00 3.290830e+00 2.718156e+00 5.664443e+00
<GCONST> 2.017656e+02
<STATE> 4
<MEAN> 39
 2.139096e+01 -2.489256e+00 4.851892e+00 -2.862471e+01 -2.235968e+00 6.962281e+00 -8.642077e-02 -1.845142e+00 -6.349665e+00 1.279815e+01 -1.753963e+00 6.594296e+00 1.196932e+02 -7.146279e-01 1.060318e+00 3.335028e-01 1.050347e+00 9.392564e-02 3.776858e-01 1.815242e-01 -9.337199e-02 -9.706791e-02 -7.790367e-01 -4.648665e-01 3.392675e-02 -1.913374e+00 -2.384787e-01 -3.724148e-02 -3.062681e-02 3.089501e-01 3.845831e-02 -1.656750e-01 -7.668579e-02 5.794667e-02 8.833870e-02 -4.410739e-02 3.054807e-02 -5.384196e-02 -2.181312e-01
<VARIANCE> 39
 2.120777e+02 3.406945e+02 2.567577e+02 5.648758e+02 5.332434e+02 4.527928e+02 4.491935e+02 4.048224e+02 7.672726e+02 4.685292e+02 4.111913e+02 3.287074e+02 7.048395e+02 8.118184e+00 1.090047e+01 8.401616e+00 1.679476e+01 1.231748e+01 1.462539e+01 1.514407e+01 1.665634e+01 1.975994e+01 1.739253e+01 1.703841e+01 1.475427e+01 9.450787e+00 1.109580e+00 1.438117e+00 1.279933e+00 2.302136e+00 1.897757e+00 2.236562e+00 2.384504e+00 2.697279e+00 2.994528e+00 2.699794e+00 2.637389e+00 2.343807e+00 1.100677e+00
<GCONST> 1.930515e+02
<TRANSP> 5
 0.000000e+00 1.000000e+00 0.000000e+00 0.000000e+00 0.000000e+00
 0.000000e+00 7.446885e-01 2.553116e-01 0.000000e+00 0.000000e+00
 0.000000e+00 0.000000e+00 6.967521e-01 3.032479e-01 0.000000e+00
 0.000000e+00 0.000000e+00 0.000000e+00 9.268031e-01 7.319692e-02
 0.000000e+00 0.000000e+00 0.000000e+00 0.000000e+00 0.000000e+00
<ENDHMM>
~h "th"
<BEGINHMM>
<NUMSTATES> 5
<STATE> 2
<MEAN> 39
 -2.228006e+01 1.059266e+00 4.857826e+00 7.023407e+00 -3.988822e+00 2.349997e-01 -3.085930e+00 -4.078216e-01 -4.498576e+00 2.848584e+00 -2.479337e+00 4.581810e+00 8.537572e+01 -1.500368e+00 -9.513340e-01 -8.206587e-01 -6.252852e-01 -7.557840e-01 -3.308102e-01 -6.723305e-01 1.048356e-01 8.914152e-02 -2.759154e-01 1.431693e-01 1.279179e-01 1.567004e+00 9.319550e-01 -2.713007e-01 5.321695e-01 -1.252305e-01 8.725198e-02 -2.812471e-01 -1.822945e-03 -7.472376e-02 -4.435186e-02 1.441568e-01 -1.894120e-02 4.887258e-02 1.014587e+00
<VARIANCE> 39
 2.846923e+02 1.654589e+02 2.204038e+02 1.857665e+02 1.919086e+02 2.014709e+02 2.085427e+02 1.932344e+02 1.968312e+02 1.633241e+02 1.511967e+02 1.465166e+02 6.867941e+02 3.468681e+01 1.872201e+01 2.707149e+01 2.426216e+01 2.170648e+01 2.408809e+01 2.495801e+01 2.254188e+01 2.418686e+01 1.997033e+01 1.907058e+01 1.860069e+01 8.202653e+01 4.032446e+00 3.746693e+00 4.732853e+00 4.745225e+00 4.500247e+00 4.617966e+00 4.716364e+00 4.325994e+00 4.520911e+00 3.993807e+00 3.891275e+00 3.802109e+00 1.158150e+01
<GCONST> 2.030675e+02
<STATE> 3
<MEAN> 39
 -1.891425e+01 -3.863123e+00 8.286005e+00 4.677959e+00 -5.862236e+00 -2.774889e+00 -4.389655e+00 -9.052197e-01 -4.118203e+00 3.247036e+00 -2.718615e+00 5.380575e+00 1.044813e+02 3.836332e+00 -1.629683e+00 1.994746e+00 7.220359e-01 1.162631e+00 -1.421972e+00 -9.069407e-01 -2.115257e-01 8.289620e-03 3.097153e-01 2.144233e-01 9.639592e-02 4.303021e+00 1.534394e+00 -1.909445e-01 2.303403e-01 5.926963e-01 9.568304e-01 -3.275536e-01 -4.100365e-01 1.335920e-02 -2.003768e-01 6.290625e-02 6.229902e-02 -9.789114e-02 -5.679314e-01
<VARIANCE> 39
 3.951341e+02 1.767806e+02 2.660011e+02 2.195426e+02 2.289637e+02 2.256259e+02 2.315059e+02 2.017665e+02 1.945224e+02 1.720489e+02 1.677832e+02 1.710044e+02 4.780706e+02 5.204672e+01 2.000324e+01 4.227758e+01 3.318319e+01 3.294409e+01 3.098711e+01 3.315202e+01 2.558635e+01 2.474840e+01 2.303737e+01 2.129498e+01 2.150480e+01 6.433240e+01 5.532887e+00 4.139166e+00 8.799005e+00 6.572738e+00 5.837110e+00 6.004525e+00 6.823226e+00 5.311690e+00 4.990673e+00 4.977034e+00 4.652369e+00 4.545839e+00 1.201029e+01
<GCONST> 2.098511e+02
<STATE> 4
<MEAN> 39
 1.146758e+01 -1.235936e+01 1.615494e+01 1.181903e+01 1.003912e+01 -1.616632e+01 -1.337935e+01 -2.151015e+00 -8.088256e+00 2.947046e+00 -2.394361e+00 5.428117e+00 1.179333e+02 4.906517e+00 -1.516321e+00 1.558002e+00 9.687861e-01 2.361900e+00 -2.293300e+00 -1.774051e+00 1.552840e-01 -1.269763e+00 -2.911272e-01 -9.612967e-02 -1.366533e-01 1.986325e+00 -8.134511e-01 1.498964e-01 4.463799e-02 -4.714974e-01 -4.365299e-01 2.773641e-01 2.057017e-01 1.952288e-02 -1.252003e-01 -2.448796e-02 -7.955994e-02 -5.988411e-03 -2.787347e-01
<VARIANCE> 39
 6.961212e+02 1.951282e+02 5.522363e+02 2.851880e+02 5.610949e+02 7.665024e+02 7.078622e+02 4.054312e+02 2.880838e+02 2.601456e+02 1.827940e+02 2.029101e+02 2.400156e+02 6.507693e+01 2.061686e+01 6.787885e+01 3.655514e+01 6.861332e+01 6.647638e+01 7.227359e+01 4.599334e+01 3.257385e+01 2.796770e+01 2.201386e+01 1.924516e+01 1.982002e+01 8.905643e+00 3.922164e+00 1.197756e+01 7.030212e+00 1.102466e+01 1.167584e+01 1.209764e+01 8.602995e+00 6.268457e+00 5.093980e+00 4.402443e+00 3.865190e+00 4.325817e+00
<GCONST> 2.208831e+02
<TRANSP> 5
 0.000000e+00 1.000000e+00 0.000000e+00 0.000000e+00 0.000000e+00
 0.000000e+00 8.018423e-01 1.981577e-01 0.000000e+00 0.000000e+00
 0.000000e+00 0.000000e+00 6.910252e-01 3.089748e-01 0.000000e+00
 0.000000e+00 0.000000e+00 0.000000e+00 8.434964e-01 1.565035e-01
 0.000000e+00 0.000000e+00 0.000000e+00 0.000000e+00 0.000000e+00
<ENDHMM>
~h "uw"
<BEGINHMM>
<NUMSTATES> 5
<STATE> 2
<MEAN> 39
 -5.426686e+00 -6.734578e+00 4.245592e+01 6.175844e+00 -4.137929e+00 -1.780923e+01 -3.492191e+00 2.088382e+00 -1.544712e+01 2.788782e+00 -8.179926e+00 8.174643e+00 1.266340e+02 5.768328e+00 -1.263195e+00 3.147880e+00 1.986418e+00 1.073367e+00 -2.089370e-01 -2.361072e+00 3.359774e-01 -1.057836e+00 1.944491e-01 -6.929717e-01 -9.181859e-01 1.449105e+00 -4.320725e-01 6.942469e-02 -7.647566e-01 -5.193249e-01 6.384713e-02 2.812151e-01 -3.188389e-01 -2.321864e-01 -3.417562e-02 -1.266112e-02 1.984735e-01 -1.884920e-01 -9.101953e-02
<VARIANCE> 39
 5.059333e+02 1.812663e+02 3.912602e+02 2.921479e+02 1.943882e+02 3.438311e+02 7.245786e+02 5.198187e+02 3.555428e+02 2.790141e+02 2.514246e+02 3.894131e+02 2.700140e+02 3.963764e+01 1.197382e+01 2.820241e+01 2.056483e+01 1.652211e+01 2.795496e+01 3.250207e+01 2.006870e+01 2.524604e+01 2.169308e+01 2.022135e+01 2.271916e+01 1.998778e+01 7.733880e+00 2.111840e+00 3.244393e+00 3.176322e+00 2.632444e+00 4.464740e+00 5.144440e+00 3.181647e+00 4.154334e+00 3.627717e+00 3.170695e+00 3.111704e+00 4.285317e+00
<GCONST> 2.047088e+02
<STATE> 3
<MEAN> 39
 8.419782e+00 -9.146171e+00 4.689590e+01 9.395393e+00 -3.335662e-01 -1.625414e+01 -1.125941e+01 1.239852e+00 -1.900583e+01 3.207158e+00 -8.875530e+00 4.201487e+00 1.293647e+02 1.838510e+00 -1.303185e-01 -4.551404e-01 4.516675e-01 1.119345e+00 6.060888e-01 -1.326437e+00 -2.946630e-01 -1.873272e-01 1.988905e-01 -4.846818e-02 -7.373165e-01 -2.231249e-01 -9.655275e-01 3.084472e-01 -8.269027e-01 -2.919169e-01 -5.456704e-02 2.464549e-01 4.458011e-01 -1.073846e-01 2.999278e-01 3.881136e-02 1.633463e-01 9.157826e-02 -5.448422e-01
<VARIANCE> 39
 1.800005e+02 2.034510e+02 3.420023e+02 3.470800e+02 2.566994e+02 4.925430e+02 9.229273e+02 6.116826e+02 4.600919e+02 3.883652e+02 3.202426e+02 5.936628e+02 2.947303e+02 2.199052e+01 1.090384e+01 1.944075e+01 1.396431e+01 1.380120e+01 2.344269e+01 2.587555e+01 1.942822e+01 2.140462e+01 1.960830e+01 1.754004e+01 1.932720e+01 1.473436e+01 3.070195e+00 1.788149e+00 2.209245e+00 2.465606e+00 2.270822e+00 3.463241e+00 3.963475e+00 3.163624e+00 3.503212e+00 3.258396e+00 2.860693e+00 2.979774e+00 1.987329e+00
<GCONST> 1.996885e+02
<STATE> 4
<MEAN> 39
 1.139820e+01 -2.161666e+00 3.146392e+01 8.741681e+00 6.334589e+00 -5.705813e+00 -6.761413e+00 -2.854059e+00 -1.525065e+01 5.513816e+00 -7.724108e+00 2.268106e+00 1.128394e+02 -7.763605e-01 5.292554e-01 -2.026467e+00 -2.138712e-02 4.059923e-01 1.130642e+00 7.682847e-01 -1.046337e-01 8.246034e-01 6.809042e-02 1.989859e-01 -9.392914e-02 -2.281246e+00 -3.075266e-01 3.316957e-02 -1.174217e-01 -7.303624e-02 -1.711899e-01 -5.947733e-02 7.358640e-02 4.155552e-02 6.752450e-02 -5.273314e-02 5.623931e-02 6.540808e-02 -1.014400e-01
<VARIANCE> 39
 1.872748e+02 2.464904e+02 5.206440e+02 3.271848e+02 3.045735e+02 6.937917e+02 7.718614e+02 5.152321e+02 5.533845e+02 4.112134e+02 3.612216e+02 5.376291e+02 6.358336e+02 1.162777e+01 1.156262e+01 1.148970e+01 1.272532e+01 1.484806e+01 2.161677e+01 2.248892e+01 2.069023e+01 2.153225e+01 1.781075e+01 1.735332e+01 1.672350e+01 7.116067e+00 1.443290e+00 1.815591e+00 1.673879e+00 2.113543e+00 2.192602e+00 3.158924e+00 3.290865e+00 3.241688e+00 3.382304e+00 2.919688e+00 2.916230e+00 2.687022e+00 9.504968e-01
<GCONST> 1.967940e+02
<TRANSP> 5
 0.000000e+00 1.000000e+00 0.000000e+00 0.000000e+00 0.000000e+00
 0.000000e+00 7.198324e-01 2.801676e-01 0.000000e+00 0.000000e+00
 0.000000e+00 0.000000e+00 6.883518e-01 3.116482e-01 0.000000e+00
 0.000000e+00 0.000000e+00 0.000000e+00 9.150438e-01 8.495612e-02
 0.000000e+00 0.000000e+00 0.000000e+00 0.000000e+00 0.000000e+00
<ENDHMM>
~h "sil"
<BEGINHMM>
<NUMSTATES> 5
<STATE> 2
<MEAN> 39
 -1.319552e+01 -1.331450e+00 8.783754e-01 6.648659e+00 1.687959e-01 9.087121e-02 3.648619e+00 5.643347e+00 -9.527262e-01 4.024689e-01 -3.740120e+00 1.149343e+00 6.386164e+01 -4.170303e-01 7.361908e-01 -1.537908e-01 3.061961e-02 2.548482e-02 2.847993e-02 -3.136050e-01 -1.687553e-01 6.133009e-02 1.654618e-02 2.506326e-01 -2.367503e-02 -1.124597e+00 6.438719e-03 6.805912e-02 1.031091e-01 1.292465e-02 3.484669e-02 4.114432e-02 3.156460e-02 -1.593559e-02 2.254401e-02 5.975049e-02 3.322396e-02 4.621085e-02 5.963676e-02
<VARIANCE> 39
 1.060617e+02 1.475095e+02 1.403472e+02 1.285595e+02 1.488211e+02 1.812062e+02 1.990547e+02 2.096619e+02 1.906419e+02 1.880679e+02 1.572624e+02 1.394353e+02 1.435813e+02 2.456290e+00 4.284030e+00 5.437066e+00 6.870635e+00 8.222830e+00 1.020498e+01 1.159515e+01 1.261681e+01 1.242646e+01 1.234146e+01 1.170341e+01 1.073003e+01 1.940866e+00 3.621725e-01 6.421780e-01 9.191171e-01 1.190445e+00 1.444988e+00 1.769474e+00 2.037086e+00 2.216362e+00 2.228890e+00 2.192238e+00 2.090077e+00 1.935134e+00 1.996921e-01
<GCONST> 1.657955e+02
<STATE> 3
<MEAN> 39
 -2.279898e+01 4.621049e+00 -3.329594e-01 3.930149e+00 -2.149476e+00 -1.855819e+00 -2.818332e+00 -1.224842e-01 -1.439108e+00 1.351232e+00 3.740308e-01 2.169937e+00 5.053850e+01 -2.742981e-01 1.479818e-01 7.700476e-02 -3.507906e-02 -3.544360e-02 -2.481857e-02 -1.616691e-01 -1.906462e-01 -2.278423e-02 1.126051e-01 1.268288e-01 5.817466e-02 -2.550470e-01 5.173057e-02 -6.471565e-02 1.288726e-02 7.238040e-03 8.182042e-03 1.126137e-02 4.106525e-02 3.550587e-02 -4.851082e-03 -3.316096e-03 -3.619982e-02 -5.164429e-03 1.211827e-01
<VARIANCE> 39
 5.549104e+01 4.971815e+01 5.251208e+01 6.501897e+01 8.333688e+01 1.038659e+02 1.239526e+02 1.236840e+02 1.121669e+02 1.050745e+02 1.010688e+02 8.878465e+01 4.096842e+01 1.928325e+00 2.962277e+00 3.833951e+00 5.028214e+00 6.449454e+00 7.845788e+00 9.288655e+00 1.002926e+01 1.002405e+01 9.894337e+00 9.664243e+00 8.614358e+00 1.550824e+00 3.444603e-01 5.634745e-01 7.675133e-01 1.014941e+00 1.303176e+00 1.574804e+00 1.849715e+00 1.996076e+00 2.017004e+00 1.990434e+00 1.947798e+00 1.744916e+00 2.723315e-01
<GCONST> 1.526946e+02
<STATE> 4
<MEAN> 39
 -2.244181e+01 -7.562218e-01 8.122451e-01 2.263582e+00 -3.249912e+00 -2.636973e+00 -3.629449e+00 4.525732e-01 -3.561788e+00 1.949842e+00 -9.429471e-01 2.375897e+00 6.534129e+01 -1.235631e-01 -1.512568e-01 5.052984e-02 5.265471e-02 -2.853458e-02 1.331539e-01 8.365948e-02 7.325958e-02 -4.469116e-02 1.421821e-01 -1.052618e-01 4.773079e-02 8.860210e-01 9.288774e-02 -2.120326e-02 7.225168e-02 -2.357647e-02 1.373851e-02 -4.704138e-03 2.259544e-02 1.054389e-02 -2.887451e-03 8.453684e-03 -2.971091e-02 1.438477e-02 3.329743e-01
<VARIANCE> 39
 2.223914e+02 1.614738e+02 1.835380e+02 1.522806e+02 1.508912e+02 1.688615e+02 1.876079e+02 1.794908e+02 1.749140e+02 1.540595e+02 1.416736e+02 1.223549e+02 5.750976e+02 9.721991e+00 1.053327e+01 1.035628e+01 1.091465e+01 1.195777e+01 1.356305e+01 1.501335e+01 1.480995e+01 1.418800e+01 1.344677e+01 1.300570e+01 1.120812e+01 1.668389e+01 1.849114e+00 1.978710e+00 1.881824e+00 2.053139e+00 2.242482e+00 2.525712e+00 2.766936e+00 2.740220e+00 2.618049e+00 2.506191e+00 2.397630e+00 2.092660e+00 3.226891e+00
<GCONST> 1.832624e+02
<TRANSP> 5
 0.000000e+00 1.000000e+00 0.000000e+00 0.000000e+00 0.000000e+00
 0.000000e+00 8.656135e-01 1.343866e-01 0.000000e+00 0.000000e+00
 0.000000e+00 0.000000e+00 9.111608e-01 8.883918e-02 0.000000e+00
 0.000000e+00 0.000000e+00 0.000000e+00 8.366113e-01 1.633886e-01
 0.000000e+00 0.000000e+00 0.000000e+00 0.000000e+00 0.000000e+00
<ENDHMM>
