~o
<STREAMINFO> 1 39
<VECSIZE> 39<NULLD><MFCC_D_A_0><DIAGC>
~v "varFloor1"
<VARIANCE> 39
 6.753474e+00 3.412362e+00 5.607597e+00 4.796462e+00 3.472081e+00 4.011722e+00 4.412065e+00 3.618229e+00 3.682593e+00 3.039560e+00 2.639483e+00 2.510356e+00 1.295583e+01 2.277723e-01 1.546074e-01 2.184501e-01 2.118108e-01 1.813343e-01 2.097883e-01 2.257618e-01 2.166374e-01 2.009357e-01 1.748309e-01 1.664689e-01 1.534765e-01 2.729284e-01 3.005151e-02 2.352162e-02 2.950290e-02 3.333734e-02 2.970534e-02 3.528604e-02 3.796648e-02 3.764385e-02 3.477007e-02 3.067227e-02 2.924742e-02 2.697526e-02 3.680371e-02
~s "silst"
<NUMMIXES> 16
<MIXTURE> 1 3.514212e-02
<MEAN> 39
 -1.704082e+01 1.205928e+01 7.140891e+00 1.253676e+01 6.972319e+00 7.566822e+00 6.579114e+00 8.190439e+00 4.969550e+00 5.488951e+00 3.307214e+00 4.408998e+00 5.242759e+01 3.740193e-01 9.125757e-01 1.179053e+00 1.364963e+00 1.541841e+00 1.670805e+00 1.570659e+00 1.465440e+00 1.515943e+00 1.433337e+00 1.385877e+00 1.033745e+00 1.051665e-01 1.062238e-01 -2.950150e-02 3.010766e-02 4.349899e-02 6.709562e-02 1.111553e-01 1.617129e-01 1.653873e-01 2.055865e-01 2.378069e-01 1.954767e-01 2.305342e-01 1.438758e-01
<VARIANCE> 39
 2.363100e+01 3.940348e+01 4.682907e+01 5.706800e+01 7.090117e+01 8.439462e+01 9.385760e+01 1.047915e+02 1.062980e+02 1.052211e+02 1.081630e+02 9.468638e+01 1.295583e+01 1.608151e+00 2.304322e+00 3.482156e+00 4.805952e+00 5.986623e+00 7.296743e+00 9.051691e+00 9.534478e+00 1.008160e+01 9.820666e+00 9.990702e+00 9.130974e+00 7.231492e-01 2.412023e-01 4.098407e-01 6.345887e-01 8.889897e-01 1.154010e+00 1.463239e+00 1.701973e+00 1.861100e+00 1.955486e+00 1.922006e+00 1.954254e+00 1.800546e+00 9.879132e-02
<GCONST> 1.456172e+02
<MIXTURE> 2 6.489165e-02
<MEAN> 39
 -2.522006e+01 5.239295e+00 -7.238938e-01 2.453164e+00 -4.122072e+00 -4.469537e+00 -6.270218e+00 -2.712852e+00 -1.621369e+00 2.671120e+00 3.436709e+00 4.818069e+00 4.819975e+01 5.169008e-01 7.029907e-01 9.211314e-01 1.104921e+00 1.225361e+00 1.356824e+00 1.415411e+00 1.337847e+00 1.283240e+00 1.265125e+00 1.108493e+00 9.233507e-01 2.722237e-01 3.479015e-01 2.188818e-01 3.444834e-01 4.654004e-01 5.822868e-01 7.209175e-01 8.343438e-01 7.642180e-01 5.394700e-01 3.620521e-01 1.492809e-01 1.643060e-01 2.937898e-01
<VARIANCE> 39
 2.066646e+01 2.216619e+01 2.953369e+01 3.879350e+01 5.037632e+01 6.425639e+01 7.716721e+01 8.250311e+01 8.359970e+01 8.318742e+01 8.156499e+01 7.386382e+01 1.295583e+01 9.986812e-01 1.625458e+00 2.893081e+00 3.981547e+00 5.082394e+00 6.229532e+00 7.627635e+00 8.378473e+00 8.852318e+00 8.821867e+00 8.487498e+00 7.942364e+00 4.478093e-01 2.455468e-01 3.770349e-01 6.308072e-01 8.743668e-01 1.083983e+00 1.299657e+00 1.578152e+00 1.735947e+00 1.754877e+00 1.790420e+00 1.761353e+00 1.594604e+00 1.281949e-01
<GCONST> 1.386071e+02
<MIXTURE> 3 6.397760e-02
<MEAN> 39
 -2.533396e+01 5.993453e+00 -5.796623e-02 2.787895e+00 -3.808082e+00 -3.816806e+00 -5.373462e+00 -1.741899e+00 -7.695799e-01 3.004367e+00 3.369962e+00 4.475823e+00 4.791523e+01 -5.772755e-03 1.181343e-01 1.885518e-01 1.884096e-01 2.020543e-01 2.346864e-01 2.538471e-01 3.591133e-01 5.006344e-01 5.834770e-01 6.757536e-01 6.657004e-01 1.552959e-02 1.500983e-01 1.115154e-01 1.907189e-01 2.962489e-01 3.551158e-01 3.589581e-01 3.680029e-01 3.761440e-01 3.417880e-01 3.161272e-01 2.815049e-01 2.628282e-01 1.222300e-01
<VARIANCE> 39
 1.351785e+01 1.570037e+01 2.262038e+01 3.159672e+01 4.440351e+01 5.627581e+01 6.585349e+01 7.071077e+01 7.186964e+01 7.108818e+01 6.873292e+01 6.389171e+01 1.295583e+01 6.701776e-01 1.345867e+00 2.476426e+00 3.531580e+00 4.693383e+00 5.741751e+00 6.857974e+00 7.675611e+00 7.877188e+00 7.769174e+00 7.637048e+00 7.098214e+00 2.762395e-01 1.158138e-01 2.459003e-01 4.490039e-01 6.644353e-01 8.779336e-01 1.062693e+00 1.255129e+00 1.409124e+00 1.492856e+00 1.489917e+00 1.458119e+00 1.360696e+00 4.987043e-02
<GCONST> 1.297263e+02
<MIXTURE> 4 7.458960e-02
<MEAN> 39
 -2.372887e+01 5.001192e+00 2.443962e-01 5.983108e+00 2.691874e+00 4.892110e+00 4.374348e+00 7.000191e+00 4.858987e+00 5.574841e+00 3.408580e+00 4.540915e+00 4.957592e+01 -2.694856e-01 3.861964e-01 5.621017e-01 4.409727e-01 4.177108e-01 4.009417e-01 2.704002e-01 3.294617e-01 7.756049e-01 1.297686e+00 1.437643e+00 1.159255e+00 -1.813752e-01 4.093014e-01 1.303107e-01 3.203365e-01 2.931249e-01 1.385126e-01 3.407900e-02 1.095866e-01 1.265494e-01 5.699328e-02 1.549986e-01 1.695033e-01 2.644891e-01 4.672027e-01
<VARIANCE> 39
 4.457523e+01 4.257821e+01 4.951868e+01 5.921163e+01 7.242397e+01 9.162634e+01 1.082878e+02 1.147565e+02 1.164013e+02 1.144729e+02 1.125411e+02 9.856863e+01 2.207485e+01 2.040414e+00 2.625491e+00 3.873363e+00 5.076323e+00 6.338209e+00 7.785266e+00 9.192487e+00 1.026624e+01 1.042132e+01 1.048682e+01 1.029784e+01 9.255383e+00 1.165940e+00 4.388764e-01 6.610450e-01 8.680692e-01 1.121843e+00 1.381417e+00 1.685784e+00 1.981845e+00 2.202182e+00 2.243743e+00 2.296649e+00 2.256387e+00 1.999703e+00 3.670864e-01
<GCONST> 1.530499e+02
<MIXTURE> 5 8.998485e-02
<MEAN> 39
 -2.662792e+01 4.619601e+00 -1.455820e+00 1.389245e+00 -5.532828e+00 -6.100354e+00 -8.223234e+00 -4.343310e+00 -2.438437e+00 2.246994e+00 3.244719e+00 4.394268e+00 4.728285e+01 9.131401e-02 2.271643e-01 3.210603e-01 3.708977e-01 4.138828e-01 4.617490e-01 4.437056e-01 4.402317e-01 4.795448e-01 5.180787e-01 4.513934e-01 4.059364e-01 6.220481e-02 1.671267e-01 1.111672e-01 1.977244e-01 2.592682e-01 3.619283e-01 4.600242e-01 5.533092e-01 5.350986e-01 3.747277e-01 2.668787e-01 1.501324e-01 1.755095e-01 1.706136e-01
<VARIANCE> 39
 1.393701e+01 1.902195e+01 2.632660e+01 3.546352e+01 4.747738e+01 6.010220e+01 7.095393e+01 7.707744e+01 7.813168e+01 7.747189e+01 7.465195e+01 6.806128e+01 1.295583e+01 6.700495e-01 1.350028e+00 2.446124e+00 3.510401e+00 4.633738e+00 5.692157e+00 6.818665e+00 7.600842e+00 7.937962e+00 7.897086e+00 7.755265e+00 7.135505e+00 3.056426e-01 1.687858e-01 3.174215e-01 5.426941e-01 7.873414e-01 1.018706e+00 1.209652e+00 1.441341e+00 1.607399e+00 1.646894e+00 1.647671e+00 1.614802e+00 1.470558e+00 9.015948e-02
<GCONST> 1.334283e+02
<MIXTURE> 6 6.345285e-02
<MEAN> 39
 -2.464119e+01 4.846009e+00 -4.592012e-01 4.398145e+00 4.716847e-01 2.223756e+00 1.215963e+00 4.049902e+00 2.714438e+00 4.347776e+00 3.045922e+00 4.415974e+00 4.875394e+01 -6.785753e-01 -1.854205e-02 -8.505851e-03 -4.023066e-01 -5.544842e-01 -6.661969e-01 -9.204844e-01 -8.813967e-01 -3.033679e-01 2.695063e-01 4.991409e-01 4.867760e-01 -3.895435e-01 3.110956e-01 -2.622984e-02 1.736356e-01 1.558980e-01 4.068871e-02 -4.683903e-02 6.870274e-02 1.286625e-01 4.732966e-02 1.261513e-01 1.413291e-01 2.336558e-01 4.659374e-01
<VARIANCE> 39
 3.285206e+01 3.569612e+01 4.472458e+01 5.245392e+01 6.657595e+01 8.532883e+01 1.017852e+02 1.068115e+02 1.089332e+02 1.047588e+02 1.020980e+02 9.139645e+01 1.554161e+01 2.109672e+00 2.858726e+00 4.140481e+00 5.202633e+00 6.582068e+00 8.180660e+00 9.651294e+00 1.069268e+01 1.063955e+01 1.075003e+01 1.032664e+01 9.071932e+00 1.253067e+00 4.099167e-01 6.479224e-01 8.860887e-01 1.125714e+00 1.361294e+00 1.649149e+00 1.960433e+00 2.172068e+00 2.213777e+00 2.253173e+00 2.187430e+00 1.923943e+00 3.615718e-01
<GCONST> 1.516213e+02
<MIXTURE> 7 3.612683e-02
<MEAN> 39
 -2.603471e+01 5.414481e+00 -1.002960e+00 1.525742e+00 -5.276052e+00 -5.279976e+00 -6.966955e+00 -3.211591e+00 -2.006879e+00 2.181677e+00 2.885530e+00 4.034657e+00 4.750134e+01 -3.084965e-01 -2.871240e-01 -3.160984e-01 -4.571501e-01 -5.325709e-01 -5.234820e-01 -5.219014e-01 -4.116654e-01 -2.735912e-01 -2.525851e-01 -1.659013e-01 4.317865e-02 -1.099839e-01 8.339949e-02 6.768625e-02 1.650539e-01 2.468503e-01 2.970601e-01 2.783166e-01 2.816054e-01 3.058894e-01 3.060164e-01 2.838309e-01 2.551745e-01 2.498668e-01 8.656731e-02
<VARIANCE> 39
 1.087680e+01 1.496957e+01 2.172287e+01 2.994457e+01 4.206197e+01 5.286034e+01 6.103099e+01 6.636639e+01 6.904438e+01 6.775794e+01 6.664906e+01 6.249102e+01 1.295583e+01 6.798539e-01 1.412656e+00 2.501888e+00 3.615088e+00 4.741530e+00 5.752947e+00 6.868034e+00 7.810067e+00 7.755580e+00 7.604815e+00 7.641132e+00 6.965551e+00 2.776924e-01 1.072959e-01 2.458850e-01 4.523311e-01 6.401174e-01 8.617384e-01 1.070782e+00 1.242155e+00 1.379480e+00 1.451019e+00 1.437439e+00 1.460387e+00 1.350400e+00 4.776741e-02
<GCONST> 1.287847e+02
<MIXTURE> 8 7.174290e-02
<MEAN> 39
 -1.951155e+01 8.966671e+00 3.798830e+00 8.935217e+00 3.342477e+00 3.896426e+00 2.908775e+00 4.991217e+00 2.208043e+00 2.977999e+00 1.425732e+00 3.129375e+00 5.152961e+01 -6.316784e-02 4.187196e-01 5.373689e-01 5.184762e-01 5.894172e-01 6.447901e-01 5.033411e-01 4.225931e-01 5.017610e-01 5.577767e-01 4.955833e-01 3.995773e-01 -8.175412e-02 -7.492799e-02 -2.081899e-01 -1.883591e-01 -2.183267e-01 -2.133847e-01 -1.829701e-01 -1.219131e-01 -5.023539e-02 7.167387e-02 2.206413e-01 2.651582e-01 2.966365e-01 6.512932e-02
<VARIANCE> 39
 2.817617e+01 3.555342e+01 4.420034e+01 5.449039e+01 6.893458e+01 8.493514e+01 9.746100e+01 1.072300e+02 1.144480e+02 1.110882e+02 1.090928e+02 9.704568e+01 1.419043e+01 1.550175e+00 2.160517e+00 3.375034e+00 4.597017e+00 5.792798e+00 7.191193e+00 8.667416e+00 9.451941e+00 9.850109e+00 9.863563e+00 9.983760e+00 8.926848e+00 7.813700e-01 2.208836e-01 3.847358e-01 6.175827e-01 8.688442e-01 1.135687e+00 1.401576e+00 1.671657e+00 1.867198e+00 1.998929e+00 1.990502e+00 1.975840e+00 1.798480e+00 1.028079e-01
<GCONST> 1.454681e+02
<MIXTURE> 9 8.998485e-02
<MEAN> 39
 -2.812122e+01 2.875035e+00 -3.508198e+00 -9.928052e-01 -8.288981e+00 -9.201378e+00 -1.159260e+01 -7.855060e+00 -5.974123e+00 -1.273731e+00 -2.113352e-01 1.094298e+00 4.584309e+01 -2.361122e-01 -2.375986e-01 -3.045433e-01 -3.785448e-01 -4.471620e-01 -4.925807e-01 -6.007974e-01 -6.625533e-01 -6.474308e-01 -6.059915e-01 -6.625376e-01 -6.625583e-01 -1.589350e-01 2.792470e-03 -1.141935e-01 -9.694664e-02 -9.566091e-02 -4.179554e-02 2.008744e-02 7.308576e-02 2.796564e-02 -1.385977e-01 -2.465679e-01 -3.581671e-01 -3.095568e-01 5.050736e-02
<VARIANCE> 39
 1.393701e+01 1.902195e+01 2.632660e+01 3.546352e+01 4.747738e+01 6.010220e+01 7.095393e+01 7.707744e+01 7.813168e+01 7.747189e+01 7.465195e+01 6.806128e+01 1.295583e+01 6.700495e-01 1.350028e+00 2.446124e+00 3.510401e+00 4.633738e+00 5.692157e+00 6.818665e+00 7.600842e+00 7.937962e+00 7.897086e+00 7.755265e+00 7.135505e+00 3.056426e-01 1.687858e-01 3.174215e-01 5.426941e-01 7.873414e-01 1.018706e+00 1.209652e+00 1.441341e+00 1.607399e+00 1.646894e+00 1.647671e+00 1.614802e+00 1.470558e+00 9.015948e-02
<GCONST> 1.334283e+02
<MIXTURE> 10 7.458960e-02
<MEAN> 39
 -2.639945e+01 2.391112e+00 -2.570384e+00 2.905144e+00 -7.122173e-01 1.063244e+00 2.118905e-01 2.715213e+00 5.434093e-01 1.295161e+00 -8.348359e-01 5.696453e-01 4.769656e+01 -8.408579e-01 -2.619382e-01 -2.251327e-01 -4.602552e-01 -5.893213e-01 -7.151419e-01 -9.423645e-01 -9.521773e-01 -5.156779e-01 2.351165e-03 1.540334e-01 -5.765140e-02 -6.132900e-01 1.443104e-01 -1.949080e-01 -5.234447e-02 -1.305435e-01 -3.316222e-01 -4.852720e-01 -4.535254e-01 -4.670406e-01 -5.421718e-01 -4.511894e-01 -4.313477e-01 -3.011544e-01 2.248521e-01
<VARIANCE> 39
 4.457523e+01 4.257821e+01 4.951868e+01 5.921163e+01 7.242397e+01 9.162634e+01 1.082878e+02 1.147565e+02 1.164013e+02 1.144729e+02 1.125411e+02 9.856863e+01 2.207485e+01 2.040414e+00 2.625491e+00 3.873363e+00 5.076323e+00 6.338209e+00 7.785266e+00 9.192487e+00 1.026624e+01 1.042132e+01 1.048682e+01 1.029784e+01 9.255383e+00 1.165940e+00 4.388764e-01 6.610450e-01 8.680692e-01 1.121843e+00 1.381417e+00 1.685784e+00 1.981845e+00 2.202182e+00 2.243743e+00 2.296649e+00 2.256387e+00 1.999703e+00 3.670864e-01
<GCONST> 1.530499e+02
<MIXTURE> 11 7.174290e-02
<MEAN> 39
 -2.163480e+01 6.581603e+00 1.139496e+00 5.982513e+00 2.140296e-02 2.100157e-01 -1.040119e+00 8.491395e-01 -2.071172e+00 -1.237937e+00 -2.752168e+00 -8.110954e-01 5.002281e+01 -5.611919e-01 -1.692283e-01 -1.974817e-01 -3.391500e-01 -3.733121e-01 -4.278659e-01 -6.742779e-01 -8.071673e-01 -7.536344e-01 -6.984757e-01 -7.683003e-01 -7.955360e-01 -4.353347e-01 -2.629210e-01 -4.562982e-01 -5.027049e-01 -5.911739e-01 -6.396592e-01 -6.565229e-01 -6.390834e-01 -5.968172e-01 -4.938601e-01 -3.436993e-01 -2.971001e-01 -2.397932e-01 -6.312536e-02
<VARIANCE> 39
 2.817617e+01 3.555342e+01 4.420034e+01 5.449039e+01 6.893458e+01 8.493514e+01 9.746100e+01 1.072300e+02 1.144480e+02 1.110882e+02 1.090928e+02 9.704568e+01 1.419043e+01 1.550175e+00 2.160517e+00 3.375034e+00 4.597017e+00 5.792798e+00 7.191193e+00 8.667416e+00 9.451941e+00 9.850109e+00 9.863563e+00 9.983760e+00 8.926848e+00 7.813700e-01 2.208836e-01 3.847358e-01 6.175827e-01 8.688442e-01 1.135687e+00 1.401576e+00 1.671657e+00 1.867198e+00 1.998929e+00 1.990502e+00 1.975840e+00 1.798480e+00 1.028079e-01
<GCONST> 1.454681e+02
<MIXTURE> 12 6.489165e-02
<MEAN> 39
 -2.703848e+01 3.356055e+00 -2.897690e+00 -3.821361e-02 -6.961123e+00 -7.675941e+00 -9.784014e+00 -6.346102e+00 -5.278684e+00 -9.771653e-01 -1.758248e-01 1.380307e+00 4.675999e+01 1.171646e-01 1.930169e-01 2.407690e-01 3.067682e-01 3.235944e-01 3.584630e-01 3.106835e-01 1.800231e-01 9.312588e-02 7.705939e-02 -5.683935e-02 -2.039373e-01 4.549488e-03 1.496907e-01 -2.673084e-02 2.678995e-02 9.137002e-02 1.658288e-01 2.649075e-01 3.318457e-01 2.371967e-01 9.582847e-03 -1.731743e-01 -3.815829e-01 -3.408045e-01 1.505726e-01
<VARIANCE> 39
 2.066646e+01 2.216619e+01 2.953369e+01 3.879350e+01 5.037632e+01 6.425639e+01 7.716721e+01 8.250311e+01 8.359970e+01 8.318742e+01 8.156499e+01 7.386382e+01 1.295583e+01 9.986812e-01 1.625458e+00 2.893081e+00 3.981547e+00 5.082394e+00 6.229532e+00 7.627635e+00 8.378473e+00 8.852318e+00 8.821867e+00 8.487498e+00 7.942364e+00 4.478093e-01 2.455468e-01 3.770349e-01 6.308072e-01 8.743668e-01 1.083983e+00 1.299657e+00 1.578152e+00 1.735947e+00 1.754877e+00 1.790420e+00 1.761353e+00 1.594604e+00 1.281949e-01
<GCONST> 1.386071e+02
<MIXTURE> 13 6.397760e-02
<MEAN> 39
 -2.680462e+01 4.408505e+00 -1.960402e+00 5.394568e-01 -6.473520e+00 -6.817494e+00 -8.619469e+00 -5.105487e+00 -4.160618e+00 -3.681852e-01 5.374956e-02 1.278531e+00 4.647547e+01 -3.332303e-01 -3.459117e-01 -4.409148e-01 -5.632904e-01 -6.645145e-01 -7.237917e-01 -7.936623e-01 -7.490825e-01 -6.220188e-01 -5.314525e-01 -4.296548e-01 -3.999986e-01 -1.947044e-01 1.397261e-02 -8.683795e-02 -7.731210e-02 -2.980271e-02 -1.967663e-02 -5.338991e-02 -8.012728e-02 -9.868217e-02 -1.469420e-01 -1.721214e-01 -2.015055e-01 -2.037673e-01 3.290325e-02
<VARIANCE> 39
 1.351785e+01 1.570037e+01 2.262038e+01 3.159672e+01 4.440351e+01 5.627581e+01 6.585349e+01 7.071077e+01 7.186964e+01 7.108818e+01 6.873292e+01 6.389171e+01 1.295583e+01 6.701776e-01 1.345867e+00 2.476426e+00 3.531580e+00 4.693383e+00 5.741751e+00 6.857974e+00 7.675611e+00 7.877188e+00 7.769174e+00 7.637048e+00 7.098214e+00 2.762395e-01 1.158138e-01 2.459003e-01 4.490039e-01 6.644353e-01 8.779336e-01 1.062693e+00 1.255129e+00 1.409124e+00 1.492856e+00 1.489917e+00 1.458119e+00 1.360696e+00 4.987043e-02
<GCONST> 1.297263e+02
<MIXTURE> 14 6.345285e-02
<MEAN> 39
 -2.693385e+01 2.456160e+00 -3.134259e+00 1.501141e+00 -2.792079e+00 -1.471189e+00 -2.819583e+00 -8.408403e-02 -1.460405e+00 2.537060e-01 -9.958202e-01 5.919142e-01 4.717702e+01 -1.259564e+00 -6.948528e-01 -8.224328e-01 -1.314678e+00 -1.580706e+00 -1.810271e+00 -2.163146e+00 -2.189383e+00 -1.608101e+00 -1.041983e+00 -7.862627e-01 -7.180099e-01 -8.373054e-01 5.499662e-02 -3.482044e-01 -2.028936e-01 -2.685007e-01 -4.260093e-01 -5.605158e-01 -4.913591e-01 -4.608551e-01 -5.478210e-01 -4.742717e-01 -4.502695e-01 -3.211694e-01 2.254140e-01
<VARIANCE> 39
 3.285206e+01 3.569612e+01 4.472458e+01 5.245392e+01 6.657595e+01 8.532883e+01 1.017852e+02 1.068115e+02 1.089332e+02 1.047588e+02 1.020980e+02 9.139645e+01 1.554161e+01 2.109672e+00 2.858726e+00 4.140481e+00 5.202633e+00 6.582068e+00 8.180660e+00 9.651294e+00 1.069268e+01 1.063955e+01 1.075003e+01 1.032664e+01 9.071932e+00 1.253067e+00 4.099167e-01 6.479224e-01 8.860887e-01 1.125714e+00 1.361294e+00 1.649149e+00 1.960433e+00 2.172068e+00 2.213777e+00 2.253173e+00 2.187430e+00 1.923943e+00 3.615718e-01
<GCONST> 1.516213e+02
<MIXTURE> 15 3.612683e-02
<MEAN> 39
 -2.735391e+01 3.866860e+00 -2.867272e+00 -6.631236e-01 -7.870260e+00 -8.188181e+00 -1.009185e+01 -6.470214e+00 -5.330597e+00 -1.110932e+00 -3.800246e-01 8.726069e-01 4.606158e+01 -6.383095e-01 -7.625448e-01 -9.487927e-01 -1.217685e+00 -1.403573e+00 -1.482894e+00 -1.570179e+00 -1.529525e+00 -1.387545e+00 -1.355658e+00 -1.271605e+00 -1.012515e+00 -3.207701e-01 -4.762473e-02 -1.306609e-01 -1.039684e-01 -7.317910e-02 -7.425933e-02 -1.355978e-01 -1.642026e-01 -1.639156e-01 -1.758166e-01 -1.957421e-01 -2.282114e-01 -2.149601e-01 -8.557141e-04
<VARIANCE> 39
 1.087680e+01 1.496957e+01 2.172287e+01 2.994457e+01 4.206197e+01 5.286034e+01 6.103099e+01 6.636639e+01 6.904438e+01 6.775794e+01 6.664906e+01 6.249102e+01 1.295583e+01 6.798539e-01 1.412656e+00 2.501888e+00 3.615088e+00 4.741530e+00 5.752947e+00 6.868034e+00 7.810067e+00 7.755580e+00 7.604815e+00 7.641132e+00 6.965551e+00 2.776924e-01 1.072959e-01 2.458850e-01 4.523311e-01 6.401174e-01 8.617384e-01 1.070782e+00 1.242155e+00 1.379480e+00 1.451019e+00 1.437439e+00 1.460387e+00 1.350400e+00 4.776741e-02
<GCONST> 1.287847e+02
<MIXTURE> 16 3.514212e-02
<MEAN> 39
 -1.898528e+01 9.548396e+00 4.403621e+00 9.515023e+00 3.604205e+00 3.892160e+00 2.703909e+00 4.095731e+00 8.455136e-01 1.385857e+00 -8.528440e-01 5.167204e-01 5.098783e+01 -1.332323e-01 3.053760e-01 4.326319e-01 4.880634e-01 5.631375e-01 5.903053e-01 3.672180e-01 2.303224e-01 2.458814e-01 1.798194e-01 1.215543e-01 -1.749546e-01 -2.349862e-01 -9.022556e-02 -2.855767e-01 -2.885367e-01 -3.336460e-01 -3.626038e-01 -3.727023e-01 -3.601258e-01 -3.803013e-01 -3.537683e-01 -3.167388e-01 -3.637018e-01 -3.062036e-01 1.815142e-02
<VARIANCE> 39
 2.363100e+01 3.940348e+01 4.682907e+01 5.706800e+01 7.090117e+01 8.439462e+01 9.385760e+01 1.047915e+02 1.062980e+02 1.052211e+02 1.081630e+02 9.468638e+01 1.295583e+01 1.608151e+00 2.304322e+00 3.482156e+00 4.805952e+00 5.986623e+00 7.296743e+00 9.051691e+00 9.534478e+00 1.008160e+01 9.820666e+00 9.990702e+00 9.130974e+00 7.231492e-01 2.412023e-01 4.098407e-01 6.345887e-01 8.889897e-01 1.154010e+00 1.463239e+00 1.701973e+00 1.861100e+00 1.955486e+00 1.922006e+00 1.954254e+00 1.800546e+00 9.879132e-02
<GCONST> 1.456172e+02
~h "f"
<BEGINHMM>
<NUMSTATES> 5
<STATE> 2
<NUMMIXES> 16
<MIXTURE> 1 3.817258e-02
<MEAN> 39
 -2.960195e+01 -9.403769e+00 2.298956e+00 5.986546e+00 -8.665106e-01 1.383406e+00 -4.825207e+00 2.567190e+00 -3.705016e+00 4.036194e+00 -2.889778e+00 3.389965e+00 9.130134e+01 2.407377e-01 4.495593e-01 9.945018e-01 1.565668e+00 2.164553e+00 3.078415e+00 2.951966e+00 2.752705e+00 2.477731e+00 2.567764e+00 2.039003e+00 1.388471e+00 1.380127e+00 1.764664e+00 5.066019e-01 2.791060e-01 -6.754166e-02 5.232274e-01 4.684331e-01 7.010924e-01 4.342669e-01 6.679288e-01 8.053049e-01 6.242440e-01 5.014952e-01 1.289032e+00
<VARIANCE> 39
 1.239085e+02 1.086599e+02 6.899739e+01 7.449386e+01 8.352647e+01 1.084129e+02 1.179129e+02 1.146583e+02 1.331661e+02 1.252506e+02 1.255216e+02 1.200209e+02 3.600936e+02 1.031003e+01 7.973727e+00 7.138586e+00 7.709900e+00 8.928926e+00 1.052108e+01 1.030574e+01 1.231588e+01 1.239483e+01 1.217676e+01 1.245059e+01 1.082603e+01 2.314026e+01 4.038097e+00 1.857154e+00 1.519721e+00 2.077944e+00 1.829601e+00 2.292975e+00 2.417735e+00 2.474510e+00 2.558399e+00 2.715997e+00 2.748982e+00 2.339076e+00 4.073811e+00
<GCONST> 1.760385e+02
<MIXTURE> 2 4.725888e-02
<MEAN> 39
 -2.709839e+01 -6.748395e+00 5.807172e+00 9.472414e+00 4.242095e+00 5.543935e+00 -2.805736e-01 7.764914e+00 2.697107e+00 1.053351e+01 1.402743e+00 6.209700e+00 8.913078e+01 6.801236e-02 -9.557621e-01 -1.328338e-01 2.722094e-01 5.786314e-01 1.213506e+00 5.045677e-01 8.895652e-01 1.203705e+00 1.579942e+00 1.413497e+00 1.308720e+00 3.148416e+00 2.392267e+00 6.078062e-01 1.796455e-01 -5.694986e-01 2.239260e-02 1.304041e-01 3.918363e-01 -1.002822e-01 -2.002346e-01 8.975947e-02 5.865076e-02 1.087364e-01 1.741826e+00
<VARIANCE> 39
 1.526759e+02 1.292085e+02 1.153049e+02 1.132027e+02 1.436145e+02 1.592630e+02 1.694551e+02 1.615302e+02 1.732323e+02 1.679905e+02 1.473226e+02 1.378120e+02 3.861303e+02 2.666339e+01 1.331439e+01 1.125421e+01 1.240540e+01 1.162485e+01 1.437671e+01 1.383641e+01 1.436870e+01 1.408414e+01 1.489182e+01 1.387756e+01 1.230430e+01 4.427981e+01 6.084358e+00 2.830132e+00 2.959012e+00 3.741435e+00 3.437329e+00 3.556966e+00 4.080325e+00 3.808762e+00 4.054347e+00 4.039975e+00 3.656007e+00 2.928848e+00 5.367225e+00
<GCONST> 1.902955e+02
<MIXTURE> 3 1.235512e-01
<MEAN> 39
 -3.414979e+01 -1.587467e+01 -1.561872e+00 3.126716e+00 -2.238352e+00 5.458088e-01 -6.109648e+00 1.700704e+00 -3.765172e+00 6.004994e+00 -1.529611e+00 4.806155e+00 9.652832e+01 1.010572e-01 2.273714e-01 1.160658e-01 3.019141e-01 6.496101e-01 1.028083e+00 7.061040e-01 5.970590e-01 5.168589e-01 7.759790e-01 8.123069e-01 7.278223e-01 1.369033e+00 1.523082e+00 7.944468e-01 7.409909e-01 5.613237e-01 7.735856e-01 6.133887e-01 8.061505e-01 5.468760e-01 5.344895e-01 4.217603e-01 3.534250e-01 3.000793e-01 6.263554e-01
<VARIANCE> 39
 7.209919e+01 6.693398e+01 6.057077e+01 6.483580e+01 7.419979e+01 8.572453e+01 9.498041e+01 9.908105e+01 9.722120e+01 9.479668e+01 9.402952e+01 8.451174e+01 2.525479e+02 4.969520e+00 4.217347e+00 4.835355e+00 5.953602e+00 6.802295e+00 7.833200e+00 9.219185e+00 9.364758e+00 9.610811e+00 9.681967e+00 9.409322e+00 8.872553e+00 9.429357e+00 1.676573e+00 1.057247e+00 1.149903e+00 1.463905e+00 1.599069e+00 1.775478e+00 1.983650e+00 1.961815e+00 1.950790e+00 1.984678e+00 1.929259e+00 1.734423e+00 1.648818e+00
<GCONST> 1.625780e+02
<MIXTURE> 4 4.497993e-02
<MEAN> 39
 -3.139764e+01 -1.474183e+01 3.849075e+00 8.254951e+00 1.024641e+00 6.465607e-01 -4.744936e+00 4.115252e+00 -9.093814e-01 7.043749e+00 -9.231467e-01 5.765778e+00 1.028427e+02 -3.779655e+00 -2.830773e+00 -3.722744e+00 -2.894776e+00 -2.424129e+00 -1.562152e+00 -2.061913e+00 -4.038384e-01 4.931941e-01 7.774082e-01 9.581481e-01 7.850326e-01 1.432344e-01 3.217000e+00 1.693065e+00 1.568111e+00 4.035259e-01 8.314430e-01 9.405329e-01 1.315326e+00 2.338295e-01 -1.002571e-01 4.602169e-01 1.329610e-01 3.639016e-01 5.812819e-01
<VARIANCE> 39
 8.049825e+01 6.728841e+01 9.135139e+01 9.877988e+01 1.128148e+02 1.300124e+02 1.253961e+02 1.411395e+02 1.389760e+02 1.229894e+02 1.141061e+02 1.078027e+02 1.788360e+02 1.807374e+01 8.854427e+00 1.016142e+01 1.046241e+01 1.039651e+01 1.150673e+01 1.229593e+01 1.389849e+01 1.453072e+01 1.332560e+01 1.210829e+01 1.146637e+01 1.214692e+01 1.839912e+00 1.661168e+00 2.735592e+00 4.056255e+00 3.042298e+00 2.906054e+00 3.324031e+00 4.203957e+00 4.290884e+00 3.433585e+00 3.119541e+00 3.094355e+00 1.670223e+00
<GCONST> 1.792813e+02
<MIXTURE> 5 9.799210e-02
<MEAN> 39
 -3.410223e+01 -1.639528e+01 -2.082044e+00 2.366793e+00 -3.080201e+00 -5.021131e-02 -6.717306e+00 4.890953e-01 -4.609787e+00 5.194684e+00 -1.983077e+00 4.387778e+00 9.331657e+01 -3.068696e-01 -2.366853e-01 -3.425533e-01 -3.119448e-01 -3.467951e-01 -1.029138e-01 -6.330903e-01 -6.115606e-01 -8.141245e-01 -5.600198e-01 -4.288974e-01 -6.510735e-03 1.905472e+00 1.086799e+00 6.205229e-01 4.667111e-01 4.152048e-01 5.600940e-01 4.237612e-01 5.794172e-01 4.441738e-01 4.578210e-01 3.362573e-01 3.198758e-01 2.576114e-01 5.863051e-01
<VARIANCE> 39
 7.139614e+01 7.121061e+01 5.790392e+01 6.307804e+01 7.252789e+01 8.665791e+01 1.001332e+02 1.037370e+02 1.051594e+02 1.002545e+02 9.785355e+01 9.050623e+01 2.543612e+02 4.817336e+00 4.781373e+00 4.868879e+00 6.109902e+00 7.095500e+00 8.282383e+00 9.766429e+00 9.908437e+00 9.903971e+00 9.951632e+00 9.831820e+00 9.255313e+00 9.921684e+00 1.358584e+00 1.096177e+00 1.037654e+00 1.269546e+00 1.481023e+00 1.769367e+00 2.063401e+00 2.054438e+00 2.012583e+00 2.101291e+00 1.947595e+00 1.809913e+00 1.822878e+00
<GCONST> 1.632551e+02
<MIXTURE> 6 6.896345e-02
<MEAN> 39
 -3.048031e+01 -9.647834e+00 1.148016e+00 5.568290e+00 -1.457351e+00 1.273704e+00 -5.791926e+00 1.434477e+00 -4.705543e+00 3.487281e+00 -3.042191e+00 2.834055e+00 8.573598e+01 -5.226696e-01 -2.976102e-01 2.424610e-01 5.378864e-01 8.636987e-01 1.606505e+00 1.274723e+00 1.226059e+00 8.278910e-01 9.947545e-01 6.526676e-01 5.357950e-01 2.151967e+00 1.271996e+00 2.993683e-01 1.202404e-01 -9.829497e-02 2.721058e-01 1.777655e-01 4.815016e-01 3.395644e-01 5.744736e-01 5.894665e-01 5.006242e-01 4.844273e-01 1.479204e+00
<VARIANCE> 39
 1.288875e+02 1.067891e+02 6.859135e+01 6.792262e+01 8.099744e+01 1.008100e+02 1.135318e+02 1.136378e+02 1.208346e+02 1.103742e+02 1.154814e+02 1.010448e+02 3.320966e+02 9.356608e+00 8.650640e+00 6.137310e+00 6.906111e+00 8.312343e+00 9.494675e+00 1.018970e+01 1.098377e+01 1.106804e+01 1.051377e+01 1.076062e+01 9.888975e+00 2.458945e+01 3.305398e+00 1.902734e+00 1.357630e+00 1.589830e+00 1.782521e+00 2.104118e+00 2.283395e+00 2.317963e+00 2.369002e+00 2.355752e+00 2.402363e+00 2.072966e+00 4.575943e+00
<GCONST> 1.730899e+02
<MIXTURE> 7 4.910769e-02
<MEAN> 39
 -2.759366e+01 -9.159949e+00 3.677649e+00 7.299200e+00 2.846427e+00 4.352803e+00 -1.266959e+00 6.209795e+00 1.890070e+00 1.036309e+01 1.510805e+00 6.206813e+00 8.859158e+01 -1.537803e+00 -2.207137e+00 -1.021703e+00 -8.111908e-01 -7.754375e-01 -3.934547e-01 -1.434914e+00 -7.028242e-01 -4.618818e-01 1.301444e-02 6.737810e-02 3.931369e-01 3.361461e+00 1.824940e+00 7.062885e-01 2.556992e-01 -1.056083e-01 3.443089e-02 8.736479e-02 3.178425e-01 -5.214083e-02 -3.011408e-01 -1.822880e-01 1.299161e-02 1.000661e-01 1.320707e+00
<VARIANCE> 39
 1.321731e+02 1.194825e+02 1.031118e+02 1.090824e+02 1.269014e+02 1.481008e+02 1.601108e+02 1.524697e+02 1.498010e+02 1.414892e+02 1.362829e+02 1.238897e+02 3.636727e+02 2.437940e+01 1.314139e+01 1.024358e+01 1.147103e+01 1.159023e+01 1.321462e+01 1.321347e+01 1.355892e+01 1.413287e+01 1.467032e+01 1.346471e+01 1.231770e+01 3.871286e+01 4.909409e+00 2.450138e+00 2.628351e+00 3.084751e+00 3.063476e+00 3.260892e+00 3.725589e+00 3.438880e+00 3.362371e+00 3.334411e+00 3.317055e+00 2.802150e+00 4.794756e+00
<GCONST> 1.867118e+02
<MIXTURE> 8 2.995224e-02
<MEAN> 39
 -3.140552e+01 -1.372668e+01 4.482848e+00 8.761230e+00 1.593225e+00 1.920068e+00 -3.549011e+00 4.628588e+00 -1.554533e+00 6.657353e+00 -1.210009e+00 4.744244e+00 1.031196e+02 -5.327532e+00 -4.013579e+00 -4.472100e+00 -3.751140e+00 -4.210715e+00 -3.417285e+00 -4.186364e+00 -2.221895e+00 -1.498595e+00 -1.190928e+00 -6.465960e-01 -4.682201e-01 6.594372e-02 3.469408e+00 1.553960e+00 1.179735e+00 -4.418799e-02 5.920579e-01 4.949430e-01 1.065579e+00 -1.555710e-01 -2.902642e-02 5.399981e-01 1.420902e-01 7.441216e-01 5.614532e-01
<VARIANCE> 39
 7.531072e+01 7.888860e+01 1.058564e+02 1.088558e+02 1.195875e+02 1.444034e+02 1.445176e+02 1.453636e+02 1.444674e+02 1.366882e+02 1.247962e+02 1.133715e+02 1.532500e+02 1.865144e+01 1.013121e+01 1.177876e+01 1.164658e+01 1.117750e+01 1.222065e+01 1.315792e+01 1.414326e+01 1.504198e+01 1.339481e+01 1.281880e+01 1.268852e+01 1.132337e+01 2.287208e+00 1.981471e+00 3.278600e+00 4.830668e+00 3.268225e+00 3.660111e+00 3.701205e+00 4.634114e+00 4.382411e+00 3.544067e+00 3.372845e+00 3.366440e+00 1.598066e+00
<GCONST> 1.822775e+02
<MIXTURE> 9 1.235512e-01
<MEAN> 39
 -3.754623e+01 -1.914719e+01 -4.674962e+00 -9.411168e-02 -5.683924e+00 -3.157693e+00 -1.000796e+01 -2.280874e+00 -7.709205e+00 2.110450e+00 -5.408363e+00 1.128945e+00 9.017162e+01 -7.906396e-01 -5.940758e-01 -7.635118e-01 -6.740861e-01 -3.936383e-01 -9.143141e-02 -5.084203e-01 -6.270167e-01 -7.231935e-01 -4.686554e-01 -4.146779e-01 -4.636509e-01 1.407425e-01 1.005152e+00 3.831568e-01 3.120568e-01 7.735592e-02 2.677684e-01 8.040038e-02 2.427821e-01 -1.338321e-02 -2.419326e-02 -1.417541e-01 -2.021661e-01 -2.267106e-01 1.127302e-01
<VARIANCE> 39
 7.209919e+01 6.693398e+01 6.057077e+01 6.483580e+01 7.419979e+01 8.572453e+01 9.498041e+01 9.908105e+01 9.722120e+01 9.479668e+01 9.402952e+01 8.451174e+01 2.525479e+02 4.969520e+00 4.217347e+00 4.835355e+00 5.953602e+00 6.802295e+00 7.833200e+00 9.219185e+00 9.364758e+00 9.610811e+00 9.681967e+00 9.409322e+00 8.872553e+00 9.429357e+00 1.676573e+00 1.057247e+00 1.149903e+00 1.463905e+00 1.599069e+00 1.775478e+00 1.983650e+00 1.961815e+00 1.950790e+00 1.984678e+00 1.929259e+00 1.734423e+00 1.648818e+00
<GCONST> 1.625780e+02
<MIXTURE> 10 9.799210e-02
<MEAN> 39
 -3.748209e+01 -1.977074e+01 -5.125830e+00 -8.100746e-01 -6.486733e+00 -3.773821e+00 -1.071997e+01 -3.584960e+00 -8.711678e+00 1.189597e+00 -5.939915e+00 5.823878e-01 8.693709e+01 -1.184807e+00 -1.111339e+00 -1.225175e+00 -1.300673e+00 -1.412290e+00 -1.254079e+00 -1.883142e+00 -1.870667e+00 -2.072948e+00 -1.821868e+00 -1.683127e+00 -1.223413e+00 6.455239e-01 6.205655e-01 2.017290e-01 5.924988e-02 -3.549176e-02 7.330480e-02 -1.083090e-01 4.835427e-03 -1.291586e-01 -1.096412e-01 -2.435759e-01 -2.383492e-01 -2.805206e-01 4.624909e-02
<VARIANCE> 39
 7.139614e+01 7.121061e+01 5.790392e+01 6.307804e+01 7.252789e+01 8.665791e+01 1.001332e+02 1.037370e+02 1.051594e+02 1.002545e+02 9.785355e+01 9.050623e+01 2.543612e+02 4.817336e+00 4.781373e+00 4.868879e+00 6.109902e+00 7.095500e+00 8.282383e+00 9.766429e+00 9.908437e+00 9.903971e+00 9.951632e+00 9.831820e+00 9.255313e+00 9.921684e+00 1.358584e+00 1.096177e+00 1.037654e+00 1.269546e+00 1.481023e+00 1.769367e+00 2.063401e+00 2.054438e+00 2.012583e+00 2.101291e+00 1.947595e+00 1.809913e+00 1.822878e+00
<GCONST> 1.632551e+02
<MIXTURE> 11 6.896345e-02
<MEAN> 39
 -3.502145e+01 -1.378139e+01 -2.164780e+00 2.271682e+00 -5.057295e+00 -2.742463e+00 -1.005398e+01 -2.829565e+00 -9.102535e+00 -7.150835e-01 -7.340682e+00 -1.186786e+00 7.844656e+01 -1.746212e+00 -1.474089e+00 -7.484828e-01 -5.132928e-01 -2.895467e-01 3.739679e-01 -2.129376e-03 -9.961182e-02 -5.028555e-01 -3.022433e-01 -6.594677e-01 -7.220746e-01 1.684570e-01 5.447659e-01 -2.523902e-01 -3.458292e-01 -6.026489e-01 -2.619385e-01 -4.024577e-01 -1.229346e-01 -2.694299e-01 -4.118887e-02 -2.447191e-02 -1.193582e-01 -9.148467e-02 6.235459e-01
<VARIANCE> 39
 1.288875e+02 1.067891e+02 6.859135e+01 6.792262e+01 8.099744e+01 1.008100e+02 1.135318e+02 1.136378e+02 1.208346e+02 1.103742e+02 1.154814e+02 1.010448e+02 3.320966e+02 9.356608e+00 8.650640e+00 6.137310e+00 6.906111e+00 8.312343e+00 9.494675e+00 1.018970e+01 1.098377e+01 1.106804e+01 1.051377e+01 1.076062e+01 9.888975e+00 2.458945e+01 3.305398e+00 1.902734e+00 1.357630e+00 1.589830e+00 1.782521e+00 2.104118e+00 2.283395e+00 2.317963e+00 2.369002e+00 2.355752e+00 2.402363e+00 2.072966e+00 4.575943e+00
<GCONST> 1.730899e+02
<MIXTURE> 12 4.910769e-02
<MEAN> 39
 -3.219232e+01 -1.353227e+01 -3.841107e-01 3.121499e+00 -1.659594e+00 -5.150635e-01 -6.328355e+00 1.270650e+00 -3.005659e+00 5.605124e+00 -3.158806e+00 1.754583e+00 8.096350e+01 -3.512823e+00 -3.657179e+00 -2.301927e+00 -2.165947e+00 -2.137215e+00 -1.847531e+00 -2.888928e+00 -2.175722e+00 -1.965630e+00 -1.519060e+00 -1.400393e+00 -1.010726e+00 8.726748e-01 9.386523e-01 8.017176e-02 -3.927884e-01 -8.081467e-01 -6.656806e-01 -6.349528e-01 -4.542289e-01 -7.939095e-01 -1.034612e+00 -9.127028e-01 -7.155198e-01 -5.695189e-01 4.448299e-01
<VARIANCE> 39
 1.321731e+02 1.194825e+02 1.031118e+02 1.090824e+02 1.269014e+02 1.481008e+02 1.601108e+02 1.524697e+02 1.498010e+02 1.414892e+02 1.362829e+02 1.238897e+02 3.636727e+02 2.437940e+01 1.314139e+01 1.024358e+01 1.147103e+01 1.159023e+01 1.321462e+01 1.321347e+01 1.355892e+01 1.413287e+01 1.467032e+01 1.346471e+01 1.231770e+01 3.871286e+01 4.909409e+00 2.450138e+00 2.628351e+00 3.084751e+00 3.063476e+00 3.260892e+00 3.725589e+00 3.438880e+00 3.362371e+00 3.334411e+00 3.317055e+00 2.802150e+00 4.794756e+00
<GCONST> 1.867118e+02
<MIXTURE> 13 4.725888e-02
<MEAN> 39
 -3.204087e+01 -1.129519e+01 1.511968e+00 5.216544e+00 -5.514765e-01 4.959571e-01 -5.487571e+00 2.681132e+00 -2.567603e+00 5.349067e+00 -3.452319e+00 1.513966e+00 8.127070e+01 -1.997452e+00 -2.415318e+00 -1.474726e+00 -1.136643e+00 -7.851781e-01 -3.031597e-01 -9.833253e-01 -6.266776e-01 -2.974488e-01 3.634459e-02 -7.660663e-02 -9.437978e-02 4.866924e-01 1.405607e+00 -6.511363e-02 -5.084257e-01 -1.343210e+00 -7.192088e-01 -6.239927e-01 -4.161563e-01 -8.809242e-01 -1.005651e+00 -7.142281e-01 -7.061768e-01 -5.758188e-01 8.151346e-01
<VARIANCE> 39
 1.526759e+02 1.292085e+02 1.153049e+02 1.132027e+02 1.436145e+02 1.592630e+02 1.694551e+02 1.615302e+02 1.732323e+02 1.679905e+02 1.473226e+02 1.378120e+02 3.861303e+02 2.666339e+01 1.331439e+01 1.125421e+01 1.240540e+01 1.162485e+01 1.437671e+01 1.383641e+01 1.436870e+01 1.408414e+01 1.489182e+01 1.387756e+01 1.230430e+01 4.427981e+01 6.084358e+00 2.830132e+00 2.959012e+00 3.741435e+00 3.437329e+00 3.556966e+00 4.080325e+00 3.808762e+00 4.054347e+00 4.039975e+00 3.656007e+00 2.928848e+00 5.367225e+00
<GCONST> 1.902955e+02
<MIXTURE> 14 4.497993e-02
<MEAN> 39
 -3.498647e+01 -1.802301e+01 2.595866e-02 4.279428e+00 -3.223931e+00 -3.914359e+00 -9.224152e+00 -6.368338e-01 -5.624905e+00 2.607725e+00 -5.195965e+00 1.612654e+00 9.749351e+01 -5.480185e+00 -4.021029e+00 -4.997824e+00 -4.188602e+00 -3.713873e+00 -2.919015e+00 -3.464535e+00 -1.895066e+00 -1.031573e+00 -6.827617e-01 -4.337307e-01 -5.694485e-01 -1.250863e+00 2.674426e+00 1.177519e+00 9.065265e-01 -4.020799e-01 1.337556e-01 2.586468e-01 5.860491e-01 -5.863127e-01 -9.288351e-01 -2.809806e-01 -5.735279e-01 -3.397296e-01 6.433347e-02
<VARIANCE> 39
 8.049825e+01 6.728841e+01 9.135139e+01 9.877988e+01 1.128148e+02 1.300124e+02 1.253961e+02 1.411395e+02 1.389760e+02 1.229894e+02 1.141061e+02 1.078027e+02 1.788360e+02 1.807374e+01 8.854427e+00 1.016142e+01 1.046241e+01 1.039651e+01 1.150673e+01 1.229593e+01 1.389849e+01 1.453072e+01 1.332560e+01 1.210829e+01 1.146637e+01 1.214692e+01 1.839912e+00 1.661168e+00 2.735592e+00 4.056255e+00 3.042298e+00 2.906054e+00 3.324031e+00 4.203957e+00 4.290884e+00 3.433585e+00 3.119541e+00 3.094355e+00 1.670223e+00
<GCONST> 1.792813e+02
<MIXTURE> 15 3.817258e-02
<MEAN> 39
 -3.405451e+01 -1.357337e+01 -1.023631e+00 2.534152e+00 -4.522223e+00 -2.781455e+00 -9.168715e+00 -1.715955e+00 -8.320921e+00 -4.404224e-01 -7.371234e+00 -9.921970e-01 8.371088e+01 -1.043632e+00 -6.799523e-01 -7.422358e-02 4.549999e-01 9.693007e-01 1.780967e+00 1.667864e+00 1.348945e+00 1.069479e+00 1.171956e+00 6.275871e-01 7.235348e-02 -5.440459e-01 9.608636e-01 -3.850788e-02 -2.140018e-01 -6.441447e-01 -1.782358e-02 -1.372697e-01 7.912964e-02 -1.949561e-01 2.812898e-02 1.460937e-01 -3.895819e-02 -1.102663e-01 4.816850e-01
<VARIANCE> 39
 1.239085e+02 1.086599e+02 6.899739e+01 7.449386e+01 8.352647e+01 1.084129e+02 1.179129e+02 1.146583e+02 1.331661e+02 1.252506e+02 1.255216e+02 1.200209e+02 3.600936e+02 1.031003e+01 7.973727e+00 7.138586e+00 7.709900e+00 8.928926e+00 1.052108e+01 1.030574e+01 1.231588e+01 1.239483e+01 1.217676e+01 1.245059e+01 1.082603e+01 2.314026e+01 4.038097e+00 1.857154e+00 1.519721e+00 2.077944e+00 1.829601e+00 2.292975e+00 2.417735e+00 2.474510e+00 2.558399e+00 2.715997e+00 2.748982e+00 2.339076e+00 4.073811e+00
<GCONST> 1.760385e+02
<MIXTURE> 16 2.995224e-02
<MEAN> 39
 -3.487679e+01 -1.727945e+01 3.673861e-01 4.587871e+00 -2.781018e+00 -2.886651e+00 -8.357631e+00 -1.940856e-01 -6.362317e+00 1.980804e+00 -5.678497e+00 4.852018e-01 9.816782e+01 -7.055024e+00 -5.286762e+00 -5.844908e+00 -5.116224e+00 -5.548026e+00 -4.815607e+00 -5.637318e+00 -3.726197e+00 -3.049955e+00 -2.654884e+00 -2.078730e+00 -1.893058e+00 -1.280065e+00 2.864467e+00 9.909016e-01 4.554591e-01 -9.233392e-01 -1.310714e-01 -2.703136e-01 2.960382e-01 -1.016651e+00 -8.663948e-01 -2.130296e-01 -5.925220e-01 1.020709e-02 5.579463e-02
<VARIANCE> 39
 7.531072e+01 7.888860e+01 1.058564e+02 1.088558e+02 1.195875e+02 1.444034e+02 1.445176e+02 1.453636e+02 1.444674e+02 1.366882e+02 1.247962e+02 1.133715e+02 1.532500e+02 1.865144e+01 1.013121e+01 1.177876e+01 1.164658e+01 1.117750e+01 1.222065e+01 1.315792e+01 1.414326e+01 1.504198e+01 1.339481e+01 1.281880e+01 1.268852e+01 1.132337e+01 2.287208e+00 1.981471e+00 3.278600e+00 4.830668e+00 3.268225e+00 3.660111e+00 3.701205e+00 4.634114e+00 4.382411e+00 3.544067e+00 3.372845e+00 3.366440e+00 1.598066e+00
<GCONST> 1.822775e+02
<STATE> 3
<NUMMIXES> 16
<MIXTURE> 1 4.365528e-02
<MEAN> 39
 -1.618184e+01 -1.051125e+01 3.727006e+00 5.844772e+00 6.555165e+00 7.329041e+00 1.762656e-01 5.095716e+00 1.988066e+00 9.339493e+00 4.508913e-02 5.734837e+00 1.032269e+02 1.791775e+01 5.195680e+00 1.451018e+00 -8.346082e+00 2.267672e+00 1.912780e+00 4.997233e+00 4.253406e-01 2.062514e+00 4.507526e+00 4.582797e-01 2.451056e+00 8.850321e+00 2.014588e+00 2.386099e-02 -1.358738e-01 -3.398885e+00 -2.284330e-01 -2.784694e-01 7.065029e-01 -2.161199e-02 1.543200e-01 1.085735e+00 -1.113153e-01 8.027321e-01 2.083985e+00
<VARIANCE> 39
 1.110871e+02 6.851375e+01 6.256207e+01 7.207057e+01 9.888367e+01 1.101881e+02 1.094669e+02 1.054527e+02 1.276995e+02 1.214094e+02 9.749786e+01 9.400667e+01 1.757911e+02 1.248200e+01 3.121399e+01 1.278874e+01 2.599714e+01 1.711440e+01 1.791656e+01 2.303012e+01 1.928346e+01 3.811357e+01 2.363955e+01 3.114634e+01 2.005415e+01 2.832995e+01 2.748071e+00 3.976586e+00 1.957142e+00 3.208017e+00 3.256225e+00 3.250302e+00 3.502743e+00 2.945770e+00 4.365104e+00 3.273347e+00 3.693758e+00 3.021084e+00 3.641794e+00
<GCONST> 1.870835e+02
<MIXTURE> 2 7.248905e-02
<MEAN> 39
 -2.921156e+01 -1.816774e+01 -2.773423e+00 2.329956e+00 -1.234264e-01 1.943678e+00 -5.157264e+00 1.598454e+00 -3.491842e+00 6.705084e+00 -1.148684e+00 5.114542e+00 1.072373e+02 9.833372e+00 4.156264e+00 2.159392e+00 3.900206e-02 2.632289e+00 2.946357e+00 3.661990e+00 2.058711e+00 2.267514e+00 2.380010e+00 1.699125e+00 1.413131e+00 2.997345e+00 4.784451e+00 2.372738e+00 1.271031e+00 -2.300941e+00 -4.886709e-01 4.687175e-01 9.966893e-01 7.100071e-01 3.697392e-02 7.931674e-01 3.186134e-01 2.363571e-01 1.079163e+00
<VARIANCE> 39
 9.981845e+01 5.418015e+01 5.882771e+01 6.878454e+01 7.843826e+01 9.560534e+01 1.004247e+02 1.004607e+02 1.066566e+02 1.048772e+02 1.041254e+02 9.473090e+01 1.516816e+02 1.892928e+01 1.037573e+01 6.883993e+00 1.046266e+01 9.592360e+00 9.515656e+00 1.035334e+01 1.057331e+01 1.179140e+01 1.162829e+01 1.206947e+01 9.990075e+00 1.666055e+01 1.733826e+00 3.399869e+00 2.433246e+00 3.406050e+00 3.545382e+00 3.268802e+00 3.834370e+00 3.557940e+00 4.029021e+00 3.646317e+00 4.649916e+00 3.337657e+00 3.814412e+00
<GCONST> 1.772741e+02
<MIXTURE> 3 5.381355e-02
<MEAN> 39
 -1.683083e+01 -1.334857e+01 -1.403915e+00 1.482088e+00 2.647525e+00 4.772398e+00 -1.307345e+00 2.137251e+00 -1.514807e+00 9.834598e+00 -1.994786e-01 6.111295e+00 1.088599e+02 1.716139e+01 6.744183e+00 4.030356e+00 -5.518634e+00 -2.478216e+00 2.982512e+00 2.137801e+00 3.236069e+00 -3.838274e-01 2.090037e+00 3.456732e+00 -3.427092e-01 6.306562e+00 2.746543e+00 1.077929e+00 1.213537e+00 -2.381191e+00 -1.741356e+00 6.680042e-01 -2.814523e-01 1.191351e+00 -5.522138e-01 4.808113e-01 1.008425e+00 -6.221448e-01 1.476175e+00
<VARIANCE> 39
 1.154664e+02 6.012868e+01 6.148316e+01 7.307255e+01 1.089938e+02 1.298734e+02 1.237713e+02 1.267757e+02 1.131848e+02 1.225007e+02 1.143805e+02 9.844907e+01 1.674883e+02 1.188955e+01 2.388027e+01 1.779068e+01 1.909151e+01 2.291488e+01 2.050498e+01 1.863342e+01 2.117994e+01 2.403905e+01 2.584187e+01 3.300351e+01 1.482145e+01 2.965420e+01 2.432324e+00 4.260245e+00 3.125719e+00 3.475868e+00 4.363426e+00 4.495404e+00 4.383439e+00 3.990834e+00 4.444552e+00 4.728737e+00 5.795364e+00 3.286900e+00 4.502744e+00
<GCONST> 1.898186e+02
<MIXTURE> 4 6.639320e-02
<MEAN> 39
 -3.060721e+01 -1.667880e+01 -1.708536e+00 6.489146e-02 -4.874601e+00 -2.229821e+00 -9.215500e+00 -1.566131e+00 -7.513067e+00 1.837814e+00 -4.075482e+00 3.418839e+00 1.028619e+02 7.716619e+00 8.241390e-01 1.995737e-01 -7.649417e-01 1.264235e+00 9.480687e-01 1.302944e+00 5.789974e-01 1.704370e+00 1.586047e+00 5.400272e-01 8.774627e-01 8.383091e+00 4.596147e+00 1.929295e+00 8.374676e-01 -1.013173e+00 7.742243e-01 1.195902e+00 1.721696e+00 9.582586e-01 1.276416e+00 1.668790e+00 6.650094e-01 3.059078e-01 9.619777e-01
<VARIANCE> 39
 1.251408e+02 6.003764e+01 5.308499e+01 6.176596e+01 6.146677e+01 7.006039e+01 6.910597e+01 7.649174e+01 8.391364e+01 7.828860e+01 7.340631e+01 6.888562e+01 2.213130e+02 2.095084e+01 1.069087e+01 6.569567e+00 8.272219e+00 7.974766e+00 9.223248e+00 9.692167e+00 1.059528e+01 1.207028e+01 1.092199e+01 1.108613e+01 9.809138e+00 3.332283e+01 2.431407e+00 3.070459e+00 2.229355e+00 2.923100e+00 2.883821e+00 2.488640e+00 2.532125e+00 2.823869e+00 3.686726e+00 3.165802e+00 3.555475e+00 2.400409e+00 5.850530e+00
<GCONST> 1.739597e+02
<MIXTURE> 5 8.052970e-02
<MEAN> 39
 -3.175056e+01 -1.950740e+01 -4.514172e+00 1.650213e+00 -7.056723e-01 1.602684e+00 -6.040185e+00 2.352833e-01 -4.514595e+00 6.600306e+00 -1.529254e+00 4.623797e+00 1.050992e+02 8.506286e+00 3.173549e+00 1.294579e+00 -6.244291e-01 1.338305e+00 1.736595e+00 2.276610e+00 1.031136e+00 1.016103e+00 9.204568e-01 6.788087e-01 5.228878e-01 3.253607e+00 4.886214e+00 2.385474e+00 1.560268e+00 -1.873262e+00 -5.019847e-01 5.126238e-01 9.004767e-01 8.852998e-01 1.207053e-01 5.955827e-01 6.040100e-01 5.330962e-02 1.179244e+00
<VARIANCE> 39
 8.975905e+01 5.364443e+01 5.865403e+01 7.173763e+01 8.125324e+01 9.443840e+01 1.027547e+02 1.056663e+02 1.068704e+02 9.697118e+01 1.076253e+02 8.995863e+01 1.417579e+02 1.929496e+01 9.175883e+00 6.691243e+00 9.110372e+00 8.863798e+00 8.906320e+00 9.747613e+00 1.008030e+01 1.112311e+01 1.058765e+01 1.097201e+01 9.313912e+00 1.517171e+01 1.564660e+00 2.744933e+00 2.254132e+00 3.152979e+00 3.302428e+00 2.932237e+00 3.271631e+00 3.324066e+00 3.626305e+00 3.364919e+00 4.680312e+00 2.915478e+00 3.248287e+00
<GCONST> 1.748443e+02
<MIXTURE> 6 5.761930e-02
<MEAN> 39
 -1.622223e+01 -1.523137e+01 -4.824575e+00 -1.829215e+00 -1.130910e+00 2.710741e+00 -4.108035e+00 -1.062933e+00 -6.751254e+00 5.513701e+00 -2.561329e+00 6.056373e+00 1.082784e+02 1.674360e+01 7.616435e+00 5.247185e+00 -5.539452e+00 -3.342508e+00 1.660052e+00 1.773525e+00 3.891699e+00 -6.992385e-01 9.343279e-01 2.091851e+00 -1.407806e+00 5.499429e+00 2.847367e+00 1.687277e+00 2.098705e+00 -2.125609e+00 -1.699068e+00 6.209172e-01 -1.726395e-01 1.793009e+00 -3.094048e-01 6.911272e-01 1.058456e+00 -9.506607e-01 1.303822e+00
<VARIANCE> 39
 1.052642e+02 5.593798e+01 5.564625e+01 7.374165e+01 9.300916e+01 1.119478e+02 1.206294e+02 1.181957e+02 1.101179e+02 1.115720e+02 1.005983e+02 9.510033e+01 1.589327e+02 1.033197e+01 1.956771e+01 1.712506e+01 1.733588e+01 2.151174e+01 2.001937e+01 1.639556e+01 2.203876e+01 2.305471e+01 2.102243e+01 2.670704e+01 1.343142e+01 2.812953e+01 2.278789e+00 3.704253e+00 2.984925e+00 3.303050e+00 4.290014e+00 4.287922e+00 4.050868e+00 4.415252e+00 4.845036e+00 4.314337e+00 4.982943e+00 3.242382e+00 3.683341e+00
<GCONST> 1.868481e+02
<MIXTURE> 7 6.717335e-02
<MEAN> 39
 -3.428255e+01 -1.813500e+01 -3.579705e+00 2.590133e-01 -4.752382e+00 -1.571917e+00 -9.606482e+00 -2.567305e+00 -8.340593e+00 2.422638e+00 -4.015603e+00 3.248164e+00 9.916552e+01 4.776365e+00 -1.224295e-01 -4.648085e-01 -1.268592e+00 -9.318626e-02 -4.599670e-01 -1.936281e-01 -7.989372e-01 -4.150522e-01 -2.977315e-01 -3.643817e-01 2.645178e-01 7.001635e+00 4.274770e+00 2.123450e+00 1.232053e+00 -2.977538e-01 7.019322e-01 1.067548e+00 1.545068e+00 1.144286e+00 1.114046e+00 1.256247e+00 6.987898e-01 3.490908e-01 9.761426e-01
<VARIANCE> 39
 1.079075e+02 6.843855e+01 6.166065e+01 7.195266e+01 7.104087e+01 8.345916e+01 8.681841e+01 8.833414e+01 9.660696e+01 9.435228e+01 8.937140e+01 7.561675e+01 1.939203e+02 1.088144e+01 8.555607e+00 6.430249e+00 6.878164e+00 7.651006e+00 9.077686e+00 9.793805e+00 1.059082e+01 9.863676e+00 9.823752e+00 9.857356e+00 9.164014e+00 2.574703e+01 2.262180e+00 1.853639e+00 1.824943e+00 2.576056e+00 2.374963e+00 2.237591e+00 2.325060e+00 2.559558e+00 2.727409e+00 2.628033e+00 2.678076e+00 2.076777e+00 4.127360e+00
<GCONST> 1.708875e+02
<MIXTURE> 8 5.831520e-02
<MEAN> 39
 -2.267423e+01 -1.201746e+01 1.746402e+00 3.528684e+00 4.566814e-01 2.291044e+00 -4.072752e+00 3.287595e+00 -1.780887e+00 4.881841e+00 -2.146116e+00 4.647608e+00 1.024334e+02 1.696387e+01 3.142431e+00 2.673933e-01 -6.957985e+00 2.220451e+00 1.008338e+00 4.030857e+00 -7.723986e-01 2.868588e+00 4.038449e+00 3.697777e-02 4.007929e-01 1.110286e+01 3.054496e+00 -1.571987e-01 -1.366055e-01 -2.991680e+00 7.031068e-01 2.739446e-01 1.462006e+00 -1.122908e-01 1.031964e+00 1.658362e+00 2.663717e-01 5.847778e-01 2.408972e+00
<VARIANCE> 39
 1.150187e+02 7.738213e+01 6.287005e+01 7.435778e+01 8.915866e+01 9.838750e+01 1.029452e+02 1.029337e+02 1.101771e+02 1.019660e+02 9.234772e+01 9.029292e+01 2.234446e+02 1.405370e+01 2.706412e+01 1.237705e+01 2.270933e+01 1.497020e+01 1.609923e+01 1.967492e+01 1.600874e+01 2.964085e+01 2.239741e+01 2.729748e+01 1.877927e+01 3.269655e+01 2.962662e+00 3.909151e+00 2.349502e+00 3.830468e+00 3.366478e+00 3.346358e+00 3.587964e+00 3.025149e+00 4.561709e+00 3.349331e+00 4.130998e+00 3.484159e+00 4.504031e+00
<GCONST> 1.867261e+02
<MIXTURE> 9 8.052970e-02
<MEAN> 39
 -3.554021e+01 -2.243710e+01 -7.577608e+00 -1.737710e+00 -4.311296e+00 -2.284493e+00 -1.009490e+01 -3.876481e+00 -8.649721e+00 2.661348e+00 -5.678958e+00 8.299364e-01 1.003368e+02 6.749245e+00 1.961880e+00 2.598811e-01 -1.831765e+00 1.474196e-01 5.428569e-01 1.027764e+00 -2.388436e-01 -3.179496e-01 -3.810900e-01 -6.461523e-01 -6.978604e-01 1.695571e+00 4.385869e+00 1.722760e+00 9.597176e-01 -2.583528e+00 -1.228888e+00 -1.723272e-01 1.769707e-01 1.560190e-01 -6.410091e-01 -1.381659e-01 -2.613512e-01 -6.296812e-01 4.583237e-01
<VARIANCE> 39
 8.975905e+01 5.364443e+01 5.865403e+01 7.173763e+01 8.125324e+01 9.443840e+01 1.027547e+02 1.056663e+02 1.068704e+02 9.697118e+01 1.076253e+02 8.995863e+01 1.417579e+02 1.929496e+01 9.175883e+00 6.691243e+00 9.110372e+00 8.863798e+00 8.906320e+00 9.747613e+00 1.008030e+01 1.112311e+01 1.058765e+01 1.097201e+01 9.313912e+00 1.517171e+01 1.564660e+00 2.744933e+00 2.254132e+00 3.152979e+00 3.302428e+00 2.932237e+00 3.271631e+00 3.324066e+00 3.626305e+00 3.364919e+00 4.680312e+00 2.915478e+00 3.248287e+00
<GCONST> 1.748443e+02
<MIXTURE> 10 7.248905e-02
<MEAN> 39
 -3.320792e+01 -2.111202e+01 -5.841393e+00 -9.875019e-01 -3.666042e+00 -1.967442e+00 -9.165749e+00 -2.410749e+00 -7.622829e+00 2.608701e+00 -5.230358e+00 1.221350e+00 1.023109e+02 8.093060e+00 2.867808e+00 1.109898e+00 -1.254839e+00 1.393427e+00 1.712459e+00 2.374926e+00 7.580455e-01 8.939698e-01 1.015998e+00 3.094792e-01 1.488477e-01 1.364651e+00 4.257752e+00 1.635188e+00 6.470764e-01 -3.039161e+00 -1.241838e+00 -2.544757e-01 2.134274e-01 -4.449296e-02 -7.659229e-01 2.935404e-02 -5.439332e-01 -4.944131e-01 2.979420e-01
<VARIANCE> 39
 9.981845e+01 5.418015e+01 5.882771e+01 6.878454e+01 7.843826e+01 9.560534e+01 1.004247e+02 1.004607e+02 1.066566e+02 1.048772e+02 1.041254e+02 9.473090e+01 1.516816e+02 1.892928e+01 1.037573e+01 6.883993e+00 1.046266e+01 9.592360e+00 9.515656e+00 1.035334e+01 1.057331e+01 1.179140e+01 1.162829e+01 1.206947e+01 9.990075e+00 1.666055e+01 1.733826e+00 3.399869e+00 2.433246e+00 3.406050e+00 3.545382e+00 3.268802e+00 3.834370e+00 3.557940e+00 4.029021e+00 3.646317e+00 4.649916e+00 3.337657e+00 3.814412e+00
<GCONST> 1.772741e+02
<MIXTURE> 11 6.717335e-02
<MEAN> 39
 -3.843769e+01 -2.144410e+01 -6.720677e+00 -3.133983e+00 -8.123812e+00 -5.226157e+00 -1.333354e+01 -6.326755e+00 -1.227215e+01 -1.462766e+00 -7.797061e+00 -2.301519e-01 9.359531e+01 3.456884e+00 -1.292428e+00 -1.479126e+00 -2.317642e+00 -1.199604e+00 -1.665135e+00 -1.445430e+00 -2.100679e+00 -1.671312e+00 -1.551446e+00 -1.620239e+00 -9.463671e-01 4.971973e+00 3.673148e+00 1.578856e+00 6.916915e-01 -9.397576e-01 8.549559e-02 4.692052e-01 9.351421e-01 5.043410e-01 4.534510e-01 6.077984e-01 4.419675e-02 -2.273504e-01 1.635064e-01
<VARIANCE> 39
 1.079075e+02 6.843855e+01 6.166065e+01 7.195266e+01 7.104087e+01 8.345916e+01 8.681841e+01 8.833414e+01 9.660696e+01 9.435228e+01 8.937140e+01 7.561675e+01 1.939203e+02 1.088144e+01 8.555607e+00 6.430249e+00 6.878164e+00 7.651006e+00 9.077686e+00 9.793805e+00 1.059082e+01 9.863676e+00 9.823752e+00 9.857356e+00 9.164014e+00 2.574703e+01 2.262180e+00 1.853639e+00 1.824943e+00 2.576056e+00 2.374963e+00 2.237591e+00 2.325060e+00 2.559558e+00 2.727409e+00 2.628033e+00 2.678076e+00 2.076777e+00 4.127360e+00
<GCONST> 1.708875e+02
<MIXTURE> 12 6.639320e-02
<MEAN> 39
 -3.508187e+01 -1.977816e+01 -4.622914e+00 -3.078762e+00 -8.010631e+00 -5.577905e+00 -1.254070e+01 -5.064513e+00 -1.117724e+01 -1.701420e+00 -7.502582e+00 9.894478e-02 9.691131e+01 5.885736e+00 -4.837368e-01 -8.256731e-01 -1.915400e+00 1.346504e-01 -2.667233e-01 5.765408e-02 -7.230182e-01 3.146778e-01 2.641096e-01 -7.918064e-01 -3.753191e-01 6.074054e+00 3.972428e+00 1.228385e+00 2.402266e-01 -1.697055e+00 9.495166e-02 5.648850e-01 1.085190e+00 2.860838e-01 5.083824e-01 9.570819e-01 -8.922938e-02 -3.138223e-01 -5.537063e-03
<VARIANCE> 39
 1.251408e+02 6.003764e+01 5.308499e+01 6.176596e+01 6.146677e+01 7.006039e+01 6.910597e+01 7.649174e+01 8.391364e+01 7.828860e+01 7.340631e+01 6.888562e+01 2.213130e+02 2.095084e+01 1.069087e+01 6.569567e+00 8.272219e+00 7.974766e+00 9.223248e+00 9.692167e+00 1.059528e+01 1.207028e+01 1.092199e+01 1.108613e+01 9.809138e+00 3.332283e+01 2.431407e+00 3.070459e+00 2.229355e+00 2.923100e+00 2.883821e+00 2.488640e+00 2.532125e+00 2.823869e+00 3.686726e+00 3.165802e+00 3.555475e+00 2.400409e+00 5.850530e+00
<GCONST> 1.739597e+02
<MIXTURE> 13 5.831520e-02
<MEAN> 39
 -2.696411e+01 -1.553614e+01 -1.425223e+00 7.944584e-02 -3.320273e+00 -1.676575e+00 -8.131228e+00 -7.706549e-01 -5.979499e+00 8.427117e-01 -5.990026e+00 8.467041e-01 9.645419e+01 1.546433e+01 1.061503e+00 -1.139848e+00 -8.864157e+00 6.727972e-01 -5.966156e-01 2.256600e+00 -2.372836e+00 6.908517e-01 2.145413e+00 -2.052902e+00 -1.332609e+00 8.815621e+00 2.366000e+00 -9.480616e-01 -7.497289e-01 -3.774544e+00 -3.081182e-02 -4.577776e-01 7.043296e-01 -8.080090e-01 1.776372e-01 9.263145e-01 -5.466226e-01 -1.618582e-01 1.560064e+00
<VARIANCE> 39
 1.150187e+02 7.738213e+01 6.287005e+01 7.435778e+01 8.915866e+01 9.838750e+01 1.029452e+02 1.029337e+02 1.101771e+02 1.019660e+02 9.234772e+01 9.029292e+01 2.234446e+02 1.405370e+01 2.706412e+01 1.237705e+01 2.270933e+01 1.497020e+01 1.609923e+01 1.967492e+01 1.600874e+01 2.964085e+01 2.239741e+01 2.729748e+01 1.877927e+01 3.269655e+01 2.962662e+00 3.909151e+00 2.349502e+00 3.830468e+00 3.366478e+00 3.346358e+00 3.587964e+00 3.025149e+00 4.561709e+00 3.349331e+00 4.130998e+00 3.484159e+00 4.504031e+00
<GCONST> 1.867261e+02
<MIXTURE> 14 5.761930e-02
<MEAN> 39
 -2.032617e+01 -1.822303e+01 -7.808433e+00 -5.264133e+00 -4.988560e+00 -1.521474e+00 -8.501291e+00 -5.411647e+00 -1.094874e+01 1.288595e+00 -6.573277e+00 2.155597e+00 1.032356e+02 1.545786e+01 5.847019e+00 3.591887e+00 -7.204906e+00 -5.197738e+00 -1.296689e-01 1.538678e-01 2.013881e+00 -2.619851e+00 -8.996810e-01 2.469695e-02 -2.873762e+00 3.377937e+00 2.243541e+00 9.174193e-01 1.407627e+00 -2.852581e+00 -2.527562e+00 -2.073748e-01 -9.777103e-01 9.525089e-01 -1.189862e+00 -1.397121e-01 1.655560e-01 -1.670925e+00 5.361404e-01
<VARIANCE> 39
 1.052642e+02 5.593798e+01 5.564625e+01 7.374165e+01 9.300916e+01 1.119478e+02 1.206294e+02 1.181957e+02 1.101179e+02 1.115720e+02 1.005983e+02 9.510033e+01 1.589327e+02 1.033197e+01 1.956771e+01 1.712506e+01 1.733588e+01 2.151174e+01 2.001937e+01 1.639556e+01 2.203876e+01 2.305471e+01 2.102243e+01 2.670704e+01 1.343142e+01 2.812953e+01 2.278789e+00 3.704253e+00 2.984925e+00 3.303050e+00 4.290014e+00 4.287922e+00 4.050868e+00 4.415252e+00 4.845036e+00 4.314337e+00 4.982943e+00 3.242382e+00 3.683341e+00
<GCONST> 1.868481e+02
<MIXTURE> 15 5.381355e-02
<MEAN> 39
 -2.112904e+01 -1.645027e+01 -4.540363e+00 -1.937211e+00 -1.528479e+00 2.139180e-01 -5.757447e+00 -2.366538e+00 -5.770341e+00 5.407396e+00 -4.477431e+00 2.142435e+00 1.036833e+02 1.578214e+01 4.789485e+00 2.343196e+00 -7.266387e+00 -4.392996e+00 1.171216e+00 4.111431e-01 1.395203e+00 -2.345013e+00 5.664098e-02 1.158785e+00 -1.882655e+00 4.128336e+00 2.122707e+00 2.523147e-01 5.063491e-01 -3.126938e+00 -2.576908e+00 -1.800905e-01 -1.118919e+00 3.922685e-01 -1.395498e+00 -3.890150e-01 4.548287e-02 -1.347337e+00 6.273886e-01
<VARIANCE> 39
 1.154664e+02 6.012868e+01 6.148316e+01 7.307255e+01 1.089938e+02 1.298734e+02 1.237713e+02 1.267757e+02 1.131848e+02 1.225007e+02 1.143805e+02 9.844907e+01 1.674883e+02 1.188955e+01 2.388027e+01 1.779068e+01 1.909151e+01 2.291488e+01 2.050498e+01 1.863342e+01 2.117994e+01 2.403905e+01 2.584187e+01 3.300351e+01 1.482145e+01 2.965420e+01 2.432324e+00 4.260245e+00 3.125719e+00 3.475868e+00 4.363426e+00 4.495404e+00 4.383439e+00 3.990834e+00 4.444552e+00 4.728737e+00 5.795364e+00 3.286900e+00 4.502744e+00
<GCONST> 1.898186e+02
<MIXTURE> 16 4.365528e-02
<MEAN> 39
 -2.039776e+01 -1.382217e+01 5.631583e-01 2.448996e+00 2.577555e+00 3.130219e+00 -4.008791e+00 9.881098e-01 -2.532102e+00 4.932055e+00 -3.904551e+00 1.856555e+00 9.792348e+01 1.650455e+01 2.960900e+00 2.056414e-02 -1.038558e+01 6.128899e-01 2.196618e-01 3.077645e+00 -1.331177e+00 -4.069338e-01 2.562706e+00 -1.774077e+00 6.597818e-01 6.721285e+00 1.351496e+00 -7.737942e-01 -6.954654e-01 -4.115323e+00 -9.502336e-01 -9.996132e-01 -4.212174e-02 -7.081418e-01 -6.813933e-01 3.620389e-01 -8.800814e-01 1.074815e-01 1.320645e+00
<VARIANCE> 39
 1.110871e+02 6.851375e+01 6.256207e+01 7.207057e+01 9.888367e+01 1.101881e+02 1.094669e+02 1.054527e+02 1.276995e+02 1.214094e+02 9.749786e+01 9.400667e+01 1.757911e+02 1.248200e+01 3.121399e+01 1.278874e+01 2.599714e+01 1.711440e+01 1.791656e+01 2.303012e+01 1.928346e+01 3.811357e+01 2.363955e+01 3.114634e+01 2.005415e+01 2.832995e+01 2.748071e+00 3.976586e+00 1.957142e+00 3.208017e+00 3.256225e+00 3.250302e+00 3.502743e+00 2.945770e+00 4.365104e+00 3.273347e+00 3.693758e+00 3.021084e+00 3.641794e+00
<GCONST> 1.870835e+02
<STATE> 4
<NUMMIXES> 16
<MIXTURE> 1 5.565675e-02
<MEAN> 39
 8.027270e+00 -1.159504e+00 2.604040e+00 -4.011474e+00 6.391338e-01 4.176470e+00 -3.291111e-01 2.203953e+00 2.745851e+00 1.022974e+01 -4.147898e+00 2.805627e+00 1.125848e+02 1.757483e+01 -8.838761e-02 -1.758531e-01 -9.504420e+00 3.420627e+00 2.553433e+00 4.966197e+00 4.165605e-01 4.444449e+00 6.517490e+00 1.372069e+00 1.195788e+00 1.302278e+01 -1.575516e+00 -1.880798e+00 -3.605892e-01 -1.048984e+00 7.618598e-01 7.245015e-01 6.824684e-01 6.248941e-01 4.092724e-01 6.756111e-01 4.952021e-01 7.304316e-01 6.318138e-01
<VARIANCE> 39
 1.952800e+02 8.811195e+01 6.582616e+01 1.308269e+02 8.647603e+01 1.046133e+02 1.036782e+02 1.006185e+02 1.313185e+02 1.304480e+02 1.177218e+02 9.921664e+01 1.709125e+02 9.573092e+00 2.564807e+01 1.726481e+01 3.332867e+01 2.412329e+01 2.300921e+01 2.988061e+01 2.560764e+01 5.175471e+01 3.088444e+01 4.541289e+01 2.859497e+01 2.111778e+01 2.616309e+00 1.945208e+00 1.614754e+00 2.658103e+00 2.112432e+00 2.430745e+00 2.084835e+00 2.177063e+00 2.358100e+00 2.480349e+00 2.443058e+00 2.262831e+00 3.548545e+00
<GCONST> 1.864982e+02
<MIXTURE> 2 6.031560e-02
<MEAN> 39
 2.696294e+01 -1.785258e+01 -5.634062e+00 -2.780108e+01 1.084658e+01 4.656717e+00 8.180768e+00 -1.215396e+00 1.881715e+01 1.995587e+01 -9.916177e+00 3.085494e+00 1.400456e+02 9.376871e+00 -4.864078e+00 -2.310539e+00 -7.351558e+00 5.625357e+00 3.433772e+00 4.667214e+00 1.028127e+00 5.909763e+00 4.486373e+00 -5.354561e-01 2.159534e+00 1.156760e+01 -4.850716e+00 -5.621731e-01 4.068583e-01 2.458190e+00 1.828136e-01 9.022139e-01 -5.800879e-01 1.014884e+00 -1.437157e+00 -1.067002e+00 1.103532e+00 1.224756e+00 -2.452002e+00
<VARIANCE> 39
 5.258209e+01 1.667442e+02 1.380862e+02 2.357569e+02 1.460229e+02 2.080843e+02 1.987490e+02 2.040174e+02 2.528173e+02 2.205907e+02 2.312929e+02 2.233478e+02 1.069984e+02 2.809879e+01 1.563409e+01 1.454214e+01 2.774920e+01 1.669948e+01 1.852828e+01 1.946391e+01 1.779396e+01 2.381006e+01 2.300586e+01 1.946455e+01 1.925395e+01 1.797545e+01 1.120436e+00 1.806639e+00 1.386827e+00 2.691391e+00 1.894930e+00 2.562538e+00 2.783304e+00 2.482883e+00 3.577420e+00 2.961068e+00 3.195578e+00 2.931188e+00 1.934919e+00
<GCONST> 1.881145e+02
<MIXTURE> 3 6.106215e-02
<MEAN> 39
 1.740480e+01 9.920449e+00 8.252772e+00 -5.690297e+00 -1.733666e+00 6.025336e+00 4.410893e+00 5.658942e+00 -4.275995e+00 5.971021e+00 -2.411220e+00 5.825024e+00 1.083245e+02 1.792560e+01 1.000594e+01 6.005860e+00 -1.141992e+01 -4.355430e+00 6.761012e-01 3.334351e+00 3.951724e+00 -5.818284e-01 2.438992e+00 -5.630238e-01 1.520902e+00 5.532389e+00 -1.660926e+00 -7.751950e-01 1.700401e-01 -1.329307e+00 -8.907373e-01 -4.334314e-01 -7.130947e-01 4.291329e-01 -6.782383e-03 9.209172e-01 8.032326e-02 1.062983e-01 7.863208e-01
<VARIANCE> 39
 1.906788e+02 1.193081e+02 5.499263e+01 1.953829e+02 1.366743e+02 1.256946e+02 1.083927e+02 1.014871e+02 1.051457e+02 9.828806e+01 1.026830e+02 7.880218e+01 1.749765e+02 8.904862e+00 2.247703e+01 2.099047e+01 3.007963e+01 3.411599e+01 3.520099e+01 3.732513e+01 3.115900e+01 3.357134e+01 3.049128e+01 3.475310e+01 3.227333e+01 1.609840e+01 2.645761e+00 2.256874e+00 1.705419e+00 3.073785e+00 2.588522e+00 2.524930e+00 2.441506e+00 2.742324e+00 2.880191e+00 3.111517e+00 2.646502e+00 2.649040e+00 2.948263e+00
<GCONST> 1.885283e+02
<MIXTURE> 4 7.378655e-02
<MEAN> 39
 2.973330e+01 -1.636174e+01 5.194888e+00 -3.447312e+01 -9.237579e+00 1.319777e+01 -1.404894e+00 6.356208e+00 -1.693652e+01 2.178276e+01 2.565741e+01 1.505165e+00 1.402101e+02 8.096408e+00 -3.689528e+00 1.731092e-01 -8.102555e+00 -7.918121e-01 3.707989e+00 1.267992e+00 2.000218e+00 -5.341232e-02 4.035273e+00 6.019590e+00 -1.110591e+00 1.012593e+01 -4.504519e+00 -3.158355e-01 -4.932039e-01 2.792301e+00 1.486202e+00 4.520512e-02 4.522358e-01 2.026519e-01 2.610740e+00 -7.055038e-02 -1.863308e+00 -2.637297e-01 -1.860565e+00
<VARIANCE> 39
 5.072040e+01 1.435731e+02 1.721548e+02 2.996102e+02 3.208524e+02 2.546254e+02 1.947206e+02 3.365431e+02 3.930035e+02 3.949274e+02 2.942752e+02 1.942810e+02 1.192722e+02 3.969416e+01 1.101790e+01 1.486940e+01 2.997985e+01 2.271523e+01 2.143683e+01 1.799526e+01 2.362146e+01 3.532018e+01 2.808268e+01 3.273782e+01 1.595051e+01 1.873929e+01 1.433916e+00 1.789222e+00 1.859551e+00 3.382808e+00 3.019705e+00 2.611238e+00 2.476280e+00 3.519731e+00 3.739869e+00 3.916144e+00 3.456246e+00 2.515233e+00 1.908999e+00
<GCONST> 1.945239e+02
<MIXTURE> 5 6.367740e-02
<MEAN> 39
 2.474386e+01 -2.408456e+01 -5.606115e+00 -3.032278e+01 1.225588e+01 4.458251e+00 1.063234e+01 1.380682e-01 1.778378e+01 2.730355e+01 -7.721905e+00 2.349177e+00 1.439226e+02 5.060889e+00 -6.164452e+00 -1.903608e+00 -5.757204e+00 4.550057e+00 2.858880e+00 3.423631e+00 1.064003e+00 3.421094e+00 3.422377e+00 -7.877240e-01 1.128691e+00 1.000752e+01 -4.723901e+00 2.081191e-01 5.639074e-01 3.050745e+00 -1.523770e-01 8.840530e-01 -9.777457e-01 9.144638e-01 -1.329322e+00 -1.954214e+00 6.700794e-01 1.059285e+00 -2.956810e+00
<VARIANCE> 39
 5.625762e+01 1.515423e+02 1.567386e+02 2.503456e+02 1.697955e+02 2.174469e+02 2.058709e+02 2.242743e+02 2.820711e+02 2.686605e+02 2.654285e+02 2.077029e+02 8.835793e+01 2.406677e+01 1.022907e+01 1.155858e+01 2.045036e+01 1.509970e+01 1.380836e+01 1.763315e+01 1.549303e+01 1.822359e+01 1.826382e+01 1.688129e+01 1.533205e+01 1.402058e+01 1.137743e+00 1.792128e+00 1.628957e+00 2.597504e+00 1.900012e+00 2.848472e+00 2.916261e+00 2.579766e+00 3.980140e+00 3.850709e+00 3.774995e+00 3.057472e+00 1.629689e+00
<GCONST> 1.866480e+02
<MIXTURE> 6 6.266815e-02
<MEAN> 39
 2.417658e+01 1.439729e+01 1.057543e+01 -1.135295e+01 -1.002531e+01 4.475577e+00 3.646616e+00 9.399369e+00 -5.466321e+00 5.664951e+00 -2.915736e+00 4.058055e+00 1.110153e+02 1.691309e+01 9.124390e+00 7.391370e+00 -9.881786e+00 -7.693690e+00 1.201592e+00 3.283496e-01 5.726631e+00 -2.047975e+00 8.109690e-01 4.634000e-01 -2.303612e+00 5.747845e+00 -2.326180e+00 -1.413734e+00 7.101034e-02 -4.169638e-01 -5.730602e-01 -1.120455e-01 -1.240624e+00 1.812228e-01 -2.671600e-01 4.438451e-01 3.571692e-01 -4.335372e-01 7.399644e-01
<VARIANCE> 39
 1.837841e+02 1.192033e+02 7.341289e+01 2.064815e+02 1.825887e+02 1.517494e+02 1.231476e+02 1.195926e+02 1.290398e+02 1.068287e+02 1.086030e+02 8.996667e+01 1.541174e+02 9.127917e+00 1.858576e+01 2.353465e+01 3.223478e+01 3.436631e+01 3.538214e+01 3.284854e+01 3.463546e+01 3.676620e+01 3.309442e+01 3.220502e+01 2.817804e+01 1.405274e+01 2.704061e+00 1.902671e+00 1.587462e+00 2.647844e+00 2.889405e+00 2.214307e+00 2.285666e+00 2.630632e+00 2.972738e+00 2.469802e+00 2.213678e+00 2.163656e+00 2.458353e+00
<GCONST> 1.885274e+02
<MIXTURE> 7 5.865040e-02
<MEAN> 39
 2.734715e+01 -1.868437e+01 -1.805536e+00 -2.417692e+01 -1.351746e+01 1.405284e+01 -7.738824e+00 6.125373e+00 -7.619873e+00 2.348759e+01 3.247442e+01 -1.054008e+01 1.473201e+02 6.214080e+00 -4.483588e+00 -1.640953e+00 -5.222317e+00 -1.711702e+00 3.759212e+00 3.271286e-01 1.833973e+00 2.014043e+00 3.066475e+00 5.578883e+00 -4.079628e+00 9.773031e+00 -4.772585e+00 -7.650384e-02 3.673682e-02 2.454360e+00 1.717085e+00 -2.705396e-01 1.219772e+00 3.195379e-01 2.171542e+00 -5.539997e-01 -2.992908e+00 6.643955e-01 -2.534227e+00
<VARIANCE> 39
 6.627509e+01 1.415686e+02 2.172411e+02 3.636294e+02 1.936195e+02 2.940062e+02 2.614472e+02 3.905153e+02 4.614477e+02 4.924612e+02 4.406059e+02 2.277899e+02 1.268493e+02 3.041847e+01 1.013074e+01 1.711141e+01 2.392709e+01 1.348562e+01 2.040034e+01 1.786237e+01 2.421513e+01 2.807621e+01 2.392522e+01 4.070900e+01 1.586995e+01 1.382905e+01 1.325116e+00 1.720521e+00 2.263850e+00 3.233844e+00 2.511790e+00 2.764801e+00 3.245814e+00 3.689893e+00 4.323657e+00 5.820141e+00 4.517870e+00 2.719473e+00 1.541384e+00
<GCONST> 1.957196e+02
<MIXTURE> 8 6.417360e-02
<MEAN> 39
 1.880957e+01 -3.403563e-01 1.572703e-01 -1.043136e+01 3.231037e-02 6.092901e+00 3.456434e+00 -9.323249e-01 3.416951e-01 1.521478e+01 2.102168e+00 8.185393e-01 1.178249e+02 1.664942e+01 -3.111122e-01 -4.275674e-01 -9.220967e+00 8.100936e-01 2.700925e+00 3.987868e+00 -2.285165e-01 1.932425e+00 5.536448e+00 5.161101e+00 -1.423624e-01 1.265060e+01 -2.667510e+00 -2.030936e+00 -2.972188e-01 -2.947330e-01 2.171235e-01 4.107275e-01 1.098691e-01 6.931883e-01 5.032670e-01 8.140695e-02 2.925360e-01 2.925024e-01 5.254233e-01
<VARIANCE> 39
 2.040200e+02 1.015465e+02 8.192959e+01 1.888808e+02 1.014434e+02 1.246545e+02 1.423014e+02 1.444137e+02 2.053942e+02 1.645479e+02 2.156183e+02 1.280031e+02 1.728711e+02 1.174795e+01 2.177738e+01 2.049357e+01 3.504240e+01 2.640445e+01 2.427401e+01 3.301900e+01 2.848146e+01 4.907517e+01 3.492221e+01 6.010762e+01 2.998091e+01 1.896751e+01 2.821742e+00 1.428576e+00 1.514659e+00 2.139888e+00 1.889377e+00 2.225890e+00 2.360483e+00 2.332587e+00 2.620422e+00 2.521999e+00 2.813766e+00 2.720054e+00 2.793741e+00
<GCONST> 1.904244e+02
<MIXTURE> 9 7.378655e-02
<MEAN> 39
 2.688456e+01 -2.115462e+01 -5.342340e-02 -4.139682e+01 -1.640252e+01 6.814972e+00 -6.986587e+00 -9.818363e-01 -2.486624e+01 1.383364e+01 1.879563e+01 -4.070223e+00 1.358417e+02 5.576276e+00 -5.017258e+00 -1.369325e+00 -1.029271e+01 -2.698232e+00 1.855993e+00 -4.288403e-01 5.614173e-02 -2.430644e+00 1.915549e+00 3.730911e+00 -2.708115e+00 8.394373e+00 -4.983503e+00 -8.508828e-01 -1.038665e+00 2.056605e+00 7.911100e-01 -6.011679e-01 -1.772122e-01 -5.477859e-01 1.837190e+00 -8.621204e-01 -2.606948e+00 -8.981091e-01 -2.413231e+00
<VARIANCE> 39
 5.072040e+01 1.435731e+02 1.721548e+02 2.996102e+02 3.208524e+02 2.546254e+02 1.947206e+02 3.365431e+02 3.930035e+02 3.949274e+02 2.942752e+02 1.942810e+02 1.192722e+02 3.969416e+01 1.101790e+01 1.486940e+01 2.997985e+01 2.271523e+01 2.143683e+01 1.799526e+01 2.362146e+01 3.532018e+01 2.808268e+01 3.273782e+01 1.595051e+01 1.873929e+01 1.433916e+00 1.789222e+00 1.859551e+00 3.382808e+00 3.019705e+00 2.611238e+00 2.476280e+00 3.519731e+00 3.739869e+00 3.916144e+00 3.456246e+00 2.515233e+00 1.908999e+00
<GCONST> 1.945239e+02
<MIXTURE> 10 6.417360e-02
<MEAN> 39
 1.309615e+01 -4.371168e+00 -3.463328e+00 -1.592872e+01 -3.996454e+00 1.626949e+00 -1.315172e+00 -5.739215e+00 -5.390937e+00 1.008372e+01 -3.771411e+00 -3.706999e+00 1.125657e+02 1.527840e+01 -2.177762e+00 -2.238360e+00 -1.158883e+01 -1.245317e+00 7.301787e-01 1.689382e+00 -2.363237e+00 -8.697217e-01 3.172647e+00 2.059937e+00 -2.332556e+00 1.090854e+01 -3.339432e+00 -2.509028e+00 -7.895048e-01 -8.798673e-01 -3.326950e-01 -1.860491e-01 -5.046855e-01 8.227590e-02 -1.442416e-01 -5.538251e-01 -3.784354e-01 -3.672011e-01 -1.431562e-01
<VARIANCE> 39
 2.040200e+02 1.015465e+02 8.192959e+01 1.888808e+02 1.014434e+02 1.246545e+02 1.423014e+02 1.444137e+02 2.053942e+02 1.645479e+02 2.156183e+02 1.280031e+02 1.728711e+02 1.174795e+01 2.177738e+01 2.049357e+01 3.504240e+01 2.640445e+01 2.427401e+01 3.301900e+01 2.848146e+01 4.907517e+01 3.492221e+01 6.010762e+01 2.998091e+01 1.896751e+01 2.821742e+00 1.428576e+00 1.514659e+00 2.139888e+00 1.889377e+00 2.225890e+00 2.360483e+00 2.332587e+00 2.620422e+00 2.521999e+00 2.813766e+00 2.720054e+00 2.793741e+00
<GCONST> 1.904244e+02
<MIXTURE> 11 6.367740e-02
<MEAN> 39
 2.174366e+01 -2.900866e+01 -1.061393e+01 -3.665170e+01 7.043658e+00 -1.440181e+00 4.893062e+00 -5.852248e+00 1.106580e+01 2.074721e+01 -1.423870e+01 -3.415583e+00 1.401626e+02 3.098573e+00 -7.443769e+00 -3.263524e+00 -7.566086e+00 2.995723e+00 1.372496e+00 1.743957e+00 -5.104445e-01 1.713530e+00 1.712929e+00 -2.431198e+00 -4.375553e-01 8.509753e+00 -5.150561e+00 -3.273624e-01 5.338499e-02 2.406074e+00 -7.037407e-01 2.089563e-01 -1.660828e+00 2.719977e-01 -2.127334e+00 -2.739142e+00 -1.070945e-01 3.598595e-01 -3.467448e+00
<VARIANCE> 39
 5.625762e+01 1.515423e+02 1.567386e+02 2.503456e+02 1.697955e+02 2.174469e+02 2.058709e+02 2.242743e+02 2.820711e+02 2.686605e+02 2.654285e+02 2.077029e+02 8.835793e+01 2.406677e+01 1.022907e+01 1.155858e+01 2.045036e+01 1.509970e+01 1.380836e+01 1.763315e+01 1.549303e+01 1.822359e+01 1.826382e+01 1.688129e+01 1.533205e+01 1.402058e+01 1.137743e+00 1.792128e+00 1.628957e+00 2.597504e+00 1.900012e+00 2.848472e+00 2.916261e+00 2.579766e+00 3.980140e+00 3.850709e+00 3.774995e+00 3.057472e+00 1.629689e+00
<GCONST> 1.866480e+02
<MIXTURE> 12 6.266815e-02
<MEAN> 39
 1.875390e+01 1.003008e+01 7.148179e+00 -1.710073e+01 -1.543033e+01 -4.518871e-01 -7.922598e-01 5.025033e+00 -1.001015e+01 1.530632e+00 -7.084246e+00 2.640249e-01 1.060495e+02 1.570459e+01 7.399941e+00 5.450869e+00 -1.215281e+01 -1.003860e+01 -1.177724e+00 -1.964196e+00 3.372555e+00 -4.473381e+00 -1.490141e+00 -1.806579e+00 -4.426932e+00 4.248365e+00 -2.983941e+00 -1.965484e+00 -4.329677e-01 -1.067852e+00 -1.252990e+00 -7.072675e-01 -1.845360e+00 -4.675462e-01 -9.568252e-01 -1.847791e-01 -2.379682e-01 -1.021912e+00 1.127990e-01
<VARIANCE> 39
 1.837841e+02 1.192033e+02 7.341289e+01 2.064815e+02 1.825887e+02 1.517494e+02 1.231476e+02 1.195926e+02 1.290398e+02 1.068287e+02 1.086030e+02 8.996667e+01 1.541174e+02 9.127917e+00 1.858576e+01 2.353465e+01 3.223478e+01 3.436631e+01 3.538214e+01 3.284854e+01 3.463546e+01 3.676620e+01 3.309442e+01 3.220502e+01 2.817804e+01 1.405274e+01 2.704061e+00 1.902671e+00 1.587462e+00 2.647844e+00 2.889405e+00 2.214307e+00 2.285666e+00 2.630632e+00 2.972738e+00 2.469802e+00 2.213678e+00 2.163656e+00 2.458353e+00
<GCONST> 1.885274e+02
<MIXTURE> 13 6.106215e-02
<MEAN> 39
 1.188134e+01 5.551319e+00 5.286491e+00 -1.128147e+01 -6.409978e+00 1.540792e+00 2.464206e-01 1.629310e+00 -8.377619e+00 2.005407e+00 -6.464524e+00 2.274200e+00 1.030333e+02 1.673196e+01 8.109546e+00 4.173245e+00 -1.361372e+01 -6.691786e+00 -1.697116e+00 8.905790e-01 1.718914e+00 -2.899460e+00 2.302358e-01 -2.921094e+00 -7.514831e-01 3.927476e+00 -2.311558e+00 -1.376111e+00 -3.523266e-01 -2.030595e+00 -1.534293e+00 -1.069033e+00 -1.338107e+00 -2.332657e-01 -6.856275e-01 2.153374e-01 -5.703996e-01 -5.447366e-01 9.950057e-02
<VARIANCE> 39
 1.906788e+02 1.193081e+02 5.499263e+01 1.953829e+02 1.366743e+02 1.256946e+02 1.083927e+02 1.014871e+02 1.051457e+02 9.828806e+01 1.026830e+02 7.880218e+01 1.749765e+02 8.904862e+00 2.247703e+01 2.099047e+01 3.007963e+01 3.411599e+01 3.520099e+01 3.732513e+01 3.115900e+01 3.357134e+01 3.049128e+01 3.475310e+01 3.227333e+01 1.609840e+01 2.645761e+00 2.256874e+00 1.705419e+00 3.073785e+00 2.588522e+00 2.524930e+00 2.441506e+00 2.742324e+00 2.880191e+00 3.111517e+00 2.646502e+00 2.649040e+00 2.948263e+00
<GCONST> 1.885283e+02
<MIXTURE> 14 6.031560e-02
<MEAN> 39
 2.406240e+01 -2.301776e+01 -1.033447e+01 -3.394284e+01 6.012981e+00 -1.113333e+00 2.541633e+00 -6.928782e+00 1.245705e+01 1.401495e+01 -1.599950e+01 -2.892437e+00 1.359080e+02 7.256539e+00 -6.445677e+00 -3.835905e+00 -9.458658e+00 3.990757e+00 1.711992e+00 2.902498e+00 -6.591881e-01 3.957941e+00 2.567797e+00 -2.300202e+00 4.043605e-01 9.871701e+00 -5.274118e+00 -1.099818e+00 -6.419624e-02 1.801972e+00 -3.678123e-01 2.618968e-01 -1.247417e+00 3.845971e-01 -2.193719e+00 -1.755312e+00 3.884847e-01 5.399271e-01 -3.008408e+00
<VARIANCE> 39
 5.258209e+01 1.667442e+02 1.380862e+02 2.357569e+02 1.460229e+02 2.080843e+02 1.987490e+02 2.040174e+02 2.528173e+02 2.205907e+02 2.312929e+02 2.233478e+02 1.069984e+02 2.809879e+01 1.563409e+01 1.454214e+01 2.774920e+01 1.669948e+01 1.852828e+01 1.946391e+01 1.779396e+01 2.381006e+01 2.300586e+01 1.946455e+01 1.925395e+01 1.797545e+01 1.120436e+00 1.806639e+00 1.386827e+00 2.691391e+00 1.894930e+00 2.562538e+00 2.783304e+00 2.482883e+00 3.577420e+00 2.961068e+00 3.195578e+00 2.931188e+00 1.934919e+00
<GCONST> 1.881145e+02
<MIXTURE> 15 5.865040e-02
<MEAN> 39
 2.409077e+01 -2.344367e+01 -7.701176e+00 -3.180454e+01 -1.908335e+01 7.194198e+00 -1.420656e+01 -1.779211e+00 -1.621241e+01 1.461101e+01 2.407818e+01 -1.657716e+01 1.428150e+02 4.007962e+00 -5.756742e+00 -3.295591e+00 -7.178929e+00 -3.180614e+00 1.952542e+00 -1.363427e+00 -1.343815e-01 -1.054367e-01 1.109939e+00 3.026739e+00 -5.673112e+00 8.285534e+00 -5.233040e+00 -6.011784e-01 -5.651070e-01 1.735044e+00 1.083139e+00 -9.356472e-01 4.991258e-01 -4.488259e-01 1.339806e+00 -1.518998e+00 -3.843120e+00 4.762501e-03 -3.030837e+00
<VARIANCE> 39
 6.627509e+01 1.415686e+02 2.172411e+02 3.636294e+02 1.936195e+02 2.940062e+02 2.614472e+02 3.905153e+02 4.614477e+02 4.924612e+02 4.406059e+02 2.277899e+02 1.268493e+02 3.041847e+01 1.013074e+01 1.711141e+01 2.392709e+01 1.348562e+01 2.040034e+01 1.786237e+01 2.421513e+01 2.807621e+01 2.392522e+01 4.070900e+01 1.586995e+01 1.382905e+01 1.325116e+00 1.720521e+00 2.263850e+00 3.233844e+00 2.511790e+00 2.764801e+00 3.245814e+00 3.689893e+00 4.323657e+00 5.820141e+00 4.517870e+00 2.719473e+00 1.541384e+00
<GCONST> 1.957196e+02
<MIXTURE> 16 5.565675e-02
<MEAN> 39
 2.437566e+00 -4.914223e+00 -6.412930e-01 -8.586658e+00 -3.080566e+00 8.524418e-02 -4.402011e+00 -1.808398e+00 -1.837921e+00 5.661187e+00 -8.487885e+00 -1.178675e+00 1.073554e+02 1.633721e+01 -2.114144e+00 -1.837891e+00 -1.181366e+01 1.456009e+00 6.347166e-01 2.779671e+00 -1.607599e+00 1.566819e+00 4.294539e+00 -1.323495e+00 -9.431826e-01 1.118462e+01 -2.222516e+00 -2.438680e+00 -8.688811e-01 -1.701132e+00 1.804914e-01 1.008677e-01 1.049100e-01 3.469914e-02 -2.049718e-01 4.564613e-02 -1.300093e-01 1.287232e-01 -1.216894e-01
<VARIANCE> 39
 1.952800e+02 8.811195e+01 6.582616e+01 1.308269e+02 8.647603e+01 1.046133e+02 1.036782e+02 1.006185e+02 1.313185e+02 1.304480e+02 1.177218e+02 9.921664e+01 1.709125e+02 9.573092e+00 2.564807e+01 1.726481e+01 3.332867e+01 2.412329e+01 2.300921e+01 2.988061e+01 2.560764e+01 5.175471e+01 3.088444e+01 4.541289e+01 2.859497e+01 2.111778e+01 2.616309e+00 1.945208e+00 1.614754e+00 2.658103e+00 2.112432e+00 2.430745e+00 2.084835e+00 2.177063e+00 2.358100e+00 2.480349e+00 2.443058e+00 2.262831e+00 3.548545e+00
<GCONST> 1.864982e+02
<TRANSP> 5
 0.000000e+00 1.000000e+00 0.000000e+00 0.000000e+00 0.000000e+00
 0.000000e+00 8.490922e-01 1.509078e-01 0.000000e+00 0.000000e+00
 0.000000e+00 0.000000e+00 6.635925e-01 3.364075e-01 0.000000e+00
 0.000000e+00 0.000000e+00 0.000000e+00 5.211031e-01 4.788968e-01
 0.000000e+00 0.000000e+00 0.000000e+00 0.000000e+00 0.000000e+00
<ENDHMM>
~h "k"
<BEGINHMM>
<NUMSTATES> 5
<STATE> 2
<NUMMIXES> 16
<MIXTURE> 1 6.262845e-02
<MEAN> 39
 6.606693e+00 -8.555989e+00 5.121954e+01 3.051113e+01 4.159915e+00 -3.554044e+01 1.463789e+00 2.839267e+01 -4.214095e+01 5.817257e+00 3.649980e+00 2.789777e+00 1.195454e+02 -2.209959e+00 9.694392e+00 -3.532099e+00 7.678773e+00 5.456863e+00 6.795873e+00 7.829353e+00 -3.851240e-01 5.842716e+00 -3.553196e-01 2.985952e+00 1.791243e+00 -1.680434e+01 -1.243665e+00 8.322375e-01 -2.859518e+00 -2.368632e+00 1.233308e-01 3.469011e+00 -1.814609e+00 -2.367049e+00 5.135980e+00 7.283918e-01 -4.517455e-01 9.106264e-01 -1.290296e+00
<VARIANCE> 39
 5.476453e+01 1.265806e+02 3.133406e+02 2.281738e+02 2.767117e+02 3.268103e+02 4.497100e+02 3.743567e+02 4.224417e+02 4.545984e+02 3.059602e+02 2.451989e+02 2.518751e+02 1.129201e+01 1.860944e+01 2.276173e+01 2.344248e+01 2.447420e+01 3.378046e+01 3.269786e+01 3.206441e+01 4.280915e+01 3.402449e+01 2.810322e+01 2.454505e+01 2.322528e+01 1.280058e+00 3.670258e+00 3.670494e+00 3.340907e+00 3.728798e+00 5.134013e+00 5.884707e+00 7.551560e+00 6.808890e+00 7.161273e+00 4.590868e+00 5.292814e+00 5.213821e+00
<GCONST> 2.058585e+02
<MIXTURE> 2 4.881841e-02
<MEAN> 39
 -1.318433e+01 1.520010e+01 1.730046e+01 2.376971e+01 5.987642e+00 -3.786643e+00 -7.547712e-01 2.660881e+00 -7.786922e+00 -2.145737e+00 3.424017e+00 6.636108e+00 5.762318e+01 -4.014470e+00 1.571072e+00 -7.143555e+00 -4.045498e+00 1.765938e+00 8.395863e+00 5.398465e-01 -3.220623e-01 8.352111e+00 2.841285e+00 1.083658e+00 1.121953e+00 -6.452774e+00 1.393999e+00 -3.253002e+00 9.352211e-01 -1.211272e+00 -3.698443e-01 -1.997290e+00 -5.938399e-02 1.420144e+00 -4.954202e-01 1.741150e+00 -6.006870e-02 3.271923e-01 7.117686e+00
<VARIANCE> 39
 7.341283e+01 1.071130e+02 1.143756e+02 1.671634e+02 1.747085e+02 2.122068e+02 2.356263e+02 2.463867e+02 1.861599e+02 1.627531e+02 1.387505e+02 1.089315e+02 4.472077e+01 1.053670e+01 2.655656e+01 2.406829e+01 1.850240e+01 2.386769e+01 3.366772e+01 3.411308e+01 4.409742e+01 3.143748e+01 2.467579e+01 2.024466e+01 1.811377e+01 3.518494e+01 2.417466e+00 5.501366e+00 3.454733e+00 5.665452e+00 5.457509e+00 6.134643e+00 7.847913e+00 8.203002e+00 6.551853e+00 4.630371e+00 4.584328e+00 3.234452e+00 7.849418e+00
<GCONST> 1.990021e+02
<MIXTURE> 3 4.857214e-02
<MEAN> 39
 -7.715161e+00 2.220014e+01 2.275362e+01 2.415086e+01 3.171153e+00 -6.396792e-01 -5.300927e-01 -7.232885e+00 -1.149309e+01 -3.153709e+00 -2.423841e+00 -9.971220e-01 5.947122e+01 -5.206350e+00 -2.104275e+00 -1.144198e+01 -1.535498e+00 5.391761e+00 3.214573e+00 -6.271160e+00 6.638196e+00 2.904223e+00 -2.058758e+00 1.933726e+00 3.259497e-01 -5.938124e+00 2.209839e-01 -3.738817e+00 1.848356e-01 -2.121408e+00 -1.939629e+00 -1.981862e+00 1.751110e+00 -3.080623e-01 1.727523e+00 2.301283e+00 4.716689e-01 2.191634e+00 7.999621e+00
<VARIANCE> 39
 6.873004e+01 1.046926e+02 1.039688e+02 1.233758e+02 1.491383e+02 1.721324e+02 1.876158e+02 1.745437e+02 1.941613e+02 1.732769e+02 1.424053e+02 1.168057e+02 3.460866e+01 8.330861e+00 4.058935e+01 1.679519e+01 2.404122e+01 2.257224e+01 3.361991e+01 3.329449e+01 3.803797e+01 3.693467e+01 2.294611e+01 1.945382e+01 1.927279e+01 6.720602e+01 2.878929e+00 4.942400e+00 3.941216e+00 4.302441e+00 4.164148e+00 5.034420e+00 6.333900e+00 6.948976e+00 7.107021e+00 4.494335e+00 3.954986e+00 3.336513e+00 7.403050e+00
<GCONST> 1.970902e+02
<MIXTURE> 4 8.144595e-02
<MEAN> 39
 -1.985724e+00 1.286591e+01 3.711589e+01 3.305114e+01 -4.927196e+00 -1.145216e+01 1.629583e+01 3.968823e-01 -1.170177e+01 8.919927e+00 5.379629e+00 5.382631e+00 8.171658e+01 -4.627825e+00 5.465316e+00 -7.425968e+00 3.121354e+00 7.223587e+00 8.761680e+00 -2.729785e+00 4.829497e+00 4.777637e+00 -2.449790e+00 2.293708e+00 -1.076823e+00 -1.459870e+01 -4.008195e-01 -2.275270e+00 -1.542097e+00 -3.509133e+00 -2.158892e-02 -3.683271e-01 -1.543584e+00 4.869577e-01 1.372759e+00 5.793039e-01 -1.879918e-01 1.261156e+00 3.723225e+00
<VARIANCE> 39
 1.501572e+02 2.445484e+02 2.149713e+02 2.043284e+02 3.597644e+02 3.577112e+02 3.456495e+02 4.052220e+02 2.887776e+02 2.480034e+02 2.100955e+02 1.812914e+02 1.809530e+02 1.268179e+01 2.356700e+01 2.582077e+01 3.187210e+01 2.974793e+01 3.687962e+01 5.645374e+01 6.856956e+01 5.965646e+01 3.259116e+01 2.494166e+01 2.392887e+01 3.435932e+01 3.248899e+00 6.294117e+00 4.233318e+00 3.772767e+00 4.851988e+00 6.174480e+00 6.376859e+00 5.962770e+00 5.191940e+00 4.382270e+00 4.497223e+00 4.029554e+00 6.754535e+00
<GCONST> 2.093531e+02
<MIXTURE> 5 7.328560e-02
<MEAN> 39
 -1.348040e+01 1.557218e+01 1.645815e+01 2.168416e+01 6.259465e+00 -4.088291e+00 -3.342071e+00 6.325769e-02 -8.896161e+00 -3.468317e+00 1.131977e+00 5.593687e+00 5.658646e+01 -5.355047e+00 -2.062379e-01 -9.000525e+00 -6.600745e+00 3.693115e-01 6.190091e+00 -1.824131e+00 -3.048135e+00 6.640321e+00 2.094126e+00 -5.382118e-01 7.494159e-01 -5.352509e+00 1.406326e+00 -3.542214e+00 1.012431e+00 -9.160385e-01 -4.901913e-01 -2.129286e+00 7.185155e-02 2.058719e+00 -5.150555e-01 1.746887e+00 2.228925e-01 2.693427e-01 7.927115e+00
<VARIANCE> 39
 5.336530e+01 8.623659e+01 8.564284e+01 1.056638e+02 1.329546e+02 1.936399e+02 2.157211e+02 2.056565e+02 1.949987e+02 1.738587e+02 1.285480e+02 8.942924e+01 3.847870e+01 8.278364e+00 3.405423e+01 1.820388e+01 1.518656e+01 2.163716e+01 3.066662e+01 3.111489e+01 3.608540e+01 2.759895e+01 2.289330e+01 1.886131e+01 1.471105e+01 4.432708e+01 2.609719e+00 4.608992e+00 3.238563e+00 3.798338e+00 4.974873e+00 7.141731e+00 6.498911e+00 9.480514e+00 6.583753e+00 4.977263e+00 4.061192e+00 2.822195e+00 8.130534e+00
<GCONST> 1.948722e+02
<MIXTURE> 6 7.397585e-02
<MEAN> 39
 -3.711617e+00 1.128285e+01 3.484229e+01 3.418253e+01 2.062848e+00 -1.238575e+01 8.181898e+00 2.582787e+00 -1.564684e+01 2.135793e+00 2.137983e+00 5.122810e+00 8.033047e+01 -6.056243e+00 4.532030e+00 -9.509213e+00 9.433643e-01 5.029820e+00 6.755388e+00 -3.358035e+00 1.277216e+00 4.155505e+00 -2.308945e+00 4.221612e-01 -5.779448e-01 -1.470153e+01 -1.378447e-01 -2.391534e+00 -1.329867e+00 -3.631121e+00 -7.650072e-01 -2.521747e-01 -9.904151e-01 5.779966e-01 1.758826e+00 1.206172e+00 3.675220e-01 9.944392e-01 4.621798e+00
<VARIANCE> 39
 1.403173e+02 2.597681e+02 2.003724e+02 1.955537e+02 3.874243e+02 3.548802e+02 4.234705e+02 4.484632e+02 2.845920e+02 2.532912e+02 2.335657e+02 1.719983e+02 1.621148e+02 9.606322e+00 2.974052e+01 2.313403e+01 3.444849e+01 3.164274e+01 3.597187e+01 6.146009e+01 8.938438e+01 6.674827e+01 3.894567e+01 2.369646e+01 2.562208e+01 3.139692e+01 3.223516e+00 6.376752e+00 3.839550e+00 3.589319e+00 5.161594e+00 6.273264e+00 6.782194e+00 6.370982e+00 5.924719e+00 4.836858e+00 5.044701e+00 4.603416e+00 7.674076e+00
<GCONST> 2.107487e+02
<MIXTURE> 7 6.465040e-02
<MEAN> 39
 5.691126e+00 -4.486258e+00 4.400420e+01 3.454394e+01 6.208075e+00 -3.520924e+01 1.912404e+00 2.771707e+01 -3.371584e+01 -7.647443e-02 6.055968e+00 7.144591e+00 1.058576e+02 -4.657244e+00 1.008789e+01 -6.567474e+00 3.549187e+00 4.370515e+00 7.586884e+00 4.578747e+00 -5.362504e+00 6.588465e+00 -9.935776e-01 -4.160273e-02 1.977022e+00 -1.840118e+01 -1.302765e+00 -6.174768e-01 -2.420386e+00 -3.498965e+00 -7.473122e-01 2.821305e+00 -2.191440e+00 -2.203059e+00 3.573379e+00 1.263698e+00 -5.556035e-01 1.851259e-01 9.927808e-01
<VARIANCE> 39
 5.197581e+01 1.372401e+02 2.361045e+02 1.735044e+02 2.627560e+02 3.259904e+02 4.810680e+02 3.609822e+02 3.076577e+02 3.276724e+02 2.546880e+02 2.077193e+02 2.562422e+02 8.846707e+00 2.316103e+01 2.631458e+01 2.450911e+01 2.663299e+01 3.869460e+01 4.696133e+01 4.066191e+01 4.401084e+01 4.077860e+01 2.648735e+01 2.252835e+01 2.440918e+01 1.316650e+00 3.924563e+00 2.954136e+00 2.989166e+00 3.762762e+00 4.613021e+00 5.911787e+00 6.198820e+00 5.189884e+00 5.298196e+00 4.310719e+00 4.293235e+00 7.003826e+00
<GCONST> 2.043542e+02
<MIXTURE> 8 4.661336e-02
<MEAN> 39
 -9.489330e+00 1.977610e+01 1.845432e+01 1.922280e+01 -9.312701e-01 -6.912749e+00 -9.001254e+00 -1.397154e+01 -1.804840e+01 -9.653500e+00 -5.731231e+00 -9.230051e-01 5.775033e+01 -5.987031e+00 -9.283991e-01 -1.164314e+01 -3.007291e+00 4.204949e+00 3.245536e+00 -7.833384e+00 4.787033e+00 2.079453e+00 -3.044661e+00 7.812080e-01 -5.255195e-01 -7.932034e+00 5.653619e-01 -3.706732e+00 6.159322e-01 -1.724702e+00 -1.253734e+00 -1.229628e+00 2.978867e+00 7.044268e-01 2.699333e+00 3.153588e+00 9.098763e-01 2.114285e+00 8.004208e+00
<VARIANCE> 39
 4.282917e+01 5.888266e+01 6.684728e+01 8.310951e+01 1.247547e+02 1.790716e+02 1.817719e+02 1.816833e+02 2.131100e+02 1.773105e+02 1.415002e+02 1.034718e+02 2.586590e+01 5.503285e+00 3.818461e+01 1.452091e+01 2.072000e+01 2.125088e+01 3.722134e+01 2.720649e+01 4.655509e+01 3.305859e+01 2.067474e+01 1.808035e+01 1.559032e+01 5.341297e+01 1.909456e+00 3.804059e+00 2.957724e+00 3.785045e+00 4.341276e+00 5.097019e+00 5.744945e+00 8.388395e+00 6.536011e+00 4.514782e+00 3.599504e+00 3.053187e+00 7.080614e+00
<GCONST> 1.920639e+02
<MIXTURE> 9 8.144595e-02
<MEAN> 39
 -6.887270e+00 6.610692e+00 3.125113e+01 2.733340e+01 -1.251418e+01 -1.901746e+01 8.859170e+00 -7.655169e+00 -1.849915e+01 2.620677e+00 -4.182394e-01 -3.149033e-03 7.633582e+01 -6.052285e+00 3.523482e+00 -9.458534e+00 8.631384e-01 5.041921e+00 6.332536e+00 -5.735213e+00 1.517227e+00 1.688133e+00 -4.733336e+00 2.960425e-01 -3.033509e+00 -1.694338e+01 -1.121808e+00 -3.278792e+00 -2.365098e+00 -4.286077e+00 -9.026781e-01 -1.362267e+00 -2.553682e+00 -4.897937e-01 4.613263e-01 -2.580510e-01 -1.036258e+00 4.582063e-01 2.683645e+00
<VARIANCE> 39
 1.501572e+02 2.445484e+02 2.149713e+02 2.043284e+02 3.597644e+02 3.577112e+02 3.456495e+02 4.052220e+02 2.887776e+02 2.480034e+02 2.100955e+02 1.812914e+02 1.809530e+02 1.268179e+01 2.356700e+01 2.582077e+01 3.187210e+01 2.974793e+01 3.687962e+01 5.645374e+01 6.856956e+01 5.965646e+01 3.259116e+01 2.494166e+01 2.392887e+01 3.435932e+01 3.248899e+00 6.294117e+00 4.233318e+00 3.772767e+00 4.851988e+00 6.174480e+00 6.376859e+00 5.962770e+00 5.191940e+00 4.382270e+00 4.497223e+00 4.029554e+00 6.754535e+00
<GCONST> 2.093531e+02
<MIXTURE> 10 7.397585e-02
<MEAN> 39
 -8.449841e+00 4.835916e+00 2.918017e+01 2.858891e+01 -5.810390e+00 -1.992105e+01 -4.946089e-02 -5.887993e+00 -2.239478e+01 -4.230257e+00 -3.975160e+00 -1.231146e-01 7.523750e+01 -7.296005e+00 2.350635e+00 -1.143313e+01 -1.404349e+00 2.779745e+00 4.356326e+00 -6.493895e+00 -2.504517e+00 8.875207e-01 -4.805203e+00 -1.524999e+00 -2.602675e+00 -1.694285e+01 -8.560109e-01 -3.401624e+00 -2.113657e+00 -4.388941e+00 -1.673773e+00 -1.254034e+00 -2.032121e+00 -4.316357e-01 7.851961e-01 3.264578e-01 -5.308945e-01 1.362164e-01 3.513713e+00
<VARIANCE> 39
 1.403173e+02 2.597681e+02 2.003724e+02 1.955537e+02 3.874243e+02 3.548802e+02 4.234705e+02 4.484632e+02 2.845920e+02 2.532912e+02 2.335657e+02 1.719983e+02 1.621148e+02 9.606322e+00 2.974052e+01 2.313403e+01 3.444849e+01 3.164274e+01 3.597187e+01 6.146009e+01 8.938438e+01 6.674827e+01 3.894567e+01 2.369646e+01 2.562208e+01 3.139692e+01 3.223516e+00 6.376752e+00 3.839550e+00 3.589319e+00 5.161594e+00 6.273264e+00 6.782194e+00 6.370982e+00 5.924719e+00 4.836858e+00 5.044701e+00 4.603416e+00 7.674076e+00
<GCONST> 2.107487e+02
<MIXTURE> 11 7.328560e-02
<MEAN> 39
 -1.640246e+01 1.185764e+01 1.275641e+01 1.757244e+01 1.647227e+00 -9.654473e+00 -9.217050e+00 -5.673034e+00 -1.448184e+01 -8.742537e+00 -3.403183e+00 1.811005e+00 5.410522e+01 -6.505933e+00 -2.540478e+00 -1.070717e+01 -8.159543e+00 -1.491319e+00 3.974993e+00 -4.055359e+00 -5.450979e+00 4.538933e+00 1.802481e-01 -2.275396e+00 -7.847835e-01 -8.015653e+00 7.601415e-01 -4.400956e+00 2.925904e-01 -1.695611e+00 -1.382368e+00 -3.198246e+00 -9.478670e-01 8.271011e-01 -1.541409e+00 8.544954e-01 -5.832035e-01 -4.026329e-01 6.786551e+00
<VARIANCE> 39
 5.336530e+01 8.623659e+01 8.564284e+01 1.056638e+02 1.329546e+02 1.936399e+02 2.157211e+02 2.056565e+02 1.949987e+02 1.738587e+02 1.285480e+02 8.942924e+01 3.847870e+01 8.278364e+00 3.405423e+01 1.820388e+01 1.518656e+01 2.163716e+01 3.066662e+01 3.111489e+01 3.608540e+01 2.759895e+01 2.289330e+01 1.886131e+01 1.471105e+01 4.432708e+01 2.609719e+00 4.608992e+00 3.238563e+00 3.798338e+00 4.974873e+00 7.141731e+00 6.498911e+00 9.480514e+00 6.583753e+00 4.977263e+00 4.061192e+00 2.822195e+00 8.130534e+00
<GCONST> 1.948722e+02
<MIXTURE> 12 6.465040e-02
<MEAN> 39
 2.807356e+00 -9.172238e+00 3.785792e+01 2.927510e+01 -2.758250e-01 -4.243132e+01 -6.860901e+00 2.011725e+01 -4.073190e+01 -7.317163e+00 -3.276107e-01 1.379603e+00 9.945458e+01 -5.846980e+00 8.162852e+00 -8.619384e+00 1.568920e+00 2.306229e+00 5.098684e+00 1.837613e+00 -7.913172e+00 3.934839e+00 -3.547903e+00 -2.100237e+00 7.846016e-02 -2.037740e+01 -1.761747e+00 -1.409897e+00 -3.107890e+00 -4.190533e+00 -1.523226e+00 1.962187e+00 -3.164006e+00 -3.198957e+00 2.662127e+00 3.429859e-01 -1.386094e+00 -6.436790e-01 -6.580886e-02
<VARIANCE> 39
 5.197581e+01 1.372401e+02 2.361045e+02 1.735044e+02 2.627560e+02 3.259904e+02 4.810680e+02 3.609822e+02 3.076577e+02 3.276724e+02 2.546880e+02 2.077193e+02 2.562422e+02 8.846707e+00 2.316103e+01 2.631458e+01 2.450911e+01 2.663299e+01 3.869460e+01 4.696133e+01 4.066191e+01 4.401084e+01 4.077860e+01 2.648735e+01 2.252835e+01 2.440918e+01 1.316650e+00 3.924563e+00 2.954136e+00 2.989166e+00 3.762762e+00 4.613021e+00 5.911787e+00 6.198820e+00 5.189884e+00 5.298196e+00 4.310719e+00 4.293235e+00 7.003826e+00
<GCONST> 2.043542e+02
<MIXTURE> 13 6.262845e-02
<MEAN> 39
 3.646571e+00 -1.305631e+01 4.413896e+01 2.446897e+01 -2.493946e+00 -4.277160e+01 -7.018758e+00 2.065335e+01 -5.036230e+01 -2.711269e+00 -3.346707e+00 -3.473754e+00 1.131972e+02 -3.554103e+00 7.968846e+00 -5.440469e+00 5.742075e+00 3.478007e+00 4.471035e+00 5.542071e+00 -2.650142e+00 3.225568e+00 -2.688540e+00 8.654536e-01 -1.904755e-01 -1.873204e+01 -1.696223e+00 6.592083e-02 -3.625859e+00 -3.099758e+00 -6.490730e-01 2.562677e+00 -2.784945e+00 -3.466253e+00 4.092226e+00 -3.420304e-01 -1.308798e+00 -9.618223e-03 -2.203648e+00
<VARIANCE> 39
 5.476453e+01 1.265806e+02 3.133406e+02 2.281738e+02 2.767117e+02 3.268103e+02 4.497100e+02 3.743567e+02 4.224417e+02 4.545984e+02 3.059602e+02 2.451989e+02 2.518751e+02 1.129201e+01 1.860944e+01 2.276173e+01 2.344248e+01 2.447420e+01 3.378046e+01 3.269786e+01 3.206441e+01 4.280915e+01 3.402449e+01 2.810322e+01 2.454505e+01 2.322528e+01 1.280058e+00 3.670258e+00 3.670494e+00 3.340907e+00 3.728798e+00 5.134013e+00 5.884707e+00 7.551560e+00 6.808890e+00 7.161273e+00 4.590868e+00 5.292814e+00 5.213821e+00
<GCONST> 2.058585e+02
<MIXTURE> 14 4.881841e-02
<MEAN> 39
 -1.661159e+01 1.106028e+01 1.302260e+01 1.859805e+01 7.005482e-01 -9.613571e+00 -6.894821e+00 -3.617803e+00 -1.324454e+01 -7.248726e+00 -1.287679e+00 2.461298e+00 5.494824e+01 -5.312881e+00 -4.902507e-01 -9.105932e+00 -5.766074e+00 -1.882445e-01 6.074907e+00 -1.796410e+00 -2.978298e+00 6.109345e+00 8.542953e-01 -7.161051e-01 -5.804582e-01 -8.825450e+00 7.720709e-01 -4.191202e+00 1.917446e-01 -2.163360e+00 -1.304297e+00 -2.988018e+00 -1.179949e+00 2.745084e-01 -1.519284e+00 8.804181e-01 -9.165105e-01 -3.921910e-01 5.997014e+00
<VARIANCE> 39
 7.341283e+01 1.071130e+02 1.143756e+02 1.671634e+02 1.747085e+02 2.122068e+02 2.356263e+02 2.463867e+02 1.861599e+02 1.627531e+02 1.387505e+02 1.089315e+02 4.472077e+01 1.053670e+01 2.655656e+01 2.406829e+01 1.850240e+01 2.386769e+01 3.366772e+01 3.411308e+01 4.409742e+01 3.143748e+01 2.467579e+01 2.024466e+01 1.811377e+01 3.518494e+01 2.417466e+00 5.501366e+00 3.454733e+00 5.665452e+00 5.457509e+00 6.134643e+00 7.847913e+00 8.203002e+00 6.551853e+00 4.630371e+00 4.584328e+00 3.234452e+00 7.849418e+00
<GCONST> 1.990021e+02
<MIXTURE> 15 4.857214e-02
<MEAN> 39
 -1.103130e+01 1.810736e+01 1.867502e+01 1.970788e+01 -1.713735e+00 -5.887649e+00 -6.009009e+00 -1.251748e+01 -1.706676e+01 -8.419097e+00 -7.197189e+00 -5.320189e+00 5.711806e+01 -6.360880e+00 -4.652665e+00 -1.308126e+01 -3.496772e+00 3.491351e+00 8.952653e-01 -8.579215e+00 4.171199e+00 4.732670e-01 -3.974842e+00 1.694664e-01 -1.430082e+00 -9.217295e+00 -4.577124e-01 -4.628077e+00 -6.092643e-01 -2.951100e+00 -2.755879e+00 -2.879362e+00 7.444201e-01 -1.362499e+00 6.611630e-01 1.453289e+00 -3.238170e-01 1.460989e+00 6.911279e+00
<VARIANCE> 39
 6.873004e+01 1.046926e+02 1.039688e+02 1.233758e+02 1.491383e+02 1.721324e+02 1.876158e+02 1.745437e+02 1.941613e+02 1.732769e+02 1.424053e+02 1.168057e+02 3.460866e+01 8.330861e+00 4.058935e+01 1.679519e+01 2.404122e+01 2.257224e+01 3.361991e+01 3.329449e+01 3.803797e+01 3.693467e+01 2.294611e+01 1.945382e+01 1.927279e+01 6.720602e+01 2.878929e+00 4.942400e+00 3.941216e+00 4.302441e+00 4.164148e+00 5.034420e+00 6.333900e+00 6.948976e+00 7.107021e+00 4.494335e+00 3.954986e+00 3.336513e+00 7.403050e+00
<GCONST> 1.970902e+02
<MIXTURE> 16 4.661336e-02
<MEAN> 39
 -1.210709e+01 1.670670e+01 1.518391e+01 1.557622e+01 -5.399016e+00 -1.226545e+01 -1.439417e+01 -1.936314e+01 -2.388772e+01 -1.497982e+01 -1.048938e+01 -4.991849e+00 5.571599e+01 -6.925394e+00 -3.400147e+00 -1.316740e+01 -4.828061e+00 2.361002e+00 8.051642e-01 -9.919777e+00 2.057781e+00 -2.204113e-01 -4.863441e+00 -9.196319e-01 -2.104903e+00 -1.085540e+01 1.262957e-02 -4.486892e+00 -7.198921e-02 -2.502910e+00 -2.087164e+00 -2.132692e+00 2.020123e+00 -4.540824e-01 1.676708e+00 2.303668e+00 1.509819e-01 1.415350e+00 6.939831e+00
<VARIANCE> 39
 4.282917e+01 5.888266e+01 6.684728e+01 8.310951e+01 1.247547e+02 1.790716e+02 1.817719e+02 1.816833e+02 2.131100e+02 1.773105e+02 1.415002e+02 1.034718e+02 2.586590e+01 5.503285e+00 3.818461e+01 1.452091e+01 2.072000e+01 2.125088e+01 3.722134e+01 2.720649e+01 4.655509e+01 3.305859e+01 2.067474e+01 1.808035e+01 1.559032e+01 5.341297e+01 1.909456e+00 3.804059e+00 2.957724e+00 3.785045e+00 4.341276e+00 5.097019e+00 5.744945e+00 8.388395e+00 6.536011e+00 4.514782e+00 3.599504e+00 3.053187e+00 7.080614e+00
<GCONST> 1.920639e+02
<STATE> 3
<NUMMIXES> 16
<MIXTURE> 1 3.704711e-02
<MEAN> 39
 -1.926575e+01 1.101613e+01 7.071698e+00 1.023251e+01 -2.210671e+00 -6.915269e+00 -8.917504e+00 -7.392924e+00 -8.914017e+00 -3.513166e+00 -9.423683e-01 3.514623e+00 5.246978e+01 -1.623229e-01 -4.568508e+00 -4.818219e+00 -6.976482e-01 2.439939e+00 3.070926e+00 2.718678e+00 5.764863e+00 6.630351e+00 5.520695e+00 3.403201e+00 2.215387e+00 6.627259e+00 1.268917e+00 -1.059110e+00 1.505771e+00 1.497863e+00 7.956621e-02 -8.161091e-01 1.452770e+00 1.031257e+00 1.524069e-01 1.315371e+00 3.541144e-01 7.692230e-01 6.231398e+00
<VARIANCE> 39
 5.365222e+01 7.971729e+01 7.038442e+01 7.738644e+01 8.237056e+01 1.115930e+02 1.332911e+02 1.258242e+02 1.245493e+02 1.116721e+02 8.390768e+01 7.625273e+01 2.929929e+01 1.452822e+01 3.545710e+01 2.462001e+01 1.686214e+01 1.752701e+01 2.219904e+01 2.136762e+01 1.645791e+01 1.778836e+01 1.773111e+01 1.805406e+01 1.179214e+01 7.134377e+01 3.500531e+00 4.224830e+00 5.077921e+00 3.299055e+00 5.444800e+00 4.664021e+00 6.513856e+00 6.043365e+00 4.478452e+00 4.023495e+00 2.599463e+00 2.407664e+00 7.328118e+00
<GCONST> 1.877948e+02
<MIXTURE> 2 5.603970e-02
<MEAN> 39
 -9.624630e+00 -1.571286e+01 -1.105751e+01 1.034427e+01 6.136215e+00 -3.082554e+00 -7.323643e+00 2.552838e+00 -3.044569e+00 6.255593e+00 -1.365181e+00 3.481997e+00 8.608962e+01 3.374977e-01 -3.942965e+00 -4.671641e+00 1.023275e+00 2.145616e+00 4.178434e-01 -1.252401e-01 3.312549e+00 3.695617e+00 4.492384e+00 1.176944e+00 1.445933e+00 1.518820e+01 -2.011554e+00 3.054400e+00 3.367876e+00 1.613221e+00 -4.626046e-01 -1.098444e+00 9.284114e-01 8.225806e-01 1.603946e-02 -2.335683e-01 2.046063e-01 7.417747e-01 1.422824e+00
<VARIANCE> 39
 2.075112e+02 2.228174e+02 2.827292e+02 2.262648e+02 2.318596e+02 2.375175e+02 2.403053e+02 1.883391e+02 1.583892e+02 1.329650e+02 1.020058e+02 9.462177e+01 2.582370e+02 2.771764e+01 2.655669e+01 2.511538e+01 2.263424e+01 2.579686e+01 2.603102e+01 2.445351e+01 2.469529e+01 2.354260e+01 1.966239e+01 1.560444e+01 1.173889e+01 5.517262e+01 6.752700e+00 4.320264e+00 5.680225e+00 5.016430e+00 4.587620e+00 5.086462e+00 5.232519e+00 5.265724e+00 3.898355e+00 3.702766e+00 2.540386e+00 2.541755e+00 4.902966e+00
<GCONST> 2.003348e+02
<MIXTURE> 3 1.153969e-01
<MEAN> 39
 -2.525786e+01 5.993695e+00 1.095562e+00 5.174830e+00 -2.193332e+00 -2.924059e+00 -4.404116e+00 -7.716068e-01 -4.398072e-02 4.143656e+00 4.986698e+00 6.057934e+00 4.817545e+01 2.556338e+00 -3.110514e+00 -3.572031e+00 4.863513e-01 1.679815e+00 1.041563e+00 -2.332318e-01 1.909586e+00 2.351896e+00 2.086728e+00 5.249302e-01 9.873059e-01 7.932767e+00 1.355324e+00 -4.892056e-01 8.000791e-01 1.867354e+00 3.306991e-01 -6.907483e-01 3.749845e-01 4.273496e-01 -3.149699e-01 2.393095e-01 -2.919034e-01 2.982102e-01 5.263768e+00
<VARIANCE> 39
 2.150717e+01 2.839957e+01 3.407341e+01 4.495091e+01 5.859189e+01 7.668671e+01 8.509320e+01 9.232012e+01 8.618200e+01 8.131367e+01 7.726810e+01 7.043583e+01 1.295583e+01 1.716468e+01 2.307342e+01 1.858236e+01 1.620768e+01 1.328027e+01 1.697938e+01 1.651574e+01 1.350756e+01 1.312448e+01 1.354490e+01 1.157803e+01 9.180612e+00 7.006762e+01 3.565523e+00 2.565423e+00 3.166511e+00 2.270838e+00 3.495191e+00 3.980715e+00 3.481349e+00 3.452060e+00 3.278189e+00 2.672545e+00 2.313875e+00 2.015341e+00 5.103832e+00
<GCONST> 1.740804e+02
<MIXTURE> 4 3.880271e-02
<MEAN> 39
 -1.840369e+01 -1.151649e+01 2.179129e+00 1.901403e+01 8.047265e+00 -6.951409e+00 -4.785700e+00 8.803040e+00 -2.346997e+00 2.919806e+00 -1.665018e+00 6.727973e+00 8.376755e+01 -3.079757e+00 -5.961908e+00 -8.233797e+00 -3.598170e+00 -2.754279e-01 -1.335706e+00 -3.229525e+00 1.104163e+00 4.076227e+00 2.287912e+00 -1.210283e-01 1.707946e+00 1.137089e+01 -1.199043e-02 2.183212e+00 3.107682e+00 7.500086e-01 -7.394264e-01 -1.239586e+00 1.365823e+00 9.314656e-01 -5.631766e-01 7.311050e-01 5.260869e-01 4.459149e-01 4.385768e+00
<VARIANCE> 39
 1.698848e+02 3.095346e+02 2.312359e+02 2.161169e+02 2.426399e+02 2.872179e+02 2.691479e+02 2.358263e+02 2.046725e+02 1.550658e+02 1.503474e+02 1.121009e+02 3.972191e+02 3.750015e+01 3.127275e+01 2.638996e+01 2.451170e+01 2.377587e+01 3.260622e+01 2.258225e+01 2.863761e+01 3.098741e+01 2.125959e+01 1.873728e+01 1.548367e+01 6.132447e+01 5.638162e+00 6.192529e+00 5.249413e+00 5.136268e+00 5.896510e+00 7.743202e+00 7.097871e+00 6.930297e+00 5.724114e+00 4.844979e+00 3.821309e+00 3.352715e+00 7.553353e+00
<GCONST> 2.070593e+02
<MIXTURE> 5 1.140690e-01
<MEAN> 39
 -2.577434e+01 5.610900e+00 5.947207e-01 4.616563e+00 -2.975002e+00 -3.973647e+00 -4.833875e+00 -1.198401e+00 -8.397005e-01 3.706665e+00 4.573184e+00 5.683426e+00 4.799093e+01 1.939288e+00 -3.115970e+00 -3.994310e+00 -5.936090e-01 8.405380e-01 -1.825524e-01 -2.003512e+00 2.481782e-01 6.433610e-01 3.438674e-01 -6.447138e-01 3.946296e-01 6.957177e+00 1.416645e+00 -4.219601e-01 9.622769e-01 1.727352e+00 1.965584e-01 -5.163901e-01 6.139436e-01 2.920488e-01 -1.720636e-01 4.050581e-01 -2.497956e-01 2.434540e-01 5.091515e+00
<VARIANCE> 39
 1.780793e+01 2.624670e+01 3.052573e+01 4.541588e+01 5.951011e+01 7.556531e+01 8.845969e+01 9.385726e+01 8.464703e+01 8.104790e+01 7.585046e+01 6.960100e+01 1.295583e+01 1.736930e+01 2.413318e+01 1.848972e+01 1.720802e+01 1.439760e+01 1.770464e+01 1.681233e+01 1.399945e+01 1.400085e+01 1.310742e+01 1.145424e+01 1.008484e+01 7.268839e+01 3.165249e+00 2.282178e+00 3.275007e+00 2.393806e+00 3.650343e+00 3.805151e+00 3.820146e+00 3.070050e+00 3.048236e+00 2.554888e+00 2.141507e+00 1.922807e+00 4.877087e+00
<GCONST> 1.736938e+02
<MIXTURE> 6 4.426805e-02
<MEAN> 39
 -1.299766e+01 -1.197765e+01 -4.852356e+00 9.271927e+00 8.087264e+00 -1.648857e+00 -5.236336e+00 3.500174e+00 -2.452789e+00 7.789686e+00 -1.348555e-01 3.526714e+00 8.249046e+01 1.582893e-01 -3.450901e+00 -4.061305e+00 -3.735397e-01 2.082105e+00 -1.157773e+00 -2.546316e+00 1.739947e-01 1.046750e+00 2.331460e+00 -6.538627e-01 4.672408e-04 1.319175e+01 -1.363003e+00 2.398025e+00 2.542949e+00 1.429643e+00 -3.354263e-01 -1.306191e+00 4.880819e-01 9.027736e-01 2.657917e-01 -3.858916e-01 5.239147e-02 5.675206e-01 1.696957e+00
<VARIANCE> 39
 2.556101e+02 2.625608e+02 3.123630e+02 2.498239e+02 2.324216e+02 2.513109e+02 2.789699e+02 2.344969e+02 1.699341e+02 1.326349e+02 1.171824e+02 9.492896e+01 3.193525e+02 3.012286e+01 2.622357e+01 2.442406e+01 2.556649e+01 2.520833e+01 3.096523e+01 2.198100e+01 2.247727e+01 1.902350e+01 1.786365e+01 1.561535e+01 1.173221e+01 8.034098e+01 9.277222e+00 5.130910e+00 6.353915e+00 5.219309e+00 4.513881e+00 5.306345e+00 5.005713e+00 5.282759e+00 4.432148e+00 3.419535e+00 2.905381e+00 2.437001e+00 5.623050e+00
<GCONST> 2.028410e+02
<MIXTURE> 7 5.645725e-02
<MEAN> 39
 -2.098734e+01 9.889179e+00 5.698811e+00 9.004943e+00 -2.091424e+00 -5.917588e+00 -8.762251e+00 -6.802163e+00 -7.868763e+00 -3.245407e+00 -1.287372e+00 2.805482e+00 5.128652e+01 -4.935293e-01 -5.446200e+00 -6.540536e+00 -2.350269e+00 1.671229e+00 1.662052e+00 -6.061178e-02 3.769709e+00 4.598987e+00 3.644211e+00 1.496434e+00 1.566214e+00 6.478122e+00 1.492843e+00 -1.243872e+00 1.764332e+00 1.492245e+00 4.157761e-02 -1.163137e+00 1.570930e+00 1.152707e+00 1.420413e-01 1.499021e+00 3.434640e-01 9.436892e-01 6.863842e+00
<VARIANCE> 39
 3.535780e+01 6.006912e+01 5.599384e+01 6.493173e+01 7.501953e+01 1.022239e+02 1.205767e+02 1.215394e+02 1.183110e+02 1.140984e+02 8.847769e+01 8.211808e+01 2.179785e+01 1.448985e+01 3.579831e+01 2.484575e+01 1.957126e+01 1.872256e+01 2.097039e+01 2.285998e+01 1.847256e+01 1.711775e+01 1.929160e+01 1.462738e+01 1.225767e+01 7.509925e+01 3.265695e+00 3.886747e+00 4.353721e+00 3.189497e+00 5.322851e+00 5.084638e+00 6.345303e+00 6.413477e+00 4.860781e+00 4.243409e+00 2.697299e+00 2.602386e+00 7.698243e+00
<GCONST> 1.865141e+02
<MIXTURE> 8 3.790690e-02
<MEAN> 39
 -1.765673e+01 -5.612433e+00 7.388740e+00 2.022286e+01 1.158921e+01 -2.531148e+00 -7.220294e-01 1.068255e+01 -1.538646e+00 5.154739e+00 4.784305e-01 7.112899e+00 8.108099e+01 -4.378899e+00 -7.395183e+00 -9.985954e+00 -5.741336e+00 -5.134007e-01 -1.766477e+00 -5.289167e+00 -1.211472e+00 3.184450e+00 9.559562e-01 -1.972127e+00 8.877134e-01 1.050653e+01 -7.705250e-02 1.213457e+00 2.766236e+00 4.663474e-01 -1.167136e+00 -2.291575e+00 7.815260e-01 8.585732e-01 -9.442279e-01 2.995796e-01 3.383349e-01 4.042940e-01 5.481052e+00
<VARIANCE> 39
 1.566727e+02 3.777957e+02 2.474465e+02 2.274349e+02 2.306918e+02 2.902563e+02 2.941924e+02 2.129754e+02 2.002055e+02 1.447654e+02 1.711987e+02 1.142732e+02 4.444012e+02 3.415940e+01 3.218494e+01 2.506132e+01 2.574061e+01 2.198106e+01 3.481579e+01 2.210964e+01 3.085970e+01 3.763842e+01 2.154700e+01 2.013507e+01 1.603830e+01 5.843310e+01 6.063301e+00 7.031765e+00 5.276715e+00 5.560595e+00 6.299829e+00 7.586288e+00 7.685849e+00 7.591109e+00 5.834231e+00 4.975785e+00 4.423172e+00 3.953039e+00 8.497093e+00
<GCONST> 2.086292e+02
<MIXTURE> 9 1.153969e-01
<MEAN> 39
 -2.711290e+01 3.862045e+00 -1.239336e+00 2.493013e+00 -5.255146e+00 -6.426897e+00 -8.093955e+00 -4.614941e+00 -3.757351e+00 5.366921e-01 1.470606e+00 2.700892e+00 4.673569e+01 8.991264e-01 -5.031906e+00 -5.296321e+00 -1.123999e+00 2.221306e-01 -6.066788e-01 -1.858814e+00 4.394804e-01 9.027866e-01 6.145920e-01 -8.361299e-01 -2.246751e-01 4.584511e+00 6.000198e-01 -1.129883e+00 8.829132e-02 1.264582e+00 -4.171182e-01 -1.488818e+00 -3.713504e-01 -3.158392e-01 -1.039201e+00 -4.146073e-01 -9.003605e-01 -2.696406e-01 4.360102e+00
<VARIANCE> 39
 2.150717e+01 2.839957e+01 3.407341e+01 4.495091e+01 5.859189e+01 7.668671e+01 8.509320e+01 9.232012e+01 8.618200e+01 8.131367e+01 7.726810e+01 7.043583e+01 1.295583e+01 1.716468e+01 2.307342e+01 1.858236e+01 1.620768e+01 1.328027e+01 1.697938e+01 1.651574e+01 1.350756e+01 1.312448e+01 1.354490e+01 1.157803e+01 9.180612e+00 7.006762e+01 3.565523e+00 2.565423e+00 3.166511e+00 2.270838e+00 3.495191e+00 3.980715e+00 3.481349e+00 3.452060e+00 3.278189e+00 2.672545e+00 2.313875e+00 2.015341e+00 5.103832e+00
<GCONST> 1.740804e+02
<MIXTURE> 10 1.140690e-01
<MEAN> 39
